<?xml version="1.0"?>
<opencv_storage>
<opencv_ml_boost>
  <format>3</format>
  <is_classifier>1</is_classifier>
  <var_all>137</var_all>
  <var_count>136</var_count>
  <ord_var_count>136</ord_var_count>
  <cat_var_count>1</cat_var_count>
  <training_params>
    <boosting_type>RealAdaboost</boosting_type>
    <use_surrogates>0</use_surrogates>
    <max_categories>10</max_categories>
    <regression_accuracy>9.9999997764825821e-03</regression_accuracy>
    <max_depth>1</max_depth>
    <min_sample_count>10</min_sample_count>
    <cross_validation_folds>0</cross_validation_folds>
    <weight_trimming_rate>9.4999999999999996e-01</weight_trimming_rate></training_params>
  <global_var_idx>1</global_var_idx>
  <var_idx>
    0 1 2 3 4 5 6 7 8 9 10 11 12 13 14 15 16 17 18 19 20 21 22 23 24 25
    26 27 28 29 30 31 32 33 34 35 36 37 38 39 40 41 42 43 44 45 46 47 48
    49 50 51 52 53 54 55 56 57 58 59 60 61 62 63 64 65 66 67 68 69 70 71
    72 73 74 75 76 77 78 79 80 81 82 83 84 85 86 87 88 89 90 91 92 93 94
    95 96 97 98 99 100 101 102 103 104 105 106 107 108 109 110 111 112
    113 114 115 116 117 118 119 120 121 122 123 124 125 126 127 128 129
    130 131 132 133 134 135</var_idx>
  <var_type>
    0 0 0 0 0 0 0 0 0 0 0 0 0 0 0 0 0 0 0 0 0 0 0 0 0 0 0 0 0 0 0 0 0 0
    0 0 0 0 0 0 0 0 0 0 0 0 0 0 0 0 0 0 0 0 0 0 0 0 0 0 0 0 0 0 0 0 0 0
    0 0 0 0 0 0 0 0 0 0 0 0 0 0 0 0 0 0 0 0 0 0 0 0 0 0 0 0 0 0 0 0 0 0
    0 0 0 0 0 0 0 0 0 0 0 0 0 0 0 0 0 0 0 0 0 0 0 0 0 0 0 0 0 0 0 0 0 0
    1</var_type>
  <cat_ofs>
    0 0 0 0 0 0 0 0 0 0 0 0 0 0 0 0 0 0 0 0 0 0 0 0 0 0 0 0 0 0 0 0 0 0
    0 0 0 0 0 0 0 0 0 0 0 0 0 0 0 0 0 0 0 0 0 0 0 0 0 0 0 0 0 0 0 0 0 0
    0 0 0 0 0 0 0 0 0 0 0 0 0 0 0 0 0 0 0 0 0 0 0 0 0 0 0 0 0 0 0 0 0 0
    0 0 0 0 0 0 0 0 0 0 0 0 0 0 0 0 0 0 0 0 0 0 0 0 0 0 0 0 0 0 0 0 0 0
    0 0 0 0 0 0 0 0 0 0 0 0 0 0 0 0 0 0 0 0 0 0 0 0 0 0 0 0 0 0 0 0 0 0
    0 0 0 0 0 0 0 0 0 0 0 0 0 0 0 0 0 0 0 0 0 0 0 0 0 0 0 0 0 0 0 0 0 0
    0 0 0 0 0 0 0 0 0 0 0 0 0 0 0 0 0 0 0 0 0 0 0 0 0 0 0 0 0 0 0 0 0 0
    0 0 0 0 0 0 0 0 0 0 0 0 0 0 0 0 0 0 0 0 0 0 0 0 0 0 0 0 0 0 0 0 0 0</cat_ofs>
  <class_labels>
    -1082130432 1065353216</class_labels>
  <missing_subst>
    0. 0. 0. 0. 0. 0. 0. 0. 0. 0. 0. 0. 0. 0. 0. 0. 0. 0. 0. 0. 0. 0. 0.
    0. 0. 0. 0. 0. 0. 0. 0. 0. 0. 0. 0. 0. 0. 0. 0. 0. 0. 0. 0. 0. 0. 0.
    0. 0. 0. 0. 0. 0. 0. 0. 0. 0. 0. 0. 0. 0. 0. 0. 0. 0. 0. 0. 0. 0. 0.
    0. 0. 0. 0. 0. 0. 0. 0. 0. 0. 0. 0. 0. 0. 0. 0. 0. 0. 0. 0. 0. 0. 0.
    0. 0. 0. 0. 0. 0. 0. 0. 0. 0. 0. 0. 0. 0. 0. 0. 0. 0. 0. 0. 0. 0. 0.
    0. 0. 0. 0. 0. 0. 0. 0. 0. 0. 0. 0. 0. 0. 0. 0. 0. 0. 0. 0. 0. 0.</missing_subst>
  <ntrees>100</ntrees>
  <trees>
    <_>
      <nodes>
        <_>
          <depth>0</depth>
          <value>-1.3664674222090438e+00</value>
          <splits>
            <_><var>119</var>
              <quality>7.9900139570236206e-01</quality>
              <le>-3.4391398429870605e+00</le></_></splits></_>
        <_>
          <depth>1</depth>
          <value>-7.3948573782259897e-01</value></_>
        <_>
          <depth>1</depth>
          <value>-2.7340300705675675e+00</value></_></nodes></_>
    <_>
      <nodes>
        <_>
          <depth>0</depth>
          <value>-1.4545380445167393e-08</value>
          <splits>
            <_><var>128</var>
              <quality>4.3528863787651062e-01</quality>
              <le>-1.2143650054931641e+00</le></_></splits></_>
        <_>
          <depth>1</depth>
          <value>6.2833434326864834e-01</value></_>
        <_>
          <depth>1</depth>
          <value>-1.0495262445508209e+00</value></_></nodes></_>
    <_>
      <nodes>
        <_>
          <depth>0</depth>
          <value>4.4444103465394610e-02</value>
          <splits>
            <_><var>52</var>
              <quality>3.1681680679321289e-01</quality>
              <le>2.2842401266098022e-01</le></_></splits></_>
        <_>
          <depth>1</depth>
          <value>-1.0159748995595661e+00</value></_>
        <_>
          <depth>1</depth>
          <value>4.8365470822632034e-01</value></_></nodes></_>
    <_>
      <nodes>
        <_>
          <depth>0</depth>
          <value>-4.9280155754719412e-09</value>
          <splits>
            <_><var>44</var>
              <quality>3.1029877066612244e-01</quality>
              <le>-2.4345400929450989e-01</le></_></splits></_>
        <_>
          <depth>1</depth>
          <value>-6.0180395913408269e-01</value></_>
        <_>
          <depth>1</depth>
          <value>6.8880825468537943e-01</value></_></nodes></_>
    <_>
      <nodes>
        <_>
          <depth>0</depth>
          <value>-2.2625001370958697e-02</value>
          <splits>
            <_><var>10</var>
              <quality>2.3245970904827118e-01</quality>
              <le>-1.7497400045394897e+00</le></_></splits></_>
        <_>
          <depth>1</depth>
          <value>-1.1276993023972062e+00</value></_>
        <_>
          <depth>1</depth>
          <value>2.9443281861090675e-01</value></_></nodes></_>
    <_>
      <nodes>
        <_>
          <depth>0</depth>
          <value>-1.8953708968385965e-02</value>
          <splits>
            <_><var>34</var>
              <quality>2.0084987580776215e-01</quality>
              <le>-1.2785300016403198e+00</le></_></splits></_>
        <_>
          <depth>1</depth>
          <value>4.3137724905551506e-01</value></_>
        <_>
          <depth>1</depth>
          <value>-5.6854755293965875e-01</value></_></nodes></_>
    <_>
      <nodes>
        <_>
          <depth>0</depth>
          <value>1.4569824230787566e-02</value>
          <splits>
            <_><var>15</var>
              <quality>1.9708918035030365e-01</quality>
              <le>-1.1164949417114258e+01</le></_></splits></_>
        <_>
          <depth>1</depth>
          <value>-2.4345699959358482e+00</value></_>
        <_>
          <depth>1</depth>
          <value>2.2549024450402883e-01</value></_></nodes></_>
    <_>
      <nodes>
        <_>
          <depth>0</depth>
          <value>-2.0610418411206734e-02</value>
          <splits>
            <_><var>89</var>
              <quality>3.9340075850486755e-01</quality>
              <le>2.0964600145816803e-01</le></_></splits></_>
        <_>
          <depth>1</depth>
          <value>-6.8035740019127100e-01</value></_>
        <_>
          <depth>1</depth>
          <value>8.7275453579578111e-01</value></_></nodes></_>
    <_>
      <nodes>
        <_>
          <depth>0</depth>
          <value>-6.7007106068575567e-03</value>
          <splits>
            <_><var>135</var>
              <quality>2.2364722192287445e-01</quality>
              <le>-4.9292697906494141e+00</le></_></splits></_>
        <_>
          <depth>1</depth>
          <value>2.9050394723178502e-01</value></_>
        <_>
          <depth>1</depth>
          <value>-1.1474309434731158e+00</value></_></nodes></_>
    <_>
      <nodes>
        <_>
          <depth>0</depth>
          <value>1.9679726768466438e-02</value>
          <splits>
            <_><var>40</var>
              <quality>2.6555705070495605e-01</quality>
              <le>8.5018150508403778e-02</le></_></splits></_>
        <_>
          <depth>1</depth>
          <value>5.6985598160489348e-01</value></_>
        <_>
          <depth>1</depth>
          <value>-6.0882950132021285e-01</value></_></nodes></_>
    <_>
      <nodes>
        <_>
          <depth>0</depth>
          <value>-2.0261166932134578e-02</value>
          <splits>
            <_><var>96</var>
              <quality>1.9161874055862427e-01</quality>
              <le>7.0165252685546875e-01</le></_></splits></_>
        <_>
          <depth>1</depth>
          <value>-7.9617861451107730e-01</value></_>
        <_>
          <depth>1</depth>
          <value>3.0238848845520866e-01</value></_></nodes></_>
    <_>
      <nodes>
        <_>
          <depth>0</depth>
          <value>9.7519811235661120e-03</value>
          <splits>
            <_><var>121</var>
              <quality>2.5929677486419678e-01</quality>
              <le>-8.4487900137901306e-02</le></_></splits></_>
        <_>
          <depth>1</depth>
          <value>5.0050149973115554e-01</value></_>
        <_>
          <depth>1</depth>
          <value>-6.8177729172473900e-01</value></_></nodes></_>
    <_>
      <nodes>
        <_>
          <depth>0</depth>
          <value>-6.2469102911505399e-03</value>
          <splits>
            <_><var>22</var>
              <quality>2.1330086886882782e-01</quality>
              <le>2.0280051231384277e+00</le></_></splits></_>
        <_>
          <depth>1</depth>
          <value>2.7504498228628727e-01</value></_>
        <_>
          <depth>1</depth>
          <value>-1.1634920866805054e+00</value></_></nodes></_>
    <_>
      <nodes>
        <_>
          <depth>0</depth>
          <value>-4.7367300469057664e-03</value>
          <splits>
            <_><var>45</var>
              <quality>2.0704010128974915e-01</quality>
              <le>2.5062400102615356e-01</le></_></splits></_>
        <_>
          <depth>1</depth>
          <value>-5.8403852137508361e-01</value></_>
        <_>
          <depth>1</depth>
          <value>4.3967209705721033e-01</value></_></nodes></_>
    <_>
      <nodes>
        <_>
          <depth>0</depth>
          <value>-3.3364737994970323e-03</value>
          <splits>
            <_><var>17</var>
              <quality>2.1512119472026825e-01</quality>
              <le>-6.2419748306274414e+00</le></_></splits></_>
        <_>
          <depth>1</depth>
          <value>-7.3519985844147262e-01</value></_>
        <_>
          <depth>1</depth>
          <value>3.7680636000065532e-01</value></_></nodes></_>
    <_>
      <nodes>
        <_>
          <depth>0</depth>
          <value>-1.5621242586182216e-02</value>
          <splits>
            <_><var>40</var>
              <quality>1.7045730352401733e-01</quality>
              <le>-1.9274100065231323e+00</le></_></splits></_>
        <_>
          <depth>1</depth>
          <value>7.3017691272588703e-01</value></_>
        <_>
          <depth>1</depth>
          <value>-3.0526628672001155e-01</value></_></nodes></_>
    <_>
      <nodes>
        <_>
          <depth>0</depth>
          <value>-1.0442249134536229e-03</value>
          <splits>
            <_><var>135</var>
              <quality>1.7888976633548737e-01</quality>
              <le>-1.0719449996948242e+01</le></_></splits></_>
        <_>
          <depth>1</depth>
          <value>5.0308758506340778e-01</value></_>
        <_>
          <depth>1</depth>
          <value>-4.3025554097355845e-01</value></_></nodes></_>
    <_>
      <nodes>
        <_>
          <depth>0</depth>
          <value>-2.1039828173611171e-03</value>
          <splits>
            <_><var>52</var>
              <quality>1.6898430883884430e-01</quality>
              <le>6.5768396854400635e-01</le></_></splits></_>
        <_>
          <depth>1</depth>
          <value>-7.3714600760276627e-01</value></_>
        <_>
          <depth>1</depth>
          <value>2.9027702628108093e-01</value></_></nodes></_>
    <_>
      <nodes>
        <_>
          <depth>0</depth>
          <value>4.4332348755650175e-03</value>
          <splits>
            <_><var>128</var>
              <quality>2.0615506172180176e-01</quality>
              <le>-1.0160349607467651e+00</le></_></splits></_>
        <_>
          <depth>1</depth>
          <value>3.5950296394873632e-01</value></_>
        <_>
          <depth>1</depth>
          <value>-7.4656894005576135e-01</value></_></nodes></_>
    <_>
      <nodes>
        <_>
          <depth>0</depth>
          <value>2.4018507415196886e-03</value>
          <splits>
            <_><var>45</var>
              <quality>1.9222132861614227e-01</quality>
              <le>2.0493350028991699e+00</le></_></splits></_>
        <_>
          <depth>1</depth>
          <value>-4.6385540973889361e-01</value></_>
        <_>
          <depth>1</depth>
          <value>5.0614292834866070e-01</value></_></nodes></_>
    <_>
      <nodes>
        <_>
          <depth>0</depth>
          <value>-8.3981416642452730e-03</value>
          <splits>
            <_><var>42</var>
              <quality>2.3952141404151917e-01</quality>
              <le>-1.6727099418640137e+00</le></_></splits></_>
        <_>
          <depth>1</depth>
          <value>7.3238046202907470e-01</value></_>
        <_>
          <depth>1</depth>
          <value>-4.3165885835469631e-01</value></_></nodes></_>
    <_>
      <nodes>
        <_>
          <depth>0</depth>
          <value>-5.2544662319896690e-03</value>
          <splits>
            <_><var>108</var>
              <quality>1.7589689791202545e-01</quality>
              <le>-4.6642451286315918e+00</le></_></splits></_>
        <_>
          <depth>1</depth>
          <value>5.2171106509523657e-01</value></_>
        <_>
          <depth>1</depth>
          <value>-4.0877677018496172e-01</value></_></nodes></_>
    <_>
      <nodes>
        <_>
          <depth>0</depth>
          <value>-2.7125892069522501e-03</value>
          <splits>
            <_><var>89</var>
              <quality>2.1358548104763031e-01</quality>
              <le>1.6040849685668945e+00</le></_></splits></_>
        <_>
          <depth>1</depth>
          <value>-3.6862461830929771e-01</value></_>
        <_>
          <depth>1</depth>
          <value>7.5743564681635656e-01</value></_></nodes></_>
    <_>
      <nodes>
        <_>
          <depth>0</depth>
          <value>-1.3087512464499743e-02</value>
          <splits>
            <_><var>5</var>
              <quality>1.6032320261001587e-01</quality>
              <le>-6.0810098648071289e+00</le></_></splits></_>
        <_>
          <depth>1</depth>
          <value>-2.3919604202326852e+00</value></_>
        <_>
          <depth>1</depth>
          <value>1.6152946794189640e-01</value></_></nodes></_>
    <_>
      <nodes>
        <_>
          <depth>0</depth>
          <value>6.5909123556351559e-03</value>
          <splits>
            <_><var>121</var>
              <quality>1.8212538957595825e-01</quality>
              <le>7.5674047470092773e+00</le></_></splits></_>
        <_>
          <depth>1</depth>
          <value>2.1363962763786748e-01</value></_>
        <_>
          <depth>1</depth>
          <value>-1.6860760988783259e+00</value></_></nodes></_>
    <_>
      <nodes>
        <_>
          <depth>0</depth>
          <value>-1.3886583152150586e-03</value>
          <splits>
            <_><var>96</var>
              <quality>1.6664269566535950e-01</quality>
              <le>3.9103250503540039e+00</le></_></splits></_>
        <_>
          <depth>1</depth>
          <value>-4.2168872037653454e-01</value></_>
        <_>
          <depth>1</depth>
          <value>4.7292923751128602e-01</value></_></nodes></_>
    <_>
      <nodes>
        <_>
          <depth>0</depth>
          <value>-4.9114672749960443e-04</value>
          <splits>
            <_><var>52</var>
              <quality>2.2477343678474426e-01</quality>
              <le>1.3090999126434326e+00</le></_></splits></_>
        <_>
          <depth>1</depth>
          <value>-6.0737441604984410e-01</value></_>
        <_>
          <depth>1</depth>
          <value>4.6759110758395800e-01</value></_></nodes></_>
    <_>
      <nodes>
        <_>
          <depth>0</depth>
          <value>-1.2253631373705038e-03</value>
          <splits>
            <_><var>8</var>
              <quality>1.4158472418785095e-01</quality>
              <le>5.6859397888183594e-01</le></_></splits></_>
        <_>
          <depth>1</depth>
          <value>-4.5423238439392288e-01</value></_>
        <_>
          <depth>1</depth>
          <value>3.6552376583991897e-01</value></_></nodes></_>
    <_>
      <nodes>
        <_>
          <depth>0</depth>
          <value>-1.7751580350554427e-03</value>
          <splits>
            <_><var>121</var>
              <quality>2.0549182593822479e-01</quality>
              <le>-8.4487900137901306e-02</le></_></splits></_>
        <_>
          <depth>1</depth>
          <value>4.1903142941448246e-01</value></_>
        <_>
          <depth>1</depth>
          <value>-6.1165309547487279e-01</value></_></nodes></_>
    <_>
      <nodes>
        <_>
          <depth>0</depth>
          <value>-5.4467677683770997e-03</value>
          <splits>
            <_><var>25</var>
              <quality>1.9982954859733582e-01</quality>
              <le>1.2610099315643311e+00</le></_></splits></_>
        <_>
          <depth>1</depth>
          <value>-3.4613009251067312e-01</value></_>
        <_>
          <depth>1</depth>
          <value>7.5063163495405394e-01</value></_></nodes></_>
    <_>
      <nodes>
        <_>
          <depth>0</depth>
          <value>-9.0242857929680263e-03</value>
          <splits>
            <_><var>115</var>
              <quality>1.1598999798297882e-01</quality>
              <le>-2.6254148483276367e+00</le></_></splits></_>
        <_>
          <depth>1</depth>
          <value>1.5661275364000327e-01</value></_>
        <_>
          <depth>1</depth>
          <value>-9.7620916977254990e-01</value></_></nodes></_>
    <_>
      <nodes>
        <_>
          <depth>0</depth>
          <value>4.8542262610860431e-03</value>
          <splits>
            <_><var>44</var>
              <quality>1.8634124100208282e-01</quality>
              <le>1.4907150268554688e+00</le></_></splits></_>
        <_>
          <depth>1</depth>
          <value>-3.4570229049743195e-01</value></_>
        <_>
          <depth>1</depth>
          <value>6.7189915119075616e-01</value></_></nodes></_>
    <_>
      <nodes>
        <_>
          <depth>0</depth>
          <value>-7.4034607592389978e-03</value>
          <splits>
            <_><var>75</var>
              <quality>1.5318697690963745e-01</quality>
              <le>-1.6337100267410278e+00</le></_></splits></_>
        <_>
          <depth>1</depth>
          <value>-1.0726162664814280e+00</value></_>
        <_>
          <depth>1</depth>
          <value>2.0117490845536598e-01</value></_></nodes></_>
    <_>
      <nodes>
        <_>
          <depth>0</depth>
          <value>-1.9059771746172160e-03</value>
          <splits>
            <_><var>43</var>
              <quality>1.3271605968475342e-01</quality>
              <le>-2.5884599685668945e+00</le></_></splits></_>
        <_>
          <depth>1</depth>
          <value>-1.0835169284404569e+00</value></_>
        <_>
          <depth>1</depth>
          <value>1.7614811360467728e-01</value></_></nodes></_>
    <_>
      <nodes>
        <_>
          <depth>0</depth>
          <value>1.0755246541160519e-04</value>
          <splits>
            <_><var>108</var>
              <quality>1.9828225672245026e-01</quality>
              <le>-2.1733598709106445e+00</le></_></splits></_>
        <_>
          <depth>1</depth>
          <value>4.9737776190497218e-01</value></_>
        <_>
          <depth>1</depth>
          <value>-4.8949499866030349e-01</value></_></nodes></_>
    <_>
      <nodes>
        <_>
          <depth>0</depth>
          <value>-9.5390394050363734e-03</value>
          <splits>
            <_><var>37</var>
              <quality>1.8043799698352814e-01</quality>
              <le>-2.8570001125335693e+00</le></_></splits></_>
        <_>
          <depth>1</depth>
          <value>6.0089937781498126e-01</value></_>
        <_>
          <depth>1</depth>
          <value>-3.7288821478350120e-01</value></_></nodes></_>
    <_>
      <nodes>
        <_>
          <depth>0</depth>
          <value>-5.0120670646357146e-03</value>
          <splits>
            <_><var>33</var>
              <quality>1.7112939059734344e-01</quality>
              <le>9.3384146690368652e-01</le></_></splits></_>
        <_>
          <depth>1</depth>
          <value>3.0695483451062333e-01</value></_>
        <_>
          <depth>1</depth>
          <value>-6.9335983274101132e-01</value></_></nodes></_>
    <_>
      <nodes>
        <_>
          <depth>0</depth>
          <value>-6.4003822094904096e-04</value>
          <splits>
            <_><var>20</var>
              <quality>1.2410920113325119e-01</quality>
              <le>9.3062603473663330e-01</le></_></splits></_>
        <_>
          <depth>1</depth>
          <value>2.6832793148277956e-01</value></_>
        <_>
          <depth>1</depth>
          <value>-5.4669598132571084e-01</value></_></nodes></_>
    <_>
      <nodes>
        <_>
          <depth>0</depth>
          <value>-1.7082950956954820e-03</value>
          <splits>
            <_><var>75</var>
              <quality>1.5680173039436340e-01</quality>
              <le>1.5058950185775757e+00</le></_></splits></_>
        <_>
          <depth>1</depth>
          <value>-3.1207498537918116e-01</value></_>
        <_>
          <depth>1</depth>
          <value>6.1476037342683998e-01</value></_></nodes></_>
    <_>
      <nodes>
        <_>
          <depth>0</depth>
          <value>-1.9822159362376628e-03</value>
          <splits>
            <_><var>15</var>
              <quality>1.2488054484128952e-01</quality>
              <le>3.7643402814865112e-02</le></_></splits></_>
        <_>
          <depth>1</depth>
          <value>-2.2767048153146682e-01</value></_>
        <_>
          <depth>1</depth>
          <value>6.7865663191467440e-01</value></_></nodes></_>
    <_>
      <nodes>
        <_>
          <depth>0</depth>
          <value>-1.0282280422507990e-02</value>
          <splits>
            <_><var>22</var>
              <quality>1.7369568347930908e-01</quality>
              <le>-3.6589450836181641e+00</le></_></splits></_>
        <_>
          <depth>1</depth>
          <value>9.5070503029562459e-01</value></_>
        <_>
          <depth>1</depth>
          <value>-2.5953359595985676e-01</value></_></nodes></_>
    <_>
      <nodes>
        <_>
          <depth>0</depth>
          <value>-5.2857636109456723e-03</value>
          <splits>
            <_><var>4</var>
              <quality>1.3491953909397125e-01</quality>
              <le>3.7715401649475098e+00</le></_></splits></_>
        <_>
          <depth>1</depth>
          <value>1.3838176949061057e-01</value></_>
        <_>
          <depth>1</depth>
          <value>-5.7564577324601141e+00</value></_></nodes></_>
    <_>
      <nodes>
        <_>
          <depth>0</depth>
          <value>-1.8085701697664075e-03</value>
          <splits>
            <_><var>8</var>
              <quality>1.9140981137752533e-01</quality>
              <le>-2.0940299034118652e+00</le></_></splits></_>
        <_>
          <depth>1</depth>
          <value>-1.0650857042698789e+00</value></_>
        <_>
          <depth>1</depth>
          <value>2.6038262517945304e-01</value></_></nodes></_>
    <_>
      <nodes>
        <_>
          <depth>0</depth>
          <value>-2.3994961750441034e-03</value>
          <splits>
            <_><var>75</var>
              <quality>1.5828569233417511e-01</quality>
              <le>1.2871599197387695e+00</le></_></splits></_>
        <_>
          <depth>1</depth>
          <value>-3.5830299771744850e-01</value></_>
        <_>
          <depth>1</depth>
          <value>5.3065896455415784e-01</value></_></nodes></_>
    <_>
      <nodes>
        <_>
          <depth>0</depth>
          <value>-6.3919644051061342e-04</value>
          <splits>
            <_><var>106</var>
              <quality>1.8384766578674316e-01</quality>
              <le>-9.5061498880386353e-01</le></_></splits></_>
        <_>
          <depth>1</depth>
          <value>3.1021468378163830e-01</value></_>
        <_>
          <depth>1</depth>
          <value>-7.6355341616068539e-01</value></_></nodes></_>
    <_>
      <nodes>
        <_>
          <depth>0</depth>
          <value>-2.9635665675237298e-03</value>
          <splits>
            <_><var>42</var>
              <quality>1.7684252560138702e-01</quality>
              <le>-1.8985350131988525e+00</le></_></splits></_>
        <_>
          <depth>1</depth>
          <value>5.6155471378102106e-01</value></_>
        <_>
          <depth>1</depth>
          <value>-3.8446433040951006e-01</value></_></nodes></_>
    <_>
      <nodes>
        <_>
          <depth>0</depth>
          <value>1.6198053337923351e-04</value>
          <splits>
            <_><var>119</var>
              <quality>2.2378866374492645e-01</quality>
              <le>-4.7110748291015625e+00</le></_></splits></_>
        <_>
          <depth>1</depth>
          <value>4.4931514851123350e-01</value></_>
        <_>
          <depth>1</depth>
          <value>-6.3174651681353755e-01</value></_></nodes></_>
    <_>
      <nodes>
        <_>
          <depth>0</depth>
          <value>-6.5168584563316725e-03</value>
          <splits>
            <_><var>52</var>
              <quality>1.9990274310112000e-01</quality>
              <le>1.3107750415802002e+00</le></_></splits></_>
        <_>
          <depth>1</depth>
          <value>-6.2565700903207733e-01</value></_>
        <_>
          <depth>1</depth>
          <value>3.9660795029853707e-01</value></_></nodes></_>
    <_>
      <nodes>
        <_>
          <depth>0</depth>
          <value>9.6626093110810331e-04</value>
          <splits>
            <_><var>120</var>
              <quality>1.9963338971138000e-01</quality>
              <le>-5.5721652507781982e-01</le></_></splits></_>
        <_>
          <depth>1</depth>
          <value>-7.8097318649602199e-01</value></_>
        <_>
          <depth>1</depth>
          <value>3.3411750456061606e-01</value></_></nodes></_>
    <_>
      <nodes>
        <_>
          <depth>0</depth>
          <value>1.0810819479640408e-03</value>
          <splits>
            <_><var>34</var>
              <quality>1.3798724114894867e-01</quality>
              <le>5.5051445960998535e-01</le></_></splits></_>
        <_>
          <depth>1</depth>
          <value>1.5981884553718867e-01</value></_>
        <_>
          <depth>1</depth>
          <value>-1.6028457410955623e+00</value></_></nodes></_>
    <_>
      <nodes>
        <_>
          <depth>0</depth>
          <value>-4.4902307755438726e-03</value>
          <splits>
            <_><var>78</var>
              <quality>1.4848797023296356e-01</quality>
              <le>3.9165848493576050e-01</le></_></splits></_>
        <_>
          <depth>1</depth>
          <value>-3.3509553119867447e-01</value></_>
        <_>
          <depth>1</depth>
          <value>5.3088580274791186e-01</value></_></nodes></_>
    <_>
      <nodes>
        <_>
          <depth>0</depth>
          <value>-4.6053744825332657e-03</value>
          <splits>
            <_><var>97</var>
              <quality>1.4898899197578430e-01</quality>
              <le>6.1906399726867676e+00</le></_></splits></_>
        <_>
          <depth>1</depth>
          <value>2.1214659395070848e-01</value></_>
        <_>
          <depth>1</depth>
          <value>-9.4753577937961841e-01</value></_></nodes></_>
    <_>
      <nodes>
        <_>
          <depth>0</depth>
          <value>-5.8729559838852875e-03</value>
          <splits>
            <_><var>8</var>
              <quality>1.5963283181190491e-01</quality>
              <le>5.6859397888183594e-01</le></_></splits></_>
        <_>
          <depth>1</depth>
          <value>-4.1112435068920367e-01</value></_>
        <_>
          <depth>1</depth>
          <value>4.6162889515294453e-01</value></_></nodes></_>
    <_>
      <nodes>
        <_>
          <depth>0</depth>
          <value>-3.4828732641667744e-03</value>
          <splits>
            <_><var>37</var>
              <quality>1.3527485728263855e-01</quality>
              <le>-1.7397450208663940e+00</le></_></splits></_>
        <_>
          <depth>1</depth>
          <value>3.3538135133891089e-01</value></_>
        <_>
          <depth>1</depth>
          <value>-4.7128718142471349e-01</value></_></nodes></_>
    <_>
      <nodes>
        <_>
          <depth>0</depth>
          <value>4.3251058593096623e-04</value>
          <splits>
            <_><var>57</var>
              <quality>1.5951912105083466e-01</quality>
              <le>-1.5185300111770630e+00</le></_></splits></_>
        <_>
          <depth>1</depth>
          <value>-1.0355893592009693e+00</value></_>
        <_>
          <depth>1</depth>
          <value>2.2025193682538075e-01</value></_></nodes></_>
    <_>
      <nodes>
        <_>
          <depth>0</depth>
          <value>4.2475248865961295e-05</value>
          <splits>
            <_><var>128</var>
              <quality>1.5761047601699829e-01</quality>
              <le>1.5547950267791748e+00</le></_></splits></_>
        <_>
          <depth>1</depth>
          <value>2.4051514724706879e-01</value></_>
        <_>
          <depth>1</depth>
          <value>-8.7383119312562896e-01</value></_></nodes></_>
    <_>
      <nodes>
        <_>
          <depth>0</depth>
          <value>-3.2845968175433107e-03</value>
          <splits>
            <_><var>135</var>
              <quality>1.9448515772819519e-01</quality>
              <le>1.6649600863456726e-01</le></_></splits></_>
        <_>
          <depth>1</depth>
          <value>2.0501254747499845e-01</value></_>
        <_>
          <depth>1</depth>
          <value>-5.7564577324601141e+00</value></_></nodes></_>
    <_>
      <nodes>
        <_>
          <depth>0</depth>
          <value>-1.1694748455153824e-02</value>
          <splits>
            <_><var>40</var>
              <quality>1.4653953909873962e-01</quality>
              <le>3.5917299985885620e-01</le></_></splits></_>
        <_>
          <depth>1</depth>
          <value>3.3652304441554304e-01</value></_>
        <_>
          <depth>1</depth>
          <value>-5.1049366758505388e-01</value></_></nodes></_>
    <_>
      <nodes>
        <_>
          <depth>0</depth>
          <value>-1.7507042828051062e-03</value>
          <splits>
            <_><var>88</var>
              <quality>1.7755725979804993e-01</quality>
              <le>1.9958500564098358e-01</le></_></splits></_>
        <_>
          <depth>1</depth>
          <value>4.0793113016732563e-01</value></_>
        <_>
          <depth>1</depth>
          <value>-5.2677285516983974e-01</value></_></nodes></_>
    <_>
      <nodes>
        <_>
          <depth>0</depth>
          <value>-1.1162547620321669e-02</value>
          <splits>
            <_><var>20</var>
              <quality>1.4283680915832520e-01</quality>
              <le>3.3903951644897461e+00</le></_></splits></_>
        <_>
          <depth>1</depth>
          <value>1.5335211680082111e-01</value></_>
        <_>
          <depth>1</depth>
          <value>-1.6615397251535156e+00</value></_></nodes></_>
    <_>
      <nodes>
        <_>
          <depth>0</depth>
          <value>-3.2711615377404822e-03</value>
          <splits>
            <_><var>45</var>
              <quality>1.4655876159667969e-01</quality>
              <le>-1.9962298870086670e-01</le></_></splits></_>
        <_>
          <depth>1</depth>
          <value>-6.3570293522788868e-01</value></_>
        <_>
          <depth>1</depth>
          <value>2.7996482487701785e-01</value></_></nodes></_>
    <_>
      <nodes>
        <_>
          <depth>0</depth>
          <value>-1.1930329883832194e-03</value>
          <splits>
            <_><var>92</var>
              <quality>1.7283526062965393e-01</quality>
              <le>2.6489251852035522e-01</le></_></splits></_>
        <_>
          <depth>1</depth>
          <value>-3.5508917389587169e-01</value></_>
        <_>
          <depth>1</depth>
          <value>5.9655617189919885e-01</value></_></nodes></_>
    <_>
      <nodes>
        <_>
          <depth>0</depth>
          <value>-8.6717976316259583e-03</value>
          <splits>
            <_><var>119</var>
              <quality>1.5025629103183746e-01</quality>
              <le>-4.7110748291015625e+00</le></_></splits></_>
        <_>
          <depth>1</depth>
          <value>2.7623673416883987e-01</value></_>
        <_>
          <depth>1</depth>
          <value>-6.5865073106266980e-01</value></_></nodes></_>
    <_>
      <nodes>
        <_>
          <depth>0</depth>
          <value>1.7028646331355014e-03</value>
          <splits>
            <_><var>7</var>
              <quality>1.7662081122398376e-01</quality>
              <le>-4.4191598892211914e+00</le></_></splits></_>
        <_>
          <depth>1</depth>
          <value>-9.0188165701996903e-01</value></_>
        <_>
          <depth>1</depth>
          <value>2.6647557955706119e-01</value></_></nodes></_>
    <_>
      <nodes>
        <_>
          <depth>0</depth>
          <value>2.0601382193886318e-03</value>
          <splits>
            <_><var>24</var>
              <quality>1.2187400460243225e-01</quality>
              <le>9.0463250875473022e-01</le></_></splits></_>
        <_>
          <depth>1</depth>
          <value>2.8830425707527796e-01</value></_>
        <_>
          <depth>1</depth>
          <value>-4.9581470349571644e-01</value></_></nodes></_>
    <_>
      <nodes>
        <_>
          <depth>0</depth>
          <value>-8.9985748238949736e-03</value>
          <splits>
            <_><var>119</var>
              <quality>1.9928574562072754e-01</quality>
              <le>-8.5467548370361328e+00</le></_></splits></_>
        <_>
          <depth>1</depth>
          <value>5.4128882185754223e-01</value></_>
        <_>
          <depth>1</depth>
          <value>-4.5512491212513428e-01</value></_></nodes></_>
    <_>
      <nodes>
        <_>
          <depth>0</depth>
          <value>-2.6737844890189675e-03</value>
          <splits>
            <_><var>40</var>
              <quality>1.5966732800006866e-01</quality>
              <le>-1.8587050437927246e+00</le></_></splits></_>
        <_>
          <depth>1</depth>
          <value>7.9944494000677102e-01</value></_>
        <_>
          <depth>1</depth>
          <value>-2.6073103181156743e-01</value></_></nodes></_>
    <_>
      <nodes>
        <_>
          <depth>0</depth>
          <value>-1.4088068751017093e-03</value>
          <splits>
            <_><var>22</var>
              <quality>1.3087260723114014e-01</quality>
              <le>-4.0277099609375000e+00</le></_></splits></_>
        <_>
          <depth>1</depth>
          <value>1.3727235080723612e+00</value></_>
        <_>
          <depth>1</depth>
          <value>-1.5916781574098898e-01</value></_></nodes></_>
    <_>
      <nodes>
        <_>
          <depth>0</depth>
          <value>-1.0751065248222148e-02</value>
          <splits>
            <_><var>68</var>
              <quality>1.6569069027900696e-01</quality>
              <le>7.6639550924301147e-01</le></_></splits></_>
        <_>
          <depth>1</depth>
          <value>-2.8781427677102556e-01</value></_>
        <_>
          <depth>1</depth>
          <value>7.5250457915666125e-01</value></_></nodes></_>
    <_>
      <nodes>
        <_>
          <depth>0</depth>
          <value>-2.9522758478645588e-03</value>
          <splits>
            <_><var>110</var>
              <quality>1.4513354003429413e-01</quality>
              <le>-1.9994149208068848e+00</le></_></splits></_>
        <_>
          <depth>1</depth>
          <value>3.3064877357810440e-01</value></_>
        <_>
          <depth>1</depth>
          <value>-5.1895684494932559e-01</value></_></nodes></_>
    <_>
      <nodes>
        <_>
          <depth>0</depth>
          <value>-3.2525396238696686e-03</value>
          <splits>
            <_><var>45</var>
              <quality>1.4058201014995575e-01</quality>
              <le>2.1483700275421143e+00</le></_></splits></_>
        <_>
          <depth>1</depth>
          <value>-4.5759099834220396e-01</value></_>
        <_>
          <depth>1</depth>
          <value>3.5984382429555301e-01</value></_></nodes></_>
    <_>
      <nodes>
        <_>
          <depth>0</depth>
          <value>-1.6840129608412528e-03</value>
          <splits>
            <_><var>17</var>
              <quality>1.9884461164474487e-01</quality>
              <le>-8.6358947753906250e+00</le></_></splits></_>
        <_>
          <depth>1</depth>
          <value>-7.9901213015794559e-01</value></_>
        <_>
          <depth>1</depth>
          <value>3.2574623200803127e-01</value></_></nodes></_>
    <_>
      <nodes>
        <_>
          <depth>0</depth>
          <value>-1.7696229643880857e-03</value>
          <splits>
            <_><var>63</var>
              <quality>1.6273680329322815e-01</quality>
              <le>-1.5305800437927246e+00</le></_></splits></_>
        <_>
          <depth>1</depth>
          <value>5.4645088954453225e-01</value></_>
        <_>
          <depth>1</depth>
          <value>-3.5934523717349004e-01</value></_></nodes></_>
    <_>
      <nodes>
        <_>
          <depth>0</depth>
          <value>5.6006517175245948e-04</value>
          <splits>
            <_><var>50</var>
              <quality>1.3269451260566711e-01</quality>
              <le>-1.6169700026512146e-01</le></_></splits></_>
        <_>
          <depth>1</depth>
          <value>-6.2424877058516792e-01</value></_>
        <_>
          <depth>1</depth>
          <value>2.5810059032124510e-01</value></_></nodes></_>
    <_>
      <nodes>
        <_>
          <depth>0</depth>
          <value>-2.8803302641260513e-03</value>
          <splits>
            <_><var>43</var>
              <quality>1.3316071033477783e-01</quality>
              <le>-2.7785148620605469e+00</le></_></splits></_>
        <_>
          <depth>1</depth>
          <value>-1.4497738010350267e+00</value></_>
        <_>
          <depth>1</depth>
          <value>1.5540880753982031e-01</value></_></nodes></_>
    <_>
      <nodes>
        <_>
          <depth>0</depth>
          <value>-3.0249803010603663e-03</value>
          <splits>
            <_><var>37</var>
              <quality>1.5620042383670807e-01</quality>
              <le>-2.8753252029418945e+00</le></_></splits></_>
        <_>
          <depth>1</depth>
          <value>6.8311886611054173e-01</value></_>
        <_>
          <depth>1</depth>
          <value>-2.8633345750728711e-01</value></_></nodes></_>
    <_>
      <nodes>
        <_>
          <depth>0</depth>
          <value>-2.9377861199773678e-03</value>
          <splits>
            <_><var>96</var>
              <quality>1.3546304404735565e-01</quality>
              <le>-6.4908999204635620e-01</le></_></splits></_>
        <_>
          <depth>1</depth>
          <value>-9.4805764673513726e-01</value></_>
        <_>
          <depth>1</depth>
          <value>1.9327724308775071e-01</value></_></nodes></_>
    <_>
      <nodes>
        <_>
          <depth>0</depth>
          <value>1.5293708430021147e-03</value>
          <splits>
            <_><var>75</var>
              <quality>1.8942172825336456e-01</quality>
              <le>1.5742249488830566e+00</le></_></splits></_>
        <_>
          <depth>1</depth>
          <value>-3.1164972612531955e-01</value></_>
        <_>
          <depth>1</depth>
          <value>7.9060732753537788e-01</value></_></nodes></_>
    <_>
      <nodes>
        <_>
          <depth>0</depth>
          <value>-7.3822856367062820e-03</value>
          <splits>
            <_><var>128</var>
              <quality>1.8405963480472565e-01</quality>
              <le>-5.7789897918701172e+00</le></_></splits></_>
        <_>
          <depth>1</depth>
          <value>5.2550416932624733e-01</value></_>
        <_>
          <depth>1</depth>
          <value>-4.2769904656164592e-01</value></_></nodes></_>
    <_>
      <nodes>
        <_>
          <depth>0</depth>
          <value>-3.0341813618677874e-03</value>
          <splits>
            <_><var>97</var>
              <quality>2.1413096785545349e-01</quality>
              <le>6.1906399726867676e+00</le></_></splits></_>
        <_>
          <depth>1</depth>
          <value>2.7347263822984247e-01</value></_>
        <_>
          <depth>1</depth>
          <value>-1.2161908449391781e+00</value></_></nodes></_>
    <_>
      <nodes>
        <_>
          <depth>0</depth>
          <value>-1.8075334077082823e-03</value>
          <splits>
            <_><var>25</var>
              <quality>1.7257234454154968e-01</quality>
              <le>8.4518544375896454e-02</le></_></splits></_>
        <_>
          <depth>1</depth>
          <value>-3.3389838520244042e-01</value></_>
        <_>
          <depth>1</depth>
          <value>6.4101097451315381e-01</value></_></nodes></_>
    <_>
      <nodes>
        <_>
          <depth>0</depth>
          <value>-7.9958527260660921e-03</value>
          <splits>
            <_><var>75</var>
              <quality>1.6784405708312988e-01</quality>
              <le>-6.8675649166107178e-01</le></_></splits></_>
        <_>
          <depth>1</depth>
          <value>-8.8347600616359190e-01</value></_>
        <_>
          <depth>1</depth>
          <value>2.4944203308982341e-01</value></_></nodes></_>
    <_>
      <nodes>
        <_>
          <depth>0</depth>
          <value>-5.6438217277760220e-03</value>
          <splits>
            <_><var>108</var>
              <quality>1.5778487920761108e-01</quality>
              <le>-2.1733598709106445e+00</le></_></splits></_>
        <_>
          <depth>1</depth>
          <value>4.4499102219296655e-01</value></_>
        <_>
          <depth>1</depth>
          <value>-4.2112812347363487e-01</value></_></nodes></_>
    <_>
      <nodes>
        <_>
          <depth>0</depth>
          <value>-7.4643486932190507e-03</value>
          <splits>
            <_><var>42</var>
              <quality>1.9561459124088287e-01</quality>
              <le>-1.6815600395202637e+00</le></_></splits></_>
        <_>
          <depth>1</depth>
          <value>6.9014472168779528e-01</value></_>
        <_>
          <depth>1</depth>
          <value>-3.6257662847810557e-01</value></_></nodes></_>
    <_>
      <nodes>
        <_>
          <depth>0</depth>
          <value>3.8938032288517621e-04</value>
          <splits>
            <_><var>52</var>
              <quality>2.0466229319572449e-01</quality>
              <le>1.3117549419403076e+00</le></_></splits></_>
        <_>
          <depth>1</depth>
          <value>-6.1107122147067761e-01</value></_>
        <_>
          <depth>1</depth>
          <value>4.1829977550366787e-01</value></_></nodes></_>
    <_>
      <nodes>
        <_>
          <depth>0</depth>
          <value>-4.5586376823663445e-04</value>
          <splits>
            <_><var>105</var>
              <quality>1.6191497445106506e-01</quality>
              <le>-2.7470550537109375e+00</le></_></splits></_>
        <_>
          <depth>1</depth>
          <value>6.3089936553582149e-01</value></_>
        <_>
          <depth>1</depth>
          <value>-3.1504100782337890e-01</value></_></nodes></_>
    <_>
      <nodes>
        <_>
          <depth>0</depth>
          <value>4.4724253189977617e-03</value>
          <splits>
            <_><var>10</var>
              <quality>1.3956157863140106e-01</quality>
              <le>4.5390349626541138e-01</le></_></splits></_>
        <_>
          <depth>1</depth>
          <value>-3.9133839429978984e-01</value></_>
        <_>
          <depth>1</depth>
          <value>4.1696651412330005e-01</value></_></nodes></_>
    <_>
      <nodes>
        <_>
          <depth>0</depth>
          <value>-1.1086412963208857e-02</value>
          <splits>
            <_><var>34</var>
              <quality>1.3254605233669281e-01</quality>
              <le>-1.1767249107360840e+00</le></_></splits></_>
        <_>
          <depth>1</depth>
          <value>3.4011881972705882e-01</value></_>
        <_>
          <depth>1</depth>
          <value>-4.5112264650256406e-01</value></_></nodes></_>
    <_>
      <nodes>
        <_>
          <depth>0</depth>
          <value>-2.2210320222955334e-03</value>
          <splits>
            <_><var>128</var>
              <quality>1.3353410363197327e-01</quality>
              <le>1.5311999320983887e+00</le></_></splits></_>
        <_>
          <depth>1</depth>
          <value>1.8325592751074943e-01</value></_>
        <_>
          <depth>1</depth>
          <value>-1.0165017382069186e+00</value></_></nodes></_>
    <_>
      <nodes>
        <_>
          <depth>0</depth>
          <value>-1.5028274888018083e-04</value>
          <splits>
            <_><var>119</var>
              <quality>1.6783395409584045e-01</quality>
              <le>-4.7562251091003418e+00</le></_></splits></_>
        <_>
          <depth>1</depth>
          <value>3.3070513771737070e-01</value></_>
        <_>
          <depth>1</depth>
          <value>-6.2382504859371879e-01</value></_></nodes></_>
    <_>
      <nodes>
        <_>
          <depth>0</depth>
          <value>-2.7709129393729600e-03</value>
          <splits>
            <_><var>7</var>
              <quality>1.6255050897598267e-01</quality>
              <le>-8.4868450164794922e+00</le></_></splits></_>
        <_>
          <depth>1</depth>
          <value>-5.7564577324601141e+00</value></_>
        <_>
          <depth>1</depth>
          <value>1.7053660360887568e-01</value></_></nodes></_>
    <_>
      <nodes>
        <_>
          <depth>0</depth>
          <value>7.4535234262500347e-02</value>
          <splits>
            <_><var>88</var>
              <quality>1.9349467754364014e-01</quality>
              <le>3.7121599912643433e-01</le></_></splits></_>
        <_>
          <depth>1</depth>
          <value>3.8727896190075534e-01</value></_>
        <_>
          <depth>1</depth>
          <value>-6.9106026114150476e-01</value></_></nodes></_>
    <_>
      <nodes>
        <_>
          <depth>0</depth>
          <value>-2.9722098310117789e-03</value>
          <splits>
            <_><var>56</var>
              <quality>2.1541935205459595e-01</quality>
              <le>1.0974199771881104e+00</le></_></splits></_>
        <_>
          <depth>1</depth>
          <value>-2.4537894817746406e-01</value></_>
        <_>
          <depth>1</depth>
          <value>1.8470901939727722e+00</value></_></nodes></_>
    <_>
      <nodes>
        <_>
          <depth>0</depth>
          <value>-3.3132433670685087e-02</value>
          <splits>
            <_><var>80</var>
              <quality>1.4759653806686401e-01</quality>
              <le>8.9796048402786255e-01</le></_></splits></_>
        <_>
          <depth>1</depth>
          <value>1.5763820871271034e-01</value></_>
        <_>
          <depth>1</depth>
          <value>-1.2471417706953616e+00</value></_></nodes></_>
    <_>
      <nodes>
        <_>
          <depth>0</depth>
          <value>-3.0158679991951253e-03</value>
          <splits>
            <_><var>52</var>
              <quality>1.0029358416795731e-01</quality>
              <le>6.5768396854400635e-01</le></_></splits></_>
        <_>
          <depth>1</depth>
          <value>-5.2320139698183177e-01</value></_>
        <_>
          <depth>1</depth>
          <value>2.2188018450393812e-01</value></_></nodes></_>
    <_>
      <nodes>
        <_>
          <depth>0</depth>
          <value>2.1907920091201161e-03</value>
          <splits>
            <_><var>110</var>
              <quality>1.2698775529861450e-01</quality>
              <le>-1.9994149208068848e+00</le></_></splits></_>
        <_>
          <depth>1</depth>
          <value>3.4899838888348611e-01</value></_>
        <_>
          <depth>1</depth>
          <value>-4.2255766981521942e-01</value></_></nodes></_>
    <_>
      <nodes>
        <_>
          <depth>0</depth>
          <value>-8.4294884484467161e-03</value>
          <splits>
            <_><var>102</var>
              <quality>1.4377924799919128e-01</quality>
              <le>4.8751994036138058e-03</le></_></splits></_>
        <_>
          <depth>1</depth>
          <value>-4.4659366011026491e-01</value></_>
        <_>
          <depth>1</depth>
          <value>3.7704509538535630e-01</value></_></nodes></_>
    <_>
      <nodes>
        <_>
          <depth>0</depth>
          <value>-1.8218928805547410e-03</value>
          <splits>
            <_><var>134</var>
              <quality>1.5665861964225769e-01</quality>
              <le>5.5266847610473633e+00</le></_></splits></_>
        <_>
          <depth>1</depth>
          <value>1.6946915167143134e-01</value></_>
        <_>
          <depth>1</depth>
          <value>-2.1642916590716972e+00</value></_></nodes></_>
    <_>
      <nodes>
        <_>
          <depth>0</depth>
          <value>2.8504841936677983e-03</value>
          <splits>
            <_><var>131</var>
              <quality>1.0265183448791504e-01</quality>
              <le>-6.0096001625061035e+00</le></_></splits></_>
        <_>
          <depth>1</depth>
          <value>2.4860746725152244e-01</value></_>
        <_>
          <depth>1</depth>
          <value>-4.7973713576265897e-01</value></_></nodes></_>
    <_>
      <nodes>
        <_>
          <depth>0</depth>
          <value>-3.1784950108723971e-03</value>
          <splits>
            <_><var>42</var>
              <quality>1.6523070633411407e-01</quality>
              <le>-1.8985350131988525e+00</le></_></splits></_>
        <_>
          <depth>1</depth>
          <value>5.8427249723230446e-01</value></_>
        <_>
          <depth>1</depth>
          <value>-3.4511098018670289e-01</value></_></nodes></_></trees></opencv_ml_boost>
</opencv_storage>
