<?xml version="1.0"?>
<opencv_storage>
<opencv_ml_boost>
  <format>3</format>
  <is_classifier>1</is_classifier>
  <var_all>137</var_all>
  <var_count>136</var_count>
  <ord_var_count>136</ord_var_count>
  <cat_var_count>1</cat_var_count>
  <training_params>
    <boosting_type>RealAdaboost</boosting_type>
    <use_surrogates>0</use_surrogates>
    <max_categories>10</max_categories>
    <regression_accuracy>9.9999997764825821e-03</regression_accuracy>
    <max_depth>1</max_depth>
    <min_sample_count>10</min_sample_count>
    <cross_validation_folds>0</cross_validation_folds>
    <weight_trimming_rate>9.4999999999999996e-01</weight_trimming_rate></training_params>
  <global_var_idx>1</global_var_idx>
  <var_idx>
    0 1 2 3 4 5 6 7 8 9 10 11 12 13 14 15 16 17 18 19 20 21 22 23 24 25
    26 27 28 29 30 31 32 33 34 35 36 37 38 39 40 41 42 43 44 45 46 47 48
    49 50 51 52 53 54 55 56 57 58 59 60 61 62 63 64 65 66 67 68 69 70 71
    72 73 74 75 76 77 78 79 80 81 82 83 84 85 86 87 88 89 90 91 92 93 94
    95 96 97 98 99 100 101 102 103 104 105 106 107 108 109 110 111 112
    113 114 115 116 117 118 119 120 121 122 123 124 125 126 127 128 129
    130 131 132 133 134 135</var_idx>
  <var_type>
    0 0 0 0 0 0 0 0 0 0 0 0 0 0 0 0 0 0 0 0 0 0 0 0 0 0 0 0 0 0 0 0 0 0
    0 0 0 0 0 0 0 0 0 0 0 0 0 0 0 0 0 0 0 0 0 0 0 0 0 0 0 0 0 0 0 0 0 0
    0 0 0 0 0 0 0 0 0 0 0 0 0 0 0 0 0 0 0 0 0 0 0 0 0 0 0 0 0 0 0 0 0 0
    0 0 0 0 0 0 0 0 0 0 0 0 0 0 0 0 0 0 0 0 0 0 0 0 0 0 0 0 0 0 0 0 0 0
    1</var_type>
  <cat_ofs>
    0 0 0 0 0 0 0 0 0 0 0 0 0 0 0 0 0 0 0 0 0 0 0 0 0 0 0 0 0 0 0 0 0 0
    0 0 0 0 0 0 0 0 0 0 0 0 0 0 0 0 0 0 0 0 0 0 0 0 0 0 0 0 0 0 0 0 0 0
    0 0 0 0 0 0 0 0 0 0 0 0 0 0 0 0 0 0 0 0 0 0 0 0 0 0 0 0 0 0 0 0 0 0
    0 0 0 0 0 0 0 0 0 0 0 0 0 0 0 0 0 0 0 0 0 0 0 0 0 0 0 0 0 0 0 0 0 0
    0 0 0 0 0 0 0 0 0 0 0 0 0 0 0 0 0 0 0 0 0 0 0 0 0 0 0 0 0 0 0 0 0 0
    0 0 0 0 0 0 0 0 0 0 0 0 0 0 0 0 0 0 0 0 0 0 0 0 0 0 0 0 0 0 0 0 0 0
    0 0 0 0 0 0 0 0 0 0 0 0 0 0 0 0 0 0 0 0 0 0 0 0 0 0 0 0 0 0 0 0 0 0
    0 0 0 0 0 0 0 0 0 0 0 0 0 0 0 0 0 0 0 0 0 0 0 0 0 0 0 0 0 0 0 0 0 0</cat_ofs>
  <class_labels>
    -1082130432 1065353216</class_labels>
  <missing_subst>
    0. 0. 0. 0. 0. 0. 0. 0. 0. 0. 0. 0. 0. 0. 0. 0. 0. 0. 0. 0. 0. 0. 0.
    0. 0. 0. 0. 0. 0. 0. 0. 0. 0. 0. 0. 0. 0. 0. 0. 0. 0. 0. 0. 0. 0. 0.
    0. 0. 0. 0. 0. 0. 0. 0. 0. 0. 0. 0. 0. 0. 0. 0. 0. 0. 0. 0. 0. 0. 0.
    0. 0. 0. 0. 0. 0. 0. 0. 0. 0. 0. 0. 0. 0. 0. 0. 0. 0. 0. 0. 0. 0. 0.
    0. 0. 0. 0. 0. 0. 0. 0. 0. 0. 0. 0. 0. 0. 0. 0. 0. 0. 0. 0. 0. 0. 0.
    0. 0. 0. 0. 0. 0. 0. 0. 0. 0. 0. 0. 0. 0. 0. 0. 0. 0. 0. 0. 0. 0.</missing_subst>
  <ntrees>100</ntrees>
  <trees>
    <_>
      <nodes>
        <_>
          <depth>0</depth>
          <value>-1.8727873988952415e+00</value>
          <splits>
            <_><var>112</var>
              <quality>9.1533648967742920e-01</quality>
              <le>9.0407104492187500e+00</le></_></splits></_>
        <_>
          <depth>1</depth>
          <value>-1.9050566594640259e+00</value></_>
        <_>
          <depth>1</depth>
          <value>5.7564577324623896e+00</value></_></nodes></_>
    <_>
      <nodes>
        <_>
          <depth>0</depth>
          <value>5.5547571232493922e-08</value>
          <splits>
            <_><var>113</var>
              <quality>4.1387277841567993e-01</quality>
              <le>9.1558849811553955e-01</le></_></splits></_>
        <_>
          <depth>1</depth>
          <value>-9.5345713569152335e-01</value></_>
        <_>
          <depth>1</depth>
          <value>6.3033412954880663e-01</value></_></nodes></_>
    <_>
      <nodes>
        <_>
          <depth>0</depth>
          <value>-1.2838052008637607e-08</value>
          <splits>
            <_><var>120</var>
              <quality>3.7711566686630249e-01</quality>
              <le>2.2545700073242188e+00</le></_></splits></_>
        <_>
          <depth>1</depth>
          <value>-7.6638115122153905e-01</value></_>
        <_>
          <depth>1</depth>
          <value>6.6979476256743753e-01</value></_></nodes></_>
    <_>
      <nodes>
        <_>
          <depth>0</depth>
          <value>1.0002110262130589e-08</value>
          <splits>
            <_><var>101</var>
              <quality>3.9794507622718811e-01</quality>
              <le>1.4380800724029541e+00</le></_></splits></_>
        <_>
          <depth>1</depth>
          <value>4.3782323231480846e-01</value></_>
        <_>
          <depth>1</depth>
          <value>-2.0327791131927757e+00</value></_></nodes></_>
    <_>
      <nodes>
        <_>
          <depth>0</depth>
          <value>3.8712557552919996e-02</value>
          <splits>
            <_><var>108</var>
              <quality>2.6633647084236145e-01</quality>
              <le>-1.4980299770832062e-01</le></_></splits></_>
        <_>
          <depth>1</depth>
          <value>4.0983514280049377e-01</value></_>
        <_>
          <depth>1</depth>
          <value>-9.6896766020922043e-01</value></_></nodes></_>
    <_>
      <nodes>
        <_>
          <depth>0</depth>
          <value>-4.2659886181650904e-02</value>
          <splits>
            <_><var>42</var>
              <quality>2.5956815481185913e-01</quality>
              <le>-2.4902349710464478e-01</le></_></splits></_>
        <_>
          <depth>1</depth>
          <value>-9.3549327601311405e-01</value></_>
        <_>
          <depth>1</depth>
          <value>3.4641860920573075e-01</value></_></nodes></_>
    <_>
      <nodes>
        <_>
          <depth>0</depth>
          <value>9.8676088253961593e-03</value>
          <splits>
            <_><var>131</var>
              <quality>2.3936332762241364e-01</quality>
              <le>-3.0314300060272217e+00</le></_></splits></_>
        <_>
          <depth>1</depth>
          <value>-5.7564577324601141e+00</value></_>
        <_>
          <depth>1</depth>
          <value>2.5607982614180280e-01</value></_></nodes></_>
    <_>
      <nodes>
        <_>
          <depth>0</depth>
          <value>3.3631033400510098e-09</value>
          <splits>
            <_><var>29</var>
              <quality>2.5618341565132141e-01</quality>
              <le>-3.8040149956941605e-02</le></_></splits></_>
        <_>
          <depth>1</depth>
          <value>4.8598174006062517e-01</value></_>
        <_>
          <depth>1</depth>
          <value>-6.6033651455632059e-01</value></_></nodes></_>
    <_>
      <nodes>
        <_>
          <depth>0</depth>
          <value>-6.5004523129486369e-03</value>
          <splits>
            <_><var>108</var>
              <quality>2.8693231940269470e-01</quality>
              <le>-3.2271649837493896e+00</le></_></splits></_>
        <_>
          <depth>1</depth>
          <value>7.0338914854066270e-01</value></_>
        <_>
          <depth>1</depth>
          <value>-5.2460504306271949e-01</value></_></nodes></_>
    <_>
      <nodes>
        <_>
          <depth>0</depth>
          <value>3.9036658915975811e-02</value>
          <splits>
            <_><var>41</var>
              <quality>2.0458371937274933e-01</quality>
              <le>-3.0008649826049805e+00</le></_></splits></_>
        <_>
          <depth>1</depth>
          <value>-5.7564577324601141e+00</value></_>
        <_>
          <depth>1</depth>
          <value>2.4980443357647200e-01</value></_></nodes></_>
    <_>
      <nodes>
        <_>
          <depth>0</depth>
          <value>-5.0241349032270434e-02</value>
          <splits>
            <_><var>94</var>
              <quality>2.4101719260215759e-01</quality>
              <le>1.8562300130724907e-02</le></_></splits></_>
        <_>
          <depth>1</depth>
          <value>-5.8250655742535207e-01</value></_>
        <_>
          <depth>1</depth>
          <value>4.9452094941111568e-01</value></_></nodes></_>
    <_>
      <nodes>
        <_>
          <depth>0</depth>
          <value>3.4331451813445067e-02</value>
          <splits>
            <_><var>116</var>
              <quality>1.7393936216831207e-01</quality>
              <le>-2.5441651344299316e+00</le></_></splits></_>
        <_>
          <depth>1</depth>
          <value>1.0259994647365058e+00</value></_>
        <_>
          <depth>1</depth>
          <value>-2.1434917804421033e-01</value></_></nodes></_>
    <_>
      <nodes>
        <_>
          <depth>0</depth>
          <value>5.0692252441860838e-03</value>
          <splits>
            <_><var>124</var>
              <quality>1.9520135223865509e-01</quality>
              <le>3.2369799613952637e+00</le></_></splits></_>
        <_>
          <depth>1</depth>
          <value>-2.1498261738636532e-01</value></_>
        <_>
          <depth>1</depth>
          <value>1.8469502414225578e+00</value></_></nodes></_>
    <_>
      <nodes>
        <_>
          <depth>0</depth>
          <value>-2.3239107508968649e-03</value>
          <splits>
            <_><var>129</var>
              <quality>1.6367371380329132e-01</quality>
              <le>7.9276251792907715e-01</le></_></splits></_>
        <_>
          <depth>1</depth>
          <value>-6.3335318366196391e-01</value></_>
        <_>
          <depth>1</depth>
          <value>3.1557007532317410e-01</value></_></nodes></_>
    <_>
      <nodes>
        <_>
          <depth>0</depth>
          <value>1.0177018790693734e-02</value>
          <splits>
            <_><var>105</var>
              <quality>2.9097416996955872e-01</quality>
              <le>1.1235249042510986e+00</le></_></splits></_>
        <_>
          <depth>1</depth>
          <value>3.4405996699819164e-01</value></_>
        <_>
          <depth>1</depth>
          <value>-1.7276323468102766e+00</value></_></nodes></_>
    <_>
      <nodes>
        <_>
          <depth>0</depth>
          <value>-1.5327300928894600e-02</value>
          <splits>
            <_><var>3</var>
              <quality>1.5969528257846832e-01</quality>
              <le>-3.5099051892757416e-02</le></_></splits></_>
        <_>
          <depth>1</depth>
          <value>3.0288040906090002e-01</value></_>
        <_>
          <depth>1</depth>
          <value>-6.2951330816022122e-01</value></_></nodes></_>
    <_>
      <nodes>
        <_>
          <depth>0</depth>
          <value>8.2598417140935000e-03</value>
          <splits>
            <_><var>96</var>
              <quality>2.6638233661651611e-01</quality>
              <le>2.7129600048065186e+00</le></_></splits></_>
        <_>
          <depth>1</depth>
          <value>-6.5142602430781649e-01</value></_>
        <_>
          <depth>1</depth>
          <value>5.3738658201555833e-01</value></_></nodes></_>
    <_>
      <nodes>
        <_>
          <depth>0</depth>
          <value>8.3244625090389407e-03</value>
          <splits>
            <_><var>65</var>
              <quality>1.8475081026554108e-01</quality>
              <le>-1.7719750404357910e+00</le></_></splits></_>
        <_>
          <depth>1</depth>
          <value>1.0102906634401883e+00</value></_>
        <_>
          <depth>1</depth>
          <value>-2.5362114710300476e-01</value></_></nodes></_>
    <_>
      <nodes>
        <_>
          <depth>0</depth>
          <value>-6.0993881674185685e-03</value>
          <splits>
            <_><var>17</var>
              <quality>2.3625440895557404e-01</quality>
              <le>-3.8175949454307556e-01</le></_></splits></_>
        <_>
          <depth>1</depth>
          <value>-6.6979720024828315e-01</value></_>
        <_>
          <depth>1</depth>
          <value>4.5190761385339284e-01</value></_></nodes></_>
    <_>
      <nodes>
        <_>
          <depth>0</depth>
          <value>-1.3076182239627369e-02</value>
          <splits>
            <_><var>131</var>
              <quality>1.7654947936534882e-01</quality>
              <le>2.8705649375915527e+00</le></_></splits></_>
        <_>
          <depth>1</depth>
          <value>2.6634139886142805e-01</value></_>
        <_>
          <depth>1</depth>
          <value>-8.5281977687358346e-01</value></_></nodes></_>
    <_>
      <nodes>
        <_>
          <depth>0</depth>
          <value>-1.7440991897123330e-02</value>
          <splits>
            <_><var>129</var>
              <quality>1.6489689052104950e-01</quality>
              <le>1.0881949663162231e+00</le></_></splits></_>
        <_>
          <depth>1</depth>
          <value>-5.9336216081256377e-01</value></_>
        <_>
          <depth>1</depth>
          <value>3.3072126253878520e-01</value></_></nodes></_>
    <_>
      <nodes>
        <_>
          <depth>0</depth>
          <value>1.0026563406823190e-02</value>
          <splits>
            <_><var>98</var>
              <quality>1.9286929070949554e-01</quality>
              <le>5.5024948120117188e+00</le></_></splits></_>
        <_>
          <depth>1</depth>
          <value>2.1418708797322930e-01</value></_>
        <_>
          <depth>1</depth>
          <value>-5.7564577324601141e+00</value></_></nodes></_>
    <_>
      <nodes>
        <_>
          <depth>0</depth>
          <value>-7.0760893571648010e-03</value>
          <splits>
            <_><var>120</var>
              <quality>1.9041268527507782e-01</quality>
              <le>3.9277400970458984e+00</le></_></splits></_>
        <_>
          <depth>1</depth>
          <value>-3.9248449624694010e-01</value></_>
        <_>
          <depth>1</depth>
          <value>6.0303556322247265e-01</value></_></nodes></_>
    <_>
      <nodes>
        <_>
          <depth>0</depth>
          <value>8.7794943173878388e-03</value>
          <splits>
            <_><var>21</var>
              <quality>2.0952555537223816e-01</quality>
              <le>-5.3369903564453125e-01</le></_></splits></_>
        <_>
          <depth>1</depth>
          <value>6.0285208997110129e-01</value></_>
        <_>
          <depth>1</depth>
          <value>-4.3136799312723412e-01</value></_></nodes></_>
    <_>
      <nodes>
        <_>
          <depth>0</depth>
          <value>-8.2920688236949071e-03</value>
          <splits>
            <_><var>50</var>
              <quality>1.5977647900581360e-01</quality>
              <le>-9.0371704101562500e-01</le></_></splits></_>
        <_>
          <depth>1</depth>
          <value>-7.2373016667941448e-01</value></_>
        <_>
          <depth>1</depth>
          <value>2.7361899461170708e-01</value></_></nodes></_>
    <_>
      <nodes>
        <_>
          <depth>0</depth>
          <value>-1.3738252009758653e-02</value>
          <splits>
            <_><var>108</var>
              <quality>1.6218934953212738e-01</quality>
              <le>-3.1596999168395996e+00</le></_></splits></_>
        <_>
          <depth>1</depth>
          <value>5.4689875391105769e-01</value></_>
        <_>
          <depth>1</depth>
          <value>-3.6195890179829476e-01</value></_></nodes></_>
    <_>
      <nodes>
        <_>
          <depth>0</depth>
          <value>6.0330419694632608e-03</value>
          <splits>
            <_><var>13</var>
              <quality>1.8381510674953461e-01</quality>
              <le>-1.2866599559783936e+00</le></_></splits></_>
        <_>
          <depth>1</depth>
          <value>-7.6366943898575057e-01</value></_>
        <_>
          <depth>1</depth>
          <value>3.1400549662143007e-01</value></_></nodes></_>
    <_>
      <nodes>
        <_>
          <depth>0</depth>
          <value>-1.0825353400124431e-02</value>
          <splits>
            <_><var>7</var>
              <quality>1.8327954411506653e-01</quality>
              <le>-3.6918599158525467e-02</le></_></splits></_>
        <_>
          <depth>1</depth>
          <value>3.5988799090839446e-01</value></_>
        <_>
          <depth>1</depth>
          <value>-6.2211740427372897e-01</value></_></nodes></_>
    <_>
      <nodes>
        <_>
          <depth>0</depth>
          <value>-4.0147445473969123e-03</value>
          <splits>
            <_><var>82</var>
              <quality>1.6892980039119720e-01</quality>
              <le>-1.1466799974441528e+00</le></_></splits></_>
        <_>
          <depth>1</depth>
          <value>-2.4222687851123448e+00</value></_>
        <_>
          <depth>1</depth>
          <value>1.7932407628778596e-01</value></_></nodes></_>
    <_>
      <nodes>
        <_>
          <depth>0</depth>
          <value>-2.0101439533418486e-04</value>
          <splits>
            <_><var>120</var>
              <quality>1.8968363106250763e-01</quality>
              <le>2.9044499397277832e+00</le></_></splits></_>
        <_>
          <depth>1</depth>
          <value>-5.2592775864457897e-01</value></_>
        <_>
          <depth>1</depth>
          <value>4.4064569207854232e-01</value></_></nodes></_>
    <_>
      <nodes>
        <_>
          <depth>0</depth>
          <value>1.0892474693087090e-02</value>
          <splits>
            <_><var>122</var>
              <quality>1.8346931040287018e-01</quality>
              <le>-1.8952499628067017e+00</le></_></splits></_>
        <_>
          <depth>1</depth>
          <value>1.1370046222326253e+00</value></_>
        <_>
          <depth>1</depth>
          <value>-2.3391442462677056e-01</value></_></nodes></_>
    <_>
      <nodes>
        <_>
          <depth>0</depth>
          <value>-7.8459751962968709e-03</value>
          <splits>
            <_><var>124</var>
              <quality>2.0009383559226990e-01</quality>
              <le>5.6077551841735840e-01</le></_></splits></_>
        <_>
          <depth>1</depth>
          <value>-4.7347641447052613e-01</value></_>
        <_>
          <depth>1</depth>
          <value>5.2062791732167979e-01</value></_></nodes></_>
    <_>
      <nodes>
        <_>
          <depth>0</depth>
          <value>-2.0223179956920319e-03</value>
          <splits>
            <_><var>26</var>
              <quality>1.5714105963706970e-01</quality>
              <le>1.0399450063705444e+00</le></_></splits></_>
        <_>
          <depth>1</depth>
          <value>2.5949083307497617e-01</value></_>
        <_>
          <depth>1</depth>
          <value>-7.7323770526784696e-01</value></_></nodes></_>
    <_>
      <nodes>
        <_>
          <depth>0</depth>
          <value>-1.1505517834116031e-02</value>
          <splits>
            <_><var>74</var>
              <quality>1.6073413193225861e-01</quality>
              <le>9.8681247234344482e-01</le></_></splits></_>
        <_>
          <depth>1</depth>
          <value>1.6941600788412545e-01</value></_>
        <_>
          <depth>1</depth>
          <value>-1.8793915500780143e+00</value></_></nodes></_>
    <_>
      <nodes>
        <_>
          <depth>0</depth>
          <value>-9.6990326737218975e-03</value>
          <splits>
            <_><var>64</var>
              <quality>1.4353124797344208e-01</quality>
              <le>2.0576248168945313e+00</le></_></splits></_>
        <_>
          <depth>1</depth>
          <value>-1.8074577062361580e-01</value></_>
        <_>
          <depth>1</depth>
          <value>1.3914697376778886e+00</value></_></nodes></_>
    <_>
      <nodes>
        <_>
          <depth>0</depth>
          <value>-7.5858489579715407e-03</value>
          <splits>
            <_><var>99</var>
              <quality>1.5666685998439789e-01</quality>
              <le>3.9381599426269531e+00</le></_></splits></_>
        <_>
          <depth>1</depth>
          <value>1.7653623064004939e-01</value></_>
        <_>
          <depth>1</depth>
          <value>-1.5396867370353360e+00</value></_></nodes></_>
    <_>
      <nodes>
        <_>
          <depth>0</depth>
          <value>-1.3460646530469179e-02</value>
          <splits>
            <_><var>129</var>
              <quality>2.1633823215961456e-01</quality>
              <le>7.9893499612808228e-01</le></_></splits></_>
        <_>
          <depth>1</depth>
          <value>-5.8855578402816944e-01</value></_>
        <_>
          <depth>1</depth>
          <value>4.5750495342903486e-01</value></_></nodes></_>
    <_>
      <nodes>
        <_>
          <depth>0</depth>
          <value>7.0811122507275807e-03</value>
          <splits>
            <_><var>89</var>
              <quality>1.6882698237895966e-01</quality>
              <le>-1.7564550042152405e-01</le></_></splits></_>
        <_>
          <depth>1</depth>
          <value>5.4851052083539420e-01</value></_>
        <_>
          <depth>1</depth>
          <value>-3.6992382941100099e-01</value></_></nodes></_>
    <_>
      <nodes>
        <_>
          <depth>0</depth>
          <value>-5.5770024608403869e-03</value>
          <splits>
            <_><var>8</var>
              <quality>1.6164506971836090e-01</quality>
              <le>2.4378800392150879e+00</le></_></splits></_>
        <_>
          <depth>1</depth>
          <value>1.9329433786193073e-01</value></_>
        <_>
          <depth>1</depth>
          <value>-1.3388016058597867e+00</value></_></nodes></_>
    <_>
      <nodes>
        <_>
          <depth>0</depth>
          <value>-1.0485652189720545e-02</value>
          <splits>
            <_><var>42</var>
              <quality>1.5226763486862183e-01</quality>
              <le>1.4868149757385254e+00</le></_></splits></_>
        <_>
          <depth>1</depth>
          <value>-2.3668915911570909e-01</value></_>
        <_>
          <depth>1</depth>
          <value>8.9049778547147274e-01</value></_></nodes></_>
    <_>
      <nodes>
        <_>
          <depth>0</depth>
          <value>-2.4566857657169730e-03</value>
          <splits>
            <_><var>96</var>
              <quality>1.8077670037746429e-01</quality>
              <le>3.1664848327636719e+00</le></_></splits></_>
        <_>
          <depth>1</depth>
          <value>-5.5566397014789504e-01</value></_>
        <_>
          <depth>1</depth>
          <value>3.9598919535427579e-01</value></_></nodes></_>
    <_>
      <nodes>
        <_>
          <depth>0</depth>
          <value>1.1999784493352190e-02</value>
          <splits>
            <_><var>125</var>
              <quality>1.6207411885261536e-01</quality>
              <le>1.7220599651336670e+00</le></_></splits></_>
        <_>
          <depth>1</depth>
          <value>2.2426350466253714e-01</value></_>
        <_>
          <depth>1</depth>
          <value>-1.1137438630110335e+00</value></_></nodes></_>
    <_>
      <nodes>
        <_>
          <depth>0</depth>
          <value>-6.1249518653661529e-03</value>
          <splits>
            <_><var>19</var>
              <quality>1.8297630548477173e-01</quality>
              <le>-1.6593450307846069e+00</le></_></splits></_>
        <_>
          <depth>1</depth>
          <value>-1.1950262247686141e+00</value></_>
        <_>
          <depth>1</depth>
          <value>2.3114694940455638e-01</value></_></nodes></_>
    <_>
      <nodes>
        <_>
          <depth>0</depth>
          <value>-4.5216152934581767e-03</value>
          <splits>
            <_><var>28</var>
              <quality>1.4114423096179962e-01</quality>
              <le>6.6679346561431885e-01</le></_></splits></_>
        <_>
          <depth>1</depth>
          <value>2.2488840265550883e-01</value></_>
        <_>
          <depth>1</depth>
          <value>-7.9799275233537081e-01</value></_></nodes></_>
    <_>
      <nodes>
        <_>
          <depth>0</depth>
          <value>-9.4136476813532974e-03</value>
          <splits>
            <_><var>54</var>
              <quality>1.2636964023113251e-01</quality>
              <le>-1.1295050382614136e+00</le></_></splits></_>
        <_>
          <depth>1</depth>
          <value>-5.7564577324601141e+00</value></_>
        <_>
          <depth>1</depth>
          <value>1.2546332030929347e-01</value></_></nodes></_>
    <_>
      <nodes>
        <_>
          <depth>0</depth>
          <value>-8.3678163873365605e-03</value>
          <splits>
            <_><var>97</var>
              <quality>2.3093393445014954e-01</quality>
              <le>2.1758799552917480e+00</le></_></splits></_>
        <_>
          <depth>1</depth>
          <value>-4.4209718848963753e-01</value></_>
        <_>
          <depth>1</depth>
          <value>6.7606234311272551e-01</value></_></nodes></_>
    <_>
      <nodes>
        <_>
          <depth>0</depth>
          <value>5.7286566585816939e-03</value>
          <splits>
            <_><var>84</var>
              <quality>1.7437990009784698e-01</quality>
              <le>8.1233954429626465e-01</le></_></splits></_>
        <_>
          <depth>1</depth>
          <value>2.7602804151771093e-01</value></_>
        <_>
          <depth>1</depth>
          <value>-8.4898465722809557e-01</value></_></nodes></_>
    <_>
      <nodes>
        <_>
          <depth>0</depth>
          <value>-1.2777079311038867e-02</value>
          <splits>
            <_><var>85</var>
              <quality>1.8959370255470276e-01</quality>
              <le>-6.9712448120117188e-01</le></_></splits></_>
        <_>
          <depth>1</depth>
          <value>7.2953150132309486e-01</value></_>
        <_>
          <depth>1</depth>
          <value>-3.3903019110283944e-01</value></_></nodes></_>
    <_>
      <nodes>
        <_>
          <depth>0</depth>
          <value>-7.0024232013985924e-05</value>
          <splits>
            <_><var>108</var>
              <quality>1.7292696237564087e-01</quality>
              <le>-2.7909400463104248e+00</le></_></splits></_>
        <_>
          <depth>1</depth>
          <value>4.1908441447088668e-01</value></_>
        <_>
          <depth>1</depth>
          <value>-4.9677609155563168e-01</value></_></nodes></_>
    <_>
      <nodes>
        <_>
          <depth>0</depth>
          <value>7.9949303649338999e-03</value>
          <splits>
            <_><var>15</var>
              <quality>1.9945967197418213e-01</quality>
              <le>-2.5938549041748047e+00</le></_></splits></_>
        <_>
          <depth>1</depth>
          <value>-1.5712460277722715e+00</value></_>
        <_>
          <depth>1</depth>
          <value>2.3944292944964812e-01</value></_></nodes></_>
    <_>
      <nodes>
        <_>
          <depth>0</depth>
          <value>-1.1848093060713862e-02</value>
          <splits>
            <_><var>52</var>
              <quality>1.9400212168693542e-01</quality>
              <le>-9.2443048954010010e-01</le></_></splits></_>
        <_>
          <depth>1</depth>
          <value>6.6472594849442745e-01</value></_>
        <_>
          <depth>1</depth>
          <value>-3.7217658008137966e-01</value></_></nodes></_>
    <_>
      <nodes>
        <_>
          <depth>0</depth>
          <value>2.6661761629267144e-03</value>
          <splits>
            <_><var>42</var>
              <quality>1.7617665231227875e-01</quality>
              <le>-2.5064098834991455e-01</le></_></splits></_>
        <_>
          <depth>1</depth>
          <value>-7.5081830721963938e-01</value></_>
        <_>
          <depth>1</depth>
          <value>3.0207737572744608e-01</value></_></nodes></_>
    <_>
      <nodes>
        <_>
          <depth>0</depth>
          <value>-9.7439333859181930e-03</value>
          <splits>
            <_><var>115</var>
              <quality>2.5385501980781555e-01</quality>
              <le>1.6102449893951416e+00</le></_></splits></_>
        <_>
          <depth>1</depth>
          <value>-6.1189158214549799e-01</value></_>
        <_>
          <depth>1</depth>
          <value>5.3461889403111296e-01</value></_></nodes></_>
    <_>
      <nodes>
        <_>
          <depth>0</depth>
          <value>5.4333157740832291e-03</value>
          <splits>
            <_><var>42</var>
              <quality>1.7793653905391693e-01</quality>
              <le>-2.6050648689270020e+00</le></_></splits></_>
        <_>
          <depth>1</depth>
          <value>-5.7564577324601141e+00</value></_>
        <_>
          <depth>1</depth>
          <value>1.9414147533101256e-01</value></_></nodes></_>
    <_>
      <nodes>
        <_>
          <depth>0</depth>
          <value>-1.5073202486814189e-02</value>
          <splits>
            <_><var>29</var>
              <quality>1.8478353321552277e-01</quality>
              <le>-2.9678320512175560e-02</le></_></splits></_>
        <_>
          <depth>1</depth>
          <value>3.3595969930533465e-01</value></_>
        <_>
          <depth>1</depth>
          <value>-6.7510948631052570e-01</value></_></nodes></_>
    <_>
      <nodes>
        <_>
          <depth>0</depth>
          <value>6.8293541858859413e-03</value>
          <splits>
            <_><var>89</var>
              <quality>1.6543421149253845e-01</quality>
              <le>8.6137749254703522e-02</le></_></splits></_>
        <_>
          <depth>1</depth>
          <value>2.6587483099743942e-01</value></_>
        <_>
          <depth>1</depth>
          <value>-8.3187274037532555e-01</value></_></nodes></_>
    <_>
      <nodes>
        <_>
          <depth>0</depth>
          <value>-1.1106548909045142e-02</value>
          <splits>
            <_><var>120</var>
              <quality>1.6963167488574982e-01</quality>
              <le>1.5493149757385254e+00</le></_></splits></_>
        <_>
          <depth>1</depth>
          <value>-6.8178695125184341e-01</value></_>
        <_>
          <depth>1</depth>
          <value>3.0484555516947809e-01</value></_></nodes></_>
    <_>
      <nodes>
        <_>
          <depth>0</depth>
          <value>7.4652630452956862e-03</value>
          <splits>
            <_><var>22</var>
              <quality>2.1848131716251373e-01</quality>
              <le>-2.7354998588562012e+00</le></_></splits></_>
        <_>
          <depth>1</depth>
          <value>1.0286782557897594e+00</value></_>
        <_>
          <depth>1</depth>
          <value>-3.0170469986404208e-01</value></_></nodes></_>
    <_>
      <nodes>
        <_>
          <depth>0</depth>
          <value>-8.1275465433061720e-03</value>
          <splits>
            <_><var>107</var>
              <quality>2.2150394320487976e-01</quality>
              <le>4.1859598159790039e+00</le></_></splits></_>
        <_>
          <depth>1</depth>
          <value>2.3093919854741018e-01</value></_>
        <_>
          <depth>1</depth>
          <value>-5.7564577324601141e+00</value></_></nodes></_>
    <_>
      <nodes>
        <_>
          <depth>0</depth>
          <value>-2.1397771168842738e-02</value>
          <splits>
            <_><var>111</var>
              <quality>2.1114675700664520e-01</quality>
              <le>7.8207397460937500e-01</le></_></splits></_>
        <_>
          <depth>1</depth>
          <value>-5.4711659875789775e-01</value></_>
        <_>
          <depth>1</depth>
          <value>4.7676191018477243e-01</value></_></nodes></_>
    <_>
      <nodes>
        <_>
          <depth>0</depth>
          <value>6.7682325368314899e-05</value>
          <splits>
            <_><var>3</var>
              <quality>2.0541030168533325e-01</quality>
              <le>-1.7876650094985962e+00</le></_></splits></_>
        <_>
          <depth>1</depth>
          <value>5.6068149156486236e-01</value></_>
        <_>
          <depth>1</depth>
          <value>-4.5428061531774661e-01</value></_></nodes></_>
    <_>
      <nodes>
        <_>
          <depth>0</depth>
          <value>7.7764816068502283e-04</value>
          <splits>
            <_><var>120</var>
              <quality>2.2127003967761993e-01</quality>
              <le>2.2024950981140137e+00</le></_></splits></_>
        <_>
          <depth>1</depth>
          <value>-6.2481097352111126e-01</value></_>
        <_>
          <depth>1</depth>
          <value>4.4825411580466978e-01</value></_></nodes></_>
    <_>
      <nodes>
        <_>
          <depth>0</depth>
          <value>5.0122471899210711e-03</value>
          <splits>
            <_><var>114</var>
              <quality>2.0592418313026428e-01</quality>
              <le>-2.2513999938964844e+00</le></_></splits></_>
        <_>
          <depth>1</depth>
          <value>1.0172115574492981e+00</value></_>
        <_>
          <depth>1</depth>
          <value>-2.8651719811293619e-01</value></_></nodes></_>
    <_>
      <nodes>
        <_>
          <depth>0</depth>
          <value>-2.1926615063168810e-03</value>
          <splits>
            <_><var>130</var>
              <quality>2.0748022198677063e-01</quality>
              <le>3.2702951431274414e+00</le></_></splits></_>
        <_>
          <depth>1</depth>
          <value>-2.2387202052431432e-01</value></_>
        <_>
          <depth>1</depth>
          <value>5.7564577324623896e+00</value></_></nodes></_>
    <_>
      <nodes>
        <_>
          <depth>0</depth>
          <value>-4.5946354989672300e-01</value>
          <splits>
            <_><var>132</var>
              <quality>5.2787256240844727e-01</quality>
              <le>6.1553150415420532e-01</le></_></splits></_>
        <_>
          <depth>1</depth>
          <value>2.7756589109865648e-01</value></_>
        <_>
          <depth>1</depth>
          <value>-1.9481033394749605e+00</value></_></nodes></_>
    <_>
      <nodes>
        <_>
          <depth>0</depth>
          <value>-5.8088800720259856e-03</value>
          <splits>
            <_><var>56</var>
              <quality>3.0202865600585938e-01</quality>
              <le>2.1852099895477295e-01</le></_></splits></_>
        <_>
          <depth>1</depth>
          <value>5.3283093020619965e-01</value></_>
        <_>
          <depth>1</depth>
          <value>-7.7651278582643468e-01</value></_></nodes></_>
    <_>
      <nodes>
        <_>
          <depth>0</depth>
          <value>-1.1797473539215890e-02</value>
          <splits>
            <_><var>86</var>
              <quality>3.5229721665382385e-01</quality>
              <le>4.3570697307586670e-01</le></_></splits></_>
        <_>
          <depth>1</depth>
          <value>-5.4978460230543702e-01</value></_>
        <_>
          <depth>1</depth>
          <value>9.6672398850130925e-01</value></_></nodes></_>
    <_>
      <nodes>
        <_>
          <depth>0</depth>
          <value>-1.4486822455089289e-02</value>
          <splits>
            <_><var>97</var>
              <quality>2.2348807752132416e-01</quality>
              <le>8.2208251953125000e-01</le></_></splits></_>
        <_>
          <depth>1</depth>
          <value>-6.2696719233423837e-01</value></_>
        <_>
          <depth>1</depth>
          <value>4.4720639638475623e-01</value></_></nodes></_>
    <_>
      <nodes>
        <_>
          <depth>0</depth>
          <value>2.3896201805741640e-03</value>
          <splits>
            <_><var>65</var>
              <quality>2.5716650485992432e-01</quality>
              <le>-1.1340700387954712e+00</le></_></splits></_>
        <_>
          <depth>1</depth>
          <value>7.0220568026758812e-01</value></_>
        <_>
          <depth>1</depth>
          <value>-4.8041262549237135e-01</value></_></nodes></_>
    <_>
      <nodes>
        <_>
          <depth>0</depth>
          <value>-9.5175876683446065e-04</value>
          <splits>
            <_><var>37</var>
              <quality>3.0695697665214539e-01</quality>
              <le>-1.1495950222015381e+00</le></_></splits></_>
        <_>
          <depth>1</depth>
          <value>-1.8981724452743733e+00</value></_>
        <_>
          <depth>1</depth>
          <value>3.5140024084074128e-01</value></_></nodes></_>
    <_>
      <nodes>
        <_>
          <depth>0</depth>
          <value>8.9054984707112820e-03</value>
          <splits>
            <_><var>19</var>
              <quality>2.1089211106300354e-01</quality>
              <le>-1.7259500026702881e+00</le></_></splits></_>
        <_>
          <depth>1</depth>
          <value>-1.0648628447724144e+00</value></_>
        <_>
          <depth>1</depth>
          <value>2.9617684649337023e-01</value></_></nodes></_>
    <_>
      <nodes>
        <_>
          <depth>0</depth>
          <value>-1.6367327942997494e-02</value>
          <splits>
            <_><var>28</var>
              <quality>2.5455743074417114e-01</quality>
              <le>6.6773951053619385e-01</le></_></splits></_>
        <_>
          <depth>1</depth>
          <value>3.1765613177708152e-01</value></_>
        <_>
          <depth>1</depth>
          <value>-1.2346515166139753e+00</value></_></nodes></_>
    <_>
      <nodes>
        <_>
          <depth>0</depth>
          <value>-1.3950075585692197e-02</value>
          <splits>
            <_><var>98</var>
              <quality>2.6072356104850769e-01</quality>
              <le>1.3392300605773926e+00</le></_></splits></_>
        <_>
          <depth>1</depth>
          <value>-4.8768721435791224e-01</value></_>
        <_>
          <depth>1</depth>
          <value>7.1153215705562778e-01</value></_></nodes></_>
    <_>
      <nodes>
        <_>
          <depth>0</depth>
          <value>1.6031403154381538e-03</value>
          <splits>
            <_><var>54</var>
              <quality>2.4090889096260071e-01</quality>
              <le>5.7463800907135010e-01</le></_></splits></_>
        <_>
          <depth>1</depth>
          <value>-4.3848825517115619e-01</value></_>
        <_>
          <depth>1</depth>
          <value>7.1576775911852664e-01</value></_></nodes></_>
    <_>
      <nodes>
        <_>
          <depth>0</depth>
          <value>-1.1041996691696244e-02</value>
          <splits>
            <_><var>97</var>
              <quality>1.8180322647094727e-01</quality>
              <le>3.4577947854995728e-01</le></_></splits></_>
        <_>
          <depth>1</depth>
          <value>-6.1863313047896240e-01</value></_>
        <_>
          <depth>1</depth>
          <value>3.5846006644563744e-01</value></_></nodes></_>
    <_>
      <nodes>
        <_>
          <depth>0</depth>
          <value>-2.8022444880538631e-03</value>
          <splits>
            <_><var>3</var>
              <quality>1.9573999941349030e-01</quality>
              <le>-3.0223850160837173e-02</le></_></splits></_>
        <_>
          <depth>1</depth>
          <value>4.0475221377557663e-01</value></_>
        <_>
          <depth>1</depth>
          <value>-5.9790571869091447e-01</value></_></nodes></_>
    <_>
      <nodes>
        <_>
          <depth>0</depth>
          <value>-1.1878117555311150e-02</value>
          <splits>
            <_><var>96</var>
              <quality>1.8311566114425659e-01</quality>
              <le>5.0005350112915039e+00</le></_></splits></_>
        <_>
          <depth>1</depth>
          <value>-3.1761879572083207e-01</value></_>
        <_>
          <depth>1</depth>
          <value>7.5924194784730903e-01</value></_></nodes></_>
    <_>
      <nodes>
        <_>
          <depth>0</depth>
          <value>-9.7978899545721025e-03</value>
          <splits>
            <_><var>118</var>
              <quality>2.0576435327529907e-01</quality>
              <le>-4.2225499153137207e+00</le></_></splits></_>
        <_>
          <depth>1</depth>
          <value>2.5314568344850281e+00</value></_>
        <_>
          <depth>1</depth>
          <value>-2.3105938417616395e-01</value></_></nodes></_>
    <_>
      <nodes>
        <_>
          <depth>0</depth>
          <value>6.7430120793465177e-03</value>
          <splits>
            <_><var>97</var>
              <quality>2.0727664232254028e-01</quality>
              <le>3.4577947854995728e-01</le></_></splits></_>
        <_>
          <depth>1</depth>
          <value>-1.0035298023457537e+00</value></_>
        <_>
          <depth>1</depth>
          <value>2.9870212318868344e-01</value></_></nodes></_>
    <_>
      <nodes>
        <_>
          <depth>0</depth>
          <value>8.2963936867297243e-03</value>
          <splits>
            <_><var>43</var>
              <quality>1.7620693147182465e-01</quality>
              <le>3.6606949567794800e-01</le></_></splits></_>
        <_>
          <depth>1</depth>
          <value>-3.8165712192367002e-01</value></_>
        <_>
          <depth>1</depth>
          <value>5.5770926770903539e-01</value></_></nodes></_>
    <_>
      <nodes>
        <_>
          <depth>0</depth>
          <value>-1.2997756522294037e-02</value>
          <splits>
            <_><var>93</var>
              <quality>1.8120090663433075e-01</quality>
              <le>1.0102459788322449e-01</le></_></splits></_>
        <_>
          <depth>1</depth>
          <value>3.5487024529788402e-01</value></_>
        <_>
          <depth>1</depth>
          <value>-6.2177857618997012e-01</value></_></nodes></_>
    <_>
      <nodes>
        <_>
          <depth>0</depth>
          <value>-6.4059136401542292e-03</value>
          <splits>
            <_><var>42</var>
              <quality>1.5885864198207855e-01</quality>
              <le>-2.4902349710464478e-01</le></_></splits></_>
        <_>
          <depth>1</depth>
          <value>-8.4024497710233603e-01</value></_>
        <_>
          <depth>1</depth>
          <value>2.4456458652034471e-01</value></_></nodes></_>
    <_>
      <nodes>
        <_>
          <depth>0</depth>
          <value>-6.5184150367281358e-03</value>
          <splits>
            <_><var>45</var>
              <quality>1.3859073817729950e-01</quality>
              <le>1.6166599988937378e+00</le></_></splits></_>
        <_>
          <depth>1</depth>
          <value>1.7932126529860976e-01</value></_>
        <_>
          <depth>1</depth>
          <value>-1.0978230377555505e+00</value></_></nodes></_>
    <_>
      <nodes>
        <_>
          <depth>0</depth>
          <value>-6.6527143471790005e-03</value>
          <splits>
            <_><var>125</var>
              <quality>1.7568713426589966e-01</quality>
              <le>-1.6833449602127075e+00</le></_></splits></_>
        <_>
          <depth>1</depth>
          <value>9.2025881571740864e-01</value></_>
        <_>
          <depth>1</depth>
          <value>-2.6524378357865191e-01</value></_></nodes></_>
    <_>
      <nodes>
        <_>
          <depth>0</depth>
          <value>-5.9468998100307693e-03</value>
          <splits>
            <_><var>77</var>
              <quality>1.7830175161361694e-01</quality>
              <le>1.3775849342346191e-01</le></_></splits></_>
        <_>
          <depth>1</depth>
          <value>-3.5780660364769168e-01</value></_>
        <_>
          <depth>1</depth>
          <value>6.1941102304620343e-01</value></_></nodes></_>
    <_>
      <nodes>
        <_>
          <depth>0</depth>
          <value>-1.3579995576885301e-02</value>
          <splits>
            <_><var>13</var>
              <quality>1.4435715973377228e-01</quality>
              <le>-1.2913050651550293e+00</le></_></splits></_>
        <_>
          <depth>1</depth>
          <value>-7.3095166858827598e-01</value></_>
        <_>
          <depth>1</depth>
          <value>2.3971755268920097e-01</value></_></nodes></_>
    <_>
      <nodes>
        <_>
          <depth>0</depth>
          <value>-4.9234482557471392e-03</value>
          <splits>
            <_><var>83</var>
              <quality>1.4963923394680023e-01</quality>
              <le>-1.0185450315475464e+00</le></_></splits></_>
        <_>
          <depth>1</depth>
          <value>-1.9183793455046019e+00</value></_>
        <_>
          <depth>1</depth>
          <value>1.6181184532739473e-01</value></_></nodes></_>
    <_>
      <nodes>
        <_>
          <depth>0</depth>
          <value>-2.2048591473062540e-03</value>
          <splits>
            <_><var>108</var>
              <quality>1.6324751079082489e-01</quality>
              <le>-1.2450649738311768e+00</le></_></splits></_>
        <_>
          <depth>1</depth>
          <value>3.1378372491774698e-01</value></_>
        <_>
          <depth>1</depth>
          <value>-6.3873096831815845e-01</value></_></nodes></_>
    <_>
      <nodes>
        <_>
          <depth>0</depth>
          <value>2.9599918079899834e-03</value>
          <splits>
            <_><var>54</var>
              <quality>1.7089219391345978e-01</quality>
              <le>-1.9500750303268433e-01</le></_></splits></_>
        <_>
          <depth>1</depth>
          <value>-7.9438298919531214e-01</value></_>
        <_>
          <depth>1</depth>
          <value>2.8116993841636634e-01</value></_></nodes></_>
    <_>
      <nodes>
        <_>
          <depth>0</depth>
          <value>-1.1246914174228642e-02</value>
          <splits>
            <_><var>83</var>
              <quality>1.4814755320549011e-01</quality>
              <le>8.2054495811462402e-01</le></_></splits></_>
        <_>
          <depth>1</depth>
          <value>3.1195017023974098e-01</value></_>
        <_>
          <depth>1</depth>
          <value>-5.6083381805348353e-01</value></_></nodes></_>
    <_>
      <nodes>
        <_>
          <depth>0</depth>
          <value>-5.7418108651340997e-03</value>
          <splits>
            <_><var>105</var>
              <quality>1.2737655639648438e-01</quality>
              <le>-7.2685256600379944e-02</le></_></splits></_>
        <_>
          <depth>1</depth>
          <value>3.0656258762868649e-01</value></_>
        <_>
          <depth>1</depth>
          <value>-4.8258016633916478e-01</value></_></nodes></_>
    <_>
      <nodes>
        <_>
          <depth>0</depth>
          <value>-2.3396699755072487e-03</value>
          <splits>
            <_><var>129</var>
              <quality>1.6594041883945465e-01</quality>
              <le>5.2238302230834961e+00</le></_></splits></_>
        <_>
          <depth>1</depth>
          <value>-2.2163442788618148e-01</value></_>
        <_>
          <depth>1</depth>
          <value>1.1216156653063099e+00</value></_></nodes></_>
    <_>
      <nodes>
        <_>
          <depth>0</depth>
          <value>-1.3114879350343438e-02</value>
          <splits>
            <_><var>0</var>
              <quality>1.2047959119081497e-01</quality>
              <le>-2.7625150680541992e+00</le></_></splits></_>
        <_>
          <depth>1</depth>
          <value>1.8429942652345785e+00</value></_>
        <_>
          <depth>1</depth>
          <value>-1.4542117745579020e-01</value></_></nodes></_>
    <_>
      <nodes>
        <_>
          <depth>0</depth>
          <value>-4.4203832974729372e-04</value>
          <splits>
            <_><var>89</var>
              <quality>1.2206647545099258e-01</quality>
              <le>1.1335600167512894e-01</le></_></splits></_>
        <_>
          <depth>1</depth>
          <value>1.9706511177845673e-01</value></_>
        <_>
          <depth>1</depth>
          <value>-7.9242216038819380e-01</value></_></nodes></_>
    <_>
      <nodes>
        <_>
          <depth>0</depth>
          <value>-5.3050910269177706e-03</value>
          <splits>
            <_><var>121</var>
              <quality>1.2808012962341309e-01</quality>
              <le>7.2913503646850586e+00</le></_></splits></_>
        <_>
          <depth>1</depth>
          <value>1.3098336413162637e-01</value></_>
        <_>
          <depth>1</depth>
          <value>-5.7564577324601141e+00</value></_></nodes></_>
    <_>
      <nodes>
        <_>
          <depth>0</depth>
          <value>-4.8676125653956161e-03</value>
          <splits>
            <_><var>22</var>
              <quality>1.2805861234664917e-01</quality>
              <le>-2.7309699058532715e+00</le></_></splits></_>
        <_>
          <depth>1</depth>
          <value>6.1958095651781508e-01</value></_>
        <_>
          <depth>1</depth>
          <value>-2.5272273914126592e-01</value></_></nodes></_>
    <_>
      <nodes>
        <_>
          <depth>0</depth>
          <value>1.5520267844437859e-04</value>
          <splits>
            <_><var>129</var>
              <quality>1.7067955434322357e-01</quality>
              <le>-7.9908001422882080e-01</le></_></splits></_>
        <_>
          <depth>1</depth>
          <value>-9.9826214354327103e-01</value></_>
        <_>
          <depth>1</depth>
          <value>2.4097716055991519e-01</value></_></nodes></_>
    <_>
      <nodes>
        <_>
          <depth>0</depth>
          <value>-5.2144541701216679e-03</value>
          <splits>
            <_><var>67</var>
              <quality>1.4820963144302368e-01</quality>
              <le>-3.1204237602651119e-03</le></_></splits></_>
        <_>
          <depth>1</depth>
          <value>2.6287181120666786e-01</value></_>
        <_>
          <depth>1</depth>
          <value>-6.9357118210427959e-01</value></_></nodes></_>
    <_>
      <nodes>
        <_>
          <depth>0</depth>
          <value>1.4800901240144453e-04</value>
          <splits>
            <_><var>94</var>
              <quality>2.0601908862590790e-01</quality>
              <le>-1.5341199934482574e-01</le></_></splits></_>
        <_>
          <depth>1</depth>
          <value>-6.6043970383065398e-01</value></_>
        <_>
          <depth>1</depth>
          <value>3.9449602649418058e-01</value></_></nodes></_>
    <_>
      <nodes>
        <_>
          <depth>0</depth>
          <value>-1.1793167915261870e-02</value>
          <splits>
            <_><var>120</var>
              <quality>1.5420690178871155e-01</quality>
              <le>2.8971250057220459e+00</le></_></splits></_>
        <_>
          <depth>1</depth>
          <value>-4.0108382403299458e-01</value></_>
        <_>
          <depth>1</depth>
          <value>4.5751744183918419e-01</value></_></nodes></_></trees></opencv_ml_boost>
</opencv_storage>
