<?xml version="1.0"?>
<opencv_storage>
<opencv_ml_boost>
  <format>3</format>
  <is_classifier>1</is_classifier>
  <var_all>137</var_all>
  <var_count>136</var_count>
  <ord_var_count>136</ord_var_count>
  <cat_var_count>1</cat_var_count>
  <training_params>
    <boosting_type>RealAdaboost</boosting_type>
    <use_surrogates>0</use_surrogates>
    <max_categories>10</max_categories>
    <regression_accuracy>9.9999997764825821e-03</regression_accuracy>
    <max_depth>1</max_depth>
    <min_sample_count>10</min_sample_count>
    <cross_validation_folds>0</cross_validation_folds>
    <weight_trimming_rate>9.4999999999999996e-01</weight_trimming_rate></training_params>
  <global_var_idx>1</global_var_idx>
  <var_idx>
    0 1 2 3 4 5 6 7 8 9 10 11 12 13 14 15 16 17 18 19 20 21 22 23 24 25
    26 27 28 29 30 31 32 33 34 35 36 37 38 39 40 41 42 43 44 45 46 47 48
    49 50 51 52 53 54 55 56 57 58 59 60 61 62 63 64 65 66 67 68 69 70 71
    72 73 74 75 76 77 78 79 80 81 82 83 84 85 86 87 88 89 90 91 92 93 94
    95 96 97 98 99 100 101 102 103 104 105 106 107 108 109 110 111 112
    113 114 115 116 117 118 119 120 121 122 123 124 125 126 127 128 129
    130 131 132 133 134 135</var_idx>
  <var_type>
    0 0 0 0 0 0 0 0 0 0 0 0 0 0 0 0 0 0 0 0 0 0 0 0 0 0 0 0 0 0 0 0 0 0
    0 0 0 0 0 0 0 0 0 0 0 0 0 0 0 0 0 0 0 0 0 0 0 0 0 0 0 0 0 0 0 0 0 0
    0 0 0 0 0 0 0 0 0 0 0 0 0 0 0 0 0 0 0 0 0 0 0 0 0 0 0 0 0 0 0 0 0 0
    0 0 0 0 0 0 0 0 0 0 0 0 0 0 0 0 0 0 0 0 0 0 0 0 0 0 0 0 0 0 0 0 0 0
    1</var_type>
  <cat_ofs>
    0 0 0 0 0 0 0 0 0 0 0 0 0 0 0 0 0 0 0 0 0 0 0 0 0 0 0 0 0 0 0 0 0 0
    0 0 0 0 0 0 0 0 0 0 0 0 0 0 0 0 0 0 0 0 0 0 0 0 0 0 0 0 0 0 0 0 0 0
    0 0 0 0 0 0 0 0 0 0 0 0 0 0 0 0 0 0 0 0 0 0 0 0 0 0 0 0 0 0 0 0 0 0
    0 0 0 0 0 0 0 0 0 0 0 0 0 0 0 0 0 0 0 0 0 0 0 0 0 0 0 0 0 0 0 0 0 0
    0 0 0 0 0 0 0 0 0 0 0 0 0 0 0 0 0 0 0 0 0 0 0 0 0 0 0 0 0 0 0 0 0 0
    0 0 0 0 0 0 0 0 0 0 0 0 0 0 0 0 0 0 0 0 0 0 0 0 0 0 0 0 0 0 0 0 0 0
    0 0 0 0 0 0 0 0 0 0 0 0 0 0 0 0 0 0 0 0 0 0 0 0 0 0 0 0 0 0 0 0 0 0
    0 0 0 0 0 0 0 0 0 0 0 0 0 0 0 0 0 0 0 0 0 0 0 0 0 0 0 0 0 0 0 0 0 0</cat_ofs>
  <class_labels>
    -1 1</class_labels>
  <missing_subst>
    0. 0. 0. 0. 0. 0. 0. 0. 0. 0. 0. 0. 0. 0. 0. 0. 0. 0. 0. 0. 0. 0. 0.
    0. 0. 0. 0. 0. 0. 0. 0. 0. 0. 0. 0. 0. 0. 0. 0. 0. 0. 0. 0. 0. 0. 0.
    0. 0. 0. 0. 0. 0. 0. 0. 0. 0. 0. 0. 0. 0. 0. 0. 0. 0. 0. 0. 0. 0. 0.
    0. 0. 0. 0. 0. 0. 0. 0. 0. 0. 0. 0. 0. 0. 0. 0. 0. 0. 0. 0. 0. 0. 0.
    0. 0. 0. 0. 0. 0. 0. 0. 0. 0. 0. 0. 0. 0. 0. 0. 0. 0. 0. 0. 0. 0. 0.
    0. 0. 0. 0. 0. 0. 0. 0. 0. 0. 0. 0. 0. 0. 0. 0. 0. 0. 0. 0. 0. 0.</missing_subst>
  <ntrees>100</ntrees>
  <trees>
    <_>
      <nodes>
        <_>
          <depth>0</depth>
          <value>-1.3223470171327159e+00</value>
          <splits>
            <_><var>119</var>
              <quality>7.8143322467803955e-01</quality>
              <le>-2.9917249679565430e+00</le></_></splits></_>
        <_>
          <depth>1</depth>
          <value>-7.2777279858031940e-01</value></_>
        <_>
          <depth>1</depth>
          <value>-2.4722477457958894e+00</value></_></nodes></_>
    <_>
      <nodes>
        <_>
          <depth>0</depth>
          <value>1.0438197197550007e-08</value>
          <splits>
            <_><var>108</var>
              <quality>2.8542709350585938e-01</quality>
              <le>-4.1726702451705933e-01</le></_></splits></_>
        <_>
          <depth>1</depth>
          <value>4.7038471822068412e-01</value></_>
        <_>
          <depth>1</depth>
          <value>-7.7686221074488682e-01</value></_></nodes></_>
    <_>
      <nodes>
        <_>
          <depth>0</depth>
          <value>5.2009998566602655e-02</value>
          <splits>
            <_><var>52</var>
              <quality>3.2269340753555298e-01</quality>
              <le>1.8109150230884552e-01</le></_></splits></_>
        <_>
          <depth>1</depth>
          <value>-1.1630590267431116e+00</value></_>
        <_>
          <depth>1</depth>
          <value>4.6885636525923124e-01</value></_></nodes></_>
    <_>
      <nodes>
        <_>
          <depth>0</depth>
          <value>1.0762777018057090e-02</value>
          <splits>
            <_><var>44</var>
              <quality>2.7940806746482849e-01</quality>
              <le>-7.4568951129913330e-01</le></_></splits></_>
        <_>
          <depth>1</depth>
          <value>-6.9604264664559701e-01</value></_>
        <_>
          <depth>1</depth>
          <value>5.3483461270330368e-01</value></_></nodes></_>
    <_>
      <nodes>
        <_>
          <depth>0</depth>
          <value>-2.8094919399127609e-02</value>
          <splits>
            <_><var>96</var>
              <quality>1.9165182113647461e-01</quality>
              <le>-1.1918249130249023e+00</le></_></splits></_>
        <_>
          <depth>1</depth>
          <value>-1.0594347806600670e+00</value></_>
        <_>
          <depth>1</depth>
          <value>2.3958462572706804e-01</value></_></nodes></_>
    <_>
      <nodes>
        <_>
          <depth>0</depth>
          <value>-1.1809889363829250e-02</value>
          <splits>
            <_><var>75</var>
              <quality>2.8810542821884155e-01</quality>
              <le>9.5568448305130005e-01</le></_></splits></_>
        <_>
          <depth>1</depth>
          <value>-5.8143381107923131e-01</value></_>
        <_>
          <depth>1</depth>
          <value>6.5344735377948815e-01</value></_></nodes></_>
    <_>
      <nodes>
        <_>
          <depth>0</depth>
          <value>1.5695152491241014e-02</value>
          <splits>
            <_><var>22</var>
              <quality>1.8985381722450256e-01</quality>
              <le>1.7653650045394897e+00</le></_></splits></_>
        <_>
          <depth>1</depth>
          <value>2.4155230562869215e-01</value></_>
        <_>
          <depth>1</depth>
          <value>-1.3930229892313823e+00</value></_></nodes></_>
    <_>
      <nodes>
        <_>
          <depth>0</depth>
          <value>-7.1522552278614543e-03</value>
          <splits>
            <_><var>131</var>
              <quality>1.9579631090164185e-01</quality>
              <le>-3.4497199058532715e+00</le></_></splits></_>
        <_>
          <depth>1</depth>
          <value>2.8749863597166192e-01</value></_>
        <_>
          <depth>1</depth>
          <value>-9.1848533921278608e-01</value></_></nodes></_>
    <_>
      <nodes>
        <_>
          <depth>0</depth>
          <value>1.6913443018819953e-02</value>
          <splits>
            <_><var>38</var>
              <quality>2.1046271920204163e-01</quality>
              <le>-9.4244349002838135e-01</le></_></splits></_>
        <_>
          <depth>1</depth>
          <value>7.2051681409877977e-01</value></_>
        <_>
          <depth>1</depth>
          <value>-3.6726149853511353e-01</value></_></nodes></_>
    <_>
      <nodes>
        <_>
          <depth>0</depth>
          <value>-1.1894089125470918e-02</value>
          <splits>
            <_><var>121</var>
              <quality>1.4826649427413940e-01</quality>
              <le>8.0094547271728516e+00</le></_></splits></_>
        <_>
          <depth>1</depth>
          <value>1.4624201302992171e-01</value></_>
        <_>
          <depth>1</depth>
          <value>-5.7564577324601141e+00</value></_></nodes></_>
    <_>
      <nodes>
        <_>
          <depth>0</depth>
          <value>5.4167394720438152e-09</value>
          <splits>
            <_><var>128</var>
              <quality>2.1422518789768219e-01</quality>
              <le>-1.6402249336242676e+00</le></_></splits></_>
        <_>
          <depth>1</depth>
          <value>4.3381044637590044e-01</value></_>
        <_>
          <depth>1</depth>
          <value>-6.1644105901459845e-01</value></_></nodes></_>
    <_>
      <nodes>
        <_>
          <depth>0</depth>
          <value>1.4619618705373436e-02</value>
          <splits>
            <_><var>34</var>
              <quality>1.8353407084941864e-01</quality>
              <le>-6.8400949239730835e-01</le></_></splits></_>
        <_>
          <depth>1</depth>
          <value>3.8112458688467804e-01</value></_>
        <_>
          <depth>1</depth>
          <value>-6.0167980057197612e-01</value></_></nodes></_>
    <_>
      <nodes>
        <_>
          <depth>0</depth>
          <value>-2.0020767255271792e-02</value>
          <splits>
            <_><var>8</var>
              <quality>2.3058216273784637e-01</quality>
              <le>-1.8504450321197510e+00</le></_></splits></_>
        <_>
          <depth>1</depth>
          <value>-1.4274593974230165e+00</value></_>
        <_>
          <depth>1</depth>
          <value>2.6055790631730102e-01</value></_></nodes></_>
    <_>
      <nodes>
        <_>
          <depth>0</depth>
          <value>3.5009780806545532e-04</value>
          <splits>
            <_><var>75</var>
              <quality>1.5413233637809753e-01</quality>
              <le>1.1799550056457520e+00</le></_></splits></_>
        <_>
          <depth>1</depth>
          <value>-4.0859495613804730e-01</value></_>
        <_>
          <depth>1</depth>
          <value>4.4529105605153146e-01</value></_></nodes></_>
    <_>
      <nodes>
        <_>
          <depth>0</depth>
          <value>6.8564260681440231e-03</value>
          <splits>
            <_><var>42</var>
              <quality>1.4524924755096436e-01</quality>
              <le>-2.3778750896453857e+00</le></_></splits></_>
        <_>
          <depth>1</depth>
          <value>6.8559537262307457e-01</value></_>
        <_>
          <depth>1</depth>
          <value>-2.5859614597831998e-01</value></_></nodes></_>
    <_>
      <nodes>
        <_>
          <depth>0</depth>
          <value>-4.5266301329704578e-03</value>
          <splits>
            <_><var>45</var>
              <quality>1.7672343552112579e-01</quality>
              <le>-2.7663651108741760e-01</le></_></splits></_>
        <_>
          <depth>1</depth>
          <value>-6.6020515491691167e-01</value></_>
        <_>
          <depth>1</depth>
          <value>3.3096649134993611e-01</value></_></nodes></_>
    <_>
      <nodes>
        <_>
          <depth>0</depth>
          <value>-5.8825922986238590e-03</value>
          <splits>
            <_><var>25</var>
              <quality>1.7039512097835541e-01</quality>
              <le>5.0988745689392090e-01</le></_></splits></_>
        <_>
          <depth>1</depth>
          <value>-3.4211676471331182e-01</value></_>
        <_>
          <depth>1</depth>
          <value>6.1621627856094630e-01</value></_></nodes></_>
    <_>
      <nodes>
        <_>
          <depth>0</depth>
          <value>-5.5743613755770555e-03</value>
          <splits>
            <_><var>108</var>
              <quality>1.7701287567615509e-01</quality>
              <le>-5.7526903152465820e+00</le></_></splits></_>
        <_>
          <depth>1</depth>
          <value>5.3361387448014730e-01</value></_>
        <_>
          <depth>1</depth>
          <value>-4.0347467711754897e-01</value></_></nodes></_>
    <_>
      <nodes>
        <_>
          <depth>0</depth>
          <value>1.0300927922707844e-02</value>
          <splits>
            <_><var>121</var>
              <quality>1.9075641036033630e-01</quality>
              <le>3.7886948585510254e+00</le></_></splits></_>
        <_>
          <depth>1</depth>
          <value>2.7622682040766161e-01</value></_>
        <_>
          <depth>1</depth>
          <value>-1.0063781426482350e+00</value></_></nodes></_>
    <_>
      <nodes>
        <_>
          <depth>0</depth>
          <value>-1.6628342429507992e-02</value>
          <splits>
            <_><var>115</var>
              <quality>1.3454134762287140e-01</quality>
              <le>6.4286804199218750e-01</le></_></splits></_>
        <_>
          <depth>1</depth>
          <value>1.2776149039777712e-01</value></_>
        <_>
          <depth>1</depth>
          <value>-5.7564577324601141e+00</value></_></nodes></_>
    <_>
      <nodes>
        <_>
          <depth>0</depth>
          <value>-9.0232916843246394e-04</value>
          <splits>
            <_><var>15</var>
              <quality>1.9006043672561646e-01</quality>
              <le>-1.0824899673461914e+01</le></_></splits></_>
        <_>
          <depth>1</depth>
          <value>-1.8821542018256927e+00</value></_>
        <_>
          <depth>1</depth>
          <value>2.1202385387387976e-01</value></_></nodes></_>
    <_>
      <nodes>
        <_>
          <depth>0</depth>
          <value>3.4626087526367570e-03</value>
          <splits>
            <_><var>52</var>
              <quality>2.0994351804256439e-01</quality>
              <le>1.2687098979949951e+00</le></_></splits></_>
        <_>
          <depth>1</depth>
          <value>-4.9101497178339254e-01</value></_>
        <_>
          <depth>1</depth>
          <value>5.3021992999939194e-01</value></_></nodes></_>
    <_>
      <nodes>
        <_>
          <depth>0</depth>
          <value>-2.0596406326458733e-04</value>
          <splits>
            <_><var>40</var>
              <quality>1.6794137656688690e-01</quality>
              <le>-3.3989748954772949e+00</le></_></splits></_>
        <_>
          <depth>1</depth>
          <value>1.2909605061255136e+00</value></_>
        <_>
          <depth>1</depth>
          <value>-2.0888708716797935e-01</value></_></nodes></_>
    <_>
      <nodes>
        <_>
          <depth>0</depth>
          <value>-2.4961928372391044e-03</value>
          <splits>
            <_><var>111</var>
              <quality>1.8546804785728455e-01</quality>
              <le>-7.3825902938842773e+00</le></_></splits></_>
        <_>
          <depth>1</depth>
          <value>5.6639730284005674e-01</value></_>
        <_>
          <depth>1</depth>
          <value>-4.0173351356474840e-01</value></_></nodes></_>
    <_>
      <nodes>
        <_>
          <depth>0</depth>
          <value>-8.7376033879651115e-03</value>
          <splits>
            <_><var>26</var>
              <quality>2.1186786890029907e-01</quality>
              <le>-6.3385002315044403e-02</le></_></splits></_>
        <_>
          <depth>1</depth>
          <value>3.4143903828633532e-01</value></_>
        <_>
          <depth>1</depth>
          <value>-8.0979433569634029e-01</value></_></nodes></_>
    <_>
      <nodes>
        <_>
          <depth>0</depth>
          <value>1.1231846613048518e-03</value>
          <splits>
            <_><var>0</var>
              <quality>2.3343475162982941e-01</quality>
              <le>1.0236049890518188e+00</le></_></splits></_>
        <_>
          <depth>1</depth>
          <value>4.1146797928880974e-01</value></_>
        <_>
          <depth>1</depth>
          <value>-7.4361720771295337e-01</value></_></nodes></_>
    <_>
      <nodes>
        <_>
          <depth>0</depth>
          <value>-1.9030602462246426e-02</value>
          <splits>
            <_><var>45</var>
              <quality>1.8918791413307190e-01</quality>
              <le>3.1875650882720947e+00</le></_></splits></_>
        <_>
          <depth>1</depth>
          <value>-4.7473854668309756e-01</value></_>
        <_>
          <depth>1</depth>
          <value>4.8589116759865458e-01</value></_></nodes></_>
    <_>
      <nodes>
        <_>
          <depth>0</depth>
          <value>3.5122113461977618e-03</value>
          <splits>
            <_><var>37</var>
              <quality>1.8399865925312042e-01</quality>
              <le>-2.6220099925994873e+00</le></_></splits></_>
        <_>
          <depth>1</depth>
          <value>5.5983377312177340e-01</value></_>
        <_>
          <depth>1</depth>
          <value>-4.0068343969175862e-01</value></_></nodes></_>
    <_>
      <nodes>
        <_>
          <depth>0</depth>
          <value>-3.9574892887559764e-03</value>
          <splits>
            <_><var>57</var>
              <quality>1.9555050134658813e-01</quality>
              <le>-1.7098950147628784e+00</le></_></splits></_>
        <_>
          <depth>1</depth>
          <value>-1.2754240602726028e+00</value></_>
        <_>
          <depth>1</depth>
          <value>2.4248693061924609e-01</value></_></nodes></_>
    <_>
      <nodes>
        <_>
          <depth>0</depth>
          <value>-1.8137869223362321e-03</value>
          <splits>
            <_><var>96</var>
              <quality>2.3159751296043396e-01</quality>
              <le>1.6091549396514893e+00</le></_></splits></_>
        <_>
          <depth>1</depth>
          <value>-6.3993154959069809e-01</value></_>
        <_>
          <depth>1</depth>
          <value>4.6139348410717729e-01</value></_></nodes></_>
    <_>
      <nodes>
        <_>
          <depth>0</depth>
          <value>7.5852390150971021e-03</value>
          <splits>
            <_><var>81</var>
              <quality>1.5093742311000824e-01</quality>
              <le>-8.9173501729965210e-01</le></_></splits></_>
        <_>
          <depth>1</depth>
          <value>6.1551461463469648e-01</value></_>
        <_>
          <depth>1</depth>
          <value>-2.9459623090439457e-01</value></_></nodes></_>
    <_>
      <nodes>
        <_>
          <depth>0</depth>
          <value>-7.9221723949587219e-03</value>
          <splits>
            <_><var>42</var>
              <quality>1.8922232091426849e-01</quality>
              <le>1.3271400928497314e+00</le></_></splits></_>
        <_>
          <depth>1</depth>
          <value>3.5274790487740604e-01</value></_>
        <_>
          <depth>1</depth>
          <value>-6.6549040131101500e-01</value></_></nodes></_>
    <_>
      <nodes>
        <_>
          <depth>0</depth>
          <value>-5.4985491666869552e-03</value>
          <splits>
            <_><var>8</var>
              <quality>1.6297703981399536e-01</quality>
              <le>4.9795901775360107e-01</le></_></splits></_>
        <_>
          <depth>1</depth>
          <value>-4.9982357954218848e-01</value></_>
        <_>
          <depth>1</depth>
          <value>3.8876180836746643e-01</value></_></nodes></_>
    <_>
      <nodes>
        <_>
          <depth>0</depth>
          <value>2.4651359223612571e-03</value>
          <splits>
            <_><var>52</var>
              <quality>1.4129337668418884e-01</quality>
              <le>5.2352897822856903e-02</le></_></splits></_>
        <_>
          <depth>1</depth>
          <value>-7.7087431293038422e-01</value></_>
        <_>
          <depth>1</depth>
          <value>2.3563699765433135e-01</value></_></nodes></_>
    <_>
      <nodes>
        <_>
          <depth>0</depth>
          <value>-3.8582520279229304e-03</value>
          <splits>
            <_><var>5</var>
              <quality>1.1920603364706039e-01</quality>
              <le>-6.1521749496459961e+00</le></_></splits></_>
        <_>
          <depth>1</depth>
          <value>-1.6327954494107340e+00</value></_>
        <_>
          <depth>1</depth>
          <value>1.3293190020081558e-01</value></_></nodes></_>
    <_>
      <nodes>
        <_>
          <depth>0</depth>
          <value>-1.8529699064174065e-03</value>
          <splits>
            <_><var>89</var>
              <quality>2.1270200610160828e-01</quality>
              <le>1.1463499069213867e+00</le></_></splits></_>
        <_>
          <depth>1</depth>
          <value>-4.0374570554595257e-01</value></_>
        <_>
          <depth>1</depth>
          <value>6.7055059243344561e-01</value></_></nodes></_>
    <_>
      <nodes>
        <_>
          <depth>0</depth>
          <value>-1.0525876565634317e-03</value>
          <splits>
            <_><var>22</var>
              <quality>1.8904757499694824e-01</quality>
              <le>-1.3536400794982910e+00</le></_></splits></_>
        <_>
          <depth>1</depth>
          <value>5.9235989023946112e-01</value></_>
        <_>
          <depth>1</depth>
          <value>-3.9384786516662579e-01</value></_></nodes></_>
    <_>
      <nodes>
        <_>
          <depth>0</depth>
          <value>-5.4167795113495582e-03</value>
          <splits>
            <_><var>40</var>
              <quality>1.5495595335960388e-01</quality>
              <le>-1.1930449008941650e+00</le></_></splits></_>
        <_>
          <depth>1</depth>
          <value>7.3547152021606432e-01</value></_>
        <_>
          <depth>1</depth>
          <value>-2.6980497242923540e-01</value></_></nodes></_>
    <_>
      <nodes>
        <_>
          <depth>0</depth>
          <value>-6.7234588326547853e-03</value>
          <splits>
            <_><var>43</var>
              <quality>1.4252236485481262e-01</quality>
              <le>-1.5123250484466553e+00</le></_></splits></_>
        <_>
          <depth>1</depth>
          <value>-7.5782717215090190e-01</value></_>
        <_>
          <depth>1</depth>
          <value>2.3442039423471608e-01</value></_></nodes></_>
    <_>
      <nodes>
        <_>
          <depth>0</depth>
          <value>-3.7936858124948576e-03</value>
          <splits>
            <_><var>79</var>
              <quality>1.6054080426692963e-01</quality>
              <le>1.4618699550628662e+00</le></_></splits></_>
        <_>
          <depth>1</depth>
          <value>1.7193819014544415e-01</value></_>
        <_>
          <depth>1</depth>
          <value>-2.1813921281284934e+00</value></_></nodes></_>
    <_>
      <nodes>
        <_>
          <depth>0</depth>
          <value>-5.0085926355665294e-04</value>
          <splits>
            <_><var>110</var>
              <quality>1.3620953261852264e-01</quality>
              <le>-2.2847700119018555e+00</le></_></splits></_>
        <_>
          <depth>1</depth>
          <value>3.0024068989660635e-01</value></_>
        <_>
          <depth>1</depth>
          <value>-5.3812757840624870e-01</value></_></nodes></_>
    <_>
      <nodes>
        <_>
          <depth>0</depth>
          <value>1.5538929798361726e-03</value>
          <splits>
            <_><var>68</var>
              <quality>1.7840583622455597e-01</quality>
              <le>-5.4680651426315308e-01</le></_></splits></_>
        <_>
          <depth>1</depth>
          <value>-4.0224126569464802e-01</value></_>
        <_>
          <depth>1</depth>
          <value>5.3798885390158657e-01</value></_></nodes></_>
    <_>
      <nodes>
        <_>
          <depth>0</depth>
          <value>-1.0469281465653011e-02</value>
          <splits>
            <_><var>21</var>
              <quality>1.4479678869247437e-01</quality>
              <le>1.2985649108886719e+00</le></_></splits></_>
        <_>
          <depth>1</depth>
          <value>-2.7228310079458956e-01</value></_>
        <_>
          <depth>1</depth>
          <value>6.7216698450478085e-01</value></_></nodes></_>
    <_>
      <nodes>
        <_>
          <depth>0</depth>
          <value>4.0874523545588260e-03</value>
          <splits>
            <_><var>111</var>
              <quality>1.4964038133621216e-01</quality>
              <le>-7.6238050460815430e+00</le></_></splits></_>
        <_>
          <depth>1</depth>
          <value>4.8437249816111877e-01</value></_>
        <_>
          <depth>1</depth>
          <value>-3.6467756538922258e-01</value></_></nodes></_>
    <_>
      <nodes>
        <_>
          <depth>0</depth>
          <value>-6.1122665623202180e-03</value>
          <splits>
            <_><var>33</var>
              <quality>1.4712959527969360e-01</quality>
              <le>7.9687500000000000e-01</le></_></splits></_>
        <_>
          <depth>1</depth>
          <value>3.1790728602722518e-01</value></_>
        <_>
          <depth>1</depth>
          <value>-5.4906062592171412e-01</value></_></nodes></_>
    <_>
      <nodes>
        <_>
          <depth>0</depth>
          <value>-7.7665616643818802e-03</value>
          <splits>
            <_><var>24</var>
              <quality>1.6372479498386383e-01</quality>
              <le>1.9584900140762329e+00</le></_></splits></_>
        <_>
          <depth>1</depth>
          <value>1.9503100539159046e-01</value></_>
        <_>
          <depth>1</depth>
          <value>-1.3235701990910294e+00</value></_></nodes></_>
    <_>
      <nodes>
        <_>
          <depth>0</depth>
          <value>9.4003078061662669e-04</value>
          <splits>
            <_><var>40</var>
              <quality>1.4308068156242371e-01</quality>
              <le>-3.4814500808715820e+00</le></_></splits></_>
        <_>
          <depth>1</depth>
          <value>1.4942688828697341e+00</value></_>
        <_>
          <depth>1</depth>
          <value>-1.6738651460016551e-01</value></_></nodes></_>
    <_>
      <nodes>
        <_>
          <depth>0</depth>
          <value>-2.9727801780540515e-03</value>
          <splits>
            <_><var>43</var>
              <quality>1.7171299457550049e-01</quality>
              <le>3.8390600681304932e+00</le></_></splits></_>
        <_>
          <depth>1</depth>
          <value>-4.2541268508870317e-01</value></_>
        <_>
          <depth>1</depth>
          <value>4.8550285452029829e-01</value></_></nodes></_>
    <_>
      <nodes>
        <_>
          <depth>0</depth>
          <value>-6.4518128693620714e-03</value>
          <splits>
            <_><var>11</var>
              <quality>1.7957159876823425e-01</quality>
              <le>2.0373499393463135e-01</le></_></splits></_>
        <_>
          <depth>1</depth>
          <value>-3.7272783120354064e-01</value></_>
        <_>
          <depth>1</depth>
          <value>5.9542696145327056e-01</value></_></nodes></_>
    <_>
      <nodes>
        <_>
          <depth>0</depth>
          <value>4.1437782286804529e-03</value>
          <splits>
            <_><var>46</var>
              <quality>1.2496268004179001e-01</quality>
              <le>1.2413100004196167e+00</le></_></splits></_>
        <_>
          <depth>1</depth>
          <value>-2.4015859352138241e-01</value></_>
        <_>
          <depth>1</depth>
          <value>6.2234290464654241e-01</value></_></nodes></_>
    <_>
      <nodes>
        <_>
          <depth>0</depth>
          <value>-4.4179505279049597e-03</value>
          <splits>
            <_><var>75</var>
              <quality>1.4876422286033630e-01</quality>
              <le>1.4955799579620361e+00</le></_></splits></_>
        <_>
          <depth>1</depth>
          <value>-2.6913678795138174e-01</value></_>
        <_>
          <depth>1</depth>
          <value>6.9578340078855849e-01</value></_></nodes></_>
    <_>
      <nodes>
        <_>
          <depth>0</depth>
          <value>-7.7995554856237570e-03</value>
          <splits>
            <_><var>108</var>
              <quality>2.0356680452823639e-01</quality>
              <le>-5.3508396148681641e+00</le></_></splits></_>
        <_>
          <depth>1</depth>
          <value>4.9814374416534674e-01</value></_>
        <_>
          <depth>1</depth>
          <value>-5.0380545606027527e-01</value></_></nodes></_>
    <_>
      <nodes>
        <_>
          <depth>0</depth>
          <value>8.6360600455094565e-03</value>
          <splits>
            <_><var>43</var>
              <quality>1.5438295900821686e-01</quality>
              <le>-8.7685197591781616e-01</le></_></splits></_>
        <_>
          <depth>1</depth>
          <value>-5.5202424294878938e-01</value></_>
        <_>
          <depth>1</depth>
          <value>3.3924305213833006e-01</value></_></nodes></_>
    <_>
      <nodes>
        <_>
          <depth>0</depth>
          <value>-1.3375228955522303e-02</value>
          <splits>
            <_><var>39</var>
              <quality>1.8266654014587402e-01</quality>
              <le>-2.5885000228881836e+00</le></_></splits></_>
        <_>
          <depth>1</depth>
          <value>6.6063249042331051e-01</value></_>
        <_>
          <depth>1</depth>
          <value>-3.5167061966736413e-01</value></_></nodes></_>
    <_>
      <nodes>
        <_>
          <depth>0</depth>
          <value>-2.7409135352852729e-03</value>
          <splits>
            <_><var>47</var>
              <quality>1.3990260660648346e-01</quality>
              <le>2.7589850425720215e+00</le></_></splits></_>
        <_>
          <depth>1</depth>
          <value>-3.9541337178504410e-01</value></_>
        <_>
          <depth>1</depth>
          <value>4.1397007860594631e-01</value></_></nodes></_>
    <_>
      <nodes>
        <_>
          <depth>0</depth>
          <value>-5.8502778915239997e-03</value>
          <splits>
            <_><var>96</var>
              <quality>1.5812702476978302e-01</quality>
              <le>-2.9130799770355225e+00</le></_></splits></_>
        <_>
          <depth>1</depth>
          <value>-2.5290077665271529e+00</value></_>
        <_>
          <depth>1</depth>
          <value>1.6525612895355654e-01</value></_></nodes></_>
    <_>
      <nodes>
        <_>
          <depth>0</depth>
          <value>-3.4004145169188572e-03</value>
          <splits>
            <_><var>114</var>
              <quality>1.4929617941379547e-01</quality>
              <le>-4.5356750488281250e-01</le></_></splits></_>
        <_>
          <depth>1</depth>
          <value>4.3066911318461515e-01</value></_>
        <_>
          <depth>1</depth>
          <value>-4.0883600746946280e-01</value></_></nodes></_>
    <_>
      <nodes>
        <_>
          <depth>0</depth>
          <value>-1.4496252182102983e-03</value>
          <splits>
            <_><var>111</var>
              <quality>2.0212277770042419e-01</quality>
              <le>-9.9218692779541016e+00</le></_></splits></_>
        <_>
          <depth>1</depth>
          <value>8.4423021320239033e-01</value></_>
        <_>
          <depth>1</depth>
          <value>-3.2063826987659882e-01</value></_></nodes></_>
    <_>
      <nodes>
        <_>
          <depth>0</depth>
          <value>-1.7038338225408265e-02</value>
          <splits>
            <_><var>25</var>
              <quality>1.7532753944396973e-01</quality>
              <le>1.2925735116004944e-01</le></_></splits></_>
        <_>
          <depth>1</depth>
          <value>-4.0903633519058047e-01</value></_>
        <_>
          <depth>1</depth>
          <value>5.2329026044125759e-01</value></_></nodes></_>
    <_>
      <nodes>
        <_>
          <depth>0</depth>
          <value>2.2654185580549624e-03</value>
          <splits>
            <_><var>97</var>
              <quality>1.4448364078998566e-01</quality>
              <le>1.3292549848556519e+00</le></_></splits></_>
        <_>
          <depth>1</depth>
          <value>2.8839465796454283e-01</value></_>
        <_>
          <depth>1</depth>
          <value>-6.0991976258720948e-01</value></_></nodes></_>
    <_>
      <nodes>
        <_>
          <depth>0</depth>
          <value>-7.1935599154313665e-03</value>
          <splits>
            <_><var>26</var>
              <quality>1.6207981109619141e-01</quality>
              <le>9.1505450010299683e-01</le></_></splits></_>
        <_>
          <depth>1</depth>
          <value>2.3216857489412299e-01</value></_>
        <_>
          <depth>1</depth>
          <value>-9.3382263526813125e-01</value></_></nodes></_>
    <_>
      <nodes>
        <_>
          <depth>0</depth>
          <value>-1.4920564125653687e-03</value>
          <splits>
            <_><var>61</var>
              <quality>1.1934090405702591e-01</quality>
              <le>-6.7453203201293945e+00</le></_></splits></_>
        <_>
          <depth>1</depth>
          <value>-1.8068034477384165e+00</value></_>
        <_>
          <depth>1</depth>
          <value>1.3210080313072822e-01</value></_></nodes></_>
    <_>
      <nodes>
        <_>
          <depth>0</depth>
          <value>-5.6679920867806375e-03</value>
          <splits>
            <_><var>53</var>
              <quality>1.4618225395679474e-01</quality>
              <le>-2.4340300559997559e+00</le></_></splits></_>
        <_>
          <depth>1</depth>
          <value>6.6409883985069607e-01</value></_>
        <_>
          <depth>1</depth>
          <value>-2.7457885067768950e-01</value></_></nodes></_>
    <_>
      <nodes>
        <_>
          <depth>0</depth>
          <value>2.2404891095369545e-04</value>
          <splits>
            <_><var>52</var>
              <quality>1.3904030621051788e-01</quality>
              <le>1.3620450496673584e+00</le></_></splits></_>
        <_>
          <depth>1</depth>
          <value>-4.2202691647786367e-01</value></_>
        <_>
          <depth>1</depth>
          <value>3.8521155995190398e-01</value></_></nodes></_>
    <_>
      <nodes>
        <_>
          <depth>0</depth>
          <value>-5.4122385448417841e-05</value>
          <splits>
            <_><var>13</var>
              <quality>1.1061148345470428e-01</quality>
              <le>-9.8156900405883789e+00</le></_></splits></_>
        <_>
          <depth>1</depth>
          <value>-5.7564577324601141e+00</value></_>
        <_>
          <depth>1</depth>
          <value>1.1696306733541625e-01</value></_></nodes></_>
    <_>
      <nodes>
        <_>
          <depth>0</depth>
          <value>2.8035999802715333e-01</value>
          <splits>
            <_><var>111</var>
              <quality>3.8929024338722229e-01</quality>
              <le>-7.3825902938842773e+00</le></_></splits></_>
        <_>
          <depth>1</depth>
          <value>1.2652305352560806e+00</value></_>
        <_>
          <depth>1</depth>
          <value>-3.1563745013145783e-01</value></_></nodes></_>
    <_>
      <nodes>
        <_>
          <depth>0</depth>
          <value>-2.9604548050576406e-02</value>
          <splits>
            <_><var>42</var>
              <quality>2.0085683465003967e-01</quality>
              <le>-1.5754649639129639e+00</le></_></splits></_>
        <_>
          <depth>1</depth>
          <value>5.6344820091826886e-01</value></_>
        <_>
          <depth>1</depth>
          <value>-4.4726961642820900e-01</value></_></nodes></_>
    <_>
      <nodes>
        <_>
          <depth>0</depth>
          <value>2.9308548439625483e-04</value>
          <splits>
            <_><var>106</var>
              <quality>2.5292161107063293e-01</quality>
              <le>-2.7333798408508301e+00</le></_></splits></_>
        <_>
          <depth>1</depth>
          <value>5.4934679708509060e-01</value></_>
        <_>
          <depth>1</depth>
          <value>-5.9380078501830513e-01</value></_></nodes></_>
    <_>
      <nodes>
        <_>
          <depth>0</depth>
          <value>-3.6906610436101112e-03</value>
          <splits>
            <_><var>75</var>
              <quality>2.4082379043102264e-01</quality>
              <le>9.4685149192810059e-01</le></_></splits></_>
        <_>
          <depth>1</depth>
          <value>-4.8910242863969783e-01</value></_>
        <_>
          <depth>1</depth>
          <value>6.3278496106296422e-01</value></_></nodes></_>
    <_>
      <nodes>
        <_>
          <depth>0</depth>
          <value>-1.0710993793275098e-03</value>
          <splits>
            <_><var>76</var>
              <quality>2.5861510634422302e-01</quality>
              <le>-6.1782503128051758e-01</le></_></splits></_>
        <_>
          <depth>1</depth>
          <value>8.2271062993632471e-01</value></_>
        <_>
          <depth>1</depth>
          <value>-4.2729644166657232e-01</value></_></nodes></_>
    <_>
      <nodes>
        <_>
          <depth>0</depth>
          <value>-1.3838850312756043e-02</value>
          <splits>
            <_><var>71</var>
              <quality>2.1085177361965179e-01</quality>
              <le>1.8062000274658203e+00</le></_></splits></_>
        <_>
          <depth>1</depth>
          <value>-3.9430433442649415e-01</value></_>
        <_>
          <depth>1</depth>
          <value>6.9279461449597690e-01</value></_></nodes></_>
    <_>
      <nodes>
        <_>
          <depth>0</depth>
          <value>6.8335828226966265e-03</value>
          <splits>
            <_><var>123</var>
              <quality>1.7208303511142731e-01</quality>
              <le>7.2743549346923828e+00</le></_></splits></_>
        <_>
          <depth>1</depth>
          <value>2.0924191226254113e-01</value></_>
        <_>
          <depth>1</depth>
          <value>-1.4794848413039994e+00</value></_></nodes></_>
    <_>
      <nodes>
        <_>
          <depth>0</depth>
          <value>-1.0307285834738019e-02</value>
          <splits>
            <_><var>52</var>
              <quality>2.2078239917755127e-01</quality>
              <le>1.7897050082683563e-01</le></_></splits></_>
        <_>
          <depth>1</depth>
          <value>-9.6906228223935631e-01</value></_>
        <_>
          <depth>1</depth>
          <value>3.1444650016547199e-01</value></_></nodes></_>
    <_>
      <nodes>
        <_>
          <depth>0</depth>
          <value>-3.0637566895595375e-03</value>
          <splits>
            <_><var>98</var>
              <quality>2.1531379222869873e-01</quality>
              <le>4.0316000580787659e-01</le></_></splits></_>
        <_>
          <depth>1</depth>
          <value>-8.2537090472144359e-01</value></_>
        <_>
          <depth>1</depth>
          <value>3.4607751742013798e-01</value></_></nodes></_>
    <_>
      <nodes>
        <_>
          <depth>0</depth>
          <value>-7.6141518948728455e-03</value>
          <splits>
            <_><var>83</var>
              <quality>1.5291538834571838e-01</quality>
              <le>-9.3009555339813232e-01</le></_></splits></_>
        <_>
          <depth>1</depth>
          <value>8.9306878639874010e-01</value></_>
        <_>
          <depth>1</depth>
          <value>-2.3517835305758381e-01</value></_></nodes></_>
    <_>
      <nodes>
        <_>
          <depth>0</depth>
          <value>3.8074840255965806e-04</value>
          <splits>
            <_><var>22</var>
              <quality>1.4481444656848907e-01</quality>
              <le>-1.3684699535369873e+00</le></_></splits></_>
        <_>
          <depth>1</depth>
          <value>4.1914347181430739e-01</value></_>
        <_>
          <depth>1</depth>
          <value>-4.0582560193595629e-01</value></_></nodes></_>
    <_>
      <nodes>
        <_>
          <depth>0</depth>
          <value>-1.6353412221544472e-03</value>
          <splits>
            <_><var>2</var>
              <quality>1.5070734918117523e-01</quality>
              <le>2.7788701057434082e+00</le></_></splits></_>
        <_>
          <depth>1</depth>
          <value>1.6734398549034205e-01</value></_>
        <_>
          <depth>1</depth>
          <value>-1.8281597514545793e+00</value></_></nodes></_>
    <_>
      <nodes>
        <_>
          <depth>0</depth>
          <value>-3.6474580399370234e-03</value>
          <splits>
            <_><var>89</var>
              <quality>1.3403540849685669e-01</quality>
              <le>-1.1307899951934814e+00</le></_></splits></_>
        <_>
          <depth>1</depth>
          <value>-5.7832686832105906e-01</value></_>
        <_>
          <depth>1</depth>
          <value>2.7575533465255991e-01</value></_></nodes></_>
    <_>
      <nodes>
        <_>
          <depth>0</depth>
          <value>-7.3987714860897016e-03</value>
          <splits>
            <_><var>44</var>
              <quality>2.0259059965610504e-01</quality>
              <le>1.4845900535583496e+00</le></_></splits></_>
        <_>
          <depth>1</depth>
          <value>-3.6381978453370839e-01</value></_>
        <_>
          <depth>1</depth>
          <value>7.2159788148359050e-01</value></_></nodes></_>
    <_>
      <nodes>
        <_>
          <depth>0</depth>
          <value>-5.1581880712216694e-03</value>
          <splits>
            <_><var>8</var>
              <quality>1.4816568791866302e-01</quality>
              <le>-1.5335299968719482e+00</le></_></splits></_>
        <_>
          <depth>1</depth>
          <value>-1.0812155649622368e+00</value></_>
        <_>
          <depth>1</depth>
          <value>1.9511492357225194e-01</value></_></nodes></_>
    <_>
      <nodes>
        <_>
          <depth>0</depth>
          <value>2.7916234333435499e-04</value>
          <splits>
            <_><var>52</var>
              <quality>1.3442701101303101e-01</quality>
              <le>1.5597900152206421e+00</le></_></splits></_>
        <_>
          <depth>1</depth>
          <value>-3.2006500346228933e-01</value></_>
        <_>
          <depth>1</depth>
          <value>4.9355141032465322e-01</value></_></nodes></_>
    <_>
      <nodes>
        <_>
          <depth>0</depth>
          <value>-6.7296616482284887e-03</value>
          <splits>
            <_><var>135</var>
              <quality>1.5015655755996704e-01</quality>
              <le>-1.1079149246215820e+01</le></_></splits></_>
        <_>
          <depth>1</depth>
          <value>5.7576904197550116e-01</value></_>
        <_>
          <depth>1</depth>
          <value>-3.1729874597209229e-01</value></_></nodes></_>
    <_>
      <nodes>
        <_>
          <depth>0</depth>
          <value>-4.9419794121625072e-03</value>
          <splits>
            <_><var>51</var>
              <quality>1.8223620951175690e-01</quality>
              <le>-2.8177700042724609e+00</le></_></splits></_>
        <_>
          <depth>1</depth>
          <value>6.1591273687074255e-01</value></_>
        <_>
          <depth>1</depth>
          <value>-3.6746304795005569e-01</value></_></nodes></_>
    <_>
      <nodes>
        <_>
          <depth>0</depth>
          <value>-6.3836172090898750e-03</value>
          <splits>
            <_><var>47</var>
              <quality>1.2327609211206436e-01</quality>
              <le>7.4496803283691406e+00</le></_></splits></_>
        <_>
          <depth>1</depth>
          <value>-2.3798770302612660e-01</value></_>
        <_>
          <depth>1</depth>
          <value>6.3959682439032817e-01</value></_></nodes></_>
    <_>
      <nodes>
        <_>
          <depth>0</depth>
          <value>1.7989851702464030e-03</value>
          <splits>
            <_><var>15</var>
              <quality>1.5005029737949371e-01</quality>
              <le>-2.7631499767303467e+00</le></_></splits></_>
        <_>
          <depth>1</depth>
          <value>-3.9690651106688435e-01</value></_>
        <_>
          <depth>1</depth>
          <value>4.4582357449959215e-01</value></_></nodes></_>
    <_>
      <nodes>
        <_>
          <depth>0</depth>
          <value>-5.5545815881604295e-03</value>
          <splits>
            <_><var>30</var>
              <quality>1.2167110294103622e-01</quality>
              <le>-4.3116502761840820e+00</le></_></splits></_>
        <_>
          <depth>1</depth>
          <value>1.6050848319464974e+00</value></_>
        <_>
          <depth>1</depth>
          <value>-1.4460226888606670e-01</value></_></nodes></_>
    <_>
      <nodes>
        <_>
          <depth>0</depth>
          <value>-2.1967935535102817e-03</value>
          <splits>
            <_><var>95</var>
              <quality>1.1488694697618484e-01</quality>
              <le>2.3856849670410156e+00</le></_></splits></_>
        <_>
          <depth>1</depth>
          <value>1.2593060004457182e-01</value></_>
        <_>
          <depth>1</depth>
          <value>-1.8478199514395424e+00</value></_></nodes></_>
    <_>
      <nodes>
        <_>
          <depth>0</depth>
          <value>-5.1331715974951616e-03</value>
          <splits>
            <_><var>93</var>
              <quality>1.3508206605911255e-01</quality>
              <le>2.2732048034667969e+00</le></_></splits></_>
        <_>
          <depth>1</depth>
          <value>-1.9718914432309259e-01</value></_>
        <_>
          <depth>1</depth>
          <value>9.6176938091477782e-01</value></_></nodes></_>
    <_>
      <nodes>
        <_>
          <depth>0</depth>
          <value>-3.0220253048580813e-03</value>
          <splits>
            <_><var>119</var>
              <quality>1.3693816959857941e-01</quality>
              <le>-8.7113952636718750e+00</le></_></splits></_>
        <_>
          <depth>1</depth>
          <value>5.2427139300457326e-01</value></_>
        <_>
          <depth>1</depth>
          <value>-3.1053059731843824e-01</value></_></nodes></_>
    <_>
      <nodes>
        <_>
          <depth>0</depth>
          <value>-5.9215062109768462e-03</value>
          <splits>
            <_><var>84</var>
              <quality>1.3575749099254608e-01</quality>
              <le>8.2872748374938965e-01</le></_></splits></_>
        <_>
          <depth>1</depth>
          <value>1.8948142020315434e-01</value></_>
        <_>
          <depth>1</depth>
          <value>-9.6294255851915922e-01</value></_></nodes></_>
    <_>
      <nodes>
        <_>
          <depth>0</depth>
          <value>3.1541694604494256e-03</value>
          <splits>
            <_><var>47</var>
              <quality>1.3619957864284515e-01</quality>
              <le>-6.6898398399353027e+00</le></_></splits></_>
        <_>
          <depth>1</depth>
          <value>-2.4701717038391986e+00</value></_>
        <_>
          <depth>1</depth>
          <value>1.4926541424943737e-01</value></_></nodes></_>
    <_>
      <nodes>
        <_>
          <depth>0</depth>
          <value>5.2194514750184412e-03</value>
          <splits>
            <_><var>36</var>
              <quality>1.5909330546855927e-01</quality>
              <le>-1.7749999761581421e+00</le></_></splits></_>
        <_>
          <depth>1</depth>
          <value>7.5676885877081967e-01</value></_>
        <_>
          <depth>1</depth>
          <value>-2.6497581242120605e-01</value></_></nodes></_>
    <_>
      <nodes>
        <_>
          <depth>0</depth>
          <value>-7.1691086581316312e-03</value>
          <splits>
            <_><var>128</var>
              <quality>1.5216454863548279e-01</quality>
              <le>1.8083100318908691e+00</le></_></splits></_>
        <_>
          <depth>1</depth>
          <value>1.9095138491781452e-01</value></_>
        <_>
          <depth>1</depth>
          <value>-1.1724725263425215e+00</value></_></nodes></_>
    <_>
      <nodes>
        <_>
          <depth>0</depth>
          <value>-3.4700676731132417e-03</value>
          <splits>
            <_><var>97</var>
              <quality>1.7783221602439880e-01</quality>
              <le>8.8186645507812500e-01</le></_></splits></_>
        <_>
          <depth>1</depth>
          <value>3.1997332416020169e-01</value></_>
        <_>
          <depth>1</depth>
          <value>-6.9604021355692047e-01</value></_></nodes></_>
    <_>
      <nodes>
        <_>
          <depth>0</depth>
          <value>-2.3657356979365127e-03</value>
          <splits>
            <_><var>108</var>
              <quality>1.4349307119846344e-01</quality>
              <le>-3.1071000099182129e+00</le></_></splits></_>
        <_>
          <depth>1</depth>
          <value>4.5603000245769643e-01</value></_>
        <_>
          <depth>1</depth>
          <value>-3.7058806189807803e-01</value></_></nodes></_>
    <_>
      <nodes>
        <_>
          <depth>0</depth>
          <value>-2.7663363716920230e-03</value>
          <splits>
            <_><var>57</var>
              <quality>1.4712356030941010e-01</quality>
              <le>-1.1259449720382690e+00</le></_></splits></_>
        <_>
          <depth>1</depth>
          <value>-1.0467040083769945e+00</value></_>
        <_>
          <depth>1</depth>
          <value>1.9894835347663670e-01</value></_></nodes></_>
    <_>
      <nodes>
        <_>
          <depth>0</depth>
          <value>-4.2929523516767364e-03</value>
          <splits>
            <_><var>35</var>
              <quality>1.6176205873489380e-01</quality>
              <le>-2.2090399265289307e+00</le></_></splits></_>
        <_>
          <depth>1</depth>
          <value>4.4629143297492602e-01</value></_>
        <_>
          <depth>1</depth>
          <value>-4.3178580114614484e-01</value></_></nodes></_>
    <_>
      <nodes>
        <_>
          <depth>0</depth>
          <value>1.8951874717988179e-03</value>
          <splits>
            <_><var>75</var>
              <quality>1.7349848151206970e-01</quality>
              <le>1.4955799579620361e+00</le></_></splits></_>
        <_>
          <depth>1</depth>
          <value>-2.7949100062280696e-01</value></_>
        <_>
          <depth>1</depth>
          <value>8.0712286378040476e-01</value></_></nodes></_>
    <_>
      <nodes>
        <_>
          <depth>0</depth>
          <value>-8.7265294868783920e-03</value>
          <splits>
            <_><var>34</var>
              <quality>1.8799982964992523e-01</quality>
              <le>-7.8047001361846924e-01</le></_></splits></_>
        <_>
          <depth>1</depth>
          <value>3.1975583174911221e-01</value></_>
        <_>
          <depth>1</depth>
          <value>-7.4294403756313754e-01</value></_></nodes></_>
    <_>
      <nodes>
        <_>
          <depth>0</depth>
          <value>6.1655189534167912e-06</value>
          <splits>
            <_><var>26</var>
              <quality>1.4522904157638550e-01</quality>
              <le>8.5235744714736938e-02</le></_></splits></_>
        <_>
          <depth>1</depth>
          <value>2.9254186249879444e-01</value></_>
        <_>
          <depth>1</depth>
          <value>-6.0077548713888196e-01</value></_></nodes></_></trees></opencv_ml_boost>
</opencv_storage>
