<?xml version="1.0"?>
<opencv_storage>
<opencv_ml_boost>
  <format>3</format>
  <is_classifier>1</is_classifier>
  <var_all>137</var_all>
  <var_count>136</var_count>
  <ord_var_count>136</ord_var_count>
  <cat_var_count>1</cat_var_count>
  <training_params>
    <boosting_type>RealAdaboost</boosting_type>
    <use_surrogates>0</use_surrogates>
    <max_categories>10</max_categories>
    <regression_accuracy>9.9999997764825821e-03</regression_accuracy>
    <max_depth>1</max_depth>
    <min_sample_count>10</min_sample_count>
    <cross_validation_folds>0</cross_validation_folds>
    <weight_trimming_rate>9.4999999999999996e-01</weight_trimming_rate></training_params>
  <global_var_idx>1</global_var_idx>
  <var_idx>
    0 1 2 3 4 5 6 7 8 9 10 11 12 13 14 15 16 17 18 19 20 21 22 23 24 25
    26 27 28 29 30 31 32 33 34 35 36 37 38 39 40 41 42 43 44 45 46 47 48
    49 50 51 52 53 54 55 56 57 58 59 60 61 62 63 64 65 66 67 68 69 70 71
    72 73 74 75 76 77 78 79 80 81 82 83 84 85 86 87 88 89 90 91 92 93 94
    95 96 97 98 99 100 101 102 103 104 105 106 107 108 109 110 111 112
    113 114 115 116 117 118 119 120 121 122 123 124 125 126 127 128 129
    130 131 132 133 134 135</var_idx>
  <var_type>
    0 0 0 0 0 0 0 0 0 0 0 0 0 0 0 0 0 0 0 0 0 0 0 0 0 0 0 0 0 0 0 0 0 0
    0 0 0 0 0 0 0 0 0 0 0 0 0 0 0 0 0 0 0 0 0 0 0 0 0 0 0 0 0 0 0 0 0 0
    0 0 0 0 0 0 0 0 0 0 0 0 0 0 0 0 0 0 0 0 0 0 0 0 0 0 0 0 0 0 0 0 0 0
    0 0 0 0 0 0 0 0 0 0 0 0 0 0 0 0 0 0 0 0 0 0 0 0 0 0 0 0 0 0 0 0 0 0
    1</var_type>
  <cat_ofs>
    0 0 0 0 0 0 0 0 0 0 0 0 0 0 0 0 0 0 0 0 0 0 0 0 0 0 0 0 0 0 0 0 0 0
    0 0 0 0 0 0 0 0 0 0 0 0 0 0 0 0 0 0 0 0 0 0 0 0 0 0 0 0 0 0 0 0 0 0
    0 0 0 0 0 0 0 0 0 0 0 0 0 0 0 0 0 0 0 0 0 0 0 0 0 0 0 0 0 0 0 0 0 0
    0 0 0 0 0 0 0 0 0 0 0 0 0 0 0 0 0 0 0 0 0 0 0 0 0 0 0 0 0 0 0 0 0 0
    0 0 0 0 0 0 0 0 0 0 0 0 0 0 0 0 0 0 0 0 0 0 0 0 0 0 0 0 0 0 0 0 0 0
    0 0 0 0 0 0 0 0 0 0 0 0 0 0 0 0 0 0 0 0 0 0 0 0 0 0 0 0 0 0 0 0 0 0
    0 0 0 0 0 0 0 0 0 0 0 0 0 0 0 0 0 0 0 0 0 0 0 0 0 0 0 0 0 0 0 0 0 0
    0 0 0 0 0 0 0 0 0 0 0 0 0 0 0 0 0 0 0 0 0 0 0 0 0 0 0 0 0 0 0 0 0 0</cat_ofs>
  <class_labels>
    -1 1</class_labels>
  <missing_subst>
    0. 0. 0. 0. 0. 0. 0. 0. 0. 0. 0. 0. 0. 0. 0. 0. 0. 0. 0. 0. 0. 0. 0.
    0. 0. 0. 0. 0. 0. 0. 0. 0. 0. 0. 0. 0. 0. 0. 0. 0. 0. 0. 0. 0. 0. 0.
    0. 0. 0. 0. 0. 0. 0. 0. 0. 0. 0. 0. 0. 0. 0. 0. 0. 0. 0. 0. 0. 0. 0.
    0. 0. 0. 0. 0. 0. 0. 0. 0. 0. 0. 0. 0. 0. 0. 0. 0. 0. 0. 0. 0. 0. 0.
    0. 0. 0. 0. 0. 0. 0. 0. 0. 0. 0. 0. 0. 0. 0. 0. 0. 0. 0. 0. 0. 0. 0.
    0. 0. 0. 0. 0. 0. 0. 0. 0. 0. 0. 0. 0. 0. 0. 0. 0. 0. 0. 0. 0. 0.</missing_subst>
  <ntrees>100</ntrees>
  <trees>
    <_>
      <nodes>
        <_>
          <depth>0</depth>
          <value>-8.2797896403452309e-01</value>
          <splits>
            <_><var>119</var>
              <quality>8.8553190231323242e-01</quality>
              <le>-1.5612600326538086e+01</le></_></splits></_>
        <_>
          <depth>1</depth>
          <value>1.4486461003703723e+00</value></_>
        <_>
          <depth>1</depth>
          <value>-1.8176476039899421e+00</value></_></nodes></_>
    <_>
      <nodes>
        <_>
          <depth>0</depth>
          <value>-1.6131216289829561e-08</value>
          <splits>
            <_><var>49</var>
              <quality>5.6379240751266479e-01</quality>
              <le>8.3789801597595215e-01</le></_></splits></_>
        <_>
          <depth>1</depth>
          <value>-1.3031940245590474e+00</value></_>
        <_>
          <depth>1</depth>
          <value>7.8162717136910664e-01</value></_></nodes></_>
    <_>
      <nodes>
        <_>
          <depth>0</depth>
          <value>2.6883886156016186e-09</value>
          <splits>
            <_><var>8</var>
              <quality>4.4319176673889160e-01</quality>
              <le>-1.0906950235366821e+00</le></_></splits></_>
        <_>
          <depth>1</depth>
          <value>7.5839052571876886e-01</value></_>
        <_>
          <depth>1</depth>
          <value>-8.5245279396762430e-01</value></_></nodes></_>
    <_>
      <nodes>
        <_>
          <depth>0</depth>
          <value>-1.1925060952942961e-09</value>
          <splits>
            <_><var>32</var>
              <quality>2.6270106434822083e-01</quality>
              <le>1.7199701070785522e-01</le></_></splits></_>
        <_>
          <depth>1</depth>
          <value>-5.3956681276291840e-01</value></_>
        <_>
          <depth>1</depth>
          <value>5.9464758329995959e-01</value></_></nodes></_>
    <_>
      <nodes>
        <_>
          <depth>0</depth>
          <value>3.6223121401069452e-02</value>
          <splits>
            <_><var>53</var>
              <quality>2.7317023277282715e-01</quality>
              <le>4.8010349273681641e+00</le></_></splits></_>
        <_>
          <depth>1</depth>
          <value>-3.4718572434146594e-01</value></_>
        <_>
          <depth>1</depth>
          <value>1.0917602474414603e+00</value></_></nodes></_>
    <_>
      <nodes>
        <_>
          <depth>0</depth>
          <value>-6.2670590158078066e-03</value>
          <splits>
            <_><var>98</var>
              <quality>2.6859140396118164e-01</quality>
              <le>2.5327501296997070e+00</le></_></splits></_>
        <_>
          <depth>1</depth>
          <value>3.5866111466224943e-01</value></_>
        <_>
          <depth>1</depth>
          <value>-1.1022425177194015e+00</value></_></nodes></_>
    <_>
      <nodes>
        <_>
          <depth>0</depth>
          <value>1.5054129264194133e-02</value>
          <splits>
            <_><var>13</var>
              <quality>2.7709484100341797e-01</quality>
              <le>-1.7987799644470215e-01</le></_></splits></_>
        <_>
          <depth>1</depth>
          <value>3.5331447533402960e-01</value></_>
        <_>
          <depth>1</depth>
          <value>-1.3898865073306346e+00</value></_></nodes></_>
    <_>
      <nodes>
        <_>
          <depth>0</depth>
          <value>-1.1510188658760379e-02</value>
          <splits>
            <_><var>94</var>
              <quality>1.8643721938133240e-01</quality>
              <le>-9.7389197349548340e-01</le></_></splits></_>
        <_>
          <depth>1</depth>
          <value>8.4421354838478357e-01</value></_>
        <_>
          <depth>1</depth>
          <value>-2.9582370551432902e-01</value></_></nodes></_>
    <_>
      <nodes>
        <_>
          <depth>0</depth>
          <value>1.1189905052534406e-02</value>
          <splits>
            <_><var>76</var>
              <quality>1.9452187418937683e-01</quality>
              <le>-7.4184048175811768e-01</le></_></splits></_>
        <_>
          <depth>1</depth>
          <value>6.4379958397032899e-01</value></_>
        <_>
          <depth>1</depth>
          <value>-3.7243803421786437e-01</value></_></nodes></_>
    <_>
      <nodes>
        <_>
          <depth>0</depth>
          <value>-8.6774964584128925e-03</value>
          <splits>
            <_><var>13</var>
              <quality>1.9177865982055664e-01</quality>
              <le>-6.8168401718139648e+00</le></_></splits></_>
        <_>
          <depth>1</depth>
          <value>6.9131260339733458e-01</value></_>
        <_>
          <depth>1</depth>
          <value>-3.5502859968283207e-01</value></_></nodes></_>
    <_>
      <nodes>
        <_>
          <depth>0</depth>
          <value>6.0347670138169354e-04</value>
          <splits>
            <_><var>65</var>
              <quality>1.9123555719852448e-01</quality>
              <le>-1.5759350061416626e+00</le></_></splits></_>
        <_>
          <depth>1</depth>
          <value>-1.0685877325446154e+00</value></_>
        <_>
          <depth>1</depth>
          <value>2.5985572482664060e-01</value></_></nodes></_>
    <_>
      <nodes>
        <_>
          <depth>0</depth>
          <value>-2.0721587127503494e-03</value>
          <splits>
            <_><var>81</var>
              <quality>2.0019903779029846e-01</quality>
              <le>-1.0575850009918213e+00</le></_></splits></_>
        <_>
          <depth>1</depth>
          <value>8.8447658343251800e-01</value></_>
        <_>
          <depth>1</depth>
          <value>-3.0774652850538203e-01</value></_></nodes></_>
    <_>
      <nodes>
        <_>
          <depth>0</depth>
          <value>1.8368111622226173e-03</value>
          <splits>
            <_><var>27</var>
              <quality>1.6972732543945313e-01</quality>
              <le>4.6358501911163330e-01</le></_></splits></_>
        <_>
          <depth>1</depth>
          <value>2.5158395253639443e-01</value></_>
        <_>
          <depth>1</depth>
          <value>-9.2609972916138439e-01</value></_></nodes></_>
    <_>
      <nodes>
        <_>
          <depth>0</depth>
          <value>-2.0673938123467041e-03</value>
          <splits>
            <_><var>44</var>
              <quality>1.5246543288230896e-01</quality>
              <le>-3.7261800765991211e+00</le></_></splits></_>
        <_>
          <depth>1</depth>
          <value>7.9558998167329820e-01</value></_>
        <_>
          <depth>1</depth>
          <value>-2.4872062578420748e-01</value></_></nodes></_>
    <_>
      <nodes>
        <_>
          <depth>0</depth>
          <value>-1.3073086457511215e-03</value>
          <splits>
            <_><var>128</var>
              <quality>1.5646231174468994e-01</quality>
              <le>2.2888199964654632e-05</le></_></splits></_>
        <_>
          <depth>1</depth>
          <value>-3.6129426233012163e-01</value></_>
        <_>
          <depth>1</depth>
          <value>5.1781512121982476e-01</value></_></nodes></_>
    <_>
      <nodes>
        <_>
          <depth>0</depth>
          <value>-4.5654492951463302e-03</value>
          <splits>
            <_><var>82</var>
              <quality>2.4489201605319977e-01</quality>
              <le>-1.1482449769973755e+00</le></_></splits></_>
        <_>
          <depth>1</depth>
          <value>6.8902349366363103e-01</value></_>
        <_>
          <depth>1</depth>
          <value>-4.6329578747154543e-01</value></_></nodes></_>
    <_>
      <nodes>
        <_>
          <depth>0</depth>
          <value>-8.2910317191698096e-03</value>
          <splits>
            <_><var>84</var>
              <quality>1.6017946600914001e-01</quality>
              <le>7.6293999882182106e-06</le></_></splits></_>
        <_>
          <depth>1</depth>
          <value>-4.8146585511319456e-01</value></_>
        <_>
          <depth>1</depth>
          <value>3.9485467557145343e-01</value></_></nodes></_>
    <_>
      <nodes>
        <_>
          <depth>0</depth>
          <value>1.1474190888173549e-04</value>
          <splits>
            <_><var>17</var>
              <quality>1.5279053151607513e-01</quality>
              <le>-1.3811200141906738e+01</le></_></splits></_>
        <_>
          <depth>1</depth>
          <value>1.3467346053826699e+00</value></_>
        <_>
          <depth>1</depth>
          <value>-1.8617999115521400e-01</value></_></nodes></_>
    <_>
      <nodes>
        <_>
          <depth>0</depth>
          <value>-1.5342595500789675e-03</value>
          <splits>
            <_><var>81</var>
              <quality>2.1019172668457031e-01</quality>
              <le>1.2836098670959473e-01</le></_></splits></_>
        <_>
          <depth>1</depth>
          <value>3.1487464858170050e-01</value></_>
        <_>
          <depth>1</depth>
          <value>-9.1521039330235221e-01</value></_></nodes></_>
    <_>
      <nodes>
        <_>
          <depth>0</depth>
          <value>4.0372081949800282e-03</value>
          <splits>
            <_><var>105</var>
              <quality>1.8029370903968811e-01</quality>
              <le>-3.7917299270629883e+00</le></_></splits></_>
        <_>
          <depth>1</depth>
          <value>-1.6942696065982514e+00</value></_>
        <_>
          <depth>1</depth>
          <value>2.0922949677138752e-01</value></_></nodes></_>
    <_>
      <nodes>
        <_>
          <depth>0</depth>
          <value>-3.1204867463074126e-03</value>
          <splits>
            <_><var>120</var>
              <quality>1.9585862755775452e-01</quality>
              <le>-1.2934850454330444e+00</le></_></splits></_>
        <_>
          <depth>1</depth>
          <value>5.8410862798878538e-01</value></_>
        <_>
          <depth>1</depth>
          <value>-4.1536510719096736e-01</value></_></nodes></_>
    <_>
      <nodes>
        <_>
          <depth>0</depth>
          <value>-1.6595892592110441e-03</value>
          <splits>
            <_><var>44</var>
              <quality>2.2636768221855164e-01</quality>
              <le>5.4506701231002808e-01</le></_></splits></_>
        <_>
          <depth>1</depth>
          <value>2.9842684404466341e-01</value></_>
        <_>
          <depth>1</depth>
          <value>-1.1533520761931391e+00</value></_></nodes></_>
    <_>
      <nodes>
        <_>
          <depth>0</depth>
          <value>-2.6681718570416408e-03</value>
          <splits>
            <_><var>34</var>
              <quality>1.9150251150131226e-01</quality>
              <le>-9.3388199806213379e-01</le></_></splits></_>
        <_>
          <depth>1</depth>
          <value>3.9544756693359850e-01</value></_>
        <_>
          <depth>1</depth>
          <value>-5.9676221076926150e-01</value></_></nodes></_>
    <_>
      <nodes>
        <_>
          <depth>0</depth>
          <value>5.6065320609851570e-03</value>
          <splits>
            <_><var>9</var>
              <quality>1.4741680026054382e-01</quality>
              <le>-1.2417249679565430e+00</le></_></splits></_>
        <_>
          <depth>1</depth>
          <value>3.0040941567001389e-01</value></_>
        <_>
          <depth>1</depth>
          <value>-5.9910867645450017e-01</value></_></nodes></_>
    <_>
      <nodes>
        <_>
          <depth>0</depth>
          <value>1.1444563840275900e-03</value>
          <splits>
            <_><var>1</var>
              <quality>1.7222668230533600e-01</quality>
              <le>1.0552899837493896e+00</le></_></splits></_>
        <_>
          <depth>1</depth>
          <value>-3.6734230168234228e-01</value></_>
        <_>
          <depth>1</depth>
          <value>5.6958798081297357e-01</value></_></nodes></_>
    <_>
      <nodes>
        <_>
          <depth>0</depth>
          <value>-3.1574339652105008e-03</value>
          <splits>
            <_><var>96</var>
              <quality>1.8693330883979797e-01</quality>
              <le>6.6720695495605469e+00</le></_></splits></_>
        <_>
          <depth>1</depth>
          <value>2.0398319544514532e-01</value></_>
        <_>
          <depth>1</depth>
          <value>-2.0313282825800472e+00</value></_></nodes></_>
    <_>
      <nodes>
        <_>
          <depth>0</depth>
          <value>-6.6315026470956497e-03</value>
          <splits>
            <_><var>116</var>
              <quality>1.7722868919372559e-01</quality>
              <le>-1.3824449777603149e+00</le></_></splits></_>
        <_>
          <depth>1</depth>
          <value>-9.7232804584705856e-01</value></_>
        <_>
          <depth>1</depth>
          <value>2.4945394810885990e-01</value></_></nodes></_>
    <_>
      <nodes>
        <_>
          <depth>0</depth>
          <value>-4.7231085403704864e-03</value>
          <splits>
            <_><var>64</var>
              <quality>1.8962611258029938e-01</quality>
              <le>-3.7751048803329468e-01</le></_></splits></_>
        <_>
          <depth>1</depth>
          <value>5.2749040482454945e-01</value></_>
        <_>
          <depth>1</depth>
          <value>-4.3999565984406652e-01</value></_></nodes></_>
    <_>
      <nodes>
        <_>
          <depth>0</depth>
          <value>-6.4244191801381384e-04</value>
          <splits>
            <_><var>21</var>
              <quality>1.3246828317642212e-01</quality>
              <le>-1.0907899856567383e+01</le></_></splits></_>
        <_>
          <depth>1</depth>
          <value>1.4677698425934156e+00</value></_>
        <_>
          <depth>1</depth>
          <value>-1.5690721400604088e-01</value></_></nodes></_>
    <_>
      <nodes>
        <_>
          <depth>0</depth>
          <value>-4.0009763767134233e-03</value>
          <splits>
            <_><var>78</var>
              <quality>1.8164703249931335e-01</quality>
              <le>-9.9127197265625000e-01</le></_></splits></_>
        <_>
          <depth>1</depth>
          <value>5.6807500512548792e-01</value></_>
        <_>
          <depth>1</depth>
          <value>-3.9211813282170416e-01</value></_></nodes></_>
    <_>
      <nodes>
        <_>
          <depth>0</depth>
          <value>6.0177768541427746e-03</value>
          <splits>
            <_><var>35</var>
              <quality>1.6434250771999359e-01</quality>
              <le>-4.4937147758901119e-03</le></_></splits></_>
        <_>
          <depth>1</depth>
          <value>-7.8914737248913935e-01</value></_>
        <_>
          <depth>1</depth>
          <value>2.7316938727789120e-01</value></_></nodes></_>
    <_>
      <nodes>
        <_>
          <depth>0</depth>
          <value>2.7782778936111625e-03</value>
          <splits>
            <_><var>97</var>
              <quality>1.9778220355510712e-01</quality>
              <le>-4.8360853195190430e+00</le></_></splits></_>
        <_>
          <depth>1</depth>
          <value>-8.1209214547709796e-01</value></_>
        <_>
          <depth>1</depth>
          <value>3.2270520189922636e-01</value></_></nodes></_>
    <_>
      <nodes>
        <_>
          <depth>0</depth>
          <value>-1.0615283386783339e-02</value>
          <splits>
            <_><var>133</var>
              <quality>1.3170494139194489e-01</quality>
              <le>-1.2480299472808838e+00</le></_></splits></_>
        <_>
          <depth>1</depth>
          <value>3.2258757763857371e-01</value></_>
        <_>
          <depth>1</depth>
          <value>-4.7249103101993190e-01</value></_></nodes></_>
    <_>
      <nodes>
        <_>
          <depth>0</depth>
          <value>7.8860570088014326e-04</value>
          <splits>
            <_><var>12</var>
              <quality>1.9531118869781494e-01</quality>
              <le>-1.2841150760650635e+00</le></_></splits></_>
        <_>
          <depth>1</depth>
          <value>5.1040543041035102e-01</value></_>
        <_>
          <depth>1</depth>
          <value>-4.6880183814048054e-01</value></_></nodes></_>
    <_>
      <nodes>
        <_>
          <depth>0</depth>
          <value>-1.6503769894954520e-03</value>
          <splits>
            <_><var>44</var>
              <quality>1.4412838220596313e-01</quality>
              <le>-6.8450450897216797e+00</le></_></splits></_>
        <_>
          <depth>1</depth>
          <value>1.7781210925741493e+00</value></_>
        <_>
          <depth>1</depth>
          <value>-1.6347128054161825e-01</value></_></nodes></_>
    <_>
      <nodes>
        <_>
          <depth>0</depth>
          <value>-9.4100386549292488e-04</value>
          <splits>
            <_><var>34</var>
              <quality>1.5092037618160248e-01</quality>
              <le>-1.2402299642562866e+00</le></_></splits></_>
        <_>
          <depth>1</depth>
          <value>3.2640393202380252e-01</value></_>
        <_>
          <depth>1</depth>
          <value>-5.5389913826620962e-01</value></_></nodes></_>
    <_>
      <nodes>
        <_>
          <depth>0</depth>
          <value>1.0014199838677894e-02</value>
          <splits>
            <_><var>67</var>
              <quality>1.0628273338079453e-01</quality>
              <le>-6.2928795814514160e-01</le></_></splits></_>
        <_>
          <depth>1</depth>
          <value>-4.8637008424443562e-01</value></_>
        <_>
          <depth>1</depth>
          <value>2.5791980101887285e-01</value></_></nodes></_>
    <_>
      <nodes>
        <_>
          <depth>0</depth>
          <value>-3.5214146258023315e-03</value>
          <splits>
            <_><var>123</var>
              <quality>1.5078140795230865e-01</quality>
              <le>-1.6898200511932373e+00</le></_></splits></_>
        <_>
          <depth>1</depth>
          <value>5.6909996490496495e-01</value></_>
        <_>
          <depth>1</depth>
          <value>-3.2041081125849491e-01</value></_></nodes></_>
    <_>
      <nodes>
        <_>
          <depth>0</depth>
          <value>-7.7474065659056626e-05</value>
          <splits>
            <_><var>84</var>
              <quality>1.1708857864141464e-01</quality>
              <le>-7.6293999882182106e-06</le></_></splits></_>
        <_>
          <depth>1</depth>
          <value>-4.4318000473492847e-01</value></_>
        <_>
          <depth>1</depth>
          <value>3.0525080157727047e-01</value></_></nodes></_>
    <_>
      <nodes>
        <_>
          <depth>0</depth>
          <value>-3.0778992890742123e-03</value>
          <splits>
            <_><var>94</var>
              <quality>1.4742794632911682e-01</quality>
              <le>-3.8761901855468750e-01</le></_></splits></_>
        <_>
          <depth>1</depth>
          <value>4.6451206537276546e-01</value></_>
        <_>
          <depth>1</depth>
          <value>-3.7498390286869188e-01</value></_></nodes></_>
    <_>
      <nodes>
        <_>
          <depth>0</depth>
          <value>-2.5408753339069393e-04</value>
          <splits>
            <_><var>17</var>
              <quality>1.4666028320789337e-01</quality>
              <le>-1.3713449478149414e+01</le></_></splits></_>
        <_>
          <depth>1</depth>
          <value>1.4535499202813531e+00</value></_>
        <_>
          <depth>1</depth>
          <value>-1.7420826430166439e-01</value></_></nodes></_>
    <_>
      <nodes>
        <_>
          <depth>0</depth>
          <value>-8.1519001397726640e-03</value>
          <splits>
            <_><var>33</var>
              <quality>1.4548285305500031e-01</quality>
              <le>-4.1240849494934082e+00</le></_></splits></_>
        <_>
          <depth>1</depth>
          <value>-1.4363159709036368e+00</value></_>
        <_>
          <depth>1</depth>
          <value>1.6638121677605150e-01</value></_></nodes></_>
    <_>
      <nodes>
        <_>
          <depth>0</depth>
          <value>2.2373369886578738e-03</value>
          <splits>
            <_><var>49</var>
              <quality>1.3698936998844147e-01</quality>
              <le>3.9458599686622620e-01</le></_></splits></_>
        <_>
          <depth>1</depth>
          <value>-9.5542868132223346e-01</value></_>
        <_>
          <depth>1</depth>
          <value>1.9849957850625302e-01</value></_></nodes></_>
    <_>
      <nodes>
        <_>
          <depth>0</depth>
          <value>1.2386899844279476e-02</value>
          <splits>
            <_><var>78</var>
              <quality>1.4088988304138184e-01</quality>
              <le>-1.7438650131225586e+00</le></_></splits></_>
        <_>
          <depth>1</depth>
          <value>1.0654648602409384e+00</value></_>
        <_>
          <depth>1</depth>
          <value>-1.8067868022393507e-01</value></_></nodes></_>
    <_>
      <nodes>
        <_>
          <depth>0</depth>
          <value>-4.0091571892986134e-03</value>
          <splits>
            <_><var>124</var>
              <quality>1.5982899069786072e-01</quality>
              <le>-1.2056000530719757e-01</le></_></splits></_>
        <_>
          <depth>1</depth>
          <value>-5.0115520690225868e-01</value></_>
        <_>
          <depth>1</depth>
          <value>3.7989404477344740e-01</value></_></nodes></_>
    <_>
      <nodes>
        <_>
          <depth>0</depth>
          <value>-4.2922509690714620e-03</value>
          <splits>
            <_><var>51</var>
              <quality>1.3662077486515045e-01</quality>
              <le>1.5610000610351563e+01</le></_></splits></_>
        <_>
          <depth>1</depth>
          <value>-1.4860143524935460e-01</value></_>
        <_>
          <depth>1</depth>
          <value>5.7564577324623896e+00</value></_></nodes></_>
    <_>
      <nodes>
        <_>
          <depth>0</depth>
          <value>2.6379634582999558e-03</value>
          <splits>
            <_><var>10</var>
              <quality>1.8408614397048950e-01</quality>
              <le>-1.4674549102783203e+00</le></_></splits></_>
        <_>
          <depth>1</depth>
          <value>5.0806909234707809e-01</value></_>
        <_>
          <depth>1</depth>
          <value>-4.3971011648814767e-01</value></_></nodes></_>
    <_>
      <nodes>
        <_>
          <depth>0</depth>
          <value>-1.5171412537047261e-03</value>
          <splits>
            <_><var>79</var>
              <quality>1.6550280153751373e-01</quality>
              <le>-2.5318149477243423e-02</le></_></splits></_>
        <_>
          <depth>1</depth>
          <value>4.0189147207226300e-01</value></_>
        <_>
          <depth>1</depth>
          <value>-4.9286123840885659e-01</value></_></nodes></_>
    <_>
      <nodes>
        <_>
          <depth>0</depth>
          <value>2.8840147027372771e-03</value>
          <splits>
            <_><var>108</var>
              <quality>2.2193872928619385e-01</quality>
              <le>7.9242700338363647e-01</le></_></splits></_>
        <_>
          <depth>1</depth>
          <value>-5.3255784653922611e-01</value></_>
        <_>
          <depth>1</depth>
          <value>5.2227730314013154e-01</value></_></nodes></_>
    <_>
      <nodes>
        <_>
          <depth>0</depth>
          <value>-1.2002742354208556e-03</value>
          <splits>
            <_><var>65</var>
              <quality>1.4487674832344055e-01</quality>
              <le>-5.5490899085998535e-01</le></_></splits></_>
        <_>
          <depth>1</depth>
          <value>-5.2791492158397679e-01</value></_>
        <_>
          <depth>1</depth>
          <value>3.2598586681821007e-01</value></_></nodes></_>
    <_>
      <nodes>
        <_>
          <depth>0</depth>
          <value>-3.5640036478706964e-03</value>
          <splits>
            <_><var>15</var>
              <quality>1.9491013884544373e-01</quality>
              <le>-3.1968700885772705e-01</le></_></splits></_>
        <_>
          <depth>1</depth>
          <value>3.4597632422852476e-01</value></_>
        <_>
          <depth>1</depth>
          <value>-7.1459479073727572e-01</value></_></nodes></_>
    <_>
      <nodes>
        <_>
          <depth>0</depth>
          <value>-9.1286932751434187e-03</value>
          <splits>
            <_><var>92</var>
              <quality>2.0952007174491882e-01</quality>
              <le>-1.3150750100612640e-01</le></_></splits></_>
        <_>
          <depth>1</depth>
          <value>5.9199180467891444e-01</value></_>
        <_>
          <depth>1</depth>
          <value>-4.4424035309279469e-01</value></_></nodes></_>
    <_>
      <nodes>
        <_>
          <depth>0</depth>
          <value>9.6972497582182714e-04</value>
          <splits>
            <_><var>86</var>
              <quality>1.8738409876823425e-01</quality>
              <le>5.6923699378967285e-01</le></_></splits></_>
        <_>
          <depth>1</depth>
          <value>-3.0842383217031027e-01</value></_>
        <_>
          <depth>1</depth>
          <value>7.9026151894204011e-01</value></_></nodes></_>
    <_>
      <nodes>
        <_>
          <depth>0</depth>
          <value>-3.5694705126119303e-03</value>
          <splits>
            <_><var>102</var>
              <quality>2.1603429317474365e-01</quality>
              <le>-2.1020498871803284e-01</le></_></splits></_>
        <_>
          <depth>1</depth>
          <value>4.3227832735102201e-01</value></_>
        <_>
          <depth>1</depth>
          <value>-6.2864880150433333e-01</value></_></nodes></_>
    <_>
      <nodes>
        <_>
          <depth>0</depth>
          <value>-9.4810447311732115e-03</value>
          <splits>
            <_><var>11</var>
              <quality>1.6011005640029907e-01</quality>
              <le>-8.6286401748657227e+00</le></_></splits></_>
        <_>
          <depth>1</depth>
          <value>1.0519880833699691e+00</value></_>
        <_>
          <depth>1</depth>
          <value>-2.2602029901621914e-01</value></_></nodes></_>
    <_>
      <nodes>
        <_>
          <depth>0</depth>
          <value>-8.6772898913600391e-05</value>
          <splits>
            <_><var>70</var>
              <quality>2.0581726729869843e-01</quality>
              <le>-1.6105149984359741e+00</le></_></splits></_>
        <_>
          <depth>1</depth>
          <value>-1.7300753839721672e+00</value></_>
        <_>
          <depth>1</depth>
          <value>2.3499024219677001e-01</value></_></nodes></_>
    <_>
      <nodes>
        <_>
          <depth>0</depth>
          <value>6.4121480143383251e-03</value>
          <splits>
            <_><var>118</var>
              <quality>1.4562112092971802e-01</quality>
              <le>4.6504802703857422e+00</le></_></splits></_>
        <_>
          <depth>1</depth>
          <value>2.0109748702366004e-01</value></_>
        <_>
          <depth>1</depth>
          <value>-1.0767034790150665e+00</value></_></nodes></_>
    <_>
      <nodes>
        <_>
          <depth>0</depth>
          <value>-6.8528230925663696e-03</value>
          <splits>
            <_><var>50</var>
              <quality>1.5708655118942261e-01</quality>
              <le>-1.2023350000381470e+00</le></_></splits></_>
        <_>
          <depth>1</depth>
          <value>6.1511048577998917e-01</value></_>
        <_>
          <depth>1</depth>
          <value>-3.1514467656115602e-01</value></_></nodes></_>
    <_>
      <nodes>
        <_>
          <depth>0</depth>
          <value>-1.2277513707287539e-03</value>
          <splits>
            <_><var>71</var>
              <quality>1.1964252591133118e-01</quality>
              <le>-2.2642350196838379e+00</le></_></splits></_>
        <_>
          <depth>1</depth>
          <value>-2.2077016828222429e+00</value></_>
        <_>
          <depth>1</depth>
          <value>1.2871092819216629e-01</value></_></nodes></_>
    <_>
      <nodes>
        <_>
          <depth>0</depth>
          <value>-2.0152173716615767e-03</value>
          <splits>
            <_><var>17</var>
              <quality>2.4977724254131317e-01</quality>
              <le>-5.3630046844482422e+00</le></_></splits></_>
        <_>
          <depth>1</depth>
          <value>9.7281600749505537e-01</value></_>
        <_>
          <depth>1</depth>
          <value>-3.6751206860612023e-01</value></_></nodes></_>
    <_>
      <nodes>
        <_>
          <depth>0</depth>
          <value>-1.9709683533170069e-02</value>
          <splits>
            <_><var>119</var>
              <quality>1.7215241491794586e-01</quality>
              <le>4.5039196014404297e+00</le></_></splits></_>
        <_>
          <depth>1</depth>
          <value>-2.1694839218537085e-01</value></_>
        <_>
          <depth>1</depth>
          <value>1.5461095958504070e+00</value></_></nodes></_>
    <_>
      <nodes>
        <_>
          <depth>0</depth>
          <value>-7.6212552732235648e-03</value>
          <splits>
            <_><var>99</var>
              <quality>2.6031750440597534e-01</quality>
              <le>-1.3547049760818481e+00</le></_></splits></_>
        <_>
          <depth>1</depth>
          <value>4.9220786054667687e-01</value></_>
        <_>
          <depth>1</depth>
          <value>-6.9138935649815325e-01</value></_></nodes></_>
    <_>
      <nodes>
        <_>
          <depth>0</depth>
          <value>-5.5146623014319636e-03</value>
          <splits>
            <_><var>32</var>
              <quality>1.9567133486270905e-01</quality>
              <le>1.7199701070785522e-01</le></_></splits></_>
        <_>
          <depth>1</depth>
          <value>-4.9078405153284399e-01</value></_>
        <_>
          <depth>1</depth>
          <value>4.8837853876846576e-01</value></_></nodes></_>
    <_>
      <nodes>
        <_>
          <depth>0</depth>
          <value>1.6234281005964310e-03</value>
          <splits>
            <_><var>112</var>
              <quality>1.3715343177318573e-01</quality>
              <le>5.0191497802734375e-01</le></_></splits></_>
        <_>
          <depth>1</depth>
          <value>2.1340648418894234e-01</value></_>
        <_>
          <depth>1</depth>
          <value>-8.4899683520271085e-01</value></_></nodes></_>
    <_>
      <nodes>
        <_>
          <depth>0</depth>
          <value>4.9874039264722163e-03</value>
          <splits>
            <_><var>124</var>
              <quality>2.0576107501983643e-01</quality>
              <le>3.1703901290893555e-01</le></_></splits></_>
        <_>
          <depth>1</depth>
          <value>-3.9069637100168708e-01</value></_>
        <_>
          <depth>1</depth>
          <value>6.6208597910340805e-01</value></_></nodes></_>
    <_>
      <nodes>
        <_>
          <depth>0</depth>
          <value>-1.1643396960161246e-02</value>
          <splits>
            <_><var>78</var>
              <quality>1.2715995311737061e-01</quality>
              <le>-1.7438650131225586e+00</le></_></splits></_>
        <_>
          <depth>1</depth>
          <value>9.2501654575350123e-01</value></_>
        <_>
          <depth>1</depth>
          <value>-1.9486566614978840e-01</value></_></nodes></_>
    <_>
      <nodes>
        <_>
          <depth>0</depth>
          <value>3.1895534570146357e-03</value>
          <splits>
            <_><var>53</var>
              <quality>1.5138639509677887e-01</quality>
              <le>3.4573199748992920e+00</le></_></splits></_>
        <_>
          <depth>1</depth>
          <value>-2.8306813818010967e-01</value></_>
        <_>
          <depth>1</depth>
          <value>6.5449415287362667e-01</value></_></nodes></_>
    <_>
      <nodes>
        <_>
          <depth>0</depth>
          <value>2.8917247973661532e-03</value>
          <splits>
            <_><var>74</var>
              <quality>1.2856730818748474e-01</quality>
              <le>-3.6858749389648438e-01</le></_></splits></_>
        <_>
          <depth>1</depth>
          <value>5.5628971195295085e-01</value></_>
        <_>
          <depth>1</depth>
          <value>-2.7319988805688283e-01</value></_></nodes></_>
    <_>
      <nodes>
        <_>
          <depth>0</depth>
          <value>-6.7427819873170690e-03</value>
          <splits>
            <_><var>21</var>
              <quality>1.4069576561450958e-01</quality>
              <le>-1.1355949401855469e+01</le></_></splits></_>
        <_>
          <depth>1</depth>
          <value>1.2644412748488008e+00</value></_>
        <_>
          <depth>1</depth>
          <value>-1.8107726826481763e-01</value></_></nodes></_>
    <_>
      <nodes>
        <_>
          <depth>0</depth>
          <value>-3.8373184977229901e-03</value>
          <splits>
            <_><var>12</var>
              <quality>1.4316095411777496e-01</quality>
              <le>1.2939900159835815e+00</le></_></splits></_>
        <_>
          <depth>1</depth>
          <value>1.9350299860066214e-01</value></_>
        <_>
          <depth>1</depth>
          <value>-1.0372114318107377e+00</value></_></nodes></_>
    <_>
      <nodes>
        <_>
          <depth>0</depth>
          <value>-4.0976417922986806e-03</value>
          <splits>
            <_><var>114</var>
              <quality>1.8076990544795990e-01</quality>
              <le>-8.6669951677322388e-01</le></_></splits></_>
        <_>
          <depth>1</depth>
          <value>-7.4523999690687326e-01</value></_>
        <_>
          <depth>1</depth>
          <value>3.0824617653952702e-01</value></_></nodes></_>
    <_>
      <nodes>
        <_>
          <depth>0</depth>
          <value>-3.1211204446845273e-03</value>
          <splits>
            <_><var>13</var>
              <quality>1.2101735919713974e-01</quality>
              <le>1.1854850053787231e+00</le></_></splits></_>
        <_>
          <depth>1</depth>
          <value>1.4553746880544416e-01</value></_>
        <_>
          <depth>1</depth>
          <value>-1.3165474469437508e+00</value></_></nodes></_>
    <_>
      <nodes>
        <_>
          <depth>0</depth>
          <value>1.9293573081575812e-04</value>
          <splits>
            <_><var>40</var>
              <quality>1.4271230995655060e-01</quality>
              <le>1.2265900373458862e+00</le></_></splits></_>
        <_>
          <depth>1</depth>
          <value>-3.0040229202076890e-01</value></_>
        <_>
          <depth>1</depth>
          <value>5.6935770967502497e-01</value></_></nodes></_>
    <_>
      <nodes>
        <_>
          <depth>0</depth>
          <value>-4.7130449168599304e-03</value>
          <splits>
            <_><var>32</var>
              <quality>1.4631728827953339e-01</quality>
              <le>-1.2674150466918945e+00</le></_></splits></_>
        <_>
          <depth>1</depth>
          <value>-7.3297019116970619e-01</value></_>
        <_>
          <depth>1</depth>
          <value>2.4874666134186729e-01</value></_></nodes></_>
    <_>
      <nodes>
        <_>
          <depth>0</depth>
          <value>-1.6424655322888110e-03</value>
          <splits>
            <_><var>118</var>
              <quality>1.2697854638099670e-01</quality>
              <le>4.3706250190734863e+00</le></_></splits></_>
        <_>
          <depth>1</depth>
          <value>1.6691070464792304e-01</value></_>
        <_>
          <depth>1</depth>
          <value>-1.1047907079029540e+00</value></_></nodes></_>
    <_>
      <nodes>
        <_>
          <depth>0</depth>
          <value>4.9227268564689423e-03</value>
          <splits>
            <_><var>94</var>
              <quality>1.4024017751216888e-01</quality>
              <le>-9.3228900432586670e-01</le></_></splits></_>
        <_>
          <depth>1</depth>
          <value>7.1451342478376378e-01</value></_>
        <_>
          <depth>1</depth>
          <value>-2.4226886067834516e-01</value></_></nodes></_>
    <_>
      <nodes>
        <_>
          <depth>0</depth>
          <value>-3.5223189983321522e-03</value>
          <splits>
            <_><var>47</var>
              <quality>1.3716737926006317e-01</quality>
              <le>1.0786349773406982e+00</le></_></splits></_>
        <_>
          <depth>1</depth>
          <value>-6.0965533864945087e-01</value></_>
        <_>
          <depth>1</depth>
          <value>2.7015865172907816e-01</value></_></nodes></_>
    <_>
      <nodes>
        <_>
          <depth>0</depth>
          <value>5.3329359775000224e-03</value>
          <splits>
            <_><var>84</var>
              <quality>1.3258758187294006e-01</quality>
              <le>3.0908200144767761e-01</le></_></splits></_>
        <_>
          <depth>1</depth>
          <value>-4.4209653944768873e-01</value></_>
        <_>
          <depth>1</depth>
          <value>3.5094224938943930e-01</value></_></nodes></_>
    <_>
      <nodes>
        <_>
          <depth>0</depth>
          <value>-5.0802136000888641e-03</value>
          <splits>
            <_><var>13</var>
              <quality>1.3549073040485382e-01</quality>
              <le>-1.0998550415039063e+01</le></_></splits></_>
        <_>
          <depth>1</depth>
          <value>1.5661870435455600e+00</value></_>
        <_>
          <depth>1</depth>
          <value>-1.6126426620032172e-01</value></_></nodes></_>
    <_>
      <nodes>
        <_>
          <depth>0</depth>
          <value>-9.3651749629887326e-03</value>
          <splits>
            <_><var>82</var>
              <quality>1.6124692559242249e-01</quality>
              <le>-1.1389750242233276e+00</le></_></splits></_>
        <_>
          <depth>1</depth>
          <value>5.9342058578657964e-01</value></_>
        <_>
          <depth>1</depth>
          <value>-3.3459216384460805e-01</value></_></nodes></_>
    <_>
      <nodes>
        <_>
          <depth>0</depth>
          <value>5.1744914495283805e-03</value>
          <splits>
            <_><var>120</var>
              <quality>1.3098005950450897e-01</quality>
              <le>-1.4203950166702271e+00</le></_></splits></_>
        <_>
          <depth>1</depth>
          <value>4.1161080825624696e-01</value></_>
        <_>
          <depth>1</depth>
          <value>-3.6912120152037758e-01</value></_></nodes></_>
    <_>
      <nodes>
        <_>
          <depth>0</depth>
          <value>-1.3505463188605380e-03</value>
          <splits>
            <_><var>81</var>
              <quality>1.5348745882511139e-01</quality>
              <le>8.6299896240234375e-02</le></_></splits></_>
        <_>
          <depth>1</depth>
          <value>2.5387393330403707e-01</value></_>
        <_>
          <depth>1</depth>
          <value>-7.7228607890476886e-01</value></_></nodes></_>
    <_>
      <nodes>
        <_>
          <depth>0</depth>
          <value>1.0420377519944285e-02</value>
          <splits>
            <_><var>124</var>
              <quality>1.4873781800270081e-01</quality>
              <le>-1.2056000530719757e-01</le></_></splits></_>
        <_>
          <depth>1</depth>
          <value>-4.8286471606884623e-01</value></_>
        <_>
          <depth>1</depth>
          <value>3.6702173566549234e-01</value></_></nodes></_>
    <_>
      <nodes>
        <_>
          <depth>0</depth>
          <value>-1.6178339351370396e-03</value>
          <splits>
            <_><var>44</var>
              <quality>1.5376572310924530e-01</quality>
              <le>-3.4971251487731934e+00</le></_></splits></_>
        <_>
          <depth>1</depth>
          <value>8.5972449268514473e-01</value></_>
        <_>
          <depth>1</depth>
          <value>-2.3816467264000901e-01</value></_></nodes></_>
    <_>
      <nodes>
        <_>
          <depth>0</depth>
          <value>7.6329756339641830e-04</value>
          <splits>
            <_><var>27</var>
              <quality>1.2685415148735046e-01</quality>
              <le>4.9143201112747192e-01</le></_></splits></_>
        <_>
          <depth>1</depth>
          <value>1.7219884979387426e-01</value></_>
        <_>
          <depth>1</depth>
          <value>-1.0615184927741328e+00</value></_></nodes></_>
    <_>
      <nodes>
        <_>
          <depth>0</depth>
          <value>-4.1038579349074308e-03</value>
          <splits>
            <_><var>33</var>
              <quality>1.6343113780021667e-01</quality>
              <le>-1.7784900665283203e+00</le></_></splits></_>
        <_>
          <depth>1</depth>
          <value>-8.8894566304536682e-01</value></_>
        <_>
          <depth>1</depth>
          <value>2.4402977882710192e-01</value></_></nodes></_>
    <_>
      <nodes>
        <_>
          <depth>0</depth>
          <value>-1.9124843153766453e-03</value>
          <splits>
            <_><var>0</var>
              <quality>1.6803942620754242e-01</quality>
              <le>-2.0027050971984863e+00</le></_></splits></_>
        <_>
          <depth>1</depth>
          <value>7.9887865315685114e-01</value></_>
        <_>
          <depth>1</depth>
          <value>-2.7466409273656761e-01</value></_></nodes></_>
    <_>
      <nodes>
        <_>
          <depth>0</depth>
          <value>-4.9176019587843115e-04</value>
          <splits>
            <_><var>13</var>
              <quality>1.0408895462751389e-01</quality>
              <le>-7.4077749252319336e+00</le></_></splits></_>
        <_>
          <depth>1</depth>
          <value>6.7911014533454539e-01</value></_>
        <_>
          <depth>1</depth>
          <value>-1.8796314511232701e-01</value></_></nodes></_>
    <_>
      <nodes>
        <_>
          <depth>0</depth>
          <value>-9.2139196533151304e-03</value>
          <splits>
            <_><var>65</var>
              <quality>1.5051765739917755e-01</quality>
              <le>-8.4445202350616455e-01</le></_></splits></_>
        <_>
          <depth>1</depth>
          <value>-7.2136156148173247e-01</value></_>
        <_>
          <depth>1</depth>
          <value>2.5660786759972204e-01</value></_></nodes></_>
    <_>
      <nodes>
        <_>
          <depth>0</depth>
          <value>-2.4290148713292147e-03</value>
          <splits>
            <_><var>123</var>
              <quality>1.1196045577526093e-01</quality>
              <le>-1.6898200511932373e+00</le></_></splits></_>
        <_>
          <depth>1</depth>
          <value>4.3049785598180723e-01</value></_>
        <_>
          <depth>1</depth>
          <value>-2.9983854645854441e-01</value></_></nodes></_>
    <_>
      <nodes>
        <_>
          <depth>0</depth>
          <value>5.0090432589111177e-03</value>
          <splits>
            <_><var>105</var>
              <quality>1.2493718415498734e-01</quality>
              <le>-3.8409349918365479e+00</le></_></splits></_>
        <_>
          <depth>1</depth>
          <value>-1.2519540017989186e+00</value></_>
        <_>
          <depth>1</depth>
          <value>1.6049771652435885e-01</value></_></nodes></_>
    <_>
      <nodes>
        <_>
          <depth>0</depth>
          <value>3.0351183324967635e-03</value>
          <splits>
            <_><var>122</var>
              <quality>1.0598723590373993e-01</quality>
              <le>7.9480004310607910e-01</le></_></splits></_>
        <_>
          <depth>1</depth>
          <value>2.0291636008626016e-01</value></_>
        <_>
          <depth>1</depth>
          <value>-6.3750579051253442e-01</value></_></nodes></_>
    <_>
      <nodes>
        <_>
          <depth>0</depth>
          <value>-7.1581123583780697e-03</value>
          <splits>
            <_><var>15</var>
              <quality>1.2320774048566818e-01</quality>
              <le>-7.1312251091003418e+00</le></_></splits></_>
        <_>
          <depth>1</depth>
          <value>7.4773866953232748e-01</value></_>
        <_>
          <depth>1</depth>
          <value>-2.1258284935714902e-01</value></_></nodes></_>
    <_>
      <nodes>
        <_>
          <depth>0</depth>
          <value>-1.1456398324835183e-02</value>
          <splits>
            <_><var>76</var>
              <quality>1.5202362835407257e-01</quality>
              <le>-5.6422400474548340e-01</le></_></splits></_>
        <_>
          <depth>1</depth>
          <value>4.6445847261805911e-01</value></_>
        <_>
          <depth>1</depth>
          <value>-3.8935978336848742e-01</value></_></nodes></_>
    <_>
      <nodes>
        <_>
          <depth>0</depth>
          <value>4.1581357917971984e-03</value>
          <splits>
            <_><var>39</var>
              <quality>1.2829972803592682e-01</quality>
              <le>3.3049750328063965e-01</le></_></splits></_>
        <_>
          <depth>1</depth>
          <value>-4.8237012642118482e-01</value></_>
        <_>
          <depth>1</depth>
          <value>3.1268174701932078e-01</value></_></nodes></_>
    <_>
      <nodes>
        <_>
          <depth>0</depth>
          <value>-9.9125750115325317e-04</value>
          <splits>
            <_><var>12</var>
              <quality>1.6168273985385895e-01</quality>
              <le>-2.2446699142456055e+00</le></_></splits></_>
        <_>
          <depth>1</depth>
          <value>5.2674671140867146e-01</value></_>
        <_>
          <depth>1</depth>
          <value>-3.6861823335244320e-01</value></_></nodes></_>
    <_>
      <nodes>
        <_>
          <depth>0</depth>
          <value>6.8185638333058418e-04</value>
          <splits>
            <_><var>53</var>
              <quality>1.1396986246109009e-01</quality>
              <le>3.0914349555969238e+00</le></_></splits></_>
        <_>
          <depth>1</depth>
          <value>-2.6947677657625146e-01</value></_>
        <_>
          <depth>1</depth>
          <value>4.9181096888532089e-01</value></_></nodes></_>
    <_>
      <nodes>
        <_>
          <depth>0</depth>
          <value>4.7107699696749194e-03</value>
          <splits>
            <_><var>97</var>
              <quality>1.4715090394020081e-01</quality>
              <le>-4.4916353225708008e+00</le></_></splits></_>
        <_>
          <depth>1</depth>
          <value>-5.8423058713474696e-01</value></_>
        <_>
          <depth>1</depth>
          <value>3.0616797232622489e-01</value></_></nodes></_>
    <_>
      <nodes>
        <_>
          <depth>0</depth>
          <value>-3.9656313154643914e-03</value>
          <splits>
            <_><var>21</var>
              <quality>1.2439493089914322e-01</quality>
              <le>-1.1642700195312500e+01</le></_></splits></_>
        <_>
          <depth>1</depth>
          <value>1.2556851097508590e+00</value></_>
        <_>
          <depth>1</depth>
          <value>-1.5869337985581464e-01</value></_></nodes></_>
    <_>
      <nodes>
        <_>
          <depth>0</depth>
          <value>-1.0051171891988293e-02</value>
          <splits>
            <_><var>95</var>
              <quality>1.2540626525878906e-01</quality>
              <le>2.7019500732421875e-02</le></_></splits></_>
        <_>
          <depth>1</depth>
          <value>1.9932706957209478e-01</value></_>
        <_>
          <depth>1</depth>
          <value>-7.7271170499717590e-01</value></_></nodes></_></trees></opencv_ml_boost>
</opencv_storage>
