<?xml version="1.0"?>
<opencv_storage>
<opencv_ml_boost>
  <format>3</format>
  <is_classifier>1</is_classifier>
  <var_all>137</var_all>
  <var_count>136</var_count>
  <ord_var_count>136</ord_var_count>
  <cat_var_count>1</cat_var_count>
  <training_params>
    <boosting_type>RealAdaboost</boosting_type>
    <use_surrogates>0</use_surrogates>
    <max_categories>10</max_categories>
    <regression_accuracy>9.9999997764825821e-03</regression_accuracy>
    <max_depth>1</max_depth>
    <min_sample_count>10</min_sample_count>
    <cross_validation_folds>0</cross_validation_folds>
    <weight_trimming_rate>9.4999999999999996e-01</weight_trimming_rate></training_params>
  <global_var_idx>1</global_var_idx>
  <var_idx>
    0 1 2 3 4 5 6 7 8 9 10 11 12 13 14 15 16 17 18 19 20 21 22 23 24 25
    26 27 28 29 30 31 32 33 34 35 36 37 38 39 40 41 42 43 44 45 46 47 48
    49 50 51 52 53 54 55 56 57 58 59 60 61 62 63 64 65 66 67 68 69 70 71
    72 73 74 75 76 77 78 79 80 81 82 83 84 85 86 87 88 89 90 91 92 93 94
    95 96 97 98 99 100 101 102 103 104 105 106 107 108 109 110 111 112
    113 114 115 116 117 118 119 120 121 122 123 124 125 126 127 128 129
    130 131 132 133 134 135</var_idx>
  <var_type>
    0 0 0 0 0 0 0 0 0 0 0 0 0 0 0 0 0 0 0 0 0 0 0 0 0 0 0 0 0 0 0 0 0 0
    0 0 0 0 0 0 0 0 0 0 0 0 0 0 0 0 0 0 0 0 0 0 0 0 0 0 0 0 0 0 0 0 0 0
    0 0 0 0 0 0 0 0 0 0 0 0 0 0 0 0 0 0 0 0 0 0 0 0 0 0 0 0 0 0 0 0 0 0
    0 0 0 0 0 0 0 0 0 0 0 0 0 0 0 0 0 0 0 0 0 0 0 0 0 0 0 0 0 0 0 0 0 0
    1</var_type>
  <cat_ofs>
    0 0 0 0 0 0 0 0 0 0 0 0 0 0 0 0 0 0 0 0 0 0 0 0 0 0 0 0 0 0 0 0 0 0
    0 0 0 0 0 0 0 0 0 0 0 0 0 0 0 0 0 0 0 0 0 0 0 0 0 0 0 0 0 0 0 0 0 0
    0 0 0 0 0 0 0 0 0 0 0 0 0 0 0 0 0 0 0 0 0 0 0 0 0 0 0 0 0 0 0 0 0 0
    0 0 0 0 0 0 0 0 0 0 0 0 0 0 0 0 0 0 0 0 0 0 0 0 0 0 0 0 0 0 0 0 0 0
    0 0 0 0 0 0 0 0 0 0 0 0 0 0 0 0 0 0 0 0 0 0 0 0 0 0 0 0 0 0 0 0 0 0
    0 0 0 0 0 0 0 0 0 0 0 0 0 0 0 0 0 0 0 0 0 0 0 0 0 0 0 0 0 0 0 0 0 0
    0 0 0 0 0 0 0 0 0 0 0 0 0 0 0 0 0 0 0 0 0 0 0 0 0 0 0 0 0 0 0 0 0 0
    0 0 0 0 0 0 0 0 0 0 0 0 0 0 0 0 0 0 0 0 0 0 0 0 0 0 0 0 0 0 0 0 0 0</cat_ofs>
  <class_labels>
    -1082130432 1065353216</class_labels>
  <missing_subst>
    0. 0. 0. 0. 0. 0. 0. 0. 0. 0. 0. 0. 0. 0. 0. 0. 0. 0. 0. 0. 0. 0. 0.
    0. 0. 0. 0. 0. 0. 0. 0. 0. 0. 0. 0. 0. 0. 0. 0. 0. 0. 0. 0. 0. 0. 0.
    0. 0. 0. 0. 0. 0. 0. 0. 0. 0. 0. 0. 0. 0. 0. 0. 0. 0. 0. 0. 0. 0. 0.
    0. 0. 0. 0. 0. 0. 0. 0. 0. 0. 0. 0. 0. 0. 0. 0. 0. 0. 0. 0. 0. 0. 0.
    0. 0. 0. 0. 0. 0. 0. 0. 0. 0. 0. 0. 0. 0. 0. 0. 0. 0. 0. 0. 0. 0. 0.
    0. 0. 0. 0. 0. 0. 0. 0. 0. 0. 0. 0. 0. 0. 0. 0. 0. 0. 0. 0. 0. 0.</missing_subst>
  <ntrees>100</ntrees>
  <trees>
    <_>
      <nodes>
        <_>
          <depth>0</depth>
          <value>-8.1283978438136617e-01</value>
          <splits>
            <_><var>120</var>
              <quality>8.7533080577850342e-01</quality>
              <le>8.7394657135009766e+00</le></_></splits></_>
        <_>
          <depth>1</depth>
          <value>-2.2689807181473207e+00</value></_>
        <_>
          <depth>1</depth>
          <value>8.8670516527992949e-01</value></_></nodes></_>
    <_>
      <nodes>
        <_>
          <depth>0</depth>
          <value>1.5447344498064955e-08</value>
          <splits>
            <_><var>109</var>
              <quality>4.4628491997718811e-01</quality>
              <le>3.8923950195312500e+00</le></_></splits></_>
        <_>
          <depth>1</depth>
          <value>-8.9437201815219391e-01</value></_>
        <_>
          <depth>1</depth>
          <value>7.3390110018437837e-01</value></_></nodes></_>
    <_>
      <nodes>
        <_>
          <depth>0</depth>
          <value>2.1615344824213799e-08</value>
          <splits>
            <_><var>46</var>
              <quality>3.4746000170707703e-01</quality>
              <le>5.3579699993133545e-01</le></_></splits></_>
        <_>
          <depth>1</depth>
          <value>4.1634245928084318e-01</value></_>
        <_>
          <depth>1</depth>
          <value>-1.3857212388059816e+00</value></_></nodes></_>
    <_>
      <nodes>
        <_>
          <depth>0</depth>
          <value>3.8846121584009609e-02</value>
          <splits>
            <_><var>110</var>
              <quality>3.7039440870285034e-01</quality>
              <le>-1.7801949977874756e+00</le></_></splits></_>
        <_>
          <depth>1</depth>
          <value>4.4152615365535353e-01</value></_>
        <_>
          <depth>1</depth>
          <value>-2.3047021630637516e+00</value></_></nodes></_>
    <_>
      <nodes>
        <_>
          <depth>0</depth>
          <value>8.9259611728326905e-03</value>
          <splits>
            <_><var>45</var>
              <quality>3.5837337374687195e-01</quality>
              <le>2.3594500124454498e-01</le></_></splits></_>
        <_>
          <depth>1</depth>
          <value>5.2934259782406379e-01</value></_>
        <_>
          <depth>1</depth>
          <value>-1.0297836665100903e+00</value></_></nodes></_>
    <_>
      <nodes>
        <_>
          <depth>0</depth>
          <value>-1.5121996973819338e-02</value>
          <splits>
            <_><var>97</var>
              <quality>2.8337445855140686e-01</quality>
              <le>1.0050950050354004e+01</le></_></splits></_>
        <_>
          <depth>1</depth>
          <value>-3.7875268535095941e-01</value></_>
        <_>
          <depth>1</depth>
          <value>1.2221365442255854e+00</value></_></nodes></_>
    <_>
      <nodes>
        <_>
          <depth>0</depth>
          <value>-2.7010820911498219e-02</value>
          <splits>
            <_><var>37</var>
              <quality>2.8843826055526733e-01</quality>
              <le>-1.7164199352264404e+00</le></_></splits></_>
        <_>
          <depth>1</depth>
          <value>-6.8857804811294887e-01</value></_>
        <_>
          <depth>1</depth>
          <value>5.5090291866268482e-01</value></_></nodes></_>
    <_>
      <nodes>
        <_>
          <depth>0</depth>
          <value>-1.5426463024980068e-02</value>
          <splits>
            <_><var>113</var>
              <quality>2.6471063494682312e-01</quality>
              <le>-3.6705750226974487e-01</le></_></splits></_>
        <_>
          <depth>1</depth>
          <value>3.6519146718137430e-01</value></_>
        <_>
          <depth>1</depth>
          <value>-9.8493569283603577e-01</value></_></nodes></_>
    <_>
      <nodes>
        <_>
          <depth>0</depth>
          <value>2.5488427939590271e-02</value>
          <splits>
            <_><var>34</var>
              <quality>2.7273622155189514e-01</quality>
              <le>-4.4267451763153076e-01</le></_></splits></_>
        <_>
          <depth>1</depth>
          <value>-6.0409396688250272e-01</value></_>
        <_>
          <depth>1</depth>
          <value>5.9091177187298982e-01</value></_></nodes></_>
    <_>
      <nodes>
        <_>
          <depth>0</depth>
          <value>-1.7873488633021357e-02</value>
          <splits>
            <_><var>97</var>
              <quality>2.4580542743206024e-01</quality>
              <le>7.1957998275756836e+00</le></_></splits></_>
        <_>
          <depth>1</depth>
          <value>-5.4854475356086285e-01</value></_>
        <_>
          <depth>1</depth>
          <value>5.7395920020630553e-01</value></_></nodes></_>
    <_>
      <nodes>
        <_>
          <depth>0</depth>
          <value>-4.4535890602940406e-03</value>
          <splits>
            <_><var>42</var>
              <quality>2.1861582994461060e-01</quality>
              <le>-1.2839750051498413e+00</le></_></splits></_>
        <_>
          <depth>1</depth>
          <value>-2.4090333947615701e+00</value></_>
        <_>
          <depth>1</depth>
          <value>2.3451407513187827e-01</value></_></nodes></_>
    <_>
      <nodes>
        <_>
          <depth>0</depth>
          <value>-3.0755356298843795e-02</value>
          <splits>
            <_><var>85</var>
              <quality>2.2924511134624481e-01</quality>
              <le>8.4309750795364380e-01</le></_></splits></_>
        <_>
          <depth>1</depth>
          <value>2.5802011294651445e-01</value></_>
        <_>
          <depth>1</depth>
          <value>-1.2814018756513379e+00</value></_></nodes></_>
    <_>
      <nodes>
        <_>
          <depth>0</depth>
          <value>1.0849814882887870e-02</value>
          <splits>
            <_><var>107</var>
              <quality>1.9070634245872498e-01</quality>
              <le>-8.6055749654769897e-01</le></_></splits></_>
        <_>
          <depth>1</depth>
          <value>-5.7564577324601141e+00</value></_>
        <_>
          <depth>1</depth>
          <value>2.0918030469849799e-01</value></_></nodes></_>
    <_>
      <nodes>
        <_>
          <depth>0</depth>
          <value>-5.6700395811377193e-09</value>
          <splits>
            <_><var>115</var>
              <quality>1.7165423929691315e-01</quality>
              <le>2.4579300880432129e+00</le></_></splits></_>
        <_>
          <depth>1</depth>
          <value>1.9865540369682169e-01</value></_>
        <_>
          <depth>1</depth>
          <value>-1.4724508907596494e+00</value></_></nodes></_>
    <_>
      <nodes>
        <_>
          <depth>0</depth>
          <value>-7.2861514027762909e-03</value>
          <splits>
            <_><var>88</var>
              <quality>2.3853836953639984e-01</quality>
              <le>1.4131149649620056e-01</le></_></splits></_>
        <_>
          <depth>1</depth>
          <value>-5.4754473850035790e-01</value></_>
        <_>
          <depth>1</depth>
          <value>5.5364767323905262e-01</value></_></nodes></_>
    <_>
      <nodes>
        <_>
          <depth>0</depth>
          <value>-4.3973678368935077e-03</value>
          <splits>
            <_><var>52</var>
              <quality>2.2720569372177124e-01</quality>
              <le>-5.4153449833393097e-02</le></_></splits></_>
        <_>
          <depth>1</depth>
          <value>5.0625278422729159e-01</value></_>
        <_>
          <depth>1</depth>
          <value>-5.5439017006368729e-01</value></_></nodes></_>
    <_>
      <nodes>
        <_>
          <depth>0</depth>
          <value>-3.7669863427936454e-03</value>
          <splits>
            <_><var>120</var>
              <quality>2.3622325062751770e-01</quality>
              <le>1.6403299570083618e+00</le></_></splits></_>
        <_>
          <depth>1</depth>
          <value>-1.1046064348775002e+00</value></_>
        <_>
          <depth>1</depth>
          <value>3.0701494213461628e-01</value></_></nodes></_>
    <_>
      <nodes>
        <_>
          <depth>0</depth>
          <value>1.7282956914285177e-02</value>
          <splits>
            <_><var>8</var>
              <quality>1.9098524749279022e-01</quality>
              <le>1.8777099847793579e+00</le></_></splits></_>
        <_>
          <depth>1</depth>
          <value>5.1129621538347458e-01</value></_>
        <_>
          <depth>1</depth>
          <value>-4.5414333254192768e-01</value></_></nodes></_>
    <_>
      <nodes>
        <_>
          <depth>0</depth>
          <value>-5.4555827546413690e-03</value>
          <splits>
            <_><var>97</var>
              <quality>2.0026051998138428e-01</quality>
              <le>1.1883999824523926e+01</le></_></splits></_>
        <_>
          <depth>1</depth>
          <value>-2.3619229948818543e-01</value></_>
        <_>
          <depth>1</depth>
          <value>1.6240192895833896e+00</value></_></nodes></_>
    <_>
      <nodes>
        <_>
          <depth>0</depth>
          <value>-9.5254744902621546e-03</value>
          <splits>
            <_><var>4</var>
              <quality>1.8570470809936523e-01</quality>
              <le>2.3317899703979492e+00</le></_></splits></_>
        <_>
          <depth>1</depth>
          <value>-3.7382939021026212e-01</value></_>
        <_>
          <depth>1</depth>
          <value>6.2166703728998796e-01</value></_></nodes></_>
    <_>
      <nodes>
        <_>
          <depth>0</depth>
          <value>6.0781284946837795e-03</value>
          <splits>
            <_><var>132</var>
              <quality>2.1152378618717194e-01</quality>
              <le>-3.8366699218750000e-01</le></_></splits></_>
        <_>
          <depth>1</depth>
          <value>-6.1667846338045196e-01</value></_>
        <_>
          <depth>1</depth>
          <value>4.3242884956195415e-01</value></_></nodes></_>
    <_>
      <nodes>
        <_>
          <depth>0</depth>
          <value>-5.4726886945758446e-03</value>
          <splits>
            <_><var>128</var>
              <quality>1.5451189875602722e-01</quality>
              <le>-1.5023150444030762e+00</le></_></splits></_>
        <_>
          <depth>1</depth>
          <value>1.5935467614883259e-01</value></_>
        <_>
          <depth>1</depth>
          <value>-5.7564577324601141e+00</value></_></nodes></_>
    <_>
      <nodes>
        <_>
          <depth>0</depth>
          <value>-1.1007620314685367e-02</value>
          <splits>
            <_><var>54</var>
              <quality>2.1133181452751160e-01</quality>
              <le>1.3468400239944458e+00</le></_></splits></_>
        <_>
          <depth>1</depth>
          <value>2.4298627783143473e-01</value></_>
        <_>
          <depth>1</depth>
          <value>-1.4891617310792262e+00</value></_></nodes></_>
    <_>
      <nodes>
        <_>
          <depth>0</depth>
          <value>-6.2705444385389580e-03</value>
          <splits>
            <_><var>39</var>
              <quality>1.7269770801067352e-01</quality>
              <le>8.1269550323486328e-01</le></_></splits></_>
        <_>
          <depth>1</depth>
          <value>2.1453779906502604e-01</value></_>
        <_>
          <depth>1</depth>
          <value>-1.2252146646893949e+00</value></_></nodes></_>
    <_>
      <nodes>
        <_>
          <depth>0</depth>
          <value>1.5508724503897088e-03</value>
          <splits>
            <_><var>42</var>
              <quality>2.4863465130329132e-01</quality>
              <le>6.9771552085876465e-01</le></_></splits></_>
        <_>
          <depth>1</depth>
          <value>-4.8024000418422125e-01</value></_>
        <_>
          <depth>1</depth>
          <value>6.7121932442607701e-01</value></_></nodes></_>
    <_>
      <nodes>
        <_>
          <depth>0</depth>
          <value>3.8520370435402261e-03</value>
          <splits>
            <_><var>71</var>
              <quality>2.2303700447082520e-01</quality>
              <le>1.0432459414005280e-01</le></_></splits></_>
        <_>
          <depth>1</depth>
          <value>-8.5757251376441945e-01</value></_>
        <_>
          <depth>1</depth>
          <value>3.5402057780754836e-01</value></_></nodes></_>
    <_>
      <nodes>
        <_>
          <depth>0</depth>
          <value>-1.3169567310993885e-02</value>
          <splits>
            <_><var>124</var>
              <quality>2.4489252269268036e-01</quality>
              <le>-1.0874249935150146e+00</le></_></splits></_>
        <_>
          <depth>1</depth>
          <value>-6.7543744249216853e-01</value></_>
        <_>
          <depth>1</depth>
          <value>4.6572043624846043e-01</value></_></nodes></_>
    <_>
      <nodes>
        <_>
          <depth>0</depth>
          <value>1.0592674109443794e-02</value>
          <splits>
            <_><var>115</var>
              <quality>2.0598904788494110e-01</quality>
              <le>2.2814698219299316e+00</le></_></splits></_>
        <_>
          <depth>1</depth>
          <value>2.9047856913206499e-01</value></_>
        <_>
          <depth>1</depth>
          <value>-1.0616916049476948e+00</value></_></nodes></_>
    <_>
      <nodes>
        <_>
          <depth>0</depth>
          <value>-5.7641184849214627e-03</value>
          <splits>
            <_><var>52</var>
              <quality>2.5430163741111755e-01</quality>
              <le>1.3117549419403076e+00</le></_></splits></_>
        <_>
          <depth>1</depth>
          <value>3.8544935699936483e-01</value></_>
        <_>
          <depth>1</depth>
          <value>-9.1444727050901309e-01</value></_></nodes></_>
    <_>
      <nodes>
        <_>
          <depth>0</depth>
          <value>-7.4824832290483643e-03</value>
          <splits>
            <_><var>97</var>
              <quality>1.9218413531780243e-01</quality>
              <le>8.8063755035400391e+00</le></_></splits></_>
        <_>
          <depth>1</depth>
          <value>-3.9911309157259711e-01</value></_>
        <_>
          <depth>1</depth>
          <value>5.9947567463356455e-01</value></_></nodes></_>
    <_>
      <nodes>
        <_>
          <depth>0</depth>
          <value>-1.9990039678916046e-03</value>
          <splits>
            <_><var>71</var>
              <quality>1.9166414439678192e-01</quality>
              <le>3.8698201179504395e+00</le></_></splits></_>
        <_>
          <depth>1</depth>
          <value>2.7901826714245648e-01</value></_>
        <_>
          <depth>1</depth>
          <value>-9.4774445726491185e-01</value></_></nodes></_>
    <_>
      <nodes>
        <_>
          <depth>0</depth>
          <value>-1.4062312748691031e-03</value>
          <splits>
            <_><var>99</var>
              <quality>1.6304726898670197e-01</quality>
              <le>4.8584799766540527e+00</le></_></splits></_>
        <_>
          <depth>1</depth>
          <value>-3.9217798158990147e-01</value></_>
        <_>
          <depth>1</depth>
          <value>4.9772195101983674e-01</value></_></nodes></_>
    <_>
      <nodes>
        <_>
          <depth>0</depth>
          <value>-8.1857024048956686e-03</value>
          <splits>
            <_><var>74</var>
              <quality>1.9470946490764618e-01</quality>
              <le>-1.3773550987243652e+00</le></_></splits></_>
        <_>
          <depth>1</depth>
          <value>-1.4341955618975430e+00</value></_>
        <_>
          <depth>1</depth>
          <value>2.2755011230731398e-01</value></_></nodes></_>
    <_>
      <nodes>
        <_>
          <depth>0</depth>
          <value>9.1989680845355765e-03</value>
          <splits>
            <_><var>64</var>
              <quality>1.3869407773017883e-01</quality>
              <le>-3.5240200161933899e-01</le></_></splits></_>
        <_>
          <depth>1</depth>
          <value>-7.5226146406810901e-01</value></_>
        <_>
          <depth>1</depth>
          <value>2.3966975938474921e-01</value></_></nodes></_>
    <_>
      <nodes>
        <_>
          <depth>0</depth>
          <value>1.5324590637667186e-03</value>
          <splits>
            <_><var>44</var>
              <quality>1.7602899670600891e-01</quality>
              <le>2.3603849411010742e+00</le></_></splits></_>
        <_>
          <depth>1</depth>
          <value>1.9099758198052072e-01</value></_>
        <_>
          <depth>1</depth>
          <value>-2.5392824299621570e+00</value></_></nodes></_>
    <_>
      <nodes>
        <_>
          <depth>0</depth>
          <value>5.4175696575072116e-03</value>
          <splits>
            <_><var>53</var>
              <quality>2.7020031213760376e-01</quality>
              <le>-7.0527446269989014e-01</le></_></splits></_>
        <_>
          <depth>1</depth>
          <value>7.9499721972735105e-01</value></_>
        <_>
          <depth>1</depth>
          <value>-4.5801798482021477e-01</value></_></nodes></_>
    <_>
      <nodes>
        <_>
          <depth>0</depth>
          <value>-1.6973560420428305e-02</value>
          <splits>
            <_><var>115</var>
              <quality>1.8661570549011230e-01</quality>
              <le>2.9113700389862061e+00</le></_></splits></_>
        <_>
          <depth>1</depth>
          <value>2.1829452154869447e-01</value></_>
        <_>
          <depth>1</depth>
          <value>-1.3068060014004752e+00</value></_></nodes></_>
    <_>
      <nodes>
        <_>
          <depth>0</depth>
          <value>-2.9375454073770572e-03</value>
          <splits>
            <_><var>97</var>
              <quality>2.2135196626186371e-01</quality>
              <le>1.0924249649047852e+01</le></_></splits></_>
        <_>
          <depth>1</depth>
          <value>-2.7898154358238508e-01</value></_>
        <_>
          <depth>1</depth>
          <value>1.3058879601146691e+00</value></_></nodes></_>
    <_>
      <nodes>
        <_>
          <depth>0</depth>
          <value>1.6712481987604623e-03</value>
          <splits>
            <_><var>81</var>
              <quality>2.2806352376937866e-01</quality>
              <le>1.3573600053787231e+00</le></_></splits></_>
        <_>
          <depth>1</depth>
          <value>3.7059722715565546e-01</value></_>
        <_>
          <depth>1</depth>
          <value>-8.2706928009262648e-01</value></_></nodes></_>
    <_>
      <nodes>
        <_>
          <depth>0</depth>
          <value>1.5512459743172941e-03</value>
          <splits>
            <_><var>19</var>
              <quality>2.1453039348125458e-01</quality>
              <le>-1.4441649913787842e+00</le></_></splits></_>
        <_>
          <depth>1</depth>
          <value>4.8060922088714825e-01</value></_>
        <_>
          <depth>1</depth>
          <value>-5.5739802654545756e-01</value></_></nodes></_>
    <_>
      <nodes>
        <_>
          <depth>0</depth>
          <value>-3.9715450211632031e-03</value>
          <splits>
            <_><var>129</var>
              <quality>2.1761718392372131e-01</quality>
              <le>1.5618550777435303e+00</le></_></splits></_>
        <_>
          <depth>1</depth>
          <value>-7.2063639436880600e-01</value></_>
        <_>
          <depth>1</depth>
          <value>3.8788080615171699e-01</value></_></nodes></_>
    <_>
      <nodes>
        <_>
          <depth>0</depth>
          <value>-4.0521683790364195e-03</value>
          <splits>
            <_><var>49</var>
              <quality>2.0932354032993317e-01</quality>
              <le>-2.6151099205017090e+00</le></_></splits></_>
        <_>
          <depth>1</depth>
          <value>-8.5890630989866412e-01</value></_>
        <_>
          <depth>1</depth>
          <value>3.2560740072131300e-01</value></_></nodes></_>
    <_>
      <nodes>
        <_>
          <depth>0</depth>
          <value>-4.8635682534401304e-06</value>
          <splits>
            <_><var>47</var>
              <quality>1.8345884978771210e-01</quality>
              <le>1.1660699844360352e+00</le></_></splits></_>
        <_>
          <depth>1</depth>
          <value>2.4029612878469359e-01</value></_>
        <_>
          <depth>1</depth>
          <value>-1.1551025670119626e+00</value></_></nodes></_>
    <_>
      <nodes>
        <_>
          <depth>0</depth>
          <value>-7.2893947540859086e-03</value>
          <splits>
            <_><var>118</var>
              <quality>2.0707476139068604e-01</quality>
              <le>1.9727050065994263e+00</le></_></splits></_>
        <_>
          <depth>1</depth>
          <value>-6.5564703331744545e-01</value></_>
        <_>
          <depth>1</depth>
          <value>3.9597544560871090e-01</value></_></nodes></_>
    <_>
      <nodes>
        <_>
          <depth>0</depth>
          <value>-5.5852604129038048e-03</value>
          <splits>
            <_><var>34</var>
              <quality>1.6557905077934265e-01</quality>
              <le>-7.8969204425811768e-01</le></_></splits></_>
        <_>
          <depth>1</depth>
          <value>-6.7618732255596337e-01</value></_>
        <_>
          <depth>1</depth>
          <value>3.0214991477907727e-01</value></_></nodes></_>
    <_>
      <nodes>
        <_>
          <depth>0</depth>
          <value>1.0815962223750949e-03</value>
          <splits>
            <_><var>28</var>
              <quality>1.4518696069717407e-01</quality>
              <le>-5.0567649304866791e-02</le></_></splits></_>
        <_>
          <depth>1</depth>
          <value>-2.3274511389105476e-01</value></_>
        <_>
          <depth>1</depth>
          <value>8.0500180046337755e-01</value></_></nodes></_>
    <_>
      <nodes>
        <_>
          <depth>0</depth>
          <value>-1.6292256685510307e-03</value>
          <splits>
            <_><var>111</var>
              <quality>1.5094304084777832e-01</quality>
              <le>-1.4967350661754608e-01</le></_></splits></_>
        <_>
          <depth>1</depth>
          <value>4.8700226707993088e-01</value></_>
        <_>
          <depth>1</depth>
          <value>-3.6798913029035468e-01</value></_></nodes></_>
    <_>
      <nodes>
        <_>
          <depth>0</depth>
          <value>8.5072724496925475e-04</value>
          <splits>
            <_><var>9</var>
              <quality>1.6870918869972229e-01</quality>
              <le>4.2330999374389648e+00</le></_></splits></_>
        <_>
          <depth>1</depth>
          <value>-2.3262999796078063e-01</value></_>
        <_>
          <depth>1</depth>
          <value>1.0329389871021317e+00</value></_></nodes></_>
    <_>
      <nodes>
        <_>
          <depth>0</depth>
          <value>-5.0482493921630393e-03</value>
          <splits>
            <_><var>66</var>
              <quality>1.6492831707000732e-01</quality>
              <le>-4.7389250993728638e-01</le></_></splits></_>
        <_>
          <depth>1</depth>
          <value>3.5336187630499510e-01</value></_>
        <_>
          <depth>1</depth>
          <value>-5.6188550109684909e-01</value></_></nodes></_>
    <_>
      <nodes>
        <_>
          <depth>0</depth>
          <value>6.3571753467509366e-03</value>
          <splits>
            <_><var>64</var>
              <quality>1.5810646116733551e-01</quality>
              <le>-3.5240200161933899e-01</le></_></splits></_>
        <_>
          <depth>1</depth>
          <value>-9.4435593495590353e-01</value></_>
        <_>
          <depth>1</depth>
          <value>2.3440805232068990e-01</value></_></nodes></_>
    <_>
      <nodes>
        <_>
          <depth>0</depth>
          <value>3.3749653742465497e-03</value>
          <splits>
            <_><var>50</var>
              <quality>1.2681713700294495e-01</quality>
              <le>3.4594702720642090e-01</le></_></splits></_>
        <_>
          <depth>1</depth>
          <value>2.5203345926920251e-01</value></_>
        <_>
          <depth>1</depth>
          <value>-6.1159858804801293e-01</value></_></nodes></_>
    <_>
      <nodes>
        <_>
          <depth>0</depth>
          <value>-6.3709905813179920e-03</value>
          <splits>
            <_><var>12</var>
              <quality>2.0072752237319946e-01</quality>
              <le>1.8536900281906128e+00</le></_></splits></_>
        <_>
          <depth>1</depth>
          <value>2.9189315279600470e-01</value></_>
        <_>
          <depth>1</depth>
          <value>-9.3870038707666836e-01</value></_></nodes></_>
    <_>
      <nodes>
        <_>
          <depth>0</depth>
          <value>1.8147586447027415e-02</value>
          <splits>
            <_><var>110</var>
              <quality>1.4368444681167603e-01</quality>
              <le>-2.8708801269531250e+00</le></_></splits></_>
        <_>
          <depth>1</depth>
          <value>2.9789315064705324e-01</value></_>
        <_>
          <depth>1</depth>
          <value>-6.0202756259426515e-01</value></_></nodes></_>
    <_>
      <nodes>
        <_>
          <depth>0</depth>
          <value>-2.0867524741785518e-03</value>
          <splits>
            <_><var>132</var>
              <quality>1.3393387198448181e-01</quality>
              <le>-3.8366699218750000e-01</le></_></splits></_>
        <_>
          <depth>1</depth>
          <value>-3.7508052071334691e-01</value></_>
        <_>
          <depth>1</depth>
          <value>4.1632728479641590e-01</value></_></nodes></_>
    <_>
      <nodes>
        <_>
          <depth>0</depth>
          <value>-3.8765611443137495e-03</value>
          <splits>
            <_><var>70</var>
              <quality>1.4736086130142212e-01</quality>
              <le>-4.2003097534179688e+00</le></_></splits></_>
        <_>
          <depth>1</depth>
          <value>8.3595655710777084e-01</value></_>
        <_>
          <depth>1</depth>
          <value>-2.3376344296763743e-01</value></_></nodes></_>
    <_>
      <nodes>
        <_>
          <depth>0</depth>
          <value>-4.3176697945704438e-03</value>
          <splits>
            <_><var>37</var>
              <quality>1.6328303515911102e-01</quality>
              <le>-2.5560350418090820e+00</le></_></splits></_>
        <_>
          <depth>1</depth>
          <value>-6.4384198705738149e-01</value></_>
        <_>
          <depth>1</depth>
          <value>3.1058617251484361e-01</value></_></nodes></_>
    <_>
      <nodes>
        <_>
          <depth>0</depth>
          <value>4.4288569495211190e-03</value>
          <splits>
            <_><var>105</var>
              <quality>1.5216891467571259e-01</quality>
              <le>-1.0262299776077271e+00</le></_></splits></_>
        <_>
          <depth>1</depth>
          <value>-1.8461649978921557e+00</value></_>
        <_>
          <depth>1</depth>
          <value>1.7374633876543574e-01</value></_></nodes></_>
    <_>
      <nodes>
        <_>
          <depth>0</depth>
          <value>-9.5738011092386163e-03</value>
          <splits>
            <_><var>135</var>
              <quality>1.6004772484302521e-01</quality>
              <le>1.7319650650024414e+00</le></_></splits></_>
        <_>
          <depth>1</depth>
          <value>1.8829415879823549e-01</value></_>
        <_>
          <depth>1</depth>
          <value>-1.3343316333868773e+00</value></_></nodes></_>
    <_>
      <nodes>
        <_>
          <depth>0</depth>
          <value>8.2227043338378106e-03</value>
          <splits>
            <_><var>45</var>
              <quality>2.0126952230930328e-01</quality>
              <le>2.1069899201393127e-01</le></_></splits></_>
        <_>
          <depth>1</depth>
          <value>3.3528078203265627e-01</value></_>
        <_>
          <depth>1</depth>
          <value>-7.9995478521454222e-01</value></_></nodes></_>
    <_>
      <nodes>
        <_>
          <depth>0</depth>
          <value>-8.2144594535112480e-03</value>
          <splits>
            <_><var>121</var>
              <quality>1.9027808308601379e-01</quality>
              <le>5.7527647018432617e+00</le></_></splits></_>
        <_>
          <depth>1</depth>
          <value>-4.0364256107261659e-01</value></_>
        <_>
          <depth>1</depth>
          <value>5.8485136710402374e-01</value></_></nodes></_>
    <_>
      <nodes>
        <_>
          <depth>0</depth>
          <value>-1.5803093131874560e-03</value>
          <splits>
            <_><var>46</var>
              <quality>1.5465946495532990e-01</quality>
              <le>8.0642700195312500e-01</le></_></splits></_>
        <_>
          <depth>1</depth>
          <value>2.3049993135937882e-01</value></_>
        <_>
          <depth>1</depth>
          <value>-8.9884336946628285e-01</value></_></nodes></_>
    <_>
      <nodes>
        <_>
          <depth>0</depth>
          <value>5.8076909746257043e-04</value>
          <splits>
            <_><var>79</var>
              <quality>1.4083312451839447e-01</quality>
              <le>-1.4201550483703613e+00</le></_></splits></_>
        <_>
          <depth>1</depth>
          <value>1.0677185618499083e+00</value></_>
        <_>
          <depth>1</depth>
          <value>-1.8982218759377095e-01</value></_></nodes></_>
    <_>
      <nodes>
        <_>
          <depth>0</depth>
          <value>-3.5819432513603177e-03</value>
          <splits>
            <_><var>37</var>
              <quality>1.9005963206291199e-01</quality>
              <le>-1.2237999439239502e+00</le></_></splits></_>
        <_>
          <depth>1</depth>
          <value>-5.1454845466305044e-01</value></_>
        <_>
          <depth>1</depth>
          <value>4.5044397233526928e-01</value></_></nodes></_>
    <_>
      <nodes>
        <_>
          <depth>0</depth>
          <value>-2.6766706058824496e-03</value>
          <splits>
            <_><var>128</var>
              <quality>1.5476121008396149e-01</quality>
              <le>-1.5809849739074707e+01</le></_></splits></_>
        <_>
          <depth>1</depth>
          <value>5.7564577324623896e+00</value></_>
        <_>
          <depth>1</depth>
          <value>-1.6663135769803972e-01</value></_></nodes></_>
    <_>
      <nodes>
        <_>
          <depth>0</depth>
          <value>-1.7820306431344407e-01</value>
          <splits>
            <_><var>112</var>
              <quality>2.6740723848342896e-01</quality>
              <le>-6.3703804016113281e+00</le></_></splits></_>
        <_>
          <depth>1</depth>
          <value>-2.5662952311823819e+00</value></_>
        <_>
          <depth>1</depth>
          <value>1.3305991766522376e-01</value></_></nodes></_>
    <_>
      <nodes>
        <_>
          <depth>0</depth>
          <value>-1.3999103599066601e-03</value>
          <splits>
            <_><var>48</var>
              <quality>1.9726809859275818e-01</quality>
              <le>3.1641349196434021e-01</le></_></splits></_>
        <_>
          <depth>1</depth>
          <value>-4.8303748394679907e-01</value></_>
        <_>
          <depth>1</depth>
          <value>5.0124168705630179e-01</value></_></nodes></_>
    <_>
      <nodes>
        <_>
          <depth>0</depth>
          <value>4.9093561118272872e-03</value>
          <splits>
            <_><var>40</var>
              <quality>1.6741968691349030e-01</quality>
              <le>3.8620349764823914e-01</le></_></splits></_>
        <_>
          <depth>1</depth>
          <value>-4.7992806382468356e-01</value></_>
        <_>
          <depth>1</depth>
          <value>4.1844513814654527e-01</value></_></nodes></_>
    <_>
      <nodes>
        <_>
          <depth>0</depth>
          <value>-3.0396188617491677e-03</value>
          <splits>
            <_><var>110</var>
              <quality>1.6761986911296844e-01</quality>
              <le>-1.7664949893951416e+00</le></_></splits></_>
        <_>
          <depth>1</depth>
          <value>1.9150089271396947e-01</value></_>
        <_>
          <depth>1</depth>
          <value>-1.5985944205132472e+00</value></_></nodes></_>
    <_>
      <nodes>
        <_>
          <depth>0</depth>
          <value>1.1648300957031489e-02</value>
          <splits>
            <_><var>34</var>
              <quality>1.9067549705505371e-01</quality>
              <le>-2.1521401405334473e+00</le></_></splits></_>
        <_>
          <depth>1</depth>
          <value>-9.5245158678774910e-01</value></_>
        <_>
          <depth>1</depth>
          <value>2.8598181286840907e-01</value></_></nodes></_>
    <_>
      <nodes>
        <_>
          <depth>0</depth>
          <value>-9.5234264181700903e-03</value>
          <splits>
            <_><var>124</var>
              <quality>1.6152802109718323e-01</quality>
              <le>-5.3714001178741455e-01</le></_></splits></_>
        <_>
          <depth>1</depth>
          <value>-4.5534550430296772e-01</value></_>
        <_>
          <depth>1</depth>
          <value>4.2173747180838028e-01</value></_></nodes></_>
    <_>
      <nodes>
        <_>
          <depth>0</depth>
          <value>-5.6635148594413624e-03</value>
          <splits>
            <_><var>109</var>
              <quality>1.9640533626079559e-01</quality>
              <le>6.1963801383972168e+00</le></_></splits></_>
        <_>
          <depth>1</depth>
          <value>-5.3028793324972889e-01</value></_>
        <_>
          <depth>1</depth>
          <value>4.5392605958190430e-01</value></_></nodes></_>
    <_>
      <nodes>
        <_>
          <depth>0</depth>
          <value>-4.3028463508631275e-03</value>
          <splits>
            <_><var>115</var>
              <quality>2.3861503601074219e-01</quality>
              <le>2.2558400630950928e+00</le></_></splits></_>
        <_>
          <depth>1</depth>
          <value>2.7927212542198832e-01</value></_>
        <_>
          <depth>1</depth>
          <value>-1.5467839439494584e+00</value></_></nodes></_>
    <_>
      <nodes>
        <_>
          <depth>0</depth>
          <value>5.9544298617883887e-03</value>
          <splits>
            <_><var>18</var>
              <quality>2.0736004412174225e-01</quality>
              <le>1.0186150074005127e+00</le></_></splits></_>
        <_>
          <depth>1</depth>
          <value>2.8798198059025815e-01</value></_>
        <_>
          <depth>1</depth>
          <value>-1.0708874551650913e+00</value></_></nodes></_>
    <_>
      <nodes>
        <_>
          <depth>0</depth>
          <value>2.7544246900650039e-03</value>
          <splits>
            <_><var>97</var>
              <quality>1.6848833858966827e-01</quality>
              <le>9.1811904907226563e+00</le></_></splits></_>
        <_>
          <depth>1</depth>
          <value>-2.5629571196958001e-01</value></_>
        <_>
          <depth>1</depth>
          <value>8.7164430534805559e-01</value></_></nodes></_>
    <_>
      <nodes>
        <_>
          <depth>0</depth>
          <value>-1.2172428850571000e-03</value>
          <splits>
            <_><var>132</var>
              <quality>1.8786938488483429e-01</quality>
              <le>-4.0311449766159058e-01</le></_></splits></_>
        <_>
          <depth>1</depth>
          <value>-5.6959353947022495e-01</value></_>
        <_>
          <depth>1</depth>
          <value>4.0467285838897732e-01</value></_></nodes></_>
    <_>
      <nodes>
        <_>
          <depth>0</depth>
          <value>-6.4861695241452523e-03</value>
          <splits>
            <_><var>56</var>
              <quality>1.5766221284866333e-01</quality>
              <le>-2.4803900718688965e-01</le></_></splits></_>
        <_>
          <depth>1</depth>
          <value>5.4696703226081889e-01</value></_>
        <_>
          <depth>1</depth>
          <value>-3.4887282642108941e-01</value></_></nodes></_>
    <_>
      <nodes>
        <_>
          <depth>0</depth>
          <value>5.2601805808288979e-04</value>
          <splits>
            <_><var>93</var>
              <quality>1.5923549234867096e-01</quality>
              <le>2.6323549747467041e+00</le></_></splits></_>
        <_>
          <depth>1</depth>
          <value>1.8304644312491036e-01</value></_>
        <_>
          <depth>1</depth>
          <value>-1.6444252365873893e+00</value></_></nodes></_>
    <_>
      <nodes>
        <_>
          <depth>0</depth>
          <value>1.5242361612339271e-02</value>
          <splits>
            <_><var>109</var>
              <quality>1.3548780977725983e-01</quality>
              <le>4.4342052191495895e-02</le></_></splits></_>
        <_>
          <depth>1</depth>
          <value>-8.4691923121894597e-01</value></_>
        <_>
          <depth>1</depth>
          <value>2.2089900450949732e-01</value></_></nodes></_>
    <_>
      <nodes>
        <_>
          <depth>0</depth>
          <value>-4.6783164466269248e-03</value>
          <splits>
            <_><var>40</var>
              <quality>1.8363043665885925e-01</quality>
              <le>3.8938498497009277e-01</le></_></splits></_>
        <_>
          <depth>1</depth>
          <value>-5.0241538190460411e-01</value></_>
        <_>
          <depth>1</depth>
          <value>4.4330585944336487e-01</value></_></nodes></_>
    <_>
      <nodes>
        <_>
          <depth>0</depth>
          <value>-5.9251354947201143e-04</value>
          <splits>
            <_><var>45</var>
              <quality>1.3652676343917847e-01</quality>
              <le>1.1424748897552490e+00</le></_></splits></_>
        <_>
          <depth>1</depth>
          <value>1.7772112881438931e-01</value></_>
        <_>
          <depth>1</depth>
          <value>-1.1427154853783970e+00</value></_></nodes></_>
    <_>
      <nodes>
        <_>
          <depth>0</depth>
          <value>-4.2395215654701607e-03</value>
          <splits>
            <_><var>112</var>
              <quality>2.0600160956382751e-01</quality>
              <le>-5.7474499940872192e-01</le></_></splits></_>
        <_>
          <depth>1</depth>
          <value>2.6716608066256292e-01</value></_>
        <_>
          <depth>1</depth>
          <value>-1.1623653912263121e+00</value></_></nodes></_>
    <_>
      <nodes>
        <_>
          <depth>0</depth>
          <value>9.7334424664400395e-03</value>
          <splits>
            <_><var>49</var>
              <quality>2.1058338880538940e-01</quality>
              <le>-3.2200651168823242e+00</le></_></splits></_>
        <_>
          <depth>1</depth>
          <value>-7.8767580781327229e-01</value></_>
        <_>
          <depth>1</depth>
          <value>3.5637310881169321e-01</value></_></nodes></_>
    <_>
      <nodes>
        <_>
          <depth>0</depth>
          <value>-1.5697308573900740e-03</value>
          <splits>
            <_><var>133</var>
              <quality>1.8721765279769897e-01</quality>
              <le>-1.5024950504302979e+00</le></_></splits></_>
        <_>
          <depth>1</depth>
          <value>4.1127825111947147e-01</value></_>
        <_>
          <depth>1</depth>
          <value>-5.5706016885417653e-01</value></_></nodes></_>
    <_>
      <nodes>
        <_>
          <depth>0</depth>
          <value>-1.3774980919568005e-04</value>
          <splits>
            <_><var>9</var>
              <quality>1.9194822013378143e-01</quality>
              <le>3.4026551246643066e+00</le></_></splits></_>
        <_>
          <depth>1</depth>
          <value>-3.1273512730968805e-01</value></_>
        <_>
          <depth>1</depth>
          <value>8.0606908831212543e-01</value></_></nodes></_>
    <_>
      <nodes>
        <_>
          <depth>0</depth>
          <value>-4.1892219370853641e-03</value>
          <splits>
            <_><var>52</var>
              <quality>1.7390899360179901e-01</quality>
              <le>1.2231149673461914e+00</le></_></splits></_>
        <_>
          <depth>1</depth>
          <value>3.0028350639999307e-01</value></_>
        <_>
          <depth>1</depth>
          <value>-7.3069624549683543e-01</value></_></nodes></_>
    <_>
      <nodes>
        <_>
          <depth>0</depth>
          <value>-1.2263617914974335e-02</value>
          <splits>
            <_><var>96</var>
              <quality>1.7456309497356415e-01</quality>
              <le>2.1717100143432617e+00</le></_></splits></_>
        <_>
          <depth>1</depth>
          <value>-6.8159906988103491e-01</value></_>
        <_>
          <depth>1</depth>
          <value>3.1411949965882752e-01</value></_></nodes></_>
    <_>
      <nodes>
        <_>
          <depth>0</depth>
          <value>-5.3313305656925679e-03</value>
          <splits>
            <_><var>10</var>
              <quality>1.7665876448154449e-01</quality>
              <le>-2.8979399204254150e+00</le></_></splits></_>
        <_>
          <depth>1</depth>
          <value>1.6489787662816786e+00</value></_>
        <_>
          <depth>1</depth>
          <value>-2.0747894489211266e-01</value></_></nodes></_>
    <_>
      <nodes>
        <_>
          <depth>0</depth>
          <value>-2.3739560706794115e-03</value>
          <splits>
            <_><var>78</var>
              <quality>1.6848546266555786e-01</quality>
              <le>4.2587250471115112e-01</le></_></splits></_>
        <_>
          <depth>1</depth>
          <value>-4.6116167689140264e-01</value></_>
        <_>
          <depth>1</depth>
          <value>4.3766177335087825e-01</value></_></nodes></_>
    <_>
      <nodes>
        <_>
          <depth>0</depth>
          <value>-2.8403576312246112e-03</value>
          <splits>
            <_><var>47</var>
              <quality>1.9095589220523834e-01</quality>
              <le>1.1660699844360352e+00</le></_></splits></_>
        <_>
          <depth>1</depth>
          <value>2.4070095293019017e-01</value></_>
        <_>
          <depth>1</depth>
          <value>-1.2349285322207495e+00</value></_></nodes></_>
    <_>
      <nodes>
        <_>
          <depth>0</depth>
          <value>-2.9418475530483979e-03</value>
          <splits>
            <_><var>4</var>
              <quality>2.1450476348400116e-01</quality>
              <le>2.2487499713897705e+00</le></_></splits></_>
        <_>
          <depth>1</depth>
          <value>-3.4291584285456106e-01</value></_>
        <_>
          <depth>1</depth>
          <value>8.4369533560093102e-01</value></_></nodes></_>
    <_>
      <nodes>
        <_>
          <depth>0</depth>
          <value>-8.8338248068451589e-04</value>
          <splits>
            <_><var>71</var>
              <quality>1.3104018568992615e-01</quality>
              <le>-6.7781853675842285e-01</le></_></splits></_>
        <_>
          <depth>1</depth>
          <value>-1.0874918569577545e+00</value></_>
        <_>
          <depth>1</depth>
          <value>1.7440415435980178e-01</value></_></nodes></_>
    <_>
      <nodes>
        <_>
          <depth>0</depth>
          <value>7.6951813706210622e-03</value>
          <splits>
            <_><var>96</var>
              <quality>1.5433734655380249e-01</quality>
              <le>6.7454299926757813e+00</le></_></splits></_>
        <_>
          <depth>1</depth>
          <value>-4.3047774128343774e-01</value></_>
        <_>
          <depth>1</depth>
          <value>4.2376247234076503e-01</value></_></nodes></_>
    <_>
      <nodes>
        <_>
          <depth>0</depth>
          <value>-9.8315809024242719e-03</value>
          <splits>
            <_><var>46</var>
              <quality>1.3848528265953064e-01</quality>
              <le>1.7438999414443970e+00</le></_></splits></_>
        <_>
          <depth>1</depth>
          <value>1.8143510010836225e-01</value></_>
        <_>
          <depth>1</depth>
          <value>-1.0448264700412075e+00</value></_></nodes></_>
    <_>
      <nodes>
        <_>
          <depth>0</depth>
          <value>3.6592127854961703e-04</value>
          <splits>
            <_><var>44</var>
              <quality>1.4953263103961945e-01</quality>
              <le>-3.7014400959014893e+00</le></_></splits></_>
        <_>
          <depth>1</depth>
          <value>-1.0274506820669749e+00</value></_>
        <_>
          <depth>1</depth>
          <value>2.0704149684288878e-01</value></_></nodes></_>
    <_>
      <nodes>
        <_>
          <depth>0</depth>
          <value>-9.9644993318409088e-03</value>
          <splits>
            <_><var>15</var>
              <quality>1.4061027765274048e-01</quality>
              <le>-4.2616996765136719e+00</le></_></splits></_>
        <_>
          <depth>1</depth>
          <value>6.6605949192911140e-01</value></_>
        <_>
          <depth>1</depth>
          <value>-2.6590287988135797e-01</value></_></nodes></_>
    <_>
      <nodes>
        <_>
          <depth>0</depth>
          <value>1.0365223692819982e-02</value>
          <splits>
            <_><var>9</var>
              <quality>1.7481508851051331e-01</quality>
              <le>3.4026551246643066e+00</le></_></splits></_>
        <_>
          <depth>1</depth>
          <value>-3.0183597858705907e-01</value></_>
        <_>
          <depth>1</depth>
          <value>7.2037701253011432e-01</value></_></nodes></_>
    <_>
      <nodes>
        <_>
          <depth>0</depth>
          <value>-2.0690622346557557e-03</value>
          <splits>
            <_><var>71</var>
              <quality>1.6587364673614502e-01</quality>
              <le>6.1505599021911621e+00</le></_></splits></_>
        <_>
          <depth>1</depth>
          <value>1.7471485683509949e-01</value></_>
        <_>
          <depth>1</depth>
          <value>-5.7564577324601141e+00</value></_></nodes></_>
    <_>
      <nodes>
        <_>
          <depth>0</depth>
          <value>-7.7172302647209425e-03</value>
          <splits>
            <_><var>123</var>
              <quality>1.3813060522079468e-01</quality>
              <le>7.0379199981689453e+00</le></_></splits></_>
        <_>
          <depth>1</depth>
          <value>-1.5720682404135589e-01</value></_>
        <_>
          <depth>1</depth>
          <value>2.1516942657543527e+00</value></_></nodes></_>
    <_>
      <nodes>
        <_>
          <depth>0</depth>
          <value>-3.0545444205317497e-02</value>
          <splits>
            <_><var>45</var>
              <quality>2.1419496834278107e-01</quality>
              <le>2.2684100270271301e-01</le></_></splits></_>
        <_>
          <depth>1</depth>
          <value>2.7017143054594089e-01</value></_>
        <_>
          <depth>1</depth>
          <value>-1.0827082588952264e+00</value></_></nodes></_>
    <_>
      <nodes>
        <_>
          <depth>0</depth>
          <value>1.0032233746089195e-02</value>
          <splits>
            <_><var>46</var>
              <quality>2.1412096917629242e-01</quality>
              <le>-1.7198199033737183e-01</le></_></splits></_>
        <_>
          <depth>1</depth>
          <value>4.7873144206894630e-01</value></_>
        <_>
          <depth>1</depth>
          <value>-5.5980808894864742e-01</value></_></nodes></_></trees></opencv_ml_boost>
</opencv_storage>
