<?xml version="1.0"?>
<opencv_storage>
<opencv_ml_boost>
  <format>3</format>
  <is_classifier>1</is_classifier>
  <var_all>137</var_all>
  <var_count>136</var_count>
  <ord_var_count>136</ord_var_count>
  <cat_var_count>1</cat_var_count>
  <training_params>
    <boosting_type>RealAdaboost</boosting_type>
    <use_surrogates>0</use_surrogates>
    <max_categories>10</max_categories>
    <regression_accuracy>9.9999997764825821e-03</regression_accuracy>
    <max_depth>1</max_depth>
    <min_sample_count>10</min_sample_count>
    <cross_validation_folds>0</cross_validation_folds>
    <weight_trimming_rate>9.4999999999999996e-01</weight_trimming_rate></training_params>
  <global_var_idx>1</global_var_idx>
  <var_idx>
    0 1 2 3 4 5 6 7 8 9 10 11 12 13 14 15 16 17 18 19 20 21 22 23 24 25
    26 27 28 29 30 31 32 33 34 35 36 37 38 39 40 41 42 43 44 45 46 47 48
    49 50 51 52 53 54 55 56 57 58 59 60 61 62 63 64 65 66 67 68 69 70 71
    72 73 74 75 76 77 78 79 80 81 82 83 84 85 86 87 88 89 90 91 92 93 94
    95 96 97 98 99 100 101 102 103 104 105 106 107 108 109 110 111 112
    113 114 115 116 117 118 119 120 121 122 123 124 125 126 127 128 129
    130 131 132 133 134 135</var_idx>
  <var_type>
    0 0 0 0 0 0 0 0 0 0 0 0 0 0 0 0 0 0 0 0 0 0 0 0 0 0 0 0 0 0 0 0 0 0
    0 0 0 0 0 0 0 0 0 0 0 0 0 0 0 0 0 0 0 0 0 0 0 0 0 0 0 0 0 0 0 0 0 0
    0 0 0 0 0 0 0 0 0 0 0 0 0 0 0 0 0 0 0 0 0 0 0 0 0 0 0 0 0 0 0 0 0 0
    0 0 0 0 0 0 0 0 0 0 0 0 0 0 0 0 0 0 0 0 0 0 0 0 0 0 0 0 0 0 0 0 0 0
    1</var_type>
  <cat_ofs>
    0 0 0 0 0 0 0 0 0 0 0 0 0 0 0 0 0 0 0 0 0 0 0 0 0 0 0 0 0 0 0 0 0 0
    0 0 0 0 0 0 0 0 0 0 0 0 0 0 0 0 0 0 0 0 0 0 0 0 0 0 0 0 0 0 0 0 0 0
    0 0 0 0 0 0 0 0 0 0 0 0 0 0 0 0 0 0 0 0 0 0 0 0 0 0 0 0 0 0 0 0 0 0
    0 0 0 0 0 0 0 0 0 0 0 0 0 0 0 0 0 0 0 0 0 0 0 0 0 0 0 0 0 0 0 0 0 0
    0 0 0 0 0 0 0 0 0 0 0 0 0 0 0 0 0 0 0 0 0 0 0 0 0 0 0 0 0 0 0 0 0 0
    0 0 0 0 0 0 0 0 0 0 0 0 0 0 0 0 0 0 0 0 0 0 0 0 0 0 0 0 0 0 0 0 0 0
    0 0 0 0 0 0 0 0 0 0 0 0 0 0 0 0 0 0 0 0 0 0 0 0 0 0 0 0 0 0 0 0 0 0
    0 0 0 0 0 0 0 0 0 0 0 0 0 0 0 0 0 0 0 0 0 0 0 0 0 0 0 0 0 0 0 0 0 0</cat_ofs>
  <class_labels>
    -1 1</class_labels>
  <missing_subst>
    0. 0. 0. 0. 0. 0. 0. 0. 0. 0. 0. 0. 0. 0. 0. 0. 0. 0. 0. 0. 0. 0. 0.
    0. 0. 0. 0. 0. 0. 0. 0. 0. 0. 0. 0. 0. 0. 0. 0. 0. 0. 0. 0. 0. 0. 0.
    0. 0. 0. 0. 0. 0. 0. 0. 0. 0. 0. 0. 0. 0. 0. 0. 0. 0. 0. 0. 0. 0. 0.
    0. 0. 0. 0. 0. 0. 0. 0. 0. 0. 0. 0. 0. 0. 0. 0. 0. 0. 0. 0. 0. 0. 0.
    0. 0. 0. 0. 0. 0. 0. 0. 0. 0. 0. 0. 0. 0. 0. 0. 0. 0. 0. 0. 0. 0. 0.
    0. 0. 0. 0. 0. 0. 0. 0. 0. 0. 0. 0. 0. 0. 0. 0. 0. 0. 0. 0. 0. 0.</missing_subst>
  <ntrees>100</ntrees>
  <trees>
    <_>
      <nodes>
        <_>
          <depth>0</depth>
          <value>-4.6383675648073902e-01</value>
          <splits>
            <_><var>135</var>
              <quality>4.1175338625907898e-01</quality>
              <le>-2.6334750652313232e+00</le></_></splits></_>
        <_>
          <depth>1</depth>
          <value>-2.3536377044626056e+00</value></_>
        <_>
          <depth>1</depth>
          <value>-2.4963586978253516e-02</value></_></nodes></_>
    <_>
      <nodes>
        <_>
          <depth>0</depth>
          <value>-6.4723315637818107e-10</value>
          <splits>
            <_><var>123</var>
              <quality>4.1902291774749756e-01</quality>
              <le>1.3878149986267090e+00</le></_></splits></_>
        <_>
          <depth>1</depth>
          <value>5.1762999248095332e-01</value></_>
        <_>
          <depth>1</depth>
          <value>-1.3781798840683868e+00</value></_></nodes></_>
    <_>
      <nodes>
        <_>
          <depth>0</depth>
          <value>1.0664640986963179e-02</value>
          <splits>
            <_><var>41</var>
              <quality>3.2264256477355957e-01</quality>
              <le>-2.1300199031829834e+00</le></_></splits></_>
        <_>
          <depth>1</depth>
          <value>-1.9698746332241068e+00</value></_>
        <_>
          <depth>1</depth>
          <value>3.6072367532020755e-01</value></_></nodes></_>
    <_>
      <nodes>
        <_>
          <depth>0</depth>
          <value>1.5872692438092285e-02</value>
          <splits>
            <_><var>47</var>
              <quality>3.6019060015678406e-01</quality>
              <le>9.0861099958419800e-01</le></_></splits></_>
        <_>
          <depth>1</depth>
          <value>5.0763223443233740e-01</value></_>
        <_>
          <depth>1</depth>
          <value>-1.1083613860676267e+00</value></_></nodes></_>
    <_>
      <nodes>
        <_>
          <depth>0</depth>
          <value>-1.5802228569452240e-02</value>
          <splits>
            <_><var>128</var>
              <quality>2.4703453481197357e-01</quality>
              <le>-2.3754699230194092e+00</le></_></splits></_>
        <_>
          <depth>1</depth>
          <value>-1.4198251641318824e+00</value></_>
        <_>
          <depth>1</depth>
          <value>2.8449146214902044e-01</value></_></nodes></_>
    <_>
      <nodes>
        <_>
          <depth>0</depth>
          <value>-2.8678979275592573e-02</value>
          <splits>
            <_><var>109</var>
              <quality>2.3131330311298370e-01</quality>
              <le>-2.4765400886535645e+00</le></_></splits></_>
        <_>
          <depth>1</depth>
          <value>-1.3240006436047385e+00</value></_>
        <_>
          <depth>1</depth>
          <value>2.5591607970427005e-01</value></_></nodes></_>
    <_>
      <nodes>
        <_>
          <depth>0</depth>
          <value>1.9045499131736456e-02</value>
          <splits>
            <_><var>89</var>
              <quality>2.8131660819053650e-01</quality>
              <le>-2.1171000599861145e-01</le></_></splits></_>
        <_>
          <depth>1</depth>
          <value>-8.5530063929298794e-01</value></_>
        <_>
          <depth>1</depth>
          <value>4.5610809988888223e-01</value></_></nodes></_>
    <_>
      <nodes>
        <_>
          <depth>0</depth>
          <value>-1.1455672894912523e-02</value>
          <splits>
            <_><var>113</var>
              <quality>1.9523404538631439e-01</quality>
              <le>9.9275195598602295e-01</le></_></splits></_>
        <_>
          <depth>1</depth>
          <value>4.0014545729938489e-01</value></_>
        <_>
          <depth>1</depth>
          <value>-5.8802505997290266e-01</value></_></nodes></_>
    <_>
      <nodes>
        <_>
          <depth>0</depth>
          <value>9.3030603260541526e-03</value>
          <splits>
            <_><var>47</var>
              <quality>1.5204103291034698e-01</quality>
              <le>-1.8290250301361084e+00</le></_></splits></_>
        <_>
          <depth>1</depth>
          <value>-1.3262684963732039e+00</value></_>
        <_>
          <depth>1</depth>
          <value>1.9343595404571595e-01</value></_></nodes></_>
    <_>
      <nodes>
        <_>
          <depth>0</depth>
          <value>-4.1624696674401459e-03</value>
          <splits>
            <_><var>43</var>
              <quality>1.9318316876888275e-01</quality>
              <le>1.9461150169372559e+00</le></_></splits></_>
        <_>
          <depth>1</depth>
          <value>2.3203018298540734e-01</value></_>
        <_>
          <depth>1</depth>
          <value>-1.3176750020683412e+00</value></_></nodes></_>
    <_>
      <nodes>
        <_>
          <depth>0</depth>
          <value>6.1631988573792327e-03</value>
          <splits>
            <_><var>28</var>
              <quality>1.8667218089103699e-01</quality>
              <le>-2.1102899685502052e-02</le></_></splits></_>
        <_>
          <depth>1</depth>
          <value>-4.4649254482494827e-01</value></_>
        <_>
          <depth>1</depth>
          <value>5.0607938186633039e-01</value></_></nodes></_>
    <_>
      <nodes>
        <_>
          <depth>0</depth>
          <value>-3.4810612203864943e-02</value>
          <splits>
            <_><var>122</var>
              <quality>1.5667311847209930e-01</quality>
              <le>1.3706899881362915e+00</le></_></splits></_>
        <_>
          <depth>1</depth>
          <value>1.8363730184954805e-01</value></_>
        <_>
          <depth>1</depth>
          <value>-1.0265365628386685e+00</value></_></nodes></_>
    <_>
      <nodes>
        <_>
          <depth>0</depth>
          <value>3.6247610857599575e-03</value>
          <splits>
            <_><var>96</var>
              <quality>1.4904198050498962e-01</quality>
              <le>-1.7957549095153809e+00</le></_></splits></_>
        <_>
          <depth>1</depth>
          <value>-1.2227134936914696e+00</value></_>
        <_>
          <depth>1</depth>
          <value>1.8732447908247157e-01</value></_></nodes></_>
    <_>
      <nodes>
        <_>
          <depth>0</depth>
          <value>4.1163347427469743e-03</value>
          <splits>
            <_><var>129</var>
              <quality>1.5459959208965302e-01</quality>
              <le>2.6306450366973877e+00</le></_></splits></_>
        <_>
          <depth>1</depth>
          <value>2.0582994943940169e-01</value></_>
        <_>
          <depth>1</depth>
          <value>-1.0913122992181163e+00</value></_></nodes></_>
    <_>
      <nodes>
        <_>
          <depth>0</depth>
          <value>-4.2351865300695596e-02</value>
          <splits>
            <_><var>99</var>
              <quality>1.2760829925537109e-01</quality>
              <le>-1.3053950071334839e+00</le></_></splits></_>
        <_>
          <depth>1</depth>
          <value>-5.8914717142034145e-01</value></_>
        <_>
          <depth>1</depth>
          <value>2.3171412629253832e-01</value></_></nodes></_>
    <_>
      <nodes>
        <_>
          <depth>0</depth>
          <value>1.1120091948904769e-02</value>
          <splits>
            <_><var>78</var>
              <quality>1.0451984405517578e-01</quality>
              <le>-6.0325998067855835e-01</le></_></splits></_>
        <_>
          <depth>1</depth>
          <value>-5.6885485637224897e-01</value></_>
        <_>
          <depth>1</depth>
          <value>2.2387006309895019e-01</value></_></nodes></_>
    <_>
      <nodes>
        <_>
          <depth>0</depth>
          <value>7.7806569483852004e-04</value>
          <splits>
            <_><var>62</var>
              <quality>1.2010299414396286e-01</quality>
              <le>1.6610300540924072e+00</le></_></splits></_>
        <_>
          <depth>1</depth>
          <value>1.4261197557460095e-01</value></_>
        <_>
          <depth>1</depth>
          <value>-1.4549059501833979e+00</value></_></nodes></_>
    <_>
      <nodes>
        <_>
          <depth>0</depth>
          <value>2.1522558251617927e-03</value>
          <splits>
            <_><var>113</var>
              <quality>1.1237452924251556e-01</quality>
              <le>2.9953150749206543e+00</le></_></splits></_>
        <_>
          <depth>1</depth>
          <value>1.5695034465313093e-01</value></_>
        <_>
          <depth>1</depth>
          <value>-1.0116803280938131e+00</value></_></nodes></_>
    <_>
      <nodes>
        <_>
          <depth>0</depth>
          <value>-1.2581010296195357e-03</value>
          <splits>
            <_><var>71</var>
              <quality>1.0835744440555573e-01</quality>
              <le>7.2930151224136353e-01</le></_></splits></_>
        <_>
          <depth>1</depth>
          <value>-2.0928486640511035e-01</value></_>
        <_>
          <depth>1</depth>
          <value>6.2300919818548961e-01</value></_></nodes></_>
    <_>
      <nodes>
        <_>
          <depth>0</depth>
          <value>-9.5139032347760048e-03</value>
          <splits>
            <_><var>108</var>
              <quality>9.4662256538867950e-02</quality>
              <le>2.5047099590301514e+00</le></_></splits></_>
        <_>
          <depth>1</depth>
          <value>1.0432591716288256e-01</value></_>
        <_>
          <depth>1</depth>
          <value>-1.4075826413078427e+00</value></_></nodes></_>
    <_>
      <nodes>
        <_>
          <depth>0</depth>
          <value>3.4338086810059053e-03</value>
          <splits>
            <_><var>35</var>
              <quality>9.0997479856014252e-02</quality>
              <le>2.5655450820922852e+00</le></_></splits></_>
        <_>
          <depth>1</depth>
          <value>1.2181508644110432e-01</value></_>
        <_>
          <depth>1</depth>
          <value>-1.1265844558013434e+00</value></_></nodes></_>
    <_>
      <nodes>
        <_>
          <depth>0</depth>
          <value>-6.6010039993686948e-04</value>
          <splits>
            <_><var>74</var>
              <quality>1.1389128863811493e-01</quality>
              <le>-2.3506200313568115e-01</le></_></splits></_>
        <_>
          <depth>1</depth>
          <value>-5.3404345072854820e-01</value></_>
        <_>
          <depth>1</depth>
          <value>2.4928741509785743e-01</value></_></nodes></_>
    <_>
      <nodes>
        <_>
          <depth>0</depth>
          <value>-4.5115549742854892e-03</value>
          <splits>
            <_><var>122</var>
              <quality>1.0452896356582642e-01</quality>
              <le>-1.7189149856567383e+00</le></_></splits></_>
        <_>
          <depth>1</depth>
          <value>-1.3121496492117111e+00</value></_>
        <_>
          <depth>1</depth>
          <value>1.2400824439406249e-01</value></_></nodes></_>
    <_>
      <nodes>
        <_>
          <depth>0</depth>
          <value>6.1426037441795610e-04</value>
          <splits>
            <_><var>46</var>
              <quality>8.5038408637046814e-02</quality>
              <le>1.4349999427795410e+00</le></_></splits></_>
        <_>
          <depth>1</depth>
          <value>1.2141090842024235e-01</value></_>
        <_>
          <depth>1</depth>
          <value>-9.5948937595531036e-01</value></_></nodes></_>
    <_>
      <nodes>
        <_>
          <depth>0</depth>
          <value>3.2110253521094351e-03</value>
          <splits>
            <_><var>35</var>
              <quality>8.5051909089088440e-02</quality>
              <le>-1.8677899241447449e-01</le></_></splits></_>
        <_>
          <depth>1</depth>
          <value>3.1146186698111189e-01</value></_>
        <_>
          <depth>1</depth>
          <value>-3.0583596361907633e-01</value></_></nodes></_>
    <_>
      <nodes>
        <_>
          <depth>0</depth>
          <value>-5.1346897794315501e-03</value>
          <splits>
            <_><var>3</var>
              <quality>9.3691609799861908e-02</quality>
              <le>-2.2413349151611328e+00</le></_></splits></_>
        <_>
          <depth>1</depth>
          <value>-7.1113938081905692e-01</value></_>
        <_>
          <depth>1</depth>
          <value>1.5878808090411395e-01</value></_></nodes></_>
    <_>
      <nodes>
        <_>
          <depth>0</depth>
          <value>4.9969097185120445e-04</value>
          <splits>
            <_><var>51</var>
              <quality>8.4032081067562103e-02</quality>
              <le>-2.0331149101257324e+00</le></_></splits></_>
        <_>
          <depth>1</depth>
          <value>-8.3932800648899197e-01</value></_>
        <_>
          <depth>1</depth>
          <value>1.3019664605920328e-01</value></_></nodes></_>
    <_>
      <nodes>
        <_>
          <depth>0</depth>
          <value>-2.2865939392282262e-04</value>
          <splits>
            <_><var>109</var>
              <quality>8.1814177334308624e-02</quality>
              <le>3.5397200584411621e+00</le></_></splits></_>
        <_>
          <depth>1</depth>
          <value>1.0779303683437538e-01</value></_>
        <_>
          <depth>1</depth>
          <value>-1.1005347437273096e+00</value></_></nodes></_>
    <_>
      <nodes>
        <_>
          <depth>0</depth>
          <value>3.1486005396614714e-03</value>
          <splits>
            <_><var>36</var>
              <quality>8.0337829887866974e-02</quality>
              <le>2.6303851604461670e-01</le></_></splits></_>
        <_>
          <depth>1</depth>
          <value>-2.1029917386935715e-01</value></_>
        <_>
          <depth>1</depth>
          <value>4.2967974114200413e-01</value></_></nodes></_>
    <_>
      <nodes>
        <_>
          <depth>0</depth>
          <value>-2.7100151804340424e-03</value>
          <splits>
            <_><var>68</var>
              <quality>8.4097377955913544e-02</quality>
              <le>-6.2581646442413330e-01</le></_></splits></_>
        <_>
          <depth>1</depth>
          <value>-4.2971004216692155e-01</value></_>
        <_>
          <depth>1</depth>
          <value>2.2077184246333489e-01</value></_></nodes></_>
    <_>
      <nodes>
        <_>
          <depth>0</depth>
          <value>1.5847419225643721e-03</value>
          <splits>
            <_><var>54</var>
              <quality>8.7431773543357849e-02</quality>
              <le>6.3369750976562500e-01</le></_></splits></_>
        <_>
          <depth>1</depth>
          <value>1.6357655129554111e-01</value></_>
        <_>
          <depth>1</depth>
          <value>-6.4999981710631183e-01</value></_></nodes></_>
    <_>
      <nodes>
        <_>
          <depth>0</depth>
          <value>7.4007604522289563e-04</value>
          <splits>
            <_><var>9</var>
              <quality>7.4375919997692108e-02</quality>
              <le>2.6136150360107422e+00</le></_></splits></_>
        <_>
          <depth>1</depth>
          <value>-1.1080692648155367e-01</value></_>
        <_>
          <depth>1</depth>
          <value>8.7816063945378675e-01</value></_></nodes></_>
    <_>
      <nodes>
        <_>
          <depth>0</depth>
          <value>-5.7743479379454409e-03</value>
          <splits>
            <_><var>81</var>
              <quality>7.3735147714614868e-02</quality>
              <le>1.7208049297332764e+00</le></_></splits></_>
        <_>
          <depth>1</depth>
          <value>7.2399758946940271e-02</value></_>
        <_>
          <depth>1</depth>
          <value>-5.7564577324601141e+00</value></_></nodes></_>
    <_>
      <nodes>
        <_>
          <depth>0</depth>
          <value>-1.5075337710665100e-03</value>
          <splits>
            <_><var>34</var>
              <quality>9.5355696976184845e-02</quality>
              <le>-1.7166150428238325e-05</le></_></splits></_>
        <_>
          <depth>1</depth>
          <value>-2.7575295289715995e-01</value></_>
        <_>
          <depth>1</depth>
          <value>3.9281181096358336e-01</value></_></nodes></_>
    <_>
      <nodes>
        <_>
          <depth>0</depth>
          <value>-3.9909801833946899e-03</value>
          <splits>
            <_><var>135</var>
              <quality>8.1561453640460968e-02</quality>
              <le>-5.2035298347473145e+00</le></_></splits></_>
        <_>
          <depth>1</depth>
          <value>-5.7564577324601141e+00</value></_>
        <_>
          <depth>1</depth>
          <value>8.2384720053223157e-02</value></_></nodes></_>
    <_>
      <nodes>
        <_>
          <depth>0</depth>
          <value>-6.1350491199107793e-03</value>
          <splits>
            <_><var>33</var>
              <quality>7.9373203217983246e-02</quality>
              <le>-1.5370500087738037e+00</le></_></splits></_>
        <_>
          <depth>1</depth>
          <value>-4.6950858465584661e-01</value></_>
        <_>
          <depth>1</depth>
          <value>1.8959813908292161e-01</value></_></nodes></_>
    <_>
      <nodes>
        <_>
          <depth>0</depth>
          <value>-1.2869830558814238e-03</value>
          <splits>
            <_><var>75</var>
              <quality>9.3635946512222290e-02</quality>
              <le>-1.0671100616455078e+00</le></_></splits></_>
        <_>
          <depth>1</depth>
          <value>-7.2841110464259040e-01</value></_>
        <_>
          <depth>1</depth>
          <value>1.5885299365977895e-01</value></_></nodes></_>
    <_>
      <nodes>
        <_>
          <depth>0</depth>
          <value>-2.1862094786228653e-04</value>
          <splits>
            <_><var>115</var>
              <quality>8.9233934879302979e-02</quality>
              <le>-6.4189147949218750e-01</le></_></splits></_>
        <_>
          <depth>1</depth>
          <value>5.5200372971421052e-01</value></_>
        <_>
          <depth>1</depth>
          <value>-1.8955146577098561e-01</value></_></nodes></_>
    <_>
      <nodes>
        <_>
          <depth>0</depth>
          <value>1.0128119955592125e-03</value>
          <splits>
            <_><var>49</var>
              <quality>8.4011353552341461e-02</quality>
              <le>3.9039599895477295e-01</le></_></splits></_>
        <_>
          <depth>1</depth>
          <value>2.7949459371440666e-01</value></_>
        <_>
          <depth>1</depth>
          <value>-3.3712845967198790e-01</value></_></nodes></_>
    <_>
      <nodes>
        <_>
          <depth>0</depth>
          <value>-5.4114211029016850e-03</value>
          <splits>
            <_><var>71</var>
              <quality>1.0306024551391602e-01</quality>
              <le>-6.6773951053619385e-01</le></_></splits></_>
        <_>
          <depth>1</depth>
          <value>-6.3842608107091536e-01</value></_>
        <_>
          <depth>1</depth>
          <value>1.9111599848229149e-01</value></_></nodes></_>
    <_>
      <nodes>
        <_>
          <depth>0</depth>
          <value>3.3769189490394907e-03</value>
          <splits>
            <_><var>46</var>
              <quality>7.8800559043884277e-02</quality>
              <le>-2.5573748350143433e-01</le></_></splits></_>
        <_>
          <depth>1</depth>
          <value>4.4069554295739027e-01</value></_>
        <_>
          <depth>1</depth>
          <value>-2.0125572729227686e-01</value></_></nodes></_>
    <_>
      <nodes>
        <_>
          <depth>0</depth>
          <value>1.4219414847502477e-03</value>
          <splits>
            <_><var>80</var>
              <quality>9.3921765685081482e-02</quality>
              <le>-1.3322750329971313e+00</le></_></splits></_>
        <_>
          <depth>1</depth>
          <value>-1.0146537490027818e+00</value></_>
        <_>
          <depth>1</depth>
          <value>1.3075723630256136e-01</value></_></nodes></_>
    <_>
      <nodes>
        <_>
          <depth>0</depth>
          <value>-1.3107995750754825e-03</value>
          <splits>
            <_><var>41</var>
              <quality>8.4910221397876740e-02</quality>
              <le>2.0990800857543945e+00</le></_></splits></_>
        <_>
          <depth>1</depth>
          <value>1.3430485371795084e-01</value></_>
        <_>
          <depth>1</depth>
          <value>-8.0087758639523232e-01</value></_></nodes></_>
    <_>
      <nodes>
        <_>
          <depth>0</depth>
          <value>-4.9262436910747836e-03</value>
          <splits>
            <_><var>61</var>
              <quality>1.0682609677314758e-01</quality>
              <le>-1.9268050789833069e-01</le></_></splits></_>
        <_>
          <depth>1</depth>
          <value>-4.0184376135802041e-01</value></_>
        <_>
          <depth>1</depth>
          <value>3.0255054057863406e-01</value></_></nodes></_>
    <_>
      <nodes>
        <_>
          <depth>0</depth>
          <value>7.1188108366437419e-03</value>
          <splits>
            <_><var>83</var>
              <quality>9.1936118900775909e-02</quality>
              <le>5.8330498635768890e-02</le></_></splits></_>
        <_>
          <depth>1</depth>
          <value>2.9995545854039291e-01</value></_>
        <_>
          <depth>1</depth>
          <value>-3.4658297841792962e-01</value></_></nodes></_>
    <_>
      <nodes>
        <_>
          <depth>0</depth>
          <value>-4.7950156882864553e-03</value>
          <splits>
            <_><var>39</var>
              <quality>6.9953136146068573e-02</quality>
              <le>-3.3514499664306641e+00</le></_></splits></_>
        <_>
          <depth>1</depth>
          <value>-5.7564577324601141e+00</value></_>
        <_>
          <depth>1</depth>
          <value>6.9283563402756890e-02</value></_></nodes></_>
    <_>
      <nodes>
        <_>
          <depth>0</depth>
          <value>-3.4456712449196540e-03</value>
          <splits>
            <_><var>124</var>
              <quality>8.3412304520606995e-02</quality>
              <le>-5.7006847858428955e-01</le></_></splits></_>
        <_>
          <depth>1</depth>
          <value>4.5732686828219865e-01</value></_>
        <_>
          <depth>1</depth>
          <value>-2.1004692189667667e-01</value></_></nodes></_>
    <_>
      <nodes>
        <_>
          <depth>0</depth>
          <value>3.8093221226097604e-03</value>
          <splits>
            <_><var>134</var>
              <quality>1.0418812930583954e-01</quality>
              <le>-1.8562999963760376e+00</le></_></splits></_>
        <_>
          <depth>1</depth>
          <value>-1.4496190946657659e+00</value></_>
        <_>
          <depth>1</depth>
          <value>1.2642556145137360e-01</value></_></nodes></_>
    <_>
      <nodes>
        <_>
          <depth>0</depth>
          <value>-4.8045108858241715e-03</value>
          <splits>
            <_><var>49</var>
              <quality>9.0259119868278503e-02</quality>
              <le>3.9039599895477295e-01</le></_></splits></_>
        <_>
          <depth>1</depth>
          <value>2.8046832296694507e-01</value></_>
        <_>
          <depth>1</depth>
          <value>-3.6126938521454449e-01</value></_></nodes></_>
    <_>
      <nodes>
        <_>
          <depth>0</depth>
          <value>1.4118679776710698e-03</value>
          <splits>
            <_><var>113</var>
              <quality>1.0279639810323715e-01</quality>
              <le>2.3942399024963379e+00</le></_></splits></_>
        <_>
          <depth>1</depth>
          <value>1.5932159914834093e-01</value></_>
        <_>
          <depth>1</depth>
          <value>-8.4738671139240163e-01</value></_></nodes></_>
    <_>
      <nodes>
        <_>
          <depth>0</depth>
          <value>1.4579876177201845e-04</value>
          <splits>
            <_><var>83</var>
              <quality>8.9704476296901703e-02</quality>
              <le>-9.1240346431732178e-01</le></_></splits></_>
        <_>
          <depth>1</depth>
          <value>1.1268262041930686e+00</value></_>
        <_>
          <depth>1</depth>
          <value>-1.1701494378374029e-01</value></_></nodes></_>
    <_>
      <nodes>
        <_>
          <depth>0</depth>
          <value>-7.6738886117994056e-03</value>
          <splits>
            <_><var>5</var>
              <quality>1.2883834540843964e-01</quality>
              <le>-1.4931399822235107e+00</le></_></splits></_>
        <_>
          <depth>1</depth>
          <value>-5.8901992499635092e-01</value></_>
        <_>
          <depth>1</depth>
          <value>2.5790273108642281e-01</value></_></nodes></_>
    <_>
      <nodes>
        <_>
          <depth>0</depth>
          <value>2.4247980950156587e-03</value>
          <splits>
            <_><var>121</var>
              <quality>1.0694773495197296e-01</quality>
              <le>-3.3872950077056885e-01</le></_></splits></_>
        <_>
          <depth>1</depth>
          <value>5.3744457313951477e-01</value></_>
        <_>
          <depth>1</depth>
          <value>-2.3210747711542926e-01</value></_></nodes></_>
    <_>
      <nodes>
        <_>
          <depth>0</depth>
          <value>-2.2402931603225599e-03</value>
          <splits>
            <_><var>93</var>
              <quality>1.1897555738687515e-01</quality>
              <le>7.5408950448036194e-02</le></_></splits></_>
        <_>
          <depth>1</depth>
          <value>-2.7777054338058571e-01</value></_>
        <_>
          <depth>1</depth>
          <value>5.0255522746472070e-01</value></_></nodes></_>
    <_>
      <nodes>
        <_>
          <depth>0</depth>
          <value>6.8357937867154946e-03</value>
          <splits>
            <_><var>70</var>
              <quality>9.2929102480411530e-02</quality>
              <le>-1.3032400608062744e+00</le></_></splits></_>
        <_>
          <depth>1</depth>
          <value>-7.6152294625993144e-01</value></_>
        <_>
          <depth>1</depth>
          <value>1.5887352087316231e-01</value></_></nodes></_>
    <_>
      <nodes>
        <_>
          <depth>0</depth>
          <value>-2.4977449340445137e-03</value>
          <splits>
            <_><var>45</var>
              <quality>7.1022704243659973e-02</quality>
              <le>4.7571549415588379e+00</le></_></splits></_>
        <_>
          <depth>1</depth>
          <value>7.2600275491939439e-02</value></_>
        <_>
          <depth>1</depth>
          <value>-5.7564577324601141e+00</value></_></nodes></_>
    <_>
      <nodes>
        <_>
          <depth>0</depth>
          <value>-4.2574460958563444e-03</value>
          <splits>
            <_><var>120</var>
              <quality>8.6233325302600861e-02</quality>
              <le>3.2866899967193604e+00</le></_></splits></_>
        <_>
          <depth>1</depth>
          <value>1.0528279683119439e-01</value></_>
        <_>
          <depth>1</depth>
          <value>-1.2082478059314454e+00</value></_></nodes></_>
    <_>
      <nodes>
        <_>
          <depth>0</depth>
          <value>2.3333695537845990e-03</value>
          <splits>
            <_><var>67</var>
              <quality>1.1762466281652451e-01</quality>
              <le>1.6895101070404053e+00</le></_></splits></_>
        <_>
          <depth>1</depth>
          <value>1.7588681442525764e-01</value></_>
        <_>
          <depth>1</depth>
          <value>-9.0493438087844802e-01</value></_></nodes></_>
    <_>
      <nodes>
        <_>
          <depth>0</depth>
          <value>-3.5775954221272731e-03</value>
          <splits>
            <_><var>59</var>
              <quality>1.0449673235416412e-01</quality>
              <le>-5.4831302165985107e-01</le></_></splits></_>
        <_>
          <depth>1</depth>
          <value>-4.5231678708404327e-01</value></_>
        <_>
          <depth>1</depth>
          <value>2.6423137972815497e-01</value></_></nodes></_>
    <_>
      <nodes>
        <_>
          <depth>0</depth>
          <value>-1.6210201921871240e-03</value>
          <splits>
            <_><var>25</var>
              <quality>7.8835204243659973e-02</quality>
              <le>-8.0431354045867920e-01</le></_></splits></_>
        <_>
          <depth>1</depth>
          <value>3.3214301052946515e-01</value></_>
        <_>
          <depth>1</depth>
          <value>-2.6542345625485020e-01</value></_></nodes></_>
    <_>
      <nodes>
        <_>
          <depth>0</depth>
          <value>-2.9908195937306762e-04</value>
          <splits>
            <_><var>99</var>
              <quality>1.0777308046817780e-01</quality>
              <le>-1.0102334022521973e+00</le></_></splits></_>
        <_>
          <depth>1</depth>
          <value>-4.4709789042521764e-01</value></_>
        <_>
          <depth>1</depth>
          <value>2.7722195573967151e-01</value></_></nodes></_>
    <_>
      <nodes>
        <_>
          <depth>0</depth>
          <value>7.8920276694520550e-04</value>
          <splits>
            <_><var>42</var>
              <quality>7.5653627514839172e-02</quality>
              <le>-2.1257801055908203e+00</le></_></splits></_>
        <_>
          <depth>1</depth>
          <value>-1.0613546536409604e+00</value></_>
        <_>
          <depth>1</depth>
          <value>1.0239176613731885e-01</value></_></nodes></_>
    <_>
      <nodes>
        <_>
          <depth>0</depth>
          <value>1.4294468187215207e-03</value>
          <splits>
            <_><var>60</var>
              <quality>8.9741215109825134e-02</quality>
              <le>1.0419465601444244e-01</le></_></splits></_>
        <_>
          <depth>1</depth>
          <value>2.7352457961950216e-01</value></_>
        <_>
          <depth>1</depth>
          <value>-3.7066614903653311e-01</value></_></nodes></_>
    <_>
      <nodes>
        <_>
          <depth>0</depth>
          <value>3.7659835382175951e-03</value>
          <splits>
            <_><var>47</var>
              <quality>1.0568422824144363e-01</quality>
              <le>7.5268852710723877e-01</le></_></splits></_>
        <_>
          <depth>1</depth>
          <value>2.3613524900210775e-01</value></_>
        <_>
          <depth>1</depth>
          <value>-5.2829677067353675e-01</value></_></nodes></_>
    <_>
      <nodes>
        <_>
          <depth>0</depth>
          <value>4.1708229726870541e-04</value>
          <splits>
            <_><var>110</var>
              <quality>9.4967208802700043e-02</quality>
              <le>2.7781348228454590e+00</le></_></splits></_>
        <_>
          <depth>1</depth>
          <value>1.0070613435570505e-01</value></_>
        <_>
          <depth>1</depth>
          <value>-5.7564577324601141e+00</value></_></nodes></_>
    <_>
      <nodes>
        <_>
          <depth>0</depth>
          <value>-6.4713218207786034e-03</value>
          <splits>
            <_><var>68</var>
              <quality>1.1383187025785446e-01</quality>
              <le>8.7181103229522705e-01</le></_></splits></_>
        <_>
          <depth>1</depth>
          <value>-1.3324784049939892e-01</value></_>
        <_>
          <depth>1</depth>
          <value>1.7807501486266162e+00</value></_></nodes></_>
    <_>
      <nodes>
        <_>
          <depth>0</depth>
          <value>-1.5207887590718644e-02</value>
          <splits>
            <_><var>114</var>
              <quality>9.8945721983909607e-02</quality>
              <le>-1.8788700103759766e+00</le></_></splits></_>
        <_>
          <depth>1</depth>
          <value>-5.7564577324601141e+00</value></_>
        <_>
          <depth>1</depth>
          <value>9.0605404742262863e-02</value></_></nodes></_>
    <_>
      <nodes>
        <_>
          <depth>0</depth>
          <value>4.1335536366242920e-01</value>
          <splits>
            <_><var>114</var>
              <quality>3.8692101836204529e-01</quality>
              <le>-1.8520150184631348e+00</le></_></splits></_>
        <_>
          <depth>1</depth>
          <value>5.7564577324623896e+00</value></_>
        <_>
          <depth>1</depth>
          <value>-2.6321693667140319e-02</value></_></nodes></_>
    <_>
      <nodes>
        <_>
          <depth>0</depth>
          <value>-8.4045507385509352e-02</value>
          <splits>
            <_><var>114</var>
              <quality>1.0090268403291702e-01</quality>
              <le>-1.8438049554824829e+00</le></_></splits></_>
        <_>
          <depth>1</depth>
          <value>-5.7564577324601141e+00</value></_>
        <_>
          <depth>1</depth>
          <value>2.4440211006062432e-02</value></_></nodes></_>
    <_>
      <nodes>
        <_>
          <depth>0</depth>
          <value>4.7584272759016139e-01</value>
          <splits>
            <_><var>114</var>
              <quality>4.3913865089416504e-01</quality>
              <le>-1.8411350250244141e+00</le></_></splits></_>
        <_>
          <depth>1</depth>
          <value>5.7564577324623896e+00</value></_>
        <_>
          <depth>1</depth>
          <value>-3.4835989301873607e-02</value></_></nodes></_>
    <_>
      <nodes>
        <_>
          <depth>0</depth>
          <value>-2.0643861235544061e-01</value>
          <splits>
            <_><var>114</var>
              <quality>2.3075667023658752e-01</quality>
              <le>-1.6318900585174561e+00</le></_></splits></_>
        <_>
          <depth>1</depth>
          <value>-2.0323997564627327e+00</value></_>
        <_>
          <depth>1</depth>
          <value>6.0779173612850144e-02</value></_></nodes></_>
    <_>
      <nodes>
        <_>
          <depth>0</depth>
          <value>3.5312207387155140e-02</value>
          <splits>
            <_><var>48</var>
              <quality>1.0793738067150116e-01</quality>
              <le>1.0690300464630127e+00</le></_></splits></_>
        <_>
          <depth>1</depth>
          <value>-1.1797035061257437e-01</value></_>
        <_>
          <depth>1</depth>
          <value>1.0242270151894846e+00</value></_></nodes></_>
    <_>
      <nodes>
        <_>
          <depth>0</depth>
          <value>2.1798511795766582e-03</value>
          <splits>
            <_><var>64</var>
              <quality>9.8655015230178833e-02</quality>
              <le>6.9595351815223694e-02</le></_></splits></_>
        <_>
          <depth>1</depth>
          <value>3.5285671744423919e-01</value></_>
        <_>
          <depth>1</depth>
          <value>-3.1636125882636107e-01</value></_></nodes></_>
    <_>
      <nodes>
        <_>
          <depth>0</depth>
          <value>-2.4282493357827982e-03</value>
          <splits>
            <_><var>89</var>
              <quality>9.7626462578773499e-02</quality>
              <le>9.5367449830519035e-06</le></_></splits></_>
        <_>
          <depth>1</depth>
          <value>-2.9204207093995482e-01</value></_>
        <_>
          <depth>1</depth>
          <value>3.7989040283971881e-01</value></_></nodes></_>
    <_>
      <nodes>
        <_>
          <depth>0</depth>
          <value>2.1996573723329863e-04</value>
          <splits>
            <_><var>12</var>
              <quality>9.7057260572910309e-02</quality>
              <le>-2.2538151741027832e+00</le></_></splits></_>
        <_>
          <depth>1</depth>
          <value>-9.1775887948180823e-01</value></_>
        <_>
          <depth>1</depth>
          <value>1.4210904268689920e-01</value></_></nodes></_>
    <_>
      <nodes>
        <_>
          <depth>0</depth>
          <value>4.1877771688595619e-03</value>
          <splits>
            <_><var>5</var>
              <quality>9.3654908239841461e-02</quality>
              <le>2.4607100486755371e+00</le></_></splits></_>
        <_>
          <depth>1</depth>
          <value>1.5456949288789407e-01</value></_>
        <_>
          <depth>1</depth>
          <value>-7.8737427974896490e-01</value></_></nodes></_>
    <_>
      <nodes>
        <_>
          <depth>0</depth>
          <value>-4.5907261153330433e-03</value>
          <splits>
            <_><var>54</var>
              <quality>9.6951924264431000e-02</quality>
              <le>6.3394153118133545e-01</le></_></splits></_>
        <_>
          <depth>1</depth>
          <value>1.6821584380433216e-01</value></_>
        <_>
          <depth>1</depth>
          <value>-6.9432048639516841e-01</value></_></nodes></_>
    <_>
      <nodes>
        <_>
          <depth>0</depth>
          <value>9.1806415138627386e-03</value>
          <splits>
            <_><var>85</var>
              <quality>8.7232068181037903e-02</quality>
              <le>-7.4203446507453918e-02</le></_></splits></_>
        <_>
          <depth>1</depth>
          <value>4.7325603351527540e-01</value></_>
        <_>
          <depth>1</depth>
          <value>-2.0627356658796758e-01</value></_></nodes></_>
    <_>
      <nodes>
        <_>
          <depth>0</depth>
          <value>-4.1304061039272588e-03</value>
          <splits>
            <_><var>109</var>
              <quality>9.6813313663005829e-02</quality>
              <le>3.5397200584411621e+00</le></_></splits></_>
        <_>
          <depth>1</depth>
          <value>1.1651021690583033e-01</value></_>
        <_>
          <depth>1</depth>
          <value>-1.2650581769223266e+00</value></_></nodes></_>
    <_>
      <nodes>
        <_>
          <depth>0</depth>
          <value>-1.1058610323476972e-04</value>
          <splits>
            <_><var>109</var>
              <quality>1.0288847982883453e-01</quality>
              <le>-2.2168000042438507e-01</le></_></splits></_>
        <_>
          <depth>1</depth>
          <value>-3.1200415096936923e-01</value></_>
        <_>
          <depth>1</depth>
          <value>3.7524781268214658e-01</value></_></nodes></_>
    <_>
      <nodes>
        <_>
          <depth>0</depth>
          <value>-7.6482025296473917e-03</value>
          <splits>
            <_><var>36</var>
              <quality>1.0179811716079712e-01</quality>
              <le>1.4272999763488770e+00</le></_></splits></_>
        <_>
          <depth>1</depth>
          <value>-1.5894839485817847e-01</value></_>
        <_>
          <depth>1</depth>
          <value>8.8047061743035726e-01</value></_></nodes></_>
    <_>
      <nodes>
        <_>
          <depth>0</depth>
          <value>1.8043468441245381e-03</value>
          <splits>
            <_><var>118</var>
              <quality>8.7208136916160583e-02</quality>
              <le>-2.4219050407409668e+00</le></_></splits></_>
        <_>
          <depth>1</depth>
          <value>-1.5459880057719482e+00</value></_>
        <_>
          <depth>1</depth>
          <value>1.0249983563463029e-01</value></_></nodes></_>
    <_>
      <nodes>
        <_>
          <depth>0</depth>
          <value>-5.7878670110961140e-03</value>
          <splits>
            <_><var>43</var>
              <quality>8.6764536798000336e-02</quality>
              <le>4.0790349245071411e-01</le></_></splits></_>
        <_>
          <depth>1</depth>
          <value>2.7378097571860294e-01</value></_>
        <_>
          <depth>1</depth>
          <value>-3.5444029201556976e-01</value></_></nodes></_>
    <_>
      <nodes>
        <_>
          <depth>0</depth>
          <value>-4.3045374513106241e-03</value>
          <splits>
            <_><var>74</var>
              <quality>9.4545312225818634e-02</quality>
              <le>-2.3506200313568115e-01</le></_></splits></_>
        <_>
          <depth>1</depth>
          <value>-4.6749229231299816e-01</value></_>
        <_>
          <depth>1</depth>
          <value>2.3012278852283238e-01</value></_></nodes></_>
    <_>
      <nodes>
        <_>
          <depth>0</depth>
          <value>7.0862367391853346e-03</value>
          <splits>
            <_><var>118</var>
              <quality>9.8824620246887207e-02</quality>
              <le>4.2085650563240051e-01</le></_></splits></_>
        <_>
          <depth>1</depth>
          <value>3.2567452954853737e-01</value></_>
        <_>
          <depth>1</depth>
          <value>-3.4411817825205082e-01</value></_></nodes></_>
    <_>
      <nodes>
        <_>
          <depth>0</depth>
          <value>-3.4839341120947330e-03</value>
          <splits>
            <_><var>104</var>
              <quality>9.5974951982498169e-02</quality>
              <le>-1.3769400119781494e+00</le></_></splits></_>
        <_>
          <depth>1</depth>
          <value>-6.4268218550232525e-01</value></_>
        <_>
          <depth>1</depth>
          <value>1.7776649898236746e-01</value></_></nodes></_>
    <_>
      <nodes>
        <_>
          <depth>0</depth>
          <value>5.3070406622230315e-03</value>
          <splits>
            <_><var>8</var>
              <quality>8.6538612842559814e-02</quality>
              <le>-1.0926849842071533e+00</le></_></splits></_>
        <_>
          <depth>1</depth>
          <value>-5.0115462939079070e-01</value></_>
        <_>
          <depth>1</depth>
          <value>2.0257302961210111e-01</value></_></nodes></_>
    <_>
      <nodes>
        <_>
          <depth>0</depth>
          <value>4.1325690523905008e-03</value>
          <splits>
            <_><var>49</var>
              <quality>9.6117317676544189e-02</quality>
              <le>-2.0137648582458496e+00</le></_></splits></_>
        <_>
          <depth>1</depth>
          <value>-7.2876271494569989e-01</value></_>
        <_>
          <depth>1</depth>
          <value>1.6723900469663841e-01</value></_></nodes></_>
    <_>
      <nodes>
        <_>
          <depth>0</depth>
          <value>-4.1685084263870763e-03</value>
          <splits>
            <_><var>41</var>
              <quality>9.8335906863212585e-02</quality>
              <le>6.4069747924804688e-01</le></_></splits></_>
        <_>
          <depth>1</depth>
          <value>2.3676668878071644e-01</value></_>
        <_>
          <depth>1</depth>
          <value>-4.7441483043305938e-01</value></_></nodes></_>
    <_>
      <nodes>
        <_>
          <depth>0</depth>
          <value>-4.4631523887047045e-03</value>
          <splits>
            <_><var>12</var>
              <quality>7.8036442399024963e-02</quality>
              <le>-3.4491050243377686e+00</le></_></splits></_>
        <_>
          <depth>1</depth>
          <value>-1.8097480751924959e+00</value></_>
        <_>
          <depth>1</depth>
          <value>8.2826565464515847e-02</value></_></nodes></_>
    <_>
      <nodes>
        <_>
          <depth>0</depth>
          <value>6.7855837167535736e-03</value>
          <splits>
            <_><var>75</var>
              <quality>8.0272503197193146e-02</quality>
              <le>-1.0576350688934326e+00</le></_></splits></_>
        <_>
          <depth>1</depth>
          <value>-6.4336076082224936e-01</value></_>
        <_>
          <depth>1</depth>
          <value>1.5521429998689645e-01</value></_></nodes></_>
    <_>
      <nodes>
        <_>
          <depth>0</depth>
          <value>-3.1281802357485981e-03</value>
          <splits>
            <_><var>20</var>
              <quality>9.6500128507614136e-02</quality>
              <le>1.3818449974060059e+00</le></_></splits></_>
        <_>
          <depth>1</depth>
          <value>1.7779274270970527e-01</value></_>
        <_>
          <depth>1</depth>
          <value>-6.4864789775212739e-01</value></_></nodes></_>
    <_>
      <nodes>
        <_>
          <depth>0</depth>
          <value>5.6272768254487541e-03</value>
          <splits>
            <_><var>52</var>
              <quality>6.8863041698932648e-02</quality>
              <le>2.3147897720336914e+00</le></_></splits></_>
        <_>
          <depth>1</depth>
          <value>1.0206554742255955e-01</value></_>
        <_>
          <depth>1</depth>
          <value>-9.7025377137748081e-01</value></_></nodes></_>
    <_>
      <nodes>
        <_>
          <depth>0</depth>
          <value>-1.0839724087327188e-03</value>
          <splits>
            <_><var>62</var>
              <quality>7.7990323305130005e-02</quality>
              <le>2.0254149436950684e+00</le></_></splits></_>
        <_>
          <depth>1</depth>
          <value>8.1297772997579343e-02</value></_>
        <_>
          <depth>1</depth>
          <value>-5.7564577324601141e+00</value></_></nodes></_>
    <_>
      <nodes>
        <_>
          <depth>0</depth>
          <value>2.0757443920623583e-01</value>
          <splits>
            <_><var>60</var>
              <quality>2.4622817337512970e-01</quality>
              <le>8.6162602901458740e-01</le></_></splits></_>
        <_>
          <depth>1</depth>
          <value>-9.9745128079075610e-02</value></_>
        <_>
          <depth>1</depth>
          <value>1.5848888168814927e+00</value></_></nodes></_>
    <_>
      <nodes>
        <_>
          <depth>0</depth>
          <value>-1.4473203754693754e-02</value>
          <splits>
            <_><var>55</var>
              <quality>8.3746545016765594e-02</quality>
              <le>7.0211052894592285e-01</le></_></splits></_>
        <_>
          <depth>1</depth>
          <value>-2.0394685924713851e-01</value></_>
        <_>
          <depth>1</depth>
          <value>4.9324177025755228e-01</value></_></nodes></_>
    <_>
      <nodes>
        <_>
          <depth>0</depth>
          <value>3.6501359376684955e-03</value>
          <splits>
            <_><var>129</var>
              <quality>8.9312918484210968e-02</quality>
              <le>4.7355651855468750e+00</le></_></splits></_>
        <_>
          <depth>1</depth>
          <value>9.7683734440983411e-02</value></_>
        <_>
          <depth>1</depth>
          <value>-5.7564577324601141e+00</value></_></nodes></_>
    <_>
      <nodes>
        <_>
          <depth>0</depth>
          <value>-1.0301146026209978e-02</value>
          <splits>
            <_><var>101</var>
              <quality>7.6992101967334747e-02</quality>
              <le>-3.4137701988220215e+00</le></_></splits></_>
        <_>
          <depth>1</depth>
          <value>-1.6749011353699579e+00</value></_>
        <_>
          <depth>1</depth>
          <value>7.7690789444226804e-02</value></_></nodes></_>
    <_>
      <nodes>
        <_>
          <depth>0</depth>
          <value>-2.5488745295828030e-03</value>
          <splits>
            <_><var>36</var>
              <quality>1.2399138510227203e-01</quality>
              <le>-1.8097099661827087e-01</le></_></splits></_>
        <_>
          <depth>1</depth>
          <value>-3.0660383372536215e-01</value></_>
        <_>
          <depth>1</depth>
          <value>4.7276215619775003e-01</value></_></nodes></_>
    <_>
      <nodes>
        <_>
          <depth>0</depth>
          <value>1.2557889070619226e-03</value>
          <splits>
            <_><var>2</var>
              <quality>1.0777978599071503e-01</quality>
              <le>-1.4104449748992920e+00</le></_></splits></_>
        <_>
          <depth>1</depth>
          <value>6.1541090750505545e-01</value></_>
        <_>
          <depth>1</depth>
          <value>-2.0939842826950958e-01</value></_></nodes></_></trees></opencv_ml_boost>
</opencv_storage>
