<?xml version="1.0"?>
<opencv_storage>
<opencv_ml_boost>
  <format>3</format>
  <is_classifier>1</is_classifier>
  <var_all>137</var_all>
  <var_count>136</var_count>
  <ord_var_count>136</ord_var_count>
  <cat_var_count>1</cat_var_count>
  <training_params>
    <boosting_type>RealAdaboost</boosting_type>
    <use_surrogates>0</use_surrogates>
    <max_categories>10</max_categories>
    <regression_accuracy>9.9999997764825821e-03</regression_accuracy>
    <max_depth>1</max_depth>
    <min_sample_count>10</min_sample_count>
    <cross_validation_folds>0</cross_validation_folds>
    <weight_trimming_rate>9.4999999999999996e-01</weight_trimming_rate></training_params>
  <global_var_idx>1</global_var_idx>
  <var_idx>
    0 1 2 3 4 5 6 7 8 9 10 11 12 13 14 15 16 17 18 19 20 21 22 23 24 25
    26 27 28 29 30 31 32 33 34 35 36 37 38 39 40 41 42 43 44 45 46 47 48
    49 50 51 52 53 54 55 56 57 58 59 60 61 62 63 64 65 66 67 68 69 70 71
    72 73 74 75 76 77 78 79 80 81 82 83 84 85 86 87 88 89 90 91 92 93 94
    95 96 97 98 99 100 101 102 103 104 105 106 107 108 109 110 111 112
    113 114 115 116 117 118 119 120 121 122 123 124 125 126 127 128 129
    130 131 132 133 134 135</var_idx>
  <var_type>
    0 0 0 0 0 0 0 0 0 0 0 0 0 0 0 0 0 0 0 0 0 0 0 0 0 0 0 0 0 0 0 0 0 0
    0 0 0 0 0 0 0 0 0 0 0 0 0 0 0 0 0 0 0 0 0 0 0 0 0 0 0 0 0 0 0 0 0 0
    0 0 0 0 0 0 0 0 0 0 0 0 0 0 0 0 0 0 0 0 0 0 0 0 0 0 0 0 0 0 0 0 0 0
    0 0 0 0 0 0 0 0 0 0 0 0 0 0 0 0 0 0 0 0 0 0 0 0 0 0 0 0 0 0 0 0 0 0
    1</var_type>
  <cat_ofs>
    0 0 0 0 0 0 0 0 0 0 0 0 0 0 0 0 0 0 0 0 0 0 0 0 0 0 0 0 0 0 0 0 0 0
    0 0 0 0 0 0 0 0 0 0 0 0 0 0 0 0 0 0 0 0 0 0 0 0 0 0 0 0 0 0 0 0 0 0
    0 0 0 0 0 0 0 0 0 0 0 0 0 0 0 0 0 0 0 0 0 0 0 0 0 0 0 0 0 0 0 0 0 0
    0 0 0 0 0 0 0 0 0 0 0 0 0 0 0 0 0 0 0 0 0 0 0 0 0 0 0 0 0 0 0 0 0 0
    0 0 0 0 0 0 0 0 0 0 0 0 0 0 0 0 0 0 0 0 0 0 0 0 0 0 0 0 0 0 0 0 0 0
    0 0 0 0 0 0 0 0 0 0 0 0 0 0 0 0 0 0 0 0 0 0 0 0 0 0 0 0 0 0 0 0 0 0
    0 0 0 0 0 0 0 0 0 0 0 0 0 0 0 0 0 0 0 0 0 0 0 0 0 0 0 0 0 0 0 0 0 0
    0 0 0 0 0 0 0 0 0 0 0 0 0 0 0 0 0 0 0 0 0 0 0 0 0 0 0 0 0 0 0 0 0 0</cat_ofs>
  <class_labels>
    -1082130432 1065353216</class_labels>
  <missing_subst>
    0. 0. 0. 0. 0. 0. 0. 0. 0. 0. 0. 0. 0. 0. 0. 0. 0. 0. 0. 0. 0. 0. 0.
    0. 0. 0. 0. 0. 0. 0. 0. 0. 0. 0. 0. 0. 0. 0. 0. 0. 0. 0. 0. 0. 0. 0.
    0. 0. 0. 0. 0. 0. 0. 0. 0. 0. 0. 0. 0. 0. 0. 0. 0. 0. 0. 0. 0. 0. 0.
    0. 0. 0. 0. 0. 0. 0. 0. 0. 0. 0. 0. 0. 0. 0. 0. 0. 0. 0. 0. 0. 0. 0.
    0. 0. 0. 0. 0. 0. 0. 0. 0. 0. 0. 0. 0. 0. 0. 0. 0. 0. 0. 0. 0. 0. 0.
    0. 0. 0. 0. 0. 0. 0. 0. 0. 0. 0. 0. 0. 0. 0. 0. 0. 0. 0. 0. 0. 0.</missing_subst>
  <ntrees>100</ntrees>
  <trees>
    <_>
      <nodes>
        <_>
          <depth>0</depth>
          <value>-1.3499371881532047e+00</value>
          <splits>
            <_><var>43</var>
              <quality>7.8190743923187256e-01</quality>
              <le>2.1322350502014160e+00</le></_></splits></_>
        <_>
          <depth>1</depth>
          <value>-1.8890777109219972e+00</value></_>
        <_>
          <depth>1</depth>
          <value>-7.8042695628917813e-01</value></_></nodes></_>
    <_>
      <nodes>
        <_>
          <depth>0</depth>
          <value>-1.3421398228630443e-08</value>
          <splits>
            <_><var>42</var>
              <quality>3.2776403427124023e-01</quality>
              <le>-6.7037951946258545e-01</le></_></splits></_>
        <_>
          <depth>1</depth>
          <value>6.1224924289219007e-01</value></_>
        <_>
          <depth>1</depth>
          <value>-6.9411829773440703e-01</value></_></nodes></_>
    <_>
      <nodes>
        <_>
          <depth>0</depth>
          <value>4.1942802388500977e-09</value>
          <splits>
            <_><var>97</var>
              <quality>1.6355477273464203e-01</quality>
              <le>-5.5527496337890625e-01</le></_></splits></_>
        <_>
          <depth>1</depth>
          <value>3.1003084659369951e-01</value></_>
        <_>
          <depth>1</depth>
          <value>-6.1030042812237084e-01</value></_></nodes></_>
    <_>
      <nodes>
        <_>
          <depth>0</depth>
          <value>-2.8979693728775069e-09</value>
          <splits>
            <_><var>131</var>
              <quality>2.6151448488235474e-01</quality>
              <le>-6.0770249366760254e+00</le></_></splits></_>
        <_>
          <depth>1</depth>
          <value>-9.0681919648906606e-01</value></_>
        <_>
          <depth>1</depth>
          <value>3.8081545418828999e-01</value></_></nodes></_>
    <_>
      <nodes>
        <_>
          <depth>0</depth>
          <value>1.0279338427915253e-02</value>
          <splits>
            <_><var>71</var>
              <quality>1.8241380155086517e-01</quality>
              <le>-1.3933451175689697e+00</le></_></splits></_>
        <_>
          <depth>1</depth>
          <value>6.1208635135323231e-01</value></_>
        <_>
          <depth>1</depth>
          <value>-3.4708290771685035e-01</value></_></nodes></_>
    <_>
      <nodes>
        <_>
          <depth>0</depth>
          <value>-2.6810650024985069e-03</value>
          <splits>
            <_><var>55</var>
              <quality>2.1241246163845062e-01</quality>
              <le>5.7977300882339478e-01</le></_></splits></_>
        <_>
          <depth>1</depth>
          <value>-7.0674348825526800e-01</value></_>
        <_>
          <depth>1</depth>
          <value>3.6614276566291598e-01</value></_></nodes></_>
    <_>
      <nodes>
        <_>
          <depth>0</depth>
          <value>4.1383299509330472e-02</value>
          <splits>
            <_><var>51</var>
              <quality>1.4839531481266022e-01</quality>
              <le>5.8767852783203125e+00</le></_></splits></_>
        <_>
          <depth>1</depth>
          <value>1.9908722976583446e-01</value></_>
        <_>
          <depth>1</depth>
          <value>-1.8459447914797937e+00</value></_></nodes></_>
    <_>
      <nodes>
        <_>
          <depth>0</depth>
          <value>-4.2048583163244939e-02</value>
          <splits>
            <_><var>43</var>
              <quality>1.5710197389125824e-01</quality>
              <le>-1.8743050098419189e+00</le></_></splits></_>
        <_>
          <depth>1</depth>
          <value>-1.1016604187981549e+00</value></_>
        <_>
          <depth>1</depth>
          <value>1.6813235464249934e-01</value></_></nodes></_>
    <_>
      <nodes>
        <_>
          <depth>0</depth>
          <value>8.4978569773920438e-03</value>
          <splits>
            <_><var>108</var>
              <quality>1.3509857654571533e-01</quality>
              <le>-3.4300198554992676e+00</le></_></splits></_>
        <_>
          <depth>1</depth>
          <value>-2.3384480693861143e+00</value></_>
        <_>
          <depth>1</depth>
          <value>1.5021617849023092e-01</value></_></nodes></_>
    <_>
      <nodes>
        <_>
          <depth>0</depth>
          <value>5.7098924518842586e-03</value>
          <splits>
            <_><var>109</var>
              <quality>1.3918986916542053e-01</quality>
              <le>-2.3606400489807129e+00</le></_></splits></_>
        <_>
          <depth>1</depth>
          <value>4.2592217065943938e-01</value></_>
        <_>
          <depth>1</depth>
          <value>-3.7396141883687772e-01</value></_></nodes></_>
    <_>
      <nodes>
        <_>
          <depth>0</depth>
          <value>-9.3141194125119996e-04</value>
          <splits>
            <_><var>113</var>
              <quality>1.6075058281421661e-01</quality>
              <le>1.0538100004196167e+00</le></_></splits></_>
        <_>
          <depth>1</depth>
          <value>-3.7497945791364645e-01</value></_>
        <_>
          <depth>1</depth>
          <value>5.0819139151263204e-01</value></_></nodes></_>
    <_>
      <nodes>
        <_>
          <depth>0</depth>
          <value>-3.2319678552412789e-03</value>
          <splits>
            <_><var>83</var>
              <quality>1.3844716548919678e-01</quality>
              <le>1.8942699432373047e+00</le></_></splits></_>
        <_>
          <depth>1</depth>
          <value>1.8348100493749991e-01</value></_>
        <_>
          <depth>1</depth>
          <value>-1.0475932944987412e+00</value></_></nodes></_>
    <_>
      <nodes>
        <_>
          <depth>0</depth>
          <value>7.1763708750383608e-03</value>
          <splits>
            <_><var>124</var>
              <quality>1.4591048657894135e-01</quality>
              <le>1.1761800050735474e+00</le></_></splits></_>
        <_>
          <depth>1</depth>
          <value>-2.9371469792126043e-01</value></_>
        <_>
          <depth>1</depth>
          <value>5.9222063287974891e-01</value></_></nodes></_>
    <_>
      <nodes>
        <_>
          <depth>0</depth>
          <value>-1.2397262265116445e-02</value>
          <splits>
            <_><var>55</var>
              <quality>1.1057381331920624e-01</quality>
              <le>2.2566599845886230e+00</le></_></splits></_>
        <_>
          <depth>1</depth>
          <value>-3.2323474177992939e-01</value></_>
        <_>
          <depth>1</depth>
          <value>3.8858805808699576e-01</value></_></nodes></_>
    <_>
      <nodes>
        <_>
          <depth>0</depth>
          <value>2.0367405055640699e-02</value>
          <splits>
            <_><var>17</var>
              <quality>1.3074834644794464e-01</quality>
              <le>-1.0243749618530273e+01</le></_></splits></_>
        <_>
          <depth>1</depth>
          <value>-1.1919701793753044e+00</value></_>
        <_>
          <depth>1</depth>
          <value>1.8351217360079289e-01</value></_></nodes></_>
    <_>
      <nodes>
        <_>
          <depth>0</depth>
          <value>-1.0752231565430134e-02</value>
          <splits>
            <_><var>71</var>
              <quality>1.4980407059192657e-01</quality>
              <le>-2.8359251022338867e+00</le></_></splits></_>
        <_>
          <depth>1</depth>
          <value>9.9682581692995087e-01</value></_>
        <_>
          <depth>1</depth>
          <value>-2.1848601215155528e-01</value></_></nodes></_>
    <_>
      <nodes>
        <_>
          <depth>0</depth>
          <value>-1.9847464950882169e-03</value>
          <splits>
            <_><var>97</var>
              <quality>1.0733617097139359e-01</quality>
              <le>5.0672998428344727e+00</le></_></splits></_>
        <_>
          <depth>1</depth>
          <value>1.1131638011452928e-01</value></_>
        <_>
          <depth>1</depth>
          <value>-5.7564577324601141e+00</value></_></nodes></_>
    <_>
      <nodes>
        <_>
          <depth>0</depth>
          <value>-2.7704505433250117e-09</value>
          <splits>
            <_><var>131</var>
              <quality>1.7960342764854431e-01</quality>
              <le>1.9348850250244141e+00</le></_></splits></_>
        <_>
          <depth>1</depth>
          <value>-2.8918468574702466e-01</value></_>
        <_>
          <depth>1</depth>
          <value>8.1147238330299198e-01</value></_></nodes></_>
    <_>
      <nodes>
        <_>
          <depth>0</depth>
          <value>2.1872193119177336e-03</value>
          <splits>
            <_><var>43</var>
              <quality>1.4021141827106476e-01</quality>
              <le>2.1619601249694824e+00</le></_></splits></_>
        <_>
          <depth>1</depth>
          <value>-3.8471918008202749e-01</value></_>
        <_>
          <depth>1</depth>
          <value>4.2591085705417742e-01</value></_></nodes></_>
    <_>
      <nodes>
        <_>
          <depth>0</depth>
          <value>-4.0222630323655919e-03</value>
          <splits>
            <_><var>89</var>
              <quality>1.2867355346679688e-01</quality>
              <le>1.1212350130081177e+00</le></_></splits></_>
        <_>
          <depth>1</depth>
          <value>2.5239712744092496e-01</value></_>
        <_>
          <depth>1</depth>
          <value>-6.0732516053795693e-01</value></_></nodes></_>
    <_>
      <nodes>
        <_>
          <depth>0</depth>
          <value>-6.7473213549016919e-03</value>
          <splits>
            <_><var>1</var>
              <quality>1.3290239870548248e-01</quality>
              <le>-3.5416350364685059e+00</le></_></splits></_>
        <_>
          <depth>1</depth>
          <value>7.9052876869924538e-01</value></_>
        <_>
          <depth>1</depth>
          <value>-2.2032270613038488e-01</value></_></nodes></_>
    <_>
      <nodes>
        <_>
          <depth>0</depth>
          <value>-7.0928623791699343e-03</value>
          <splits>
            <_><var>81</var>
              <quality>1.0242147743701935e-01</quality>
              <le>-8.9331448078155518e-01</le></_></splits></_>
        <_>
          <depth>1</depth>
          <value>-2.1170210919811314e+00</value></_>
        <_>
          <depth>1</depth>
          <value>1.0498985703393986e-01</value></_></nodes></_>
    <_>
      <nodes>
        <_>
          <depth>0</depth>
          <value>-1.6816418131081732e-03</value>
          <splits>
            <_><var>65</var>
              <quality>1.4062523841857910e-01</quality>
              <le>-6.6976952552795410e-01</le></_></splits></_>
        <_>
          <depth>1</depth>
          <value>3.7703686992169338e-01</value></_>
        <_>
          <depth>1</depth>
          <value>-4.3537014148179659e-01</value></_></nodes></_>
    <_>
      <nodes>
        <_>
          <depth>0</depth>
          <value>4.8545647405088769e-03</value>
          <splits>
            <_><var>45</var>
              <quality>1.1534667760133743e-01</quality>
              <le>-4.4099397659301758e+00</le></_></splits></_>
        <_>
          <depth>1</depth>
          <value>-5.7564577324601141e+00</value></_>
        <_>
          <depth>1</depth>
          <value>1.2621557621204516e-01</value></_></nodes></_>
    <_>
      <nodes>
        <_>
          <depth>0</depth>
          <value>-5.9746280138265693e-03</value>
          <splits>
            <_><var>70</var>
              <quality>9.3815371394157410e-02</quality>
              <le>-3.9556151628494263e-01</le></_></splits></_>
        <_>
          <depth>1</depth>
          <value>3.2234695909953459e-01</value></_>
        <_>
          <depth>1</depth>
          <value>-3.2803903228691089e-01</value></_></nodes></_>
    <_>
      <nodes>
        <_>
          <depth>0</depth>
          <value>1.6840515263274851e-03</value>
          <splits>
            <_><var>21</var>
              <quality>8.5732154548168182e-02</quality>
              <le>-4.6310398727655411e-02</le></_></splits></_>
        <_>
          <depth>1</depth>
          <value>-2.2141137531200342e-01</value></_>
        <_>
          <depth>1</depth>
          <value>4.3896784021779300e-01</value></_></nodes></_>
    <_>
      <nodes>
        <_>
          <depth>0</depth>
          <value>-1.1136620459814501e-02</value>
          <splits>
            <_><var>109</var>
              <quality>1.5092298388481140e-01</quality>
              <le>-2.4816751480102539e+00</le></_></splits></_>
        <_>
          <depth>1</depth>
          <value>3.4791890350350041e-01</value></_>
        <_>
          <depth>1</depth>
          <value>-5.0990716022379579e-01</value></_></nodes></_>
    <_>
      <nodes>
        <_>
          <depth>0</depth>
          <value>5.3145337957966219e-03</value>
          <splits>
            <_><var>121</var>
              <quality>1.0166067630052567e-01</quality>
              <le>-1.0546049118041992e+01</le></_></splits></_>
        <_>
          <depth>1</depth>
          <value>-1.0690910190421135e+00</value></_>
        <_>
          <depth>1</depth>
          <value>1.4093400931222055e-01</value></_></nodes></_>
    <_>
      <nodes>
        <_>
          <depth>0</depth>
          <value>-1.6894836436060396e-03</value>
          <splits>
            <_><var>112</var>
              <quality>1.1790862679481506e-01</quality>
              <le>5.8363300561904907e-01</le></_></splits></_>
        <_>
          <depth>1</depth>
          <value>-3.3790273953517458e-01</value></_>
        <_>
          <depth>1</depth>
          <value>4.0185598693725738e-01</value></_></nodes></_>
    <_>
      <nodes>
        <_>
          <depth>0</depth>
          <value>8.2291709394277256e-04</value>
          <splits>
            <_><var>45</var>
              <quality>9.3849942088127136e-02</quality>
              <le>2.2910799980163574e+00</le></_></splits></_>
        <_>
          <depth>1</depth>
          <value>-2.9736037916518332e-01</value></_>
        <_>
          <depth>1</depth>
          <value>3.5589660811137230e-01</value></_></nodes></_>
    <_>
      <nodes>
        <_>
          <depth>0</depth>
          <value>-1.8735968661655542e-03</value>
          <splits>
            <_><var>42</var>
              <quality>7.9327188432216644e-02</quality>
              <le>1.0697050094604492e+00</le></_></splits></_>
        <_>
          <depth>1</depth>
          <value>1.1370218223479803e-01</value></_>
        <_>
          <depth>1</depth>
          <value>-9.2317275089661743e-01</value></_></nodes></_>
    <_>
      <nodes>
        <_>
          <depth>0</depth>
          <value>5.5357517352160228e-03</value>
          <splits>
            <_><var>108</var>
              <quality>7.8229978680610657e-02</quality>
              <le>-2.7349648475646973e+00</le></_></splits></_>
        <_>
          <depth>1</depth>
          <value>-9.2737964603546064e-01</value></_>
        <_>
          <depth>1</depth>
          <value>1.1811002849272728e-01</value></_></nodes></_>
    <_>
      <nodes>
        <_>
          <depth>0</depth>
          <value>-6.5652541082089700e-03</value>
          <splits>
            <_><var>130</var>
              <quality>9.9941790103912354e-02</quality>
              <le>-4.4283300638198853e-01</le></_></splits></_>
        <_>
          <depth>1</depth>
          <value>4.2762136069984208e-01</value></_>
        <_>
          <depth>1</depth>
          <value>-2.6947208417729590e-01</value></_></nodes></_>
    <_>
      <nodes>
        <_>
          <depth>0</depth>
          <value>-9.7973170016688190e-04</value>
          <splits>
            <_><var>67</var>
              <quality>9.9967367947101593e-02</quality>
              <le>-4.0689296722412109e+00</le></_></splits></_>
        <_>
          <depth>1</depth>
          <value>9.4302885252444990e-01</value></_>
        <_>
          <depth>1</depth>
          <value>-1.4465244258342355e-01</value></_></nodes></_>
    <_>
      <nodes>
        <_>
          <depth>0</depth>
          <value>-1.7013130236303008e-04</value>
          <splits>
            <_><var>45</var>
              <quality>1.2004641443490982e-01</quality>
              <le>-5.1156198978424072e-01</le></_></splits></_>
        <_>
          <depth>1</depth>
          <value>-6.9913037936530065e-01</value></_>
        <_>
          <depth>1</depth>
          <value>2.1227657830564223e-01</value></_></nodes></_>
    <_>
      <nodes>
        <_>
          <depth>0</depth>
          <value>-7.3451450926483907e-03</value>
          <splits>
            <_><var>53</var>
              <quality>1.0066267848014832e-01</quality>
              <le>-8.4476852416992188e-01</le></_></splits></_>
        <_>
          <depth>1</depth>
          <value>2.8593351186546379e-01</value></_>
        <_>
          <depth>1</depth>
          <value>-3.9781374582556289e-01</value></_></nodes></_>
    <_>
      <nodes>
        <_>
          <depth>0</depth>
          <value>6.6201325351557131e-03</value>
          <splits>
            <_><var>75</var>
              <quality>1.0639447718858719e-01</quality>
              <le>2.0540399551391602e+00</le></_></splits></_>
        <_>
          <depth>1</depth>
          <value>1.5980637897759575e-01</value></_>
        <_>
          <depth>1</depth>
          <value>-9.3018625383778819e-01</value></_></nodes></_>
    <_>
      <nodes>
        <_>
          <depth>0</depth>
          <value>-8.2327771879721658e-03</value>
          <splits>
            <_><var>74</var>
              <quality>8.8746599853038788e-02</quality>
              <le>2.9914450645446777e-01</le></_></splits></_>
        <_>
          <depth>1</depth>
          <value>-2.2101672626412225e-01</value></_>
        <_>
          <depth>1</depth>
          <value>4.6967546044168235e-01</value></_></nodes></_>
    <_>
      <nodes>
        <_>
          <depth>0</depth>
          <value>-1.7792490427271316e-03</value>
          <splits>
            <_><var>79</var>
              <quality>7.9880885779857635e-02</quality>
              <le>1.1161949634552002e+00</le></_></splits></_>
        <_>
          <depth>1</depth>
          <value>-2.3567479507180147e-01</value></_>
        <_>
          <depth>1</depth>
          <value>3.8198093380725945e-01</value></_></nodes></_>
    <_>
      <nodes>
        <_>
          <depth>0</depth>
          <value>1.6815755185887310e-03</value>
          <splits>
            <_><var>93</var>
              <quality>9.8601587116718292e-02</quality>
              <le>2.0216751098632813e+00</le></_></splits></_>
        <_>
          <depth>1</depth>
          <value>1.4324084074724291e-01</value></_>
        <_>
          <depth>1</depth>
          <value>-9.4292964193032136e-01</value></_></nodes></_>
    <_>
      <nodes>
        <_>
          <depth>0</depth>
          <value>-6.8359213182662814e-03</value>
          <splits>
            <_><var>12</var>
              <quality>8.7932541966438293e-02</quality>
              <le>-3.5043001174926758e+00</le></_></splits></_>
        <_>
          <depth>1</depth>
          <value>1.1031282450240882e+00</value></_>
        <_>
          <depth>1</depth>
          <value>-1.2189788696185962e-01</value></_></nodes></_>
    <_>
      <nodes>
        <_>
          <depth>0</depth>
          <value>-9.1865819539189639e-03</value>
          <splits>
            <_><var>114</var>
              <quality>9.4415098428726196e-02</quality>
              <le>8.0842602252960205e-01</le></_></splits></_>
        <_>
          <depth>1</depth>
          <value>-2.9735342839442941e-01</value></_>
        <_>
          <depth>1</depth>
          <value>3.6073879894447480e-01</value></_></nodes></_>
    <_>
      <nodes>
        <_>
          <depth>0</depth>
          <value>3.4983884608717623e-04</value>
          <splits>
            <_><var>115</var>
              <quality>1.0347829014062881e-01</quality>
              <le>-8.9091497659683228e-01</le></_></splits></_>
        <_>
          <depth>1</depth>
          <value>-3.7134908788401250e-01</value></_>
        <_>
          <depth>1</depth>
          <value>3.1701796034791013e-01</value></_></nodes></_>
    <_>
      <nodes>
        <_>
          <depth>0</depth>
          <value>-6.1442266180048522e-03</value>
          <splits>
            <_><var>43</var>
              <quality>7.6316051185131073e-02</quality>
              <le>2.1244499683380127e+00</le></_></splits></_>
        <_>
          <depth>1</depth>
          <value>-2.4673255151837742e-01</value></_>
        <_>
          <depth>1</depth>
          <value>3.4797684232321263e-01</value></_></nodes></_>
    <_>
      <nodes>
        <_>
          <depth>0</depth>
          <value>-1.9358776744454723e-03</value>
          <splits>
            <_><var>49</var>
              <quality>8.5233107209205627e-02</quality>
              <le>-8.1438803672790527e-01</le></_></splits></_>
        <_>
          <depth>1</depth>
          <value>3.7376973850907080e-01</value></_>
        <_>
          <depth>1</depth>
          <value>-2.5725559713271029e-01</value></_></nodes></_>
    <_>
      <nodes>
        <_>
          <depth>0</depth>
          <value>2.2903372812419485e-03</value>
          <splits>
            <_><var>30</var>
              <quality>7.6564259827136993e-02</quality>
              <le>-2.0458999276161194e-01</le></_></splits></_>
        <_>
          <depth>1</depth>
          <value>2.1718184665308526e-01</value></_>
        <_>
          <depth>1</depth>
          <value>-3.9841236803048613e-01</value></_></nodes></_>
    <_>
      <nodes>
        <_>
          <depth>0</depth>
          <value>1.4274501926483407e-03</value>
          <splits>
            <_><var>66</var>
              <quality>7.2579137980937958e-02</quality>
              <le>-8.8905349373817444e-02</le></_></splits></_>
        <_>
          <depth>1</depth>
          <value>3.4028770118333029e-01</value></_>
        <_>
          <depth>1</depth>
          <value>-2.3705180306684234e-01</value></_></nodes></_>
    <_>
      <nodes>
        <_>
          <depth>0</depth>
          <value>-1.9583503046029416e-03</value>
          <splits>
            <_><var>83</var>
              <quality>6.1104562133550644e-02</quality>
              <le>-4.9292749166488647e-01</le></_></splits></_>
        <_>
          <depth>1</depth>
          <value>-1.0355303646575016e+00</value></_>
        <_>
          <depth>1</depth>
          <value>8.1316158363885685e-02</value></_></nodes></_>
    <_>
      <nodes>
        <_>
          <depth>0</depth>
          <value>2.2136733401954644e-03</value>
          <splits>
            <_><var>55</var>
              <quality>6.8249516189098358e-02</quality>
              <le>-1.0602400302886963e+00</le></_></splits></_>
        <_>
          <depth>1</depth>
          <value>-1.0688457558233611e+00</value></_>
        <_>
          <depth>1</depth>
          <value>9.3293199967781640e-02</value></_></nodes></_>
    <_>
      <nodes>
        <_>
          <depth>0</depth>
          <value>-3.2152770721746763e-03</value>
          <splits>
            <_><var>65</var>
              <quality>7.0158213376998901e-02</quality>
              <le>-2.8782448768615723e+00</le></_></splits></_>
        <_>
          <depth>1</depth>
          <value>5.2284272662955489e-01</value></_>
        <_>
          <depth>1</depth>
          <value>-1.5736467741845561e-01</value></_></nodes></_>
    <_>
      <nodes>
        <_>
          <depth>0</depth>
          <value>2.4371342046029293e-03</value>
          <splits>
            <_><var>43</var>
              <quality>8.2130700349807739e-02</quality>
              <le>1.3030815124511719e-01</le></_></splits></_>
        <_>
          <depth>1</depth>
          <value>-4.5902279858726580e-01</value></_>
        <_>
          <depth>1</depth>
          <value>2.0558944030477214e-01</value></_></nodes></_>
    <_>
      <nodes>
        <_>
          <depth>0</depth>
          <value>-2.3903913406003331e-03</value>
          <splits>
            <_><var>131</var>
              <quality>8.3489142358303070e-02</quality>
              <le>-8.0032043457031250e+00</le></_></splits></_>
        <_>
          <depth>1</depth>
          <value>-5.1129839002473010e-01</value></_>
        <_>
          <depth>1</depth>
          <value>1.8732793600190015e-01</value></_></nodes></_>
    <_>
      <nodes>
        <_>
          <depth>0</depth>
          <value>-2.6812168226803459e-03</value>
          <splits>
            <_><var>97</var>
              <quality>8.7973810732364655e-02</quality>
              <le>-2.7403900623321533e+00</le></_></splits></_>
        <_>
          <depth>1</depth>
          <value>3.3428800755537080e-01</value></_>
        <_>
          <depth>1</depth>
          <value>-2.9592009919407308e-01</value></_></nodes></_>
    <_>
      <nodes>
        <_>
          <depth>0</depth>
          <value>5.9369038094922129e-04</value>
          <splits>
            <_><var>36</var>
              <quality>8.4040962159633636e-02</quality>
              <le>8.9199095964431763e-02</le></_></splits></_>
        <_>
          <depth>1</depth>
          <value>2.7907687066834891e-01</value></_>
        <_>
          <depth>1</depth>
          <value>-3.3768134099323444e-01</value></_></nodes></_>
    <_>
      <nodes>
        <_>
          <depth>0</depth>
          <value>-5.1521168618429373e-03</value>
          <splits>
            <_><var>131</var>
              <quality>8.6906351149082184e-02</quality>
              <le>3.1645100116729736e+00</le></_></splits></_>
        <_>
          <depth>1</depth>
          <value>-1.6929475010512646e-01</value></_>
        <_>
          <depth>1</depth>
          <value>6.2921635013319255e-01</value></_></nodes></_>
    <_>
      <nodes>
        <_>
          <depth>0</depth>
          <value>1.5449303799383710e-03</value>
          <splits>
            <_><var>36</var>
              <quality>6.9930769503116608e-02</quality>
              <le>-2.1024651527404785e+00</le></_></splits></_>
        <_>
          <depth>1</depth>
          <value>-1.3938465538157503e+00</value></_>
        <_>
          <depth>1</depth>
          <value>8.4881046132415053e-02</value></_></nodes></_>
    <_>
      <nodes>
        <_>
          <depth>0</depth>
          <value>-2.8363167750434944e-03</value>
          <splits>
            <_><var>29</var>
              <quality>6.7981958389282227e-02</quality>
              <le>-1.0041500091552734e+01</le></_></splits></_>
        <_>
          <depth>1</depth>
          <value>7.6542807412374381e-01</value></_>
        <_>
          <depth>1</depth>
          <value>-1.1390732892734380e-01</value></_></nodes></_>
    <_>
      <nodes>
        <_>
          <depth>0</depth>
          <value>-7.0868810778166799e-03</value>
          <splits>
            <_><var>19</var>
              <quality>7.2885498404502869e-02</quality>
              <le>-1.0699549674987793e+01</le></_></splits></_>
        <_>
          <depth>1</depth>
          <value>-1.1905042861923181e+00</value></_>
        <_>
          <depth>1</depth>
          <value>8.6245805757413724e-02</value></_></nodes></_>
    <_>
      <nodes>
        <_>
          <depth>0</depth>
          <value>3.2699687150709992e-03</value>
          <splits>
            <_><var>83</var>
              <quality>7.2120063006877899e-02</quality>
              <le>2.2066299915313721e+00</le></_></splits></_>
        <_>
          <depth>1</depth>
          <value>8.5000039577813880e-02</value></_>
        <_>
          <depth>1</depth>
          <value>-1.6438407495870220e+00</value></_></nodes></_>
    <_>
      <nodes>
        <_>
          <depth>0</depth>
          <value>-3.1920844435069534e-03</value>
          <splits>
            <_><var>79</var>
              <quality>9.9107638001441956e-02</quality>
              <le>1.5838400125503540e+00</le></_></splits></_>
        <_>
          <depth>1</depth>
          <value>-1.6884628531689827e-01</value></_>
        <_>
          <depth>1</depth>
          <value>7.4607773716304659e-01</value></_></nodes></_>
    <_>
      <nodes>
        <_>
          <depth>0</depth>
          <value>-7.3511819570075730e-03</value>
          <splits>
            <_><var>95</var>
              <quality>6.4439468085765839e-02</quality>
              <le>5.3896749019622803e-01</le></_></splits></_>
        <_>
          <depth>1</depth>
          <value>2.4000795531332528e-01</value></_>
        <_>
          <depth>1</depth>
          <value>-2.9478202290559063e-01</value></_></nodes></_>
    <_>
      <nodes>
        <_>
          <depth>0</depth>
          <value>-4.4026206913215368e-03</value>
          <splits>
            <_><var>89</var>
              <quality>8.0094262957572937e-02</quality>
              <le>-5.7220449889427982e-06</le></_></splits></_>
        <_>
          <depth>1</depth>
          <value>2.5858505512787616e-01</value></_>
        <_>
          <depth>1</depth>
          <value>-3.4498487306666920e-01</value></_></nodes></_>
    <_>
      <nodes>
        <_>
          <depth>0</depth>
          <value>3.9385618427960805e-03</value>
          <splits>
            <_><var>5</var>
              <quality>9.5120929181575775e-02</quality>
              <le>-3.4218001365661621e+00</le></_></splits></_>
        <_>
          <depth>1</depth>
          <value>5.2949083443826783e-01</value></_>
        <_>
          <depth>1</depth>
          <value>-2.0714167923777263e-01</value></_></nodes></_>
    <_>
      <nodes>
        <_>
          <depth>0</depth>
          <value>-6.0728544599956691e-03</value>
          <splits>
            <_><var>65</var>
              <quality>7.0145137608051300e-02</quality>
              <le>-5.8758550882339478e-01</le></_></splits></_>
        <_>
          <depth>1</depth>
          <value>2.5449344235585919e-01</value></_>
        <_>
          <depth>1</depth>
          <value>-3.0436789779439133e-01</value></_></nodes></_>
    <_>
      <nodes>
        <_>
          <depth>0</depth>
          <value>2.4678072928888128e-03</value>
          <splits>
            <_><var>37</var>
              <quality>6.9378785789012909e-02</quality>
              <le>6.7540597915649414e+00</le></_></splits></_>
        <_>
          <depth>1</depth>
          <value>7.8065153835819467e-02</value></_>
        <_>
          <depth>1</depth>
          <value>-2.0224293476833832e+00</value></_></nodes></_>
    <_>
      <nodes>
        <_>
          <depth>0</depth>
          <value>3.9217420705611053e-03</value>
          <splits>
            <_><var>47</var>
              <quality>1.1141374707221985e-01</quality>
              <le>2.4415102005004883e+00</le></_></splits></_>
        <_>
          <depth>1</depth>
          <value>-3.0409012786494516e-01</value></_>
        <_>
          <depth>1</depth>
          <value>4.1911764620030567e-01</value></_></nodes></_>
    <_>
      <nodes>
        <_>
          <depth>0</depth>
          <value>-8.4754850201924751e-04</value>
          <splits>
            <_><var>13</var>
              <quality>9.0219050645828247e-02</quality>
              <le>-1.0419950485229492e+00</le></_></splits></_>
        <_>
          <depth>1</depth>
          <value>-2.8330883618003649e-01</value></_>
        <_>
          <depth>1</depth>
          <value>3.5911611611155275e-01</value></_></nodes></_>
    <_>
      <nodes>
        <_>
          <depth>0</depth>
          <value>-7.3003592038858459e-03</value>
          <splits>
            <_><var>67</var>
              <quality>9.9549613893032074e-02</quality>
              <le>-4.1296901702880859e+00</le></_></splits></_>
        <_>
          <depth>1</depth>
          <value>8.3266244888416419e-01</value></_>
        <_>
          <depth>1</depth>
          <value>-1.6064848123788922e-01</value></_></nodes></_>
    <_>
      <nodes>
        <_>
          <depth>0</depth>
          <value>3.6138615017469390e-03</value>
          <splits>
            <_><var>128</var>
              <quality>8.1119701266288757e-02</quality>
              <le>-4.3002653121948242e+00</le></_></splits></_>
        <_>
          <depth>1</depth>
          <value>-5.7564577324601141e+00</value></_>
        <_>
          <depth>1</depth>
          <value>8.8927446546633537e-02</value></_></nodes></_>
    <_>
      <nodes>
        <_>
          <depth>0</depth>
          <value>3.7988257519241866e-03</value>
          <splits>
            <_><var>55</var>
              <quality>1.1093039065599442e-01</quality>
              <le>1.1266700029373169e+00</le></_></splits></_>
        <_>
          <depth>1</depth>
          <value>-3.6393896574704515e-01</value></_>
        <_>
          <depth>1</depth>
          <value>3.4854339958823899e-01</value></_></nodes></_>
    <_>
      <nodes>
        <_>
          <depth>0</depth>
          <value>-8.1839117987209174e-04</value>
          <splits>
            <_><var>53</var>
              <quality>9.3007050454616547e-02</quality>
              <le>-1.9953649044036865e+00</le></_></splits></_>
        <_>
          <depth>1</depth>
          <value>4.4003425252427714e-01</value></_>
        <_>
          <depth>1</depth>
          <value>-2.4165005000934692e-01</value></_></nodes></_>
    <_>
      <nodes>
        <_>
          <depth>0</depth>
          <value>2.4964488150201232e-04</value>
          <splits>
            <_><var>97</var>
              <quality>8.2504764199256897e-02</quality>
              <le>1.9132449626922607e+00</le></_></splits></_>
        <_>
          <depth>1</depth>
          <value>1.2080875641146260e-01</value></_>
        <_>
          <depth>1</depth>
          <value>-9.1531531395834365e-01</value></_></nodes></_>
    <_>
      <nodes>
        <_>
          <depth>0</depth>
          <value>-2.7727340053101189e-03</value>
          <splits>
            <_><var>113</var>
              <quality>1.2647865712642670e-01</quality>
              <le>1.9836437422782183e-03</le></_></splits></_>
        <_>
          <depth>1</depth>
          <value>-3.6352563719394182e-01</value></_>
        <_>
          <depth>1</depth>
          <value>4.0314884633769610e-01</value></_></nodes></_>
    <_>
      <nodes>
        <_>
          <depth>0</depth>
          <value>-3.8751040346473040e-03</value>
          <splits>
            <_><var>109</var>
              <quality>9.4002708792686462e-02</quality>
              <le>-3.1263651847839355e+00</le></_></splits></_>
        <_>
          <depth>1</depth>
          <value>3.4346559755432715e-01</value></_>
        <_>
          <depth>1</depth>
          <value>-3.0927305462580768e-01</value></_></nodes></_>
    <_>
      <nodes>
        <_>
          <depth>0</depth>
          <value>1.5275514063608569e-03</value>
          <splits>
            <_><var>121</var>
              <quality>1.0649078339338303e-01</quality>
              <le>-1.0594449996948242e+01</le></_></splits></_>
        <_>
          <depth>1</depth>
          <value>-1.1468084221222528e+00</value></_>
        <_>
          <depth>1</depth>
          <value>1.3945526636528949e-01</value></_></nodes></_>
    <_>
      <nodes>
        <_>
          <depth>0</depth>
          <value>-1.1505094141518722e-03</value>
          <splits>
            <_><var>109</var>
              <quality>8.4327951073646545e-02</quality>
              <le>-5.3268098831176758e+00</le></_></splits></_>
        <_>
          <depth>1</depth>
          <value>5.6203383705226440e-01</value></_>
        <_>
          <depth>1</depth>
          <value>-1.7684114577571317e-01</value></_></nodes></_>
    <_>
      <nodes>
        <_>
          <depth>0</depth>
          <value>-9.0663728465258293e-04</value>
          <splits>
            <_><var>21</var>
              <quality>1.0377165675163269e-01</quality>
              <le>1.2262949943542480e+00</le></_></splits></_>
        <_>
          <depth>1</depth>
          <value>-2.0493499235479842e-01</value></_>
        <_>
          <depth>1</depth>
          <value>6.0713507627852092e-01</value></_></nodes></_>
    <_>
      <nodes>
        <_>
          <depth>0</depth>
          <value>-4.6040981762246087e-03</value>
          <splits>
            <_><var>128</var>
              <quality>8.5009671747684479e-02</quality>
              <le>-1.4700200557708740e+00</le></_></splits></_>
        <_>
          <depth>1</depth>
          <value>6.1127489794572609e-01</value></_>
        <_>
          <depth>1</depth>
          <value>-1.6901205209634762e-01</value></_></nodes></_>
    <_>
      <nodes>
        <_>
          <depth>0</depth>
          <value>1.7349443842700518e-04</value>
          <splits>
            <_><var>122</var>
              <quality>9.5119118690490723e-02</quality>
              <le>1.9985600709915161e+00</le></_></splits></_>
        <_>
          <depth>1</depth>
          <value>-1.6192173888241509e-01</value></_>
        <_>
          <depth>1</depth>
          <value>7.3052218581963269e-01</value></_></nodes></_>
    <_>
      <nodes>
        <_>
          <depth>0</depth>
          <value>-4.1520219893161226e-03</value>
          <splits>
            <_><var>47</var>
              <quality>9.7641259431838989e-02</quality>
              <le>2.3814802169799805e+00</le></_></splits></_>
        <_>
          <depth>1</depth>
          <value>-3.0713881766273349e-01</value></_>
        <_>
          <depth>1</depth>
          <value>3.6063111201100045e-01</value></_></nodes></_>
    <_>
      <nodes>
        <_>
          <depth>0</depth>
          <value>1.7766537558844750e-04</value>
          <splits>
            <_><var>103</var>
              <quality>1.3526329398155212e-01</quality>
              <le>1.1367349624633789e+00</le></_></splits></_>
        <_>
          <depth>1</depth>
          <value>2.6120173210353625e-01</value></_>
        <_>
          <depth>1</depth>
          <value>-6.2976614777545770e-01</value></_></nodes></_>
    <_>
      <nodes>
        <_>
          <depth>0</depth>
          <value>-3.7672084286365522e-03</value>
          <splits>
            <_><var>88</var>
              <quality>8.8513314723968506e-02</quality>
              <le>-2.2048950195312500e-01</le></_></splits></_>
        <_>
          <depth>1</depth>
          <value>-5.3544836235106308e-01</value></_>
        <_>
          <depth>1</depth>
          <value>1.9030609605612242e-01</value></_></nodes></_>
    <_>
      <nodes>
        <_>
          <depth>0</depth>
          <value>-6.8720238992824286e-03</value>
          <splits>
            <_><var>3</var>
              <quality>7.9657405614852905e-02</quality>
              <le>-4.0488653182983398e+00</le></_></splits></_>
        <_>
          <depth>1</depth>
          <value>5.7341186982181580e-01</value></_>
        <_>
          <depth>1</depth>
          <value>-1.6818983669295079e-01</value></_></nodes></_>
    <_>
      <nodes>
        <_>
          <depth>0</depth>
          <value>-1.5400523238786187e-03</value>
          <splits>
            <_><var>131</var>
              <quality>8.0138720571994781e-02</quality>
              <le>-8.0232200622558594e+00</le></_></splits></_>
        <_>
          <depth>1</depth>
          <value>-7.0527375826002103e-01</value></_>
        <_>
          <depth>1</depth>
          <value>1.3851713785383291e-01</value></_></nodes></_>
    <_>
      <nodes>
        <_>
          <depth>0</depth>
          <value>-1.5334760418489026e-04</value>
          <splits>
            <_><var>94</var>
              <quality>6.8087227642536163e-02</quality>
              <le>-3.2010650634765625e-01</le></_></splits></_>
        <_>
          <depth>1</depth>
          <value>4.4809875001222321e-01</value></_>
        <_>
          <depth>1</depth>
          <value>-1.7228876431738582e-01</value></_></nodes></_>
    <_>
      <nodes>
        <_>
          <depth>0</depth>
          <value>5.6746082794045740e-04</value>
          <splits>
            <_><var>24</var>
              <quality>8.5765197873115540e-02</quality>
              <le>1.0942349433898926e+00</le></_></splits></_>
        <_>
          <depth>1</depth>
          <value>-2.0404050977372992e-01</value></_>
        <_>
          <depth>1</depth>
          <value>4.8221098543973262e-01</value></_></nodes></_>
    <_>
      <nodes>
        <_>
          <depth>0</depth>
          <value>-8.8315889299599454e-03</value>
          <splits>
            <_><var>43</var>
              <quality>8.2471124827861786e-02</quality>
              <le>2.5304400920867920e-01</le></_></splits></_>
        <_>
          <depth>1</depth>
          <value>-4.4714707013882887e-01</value></_>
        <_>
          <depth>1</depth>
          <value>2.0517855042196470e-01</value></_></nodes></_>
    <_>
      <nodes>
        <_>
          <depth>0</depth>
          <value>-2.9348639316025462e-03</value>
          <splits>
            <_><var>53</var>
              <quality>8.8285058736801147e-02</quality>
              <le>-1.0119149684906006e+00</le></_></splits></_>
        <_>
          <depth>1</depth>
          <value>3.0044680826822012e-01</value></_>
        <_>
          <depth>1</depth>
          <value>-3.2986455625106681e-01</value></_></nodes></_>
    <_>
      <nodes>
        <_>
          <depth>0</depth>
          <value>1.5600641013555714e-03</value>
          <splits>
            <_><var>75</var>
              <quality>7.6884604990482330e-02</quality>
              <le>2.0540399551391602e+00</le></_></splits></_>
        <_>
          <depth>1</depth>
          <value>1.0939491588959560e-01</value></_>
        <_>
          <depth>1</depth>
          <value>-9.7752092239201471e-01</value></_></nodes></_>
    <_>
      <nodes>
        <_>
          <depth>0</depth>
          <value>-2.2008562384323630e-03</value>
          <splits>
            <_><var>83</var>
              <quality>8.9277490973472595e-02</quality>
              <le>2.0862200260162354e+00</le></_></splits></_>
        <_>
          <depth>1</depth>
          <value>1.2067093372696924e-01</value></_>
        <_>
          <depth>1</depth>
          <value>-1.0223893518023863e+00</value></_></nodes></_>
    <_>
      <nodes>
        <_>
          <depth>0</depth>
          <value>-6.0570991148089738e-03</value>
          <splits>
            <_><var>83</var>
              <quality>9.6905380487442017e-02</quality>
              <le>8.4857955574989319e-02</le></_></splits></_>
        <_>
          <depth>1</depth>
          <value>-4.2874165562893324e-01</value></_>
        <_>
          <depth>1</depth>
          <value>2.5544571008366113e-01</value></_></nodes></_>
    <_>
      <nodes>
        <_>
          <depth>0</depth>
          <value>2.6712710286041223e-03</value>
          <splits>
            <_><var>109</var>
              <quality>8.0434799194335938e-02</quality>
              <le>-2.2421450614929199e+00</le></_></splits></_>
        <_>
          <depth>1</depth>
          <value>2.7441897873816901e-01</value></_>
        <_>
          <depth>1</depth>
          <value>-3.2807461775231972e-01</value></_></nodes></_>
    <_>
      <nodes>
        <_>
          <depth>0</depth>
          <value>-7.2323972053180943e-04</value>
          <splits>
            <_><var>104</var>
              <quality>7.7208384871482849e-02</quality>
              <le>-2.7879700660705566e+00</le></_></splits></_>
        <_>
          <depth>1</depth>
          <value>1.3513055733377206e+00</value></_>
        <_>
          <depth>1</depth>
          <value>-9.3873562082356046e-02</value></_></nodes></_>
    <_>
      <nodes>
        <_>
          <depth>0</depth>
          <value>-5.4207715583776154e-03</value>
          <splits>
            <_><var>39</var>
              <quality>6.5900593996047974e-02</quality>
              <le>-5.5552649497985840e+00</le></_></splits></_>
        <_>
          <depth>1</depth>
          <value>-5.7564577324601141e+00</value></_>
        <_>
          <depth>1</depth>
          <value>6.4400537935712099e-02</value></_></nodes></_>
    <_>
      <nodes>
        <_>
          <depth>0</depth>
          <value>7.0468796802224884e-02</value>
          <splits>
            <_><var>42</var>
              <quality>1.3733601570129395e-01</quality>
              <le>-8.6961352825164795e-01</le></_></splits></_>
        <_>
          <depth>1</depth>
          <value>3.9494834706923904e-01</value></_>
        <_>
          <depth>1</depth>
          <value>-4.0855126058603414e-01</value></_></nodes></_>
    <_>
      <nodes>
        <_>
          <depth>0</depth>
          <value>-3.0138456138325024e-03</value>
          <splits>
            <_><var>17</var>
              <quality>1.0059758275747299e-01</quality>
              <le>7.2536897659301758e+00</le></_></splits></_>
        <_>
          <depth>1</depth>
          <value>-1.2088555356415560e-01</value></_>
        <_>
          <depth>1</depth>
          <value>1.4718248198832038e+00</value></_></nodes></_>
    <_>
      <nodes>
        <_>
          <depth>0</depth>
          <value>2.5891006423359294e-04</value>
          <splits>
            <_><var>74</var>
              <quality>1.1252038925886154e-01</quality>
              <le>8.1739449501037598e-01</le></_></splits></_>
        <_>
          <depth>1</depth>
          <value>-2.5400522198039505e-01</value></_>
        <_>
          <depth>1</depth>
          <value>5.1818043719192197e-01</value></_></nodes></_>
    <_>
      <nodes>
        <_>
          <depth>0</depth>
          <value>4.1952996209425435e-03</value>
          <splits>
            <_><var>120</var>
              <quality>7.5979031622409821e-02</quality>
              <le>2.2865299880504608e-01</le></_></splits></_>
        <_>
          <depth>1</depth>
          <value>-2.7709668109660285e-01</value></_>
        <_>
          <depth>1</depth>
          <value>3.0478687501394458e-01</value></_></nodes></_>
    <_>
      <nodes>
        <_>
          <depth>0</depth>
          <value>-5.4835818713286366e-04</value>
          <splits>
            <_><var>97</var>
              <quality>9.6817359328269958e-02</quality>
              <le>1.4272450208663940e+00</le></_></splits></_>
        <_>
          <depth>1</depth>
          <value>1.3151895867837315e-01</value></_>
        <_>
          <depth>1</depth>
          <value>-1.0378505520690664e+00</value></_></nodes></_>
    <_>
      <nodes>
        <_>
          <depth>0</depth>
          <value>2.4320660062404452e-04</value>
          <splits>
            <_><var>21</var>
              <quality>1.3992135226726532e-01</quality>
              <le>1.1315155029296875e-01</le></_></splits></_>
        <_>
          <depth>1</depth>
          <value>-2.6186375806739515e-01</value></_>
        <_>
          <depth>1</depth>
          <value>6.5502237917752981e-01</value></_></nodes></_></trees></opencv_ml_boost>
</opencv_storage>
