<?xml version="1.0"?>
<opencv_storage>
<opencv_ml_boost>
  <format>3</format>
  <is_classifier>1</is_classifier>
  <var_all>137</var_all>
  <var_count>136</var_count>
  <ord_var_count>136</ord_var_count>
  <cat_var_count>1</cat_var_count>
  <training_params>
    <boosting_type>RealAdaboost</boosting_type>
    <use_surrogates>0</use_surrogates>
    <max_categories>10</max_categories>
    <regression_accuracy>9.9999997764825821e-03</regression_accuracy>
    <max_depth>1</max_depth>
    <min_sample_count>10</min_sample_count>
    <cross_validation_folds>0</cross_validation_folds>
    <weight_trimming_rate>9.4999999999999996e-01</weight_trimming_rate></training_params>
  <global_var_idx>1</global_var_idx>
  <var_idx>
    0 1 2 3 4 5 6 7 8 9 10 11 12 13 14 15 16 17 18 19 20 21 22 23 24 25
    26 27 28 29 30 31 32 33 34 35 36 37 38 39 40 41 42 43 44 45 46 47 48
    49 50 51 52 53 54 55 56 57 58 59 60 61 62 63 64 65 66 67 68 69 70 71
    72 73 74 75 76 77 78 79 80 81 82 83 84 85 86 87 88 89 90 91 92 93 94
    95 96 97 98 99 100 101 102 103 104 105 106 107 108 109 110 111 112
    113 114 115 116 117 118 119 120 121 122 123 124 125 126 127 128 129
    130 131 132 133 134 135</var_idx>
  <var_type>
    0 0 0 0 0 0 0 0 0 0 0 0 0 0 0 0 0 0 0 0 0 0 0 0 0 0 0 0 0 0 0 0 0 0
    0 0 0 0 0 0 0 0 0 0 0 0 0 0 0 0 0 0 0 0 0 0 0 0 0 0 0 0 0 0 0 0 0 0
    0 0 0 0 0 0 0 0 0 0 0 0 0 0 0 0 0 0 0 0 0 0 0 0 0 0 0 0 0 0 0 0 0 0
    0 0 0 0 0 0 0 0 0 0 0 0 0 0 0 0 0 0 0 0 0 0 0 0 0 0 0 0 0 0 0 0 0 0
    1</var_type>
  <cat_ofs>
    0 0 0 0 0 0 0 0 0 0 0 0 0 0 0 0 0 0 0 0 0 0 0 0 0 0 0 0 0 0 0 0 0 0
    0 0 0 0 0 0 0 0 0 0 0 0 0 0 0 0 0 0 0 0 0 0 0 0 0 0 0 0 0 0 0 0 0 0
    0 0 0 0 0 0 0 0 0 0 0 0 0 0 0 0 0 0 0 0 0 0 0 0 0 0 0 0 0 0 0 0 0 0
    0 0 0 0 0 0 0 0 0 0 0 0 0 0 0 0 0 0 0 0 0 0 0 0 0 0 0 0 0 0 0 0 0 0
    0 0 0 0 0 0 0 0 0 0 0 0 0 0 0 0 0 0 0 0 0 0 0 0 0 0 0 0 0 0 0 0 0 0
    0 0 0 0 0 0 0 0 0 0 0 0 0 0 0 0 0 0 0 0 0 0 0 0 0 0 0 0 0 0 0 0 0 0
    0 0 0 0 0 0 0 0 0 0 0 0 0 0 0 0 0 0 0 0 0 0 0 0 0 0 0 0 0 0 0 0 0 0
    0 0 0 0 0 0 0 0 0 0 0 0 0 0 0 0 0 0 0 0 0 0 0 0 0 0 0 0 0 0 0 0 0 0</cat_ofs>
  <class_labels>
    -1 1</class_labels>
  <missing_subst>
    0. 0. 0. 0. 0. 0. 0. 0. 0. 0. 0. 0. 0. 0. 0. 0. 0. 0. 0. 0. 0. 0. 0.
    0. 0. 0. 0. 0. 0. 0. 0. 0. 0. 0. 0. 0. 0. 0. 0. 0. 0. 0. 0. 0. 0. 0.
    0. 0. 0. 0. 0. 0. 0. 0. 0. 0. 0. 0. 0. 0. 0. 0. 0. 0. 0. 0. 0. 0. 0.
    0. 0. 0. 0. 0. 0. 0. 0. 0. 0. 0. 0. 0. 0. 0. 0. 0. 0. 0. 0. 0. 0. 0.
    0. 0. 0. 0. 0. 0. 0. 0. 0. 0. 0. 0. 0. 0. 0. 0. 0. 0. 0. 0. 0. 0. 0.
    0. 0. 0. 0. 0. 0. 0. 0. 0. 0. 0. 0. 0. 0. 0. 0. 0. 0. 0. 0. 0. 0.</missing_subst>
  <ntrees>100</ntrees>
  <trees>
    <_>
      <nodes>
        <_>
          <depth>0</depth>
          <value>-1.7536886168517150e+00</value>
          <splits>
            <_><var>113</var>
              <quality>8.9400935173034668e-01</quality>
              <le>5.5612897872924805e-01</le></_></splits></_>
        <_>
          <depth>1</depth>
          <value>-2.8568664027547128e+00</value></_>
        <_>
          <depth>1</depth>
          <value>-1.1142385604201515e+00</value></_></nodes></_>
    <_>
      <nodes>
        <_>
          <depth>0</depth>
          <value>2.4787919102387868e-08</value>
          <splits>
            <_><var>108</var>
              <quality>3.4406992793083191e-01</quality>
              <le>-8.1687903404235840e-01</le></_></splits></_>
        <_>
          <depth>1</depth>
          <value>4.9533979681676571e-01</value></_>
        <_>
          <depth>1</depth>
          <value>-9.7413636956689165e-01</value></_></nodes></_>
    <_>
      <nodes>
        <_>
          <depth>0</depth>
          <value>5.0804024882427121e-02</value>
          <splits>
            <_><var>105</var>
              <quality>4.2516157031059265e-01</quality>
              <le>1.5850799083709717e+00</le></_></splits></_>
        <_>
          <depth>1</depth>
          <value>5.1453330923497265e-01</value></_>
        <_>
          <depth>1</depth>
          <value>-5.7564577324601141e+00</value></_></nodes></_>
    <_>
      <nodes>
        <_>
          <depth>0</depth>
          <value>-1.0701956853779873e-01</value>
          <splits>
            <_><var>120</var>
              <quality>4.2103692889213562e-01</quality>
              <le>2.3975150585174561e+00</le></_></splits></_>
        <_>
          <depth>1</depth>
          <value>-8.3574837258162482e-01</value></_>
        <_>
          <depth>1</depth>
          <value>7.0009188540393652e-01</value></_></nodes></_>
    <_>
      <nodes>
        <_>
          <depth>0</depth>
          <value>-5.1259529661637723e-09</value>
          <splits>
            <_><var>42</var>
              <quality>2.6150274276733398e-01</quality>
              <le>3.3433151245117188e-01</le></_></splits></_>
        <_>
          <depth>1</depth>
          <value>-6.1410930217869297e-01</value></_>
        <_>
          <depth>1</depth>
          <value>5.2175050338538576e-01</value></_></nodes></_>
    <_>
      <nodes>
        <_>
          <depth>0</depth>
          <value>2.3751811817152441e-02</value>
          <splits>
            <_><var>131</var>
              <quality>3.1337484717369080e-01</quality>
              <le>-3.5370600223541260e+00</le></_></splits></_>
        <_>
          <depth>1</depth>
          <value>-5.7564577324601141e+00</value></_>
        <_>
          <depth>1</depth>
          <value>3.5125062551509834e-01</value></_></nodes></_>
    <_>
      <nodes>
        <_>
          <depth>0</depth>
          <value>6.8188847436523924e-09</value>
          <splits>
            <_><var>61</var>
              <quality>1.7932413518428802e-01</quality>
              <le>-1.4995950460433960e-01</le></_></splits></_>
        <_>
          <depth>1</depth>
          <value>3.0250419881674012e-01</value></_>
        <_>
          <depth>1</depth>
          <value>-7.5523494489737775e-01</value></_></nodes></_>
    <_>
      <nodes>
        <_>
          <depth>0</depth>
          <value>1.1044075165733610e-02</value>
          <splits>
            <_><var>37</var>
              <quality>1.9631038606166840e-01</quality>
              <le>-6.6485202312469482e-01</le></_></splits></_>
        <_>
          <depth>1</depth>
          <value>-6.7420546415456839e-01</value></_>
        <_>
          <depth>1</depth>
          <value>3.6927654723322417e-01</value></_></nodes></_>
    <_>
      <nodes>
        <_>
          <depth>0</depth>
          <value>-8.4554457038811068e-03</value>
          <splits>
            <_><var>124</var>
              <quality>1.9072513282299042e-01</quality>
              <le>2.8729448318481445e+00</le></_></splits></_>
        <_>
          <depth>1</depth>
          <value>-2.1811446966671166e-01</value></_>
        <_>
          <depth>1</depth>
          <value>1.9657275262406524e+00</value></_></nodes></_>
    <_>
      <nodes>
        <_>
          <depth>0</depth>
          <value>-1.3648156844487511e-02</value>
          <splits>
            <_><var>114</var>
              <quality>2.9621031880378723e-01</quality>
              <le>-1.0202898979187012e+00</le></_></splits></_>
        <_>
          <depth>1</depth>
          <value>5.3000962346402125e-01</value></_>
        <_>
          <depth>1</depth>
          <value>-7.4839057587526847e-01</value></_></nodes></_>
    <_>
      <nodes>
        <_>
          <depth>0</depth>
          <value>1.1641807516463626e-02</value>
          <splits>
            <_><var>108</var>
              <quality>1.8022683262825012e-01</quality>
              <le>-3.2543601989746094e+00</le></_></splits></_>
        <_>
          <depth>1</depth>
          <value>4.9131154414223532e-01</value></_>
        <_>
          <depth>1</depth>
          <value>-4.3843876730750281e-01</value></_></nodes></_>
    <_>
      <nodes>
        <_>
          <depth>0</depth>
          <value>1.6764052652493269e-02</value>
          <splits>
            <_><var>1</var>
              <quality>2.8057894110679626e-01</quality>
              <le>3.1366348266601563e-01</le></_></splits></_>
        <_>
          <depth>1</depth>
          <value>4.0231494258730310e-01</value></_>
        <_>
          <depth>1</depth>
          <value>-1.0739180346748860e+00</value></_></nodes></_>
    <_>
      <nodes>
        <_>
          <depth>0</depth>
          <value>-1.3948639136213036e-02</value>
          <splits>
            <_><var>56</var>
              <quality>1.7367015779018402e-01</quality>
              <le>-6.9567096233367920e-01</le></_></splits></_>
        <_>
          <depth>1</depth>
          <value>-2.2044691161437520e+00</value></_>
        <_>
          <depth>1</depth>
          <value>1.7778375544411065e-01</value></_></nodes></_>
    <_>
      <nodes>
        <_>
          <depth>0</depth>
          <value>-1.6733075272948553e-02</value>
          <splits>
            <_><var>0</var>
              <quality>1.7736108601093292e-01</quality>
              <le>-1.5958049893379211e-01</le></_></splits></_>
        <_>
          <depth>1</depth>
          <value>4.5787962577740488e-01</value></_>
        <_>
          <depth>1</depth>
          <value>-4.6541827047480477e-01</value></_></nodes></_>
    <_>
      <nodes>
        <_>
          <depth>0</depth>
          <value>6.9474424533271448e-03</value>
          <splits>
            <_><var>109</var>
              <quality>1.8973037600517273e-01</quality>
              <le>1.8243550062179565e+00</le></_></splits></_>
        <_>
          <depth>1</depth>
          <value>-5.1543934000751546e-01</value></_>
        <_>
          <depth>1</depth>
          <value>4.4995107690004377e-01</value></_></nodes></_>
    <_>
      <nodes>
        <_>
          <depth>0</depth>
          <value>6.5660548803821829e-03</value>
          <splits>
            <_><var>28</var>
              <quality>1.9833303987979889e-01</quality>
              <le>-3.4115300178527832e+00</le></_></splits></_>
        <_>
          <depth>1</depth>
          <value>1.5210968932632476e+00</value></_>
        <_>
          <depth>1</depth>
          <value>-2.2834066371340653e-01</value></_></nodes></_>
    <_>
      <nodes>
        <_>
          <depth>0</depth>
          <value>-1.1205524621477099e-02</value>
          <splits>
            <_><var>115</var>
              <quality>2.8208845853805542e-01</quality>
              <le>1.9712699651718140e+00</le></_></splits></_>
        <_>
          <depth>1</depth>
          <value>-9.2369462105109323e-01</value></_>
        <_>
          <depth>1</depth>
          <value>4.2742042619524795e-01</value></_></nodes></_>
    <_>
      <nodes>
        <_>
          <depth>0</depth>
          <value>9.1021744048057178e-03</value>
          <splits>
            <_><var>37</var>
              <quality>3.1325188279151917e-01</quality>
              <le>-2.9234099388122559e+00</le></_></splits></_>
        <_>
          <depth>1</depth>
          <value>-1.9991681468001123e+00</value></_>
        <_>
          <depth>1</depth>
          <value>3.6304392538966840e-01</value></_></nodes></_>
    <_>
      <nodes>
        <_>
          <depth>0</depth>
          <value>-2.1226049941181976e-02</value>
          <splits>
            <_><var>77</var>
              <quality>1.9834029674530029e-01</quality>
              <le>4.7715198993682861e-01</le></_></splits></_>
        <_>
          <depth>1</depth>
          <value>-3.0180572483714346e-01</value></_>
        <_>
          <depth>1</depth>
          <value>9.6241734291216174e-01</value></_></nodes></_>
    <_>
      <nodes>
        <_>
          <depth>0</depth>
          <value>-6.8109360514845060e-03</value>
          <splits>
            <_><var>74</var>
              <quality>1.7979288101196289e-01</quality>
              <le>-7.2661197185516357e-01</le></_></splits></_>
        <_>
          <depth>1</depth>
          <value>8.3327195512356833e-01</value></_>
        <_>
          <depth>1</depth>
          <value>-2.8911969581500097e-01</value></_></nodes></_>
    <_>
      <nodes>
        <_>
          <depth>0</depth>
          <value>-6.2768217940840833e-03</value>
          <splits>
            <_><var>54</var>
              <quality>1.6877564787864685e-01</quality>
              <le>5.7463800907135010e-01</le></_></splits></_>
        <_>
          <depth>1</depth>
          <value>-3.6916004125536916e-01</value></_>
        <_>
          <depth>1</depth>
          <value>5.5685993606488504e-01</value></_></nodes></_>
    <_>
      <nodes>
        <_>
          <depth>0</depth>
          <value>-4.8291460160668912e-03</value>
          <splits>
            <_><var>120</var>
              <quality>2.7249079942703247e-01</quality>
              <le>2.7025699615478516e+00</le></_></splits></_>
        <_>
          <depth>1</depth>
          <value>-5.4660059084135926e-01</value></_>
        <_>
          <depth>1</depth>
          <value>6.5761021137341724e-01</value></_></nodes></_>
    <_>
      <nodes>
        <_>
          <depth>0</depth>
          <value>1.6185861568557497e-03</value>
          <splits>
            <_><var>83</var>
              <quality>2.2365593910217285e-01</quality>
              <le>9.9301499128341675e-01</le></_></splits></_>
        <_>
          <depth>1</depth>
          <value>3.9478934626782874e-01</value></_>
        <_>
          <depth>1</depth>
          <value>-7.3838588808203665e-01</value></_></nodes></_>
    <_>
      <nodes>
        <_>
          <depth>0</depth>
          <value>-1.4527913515694034e-02</value>
          <splits>
            <_><var>101</var>
              <quality>1.4612747728824615e-01</quality>
              <le>-1.5153700113296509e+00</le></_></splits></_>
        <_>
          <depth>1</depth>
          <value>6.0999825282093945e-01</value></_>
        <_>
          <depth>1</depth>
          <value>-2.9779459658061880e-01</value></_></nodes></_>
    <_>
      <nodes>
        <_>
          <depth>0</depth>
          <value>-4.8321281098585526e-03</value>
          <splits>
            <_><var>17</var>
              <quality>1.7780947685241699e-01</quality>
              <le>1.3746950626373291e+00</le></_></splits></_>
        <_>
          <depth>1</depth>
          <value>-3.8008369337913400e-01</value></_>
        <_>
          <depth>1</depth>
          <value>5.7383656285904439e-01</value></_></nodes></_>
    <_>
      <nodes>
        <_>
          <depth>0</depth>
          <value>1.0029222248786576e-03</value>
          <splits>
            <_><var>32</var>
              <quality>1.4144533872604370e-01</quality>
              <le>1.1369149684906006e+00</le></_></splits></_>
        <_>
          <depth>1</depth>
          <value>2.1405196078454269e-01</value></_>
        <_>
          <depth>1</depth>
          <value>-8.8416401174991488e-01</value></_></nodes></_>
    <_>
      <nodes>
        <_>
          <depth>0</depth>
          <value>-1.0479599685068374e-02</value>
          <splits>
            <_><var>97</var>
              <quality>1.6498360037803650e-01</quality>
              <le>1.5906350612640381e+00</le></_></splits></_>
        <_>
          <depth>1</depth>
          <value>-4.8493239015284884e-01</value></_>
        <_>
          <depth>1</depth>
          <value>4.0501631110162178e-01</value></_></nodes></_>
    <_>
      <nodes>
        <_>
          <depth>0</depth>
          <value>3.5470431818432238e-03</value>
          <splits>
            <_><var>61</var>
              <quality>2.0283639430999756e-01</quality>
              <le>-2.2048249244689941e+00</le></_></splits></_>
        <_>
          <depth>1</depth>
          <value>-1.5427053402478257e+00</value></_>
        <_>
          <depth>1</depth>
          <value>2.4120381908905483e-01</value></_></nodes></_>
    <_>
      <nodes>
        <_>
          <depth>0</depth>
          <value>-8.7365097590869408e-03</value>
          <splits>
            <_><var>130</var>
              <quality>1.8791274726390839e-01</quality>
              <le>-7.7858000993728638e-01</le></_></splits></_>
        <_>
          <depth>1</depth>
          <value>4.1111491514236420e-01</value></_>
        <_>
          <depth>1</depth>
          <value>-5.5662371861125259e-01</value></_></nodes></_>
    <_>
      <nodes>
        <_>
          <depth>0</depth>
          <value>-4.4202883342084207e-04</value>
          <splits>
            <_><var>82</var>
              <quality>2.2036156058311462e-01</quality>
              <le>1.0787799358367920e+00</le></_></splits></_>
        <_>
          <depth>1</depth>
          <value>-2.6468594717397131e-01</value></_>
        <_>
          <depth>1</depth>
          <value>1.4625945069600823e+00</value></_></nodes></_>
    <_>
      <nodes>
        <_>
          <depth>0</depth>
          <value>-5.5647026634595819e-03</value>
          <splits>
            <_><var>98</var>
              <quality>1.7002192139625549e-01</quality>
              <le>1.0907249450683594e+00</le></_></splits></_>
        <_>
          <depth>1</depth>
          <value>-3.8280054787074297e-01</value></_>
        <_>
          <depth>1</depth>
          <value>5.3904014636935838e-01</value></_></nodes></_>
    <_>
      <nodes>
        <_>
          <depth>0</depth>
          <value>-4.3210134528666178e-03</value>
          <splits>
            <_><var>116</var>
              <quality>1.5531203150749207e-01</quality>
              <le>-2.2481298446655273e+00</le></_></splits></_>
        <_>
          <depth>1</depth>
          <value>6.7360894763343981e-01</value></_>
        <_>
          <depth>1</depth>
          <value>-2.8843773886266699e-01</value></_></nodes></_>
    <_>
      <nodes>
        <_>
          <depth>0</depth>
          <value>3.5452012922362877e-03</value>
          <splits>
            <_><var>33</var>
              <quality>1.2345173954963684e-01</quality>
              <le>2.2265501022338867e+00</le></_></splits></_>
        <_>
          <depth>1</depth>
          <value>1.8540948667865839e-01</value></_>
        <_>
          <depth>1</depth>
          <value>-9.0669055027207168e-01</value></_></nodes></_>
    <_>
      <nodes>
        <_>
          <depth>0</depth>
          <value>-3.4615742439627691e-03</value>
          <splits>
            <_><var>61</var>
              <quality>1.2764324247837067e-01</quality>
              <le>-1.3379649817943573e-01</le></_></splits></_>
        <_>
          <depth>1</depth>
          <value>2.3803271992975397e-01</value></_>
        <_>
          <depth>1</depth>
          <value>-6.4779353125679595e-01</value></_></nodes></_>
    <_>
      <nodes>
        <_>
          <depth>0</depth>
          <value>-3.7589620407046015e-04</value>
          <splits>
            <_><var>115</var>
              <quality>1.3629589974880219e-01</quality>
              <le>2.1998448371887207e+00</le></_></splits></_>
        <_>
          <depth>1</depth>
          <value>-4.2460799281962480e-01</value></_>
        <_>
          <depth>1</depth>
          <value>3.7458457026032055e-01</value></_></nodes></_>
    <_>
      <nodes>
        <_>
          <depth>0</depth>
          <value>2.7147157487014753e-03</value>
          <splits>
            <_><var>37</var>
              <quality>1.7903149127960205e-01</quality>
              <le>-7.6076602935791016e-01</le></_></splits></_>
        <_>
          <depth>1</depth>
          <value>-1.0774461267452289e+00</value></_>
        <_>
          <depth>1</depth>
          <value>2.4453354382446349e-01</value></_></nodes></_>
    <_>
      <nodes>
        <_>
          <depth>0</depth>
          <value>-9.4464061392755241e-04</value>
          <splits>
            <_><var>15</var>
              <quality>1.5456184744834900e-01</quality>
              <le>-5.0302000045776367e+00</le></_></splits></_>
        <_>
          <depth>1</depth>
          <value>-2.0933125037093583e+00</value></_>
        <_>
          <depth>1</depth>
          <value>1.6833803634867500e-01</value></_></nodes></_>
    <_>
      <nodes>
        <_>
          <depth>0</depth>
          <value>-8.2621684588480987e-03</value>
          <splits>
            <_><var>101</var>
              <quality>1.7386287450790405e-01</quality>
              <le>1.4993749856948853e+00</le></_></splits></_>
        <_>
          <depth>1</depth>
          <value>1.8989505243527402e-01</value></_>
        <_>
          <depth>1</depth>
          <value>-1.7572250597977841e+00</value></_></nodes></_>
    <_>
      <nodes>
        <_>
          <depth>0</depth>
          <value>-6.7816587428780111e-03</value>
          <splits>
            <_><var>122</var>
              <quality>1.9545346498489380e-01</quality>
              <le>-1.6348999738693237e-01</le></_></splits></_>
        <_>
          <depth>1</depth>
          <value>-4.4157302447106050e-01</value></_>
        <_>
          <depth>1</depth>
          <value>5.4555672757225049e-01</value></_></nodes></_>
    <_>
      <nodes>
        <_>
          <depth>0</depth>
          <value>-1.9319230107820291e-02</value>
          <splits>
            <_><var>111</var>
              <quality>1.5922802686691284e-01</quality>
              <le>2.2720949649810791e+00</le></_></splits></_>
        <_>
          <depth>1</depth>
          <value>-4.2528792111495078e-01</value></_>
        <_>
          <depth>1</depth>
          <value>4.4595238642693363e-01</value></_></nodes></_>
    <_>
      <nodes>
        <_>
          <depth>0</depth>
          <value>1.6245531731635254e-04</value>
          <splits>
            <_><var>28</var>
              <quality>2.1500661969184875e-01</quality>
              <le>-3.4338998794555664e+00</le></_></splits></_>
        <_>
          <depth>1</depth>
          <value>1.0653132570986625e+00</value></_>
        <_>
          <depth>1</depth>
          <value>-2.9540902328826935e-01</value></_></nodes></_>
    <_>
      <nodes>
        <_>
          <depth>0</depth>
          <value>-1.1301212591008298e-02</value>
          <splits>
            <_><var>0</var>
              <quality>1.4386568963527679e-01</quality>
              <le>1.2348049879074097e+00</le></_></splits></_>
        <_>
          <depth>1</depth>
          <value>1.8439440435779697e-01</value></_>
        <_>
          <depth>1</depth>
          <value>-1.0793561733317543e+00</value></_></nodes></_>
    <_>
      <nodes>
        <_>
          <depth>0</depth>
          <value>-1.8214284387865042e-03</value>
          <splits>
            <_><var>92</var>
              <quality>1.6045179963111877e-01</quality>
              <le>-9.7251904010772705e-01</le></_></splits></_>
        <_>
          <depth>1</depth>
          <value>-5.7564577324601141e+00</value></_>
        <_>
          <depth>1</depth>
          <value>1.6902996842455681e-01</value></_></nodes></_>
    <_>
      <nodes>
        <_>
          <depth>0</depth>
          <value>8.2055512437776701e-02</value>
          <splits>
            <_><var>52</var>
              <quality>1.6375200450420380e-01</quality>
              <le>7.7033996582031250e-01</le></_></splits></_>
        <_>
          <depth>1</depth>
          <value>3.6031650384318897e-01</value></_>
        <_>
          <depth>1</depth>
          <value>-6.1383380345975147e-01</value></_></nodes></_>
    <_>
      <nodes>
        <_>
          <depth>0</depth>
          <value>-1.3843757009387425e-02</value>
          <splits>
            <_><var>120</var>
              <quality>1.8327310681343079e-01</quality>
              <le>2.7025699615478516e+00</le></_></splits></_>
        <_>
          <depth>1</depth>
          <value>-4.3605180831075774e-01</value></_>
        <_>
          <depth>1</depth>
          <value>5.1305395804056875e-01</value></_></nodes></_>
    <_>
      <nodes>
        <_>
          <depth>0</depth>
          <value>-1.5576700639940537e-03</value>
          <splits>
            <_><var>59</var>
              <quality>1.7846052348613739e-01</quality>
              <le>-1.6225249767303467e+00</le></_></splits></_>
        <_>
          <depth>1</depth>
          <value>-1.7522892138856805e+00</value></_>
        <_>
          <depth>1</depth>
          <value>2.0099040872107804e-01</value></_></nodes></_>
    <_>
      <nodes>
        <_>
          <depth>0</depth>
          <value>-1.0678524135155484e-02</value>
          <splits>
            <_><var>114</var>
              <quality>1.8941862881183624e-01</quality>
              <le>-1.3242850303649902e+00</le></_></splits></_>
        <_>
          <depth>1</depth>
          <value>4.4320702402824558e-01</value></_>
        <_>
          <depth>1</depth>
          <value>-5.1988531261504978e-01</value></_></nodes></_>
    <_>
      <nodes>
        <_>
          <depth>0</depth>
          <value>8.2860398629322849e-03</value>
          <splits>
            <_><var>85</var>
              <quality>2.1017329394817352e-01</quality>
              <le>-3.8515448570251465e-01</le></_></splits></_>
        <_>
          <depth>1</depth>
          <value>6.5196849662461553e-01</value></_>
        <_>
          <depth>1</depth>
          <value>-4.0405511558988372e-01</value></_></nodes></_>
    <_>
      <nodes>
        <_>
          <depth>0</depth>
          <value>-2.1824079802170090e-03</value>
          <splits>
            <_><var>119</var>
              <quality>2.1296106278896332e-01</quality>
              <le>1.9922349452972412e+00</le></_></splits></_>
        <_>
          <depth>1</depth>
          <value>-5.7437164866400425e-01</value></_>
        <_>
          <depth>1</depth>
          <value>4.6233379363477295e-01</value></_></nodes></_>
    <_>
      <nodes>
        <_>
          <depth>0</depth>
          <value>3.0653212097714239e-03</value>
          <splits>
            <_><var>135</var>
              <quality>1.8132959306240082e-01</quality>
              <le>2.5134501457214355e+00</le></_></splits></_>
        <_>
          <depth>1</depth>
          <value>3.3372902311463681e-01</value></_>
        <_>
          <depth>1</depth>
          <value>-6.8690636836254060e-01</value></_></nodes></_>
    <_>
      <nodes>
        <_>
          <depth>0</depth>
          <value>-1.5252174716174804e-02</value>
          <splits>
            <_><var>122</var>
              <quality>1.7393878102302551e-01</quality>
              <le>-2.5513501167297363e+00</le></_></splits></_>
        <_>
          <depth>1</depth>
          <value>1.1450499312856857e+00</value></_>
        <_>
          <depth>1</depth>
          <value>-2.3977062543525191e-01</value></_></nodes></_>
    <_>
      <nodes>
        <_>
          <depth>0</depth>
          <value>3.2316771219904755e-03</value>
          <splits>
            <_><var>130</var>
              <quality>1.9173830747604370e-01</quality>
              <le>3.2155950069427490e+00</le></_></splits></_>
        <_>
          <depth>1</depth>
          <value>-2.0724466322693691e-01</value></_>
        <_>
          <depth>1</depth>
          <value>2.2018687578501677e+00</value></_></nodes></_>
    <_>
      <nodes>
        <_>
          <depth>0</depth>
          <value>-9.1914548793902290e-03</value>
          <splits>
            <_><var>106</var>
              <quality>2.0638139545917511e-01</quality>
              <le>-1.0113070011138916e+00</le></_></splits></_>
        <_>
          <depth>1</depth>
          <value>2.9521913440507175e-01</value></_>
        <_>
          <depth>1</depth>
          <value>-9.5706999404851723e-01</value></_></nodes></_>
    <_>
      <nodes>
        <_>
          <depth>0</depth>
          <value>1.0175586127531772e-02</value>
          <splits>
            <_><var>37</var>
              <quality>1.9459313154220581e-01</quality>
              <le>-6.6707253456115723e-01</le></_></splits></_>
        <_>
          <depth>1</depth>
          <value>-8.8848006099412835e-01</value></_>
        <_>
          <depth>1</depth>
          <value>3.0333471559989655e-01</value></_></nodes></_>
    <_>
      <nodes>
        <_>
          <depth>0</depth>
          <value>-1.1738899836542787e-02</value>
          <splits>
            <_><var>115</var>
              <quality>1.4168383181095123e-01</quality>
              <le>1.9712699651718140e+00</le></_></splits></_>
        <_>
          <depth>1</depth>
          <value>-4.2193688842515509e-01</value></_>
        <_>
          <depth>1</depth>
          <value>3.9251750526567969e-01</value></_></nodes></_>
    <_>
      <nodes>
        <_>
          <depth>0</depth>
          <value>-1.1512814619165821e-03</value>
          <splits>
            <_><var>101</var>
              <quality>1.8637850880622864e-01</quality>
              <le>8.6581450700759888e-01</le></_></splits></_>
        <_>
          <depth>1</depth>
          <value>3.2441805365857668e-01</value></_>
        <_>
          <depth>1</depth>
          <value>-7.3326164664379478e-01</value></_></nodes></_>
    <_>
      <nodes>
        <_>
          <depth>0</depth>
          <value>-9.1173590868876466e-03</value>
          <splits>
            <_><var>84</var>
              <quality>1.3885608315467834e-01</quality>
              <le>9.7027552127838135e-01</le></_></splits></_>
        <_>
          <depth>1</depth>
          <value>1.5516281369363266e-01</value></_>
        <_>
          <depth>1</depth>
          <value>-1.5022976639071457e+00</value></_></nodes></_>
    <_>
      <nodes>
        <_>
          <depth>0</depth>
          <value>-6.9088630915188666e-03</value>
          <splits>
            <_><var>62</var>
              <quality>1.3446819782257080e-01</quality>
              <le>-1.3757550716400146e+00</le></_></splits></_>
        <_>
          <depth>1</depth>
          <value>-1.8651310412690854e+00</value></_>
        <_>
          <depth>1</depth>
          <value>1.4361292550863067e-01</value></_></nodes></_>
    <_>
      <nodes>
        <_>
          <depth>0</depth>
          <value>-9.4236334481529148e-03</value>
          <splits>
            <_><var>94</var>
              <quality>1.6310581564903259e-01</quality>
              <le>-7.1784245967864990e-01</le></_></splits></_>
        <_>
          <depth>1</depth>
          <value>-1.0158215583561505e+00</value></_>
        <_>
          <depth>1</depth>
          <value>2.2027174823096510e-01</value></_></nodes></_>
    <_>
      <nodes>
        <_>
          <depth>0</depth>
          <value>-3.9770005110512582e-03</value>
          <splits>
            <_><var>109</var>
              <quality>1.5982493758201599e-01</quality>
              <le>2.6734800338745117e+00</le></_></splits></_>
        <_>
          <depth>1</depth>
          <value>-4.3760716040005515e-01</value></_>
        <_>
          <depth>1</depth>
          <value>4.3423612686102708e-01</value></_></nodes></_>
    <_>
      <nodes>
        <_>
          <depth>0</depth>
          <value>2.6681727836588034e-04</value>
          <splits>
            <_><var>87</var>
              <quality>1.8469215929508209e-01</quality>
              <le>9.2936146259307861e-01</le></_></splits></_>
        <_>
          <depth>1</depth>
          <value>-2.6929333094069913e-01</value></_>
        <_>
          <depth>1</depth>
          <value>9.4792049445075321e-01</value></_></nodes></_>
    <_>
      <nodes>
        <_>
          <depth>0</depth>
          <value>-4.5477999242653109e-03</value>
          <splits>
            <_><var>71</var>
              <quality>1.3100023567676544e-01</quality>
              <le>1.5012900829315186e+00</le></_></splits></_>
        <_>
          <depth>1</depth>
          <value>1.3482845163363610e-01</value></_>
        <_>
          <depth>1</depth>
          <value>-5.7564577324601141e+00</value></_></nodes></_>
    <_>
      <nodes>
        <_>
          <depth>0</depth>
          <value>1.7041620913337819e-02</value>
          <splits>
            <_><var>111</var>
              <quality>1.5349486470222473e-01</quality>
              <le>5.6115746498107910e-01</le></_></splits></_>
        <_>
          <depth>1</depth>
          <value>-6.0601034859685543e-01</value></_>
        <_>
          <depth>1</depth>
          <value>3.1598648020115488e-01</value></_></nodes></_>
    <_>
      <nodes>
        <_>
          <depth>0</depth>
          <value>-3.7214991274694660e-03</value>
          <splits>
            <_><var>84</var>
              <quality>1.8649514019489288e-01</quality>
              <le>-9.4556450843811035e-01</le></_></splits></_>
        <_>
          <depth>1</depth>
          <value>9.0984674292032441e-01</value></_>
        <_>
          <depth>1</depth>
          <value>-2.8197689966423672e-01</value></_></nodes></_>
    <_>
      <nodes>
        <_>
          <depth>0</depth>
          <value>7.7133315901281498e-03</value>
          <splits>
            <_><var>120</var>
              <quality>1.2761394679546356e-01</quality>
              <le>2.8939151763916016e+00</le></_></splits></_>
        <_>
          <depth>1</depth>
          <value>-3.6590442004856971e-01</value></_>
        <_>
          <depth>1</depth>
          <value>4.0336060038345517e-01</value></_></nodes></_>
    <_>
      <nodes>
        <_>
          <depth>0</depth>
          <value>6.9573487235878627e-03</value>
          <splits>
            <_><var>54</var>
              <quality>1.6312269866466522e-01</quality>
              <le>5.5142247676849365e-01</le></_></splits></_>
        <_>
          <depth>1</depth>
          <value>-4.0516449426285900e-01</value></_>
        <_>
          <depth>1</depth>
          <value>4.7962393566962130e-01</value></_></nodes></_>
    <_>
      <nodes>
        <_>
          <depth>0</depth>
          <value>-7.8163639511074235e-03</value>
          <splits>
            <_><var>17</var>
              <quality>1.6558632254600525e-01</quality>
              <le>-7.8829950094223022e-01</le></_></splits></_>
        <_>
          <depth>1</depth>
          <value>-5.3211339887552456e-01</value></_>
        <_>
          <depth>1</depth>
          <value>3.7210723438187887e-01</value></_></nodes></_>
    <_>
      <nodes>
        <_>
          <depth>0</depth>
          <value>-7.8802456427933313e-04</value>
          <splits>
            <_><var>37</var>
              <quality>1.7421810328960419e-01</quality>
              <le>1.2432199716567993e-01</le></_></splits></_>
        <_>
          <depth>1</depth>
          <value>-5.1472517038446708e-01</value></_>
        <_>
          <depth>1</depth>
          <value>4.0858838145975496e-01</value></_></nodes></_>
    <_>
      <nodes>
        <_>
          <depth>0</depth>
          <value>-1.0018411903465134e-02</value>
          <splits>
            <_><var>116</var>
              <quality>1.4640973508358002e-01</quality>
              <le>-2.2467648983001709e+00</le></_></splits></_>
        <_>
          <depth>1</depth>
          <value>7.6757668962922276e-01</value></_>
        <_>
          <depth>1</depth>
          <value>-2.5009563581093036e-01</value></_></nodes></_>
    <_>
      <nodes>
        <_>
          <depth>0</depth>
          <value>6.9714771878760856e-03</value>
          <splits>
            <_><var>98</var>
              <quality>1.8950153887271881e-01</quality>
              <le>1.5619499683380127e+00</le></_></splits></_>
        <_>
          <depth>1</depth>
          <value>-3.9335527665571157e-01</value></_>
        <_>
          <depth>1</depth>
          <value>5.9084453220138322e-01</value></_></nodes></_>
    <_>
      <nodes>
        <_>
          <depth>0</depth>
          <value>-6.4866526674034501e-03</value>
          <splits>
            <_><var>0</var>
              <quality>1.4134544134140015e-01</quality>
              <le>-1.5958049893379211e-01</le></_></splits></_>
        <_>
          <depth>1</depth>
          <value>3.4231591339228967e-01</value></_>
        <_>
          <depth>1</depth>
          <value>-4.8378016394359713e-01</value></_></nodes></_>
    <_>
      <nodes>
        <_>
          <depth>0</depth>
          <value>2.9150080302387952e-03</value>
          <splits>
            <_><var>22</var>
              <quality>1.8040375411510468e-01</quality>
              <le>-1.3160250186920166e+00</le></_></splits></_>
        <_>
          <depth>1</depth>
          <value>4.8143888060445411e-01</value></_>
        <_>
          <depth>1</depth>
          <value>-4.5348976595523977e-01</value></_></nodes></_>
    <_>
      <nodes>
        <_>
          <depth>0</depth>
          <value>3.7736364670105322e-03</value>
          <splits>
            <_><var>98</var>
              <quality>1.5743900835514069e-01</quality>
              <le>5.5024948120117188e+00</le></_></splits></_>
        <_>
          <depth>1</depth>
          <value>1.9119480420130225e-01</value></_>
        <_>
          <depth>1</depth>
          <value>-1.4312097523273484e+00</value></_></nodes></_>
    <_>
      <nodes>
        <_>
          <depth>0</depth>
          <value>-1.5821974810176994e-02</value>
          <splits>
            <_><var>107</var>
              <quality>1.5210181474685669e-01</quality>
              <le>2.7879500389099121e+00</le></_></splits></_>
        <_>
          <depth>1</depth>
          <value>1.9012040296644894e-01</value></_>
        <_>
          <depth>1</depth>
          <value>-1.1004963832323564e+00</value></_></nodes></_>
    <_>
      <nodes>
        <_>
          <depth>0</depth>
          <value>-5.5290352509797152e-03</value>
          <splits>
            <_><var>97</var>
              <quality>1.8535502254962921e-01</quality>
              <le>2.0604147911071777e+00</le></_></splits></_>
        <_>
          <depth>1</depth>
          <value>-4.8639049446963989e-01</value></_>
        <_>
          <depth>1</depth>
          <value>4.6286900186798707e-01</value></_></nodes></_>
    <_>
      <nodes>
        <_>
          <depth>0</depth>
          <value>8.0211393754051601e-03</value>
          <splits>
            <_><var>31</var>
              <quality>1.7280553281307220e-01</quality>
              <le>-1.3567900657653809e+00</le></_></splits></_>
        <_>
          <depth>1</depth>
          <value>6.2525321372239917e-01</value></_>
        <_>
          <depth>1</depth>
          <value>-3.3674453938390547e-01</value></_></nodes></_>
    <_>
      <nodes>
        <_>
          <depth>0</depth>
          <value>-2.4769325135727716e-02</value>
          <splits>
            <_><var>50</var>
              <quality>1.6299623250961304e-01</quality>
              <le>1.2207050323486328e+00</le></_></splits></_>
        <_>
          <depth>1</depth>
          <value>2.2493853535406927e-01</value></_>
        <_>
          <depth>1</depth>
          <value>-9.0838624145296532e-01</value></_></nodes></_>
    <_>
      <nodes>
        <_>
          <depth>0</depth>
          <value>5.8212099111812766e-04</value>
          <splits>
            <_><var>101</var>
              <quality>1.3708701729774475e-01</quality>
              <le>1.4993749856948853e+00</le></_></splits></_>
        <_>
          <depth>1</depth>
          <value>1.6997698130226940e-01</value></_>
        <_>
          <depth>1</depth>
          <value>-1.2932226096987207e+00</value></_></nodes></_>
    <_>
      <nodes>
        <_>
          <depth>0</depth>
          <value>-6.7167912641512935e-03</value>
          <splits>
            <_><var>120</var>
              <quality>1.7851214110851288e-01</quality>
              <le>2.3975150585174561e+00</le></_></splits></_>
        <_>
          <depth>1</depth>
          <value>-4.9175749809295033e-01</value></_>
        <_>
          <depth>1</depth>
          <value>4.3818469478482713e-01</value></_></nodes></_>
    <_>
      <nodes>
        <_>
          <depth>0</depth>
          <value>3.5199181556910949e-03</value>
          <splits>
            <_><var>46</var>
              <quality>1.3530504703521729e-01</quality>
              <le>-1.1727399826049805e+00</le></_></splits></_>
        <_>
          <depth>1</depth>
          <value>-6.9963969818472593e-01</value></_>
        <_>
          <depth>1</depth>
          <value>2.4277963948939002e-01</value></_></nodes></_>
    <_>
      <nodes>
        <_>
          <depth>0</depth>
          <value>-1.0889086772216944e-02</value>
          <splits>
            <_><var>114</var>
              <quality>1.6032165288925171e-01</quality>
              <le>-1.2001450061798096e+00</le></_></splits></_>
        <_>
          <depth>1</depth>
          <value>4.1902458620357336e-01</value></_>
        <_>
          <depth>1</depth>
          <value>-4.5414875475127231e-01</value></_></nodes></_>
    <_>
      <nodes>
        <_>
          <depth>0</depth>
          <value>4.6923194166756509e-03</value>
          <splits>
            <_><var>22</var>
              <quality>1.4866140484809875e-01</quality>
              <le>2.4937500953674316e+00</le></_></splits></_>
        <_>
          <depth>1</depth>
          <value>-1.9697996911110618e-01</value></_>
        <_>
          <depth>1</depth>
          <value>1.0727225932795186e+00</value></_></nodes></_>
    <_>
      <nodes>
        <_>
          <depth>0</depth>
          <value>-2.0816425989243549e-03</value>
          <splits>
            <_><var>37</var>
              <quality>1.3360983133316040e-01</quality>
              <le>-4.4214601516723633e+00</le></_></splits></_>
        <_>
          <depth>1</depth>
          <value>-5.7564577324601141e+00</value></_>
        <_>
          <depth>1</depth>
          <value>1.3977006931142782e-01</value></_></nodes></_>
    <_>
      <nodes>
        <_>
          <depth>0</depth>
          <value>-9.9143517011083451e-03</value>
          <splits>
            <_><var>111</var>
              <quality>1.7870470881462097e-01</quality>
              <le>2.2721049785614014e+00</le></_></splits></_>
        <_>
          <depth>1</depth>
          <value>-3.6100523853112171e-01</value></_>
        <_>
          <depth>1</depth>
          <value>6.1814458766406166e-01</value></_></nodes></_>
    <_>
      <nodes>
        <_>
          <depth>0</depth>
          <value>-5.7083062961990720e-03</value>
          <splits>
            <_><var>101</var>
              <quality>2.0144239068031311e-01</quality>
              <le>-1.6816250085830688e+00</le></_></splits></_>
        <_>
          <depth>1</depth>
          <value>6.6425427396681413e-01</value></_>
        <_>
          <depth>1</depth>
          <value>-3.8489668750332590e-01</value></_></nodes></_>
    <_>
      <nodes>
        <_>
          <depth>0</depth>
          <value>-1.9373561463732233e-03</value>
          <splits>
            <_><var>15</var>
              <quality>1.9005213677883148e-01</quality>
              <le>-4.8114199638366699e+00</le></_></splits></_>
        <_>
          <depth>1</depth>
          <value>-2.4021039807222127e+00</value></_>
        <_>
          <depth>1</depth>
          <value>2.0479709043656197e-01</value></_></nodes></_>
    <_>
      <nodes>
        <_>
          <depth>0</depth>
          <value>-6.5203855788745282e-03</value>
          <splits>
            <_><var>57</var>
              <quality>1.8264427781105042e-01</quality>
              <le>-6.8040502071380615e-01</le></_></splits></_>
        <_>
          <depth>1</depth>
          <value>8.6354110656939043e-01</value></_>
        <_>
          <depth>1</depth>
          <value>-2.8718257700458466e-01</value></_></nodes></_>
    <_>
      <nodes>
        <_>
          <depth>0</depth>
          <value>-1.5737103595524514e-02</value>
          <splits>
            <_><var>108</var>
              <quality>1.6306653618812561e-01</quality>
              <le>-8.1333899497985840e-01</le></_></splits></_>
        <_>
          <depth>1</depth>
          <value>2.7241564001282220e-01</value></_>
        <_>
          <depth>1</depth>
          <value>-7.3244759448314656e-01</value></_></nodes></_>
    <_>
      <nodes>
        <_>
          <depth>0</depth>
          <value>4.9993869929856709e-03</value>
          <splits>
            <_><var>124</var>
              <quality>1.8679942190647125e-01</quality>
              <le>3.1431999206542969e+00</le></_></splits></_>
        <_>
          <depth>1</depth>
          <value>-1.9516065662137991e-01</value></_>
        <_>
          <depth>1</depth>
          <value>5.7564577324623896e+00</value></_></nodes></_>
    <_>
      <nodes>
        <_>
          <depth>0</depth>
          <value>-2.8976704566781397e-01</value>
          <splits>
            <_><var>116</var>
              <quality>3.3931472897529602e-01</quality>
              <le>1.4068200588226318e+00</le></_></splits></_>
        <_>
          <depth>1</depth>
          <value>1.1041356162437792e-01</value></_>
        <_>
          <depth>1</depth>
          <value>-2.7077552463616064e+00</value></_></nodes></_>
    <_>
      <nodes>
        <_>
          <depth>0</depth>
          <value>5.4730067737923252e-03</value>
          <splits>
            <_><var>93</var>
              <quality>1.8398691713809967e-01</quality>
              <le>-2.2354149818420410e-01</le></_></splits></_>
        <_>
          <depth>1</depth>
          <value>7.5303613456914109e-01</value></_>
        <_>
          <depth>1</depth>
          <value>-3.1108292760207434e-01</value></_></nodes></_>
    <_>
      <nodes>
        <_>
          <depth>0</depth>
          <value>-5.7448249684392168e-03</value>
          <splits>
            <_><var>34</var>
              <quality>2.2183944284915924e-01</quality>
              <le>-1.3296300172805786e+00</le></_></splits></_>
        <_>
          <depth>1</depth>
          <value>-1.2941924621735694e+00</value></_>
        <_>
          <depth>1</depth>
          <value>2.7445438173219533e-01</value></_></nodes></_>
    <_>
      <nodes>
        <_>
          <depth>0</depth>
          <value>4.9998407192569580e-03</value>
          <splits>
            <_><var>117</var>
              <quality>1.9000463187694550e-01</quality>
              <le>1.3301450014114380e+00</le></_></splits></_>
        <_>
          <depth>1</depth>
          <value>-5.1696206052784133e-01</value></_>
        <_>
          <depth>1</depth>
          <value>4.4931265794719166e-01</value></_></nodes></_>
    <_>
      <nodes>
        <_>
          <depth>0</depth>
          <value>-3.4376414028546021e-03</value>
          <splits>
            <_><var>125</var>
              <quality>1.7183180153369904e-01</quality>
              <le>-1.8763200044631958e+00</le></_></splits></_>
        <_>
          <depth>1</depth>
          <value>1.0911994035079140e+00</value></_>
        <_>
          <depth>1</depth>
          <value>-2.3366239639144348e-01</value></_></nodes></_>
    <_>
      <nodes>
        <_>
          <depth>0</depth>
          <value>-1.8358523668990243e-02</value>
          <splits>
            <_><var>13</var>
              <quality>2.0606730878353119e-01</quality>
              <le>-1.2654900550842285e+00</le></_></splits></_>
        <_>
          <depth>1</depth>
          <value>-7.4605842770110375e-01</value></_>
        <_>
          <depth>1</depth>
          <value>3.4769804700295615e-01</value></_></nodes></_>
    <_>
      <nodes>
        <_>
          <depth>0</depth>
          <value>-7.5212604976575854e-03</value>
          <splits>
            <_><var>37</var>
              <quality>2.0114512741565704e-01</quality>
              <le>2.6294100284576416e-01</le></_></splits></_>
        <_>
          <depth>1</depth>
          <value>-5.0931524558927466e-01</value></_>
        <_>
          <depth>1</depth>
          <value>4.8580804491008639e-01</value></_></nodes></_>
    <_>
      <nodes>
        <_>
          <depth>0</depth>
          <value>-6.9708702119718954e-03</value>
          <splits>
            <_><var>109</var>
              <quality>1.8133041262626648e-01</quality>
              <le>4.2177551984786987e-01</le></_></splits></_>
        <_>
          <depth>1</depth>
          <value>-7.6012935921335889e-01</value></_>
        <_>
          <depth>1</depth>
          <value>3.0306156453031252e-01</value></_></nodes></_>
    <_>
      <nodes>
        <_>
          <depth>0</depth>
          <value>4.8461197060797982e-03</value>
          <splits>
            <_><var>101</var>
              <quality>2.3920412361621857e-01</quality>
              <le>5.2087402343750000e-01</le></_></splits></_>
        <_>
          <depth>1</depth>
          <value>4.6341251459570776e-01</value></_>
        <_>
          <depth>1</depth>
          <value>-6.6782627060412336e-01</value></_></nodes></_>
    <_>
      <nodes>
        <_>
          <depth>0</depth>
          <value>-1.9056646019012930e-02</value>
          <splits>
            <_><var>4</var>
              <quality>2.4508616328239441e-01</quality>
              <le>-8.6017653346061707e-02</le></_></splits></_>
        <_>
          <depth>1</depth>
          <value>4.8131934513741070e-01</value></_>
        <_>
          <depth>1</depth>
          <value>-6.5010889093299873e-01</value></_></nodes></_>
    <_>
      <nodes>
        <_>
          <depth>0</depth>
          <value>1.0425666988852614e-02</value>
          <splits>
            <_><var>59</var>
              <quality>1.6138485074043274e-01</quality>
              <le>5.5990600585937500e-01</le></_></splits></_>
        <_>
          <depth>1</depth>
          <value>2.0623305162848135e-01</value></_>
        <_>
          <depth>1</depth>
          <value>-1.3332831260559330e+00</value></_></nodes></_></trees></opencv_ml_boost>
</opencv_storage>
