<?xml version="1.0"?>
<opencv_storage>
<opencv_ml_boost>
  <format>3</format>
  <is_classifier>1</is_classifier>
  <var_all>137</var_all>
  <var_count>136</var_count>
  <ord_var_count>136</ord_var_count>
  <cat_var_count>1</cat_var_count>
  <training_params>
    <boosting_type>RealAdaboost</boosting_type>
    <use_surrogates>0</use_surrogates>
    <max_categories>10</max_categories>
    <regression_accuracy>9.9999997764825821e-03</regression_accuracy>
    <max_depth>1</max_depth>
    <min_sample_count>10</min_sample_count>
    <cross_validation_folds>0</cross_validation_folds>
    <weight_trimming_rate>9.4999999999999996e-01</weight_trimming_rate></training_params>
  <global_var_idx>1</global_var_idx>
  <var_idx>
    0 1 2 3 4 5 6 7 8 9 10 11 12 13 14 15 16 17 18 19 20 21 22 23 24 25
    26 27 28 29 30 31 32 33 34 35 36 37 38 39 40 41 42 43 44 45 46 47 48
    49 50 51 52 53 54 55 56 57 58 59 60 61 62 63 64 65 66 67 68 69 70 71
    72 73 74 75 76 77 78 79 80 81 82 83 84 85 86 87 88 89 90 91 92 93 94
    95 96 97 98 99 100 101 102 103 104 105 106 107 108 109 110 111 112
    113 114 115 116 117 118 119 120 121 122 123 124 125 126 127 128 129
    130 131 132 133 134 135</var_idx>
  <var_type>
    0 0 0 0 0 0 0 0 0 0 0 0 0 0 0 0 0 0 0 0 0 0 0 0 0 0 0 0 0 0 0 0 0 0
    0 0 0 0 0 0 0 0 0 0 0 0 0 0 0 0 0 0 0 0 0 0 0 0 0 0 0 0 0 0 0 0 0 0
    0 0 0 0 0 0 0 0 0 0 0 0 0 0 0 0 0 0 0 0 0 0 0 0 0 0 0 0 0 0 0 0 0 0
    0 0 0 0 0 0 0 0 0 0 0 0 0 0 0 0 0 0 0 0 0 0 0 0 0 0 0 0 0 0 0 0 0 0
    1</var_type>
  <cat_ofs>
    0 0 0 0 0 0 0 0 0 0 0 0 0 0 0 0 0 0 0 0 0 0 0 0 0 0 0 0 0 0 0 0 0 0
    0 0 0 0 0 0 0 0 0 0 0 0 0 0 0 0 0 0 0 0 0 0 0 0 0 0 0 0 0 0 0 0 0 0
    0 0 0 0 0 0 0 0 0 0 0 0 0 0 0 0 0 0 0 0 0 0 0 0 0 0 0 0 0 0 0 0 0 0
    0 0 0 0 0 0 0 0 0 0 0 0 0 0 0 0 0 0 0 0 0 0 0 0 0 0 0 0 0 0 0 0 0 0
    0 0 0 0 0 0 0 0 0 0 0 0 0 0 0 0 0 0 0 0 0 0 0 0 0 0 0 0 0 0 0 0 0 0
    0 0 0 0 0 0 0 0 0 0 0 0 0 0 0 0 0 0 0 0 0 0 0 0 0 0 0 0 0 0 0 0 0 0
    0 0 0 0 0 0 0 0 0 0 0 0 0 0 0 0 0 0 0 0 0 0 0 0 0 0 0 0 0 0 0 0 0 0
    0 0 0 0 0 0 0 0 0 0 0 0 0 0 0 0 0 0 0 0 0 0 0 0 0 0 0 0 0 0 0 0 0 0</cat_ofs>
  <class_labels>
    -1 1</class_labels>
  <missing_subst>
    0. 0. 0. 0. 0. 0. 0. 0. 0. 0. 0. 0. 0. 0. 0. 0. 0. 0. 0. 0. 0. 0. 0.
    0. 0. 0. 0. 0. 0. 0. 0. 0. 0. 0. 0. 0. 0. 0. 0. 0. 0. 0. 0. 0. 0. 0.
    0. 0. 0. 0. 0. 0. 0. 0. 0. 0. 0. 0. 0. 0. 0. 0. 0. 0. 0. 0. 0. 0. 0.
    0. 0. 0. 0. 0. 0. 0. 0. 0. 0. 0. 0. 0. 0. 0. 0. 0. 0. 0. 0. 0. 0. 0.
    0. 0. 0. 0. 0. 0. 0. 0. 0. 0. 0. 0. 0. 0. 0. 0. 0. 0. 0. 0. 0. 0. 0.
    0. 0. 0. 0. 0. 0. 0. 0. 0. 0. 0. 0. 0. 0. 0. 0. 0. 0. 0. 0. 0. 0.</missing_subst>
  <ntrees>100</ntrees>
  <trees>
    <_>
      <nodes>
        <_>
          <depth>0</depth>
          <value>-7.8661743188509681e-01</value>
          <splits>
            <_><var>120</var>
              <quality>8.4691977500915527e-01</quality>
              <le>8.7874250411987305e+00</le></_></splits></_>
        <_>
          <depth>1</depth>
          <value>-2.1206633762854001e+00</value></_>
        <_>
          <depth>1</depth>
          <value>7.9880172739355138e-01</value></_></nodes></_>
    <_>
      <nodes>
        <_>
          <depth>0</depth>
          <value>1.9172833064404291e-08</value>
          <splits>
            <_><var>109</var>
              <quality>4.7671774029731750e-01</quality>
              <le>5.3379602432250977e+00</le></_></splits></_>
        <_>
          <depth>1</depth>
          <value>-8.4764200377030086e-01</value></_>
        <_>
          <depth>1</depth>
          <value>8.4998174630582635e-01</value></_></nodes></_>
    <_>
      <nodes>
        <_>
          <depth>0</depth>
          <value>1.0887501115365015e-08</value>
          <splits>
            <_><var>46</var>
              <quality>2.7132147550582886e-01</quality>
              <le>-2.3947149515151978e-01</le></_></splits></_>
        <_>
          <depth>1</depth>
          <value>5.1303991809773264e-01</value></_>
        <_>
          <depth>1</depth>
          <value>-6.5414821997662020e-01</value></_></nodes></_>
    <_>
      <nodes>
        <_>
          <depth>0</depth>
          <value>-1.5687305312161514e-08</value>
          <splits>
            <_><var>45</var>
              <quality>2.3301337659358978e-01</quality>
              <le>1.9791899919509888e+00</le></_></splits></_>
        <_>
          <depth>1</depth>
          <value>2.6269222491909561e-01</value></_>
        <_>
          <depth>1</depth>
          <value>-1.5122115640917064e+00</value></_></nodes></_>
    <_>
      <nodes>
        <_>
          <depth>0</depth>
          <value>2.0209788069022953e-02</value>
          <splits>
            <_><var>115</var>
              <quality>2.9779314994812012e-01</quality>
              <le>-2.6153900623321533e+00</le></_></splits></_>
        <_>
          <depth>1</depth>
          <value>5.2988027704777063e-01</value></_>
        <_>
          <depth>1</depth>
          <value>-7.4499801348626460e-01</value></_></nodes></_>
    <_>
      <nodes>
        <_>
          <depth>0</depth>
          <value>9.7144267593689687e-03</value>
          <splits>
            <_><var>52</var>
              <quality>2.7196782827377319e-01</quality>
              <le>1.2002201080322266e+00</le></_></splits></_>
        <_>
          <depth>1</depth>
          <value>4.3142906096237255e-01</value></_>
        <_>
          <depth>1</depth>
          <value>-8.8028501320201380e-01</value></_></nodes></_>
    <_>
      <nodes>
        <_>
          <depth>0</depth>
          <value>-4.7321860034891854e-02</value>
          <splits>
            <_><var>128</var>
              <quality>2.0496761798858643e-01</quality>
              <le>-2.1189899742603302e-01</le></_></splits></_>
        <_>
          <depth>1</depth>
          <value>1.7195006050849695e-01</value></_>
        <_>
          <depth>1</depth>
          <value>-5.7564577324601141e+00</value></_></nodes></_>
    <_>
      <nodes>
        <_>
          <depth>0</depth>
          <value>-1.2936069659336540e-02</value>
          <splits>
            <_><var>76</var>
              <quality>2.2579701244831085e-01</quality>
              <le>-4.1258651018142700e-01</le></_></splits></_>
        <_>
          <depth>1</depth>
          <value>-9.7481250228465433e-01</value></_>
        <_>
          <depth>1</depth>
          <value>3.1944046632884565e-01</value></_></nodes></_>
    <_>
      <nodes>
        <_>
          <depth>0</depth>
          <value>1.1103948224344143e-02</value>
          <splits>
            <_><var>42</var>
              <quality>2.2394314408302307e-01</quality>
              <le>-1.1855049133300781e+00</le></_></splits></_>
        <_>
          <depth>1</depth>
          <value>-2.4138552317235185e+00</value></_>
        <_>
          <depth>1</depth>
          <value>2.4942664846267001e-01</value></_></nodes></_>
    <_>
      <nodes>
        <_>
          <depth>0</depth>
          <value>1.1296421957442498e-02</value>
          <splits>
            <_><var>97</var>
              <quality>2.7221080660820007e-01</quality>
              <le>1.0184599876403809e+01</le></_></splits></_>
        <_>
          <depth>1</depth>
          <value>-3.2121233293681967e-01</value></_>
        <_>
          <depth>1</depth>
          <value>1.4658704091779182e+00</value></_></nodes></_>
    <_>
      <nodes>
        <_>
          <depth>0</depth>
          <value>-2.5865723948793252e-02</value>
          <splits>
            <_><var>115</var>
              <quality>3.0584627389907837e-01</quality>
              <le>2.1180348396301270e+00</le></_></splits></_>
        <_>
          <depth>1</depth>
          <value>3.2998386597531582e-01</value></_>
        <_>
          <depth>1</depth>
          <value>-1.9326735152402159e+00</value></_></nodes></_>
    <_>
      <nodes>
        <_>
          <depth>0</depth>
          <value>3.3972819861147886e-03</value>
          <splits>
            <_><var>43</var>
              <quality>2.1851767599582672e-01</quality>
              <le>1.4722650051116943e+00</le></_></splits></_>
        <_>
          <depth>1</depth>
          <value>2.7238195292332296e-01</value></_>
        <_>
          <depth>1</depth>
          <value>-1.3447043458078214e+00</value></_></nodes></_>
    <_>
      <nodes>
        <_>
          <depth>0</depth>
          <value>8.4572959250462237e-03</value>
          <splits>
            <_><var>22</var>
              <quality>2.0283943414688110e-01</quality>
              <le>-1.0275149345397949e+00</le></_></splits></_>
        <_>
          <depth>1</depth>
          <value>-5.4550225742769420e-01</value></_>
        <_>
          <depth>1</depth>
          <value>4.6076218051126394e-01</value></_></nodes></_>
    <_>
      <nodes>
        <_>
          <depth>0</depth>
          <value>-1.3484743290638453e-02</value>
          <splits>
            <_><var>120</var>
              <quality>2.1409621834754944e-01</quality>
              <le>1.6295099258422852e+00</le></_></splits></_>
        <_>
          <depth>1</depth>
          <value>-9.4813267913460286e-01</value></_>
        <_>
          <depth>1</depth>
          <value>3.0615157874239313e-01</value></_></nodes></_>
    <_>
      <nodes>
        <_>
          <depth>0</depth>
          <value>4.0613967946662432e-04</value>
          <splits>
            <_><var>88</var>
              <quality>1.9039137661457062e-01</quality>
              <le>2.6509100198745728e-01</le></_></splits></_>
        <_>
          <depth>1</depth>
          <value>-5.0583037515683027e-01</value></_>
        <_>
          <depth>1</depth>
          <value>4.5918725061616145e-01</value></_></nodes></_>
    <_>
      <nodes>
        <_>
          <depth>0</depth>
          <value>-1.2512595670702326e-03</value>
          <splits>
            <_><var>49</var>
              <quality>2.2874851524829865e-01</quality>
              <le>-3.3962950706481934e+00</le></_></splits></_>
        <_>
          <depth>1</depth>
          <value>-1.0947515721965744e+00</value></_>
        <_>
          <depth>1</depth>
          <value>3.1039314644732835e-01</value></_></nodes></_>
    <_>
      <nodes>
        <_>
          <depth>0</depth>
          <value>1.6624923693787590e-02</value>
          <splits>
            <_><var>125</var>
              <quality>2.7053442597389221e-01</quality>
              <le>1.2629899978637695e+00</le></_></splits></_>
        <_>
          <depth>1</depth>
          <value>-1.0726040610651677e+00</value></_>
        <_>
          <depth>1</depth>
          <value>3.8690867010295510e-01</value></_></nodes></_>
    <_>
      <nodes>
        <_>
          <depth>0</depth>
          <value>-4.2476265716182033e-03</value>
          <splits>
            <_><var>57</var>
              <quality>1.9430537521839142e-01</quality>
              <le>-1.6610850095748901e+00</le></_></splits></_>
        <_>
          <depth>1</depth>
          <value>1.1191242766537313e+00</value></_>
        <_>
          <depth>1</depth>
          <value>-2.6201483677213139e-01</value></_></nodes></_>
    <_>
      <nodes>
        <_>
          <depth>0</depth>
          <value>-3.9223266173942185e-03</value>
          <splits>
            <_><var>12</var>
              <quality>1.7388346791267395e-01</quality>
              <le>2.9380798339843750e+00</le></_></splits></_>
        <_>
          <depth>1</depth>
          <value>2.1049348839889950e-01</value></_>
        <_>
          <depth>1</depth>
          <value>-1.3328776005423664e+00</value></_></nodes></_>
    <_>
      <nodes>
        <_>
          <depth>0</depth>
          <value>5.3265779706730375e-03</value>
          <splits>
            <_><var>4</var>
              <quality>1.9242972135543823e-01</quality>
              <le>1.5866650342941284e+00</le></_></splits></_>
        <_>
          <depth>1</depth>
          <value>-3.4484726741153154e-01</value></_>
        <_>
          <depth>1</depth>
          <value>7.0139142892510187e-01</value></_></nodes></_>
    <_>
      <nodes>
        <_>
          <depth>0</depth>
          <value>3.4425395548931634e-04</value>
          <splits>
            <_><var>82</var>
              <quality>1.8083645403385162e-01</quality>
              <le>8.6761444807052612e-02</le></_></splits></_>
        <_>
          <depth>1</depth>
          <value>-2.5259495077573640e-01</value></_>
        <_>
          <depth>1</depth>
          <value>1.0138168871402553e+00</value></_></nodes></_>
    <_>
      <nodes>
        <_>
          <depth>0</depth>
          <value>-1.6575576124384596e-03</value>
          <splits>
            <_><var>109</var>
              <quality>2.1795265376567841e-01</quality>
              <le>8.0581893920898438e+00</le></_></splits></_>
        <_>
          <depth>1</depth>
          <value>-4.6703193413552513e-01</value></_>
        <_>
          <depth>1</depth>
          <value>5.8584455662873802e-01</value></_></nodes></_>
    <_>
      <nodes>
        <_>
          <depth>0</depth>
          <value>-3.2811107179139768e-03</value>
          <splits>
            <_><var>93</var>
              <quality>2.3501521348953247e-01</quality>
              <le>2.2757301330566406e+00</le></_></splits></_>
        <_>
          <depth>1</depth>
          <value>3.3405344357237038e-01</value></_>
        <_>
          <depth>1</depth>
          <value>-1.0045556796171036e+00</value></_></nodes></_>
    <_>
      <nodes>
        <_>
          <depth>0</depth>
          <value>4.7627887158697736e-03</value>
          <splits>
            <_><var>101</var>
              <quality>1.7776198685169220e-01</quality>
              <le>2.4874849617481232e-01</le></_></splits></_>
        <_>
          <depth>1</depth>
          <value>-1.5018636551946152e+00</value></_>
        <_>
          <depth>1</depth>
          <value>2.1351562024904933e-01</value></_></nodes></_>
    <_>
      <nodes>
        <_>
          <depth>0</depth>
          <value>-9.7579014876369291e-04</value>
          <splits>
            <_><var>36</var>
              <quality>2.4725785851478577e-01</quality>
              <le>-1.2080450057983398e+00</le></_></splits></_>
        <_>
          <depth>1</depth>
          <value>-1.0428884490299111e+00</value></_>
        <_>
          <depth>1</depth>
          <value>3.4683625318981376e-01</value></_></nodes></_>
    <_>
      <nodes>
        <_>
          <depth>0</depth>
          <value>2.2810988602444926e-05</value>
          <splits>
            <_><var>5</var>
              <quality>1.4239649474620819e-01</quality>
              <le>-3.5737550258636475e+00</le></_></splits></_>
        <_>
          <depth>1</depth>
          <value>-1.2822119109768364e+00</value></_>
        <_>
          <depth>1</depth>
          <value>1.7674551463874361e-01</value></_></nodes></_>
    <_>
      <nodes>
        <_>
          <depth>0</depth>
          <value>-7.2448315510306449e-03</value>
          <splits>
            <_><var>6</var>
              <quality>1.3785016536712646e-01</quality>
              <le>2.6997048854827881e+00</le></_></splits></_>
        <_>
          <depth>1</depth>
          <value>-2.7722702498631308e-01</value></_>
        <_>
          <depth>1</depth>
          <value>6.0981173864867810e-01</value></_></nodes></_>
    <_>
      <nodes>
        <_>
          <depth>0</depth>
          <value>-1.3111702639867862e-03</value>
          <splits>
            <_><var>75</var>
              <quality>1.3122259080410004e-01</quality>
              <le>-8.7326049804687500e-02</le></_></splits></_>
        <_>
          <depth>1</depth>
          <value>2.3343111863899044e-01</value></_>
        <_>
          <depth>1</depth>
          <value>-6.9379392799480333e-01</value></_></nodes></_>
    <_>
      <nodes>
        <_>
          <depth>0</depth>
          <value>9.5592294846015341e-04</value>
          <splits>
            <_><var>71</var>
              <quality>1.8577516078948975e-01</quality>
              <le>5.0339350700378418e+00</le></_></splits></_>
        <_>
          <depth>1</depth>
          <value>2.2343211834416835e-01</value></_>
        <_>
          <depth>1</depth>
          <value>-1.4354317148245750e+00</value></_></nodes></_>
    <_>
      <nodes>
        <_>
          <depth>0</depth>
          <value>-3.4783631201150958e-03</value>
          <splits>
            <_><var>123</var>
              <quality>1.6384685039520264e-01</quality>
              <le>7.2743549346923828e+00</le></_></splits></_>
        <_>
          <depth>1</depth>
          <value>-2.1609806309961496e-01</value></_>
        <_>
          <depth>1</depth>
          <value>1.1588085144082323e+00</value></_></nodes></_>
    <_>
      <nodes>
        <_>
          <depth>0</depth>
          <value>-1.9227392795199520e-02</value>
          <splits>
            <_><var>56</var>
              <quality>1.7349264025688171e-01</quality>
              <le>-1.3803848624229431e-01</le></_></splits></_>
        <_>
          <depth>1</depth>
          <value>4.1958645050114085e-01</value></_>
        <_>
          <depth>1</depth>
          <value>-4.9424387440290701e-01</value></_></nodes></_>
    <_>
      <nodes>
        <_>
          <depth>0</depth>
          <value>7.5580286515191082e-03</value>
          <splits>
            <_><var>13</var>
              <quality>1.7187966406345367e-01</quality>
              <le>2.4172201752662659e-01</le></_></splits></_>
        <_>
          <depth>1</depth>
          <value>3.4653102150189191e-01</value></_>
        <_>
          <depth>1</depth>
          <value>-6.1537238219646007e-01</value></_></nodes></_>
    <_>
      <nodes>
        <_>
          <depth>0</depth>
          <value>7.3225535150237492e-03</value>
          <splits>
            <_><var>118</var>
              <quality>1.3965430855751038e-01</quality>
              <le>2.9111251831054688e+00</le></_></splits></_>
        <_>
          <depth>1</depth>
          <value>-6.1459874946924864e-01</value></_>
        <_>
          <depth>1</depth>
          <value>2.7938250682468652e-01</value></_></nodes></_>
    <_>
      <nodes>
        <_>
          <depth>0</depth>
          <value>3.0390260621916466e-03</value>
          <splits>
            <_><var>44</var>
              <quality>1.8325363099575043e-01</quality>
              <le>-3.8394300937652588e+00</le></_></splits></_>
        <_>
          <depth>1</depth>
          <value>-1.8923769794699110e+00</value></_>
        <_>
          <depth>1</depth>
          <value>2.0723725760690567e-01</value></_></nodes></_>
    <_>
      <nodes>
        <_>
          <depth>0</depth>
          <value>9.1037605171033487e-03</value>
          <splits>
            <_><var>37</var>
              <quality>2.0520249009132385e-01</quality>
              <le>-3.5006651878356934e+00</le></_></splits></_>
        <_>
          <depth>1</depth>
          <value>-8.7750834818542855e-01</value></_>
        <_>
          <depth>1</depth>
          <value>3.2212480758742712e-01</value></_></nodes></_>
    <_>
      <nodes>
        <_>
          <depth>0</depth>
          <value>-7.3308174125263602e-03</value>
          <splits>
            <_><var>99</var>
              <quality>1.1875106394290924e-01</quality>
              <le>8.2048797607421875e-01</le></_></splits></_>
        <_>
          <depth>1</depth>
          <value>-8.7196822931039319e-01</value></_>
        <_>
          <depth>1</depth>
          <value>1.7423472780408222e-01</value></_></nodes></_>
    <_>
      <nodes>
        <_>
          <depth>0</depth>
          <value>3.1320651388665579e-03</value>
          <splits>
            <_><var>117</var>
              <quality>1.7215262353420258e-01</quality>
              <le>1.7431750297546387e+00</le></_></splits></_>
        <_>
          <depth>1</depth>
          <value>2.5708758634762446e-01</value></_>
        <_>
          <depth>1</depth>
          <value>-9.2127543137903478e-01</value></_></nodes></_>
    <_>
      <nodes>
        <_>
          <depth>0</depth>
          <value>-3.2632887286219866e-03</value>
          <splits>
            <_><var>97</var>
              <quality>1.7881809175014496e-01</quality>
              <le>1.0184599876403809e+01</le></_></splits></_>
        <_>
          <depth>1</depth>
          <value>-2.4020148689517337e-01</value></_>
        <_>
          <depth>1</depth>
          <value>1.1172158678530622e+00</value></_></nodes></_>
    <_>
      <nodes>
        <_>
          <depth>0</depth>
          <value>-6.5604878835102678e-03</value>
          <splits>
            <_><var>71</var>
              <quality>2.1004348993301392e-01</quality>
              <le>1.1315799951553345e+00</le></_></splits></_>
        <_>
          <depth>1</depth>
          <value>3.8379562006782642e-01</value></_>
        <_>
          <depth>1</depth>
          <value>-6.9319503558943651e-01</value></_></nodes></_>
    <_>
      <nodes>
        <_>
          <depth>0</depth>
          <value>-8.2969016243199494e-04</value>
          <splits>
            <_><var>44</var>
              <quality>1.4339046180248260e-01</quality>
              <le>2.1793751716613770e+00</le></_></splits></_>
        <_>
          <depth>1</depth>
          <value>1.6688526210353341e-01</value></_>
        <_>
          <depth>1</depth>
          <value>-1.5223093462519084e+00</value></_></nodes></_>
    <_>
      <nodes>
        <_>
          <depth>0</depth>
          <value>-2.1259549841396905e-03</value>
          <splits>
            <_><var>98</var>
              <quality>1.6320800781250000e-01</quality>
              <le>4.9485850334167480e+00</le></_></splits></_>
        <_>
          <depth>1</depth>
          <value>-3.7419400438380812e-01</value></_>
        <_>
          <depth>1</depth>
          <value>5.2410478136935190e-01</value></_></nodes></_>
    <_>
      <nodes>
        <_>
          <depth>0</depth>
          <value>2.2449689836191184e-03</value>
          <splits>
            <_><var>129</var>
              <quality>1.2762731313705444e-01</quality>
              <le>1.2626999855041504e+01</le></_></splits></_>
        <_>
          <depth>1</depth>
          <value>-1.3549251990285915e-01</value></_>
        <_>
          <depth>1</depth>
          <value>2.3945452866671402e+00</value></_></nodes></_>
    <_>
      <nodes>
        <_>
          <depth>0</depth>
          <value>-1.1296940519956281e-02</value>
          <splits>
            <_><var>25</var>
              <quality>2.2321236133575439e-01</quality>
              <le>9.2500352859497070e-01</le></_></splits></_>
        <_>
          <depth>1</depth>
          <value>3.6410192176471223e-01</value></_>
        <_>
          <depth>1</depth>
          <value>-7.9894358053969161e-01</value></_></nodes></_>
    <_>
      <nodes>
        <_>
          <depth>0</depth>
          <value>-9.3152590636584961e-05</value>
          <splits>
            <_><var>45</var>
              <quality>1.7199039459228516e-01</quality>
              <le>2.0657899975776672e-01</le></_></splits></_>
        <_>
          <depth>1</depth>
          <value>2.7149878322525661e-01</value></_>
        <_>
          <depth>1</depth>
          <value>-8.3528616110299270e-01</value></_></nodes></_>
    <_>
      <nodes>
        <_>
          <depth>0</depth>
          <value>2.8115002986200998e-03</value>
          <splits>
            <_><var>129</var>
              <quality>1.4278291165828705e-01</quality>
              <le>7.8948247432708740e-01</le></_></splits></_>
        <_>
          <depth>1</depth>
          <value>-7.2825043828650504e-01</value></_>
        <_>
          <depth>1</depth>
          <value>2.4834129642318389e-01</value></_></nodes></_>
    <_>
      <nodes>
        <_>
          <depth>0</depth>
          <value>-5.0882341239082696e-03</value>
          <splits>
            <_><var>111</var>
              <quality>1.6536821424961090e-01</quality>
              <le>-4.1330748796463013e-01</le></_></splits></_>
        <_>
          <depth>1</depth>
          <value>6.0401421728459315e-01</value></_>
        <_>
          <depth>1</depth>
          <value>-3.3675514623795827e-01</value></_></nodes></_>
    <_>
      <nodes>
        <_>
          <depth>0</depth>
          <value>-7.6547442261656364e-03</value>
          <splits>
            <_><var>49</var>
              <quality>1.4785787463188171e-01</quality>
              <le>-4.6630601882934570e+00</le></_></splits></_>
        <_>
          <depth>1</depth>
          <value>-1.3339839913983655e+00</value></_>
        <_>
          <depth>1</depth>
          <value>1.7454497897821988e-01</value></_></nodes></_>
    <_>
      <nodes>
        <_>
          <depth>0</depth>
          <value>-2.9593207626037285e-03</value>
          <splits>
            <_><var>125</var>
              <quality>1.5719190239906311e-01</quality>
              <le>9.9861800670623779e-01</le></_></splits></_>
        <_>
          <depth>1</depth>
          <value>-8.3082237685827209e-01</value></_>
        <_>
          <depth>1</depth>
          <value>2.4606168838517528e-01</value></_></nodes></_>
    <_>
      <nodes>
        <_>
          <depth>0</depth>
          <value>5.1355195413208172e-04</value>
          <splits>
            <_><var>135</var>
              <quality>1.3663454353809357e-01</quality>
              <le>3.7395949363708496e+00</le></_></splits></_>
        <_>
          <depth>1</depth>
          <value>1.5020219547039398e-01</value></_>
        <_>
          <depth>1</depth>
          <value>-2.0555199105776887e+00</value></_></nodes></_>
    <_>
      <nodes>
        <_>
          <depth>0</depth>
          <value>-3.7293603226402502e-03</value>
          <splits>
            <_><var>18</var>
              <quality>1.6177149116992950e-01</quality>
              <le>9.2561304569244385e-01</le></_></splits></_>
        <_>
          <depth>1</depth>
          <value>2.4495835731884760e-01</value></_>
        <_>
          <depth>1</depth>
          <value>-8.7151170865424932e-01</value></_></nodes></_>
    <_>
      <nodes>
        <_>
          <depth>0</depth>
          <value>3.4909683747562227e-03</value>
          <splits>
            <_><var>76</var>
              <quality>1.9990272819995880e-01</quality>
              <le>-4.5576447248458862e-01</le></_></splits></_>
        <_>
          <depth>1</depth>
          <value>-8.8484886393818352e-01</value></_>
        <_>
          <depth>1</depth>
          <value>3.0828600089008112e-01</value></_></nodes></_>
    <_>
      <nodes>
        <_>
          <depth>0</depth>
          <value>-1.1822178843856357e-02</value>
          <splits>
            <_><var>97</var>
              <quality>2.1956482529640198e-01</quality>
              <le>9.0645551681518555e+00</le></_></splits></_>
        <_>
          <depth>1</depth>
          <value>-3.1192978757913320e-01</value></_>
        <_>
          <depth>1</depth>
          <value>1.0553326662894686e+00</value></_></nodes></_>
    <_>
      <nodes>
        <_>
          <depth>0</depth>
          <value>-1.0011624271234768e-02</value>
          <splits>
            <_><var>93</var>
              <quality>1.8454724550247192e-01</quality>
              <le>-1.0350050032138824e-01</le></_></splits></_>
        <_>
          <depth>1</depth>
          <value>8.7576576670336970e-01</value></_>
        <_>
          <depth>1</depth>
          <value>-2.8983701571024101e-01</value></_></nodes></_>
    <_>
      <nodes>
        <_>
          <depth>0</depth>
          <value>-6.5693734408157397e-03</value>
          <splits>
            <_><var>46</var>
              <quality>1.9122058153152466e-01</quality>
              <le>-1.1127600669860840e+00</le></_></splits></_>
        <_>
          <depth>1</depth>
          <value>7.4466014666841585e-01</value></_>
        <_>
          <depth>1</depth>
          <value>-3.3364726322407118e-01</value></_></nodes></_>
    <_>
      <nodes>
        <_>
          <depth>0</depth>
          <value>-8.6675151701945449e-03</value>
          <splits>
            <_><var>99</var>
              <quality>1.6725866496562958e-01</quality>
              <le>2.9313650727272034e-01</le></_></splits></_>
        <_>
          <depth>1</depth>
          <value>-1.1490754352606867e+00</value></_>
        <_>
          <depth>1</depth>
          <value>2.1211676458844331e-01</value></_></nodes></_>
    <_>
      <nodes>
        <_>
          <depth>0</depth>
          <value>1.1231416719074574e-03</value>
          <splits>
            <_><var>34</var>
              <quality>1.5015695989131927e-01</quality>
              <le>-8.5334002971649170e-01</le></_></splits></_>
        <_>
          <depth>1</depth>
          <value>-4.9666055082048821e-01</value></_>
        <_>
          <depth>1</depth>
          <value>3.5894482393736105e-01</value></_></nodes></_>
    <_>
      <nodes>
        <_>
          <depth>0</depth>
          <value>-3.5318710213097762e-03</value>
          <splits>
            <_><var>135</var>
              <quality>1.4467744529247284e-01</quality>
              <le>1.6890149116516113e+00</le></_></splits></_>
        <_>
          <depth>1</depth>
          <value>1.9281637031907575e-01</value></_>
        <_>
          <depth>1</depth>
          <value>-1.0683040636725529e+00</value></_></nodes></_>
    <_>
      <nodes>
        <_>
          <depth>0</depth>
          <value>-4.2112552260240793e-03</value>
          <splits>
            <_><var>79</var>
              <quality>1.3293302059173584e-01</quality>
              <le>1.7902400344610214e-02</le></_></splits></_>
        <_>
          <depth>1</depth>
          <value>3.3187517662378996e-01</value></_>
        <_>
          <depth>1</depth>
          <value>-4.6691147450915860e-01</value></_></nodes></_>
    <_>
      <nodes>
        <_>
          <depth>0</depth>
          <value>-9.1631787341181481e-04</value>
          <splits>
            <_><var>132</var>
              <quality>1.3010269403457642e-01</quality>
              <le>-7.6369452476501465e-01</le></_></splits></_>
        <_>
          <depth>1</depth>
          <value>-4.3174914821026422e-01</value></_>
        <_>
          <depth>1</depth>
          <value>3.5024519634575718e-01</value></_></nodes></_>
    <_>
      <nodes>
        <_>
          <depth>0</depth>
          <value>-9.6520639819547716e-03</value>
          <splits>
            <_><var>1</var>
              <quality>1.4296929538249969e-01</quality>
              <le>3.7538900375366211e+00</le></_></splits></_>
        <_>
          <depth>1</depth>
          <value>-2.0992868917479177e-01</value></_>
        <_>
          <depth>1</depth>
          <value>9.8022901685089336e-01</value></_></nodes></_>
    <_>
      <nodes>
        <_>
          <depth>0</depth>
          <value>-1.0365445744398084e-03</value>
          <splits>
            <_><var>42</var>
              <quality>1.3531485199928284e-01</quality>
              <le>8.8393402099609375e-01</le></_></splits></_>
        <_>
          <depth>1</depth>
          <value>-3.1721261122301930e-01</value></_>
        <_>
          <depth>1</depth>
          <value>5.0316155337997959e-01</value></_></nodes></_>
    <_>
      <nodes>
        <_>
          <depth>0</depth>
          <value>-1.5597911061285203e-03</value>
          <splits>
            <_><var>45</var>
              <quality>1.7306470870971680e-01</quality>
              <le>3.6996550559997559e+00</le></_></splits></_>
        <_>
          <depth>1</depth>
          <value>1.8296875918338579e-01</value></_>
        <_>
          <depth>1</depth>
          <value>-5.7564577324601141e+00</value></_></nodes></_>
    <_>
      <nodes>
        <_>
          <depth>0</depth>
          <value>8.3497433148159682e-03</value>
          <splits>
            <_><var>54</var>
              <quality>1.6664497554302216e-01</quality>
              <le>6.0915350914001465e-01</le></_></splits></_>
        <_>
          <depth>1</depth>
          <value>3.0010245497120103e-01</value></_>
        <_>
          <depth>1</depth>
          <value>-7.1096037216245622e-01</value></_></nodes></_>
    <_>
      <nodes>
        <_>
          <depth>0</depth>
          <value>-2.4482886852727733e-03</value>
          <splits>
            <_><var>113</var>
              <quality>1.9610060751438141e-01</quality>
              <le>-6.4523401260375977e+00</le></_></splits></_>
        <_>
          <depth>1</depth>
          <value>8.7210183059376634e-01</value></_>
        <_>
          <depth>1</depth>
          <value>-3.0453405243556375e-01</value></_></nodes></_>
    <_>
      <nodes>
        <_>
          <depth>0</depth>
          <value>-6.6503108002686035e-03</value>
          <splits>
            <_><var>55</var>
              <quality>2.3251388967037201e-01</quality>
              <le>-2.7320850640535355e-02</le></_></splits></_>
        <_>
          <depth>1</depth>
          <value>-6.8434400172867471e-01</value></_>
        <_>
          <depth>1</depth>
          <value>4.3553030334676518e-01</value></_></nodes></_>
    <_>
      <nodes>
        <_>
          <depth>0</depth>
          <value>-6.2123385734350568e-03</value>
          <splits>
            <_><var>104</var>
              <quality>2.0773796737194061e-01</quality>
              <le>-1.4221349954605103e+00</le></_></splits></_>
        <_>
          <depth>1</depth>
          <value>3.7235247958891726e-01</value></_>
        <_>
          <depth>1</depth>
          <value>-7.0856456190798522e-01</value></_></nodes></_>
    <_>
      <nodes>
        <_>
          <depth>0</depth>
          <value>-1.3451986360200955e-03</value>
          <splits>
            <_><var>49</var>
              <quality>1.5191964805126190e-01</quality>
              <le>-4.6630601882934570e+00</le></_></splits></_>
        <_>
          <depth>1</depth>
          <value>-1.3204240003412977e+00</value></_>
        <_>
          <depth>1</depth>
          <value>1.8562166568891292e-01</value></_></nodes></_>
    <_>
      <nodes>
        <_>
          <depth>0</depth>
          <value>-2.0230068772811812e-03</value>
          <splits>
            <_><var>98</var>
              <quality>2.0339342951774597e-01</quality>
              <le>2.8619499206542969e+00</le></_></splits></_>
        <_>
          <depth>1</depth>
          <value>-5.7201177953790316e-01</value></_>
        <_>
          <depth>1</depth>
          <value>4.4054565236114213e-01</value></_></nodes></_>
    <_>
      <nodes>
        <_>
          <depth>0</depth>
          <value>-1.3430859328561965e-03</value>
          <splits>
            <_><var>36</var>
              <quality>1.8195135891437531e-01</quality>
              <le>-1.3497049808502197e+00</le></_></splits></_>
        <_>
          <depth>1</depth>
          <value>-1.0137657459257265e+00</value></_>
        <_>
          <depth>1</depth>
          <value>2.5407790117796836e-01</value></_></nodes></_>
    <_>
      <nodes>
        <_>
          <depth>0</depth>
          <value>-1.0725439105354419e-02</value>
          <splits>
            <_><var>64</var>
              <quality>1.8435408174991608e-01</quality>
              <le>2.0230099558830261e-01</le></_></splits></_>
        <_>
          <depth>1</depth>
          <value>-8.1960012448427244e-01</value></_>
        <_>
          <depth>1</depth>
          <value>2.8914838474144117e-01</value></_></nodes></_>
    <_>
      <nodes>
        <_>
          <depth>0</depth>
          <value>6.2093139205316658e-03</value>
          <splits>
            <_><var>93</var>
              <quality>1.7663235962390900e-01</quality>
              <le>2.2495949268341064e+00</le></_></splits></_>
        <_>
          <depth>1</depth>
          <value>2.6825243522690900e-01</value></_>
        <_>
          <depth>1</depth>
          <value>-9.0955597168490454e-01</value></_></nodes></_>
    <_>
      <nodes>
        <_>
          <depth>0</depth>
          <value>1.4167340743281153e-03</value>
          <splits>
            <_><var>56</var>
              <quality>1.8352197110652924e-01</quality>
              <le>-5.3790247440338135e-01</le></_></splits></_>
        <_>
          <depth>1</depth>
          <value>6.3211103018993553e-01</value></_>
        <_>
          <depth>1</depth>
          <value>-3.5945717882048944e-01</value></_></nodes></_>
    <_>
      <nodes>
        <_>
          <depth>0</depth>
          <value>-7.1394398695209700e-03</value>
          <splits>
            <_><var>105</var>
              <quality>1.6923001408576965e-01</quality>
              <le>3.2345551252365112e-01</le></_></splits></_>
        <_>
          <depth>1</depth>
          <value>-1.0951476183644229e+00</value></_>
        <_>
          <depth>1</depth>
          <value>2.2146801199692423e-01</value></_></nodes></_>
    <_>
      <nodes>
        <_>
          <depth>0</depth>
          <value>3.3048003483220584e-03</value>
          <splits>
            <_><var>46</var>
              <quality>1.6988196969032288e-01</quality>
              <le>-1.4351949691772461e+00</le></_></splits></_>
        <_>
          <depth>1</depth>
          <value>7.5545711035126017e-01</value></_>
        <_>
          <depth>1</depth>
          <value>-2.8587403360704972e-01</value></_></nodes></_>
    <_>
      <nodes>
        <_>
          <depth>0</depth>
          <value>-1.0745470730677638e-02</value>
          <splits>
            <_><var>113</var>
              <quality>1.4135003089904785e-01</quality>
              <le>-5.5031452178955078e+00</le></_></splits></_>
        <_>
          <depth>1</depth>
          <value>4.6950730035385524e-01</value></_>
        <_>
          <depth>1</depth>
          <value>-3.5681829342922505e-01</value></_></nodes></_>
    <_>
      <nodes>
        <_>
          <depth>0</depth>
          <value>-1.1742831426460659e-03</value>
          <splits>
            <_><var>78</var>
              <quality>1.3279831409454346e-01</quality>
              <le>-1.1874599456787109e+00</le></_></splits></_>
        <_>
          <depth>1</depth>
          <value>-1.5860895698024680e+00</value></_>
        <_>
          <depth>1</depth>
          <value>1.5232611712527416e-01</value></_></nodes></_>
    <_>
      <nodes>
        <_>
          <depth>0</depth>
          <value>4.1652292753537414e-04</value>
          <splits>
            <_><var>25</var>
              <quality>1.7759937047958374e-01</quality>
              <le>-3.4398450851440430e+00</le></_></splits></_>
        <_>
          <depth>1</depth>
          <value>-1.2199562737268554e+00</value></_>
        <_>
          <depth>1</depth>
          <value>2.2676699071649017e-01</value></_></nodes></_>
    <_>
      <nodes>
        <_>
          <depth>0</depth>
          <value>-1.5538210433797763e-03</value>
          <splits>
            <_><var>84</var>
              <quality>1.6742590069770813e-01</quality>
              <le>6.1009198427200317e-01</le></_></splits></_>
        <_>
          <depth>1</depth>
          <value>-3.1726977677491053e-01</value></_>
        <_>
          <depth>1</depth>
          <value>6.5576739425285813e-01</value></_></nodes></_>
    <_>
      <nodes>
        <_>
          <depth>0</depth>
          <value>6.9406457898545963e-05</value>
          <splits>
            <_><var>96</var>
              <quality>1.7824508249759674e-01</quality>
              <le>6.3689551353454590e+00</le></_></splits></_>
        <_>
          <depth>1</depth>
          <value>-5.1451839846361713e-01</value></_>
        <_>
          <depth>1</depth>
          <value>4.1931435715553828e-01</value></_></nodes></_>
    <_>
      <nodes>
        <_>
          <depth>0</depth>
          <value>-2.2160731908505782e-03</value>
          <splits>
            <_><var>43</var>
              <quality>1.4488673210144043e-01</quality>
              <le>8.7542748451232910e-01</le></_></splits></_>
        <_>
          <depth>1</depth>
          <value>2.2392994952918888e-01</value></_>
        <_>
          <depth>1</depth>
          <value>-8.4363261056299677e-01</value></_></nodes></_>
    <_>
      <nodes>
        <_>
          <depth>0</depth>
          <value>-2.2049686865707250e-04</value>
          <splits>
            <_><var>49</var>
              <quality>1.8217629194259644e-01</quality>
              <le>7.7730101346969604e-01</le></_></splits></_>
        <_>
          <depth>1</depth>
          <value>-3.1536728172280953e-01</value></_>
        <_>
          <depth>1</depth>
          <value>7.3891473810850028e-01</value></_></nodes></_>
    <_>
      <nodes>
        <_>
          <depth>0</depth>
          <value>3.3836626038798345e-03</value>
          <splits>
            <_><var>97</var>
              <quality>1.8916821479797363e-01</quality>
              <le>8.8971557617187500e+00</le></_></splits></_>
        <_>
          <depth>1</depth>
          <value>-3.1898305687748957e-01</value></_>
        <_>
          <depth>1</depth>
          <value>7.6153462299132990e-01</value></_></nodes></_>
    <_>
      <nodes>
        <_>
          <depth>0</depth>
          <value>-7.6026856915228196e-03</value>
          <splits>
            <_><var>13</var>
              <quality>1.5561220049858093e-01</quality>
              <le>2.4432349205017090e-01</le></_></splits></_>
        <_>
          <depth>1</depth>
          <value>3.1784274917582095e-01</value></_>
        <_>
          <depth>1</depth>
          <value>-5.8633256056138527e-01</value></_></nodes></_>
    <_>
      <nodes>
        <_>
          <depth>0</depth>
          <value>7.0711618204061617e-03</value>
          <splits>
            <_><var>70</var>
              <quality>1.3077412545681000e-01</quality>
              <le>-4.3708848953247070e+00</le></_></splits></_>
        <_>
          <depth>1</depth>
          <value>1.2325400809337668e+00</value></_>
        <_>
          <depth>1</depth>
          <value>-1.5889910983821726e-01</value></_></nodes></_>
    <_>
      <nodes>
        <_>
          <depth>0</depth>
          <value>-6.2866053458803068e-03</value>
          <splits>
            <_><var>8</var>
              <quality>1.4827513694763184e-01</quality>
              <le>-1.6254949569702148e+00</le></_></splits></_>
        <_>
          <depth>1</depth>
          <value>9.9783263443494763e-01</value></_>
        <_>
          <depth>1</depth>
          <value>-2.1295435337761884e-01</value></_></nodes></_>
    <_>
      <nodes>
        <_>
          <depth>0</depth>
          <value>1.0065686648612648e-04</value>
          <splits>
            <_><var>33</var>
              <quality>1.3671240210533142e-01</quality>
              <le>3.1262998580932617e+00</le></_></splits></_>
        <_>
          <depth>1</depth>
          <value>-3.0976895746408178e-01</value></_>
        <_>
          <depth>1</depth>
          <value>5.2216261881640702e-01</value></_></nodes></_>
    <_>
      <nodes>
        <_>
          <depth>0</depth>
          <value>5.1712685616480437e-03</value>
          <splits>
            <_><var>79</var>
              <quality>1.9289146363735199e-01</quality>
              <le>3.2661449909210205e-01</le></_></splits></_>
        <_>
          <depth>1</depth>
          <value>3.3093851988287970e-01</value></_>
        <_>
          <depth>1</depth>
          <value>-7.6004424790386427e-01</value></_></nodes></_>
    <_>
      <nodes>
        <_>
          <depth>0</depth>
          <value>-1.0405114007497835e-04</value>
          <splits>
            <_><var>14</var>
              <quality>1.8537318706512451e-01</quality>
              <le>-1.5914549827575684e+00</le></_></splits></_>
        <_>
          <depth>1</depth>
          <value>-9.8135238860996510e-01</value></_>
        <_>
          <depth>1</depth>
          <value>2.6504852420095337e-01</value></_></nodes></_>
    <_>
      <nodes>
        <_>
          <depth>0</depth>
          <value>5.4240439955599833e-03</value>
          <splits>
            <_><var>96</var>
              <quality>1.6824845969676971e-01</quality>
              <le>6.2865102291107178e-01</le></_></splits></_>
        <_>
          <depth>1</depth>
          <value>-1.0881920455000527e+00</value></_>
        <_>
          <depth>1</depth>
          <value>2.3046586902514982e-01</value></_></nodes></_>
    <_>
      <nodes>
        <_>
          <depth>0</depth>
          <value>3.8817177207715284e-04</value>
          <splits>
            <_><var>50</var>
              <quality>1.7582568526268005e-01</quality>
              <le>2.5933351516723633e+00</le></_></splits></_>
        <_>
          <depth>1</depth>
          <value>1.9226065448417823e-01</value></_>
        <_>
          <depth>1</depth>
          <value>-2.2114005718192180e+00</value></_></nodes></_>
    <_>
      <nodes>
        <_>
          <depth>0</depth>
          <value>-1.0782488333166815e-03</value>
          <splits>
            <_><var>98</var>
              <quality>1.3761469721794128e-01</quality>
              <le>4.9487848281860352e+00</le></_></splits></_>
        <_>
          <depth>1</depth>
          <value>-3.6656380733891597e-01</value></_>
        <_>
          <depth>1</depth>
          <value>4.3917696994732275e-01</value></_></nodes></_>
    <_>
      <nodes>
        <_>
          <depth>0</depth>
          <value>-1.4158637120787823e-03</value>
          <splits>
            <_><var>100</var>
              <quality>1.4207829535007477e-01</quality>
              <le>-1.5424649715423584e+00</le></_></splits></_>
        <_>
          <depth>1</depth>
          <value>8.8806869758542584e-01</value></_>
        <_>
          <depth>1</depth>
          <value>-2.1491682606441365e-01</value></_></nodes></_>
    <_>
      <nodes>
        <_>
          <depth>0</depth>
          <value>2.6232348256439659e-03</value>
          <splits>
            <_><var>76</var>
              <quality>1.2799391150474548e-01</quality>
              <le>-6.6768252849578857e-01</le></_></splits></_>
        <_>
          <depth>1</depth>
          <value>-8.5871294985449798e-01</value></_>
        <_>
          <depth>1</depth>
          <value>1.9822888015159690e-01</value></_></nodes></_>
    <_>
      <nodes>
        <_>
          <depth>0</depth>
          <value>-4.5320838939588619e-03</value>
          <splits>
            <_><var>42</var>
              <quality>1.2864303588867188e-01</quality>
              <le>-1.2156699895858765e+00</le></_></splits></_>
        <_>
          <depth>1</depth>
          <value>-1.3270376831856903e+00</value></_>
        <_>
          <depth>1</depth>
          <value>1.5344023095978496e-01</value></_></nodes></_>
    <_>
      <nodes>
        <_>
          <depth>0</depth>
          <value>-3.6549046426407935e-03</value>
          <splits>
            <_><var>61</var>
              <quality>1.4961385726928711e-01</quality>
              <le>-2.8796601295471191e+00</le></_></splits></_>
        <_>
          <depth>1</depth>
          <value>8.2512929970186411e-01</value></_>
        <_>
          <depth>1</depth>
          <value>-2.3936361722147909e-01</value></_></nodes></_>
    <_>
      <nodes>
        <_>
          <depth>0</depth>
          <value>-3.3899562229280471e-03</value>
          <splits>
            <_><var>48</var>
              <quality>1.6975265741348267e-01</quality>
              <le>5.1267248392105103e-01</le></_></splits></_>
        <_>
          <depth>1</depth>
          <value>-4.2748000475071446e-01</value></_>
        <_>
          <depth>1</depth>
          <value>4.7657750599511434e-01</value></_></nodes></_>
    <_>
      <nodes>
        <_>
          <depth>0</depth>
          <value>2.8392879120191909e-03</value>
          <splits>
            <_><var>30</var>
              <quality>1.4195947349071503e-01</quality>
              <le>-3.2076399326324463e+00</le></_></splits></_>
        <_>
          <depth>1</depth>
          <value>-1.7855838621886322e+00</value></_>
        <_>
          <depth>1</depth>
          <value>1.6186285971718853e-01</value></_></nodes></_>
    <_>
      <nodes>
        <_>
          <depth>0</depth>
          <value>2.2543312099394934e-03</value>
          <splits>
            <_><var>106</var>
              <quality>1.9611872732639313e-01</quality>
              <le>-6.9734349250793457e+00</le></_></splits></_>
        <_>
          <depth>1</depth>
          <value>6.8225063940569641e-01</value></_>
        <_>
          <depth>1</depth>
          <value>-3.6244448216430541e-01</value></_></nodes></_>
    <_>
      <nodes>
        <_>
          <depth>0</depth>
          <value>-1.0039402097701015e-02</value>
          <splits>
            <_><var>37</var>
              <quality>1.5309517085552216e-01</quality>
              <le>-3.8121547698974609e+00</le></_></splits></_>
        <_>
          <depth>1</depth>
          <value>-1.0428271947281416e+00</value></_>
        <_>
          <depth>1</depth>
          <value>2.0214562462498070e-01</value></_></nodes></_>
    <_>
      <nodes>
        <_>
          <depth>0</depth>
          <value>-1.5642119017067362e-03</value>
          <splits>
            <_><var>17</var>
              <quality>1.8277071416378021e-01</quality>
              <le>-2.6231250762939453e+00</le></_></splits></_>
        <_>
          <depth>1</depth>
          <value>5.7534892786546787e-01</value></_>
        <_>
          <depth>1</depth>
          <value>-3.8958456473376890e-01</value></_></nodes></_></trees></opencv_ml_boost>
</opencv_storage>
