<?xml version="1.0"?>
<opencv_storage>
<opencv_ml_boost>
  <format>3</format>
  <is_classifier>1</is_classifier>
  <var_all>137</var_all>
  <var_count>136</var_count>
  <ord_var_count>136</ord_var_count>
  <cat_var_count>1</cat_var_count>
  <training_params>
    <boosting_type>RealAdaboost</boosting_type>
    <use_surrogates>0</use_surrogates>
    <max_categories>10</max_categories>
    <regression_accuracy>9.9999997764825821e-03</regression_accuracy>
    <max_depth>1</max_depth>
    <min_sample_count>10</min_sample_count>
    <cross_validation_folds>0</cross_validation_folds>
    <weight_trimming_rate>9.4999999999999996e-01</weight_trimming_rate></training_params>
  <global_var_idx>1</global_var_idx>
  <var_idx>
    0 1 2 3 4 5 6 7 8 9 10 11 12 13 14 15 16 17 18 19 20 21 22 23 24 25
    26 27 28 29 30 31 32 33 34 35 36 37 38 39 40 41 42 43 44 45 46 47 48
    49 50 51 52 53 54 55 56 57 58 59 60 61 62 63 64 65 66 67 68 69 70 71
    72 73 74 75 76 77 78 79 80 81 82 83 84 85 86 87 88 89 90 91 92 93 94
    95 96 97 98 99 100 101 102 103 104 105 106 107 108 109 110 111 112
    113 114 115 116 117 118 119 120 121 122 123 124 125 126 127 128 129
    130 131 132 133 134 135</var_idx>
  <var_type>
    0 0 0 0 0 0 0 0 0 0 0 0 0 0 0 0 0 0 0 0 0 0 0 0 0 0 0 0 0 0 0 0 0 0
    0 0 0 0 0 0 0 0 0 0 0 0 0 0 0 0 0 0 0 0 0 0 0 0 0 0 0 0 0 0 0 0 0 0
    0 0 0 0 0 0 0 0 0 0 0 0 0 0 0 0 0 0 0 0 0 0 0 0 0 0 0 0 0 0 0 0 0 0
    0 0 0 0 0 0 0 0 0 0 0 0 0 0 0 0 0 0 0 0 0 0 0 0 0 0 0 0 0 0 0 0 0 0
    1</var_type>
  <cat_ofs>
    0 0 0 0 0 0 0 0 0 0 0 0 0 0 0 0 0 0 0 0 0 0 0 0 0 0 0 0 0 0 0 0 0 0
    0 0 0 0 0 0 0 0 0 0 0 0 0 0 0 0 0 0 0 0 0 0 0 0 0 0 0 0 0 0 0 0 0 0
    0 0 0 0 0 0 0 0 0 0 0 0 0 0 0 0 0 0 0 0 0 0 0 0 0 0 0 0 0 0 0 0 0 0
    0 0 0 0 0 0 0 0 0 0 0 0 0 0 0 0 0 0 0 0 0 0 0 0 0 0 0 0 0 0 0 0 0 0
    0 0 0 0 0 0 0 0 0 0 0 0 0 0 0 0 0 0 0 0 0 0 0 0 0 0 0 0 0 0 0 0 0 0
    0 0 0 0 0 0 0 0 0 0 0 0 0 0 0 0 0 0 0 0 0 0 0 0 0 0 0 0 0 0 0 0 0 0
    0 0 0 0 0 0 0 0 0 0 0 0 0 0 0 0 0 0 0 0 0 0 0 0 0 0 0 0 0 0 0 0 0 0
    0 0 0 0 0 0 0 0 0 0 0 0 0 0 0 0 0 0 0 0 0 0 0 0 0 0 0 0 0 0 0 0 0 0</cat_ofs>
  <class_labels>
    -1082130432 1065353216</class_labels>
  <missing_subst>
    0. 0. 0. 0. 0. 0. 0. 0. 0. 0. 0. 0. 0. 0. 0. 0. 0. 0. 0. 0. 0. 0. 0.
    0. 0. 0. 0. 0. 0. 0. 0. 0. 0. 0. 0. 0. 0. 0. 0. 0. 0. 0. 0. 0. 0. 0.
    0. 0. 0. 0. 0. 0. 0. 0. 0. 0. 0. 0. 0. 0. 0. 0. 0. 0. 0. 0. 0. 0. 0.
    0. 0. 0. 0. 0. 0. 0. 0. 0. 0. 0. 0. 0. 0. 0. 0. 0. 0. 0. 0. 0. 0. 0.
    0. 0. 0. 0. 0. 0. 0. 0. 0. 0. 0. 0. 0. 0. 0. 0. 0. 0. 0. 0. 0. 0. 0.
    0. 0. 0. 0. 0. 0. 0. 0. 0. 0. 0. 0. 0. 0. 0. 0. 0. 0. 0. 0. 0. 0.</missing_subst>
  <ntrees>100</ntrees>
  <trees>
    <_>
      <nodes>
        <_>
          <depth>0</depth>
          <value>-1.0622892687507521e+00</value>
          <splits>
            <_><var>71</var>
              <quality>7.6742917299270630e-01</quality>
              <le>5.4936447143554688e+00</le></_></splits></_>
        <_>
          <depth>1</depth>
          <value>-1.5006362269648035e+00</value></_>
        <_>
          <depth>1</depth>
          <value>5.0580045583924038e-01</value></_></nodes></_>
    <_>
      <nodes>
        <_>
          <depth>0</depth>
          <value>-1.0739893922966180e-08</value>
          <splits>
            <_><var>43</var>
              <quality>4.9879607558250427e-01</quality>
              <le>-2.3237750530242920e+00</le></_></splits></_>
        <_>
          <depth>1</depth>
          <value>8.1332737748974882e-01</value></_>
        <_>
          <depth>1</depth>
          <value>-9.5690992849893974e-01</value></_></nodes></_>
    <_>
      <nodes>
        <_>
          <depth>0</depth>
          <value>1.4689397704486061e-08</value>
          <splits>
            <_><var>63</var>
              <quality>3.5206615924835205e-01</quality>
              <le>5.3141748905181885e-01</le></_></splits></_>
        <_>
          <depth>1</depth>
          <value>-1.4906260488415697e+00</value></_>
        <_>
          <depth>1</depth>
          <value>4.1144059796886473e-01</value></_></nodes></_>
    <_>
      <nodes>
        <_>
          <depth>0</depth>
          <value>3.6643735182902017e-02</value>
          <splits>
            <_><var>135</var>
              <quality>2.7976354956626892e-01</quality>
              <le>-2.2518100738525391e+00</le></_></splits></_>
        <_>
          <depth>1</depth>
          <value>-1.0844117188849483e+00</value></_>
        <_>
          <depth>1</depth>
          <value>4.0452253832188562e-01</value></_></nodes></_>
    <_>
      <nodes>
        <_>
          <depth>0</depth>
          <value>4.7190842122248745e-09</value>
          <splits>
            <_><var>42</var>
              <quality>1.5021173655986786e-01</quality>
              <le>-1.8878099918365479e+00</le></_></splits></_>
        <_>
          <depth>1</depth>
          <value>-6.4364616827980647e-01</value></_>
        <_>
          <depth>1</depth>
          <value>2.8453142263614528e-01</value></_></nodes></_>
    <_>
      <nodes>
        <_>
          <depth>0</depth>
          <value>-4.8354985443712035e-02</value>
          <splits>
            <_><var>87</var>
              <quality>2.0911917090415955e-01</quality>
              <le>-2.7065849304199219e-01</le></_></splits></_>
        <_>
          <depth>1</depth>
          <value>2.3300081308639203e-01</value></_>
        <_>
          <depth>1</depth>
          <value>-1.1092760544932294e+00</value></_></nodes></_>
    <_>
      <nodes>
        <_>
          <depth>0</depth>
          <value>3.2903674397842891e-02</value>
          <splits>
            <_><var>120</var>
              <quality>2.4657961726188660e-01</quality>
              <le>3.7156548500061035e+00</le></_></splits></_>
        <_>
          <depth>1</depth>
          <value>3.0397143888926509e-01</value></_>
        <_>
          <depth>1</depth>
          <value>-1.7669560443391237e+00</value></_></nodes></_>
    <_>
      <nodes>
        <_>
          <depth>0</depth>
          <value>-1.4503261171662989e-02</value>
          <splits>
            <_><var>118</var>
              <quality>1.7695064842700958e-01</quality>
              <le>-1.0306945443153381e-01</le></_></splits></_>
        <_>
          <depth>1</depth>
          <value>-5.4808257676357031e-01</value></_>
        <_>
          <depth>1</depth>
          <value>3.8398332060485635e-01</value></_></nodes></_>
    <_>
      <nodes>
        <_>
          <depth>0</depth>
          <value>-3.3383498004406119e-02</value>
          <splits>
            <_><var>130</var>
              <quality>1.6951905190944672e-01</quality>
              <le>-8.1072247028350830e-01</le></_></splits></_>
        <_>
          <depth>1</depth>
          <value>4.5566882738631387e-01</value></_>
        <_>
          <depth>1</depth>
          <value>-4.3538163442484296e-01</value></_></nodes></_>
    <_>
      <nodes>
        <_>
          <depth>0</depth>
          <value>7.4783047130262299e-03</value>
          <splits>
            <_><var>45</var>
              <quality>1.4008726179599762e-01</quality>
              <le>5.3134851455688477e+00</le></_></splits></_>
        <_>
          <depth>1</depth>
          <value>1.5773140285926124e-01</value></_>
        <_>
          <depth>1</depth>
          <value>-2.2875559334871403e+00</value></_></nodes></_>
    <_>
      <nodes>
        <_>
          <depth>0</depth>
          <value>1.1253134955763315e-04</value>
          <splits>
            <_><var>128</var>
              <quality>1.7976577579975128e-01</quality>
              <le>-9.7382354736328125e-01</le></_></splits></_>
        <_>
          <depth>1</depth>
          <value>-7.4551291751790227e-01</value></_>
        <_>
          <depth>1</depth>
          <value>3.0815772745819614e-01</value></_></nodes></_>
    <_>
      <nodes>
        <_>
          <depth>0</depth>
          <value>-3.1807921385906851e-02</value>
          <splits>
            <_><var>93</var>
              <quality>1.6925762593746185e-01</quality>
              <le>2.3873200416564941e+00</le></_></splits></_>
        <_>
          <depth>1</depth>
          <value>-3.2479410675930082e-01</value></_>
        <_>
          <depth>1</depth>
          <value>6.7348798200821991e-01</value></_></nodes></_>
    <_>
      <nodes>
        <_>
          <depth>0</depth>
          <value>-1.0097082504542556e-02</value>
          <splits>
            <_><var>107</var>
              <quality>1.0862646996974945e-01</quality>
              <le>-7.1356201171875000e-01</le></_></splits></_>
        <_>
          <depth>1</depth>
          <value>-2.0323564112520929e+00</value></_>
        <_>
          <depth>1</depth>
          <value>1.0709367943484802e-01</value></_></nodes></_>
    <_>
      <nodes>
        <_>
          <depth>0</depth>
          <value>2.8903608548299297e-03</value>
          <splits>
            <_><var>128</var>
              <quality>1.1491812020540237e-01</quality>
              <le>-6.8141098022460938e+00</le></_></splits></_>
        <_>
          <depth>1</depth>
          <value>-5.7564577324601141e+00</value></_>
        <_>
          <depth>1</depth>
          <value>1.2148141765856305e-01</value></_></nodes></_>
    <_>
      <nodes>
        <_>
          <depth>0</depth>
          <value>-9.5105612364888363e-10</value>
          <splits>
            <_><var>86</var>
              <quality>1.6588392853736877e-01</quality>
              <le>-4.0047448873519897e-01</le></_></splits></_>
        <_>
          <depth>1</depth>
          <value>4.4202472058261993e-01</value></_>
        <_>
          <depth>1</depth>
          <value>-4.3466835447892760e-01</value></_></nodes></_>
    <_>
      <nodes>
        <_>
          <depth>0</depth>
          <value>-4.9452173546487141e-03</value>
          <splits>
            <_><var>33</var>
              <quality>1.8396806716918945e-01</quality>
              <le>-1.2643849849700928e+00</le></_></splits></_>
        <_>
          <depth>1</depth>
          <value>7.6380539704952377e-01</value></_>
        <_>
          <depth>1</depth>
          <value>-3.0265409142414507e-01</value></_></nodes></_>
    <_>
      <nodes>
        <_>
          <depth>0</depth>
          <value>2.8975971228477306e-02</value>
          <splits>
            <_><var>104</var>
              <quality>1.4906729757785797e-01</quality>
              <le>-5.0411248207092285e-01</le></_></splits></_>
        <_>
          <depth>1</depth>
          <value>5.6147049332242793e-01</value></_>
        <_>
          <depth>1</depth>
          <value>-3.0529747105251354e-01</value></_></nodes></_>
    <_>
      <nodes>
        <_>
          <depth>0</depth>
          <value>-3.0129482422654240e-03</value>
          <splits>
            <_><var>116</var>
              <quality>1.4927107095718384e-01</quality>
              <le>2.1041350364685059e+00</le></_></splits></_>
        <_>
          <depth>1</depth>
          <value>-2.8997521356966621e-01</value></_>
        <_>
          <depth>1</depth>
          <value>6.3261666097196212e-01</value></_></nodes></_>
    <_>
      <nodes>
        <_>
          <depth>0</depth>
          <value>5.5786920839990062e-03</value>
          <splits>
            <_><var>70</var>
              <quality>1.3495570421218872e-01</quality>
              <le>-1.1741249561309814e+00</le></_></splits></_>
        <_>
          <depth>1</depth>
          <value>4.3533719994302739e-01</value></_>
        <_>
          <depth>1</depth>
          <value>-3.6044356872818373e-01</value></_></nodes></_>
    <_>
      <nodes>
        <_>
          <depth>0</depth>
          <value>-6.6057639203576032e-03</value>
          <splits>
            <_><var>113</var>
              <quality>1.8643037974834442e-01</quality>
              <le>6.0519499778747559e+00</le></_></splits></_>
        <_>
          <depth>1</depth>
          <value>2.8338646654331129e-01</value></_>
        <_>
          <depth>1</depth>
          <value>-8.6848469556826047e-01</value></_></nodes></_>
    <_>
      <nodes>
        <_>
          <depth>0</depth>
          <value>-1.6888920783159943e-03</value>
          <splits>
            <_><var>101</var>
              <quality>2.4118277430534363e-01</quality>
              <le>2.4230999946594238e+00</le></_></splits></_>
        <_>
          <depth>1</depth>
          <value>-5.4091566467666097e-01</value></_>
        <_>
          <depth>1</depth>
          <value>5.6836538227152222e-01</value></_></nodes></_>
    <_>
      <nodes>
        <_>
          <depth>0</depth>
          <value>1.7522943332126315e-03</value>
          <splits>
            <_><var>87</var>
              <quality>1.0783389210700989e-01</quality>
              <le>-8.1371700763702393e-01</le></_></splits></_>
        <_>
          <depth>1</depth>
          <value>2.4606674410135521e-01</value></_>
        <_>
          <depth>1</depth>
          <value>-5.1290790001541531e-01</value></_></nodes></_>
    <_>
      <nodes>
        <_>
          <depth>0</depth>
          <value>6.9063592842077163e-03</value>
          <splits>
            <_><var>128</var>
              <quality>1.1841529607772827e-01</quality>
              <le>-9.7382354736328125e-01</le></_></splits></_>
        <_>
          <depth>1</depth>
          <value>-7.2789320869631247e-01</value></_>
        <_>
          <depth>1</depth>
          <value>2.0806293384621635e-01</value></_></nodes></_>
    <_>
      <nodes>
        <_>
          <depth>0</depth>
          <value>-5.1203745159965428e-03</value>
          <splits>
            <_><var>57</var>
              <quality>1.2918457388877869e-01</quality>
              <le>5.5787048339843750e+00</le></_></splits></_>
        <_>
          <depth>1</depth>
          <value>1.3230780945457560e-01</value></_>
        <_>
          <depth>1</depth>
          <value>-5.7564577324601141e+00</value></_></nodes></_>
    <_>
      <nodes>
        <_>
          <depth>0</depth>
          <value>-1.1092777996620298e-02</value>
          <splits>
            <_><var>20</var>
              <quality>1.8004804849624634e-01</quality>
              <le>3.8356000185012817e-01</le></_></splits></_>
        <_>
          <depth>1</depth>
          <value>3.3754224868778165e-01</value></_>
        <_>
          <depth>1</depth>
          <value>-6.5375121627560628e-01</value></_></nodes></_>
    <_>
      <nodes>
        <_>
          <depth>0</depth>
          <value>-7.5136916589648465e-03</value>
          <splits>
            <_><var>63</var>
              <quality>1.4772008359432220e-01</quality>
              <le>3.8025550842285156e+00</le></_></splits></_>
        <_>
          <depth>1</depth>
          <value>-2.3401273057900998e-01</value></_>
        <_>
          <depth>1</depth>
          <value>8.5118122473657498e-01</value></_></nodes></_>
    <_>
      <nodes>
        <_>
          <depth>0</depth>
          <value>2.4559962315108845e-03</value>
          <splits>
            <_><var>111</var>
              <quality>1.4644835889339447e-01</quality>
              <le>-6.6574096679687500e-01</le></_></splits></_>
        <_>
          <depth>1</depth>
          <value>7.5547120220004182e-01</value></_>
        <_>
          <depth>1</depth>
          <value>-2.4470537245469301e-01</value></_></nodes></_>
    <_>
      <nodes>
        <_>
          <depth>0</depth>
          <value>-8.1230768903281531e-03</value>
          <splits>
            <_><var>97</var>
              <quality>1.1776275187730789e-01</quality>
              <le>-9.3230996280908585e-03</le></_></splits></_>
        <_>
          <depth>1</depth>
          <value>-8.3962041701645374e-01</value></_>
        <_>
          <depth>1</depth>
          <value>1.7658413318915356e-01</value></_></nodes></_>
    <_>
      <nodes>
        <_>
          <depth>0</depth>
          <value>-2.3674341576251277e-03</value>
          <splits>
            <_><var>78</var>
              <quality>1.3719469308853149e-01</quality>
              <le>1.1804150342941284e+00</le></_></splits></_>
        <_>
          <depth>1</depth>
          <value>-2.6750655887171637e-01</value></_>
        <_>
          <depth>1</depth>
          <value>6.2584670557002142e-01</value></_></nodes></_>
    <_>
      <nodes>
        <_>
          <depth>0</depth>
          <value>7.8679000965512619e-05</value>
          <splits>
            <_><var>50</var>
              <quality>1.2450987845659256e-01</quality>
              <le>1.2136549949645996e+00</le></_></splits></_>
        <_>
          <depth>1</depth>
          <value>2.2357331442678127e-01</value></_>
        <_>
          <depth>1</depth>
          <value>-6.8716377019420682e-01</value></_></nodes></_>
    <_>
      <nodes>
        <_>
          <depth>0</depth>
          <value>-8.0975067022948221e-03</value>
          <splits>
            <_><var>69</var>
              <quality>1.0637400299310684e-01</quality>
              <le>-4.5802348852157593e-01</le></_></splits></_>
        <_>
          <depth>1</depth>
          <value>-1.1851355118985605e+00</value></_>
        <_>
          <depth>1</depth>
          <value>1.2892476472513659e-01</value></_></nodes></_>
    <_>
      <nodes>
        <_>
          <depth>0</depth>
          <value>-2.0035036343643152e-04</value>
          <splits>
            <_><var>55</var>
              <quality>1.2046827375888824e-01</quality>
              <le>-4.9483448266983032e-01</le></_></splits></_>
        <_>
          <depth>1</depth>
          <value>3.9348809599001133e-01</value></_>
        <_>
          <depth>1</depth>
          <value>-3.5271845378143102e-01</value></_></nodes></_>
    <_>
      <nodes>
        <_>
          <depth>0</depth>
          <value>4.7352770903101972e-03</value>
          <splits>
            <_><var>71</var>
              <quality>1.1014828085899353e-01</quality>
              <le>6.1485800743103027e+00</le></_></splits></_>
        <_>
          <depth>1</depth>
          <value>-1.1423380733580009e-01</value></_>
        <_>
          <depth>1</depth>
          <value>2.3886784209697147e+00</value></_></nodes></_>
    <_>
      <nodes>
        <_>
          <depth>0</depth>
          <value>-1.0392519137610350e-02</value>
          <splits>
            <_><var>42</var>
              <quality>1.4618608355522156e-01</quality>
              <le>-3.2397799491882324e+00</le></_></splits></_>
        <_>
          <depth>1</depth>
          <value>-1.0891161579112911e+00</value></_>
        <_>
          <depth>1</depth>
          <value>1.8738749524637763e-01</value></_></nodes></_>
    <_>
      <nodes>
        <_>
          <depth>0</depth>
          <value>-9.6847511976591513e-03</value>
          <splits>
            <_><var>130</var>
              <quality>1.2003248184919357e-01</quality>
              <le>6.5307602286338806e-02</le></_></splits></_>
        <_>
          <depth>1</depth>
          <value>2.6409124238647336e-01</value></_>
        <_>
          <depth>1</depth>
          <value>-5.2453008809910895e-01</value></_></nodes></_>
    <_>
      <nodes>
        <_>
          <depth>0</depth>
          <value>-4.0671130622227832e-02</value>
          <splits>
            <_><var>38</var>
              <quality>1.3132806122303009e-01</quality>
              <le>-1.2380049228668213e+00</le></_></splits></_>
        <_>
          <depth>1</depth>
          <value>5.0061009796237121e-01</value></_>
        <_>
          <depth>1</depth>
          <value>-3.1492442321495612e-01</value></_></nodes></_>
    <_>
      <nodes>
        <_>
          <depth>0</depth>
          <value>2.8297488055370815e-02</value>
          <splits>
            <_><var>53</var>
              <quality>1.1811905354261398e-01</quality>
              <le>3.9776549339294434e+00</le></_></splits></_>
        <_>
          <depth>1</depth>
          <value>-1.1256233620053091e-01</value></_>
        <_>
          <depth>1</depth>
          <value>1.5178384240369280e+00</value></_></nodes></_>
    <_>
      <nodes>
        <_>
          <depth>0</depth>
          <value>-4.8920108534184700e-03</value>
          <splits>
            <_><var>108</var>
              <quality>1.1069450527429581e-01</quality>
              <le>-1.2912299633026123e+00</le></_></splits></_>
        <_>
          <depth>1</depth>
          <value>-7.6690230739840082e-01</value></_>
        <_>
          <depth>1</depth>
          <value>1.7896043948977564e-01</value></_></nodes></_>
    <_>
      <nodes>
        <_>
          <depth>0</depth>
          <value>-3.3818540449355609e-02</value>
          <splits>
            <_><var>41</var>
              <quality>1.5207983553409576e-01</quality>
              <le>-8.0145150423049927e-01</le></_></splits></_>
        <_>
          <depth>1</depth>
          <value>2.1804597561945743e-01</value></_>
        <_>
          <depth>1</depth>
          <value>-7.8472735710520447e-01</value></_></nodes></_>
    <_>
      <nodes>
        <_>
          <depth>0</depth>
          <value>2.9779407774260819e-02</value>
          <splits>
            <_><var>42</var>
              <quality>1.5222638845443726e-01</quality>
              <le>-1.5155049562454224e+00</le></_></splits></_>
        <_>
          <depth>1</depth>
          <value>-5.2104971967941871e-01</value></_>
        <_>
          <depth>1</depth>
          <value>3.5778442855468817e-01</value></_></nodes></_>
    <_>
      <nodes>
        <_>
          <depth>0</depth>
          <value>-1.7885926944048940e-02</value>
          <splits>
            <_><var>77</var>
              <quality>1.1087431758642197e-01</quality>
              <le>-1.0206249952316284e+00</le></_></splits></_>
        <_>
          <depth>1</depth>
          <value>2.2167249275385723e-01</value></_>
        <_>
          <depth>1</depth>
          <value>-5.6421915384195298e-01</value></_></nodes></_>
    <_>
      <nodes>
        <_>
          <depth>0</depth>
          <value>1.0378203404758025e-02</value>
          <splits>
            <_><var>109</var>
              <quality>9.0617515146732330e-02</quality>
              <le>-1.7683300971984863e+00</le></_></splits></_>
        <_>
          <depth>1</depth>
          <value>-1.5140261515446618e+00</value></_>
        <_>
          <depth>1</depth>
          <value>1.1467888487863186e-01</value></_></nodes></_>
    <_>
      <nodes>
        <_>
          <depth>0</depth>
          <value>-2.6503173288242531e-03</value>
          <splits>
            <_><var>120</var>
              <quality>1.0801620036363602e-01</quality>
              <le>6.1574950218200684e+00</le></_></splits></_>
        <_>
          <depth>1</depth>
          <value>1.1182930823377714e-01</value></_>
        <_>
          <depth>1</depth>
          <value>-5.7564577324601141e+00</value></_></nodes></_>
    <_>
      <nodes>
        <_>
          <depth>0</depth>
          <value>-1.8622358301436754e-03</value>
          <splits>
            <_><var>130</var>
              <quality>1.6197447478771210e-01</quality>
              <le>-1.1826800107955933e+00</le></_></splits></_>
        <_>
          <depth>1</depth>
          <value>6.6004016520088049e-01</value></_>
        <_>
          <depth>1</depth>
          <value>-3.0482588579597469e-01</value></_></nodes></_>
    <_>
      <nodes>
        <_>
          <depth>0</depth>
          <value>-1.0253909094408742e-05</value>
          <splits>
            <_><var>60</var>
              <quality>1.7349815368652344e-01</quality>
              <le>1.1501200199127197e+00</le></_></splits></_>
        <_>
          <depth>1</depth>
          <value>-3.2718123314819580e-01</value></_>
        <_>
          <depth>1</depth>
          <value>6.5952474327558686e-01</value></_></nodes></_>
    <_>
      <nodes>
        <_>
          <depth>0</depth>
          <value>2.3031530592178585e-03</value>
          <splits>
            <_><var>117</var>
              <quality>1.2947310507297516e-01</quality>
              <le>1.4118800163269043e+00</le></_></splits></_>
        <_>
          <depth>1</depth>
          <value>4.5858239092684888e-01</value></_>
        <_>
          <depth>1</depth>
          <value>-3.2850226020056106e-01</value></_></nodes></_>
    <_>
      <nodes>
        <_>
          <depth>0</depth>
          <value>-1.6882517845392152e-02</value>
          <splits>
            <_><var>83</var>
              <quality>1.6244576871395111e-01</quality>
              <le>1.2119799852371216e+00</le></_></splits></_>
        <_>
          <depth>1</depth>
          <value>-4.4842631627196522e-01</value></_>
        <_>
          <depth>1</depth>
          <value>4.3077463194275206e-01</value></_></nodes></_>
    <_>
      <nodes>
        <_>
          <depth>0</depth>
          <value>6.9423625967606302e-03</value>
          <splits>
            <_><var>0</var>
              <quality>1.4384867250919342e-01</quality>
              <le>8.7607699632644653e-01</le></_></splits></_>
        <_>
          <depth>1</depth>
          <value>3.9781817944206205e-01</value></_>
        <_>
          <depth>1</depth>
          <value>-4.2480164421221300e-01</value></_></nodes></_>
    <_>
      <nodes>
        <_>
          <depth>0</depth>
          <value>-1.3032475989621531e-02</value>
          <splits>
            <_><var>8</var>
              <quality>1.0623251646757126e-01</quality>
              <le>-1.1129800081253052e+00</le></_></splits></_>
        <_>
          <depth>1</depth>
          <value>-6.2680445398008600e-01</value></_>
        <_>
          <depth>1</depth>
          <value>1.9510967026235163e-01</value></_></nodes></_>
    <_>
      <nodes>
        <_>
          <depth>0</depth>
          <value>-4.2576238573600440e-02</value>
          <splits>
            <_><var>80</var>
              <quality>1.2404428422451019e-01</quality>
              <le>1.3947999477386475e+00</le></_></splits></_>
        <_>
          <depth>1</depth>
          <value>-1.9232681073253416e-01</value></_>
        <_>
          <depth>1</depth>
          <value>1.1026843968881588e+00</value></_></nodes></_>
    <_>
      <nodes>
        <_>
          <depth>0</depth>
          <value>-2.7772727131832914e-03</value>
          <splits>
            <_><var>99</var>
              <quality>1.1912829428911209e-01</quality>
              <le>1.6028749942779541e+00</le></_></splits></_>
        <_>
          <depth>1</depth>
          <value>-4.7920797308798724e-01</value></_>
        <_>
          <depth>1</depth>
          <value>2.7723106889417137e-01</value></_></nodes></_>
    <_>
      <nodes>
        <_>
          <depth>0</depth>
          <value>3.0507340944324300e-02</value>
          <splits>
            <_><var>113</var>
              <quality>2.0337253808975220e-01</quality>
              <le>5.3248949050903320e+00</le></_></splits></_>
        <_>
          <depth>1</depth>
          <value>3.9210005463261277e-01</value></_>
        <_>
          <depth>1</depth>
          <value>-6.8007422783388294e-01</value></_></nodes></_>
    <_>
      <nodes>
        <_>
          <depth>0</depth>
          <value>-4.8212931314279603e-02</value>
          <splits>
            <_><var>69</var>
              <quality>1.8072795867919922e-01</quality>
              <le>2.3830752372741699e+00</le></_></splits></_>
        <_>
          <depth>1</depth>
          <value>-3.7515813775903473e-01</value></_>
        <_>
          <depth>1</depth>
          <value>5.9971114871825593e-01</value></_></nodes></_>
    <_>
      <nodes>
        <_>
          <depth>0</depth>
          <value>3.2805020829323343e-02</value>
          <splits>
            <_><var>59</var>
              <quality>1.6769178211688995e-01</quality>
              <le>-2.3689649999141693e-01</le></_></splits></_>
        <_>
          <depth>1</depth>
          <value>4.6540773429649990e-01</value></_>
        <_>
          <depth>1</depth>
          <value>-4.2844944291090792e-01</value></_></nodes></_>
    <_>
      <nodes>
        <_>
          <depth>0</depth>
          <value>4.6851347675843438e-03</value>
          <splits>
            <_><var>50</var>
              <quality>1.0733882337808609e-01</quality>
              <le>2.8596499562263489e-01</le></_></splits></_>
        <_>
          <depth>1</depth>
          <value>3.1692544760081837e-01</value></_>
        <_>
          <depth>1</depth>
          <value>-3.8765416525543317e-01</value></_></nodes></_>
    <_>
      <nodes>
        <_>
          <depth>0</depth>
          <value>-7.5189508500630399e-03</value>
          <splits>
            <_><var>65</var>
              <quality>1.0070754587650299e-01</quality>
              <le>1.1213649809360504e-01</le></_></splits></_>
        <_>
          <depth>1</depth>
          <value>-5.7597603296134625e-01</value></_>
        <_>
          <depth>1</depth>
          <value>2.0204184640549314e-01</value></_></nodes></_>
    <_>
      <nodes>
        <_>
          <depth>0</depth>
          <value>5.3873257125128284e-03</value>
          <splits>
            <_><var>92</var>
              <quality>9.4780921936035156e-02</quality>
              <le>1.9061300158500671e-01</le></_></splits></_>
        <_>
          <depth>1</depth>
          <value>4.2724471459090385e-01</value></_>
        <_>
          <depth>1</depth>
          <value>-2.5061096944671607e-01</value></_></nodes></_>
    <_>
      <nodes>
        <_>
          <depth>0</depth>
          <value>-9.0664812407595715e-03</value>
          <splits>
            <_><var>93</var>
              <quality>1.0228142142295837e-01</quality>
              <le>-1.1444095434853807e-05</le></_></splits></_>
        <_>
          <depth>1</depth>
          <value>-1.2179583295603442e+00</value></_>
        <_>
          <depth>1</depth>
          <value>1.2115947690975995e-01</value></_></nodes></_>
    <_>
      <nodes>
        <_>
          <depth>0</depth>
          <value>-3.5164763640214342e-02</value>
          <splits>
            <_><var>96</var>
              <quality>1.0894583910703659e-01</quality>
              <le>-4.7407901287078857e-01</le></_></splits></_>
        <_>
          <depth>1</depth>
          <value>2.7206417086787649e-01</value></_>
        <_>
          <depth>1</depth>
          <value>-4.2359054784519512e-01</value></_></nodes></_>
    <_>
      <nodes>
        <_>
          <depth>0</depth>
          <value>3.0810279933383859e-02</value>
          <splits>
            <_><var>118</var>
              <quality>1.2305910885334015e-01</quality>
              <le>4.9993497133255005e-01</le></_></splits></_>
        <_>
          <depth>1</depth>
          <value>-3.1915642890955692e-01</value></_>
        <_>
          <depth>1</depth>
          <value>4.3505436598886471e-01</value></_></nodes></_>
    <_>
      <nodes>
        <_>
          <depth>0</depth>
          <value>-1.6262535111688657e-03</value>
          <splits>
            <_><var>84</var>
              <quality>1.1017313599586487e-01</quality>
              <le>1.4645750522613525e+00</le></_></splits></_>
        <_>
          <depth>1</depth>
          <value>-1.2967758133904805e-01</value></_>
        <_>
          <depth>1</depth>
          <value>1.5240271009897708e+00</value></_></nodes></_>
    <_>
      <nodes>
        <_>
          <depth>0</depth>
          <value>-6.4284684879705907e-03</value>
          <splits>
            <_><var>75</var>
              <quality>1.2346025556325912e-01</quality>
              <le>-1.0899850130081177e+00</le></_></splits></_>
        <_>
          <depth>1</depth>
          <value>2.3104382759568878e-01</value></_>
        <_>
          <depth>1</depth>
          <value>-6.3713634121100216e-01</value></_></nodes></_>
    <_>
      <nodes>
        <_>
          <depth>0</depth>
          <value>7.1082242885807077e-03</value>
          <splits>
            <_><var>53</var>
              <quality>1.3484396040439606e-01</quality>
              <le>-3.4118599891662598e+00</le></_></splits></_>
        <_>
          <depth>1</depth>
          <value>-6.2445137772907466e-01</value></_>
        <_>
          <depth>1</depth>
          <value>2.6606193615058060e-01</value></_></nodes></_>
    <_>
      <nodes>
        <_>
          <depth>0</depth>
          <value>-8.6188926683722286e-03</value>
          <splits>
            <_><var>47</var>
              <quality>1.3363419473171234e-01</quality>
              <le>-1.8263199329376221e+00</le></_></splits></_>
        <_>
          <depth>1</depth>
          <value>2.9195099883553255e-01</value></_>
        <_>
          <depth>1</depth>
          <value>-5.3516373151360674e-01</value></_></nodes></_>
    <_>
      <nodes>
        <_>
          <depth>0</depth>
          <value>3.5703140449363183e-03</value>
          <splits>
            <_><var>42</var>
              <quality>9.4816364347934723e-02</quality>
              <le>-1.9225549697875977e+00</le></_></splits></_>
        <_>
          <depth>1</depth>
          <value>-4.0152315959187052e-01</value></_>
        <_>
          <depth>1</depth>
          <value>2.6928731364481784e-01</value></_></nodes></_>
    <_>
      <nodes>
        <_>
          <depth>0</depth>
          <value>-7.8549743499596852e-03</value>
          <splits>
            <_><var>70</var>
              <quality>9.8577879369258881e-02</quality>
              <le>-1.1741249561309814e+00</le></_></splits></_>
        <_>
          <depth>1</depth>
          <value>2.9960707591211538e-01</value></_>
        <_>
          <depth>1</depth>
          <value>-3.7110948727152065e-01</value></_></nodes></_>
    <_>
      <nodes>
        <_>
          <depth>0</depth>
          <value>-4.0164222532857049e-04</value>
          <splits>
            <_><var>115</var>
              <quality>1.0217565298080444e-01</quality>
              <le>-2.7466800212860107e+00</le></_></splits></_>
        <_>
          <depth>1</depth>
          <value>-1.1227524539041775e+00</value></_>
        <_>
          <depth>1</depth>
          <value>1.3349994079210759e-01</value></_></nodes></_>
    <_>
      <nodes>
        <_>
          <depth>0</depth>
          <value>4.9078364464551051e-03</value>
          <splits>
            <_><var>63</var>
              <quality>1.0633843392133713e-01</quality>
              <le>1.1460700035095215e+00</le></_></splits></_>
        <_>
          <depth>1</depth>
          <value>-4.7951884814834944e-01</value></_>
        <_>
          <depth>1</depth>
          <value>2.5881035501484639e-01</value></_></nodes></_>
    <_>
      <nodes>
        <_>
          <depth>0</depth>
          <value>1.2257139898791687e-03</value>
          <splits>
            <_><var>44</var>
              <quality>9.0922512114048004e-02</quality>
              <le>1.3970500230789185e+00</le></_></splits></_>
        <_>
          <depth>1</depth>
          <value>2.3473369786114104e-01</value></_>
        <_>
          <depth>1</depth>
          <value>-4.4313294331095426e-01</value></_></nodes></_>
    <_>
      <nodes>
        <_>
          <depth>0</depth>
          <value>-7.8480234541610707e-03</value>
          <splits>
            <_><var>48</var>
              <quality>9.1335207223892212e-02</quality>
              <le>-2.3848000168800354e-01</le></_></splits></_>
        <_>
          <depth>1</depth>
          <value>-5.1042753368788296e-01</value></_>
        <_>
          <depth>1</depth>
          <value>2.0270214252762539e-01</value></_></nodes></_>
    <_>
      <nodes>
        <_>
          <depth>0</depth>
          <value>-1.2344610604383447e-03</value>
          <splits>
            <_><var>86</var>
              <quality>1.1356498301029205e-01</quality>
              <le>-5.3387451171875000e-01</le></_></splits></_>
        <_>
          <depth>1</depth>
          <value>3.2625487542812731e-01</value></_>
        <_>
          <depth>1</depth>
          <value>-3.9900868380146592e-01</value></_></nodes></_>
    <_>
      <nodes>
        <_>
          <depth>0</depth>
          <value>-1.9813257829701065e-04</value>
          <splits>
            <_><var>33</var>
              <quality>9.4062902033329010e-02</quality>
              <le>7.3546600341796875e-01</le></_></splits></_>
        <_>
          <depth>1</depth>
          <value>3.4515136366695248e-01</value></_>
        <_>
          <depth>1</depth>
          <value>-3.0761988065036860e-01</value></_></nodes></_>
    <_>
      <nodes>
        <_>
          <depth>0</depth>
          <value>-2.1750447383891108e-03</value>
          <splits>
            <_><var>83</var>
              <quality>1.1446991562843323e-01</quality>
              <le>2.9028849601745605e+00</le></_></splits></_>
        <_>
          <depth>1</depth>
          <value>-2.2369697020537876e-01</value></_>
        <_>
          <depth>1</depth>
          <value>6.1966342013972198e-01</value></_></nodes></_>
    <_>
      <nodes>
        <_>
          <depth>0</depth>
          <value>-1.5904471221825029e-03</value>
          <splits>
            <_><var>109</var>
              <quality>8.3730585873126984e-02</quality>
              <le>-1.7683300971984863e+00</le></_></splits></_>
        <_>
          <depth>1</depth>
          <value>-1.2120460251439742e+00</value></_>
        <_>
          <depth>1</depth>
          <value>1.0426760232252091e-01</value></_></nodes></_>
    <_>
      <nodes>
        <_>
          <depth>0</depth>
          <value>-2.4085686110149399e-03</value>
          <splits>
            <_><var>128</var>
              <quality>8.0583967268466949e-02</quality>
              <le>-5.5527701377868652e+00</le></_></splits></_>
        <_>
          <depth>1</depth>
          <value>-5.7564577324601141e+00</value></_>
        <_>
          <depth>1</depth>
          <value>8.2816889192488197e-02</value></_></nodes></_>
    <_>
      <nodes>
        <_>
          <depth>0</depth>
          <value>6.6173807494824821e-02</value>
          <splits>
            <_><var>130</var>
              <quality>1.1188379675149918e-01</quality>
              <le>-2.5480251312255859e+00</le></_></splits></_>
        <_>
          <depth>1</depth>
          <value>1.0727923941442854e+00</value></_>
        <_>
          <depth>1</depth>
          <value>-9.0777210533586450e-02</value></_></nodes></_>
    <_>
      <nodes>
        <_>
          <depth>0</depth>
          <value>-5.5774043546990828e-03</value>
          <splits>
            <_><var>63</var>
              <quality>9.3468241393566132e-02</quality>
              <le>4.5937800407409668e+00</le></_></splits></_>
        <_>
          <depth>1</depth>
          <value>-1.9171963296712988e-01</value></_>
        <_>
          <depth>1</depth>
          <value>5.8955358303460748e-01</value></_></nodes></_>
    <_>
      <nodes>
        <_>
          <depth>0</depth>
          <value>-1.7498175918887835e-03</value>
          <splits>
            <_><var>113</var>
              <quality>1.2634314596652985e-01</quality>
              <le>5.8591451644897461e+00</le></_></splits></_>
        <_>
          <depth>1</depth>
          <value>2.6521260309721029e-01</value></_>
        <_>
          <depth>1</depth>
          <value>-5.6488658466454533e-01</value></_></nodes></_>
    <_>
      <nodes>
        <_>
          <depth>0</depth>
          <value>-3.6323494432861370e-03</value>
          <splits>
            <_><var>63</var>
              <quality>9.8789930343627930e-02</quality>
              <le>-2.3785400390625000e-01</le></_></splits></_>
        <_>
          <depth>1</depth>
          <value>-5.7564577324601141e+00</value></_>
        <_>
          <depth>1</depth>
          <value>1.0110679570403387e-01</value></_></nodes></_>
    <_>
      <nodes>
        <_>
          <depth>0</depth>
          <value>-4.1361678964899574e-03</value>
          <splits>
            <_><var>45</var>
              <quality>1.0737548023462296e-01</quality>
              <le>3.8197898864746094e-01</le></_></splits></_>
        <_>
          <depth>1</depth>
          <value>1.8055144359500491e-01</value></_>
        <_>
          <depth>1</depth>
          <value>-7.2913341819764876e-01</value></_></nodes></_>
    <_>
      <nodes>
        <_>
          <depth>0</depth>
          <value>-3.1894801352832136e-03</value>
          <splits>
            <_><var>86</var>
              <quality>1.1092153191566467e-01</quality>
              <le>-9.9501049518585205e-01</le></_></splits></_>
        <_>
          <depth>1</depth>
          <value>4.5410561284245188e-01</value></_>
        <_>
          <depth>1</depth>
          <value>-2.8309908616233104e-01</value></_></nodes></_>
    <_>
      <nodes>
        <_>
          <depth>0</depth>
          <value>1.7596914979062235e-03</value>
          <splits>
            <_><var>0</var>
              <quality>8.9016288518905640e-02</quality>
              <le>2.5239849090576172e+00</le></_></splits></_>
        <_>
          <depth>1</depth>
          <value>1.9486693035765215e-01</value></_>
        <_>
          <depth>1</depth>
          <value>-5.3580939332672739e-01</value></_></nodes></_>
    <_>
      <nodes>
        <_>
          <depth>0</depth>
          <value>-1.7520622902145681e-03</value>
          <splits>
            <_><var>17</var>
              <quality>1.0494387894868851e-01</quality>
              <le>-5.2462301254272461e+00</le></_></splits></_>
        <_>
          <depth>1</depth>
          <value>1.1270165584516791e+00</value></_>
        <_>
          <depth>1</depth>
          <value>-1.3874195672096121e-01</value></_></nodes></_>
    <_>
      <nodes>
        <_>
          <depth>0</depth>
          <value>-3.9988834732390044e-03</value>
          <splits>
            <_><var>63</var>
              <quality>1.1178798228502274e-01</quality>
              <le>5.1496300697326660e+00</le></_></splits></_>
        <_>
          <depth>1</depth>
          <value>-1.7869994598339525e-01</value></_>
        <_>
          <depth>1</depth>
          <value>8.2335191897425708e-01</value></_></nodes></_>
    <_>
      <nodes>
        <_>
          <depth>0</depth>
          <value>-1.7652573733441131e-03</value>
          <splits>
            <_><var>59</var>
              <quality>1.4489771425724030e-01</quality>
              <le>-2.1682350337505341e-01</le></_></splits></_>
        <_>
          <depth>1</depth>
          <value>4.2995938001043671e-01</value></_>
        <_>
          <depth>1</depth>
          <value>-3.9609133937081720e-01</value></_></nodes></_>
    <_>
      <nodes>
        <_>
          <depth>0</depth>
          <value>5.5575046535686276e-03</value>
          <splits>
            <_><var>20</var>
              <quality>1.1472209542989731e-01</quality>
              <le>2.6127448081970215e+00</le></_></splits></_>
        <_>
          <depth>1</depth>
          <value>1.7856668498613903e-01</value></_>
        <_>
          <depth>1</depth>
          <value>-8.6774060901231065e-01</value></_></nodes></_>
    <_>
      <nodes>
        <_>
          <depth>0</depth>
          <value>-6.5368827067919166e-03</value>
          <splits>
            <_><var>54</var>
              <quality>1.1353165656328201e-01</quality>
              <le>7.7955651283264160e-01</le></_></splits></_>
        <_>
          <depth>1</depth>
          <value>-2.2861074217611610e-01</value></_>
        <_>
          <depth>1</depth>
          <value>6.0577676949230630e-01</value></_></nodes></_>
    <_>
      <nodes>
        <_>
          <depth>0</depth>
          <value>8.9957844186860233e-06</value>
          <splits>
            <_><var>45</var>
              <quality>1.0856749862432480e-01</quality>
              <le>8.4095048904418945e+00</le></_></splits></_>
        <_>
          <depth>1</depth>
          <value>1.1483341896048477e-01</value></_>
        <_>
          <depth>1</depth>
          <value>-5.7564577324601141e+00</value></_></nodes></_>
    <_>
      <nodes>
        <_>
          <depth>0</depth>
          <value>-7.0966810467193485e-03</value>
          <splits>
            <_><var>71</var>
              <quality>1.1916541308164597e-01</quality>
              <le>5.3238754272460938e+00</le></_></splits></_>
        <_>
          <depth>1</depth>
          <value>-1.4992214096031872e-01</value></_>
        <_>
          <depth>1</depth>
          <value>1.3669514722282905e+00</value></_></nodes></_>
    <_>
      <nodes>
        <_>
          <depth>0</depth>
          <value>1.5030737762865916e-03</value>
          <splits>
            <_><var>111</var>
              <quality>1.5546087920665741e-01</quality>
              <le>-6.6574096679687500e-01</le></_></splits></_>
        <_>
          <depth>1</depth>
          <value>9.0259658034018486e-01</value></_>
        <_>
          <depth>1</depth>
          <value>-2.3105757717398209e-01</value></_></nodes></_>
    <_>
      <nodes>
        <_>
          <depth>0</depth>
          <value>-2.3193238859354286e-03</value>
          <splits>
            <_><var>87</var>
              <quality>1.7302358150482178e-01</quality>
              <le>-8.1537050008773804e-01</le></_></splits></_>
        <_>
          <depth>1</depth>
          <value>3.2689263169784610e-01</value></_>
        <_>
          <depth>1</depth>
          <value>-6.5493118253377536e-01</value></_></nodes></_>
    <_>
      <nodes>
        <_>
          <depth>0</depth>
          <value>3.0461978480709594e-03</value>
          <splits>
            <_><var>130</var>
              <quality>1.2421946972608566e-01</quality>
              <le>-7.9402947425842285e-01</le></_></splits></_>
        <_>
          <depth>1</depth>
          <value>4.7192593877829980e-01</value></_>
        <_>
          <depth>1</depth>
          <value>-3.0559466008558139e-01</value></_></nodes></_>
    <_>
      <nodes>
        <_>
          <depth>0</depth>
          <value>-4.4722514753814613e-04</value>
          <splits>
            <_><var>128</var>
              <quality>1.9336518645286560e-01</quality>
              <le>7.6293999882182106e-06</le></_></splits></_>
        <_>
          <depth>1</depth>
          <value>-6.8178720971249085e-01</value></_>
        <_>
          <depth>1</depth>
          <value>3.5787194480949441e-01</value></_></nodes></_>
    <_>
      <nodes>
        <_>
          <depth>0</depth>
          <value>5.7691784490156543e-03</value>
          <splits>
            <_><var>19</var>
              <quality>1.0310139507055283e-01</quality>
              <le>5.2820453643798828e+00</le></_></splits></_>
        <_>
          <depth>1</depth>
          <value>1.2891593472029039e-01</value></_>
        <_>
          <depth>1</depth>
          <value>-1.3798217624160538e+00</value></_></nodes></_>
    <_>
      <nodes>
        <_>
          <depth>0</depth>
          <value>2.2568907020245287e-04</value>
          <splits>
            <_><var>63</var>
              <quality>1.3611759245395660e-01</quality>
              <le>3.8025550842285156e+00</le></_></splits></_>
        <_>
          <depth>1</depth>
          <value>-2.1326563645831192e-01</value></_>
        <_>
          <depth>1</depth>
          <value>8.3202667872942015e-01</value></_></nodes></_>
    <_>
      <nodes>
        <_>
          <depth>0</depth>
          <value>-1.0174807113828019e-02</value>
          <splits>
            <_><var>49</var>
              <quality>9.1024354100227356e-02</quality>
              <le>-8.4903755187988281e+00</le></_></splits></_>
        <_>
          <depth>1</depth>
          <value>-1.1854191524099666e+00</value></_>
        <_>
          <depth>1</depth>
          <value>1.0712441970237842e-01</value></_></nodes></_>
    <_>
      <nodes>
        <_>
          <depth>0</depth>
          <value>-3.3972941122887707e-03</value>
          <splits>
            <_><var>47</var>
              <quality>1.3620032370090485e-01</quality>
              <le>-1.8263199329376221e+00</le></_></splits></_>
        <_>
          <depth>1</depth>
          <value>3.6782669505099397e-01</value></_>
        <_>
          <depth>1</depth>
          <value>-4.3169383668081901e-01</value></_></nodes></_>
    <_>
      <nodes>
        <_>
          <depth>0</depth>
          <value>7.1011081017584071e-04</value>
          <splits>
            <_><var>104</var>
              <quality>1.2844809889793396e-01</quality>
              <le>-4.8038500547409058e-01</le></_></splits></_>
        <_>
          <depth>1</depth>
          <value>4.4031407379246018e-01</value></_>
        <_>
          <depth>1</depth>
          <value>-3.3909506158774910e-01</value></_></nodes></_>
    <_>
      <nodes>
        <_>
          <depth>0</depth>
          <value>-4.0792591321624598e-03</value>
          <splits>
            <_><var>128</var>
              <quality>1.4863044023513794e-01</quality>
              <le>-9.2127251625061035e-01</le></_></splits></_>
        <_>
          <depth>1</depth>
          <value>-8.2157930901131382e-01</value></_>
        <_>
          <depth>1</depth>
          <value>2.3300020145972875e-01</value></_></nodes></_>
    <_>
      <nodes>
        <_>
          <depth>0</depth>
          <value>4.6832482406091733e-03</value>
          <splits>
            <_><var>126</var>
              <quality>1.0898897796869278e-01</quality>
              <le>2.7090349197387695e+00</le></_></splits></_>
        <_>
          <depth>1</depth>
          <value>1.5120937136929691e-01</value></_>
        <_>
          <depth>1</depth>
          <value>-1.0568893788062099e+00</value></_></nodes></_></trees></opencv_ml_boost>
</opencv_storage>
