<?xml version="1.0"?>
<opencv_storage>
<opencv_ml_boost>
  <format>3</format>
  <is_classifier>1</is_classifier>
  <var_all>137</var_all>
  <var_count>136</var_count>
  <ord_var_count>136</ord_var_count>
  <cat_var_count>1</cat_var_count>
  <training_params>
    <boosting_type>RealAdaboost</boosting_type>
    <use_surrogates>0</use_surrogates>
    <max_categories>10</max_categories>
    <regression_accuracy>9.9999997764825821e-03</regression_accuracy>
    <max_depth>1</max_depth>
    <min_sample_count>10</min_sample_count>
    <cross_validation_folds>0</cross_validation_folds>
    <weight_trimming_rate>9.4999999999999996e-01</weight_trimming_rate></training_params>
  <global_var_idx>1</global_var_idx>
  <var_idx>
    0 1 2 3 4 5 6 7 8 9 10 11 12 13 14 15 16 17 18 19 20 21 22 23 24 25
    26 27 28 29 30 31 32 33 34 35 36 37 38 39 40 41 42 43 44 45 46 47 48
    49 50 51 52 53 54 55 56 57 58 59 60 61 62 63 64 65 66 67 68 69 70 71
    72 73 74 75 76 77 78 79 80 81 82 83 84 85 86 87 88 89 90 91 92 93 94
    95 96 97 98 99 100 101 102 103 104 105 106 107 108 109 110 111 112
    113 114 115 116 117 118 119 120 121 122 123 124 125 126 127 128 129
    130 131 132 133 134 135</var_idx>
  <var_type>
    0 0 0 0 0 0 0 0 0 0 0 0 0 0 0 0 0 0 0 0 0 0 0 0 0 0 0 0 0 0 0 0 0 0
    0 0 0 0 0 0 0 0 0 0 0 0 0 0 0 0 0 0 0 0 0 0 0 0 0 0 0 0 0 0 0 0 0 0
    0 0 0 0 0 0 0 0 0 0 0 0 0 0 0 0 0 0 0 0 0 0 0 0 0 0 0 0 0 0 0 0 0 0
    0 0 0 0 0 0 0 0 0 0 0 0 0 0 0 0 0 0 0 0 0 0 0 0 0 0 0 0 0 0 0 0 0 0
    1</var_type>
  <cat_ofs>
    0 0 0 0 0 0 0 0 0 0 0 0 0 0 0 0 0 0 0 0 0 0 0 0 0 0 0 0 0 0 0 0 0 0
    0 0 0 0 0 0 0 0 0 0 0 0 0 0 0 0 0 0 0 0 0 0 0 0 0 0 0 0 0 0 0 0 0 0
    0 0 0 0 0 0 0 0 0 0 0 0 0 0 0 0 0 0 0 0 0 0 0 0 0 0 0 0 0 0 0 0 0 0
    0 0 0 0 0 0 0 0 0 0 0 0 0 0 0 0 0 0 0 0 0 0 0 0 0 0 0 0 0 0 0 0 0 0
    0 0 0 0 0 0 0 0 0 0 0 0 0 0 0 0 0 0 0 0 0 0 0 0 0 0 0 0 0 0 0 0 0 0
    0 0 0 0 0 0 0 0 0 0 0 0 0 0 0 0 0 0 0 0 0 0 0 0 0 0 0 0 0 0 0 0 0 0
    0 0 0 0 0 0 0 0 0 0 0 0 0 0 0 0 0 0 0 0 0 0 0 0 0 0 0 0 0 0 0 0 0 0
    0 0 0 0 0 0 0 0 0 0 0 0 0 0 0 0 0 0 0 0 0 0 0 0 0 0 0 0 0 0 0 0 0 0</cat_ofs>
  <class_labels>
    -1 1</class_labels>
  <missing_subst>
    0. 0. 0. 0. 0. 0. 0. 0. 0. 0. 0. 0. 0. 0. 0. 0. 0. 0. 0. 0. 0. 0. 0.
    0. 0. 0. 0. 0. 0. 0. 0. 0. 0. 0. 0. 0. 0. 0. 0. 0. 0. 0. 0. 0. 0. 0.
    0. 0. 0. 0. 0. 0. 0. 0. 0. 0. 0. 0. 0. 0. 0. 0. 0. 0. 0. 0. 0. 0. 0.
    0. 0. 0. 0. 0. 0. 0. 0. 0. 0. 0. 0. 0. 0. 0. 0. 0. 0. 0. 0. 0. 0. 0.
    0. 0. 0. 0. 0. 0. 0. 0. 0. 0. 0. 0. 0. 0. 0. 0. 0. 0. 0. 0. 0. 0. 0.
    0. 0. 0. 0. 0. 0. 0. 0. 0. 0. 0. 0. 0. 0. 0. 0. 0. 0. 0. 0. 0. 0.</missing_subst>
  <ntrees>100</ntrees>
  <trees>
    <_>
      <nodes>
        <_>
          <depth>0</depth>
          <value>-1.0640624654920097e+00</value>
          <splits>
            <_><var>71</var>
              <quality>7.9406237602233887e-01</quality>
              <le>5.4619250297546387e+00</le></_></splits></_>
        <_>
          <depth>1</depth>
          <value>-1.5658413065829371e+00</value></_>
        <_>
          <depth>1</depth>
          <value>6.3698258807298869e-01</value></_></nodes></_>
    <_>
      <nodes>
        <_>
          <depth>0</depth>
          <value>1.3450683052963444e-08</value>
          <splits>
            <_><var>43</var>
              <quality>4.3723812699317932e-01</quality>
              <le>-2.3814401626586914e+00</le></_></splits></_>
        <_>
          <depth>1</depth>
          <value>7.9473786204075558e-01</value></_>
        <_>
          <depth>1</depth>
          <value>-7.9528944483556008e-01</value></_></nodes></_>
    <_>
      <nodes>
        <_>
          <depth>0</depth>
          <value>-7.1133182728084551e-10</value>
          <splits>
            <_><var>63</var>
              <quality>3.4923887252807617e-01</quality>
              <le>5.2966296672821045e-01</le></_></splits></_>
        <_>
          <depth>1</depth>
          <value>-1.6891665989547779e+00</value></_>
        <_>
          <depth>1</depth>
          <value>3.9295048950516248e-01</value></_></nodes></_>
    <_>
      <nodes>
        <_>
          <depth>0</depth>
          <value>3.3448944302369624e-02</value>
          <splits>
            <_><var>135</var>
              <quality>2.8875878453254700e-01</quality>
              <le>-1.8194699287414551e+00</le></_></splits></_>
        <_>
          <depth>1</depth>
          <value>-1.1124702526553634e+00</value></_>
        <_>
          <depth>1</depth>
          <value>4.0950004329642464e-01</value></_></nodes></_>
    <_>
      <nodes>
        <_>
          <depth>0</depth>
          <value>8.5080149685487702e-03</value>
          <splits>
            <_><var>87</var>
              <quality>1.9852636754512787e-01</quality>
              <le>-1.8553750216960907e-01</le></_></splits></_>
        <_>
          <depth>1</depth>
          <value>2.3216588345667280e-01</value></_>
        <_>
          <depth>1</depth>
          <value>-1.7562830123462456e+00</value></_></nodes></_>
    <_>
      <nodes>
        <_>
          <depth>0</depth>
          <value>1.8400543162455672e-02</value>
          <splits>
            <_><var>42</var>
              <quality>1.9941774010658264e-01</quality>
              <le>-1.9311699867248535e+00</le></_></splits></_>
        <_>
          <depth>1</depth>
          <value>-6.2859133409256118e-01</value></_>
        <_>
          <depth>1</depth>
          <value>4.0103738579627024e-01</value></_></nodes></_>
    <_>
      <nodes>
        <_>
          <depth>0</depth>
          <value>-2.4649192764180303e-02</value>
          <splits>
            <_><var>120</var>
              <quality>2.7287063002586365e-01</quality>
              <le>3.1843149662017822e+00</le></_></splits></_>
        <_>
          <depth>1</depth>
          <value>3.1710457086393151e-01</value></_>
        <_>
          <depth>1</depth>
          <value>-1.3847601522578541e+00</value></_></nodes></_>
    <_>
      <nodes>
        <_>
          <depth>0</depth>
          <value>-7.2433603642109981e-03</value>
          <splits>
            <_><var>22</var>
              <quality>2.0020653307437897e-01</quality>
              <le>3.8305652141571045e-01</le></_></splits></_>
        <_>
          <depth>1</depth>
          <value>2.8485606438844491e-01</value></_>
        <_>
          <depth>1</depth>
          <value>-9.6682566290794902e-01</value></_></nodes></_>
    <_>
      <nodes>
        <_>
          <depth>0</depth>
          <value>-7.9894453544687230e-03</value>
          <splits>
            <_><var>98</var>
              <quality>1.8488322198390961e-01</quality>
              <le>1.0995499789714813e-01</le></_></splits></_>
        <_>
          <depth>1</depth>
          <value>-5.8185672572135028e-01</value></_>
        <_>
          <depth>1</depth>
          <value>3.8605899398241600e-01</value></_></nodes></_>
    <_>
      <nodes>
        <_>
          <depth>0</depth>
          <value>-6.6645384187524670e-03</value>
          <splits>
            <_><var>43</var>
              <quality>1.3780251145362854e-01</quality>
              <le>-5.7886648178100586e+00</le></_></splits></_>
        <_>
          <depth>1</depth>
          <value>5.1665887272612043e-01</value></_>
        <_>
          <depth>1</depth>
          <value>-3.1797314551167921e-01</value></_></nodes></_>
    <_>
      <nodes>
        <_>
          <depth>0</depth>
          <value>2.4229333010231131e-03</value>
          <splits>
            <_><var>86</var>
              <quality>1.3585452735424042e-01</quality>
              <le>-6.9419097900390625e-01</le></_></splits></_>
        <_>
          <depth>1</depth>
          <value>4.0450350918498645e-01</value></_>
        <_>
          <depth>1</depth>
          <value>-3.8960460197649838e-01</value></_></nodes></_>
    <_>
      <nodes>
        <_>
          <depth>0</depth>
          <value>2.0262826156308244e-03</value>
          <splits>
            <_><var>128</var>
              <quality>1.2382519990205765e-01</quality>
              <le>-5.8344898223876953e+00</le></_></splits></_>
        <_>
          <depth>1</depth>
          <value>-5.7564577324601141e+00</value></_>
        <_>
          <depth>1</depth>
          <value>1.3279182972910900e-01</value></_></nodes></_>
    <_>
      <nodes>
        <_>
          <depth>0</depth>
          <value>1.0413804207656706e-01</value>
          <splits>
            <_><var>44</var>
              <quality>2.4578884243965149e-01</quality>
              <le>1.2549250125885010e+00</le></_></splits></_>
        <_>
          <depth>1</depth>
          <value>6.1496281898504357e-01</value></_>
        <_>
          <depth>1</depth>
          <value>-4.9093384806343127e-01</value></_></nodes></_>
    <_>
      <nodes>
        <_>
          <depth>0</depth>
          <value>-3.3885951616238280e-02</value>
          <splits>
            <_><var>93</var>
              <quality>2.0663687586784363e-01</quality>
              <le>1.9850699901580811e+00</le></_></splits></_>
        <_>
          <depth>1</depth>
          <value>-4.7783927978462615e-01</value></_>
        <_>
          <depth>1</depth>
          <value>5.4004859093039226e-01</value></_></nodes></_>
    <_>
      <nodes>
        <_>
          <depth>0</depth>
          <value>5.1042164263271307e-03</value>
          <splits>
            <_><var>43</var>
              <quality>1.9205237925052643e-01</quality>
              <le>5.5852551460266113e+00</le></_></splits></_>
        <_>
          <depth>1</depth>
          <value>2.1418421014420191e-01</value></_>
        <_>
          <depth>1</depth>
          <value>-2.2129158349403828e+00</value></_></nodes></_>
    <_>
      <nodes>
        <_>
          <depth>0</depth>
          <value>-7.7225759012035525e-03</value>
          <splits>
            <_><var>69</var>
              <quality>2.0683392882347107e-01</quality>
              <le>2.3674249649047852e+00</le></_></splits></_>
        <_>
          <depth>1</depth>
          <value>-4.7665868255373400e-01</value></_>
        <_>
          <depth>1</depth>
          <value>5.3807869664238284e-01</value></_></nodes></_>
    <_>
      <nodes>
        <_>
          <depth>0</depth>
          <value>7.2883336989526364e-03</value>
          <splits>
            <_><var>115</var>
              <quality>1.6112110018730164e-01</quality>
              <le>4.4885301589965820e+00</le></_></splits></_>
        <_>
          <depth>1</depth>
          <value>3.5197073769905440e-01</value></_>
        <_>
          <depth>1</depth>
          <value>-5.5617594480762123e-01</value></_></nodes></_>
    <_>
      <nodes>
        <_>
          <depth>0</depth>
          <value>-1.3469582001679095e-02</value>
          <splits>
            <_><var>87</var>
              <quality>1.7356589436531067e-01</quality>
              <le>-1.4534000158309937e+00</le></_></splits></_>
        <_>
          <depth>1</depth>
          <value>3.9365798334747171e-01</value></_>
        <_>
          <depth>1</depth>
          <value>-5.2813017287243269e-01</value></_></nodes></_>
    <_>
      <nodes>
        <_>
          <depth>0</depth>
          <value>9.3965536032063132e-03</value>
          <splits>
            <_><var>74</var>
              <quality>1.5570677816867828e-01</quality>
              <le>-1.2689700126647949e+00</le></_></splits></_>
        <_>
          <depth>1</depth>
          <value>8.1544434758218576e-01</value></_>
        <_>
          <depth>1</depth>
          <value>-2.4227649859017097e-01</value></_></nodes></_>
    <_>
      <nodes>
        <_>
          <depth>0</depth>
          <value>2.4013885615067365e-03</value>
          <splits>
            <_><var>42</var>
              <quality>1.3153493404388428e-01</quality>
              <le>-3.2493901252746582e+00</le></_></splits></_>
        <_>
          <depth>1</depth>
          <value>-7.5685354365638702e-01</value></_>
        <_>
          <depth>1</depth>
          <value>2.2178734047571236e-01</value></_></nodes></_>
    <_>
      <nodes>
        <_>
          <depth>0</depth>
          <value>-1.1295117597363716e-02</value>
          <splits>
            <_><var>97</var>
              <quality>1.7179164290428162e-01</quality>
              <le>1.8315151333808899e-01</le></_></splits></_>
        <_>
          <depth>1</depth>
          <value>-8.9462546281845046e-01</value></_>
        <_>
          <depth>1</depth>
          <value>2.5112359689307229e-01</value></_></nodes></_>
    <_>
      <nodes>
        <_>
          <depth>0</depth>
          <value>6.7467038256561231e-03</value>
          <splits>
            <_><var>70</var>
              <quality>1.4574827253818512e-01</quality>
              <le>-1.1903300285339355e+00</le></_></splits></_>
        <_>
          <depth>1</depth>
          <value>4.5747437514994166e-01</value></_>
        <_>
          <depth>1</depth>
          <value>-3.7383591835345881e-01</value></_></nodes></_>
    <_>
      <nodes>
        <_>
          <depth>0</depth>
          <value>-4.5748910839835746e-03</value>
          <splits>
            <_><var>108</var>
              <quality>1.5187281370162964e-01</quality>
              <le>9.1474902629852295e-01</le></_></splits></_>
        <_>
          <depth>1</depth>
          <value>-3.8639460169833961e-01</value></_>
        <_>
          <depth>1</depth>
          <value>4.6572560653276179e-01</value></_></nodes></_>
    <_>
      <nodes>
        <_>
          <depth>0</depth>
          <value>-1.0460980796067421e-03</value>
          <splits>
            <_><var>18</var>
              <quality>1.1976701021194458e-01</quality>
              <le>-9.3218249082565308e-01</le></_></splits></_>
        <_>
          <depth>1</depth>
          <value>4.9431118388203982e-01</value></_>
        <_>
          <depth>1</depth>
          <value>-2.8318560931364894e-01</value></_></nodes></_>
    <_>
      <nodes>
        <_>
          <depth>0</depth>
          <value>-6.0900794693802794e-03</value>
          <splits>
            <_><var>79</var>
              <quality>1.0569602996110916e-01</quality>
              <le>-8.7341301143169403e-02</le></_></splits></_>
        <_>
          <depth>1</depth>
          <value>-7.6711032448901428e-01</value></_>
        <_>
          <depth>1</depth>
          <value>1.6956519149020169e-01</value></_></nodes></_>
    <_>
      <nodes>
        <_>
          <depth>0</depth>
          <value>1.0415098125596337e-03</value>
          <splits>
            <_><var>76</var>
              <quality>1.1734752357006073e-01</quality>
              <le>7.0593649148941040e-01</le></_></splits></_>
        <_>
          <depth>1</depth>
          <value>-3.5533893103032715e-01</value></_>
        <_>
          <depth>1</depth>
          <value>3.7934770318093142e-01</value></_></nodes></_>
    <_>
      <nodes>
        <_>
          <depth>0</depth>
          <value>-1.8103135287893539e-03</value>
          <splits>
            <_><var>0</var>
              <quality>1.6522000730037689e-01</quality>
              <le>2.5626800060272217e+00</le></_></splits></_>
        <_>
          <depth>1</depth>
          <value>3.2761610376628836e-01</value></_>
        <_>
          <depth>1</depth>
          <value>-6.1614059391313747e-01</value></_></nodes></_>
    <_>
      <nodes>
        <_>
          <depth>0</depth>
          <value>-1.1661419726215200e-02</value>
          <splits>
            <_><var>33</var>
              <quality>1.3000419735908508e-01</quality>
              <le>-6.6642798483371735e-02</le></_></splits></_>
        <_>
          <depth>1</depth>
          <value>5.3424053884800726e-01</value></_>
        <_>
          <depth>1</depth>
          <value>-2.9306720537054354e-01</value></_></nodes></_>
    <_>
      <nodes>
        <_>
          <depth>0</depth>
          <value>-4.5439546252072256e-03</value>
          <splits>
            <_><var>107</var>
              <quality>1.3428473472595215e-01</quality>
              <le>-7.0953345298767090e-01</le></_></splits></_>
        <_>
          <depth>1</depth>
          <value>-1.5068194354128315e+00</value></_>
        <_>
          <depth>1</depth>
          <value>1.5338798366123124e-01</value></_></nodes></_>
    <_>
      <nodes>
        <_>
          <depth>0</depth>
          <value>-7.7505115016843966e-04</value>
          <splits>
            <_><var>17</var>
              <quality>1.3614839315414429e-01</quality>
              <le>-4.4503049850463867e+00</le></_></splits></_>
        <_>
          <depth>1</depth>
          <value>1.0025944369243591e+00</value></_>
        <_>
          <depth>1</depth>
          <value>-1.9076614607757464e-01</value></_></nodes></_>
    <_>
      <nodes>
        <_>
          <depth>0</depth>
          <value>-1.3849950107767330e-02</value>
          <splits>
            <_><var>38</var>
              <quality>1.0304311662912369e-01</quality>
              <le>-1.4002299308776855e+00</le></_></splits></_>
        <_>
          <depth>1</depth>
          <value>4.3040243265672656e-01</value></_>
        <_>
          <depth>1</depth>
          <value>-2.7897919863206594e-01</value></_></nodes></_>
    <_>
      <nodes>
        <_>
          <depth>0</depth>
          <value>6.1207008500588000e-03</value>
          <splits>
            <_><var>75</var>
              <quality>1.1186499148607254e-01</quality>
              <le>-1.0829200744628906e+00</le></_></splits></_>
        <_>
          <depth>1</depth>
          <value>2.1134459304870803e-01</value></_>
        <_>
          <depth>1</depth>
          <value>-6.5669211625162549e-01</value></_></nodes></_>
    <_>
      <nodes>
        <_>
          <depth>0</depth>
          <value>2.7515870826729134e-03</value>
          <splits>
            <_><var>42</var>
              <quality>1.0588477551937103e-01</quality>
              <le>-2.8102951049804688e+00</le></_></splits></_>
        <_>
          <depth>1</depth>
          <value>-5.6029992014897367e-01</value></_>
        <_>
          <depth>1</depth>
          <value>2.2462399296433830e-01</value></_></nodes></_>
    <_>
      <nodes>
        <_>
          <depth>0</depth>
          <value>-7.1117572824430392e-03</value>
          <splits>
            <_><var>43</var>
              <quality>1.1998169124126434e-01</quality>
              <le>-3.9068001508712769e-01</le></_></splits></_>
        <_>
          <depth>1</depth>
          <value>2.4482449142748486e-01</value></_>
        <_>
          <depth>1</depth>
          <value>-5.7353166775429032e-01</value></_></nodes></_>
    <_>
      <nodes>
        <_>
          <depth>0</depth>
          <value>-2.7913538344900720e-03</value>
          <splits>
            <_><var>35</var>
              <quality>1.1964687705039978e-01</quality>
              <le>-3.4273150563240051e-01</le></_></splits></_>
        <_>
          <depth>1</depth>
          <value>-3.0150379065927962e-01</value></_>
        <_>
          <depth>1</depth>
          <value>4.6205539723807948e-01</value></_></nodes></_>
    <_>
      <nodes>
        <_>
          <depth>0</depth>
          <value>-1.6210797887773211e-03</value>
          <splits>
            <_><var>71</var>
              <quality>1.0049537569284439e-01</quality>
              <le>3.0087151527404785e+00</le></_></splits></_>
        <_>
          <depth>1</depth>
          <value>-3.1811678432900359e-01</value></_>
        <_>
          <depth>1</depth>
          <value>3.5852649641242385e-01</value></_></nodes></_>
    <_>
      <nodes>
        <_>
          <depth>0</depth>
          <value>1.0101809611950969e-04</value>
          <splits>
            <_><var>43</var>
              <quality>1.0348845273256302e-01</quality>
              <le>9.1499748229980469e+00</le></_></splits></_>
        <_>
          <depth>1</depth>
          <value>1.0948512155337840e-01</value></_>
        <_>
          <depth>1</depth>
          <value>-5.7564577324601141e+00</value></_></nodes></_>
    <_>
      <nodes>
        <_>
          <depth>0</depth>
          <value>-7.1775220590832717e-03</value>
          <splits>
            <_><var>71</var>
              <quality>1.1678177863359451e-01</quality>
              <le>6.2263250350952148e+00</le></_></splits></_>
        <_>
          <depth>1</depth>
          <value>-1.3271879015238178e-01</value></_>
        <_>
          <depth>1</depth>
          <value>2.2430673310784996e+00</value></_></nodes></_>
    <_>
      <nodes>
        <_>
          <depth>0</depth>
          <value>-2.4521983312838780e-03</value>
          <splits>
            <_><var>88</var>
              <quality>1.2001629173755646e-01</quality>
              <le>2.0282599925994873e+00</le></_></splits></_>
        <_>
          <depth>1</depth>
          <value>1.2722931549385680e-01</value></_>
        <_>
          <depth>1</depth>
          <value>-2.3483756390611137e+00</value></_></nodes></_>
    <_>
      <nodes>
        <_>
          <depth>0</depth>
          <value>3.6088104172510762e-03</value>
          <splits>
            <_><var>106</var>
              <quality>1.1505250632762909e-01</quality>
              <le>-2.9511251449584961e+00</le></_></splits></_>
        <_>
          <depth>1</depth>
          <value>-7.2742739153391933e-01</value></_>
        <_>
          <depth>1</depth>
          <value>1.9996968870399123e-01</value></_></nodes></_>
    <_>
      <nodes>
        <_>
          <depth>0</depth>
          <value>1.5795352281462829e-03</value>
          <splits>
            <_><var>89</var>
              <quality>1.3795216381549835e-01</quality>
              <le>-1.0581749677658081e+00</le></_></splits></_>
        <_>
          <depth>1</depth>
          <value>2.2660052617997939e-01</value></_>
        <_>
          <depth>1</depth>
          <value>-7.8397519902839330e-01</value></_></nodes></_>
    <_>
      <nodes>
        <_>
          <depth>0</depth>
          <value>8.4328359679406546e-04</value>
          <splits>
            <_><var>42</var>
              <quality>1.3254989683628082e-01</quality>
              <le>-5.5567250251770020e+00</le></_></splits></_>
        <_>
          <depth>1</depth>
          <value>-2.1751919638717072e+00</value></_>
        <_>
          <depth>1</depth>
          <value>1.4485392400091507e-01</value></_></nodes></_>
    <_>
      <nodes>
        <_>
          <depth>0</depth>
          <value>-7.0055716388184317e-03</value>
          <splits>
            <_><var>63</var>
              <quality>1.1562501639127731e-01</quality>
              <le>-1.8917849659919739e-01</le></_></splits></_>
        <_>
          <depth>1</depth>
          <value>-5.7564577324601141e+00</value></_>
        <_>
          <depth>1</depth>
          <value>1.1603476498086329e-01</value></_></nodes></_>
    <_>
      <nodes>
        <_>
          <depth>0</depth>
          <value>-1.3044859351559800e-03</value>
          <splits>
            <_><var>111</var>
              <quality>1.3430556654930115e-01</quality>
              <le>-7.6841747760772705e-01</le></_></splits></_>
        <_>
          <depth>1</depth>
          <value>9.1388422550962245e-01</value></_>
        <_>
          <depth>1</depth>
          <value>-1.9909775313535341e-01</value></_></nodes></_>
    <_>
      <nodes>
        <_>
          <depth>0</depth>
          <value>-7.7505313828443037e-03</value>
          <splits>
            <_><var>120</var>
              <quality>1.3372282683849335e-01</quality>
              <le>7.5158195495605469e+00</le></_></splits></_>
        <_>
          <depth>1</depth>
          <value>1.3486265228893593e-01</value></_>
        <_>
          <depth>1</depth>
          <value>-5.7564577324601141e+00</value></_></nodes></_>
    <_>
      <nodes>
        <_>
          <depth>0</depth>
          <value>-3.9113432095348201e-04</value>
          <splits>
            <_><var>80</var>
              <quality>1.8026496469974518e-01</quality>
              <le>6.9702899456024170e-01</le></_></splits></_>
        <_>
          <depth>1</depth>
          <value>-3.2322426024565803e-01</value></_>
        <_>
          <depth>1</depth>
          <value>7.0482000217436047e-01</value></_></nodes></_>
    <_>
      <nodes>
        <_>
          <depth>0</depth>
          <value>-2.3807763745642249e-03</value>
          <splits>
            <_><var>112</var>
              <quality>1.8555213510990143e-01</quality>
              <le>-1.1101500988006592e+00</le></_></splits></_>
        <_>
          <depth>1</depth>
          <value>6.0901583969745887e-01</value></_>
        <_>
          <depth>1</depth>
          <value>-3.7701214475180511e-01</value></_></nodes></_>
    <_>
      <nodes>
        <_>
          <depth>0</depth>
          <value>2.1223509860654674e-03</value>
          <splits>
            <_><var>59</var>
              <quality>2.0183441042900085e-01</quality>
              <le>-5.6423550844192505e-01</le></_></splits></_>
        <_>
          <depth>1</depth>
          <value>7.1796181993738573e-01</value></_>
        <_>
          <depth>1</depth>
          <value>-3.5898240755616084e-01</value></_></nodes></_>
    <_>
      <nodes>
        <_>
          <depth>0</depth>
          <value>-4.2303990296350194e-03</value>
          <splits>
            <_><var>105</var>
              <quality>2.0048227906227112e-01</quality>
              <le>2.5143198966979980e+00</le></_></splits></_>
        <_>
          <depth>1</depth>
          <value>-4.4242491563920194e-01</value></_>
        <_>
          <depth>1</depth>
          <value>5.6096081530178121e-01</value></_></nodes></_>
    <_>
      <nodes>
        <_>
          <depth>0</depth>
          <value>-1.4846457559392809e-03</value>
          <splits>
            <_><var>113</var>
              <quality>1.3635492324829102e-01</quality>
              <le>4.8260450363159180e+00</le></_></splits></_>
        <_>
          <depth>1</depth>
          <value>3.1764269840807441e-01</value></_>
        <_>
          <depth>1</depth>
          <value>-5.0525617123571653e-01</value></_></nodes></_>
    <_>
      <nodes>
        <_>
          <depth>0</depth>
          <value>-4.5998699715735893e-03</value>
          <splits>
            <_><var>87</var>
              <quality>1.1576222628355026e-01</quality>
              <le>-1.4512749910354614e+00</le></_></splits></_>
        <_>
          <depth>1</depth>
          <value>3.6735825168925901e-01</value></_>
        <_>
          <depth>1</depth>
          <value>-3.6164180261691653e-01</value></_></nodes></_>
    <_>
      <nodes>
        <_>
          <depth>0</depth>
          <value>-3.7486770262207219e-03</value>
          <splits>
            <_><var>0</var>
              <quality>1.0856528580188751e-01</quality>
              <le>2.1961851119995117e+00</le></_></splits></_>
        <_>
          <depth>1</depth>
          <value>2.7034392766374965e-01</value></_>
        <_>
          <depth>1</depth>
          <value>-4.6081119388897879e-01</value></_></nodes></_>
    <_>
      <nodes>
        <_>
          <depth>0</depth>
          <value>-6.3743215642728295e-03</value>
          <splits>
            <_><var>93</var>
              <quality>1.5346314013004303e-01</quality>
              <le>2.4747250080108643e+00</le></_></splits></_>
        <_>
          <depth>1</depth>
          <value>-2.7240775159648567e-01</value></_>
        <_>
          <depth>1</depth>
          <value>7.1892975033247608e-01</value></_></nodes></_>
    <_>
      <nodes>
        <_>
          <depth>0</depth>
          <value>-2.8600563969014316e-03</value>
          <splits>
            <_><var>42</var>
              <quality>1.1389011144638062e-01</quality>
              <le>-1.6834800243377686e+00</le></_></splits></_>
        <_>
          <depth>1</depth>
          <value>-3.9903378812499374e-01</value></_>
        <_>
          <depth>1</depth>
          <value>3.2704320769703277e-01</value></_></nodes></_>
    <_>
      <nodes>
        <_>
          <depth>0</depth>
          <value>-8.4180804665522357e-03</value>
          <splits>
            <_><var>38</var>
              <quality>1.2693783640861511e-01</quality>
              <le>-2.6795201301574707e+00</le></_></splits></_>
        <_>
          <depth>1</depth>
          <value>7.8969097014053979e-01</value></_>
        <_>
          <depth>1</depth>
          <value>-2.1190977944365136e-01</value></_></nodes></_>
    <_>
      <nodes>
        <_>
          <depth>0</depth>
          <value>1.6706801236578519e-03</value>
          <splits>
            <_><var>34</var>
              <quality>1.4420086145401001e-01</quality>
              <le>-1.2735500335693359e+00</le></_></splits></_>
        <_>
          <depth>1</depth>
          <value>-1.0282055671907169e+00</value></_>
        <_>
          <depth>1</depth>
          <value>2.0019687915946208e-01</value></_></nodes></_>
    <_>
      <nodes>
        <_>
          <depth>0</depth>
          <value>-1.7658630253623391e-03</value>
          <splits>
            <_><var>106</var>
              <quality>9.5223523676395416e-02</quality>
              <le>-2.7229747772216797e+00</le></_></splits></_>
        <_>
          <depth>1</depth>
          <value>-9.2973460421701903e-01</value></_>
        <_>
          <depth>1</depth>
          <value>1.3667273401909036e-01</value></_></nodes></_>
    <_>
      <nodes>
        <_>
          <depth>0</depth>
          <value>4.1063780526162594e-03</value>
          <splits>
            <_><var>86</var>
              <quality>1.4433209598064423e-01</quality>
              <le>-4.0134450793266296e-01</le></_></splits></_>
        <_>
          <depth>1</depth>
          <value>3.7966727063185562e-01</value></_>
        <_>
          <depth>1</depth>
          <value>-4.4776724598788537e-01</value></_></nodes></_>
    <_>
      <nodes>
        <_>
          <depth>0</depth>
          <value>2.8754816567703942e-03</value>
          <splits>
            <_><var>6</var>
              <quality>9.8162472248077393e-02</quality>
              <le>-1.2507200241088867e+00</le></_></splits></_>
        <_>
          <depth>1</depth>
          <value>6.4208661897258190e-01</value></_>
        <_>
          <depth>1</depth>
          <value>-1.8254143131939743e-01</value></_></nodes></_>
    <_>
      <nodes>
        <_>
          <depth>0</depth>
          <value>-7.0029859242993868e-03</value>
          <splits>
            <_><var>99</var>
              <quality>8.2929044961929321e-02</quality>
              <le>1.4991650581359863e+00</le></_></splits></_>
        <_>
          <depth>1</depth>
          <value>-4.6106733858181637e-01</value></_>
        <_>
          <depth>1</depth>
          <value>2.0154256760602332e-01</value></_></nodes></_>
    <_>
      <nodes>
        <_>
          <depth>0</depth>
          <value>2.7076460186673717e-03</value>
          <splits>
            <_><var>115</var>
              <quality>1.2410101294517517e-01</quality>
              <le>1.1005599975585938e+01</le></_></splits></_>
        <_>
          <depth>1</depth>
          <value>1.8866115070826203e-01</value></_>
        <_>
          <depth>1</depth>
          <value>-8.8408952567817733e-01</value></_></nodes></_>
    <_>
      <nodes>
        <_>
          <depth>0</depth>
          <value>-1.2826704884101675e-02</value>
          <splits>
            <_><var>63</var>
              <quality>9.9328972399234772e-02</quality>
              <le>5.7878847122192383e+00</le></_></splits></_>
        <_>
          <depth>1</depth>
          <value>-1.4073233108198246e-01</value></_>
        <_>
          <depth>1</depth>
          <value>1.1249509750702624e+00</value></_></nodes></_>
    <_>
      <nodes>
        <_>
          <depth>0</depth>
          <value>3.1672754499019917e-03</value>
          <splits>
            <_><var>125</var>
              <quality>1.0597451776266098e-01</quality>
              <le>5.2193298339843750e+00</le></_></splits></_>
        <_>
          <depth>1</depth>
          <value>1.8965997194284601e-01</value></_>
        <_>
          <depth>1</depth>
          <value>-6.9707308058087192e-01</value></_></nodes></_>
    <_>
      <nodes>
        <_>
          <depth>0</depth>
          <value>1.0136707034463274e-03</value>
          <splits>
            <_><var>70</var>
              <quality>9.8848842084407806e-02</quality>
              <le>-1.8004549741744995e+00</le></_></splits></_>
        <_>
          <depth>1</depth>
          <value>4.3277052907483826e-01</value></_>
        <_>
          <depth>1</depth>
          <value>-2.6069238307439296e-01</value></_></nodes></_>
    <_>
      <nodes>
        <_>
          <depth>0</depth>
          <value>-4.0098088243393486e-03</value>
          <splits>
            <_><var>133</var>
              <quality>1.0646131634712219e-01</quality>
              <le>-1.6198699474334717e+00</le></_></splits></_>
        <_>
          <depth>1</depth>
          <value>-1.1655893284190242e+00</value></_>
        <_>
          <depth>1</depth>
          <value>1.3368172577708956e-01</value></_></nodes></_>
    <_>
      <nodes>
        <_>
          <depth>0</depth>
          <value>3.8872182441890556e-04</value>
          <splits>
            <_><var>87</var>
              <quality>8.6024716496467590e-02</quality>
              <le>-4.6181850433349609e+00</le></_></splits></_>
        <_>
          <depth>1</depth>
          <value>9.7864264836040438e-01</value></_>
        <_>
          <depth>1</depth>
          <value>-1.2062846819894675e-01</value></_></nodes></_>
    <_>
      <nodes>
        <_>
          <depth>0</depth>
          <value>5.1801012152129320e-05</value>
          <splits>
            <_><var>117</var>
              <quality>9.1741651296615601e-02</quality>
              <le>-3.9154052734375000e-01</le></_></splits></_>
        <_>
          <depth>1</depth>
          <value>5.5879493608751296e-01</value></_>
        <_>
          <depth>1</depth>
          <value>-1.9282834771500795e-01</value></_></nodes></_>
    <_>
      <nodes>
        <_>
          <depth>0</depth>
          <value>-7.0990309242689709e-04</value>
          <splits>
            <_><var>63</var>
              <quality>9.4464406371116638e-02</quality>
              <le>3.3202099800109863e+00</le></_></splits></_>
        <_>
          <depth>1</depth>
          <value>-2.3775139739981893e-01</value></_>
        <_>
          <depth>1</depth>
          <value>4.5604783338274885e-01</value></_></nodes></_>
    <_>
      <nodes>
        <_>
          <depth>0</depth>
          <value>-4.6596807722767888e-03</value>
          <splits>
            <_><var>55</var>
              <quality>1.3379582762718201e-01</quality>
              <le>1.8135099411010742e+00</le></_></splits></_>
        <_>
          <depth>1</depth>
          <value>2.5054154220942654e-01</value></_>
        <_>
          <depth>1</depth>
          <value>-6.4417080376552360e-01</value></_></nodes></_>
    <_>
      <nodes>
        <_>
          <depth>0</depth>
          <value>-6.3059812244272394e-03</value>
          <splits>
            <_><var>2</var>
              <quality>8.7342597544193268e-02</quality>
              <le>-6.9884502887725830e-01</le></_></splits></_>
        <_>
          <depth>1</depth>
          <value>-6.3727630141009040e-01</value></_>
        <_>
          <depth>1</depth>
          <value>1.6015843632434321e-01</value></_></nodes></_>
    <_>
      <nodes>
        <_>
          <depth>0</depth>
          <value>-2.7167803966994389e-04</value>
          <splits>
            <_><var>101</var>
              <quality>6.8071089684963226e-02</quality>
              <le>1.2613100051879883e+01</le></_></splits></_>
        <_>
          <depth>1</depth>
          <value>-7.2056296763453015e-02</value></_>
        <_>
          <depth>1</depth>
          <value>5.7564577324623896e+00</value></_></nodes></_>
    <_>
      <nodes>
        <_>
          <depth>0</depth>
          <value>-1.1671855579777647e-01</value>
          <splits>
            <_><var>85</var>
              <quality>1.5799167752265930e-01</quality>
              <le>-5.0116753578186035e-01</le></_></splits></_>
        <_>
          <depth>1</depth>
          <value>-1.3514965008162967e+00</value></_>
        <_>
          <depth>1</depth>
          <value>8.5616506951842725e-02</value></_></nodes></_>
    <_>
      <nodes>
        <_>
          <depth>0</depth>
          <value>4.5019672362219855e-04</value>
          <splits>
            <_><var>61</var>
              <quality>9.1293238103389740e-02</quality>
              <le>5.7372653484344482e-01</le></_></splits></_>
        <_>
          <depth>1</depth>
          <value>2.5748967152305896e-01</value></_>
        <_>
          <depth>1</depth>
          <value>-4.0205224283743146e-01</value></_></nodes></_>
    <_>
      <nodes>
        <_>
          <depth>0</depth>
          <value>-1.6223244944604256e-03</value>
          <splits>
            <_><var>106</var>
              <quality>1.1989949643611908e-01</quality>
              <le>-6.4373102188110352e+00</le></_></splits></_>
        <_>
          <depth>1</depth>
          <value>-5.7564577324601141e+00</value></_>
        <_>
          <depth>1</depth>
          <value>1.2545955929856809e-01</value></_></nodes></_>
    <_>
      <nodes>
        <_>
          <depth>0</depth>
          <value>2.1937955407728815e-02</value>
          <splits>
            <_><var>22</var>
              <quality>1.1421775072813034e-01</quality>
              <le>3.8305652141571045e-01</le></_></splits></_>
        <_>
          <depth>1</depth>
          <value>2.1450107845563712e-01</value></_>
        <_>
          <depth>1</depth>
          <value>-7.1004717017099550e-01</value></_></nodes></_>
    <_>
      <nodes>
        <_>
          <depth>0</depth>
          <value>1.1816692199807439e-03</value>
          <splits>
            <_><var>105</var>
              <quality>1.3443726301193237e-01</quality>
              <le>2.7892198562622070e+00</le></_></splits></_>
        <_>
          <depth>1</depth>
          <value>-3.0765290067456125e-01</value></_>
        <_>
          <depth>1</depth>
          <value>5.1492590078280565e-01</value></_></nodes></_>
    <_>
      <nodes>
        <_>
          <depth>0</depth>
          <value>-3.2973527163245166e-03</value>
          <splits>
            <_><var>42</var>
              <quality>1.3868558406829834e-01</quality>
              <le>-3.9297399520874023e+00</le></_></splits></_>
        <_>
          <depth>1</depth>
          <value>-1.1276397240931610e+00</value></_>
        <_>
          <depth>1</depth>
          <value>1.7953119644063475e-01</value></_></nodes></_>
    <_>
      <nodes>
        <_>
          <depth>0</depth>
          <value>-3.5781331842388159e-03</value>
          <splits>
            <_><var>47</var>
              <quality>1.2703306972980499e-01</quality>
              <le>-1.7903200387954712e+00</le></_></splits></_>
        <_>
          <depth>1</depth>
          <value>3.2105946275634634e-01</value></_>
        <_>
          <depth>1</depth>
          <value>-4.5917261458442210e-01</value></_></nodes></_>
    <_>
      <nodes>
        <_>
          <depth>0</depth>
          <value>2.8953834645486865e-03</value>
          <splits>
            <_><var>37</var>
              <quality>1.1890607327222824e-01</quality>
              <le>-2.4694099426269531e+00</le></_></splits></_>
        <_>
          <depth>1</depth>
          <value>-4.7788125623538386e-01</value></_>
        <_>
          <depth>1</depth>
          <value>2.9052610161018977e-01</value></_></nodes></_>
    <_>
      <nodes>
        <_>
          <depth>0</depth>
          <value>-7.0953155268217829e-03</value>
          <splits>
            <_><var>126</var>
              <quality>1.0490728169679642e-01</quality>
              <le>-3.7090048789978027e+00</le></_></splits></_>
        <_>
          <depth>1</depth>
          <value>1.9803283262198841e+00</value></_>
        <_>
          <depth>1</depth>
          <value>-1.2154526867097105e-01</value></_></nodes></_>
    <_>
      <nodes>
        <_>
          <depth>0</depth>
          <value>-1.4151281773141835e-02</value>
          <splits>
            <_><var>63</var>
              <quality>1.1999961733818054e-01</quality>
              <le>1.0326299667358398e+00</le></_></splits></_>
        <_>
          <depth>1</depth>
          <value>-5.3389466645473205e-01</value></_>
        <_>
          <depth>1</depth>
          <value>2.5748835574226370e-01</value></_></nodes></_>
    <_>
      <nodes>
        <_>
          <depth>0</depth>
          <value>4.8053955794020381e-03</value>
          <splits>
            <_><var>38</var>
              <quality>1.6396555304527283e-01</quality>
              <le>1.1715849637985229e+00</le></_></splits></_>
        <_>
          <depth>1</depth>
          <value>2.3999771327304886e-01</value></_>
        <_>
          <depth>1</depth>
          <value>-9.5838054582008902e-01</value></_></nodes></_>
    <_>
      <nodes>
        <_>
          <depth>0</depth>
          <value>-8.3953297095797821e-03</value>
          <splits>
            <_><var>87</var>
              <quality>1.2275148183107376e-01</quality>
              <le>-8.0427896976470947e-01</le></_></splits></_>
        <_>
          <depth>1</depth>
          <value>2.2151618984956825e-01</value></_>
        <_>
          <depth>1</depth>
          <value>-6.6126101286273919e-01</value></_></nodes></_>
    <_>
      <nodes>
        <_>
          <depth>0</depth>
          <value>7.8878156272590115e-03</value>
          <splits>
            <_><var>33</var>
              <quality>1.1716207861900330e-01</quality>
              <le>4.2407250404357910e-01</le></_></splits></_>
        <_>
          <depth>1</depth>
          <value>4.6915436919633124e-01</value></_>
        <_>
          <depth>1</depth>
          <value>-2.8682755463719434e-01</value></_></nodes></_>
    <_>
      <nodes>
        <_>
          <depth>0</depth>
          <value>-8.0000885423468157e-03</value>
          <splits>
            <_><var>96</var>
              <quality>1.3456457853317261e-01</quality>
              <le>5.2926599979400635e-01</le></_></splits></_>
        <_>
          <depth>1</depth>
          <value>2.5657289957628188e-01</value></_>
        <_>
          <depth>1</depth>
          <value>-6.2487159901177725e-01</value></_></nodes></_>
    <_>
      <nodes>
        <_>
          <depth>0</depth>
          <value>3.4597590964608568e-03</value>
          <splits>
            <_><var>107</var>
              <quality>1.0830642282962799e-01</quality>
              <le>9.7473150491714478e-01</le></_></splits></_>
        <_>
          <depth>1</depth>
          <value>-5.3396134448452781e-01</value></_>
        <_>
          <depth>1</depth>
          <value>2.3975820407836632e-01</value></_></nodes></_>
    <_>
      <nodes>
        <_>
          <depth>0</depth>
          <value>5.3508090639405463e-05</value>
          <splits>
            <_><var>42</var>
              <quality>1.0285035520792007e-01</quality>
              <le>-2.8166651725769043e+00</le></_></splits></_>
        <_>
          <depth>1</depth>
          <value>-5.3081728045162213e-01</value></_>
        <_>
          <depth>1</depth>
          <value>2.2674669369433126e-01</value></_></nodes></_>
    <_>
      <nodes>
        <_>
          <depth>0</depth>
          <value>-6.6895119805719721e-03</value>
          <splits>
            <_><var>43</var>
              <quality>9.4423495233058929e-02</quality>
              <le>5.5852551460266113e+00</le></_></splits></_>
        <_>
          <depth>1</depth>
          <value>9.7416892263299332e-02</value></_>
        <_>
          <depth>1</depth>
          <value>-1.9998854258832404e+00</value></_></nodes></_>
    <_>
      <nodes>
        <_>
          <depth>0</depth>
          <value>9.2244778198277829e-04</value>
          <splits>
            <_><var>52</var>
              <quality>1.1852389574050903e-01</quality>
              <le>-9.7235900163650513e-01</le></_></splits></_>
        <_>
          <depth>1</depth>
          <value>4.8417583198731334e-01</value></_>
        <_>
          <depth>1</depth>
          <value>-2.8475338520828414e-01</value></_></nodes></_>
    <_>
      <nodes>
        <_>
          <depth>0</depth>
          <value>-4.7036283457520568e-03</value>
          <splits>
            <_><var>63</var>
              <quality>1.0667020082473755e-01</quality>
              <le>4.5263900756835938e+00</le></_></splits></_>
        <_>
          <depth>1</depth>
          <value>-1.4631097225438330e-01</value></_>
        <_>
          <depth>1</depth>
          <value>1.0828598637595657e+00</value></_></nodes></_>
    <_>
      <nodes>
        <_>
          <depth>0</depth>
          <value>-9.1965007653755076e-03</value>
          <splits>
            <_><var>82</var>
              <quality>1.0112290084362030e-01</quality>
              <le>-1.2476000189781189e-01</le></_></splits></_>
        <_>
          <depth>1</depth>
          <value>-2.5072521984554474e-01</value></_>
        <_>
          <depth>1</depth>
          <value>4.7327972681961600e-01</value></_></nodes></_>
    <_>
      <nodes>
        <_>
          <depth>0</depth>
          <value>-1.0118030918315818e-02</value>
          <splits>
            <_><var>93</var>
              <quality>1.1069075018167496e-01</quality>
              <le>1.9850699901580811e+00</le></_></splits></_>
        <_>
          <depth>1</depth>
          <value>-3.0770690693752878e-01</value></_>
        <_>
          <depth>1</depth>
          <value>4.1627221868909431e-01</value></_></nodes></_>
    <_>
      <nodes>
        <_>
          <depth>0</depth>
          <value>5.9447965551783716e-03</value>
          <splits>
            <_><var>74</var>
              <quality>1.0476917773485184e-01</quality>
              <le>-1.0966899394989014e+00</le></_></splits></_>
        <_>
          <depth>1</depth>
          <value>5.7454079978736672e-01</value></_>
        <_>
          <depth>1</depth>
          <value>-2.1231501680705336e-01</value></_></nodes></_>
    <_>
      <nodes>
        <_>
          <depth>0</depth>
          <value>1.7390497325569973e-04</value>
          <splits>
            <_><var>67</var>
              <quality>9.8109610378742218e-02</quality>
              <le>1.3886299133300781e+00</le></_></splits></_>
        <_>
          <depth>1</depth>
          <value>3.0178299562511984e-01</value></_>
        <_>
          <depth>1</depth>
          <value>-3.6841808345211452e-01</value></_></nodes></_>
    <_>
      <nodes>
        <_>
          <depth>0</depth>
          <value>-7.4848670789770880e-03</value>
          <splits>
            <_><var>65</var>
              <quality>9.1886192560195923e-02</quality>
              <le>2.2522649765014648e+00</le></_></splits></_>
        <_>
          <depth>1</depth>
          <value>-2.4926438378507759e-01</value></_>
        <_>
          <depth>1</depth>
          <value>4.2481074657866402e-01</value></_></nodes></_>
    <_>
      <nodes>
        <_>
          <depth>0</depth>
          <value>-3.1802743316891814e-05</value>
          <splits>
            <_><var>17</var>
              <quality>9.9018387496471405e-02</quality>
              <le>3.7344799041748047e+00</le></_></splits></_>
        <_>
          <depth>1</depth>
          <value>1.3200028460160587e-01</value></_>
        <_>
          <depth>1</depth>
          <value>-1.0831092060553305e+00</value></_></nodes></_>
    <_>
      <nodes>
        <_>
          <depth>0</depth>
          <value>1.6827794307163349e-03</value>
          <splits>
            <_><var>3</var>
              <quality>1.2271942943334579e-01</quality>
              <le>-2.1331749856472015e-02</le></_></splits></_>
        <_>
          <depth>1</depth>
          <value>-6.0209998777040541e-01</value></_>
        <_>
          <depth>1</depth>
          <value>2.4563376247474533e-01</value></_></nodes></_>
    <_>
      <nodes>
        <_>
          <depth>0</depth>
          <value>-1.2103495970238200e-03</value>
          <splits>
            <_><var>112</var>
              <quality>8.2699187099933624e-02</quality>
              <le>2.2094349861145020e+00</le></_></splits></_>
        <_>
          <depth>1</depth>
          <value>1.4400684516980208e-01</value></_>
        <_>
          <depth>1</depth>
          <value>-7.0083890105843161e-01</value></_></nodes></_>
    <_>
      <nodes>
        <_>
          <depth>0</depth>
          <value>-3.9146970787588145e-03</value>
          <splits>
            <_><var>108</var>
              <quality>9.1656006872653961e-02</quality>
              <le>9.8609399795532227e-01</le></_></splits></_>
        <_>
          <depth>1</depth>
          <value>-2.3179880997779231e-01</value></_>
        <_>
          <depth>1</depth>
          <value>4.5643200894454583e-01</value></_></nodes></_>
    <_>
      <nodes>
        <_>
          <depth>0</depth>
          <value>-5.6717871683718956e-03</value>
          <splits>
            <_><var>80</var>
              <quality>9.3322306871414185e-02</quality>
              <le>1.1945950984954834e+00</le></_></splits></_>
        <_>
          <depth>1</depth>
          <value>-2.2181618452794694e-01</value></_>
        <_>
          <depth>1</depth>
          <value>4.9280697416702202e-01</value></_></nodes></_></trees></opencv_ml_boost>
</opencv_storage>
