<?xml version="1.0"?>
<opencv_storage>
<opencv_ml_boost>
  <format>3</format>
  <is_classifier>1</is_classifier>
  <var_all>137</var_all>
  <var_count>136</var_count>
  <ord_var_count>136</ord_var_count>
  <cat_var_count>1</cat_var_count>
  <training_params>
    <boosting_type>RealAdaboost</boosting_type>
    <use_surrogates>0</use_surrogates>
    <max_categories>10</max_categories>
    <regression_accuracy>9.9999997764825821e-03</regression_accuracy>
    <max_depth>1</max_depth>
    <min_sample_count>10</min_sample_count>
    <cross_validation_folds>0</cross_validation_folds>
    <weight_trimming_rate>9.4999999999999996e-01</weight_trimming_rate></training_params>
  <global_var_idx>1</global_var_idx>
  <var_idx>
    0 1 2 3 4 5 6 7 8 9 10 11 12 13 14 15 16 17 18 19 20 21 22 23 24 25
    26 27 28 29 30 31 32 33 34 35 36 37 38 39 40 41 42 43 44 45 46 47 48
    49 50 51 52 53 54 55 56 57 58 59 60 61 62 63 64 65 66 67 68 69 70 71
    72 73 74 75 76 77 78 79 80 81 82 83 84 85 86 87 88 89 90 91 92 93 94
    95 96 97 98 99 100 101 102 103 104 105 106 107 108 109 110 111 112
    113 114 115 116 117 118 119 120 121 122 123 124 125 126 127 128 129
    130 131 132 133 134 135</var_idx>
  <var_type>
    0 0 0 0 0 0 0 0 0 0 0 0 0 0 0 0 0 0 0 0 0 0 0 0 0 0 0 0 0 0 0 0 0 0
    0 0 0 0 0 0 0 0 0 0 0 0 0 0 0 0 0 0 0 0 0 0 0 0 0 0 0 0 0 0 0 0 0 0
    0 0 0 0 0 0 0 0 0 0 0 0 0 0 0 0 0 0 0 0 0 0 0 0 0 0 0 0 0 0 0 0 0 0
    0 0 0 0 0 0 0 0 0 0 0 0 0 0 0 0 0 0 0 0 0 0 0 0 0 0 0 0 0 0 0 0 0 0
    1</var_type>
  <cat_ofs>
    0 0 0 0 0 0 0 0 0 0 0 0 0 0 0 0 0 0 0 0 0 0 0 0 0 0 0 0 0 0 0 0 0 0
    0 0 0 0 0 0 0 0 0 0 0 0 0 0 0 0 0 0 0 0 0 0 0 0 0 0 0 0 0 0 0 0 0 0
    0 0 0 0 0 0 0 0 0 0 0 0 0 0 0 0 0 0 0 0 0 0 0 0 0 0 0 0 0 0 0 0 0 0
    0 0 0 0 0 0 0 0 0 0 0 0 0 0 0 0 0 0 0 0 0 0 0 0 0 0 0 0 0 0 0 0 0 0
    0 0 0 0 0 0 0 0 0 0 0 0 0 0 0 0 0 0 0 0 0 0 0 0 0 0 0 0 0 0 0 0 0 0
    0 0 0 0 0 0 0 0 0 0 0 0 0 0 0 0 0 0 0 0 0 0 0 0 0 0 0 0 0 0 0 0 0 0
    0 0 0 0 0 0 0 0 0 0 0 0 0 0 0 0 0 0 0 0 0 0 0 0 0 0 0 0 0 0 0 0 0 0
    0 0 0 0 0 0 0 0 0 0 0 0 0 0 0 0 0 0 0 0 0 0 0 0 0 0 0 0 0 0 0 0 0 0</cat_ofs>
  <class_labels>
    -1082130432 1065353216</class_labels>
  <missing_subst>
    0. 0. 0. 0. 0. 0. 0. 0. 0. 0. 0. 0. 0. 0. 0. 0. 0. 0. 0. 0. 0. 0. 0.
    0. 0. 0. 0. 0. 0. 0. 0. 0. 0. 0. 0. 0. 0. 0. 0. 0. 0. 0. 0. 0. 0. 0.
    0. 0. 0. 0. 0. 0. 0. 0. 0. 0. 0. 0. 0. 0. 0. 0. 0. 0. 0. 0. 0. 0. 0.
    0. 0. 0. 0. 0. 0. 0. 0. 0. 0. 0. 0. 0. 0. 0. 0. 0. 0. 0. 0. 0. 0. 0.
    0. 0. 0. 0. 0. 0. 0. 0. 0. 0. 0. 0. 0. 0. 0. 0. 0. 0. 0. 0. 0. 0. 0.
    0. 0. 0. 0. 0. 0. 0. 0. 0. 0. 0. 0. 0. 0. 0. 0. 0. 0. 0. 0. 0. 0.</missing_subst>
  <ntrees>100</ntrees>
  <trees>
    <_>
      <nodes>
        <_>
          <depth>0</depth>
          <value>-4.5730432284558520e-01</value>
          <splits>
            <_><var>133</var>
              <quality>4.1181668639183044e-01</quality>
              <le>-2.6250150203704834e+00</le></_></splits></_>
        <_>
          <depth>1</depth>
          <value>-2.2930503116338716e+00</value></_>
        <_>
          <depth>1</depth>
          <value>-1.3468827865904186e-02</value></_></nodes></_>
    <_>
      <nodes>
        <_>
          <depth>0</depth>
          <value>-2.7716406469028546e-09</value>
          <splits>
            <_><var>41</var>
              <quality>4.2349803447723389e-01</quality>
              <le>-2.1227297782897949e+00</le></_></splits></_>
        <_>
          <depth>1</depth>
          <value>-2.0391940798416535e+00</value></_>
        <_>
          <depth>1</depth>
          <value>4.6986320698131490e-01</value></_></nodes></_>
    <_>
      <nodes>
        <_>
          <depth>0</depth>
          <value>3.1908652020751940e-03</value>
          <splits>
            <_><var>55</var>
              <quality>3.1421509385108948e-01</quality>
              <le>1.2566149234771729e+00</le></_></splits></_>
        <_>
          <depth>1</depth>
          <value>3.7170839583313964e-01</value></_>
        <_>
          <depth>1</depth>
          <value>-1.4293684532100577e+00</value></_></nodes></_>
    <_>
      <nodes>
        <_>
          <depth>0</depth>
          <value>2.2912299935821751e-02</value>
          <splits>
            <_><var>113</var>
              <quality>3.1544649600982666e-01</quality>
              <le>1.8355849981307983e+00</le></_></splits></_>
        <_>
          <depth>1</depth>
          <value>4.3932047980102568e-01</value></_>
        <_>
          <depth>1</depth>
          <value>-1.1182722738037352e+00</value></_></nodes></_>
    <_>
      <nodes>
        <_>
          <depth>0</depth>
          <value>1.0964798615408574e-08</value>
          <splits>
            <_><var>110</var>
              <quality>2.6532351970672607e-01</quality>
              <le>-2.1454949378967285e+00</le></_></splits></_>
        <_>
          <depth>1</depth>
          <value>-1.6601580524754320e+00</value></_>
        <_>
          <depth>1</depth>
          <value>3.0903109562792919e-01</value></_></nodes></_>
    <_>
      <nodes>
        <_>
          <depth>0</depth>
          <value>-1.3241292226453302e-03</value>
          <splits>
            <_><var>25</var>
              <quality>2.1881049871444702e-01</quality>
              <le>-6.7872601747512817e-01</le></_></splits></_>
        <_>
          <depth>1</depth>
          <value>-6.0630656645913905e-01</value></_>
        <_>
          <depth>1</depth>
          <value>4.4975945466354683e-01</value></_></nodes></_>
    <_>
      <nodes>
        <_>
          <depth>0</depth>
          <value>-2.0256630862611688e-03</value>
          <splits>
            <_><var>62</var>
              <quality>1.5971775352954865e-01</quality>
              <le>1.4622099399566650e+00</le></_></splits></_>
        <_>
          <depth>1</depth>
          <value>1.8884643129703957e-01</value></_>
        <_>
          <depth>1</depth>
          <value>-1.4291709006059170e+00</value></_></nodes></_>
    <_>
      <nodes>
        <_>
          <depth>0</depth>
          <value>-1.1297027510591209e-02</value>
          <splits>
            <_><var>51</var>
              <quality>1.5513534843921661e-01</quality>
              <le>-2.0543751716613770e+00</le></_></splits></_>
        <_>
          <depth>1</depth>
          <value>-1.4557872223480492e+00</value></_>
        <_>
          <depth>1</depth>
          <value>1.7154267039774301e-01</value></_></nodes></_>
    <_>
      <nodes>
        <_>
          <depth>0</depth>
          <value>1.2933187789983862e-02</value>
          <splits>
            <_><var>43</var>
              <quality>2.0603524148464203e-01</quality>
              <le>1.5766799449920654e+00</le></_></splits></_>
        <_>
          <depth>1</depth>
          <value>3.3186663518018167e-01</value></_>
        <_>
          <depth>1</depth>
          <value>-8.3946079369859583e-01</value></_></nodes></_>
    <_>
      <nodes>
        <_>
          <depth>0</depth>
          <value>-4.9707918117513385e-03</value>
          <splits>
            <_><var>54</var>
              <quality>1.5788172185420990e-01</quality>
              <le>-8.8020354509353638e-02</le></_></splits></_>
        <_>
          <depth>1</depth>
          <value>-5.6892402615853033e-01</value></_>
        <_>
          <depth>1</depth>
          <value>3.3104648742439069e-01</value></_></nodes></_>
    <_>
      <nodes>
        <_>
          <depth>0</depth>
          <value>-4.4713939366029173e-03</value>
          <splits>
            <_><var>96</var>
              <quality>1.4692611992359161e-01</quality>
              <le>2.6737399101257324e+00</le></_></splits></_>
        <_>
          <depth>1</depth>
          <value>1.6804959608128406e-01</value></_>
        <_>
          <depth>1</depth>
          <value>-1.5149447614309488e+00</value></_></nodes></_>
    <_>
      <nodes>
        <_>
          <depth>0</depth>
          <value>-1.9755049089824690e-02</value>
          <splits>
            <_><var>3</var>
              <quality>1.6886697709560394e-01</quality>
              <le>-1.8250000476837158e+00</le></_></splits></_>
        <_>
          <depth>1</depth>
          <value>-8.2409407299986603e-01</value></_>
        <_>
          <depth>1</depth>
          <value>2.5036936102280305e-01</value></_></nodes></_>
    <_>
      <nodes>
        <_>
          <depth>0</depth>
          <value>-3.2035782220480704e-03</value>
          <splits>
            <_><var>39</var>
              <quality>1.4548653364181519e-01</quality>
              <le>-7.7083253860473633e-01</le></_></splits></_>
        <_>
          <depth>1</depth>
          <value>-5.5161624474430959e-01</value></_>
        <_>
          <depth>1</depth>
          <value>3.0737238634468378e-01</value></_></nodes></_>
    <_>
      <nodes>
        <_>
          <depth>0</depth>
          <value>-1.2243397840998926e-02</value>
          <splits>
            <_><var>45</var>
              <quality>1.7012743651866913e-01</quality>
              <le>4.4026203155517578e+00</le></_></splits></_>
        <_>
          <depth>1</depth>
          <value>1.6534835941422638e-01</value></_>
        <_>
          <depth>1</depth>
          <value>-5.7564577324601141e+00</value></_></nodes></_>
    <_>
      <nodes>
        <_>
          <depth>0</depth>
          <value>-7.4329217076978477e-03</value>
          <splits>
            <_><var>89</var>
              <quality>1.7721350491046906e-01</quality>
              <le>-9.5367449830519035e-06</le></_></splits></_>
        <_>
          <depth>1</depth>
          <value>-3.8542018544930928e-01</value></_>
        <_>
          <depth>1</depth>
          <value>5.3873275965318901e-01</value></_></nodes></_>
    <_>
      <nodes>
        <_>
          <depth>0</depth>
          <value>-1.5989913726268623e-02</value>
          <splits>
            <_><var>101</var>
              <quality>9.0729281306266785e-02</quality>
              <le>-3.4468300342559814e+00</le></_></splits></_>
        <_>
          <depth>1</depth>
          <value>-5.7564577324601141e+00</value></_>
        <_>
          <depth>1</depth>
          <value>8.0492908367080368e-02</value></_></nodes></_>
    <_>
      <nodes>
        <_>
          <depth>0</depth>
          <value>-5.9959141481672558e-04</value>
          <splits>
            <_><var>117</var>
              <quality>1.3716977834701538e-01</quality>
              <le>3.2827001810073853e-01</le></_></splits></_>
        <_>
          <depth>1</depth>
          <value>4.4136781034260841e-01</value></_>
        <_>
          <depth>1</depth>
          <value>-3.6157615212588073e-01</value></_></nodes></_>
    <_>
      <nodes>
        <_>
          <depth>0</depth>
          <value>-8.4371669118506638e-03</value>
          <splits>
            <_><var>118</var>
              <quality>1.1778052896261215e-01</quality>
              <le>4.6814751625061035e-01</le></_></splits></_>
        <_>
          <depth>1</depth>
          <value>3.2039686069855045e-01</value></_>
        <_>
          <depth>1</depth>
          <value>-4.2097152075440492e-01</value></_></nodes></_>
    <_>
      <nodes>
        <_>
          <depth>0</depth>
          <value>-1.3821199928127788e-04</value>
          <splits>
            <_><var>48</var>
              <quality>1.2684102356433868e-01</quality>
              <le>3.2008349895477295e-01</le></_></splits></_>
        <_>
          <depth>1</depth>
          <value>3.8249988200206575e-01</value></_>
        <_>
          <depth>1</depth>
          <value>-3.8371175119623246e-01</value></_></nodes></_>
    <_>
      <nodes>
        <_>
          <depth>0</depth>
          <value>-3.6662797571799782e-03</value>
          <splits>
            <_><var>32</var>
              <quality>1.4078561961650848e-01</quality>
              <le>-3.9999401569366455e-01</le></_></splits></_>
        <_>
          <depth>1</depth>
          <value>-5.2401351764560700e-01</value></_>
        <_>
          <depth>1</depth>
          <value>3.1703827820290958e-01</value></_></nodes></_>
    <_>
      <nodes>
        <_>
          <depth>0</depth>
          <value>6.5095710777990140e-04</value>
          <splits>
            <_><var>106</var>
              <quality>1.0116021335124969e-01</quality>
              <le>-9.0241253376007080e-01</le></_></splits></_>
        <_>
          <depth>1</depth>
          <value>-5.0104606127784312e-01</value></_>
        <_>
          <depth>1</depth>
          <value>2.3460247289079716e-01</value></_></nodes></_>
    <_>
      <nodes>
        <_>
          <depth>0</depth>
          <value>1.0407547534134489e-03</value>
          <splits>
            <_><var>40</var>
              <quality>1.0676515847444534e-01</quality>
              <le>-1.4340150356292725e+00</le></_></splits></_>
        <_>
          <depth>1</depth>
          <value>-7.6649877057465121e-01</value></_>
        <_>
          <depth>1</depth>
          <value>1.7685527373333670e-01</value></_></nodes></_>
    <_>
      <nodes>
        <_>
          <depth>0</depth>
          <value>-4.9518095411988962e-03</value>
          <splits>
            <_><var>35</var>
              <quality>1.0524445772171021e-01</quality>
              <le>3.6179351806640625e+00</le></_></splits></_>
        <_>
          <depth>1</depth>
          <value>1.0677673806204739e-01</value></_>
        <_>
          <depth>1</depth>
          <value>-5.7564577324601141e+00</value></_></nodes></_>
    <_>
      <nodes>
        <_>
          <depth>0</depth>
          <value>-7.8006785649277861e-03</value>
          <splits>
            <_><var>129</var>
              <quality>1.4824503660202026e-01</quality>
              <le>2.6406700611114502e+00</le></_></splits></_>
        <_>
          <depth>1</depth>
          <value>1.8507588219996662e-01</value></_>
        <_>
          <depth>1</depth>
          <value>-1.1730484760431341e+00</value></_></nodes></_>
    <_>
      <nodes>
        <_>
          <depth>0</depth>
          <value>8.7769586377610381e-03</value>
          <splits>
            <_><var>71</var>
              <quality>1.3269086182117462e-01</quality>
              <le>-6.1299896240234375e-01</le></_></splits></_>
        <_>
          <depth>1</depth>
          <value>-6.1304163952794277e-01</value></_>
        <_>
          <depth>1</depth>
          <value>2.6645131105912556e-01</value></_></nodes></_>
    <_>
      <nodes>
        <_>
          <depth>0</depth>
          <value>4.6390741521414028e-03</value>
          <splits>
            <_><var>120</var>
              <quality>1.1121907830238342e-01</quality>
              <le>-2.9671800136566162e+00</le></_></splits></_>
        <_>
          <depth>1</depth>
          <value>-5.7564577324601141e+00</value></_>
        <_>
          <depth>1</depth>
          <value>1.2179026788317086e-01</value></_></nodes></_>
    <_>
      <nodes>
        <_>
          <depth>0</depth>
          <value>4.8657771216843747e-02</value>
          <splits>
            <_><var>56</var>
              <quality>1.8114493787288666e-01</quality>
              <le>-6.7718550562858582e-02</le></_></splits></_>
        <_>
          <depth>1</depth>
          <value>6.7197287473523715e-01</value></_>
        <_>
          <depth>1</depth>
          <value>-3.1133886049482307e-01</value></_></nodes></_>
    <_>
      <nodes>
        <_>
          <depth>0</depth>
          <value>-2.3152238752241674e-03</value>
          <splits>
            <_><var>1</var>
              <quality>1.3554301857948303e-01</quality>
              <le>1.0855799913406372e+00</le></_></splits></_>
        <_>
          <depth>1</depth>
          <value>3.1784851120292423e-01</value></_>
        <_>
          <depth>1</depth>
          <value>-5.0086094867120390e-01</value></_></nodes></_>
    <_>
      <nodes>
        <_>
          <depth>0</depth>
          <value>5.3811937419551530e-03</value>
          <splits>
            <_><var>7</var>
              <quality>1.1625127494335175e-01</quality>
              <le>1.3816000223159790e+00</le></_></splits></_>
        <_>
          <depth>1</depth>
          <value>-2.3920502762817980e-01</value></_>
        <_>
          <depth>1</depth>
          <value>5.6945828684738298e-01</value></_></nodes></_>
    <_>
      <nodes>
        <_>
          <depth>0</depth>
          <value>-9.4709225680912560e-03</value>
          <splits>
            <_><var>121</var>
              <quality>1.2781634926795959e-01</quality>
              <le>-3.1394201517105103e-01</le></_></splits></_>
        <_>
          <depth>1</depth>
          <value>5.8406007340829058e-01</value></_>
        <_>
          <depth>1</depth>
          <value>-2.6691172786070039e-01</value></_></nodes></_>
    <_>
      <nodes>
        <_>
          <depth>0</depth>
          <value>4.1574236057000859e-03</value>
          <splits>
            <_><var>4</var>
              <quality>1.0599790513515472e-01</quality>
              <le>1.8172850608825684e+00</le></_></splits></_>
        <_>
          <depth>1</depth>
          <value>1.5021635313253595e-01</value></_>
        <_>
          <depth>1</depth>
          <value>-1.0095478111829441e+00</value></_></nodes></_>
    <_>
      <nodes>
        <_>
          <depth>0</depth>
          <value>-1.2281017727640059e-03</value>
          <splits>
            <_><var>53</var>
              <quality>8.9986935257911682e-02</quality>
              <le>1.9109200239181519e+00</le></_></splits></_>
        <_>
          <depth>1</depth>
          <value>-1.0947290281681717e-01</value></_>
        <_>
          <depth>1</depth>
          <value>1.3642569952115786e+00</value></_></nodes></_>
    <_>
      <nodes>
        <_>
          <depth>0</depth>
          <value>8.1244339555085741e-04</value>
          <splits>
            <_><var>68</var>
              <quality>1.2931017577648163e-01</quality>
              <le>-5.9206402301788330e-01</le></_></splits></_>
        <_>
          <depth>1</depth>
          <value>-4.5215241831134539e-01</value></_>
        <_>
          <depth>1</depth>
          <value>3.3338398357893623e-01</value></_></nodes></_>
    <_>
      <nodes>
        <_>
          <depth>0</depth>
          <value>-3.3100989489297000e-03</value>
          <splits>
            <_><var>100</var>
              <quality>1.2167001515626907e-01</quality>
              <le>-7.6460999250411987e-01</le></_></splits></_>
        <_>
          <depth>1</depth>
          <value>8.0863510705357156e-01</value></_>
        <_>
          <depth>1</depth>
          <value>-1.9636960839262235e-01</value></_></nodes></_>
    <_>
      <nodes>
        <_>
          <depth>0</depth>
          <value>-1.6096508054829880e-03</value>
          <splits>
            <_><var>49</var>
              <quality>8.6525551974773407e-02</quality>
              <le>-2.9401450157165527e+00</le></_></splits></_>
        <_>
          <depth>1</depth>
          <value>-5.7564577324601141e+00</value></_>
        <_>
          <depth>1</depth>
          <value>8.9877677615402829e-02</value></_></nodes></_>
    <_>
      <nodes>
        <_>
          <depth>0</depth>
          <value>-7.9370272915817129e-03</value>
          <splits>
            <_><var>110</var>
              <quality>1.1016068607568741e-01</quality>
              <le>-2.8607201576232910e-01</le></_></splits></_>
        <_>
          <depth>1</depth>
          <value>-3.4309235881047656e-01</value></_>
        <_>
          <depth>1</depth>
          <value>3.6733384627820154e-01</value></_></nodes></_>
    <_>
      <nodes>
        <_>
          <depth>0</depth>
          <value>-2.3524733661095125e-04</value>
          <splits>
            <_><var>68</var>
              <quality>1.2372390925884247e-01</quality>
              <le>1.2106699943542480e+00</le></_></splits></_>
        <_>
          <depth>1</depth>
          <value>1.6504260350319361e-01</value></_>
        <_>
          <depth>1</depth>
          <value>-1.0868383908960186e+00</value></_></nodes></_>
    <_>
      <nodes>
        <_>
          <depth>0</depth>
          <value>9.6856572905065091e-04</value>
          <splits>
            <_><var>113</var>
              <quality>1.1508613079786301e-01</quality>
              <le>2.8090300559997559e+00</le></_></splits></_>
        <_>
          <depth>1</depth>
          <value>1.6651492059835107e-01</value></_>
        <_>
          <depth>1</depth>
          <value>-9.4577659159908167e-01</value></_></nodes></_>
    <_>
      <nodes>
        <_>
          <depth>0</depth>
          <value>-2.2983454798442228e-03</value>
          <splits>
            <_><var>71</var>
              <quality>1.3703836500644684e-01</quality>
              <le>9.3669849634170532e-01</le></_></splits></_>
        <_>
          <depth>1</depth>
          <value>-2.4451348382053631e-01</value></_>
        <_>
          <depth>1</depth>
          <value>7.0148097514757424e-01</value></_></nodes></_>
    <_>
      <nodes>
        <_>
          <depth>0</depth>
          <value>-4.1144304844438805e-03</value>
          <splits>
            <_><var>41</var>
              <quality>9.4086259603500366e-02</quality>
              <le>1.9183900356292725e+00</le></_></splits></_>
        <_>
          <depth>1</depth>
          <value>1.5012517195900377e-01</value></_>
        <_>
          <depth>1</depth>
          <value>-7.7683994658749234e-01</value></_></nodes></_>
    <_>
      <nodes>
        <_>
          <depth>0</depth>
          <value>-2.0196407373720580e-03</value>
          <splits>
            <_><var>75</var>
              <quality>1.1564557254314423e-01</quality>
              <le>-1.0561950206756592e+00</le></_></splits></_>
        <_>
          <depth>1</depth>
          <value>-5.4778759852739622e-01</value></_>
        <_>
          <depth>1</depth>
          <value>2.4801137053788730e-01</value></_></nodes></_>
    <_>
      <nodes>
        <_>
          <depth>0</depth>
          <value>-3.9137359551469648e-03</value>
          <splits>
            <_><var>108</var>
              <quality>1.2439353018999100e-01</quality>
              <le>-2.7255949974060059e+00</le></_></splits></_>
        <_>
          <depth>1</depth>
          <value>-1.5994171996436315e+00</value></_>
        <_>
          <depth>1</depth>
          <value>1.3968804543826593e-01</value></_></nodes></_>
    <_>
      <nodes>
        <_>
          <depth>0</depth>
          <value>5.0601558869724141e-04</value>
          <splits>
            <_><var>118</var>
              <quality>1.1537332832813263e-01</quality>
              <le>4.2667752504348755e-01</le></_></splits></_>
        <_>
          <depth>1</depth>
          <value>3.4109822576307247e-01</value></_>
        <_>
          <depth>1</depth>
          <value>-3.8831937716050385e-01</value></_></nodes></_>
    <_>
      <nodes>
        <_>
          <depth>0</depth>
          <value>-1.9349544264994545e-03</value>
          <splits>
            <_><var>3</var>
              <quality>8.2735948264598846e-02</quality>
              <le>2.6696398854255676e-01</le></_></splits></_>
        <_>
          <depth>1</depth>
          <value>-2.7828682932574073e-01</value></_>
        <_>
          <depth>1</depth>
          <value>3.3323988706218832e-01</value></_></nodes></_>
    <_>
      <nodes>
        <_>
          <depth>0</depth>
          <value>3.6468583418989412e-03</value>
          <splits>
            <_><var>79</var>
              <quality>8.9528679847717285e-02</quality>
              <le>-3.6585998535156250e-01</le></_></splits></_>
        <_>
          <depth>1</depth>
          <value>7.3661048561896292e-01</value></_>
        <_>
          <depth>1</depth>
          <value>-1.4858496257239362e-01</value></_></nodes></_>
    <_>
      <nodes>
        <_>
          <depth>0</depth>
          <value>-3.8082927028804539e-03</value>
          <splits>
            <_><var>88</var>
              <quality>6.8135425448417664e-02</quality>
              <le>1.1617900133132935e+00</le></_></splits></_>
        <_>
          <depth>1</depth>
          <value>9.1158269046445473e-02</value></_>
        <_>
          <depth>1</depth>
          <value>-9.9879263230481141e-01</value></_></nodes></_>
    <_>
      <nodes>
        <_>
          <depth>0</depth>
          <value>-3.3399066665778707e-04</value>
          <splits>
            <_><var>80</var>
              <quality>7.9812303185462952e-02</quality>
              <le>-1.0982599258422852e+00</le></_></splits></_>
        <_>
          <depth>1</depth>
          <value>-8.0567536199242618e-01</value></_>
        <_>
          <depth>1</depth>
          <value>1.2632820607901432e-01</value></_></nodes></_>
    <_>
      <nodes>
        <_>
          <depth>0</depth>
          <value>3.8107266090346807e-03</value>
          <splits>
            <_><var>4</var>
              <quality>1.0051763802766800e-01</quality>
              <le>7.9588198661804199e-01</le></_></splits></_>
        <_>
          <depth>1</depth>
          <value>2.6049307982954872e-01</value></_>
        <_>
          <depth>1</depth>
          <value>-4.4510516964509533e-01</value></_></nodes></_>
    <_>
      <nodes>
        <_>
          <depth>0</depth>
          <value>-4.6544175616650817e-03</value>
          <splits>
            <_><var>17</var>
              <quality>1.0683869570493698e-01</quality>
              <le>1.4562849998474121e+00</le></_></splits></_>
        <_>
          <depth>1</depth>
          <value>2.5335400105489347e-01</value></_>
        <_>
          <depth>1</depth>
          <value>-4.8443141166835574e-01</value></_></nodes></_>
    <_>
      <nodes>
        <_>
          <depth>0</depth>
          <value>-4.6470662991526129e-04</value>
          <splits>
            <_><var>104</var>
              <quality>1.1581322550773621e-01</quality>
              <le>-4.8568749427795410e-01</le></_></splits></_>
        <_>
          <depth>1</depth>
          <value>-4.3339940473209515e-01</value></_>
        <_>
          <depth>1</depth>
          <value>3.0800187627235648e-01</value></_></nodes></_>
    <_>
      <nodes>
        <_>
          <depth>0</depth>
          <value>6.7942646120063808e-03</value>
          <splits>
            <_><var>118</var>
              <quality>1.0783182829618454e-01</quality>
              <le>2.3455500602722168e+00</le></_></splits></_>
        <_>
          <depth>1</depth>
          <value>1.3969149011340870e-01</value></_>
        <_>
          <depth>1</depth>
          <value>-1.2678611679863963e+00</value></_></nodes></_>
    <_>
      <nodes>
        <_>
          <depth>0</depth>
          <value>-5.2449604974356759e-03</value>
          <splits>
            <_><var>57</var>
              <quality>1.0592850297689438e-01</quality>
              <le>-1.2430399656295776e+00</le></_></splits></_>
        <_>
          <depth>1</depth>
          <value>-1.0888682891767578e+00</value></_>
        <_>
          <depth>1</depth>
          <value>1.3650780780246205e-01</value></_></nodes></_>
    <_>
      <nodes>
        <_>
          <depth>0</depth>
          <value>9.9380914731947976e-04</value>
          <splits>
            <_><var>97</var>
              <quality>1.0719043016433716e-01</quality>
              <le>-2.3243799209594727e+00</le></_></splits></_>
        <_>
          <depth>1</depth>
          <value>-9.5312603917157701e-01</value></_>
        <_>
          <depth>1</depth>
          <value>1.5427310856742218e-01</value></_></nodes></_>
    <_>
      <nodes>
        <_>
          <depth>0</depth>
          <value>-3.7467918071621702e-03</value>
          <splits>
            <_><var>117</var>
              <quality>1.3561394810676575e-01</quality>
              <le>3.1047800183296204e-01</le></_></splits></_>
        <_>
          <depth>1</depth>
          <value>4.3844916924952809e-01</value></_>
        <_>
          <depth>1</depth>
          <value>-3.6179747516383176e-01</value></_></nodes></_>
    <_>
      <nodes>
        <_>
          <depth>0</depth>
          <value>-4.0625316974082823e-05</value>
          <splits>
            <_><var>99</var>
              <quality>1.0495793074369431e-01</quality>
              <le>-1.0718450546264648e+00</le></_></splits></_>
        <_>
          <depth>1</depth>
          <value>-4.8746701453990215e-01</value></_>
        <_>
          <depth>1</depth>
          <value>2.4933162542162157e-01</value></_></nodes></_>
    <_>
      <nodes>
        <_>
          <depth>0</depth>
          <value>2.7002252743245666e-03</value>
          <splits>
            <_><var>83</var>
              <quality>9.3707822263240814e-02</quality>
              <le>1.2492450475692749e+00</le></_></splits></_>
        <_>
          <depth>1</depth>
          <value>1.2664783306752572e-01</value></_>
        <_>
          <depth>1</depth>
          <value>-1.0922993411949313e+00</value></_></nodes></_>
    <_>
      <nodes>
        <_>
          <depth>0</depth>
          <value>-6.4421612597466394e-04</value>
          <splits>
            <_><var>42</var>
              <quality>8.3373561501502991e-02</quality>
              <le>-9.4649553298950195e-01</le></_></splits></_>
        <_>
          <depth>1</depth>
          <value>-3.8471778867357681e-01</value></_>
        <_>
          <depth>1</depth>
          <value>2.4388459668928306e-01</value></_></nodes></_>
    <_>
      <nodes>
        <_>
          <depth>0</depth>
          <value>5.3041921083755867e-05</value>
          <splits>
            <_><var>84</var>
              <quality>8.3041660487651825e-02</quality>
              <le>-1.6001949310302734e+00</le></_></splits></_>
        <_>
          <depth>1</depth>
          <value>2.2473399837828651e+00</value></_>
        <_>
          <depth>1</depth>
          <value>-8.9586428516448616e-02</value></_></nodes></_>
    <_>
      <nodes>
        <_>
          <depth>0</depth>
          <value>-1.6793868957541421e-02</value>
          <splits>
            <_><var>46</var>
              <quality>9.4176255166530609e-02</quality>
              <le>5.8982849121093750e-01</le></_></splits></_>
        <_>
          <depth>1</depth>
          <value>-2.5100704844821048e-01</value></_>
        <_>
          <depth>1</depth>
          <value>4.4136833710177331e-01</value></_></nodes></_>
    <_>
      <nodes>
        <_>
          <depth>0</depth>
          <value>-2.5946062937323325e-03</value>
          <splits>
            <_><var>117</var>
              <quality>8.6572870612144470e-02</quality>
              <le>3.3807148933410645e+00</le></_></splits></_>
        <_>
          <depth>1</depth>
          <value>1.2792455429521910e-01</value></_>
        <_>
          <depth>1</depth>
          <value>-8.7647338439547184e-01</value></_></nodes></_>
    <_>
      <nodes>
        <_>
          <depth>0</depth>
          <value>-2.3100971729735735e-03</value>
          <splits>
            <_><var>96</var>
              <quality>7.0035263895988464e-02</quality>
              <le>2.6737399101257324e+00</le></_></splits></_>
        <_>
          <depth>1</depth>
          <value>9.2153190907089289e-02</value></_>
        <_>
          <depth>1</depth>
          <value>-1.0588162630704272e+00</value></_></nodes></_>
    <_>
      <nodes>
        <_>
          <depth>0</depth>
          <value>4.0035546103295494e-03</value>
          <splits>
            <_><var>0</var>
              <quality>7.2170846164226532e-02</quality>
              <le>1.8679149150848389e+00</le></_></splits></_>
        <_>
          <depth>1</depth>
          <value>1.2478041606178392e-01</value></_>
        <_>
          <depth>1</depth>
          <value>-7.3907920367799140e-01</value></_></nodes></_>
    <_>
      <nodes>
        <_>
          <depth>0</depth>
          <value>-3.0905401040212960e-03</value>
          <splits>
            <_><var>36</var>
              <quality>9.5581866800785065e-02</quality>
              <le>-4.2972569353878498e-03</le></_></splits></_>
        <_>
          <depth>1</depth>
          <value>-3.3389974142149575e-01</value></_>
        <_>
          <depth>1</depth>
          <value>3.2325343984358729e-01</value></_></nodes></_>
    <_>
      <nodes>
        <_>
          <depth>0</depth>
          <value>-4.6631588225920669e-04</value>
          <splits>
            <_><var>49</var>
              <quality>8.6742259562015533e-02</quality>
              <le>9.3255352973937988e-01</le></_></splits></_>
        <_>
          <depth>1</depth>
          <value>1.9351068856496728e-01</value></_>
        <_>
          <depth>1</depth>
          <value>-5.1938703834979805e-01</value></_></nodes></_>
    <_>
      <nodes>
        <_>
          <depth>0</depth>
          <value>3.6690487401103236e-03</value>
          <splits>
            <_><var>41</var>
              <quality>1.2403962016105652e-01</quality>
              <le>-6.3094699382781982e-01</le></_></splits></_>
        <_>
          <depth>1</depth>
          <value>-4.6464980433271669e-01</value></_>
        <_>
          <depth>1</depth>
          <value>3.1197126661252356e-01</value></_></nodes></_>
    <_>
      <nodes>
        <_>
          <depth>0</depth>
          <value>-6.5923050537384760e-04</value>
          <splits>
            <_><var>9</var>
              <quality>9.3882359564304352e-02</quality>
              <le>2.7965350151062012e+00</le></_></splits></_>
        <_>
          <depth>1</depth>
          <value>-1.3432563640453724e-01</value></_>
        <_>
          <depth>1</depth>
          <value>9.5756287441656651e-01</value></_></nodes></_>
    <_>
      <nodes>
        <_>
          <depth>0</depth>
          <value>-3.4907718790852349e-03</value>
          <splits>
            <_><var>7</var>
              <quality>8.2750238478183746e-02</quality>
              <le>6.8674498796463013e-01</le></_></splits></_>
        <_>
          <depth>1</depth>
          <value>2.1797640083198686e-01</value></_>
        <_>
          <depth>1</depth>
          <value>-4.2721169755425575e-01</value></_></nodes></_>
    <_>
      <nodes>
        <_>
          <depth>0</depth>
          <value>1.0681345197777132e-03</value>
          <splits>
            <_><var>24</var>
              <quality>1.0311883687973022e-01</quality>
              <le>-2.4618349075317383e+00</le></_></splits></_>
        <_>
          <depth>1</depth>
          <value>-9.6083306891710352e-01</value></_>
        <_>
          <depth>1</depth>
          <value>1.4771155055840454e-01</value></_></nodes></_>
    <_>
      <nodes>
        <_>
          <depth>0</depth>
          <value>-2.7014173876882181e-03</value>
          <splits>
            <_><var>1</var>
              <quality>7.3836967349052429e-02</quality>
              <le>-1.7935400009155273e+00</le></_></splits></_>
        <_>
          <depth>1</depth>
          <value>-5.5696278738324423e-01</value></_>
        <_>
          <depth>1</depth>
          <value>1.5304110021482084e-01</value></_></nodes></_>
    <_>
      <nodes>
        <_>
          <depth>0</depth>
          <value>8.2482897705090654e-04</value>
          <splits>
            <_><var>67</var>
              <quality>1.0298534482717514e-01</quality>
              <le>6.6810652613639832e-02</le></_></splits></_>
        <_>
          <depth>1</depth>
          <value>3.1253973890352066e-01</value></_>
        <_>
          <depth>1</depth>
          <value>-3.7485993818739788e-01</value></_></nodes></_>
    <_>
      <nodes>
        <_>
          <depth>0</depth>
          <value>4.4502094110737637e-03</value>
          <splits>
            <_><var>131</var>
              <quality>8.2007639110088348e-02</quality>
              <le>-3.9464602470397949e+00</le></_></splits></_>
        <_>
          <depth>1</depth>
          <value>-5.7564577324601141e+00</value></_>
        <_>
          <depth>1</depth>
          <value>9.0649004572747494e-02</value></_></nodes></_>
    <_>
      <nodes>
        <_>
          <depth>0</depth>
          <value>3.9209088059451815e-02</value>
          <splits>
            <_><var>4</var>
              <quality>1.1166423559188843e-01</quality>
              <le>1.7304300069808960e+00</le></_></splits></_>
        <_>
          <depth>1</depth>
          <value>2.1044507935611059e-01</value></_>
        <_>
          <depth>1</depth>
          <value>-7.7710928880351693e-01</value></_></nodes></_>
    <_>
      <nodes>
        <_>
          <depth>0</depth>
          <value>-1.7289631325053659e-03</value>
          <splits>
            <_><var>117</var>
              <quality>1.1107715219259262e-01</quality>
              <le>-1.8634799718856812e+00</le></_></splits></_>
        <_>
          <depth>1</depth>
          <value>1.0934882104946324e+00</value></_>
        <_>
          <depth>1</depth>
          <value>-1.4912078636958467e-01</value></_></nodes></_>
    <_>
      <nodes>
        <_>
          <depth>0</depth>
          <value>4.7576678320301151e-03</value>
          <splits>
            <_><var>0</var>
              <quality>9.5434121787548065e-02</quality>
              <le>-1.2829051017761230e+00</le></_></splits></_>
        <_>
          <depth>1</depth>
          <value>8.9398988262910450e-01</value></_>
        <_>
          <depth>1</depth>
          <value>-1.3791646361514714e-01</value></_></nodes></_>
    <_>
      <nodes>
        <_>
          <depth>0</depth>
          <value>-5.4956898573376104e-03</value>
          <splits>
            <_><var>54</var>
              <quality>9.5408834517002106e-02</quality>
              <le>5.5948650836944580e-01</le></_></splits></_>
        <_>
          <depth>1</depth>
          <value>2.3506727802250632e-01</value></_>
        <_>
          <depth>1</depth>
          <value>-4.6054810716395334e-01</value></_></nodes></_>
    <_>
      <nodes>
        <_>
          <depth>0</depth>
          <value>-5.7076236801441253e-03</value>
          <splits>
            <_><var>78</var>
              <quality>1.0786165297031403e-01</quality>
              <le>-9.0439653396606445e-01</le></_></splits></_>
        <_>
          <depth>1</depth>
          <value>-7.3488255781475953e-01</value></_>
        <_>
          <depth>1</depth>
          <value>1.7925520300999909e-01</value></_></nodes></_>
    <_>
      <nodes>
        <_>
          <depth>0</depth>
          <value>9.1629868217083521e-03</value>
          <splits>
            <_><var>62</var>
              <quality>1.2559574842453003e-01</quality>
              <le>1.2861249446868896e+00</le></_></splits></_>
        <_>
          <depth>1</depth>
          <value>1.8905095927399568e-01</value></_>
        <_>
          <depth>1</depth>
          <value>-9.3885824342679225e-01</value></_></nodes></_>
    <_>
      <nodes>
        <_>
          <depth>0</depth>
          <value>-1.9219601348915121e-03</value>
          <splits>
            <_><var>86</var>
              <quality>9.3315236270427704e-02</quality>
              <le>-7.9767596721649170e-01</le></_></splits></_>
        <_>
          <depth>1</depth>
          <value>-6.3926847726152281e-01</value></_>
        <_>
          <depth>1</depth>
          <value>1.7449508219632065e-01</value></_></nodes></_>
    <_>
      <nodes>
        <_>
          <depth>0</depth>
          <value>6.7701033891577169e-03</value>
          <splits>
            <_><var>39</var>
              <quality>7.5353540480136871e-02</quality>
              <le>8.6550498008728027e-01</le></_></splits></_>
        <_>
          <depth>1</depth>
          <value>1.9429145716647853e-01</value></_>
        <_>
          <depth>1</depth>
          <value>-4.4962820371360229e-01</value></_></nodes></_>
    <_>
      <nodes>
        <_>
          <depth>0</depth>
          <value>-3.9829795553885210e-03</value>
          <splits>
            <_><var>39</var>
              <quality>1.2402056157588959e-01</quality>
              <le>-6.9246196746826172e-01</le></_></splits></_>
        <_>
          <depth>1</depth>
          <value>-4.5242658295636462e-01</value></_>
        <_>
          <depth>1</depth>
          <value>3.1724897279563469e-01</value></_></nodes></_>
    <_>
      <nodes>
        <_>
          <depth>0</depth>
          <value>3.8276717878441280e-03</value>
          <splits>
            <_><var>110</var>
              <quality>7.2340965270996094e-02</quality>
              <le>2.6317200660705566e+00</le></_></splits></_>
        <_>
          <depth>1</depth>
          <value>8.4725534533099819e-02</value></_>
        <_>
          <depth>1</depth>
          <value>-1.7382170088984570e+00</value></_></nodes></_>
    <_>
      <nodes>
        <_>
          <depth>0</depth>
          <value>2.3150054609922389e-03</value>
          <splits>
            <_><var>132</var>
              <quality>1.2666682898998260e-01</quality>
              <le>9.8369598388671875e-01</le></_></splits></_>
        <_>
          <depth>1</depth>
          <value>-1.7808609612446658e-01</value></_>
        <_>
          <depth>1</depth>
          <value>9.7175221073891449e-01</value></_></nodes></_>
    <_>
      <nodes>
        <_>
          <depth>0</depth>
          <value>-7.2775167374832936e-03</value>
          <splits>
            <_><var>96</var>
              <quality>8.9645236730575562e-02</quality>
              <le>2.2325201034545898e+00</le></_></splits></_>
        <_>
          <depth>1</depth>
          <value>1.1141083448971763e-01</value></_>
        <_>
          <depth>1</depth>
          <value>-1.1141537845580078e+00</value></_></nodes></_>
    <_>
      <nodes>
        <_>
          <depth>0</depth>
          <value>2.4127169989388675e-03</value>
          <splits>
            <_><var>18</var>
              <quality>8.5575133562088013e-02</quality>
              <le>-2.8761000633239746e+00</le></_></splits></_>
        <_>
          <depth>1</depth>
          <value>-9.4717397862941322e-01</value></_>
        <_>
          <depth>1</depth>
          <value>1.2464754274039946e-01</value></_></nodes></_>
    <_>
      <nodes>
        <_>
          <depth>0</depth>
          <value>-5.6388646009550214e-03</value>
          <splits>
            <_><var>59</var>
              <quality>7.9231970012187958e-02</quality>
              <le>-3.5940951108932495e-01</le></_></splits></_>
        <_>
          <depth>1</depth>
          <value>-3.4866823483079024e-01</value></_>
        <_>
          <depth>1</depth>
          <value>2.5258727939137271e-01</value></_></nodes></_>
    <_>
      <nodes>
        <_>
          <depth>0</depth>
          <value>-4.8879933296955790e-04</value>
          <splits>
            <_><var>11</var>
              <quality>1.1452320963144302e-01</quality>
              <le>-7.2708100080490112e-02</le></_></splits></_>
        <_>
          <depth>1</depth>
          <value>4.0304680397504811e-01</value></_>
        <_>
          <depth>1</depth>
          <value>-3.2652533611360707e-01</value></_></nodes></_>
    <_>
      <nodes>
        <_>
          <depth>0</depth>
          <value>6.5439278565823248e-03</value>
          <splits>
            <_><var>21</var>
              <quality>1.0143177211284637e-01</quality>
              <le>1.4760200977325439e+00</le></_></splits></_>
        <_>
          <depth>1</depth>
          <value>-2.0693800346869706e-01</value></_>
        <_>
          <depth>1</depth>
          <value>5.6784958707522315e-01</value></_></nodes></_>
    <_>
      <nodes>
        <_>
          <depth>0</depth>
          <value>-3.1759747775215734e-03</value>
          <splits>
            <_><var>44</var>
              <quality>8.0121830105781555e-02</quality>
              <le>2.3465499877929688e+00</le></_></splits></_>
        <_>
          <depth>1</depth>
          <value>9.2452659084994226e-02</value></_>
        <_>
          <depth>1</depth>
          <value>-1.4128682607187573e+00</value></_></nodes></_>
    <_>
      <nodes>
        <_>
          <depth>0</depth>
          <value>-1.1225190532457372e-03</value>
          <splits>
            <_><var>110</var>
              <quality>8.7060399353504181e-02</quality>
              <le>-2.7273550629615784e-01</le></_></splits></_>
        <_>
          <depth>1</depth>
          <value>-2.7705417093893175e-01</value></_>
        <_>
          <depth>1</depth>
          <value>3.5353058957915034e-01</value></_></nodes></_>
    <_>
      <nodes>
        <_>
          <depth>0</depth>
          <value>-1.8301029696249397e-03</value>
          <splits>
            <_><var>24</var>
              <quality>7.8965939581394196e-02</quality>
              <le>-6.7802453041076660e-01</le></_></splits></_>
        <_>
          <depth>1</depth>
          <value>3.8587975118399670e-01</value></_>
        <_>
          <depth>1</depth>
          <value>-2.3080853603221152e-01</value></_></nodes></_>
    <_>
      <nodes>
        <_>
          <depth>0</depth>
          <value>3.2303313483141947e-03</value>
          <splits>
            <_><var>49</var>
              <quality>8.3931274712085724e-02</quality>
              <le>1.8322200775146484e+00</le></_></splits></_>
        <_>
          <depth>1</depth>
          <value>1.3865399953173355e-01</value></_>
        <_>
          <depth>1</depth>
          <value>-7.8171273526117813e-01</value></_></nodes></_>
    <_>
      <nodes>
        <_>
          <depth>0</depth>
          <value>-1.1058031100176118e-03</value>
          <splits>
            <_><var>82</var>
              <quality>7.3985472321510315e-02</quality>
              <le>1.1099699735641479e+00</le></_></splits></_>
        <_>
          <depth>1</depth>
          <value>-9.1412997102454735e-02</value></_>
        <_>
          <depth>1</depth>
          <value>1.3103324955251499e+00</value></_></nodes></_>
    <_>
      <nodes>
        <_>
          <depth>0</depth>
          <value>-1.3808780929305685e-03</value>
          <splits>
            <_><var>42</var>
              <quality>7.2121046483516693e-02</quality>
              <le>6.5402197837829590e-01</le></_></splits></_>
        <_>
          <depth>1</depth>
          <value>1.6123020014610778e-01</value></_>
        <_>
          <depth>1</depth>
          <value>-5.1345491515269959e-01</value></_></nodes></_>
    <_>
      <nodes>
        <_>
          <depth>0</depth>
          <value>5.2335384446294854e-03</value>
          <splits>
            <_><var>42</var>
              <quality>7.2799250483512878e-02</quality>
              <le>-1.2450499534606934e+00</le></_></splits></_>
        <_>
          <depth>1</depth>
          <value>-4.7453885423559283e-01</value></_>
        <_>
          <depth>1</depth>
          <value>1.7846913938758149e-01</value></_></nodes></_>
    <_>
      <nodes>
        <_>
          <depth>0</depth>
          <value>-3.6466848464020748e-04</value>
          <splits>
            <_><var>106</var>
              <quality>8.4373928606510162e-02</quality>
              <le>-1.5972149372100830e+00</le></_></splits></_>
        <_>
          <depth>1</depth>
          <value>-6.0376672147848565e-01</value></_>
        <_>
          <depth>1</depth>
          <value>1.6582156446321783e-01</value></_></nodes></_>
    <_>
      <nodes>
        <_>
          <depth>0</depth>
          <value>-7.1416160189248946e-04</value>
          <splits>
            <_><var>106</var>
              <quality>8.9049465954303741e-02</quality>
              <le>5.9890747070312500e-01</le></_></splits></_>
        <_>
          <depth>1</depth>
          <value>2.3932301792830826e-01</value></_>
        <_>
          <depth>1</depth>
          <value>-4.2205313300274705e-01</value></_></nodes></_>
    <_>
      <nodes>
        <_>
          <depth>0</depth>
          <value>-3.5300847782735812e-03</value>
          <splits>
            <_><var>114</var>
              <quality>8.0445773899555206e-02</quality>
              <le>-5.9753400087356567e-01</le></_></splits></_>
        <_>
          <depth>1</depth>
          <value>-3.6607065851035081e-01</value></_>
        <_>
          <depth>1</depth>
          <value>2.4540620454245868e-01</value></_></nodes></_>
    <_>
      <nodes>
        <_>
          <depth>0</depth>
          <value>-3.9408872074191527e-03</value>
          <splits>
            <_><var>76</var>
              <quality>6.7705452442169189e-02</quality>
              <le>-7.5270050764083862e-01</le></_></splits></_>
        <_>
          <depth>1</depth>
          <value>5.8953123238470262e-01</value></_>
        <_>
          <depth>1</depth>
          <value>-1.3847593528461311e-01</value></_></nodes></_>
    <_>
      <nodes>
        <_>
          <depth>0</depth>
          <value>2.6685571364974323e-04</value>
          <splits>
            <_><var>99</var>
              <quality>6.4554713666439056e-02</quality>
              <le>-9.9774849414825439e-01</le></_></splits></_>
        <_>
          <depth>1</depth>
          <value>-3.6437380462434116e-01</value></_>
        <_>
          <depth>1</depth>
          <value>1.9741387956941164e-01</value></_></nodes></_>
    <_>
      <nodes>
        <_>
          <depth>0</depth>
          <value>2.2300243246966918e-04</value>
          <splits>
            <_><var>135</var>
              <quality>8.1679500639438629e-02</quality>
              <le>6.5209150314331055e-01</le></_></splits></_>
        <_>
          <depth>1</depth>
          <value>2.7341924472556389e-01</value></_>
        <_>
          <depth>1</depth>
          <value>-3.3422904576833368e-01</value></_></nodes></_></trees></opencv_ml_boost>
</opencv_storage>
