<?xml version="1.0"?>
<opencv_storage>
<opencv_ml_boost>
  <format>3</format>
  <is_classifier>1</is_classifier>
  <var_all>137</var_all>
  <var_count>136</var_count>
  <ord_var_count>136</ord_var_count>
  <cat_var_count>1</cat_var_count>
  <training_params>
    <boosting_type>RealAdaboost</boosting_type>
    <use_surrogates>0</use_surrogates>
    <max_categories>10</max_categories>
    <regression_accuracy>9.9999997764825821e-03</regression_accuracy>
    <max_depth>1</max_depth>
    <min_sample_count>10</min_sample_count>
    <cross_validation_folds>0</cross_validation_folds>
    <weight_trimming_rate>9.4999999999999996e-01</weight_trimming_rate></training_params>
  <global_var_idx>1</global_var_idx>
  <var_idx>
    0 1 2 3 4 5 6 7 8 9 10 11 12 13 14 15 16 17 18 19 20 21 22 23 24 25
    26 27 28 29 30 31 32 33 34 35 36 37 38 39 40 41 42 43 44 45 46 47 48
    49 50 51 52 53 54 55 56 57 58 59 60 61 62 63 64 65 66 67 68 69 70 71
    72 73 74 75 76 77 78 79 80 81 82 83 84 85 86 87 88 89 90 91 92 93 94
    95 96 97 98 99 100 101 102 103 104 105 106 107 108 109 110 111 112
    113 114 115 116 117 118 119 120 121 122 123 124 125 126 127 128 129
    130 131 132 133 134 135</var_idx>
  <var_type>
    0 0 0 0 0 0 0 0 0 0 0 0 0 0 0 0 0 0 0 0 0 0 0 0 0 0 0 0 0 0 0 0 0 0
    0 0 0 0 0 0 0 0 0 0 0 0 0 0 0 0 0 0 0 0 0 0 0 0 0 0 0 0 0 0 0 0 0 0
    0 0 0 0 0 0 0 0 0 0 0 0 0 0 0 0 0 0 0 0 0 0 0 0 0 0 0 0 0 0 0 0 0 0
    0 0 0 0 0 0 0 0 0 0 0 0 0 0 0 0 0 0 0 0 0 0 0 0 0 0 0 0 0 0 0 0 0 0
    1</var_type>
  <cat_ofs>
    0 0 0 0 0 0 0 0 0 0 0 0 0 0 0 0 0 0 0 0 0 0 0 0 0 0 0 0 0 0 0 0 0 0
    0 0 0 0 0 0 0 0 0 0 0 0 0 0 0 0 0 0 0 0 0 0 0 0 0 0 0 0 0 0 0 0 0 0
    0 0 0 0 0 0 0 0 0 0 0 0 0 0 0 0 0 0 0 0 0 0 0 0 0 0 0 0 0 0 0 0 0 0
    0 0 0 0 0 0 0 0 0 0 0 0 0 0 0 0 0 0 0 0 0 0 0 0 0 0 0 0 0 0 0 0 0 0
    0 0 0 0 0 0 0 0 0 0 0 0 0 0 0 0 0 0 0 0 0 0 0 0 0 0 0 0 0 0 0 0 0 0
    0 0 0 0 0 0 0 0 0 0 0 0 0 0 0 0 0 0 0 0 0 0 0 0 0 0 0 0 0 0 0 0 0 0
    0 0 0 0 0 0 0 0 0 0 0 0 0 0 0 0 0 0 0 0 0 0 0 0 0 0 0 0 0 0 0 0 0 0
    0 0 0 0 0 0 0 0 0 0 0 0 0 0 0 0 0 0 0 0 0 0 0 0 0 0 0 0 0 0 0 0 0 0</cat_ofs>
  <class_labels>
    -1 1</class_labels>
  <missing_subst>
    0. 0. 0. 0. 0. 0. 0. 0. 0. 0. 0. 0. 0. 0. 0. 0. 0. 0. 0. 0. 0. 0. 0.
    0. 0. 0. 0. 0. 0. 0. 0. 0. 0. 0. 0. 0. 0. 0. 0. 0. 0. 0. 0. 0. 0. 0.
    0. 0. 0. 0. 0. 0. 0. 0. 0. 0. 0. 0. 0. 0. 0. 0. 0. 0. 0. 0. 0. 0. 0.
    0. 0. 0. 0. 0. 0. 0. 0. 0. 0. 0. 0. 0. 0. 0. 0. 0. 0. 0. 0. 0. 0. 0.
    0. 0. 0. 0. 0. 0. 0. 0. 0. 0. 0. 0. 0. 0. 0. 0. 0. 0. 0. 0. 0. 0. 0.
    0. 0. 0. 0. 0. 0. 0. 0. 0. 0. 0. 0. 0. 0. 0. 0. 0. 0. 0. 0. 0. 0.</missing_subst>
  <ntrees>100</ntrees>
  <trees>
    <_>
      <nodes>
        <_>
          <depth>0</depth>
          <value>-1.3622262070137174e+00</value>
          <splits>
            <_><var>127</var>
              <quality>7.8581053018569946e-01</quality>
              <le>-1.4038249969482422e+01</le></_></splits></_>
        <_>
          <depth>1</depth>
          <value>1.1989476363991858e+00</value></_>
        <_>
          <depth>1</depth>
          <value>-1.4065358381207473e+00</value></_></nodes></_>
    <_>
      <nodes>
        <_>
          <depth>0</depth>
          <value>2.5362849621169029e-08</value>
          <splits>
            <_><var>43</var>
              <quality>2.8519630432128906e-01</quality>
              <le>1.8467348814010620e-01</le></_></splits></_>
        <_>
          <depth>1</depth>
          <value>-8.3652262840475589e-01</value></_>
        <_>
          <depth>1</depth>
          <value>4.4402640628490758e-01</value></_></nodes></_>
    <_>
      <nodes>
        <_>
          <depth>0</depth>
          <value>5.3090332102337328e-10</value>
          <splits>
            <_><var>42</var>
              <quality>2.7923136949539185e-01</quality>
              <le>-1.0016529560089111e+00</le></_></splits></_>
        <_>
          <depth>1</depth>
          <value>6.6141718982852848e-01</value></_>
        <_>
          <depth>1</depth>
          <value>-5.2559974836617163e-01</value></_></nodes></_>
    <_>
      <nodes>
        <_>
          <depth>0</depth>
          <value>1.8090885906221478e-08</value>
          <splits>
            <_><var>109</var>
              <quality>2.0750260353088379e-01</quality>
              <le>-3.2631701231002808e-01</le></_></splits></_>
        <_>
          <depth>1</depth>
          <value>3.2204760266784194e-01</value></_>
        <_>
          <depth>1</depth>
          <value>-8.0432099610849650e-01</value></_></nodes></_>
    <_>
      <nodes>
        <_>
          <depth>0</depth>
          <value>4.9228916687410265e-02</value>
          <splits>
            <_><var>131</var>
              <quality>2.7954369783401489e-01</quality>
              <le>-6.1609601974487305e+00</le></_></splits></_>
        <_>
          <depth>1</depth>
          <value>-7.7616764440258701e-01</value></_>
        <_>
          <depth>1</depth>
          <value>5.0380737627333760e-01</value></_></nodes></_>
    <_>
      <nodes>
        <_>
          <depth>0</depth>
          <value>-6.7659944593358459e-02</value>
          <splits>
            <_><var>71</var>
              <quality>1.9666405022144318e-01</quality>
              <le>-1.4046150445938110e+00</le></_></splits></_>
        <_>
          <depth>1</depth>
          <value>5.1024304189218217e-01</value></_>
        <_>
          <depth>1</depth>
          <value>-4.5709989417546204e-01</value></_></nodes></_>
    <_>
      <nodes>
        <_>
          <depth>0</depth>
          <value>4.2863371336720350e-02</value>
          <splits>
            <_><var>81</var>
              <quality>1.4974470436573029e-01</quality>
              <le>-9.0785598754882813e-01</le></_></splits></_>
        <_>
          <depth>1</depth>
          <value>-1.7078275149414750e+00</value></_>
        <_>
          <depth>1</depth>
          <value>2.0450467311837298e-01</value></_></nodes></_>
    <_>
      <nodes>
        <_>
          <depth>0</depth>
          <value>-4.8124479061443730e-02</value>
          <splits>
            <_><var>47</var>
              <quality>2.0514000952243805e-01</quality>
              <le>2.2465949058532715e+00</le></_></splits></_>
        <_>
          <depth>1</depth>
          <value>-4.6363748981566055e-01</value></_>
        <_>
          <depth>1</depth>
          <value>5.3128785340612894e-01</value></_></nodes></_>
    <_>
      <nodes>
        <_>
          <depth>0</depth>
          <value>2.9100548167855029e-02</value>
          <splits>
            <_><var>17</var>
              <quality>1.2660373747348785e-01</quality>
              <le>-1.3167249679565430e+01</le></_></splits></_>
        <_>
          <depth>1</depth>
          <value>-2.1120404511674300e+00</value></_>
        <_>
          <depth>1</depth>
          <value>1.6202070245884542e-01</value></_></nodes></_>
    <_>
      <nodes>
        <_>
          <depth>0</depth>
          <value>-4.0113094637806636e-02</value>
          <splits>
            <_><var>7</var>
              <quality>2.0441596210002899e-01</quality>
              <le>-3.4761400222778320e+00</le></_></splits></_>
        <_>
          <depth>1</depth>
          <value>6.4756742780018373e-01</value></_>
        <_>
          <depth>1</depth>
          <value>-3.9772726410423143e-01</value></_></nodes></_>
    <_>
      <nodes>
        <_>
          <depth>0</depth>
          <value>2.4368753579591153e-02</value>
          <splits>
            <_><var>108</var>
              <quality>1.5266731381416321e-01</quality>
              <le>-3.1871099472045898e+00</le></_></splits></_>
        <_>
          <depth>1</depth>
          <value>-5.7564577324601141e+00</value></_>
        <_>
          <depth>1</depth>
          <value>1.8265563180707753e-01</value></_></nodes></_>
    <_>
      <nodes>
        <_>
          <depth>0</depth>
          <value>-2.0108788173164261e-03</value>
          <splits>
            <_><var>41</var>
              <quality>1.8694376945495605e-01</quality>
              <le>-4.7729902267456055e+00</le></_></splits></_>
        <_>
          <depth>1</depth>
          <value>-2.1273398074521714e+00</value></_>
        <_>
          <depth>1</depth>
          <value>2.0361757711630535e-01</value></_></nodes></_>
    <_>
      <nodes>
        <_>
          <depth>0</depth>
          <value>-3.6190157806931494e-02</value>
          <splits>
            <_><var>51</var>
              <quality>1.6485676169395447e-01</quality>
              <le>-1.8215849399566650e+00</le></_></splits></_>
        <_>
          <depth>1</depth>
          <value>5.8238296712577686e-01</value></_>
        <_>
          <depth>1</depth>
          <value>-3.4961956310506320e-01</value></_></nodes></_>
    <_>
      <nodes>
        <_>
          <depth>0</depth>
          <value>-1.4958365395588952e-02</value>
          <splits>
            <_><var>17</var>
              <quality>1.1363068222999573e-01</quality>
              <le>8.8891601562500000e-01</le></_></splits></_>
        <_>
          <depth>1</depth>
          <value>-2.7727051527200552e-01</value></_>
        <_>
          <depth>1</depth>
          <value>4.7051538259838893e-01</value></_></nodes></_>
    <_>
      <nodes>
        <_>
          <depth>0</depth>
          <value>2.8024341705378229e-02</value>
          <splits>
            <_><var>97</var>
              <quality>1.3459974527359009e-01</quality>
              <le>-2.5410051345825195e+00</le></_></splits></_>
        <_>
          <depth>1</depth>
          <value>4.5867075263047175e-01</value></_>
        <_>
          <depth>1</depth>
          <value>-3.3537105780521376e-01</value></_></nodes></_>
    <_>
      <nodes>
        <_>
          <depth>0</depth>
          <value>2.0626617535532184e-03</value>
          <splits>
            <_><var>113</var>
              <quality>1.5059496462345123e-01</quality>
              <le>6.3390350341796875e-01</le></_></splits></_>
        <_>
          <depth>1</depth>
          <value>-3.7895767096353450e-01</value></_>
        <_>
          <depth>1</depth>
          <value>4.6912935479050955e-01</value></_></nodes></_>
    <_>
      <nodes>
        <_>
          <depth>0</depth>
          <value>-5.4563822393252082e-03</value>
          <splits>
            <_><var>83</var>
              <quality>1.5460519492626190e-01</quality>
              <le>2.2004349231719971e+00</le></_></splits></_>
        <_>
          <depth>1</depth>
          <value>1.6503720130021954e-01</value></_>
        <_>
          <depth>1</depth>
          <value>-2.0064357573877758e+00</value></_></nodes></_>
    <_>
      <nodes>
        <_>
          <depth>0</depth>
          <value>-5.9584980202569814e-03</value>
          <splits>
            <_><var>55</var>
              <quality>1.1688881367444992e-01</quality>
              <le>1.0982149839401245e+00</le></_></splits></_>
        <_>
          <depth>1</depth>
          <value>-3.7978356390741691e-01</value></_>
        <_>
          <depth>1</depth>
          <value>3.5292368394372364e-01</value></_></nodes></_>
    <_>
      <nodes>
        <_>
          <depth>0</depth>
          <value>1.5304002587880304e-03</value>
          <splits>
            <_><var>61</var>
              <quality>1.3576251268386841e-01</quality>
              <le>-5.9039294719696045e-01</le></_></splits></_>
        <_>
          <depth>1</depth>
          <value>4.4303245469520736e-01</value></_>
        <_>
          <depth>1</depth>
          <value>-3.5664983640211861e-01</value></_></nodes></_>
    <_>
      <nodes>
        <_>
          <depth>0</depth>
          <value>4.5679176003798512e-03</value>
          <splits>
            <_><var>121</var>
              <quality>1.1594304442405701e-01</quality>
              <le>-1.0729499816894531e+01</le></_></splits></_>
        <_>
          <depth>1</depth>
          <value>-1.5481469868238644e+00</value></_>
        <_>
          <depth>1</depth>
          <value>1.3833858421750356e-01</value></_></nodes></_>
    <_>
      <nodes>
        <_>
          <depth>0</depth>
          <value>-4.4049283679971558e-04</value>
          <splits>
            <_><var>74</var>
              <quality>1.1754421144723892e-01</quality>
              <le>3.1128650903701782e-01</le></_></splits></_>
        <_>
          <depth>1</depth>
          <value>-2.5496033467024687e-01</value></_>
        <_>
          <depth>1</depth>
          <value>5.4310915637652402e-01</value></_></nodes></_>
    <_>
      <nodes>
        <_>
          <depth>0</depth>
          <value>-1.1979180174883522e-03</value>
          <splits>
            <_><var>116</var>
              <quality>8.7365731596946716e-02</quality>
              <le>2.2523150444030762e+00</le></_></splits></_>
        <_>
          <depth>1</depth>
          <value>-1.7323233143339115e-01</value></_>
        <_>
          <depth>1</depth>
          <value>6.0245871160584374e-01</value></_></nodes></_>
    <_>
      <nodes>
        <_>
          <depth>0</depth>
          <value>-6.5371071661883880e-03</value>
          <splits>
            <_><var>45</var>
              <quality>1.2301760166883469e-01</quality>
              <le>-6.7837345600128174e-01</le></_></splits></_>
        <_>
          <depth>1</depth>
          <value>-7.1977150574073290e-01</value></_>
        <_>
          <depth>1</depth>
          <value>2.0858161207507736e-01</value></_></nodes></_>
    <_>
      <nodes>
        <_>
          <depth>0</depth>
          <value>-2.6822223858671674e-03</value>
          <splits>
            <_><var>42</var>
              <quality>1.1150580644607544e-01</quality>
              <le>3.3076400756835938e+00</le></_></splits></_>
        <_>
          <depth>1</depth>
          <value>1.2248149114932715e-01</value></_>
        <_>
          <depth>1</depth>
          <value>-1.7826355265361702e+00</value></_></nodes></_>
    <_>
      <nodes>
        <_>
          <depth>0</depth>
          <value>-1.3637756837420877e-03</value>
          <splits>
            <_><var>97</var>
              <quality>1.0806136578321457e-01</quality>
              <le>-1.6952850818634033e+00</le></_></splits></_>
        <_>
          <depth>1</depth>
          <value>3.4566075875475971e-01</value></_>
        <_>
          <depth>1</depth>
          <value>-3.5646312874542396e-01</value></_></nodes></_>
    <_>
      <nodes>
        <_>
          <depth>0</depth>
          <value>-2.7318286586147585e-04</value>
          <splits>
            <_><var>111</var>
              <quality>1.5238368511199951e-01</quality>
              <le>8.1309497356414795e-01</le></_></splits></_>
        <_>
          <depth>1</depth>
          <value>-3.5414882749710869e-01</value></_>
        <_>
          <depth>1</depth>
          <value>5.1241747913539171e-01</value></_></nodes></_>
    <_>
      <nodes>
        <_>
          <depth>0</depth>
          <value>8.4057938405835580e-04</value>
          <splits>
            <_><var>65</var>
              <quality>1.1209522932767868e-01</quality>
              <le>2.2668700218200684e+00</le></_></splits></_>
        <_>
          <depth>1</depth>
          <value>1.4783226412956882e-01</value></_>
        <_>
          <depth>1</depth>
          <value>-1.1208555709265891e+00</value></_></nodes></_>
    <_>
      <nodes>
        <_>
          <depth>0</depth>
          <value>-6.9553928473358459e-03</value>
          <splits>
            <_><var>43</var>
              <quality>1.0426408797502518e-01</quality>
              <le>3.5527000427246094e+00</le></_></splits></_>
        <_>
          <depth>1</depth>
          <value>-2.4758748956451065e-01</value></_>
        <_>
          <depth>1</depth>
          <value>4.9554376379644499e-01</value></_></nodes></_>
    <_>
      <nodes>
        <_>
          <depth>0</depth>
          <value>-2.2944657198062384e-03</value>
          <splits>
            <_><var>82</var>
              <quality>9.1054156422615051e-02</quality>
              <le>8.6208350956439972e-02</le></_></splits></_>
        <_>
          <depth>1</depth>
          <value>2.3231074520459602e-01</value></_>
        <_>
          <depth>1</depth>
          <value>-4.4542833682366129e-01</value></_></nodes></_>
    <_>
      <nodes>
        <_>
          <depth>0</depth>
          <value>-3.3660184472456820e-03</value>
          <splits>
            <_><var>67</var>
              <quality>1.1963237822055817e-01</quality>
              <le>-4.1223897933959961e+00</le></_></splits></_>
        <_>
          <depth>1</depth>
          <value>9.0352396713168504e-01</value></_>
        <_>
          <depth>1</depth>
          <value>-1.7987020695813435e-01</value></_></nodes></_>
    <_>
      <nodes>
        <_>
          <depth>0</depth>
          <value>1.4255142429602601e-03</value>
          <splits>
            <_><var>45</var>
              <quality>7.6578952372074127e-02</quality>
              <le>-3.7995150089263916e+00</le></_></splits></_>
        <_>
          <depth>1</depth>
          <value>-5.7564577324601141e+00</value></_>
        <_>
          <depth>1</depth>
          <value>8.2106809582132248e-02</value></_></nodes></_>
    <_>
      <nodes>
        <_>
          <depth>0</depth>
          <value>-2.6247581901528113e-04</value>
          <splits>
            <_><var>83</var>
              <quality>8.6326934397220612e-02</quality>
              <le>-1.0399699211120605e+00</le></_></splits></_>
        <_>
          <depth>1</depth>
          <value>-1.7050768116557113e+00</value></_>
        <_>
          <depth>1</depth>
          <value>9.7169566594533074e-02</value></_></nodes></_>
    <_>
      <nodes>
        <_>
          <depth>0</depth>
          <value>1.0641365900410905e-03</value>
          <splits>
            <_><var>44</var>
              <quality>6.5688468515872955e-02</quality>
              <le>8.8627600669860840e-01</le></_></splits></_>
        <_>
          <depth>1</depth>
          <value>-2.7004050234868782e-01</value></_>
        <_>
          <depth>1</depth>
          <value>2.6855023492065910e-01</value></_></nodes></_>
    <_>
      <nodes>
        <_>
          <depth>0</depth>
          <value>4.4811663494625353e-03</value>
          <splits>
            <_><var>109</var>
              <quality>7.0286393165588379e-02</quality>
              <le>-2.2389299869537354e+00</le></_></splits></_>
        <_>
          <depth>1</depth>
          <value>2.9901828681933690e-01</value></_>
        <_>
          <depth>1</depth>
          <value>-2.5992032134760701e-01</value></_></nodes></_>
    <_>
      <nodes>
        <_>
          <depth>0</depth>
          <value>2.0376442451536117e-03</value>
          <splits>
            <_><var>131</var>
              <quality>1.0659619420766830e-01</quality>
              <le>1.9247050285339355e+00</le></_></splits></_>
        <_>
          <depth>1</depth>
          <value>-2.4595405416449453e-01</value></_>
        <_>
          <depth>1</depth>
          <value>5.0188271548196683e-01</value></_></nodes></_>
    <_>
      <nodes>
        <_>
          <depth>0</depth>
          <value>1.8333635761197196e-03</value>
          <splits>
            <_><var>97</var>
              <quality>8.7487712502479553e-02</quality>
              <le>1.4267399311065674e+00</le></_></splits></_>
        <_>
          <depth>1</depth>
          <value>1.5061779126775923e-01</value></_>
        <_>
          <depth>1</depth>
          <value>-7.2802631007853702e-01</value></_></nodes></_>
    <_>
      <nodes>
        <_>
          <depth>0</depth>
          <value>-6.0560904813711323e-03</value>
          <splits>
            <_><var>36</var>
              <quality>8.9978717267513275e-02</quality>
              <le>2.2978200018405914e-01</le></_></splits></_>
        <_>
          <depth>1</depth>
          <value>2.6330437197845397e-01</value></_>
        <_>
          <depth>1</depth>
          <value>-3.8318797853782499e-01</value></_></nodes></_>
    <_>
      <nodes>
        <_>
          <depth>0</depth>
          <value>-3.0875040635247831e-03</value>
          <splits>
            <_><var>70</var>
              <quality>1.0231453180313110e-01</quality>
              <le>-3.9486700296401978e-01</le></_></splits></_>
        <_>
          <depth>1</depth>
          <value>3.4161277742794033e-01</value></_>
        <_>
          <depth>1</depth>
          <value>-3.4006925051101056e-01</value></_></nodes></_>
    <_>
      <nodes>
        <_>
          <depth>0</depth>
          <value>-2.0382014225834807e-03</value>
          <splits>
            <_><var>18</var>
              <quality>9.3643128871917725e-02</quality>
              <le>1.1212899684906006e+00</le></_></splits></_>
        <_>
          <depth>1</depth>
          <value>-2.9675030759351623e-01</value></_>
        <_>
          <depth>1</depth>
          <value>3.5672502288073388e-01</value></_></nodes></_>
    <_>
      <nodes>
        <_>
          <depth>0</depth>
          <value>1.3505777929593127e-03</value>
          <splits>
            <_><var>38</var>
              <quality>8.4171175956726074e-02</quality>
              <le>2.2048950195312500e-02</le></_></splits></_>
        <_>
          <depth>1</depth>
          <value>-3.4433542206523293e-01</value></_>
        <_>
          <depth>1</depth>
          <value>2.7436281184069916e-01</value></_></nodes></_>
    <_>
      <nodes>
        <_>
          <depth>0</depth>
          <value>-6.3520142613709626e-03</value>
          <splits>
            <_><var>30</var>
              <quality>6.1797082424163818e-02</quality>
              <le>1.6061699390411377e+00</le></_></splits></_>
        <_>
          <depth>1</depth>
          <value>8.5739546620279591e-02</value></_>
        <_>
          <depth>1</depth>
          <value>-8.9541354295366049e-01</value></_></nodes></_>
    <_>
      <nodes>
        <_>
          <depth>0</depth>
          <value>-2.8302749773280233e-04</value>
          <splits>
            <_><var>132</var>
              <quality>7.0934735238552094e-02</quality>
              <le>-6.0217249393463135e-01</le></_></splits></_>
        <_>
          <depth>1</depth>
          <value>4.5792205864171165e-01</value></_>
        <_>
          <depth>1</depth>
          <value>-1.7629614742965130e-01</value></_></nodes></_>
    <_>
      <nodes>
        <_>
          <depth>0</depth>
          <value>-2.1461529115438223e-03</value>
          <splits>
            <_><var>124</var>
              <quality>8.2764565944671631e-02</quality>
              <le>1.4639400243759155e+00</le></_></splits></_>
        <_>
          <depth>1</depth>
          <value>-1.8598597376597373e-01</value></_>
        <_>
          <depth>1</depth>
          <value>5.1953959832691532e-01</value></_></nodes></_>
    <_>
      <nodes>
        <_>
          <depth>0</depth>
          <value>1.6452819431903248e-04</value>
          <splits>
            <_><var>93</var>
              <quality>6.8791501224040985e-02</quality>
              <le>1.9548950195312500e+00</le></_></splits></_>
        <_>
          <depth>1</depth>
          <value>1.1178835110911417e-01</value></_>
        <_>
          <depth>1</depth>
          <value>-7.7753077283712058e-01</value></_></nodes></_>
    <_>
      <nodes>
        <_>
          <depth>0</depth>
          <value>-4.9330543211600856e-03</value>
          <splits>
            <_><var>55</var>
              <quality>8.9686550199985504e-02</quality>
              <le>2.2473249435424805e+00</le></_></splits></_>
        <_>
          <depth>1</depth>
          <value>-2.7122601650473233e-01</value></_>
        <_>
          <depth>1</depth>
          <value>3.7508282029292983e-01</value></_></nodes></_>
    <_>
      <nodes>
        <_>
          <depth>0</depth>
          <value>2.6603505201567087e-04</value>
          <splits>
            <_><var>51</var>
              <quality>9.4166308641433716e-02</quality>
              <le>5.9062852859497070e+00</le></_></splits></_>
        <_>
          <depth>1</depth>
          <value>1.0612560067781981e-01</value></_>
        <_>
          <depth>1</depth>
          <value>-1.7372106775656473e+00</value></_></nodes></_>
    <_>
      <nodes>
        <_>
          <depth>0</depth>
          <value>1.9292911495451222e-03</value>
          <splits>
            <_><var>109</var>
              <quality>8.8396772742271423e-02</quality>
              <le>-2.0442349910736084e+00</le></_></splits></_>
        <_>
          <depth>1</depth>
          <value>3.1178776012854681e-01</value></_>
        <_>
          <depth>1</depth>
          <value>-3.1846715424372002e-01</value></_></nodes></_>
    <_>
      <nodes>
        <_>
          <depth>0</depth>
          <value>-1.6477451797877116e-03</value>
          <splits>
            <_><var>133</var>
              <quality>9.7040534019470215e-02</quality>
              <le>-1.6559150218963623e+00</le></_></splits></_>
        <_>
          <depth>1</depth>
          <value>-4.5223623376651534e-01</value></_>
        <_>
          <depth>1</depth>
          <value>2.4517199889448177e-01</value></_></nodes></_>
    <_>
      <nodes>
        <_>
          <depth>0</depth>
          <value>-2.3836181996237243e-03</value>
          <splits>
            <_><var>1</var>
              <quality>9.2757448554039001e-02</quality>
              <le>-5.3927149772644043e+00</le></_></splits></_>
        <_>
          <depth>1</depth>
          <value>1.0361314637753163e+00</value></_>
        <_>
          <depth>1</depth>
          <value>-1.2849538333323862e-01</value></_></nodes></_>
    <_>
      <nodes>
        <_>
          <depth>0</depth>
          <value>-3.8015272216296542e-03</value>
          <splits>
            <_><var>42</var>
              <quality>7.8674919903278351e-02</quality>
              <le>-8.9410400390625000e-01</le></_></splits></_>
        <_>
          <depth>1</depth>
          <value>2.3270717339818831e-01</value></_>
        <_>
          <depth>1</depth>
          <value>-3.7700927276870627e-01</value></_></nodes></_>
    <_>
      <nodes>
        <_>
          <depth>0</depth>
          <value>7.1169241098924798e-03</value>
          <splits>
            <_><var>125</var>
              <quality>7.2417385876178741e-02</quality>
              <le>4.2231101989746094e+00</le></_></splits></_>
        <_>
          <depth>1</depth>
          <value>1.1990541609815264e-01</value></_>
        <_>
          <depth>1</depth>
          <value>-8.1415052594573456e-01</value></_></nodes></_>
    <_>
      <nodes>
        <_>
          <depth>0</depth>
          <value>-4.6501864698491576e-03</value>
          <splits>
            <_><var>76</var>
              <quality>7.4431441724300385e-02</quality>
              <le>5.7159799337387085e-01</le></_></splits></_>
        <_>
          <depth>1</depth>
          <value>-2.0610906705783694e-01</value></_>
        <_>
          <depth>1</depth>
          <value>4.1155777705387719e-01</value></_></nodes></_>
    <_>
      <nodes>
        <_>
          <depth>0</depth>
          <value>-3.3354808669450653e-03</value>
          <splits>
            <_><var>6</var>
              <quality>8.4962666034698486e-02</quality>
              <le>5.4906749725341797e-01</le></_></splits></_>
        <_>
          <depth>1</depth>
          <value>2.9346358025230185e-01</value></_>
        <_>
          <depth>1</depth>
          <value>-3.2405992615175799e-01</value></_></nodes></_>
    <_>
      <nodes>
        <_>
          <depth>0</depth>
          <value>-5.8465621370152069e-03</value>
          <splits>
            <_><var>43</var>
              <quality>7.2882071137428284e-02</quality>
              <le>2.1146299839019775e+00</le></_></splits></_>
        <_>
          <depth>1</depth>
          <value>-2.8413822459896776e-01</value></_>
        <_>
          <depth>1</depth>
          <value>2.8473615888207299e-01</value></_></nodes></_>
    <_>
      <nodes>
        <_>
          <depth>0</depth>
          <value>2.0327664739423048e-03</value>
          <splits>
            <_><var>57</var>
              <quality>1.1504555493593216e-01</quality>
              <le>-1.6810050010681152e+00</le></_></splits></_>
        <_>
          <depth>1</depth>
          <value>1.3870721088450049e+00</value></_>
        <_>
          <depth>1</depth>
          <value>-1.3635420642350263e-01</value></_></nodes></_>
    <_>
      <nodes>
        <_>
          <depth>0</depth>
          <value>-5.7504235973264359e-03</value>
          <splits>
            <_><var>113</var>
              <quality>9.1287292540073395e-02</quality>
              <le>-1.0766249656677246e+01</le></_></splits></_>
        <_>
          <depth>1</depth>
          <value>-9.1626696012984621e-01</value></_>
        <_>
          <depth>1</depth>
          <value>1.2870855610029958e-01</value></_></nodes></_>
    <_>
      <nodes>
        <_>
          <depth>0</depth>
          <value>1.1811292897828442e-03</value>
          <splits>
            <_><var>129</var>
              <quality>1.0236564278602600e-01</quality>
              <le>-3.3413648605346680e+00</le></_></splits></_>
        <_>
          <depth>1</depth>
          <value>5.1105916621788805e-01</value></_>
        <_>
          <depth>1</depth>
          <value>-2.3238392579885320e-01</value></_></nodes></_>
    <_>
      <nodes>
        <_>
          <depth>0</depth>
          <value>-5.9142049572926420e-03</value>
          <splits>
            <_><var>19</var>
              <quality>8.6598746478557587e-02</quality>
              <le>5.3493499755859375e+00</le></_></splits></_>
        <_>
          <depth>1</depth>
          <value>-1.1624735389740386e-01</value></_>
        <_>
          <depth>1</depth>
          <value>1.1691317101418373e+00</value></_></nodes></_>
    <_>
      <nodes>
        <_>
          <depth>0</depth>
          <value>8.6178931190370258e-04</value>
          <splits>
            <_><var>83</var>
              <quality>6.5270327031612396e-02</quality>
              <le>2.9869098663330078e+00</le></_></splits></_>
        <_>
          <depth>1</depth>
          <value>6.9639409726519580e-02</value></_>
        <_>
          <depth>1</depth>
          <value>-5.7564577324601141e+00</value></_></nodes></_>
    <_>
      <nodes>
        <_>
          <depth>0</depth>
          <value>-7.5501103957484510e-03</value>
          <splits>
            <_><var>82</var>
              <quality>9.1996289789676666e-02</quality>
              <le>-1.2960898876190186e+00</le></_></splits></_>
        <_>
          <depth>1</depth>
          <value>8.6074887326147964e-01</value></_>
        <_>
          <depth>1</depth>
          <value>-1.4604175227469327e-01</value></_></nodes></_>
    <_>
      <nodes>
        <_>
          <depth>0</depth>
          <value>2.8767581866845490e-03</value>
          <splits>
            <_><var>43</var>
              <quality>1.0171424597501755e-01</quality>
              <le>-1.8681299686431885e+00</le></_></splits></_>
        <_>
          <depth>1</depth>
          <value>-1.0665366199961548e+00</value></_>
        <_>
          <depth>1</depth>
          <value>1.3914722764578910e-01</value></_></nodes></_>
    <_>
      <nodes>
        <_>
          <depth>0</depth>
          <value>-5.1613340837537549e-03</value>
          <splits>
            <_><var>49</var>
              <quality>9.2774346470832825e-02</quality>
              <le>-9.5908749103546143e-01</le></_></splits></_>
        <_>
          <depth>1</depth>
          <value>5.1556435370721199e-01</value></_>
        <_>
          <depth>1</depth>
          <value>-2.1183890755943735e-01</value></_></nodes></_>
    <_>
      <nodes>
        <_>
          <depth>0</depth>
          <value>-1.9019741691551366e-03</value>
          <splits>
            <_><var>47</var>
              <quality>9.7663946449756622e-02</quality>
              <le>2.2465949058532715e+00</le></_></splits></_>
        <_>
          <depth>1</depth>
          <value>-3.1087797247923121e-01</value></_>
        <_>
          <depth>1</depth>
          <value>3.5590306671523270e-01</value></_></nodes></_>
    <_>
      <nodes>
        <_>
          <depth>0</depth>
          <value>2.8095250867450014e-05</value>
          <splits>
            <_><var>36</var>
              <quality>1.0216856747865677e-01</quality>
              <le>2.2978200018405914e-01</le></_></splits></_>
        <_>
          <depth>1</depth>
          <value>2.8697157583164046e-01</value></_>
        <_>
          <depth>1</depth>
          <value>-4.0592921774592722e-01</value></_></nodes></_>
    <_>
      <nodes>
        <_>
          <depth>0</depth>
          <value>-3.2253352393670923e-03</value>
          <splits>
            <_><var>34</var>
              <quality>9.7829952836036682e-02</quality>
              <le>-2.1469001770019531e+00</le></_></splits></_>
        <_>
          <depth>1</depth>
          <value>-9.1974770761756430e-01</value></_>
        <_>
          <depth>1</depth>
          <value>1.4023671000974189e-01</value></_></nodes></_>
    <_>
      <nodes>
        <_>
          <depth>0</depth>
          <value>-1.6743810149092834e-03</value>
          <splits>
            <_><var>88</var>
              <quality>7.0847511291503906e-02</quality>
              <le>1.2318399548530579e-01</le></_></splits></_>
        <_>
          <depth>1</depth>
          <value>-2.1357442634256710e-01</value></_>
        <_>
          <depth>1</depth>
          <value>3.7196373102953362e-01</value></_></nodes></_>
    <_>
      <nodes>
        <_>
          <depth>0</depth>
          <value>-2.4119964585434931e-03</value>
          <splits>
            <_><var>43</var>
              <quality>7.2441898286342621e-02</quality>
              <le>1.6570650339126587e+00</le></_></splits></_>
        <_>
          <depth>1</depth>
          <value>-3.2585865803889952e-01</value></_>
        <_>
          <depth>1</depth>
          <value>2.4664498744936594e-01</value></_></nodes></_>
    <_>
      <nodes>
        <_>
          <depth>0</depth>
          <value>1.9873369060742357e-03</value>
          <splits>
            <_><var>42</var>
              <quality>8.5364028811454773e-02</quality>
              <le>7.2074902057647705e-01</le></_></splits></_>
        <_>
          <depth>1</depth>
          <value>1.6801790751340503e-01</value></_>
        <_>
          <depth>1</depth>
          <value>-6.1055562531840524e-01</value></_></nodes></_>
    <_>
      <nodes>
        <_>
          <depth>0</depth>
          <value>1.2671641726673748e-03</value>
          <splits>
            <_><var>74</var>
              <quality>7.5360827147960663e-02</quality>
              <le>2.9792398214340210e-01</le></_></splits></_>
        <_>
          <depth>1</depth>
          <value>-2.0867533275937949e-01</value></_>
        <_>
          <depth>1</depth>
          <value>4.0547890180871071e-01</value></_></nodes></_>
    <_>
      <nodes>
        <_>
          <depth>0</depth>
          <value>-2.5057260515218278e-03</value>
          <splits>
            <_><var>131</var>
              <quality>7.3038049042224884e-02</quality>
              <le>1.9247050285339355e+00</le></_></splits></_>
        <_>
          <depth>1</depth>
          <value>-1.6578719047316387e-01</value></_>
        <_>
          <depth>1</depth>
          <value>5.1367691442301344e-01</value></_></nodes></_>
    <_>
      <nodes>
        <_>
          <depth>0</depth>
          <value>7.1579836676922176e-05</value>
          <splits>
            <_><var>71</var>
              <quality>7.6802611351013184e-02</quality>
              <le>-7.6293999882182106e-06</le></_></splits></_>
        <_>
          <depth>1</depth>
          <value>2.2440242578646039e-01</value></_>
        <_>
          <depth>1</depth>
          <value>-3.8436165185952931e-01</value></_></nodes></_>
    <_>
      <nodes>
        <_>
          <depth>0</depth>
          <value>1.3372298308285508e-03</value>
          <splits>
            <_><var>128</var>
              <quality>6.9847926497459412e-02</quality>
              <le>-3.0922198295593262e+00</le></_></splits></_>
        <_>
          <depth>1</depth>
          <value>-1.4835773736837508e+00</value></_>
        <_>
          <depth>1</depth>
          <value>8.2912238398244076e-02</value></_></nodes></_>
    <_>
      <nodes>
        <_>
          <depth>0</depth>
          <value>-2.3295303634956925e-03</value>
          <splits>
            <_><var>55</var>
              <quality>7.2339251637458801e-02</quality>
              <le>1.4797000885009766e+00</le></_></splits></_>
        <_>
          <depth>1</depth>
          <value>-2.6411840825739502e-01</value></_>
        <_>
          <depth>1</depth>
          <value>3.0450889571654727e-01</value></_></nodes></_>
    <_>
      <nodes>
        <_>
          <depth>0</depth>
          <value>-1.4729132742030289e-03</value>
          <splits>
            <_><var>51</var>
              <quality>8.5890769958496094e-02</quality>
              <le>-2.0133450031280518e+00</le></_></splits></_>
        <_>
          <depth>1</depth>
          <value>4.2975288723404675e-01</value></_>
        <_>
          <depth>1</depth>
          <value>-2.2777281968855415e-01</value></_></nodes></_>
    <_>
      <nodes>
        <_>
          <depth>0</depth>
          <value>4.4562760346855612e-03</value>
          <splits>
            <_><var>124</var>
              <quality>8.9728020131587982e-02</quality>
              <le>-3.3334350585937500e-01</le></_></splits></_>
        <_>
          <depth>1</depth>
          <value>3.8877478346925465e-01</value></_>
        <_>
          <depth>1</depth>
          <value>-2.5943949169155239e-01</value></_></nodes></_>
    <_>
      <nodes>
        <_>
          <depth>0</depth>
          <value>-6.0399986509832391e-03</value>
          <splits>
            <_><var>19</var>
              <quality>7.6083198189735413e-02</quality>
              <le>-1.1324850082397461e+01</le></_></splits></_>
        <_>
          <depth>1</depth>
          <value>-1.4356303489179234e+00</value></_>
        <_>
          <depth>1</depth>
          <value>8.4455490276739195e-02</value></_></nodes></_>
    <_>
      <nodes>
        <_>
          <depth>0</depth>
          <value>1.9236106030575632e-03</value>
          <splits>
            <_><var>109</var>
              <quality>1.4745703339576721e-01</quality>
              <le>-4.2109298706054688e+00</le></_></splits></_>
        <_>
          <depth>1</depth>
          <value>6.8635993893337399e-01</value></_>
        <_>
          <depth>1</depth>
          <value>-2.6559594215264071e-01</value></_></nodes></_>
    <_>
      <nodes>
        <_>
          <depth>0</depth>
          <value>-1.1285211164271031e-02</value>
          <splits>
            <_><var>115</var>
              <quality>1.3173313438892365e-01</quality>
              <le>3.1765750050544739e-01</le></_></splits></_>
        <_>
          <depth>1</depth>
          <value>-4.0959822621152026e-01</value></_>
        <_>
          <depth>1</depth>
          <value>3.7280929280015029e-01</value></_></nodes></_>
    <_>
      <nodes>
        <_>
          <depth>0</depth>
          <value>2.7764088994664210e-04</value>
          <splits>
            <_><var>97</var>
              <quality>9.7602337598800659e-02</quality>
              <le>1.4611299037933350e+00</le></_></splits></_>
        <_>
          <depth>1</depth>
          <value>1.6124904136988283e-01</value></_>
        <_>
          <depth>1</depth>
          <value>-7.6439824945744261e-01</value></_></nodes></_>
    <_>
      <nodes>
        <_>
          <depth>0</depth>
          <value>-4.6086257658738720e-03</value>
          <splits>
            <_><var>34</var>
              <quality>9.4027198851108551e-02</quality>
              <le>1.5549650192260742e+00</le></_></splits></_>
        <_>
          <depth>1</depth>
          <value>1.6254233245053851e-01</value></_>
        <_>
          <depth>1</depth>
          <value>-6.9586439654969723e-01</value></_></nodes></_>
    <_>
      <nodes>
        <_>
          <depth>0</depth>
          <value>-1.0254577904876373e-02</value>
          <splits>
            <_><var>112</var>
              <quality>8.3382084965705872e-02</quality>
              <le>1.9921200275421143e+00</le></_></splits></_>
        <_>
          <depth>1</depth>
          <value>-1.7945576264450439e-01</value></_>
        <_>
          <depth>1</depth>
          <value>5.6788108036786900e-01</value></_></nodes></_>
    <_>
      <nodes>
        <_>
          <depth>0</depth>
          <value>1.1168175030402364e-03</value>
          <splits>
            <_><var>55</var>
              <quality>9.2902712523937225e-02</quality>
              <le>6.1148452758789063e-01</le></_></splits></_>
        <_>
          <depth>1</depth>
          <value>-4.4518014351749485e-01</value></_>
        <_>
          <depth>1</depth>
          <value>2.3899152373220120e-01</value></_></nodes></_>
    <_>
      <nodes>
        <_>
          <depth>0</depth>
          <value>-2.6388628110073386e-03</value>
          <splits>
            <_><var>82</var>
              <quality>8.1613518297672272e-02</quality>
              <le>1.0303500294685364e-01</le></_></splits></_>
        <_>
          <depth>1</depth>
          <value>1.8792662486983858e-01</value></_>
        <_>
          <depth>1</depth>
          <value>-4.9581487256998541e-01</value></_></nodes></_>
    <_>
      <nodes>
        <_>
          <depth>0</depth>
          <value>-5.0768377175876862e-03</value>
          <splits>
            <_><var>97</var>
              <quality>8.2935407757759094e-02</quality>
              <le>-2.0400249958038330e+00</le></_></splits></_>
        <_>
          <depth>1</depth>
          <value>2.8990226784497036e-01</value></_>
        <_>
          <depth>1</depth>
          <value>-3.1952790938452652e-01</value></_></nodes></_>
    <_>
      <nodes>
        <_>
          <depth>0</depth>
          <value>1.2180245264693673e-03</value>
          <splits>
            <_><var>29</var>
              <quality>7.2803311049938202e-02</quality>
              <le>-1.9683098793029785e-01</le></_></splits></_>
        <_>
          <depth>1</depth>
          <value>-2.1069566631821399e-01</value></_>
        <_>
          <depth>1</depth>
          <value>3.8647562611714636e-01</value></_></nodes></_>
    <_>
      <nodes>
        <_>
          <depth>0</depth>
          <value>-3.8579208140157592e-03</value>
          <splits>
            <_><var>12</var>
              <quality>7.9362958669662476e-02</quality>
              <le>-2.7149200439453125e+00</le></_></splits></_>
        <_>
          <depth>1</depth>
          <value>8.3232751790520909e-01</value></_>
        <_>
          <depth>1</depth>
          <value>-1.2639713954406065e-01</value></_></nodes></_>
    <_>
      <nodes>
        <_>
          <depth>0</depth>
          <value>-2.4285537506125564e-03</value>
          <splits>
            <_><var>61</var>
              <quality>8.2624100148677826e-02</quality>
              <le>-1.7938849925994873e+00</le></_></splits></_>
        <_>
          <depth>1</depth>
          <value>4.7851139513410518e-01</value></_>
        <_>
          <depth>1</depth>
          <value>-1.9941241675619681e-01</value></_></nodes></_>
    <_>
      <nodes>
        <_>
          <depth>0</depth>
          <value>-2.2624540684872329e-03</value>
          <splits>
            <_><var>43</var>
              <quality>7.8591927886009216e-02</quality>
              <le>2.5514000654220581e-01</le></_></splits></_>
        <_>
          <depth>1</depth>
          <value>-4.7741784373608320e-01</value></_>
        <_>
          <depth>1</depth>
          <value>1.8709155239428144e-01</value></_></nodes></_>
    <_>
      <nodes>
        <_>
          <depth>0</depth>
          <value>3.1131330489856139e-03</value>
          <splits>
            <_><var>110</var>
              <quality>1.0315538197755814e-01</quality>
              <le>-3.0187749862670898e+00</le></_></splits></_>
        <_>
          <depth>1</depth>
          <value>-1.1907110192458918e+00</value></_>
        <_>
          <depth>1</depth>
          <value>1.3416893194989191e-01</value></_></nodes></_>
    <_>
      <nodes>
        <_>
          <depth>0</depth>
          <value>1.1212757334189290e-03</value>
          <splits>
            <_><var>71</var>
              <quality>8.8902436196804047e-02</quality>
              <le>2.8377499580383301e+00</le></_></splits></_>
        <_>
          <depth>1</depth>
          <value>1.1048293607004320e-01</value></_>
        <_>
          <depth>1</depth>
          <value>-1.2870950935921537e+00</value></_></nodes></_>
    <_>
      <nodes>
        <_>
          <depth>0</depth>
          <value>-3.9279568926116172e-03</value>
          <splits>
            <_><var>99</var>
              <quality>1.1686761677265167e-01</quality>
              <le>2.0534849166870117e+00</le></_></splits></_>
        <_>
          <depth>1</depth>
          <value>-1.8981296980596524e-01</value></_>
        <_>
          <depth>1</depth>
          <value>8.0363362088403378e-01</value></_></nodes></_>
    <_>
      <nodes>
        <_>
          <depth>0</depth>
          <value>-2.5490076668593965e-03</value>
          <splits>
            <_><var>50</var>
              <quality>7.3985457420349121e-02</quality>
              <le>-2.0562750101089478e-01</le></_></splits></_>
        <_>
          <depth>1</depth>
          <value>3.0156907139518846e-01</value></_>
        <_>
          <depth>1</depth>
          <value>-2.7291958099637509e-01</value></_></nodes></_>
    <_>
      <nodes>
        <_>
          <depth>0</depth>
          <value>-1.8964317291352121e-03</value>
          <splits>
            <_><var>104</var>
              <quality>7.0577949285507202e-02</quality>
              <le>-1.4337949752807617e+00</le></_></splits></_>
        <_>
          <depth>1</depth>
          <value>6.6540972376395879e-01</value></_>
        <_>
          <depth>1</depth>
          <value>-1.2986350888714523e-01</value></_></nodes></_>
    <_>
      <nodes>
        <_>
          <depth>0</depth>
          <value>-4.9063767273697378e-03</value>
          <splits>
            <_><var>124</var>
              <quality>7.4049331247806549e-02</quality>
              <le>1.2924000024795532e+00</le></_></splits></_>
        <_>
          <depth>1</depth>
          <value>-1.9902235493308804e-01</value></_>
        <_>
          <depth>1</depth>
          <value>4.2599481249166948e-01</value></_></nodes></_>
    <_>
      <nodes>
        <_>
          <depth>0</depth>
          <value>2.5054216912886150e-04</value>
          <splits>
            <_><var>17</var>
              <quality>8.1534855067729950e-02</quality>
              <le>-1.2274349927902222e+00</le></_></splits></_>
        <_>
          <depth>1</depth>
          <value>-3.3417464820694537e-01</value></_>
        <_>
          <depth>1</depth>
          <value>2.7298792816813522e-01</value></_></nodes></_>
    <_>
      <nodes>
        <_>
          <depth>0</depth>
          <value>-9.8571080684924030e-04</value>
          <splits>
            <_><var>109</var>
              <quality>9.2381171882152557e-02</quality>
              <le>-1.4300149679183960e+00</le></_></splits></_>
        <_>
          <depth>1</depth>
          <value>2.5348934581603016e-01</value></_>
        <_>
          <depth>1</depth>
          <value>-4.1347508614000217e-01</value></_></nodes></_>
    <_>
      <nodes>
        <_>
          <depth>0</depth>
          <value>-2.2600705517933639e-03</value>
          <splits>
            <_><var>64</var>
              <quality>6.0002718120813370e-02</quality>
              <le>1.7287199497222900e+00</le></_></splits></_>
        <_>
          <depth>1</depth>
          <value>1.0876142749912363e-01</value></_>
        <_>
          <depth>1</depth>
          <value>-6.5270349882391532e-01</value></_></nodes></_>
    <_>
      <nodes>
        <_>
          <depth>0</depth>
          <value>-3.4453821307141898e-03</value>
          <splits>
            <_><var>50</var>
              <quality>6.8459577858448029e-02</quality>
              <le>-2.7286601066589355e+00</le></_></splits></_>
        <_>
          <depth>1</depth>
          <value>1.1769171700980716e+00</value></_>
        <_>
          <depth>1</depth>
          <value>-9.0521528528181919e-02</value></_></nodes></_>
    <_>
      <nodes>
        <_>
          <depth>0</depth>
          <value>-5.8553398891613932e-03</value>
          <splits>
            <_><var>113</var>
              <quality>8.1779643893241882e-02</quality>
              <le>-1.1194649934768677e+00</le></_></splits></_>
        <_>
          <depth>1</depth>
          <value>-3.2350108085243434e-01</value></_>
        <_>
          <depth>1</depth>
          <value>2.8190793481359699e-01</value></_></nodes></_>
    <_>
      <nodes>
        <_>
          <depth>0</depth>
          <value>-5.9901326654477824e-04</value>
          <splits>
            <_><var>71</var>
              <quality>7.7614553272724152e-02</quality>
              <le>-4.2362051010131836e+00</le></_></splits></_>
        <_>
          <depth>1</depth>
          <value>8.0930507865898926e-01</value></_>
        <_>
          <depth>1</depth>
          <value>-1.2320187908575690e-01</value></_></nodes></_></trees></opencv_ml_boost>
</opencv_storage>
