<?xml version="1.0"?>
<opencv_storage>
<opencv_ml_boost>
  <format>3</format>
  <is_classifier>1</is_classifier>
  <var_all>137</var_all>
  <var_count>136</var_count>
  <ord_var_count>136</ord_var_count>
  <cat_var_count>1</cat_var_count>
  <training_params>
    <boosting_type>RealAdaboost</boosting_type>
    <use_surrogates>0</use_surrogates>
    <max_categories>10</max_categories>
    <regression_accuracy>9.9999997764825821e-03</regression_accuracy>
    <max_depth>1</max_depth>
    <min_sample_count>10</min_sample_count>
    <cross_validation_folds>0</cross_validation_folds>
    <weight_trimming_rate>9.4999999999999996e-01</weight_trimming_rate></training_params>
  <global_var_idx>1</global_var_idx>
  <var_idx>
    0 1 2 3 4 5 6 7 8 9 10 11 12 13 14 15 16 17 18 19 20 21 22 23 24 25
    26 27 28 29 30 31 32 33 34 35 36 37 38 39 40 41 42 43 44 45 46 47 48
    49 50 51 52 53 54 55 56 57 58 59 60 61 62 63 64 65 66 67 68 69 70 71
    72 73 74 75 76 77 78 79 80 81 82 83 84 85 86 87 88 89 90 91 92 93 94
    95 96 97 98 99 100 101 102 103 104 105 106 107 108 109 110 111 112
    113 114 115 116 117 118 119 120 121 122 123 124 125 126 127 128 129
    130 131 132 133 134 135</var_idx>
  <var_type>
    0 0 0 0 0 0 0 0 0 0 0 0 0 0 0 0 0 0 0 0 0 0 0 0 0 0 0 0 0 0 0 0 0 0
    0 0 0 0 0 0 0 0 0 0 0 0 0 0 0 0 0 0 0 0 0 0 0 0 0 0 0 0 0 0 0 0 0 0
    0 0 0 0 0 0 0 0 0 0 0 0 0 0 0 0 0 0 0 0 0 0 0 0 0 0 0 0 0 0 0 0 0 0
    0 0 0 0 0 0 0 0 0 0 0 0 0 0 0 0 0 0 0 0 0 0 0 0 0 0 0 0 0 0 0 0 0 0
    1</var_type>
  <cat_ofs>
    0 0 0 0 0 0 0 0 0 0 0 0 0 0 0 0 0 0 0 0 0 0 0 0 0 0 0 0 0 0 0 0 0 0
    0 0 0 0 0 0 0 0 0 0 0 0 0 0 0 0 0 0 0 0 0 0 0 0 0 0 0 0 0 0 0 0 0 0
    0 0 0 0 0 0 0 0 0 0 0 0 0 0 0 0 0 0 0 0 0 0 0 0 0 0 0 0 0 0 0 0 0 0
    0 0 0 0 0 0 0 0 0 0 0 0 0 0 0 0 0 0 0 0 0 0 0 0 0 0 0 0 0 0 0 0 0 0
    0 0 0 0 0 0 0 0 0 0 0 0 0 0 0 0 0 0 0 0 0 0 0 0 0 0 0 0 0 0 0 0 0 0
    0 0 0 0 0 0 0 0 0 0 0 0 0 0 0 0 0 0 0 0 0 0 0 0 0 0 0 0 0 0 0 0 0 0
    0 0 0 0 0 0 0 0 0 0 0 0 0 0 0 0 0 0 0 0 0 0 0 0 0 0 0 0 0 0 0 0 0 0
    0 0 0 0 0 0 0 0 0 0 0 0 0 0 0 0 0 0 0 0 0 0 0 0 0 0 0 0 0 0 0 0 0 0</cat_ofs>
  <class_labels>
    -1082130432 1065353216</class_labels>
  <missing_subst>
    0. 0. 0. 0. 0. 0. 0. 0. 0. 0. 0. 0. 0. 0. 0. 0. 0. 0. 0. 0. 0. 0. 0.
    0. 0. 0. 0. 0. 0. 0. 0. 0. 0. 0. 0. 0. 0. 0. 0. 0. 0. 0. 0. 0. 0. 0.
    0. 0. 0. 0. 0. 0. 0. 0. 0. 0. 0. 0. 0. 0. 0. 0. 0. 0. 0. 0. 0. 0. 0.
    0. 0. 0. 0. 0. 0. 0. 0. 0. 0. 0. 0. 0. 0. 0. 0. 0. 0. 0. 0. 0. 0. 0.
    0. 0. 0. 0. 0. 0. 0. 0. 0. 0. 0. 0. 0. 0. 0. 0. 0. 0. 0. 0. 0. 0. 0.
    0. 0. 0. 0. 0. 0. 0. 0. 0. 0. 0. 0. 0. 0. 0. 0. 0. 0. 0. 0. 0. 0.</missing_subst>
  <ntrees>100</ntrees>
  <trees>
    <_>
      <nodes>
        <_>
          <depth>0</depth>
          <value>-9.5774477617730081e-01</value>
          <splits>
            <_><var>42</var>
              <quality>7.0688116550445557e-01</quality>
              <le>-2.4259750843048096e+00</le></_></splits></_>
        <_>
          <depth>1</depth>
          <value>1.4045119273320134e-01</value></_>
        <_>
          <depth>1</depth>
          <value>-1.5774502626866145e+00</value></_></nodes></_>
    <_>
      <nodes>
        <_>
          <depth>0</depth>
          <value>8.4753930932315609e-09</value>
          <splits>
            <_><var>45</var>
              <quality>2.8044587373733521e-01</quality>
              <le>-1.7633949518203735e+00</le></_></splits></_>
        <_>
          <depth>1</depth>
          <value>5.5567398229624998e-01</value></_>
        <_>
          <depth>1</depth>
          <value>-6.2644818838908045e-01</value></_></nodes></_>
    <_>
      <nodes>
        <_>
          <depth>0</depth>
          <value>2.5537129092034792e-08</value>
          <splits>
            <_><var>105</var>
              <quality>2.6842001080513000e-01</quality>
              <le>-1.9131999015808105e+00</le></_></splits></_>
        <_>
          <depth>1</depth>
          <value>8.0019923353513067e-01</value></_>
        <_>
          <depth>1</depth>
          <value>-4.2860737770890872e-01</value></_></nodes></_>
    <_>
      <nodes>
        <_>
          <depth>0</depth>
          <value>5.4136910216958155e-09</value>
          <splits>
            <_><var>118</var>
              <quality>1.9208329916000366e-01</quality>
              <le>1.6314949989318848e+00</le></_></splits></_>
        <_>
          <depth>1</depth>
          <value>2.8039274962711314e-01</value></_>
        <_>
          <depth>1</depth>
          <value>-8.7303019309219487e-01</value></_></nodes></_>
    <_>
      <nodes>
        <_>
          <depth>0</depth>
          <value>2.1071828952836838e-02</value>
          <splits>
            <_><var>0</var>
              <quality>2.0700682699680328e-01</quality>
              <le>1.4952449798583984e+00</le></_></splits></_>
        <_>
          <depth>1</depth>
          <value>-4.4043825128230302e-01</value></_>
        <_>
          <depth>1</depth>
          <value>5.5715977474384715e-01</value></_></nodes></_>
    <_>
      <nodes>
        <_>
          <depth>0</depth>
          <value>-8.7676706109098675e-09</value>
          <splits>
            <_><var>115</var>
              <quality>1.4409267902374268e-01</quality>
              <le>4.4628748893737793e+00</le></_></splits></_>
        <_>
          <depth>1</depth>
          <value>-3.2541356569923918e-01</value></_>
        <_>
          <depth>1</depth>
          <value>5.0852997148338941e-01</value></_></nodes></_>
    <_>
      <nodes>
        <_>
          <depth>0</depth>
          <value>-8.1973695231215898e-04</value>
          <splits>
            <_><var>43</var>
              <quality>1.4169564843177795e-01</quality>
              <le>1.8142399787902832e+00</le></_></splits></_>
        <_>
          <depth>1</depth>
          <value>1.8149152535580837e-01</value></_>
        <_>
          <depth>1</depth>
          <value>-1.1008115432812327e+00</value></_></nodes></_>
    <_>
      <nodes>
        <_>
          <depth>0</depth>
          <value>1.5178994729893864e-02</value>
          <splits>
            <_><var>0</var>
              <quality>9.8070144653320313e-02</quality>
              <le>3.3047847747802734e+00</le></_></splits></_>
        <_>
          <depth>1</depth>
          <value>-1.9065112881844376e-01</value></_>
        <_>
          <depth>1</depth>
          <value>5.6522064586150089e-01</value></_></nodes></_>
    <_>
      <nodes>
        <_>
          <depth>0</depth>
          <value>-4.3215291179494360e-03</value>
          <splits>
            <_><var>101</var>
              <quality>9.7540974617004395e-02</quality>
              <le>3.2391300201416016e+00</le></_></splits></_>
        <_>
          <depth>1</depth>
          <value>2.0217962129955908e-01</value></_>
        <_>
          <depth>1</depth>
          <value>-5.4356599516307691e-01</value></_></nodes></_>
    <_>
      <nodes>
        <_>
          <depth>0</depth>
          <value>6.1359976125403325e-03</value>
          <splits>
            <_><var>17</var>
              <quality>1.1706525087356567e-01</quality>
              <le>9.5788550376892090e-01</le></_></splits></_>
        <_>
          <depth>1</depth>
          <value>-3.2403817220161668e-01</value></_>
        <_>
          <depth>1</depth>
          <value>4.0917212377712164e-01</value></_></nodes></_>
    <_>
      <nodes>
        <_>
          <depth>0</depth>
          <value>-5.9726004563763631e-04</value>
          <splits>
            <_><var>96</var>
              <quality>7.2201214730739594e-02</quality>
              <le>-3.8059601783752441e+00</le></_></splits></_>
        <_>
          <depth>1</depth>
          <value>-8.0262143678829778e-01</value></_>
        <_>
          <depth>1</depth>
          <value>1.1162807950789941e-01</value></_></nodes></_>
    <_>
      <nodes>
        <_>
          <depth>0</depth>
          <value>5.1148503227251908e-04</value>
          <splits>
            <_><var>118</var>
              <quality>1.0755524784326553e-01</quality>
              <le>-7.0131695270538330e-01</le></_></splits></_>
        <_>
          <depth>1</depth>
          <value>3.7896617085619816e-01</value></_>
        <_>
          <depth>1</depth>
          <value>-3.1580161901191206e-01</value></_></nodes></_>
    <_>
      <nodes>
        <_>
          <depth>0</depth>
          <value>-2.1086479294478823e-03</value>
          <splits>
            <_><var>55</var>
              <quality>9.0045653283596039e-02</quality>
              <le>-1.3783299922943115e+00</le></_></splits></_>
        <_>
          <depth>1</depth>
          <value>5.9139806380547300e-01</value></_>
        <_>
          <depth>1</depth>
          <value>-1.7662861784934231e-01</value></_></nodes></_>
    <_>
      <nodes>
        <_>
          <depth>0</depth>
          <value>2.9120927756770956e-02</value>
          <splits>
            <_><var>104</var>
              <quality>9.2580653727054596e-02</quality>
              <le>-1.1571350097656250e+00</le></_></splits></_>
        <_>
          <depth>1</depth>
          <value>-4.3118431437506327e-01</value></_>
        <_>
          <depth>1</depth>
          <value>2.5635850053446890e-01</value></_></nodes></_>
    <_>
      <nodes>
        <_>
          <depth>0</depth>
          <value>-3.5696920502118930e-02</value>
          <splits>
            <_><var>75</var>
              <quality>9.1135434806346893e-02</quality>
              <le>1.0510749816894531e+00</le></_></splits></_>
        <_>
          <depth>1</depth>
          <value>7.9019078994751996e-02</value></_>
        <_>
          <depth>1</depth>
          <value>-1.2188970214015653e+00</value></_></nodes></_>
    <_>
      <nodes>
        <_>
          <depth>0</depth>
          <value>4.7183858279200800e-03</value>
          <splits>
            <_><var>59</var>
              <quality>7.8405633568763733e-02</quality>
              <le>-7.0944201946258545e-01</le></_></splits></_>
        <_>
          <depth>1</depth>
          <value>3.1971634432195939e-01</value></_>
        <_>
          <depth>1</depth>
          <value>-2.6561492903936229e-01</value></_></nodes></_>
    <_>
      <nodes>
        <_>
          <depth>0</depth>
          <value>-4.8927294693194429e-03</value>
          <splits>
            <_><var>42</var>
              <quality>8.7195083498954773e-02</quality>
              <le>-4.4340848922729492e+00</le></_></splits></_>
        <_>
          <depth>1</depth>
          <value>6.9550035949938716e-01</value></_>
        <_>
          <depth>1</depth>
          <value>-1.5324818133689064e-01</value></_></nodes></_>
    <_>
      <nodes>
        <_>
          <depth>0</depth>
          <value>4.9795403198471213e-05</value>
          <splits>
            <_><var>50</var>
              <quality>7.4894614517688751e-02</quality>
              <le>1.2440650463104248e+00</le></_></splits></_>
        <_>
          <depth>1</depth>
          <value>-1.9602943192735434e-01</value></_>
        <_>
          <depth>1</depth>
          <value>4.1811842299034391e-01</value></_></nodes></_>
    <_>
      <nodes>
        <_>
          <depth>0</depth>
          <value>2.9243894635283658e-02</value>
          <splits>
            <_><var>0</var>
              <quality>8.8596247136592865e-02</quality>
              <le>-2.4805149435997009e-01</le></_></splits></_>
        <_>
          <depth>1</depth>
          <value>-5.7682862860325523e-01</value></_>
        <_>
          <depth>1</depth>
          <value>1.9993754282292511e-01</value></_></nodes></_>
    <_>
      <nodes>
        <_>
          <depth>0</depth>
          <value>-3.0761022169685369e-02</value>
          <splits>
            <_><var>122</var>
              <quality>8.4274776279926300e-02</quality>
              <le>-1.6333448886871338e+00</le></_></splits></_>
        <_>
          <depth>1</depth>
          <value>4.7358142293617017e-01</value></_>
        <_>
          <depth>1</depth>
          <value>-2.1528697799852953e-01</value></_></nodes></_>
    <_>
      <nodes>
        <_>
          <depth>0</depth>
          <value>2.7148396366695058e-02</value>
          <splits>
            <_><var>68</var>
              <quality>8.4062159061431885e-02</quality>
              <le>-3.0160598754882813e+00</le></_></splits></_>
        <_>
          <depth>1</depth>
          <value>-1.7818525223600747e+00</value></_>
        <_>
          <depth>1</depth>
          <value>1.1796293864255267e-01</value></_></nodes></_>
    <_>
      <nodes>
        <_>
          <depth>0</depth>
          <value>-3.2332963982254728e-02</value>
          <splits>
            <_><var>43</var>
              <quality>7.1583889424800873e-02</quality>
              <le>2.1017999649047852e+00</le></_></splits></_>
        <_>
          <depth>1</depth>
          <value>8.5136817424882050e-02</value></_>
        <_>
          <depth>1</depth>
          <value>-7.7391924644180521e-01</value></_></nodes></_>
    <_>
      <nodes>
        <_>
          <depth>0</depth>
          <value>9.2126337542411526e-04</value>
          <splits>
            <_><var>50</var>
              <quality>7.6253652572631836e-02</quality>
              <le>-1.4583749771118164e+00</le></_></splits></_>
        <_>
          <depth>1</depth>
          <value>6.1963146158636517e-01</value></_>
        <_>
          <depth>1</depth>
          <value>-1.4233629210499321e-01</value></_></nodes></_>
    <_>
      <nodes>
        <_>
          <depth>0</depth>
          <value>-4.2015501622024998e-03</value>
          <splits>
            <_><var>44</var>
              <quality>8.1208020448684692e-02</quality>
              <le>2.1201949119567871e+00</le></_></splits></_>
        <_>
          <depth>1</depth>
          <value>-2.4848072713446462e-01</value></_>
        <_>
          <depth>1</depth>
          <value>3.5756990663316068e-01</value></_></nodes></_>
    <_>
      <nodes>
        <_>
          <depth>0</depth>
          <value>2.8893260618916602e-02</value>
          <splits>
            <_><var>53</var>
              <quality>9.2364057898521423e-02</quality>
              <le>-2.6508100032806396e+00</le></_></splits></_>
        <_>
          <depth>1</depth>
          <value>-3.4022894002708826e-01</value></_>
        <_>
          <depth>1</depth>
          <value>3.0868430826055060e-01</value></_></nodes></_>
    <_>
      <nodes>
        <_>
          <depth>0</depth>
          <value>-3.9200598891585274e-02</value>
          <splits>
            <_><var>111</var>
              <quality>8.0988265573978424e-02</quality>
              <le>6.9376349449157715e+00</le></_></splits></_>
        <_>
          <depth>1</depth>
          <value>-1.9362316672925942e-01</value></_>
        <_>
          <depth>1</depth>
          <value>5.4650086701268896e-01</value></_></nodes></_>
    <_>
      <nodes>
        <_>
          <depth>0</depth>
          <value>-3.1634757056497030e-04</value>
          <splits>
            <_><var>63</var>
              <quality>9.7189038991928101e-02</quality>
              <le>4.6272850036621094e+00</le></_></splits></_>
        <_>
          <depth>1</depth>
          <value>1.3195429565402891e-01</value></_>
        <_>
          <depth>1</depth>
          <value>-9.8726806959528557e-01</value></_></nodes></_>
    <_>
      <nodes>
        <_>
          <depth>0</depth>
          <value>1.3368131448589218e-03</value>
          <splits>
            <_><var>82</var>
              <quality>6.9476135075092316e-02</quality>
              <le>-1.2007550150156021e-01</le></_></splits></_>
        <_>
          <depth>1</depth>
          <value>1.9540462171156253e-01</value></_>
        <_>
          <depth>1</depth>
          <value>-3.9042898072315912e-01</value></_></nodes></_>
    <_>
      <nodes>
        <_>
          <depth>0</depth>
          <value>2.5133767195522533e-02</value>
          <splits>
            <_><var>20</var>
              <quality>8.0769166350364685e-02</quality>
              <le>1.0817499160766602e+00</le></_></splits></_>
        <_>
          <depth>1</depth>
          <value>-1.6692114860136278e-01</value></_>
        <_>
          <depth>1</depth>
          <value>5.0760064774409663e-01</value></_></nodes></_>
    <_>
      <nodes>
        <_>
          <depth>0</depth>
          <value>-1.6261157334012660e-03</value>
          <splits>
            <_><var>113</var>
              <quality>6.0649365186691284e-02</quality>
              <le>1.3423200607299805e+01</le></_></splits></_>
        <_>
          <depth>1</depth>
          <value>-8.3643324780942524e-02</value></_>
        <_>
          <depth>1</depth>
          <value>1.0418958434772285e+00</value></_></nodes></_>
    <_>
      <nodes>
        <_>
          <depth>0</depth>
          <value>2.0719455630744087e-03</value>
          <splits>
            <_><var>63</var>
              <quality>6.9855615496635437e-02</quality>
              <le>-5.9191900491714478e-01</le></_></splits></_>
        <_>
          <depth>1</depth>
          <value>2.9327311608128120e-01</value></_>
        <_>
          <depth>1</depth>
          <value>-2.6363699193744627e-01</value></_></nodes></_>
    <_>
      <nodes>
        <_>
          <depth>0</depth>
          <value>3.3799819964895747e-03</value>
          <splits>
            <_><var>113</var>
              <quality>7.0221081376075745e-02</quality>
              <le>-2.5392999649047852e+00</le></_></splits></_>
        <_>
          <depth>1</depth>
          <value>-5.1633256773430658e-01</value></_>
        <_>
          <depth>1</depth>
          <value>1.5926731229263422e-01</value></_></nodes></_>
    <_>
      <nodes>
        <_>
          <depth>0</depth>
          <value>-2.0153200913685561e-03</value>
          <splits>
            <_><var>41</var>
              <quality>7.1341447532176971e-02</quality>
              <le>-5.0911798477172852e+00</le></_></splits></_>
        <_>
          <depth>1</depth>
          <value>3.2262030308004741e-01</value></_>
        <_>
          <depth>1</depth>
          <value>-2.4610310308647895e-01</value></_></nodes></_>
    <_>
      <nodes>
        <_>
          <depth>0</depth>
          <value>2.5150663305639675e-03</value>
          <splits>
            <_><var>101</var>
              <quality>8.2224912941455841e-02</quality>
              <le>-3.4153649806976318e+00</le></_></splits></_>
        <_>
          <depth>1</depth>
          <value>5.0255050672809154e-01</value></_>
        <_>
          <depth>1</depth>
          <value>-1.8713010750214201e-01</value></_></nodes></_>
    <_>
      <nodes>
        <_>
          <depth>0</depth>
          <value>4.9401110257697419e-03</value>
          <splits>
            <_><var>71</var>
              <quality>5.7667538523674011e-02</quality>
              <le>-3.0461149215698242e+00</le></_></splits></_>
        <_>
          <depth>1</depth>
          <value>-6.1177441798027143e-01</value></_>
        <_>
          <depth>1</depth>
          <value>1.1573156105853374e-01</value></_></nodes></_>
    <_>
      <nodes>
        <_>
          <depth>0</depth>
          <value>-5.8048705894537091e-03</value>
          <splits>
            <_><var>16</var>
              <quality>6.9427318871021271e-02</quality>
              <le>-2.3700950145721436e+00</le></_></splits></_>
        <_>
          <depth>1</depth>
          <value>-5.8922105876364572e-01</value></_>
        <_>
          <depth>1</depth>
          <value>1.3453176771210415e-01</value></_></nodes></_>
    <_>
      <nodes>
        <_>
          <depth>0</depth>
          <value>-3.9358080711448720e-03</value>
          <splits>
            <_><var>31</var>
              <quality>6.7153818905353546e-02</quality>
              <le>8.4571056365966797e+00</le></_></splits></_>
        <_>
          <depth>1</depth>
          <value>-7.7956498998662943e-02</value></_>
        <_>
          <depth>1</depth>
          <value>1.8624599358971194e+00</value></_></nodes></_>
    <_>
      <nodes>
        <_>
          <depth>0</depth>
          <value>-8.7209254430937002e-04</value>
          <splits>
            <_><var>63</var>
              <quality>8.3345219492912292e-02</quality>
              <le>4.9472846984863281e+00</le></_></splits></_>
        <_>
          <depth>1</depth>
          <value>1.0221617272872550e-01</value></_>
        <_>
          <depth>1</depth>
          <value>-1.2739821670852627e+00</value></_></nodes></_>
    <_>
      <nodes>
        <_>
          <depth>0</depth>
          <value>-5.2734024119254755e-03</value>
          <splits>
            <_><var>67</var>
              <quality>6.1336375772953033e-02</quality>
              <le>5.3610253334045410e-01</le></_></splits></_>
        <_>
          <depth>1</depth>
          <value>-1.9516483413960503e-01</value></_>
        <_>
          <depth>1</depth>
          <value>3.5292887026829023e-01</value></_></nodes></_>
    <_>
      <nodes>
        <_>
          <depth>0</depth>
          <value>2.0248642168101557e-03</value>
          <splits>
            <_><var>101</var>
              <quality>7.2065137326717377e-02</quality>
              <le>-2.8088550567626953e+00</le></_></splits></_>
        <_>
          <depth>1</depth>
          <value>4.1512688133869025e-01</value></_>
        <_>
          <depth>1</depth>
          <value>-1.9451244189818576e-01</value></_></nodes></_>
    <_>
      <nodes>
        <_>
          <depth>0</depth>
          <value>2.4549083350977304e-03</value>
          <splits>
            <_><var>93</var>
              <quality>6.6443912684917450e-02</quality>
              <le>1.3614549636840820e+00</le></_></splits></_>
        <_>
          <depth>1</depth>
          <value>-2.3679670946273546e-01</value></_>
        <_>
          <depth>1</depth>
          <value>3.0969004483637547e-01</value></_></nodes></_>
    <_>
      <nodes>
        <_>
          <depth>0</depth>
          <value>4.8770953921296540e-03</value>
          <splits>
            <_><var>8</var>
              <quality>6.9637402892112732e-02</quality>
              <le>1.2808449268341064e+00</le></_></splits></_>
        <_>
          <depth>1</depth>
          <value>2.5506326295029019e-01</value></_>
        <_>
          <depth>1</depth>
          <value>-3.0350388423538316e-01</value></_></nodes></_>
    <_>
      <nodes>
        <_>
          <depth>0</depth>
          <value>-7.7038705456130155e-03</value>
          <splits>
            <_><var>52</var>
              <quality>6.8607732653617859e-02</quality>
              <le>-1.4133300781250000e+00</le></_></splits></_>
        <_>
          <depth>1</depth>
          <value>4.0683773269790269e-01</value></_>
        <_>
          <depth>1</depth>
          <value>-1.9349329027265422e-01</value></_></nodes></_>
    <_>
      <nodes>
        <_>
          <depth>0</depth>
          <value>7.7013465642477772e-04</value>
          <splits>
            <_><var>50</var>
              <quality>7.0321150124073029e-02</quality>
              <le>9.7188550233840942e-01</le></_></splits></_>
        <_>
          <depth>1</depth>
          <value>-2.1858279293146923e-01</value></_>
        <_>
          <depth>1</depth>
          <value>3.5811872003856193e-01</value></_></nodes></_>
    <_>
      <nodes>
        <_>
          <depth>0</depth>
          <value>2.0038311248505788e-03</value>
          <splits>
            <_><var>18</var>
              <quality>5.8531150221824646e-02</quality>
              <le>3.3963799476623535e+00</le></_></splits></_>
        <_>
          <depth>1</depth>
          <value>-1.0235136013554511e-01</value></_>
        <_>
          <depth>1</depth>
          <value>6.8451371050055243e-01</value></_></nodes></_>
    <_>
      <nodes>
        <_>
          <depth>0</depth>
          <value>-2.7828499156722364e-03</value>
          <splits>
            <_><var>116</var>
              <quality>6.3909515738487244e-02</quality>
              <le>3.1716849803924561e+00</le></_></splits></_>
        <_>
          <depth>1</depth>
          <value>7.7790072427645365e-02</value></_>
        <_>
          <depth>1</depth>
          <value>-1.2190262762725865e+00</value></_></nodes></_>
    <_>
      <nodes>
        <_>
          <depth>0</depth>
          <value>3.9053716648917353e-03</value>
          <splits>
            <_><var>71</var>
              <quality>5.9915091842412949e-02</quality>
              <le>1.2453000545501709e+00</le></_></splits></_>
        <_>
          <depth>1</depth>
          <value>1.8744370807374619e-01</value></_>
        <_>
          <depth>1</depth>
          <value>-3.5833417092010333e-01</value></_></nodes></_>
    <_>
      <nodes>
        <_>
          <depth>0</depth>
          <value>-5.6760207258503802e-03</value>
          <splits>
            <_><var>121</var>
              <quality>7.6803453266620636e-02</quality>
              <le>1.4814749956130981e+00</le></_></splits></_>
        <_>
          <depth>1</depth>
          <value>-2.7375651611463581e-01</value></_>
        <_>
          <depth>1</depth>
          <value>3.1332637542350145e-01</value></_></nodes></_>
    <_>
      <nodes>
        <_>
          <depth>0</depth>
          <value>1.7789206293108344e-03</value>
          <splits>
            <_><var>0</var>
              <quality>6.6531941294670105e-02</quality>
              <le>-1.3178200721740723e+00</le></_></splits></_>
        <_>
          <depth>1</depth>
          <value>-7.9199446914243210e-01</value></_>
        <_>
          <depth>1</depth>
          <value>1.0809781545925434e-01</value></_></nodes></_>
    <_>
      <nodes>
        <_>
          <depth>0</depth>
          <value>-3.3289425981724370e-03</value>
          <splits>
            <_><var>3</var>
              <quality>6.0827169567346573e-02</quality>
              <le>-5.2432746887207031e+00</le></_></splits></_>
        <_>
          <depth>1</depth>
          <value>-9.6159543056460017e-01</value></_>
        <_>
          <depth>1</depth>
          <value>8.3185808071072315e-02</value></_></nodes></_>
    <_>
      <nodes>
        <_>
          <depth>0</depth>
          <value>-4.4205831840119399e-03</value>
          <splits>
            <_><var>116</var>
              <quality>8.0358810722827911e-02</quality>
              <le>-1.4332100152969360e+00</le></_></splits></_>
        <_>
          <depth>1</depth>
          <value>4.6175845129765747e-01</value></_>
        <_>
          <depth>1</depth>
          <value>-2.0109755735866316e-01</value></_></nodes></_>
    <_>
      <nodes>
        <_>
          <depth>0</depth>
          <value>1.4306028297843218e-03</value>
          <splits>
            <_><var>66</var>
              <quality>8.8652618229389191e-02</quality>
              <le>6.1047399044036865e-01</le></_></splits></_>
        <_>
          <depth>1</depth>
          <value>-2.5705460859900930e-01</value></_>
        <_>
          <depth>1</depth>
          <value>3.8884885754462267e-01</value></_></nodes></_>
    <_>
      <nodes>
        <_>
          <depth>0</depth>
          <value>1.6084537547414158e-03</value>
          <splits>
            <_><var>108</var>
              <quality>5.3361352533102036e-02</quality>
              <le>-1.5618900060653687e+00</le></_></splits></_>
        <_>
          <depth>1</depth>
          <value>4.2250822454070658e-01</value></_>
        <_>
          <depth>1</depth>
          <value>-1.4065822124296234e-01</value></_></nodes></_>
    <_>
      <nodes>
        <_>
          <depth>0</depth>
          <value>-2.9628810738657318e-03</value>
          <splits>
            <_><var>126</var>
              <quality>6.6409468650817871e-02</quality>
              <le>-1.1620199680328369e+00</le></_></splits></_>
        <_>
          <depth>1</depth>
          <value>-4.7031315131599905e-01</value></_>
        <_>
          <depth>1</depth>
          <value>1.5888511475076544e-01</value></_></nodes></_>
    <_>
      <nodes>
        <_>
          <depth>0</depth>
          <value>-1.4042411830494174e-04</value>
          <splits>
            <_><var>116</var>
              <quality>5.7831205427646637e-02</quality>
              <le>5.6355297565460205e-01</le></_></splits></_>
        <_>
          <depth>1</depth>
          <value>2.2125493441178773e-01</value></_>
        <_>
          <depth>1</depth>
          <value>-2.8722129323097073e-01</value></_></nodes></_>
    <_>
      <nodes>
        <_>
          <depth>0</depth>
          <value>-5.5317716714252075e-03</value>
          <splits>
            <_><var>45</var>
              <quality>7.0726618170738220e-02</quality>
              <le>-3.7995150089263916e+00</le></_></splits></_>
        <_>
          <depth>1</depth>
          <value>2.9841788185762586e-01</value></_>
        <_>
          <depth>1</depth>
          <value>-2.6339593208505835e-01</value></_></nodes></_>
    <_>
      <nodes>
        <_>
          <depth>0</depth>
          <value>4.8362140992081158e-03</value>
          <splits>
            <_><var>36</var>
              <quality>6.5593488514423370e-02</quality>
              <le>1.2285200357437134e+00</le></_></splits></_>
        <_>
          <depth>1</depth>
          <value>-1.7038569604724063e-01</value></_>
        <_>
          <depth>1</depth>
          <value>4.2665181008077363e-01</value></_></nodes></_>
    <_>
      <nodes>
        <_>
          <depth>0</depth>
          <value>3.3515692401632393e-04</value>
          <splits>
            <_><var>100</var>
              <quality>6.3046045601367950e-02</quality>
              <le>2.3820400238037109e+00</le></_></splits></_>
        <_>
          <depth>1</depth>
          <value>-1.3207691377045488e-01</value></_>
        <_>
          <depth>1</depth>
          <value>5.5536939946823571e-01</value></_></nodes></_>
    <_>
      <nodes>
        <_>
          <depth>0</depth>
          <value>-1.8027383013229038e-03</value>
          <splits>
            <_><var>80</var>
              <quality>5.9494197368621826e-02</quality>
              <le>5.0841152667999268e-01</le></_></splits></_>
        <_>
          <depth>1</depth>
          <value>1.9408370476660133e-01</value></_>
        <_>
          <depth>1</depth>
          <value>-3.3780707637587931e-01</value></_></nodes></_>
    <_>
      <nodes>
        <_>
          <depth>0</depth>
          <value>-2.3242635439121007e-03</value>
          <splits>
            <_><var>71</var>
              <quality>5.5934991687536240e-02</quality>
              <le>5.0788946151733398e+00</le></_></splits></_>
        <_>
          <depth>1</depth>
          <value>8.5100508543374254e-02</value></_>
        <_>
          <depth>1</depth>
          <value>-8.2430973367586258e-01</value></_></nodes></_>
    <_>
      <nodes>
        <_>
          <depth>0</depth>
          <value>-2.9122515681662682e-03</value>
          <splits>
            <_><var>83</var>
              <quality>6.4175814390182495e-02</quality>
              <le>1.2933349609375000e+00</le></_></splits></_>
        <_>
          <depth>1</depth>
          <value>-2.4381740158651588e-01</value></_>
        <_>
          <depth>1</depth>
          <value>2.9103743865663984e-01</value></_></nodes></_>
    <_>
      <nodes>
        <_>
          <depth>0</depth>
          <value>2.7462580183231404e-03</value>
          <splits>
            <_><var>44</var>
              <quality>4.6328522264957428e-02</quality>
              <le>-4.3411299586296082e-02</le></_></splits></_>
        <_>
          <depth>1</depth>
          <value>-4.8952389084964137e-01</value></_>
        <_>
          <depth>1</depth>
          <value>1.0999110872424429e-01</value></_></nodes></_>
    <_>
      <nodes>
        <_>
          <depth>0</depth>
          <value>2.1213195922500545e-03</value>
          <splits>
            <_><var>81</var>
              <quality>6.0015115886926651e-02</quality>
              <le>-9.5174002647399902e-01</le></_></splits></_>
        <_>
          <depth>1</depth>
          <value>6.8711944213137444e-01</value></_>
        <_>
          <depth>1</depth>
          <value>-1.0460302157867082e-01</value></_></nodes></_>
    <_>
      <nodes>
        <_>
          <depth>0</depth>
          <value>-2.0006838481325539e-04</value>
          <splits>
            <_><var>87</var>
              <quality>4.7861509025096893e-02</quality>
              <le>-5.2895650863647461e+00</le></_></splits></_>
        <_>
          <depth>1</depth>
          <value>-1.1088368235834631e+00</value></_>
        <_>
          <depth>1</depth>
          <value>6.2597856194419141e-02</value></_></nodes></_>
    <_>
      <nodes>
        <_>
          <depth>0</depth>
          <value>-1.7622060329387484e-03</value>
          <splits>
            <_><var>75</var>
              <quality>7.6682604849338531e-02</quality>
              <le>-5.1189050674438477e+00</le></_></splits></_>
        <_>
          <depth>1</depth>
          <value>1.0280724019192204e+00</value></_>
        <_>
          <depth>1</depth>
          <value>-1.0633553614821194e-01</value></_></nodes></_>
    <_>
      <nodes>
        <_>
          <depth>0</depth>
          <value>1.2715697413554232e-04</value>
          <splits>
            <_><var>43</var>
              <quality>5.5700872093439102e-02</quality>
              <le>-1.1427550315856934e+00</le></_></splits></_>
        <_>
          <depth>1</depth>
          <value>1.5045512054384680e-01</value></_>
        <_>
          <depth>1</depth>
          <value>-4.1521159751160469e-01</value></_></nodes></_>
    <_>
      <nodes>
        <_>
          <depth>0</depth>
          <value>3.9294086156321699e-03</value>
          <splits>
            <_><var>101</var>
              <quality>6.0542803257703781e-02</quality>
              <le>-2.4045600891113281e+00</le></_></splits></_>
        <_>
          <depth>1</depth>
          <value>3.8969705335201921e-01</value></_>
        <_>
          <depth>1</depth>
          <value>-1.7125565196292775e-01</value></_></nodes></_>
    <_>
      <nodes>
        <_>
          <depth>0</depth>
          <value>3.3106827891567054e-03</value>
          <splits>
            <_><var>17</var>
              <quality>5.3387761116027832e-02</quality>
              <le>-1.8226449489593506e+00</le></_></splits></_>
        <_>
          <depth>1</depth>
          <value>-3.3484809931470594e-01</value></_>
        <_>
          <depth>1</depth>
          <value>1.7742832306857079e-01</value></_></nodes></_>
    <_>
      <nodes>
        <_>
          <depth>0</depth>
          <value>-2.6032843748762680e-03</value>
          <splits>
            <_><var>104</var>
              <quality>6.3092589378356934e-02</quality>
              <le>-1.8375049829483032e+00</le></_></splits></_>
        <_>
          <depth>1</depth>
          <value>-6.0429220052269172e-01</value></_>
        <_>
          <depth>1</depth>
          <value>1.2154484884382812e-01</value></_></nodes></_>
    <_>
      <nodes>
        <_>
          <depth>0</depth>
          <value>-2.2478563221525576e-04</value>
          <splits>
            <_><var>42</var>
              <quality>4.7614272683858871e-02</quality>
              <le>-4.0483250617980957e+00</le></_></splits></_>
        <_>
          <depth>1</depth>
          <value>5.5434077770772106e-01</value></_>
        <_>
          <depth>1</depth>
          <value>-1.0001843454811477e-01</value></_></nodes></_>
    <_>
      <nodes>
        <_>
          <depth>0</depth>
          <value>-6.4544863828170458e-04</value>
          <splits>
            <_><var>44</var>
              <quality>5.4525431245565414e-02</quality>
              <le>6.7574100494384766e+00</le></_></splits></_>
        <_>
          <depth>1</depth>
          <value>5.9759278402370872e-02</value></_>
        <_>
          <depth>1</depth>
          <value>-1.8520312634790204e+00</value></_></nodes></_>
    <_>
      <nodes>
        <_>
          <depth>0</depth>
          <value>5.7199755397738233e-03</value>
          <splits>
            <_><var>0</var>
              <quality>5.4653055965900421e-02</quality>
              <le>2.1922199726104736e+00</le></_></splits></_>
        <_>
          <depth>1</depth>
          <value>-2.1938847984041526e-01</value></_>
        <_>
          <depth>1</depth>
          <value>2.7160620985646944e-01</value></_></nodes></_>
    <_>
      <nodes>
        <_>
          <depth>0</depth>
          <value>9.8619891597289061e-04</value>
          <splits>
            <_><var>12</var>
              <quality>7.3420606553554535e-02</quality>
              <le>2.2303051948547363e+00</le></_></splits></_>
        <_>
          <depth>1</depth>
          <value>1.9571911397337086e-01</value></_>
        <_>
          <depth>1</depth>
          <value>-4.2486312352060451e-01</value></_></nodes></_>
    <_>
      <nodes>
        <_>
          <depth>0</depth>
          <value>-3.0808653618434622e-03</value>
          <splits>
            <_><var>16</var>
              <quality>4.9021400511264801e-02</quality>
              <le>2.9188599586486816e+00</le></_></splits></_>
        <_>
          <depth>1</depth>
          <value>-1.1612734733259687e-01</value></_>
        <_>
          <depth>1</depth>
          <value>4.9155034307374934e-01</value></_></nodes></_>
    <_>
      <nodes>
        <_>
          <depth>0</depth>
          <value>-9.5985647380541269e-04</value>
          <splits>
            <_><var>108</var>
              <quality>5.3161162883043289e-02</quality>
              <le>1.3748150318861008e-02</le></_></splits></_>
        <_>
          <depth>1</depth>
          <value>2.6753702299670978e-01</value></_>
        <_>
          <depth>1</depth>
          <value>-2.1769402776215507e-01</value></_></nodes></_>
    <_>
      <nodes>
        <_>
          <depth>0</depth>
          <value>-3.9732059978826121e-03</value>
          <splits>
            <_><var>96</var>
              <quality>5.0168942660093307e-02</quality>
              <le>4.2700748443603516e+00</le></_></splits></_>
        <_>
          <depth>1</depth>
          <value>7.2401122723570951e-02</value></_>
        <_>
          <depth>1</depth>
          <value>-8.6047624608146189e-01</value></_></nodes></_>
    <_>
      <nodes>
        <_>
          <depth>0</depth>
          <value>-8.2367606284869941e-04</value>
          <splits>
            <_><var>57</var>
              <quality>4.9024615436792374e-02</quality>
              <le>-6.8639397621154785e-01</le></_></splits></_>
        <_>
          <depth>1</depth>
          <value>2.5336358172642742e-01</value></_>
        <_>
          <depth>1</depth>
          <value>-2.1126398022809817e-01</value></_></nodes></_>
    <_>
      <nodes>
        <_>
          <depth>0</depth>
          <value>1.3116077054513939e-03</value>
          <splits>
            <_><var>113</var>
              <quality>5.0802744925022125e-02</quality>
              <le>5.5090050697326660e+00</le></_></splits></_>
        <_>
          <depth>1</depth>
          <value>-1.6877501368366105e-01</value></_>
        <_>
          <depth>1</depth>
          <value>3.3021934398222552e-01</value></_></nodes></_>
    <_>
      <nodes>
        <_>
          <depth>0</depth>
          <value>5.0210784533162005e-03</value>
          <splits>
            <_><var>63</var>
              <quality>7.5799643993377686e-02</quality>
              <le>2.9318799972534180e+00</le></_></splits></_>
        <_>
          <depth>1</depth>
          <value>1.6424515265848777e-01</value></_>
        <_>
          <depth>1</depth>
          <value>-5.5016482080194862e-01</value></_></nodes></_>
    <_>
      <nodes>
        <_>
          <depth>0</depth>
          <value>-6.2198833024713915e-03</value>
          <splits>
            <_><var>79</var>
              <quality>7.6688028872013092e-02</quality>
              <le>8.1305301189422607e-01</le></_></splits></_>
        <_>
          <depth>1</depth>
          <value>-2.7687585666521269e-01</value></_>
        <_>
          <depth>1</depth>
          <value>3.0913914336734305e-01</value></_></nodes></_>
    <_>
      <nodes>
        <_>
          <depth>0</depth>
          <value>3.9700710714681261e-03</value>
          <splits>
            <_><var>64</var>
              <quality>4.4667571783065796e-02</quality>
              <le>-2.7281200885772705e-01</le></_></splits></_>
        <_>
          <depth>1</depth>
          <value>-3.6240141983401675e-01</value></_>
        <_>
          <depth>1</depth>
          <value>1.3866505769456861e-01</value></_></nodes></_>
    <_>
      <nodes>
        <_>
          <depth>0</depth>
          <value>-1.0949956743577470e-03</value>
          <splits>
            <_><var>122</var>
              <quality>5.7036347687244415e-02</quality>
              <le>-2.0668249130249023e+00</le></_></splits></_>
        <_>
          <depth>1</depth>
          <value>5.4910901699224590e-01</value></_>
        <_>
          <depth>1</depth>
          <value>-1.2155436374523965e-01</value></_></nodes></_>
    <_>
      <nodes>
        <_>
          <depth>0</depth>
          <value>1.4195677484672318e-03</value>
          <splits>
            <_><var>74</var>
              <quality>4.0896464139223099e-02</quality>
              <le>-1.3940050601959229e+00</le></_></splits></_>
        <_>
          <depth>1</depth>
          <value>-8.5543957749180199e-01</value></_>
        <_>
          <depth>1</depth>
          <value>6.3415999650854149e-02</value></_></nodes></_>
    <_>
      <nodes>
        <_>
          <depth>0</depth>
          <value>2.6392107475568515e-05</value>
          <splits>
            <_><var>92</var>
              <quality>4.5117635279893875e-02</quality>
              <le>-7.3787701129913330e-01</le></_></splits></_>
        <_>
          <depth>1</depth>
          <value>-6.7708254667820189e-01</value></_>
        <_>
          <depth>1</depth>
          <value>8.0761360461590784e-02</value></_></nodes></_>
    <_>
      <nodes>
        <_>
          <depth>0</depth>
          <value>-1.8413381798884328e-03</value>
          <splits>
            <_><var>56</var>
              <quality>4.8082675784826279e-02</quality>
              <le>-3.8820648193359375e-01</le></_></splits></_>
        <_>
          <depth>1</depth>
          <value>3.9075659538608970e-01</value></_>
        <_>
          <depth>1</depth>
          <value>-1.3810674395483336e-01</value></_></nodes></_>
    <_>
      <nodes>
        <_>
          <depth>0</depth>
          <value>-1.3753605578984093e-03</value>
          <splits>
            <_><var>126</var>
              <quality>5.0142437219619751e-02</quality>
              <le>-1.1620199680328369e+00</le></_></splits></_>
        <_>
          <depth>1</depth>
          <value>-4.1508957985427208e-01</value></_>
        <_>
          <depth>1</depth>
          <value>1.3429134772426993e-01</value></_></nodes></_>
    <_>
      <nodes>
        <_>
          <depth>0</depth>
          <value>-1.1825574665294059e-03</value>
          <splits>
            <_><var>49</var>
              <quality>5.2322313189506531e-02</quality>
              <le>-6.7224903106689453e+00</le></_></splits></_>
        <_>
          <depth>1</depth>
          <value>4.0444469203138983e-01</value></_>
        <_>
          <depth>1</depth>
          <value>-1.4529157062539147e-01</value></_></nodes></_>
    <_>
      <nodes>
        <_>
          <depth>0</depth>
          <value>1.2126303663717809e-03</value>
          <splits>
            <_><var>34</var>
              <quality>4.9373187124729156e-02</quality>
              <le>-1.8506549596786499e+00</le></_></splits></_>
        <_>
          <depth>1</depth>
          <value>-7.6571532432788969e-01</value></_>
        <_>
          <depth>1</depth>
          <value>8.1890201433693452e-02</value></_></nodes></_>
    <_>
      <nodes>
        <_>
          <depth>0</depth>
          <value>-1.8707978102627863e-03</value>
          <splits>
            <_><var>116</var>
              <quality>4.1682358831167221e-02</quality>
              <le>3.1167998313903809e+00</le></_></splits></_>
        <_>
          <depth>1</depth>
          <value>6.4425503165977824e-02</value></_>
        <_>
          <depth>1</depth>
          <value>-8.0100800459983912e-01</value></_></nodes></_>
    <_>
      <nodes>
        <_>
          <depth>0</depth>
          <value>-3.2253570118958186e-04</value>
          <splits>
            <_><var>128</var>
              <quality>4.2586013674736023e-02</quality>
              <le>1.0223649978637695e+01</le></_></splits></_>
        <_>
          <depth>1</depth>
          <value>4.4554514815624661e-02</value></_>
        <_>
          <depth>1</depth>
          <value>-5.7564577324601141e+00</value></_></nodes></_>
    <_>
      <nodes>
        <_>
          <depth>0</depth>
          <value>-3.8037876462331346e-03</value>
          <splits>
            <_><var>0</var>
              <quality>5.3564816713333130e-02</quality>
              <le>8.0029697418212891e+00</le></_></splits></_>
        <_>
          <depth>1</depth>
          <value>-6.0661785611195181e-02</value></_>
        <_>
          <depth>1</depth>
          <value>2.6001973362994173e+00</value></_></nodes></_>
    <_>
      <nodes>
        <_>
          <depth>0</depth>
          <value>-3.5817898318315717e-03</value>
          <splits>
            <_><var>43</var>
              <quality>7.1996025741100311e-02</quality>
              <le>4.1351146697998047e+00</le></_></splits></_>
        <_>
          <depth>1</depth>
          <value>7.3677719823158433e-02</value></_>
        <_>
          <depth>1</depth>
          <value>-2.4805826629953467e+00</value></_></nodes></_>
    <_>
      <nodes>
        <_>
          <depth>0</depth>
          <value>1.3258227567322157e-02</value>
          <splits>
            <_><var>42</var>
              <quality>6.2022205442190170e-02</quality>
              <le>-1.9370449781417847e+00</le></_></splits></_>
        <_>
          <depth>1</depth>
          <value>2.7783817893936585e-01</value></_>
        <_>
          <depth>1</depth>
          <value>-2.4421045943307734e-01</value></_></nodes></_>
    <_>
      <nodes>
        <_>
          <depth>0</depth>
          <value>4.0995201419424332e-03</value>
          <splits>
            <_><var>101</var>
              <quality>6.8385198712348938e-02</quality>
              <le>-7.5627803802490234e+00</le></_></splits></_>
        <_>
          <depth>1</depth>
          <value>1.0676534091303358e+00</value></_>
        <_>
          <depth>1</depth>
          <value>-8.7874053172680086e-02</value></_></nodes></_>
    <_>
      <nodes>
        <_>
          <depth>0</depth>
          <value>6.2721287132353799e-04</value>
          <splits>
            <_><var>134</var>
              <quality>7.0531673729419708e-02</quality>
              <le>-3.9394000172615051e-01</le></_></splits></_>
        <_>
          <depth>1</depth>
          <value>3.5845545365091713e-01</value></_>
        <_>
          <depth>1</depth>
          <value>-2.1913426410788195e-01</value></_></nodes></_>
    <_>
      <nodes>
        <_>
          <depth>0</depth>
          <value>-2.0483478796084077e-03</value>
          <splits>
            <_><var>50</var>
              <quality>6.5149374306201935e-02</quality>
              <le>1.2928750514984131e+00</le></_></splits></_>
        <_>
          <depth>1</depth>
          <value>-1.9800858736159885e-01</value></_>
        <_>
          <depth>1</depth>
          <value>3.6832332992691336e-01</value></_></nodes></_>
    <_>
      <nodes>
        <_>
          <depth>0</depth>
          <value>1.5606910079673825e-03</value>
          <splits>
            <_><var>126</var>
              <quality>6.3036553561687469e-02</quality>
              <le>4.9689498543739319e-01</le></_></splits></_>
        <_>
          <depth>1</depth>
          <value>-2.2133557577450455e-01</value></_>
        <_>
          <depth>1</depth>
          <value>3.1406388334326674e-01</value></_></nodes></_>
    <_>
      <nodes>
        <_>
          <depth>0</depth>
          <value>5.6795372263163015e-04</value>
          <splits>
            <_><var>67</var>
              <quality>6.7302562296390533e-02</quality>
              <le>-2.3806300163269043e+00</le></_></splits></_>
        <_>
          <depth>1</depth>
          <value>-4.7935209659794348e-01</value></_>
        <_>
          <depth>1</depth>
          <value>1.6070914250787349e-01</value></_></nodes></_>
    <_>
      <nodes>
        <_>
          <depth>0</depth>
          <value>-7.5319222979243232e-03</value>
          <splits>
            <_><var>0</var>
              <quality>7.9025767743587494e-02</quality>
              <le>3.2898998260498047e+00</le></_></splits></_>
        <_>
          <depth>1</depth>
          <value>-2.0634668646966992e-01</value></_>
        <_>
          <depth>1</depth>
          <value>4.4378257961347767e-01</value></_></nodes></_>
    <_>
      <nodes>
        <_>
          <depth>0</depth>
          <value>5.2854843187667032e-03</value>
          <splits>
            <_><var>83</var>
              <quality>6.9534599781036377e-02</quality>
              <le>3.2202799320220947e+00</le></_></splits></_>
        <_>
          <depth>1</depth>
          <value>1.1882283457165460e-01</value></_>
        <_>
          <depth>1</depth>
          <value>-7.6212674893621013e-01</value></_></nodes></_></trees></opencv_ml_boost>
</opencv_storage>
