<?xml version="1.0"?>
<opencv_storage>
<opencv_ml_boost>
  <format>3</format>
  <is_classifier>1</is_classifier>
  <var_all>137</var_all>
  <var_count>136</var_count>
  <ord_var_count>136</ord_var_count>
  <cat_var_count>1</cat_var_count>
  <training_params>
    <boosting_type>RealAdaboost</boosting_type>
    <use_surrogates>0</use_surrogates>
    <max_categories>10</max_categories>
    <regression_accuracy>9.9999997764825821e-03</regression_accuracy>
    <max_depth>1</max_depth>
    <min_sample_count>10</min_sample_count>
    <cross_validation_folds>0</cross_validation_folds>
    <weight_trimming_rate>9.4999999999999996e-01</weight_trimming_rate></training_params>
  <global_var_idx>1</global_var_idx>
  <var_idx>
    0 1 2 3 4 5 6 7 8 9 10 11 12 13 14 15 16 17 18 19 20 21 22 23 24 25
    26 27 28 29 30 31 32 33 34 35 36 37 38 39 40 41 42 43 44 45 46 47 48
    49 50 51 52 53 54 55 56 57 58 59 60 61 62 63 64 65 66 67 68 69 70 71
    72 73 74 75 76 77 78 79 80 81 82 83 84 85 86 87 88 89 90 91 92 93 94
    95 96 97 98 99 100 101 102 103 104 105 106 107 108 109 110 111 112
    113 114 115 116 117 118 119 120 121 122 123 124 125 126 127 128 129
    130 131 132 133 134 135</var_idx>
  <var_type>
    0 0 0 0 0 0 0 0 0 0 0 0 0 0 0 0 0 0 0 0 0 0 0 0 0 0 0 0 0 0 0 0 0 0
    0 0 0 0 0 0 0 0 0 0 0 0 0 0 0 0 0 0 0 0 0 0 0 0 0 0 0 0 0 0 0 0 0 0
    0 0 0 0 0 0 0 0 0 0 0 0 0 0 0 0 0 0 0 0 0 0 0 0 0 0 0 0 0 0 0 0 0 0
    0 0 0 0 0 0 0 0 0 0 0 0 0 0 0 0 0 0 0 0 0 0 0 0 0 0 0 0 0 0 0 0 0 0
    1</var_type>
  <cat_ofs>
    0 0 0 0 0 0 0 0 0 0 0 0 0 0 0 0 0 0 0 0 0 0 0 0 0 0 0 0 0 0 0 0 0 0
    0 0 0 0 0 0 0 0 0 0 0 0 0 0 0 0 0 0 0 0 0 0 0 0 0 0 0 0 0 0 0 0 0 0
    0 0 0 0 0 0 0 0 0 0 0 0 0 0 0 0 0 0 0 0 0 0 0 0 0 0 0 0 0 0 0 0 0 0
    0 0 0 0 0 0 0 0 0 0 0 0 0 0 0 0 0 0 0 0 0 0 0 0 0 0 0 0 0 0 0 0 0 0
    0 0 0 0 0 0 0 0 0 0 0 0 0 0 0 0 0 0 0 0 0 0 0 0 0 0 0 0 0 0 0 0 0 0
    0 0 0 0 0 0 0 0 0 0 0 0 0 0 0 0 0 0 0 0 0 0 0 0 0 0 0 0 0 0 0 0 0 0
    0 0 0 0 0 0 0 0 0 0 0 0 0 0 0 0 0 0 0 0 0 0 0 0 0 0 0 0 0 0 0 0 0 0
    0 0 0 0 0 0 0 0 0 0 0 0 0 0 0 0 0 0 0 0 0 0 0 0 0 0 0 0 0 0 0 0 0 0</cat_ofs>
  <class_labels>
    -1 1</class_labels>
  <missing_subst>
    0. 0. 0. 0. 0. 0. 0. 0. 0. 0. 0. 0. 0. 0. 0. 0. 0. 0. 0. 0. 0. 0. 0.
    0. 0. 0. 0. 0. 0. 0. 0. 0. 0. 0. 0. 0. 0. 0. 0. 0. 0. 0. 0. 0. 0. 0.
    0. 0. 0. 0. 0. 0. 0. 0. 0. 0. 0. 0. 0. 0. 0. 0. 0. 0. 0. 0. 0. 0. 0.
    0. 0. 0. 0. 0. 0. 0. 0. 0. 0. 0. 0. 0. 0. 0. 0. 0. 0. 0. 0. 0. 0. 0.
    0. 0. 0. 0. 0. 0. 0. 0. 0. 0. 0. 0. 0. 0. 0. 0. 0. 0. 0. 0. 0. 0. 0.
    0. 0. 0. 0. 0. 0. 0. 0. 0. 0. 0. 0. 0. 0. 0. 0. 0. 0. 0. 0. 0. 0.</missing_subst>
  <ntrees>100</ntrees>
  <trees>
    <_>
      <nodes>
        <_>
          <depth>0</depth>
          <value>-9.9063647489838313e-01</value>
          <splits>
            <_><var>42</var>
              <quality>7.1023362874984741e-01</quality>
              <le>-2.5858001708984375e+00</le></_></splits></_>
        <_>
          <depth>1</depth>
          <value>1.1725365498226328e-01</value></_>
        <_>
          <depth>1</depth>
          <value>-1.5478769436398452e+00</value></_></nodes></_>
    <_>
      <nodes>
        <_>
          <depth>0</depth>
          <value>7.6623412582825858e-09</value>
          <splits>
            <_><var>45</var>
              <quality>2.9508522152900696e-01</quality>
              <le>-7.2268301248550415e-01</le></_></splits></_>
        <_>
          <depth>1</depth>
          <value>4.5331872629600839e-01</value></_>
        <_>
          <depth>1</depth>
          <value>-8.5743608831621643e-01</value></_></nodes></_>
    <_>
      <nodes>
        <_>
          <depth>0</depth>
          <value>-1.4151022595984048e-09</value>
          <splits>
            <_><var>105</var>
              <quality>2.6454436779022217e-01</quality>
              <le>-8.3791351318359375e-01</le></_></splits></_>
        <_>
          <depth>1</depth>
          <value>6.9309577191623750e-01</value></_>
        <_>
          <depth>1</depth>
          <value>-4.7338650526409748e-01</value></_></nodes></_>
    <_>
      <nodes>
        <_>
          <depth>0</depth>
          <value>5.7724971136279950e-09</value>
          <splits>
            <_><var>98</var>
              <quality>2.0718926191329956e-01</quality>
              <le>-5.8620452880859375e-01</le></_></splits></_>
        <_>
          <depth>1</depth>
          <value>5.4361411317584374e-01</value></_>
        <_>
          <depth>1</depth>
          <value>-4.4521427024119314e-01</value></_></nodes></_>
    <_>
      <nodes>
        <_>
          <depth>0</depth>
          <value>4.8299785215223545e-02</value>
          <splits>
            <_><var>0</var>
              <quality>1.9856053590774536e-01</quality>
              <le>2.2505199909210205e+00</le></_></splits></_>
        <_>
          <depth>1</depth>
          <value>-3.4514116895349639e-01</value></_>
        <_>
          <depth>1</depth>
          <value>6.7677773059607071e-01</value></_></nodes></_>
    <_>
      <nodes>
        <_>
          <depth>0</depth>
          <value>3.2668932985648533e-03</value>
          <splits>
            <_><var>113</var>
              <quality>1.8855939805507660e-01</quality>
              <le>-4.2782549858093262e+00</le></_></splits></_>
        <_>
          <depth>1</depth>
          <value>-8.9184901217970614e-01</value></_>
        <_>
          <depth>1</depth>
          <value>2.8697255964388735e-01</value></_></nodes></_>
    <_>
      <nodes>
        <_>
          <depth>0</depth>
          <value>-3.4407725950674297e-03</value>
          <splits>
            <_><var>104</var>
              <quality>1.6692590713500977e-01</quality>
              <le>-1.9783800840377808e-01</le></_></splits></_>
        <_>
          <depth>1</depth>
          <value>-5.2510019568838351e-01</value></_>
        <_>
          <depth>1</depth>
          <value>3.8064693439295361e-01</value></_></nodes></_>
    <_>
      <nodes>
        <_>
          <depth>0</depth>
          <value>-3.7061886281439020e-02</value>
          <splits>
            <_><var>45</var>
              <quality>1.0112768411636353e-01</quality>
              <le>-3.0737249851226807e+00</le></_></splits></_>
        <_>
          <depth>1</depth>
          <value>2.8693037254109444e-01</value></_>
        <_>
          <depth>1</depth>
          <value>-3.7892139822798249e-01</value></_></nodes></_>
    <_>
      <nodes>
        <_>
          <depth>0</depth>
          <value>7.0611138387447414e-04</value>
          <splits>
            <_><var>63</var>
              <quality>1.2363617122173309e-01</quality>
              <le>4.6181697845458984e+00</le></_></splits></_>
        <_>
          <depth>1</depth>
          <value>1.7251914732941295e-01</value></_>
        <_>
          <depth>1</depth>
          <value>-9.5675341337930842e-01</value></_></nodes></_>
    <_>
      <nodes>
        <_>
          <depth>0</depth>
          <value>3.4671451476487023e-03</value>
          <splits>
            <_><var>75</var>
              <quality>1.2226925790309906e-01</quality>
              <le>-1.0736849308013916e+00</le></_></splits></_>
        <_>
          <depth>1</depth>
          <value>3.4454836937141498e-01</value></_>
        <_>
          <depth>1</depth>
          <value>-4.0122638953870265e-01</value></_></nodes></_>
    <_>
      <nodes>
        <_>
          <depth>0</depth>
          <value>1.9754791160940758e-02</value>
          <splits>
            <_><var>116</var>
              <quality>9.0491116046905518e-02</quality>
              <le>-1.3667349815368652e+00</le></_></splits></_>
        <_>
          <depth>1</depth>
          <value>4.1238527554209392e-01</value></_>
        <_>
          <depth>1</depth>
          <value>-2.4050831506332754e-01</value></_></nodes></_>
    <_>
      <nodes>
        <_>
          <depth>0</depth>
          <value>4.1257110707658869e-03</value>
          <splits>
            <_><var>96</var>
              <quality>8.3604633808135986e-02</quality>
              <le>-5.2501497268676758e+00</le></_></splits></_>
        <_>
          <depth>1</depth>
          <value>-1.1483840872420978e+00</value></_>
        <_>
          <depth>1</depth>
          <value>1.1156082073673690e-01</value></_></nodes></_>
    <_>
      <nodes>
        <_>
          <depth>0</depth>
          <value>-4.1565570232044106e-03</value>
          <splits>
            <_><var>101</var>
              <quality>8.2130365073680878e-02</quality>
              <le>-3.7663249969482422e+00</le></_></splits></_>
        <_>
          <depth>1</depth>
          <value>6.3409784627444377e-01</value></_>
        <_>
          <depth>1</depth>
          <value>-1.5836891545959678e-01</value></_></nodes></_>
    <_>
      <nodes>
        <_>
          <depth>0</depth>
          <value>2.2505476528856343e-03</value>
          <splits>
            <_><var>115</var>
              <quality>1.1070233583450317e-01</quality>
              <le>5.5626249313354492e+00</le></_></splits></_>
        <_>
          <depth>1</depth>
          <value>-2.3970069142496331e-01</value></_>
        <_>
          <depth>1</depth>
          <value>5.3995372254738727e-01</value></_></nodes></_>
    <_>
      <nodes>
        <_>
          <depth>0</depth>
          <value>7.6968115460011892e-03</value>
          <splits>
            <_><var>44</var>
              <quality>8.0884039402008057e-02</quality>
              <le>-3.0660250782966614e-01</le></_></splits></_>
        <_>
          <depth>1</depth>
          <value>-7.7298546758755449e-01</value></_>
        <_>
          <depth>1</depth>
          <value>1.3815832207190654e-01</value></_></nodes></_>
    <_>
      <nodes>
        <_>
          <depth>0</depth>
          <value>5.3161698629846871e-03</value>
          <splits>
            <_><var>71</var>
              <quality>7.9780891537666321e-02</quality>
              <le>5.2112650871276855e+00</le></_></splits></_>
        <_>
          <depth>1</depth>
          <value>1.3365937655552426e-01</value></_>
        <_>
          <depth>1</depth>
          <value>-7.8021589189511564e-01</value></_></nodes></_>
    <_>
      <nodes>
        <_>
          <depth>0</depth>
          <value>-9.4850022481936785e-03</value>
          <splits>
            <_><var>117</var>
              <quality>6.9628849625587463e-02</quality>
              <le>1.4984649658203125e+01</le></_></splits></_>
        <_>
          <depth>1</depth>
          <value>-1.0885501314881396e-01</value></_>
        <_>
          <depth>1</depth>
          <value>9.2730997641358814e-01</value></_></nodes></_>
    <_>
      <nodes>
        <_>
          <depth>0</depth>
          <value>4.1820859301900798e-03</value>
          <splits>
            <_><var>0</var>
              <quality>7.5870692729949951e-02</quality>
              <le>-1.1528149843215942e+00</le></_></splits></_>
        <_>
          <depth>1</depth>
          <value>-8.7283145704091292e-01</value></_>
        <_>
          <depth>1</depth>
          <value>1.1764359163050654e-01</value></_></nodes></_>
    <_>
      <nodes>
        <_>
          <depth>0</depth>
          <value>-3.2361929023314432e-03</value>
          <splits>
            <_><var>55</var>
              <quality>8.7193809449672699e-02</quality>
              <le>-1.1464650630950928e+00</le></_></splits></_>
        <_>
          <depth>1</depth>
          <value>5.0466381129327609e-01</value></_>
        <_>
          <depth>1</depth>
          <value>-2.0159788287760075e-01</value></_></nodes></_>
    <_>
      <nodes>
        <_>
          <depth>0</depth>
          <value>1.7264760244964873e-03</value>
          <splits>
            <_><var>50</var>
              <quality>8.1451110541820526e-02</quality>
              <le>9.8819750547409058e-01</le></_></splits></_>
        <_>
          <depth>1</depth>
          <value>-2.0336652425867183e-01</value></_>
        <_>
          <depth>1</depth>
          <value>4.5425536597843569e-01</value></_></nodes></_>
    <_>
      <nodes>
        <_>
          <depth>0</depth>
          <value>6.0871211478893906e-04</value>
          <splits>
            <_><var>20</var>
              <quality>7.9381950199604034e-02</quality>
              <le>5.9498648643493652e+00</le></_></splits></_>
        <_>
          <depth>1</depth>
          <value>-8.6781097967735393e-02</value></_>
        <_>
          <depth>1</depth>
          <value>1.9357889144726830e+00</value></_></nodes></_>
    <_>
      <nodes>
        <_>
          <depth>0</depth>
          <value>-7.6530348547132546e-03</value>
          <splits>
            <_><var>116</var>
              <quality>9.2711694538593292e-02</quality>
              <le>2.2000699043273926e+00</le></_></splits></_>
        <_>
          <depth>1</depth>
          <value>1.5018166268047145e-01</value></_>
        <_>
          <depth>1</depth>
          <value>-7.4131584781157300e-01</value></_></nodes></_>
    <_>
      <nodes>
        <_>
          <depth>0</depth>
          <value>-1.7206650391664298e-03</value>
          <splits>
            <_><var>32</var>
              <quality>6.8123668432235718e-02</quality>
              <le>-2.4693299829959869e-01</le></_></splits></_>
        <_>
          <depth>1</depth>
          <value>1.6849741658790182e-01</value></_>
        <_>
          <depth>1</depth>
          <value>-4.5613682196060817e-01</value></_></nodes></_>
    <_>
      <nodes>
        <_>
          <depth>0</depth>
          <value>8.1600870976568582e-03</value>
          <splits>
            <_><var>95</var>
              <quality>6.2783077359199524e-02</quality>
              <le>5.1395797729492188e-01</le></_></splits></_>
        <_>
          <depth>1</depth>
          <value>-3.5854157457695890e-01</value></_>
        <_>
          <depth>1</depth>
          <value>1.9824247754232985e-01</value></_></nodes></_>
    <_>
      <nodes>
        <_>
          <depth>0</depth>
          <value>3.3985079258782168e-03</value>
          <splits>
            <_><var>18</var>
              <quality>6.6791020333766937e-02</quality>
              <le>-1.4864649772644043e+00</le></_></splits></_>
        <_>
          <depth>1</depth>
          <value>-4.4758272354714840e-01</value></_>
        <_>
          <depth>1</depth>
          <value>1.7111165571307788e-01</value></_></nodes></_>
    <_>
      <nodes>
        <_>
          <depth>0</depth>
          <value>-4.6374870954077043e-03</value>
          <splits>
            <_><var>42</var>
              <quality>6.8506926298141479e-02</quality>
              <le>-4.7167301177978516e+00</le></_></splits></_>
        <_>
          <depth>1</depth>
          <value>6.9584365440418472e-01</value></_>
        <_>
          <depth>1</depth>
          <value>-1.2417322281326076e-01</value></_></nodes></_>
    <_>
      <nodes>
        <_>
          <depth>0</depth>
          <value>2.1713531756144544e-03</value>
          <splits>
            <_><var>43</var>
              <quality>6.5541550517082214e-02</quality>
              <le>1.6973849534988403e+00</le></_></splits></_>
        <_>
          <depth>1</depth>
          <value>1.1410888678348431e-01</value></_>
        <_>
          <depth>1</depth>
          <value>-7.1993923267054405e-01</value></_></nodes></_>
    <_>
      <nodes>
        <_>
          <depth>0</depth>
          <value>-2.3167929497184426e-03</value>
          <splits>
            <_><var>40</var>
              <quality>7.4449159204959869e-02</quality>
              <le>-3.0599799156188965e+00</le></_></splits></_>
        <_>
          <depth>1</depth>
          <value>-6.4404553542099341e-01</value></_>
        <_>
          <depth>1</depth>
          <value>1.3716482066297339e-01</value></_></nodes></_>
    <_>
      <nodes>
        <_>
          <depth>0</depth>
          <value>-7.0126310896725585e-03</value>
          <splits>
            <_><var>116</var>
              <quality>6.1911158263683319e-02</quality>
              <le>4.7051200270652771e-01</le></_></splits></_>
        <_>
          <depth>1</depth>
          <value>2.0872921365280089e-01</value></_>
        <_>
          <depth>1</depth>
          <value>-3.2398720744691756e-01</value></_></nodes></_>
    <_>
      <nodes>
        <_>
          <depth>0</depth>
          <value>-2.0657814846744395e-03</value>
          <splits>
            <_><var>70</var>
              <quality>6.3294656574726105e-02</quality>
              <le>-1.9216099977493286e+00</le></_></splits></_>
        <_>
          <depth>1</depth>
          <value>-4.4391812595636576e-01</value></_>
        <_>
          <depth>1</depth>
          <value>1.5988423613634556e-01</value></_></nodes></_>
    <_>
      <nodes>
        <_>
          <depth>0</depth>
          <value>-2.7458851169446996e-03</value>
          <splits>
            <_><var>0</var>
              <quality>6.0067467391490936e-02</quality>
              <le>9.8188648223876953e+00</le></_></splits></_>
        <_>
          <depth>1</depth>
          <value>-6.6379209287334845e-02</value></_>
        <_>
          <depth>1</depth>
          <value>2.7841429610001258e+00</value></_></nodes></_>
    <_>
      <nodes>
        <_>
          <depth>0</depth>
          <value>-1.1295292619855088e-03</value>
          <splits>
            <_><var>107</var>
              <quality>5.3729370236396790e-02</quality>
              <le>8.5607748031616211e+00</le></_></splits></_>
        <_>
          <depth>1</depth>
          <value>6.7644811800421201e-02</value></_>
        <_>
          <depth>1</depth>
          <value>-1.1714101740852365e+00</value></_></nodes></_>
    <_>
      <nodes>
        <_>
          <depth>0</depth>
          <value>-8.4897572952054084e-04</value>
          <splits>
            <_><var>45</var>
              <quality>6.8598955869674683e-02</quality>
              <le>-3.5225400924682617e+00</le></_></splits></_>
        <_>
          <depth>1</depth>
          <value>2.9974122101719508e-01</value></_>
        <_>
          <depth>1</depth>
          <value>-2.5346346240278134e-01</value></_></nodes></_>
    <_>
      <nodes>
        <_>
          <depth>0</depth>
          <value>5.4874367187015254e-03</value>
          <splits>
            <_><var>115</var>
              <quality>5.8243770152330399e-02</quality>
              <le>6.8017501831054688e+00</le></_></splits></_>
        <_>
          <depth>1</depth>
          <value>-1.2898848000873928e-01</value></_>
        <_>
          <depth>1</depth>
          <value>5.0191059604569621e-01</value></_></nodes></_>
    <_>
      <nodes>
        <_>
          <depth>0</depth>
          <value>1.3713596313245481e-03</value>
          <splits>
            <_><var>101</var>
              <quality>8.0381728708744049e-02</quality>
              <le>-3.7663249969482422e+00</le></_></splits></_>
        <_>
          <depth>1</depth>
          <value>6.0734945256196149e-01</value></_>
        <_>
          <depth>1</depth>
          <value>-1.5633272156630260e-01</value></_></nodes></_>
    <_>
      <nodes>
        <_>
          <depth>0</depth>
          <value>3.1776985488232378e-03</value>
          <splits>
            <_><var>77</var>
              <quality>6.2205761671066284e-02</quality>
              <le>1.9203400611877441e+00</le></_></splits></_>
        <_>
          <depth>1</depth>
          <value>7.4622140153794175e-02</value></_>
        <_>
          <depth>1</depth>
          <value>-1.5577046691158860e+00</value></_></nodes></_>
    <_>
      <nodes>
        <_>
          <depth>0</depth>
          <value>-2.7749489737404287e-03</value>
          <splits>
            <_><var>87</var>
              <quality>6.8949587643146515e-02</quality>
              <le>-1.3321249485015869e+00</le></_></splits></_>
        <_>
          <depth>1</depth>
          <value>-3.6973328440994374e-01</value></_>
        <_>
          <depth>1</depth>
          <value>2.0690491108268827e-01</value></_></nodes></_>
    <_>
      <nodes>
        <_>
          <depth>0</depth>
          <value>-7.9688108502426469e-03</value>
          <splits>
            <_><var>16</var>
              <quality>5.5337116122245789e-02</quality>
              <le>1.7685149908065796e+00</le></_></splits></_>
        <_>
          <depth>1</depth>
          <value>-1.8619611374533532e-01</value></_>
        <_>
          <depth>1</depth>
          <value>3.3438741386770959e-01</value></_></nodes></_>
    <_>
      <nodes>
        <_>
          <depth>0</depth>
          <value>1.2726744348236668e-03</value>
          <splits>
            <_><var>108</var>
              <quality>6.1892207711935043e-02</quality>
              <le>-1.2196700572967529e+00</le></_></splits></_>
        <_>
          <depth>1</depth>
          <value>4.9472737977333453e-01</value></_>
        <_>
          <depth>1</depth>
          <value>-1.4233680605732843e-01</value></_></nodes></_>
    <_>
      <nodes>
        <_>
          <depth>0</depth>
          <value>-2.4551740117948698e-03</value>
          <splits>
            <_><var>15</var>
              <quality>5.4520815610885620e-02</quality>
              <le>1.3907299041748047e+00</le></_></splits></_>
        <_>
          <depth>1</depth>
          <value>-1.6129168726696269e-01</value></_>
        <_>
          <depth>1</depth>
          <value>3.7922229841089738e-01</value></_></nodes></_>
    <_>
      <nodes>
        <_>
          <depth>0</depth>
          <value>-1.1957525139022444e-04</value>
          <splits>
            <_><var>0</var>
              <quality>6.3138976693153381e-02</quality>
              <le>3.3517799377441406e+00</le></_></splits></_>
        <_>
          <depth>1</depth>
          <value>-1.7551467796801548e-01</value></_>
        <_>
          <depth>1</depth>
          <value>4.0325937227946312e-01</value></_></nodes></_>
    <_>
      <nodes>
        <_>
          <depth>0</depth>
          <value>4.0095193529830070e-03</value>
          <splits>
            <_><var>8</var>
              <quality>7.4245437979698181e-02</quality>
              <le>1.2267999649047852e+00</le></_></splits></_>
        <_>
          <depth>1</depth>
          <value>2.3513750983045459e-01</value></_>
        <_>
          <depth>1</depth>
          <value>-3.5452796180176671e-01</value></_></nodes></_>
    <_>
      <nodes>
        <_>
          <depth>0</depth>
          <value>-2.6717762802666873e-03</value>
          <splits>
            <_><var>0</var>
              <quality>6.8101786077022552e-02</quality>
              <le>7.9869353771209717e-01</le></_></splits></_>
        <_>
          <depth>1</depth>
          <value>-3.4598005645936430e-01</value></_>
        <_>
          <depth>1</depth>
          <value>2.1786107400433660e-01</value></_></nodes></_>
    <_>
      <nodes>
        <_>
          <depth>0</depth>
          <value>2.9474306824283886e-03</value>
          <splits>
            <_><var>54</var>
              <quality>5.5158637464046478e-02</quality>
              <le>7.8155502676963806e-02</le></_></splits></_>
        <_>
          <depth>1</depth>
          <value>2.2947533833971687e-01</value></_>
        <_>
          <depth>1</depth>
          <value>-2.6382641063788148e-01</value></_></nodes></_>
    <_>
      <nodes>
        <_>
          <depth>0</depth>
          <value>-2.8197128590485092e-03</value>
          <splits>
            <_><var>54</var>
              <quality>5.4353032261133194e-02</quality>
              <le>-1.1502900123596191e+00</le></_></splits></_>
        <_>
          <depth>1</depth>
          <value>-9.8426229815260968e-01</value></_>
        <_>
          <depth>1</depth>
          <value>7.3377984184929551e-02</value></_></nodes></_>
    <_>
      <nodes>
        <_>
          <depth>0</depth>
          <value>-1.1667794978423478e-03</value>
          <splits>
            <_><var>42</var>
              <quality>6.9526307284832001e-02</quality>
              <le>-5.0004000663757324e+00</le></_></splits></_>
        <_>
          <depth>1</depth>
          <value>8.2376046429158623e-01</value></_>
        <_>
          <depth>1</depth>
          <value>-1.0951408777694548e-01</value></_></nodes></_>
    <_>
      <nodes>
        <_>
          <depth>0</depth>
          <value>1.8361913098138374e-03</value>
          <splits>
            <_><var>43</var>
              <quality>5.9837959706783295e-02</quality>
              <le>3.1138100624084473e+00</le></_></splits></_>
        <_>
          <depth>1</depth>
          <value>9.2381052155094581e-02</value></_>
        <_>
          <depth>1</depth>
          <value>-8.5914400998378060e-01</value></_></nodes></_>
    <_>
      <nodes>
        <_>
          <depth>0</depth>
          <value>-2.3662930610589910e-03</value>
          <splits>
            <_><var>36</var>
              <quality>8.0518260598182678e-02</quality>
              <le>1.2331550121307373e+00</le></_></splits></_>
        <_>
          <depth>1</depth>
          <value>-1.9097937762565986e-01</value></_>
        <_>
          <depth>1</depth>
          <value>4.8784733668890939e-01</value></_></nodes></_>
    <_>
      <nodes>
        <_>
          <depth>0</depth>
          <value>1.6570064148969537e-03</value>
          <splits>
            <_><var>118</var>
              <quality>5.8916758745908737e-02</quality>
              <le>-2.8315448760986328e+00</le></_></splits></_>
        <_>
          <depth>1</depth>
          <value>5.5132618241169540e-01</value></_>
        <_>
          <depth>1</depth>
          <value>-1.2303917914766503e-01</value></_></nodes></_>
    <_>
      <nodes>
        <_>
          <depth>0</depth>
          <value>1.3944546556532472e-03</value>
          <splits>
            <_><var>39</var>
              <quality>5.8944355696439743e-02</quality>
              <le>-5.1816301345825195e+00</le></_></splits></_>
        <_>
          <depth>1</depth>
          <value>3.3024887964492761e-01</value></_>
        <_>
          <depth>1</depth>
          <value>-1.9663581662531732e-01</value></_></nodes></_>
    <_>
      <nodes>
        <_>
          <depth>0</depth>
          <value>3.1503885714511109e-03</value>
          <splits>
            <_><var>35</var>
              <quality>6.6268242895603180e-02</quality>
              <le>-5.6281547546386719e+00</le></_></splits></_>
        <_>
          <depth>1</depth>
          <value>-6.7286171780795512e-01</value></_>
        <_>
          <depth>1</depth>
          <value>1.2197807801263769e-01</value></_></nodes></_>
    <_>
      <nodes>
        <_>
          <depth>0</depth>
          <value>-5.3809342287180068e-03</value>
          <splits>
            <_><var>126</var>
              <quality>6.5246611833572388e-02</quality>
              <le>2.5579050183296204e-01</le></_></splits></_>
        <_>
          <depth>1</depth>
          <value>-2.7545117176960737e-01</value></_>
        <_>
          <depth>1</depth>
          <value>2.6116040451296746e-01</value></_></nodes></_>
    <_>
      <nodes>
        <_>
          <depth>0</depth>
          <value>3.9597506287814945e-03</value>
          <splits>
            <_><var>123</var>
              <quality>5.5958773940801620e-02</quality>
              <le>-6.1403446197509766e+00</le></_></splits></_>
        <_>
          <depth>1</depth>
          <value>-8.0429244271943412e-01</value></_>
        <_>
          <depth>1</depth>
          <value>9.2061123449228288e-02</value></_></nodes></_>
    <_>
      <nodes>
        <_>
          <depth>0</depth>
          <value>-4.0976134656410144e-03</value>
          <splits>
            <_><var>65</var>
              <quality>5.1879435777664185e-02</quality>
              <le>4.0769901275634766e+00</le></_></splits></_>
        <_>
          <depth>1</depth>
          <value>8.7971785161633370e-02</value></_>
        <_>
          <depth>1</depth>
          <value>-6.9087989559091667e-01</value></_></nodes></_>
    <_>
      <nodes>
        <_>
          <depth>0</depth>
          <value>-2.8524798973432893e-03</value>
          <splits>
            <_><var>31</var>
              <quality>6.0247719287872314e-02</quality>
              <le>8.6828651428222656e+00</le></_></splits></_>
        <_>
          <depth>1</depth>
          <value>-6.7666981777141616e-02</value></_>
        <_>
          <depth>1</depth>
          <value>2.2305030198414757e+00</value></_></nodes></_>
    <_>
      <nodes>
        <_>
          <depth>0</depth>
          <value>-9.3355190691613683e-04</value>
          <splits>
            <_><var>83</var>
              <quality>5.6004092097282410e-02</quality>
              <le>4.0315899848937988e+00</le></_></splits></_>
        <_>
          <depth>1</depth>
          <value>6.9633349907067987e-02</value></_>
        <_>
          <depth>1</depth>
          <value>-1.2134863326297143e+00</value></_></nodes></_>
    <_>
      <nodes>
        <_>
          <depth>0</depth>
          <value>-3.2410147130317968e-03</value>
          <splits>
            <_><var>116</var>
              <quality>6.0352478176355362e-02</quality>
              <le>-3.2672500610351563e+00</le></_></splits></_>
        <_>
          <depth>1</depth>
          <value>8.4136770446017239e-01</value></_>
        <_>
          <depth>1</depth>
          <value>-9.5626769018207616e-02</value></_></nodes></_>
    <_>
      <nodes>
        <_>
          <depth>0</depth>
          <value>1.4556169727595067e-03</value>
          <splits>
            <_><var>83</var>
              <quality>6.9348029792308807e-02</quality>
              <le>7.6796352863311768e-01</le></_></splits></_>
        <_>
          <depth>1</depth>
          <value>-3.7832158390754606e-01</value></_>
        <_>
          <depth>1</depth>
          <value>2.0558863744352335e-01</value></_></nodes></_>
    <_>
      <nodes>
        <_>
          <depth>0</depth>
          <value>5.4899088726190681e-03</value>
          <splits>
            <_><var>104</var>
              <quality>4.8781577497720718e-02</quality>
              <le>-2.2065348625183105e+00</le></_></splits></_>
        <_>
          <depth>1</depth>
          <value>-6.6154897080699282e-01</value></_>
        <_>
          <depth>1</depth>
          <value>9.3503842264623535e-02</value></_></nodes></_>
    <_>
      <nodes>
        <_>
          <depth>0</depth>
          <value>-1.6146222585061217e-03</value>
          <splits>
            <_><var>50</var>
              <quality>5.0597112625837326e-02</quality>
              <le>9.2576599121093750e-01</le></_></splits></_>
        <_>
          <depth>1</depth>
          <value>-1.7957820346634445e-01</value></_>
        <_>
          <depth>1</depth>
          <value>3.1051585160871675e-01</value></_></nodes></_>
    <_>
      <nodes>
        <_>
          <depth>0</depth>
          <value>-1.7407650920344587e-06</value>
          <splits>
            <_><var>88</var>
              <quality>5.5752601474523544e-02</quality>
              <le>-5.1570898294448853e-01</le></_></splits></_>
        <_>
          <depth>1</depth>
          <value>5.3249481493245188e-01</value></_>
        <_>
          <depth>1</depth>
          <value>-1.2103145469370769e-01</value></_></nodes></_>
    <_>
      <nodes>
        <_>
          <depth>0</depth>
          <value>-7.0133467988291143e-04</value>
          <splits>
            <_><var>122</var>
              <quality>4.8080354928970337e-02</quality>
              <le>4.0672397613525391e+00</le></_></splits></_>
        <_>
          <depth>1</depth>
          <value>5.2569973672231478e-02</value></_>
        <_>
          <depth>1</depth>
          <value>-1.8501645009477978e+00</value></_></nodes></_>
    <_>
      <nodes>
        <_>
          <depth>0</depth>
          <value>-4.0584125472829390e-04</value>
          <splits>
            <_><var>16</var>
              <quality>5.9659179300069809e-02</quality>
              <le>1.7685149908065796e+00</le></_></splits></_>
        <_>
          <depth>1</depth>
          <value>-1.8756215888214348e-01</value></_>
        <_>
          <depth>1</depth>
          <value>3.5306055285524068e-01</value></_></nodes></_>
    <_>
      <nodes>
        <_>
          <depth>0</depth>
          <value>2.4989124808203893e-04</value>
          <splits>
            <_><var>87</var>
              <quality>5.8151718229055405e-02</quality>
              <le>-4.9826803207397461e+00</le></_></splits></_>
        <_>
          <depth>1</depth>
          <value>-1.6406309635913541e+00</value></_>
        <_>
          <depth>1</depth>
          <value>6.6326577967620801e-02</value></_></nodes></_>
    <_>
      <nodes>
        <_>
          <depth>0</depth>
          <value>-2.1525880732095764e-03</value>
          <splits>
            <_><var>45</var>
              <quality>6.3201315701007843e-02</quality>
              <le>-4.0359148979187012e+00</le></_></splits></_>
        <_>
          <depth>1</depth>
          <value>3.4056848475159707e-01</value></_>
        <_>
          <depth>1</depth>
          <value>-2.0658147199800070e-01</value></_></nodes></_>
    <_>
      <nodes>
        <_>
          <depth>0</depth>
          <value>3.0352506878852797e-03</value>
          <splits>
            <_><var>95</var>
              <quality>5.5353537201881409e-02</quality>
              <le>5.3985700607299805e+00</le></_></splits></_>
        <_>
          <depth>1</depth>
          <value>-5.8698271687879743e-02</value></_>
        <_>
          <depth>1</depth>
          <value>1.8111832906126459e+00</value></_></nodes></_>
    <_>
      <nodes>
        <_>
          <depth>0</depth>
          <value>-3.1731543821478508e-03</value>
          <splits>
            <_><var>71</var>
              <quality>7.3313221335411072e-02</quality>
              <le>5.3456296920776367e+00</le></_></splits></_>
        <_>
          <depth>1</depth>
          <value>8.9071382993711035e-02</value></_>
        <_>
          <depth>1</depth>
          <value>-1.2278655823624227e+00</value></_></nodes></_>
    <_>
      <nodes>
        <_>
          <depth>0</depth>
          <value>-2.1356413194356513e-03</value>
          <splits>
            <_><var>116</var>
              <quality>6.5495505928993225e-02</quality>
              <le>4.7348749637603760e-01</le></_></splits></_>
        <_>
          <depth>1</depth>
          <value>2.0408558917525996e-01</value></_>
        <_>
          <depth>1</depth>
          <value>-3.5527147068670795e-01</value></_></nodes></_>
    <_>
      <nodes>
        <_>
          <depth>0</depth>
          <value>-2.2368258813013457e-03</value>
          <splits>
            <_><var>64</var>
              <quality>5.3498234599828720e-02</quality>
              <le>-7.1732354164123535e-01</le></_></splits></_>
        <_>
          <depth>1</depth>
          <value>-5.9803710436422786e-01</value></_>
        <_>
          <depth>1</depth>
          <value>1.0370897012388443e-01</value></_></nodes></_>
    <_>
      <nodes>
        <_>
          <depth>0</depth>
          <value>-2.5593414078824749e-03</value>
          <splits>
            <_><var>132</var>
              <quality>5.8863542973995209e-02</quality>
              <le>-1.4517400264739990e+00</le></_></splits></_>
        <_>
          <depth>1</depth>
          <value>4.8343323127562071e-01</value></_>
        <_>
          <depth>1</depth>
          <value>-1.4071100668460923e-01</value></_></nodes></_>
    <_>
      <nodes>
        <_>
          <depth>0</depth>
          <value>2.1234627741258122e-04</value>
          <splits>
            <_><var>130</var>
              <quality>6.1783172190189362e-02</quality>
              <le>1.9342049956321716e-01</le></_></splits></_>
        <_>
          <depth>1</depth>
          <value>-2.8001179315006020e-01</value></_>
        <_>
          <depth>1</depth>
          <value>2.4301491245063897e-01</value></_></nodes></_>
    <_>
      <nodes>
        <_>
          <depth>0</depth>
          <value>2.3893952835018903e-03</value>
          <splits>
            <_><var>96</var>
              <quality>4.6747032552957535e-02</quality>
              <le>-5.9835448265075684e+00</le></_></splits></_>
        <_>
          <depth>1</depth>
          <value>-1.4304885556813915e+00</value></_>
        <_>
          <depth>1</depth>
          <value>5.7483409066350646e-02</value></_></nodes></_>
    <_>
      <nodes>
        <_>
          <depth>0</depth>
          <value>4.7232106053093578e-04</value>
          <splits>
            <_><var>115</var>
              <quality>5.5836208164691925e-02</quality>
              <le>5.5218200683593750e+00</le></_></splits></_>
        <_>
          <depth>1</depth>
          <value>-1.3336849686682736e-01</value></_>
        <_>
          <depth>1</depth>
          <value>4.7497040394256679e-01</value></_></nodes></_>
    <_>
      <nodes>
        <_>
          <depth>0</depth>
          <value>4.9477205213999478e-04</value>
          <splits>
            <_><var>71</var>
              <quality>5.8350626379251480e-02</quality>
              <le>1.2490699291229248e+00</le></_></splits></_>
        <_>
          <depth>1</depth>
          <value>1.4343122408734701e-01</value></_>
        <_>
          <depth>1</depth>
          <value>-4.6256416809910988e-01</value></_></nodes></_>
    <_>
      <nodes>
        <_>
          <depth>0</depth>
          <value>-1.1576434595314913e-03</value>
          <splits>
            <_><var>93</var>
              <quality>8.6314313113689423e-02</quality>
              <le>5.8692902326583862e-02</le></_></splits></_>
        <_>
          <depth>1</depth>
          <value>-3.9579985414220165e-01</value></_>
        <_>
          <depth>1</depth>
          <value>2.4588349965228906e-01</value></_></nodes></_>
    <_>
      <nodes>
        <_>
          <depth>0</depth>
          <value>4.9119169155120550e-04</value>
          <splits>
            <_><var>116</var>
              <quality>5.9144381433725357e-02</quality>
              <le>-3.7737400531768799e+00</le></_></splits></_>
        <_>
          <depth>1</depth>
          <value>8.7494718851328557e-01</value></_>
        <_>
          <depth>1</depth>
          <value>-8.8258835335129182e-02</value></_></nodes></_>
    <_>
      <nodes>
        <_>
          <depth>0</depth>
          <value>1.6696419059028908e-03</value>
          <splits>
            <_><var>18</var>
              <quality>5.1539432257413864e-02</quality>
              <le>-1.9462100267410278e+00</le></_></splits></_>
        <_>
          <depth>1</depth>
          <value>-4.8311138112876750e-01</value></_>
        <_>
          <depth>1</depth>
          <value>1.2273065907349824e-01</value></_></nodes></_>
    <_>
      <nodes>
        <_>
          <depth>0</depth>
          <value>-3.1834557029841773e-03</value>
          <splits>
            <_><var>33</var>
              <quality>5.1446434110403061e-02</quality>
              <le>-1.3447299003601074e+00</le></_></splits></_>
        <_>
          <depth>1</depth>
          <value>-4.2481566594114212e-01</value></_>
        <_>
          <depth>1</depth>
          <value>1.3372739074614928e-01</value></_></nodes></_>
    <_>
      <nodes>
        <_>
          <depth>0</depth>
          <value>-2.1760953457975766e-03</value>
          <splits>
            <_><var>45</var>
              <quality>4.9951367080211639e-02</quality>
              <le>-3.9967799186706543e+00</le></_></splits></_>
        <_>
          <depth>1</depth>
          <value>2.9751393906457896e-01</value></_>
        <_>
          <depth>1</depth>
          <value>-1.8481352731605682e-01</value></_></nodes></_>
    <_>
      <nodes>
        <_>
          <depth>0</depth>
          <value>2.3918333693983907e-03</value>
          <splits>
            <_><var>105</var>
              <quality>7.0035994052886963e-02</quality>
              <le>-2.0975499153137207e+00</le></_></splits></_>
        <_>
          <depth>1</depth>
          <value>4.0831982350760454e-01</value></_>
        <_>
          <depth>1</depth>
          <value>-1.9158759283433949e-01</value></_></nodes></_>
    <_>
      <nodes>
        <_>
          <depth>0</depth>
          <value>1.0323085377622894e-03</value>
          <splits>
            <_><var>80</var>
              <quality>5.4988570511341095e-02</quality>
              <le>4.8227298259735107e-01</le></_></splits></_>
        <_>
          <depth>1</depth>
          <value>1.9586918296102859e-01</value></_>
        <_>
          <depth>1</depth>
          <value>-3.0937560235746753e-01</value></_></nodes></_>
    <_>
      <nodes>
        <_>
          <depth>0</depth>
          <value>-4.3335988550819758e-03</value>
          <splits>
            <_><var>0</var>
              <quality>6.7022450268268585e-02</quality>
              <le>1.5667350292205811e+00</le></_></splits></_>
        <_>
          <depth>1</depth>
          <value>-2.8746940577689578e-01</value></_>
        <_>
          <depth>1</depth>
          <value>2.5723480500935092e-01</value></_></nodes></_>
    <_>
      <nodes>
        <_>
          <depth>0</depth>
          <value>3.5044350963843785e-03</value>
          <splits>
            <_><var>115</var>
              <quality>6.3631229102611542e-02</quality>
              <le>4.1863250732421875e-01</le></_></splits></_>
        <_>
          <depth>1</depth>
          <value>-2.9526291208275840e-01</value></_>
        <_>
          <depth>1</depth>
          <value>2.3852024356780241e-01</value></_></nodes></_>
    <_>
      <nodes>
        <_>
          <depth>0</depth>
          <value>1.8921638462447649e-03</value>
          <splits>
            <_><var>81</var>
              <quality>5.9393916279077530e-02</quality>
              <le>-8.5445404052734375e-01</le></_></splits></_>
        <_>
          <depth>1</depth>
          <value>6.3599156259282730e-01</value></_>
        <_>
          <depth>1</depth>
          <value>-1.1014131679019706e-01</value></_></nodes></_>
    <_>
      <nodes>
        <_>
          <depth>0</depth>
          <value>-2.6927811290581275e-03</value>
          <splits>
            <_><var>14</var>
              <quality>5.2995234727859497e-02</quality>
              <le>-4.1117849946022034e-01</le></_></splits></_>
        <_>
          <depth>1</depth>
          <value>-3.4012986633020043e-01</value></_>
        <_>
          <depth>1</depth>
          <value>1.7064886702732052e-01</value></_></nodes></_>
    <_>
      <nodes>
        <_>
          <depth>0</depth>
          <value>-1.0983714268219178e-03</value>
          <splits>
            <_><var>116</var>
              <quality>5.0885993987321854e-02</quality>
              <le>1.9681400060653687e+00</le></_></splits></_>
        <_>
          <depth>1</depth>
          <value>1.1178687805083690e-01</value></_>
        <_>
          <depth>1</depth>
          <value>-5.1991173050614770e-01</value></_></nodes></_>
    <_>
      <nodes>
        <_>
          <depth>0</depth>
          <value>-1.1899664326342828e-03</value>
          <splits>
            <_><var>21</var>
              <quality>5.8123189955949783e-02</quality>
              <le>-2.4298801422119141e+00</le></_></splits></_>
        <_>
          <depth>1</depth>
          <value>3.1920735682074364e-01</value></_>
        <_>
          <depth>1</depth>
          <value>-2.0123722407051919e-01</value></_></nodes></_>
    <_>
      <nodes>
        <_>
          <depth>0</depth>
          <value>1.9857317444453857e-03</value>
          <splits>
            <_><var>17</var>
              <quality>5.3792148828506470e-02</quality>
              <le>5.8723449707031250e-01</le></_></splits></_>
        <_>
          <depth>1</depth>
          <value>-2.0982243842199613e-01</value></_>
        <_>
          <depth>1</depth>
          <value>2.8034332963999276e-01</value></_></nodes></_>
    <_>
      <nodes>
        <_>
          <depth>0</depth>
          <value>-2.0143247195136215e-03</value>
          <splits>
            <_><var>47</var>
              <quality>5.0073239952325821e-02</quality>
              <le>1.0880450010299683e+00</le></_></splits></_>
        <_>
          <depth>1</depth>
          <value>8.0591952784097781e-02</value></_>
        <_>
          <depth>1</depth>
          <value>-7.6062102395665609e-01</value></_></nodes></_>
    <_>
      <nodes>
        <_>
          <depth>0</depth>
          <value>9.5119675369128903e-04</value>
          <splits>
            <_><var>95</var>
              <quality>5.0146397203207016e-02</quality>
              <le>1.5797048807144165e-01</le></_></splits></_>
        <_>
          <depth>1</depth>
          <value>-3.4851677301904005e-01</value></_>
        <_>
          <depth>1</depth>
          <value>1.5941456191791312e-01</value></_></nodes></_>
    <_>
      <nodes>
        <_>
          <depth>0</depth>
          <value>1.9609376404512826e-03</value>
          <splits>
            <_><var>74</var>
              <quality>4.8087395727634430e-02</quality>
              <le>-1.7119899988174438e+00</le></_></splits></_>
        <_>
          <depth>1</depth>
          <value>-5.7564577324601141e+00</value></_>
        <_>
          <depth>1</depth>
          <value>5.2539275634896340e-02</value></_></nodes></_>
    <_>
      <nodes>
        <_>
          <depth>0</depth>
          <value>2.1385124899046218e-01</value>
          <splits>
            <_><var>74</var>
              <quality>1.9790282845497131e-01</quality>
              <le>-1.6774049997329712e+00</le></_></splits></_>
        <_>
          <depth>1</depth>
          <value>5.7564577324623896e+00</value></_>
        <_>
          <depth>1</depth>
          <value>2.8813996260113528e-03</value></_></nodes></_>
    <_>
      <nodes>
        <_>
          <depth>0</depth>
          <value>-8.0377872180494636e-02</value>
          <splits>
            <_><var>74</var>
              <quality>7.3964610695838928e-02</quality>
              <le>-1.4193400144577026e+00</le></_></splits></_>
        <_>
          <depth>1</depth>
          <value>-1.6660892327134447e+00</value></_>
        <_>
          <depth>1</depth>
          <value>3.7658510774550200e-03</value></_></nodes></_>
    <_>
      <nodes>
        <_>
          <depth>0</depth>
          <value>6.0464909812997219e-03</value>
          <splits>
            <_><var>118</var>
              <quality>5.2370145916938782e-02</quality>
              <le>-1.3353850841522217e+00</le></_></splits></_>
        <_>
          <depth>1</depth>
          <value>3.3524335107490782e-01</value></_>
        <_>
          <depth>1</depth>
          <value>-1.6926225955578153e-01</value></_></nodes></_>
    <_>
      <nodes>
        <_>
          <depth>0</depth>
          <value>1.6754792419772307e-03</value>
          <splits>
            <_><var>42</var>
              <quality>4.3523501604795456e-02</quality>
              <le>-4.8561897277832031e+00</le></_></splits></_>
        <_>
          <depth>1</depth>
          <value>6.9165079785604822e-01</value></_>
        <_>
          <depth>1</depth>
          <value>-7.5164454875750936e-02</value></_></nodes></_>
    <_>
      <nodes>
        <_>
          <depth>0</depth>
          <value>-8.5259314563637071e-04</value>
          <splits>
            <_><var>101</var>
              <quality>5.5263407528400421e-02</quality>
              <le>-3.7640550136566162e+00</le></_></splits></_>
        <_>
          <depth>1</depth>
          <value>4.9224323219785082e-01</value></_>
        <_>
          <depth>1</depth>
          <value>-1.2890951663193939e-01</value></_></nodes></_>
    <_>
      <nodes>
        <_>
          <depth>0</depth>
          <value>1.8986976806464361e-03</value>
          <splits>
            <_><var>55</var>
              <quality>5.3670048713684082e-02</quality>
              <le>-1.3391699790954590e+00</le></_></splits></_>
        <_>
          <depth>1</depth>
          <value>4.4222443455894617e-01</value></_>
        <_>
          <depth>1</depth>
          <value>-1.3554804197439974e-01</value></_></nodes></_>
    <_>
      <nodes>
        <_>
          <depth>0</depth>
          <value>5.0099394489531014e-04</value>
          <splits>
            <_><var>35</var>
              <quality>4.5593760907649994e-02</quality>
              <le>-2.5465998649597168e+00</le></_></splits></_>
        <_>
          <depth>1</depth>
          <value>-2.3372052425076723e-01</value></_>
        <_>
          <depth>1</depth>
          <value>2.1228551911080967e-01</value></_></nodes></_>
    <_>
      <nodes>
        <_>
          <depth>0</depth>
          <value>-6.8985598276354934e-03</value>
          <splits>
            <_><var>41</var>
              <quality>5.3828325122594833e-02</quality>
              <le>-5.6225597858428955e-01</le></_></splits></_>
        <_>
          <depth>1</depth>
          <value>1.2309378068814536e-01</value></_>
        <_>
          <depth>1</depth>
          <value>-4.7785066685149813e-01</value></_></nodes></_>
    <_>
      <nodes>
        <_>
          <depth>0</depth>
          <value>7.2410822857672356e-03</value>
          <splits>
            <_><var>36</var>
              <quality>4.5877899974584579e-02</quality>
              <le>2.6590399742126465e+00</le></_></splits></_>
        <_>
          <depth>1</depth>
          <value>-8.2332785264886577e-02</value></_>
        <_>
          <depth>1</depth>
          <value>6.1405965143502428e-01</value></_></nodes></_></trees></opencv_ml_boost>
</opencv_storage>
