<?xml version="1.0"?>
<opencv_storage>
<opencv_ml_boost>
  <format>3</format>
  <is_classifier>1</is_classifier>
  <var_all>137</var_all>
  <var_count>136</var_count>
  <ord_var_count>136</ord_var_count>
  <cat_var_count>1</cat_var_count>
  <training_params>
    <boosting_type>RealAdaboost</boosting_type>
    <use_surrogates>0</use_surrogates>
    <max_categories>10</max_categories>
    <regression_accuracy>9.9999997764825821e-03</regression_accuracy>
    <max_depth>1</max_depth>
    <min_sample_count>10</min_sample_count>
    <cross_validation_folds>0</cross_validation_folds>
    <weight_trimming_rate>9.4999999999999996e-01</weight_trimming_rate></training_params>
  <global_var_idx>1</global_var_idx>
  <var_idx>
    0 1 2 3 4 5 6 7 8 9 10 11 12 13 14 15 16 17 18 19 20 21 22 23 24 25
    26 27 28 29 30 31 32 33 34 35 36 37 38 39 40 41 42 43 44 45 46 47 48
    49 50 51 52 53 54 55 56 57 58 59 60 61 62 63 64 65 66 67 68 69 70 71
    72 73 74 75 76 77 78 79 80 81 82 83 84 85 86 87 88 89 90 91 92 93 94
    95 96 97 98 99 100 101 102 103 104 105 106 107 108 109 110 111 112
    113 114 115 116 117 118 119 120 121 122 123 124 125 126 127 128 129
    130 131 132 133 134 135</var_idx>
  <var_type>
    0 0 0 0 0 0 0 0 0 0 0 0 0 0 0 0 0 0 0 0 0 0 0 0 0 0 0 0 0 0 0 0 0 0
    0 0 0 0 0 0 0 0 0 0 0 0 0 0 0 0 0 0 0 0 0 0 0 0 0 0 0 0 0 0 0 0 0 0
    0 0 0 0 0 0 0 0 0 0 0 0 0 0 0 0 0 0 0 0 0 0 0 0 0 0 0 0 0 0 0 0 0 0
    0 0 0 0 0 0 0 0 0 0 0 0 0 0 0 0 0 0 0 0 0 0 0 0 0 0 0 0 0 0 0 0 0 0
    1</var_type>
  <cat_ofs>
    0 0 0 0 0 0 0 0 0 0 0 0 0 0 0 0 0 0 0 0 0 0 0 0 0 0 0 0 0 0 0 0 0 0
    0 0 0 0 0 0 0 0 0 0 0 0 0 0 0 0 0 0 0 0 0 0 0 0 0 0 0 0 0 0 0 0 0 0
    0 0 0 0 0 0 0 0 0 0 0 0 0 0 0 0 0 0 0 0 0 0 0 0 0 0 0 0 0 0 0 0 0 0
    0 0 0 0 0 0 0 0 0 0 0 0 0 0 0 0 0 0 0 0 0 0 0 0 0 0 0 0 0 0 0 0 0 0
    0 0 0 0 0 0 0 0 0 0 0 0 0 0 0 0 0 0 0 0 0 0 0 0 0 0 0 0 0 0 0 0 0 0
    0 0 0 0 0 0 0 0 0 0 0 0 0 0 0 0 0 0 0 0 0 0 0 0 0 0 0 0 0 0 0 0 0 0
    0 0 0 0 0 0 0 0 0 0 0 0 0 0 0 0 0 0 0 0 0 0 0 0 0 0 0 0 0 0 0 0 0 0
    0 0 0 0 0 0 0 0 0 0 0 0 0 0 0 0 0 0 0 0 0 0 0 0 0 0 0 0 0 0 0 0 0 0</cat_ofs>
  <class_labels>
    -1082130432 1065353216</class_labels>
  <missing_subst>
    0. 0. 0. 0. 0. 0. 0. 0. 0. 0. 0. 0. 0. 0. 0. 0. 0. 0. 0. 0. 0. 0. 0.
    0. 0. 0. 0. 0. 0. 0. 0. 0. 0. 0. 0. 0. 0. 0. 0. 0. 0. 0. 0. 0. 0. 0.
    0. 0. 0. 0. 0. 0. 0. 0. 0. 0. 0. 0. 0. 0. 0. 0. 0. 0. 0. 0. 0. 0. 0.
    0. 0. 0. 0. 0. 0. 0. 0. 0. 0. 0. 0. 0. 0. 0. 0. 0. 0. 0. 0. 0. 0. 0.
    0. 0. 0. 0. 0. 0. 0. 0. 0. 0. 0. 0. 0. 0. 0. 0. 0. 0. 0. 0. 0. 0. 0.
    0. 0. 0. 0. 0. 0. 0. 0. 0. 0. 0. 0. 0. 0. 0. 0. 0. 0. 0. 0. 0. 0.</missing_subst>
  <ntrees>100</ntrees>
  <trees>
    <_>
      <nodes>
        <_>
          <depth>0</depth>
          <value>-8.0241480467395321e-01</value>
          <splits>
            <_><var>115</var>
              <quality>8.9724278450012207e-01</quality>
              <le>-2.1025650024414063e+01</le></_></splits></_>
        <_>
          <depth>1</depth>
          <value>1.5438952089859692e+00</value></_>
        <_>
          <depth>1</depth>
          <value>-1.8676720179199466e+00</value></_></nodes></_>
    <_>
      <nodes>
        <_>
          <depth>0</depth>
          <value>-4.8246386215720212e-08</value>
          <splits>
            <_><var>49</var>
              <quality>6.6851061582565308e-01</quality>
              <le>2.0582499504089355e+00</le></_></splits></_>
        <_>
          <depth>1</depth>
          <value>-1.4427504054223235e+00</value></_>
        <_>
          <depth>1</depth>
          <value>9.6741395835662625e-01</value></_></nodes></_>
    <_>
      <nodes>
        <_>
          <depth>0</depth>
          <value>1.5227491258089889e-08</value>
          <splits>
            <_><var>8</var>
              <quality>4.3862092494964600e-01</quality>
              <le>-9.1358199715614319e-02</le></_></splits></_>
        <_>
          <depth>1</depth>
          <value>6.5001847875970120e-01</value></_>
        <_>
          <depth>1</depth>
          <value>-1.0135972564222311e+00</value></_></nodes></_>
    <_>
      <nodes>
        <_>
          <depth>0</depth>
          <value>1.3531127590711193e-08</value>
          <splits>
            <_><var>53</var>
              <quality>3.5532739758491516e-01</quality>
              <le>4.5339598655700684e+00</le></_></splits></_>
        <_>
          <depth>1</depth>
          <value>-4.5525181033273376e-01</value></_>
        <_>
          <depth>1</depth>
          <value>1.2001420183649074e+00</value></_></nodes></_>
    <_>
      <nodes>
        <_>
          <depth>0</depth>
          <value>4.6329488889772605e-02</value>
          <splits>
            <_><var>76</var>
              <quality>3.8950791954994202e-01</quality>
              <le>-1.1220850944519043e+00</le></_></splits></_>
        <_>
          <depth>1</depth>
          <value>1.1708281706780581e+00</value></_>
        <_>
          <depth>1</depth>
          <value>-5.1601497507647598e-01</value></_></nodes></_>
    <_>
      <nodes>
        <_>
          <depth>0</depth>
          <value>-1.6104388795998008e-02</value>
          <splits>
            <_><var>63</var>
              <quality>2.5286850333213806e-01</quality>
              <le>-1.6485750675201416e+00</le></_></splits></_>
        <_>
          <depth>1</depth>
          <value>-1.4612661461005079e+00</value></_>
        <_>
          <depth>1</depth>
          <value>2.8948136268714592e-01</value></_></nodes></_>
    <_>
      <nodes>
        <_>
          <depth>0</depth>
          <value>-3.7136246249374553e-02</value>
          <splits>
            <_><var>13</var>
              <quality>2.7579867839813232e-01</quality>
              <le>-7.0569353103637695e+00</le></_></splits></_>
        <_>
          <depth>1</depth>
          <value>8.8586127840151541e-01</value></_>
        <_>
          <depth>1</depth>
          <value>-4.3154124906486907e-01</value></_></nodes></_>
    <_>
      <nodes>
        <_>
          <depth>0</depth>
          <value>2.8366645868021290e-02</value>
          <splits>
            <_><var>93</var>
              <quality>2.6468843221664429e-01</quality>
              <le>6.0996948741376400e-03</le></_></splits></_>
        <_>
          <depth>1</depth>
          <value>4.0076683803423746e-01</value></_>
        <_>
          <depth>1</depth>
          <value>-9.9450673743387175e-01</value></_></nodes></_>
    <_>
      <nodes>
        <_>
          <depth>0</depth>
          <value>5.1423610406452188e-03</value>
          <splits>
            <_><var>118</var>
              <quality>1.9951713085174561e-01</quality>
              <le>3.2610900402069092e+00</le></_></splits></_>
        <_>
          <depth>1</depth>
          <value>2.6928347777600214e-01</value></_>
        <_>
          <depth>1</depth>
          <value>-1.1208137024307367e+00</value></_></nodes></_>
    <_>
      <nodes>
        <_>
          <depth>0</depth>
          <value>-2.8554769292410097e-02</value>
          <splits>
            <_><var>116</var>
              <quality>2.2049519419670105e-01</quality>
              <le>-4.9301147460937500e-01</le></_></splits></_>
        <_>
          <depth>1</depth>
          <value>-7.7485278512070543e-01</value></_>
        <_>
          <depth>1</depth>
          <value>3.4567386365907588e-01</value></_></nodes></_>
    <_>
      <nodes>
        <_>
          <depth>0</depth>
          <value>4.8263983966184776e-03</value>
          <splits>
            <_><var>120</var>
              <quality>2.0549121499061584e-01</quality>
              <le>-1.4241499900817871e+00</le></_></splits></_>
        <_>
          <depth>1</depth>
          <value>6.1143579180070140e-01</value></_>
        <_>
          <depth>1</depth>
          <value>-4.1724752589899949e-01</value></_></nodes></_>
    <_>
      <nodes>
        <_>
          <depth>0</depth>
          <value>-9.8293045200694654e-03</value>
          <splits>
            <_><var>42</var>
              <quality>2.2959202527999878e-01</quality>
              <le>-1.8816348910331726e-01</le></_></splits></_>
        <_>
          <depth>1</depth>
          <value>-7.9676123983007396e-01</value></_>
        <_>
          <depth>1</depth>
          <value>3.7042225565869574e-01</value></_></nodes></_>
    <_>
      <nodes>
        <_>
          <depth>0</depth>
          <value>1.2766761132315247e-02</value>
          <splits>
            <_><var>54</var>
              <quality>2.1968956291675568e-01</quality>
              <le>-1.2060799598693848e+00</le></_></splits></_>
        <_>
          <depth>1</depth>
          <value>1.1769710492398742e+00</value></_>
        <_>
          <depth>1</depth>
          <value>-2.7813692384186939e-01</value></_></nodes></_>
    <_>
      <nodes>
        <_>
          <depth>0</depth>
          <value>-6.5460008105143446e-03</value>
          <splits>
            <_><var>128</var>
              <quality>1.8608963489532471e-01</quality>
              <le>6.5261848270893097e-02</le></_></splits></_>
        <_>
          <depth>1</depth>
          <value>-5.4870363951993739e-01</value></_>
        <_>
          <depth>1</depth>
          <value>4.1012436129420948e-01</value></_></nodes></_>
    <_>
      <nodes>
        <_>
          <depth>0</depth>
          <value>-8.5028718489693605e-03</value>
          <splits>
            <_><var>49</var>
              <quality>1.7362764477729797e-01</quality>
              <le>1.1520150184631348e+01</le></_></splits></_>
        <_>
          <depth>1</depth>
          <value>-2.1071919271453043e-01</value></_>
        <_>
          <depth>1</depth>
          <value>1.4437002860662778e+00</value></_></nodes></_>
    <_>
      <nodes>
        <_>
          <depth>0</depth>
          <value>-3.8178403242228073e-03</value>
          <splits>
            <_><var>83</var>
              <quality>2.0214456319808960e-01</quality>
              <le>-3.5171499475836754e-03</le></_></splits></_>
        <_>
          <depth>1</depth>
          <value>4.1597869905532203e-01</value></_>
        <_>
          <depth>1</depth>
          <value>-5.8816699822567720e-01</value></_></nodes></_>
    <_>
      <nodes>
        <_>
          <depth>0</depth>
          <value>2.4107021894186873e-02</value>
          <splits>
            <_><var>105</var>
              <quality>2.0735961198806763e-01</quality>
              <le>-2.7739100456237793e+00</le></_></splits></_>
        <_>
          <depth>1</depth>
          <value>-1.1042315634790634e+00</value></_>
        <_>
          <depth>1</depth>
          <value>2.9598239252109071e-01</value></_></nodes></_>
    <_>
      <nodes>
        <_>
          <depth>0</depth>
          <value>-4.0774814338978352e-02</value>
          <splits>
            <_><var>21</var>
              <quality>2.5968417525291443e-01</quality>
              <le>-2.1936249732971191e+00</le></_></splits></_>
        <_>
          <depth>1</depth>
          <value>4.7045809327345789e-01</value></_>
        <_>
          <depth>1</depth>
          <value>-6.8361308199044235e-01</value></_></nodes></_>
    <_>
      <nodes>
        <_>
          <depth>0</depth>
          <value>2.3354230106818287e-02</value>
          <splits>
            <_><var>114</var>
              <quality>1.7746919393539429e-01</quality>
              <le>9.6475994586944580e-01</le></_></splits></_>
        <_>
          <depth>1</depth>
          <value>2.7901003960406873e-01</value></_>
        <_>
          <depth>1</depth>
          <value>-9.1941366433101257e-01</value></_></nodes></_>
    <_>
      <nodes>
        <_>
          <depth>0</depth>
          <value>-5.7478166264256494e-03</value>
          <splits>
            <_><var>17</var>
              <quality>1.7526072263717651e-01</quality>
              <le>-1.3676849365234375e+01</le></_></splits></_>
        <_>
          <depth>1</depth>
          <value>1.4488440204628952e+00</value></_>
        <_>
          <depth>1</depth>
          <value>-2.1362186276370129e-01</value></_></nodes></_>
    <_>
      <nodes>
        <_>
          <depth>0</depth>
          <value>1.8159796144241395e-03</value>
          <splits>
            <_><var>2</var>
              <quality>2.1507430076599121e-01</quality>
              <le>-9.2519648373126984e-02</le></_></splits></_>
        <_>
          <depth>1</depth>
          <value>4.3281938375780193e-01</value></_>
        <_>
          <depth>1</depth>
          <value>-6.2703464160774125e-01</value></_></nodes></_>
    <_>
      <nodes>
        <_>
          <depth>0</depth>
          <value>5.3044563437310331e-03</value>
          <splits>
            <_><var>39</var>
              <quality>2.1532696485519409e-01</quality>
              <le>1.1187999248504639e+00</le></_></splits></_>
        <_>
          <depth>1</depth>
          <value>-1.3822969362960420e+00</value></_>
        <_>
          <depth>1</depth>
          <value>2.6705942772584718e-01</value></_></nodes></_>
    <_>
      <nodes>
        <_>
          <depth>0</depth>
          <value>2.0820173833814928e-02</value>
          <splits>
            <_><var>77</var>
              <quality>2.4362699687480927e-01</quality>
              <le>1.4730650186538696e-01</le></_></splits></_>
        <_>
          <depth>1</depth>
          <value>6.1674079640505708e-01</value></_>
        <_>
          <depth>1</depth>
          <value>-5.0243670463506585e-01</value></_></nodes></_>
    <_>
      <nodes>
        <_>
          <depth>0</depth>
          <value>-2.1615253028543266e-02</value>
          <splits>
            <_><var>62</var>
              <quality>1.9267414510250092e-01</quality>
              <le>1.2154700756072998e+00</le></_></splits></_>
        <_>
          <depth>1</depth>
          <value>2.6257236554446256e-01</value></_>
        <_>
          <depth>1</depth>
          <value>-9.7021718796332646e-01</value></_></nodes></_>
    <_>
      <nodes>
        <_>
          <depth>0</depth>
          <value>-4.2365126394903327e-03</value>
          <splits>
            <_><var>19</var>
              <quality>1.7931817471981049e-01</quality>
              <le>-1.7834199905395508e+01</le></_></splits></_>
        <_>
          <depth>1</depth>
          <value>5.7564577324623896e+00</value></_>
        <_>
          <depth>1</depth>
          <value>-1.9460722637580868e-01</value></_></nodes></_>
    <_>
      <nodes>
        <_>
          <depth>0</depth>
          <value>4.9283131532200657e-04</value>
          <splits>
            <_><var>44</var>
              <quality>2.2618658840656281e-01</quality>
              <le>-1.9100150465965271e-01</le></_></splits></_>
        <_>
          <depth>1</depth>
          <value>3.2284693315582080e-01</value></_>
        <_>
          <depth>1</depth>
          <value>-1.0046078384345660e+00</value></_></nodes></_>
    <_>
      <nodes>
        <_>
          <depth>0</depth>
          <value>7.0727926068115217e-03</value>
          <splits>
            <_><var>122</var>
              <quality>1.6843874752521515e-01</quality>
              <le>7.7265900373458862e-01</le></_></splits></_>
        <_>
          <depth>1</depth>
          <value>2.0018174264363681e-01</value></_>
        <_>
          <depth>1</depth>
          <value>-1.6090422042210308e+00</value></_></nodes></_>
    <_>
      <nodes>
        <_>
          <depth>0</depth>
          <value>4.5331081268285235e-03</value>
          <splits>
            <_><var>101</var>
              <quality>2.2366358339786530e-01</quality>
              <le>-1.1301749944686890e+00</le></_></splits></_>
        <_>
          <depth>1</depth>
          <value>-7.4709427057432864e-01</value></_>
        <_>
          <depth>1</depth>
          <value>3.9267411180098383e-01</value></_></nodes></_>
    <_>
      <nodes>
        <_>
          <depth>0</depth>
          <value>-1.9673702593210312e-02</value>
          <splits>
            <_><var>83</var>
              <quality>2.1836560964584351e-01</quality>
              <le>-2.2506690584123135e-03</le></_></splits></_>
        <_>
          <depth>1</depth>
          <value>3.5971065288763721e-01</value></_>
        <_>
          <depth>1</depth>
          <value>-7.7380280423655301e-01</value></_></nodes></_>
    <_>
      <nodes>
        <_>
          <depth>0</depth>
          <value>8.9736150316968698e-03</value>
          <splits>
            <_><var>134</var>
              <quality>2.3561540246009827e-01</quality>
              <le>6.6567248106002808e-01</le></_></splits></_>
        <_>
          <depth>1</depth>
          <value>-3.9232315357530190e-01</value></_>
        <_>
          <depth>1</depth>
          <value>7.8831693008725678e-01</value></_></nodes></_>
    <_>
      <nodes>
        <_>
          <depth>0</depth>
          <value>-9.9000201579939051e-03</value>
          <splits>
            <_><var>120</var>
              <quality>1.8937580287456512e-01</quality>
              <le>-8.3901596069335938e-01</le></_></splits></_>
        <_>
          <depth>1</depth>
          <value>4.5445844874836666e-01</value></_>
        <_>
          <depth>1</depth>
          <value>-5.0700699790135539e-01</value></_></nodes></_>
    <_>
      <nodes>
        <_>
          <depth>0</depth>
          <value>6.4070032674363791e-04</value>
          <splits>
            <_><var>78</var>
              <quality>2.0407375693321228e-01</quality>
              <le>-1.4688000679016113e+00</le></_></splits></_>
        <_>
          <depth>1</depth>
          <value>8.6306843020882407e-01</value></_>
        <_>
          <depth>1</depth>
          <value>-3.1785832461533714e-01</value></_></nodes></_>
    <_>
      <nodes>
        <_>
          <depth>0</depth>
          <value>-2.1192711368618303e-03</value>
          <splits>
            <_><var>130</var>
              <quality>1.7749646306037903e-01</quality>
              <le>-1.2542200088500977e+00</le></_></splits></_>
        <_>
          <depth>1</depth>
          <value>-1.1572445192848761e+00</value></_>
        <_>
          <depth>1</depth>
          <value>2.3035755515254563e-01</value></_></nodes></_>
    <_>
      <nodes>
        <_>
          <depth>0</depth>
          <value>-6.5423408842444708e-05</value>
          <splits>
            <_><var>53</var>
              <quality>1.9816651940345764e-01</quality>
              <le>4.0501651763916016e+00</le></_></splits></_>
        <_>
          <depth>1</depth>
          <value>-3.7526039571582476e-01</value></_>
        <_>
          <depth>1</depth>
          <value>6.6530484259431255e-01</value></_></nodes></_>
    <_>
      <nodes>
        <_>
          <depth>0</depth>
          <value>7.2977830027236932e-03</value>
          <splits>
            <_><var>86</var>
              <quality>2.3958148062229156e-01</quality>
              <le>-1.2321150302886963e+00</le></_></splits></_>
        <_>
          <depth>1</depth>
          <value>1.2357683735746230e+00</value></_>
        <_>
          <depth>1</depth>
          <value>-3.0293355023446183e-01</value></_></nodes></_>
    <_>
      <nodes>
        <_>
          <depth>0</depth>
          <value>-1.2382769724862505e-02</value>
          <splits>
            <_><var>21</var>
              <quality>2.5380608439445496e-01</quality>
              <le>4.8019401729106903e-02</le></_></splits></_>
        <_>
          <depth>1</depth>
          <value>2.8602582296950740e-01</value></_>
        <_>
          <depth>1</depth>
          <value>-1.6623906785351068e+00</value></_></nodes></_>
    <_>
      <nodes>
        <_>
          <depth>0</depth>
          <value>-2.5287770902616182e-04</value>
          <splits>
            <_><var>42</var>
              <quality>1.9337497651576996e-01</quality>
              <le>-2.2842401266098022e-01</le></_></splits></_>
        <_>
          <depth>1</depth>
          <value>-7.9317359636199281e-01</value></_>
        <_>
          <depth>1</depth>
          <value>3.1865720500394046e-01</value></_></nodes></_>
    <_>
      <nodes>
        <_>
          <depth>0</depth>
          <value>-6.3555467476310726e-03</value>
          <splits>
            <_><var>98</var>
              <quality>2.2705633938312531e-01</quality>
              <le>8.2550400495529175e-01</le></_></splits></_>
        <_>
          <depth>1</depth>
          <value>3.1565064577433499e-01</value></_>
        <_>
          <depth>1</depth>
          <value>-1.0266046783000968e+00</value></_></nodes></_>
    <_>
      <nodes>
        <_>
          <depth>0</depth>
          <value>-8.2462456177402766e-03</value>
          <splits>
            <_><var>34</var>
              <quality>2.1496106684207916e-01</quality>
              <le>-1.4186251163482666e-01</le></_></splits></_>
        <_>
          <depth>1</depth>
          <value>3.4635202380268276e-01</value></_>
        <_>
          <depth>1</depth>
          <value>-8.1269419427212986e-01</value></_></nodes></_>
    <_>
      <nodes>
        <_>
          <depth>0</depth>
          <value>1.5410856013800239e-03</value>
          <splits>
            <_><var>10</var>
              <quality>1.8236938118934631e-01</quality>
              <le>-3.0868000984191895e+00</le></_></splits></_>
        <_>
          <depth>1</depth>
          <value>1.0633246929938469e+00</value></_>
        <_>
          <depth>1</depth>
          <value>-2.4791221620503145e-01</value></_></nodes></_>
    <_>
      <nodes>
        <_>
          <depth>0</depth>
          <value>-7.3053876481336743e-03</value>
          <splits>
            <_><var>70</var>
              <quality>1.6133853793144226e-01</quality>
              <le>-1.2512211687862873e-03</le></_></splits></_>
        <_>
          <depth>1</depth>
          <value>-3.6475815268633199e-01</value></_>
        <_>
          <depth>1</depth>
          <value>5.3506759331923559e-01</value></_></nodes></_>
    <_>
      <nodes>
        <_>
          <depth>0</depth>
          <value>-4.4166895567016055e-03</value>
          <splits>
            <_><var>44</var>
              <quality>1.6856449842453003e-01</quality>
              <le>-4.3054099082946777e+00</le></_></splits></_>
        <_>
          <depth>1</depth>
          <value>1.1433330107822008e+00</value></_>
        <_>
          <depth>1</depth>
          <value>-2.2456477254911864e-01</value></_></nodes></_>
    <_>
      <nodes>
        <_>
          <depth>0</depth>
          <value>3.6295824807224077e-03</value>
          <splits>
            <_><var>92</var>
              <quality>1.4379973709583282e-01</quality>
              <le>-1.0980000495910645e+00</le></_></splits></_>
        <_>
          <depth>1</depth>
          <value>7.1115965409795912e-01</value></_>
        <_>
          <depth>1</depth>
          <value>-2.5057000737119162e-01</value></_></nodes></_>
    <_>
      <nodes>
        <_>
          <depth>0</depth>
          <value>7.5756300954281895e-04</value>
          <splits>
            <_><var>86</var>
              <quality>1.9515956938266754e-01</quality>
              <le>7.2663849592208862e-01</le></_></splits></_>
        <_>
          <depth>1</depth>
          <value>-2.5998947336070671e-01</value></_>
        <_>
          <depth>1</depth>
          <value>1.1165678766877891e+00</value></_></nodes></_>
    <_>
      <nodes>
        <_>
          <depth>0</depth>
          <value>-1.9703783842849262e-02</value>
          <splits>
            <_><var>74</var>
              <quality>1.9703321158885956e-01</quality>
              <le>-1.1824450492858887e+00</le></_></splits></_>
        <_>
          <depth>1</depth>
          <value>1.5437083748589027e+00</value></_>
        <_>
          <depth>1</depth>
          <value>-2.4663220682329073e-01</value></_></nodes></_>
    <_>
      <nodes>
        <_>
          <depth>0</depth>
          <value>-2.3879412295149973e-02</value>
          <splits>
            <_><var>15</var>
              <quality>2.3031885921955109e-01</quality>
              <le>-1.1298049926757813e+01</le></_></splits></_>
        <_>
          <depth>1</depth>
          <value>1.4366820803803630e+00</value></_>
        <_>
          <depth>1</depth>
          <value>-2.9604829042515135e-01</value></_></nodes></_>
    <_>
      <nodes>
        <_>
          <depth>0</depth>
          <value>-1.5798689639749625e-03</value>
          <splits>
            <_><var>31</var>
              <quality>1.5135839581489563e-01</quality>
              <le>9.1274298727512360e-02</le></_></splits></_>
        <_>
          <depth>1</depth>
          <value>-4.0614125921862365e-01</value></_>
        <_>
          <depth>1</depth>
          <value>4.4040345831154171e-01</value></_></nodes></_>
    <_>
      <nodes>
        <_>
          <depth>0</depth>
          <value>1.5699359508174352e-03</value>
          <splits>
            <_><var>92</var>
              <quality>1.6390392184257507e-01</quality>
              <le>3.8147001760080457e-05</le></_></splits></_>
        <_>
          <depth>1</depth>
          <value>3.6287190325647856e-01</value></_>
        <_>
          <depth>1</depth>
          <value>-5.4533749990487557e-01</value></_></nodes></_>
    <_>
      <nodes>
        <_>
          <depth>0</depth>
          <value>-4.1361339511744007e-03</value>
          <splits>
            <_><var>20</var>
              <quality>1.5871796011924744e-01</quality>
              <le>2.0148599147796631e+00</le></_></splits></_>
        <_>
          <depth>1</depth>
          <value>-2.4880237783947948e-01</value></_>
        <_>
          <depth>1</depth>
          <value>8.5304210622548970e-01</value></_></nodes></_>
    <_>
      <nodes>
        <_>
          <depth>0</depth>
          <value>-5.1922224607093012e-03</value>
          <splits>
            <_><var>118</var>
              <quality>1.3926926255226135e-01</quality>
              <le>4.6193752288818359e+00</le></_></splits></_>
        <_>
          <depth>1</depth>
          <value>1.4693649051667301e-01</value></_>
        <_>
          <depth>1</depth>
          <value>-2.1941785500453652e+00</value></_></nodes></_>
    <_>
      <nodes>
        <_>
          <depth>0</depth>
          <value>1.0507873248121800e-03</value>
          <splits>
            <_><var>42</var>
              <quality>2.2008235752582550e-01</quality>
              <le>2.7617800235748291e+00</le></_></splits></_>
        <_>
          <depth>1</depth>
          <value>-3.1201272136634584e-01</value></_>
        <_>
          <depth>1</depth>
          <value>1.0081800436604131e+00</value></_></nodes></_>
    <_>
      <nodes>
        <_>
          <depth>0</depth>
          <value>-4.4518675599881808e-03</value>
          <splits>
            <_><var>27</var>
              <quality>2.1929159760475159e-01</quality>
              <le>-9.7137495875358582e-02</le></_></splits></_>
        <_>
          <depth>1</depth>
          <value>3.2675928425765466e-01</value></_>
        <_>
          <depth>1</depth>
          <value>-9.1969156976854649e-01</value></_></nodes></_>
    <_>
      <nodes>
        <_>
          <depth>0</depth>
          <value>-1.4014210994163097e-03</value>
          <splits>
            <_><var>105</var>
              <quality>2.1075627207756042e-01</quality>
              <le>-1.9360349178314209e+00</le></_></splits></_>
        <_>
          <depth>1</depth>
          <value>-9.3204100043609728e-01</value></_>
        <_>
          <depth>1</depth>
          <value>3.1239709306951835e-01</value></_></nodes></_>
    <_>
      <nodes>
        <_>
          <depth>0</depth>
          <value>-1.0786476670148884e-02</value>
          <splits>
            <_><var>99</var>
              <quality>1.5641868114471436e-01</quality>
              <le>-1.0620949268341064e+00</le></_></splits></_>
        <_>
          <depth>1</depth>
          <value>4.1358870398964537e-01</value></_>
        <_>
          <depth>1</depth>
          <value>-4.4767685428091208e-01</value></_></nodes></_>
    <_>
      <nodes>
        <_>
          <depth>0</depth>
          <value>-2.6110118692115936e-03</value>
          <splits>
            <_><var>97</var>
              <quality>1.8906980752944946e-01</quality>
              <le>7.1157450675964355e+00</le></_></splits></_>
        <_>
          <depth>1</depth>
          <value>-2.3200484025466733e-01</value></_>
        <_>
          <depth>1</depth>
          <value>1.3796536758338294e+00</value></_></nodes></_>
    <_>
      <nodes>
        <_>
          <depth>0</depth>
          <value>-2.5926398888926898e-03</value>
          <splits>
            <_><var>42</var>
              <quality>1.7611148953437805e-01</quality>
              <le>8.4032404422760010e-01</le></_></splits></_>
        <_>
          <depth>1</depth>
          <value>-5.3534012176754731e-01</value></_>
        <_>
          <depth>1</depth>
          <value>3.9797907099806606e-01</value></_></nodes></_>
    <_>
      <nodes>
        <_>
          <depth>0</depth>
          <value>-3.7103067469554966e-03</value>
          <splits>
            <_><var>125</var>
              <quality>1.4503180980682373e-01</quality>
              <le>4.1748647689819336e+00</le></_></splits></_>
        <_>
          <depth>1</depth>
          <value>1.5295162967037837e-01</value></_>
        <_>
          <depth>1</depth>
          <value>-2.4807854017663051e+00</value></_></nodes></_>
    <_>
      <nodes>
        <_>
          <depth>0</depth>
          <value>1.8532293684072550e-02</value>
          <splits>
            <_><var>103</var>
              <quality>1.6952358186244965e-01</quality>
              <le>1.7216949462890625e+00</le></_></splits></_>
        <_>
          <depth>1</depth>
          <value>-1.9666820542580693e-01</value></_>
        <_>
          <depth>1</depth>
          <value>1.2785956131387310e+00</value></_></nodes></_>
    <_>
      <nodes>
        <_>
          <depth>0</depth>
          <value>-1.7272698572436691e-02</value>
          <splits>
            <_><var>62</var>
              <quality>1.9493922591209412e-01</quality>
              <le>6.9586205482482910e-01</le></_></splits></_>
        <_>
          <depth>1</depth>
          <value>2.8831682133780906e-01</value></_>
        <_>
          <depth>1</depth>
          <value>-8.7816552403414516e-01</value></_></nodes></_>
    <_>
      <nodes>
        <_>
          <depth>0</depth>
          <value>-5.9223042364915301e-03</value>
          <splits>
            <_><var>46</var>
              <quality>1.9137316942214966e-01</quality>
              <le>-1.1756750345230103e+00</le></_></splits></_>
        <_>
          <depth>1</depth>
          <value>4.6384435530926127e-01</value></_>
        <_>
          <depth>1</depth>
          <value>-5.0316149962234047e-01</value></_></nodes></_>
    <_>
      <nodes>
        <_>
          <depth>0</depth>
          <value>2.6088468555777811e-03</value>
          <splits>
            <_><var>10</var>
              <quality>1.8381649255752563e-01</quality>
              <le>-1.1655349731445313e+00</le></_></splits></_>
        <_>
          <depth>1</depth>
          <value>4.8769736053753787e-01</value></_>
        <_>
          <depth>1</depth>
          <value>-4.5707684652714120e-01</value></_></nodes></_>
    <_>
      <nodes>
        <_>
          <depth>0</depth>
          <value>-3.0795935424563765e-03</value>
          <splits>
            <_><var>116</var>
              <quality>1.9878304004669189e-01</quality>
              <le>-4.9411749839782715e-01</le></_></splits></_>
        <_>
          <depth>1</depth>
          <value>-6.0340661269053952e-01</value></_>
        <_>
          <depth>1</depth>
          <value>4.0832694224419203e-01</value></_></nodes></_>
    <_>
      <nodes>
        <_>
          <depth>0</depth>
          <value>-5.4747229752518372e-03</value>
          <splits>
            <_><var>13</var>
              <quality>2.1203538775444031e-01</quality>
              <le>-1.7800900340080261e-01</le></_></splits></_>
        <_>
          <depth>1</depth>
          <value>2.7239688817291968e-01</value></_>
        <_>
          <depth>1</depth>
          <value>-1.1833553155767362e+00</value></_></nodes></_>
    <_>
      <nodes>
        <_>
          <depth>0</depth>
          <value>3.0238618561924668e-03</value>
          <splits>
            <_><var>7</var>
              <quality>1.5766383707523346e-01</quality>
              <le>-3.6918599158525467e-02</le></_></splits></_>
        <_>
          <depth>1</depth>
          <value>-2.6397772887617554e-01</value></_>
        <_>
          <depth>1</depth>
          <value>7.5688592093150564e-01</value></_></nodes></_>
    <_>
      <nodes>
        <_>
          <depth>0</depth>
          <value>-2.0442287316848173e-02</value>
          <splits>
            <_><var>17</var>
              <quality>1.6689379513263702e-01</quality>
              <le>-1.5979000091552734e+01</le></_></splits></_>
        <_>
          <depth>1</depth>
          <value>5.7564577324623896e+00</value></_>
        <_>
          <depth>1</depth>
          <value>-1.9461923379993734e-01</value></_></nodes></_>
    <_>
      <nodes>
        <_>
          <depth>0</depth>
          <value>-1.5998752349050097e-01</value>
          <splits>
            <_><var>134</var>
              <quality>2.6849833130836487e-01</quality>
              <le>1.2552700042724609e+00</le></_></splits></_>
        <_>
          <depth>1</depth>
          <value>1.5342759521059118e-01</value></_>
        <_>
          <depth>1</depth>
          <value>-2.5166592335823585e+00</value></_></nodes></_>
    <_>
      <nodes>
        <_>
          <depth>0</depth>
          <value>1.6078906297756320e-02</value>
          <splits>
            <_><var>39</var>
              <quality>1.9811934232711792e-01</quality>
              <le>1.1187999248504639e+00</le></_></splits></_>
        <_>
          <depth>1</depth>
          <value>-1.1817786999550923e+00</value></_>
        <_>
          <depth>1</depth>
          <value>2.6920433616158113e-01</value></_></nodes></_>
    <_>
      <nodes>
        <_>
          <depth>0</depth>
          <value>1.0709413888351796e-02</value>
          <splits>
            <_><var>88</var>
              <quality>1.9574879109859467e-01</quality>
              <le>5.9051499702036381e-03</le></_></splits></_>
        <_>
          <depth>1</depth>
          <value>4.4470623215263150e-01</value></_>
        <_>
          <depth>1</depth>
          <value>-5.4368325248485028e-01</value></_></nodes></_>
    <_>
      <nodes>
        <_>
          <depth>0</depth>
          <value>-1.1559073327386095e-02</value>
          <splits>
            <_><var>74</var>
              <quality>1.9104979932308197e-01</quality>
              <le>-3.4478750824928284e-01</le></_></splits></_>
        <_>
          <depth>1</depth>
          <value>6.6065055544404128e-01</value></_>
        <_>
          <depth>1</depth>
          <value>-3.6787311319362070e-01</value></_></nodes></_>
    <_>
      <nodes>
        <_>
          <depth>0</depth>
          <value>-4.6254797701876307e-03</value>
          <splits>
            <_><var>116</var>
              <quality>1.6839787364006042e-01</quality>
              <le>6.8425750732421875e-01</le></_></splits></_>
        <_>
          <depth>1</depth>
          <value>-3.5611930679055886e-01</value></_>
        <_>
          <depth>1</depth>
          <value>5.7802861212424073e-01</value></_></nodes></_>
    <_>
      <nodes>
        <_>
          <depth>0</depth>
          <value>-6.8982626578017476e-03</value>
          <splits>
            <_><var>10</var>
              <quality>2.1574027836322784e-01</quality>
              <le>1.3947500288486481e-01</le></_></splits></_>
        <_>
          <depth>1</depth>
          <value>3.4526992160391423e-01</value></_>
        <_>
          <depth>1</depth>
          <value>-8.2371964988757895e-01</value></_></nodes></_>
    <_>
      <nodes>
        <_>
          <depth>0</depth>
          <value>-1.0173239674048519e-02</value>
          <splits>
            <_><var>51</var>
              <quality>2.2904165089130402e-01</quality>
              <le>3.2491698265075684e+00</le></_></splits></_>
        <_>
          <depth>1</depth>
          <value>-5.5825577578719332e-01</value></_>
        <_>
          <depth>1</depth>
          <value>5.1685959747496590e-01</value></_></nodes></_>
    <_>
      <nodes>
        <_>
          <depth>0</depth>
          <value>8.9925241782455156e-03</value>
          <splits>
            <_><var>87</var>
              <quality>1.6013956069946289e-01</quality>
              <le>-4.1177350282669067e-01</le></_></splits></_>
        <_>
          <depth>1</depth>
          <value>7.0833254900508846e-01</value></_>
        <_>
          <depth>1</depth>
          <value>-2.7865058893459216e-01</value></_></nodes></_>
    <_>
      <nodes>
        <_>
          <depth>0</depth>
          <value>-9.7924308653005911e-03</value>
          <splits>
            <_><var>130</var>
              <quality>2.0328523218631744e-01</quality>
              <le>-1.2573449611663818e+00</le></_></splits></_>
        <_>
          <depth>1</depth>
          <value>-1.2362118955657666e+00</value></_>
        <_>
          <depth>1</depth>
          <value>2.5183640867816309e-01</value></_></nodes></_>
    <_>
      <nodes>
        <_>
          <depth>0</depth>
          <value>-1.4262065624379933e-03</value>
          <splits>
            <_><var>83</var>
              <quality>2.1314449608325958e-01</quality>
              <le>5.0613403320312500e-02</le></_></splits></_>
        <_>
          <depth>1</depth>
          <value>3.3689537817246656e-01</value></_>
        <_>
          <depth>1</depth>
          <value>-8.4703552872734611e-01</value></_></nodes></_>
    <_>
      <nodes>
        <_>
          <depth>0</depth>
          <value>-8.7027872905790539e-03</value>
          <splits>
            <_><var>15</var>
              <quality>1.5426939725875854e-01</quality>
              <le>-3.1392798423767090e+00</le></_></splits></_>
        <_>
          <depth>1</depth>
          <value>4.0614351886303246e-01</value></_>
        <_>
          <depth>1</depth>
          <value>-4.4863409176054631e-01</value></_></nodes></_>
    <_>
      <nodes>
        <_>
          <depth>0</depth>
          <value>8.9785752085233626e-04</value>
          <splits>
            <_><var>78</var>
              <quality>1.8430587649345398e-01</quality>
              <le>-1.3353049755096436e+00</le></_></splits></_>
        <_>
          <depth>1</depth>
          <value>1.0468107576998607e+00</value></_>
        <_>
          <depth>1</depth>
          <value>-2.5332892029568138e-01</value></_></nodes></_>
    <_>
      <nodes>
        <_>
          <depth>0</depth>
          <value>-6.8799850540796773e-03</value>
          <splits>
            <_><var>3</var>
              <quality>1.7192752659320831e-01</quality>
              <le>1.4382950067520142e+00</le></_></splits></_>
        <_>
          <depth>1</depth>
          <value>-2.7867653739428910e-01</value></_>
        <_>
          <depth>1</depth>
          <value>8.2259363082328651e-01</value></_></nodes></_>
    <_>
      <nodes>
        <_>
          <depth>0</depth>
          <value>-1.0415773163201757e-02</value>
          <splits>
            <_><var>2</var>
              <quality>1.8706139922142029e-01</quality>
              <le>1.0142755508422852e+00</le></_></splits></_>
        <_>
          <depth>1</depth>
          <value>2.4930640562829146e-01</value></_>
        <_>
          <depth>1</depth>
          <value>-1.0549737534304204e+00</value></_></nodes></_>
    <_>
      <nodes>
        <_>
          <depth>0</depth>
          <value>2.8003879572452359e-03</value>
          <splits>
            <_><var>38</var>
              <quality>2.3415979743003845e-01</quality>
              <le>3.1082649230957031e+00</le></_></splits></_>
        <_>
          <depth>1</depth>
          <value>-3.1619210869478531e-01</value></_>
        <_>
          <depth>1</depth>
          <value>1.1027283282210010e+00</value></_></nodes></_>
    <_>
      <nodes>
        <_>
          <depth>0</depth>
          <value>5.9827677068652746e-03</value>
          <splits>
            <_><var>63</var>
              <quality>1.3450843095779419e-01</quality>
              <le>-1.5753250122070313e+00</le></_></splits></_>
        <_>
          <depth>1</depth>
          <value>-1.6857809614691732e+00</value></_>
        <_>
          <depth>1</depth>
          <value>1.5799411687150880e-01</value></_></nodes></_>
    <_>
      <nodes>
        <_>
          <depth>0</depth>
          <value>-1.7441412838843085e-03</value>
          <splits>
            <_><var>21</var>
              <quality>1.9921037554740906e-01</quality>
              <le>1.0083020478487015e-01</le></_></splits></_>
        <_>
          <depth>1</depth>
          <value>2.4800098067676332e-01</value></_>
        <_>
          <depth>1</depth>
          <value>-1.2874445703343145e+00</value></_></nodes></_>
    <_>
      <nodes>
        <_>
          <depth>0</depth>
          <value>-4.3196164542636094e-03</value>
          <splits>
            <_><var>53</var>
              <quality>1.8039257824420929e-01</quality>
              <le>6.3780498504638672e+00</le></_></splits></_>
        <_>
          <depth>1</depth>
          <value>-2.4379274904926845e-01</value></_>
        <_>
          <depth>1</depth>
          <value>1.1121758108409863e+00</value></_></nodes></_>
    <_>
      <nodes>
        <_>
          <depth>0</depth>
          <value>-3.7557092145236049e-03</value>
          <splits>
            <_><var>54</var>
              <quality>2.4391698837280273e-01</quality>
              <le>-1.0715749263763428e+00</le></_></splits></_>
        <_>
          <depth>1</depth>
          <value>1.0326441887697464e+00</value></_>
        <_>
          <depth>1</depth>
          <value>-3.4673278006554270e-01</value></_></nodes></_>
    <_>
      <nodes>
        <_>
          <depth>0</depth>
          <value>-1.9096640625542862e-02</value>
          <splits>
            <_><var>4</var>
              <quality>1.7158083617687225e-01</quality>
              <le>1.4088249206542969e-01</le></_></splits></_>
        <_>
          <depth>1</depth>
          <value>3.5370278638588726e-01</value></_>
        <_>
          <depth>1</depth>
          <value>-5.7880065657508817e-01</value></_></nodes></_>
    <_>
      <nodes>
        <_>
          <depth>0</depth>
          <value>-2.6176939691723278e-03</value>
          <splits>
            <_><var>42</var>
              <quality>1.9977848231792450e-01</quality>
              <le>7.8110504150390625e-01</le></_></splits></_>
        <_>
          <depth>1</depth>
          <value>-6.4113231402642124e-01</value></_>
        <_>
          <depth>1</depth>
          <value>3.8953012474623883e-01</value></_></nodes></_>
    <_>
      <nodes>
        <_>
          <depth>0</depth>
          <value>3.5212452395632244e-03</value>
          <splits>
            <_><var>102</var>
              <quality>1.4636981487274170e-01</quality>
              <le>3.6510449647903442e-01</le></_></splits></_>
        <_>
          <depth>1</depth>
          <value>2.3203208569488507e-01</value></_>
        <_>
          <depth>1</depth>
          <value>-8.3487306997264321e-01</value></_></nodes></_>
    <_>
      <nodes>
        <_>
          <depth>0</depth>
          <value>3.0036462267692163e-03</value>
          <splits>
            <_><var>124</var>
              <quality>1.9033734500408173e-01</quality>
              <le>-3.8360601663589478e-01</le></_></splits></_>
        <_>
          <depth>1</depth>
          <value>-6.7033836292370563e-01</value></_>
        <_>
          <depth>1</depth>
          <value>3.5847078232362156e-01</value></_></nodes></_>
    <_>
      <nodes>
        <_>
          <depth>0</depth>
          <value>-8.6311354135218277e-03</value>
          <splits>
            <_><var>108</var>
              <quality>1.8001855909824371e-01</quality>
              <le>6.3365197181701660e-01</le></_></splits></_>
        <_>
          <depth>1</depth>
          <value>-3.3603771043778213e-01</value></_>
        <_>
          <depth>1</depth>
          <value>6.8108704053860747e-01</value></_></nodes></_>
    <_>
      <nodes>
        <_>
          <depth>0</depth>
          <value>-1.5651354122361225e-02</value>
          <splits>
            <_><var>21</var>
              <quality>2.0095482468605042e-01</quality>
              <le>-2.1705698966979980e+00</le></_></splits></_>
        <_>
          <depth>1</depth>
          <value>4.3947331235547354e-01</value></_>
        <_>
          <depth>1</depth>
          <value>-5.6066500930380669e-01</value></_></nodes></_>
    <_>
      <nodes>
        <_>
          <depth>0</depth>
          <value>-4.8672027421411881e-03</value>
          <splits>
            <_><var>64</var>
              <quality>1.9931450486183167e-01</quality>
              <le>-2.5741579011082649e-02</le></_></splits></_>
        <_>
          <depth>1</depth>
          <value>5.1017163942941179e-01</value></_>
        <_>
          <depth>1</depth>
          <value>-4.8057048685277015e-01</value></_></nodes></_>
    <_>
      <nodes>
        <_>
          <depth>0</depth>
          <value>-1.2552334851088261e-03</value>
          <splits>
            <_><var>34</var>
              <quality>1.7666141688823700e-01</quality>
              <le>-3.6174750328063965e-01</le></_></splits></_>
        <_>
          <depth>1</depth>
          <value>3.0068272825917214e-01</value></_>
        <_>
          <depth>1</depth>
          <value>-7.5068584310672126e-01</value></_></nodes></_>
    <_>
      <nodes>
        <_>
          <depth>0</depth>
          <value>-6.3027500575080090e-03</value>
          <splits>
            <_><var>33</var>
              <quality>1.4740109443664551e-01</quality>
              <le>-3.9471399784088135e+00</le></_></splits></_>
        <_>
          <depth>1</depth>
          <value>-1.0302026830828113e+00</value></_>
        <_>
          <depth>1</depth>
          <value>1.9841795059677009e-01</value></_></nodes></_>
    <_>
      <nodes>
        <_>
          <depth>0</depth>
          <value>-2.6351249778079687e-03</value>
          <splits>
            <_><var>39</var>
              <quality>1.5638267993927002e-01</quality>
              <le>-4.5217499136924744e-01</le></_></splits></_>
        <_>
          <depth>1</depth>
          <value>-1.5601914469326392e+00</value></_>
        <_>
          <depth>1</depth>
          <value>1.7975803874804214e-01</value></_></nodes></_>
    <_>
      <nodes>
        <_>
          <depth>0</depth>
          <value>-1.6095149550341013e-03</value>
          <splits>
            <_><var>10</var>
              <quality>1.8507689237594604e-01</quality>
              <le>-2.2760000228881836e+00</le></_></splits></_>
        <_>
          <depth>1</depth>
          <value>6.9113468849557835e-01</value></_>
        <_>
          <depth>1</depth>
          <value>-3.3863281229161718e-01</value></_></nodes></_>
    <_>
      <nodes>
        <_>
          <depth>0</depth>
          <value>8.9480719033414207e-04</value>
          <splits>
            <_><var>78</var>
              <quality>1.6941484808921814e-01</quality>
              <le>-1.1509749889373779e+00</le></_></splits></_>
        <_>
          <depth>1</depth>
          <value>6.7446848800796166e-01</value></_>
        <_>
          <depth>1</depth>
          <value>-3.1302247352866319e-01</value></_></nodes></_>
    <_>
      <nodes>
        <_>
          <depth>0</depth>
          <value>5.4941242547431757e-03</value>
          <splits>
            <_><var>38</var>
              <quality>1.6110230982303619e-01</quality>
              <le>-4.0793251991271973e-01</le></_></splits></_>
        <_>
          <depth>1</depth>
          <value>-7.0635971431245259e-01</value></_>
        <_>
          <depth>1</depth>
          <value>2.8971533292578155e-01</value></_></nodes></_>
    <_>
      <nodes>
        <_>
          <depth>0</depth>
          <value>-7.6345481249697408e-03</value>
          <splits>
            <_><var>17</var>
              <quality>1.4930878579616547e-01</quality>
              <le>-1.3435750007629395e+01</le></_></splits></_>
        <_>
          <depth>1</depth>
          <value>1.2818161701782069e+00</value></_>
        <_>
          <depth>1</depth>
          <value>-1.9169696916842535e-01</value></_></nodes></_>
    <_>
      <nodes>
        <_>
          <depth>0</depth>
          <value>-8.3036014499121256e-03</value>
          <splits>
            <_><var>81</var>
              <quality>1.7414563894271851e-01</quality>
              <le>3.7976101040840149e-01</le></_></splits></_>
        <_>
          <depth>1</depth>
          <value>2.1032784533368359e-01</value></_>
        <_>
          <depth>1</depth>
          <value>-1.2902917482983394e+00</value></_></nodes></_>
    <_>
      <nodes>
        <_>
          <depth>0</depth>
          <value>7.2068866224847946e-03</value>
          <splits>
            <_><var>50</var>
              <quality>1.5387530624866486e-01</quality>
              <le>-2.5375251770019531e+00</le></_></splits></_>
        <_>
          <depth>1</depth>
          <value>1.3247461827358364e+00</value></_>
        <_>
          <depth>1</depth>
          <value>-1.8310848096851651e-01</value></_></nodes></_></trees></opencv_ml_boost>
</opencv_storage>
