<?xml version="1.0"?>
<opencv_storage>
<opencv_ml_svm>
  <format>3</format>
  <svmType>C_SVC</svmType>
  <kernel>
    <type>LINEAR</type></kernel>
  <C>8.3966598510742188e+01</C>
  <term_criteria><iterations>1000</iterations></term_criteria>
  <var_count>136</var_count>
  <class_count>2</class_count>
  <class_labels type_id="opencv-matrix">
    <rows>2</rows>
    <cols>1</cols>
    <dt>i</dt>
    <data>
      -1082130432 1065353216</data></class_labels>
  <sv_total>1</sv_total>
  <support_vectors>
    <_>
      -5.96559756e-02 1.07964675e-03 -8.74198135e-03 -3.32334153e-02
      4.94756885e-02 1.84840467e-02 -2.58300230e-02 -1.55955274e-02
      3.45045030e-02 -2.11436506e-02 1.85360946e-02 -4.87568136e-03
      2.31688544e-02 6.78556040e-02 -5.59710190e-02 1.41951339e-02
      -3.17845978e-02 -4.52016294e-02 -6.63899397e-03 4.13719052e-03
      -3.26246433e-02 3.56750675e-02 2.42092144e-02 1.61449090e-02
      -6.42184401e-03 -1.05206715e-02 -3.93876154e-03 -5.56720905e-02
      6.99594291e-03 -6.04311284e-03 -2.70229913e-02 2.37381458e-02
      2.32262234e-03 -1.30531592e-02 -1.23701319e-02 -3.25911641e-02
      6.14347402e-03 -1.08646620e-02 -3.22199464e-02 -6.56530727e-03
      2.25607939e-02 3.63154896e-02 3.25733842e-03 1.92667469e-02
      -1.49593560e-03 1.48882056e-02 -1.61809754e-02 4.36369190e-03
      1.28396600e-02 -4.36725328e-03 -1.71478242e-02 -5.41505811e-04
      2.32415702e-02 -9.50410787e-04 1.98034034e-03 -1.29093165e-02
      2.51188595e-03 -1.76673811e-02 1.29944161e-02 1.89731959e-02
      -1.58640072e-02 -1.74147282e-02 -2.93244552e-02 1.06458291e-01
      -2.30938639e-03 1.63676823e-03 1.01115014e-02 -5.51085621e-02
      -6.84809918e-03 2.04184689e-02 -1.66653097e-02 2.85236444e-02 0.
      0. -2.75326967e-02 3.92923765e-02 -1.84395574e-02 2.72082305e-03
      -6.64741779e-03 -2.10725665e-02 9.68699344e-03 -2.21944228e-03
      -7.23922485e-03 9.07513127e-03 2.40833014e-02 -4.98089707e-03
      -1.88540649e-02 -5.08726090e-02 4.58435109e-03 -2.23472230e-02 0.
      0. -9.30650509e-04 -1.04494933e-02 3.31034996e-02 -1.20069599e-02
      -9.82864667e-03 -1.77032072e-02 -3.03016100e-02 4.96021174e-02
      -5.93834557e-05 8.06809310e-03 -8.73321015e-03 3.52496952e-02
      -2.15154570e-02 -1.37968948e-02 -5.44559434e-02 8.54828209e-03
      2.14972235e-02 2.21916400e-02 5.15757166e-02 -3.17003694e-03
      5.42063313e-03 4.48156567e-03 5.38060926e-02 -2.22602729e-02
      4.45465110e-02 1.70694776e-02 2.17179162e-03 7.40331772e-04
      2.74351109e-02 -2.96466239e-02 1.99942794e-02 -2.94534601e-02
      -1.02635184e-02 -3.45823588e-03 -2.08913516e-02 -6.20686624e-04
      -3.64679936e-03 -1.19042797e-02 -3.96568552e-02 1.21561973e-03
      3.53849051e-03 -1.24919862e-02 -1.57577684e-03 2.99481153e-02</_></support_vectors>
  <uncompressed_sv_total>177</uncompressed_sv_total>
  <uncompressed_support_vectors>
    <_>
      2.67148995e+00 2.24462008e+00 1.50761998e+00 1.21050000e+00
      3.03020000e+00 1.74991000e+00 3.18887997e+00 8.28002989e-01
      4.75891018e+00 -1.43849003e+00 3.18366003e+00 -1.03398001e+00
      1.32889998e+00 -2.00086999e+00 2.14704990e+00 -4.06180000e+00
      2.69622993e+00 -4.53867006e+00 1.70518005e+00 -4.72780991e+00
      -6.95877016e-01 -4.73722982e+00 -1.82897997e+00 -1.62503004e+00
      -2.76153994e+00 1.78223002e+00 -1.95209002e+00 4.03206015e+00
      -2.48717999e+00 4.87053013e+00 -2.91418004e+00 4.30199003e+00
      -1.86499000e+00 3.87210011e+00 2.14300990e+00 -5.67303002e-01
      -1.14857996e+00 -3.24246001e+00 -1.62690997e+00 -7.61094999e+00
      -2.17171001e+00 -1.07607002e+01 -5.76804018e+00 -7.12329006e+00
      6.11345005e+00 -6.90779018e+00 4.10874987e+00 -9.85840988e+00
      3.28225994e+00 -8.60295963e+00 3.72954988e+00 -3.26459002e+00
      3.78325999e-01 1.91669002e-01 8.47763002e-01 -3.27110004e+00
      1.01425004e+00 -2.48685002e+00 1.18081999e+00 -1.70255005e+00
      1.34729004e+00 -9.18304026e-01 7.54622996e-01 -2.53525996e+00
      1.92650998e+00 -2.73740005e+00 1.55280006e+00 -1.57149005e+00
      1.16106999e+00 -1.62035000e+00 -6.48864985e-01 -1.65824997e+00 0.
      0. -1.65432000e+00 -4.25078011e+00 7.25166023e-01 -4.26742983e+00
      1.96152002e-01 -4.25933987e-01 6.57065988e-01 -3.46596003e-01
      -3.34762990e-01 -2.71645010e-01 -1.65603995e-01 3.56743008e-01
      9.40124989e-01 -3.74282002e+00 1.93199003e+00 -3.81775999e+00 0.
      0. 4.07027990e-01 1.42211998e-02 8.22174013e-01 1.97341993e-01
      -1.01998997e+00 -6.40100002e+00 -1.55040002e+00 -4.97362995e+00
      -5.89096010e-01 -4.97939014e+00 5.67627013e-01 -5.14691019e+00
      3.02035999e+00 -5.04864979e+00 3.99969006e+00 -3.83968997e+00
      3.69542003e+00 -4.18053007e+00 2.64398003e+00 -1.55312002e+00
      3.01196003e+00 -1.01364002e-01 5.28671026e-01 -1.30493000e-01
      -5.04593015e-01 -1.40453005e+00 -1.11481003e-01 -2.52055001e+00
      1.21140003e-01 -4.99672985e+00 -6.14120007e-01 -2.41160989e+00
      4.77416992e-01 -2.52524996e+00 1.57308996e+00 -2.55443001e+00
      5.29069996e+00 -4.03069019e+00 2.93700004e+00 -1.09323001e+00
      1.91498995e+00 -2.48627996e+00 -6.14120007e-01 -2.41160989e+00</_>
    <_>
      -3.32505012e+00 1.83777004e-01 -2.44359994e+00 9.65728998e-01
      -2.65239000e+00 1.69781995e+00 -2.87739992e+00 3.56273007e+00
      -1.95217001e+00 6.61913013e+00 1.37749004e+00 1.09667997e+01
      4.35669005e-01 1.38828001e+01 8.15689027e-01 1.56561003e+01
      3.15185994e-01 1.71030006e+01 1.18809998e+00 1.50433998e+01
      -2.43668005e-01 1.36183996e+01 7.58789003e-01 8.85692978e+00
      1.61049998e+00 5.05820990e+00 2.17513990e+00 3.32555008e+00
      2.60803008e+00 1.53118002e+00 3.00287008e+00 8.59305978e-01
      3.40352988e+00 -9.23362970e-01 -2.61456990e+00 -4.12544012e+00
      -5.30353022e+00 -6.68491983e+00 -6.83961010e+00 -8.87078953e+00
      -7.33542013e+00 -1.08428001e+01 -5.56720018e+00 -1.37629004e+01
      1.91001999e+00 -1.42734003e+01 5.71374989e+00 -1.18079004e+01
      6.11771011e+00 -9.44513988e+00 6.45407009e+00 -5.83985996e+00
      4.39755011e+00 -4.41992998e+00 -5.48141003e-01 5.30498981e-01
      -7.81539977e-01 2.07020998e+00 -9.54833984e-01 2.49770999e+00
      -1.19856000e+00 4.05939007e+00 -1.06807995e+00 9.76334000e+00
      4.29291010e-01 7.77651978e+00 -1.56250000e+00 7.84552002e+00
      -1.31798005e+00 8.99320984e+00 -3.40198994e+00 1.11124001e+01 0.
      0. -6.44843996e-01 -2.28271008e+00 1.94121003e+00 -2.01999998e+00
      -1.20387006e+00 -1.92332006e+00 5.13634026e-01 1.48782003e+00
      1.84235007e-01 1.33367002e+00 1.28438997e+00 -1.59096003e-01
      1.72251999e+00 -1.33535004e+00 3.24480009e+00 -2.27721000e+00 0.
      0. 1.80095994e+00 2.36337996e+00 2.59549999e+00 2.30157995e+00
      -5.47043991e+00 1.34956999e+01 -8.66622984e-01 1.92964001e+01
      7.52349973e-01 1.83195000e+01 -2.42200994e+00 1.94624996e+01
      -2.02506995e+00 1.83740997e+01 1.61593997e+00 1.99174995e+01
      6.80756998e+00 1.26569996e+01 2.72490001e+00 1.70904999e+01
      -2.31002998e+00 1.90972996e+01 -2.64825010e+00 1.90193005e+01
      -6.98989987e-01 1.89839993e+01 -2.08471990e+00 1.74948997e+01
      -4.30278015e+00 1.58625002e+01 5.58640003e-01 1.97171001e+01
      -1.46103001e+00 2.08866997e+01 -1.01420999e+00 1.87080002e+01
      5.41109991e+00 1.47713003e+01 -2.20708990e+00 1.98040009e+01
      -2.54535007e+00 1.97259998e+01 -1.69806004e+00 1.96086006e+01</_>
    <_>
      6.38089991e+00 2.68577993e-01 5.11786985e+00 -1.28802001e+00
      5.14390993e+00 -1.31026995e+00 6.54279995e+00 -2.73145008e+00
      6.37377977e+00 -2.74466991e+00 7.24311018e+00 -2.67667007e+00
      4.93373013e+00 -2.50506997e+00 3.80741000e+00 -2.08300996e+00
      2.52440000e+00 -5.40256023e+00 -4.43877995e-01 -4.26223993e+00
      -1.81336999e+00 -5.38983011e+00 -3.13495994e+00 -4.80080986e+00
      -4.18027020e+00 -5.25920010e+00 -3.61355996e+00 -3.96361995e+00
      -5.62353992e+00 -2.65103006e+00 -4.77643013e+00 -1.21199000e+00
      -5.29846001e+00 1.80580005e-01 -3.61584008e-01 -5.02071023e-01
      -2.42988992e+00 -4.18681002e+00 -3.41827989e+00 -5.52754021e+00
      -4.44152021e+00 -7.19899988e+00 -5.49034023e+00 -6.36999989e+00
      1.50580001e+00 -7.75396013e+00 1.81026995e+00 -9.00566006e+00
      2.08912992e+00 -7.75690985e+00 -4.08798009e-01 -5.48638010e+00
      -3.92050004e+00 -3.61104012e+00 6.67114019e-01 1.25484002e+00
      9.22867000e-01 -1.08182001e+00 1.17484999e+00 -1.97319996e+00
      1.38042998e+00 -1.49549997e+00 2.38808990e+00 -2.10904002e+00
      2.02254009e+00 -2.40493989e+00 1.58074999e+00 -2.65815997e+00
      -3.73580992e-01 -2.67746997e+00 -2.33162999e+00 -1.25151002e+00 0.
      0. -6.05994999e-01 -1.10427999e+00 7.57979974e-02 -1.12382996e+00
      8.28804016e-01 -1.90230995e-01 1.44002998e+00 2.55443001e+00
      -6.70265019e-01 2.51075006e+00 -9.12781000e-01 4.87365991e-01
      -1.88583001e-01 -2.09204006e+00 5.43624997e-01 -2.28983998e+00 0.
      0. 1.95053005e+00 1.46461999e+00 -2.10174993e-01 1.59923005e+00
      3.69316006e+00 -2.79651999e+00 2.96832991e+00 -3.93440008e+00
      2.32366991e+00 -3.92412996e+00 1.92446995e+00 -4.10112000e+00
      1.53813004e+00 -5.52837992e+00 2.19435000e+00 -3.04747009e+00
      9.40857008e-02 -3.68558002e+00 2.25646996e+00 -2.28941011e+00
      1.53204000e+00 -2.34612989e+00 5.95749021e-01 -2.33435011e+00
      2.37701011e+00 -7.25098014e-01 1.56856000e+00 -4.84634012e-01
      2.01019001e+00 -2.86751008e+00 2.37804008e+00 -2.91158009e+00
      5.33554018e-01 -3.09239006e+00 2.89838004e+00 -3.04094005e+00
      -1.05411994e+00 -3.60536003e+00 1.42349005e+00 -1.73505998e+00
      4.87152010e-01 -1.72333002e+00 2.25541997e+00 -1.49987996e+00</_>
    <_>
      4.27724987e-01 2.76887012e+00 1.85582995e+00 -3.94493014e-01
      -1.08308995e+00 -6.99554026e-01 -1.12690997e+00 -2.42780995e+00
      -4.10278988e+00 -2.70919991e+00 -7.15222979e+00 -2.95533991e+00
      -8.82835960e+00 -3.11739993e+00 -6.21111012e+00 -1.77151000e+00
      -5.07929993e+00 -3.53363007e-01 -1.05378997e+00 -2.73223996e-01
      -2.75887990e+00 -1.60379004e+00 -1.60590005e+00 1.44498003e+00
      -3.21532989e+00 2.13378996e-01 -4.75253010e+00 4.67254996e-01
      -4.80600023e+00 2.19390988e+00 -3.41219997e+00 3.94495010e+00
      -1.99414003e+00 4.26085997e+00 -1.13304996e+00 -1.34519994e+00
      -4.15239000e+00 -4.09695005e+00 -2.92466998e+00 -5.47529984e+00
      -1.72001004e+00 -5.49146986e+00 -3.43407011e+00 -2.68576002e+00
      2.12443995e+00 -4.05183983e+00 1.91664004e+00 -9.76109028e+00
      4.51935005e+00 -6.83387995e+00 5.70009995e+00 -3.99148011e+00
      2.60091996e+00 1.53389007e-01 7.40646005e-01 8.55064020e-02
      -6.92322016e-01 -1.50805998e+00 -6.78008974e-01 -3.07721996e+00
      7.71880984e-01 -4.64645004e+00 9.22439992e-01 -5.92682004e-01
      -6.10213995e-01 -6.06414974e-01 -7.07291007e-01 -6.20208979e-01
      -2.24017000e+00 -6.21765018e-01 -2.34993005e+00 8.36273015e-01 0.
      0. -1.23291001e-01 9.52567980e-02 -2.81554997e-01 1.04744002e-01
      1.00958002e+00 1.45261002e+00 -2.91191012e-01 1.39415002e+00
      -1.56821001e+00 1.37259996e+00 -9.97695982e-01 7.48444023e-03
      3.14254999e-01 -1.32076001e+00 1.59174001e+00 -1.32352996e+00 0.
      0. 1.56984997e+00 1.41340995e+00 2.92434990e-01 1.41614997e+00
      -3.23082000e-01 1.84375000e+00 -1.93105996e+00 3.41034007e+00
      -2.10278010e+00 6.37588978e+00 -2.21183991e+00 6.34969997e+00
      -3.76933002e+00 7.80765009e+00 -5.33720016e+00 4.83704996e+00
      -5.48082018e+00 3.25307989e+00 -5.30964994e+00 1.75960004e+00
      -3.72774005e+00 1.73760998e+00 -2.18280005e+00 3.18708992e+00
      -3.48435998e+00 2.94005990e-01 -1.90349996e+00 3.32854986e-01
      -1.86820996e+00 3.28972006e+00 -2.07599998e+00 3.34705997e+00
      -2.18544006e+00 3.34520006e+00 -3.71822000e+00 1.89593995e+00
      -5.39610004e+00 3.27885008e+00 -3.73047996e+00 3.34344006e+00
      -2.19754004e+00 4.78056002e+00 -3.51136994e+00 3.33502007e+00</_>
    <_>
      6.30163002e+00 3.05449992e-01 5.45211983e+00 -1.11153996e+00
      4.52766991e+00 -3.58828998e+00 4.61828995e+00 -6.14902020e+00
      2.36086011e+00 -7.60833979e+00 8.58883023e-01 -9.01842976e+00
      1.17136002e+00 -1.02219000e+01 2.24762988e+00 -1.11884003e+01
      5.10512018e+00 -1.05850000e+01 6.73183012e+00 -9.52283001e+00
      5.32927990e+00 -1.11992998e+01 3.00928998e+00 -1.25859003e+01
      -1.19468999e+00 -1.26372004e+01 -4.07921982e+00 -9.29815960e+00
      -4.77379990e+00 -5.76916981e+00 -4.22488022e+00 -3.27572989e+00
      -4.65836000e+00 -1.82916999e+00 3.30187988e+00 -3.03005010e-01
      3.65320992e+00 3.61683011e-01 3.68430996e+00 5.42699993e-01
      2.58899999e+00 1.41108000e+00 1.61623001e+00 9.34322000e-01
      2.25799993e-01 1.88223004e+00 -8.86184990e-01 8.90770018e-01
      -2.00267005e+00 6.63818002e-01 -2.95728993e+00 9.77668986e-02
      -2.41009998e+00 3.12045991e-01 1.10825002e+00 1.94343996e+00
      2.46758008e+00 -1.08972001e+00 1.67566001e+00 -3.07442999e+00
      3.04403996e+00 -6.15223980e+00 2.95317006e+00 -3.58402991e+00
      2.56630993e+00 -4.93968010e+00 2.12573004e+00 -6.25969982e+00
      2.60413003e+00 -6.22032022e+00 3.09465003e+00 -5.04089022e+00 0.
      0. 4.85190988e-01 -2.90666008e+00 3.02929997e+00 -2.98155999e+00
      3.43736005e+00 1.80094004e+00 1.95071995e+00 3.98243999e+00
      4.71619010e-01 2.98547006e+00 -1.31329000e+00 2.36754990e+00
      -1.93024004e+00 -2.65476990e+00 -4.95788991e-01 -1.66687000e+00 0.
      0. 5.55648983e-01 3.15337992e+00 -1.98847997e+00 3.22829008e+00
      -6.66655973e-02 -1.16751003e+01 3.52638006e-01 -1.56862001e+01
      2.94290996e+00 -1.77010994e+01 5.67854023e+00 -1.68320999e+01
      7.33248997e+00 -1.67511005e+01 7.72609997e+00 -1.60100002e+01
      6.88360977e+00 -1.23288002e+01 7.78134012e+00 -1.14273996e+01
      7.37790012e+00 -1.04070997e+01 4.69981003e+00 -1.03593998e+01
      9.26375985e-01 -1.02904997e+01 3.84445012e-01 -1.00172997e+01
      1.73942006e+00 -1.16562004e+01 1.85746002e+00 -1.28739996e+01
      5.69900990e+00 -1.40200996e+01 7.28862000e+00 -1.19096003e+01
      5.05936003e+00 -1.22584000e+01 6.25612020e+00 -1.19687004e+01
      4.66650009e+00 -1.40790997e+01 1.91120005e+00 -1.29096003e+01</_>
    <_>
      1.14315004e+01 1.31287003e+01 8.60743999e+00 1.08161001e+01
      9.76764965e+00 7.30440998e+00 9.44826031e+00 6.46155977e+00
      7.27770996e+00 6.94739008e+00 5.99251986e+00 5.05766010e+00
      2.70553994e+00 6.29914999e+00 4.58099008e-01 5.33923006e+00
      -3.35220003e+00 6.38428020e+00 -5.63570976e+00 5.33980989e+00
      -7.46216011e+00 7.61700010e+00 -7.59261990e+00 7.73259020e+00
      -5.93593979e+00 1.09624004e+01 -3.84027004e+00 1.30660000e+01
      -2.64923000e+00 1.24384003e+01 -1.04675002e-01 1.32517004e+01
      -2.72583008e-01 1.39826002e+01 3.06395006e+00 3.10941005e+00
      3.05002999e+00 5.37311983e+00 1.39385998e+00 8.23711014e+00
      -1.71668005e+00 1.06422005e+01 -4.72529984e+00 1.27241001e+01
      4.92986012e+00 1.44219999e+01 7.05994010e-01 1.21069002e+01
      -2.18274999e+00 9.50220013e+00 -3.47989011e+00 3.74141002e+00
      -1.61480999e+00 1.48998007e-01 6.75827026e-01 1.53165998e+01
      2.06573009e+00 1.41246004e+01 2.05840993e+00 1.28888998e+01
      2.09972000e+00 1.01738997e+01 4.08463001e+00 1.34237003e+01
      3.15868998e+00 1.17205000e+01 7.91854978e-01 1.13709002e+01
      -2.51311988e-01 1.29546003e+01 -1.17377996e+00 1.32278996e+01 0.
      0. -7.52448976e-01 -7.95111990e+00 3.51861000e+00 -5.05663013e+00
      1.93420005e+00 1.22226000e+01 3.08533013e-01 9.15937042e+00
      -2.60892010e+00 7.70583010e+00 4.24499996e-02 9.47259998e+00
      -1.98592997e+00 -5.26734018e+00 1.13959002e+00 -7.91858006e+00 0.
      0. 3.43148994e+00 6.54916000e+00 1.70325994e+00 9.24405956e+00
      -3.04834008e+00 1.29082003e+01 -4.23685980e+00 1.34948997e+01
      -2.40780997e+00 9.81789970e+00 -1.85969996e+00 1.09629002e+01
      -1.37990999e+00 1.11978998e+01 -1.11166000e+00 1.35611000e+01
      -9.10202026e-01 1.29556999e+01 -1.40936005e+00 1.91427002e+01
      -3.08398008e+00 2.02761993e+01 -2.30222988e+00 2.16413002e+01
      -4.19423008e+00 2.16086998e+01 -4.37048006e+00 1.90863991e+01
      -3.62294006e+00 1.55908003e+01 -2.57133007e+00 1.59017000e+01
      -6.74332023e-01 1.58521996e+01 -1.50476003e+00 1.59665003e+01
      -5.00258982e-01 1.56981001e+01 -1.58678997e+00 1.59615002e+01
      -2.07158995e+00 1.58085003e+01 -3.96861005e+00 1.58579998e+01</_>
    <_>
      -2.28735000e-01 1.27874994e+00 -4.56440002e-01 -2.32785010e+00
      -7.14069009e-01 -5.90630007e+00 3.97186019e-02 -7.44325018e+00
      -1.29497004e+00 -6.94080019e+00 2.95242012e-01 -8.23851013e+00
      3.80396008e+00 -1.03184996e+01 6.21588993e+00 -9.24872017e+00
      9.61155987e+00 -9.01727009e+00 1.00162001e+01 -9.73845959e+00
      1.05118999e+01 -1.14049997e+01 1.21033001e+01 -1.19350004e+01
      1.08964005e+01 -1.54651003e+01 7.88568020e+00 -1.79596004e+01
      5.93838978e+00 -1.63813000e+01 4.00882006e+00 -1.48084002e+01
      -9.79278982e-01 -1.12413998e+01 -4.44999993e-01 1.03515998e-01
      1.41253996e+00 3.66399002e+00 9.49310005e-01 1.00598001e+01
      -6.03424013e-01 1.32896004e+01 -1.22482002e-01 1.43619003e+01
      -1.83650005e+00 1.55165005e+01 -3.23363996e+00 1.27311001e+01
      -4.65577984e+00 5.76342010e+00 -4.03799009e+00 -1.35502005e+00
      -1.34323001e+00 -4.65651989e+00 5.56731999e-01 3.89527011e+00
      4.73037988e-01 2.56100011e+00 1.42386997e+00 2.38723993e-01
      2.35180998e+00 -2.09584999e+00 2.66245008e+00 -2.78479004e+00
      2.42828012e+00 -2.73340011e+00 1.15383995e+00 -2.70609999e+00
      9.23354983e-01 -2.57895994e+00 -3.24126989e-01 -1.46912003e+00 0.
      0. 2.82262993e+00 1.34911001e+00 4.93835002e-01 1.43330002e+00
      -8.75487983e-01 2.33025002e+00 1.42586994e+00 1.68975994e-01
      7.32200980e-01 2.10724007e-02 -1.43935993e-01 7.57750988e-01
      -3.84766012e-01 1.04161000e+00 -7.06862986e-01 1.11958003e+00 0.
      0. 2.30469003e-01 -1.27143994e-01 1.57005000e+00 -1.93268001e-01
      8.42414975e-01 -1.10841999e+01 2.53302002e+00 -6.57473993e+00
      4.28662014e+00 -6.27416992e+00 1.99514997e+00 -5.26416016e+00
      -2.76764005e-01 -4.12563992e+00 1.40418994e+00 -4.12961006e+00
      5.10029984e+00 -8.27472019e+00 1.26127994e+00 -3.76587003e-01
      1.53806996e+00 5.15380979e-01 2.79659009e+00 4.35272008e-01
      4.07881021e+00 -1.67970002e+00 3.40301991e+00 -4.87468004e+00
      6.64893985e-01 -6.93673992e+00 3.19410992e+00 -4.48519993e+00
      1.91840994e+00 -3.40524006e+00 -3.52310002e-01 -3.31940007e+00
      5.19328022e+00 -5.24193001e+00 1.63071001e+00 -1.29074001e+00
      1.91308999e+00 -3.42284989e+00 4.17152023e+00 -3.48581004e+00</_>
    <_>
      1.52300997e+01 1.15761003e+01 1.45078001e+01 6.33349991e+00
      1.23235998e+01 -2.40020994e-02 1.25129995e+01 -3.98421001e+00
      1.00180998e+01 -8.95897961e+00 8.94223022e+00 -1.10692997e+01
      6.10778999e+00 -1.26329002e+01 5.01721001e+00 -1.24361000e+01
      3.30593991e+00 -1.39338999e+01 -8.32672000e-01 -1.28868999e+01
      -3.06114006e+00 -1.13858995e+01 -5.70897007e+00 -1.17209997e+01
      -7.71695995e+00 -9.21450996e+00 -9.95761013e+00 -6.37812996e+00
      -1.25844002e+01 -3.48362994e+00 -1.51960001e+01 2.95235991e+00
      -1.51704998e+01 8.23009014e+00 4.63764000e+00 8.37891006e+00
      9.53678012e-01 4.46144009e+00 -5.45296013e-01 5.67022026e-01
      -2.13248992e+00 -3.07360005e+00 -5.10000992e+00 -4.99386013e-01
      4.40781021e+00 -3.97736001e+00 4.04212999e+00 -3.72676992e+00
      2.24184990e+00 4.26456004e-01 -8.61877024e-01 5.07316017e+00
      -5.57322979e+00 5.88680983e+00 -5.36377013e-01 1.85193002e+00
      -5.83664000e-01 1.47643998e-01 -6.69937015e-01 -3.27309012e-01
      -1.80711997e+00 -2.07767010e+00 1.91863999e-01 -3.99474001e+00
      1.22876000e+00 -4.40387011e+00 -1.32190001e+00 -3.70773005e+00
      -1.69077003e+00 -4.11689997e+00 -3.05623007e+00 -3.48915005e+00 0.
      0. 1.04466999e+00 -4.72984982e+00 2.46378994e+00 -3.27101994e+00
      3.80993009e+00 1.98309004e+00 3.22819996e+00 2.33912992e+00
      1.76303005e+00 1.97025001e+00 -1.52149999e+00 2.73343992e+00
      3.34381014e-01 -1.93631005e+00 7.87658989e-01 -4.07206011e+00 0.
      0. 2.64199996e+00 1.58413994e+00 1.09877002e+00 3.67386007e+00
      -4.67639017e+00 -1.83955002e+01 -1.66368997e+00 -1.19765997e+01
      -1.16001999e+00 -9.87403965e+00 6.56067014e-01 -8.85439968e+00
      3.82873988e+00 -9.27879047e+00 7.61700010e+00 -1.07509003e+01
      1.13466997e+01 -1.98635006e+01 8.54024029e+00 -1.52468004e+01
      6.78346014e+00 -1.26176004e+01 1.44501996e+00 -1.20066004e+01
      -4.31205988e-01 -1.22150002e+01 -2.00764990e+00 -1.20193996e+01
      -5.50551987e+00 -1.82140007e+01 -1.25258994e+00 -1.49484997e+01
      7.62984991e-01 -1.47470999e+01 6.10145998e+00 -1.53580999e+01
      9.96393967e+00 -1.87684002e+01 4.67705011e+00 -9.25063992e+00
      4.28481996e-01 -8.59356976e+00 -1.44070005e+00 -8.66267014e+00</_>
    <_>
      1.56643003e-01 6.23157978e+00 -1.76661998e-01 5.72007990e+00
      4.28779989e-01 7.10242987e+00 1.17168002e-01 6.57020998e+00
      -1.08624005e+00 7.00462008e+00 -2.22008005e-01 7.49625015e+00
      8.06663990e-01 8.93054008e+00 8.54874030e-02 8.44744968e+00
      3.27377009e+00 8.91718006e+00 4.65041018e+00 9.27182007e+00
      8.93093967e+00 7.64948988e+00 1.13417997e+01 6.83909988e+00
      1.09031000e+01 4.88227987e+00 7.59365988e+00 3.66710997e+00
      6.14786005e+00 1.43827999e+00 5.63000011e+00 1.11360002e+00
      4.17370987e+00 7.62489021e-01 -1.04545999e+00 -4.21981001e+00
      -1.58506000e+00 -5.22932005e+00 -2.17802000e+00 -5.04638004e+00
      -1.86646998e+00 -6.63086987e+00 -2.60661006e+00 -5.33191013e+00
      -2.18210006e+00 -4.86611986e+00 -1.84718001e+00 -2.77902007e+00
      -1.55135000e+00 -1.54688001e+00 -1.36859000e+00 -1.18201995e+00
      -1.43558002e+00 -1.74056005e+00 -1.66740000e+00 -4.87040997e+00
      -1.86295998e+00 -6.55121994e+00 -2.06896996e+00 -6.35427999e+00
      -1.34221005e+00 -7.05938005e+00 2.73714995e+00 -1.40250003e+00
      3.37372012e-02 -3.14510012e+00 -2.65417004e+00 -3.92717004e+00
      -3.43148994e+00 -2.86246991e+00 -5.16327000e+00 -8.75000000e-01 0.
      0. -1.59200001e+00 -1.86079001e+00 -4.40102011e-01 -2.59875011e+00
      -4.04495001e-01 -4.12308007e-01 -6.34567022e-01 1.32255006e+00
      -1.79733002e+00 2.07087994e+00 -1.47836006e+00 -5.47896981e-01
      -1.17206001e+00 -4.87953007e-01 -4.70734015e-02 -2.66308010e-01 0.
      0. -2.25922003e-01 2.72697997e+00 -4.06798989e-01 1.57169998e+00
      -3.78422999e+00 7.84698009e-01 -4.32653999e+00 -1.98608005e+00
      -4.04227018e+00 -3.77276993e+00 -2.05193996e+00 -3.57939005e+00
      2.99072005e-02 -4.38657999e+00 2.02388000e+00 -3.17981005e+00
      3.96224999e+00 -1.85764003e+00 2.76744008e+00 -1.09946001e+00
      -2.51830995e-01 -3.61129999e-01 -2.29588008e+00 -5.23895025e-01
      -3.39595008e+00 2.68294990e-01 -4.53222990e+00 7.82013014e-02
      -3.67914009e+00 8.29544008e-01 -3.24924994e+00 -8.26569021e-01
      -2.17612004e+00 -6.59133971e-01 8.28018010e-01 -4.90646005e-01
      2.95688009e+00 -1.03151000e+00 -1.00357004e-01 -2.37361002e+00
      -2.16052008e+00 -1.58713996e+00 -3.24448991e+00 -1.74419999e+00</_>
    <_>
      1.14079997e-01 -3.20060998e-01 6.43607974e-01 2.56927013e-01
      1.11285999e-01 8.53882015e-01 7.00195014e-01 1.37993002e+00
      -1.87942004e+00 1.98566997e+00 -3.21320009e+00 3.42383003e+00
      -3.41731000e+00 4.68060017e+00 -1.66541004e+00 2.42615008e+00
      1.21642005e+00 1.90750003e+00 4.00487995e+00 2.23846006e+00
      6.47350979e+00 2.39705992e+00 4.42295980e+00 1.72101998e+00
      1.15787005e+00 1.12734997e+00 -1.13864005e+00 1.60389996e+00
      -3.71306986e-01 1.91866004e+00 1.47478998e+00 2.23322010e+00
      2.14565992e+00 1.51730001e+00 -1.93061996e+00 9.17815976e-03
      -2.93633008e+00 -1.54491997e+00 -2.58854008e+00 -1.98093998e+00
      -2.14176989e+00 -3.34016991e+00 -3.21090996e-01 -3.61827999e-01
      -3.69976997e+00 3.26705992e-01 -2.41202998e+00 -1.30992997e+00
      -1.02234006e+00 -2.82773995e+00 -4.30862010e-01 -1.98130000e+00
      -9.29291010e-01 -7.46975005e-01 -1.55565000e+00 2.07018995e+00
      -1.34920001e+00 3.53859007e-01 -2.15340996e+00 -2.04262003e-01
      -2.99463010e+00 -1.84397995e+00 1.25654995e+00 2.83565998e+00
      -5.89783013e-01 2.87829995e+00 -1.42548001e+00 1.76274002e+00
      -3.25742006e+00 3.77912998e+00 -5.29645014e+00 2.59872007e+00 0.
      0. -1.95106995e+00 7.98938990e-01 -1.65427005e+00 -5.34762979e-01
      -1.26675999e+00 -1.60248995e+00 -3.54530007e-01 -2.77565002e-01
      -6.34377003e-01 1.07594001e+00 -1.00171995e+00 -1.40151000e+00
      -7.80852973e-01 2.91931003e-01 -3.53545994e-01 1.10732996e+00 0.
      0. 9.85778987e-01 1.33054996e+00 -4.32433993e-01 1.65638006e+00
      1.71611004e+01 1.81455994e+01 9.73602962e+00 1.49385996e+01
      2.28816009e+00 1.07067003e+01 -2.69532990e+00 1.19842997e+01
      -8.97321987e+00 1.10141001e+01 -1.46813002e+01 1.54998999e+01
      -1.92933006e+01 2.10841999e+01 -1.50853004e+01 2.12899995e+00
      -9.53376961e+00 -8.49013996e+00 -2.41260004e+00 -1.08299999e+01
      2.71569991e+00 -9.90198994e+00 1.02265997e+01 -6.04140997e-01
      1.71462994e+01 1.48525000e+01 2.67656994e+00 1.41948004e+01
      -2.39769006e+00 1.43682003e+01 -8.58481026e+00 1.45022001e+01
      -2.07036991e+01 1.80631008e+01 -9.83681011e+00 -8.88333035e+00
      -2.71562004e+00 -1.12231998e+01 2.43243003e+00 -1.03121004e+01</_>
    <_>
      1.43866003e+00 1.14153004e+01 2.51584005e+00 1.24202003e+01
      3.59303999e+00 1.34251003e+01 3.55689001e+00 1.23839998e+01
      2.58815002e+00 1.45023003e+01 3.55692005e+00 1.23839998e+01
      4.56180000e+00 1.13069000e+01 4.41723013e+00 7.14267015e+00
      4.34492016e+00 5.06060982e+00 3.30387998e+00 5.09673977e+00
      1.18564999e+00 4.12801981e+00 1.22178996e+00 5.16907978e+00
      1.25790000e+00 6.21010017e+00 2.89184988e-01 8.32831955e+00
      2.89184988e-01 8.32830048e+00 2.89184988e-01 8.32831955e+00
      -7.51861989e-01 8.36446953e+00 1.07719004e+00 1.00489998e+00
      -3.61595005e-02 -1.04104996e+00 -1.08452000e-01 -3.12312007e+00
      -1.44592002e-01 -4.16415977e+00 -1.11336005e+00 -2.04592991e+00
      4.12800980e+00 -1.18562996e+00 3.08698010e+00 -1.14949000e+00
      3.12309003e+00 -1.08452000e-01 1.11330998e+00 2.04591990e+00
      7.22808987e-02 2.08207011e+00 2.11821008e+00 9.68742013e-01
      2.19051003e+00 3.05082011e+00 4.34491014e+00 5.06060982e+00
      4.38106012e+00 6.10164022e+00 2.37125993e+00 8.25603962e+00
      2.37125993e+00 8.25603008e+00 3.37618995e+00 7.17883015e+00
      2.29898000e+00 6.17395020e+00 2.29900002e+00 6.17393017e+00 0. 0.
      -1.29407001e+00 -7.25113010e+00 8.24158013e-01 -6.28239012e+00
      1.08437002e-01 3.12311006e+00 7.22732991e-02 2.08207989e+00
      -2.04593992e+00 1.11333001e+00 1.08475000e-01 3.12310004e+00
      -1.22182000e+00 -5.16905022e+00 7.88025022e-01 -7.32343006e+00 0.
      0. 2.11821008e+00 9.68750000e-01 1.11333001e+00 2.04593992e+00
      -7.15721011e-01 9.40552044e+00 3.41231990e+00 8.21988964e+00
      4.41719007e+00 7.14267015e+00 3.33999991e+00 6.13780022e+00
      2.26282001e+00 5.13290024e+00 2.29896998e+00 6.17393017e+00
      2.29896998e+00 6.17393017e+00 2.29896998e+00 6.17393017e+00
      3.37616992e+00 7.17883015e+00 4.45334005e+00 8.18375015e+00
      5.56667995e+00 1.02297001e+01 3.48460007e+00 1.03020000e+01
      2.89200008e-01 8.32833958e+00 4.45335007e+00 8.18373013e+00
      3.34000993e+00 6.13777018e+00 3.37615991e+00 7.17882013e+00
      1.25794995e+00 6.21010017e+00 2.37125993e+00 8.25599957e+00
      3.41230989e+00 8.21986008e+00 4.48950005e+00 9.22478962e+00</_>
    <_>
      2.88344002e+00 5.95094013e+00 7.60481000e-01 5.79086018e+00
      8.79168987e-01 4.36127996e+00 -5.20934984e-02 5.30022001e+00
      1.19483995e+00 3.80997992e+00 2.47865009e+00 4.60751009e+00
      1.34447002e+00 5.49317980e+00 3.57438993e+00 5.07302999e+00
      4.56786013e+00 5.90427017e+00 5.32802010e+00 3.30785990e+00
      4.92304993e+00 2.05164003e+00 4.47014999e+00 -2.78441995e-01
      1.77689004e+00 -1.23608005e+00 3.38073999e-01 -1.01304996e+00
      6.31408989e-02 -8.06273997e-01 -1.41234994e-01 5.51604986e-01
      -2.64783001e+00 2.05075002e+00 -1.28258002e+00 -4.26199007e+00
      -3.02558988e-01 -3.13618994e+00 -1.61152995e+00 -2.07646990e+00
      -1.80466998e+00 -3.44661999e+00 -3.01767993e+00 -2.46674991e+00
      3.24265003e-01 -5.44112980e-01 -1.13750994e+00 -1.73809004e+00
      -2.53141999e+00 -1.81236005e+00 -2.76318002e+00 -3.17114997e+00
      -1.68789995e+00 -4.63027000e+00 -6.54388011e-01 -1.65418005e+00
      -4.14229989e-01 5.12474000e-01 8.84429991e-01 3.17764014e-01
      -2.07825005e-02 2.53072000e+00 3.77189994e+00 3.54919004e+00
      1.34636998e+00 2.39334011e+00 1.27365005e+00 2.28882003e+00
      -1.21199000e+00 1.17003000e+00 -1.27396002e-01 2.22310996e+00 0.
      0. -1.36892998e+00 -1.13085997e+00 -2.89970011e-01 -1.40705004e-01
      -2.76160985e-01 8.17291021e-01 -1.23101997e+00 2.11508989e+00
      -1.15743005e+00 1.07003999e+00 4.31746989e-01 1.46785998e+00
      -1.02353001e+00 -8.12748015e-01 -8.54492013e-04 -9.90859985e-01 0.
      0. 1.31544006e+00 -5.93566988e-03 3.40469003e-01 1.33326995e+00
      -1.64770997e+00 2.42167997e+00 4.33822989e-01 1.13469994e+00
      2.93808013e-01 1.07581997e+00 1.42852998e+00 2.06891990e+00
      2.41901994e+00 8.15567017e-01 1.17385995e+00 7.20139027e-01
      1.22375004e-02 1.74296999e+00 1.50314003e-01 6.20864987e-01
      1.36454999e+00 -1.68299997e+00 1.52222002e+00 -4.44472998e-01
      4.01870996e-01 -1.45471001e+00 1.67762995e+00 -2.12540001e-01
      -2.81247997e+00 3.58748007e+00 5.15793025e-01 4.46494007e+00
      1.58843994e+00 4.31407022e+00 2.64821005e+00 4.19613981e+00
      1.67632997e-01 4.11533022e+00 1.20218003e+00 -2.70708990e+00
      1.35841000e+00 -1.48426998e+00 2.30895996e-01 -2.48598003e+00</_>
    <_>
      -1.69511998e+00 -1.18387997e+00 -1.72931004e+00 -7.74901986e-01
      -1.64025998e+00 -1.45761001e+00 -1.52209997e+00 -2.13688993e+00
      -2.49324989e+00 -1.78831005e+00 -3.22549009e+00 -3.68318009e+00
      -3.87807989e+00 -5.62750006e+00 -3.29651999e+00 -8.70032024e+00
      -3.78858995e+00 -1.08762999e+01 -3.43176007e+00 -8.67959976e+00
      -3.28945994e+00 -4.44321012e+00 -2.01484990e+00 -1.34749997e+00
      -1.85248005e+00 5.01281977e-01 -1.73784995e+00 1.20836997e+00
      -4.49218988e-01 -2.52898991e-01 7.41791010e-01 -5.89890003e-01
      7.61443973e-01 -1.00063002e+00 -1.30848002e+00 -2.62767005e+00
      -1.02302003e+00 -3.96554995e+00 -6.38588011e-01 -5.14407015e+00
      8.57948005e-01 -6.12312984e+00 2.11980009e+00 -3.72235990e+00
      -1.59035003e+00 -5.08090019e+00 -2.31569004e+00 -6.35530996e+00
      -8.93523991e-01 -6.28105021e+00 4.33380008e-01 -4.97895002e+00
      4.91881996e-01 -2.50818992e+00 -1.09844995e+00 -1.90430000e-01
      -2.23019004e+00 2.08816994e-02 -1.01819003e+00 -1.84789002e+00
      -2.08488011e+00 -2.73531008e+00 1.51006997e+00 4.33365011e+00
      6.76558971e-01 3.22336006e+00 -2.28922009e+00 8.84262025e-01
      -2.19594002e+00 3.06412005e+00 -4.26408005e+00 4.01166010e+00 0.
      0. 2.53524989e-01 -1.19418001e+00 2.81717992e+00 -3.26272011e+00
      1.77813005e+00 -9.89632010e-01 2.48558998e+00 2.40704989e+00
      1.15243995e+00 2.32869005e+00 -2.87856007e+00 9.39140022e-01
      -2.64968991e-01 -2.34792995e+00 1.05191004e+00 -2.25676990e+00 0.
      0. 7.20336974e-01 3.41299009e+00 -1.64473999e+00 2.15633988e+00
      1.38158998e+01 1.56019001e+01 6.74512005e+00 8.36052036e+00
      7.57430971e-01 2.36259007e+00 -5.73045015e+00 3.13544989e+00
      -9.92918015e+00 2.83971000e+00 -1.77625008e+01 9.12415028e+00
      -2.01777992e+01 1.69199009e+01 -1.82157001e+01 -1.51537001e+00
      -1.23438997e+01 -1.21211004e+01 -6.99256992e+00 -1.28898001e+01
      -1.83285999e+00 -1.03915005e+01 7.29472017e+00 -1.10418999e+00
      1.41796999e+01 1.12047005e+01 3.34060997e-01 9.23112011e+00
      -5.03711987e+00 1.00417004e+01 -1.03380003e+01 9.70998001e+00
      -2.11832008e+01 1.35466003e+01 -1.21379004e+01 -1.57552004e+01
      -5.67325020e+00 -1.64570999e+01 -3.67096007e-01 -1.61690006e+01</_>
    <_>
      1.34116995e+00 -2.29065990e+00 1.61047006e+00 -4.26906013e+00
      7.60726988e-01 -5.06184006e+00 9.53709006e-01 -5.84539986e+00
      3.30353999e+00 -4.35822010e+00 6.52859020e+00 -3.70978999e+00
      6.42447996e+00 -3.86113000e+00 4.17688990e+00 -3.69312000e+00
      3.11796999e+00 -5.27236986e+00 -2.08916998e+00 -5.34118986e+00
      -6.85439014e+00 -6.28008986e+00 -6.99119997e+00 -5.10466003e+00
      -3.63323998e+00 -5.09546995e+00 -2.14633012e+00 -5.13742018e+00
      -1.60666001e+00 -4.13610983e+00 -2.09057999e+00 -8.96690011e-01
      -2.45989990e+00 2.24789000e+00 -2.05153990e+00 3.15130997e+00
      1.25528002e+00 5.03155994e+00 2.95771003e+00 5.75343990e+00
      2.21848011e+00 8.48406982e+00 1.35135996e+00 8.71947002e+00
      4.64422989e+00 2.59738994e+00 4.18464994e+00 2.32925010e+00
      1.21585000e+00 -1.33914995e+00 3.38881999e-01 -9.99054015e-01
      5.82458019e-01 -1.19693005e+00 3.04596007e-01 3.99796009e+00
      -2.88634986e-01 1.11573005e+00 -8.29192996e-01 4.04799998e-01
      -1.40794003e+00 -1.40604997e+00 -1.19649994e+00 -6.59030008e+00
      -1.56325996e+00 -5.39637995e+00 -1.96352005e+00 -4.12635994e+00
      -3.31223989e+00 -3.68900990e+00 -2.46103001e+00 -3.32810998e+00 0.
      0. 1.97920001e+00 -6.38972998e-01 1.51613998e+00 -2.07165003e-01
      1.94945002e+00 -1.75956994e-01 2.29855990e+00 4.25094992e-01
      1.68540001e+00 6.01195991e-02 2.50809014e-01 2.26595998e+00
      -1.79443005e-02 7.08114982e-01 -5.37963986e-01 -4.10346985e-02 0.
      0. 2.39487007e-01 6.43577993e-01 -3.49976003e-01 3.07235986e-01
      -1.10454998e+01 -2.54041004e+01 -5.71828985e+00 -2.17675991e+01
      -3.78618002e+00 -2.02975006e+01 -3.09600997e+00 -2.01893997e+01
      -3.32568002e+00 -2.09375992e+01 4.45053011e-01 -2.08589993e+01
      6.21989012e+00 -2.63043003e+01 2.61884999e+00 -1.03702002e+01
      -9.78545994e-02 -3.10713005e+00 -8.68346989e-01 -2.25850010e+00
      -1.64412999e+00 -3.52385998e+00 -4.63002014e+00 -1.01693001e+01
      -1.22645998e+01 -2.30522995e+01 -1.97582996e+00 -2.28936996e+01
      -2.27144003e+00 -2.16138000e+01 -2.57715011e+00 -2.23957005e+01
      6.44437981e+00 -2.42752991e+01 -6.36947989e-01 1.76537001e+00
      -1.43120003e+00 2.58539009e+00 -2.21184993e+00 1.37232995e+00</_>
    <_>
      -2.79065990e+00 -6.92261982e+00 -2.20079994e+00 -9.31830978e+00
      -3.97070003e+00 -1.03641996e+01 -4.46046019e+00 -1.02390003e+01
      -4.85493994e+00 -8.81993008e+00 -2.82350993e+00 -9.78923035e+00
      5.84526002e-01 -9.48773003e+00 1.74047995e+00 -6.61471987e+00
      1.74431002e+00 -4.86855984e+00 2.99110007e+00 -6.81366014e+00
      3.16529989e+00 -8.80457020e+00 4.52823019e+00 -1.20768995e+01
      4.90224981e+00 -1.18371000e+01 4.13024998e+00 -1.16732998e+01
      1.04382002e+00 -9.05823040e+00 -7.62390018e-01 -5.27212000e+00
      1.07138002e+00 -1.66489005e+00 -2.27818990e+00 -6.49701977e+00
      -6.93436027e-01 -3.85156989e+00 7.04062998e-01 -2.29718995e+00
      -4.55933005e-01 -6.25795007e-01 -1.66898000e+00 2.26128006e+00
      4.34755993e+00 1.44410002e+00 5.56486988e+00 -6.59210026e-01
      5.55669022e+00 -1.49616003e+00 6.57653999e+00 -2.40879011e+00
      7.53418016e+00 -2.22979999e+00 1.46394002e+00 1.24653995e+00
      -1.10473996e-02 1.30167997e+00 -3.12500000e-01 1.12113997e-01
      -5.94771981e-01 1.50726005e-01 -3.50545001e+00 -2.59314990e+00
      -2.33644009e+00 -2.44754004e+00 -1.20163000e+00 -3.49338007e+00
      -1.20644999e+00 -4.52662992e+00 -1.14153004e+00 -4.37099981e+00 0.
      0. 1.94205999e-01 2.17354000e-01 2.16399997e-01 5.18661022e-01
      1.23111999e+00 7.46901989e-01 -1.32964003e+00 -6.32744014e-01
      -1.43989995e-01 -9.87320006e-01 1.20633996e+00 4.10133004e-01
      2.68201995e+00 1.81620002e+00 1.42402995e+00 9.46547985e-01 0. 0.
      1.08717000e+00 -2.40425006e-01 1.13597000e+00 6.64810002e-01
      -1.35632000e+01 -2.18111992e+01 -6.68627977e+00 -6.10120010e+00
      -4.00380993e+00 -2.34259009e+00 -2.83741999e+00 -2.23245001e+00
      -1.61790001e+00 -3.33798003e+00 -7.33047009e-01 -9.23036003e+00
      6.78134012e+00 -2.74612007e+01 1.29240000e+00 -1.29434996e+01
      2.30178997e-01 -8.24985027e+00 -2.16300988e+00 -7.11137009e+00
      -3.36490011e+00 -7.21892023e+00 -5.90425014e+00 -1.09701996e+01
      -1.33765001e+01 -1.80650005e+01 -3.16861010e+00 -7.21552992e+00
      -3.17589998e+00 -7.07243013e+00 -2.02745008e+00 -9.38451958e+00
      6.96755981e+00 -2.39643002e+01 6.02752984e-01 -4.64197016e+00
      -5.45746028e-01 -2.32993007e+00 -2.99103999e+00 -3.59329009e+00</_>
    <_>
      -5.20456016e-01 3.13775992e+00 -5.08732021e-01 2.72357988e+00
      5.80582023e-01 1.30490005e+00 1.56623995e+00 9.44992006e-01
      3.52139997e+00 1.73629999e+00 5.30430984e+00 3.61696005e+00
      7.04064989e+00 4.49835014e+00 6.71836996e+00 3.20560002e+00
      8.46584988e+00 2.19219995e+00 9.09609985e+00 2.29528999e+00
      7.77662992e+00 2.89519995e-01 5.56588984e+00 -3.82541990e+00
      4.38275003e+00 -5.67165995e+00 2.23215008e+00 -7.51941013e+00
      3.09069991e+00 -5.99218988e+00 8.51195991e-01 -5.73380995e+00
      -2.40225005e+00 -5.52161980e+00 1.36986995e+00 1.38206005e+00
      1.96788001e+00 4.82558012e+00 3.68117988e-01 7.97408009e+00
      -1.17554002e-01 1.00316000e+01 -2.63150001e+00 1.08343000e+01
      1.23705006e+00 1.10611000e+01 -1.02981997e+00 7.82892990e+00
      -2.43225002e+00 7.77414989e+00 -4.68184996e+00 4.40119982e+00
      -2.51504993e+00 6.87637031e-02 -3.61373991e-01 5.33919001e+00
      -2.79143989e-01 4.03098011e+00 -6.80084005e-02 6.08588994e-01
      7.94219971e-02 -1.76311004e+00 5.16541004e-01 -3.10578990e+00
      2.22809002e-01 -1.02472997e+00 2.17223001e+00 -9.28969979e-01
      2.08081007e+00 -1.98569000e+00 2.00062990e+00 -3.02801991e+00 0.
      0. -8.02536011e-02 -1.99696004e+00 6.87682986e-01 -8.96399975e-01
      4.36477989e-01 -1.14975004e-02 -4.14429009e-01 -1.15668997e-01
      -1.68166995e-01 -1.11511000e-01 -5.17960012e-01 9.95094001e-01
      3.96881014e-01 1.52503997e-01 2.30286002e-01 -9.26402986e-01 0. 0.
      1.66060999e-01 -8.35648030e-02 3.97933990e-01 -6.81686029e-02
      7.37194014e+00 -5.42261982e+00 4.85410023e+00 -3.31514001e+00
      3.56052995e+00 -3.30461001e+00 4.48794985e+00 -3.29501009e+00
      5.32793999e+00 -2.14665008e+00 4.05787992e+00 -2.32813001e+00
      2.90862989e+00 -4.66371012e+00 4.95698977e+00 6.71661019e-01
      6.09943008e+00 2.85065007e+00 5.14015007e+00 3.84366012e+00
      4.29390001e+00 2.74647999e+00 5.75319004e+00 -3.15308005e-01
      7.13749981e+00 -3.29535007e+00 3.58088994e+00 -3.47095990e+00
      4.57041979e+00 -4.49927998e+00 6.46423006e+00 -3.31283998e+00
      3.01101995e+00 -4.65117979e+00 6.08555984e+00 3.06973004e+00
      5.24245977e+00 1.94699001e+00 4.31816006e+00 1.91176999e+00</_>
    <_>
      9.05474007e-01 6.68046999e+00 1.10333002e+00 7.25578022e+00
      2.30334997e+00 7.76069021e+00 2.45590997e+00 8.31680012e+00
      2.63547993e+00 1.09357996e+01 2.53460002e+00 9.33314991e+00
      2.40493011e+00 9.84090042e+00 3.04086995e+00 5.12061024e+00
      3.57129002e+00 2.69201994e+00 3.02005005e+00 1.52175999e+00
      3.80890012e-01 1.73198998e+00 -1.16092002e+00 1.98337996e+00
      -1.53719997e+00 4.40963984e+00 -1.83477998e+00 4.81774998e+00
      -2.07837009e+00 5.26657009e+00 -2.30731010e+00 6.76515007e+00
      -2.49969006e+00 8.26142979e+00 2.77824014e-01 -6.05274022e-01
      -2.28225994e+00 -4.62473011e+00 -2.76770997e+00 -8.95110035e+00
      -2.12244010e+00 -1.23568001e+01 -2.36728001e+00 -1.15771999e+01
      4.49637985e+00 -9.92269993e+00 3.06331992e+00 -9.92800999e+00
      2.77787995e+00 -7.92625999e+00 -5.35094976e-01 -3.83100009e+00
      -3.70772004e+00 -1.94138002e+00 4.07378006e+00 -2.74719000e+00
      5.36627007e+00 4.42200005e-02 6.58420992e+00 7.16988027e-01
      7.81724977e+00 1.39611995e+00 3.10335994e+00 5.76328993e+00
      5.07512999e+00 5.57300997e+00 5.93955994e+00 4.36507988e+00
      4.66842985e+00 3.31364012e+00 3.47185993e+00 4.38082981e+00 0. 0.
      -3.89793009e-01 -5.25817013e+00 2.58785009e+00 -3.35898995e+00
      1.57791996e+00 2.77343988e+00 1.86795998e+00 4.92997980e+00
      -1.10968995e+00 3.03081012e+00 -3.56139988e-01 2.39559007e+00
      -7.73864985e-01 -2.83877993e+00 1.06713998e+00 -4.05674982e+00 0.
      0. 2.39958000e+00 3.10379004e+00 5.22460997e-01 3.28074002e+00
      -4.35660988e-01 9.65235996e+00 5.60204983e+00 9.50739002e+00
      5.25432014e+00 6.31850004e+00 4.02793980e+00 5.16135979e+00
      2.75043011e+00 4.12502003e+00 5.24658024e-01 6.11665010e+00
      1.43570006e+00 5.88292980e+00 4.37958002e-01 -1.56316996e+00
      3.78149009e+00 -3.77214003e+00 5.06135988e+00 -2.69914007e+00
      7.39280987e+00 -5.60913026e-01 5.63245010e+00 4.97216988e+00
      1.56452000e+00 9.56319046e+00 6.47646999e+00 9.27600002e+00
      4.11528015e+00 6.08160019e+00 2.90134001e+00 7.10583019e+00
      5.15030026e-01 7.01360989e+00 2.62531996e+00 -3.46423006e+00
      4.88669014e+00 -4.53970003e+00 6.18535995e+00 -1.30043006e+00</_>
    <_>
      6.04762994e-02 3.61701995e-01 3.44996989e-01 3.61304998e-01
      -7.81754017e-01 -1.01479006e+00 -1.92030001e+00 -2.40173006e+00
      -1.65138996e+00 -2.50391006e+00 1.41869001e-02 6.77184984e-02
      2.99675012e+00 1.18500996e+00 3.15779996e+00 2.32785010e+00
      5.92022991e+00 5.97473025e-01 7.19275999e+00 -2.48251009e+00
      5.61257982e+00 -5.46738005e+00 3.99975991e+00 -7.03962994e+00
      3.69775009e+00 -9.94073009e+00 2.02231002e+00 -1.13738003e+01
      4.28894013e-01 -8.62197971e+00 -2.52887011e+00 -5.83649015e+00
      -4.06403017e+00 -2.98615009e-01 -1.59460998e+00 -5.26052999e+00
      -1.72521996e+00 -5.39167976e+00 -1.73409998e+00 -4.23043013e+00
      -1.70846999e+00 -4.43636990e+00 -4.36702013e+00 -1.84534001e+00
      -2.61566013e-01 -3.57429004e+00 -2.92724997e-01 -2.40072989e+00
      1.04050004e+00 -2.63795996e+00 1.03200996e+00 -4.21959019e+00
      -2.13043004e-01 -4.32746983e+00 -4.95911017e-03 7.05841005e-01
      1.42730996e-01 -6.77390993e-01 3.13629001e-01 -6.73065007e-01
      4.38995004e-01 -3.42112994e+00 -7.45986998e-01 -1.80154002e+00
      6.14181995e-01 -3.31453991e+00 6.09390020e-01 -4.80530977e+00
      -7.60056019e-01 -3.51952004e+00 -7.87505984e-01 -3.63223004e+00 0.
      0. -6.19812012e-02 -1.22634999e-01 -4.58373986e-02 1.09449995e+00
      2.76909995e+00 -4.67303991e-01 1.43306994e+00 -2.98240989e-01
      8.62044990e-02 1.25976002e+00 -1.33608997e+00 4.42200005e-01
      -9.05304030e-02 -1.08886003e+00 -6.30035028e-02 1.27795994e-01 0.
      0. 1.44906998e+00 8.80431980e-02 6.85577020e-02 2.81684995e-01
      1.08138001e+00 1.10481000e+00 2.38330007e+00 2.31432009e+00
      2.25124002e+00 -6.05208993e-01 9.16260004e-01 -6.86600029e-01
      2.25367999e+00 -8.21533024e-01 9.95926023e-01 1.79123998e+00
      -2.94555992e-01 3.08104992e-01 -1.98028997e-01 -9.36447024e-01
      1.24154997e+00 -8.02474976e-01 1.24621999e+00 -6.88843012e-01
      2.61578012e+00 -5.97504020e-01 1.21206999e+00 9.62813973e-01
      3.83048010e+00 9.79812980e-01 2.46763992e+00 3.52858996e+00
      2.48569012e+00 3.41406012e+00 2.46961999e+00 3.30093002e+00
      -3.05499005e+00 4.33578014e-01 -4.64293987e-01 -7.65178013e+00
      -4.70977992e-01 -8.91479015e+00 2.26289010e+00 -8.85715008e+00</_>
    <_>
      3.86327004e+00 -6.02569008e+00 3.56132007e+00 -7.51009989e+00
      3.12491012e+00 -7.80298996e+00 2.69356990e+00 -8.04584980e+00
      3.10918999e+00 -7.04247999e+00 3.16415000e+00 -8.15637016e+00
      3.03946996e+00 -9.04996014e+00 3.67294014e-01 -9.84237957e+00
      -1.24744999e+00 -9.83020020e+00 -2.80620003e+00 -8.24184990e+00
      -5.01692009e+00 -9.51774979e+00 -5.81057978e+00 -9.40320015e+00
      -5.27322006e+00 -1.02957001e+01 -5.52615023e+00 -8.80556965e+00
      -5.45520020e+00 -9.65349960e+00 -6.50009012e+00 -9.36472988e+00
      -7.58444023e+00 -7.94454002e+00 3.62933993e-01 -2.81563997e+00
      -4.94301987e+00 -5.77190018e+00 -4.74803019e+00 -1.00964003e+01
      -3.47609997e+00 -1.23736000e+01 -2.29852009e+00 -1.25380001e+01
      -3.28323007e-01 -1.09961996e+01 -1.27203000e+00 -9.31865025e+00
      -1.78528000e-02 -6.68054008e+00 -2.31256008e+00 -3.16957998e+00
      -5.53432989e+00 -1.73366994e-01 1.04646003e+00 -3.13529998e-01
      1.99713004e+00 -3.72695997e-02 1.89042997e+00 -2.11332989e+00
      2.84105992e+00 -1.83709002e+00 1.27639994e-01 1.87873995e+00
      2.04936004e+00 -4.64278996e-01 1.56879997e+00 -1.74495006e+00
      1.05470002e+00 -3.12988013e-01 6.35528982e-01 1.05887997e+00 0. 0.
      -5.00739992e-01 -3.02837992e+00 9.67299998e-01 -2.81821990e+00
      1.33425999e+00 -7.99919009e-01 7.29263008e-01 3.46516991e+00
      -7.88757026e-01 3.26007009e+00 -1.45480001e+00 -4.16245013e-01
      -8.93158019e-01 -1.04231000e+00 -5.11551023e-01 -9.26769018e-01 0.
      0. -8.10028017e-01 4.23537016e+00 -2.33340001e+00 2.95393991e+00
      -2.53307009e+00 3.09837008e+00 -9.48882997e-01 4.97966003e+00
      -4.91959006e-01 5.34004021e+00 9.84344035e-02 2.97772002e+00
      -1.70203996e+00 4.33533001e+00 -1.28032994e+00 5.37215996e+00
      -8.33953977e-01 6.15407991e+00 -1.43668997e+00 4.32752991e+00
      -7.32773006e-01 2.77534008e+00 -9.31091011e-02 2.60949993e+00
      5.22231996e-01 3.72500992e+00 -1.01540995e+00 3.82487011e+00
      -5.99632025e-01 4.43923998e+00 -5.18249989e-01 3.55888009e+00
      4.26940992e-02 2.42782998e+00 -1.76285994e+00 3.73550010e+00
      -1.58089995e+00 4.89770985e+00 -5.47011971e-01 2.58864999e+00
      4.26940992e-02 2.42782998e+00 1.79451001e+00 3.63290000e+00</_>
    <_>
      4.88734007e+00 1.23045998e+01 2.71287990e+00 1.21686001e+01
      3.28284001e+00 1.20990000e+01 5.20049000e+00 1.34708996e+01
      4.38373995e+00 1.32610998e+01 4.87800980e+00 1.29736004e+01
      3.89615989e+00 1.24913998e+01 7.12571001e+00 9.30817032e+00
      5.87554979e+00 8.66232014e+00 5.88013983e+00 6.65307999e+00
      5.57506990e+00 7.48534012e+00 6.63546991e+00 7.03397989e+00
      3.43259001e+00 5.15432978e+00 2.88424993e+00 4.96717978e+00
      2.30858994e+00 4.82467985e+00 1.66079998e+00 6.09813976e+00
      1.03261995e+00 6.02175999e+00 2.34283996e+00 3.44080997e+00
      -1.85922003e+00 -2.62444997e+00 -1.65970004e+00 -8.62475014e+00
      -1.81107000e-01 -9.01739025e+00 -2.16370001e-01 -5.24793005e+00
      -1.65298000e-01 -5.85473013e+00 -1.27579004e-01 -9.09515953e+00
      1.09192002e+00 -6.68907022e+00 2.35980010e+00 -2.90390992e+00
      -3.28368992e-01 8.30268979e-01 -1.19644001e-01 2.51694005e-02
      1.60143995e+00 1.49804997e+00 4.88525003e-01 4.24841022e+00
      2.23297000e+00 5.72325993e+00 4.88846016e+00 1.32683001e+01
      3.74732995e+00 1.02108002e+01 2.56151009e+00 7.12587023e+00
      1.04829001e+00 8.20901012e+00 8.32184017e-01 1.07763004e+01 0. 0.
      6.69327006e-02 -4.42493010e+00 1.45975995e+00 -4.63676023e+00
      1.24875998e+00 3.45448995e+00 -1.20757997e-01 3.66826010e+00
      -1.51356995e+00 3.88006997e+00 -1.41466999e+00 7.50564992e-01
      -1.29892004e+00 -5.09226990e+00 1.17264003e-01 -5.30210018e+00 0.
      0. -6.87102973e-02 3.04977989e+00 -1.48485994e+00 3.25962996e+00
      1.54708996e-01 9.19145012e+00 4.05206013e+00 1.32919998e+01
      4.09918022e+00 1.16154003e+01 2.79427004e+00 1.13409996e+01
      2.69706988e+00 1.24962997e+01 2.76926994e+00 1.21968002e+01
      5.86069012e+00 7.86191988e+00 2.00760007e+00 6.58565998e+00
      2.14759994e+00 5.48098993e+00 3.66097999e+00 2.99939990e+00
      3.52446008e+00 4.62147999e+00 3.24376011e+00 7.67687988e+00
      1.19606003e-01 1.04460001e+01 4.26255989e+00 1.16290998e+01
      2.86410999e+00 1.27454004e+01 2.86039996e+00 1.25100002e+01
      5.82532978e+00 9.39848042e+00 1.84223998e+00 5.47880983e+00
      3.24048996e+00 5.76102018e+00 3.17419004e+00 5.99050999e+00</_>
    <_>
      3.14602995e+00 -4.50061989e+00 3.31009007e+00 -3.75108004e+00
      2.51169991e+00 -3.97432995e+00 1.70817006e+00 -4.19252014e+00
      -8.84208977e-02 -2.51636004e+00 -1.00381005e+00 -2.76572990e+00
      -2.96325994e+00 -1.58417001e-01 -4.02643013e+00 1.51144004e+00
      -4.21881008e+00 2.24892998e+00 -2.54231000e+00 2.07961988e+00
      -1.83889997e+00 1.01894999e+00 -1.14084005e+00 4.10461007e-03
      -4.33043987e-01 -9.19005990e-01 -6.57684028e-01 -2.72312999e+00
      -1.82467997e+00 -3.54425001e+00 -2.01901007e+00 -4.34488010e+00
      -3.13811988e-01 -3.21532011e+00 1.89805996e+00 -1.60432005e+00
      1.70448005e+00 3.09596986e-01 6.05086982e-01 -7.70905018e-01
      -4.53330994e-01 1.28440997e-02 4.33822989e-01 -1.12831998e+00
      1.15832996e+00 -2.32128000e+00 1.91764998e+00 -2.40381002e+00
      7.87627995e-01 -1.56950998e+00 6.56036019e-01 -7.70627975e-01
      -3.05449992e-01 -9.64206994e-01 4.45389003e-01 -4.30534005e-01
      -3.84155005e-01 -5.41908026e-01 -2.61337012e-01 -1.60567999e+00
      -1.38519004e-01 -1.71705997e+00 -8.51669014e-01 -1.69028997e+00
      -9.02145028e-01 -1.77205002e+00 -1.92028999e+00 -9.06615973e-01
      -2.01161003e+00 -9.68216002e-01 -2.10297990e+00 -1.02982998e+00 0.
      0. -1.11771002e-01 -5.15213013e-02 7.59621024e-01 -1.43630996e-01
      1.67191994e+00 -2.66068012e-01 8.15932989e-01 7.53036022e-01
      -4.01381999e-02 -1.12259001e-01 2.78854012e-01 -1.66390002e+00
      1.09897006e+00 -7.42797971e-01 1.00781000e+00 -8.34945977e-01 0.
      0. 1.01608001e-01 5.14678992e-02 1.92794994e-01 1.43638998e-01
      -2.42448997e+00 -2.80899000e+00 -5.44434023e+00 -1.90839005e+00
      -5.55618000e+00 -9.97359991e-01 -6.56409979e+00 -1.31835997e-01
      -7.61292982e+00 -1.14075994e+00 -8.64109993e+00 6.46453977e-01
      -1.06265001e+01 4.83047009e-01 -9.52169991e+00 1.50753999e+00
      -9.41512966e+00 1.58448994e+00 -8.37656021e+00 1.65118003e+00
      -6.39581013e+00 7.75588989e-01 -5.36238003e+00 -1.04724002e+00
      -2.46507001e+00 -1.88736999e+00 -5.49984980e+00 -1.05305004e+00
      -6.52315998e+00 -1.72379002e-01 -8.51918030e+00 -2.44140998e-01
      -1.15483999e+01 5.13778985e-01 -8.52939034e+00 1.66055000e+00
      -7.48061991e+00 7.74901986e-01 -7.41984987e+00 8.46526980e-01</_>
    <_>
      -1.30789006e+00 -2.23555994e+00 -1.30789995e+00 -2.23553991e+00
      -1.52096003e-01 -2.31159997e+00 -1.30789006e+00 -2.23554993e+00
      -1.23183000e+00 -1.07973003e+00 -1.23183000e+00 -1.07973003e+00
      -1.15578997e+00 7.61108026e-02 -1.23183000e+00 -1.07974005e+00
      1.52588000e-05 6.10351999e-05 1.15584004e+00 -7.60193020e-02
      1.07980001e+00 -1.23178005e+00 1.15582001e+00 -7.60039985e-02
      -7.59887993e-02 -1.15577996e+00 1.15587997e+00 -7.60039985e-02
      1.15585005e+00 -7.60345012e-02 -7.59887993e-02 -1.15576994e+00 0.
      7.62938998e-06 0. -3.81469999e-06 -1.15579998e+00 7.60345012e-02
      -7.60193020e-02 -1.15581000e+00 1.15585005e+00 -7.60345012e-02
      7.60345012e-02 1.15581000e+00 -1.07973003e+00 1.23185003e+00
      -1.07975996e+00 1.23184001e+00 3.05176000e-05 3.81469999e-06
      6.10351999e-05 -7.62938998e-06 -7.59582967e-02 -1.15581000e+00
      -1.07974005e+00 1.23185003e+00 3.05176000e-05 1.52588000e-05
      -1.15576005e+00 7.60421976e-02 4.57763999e-05 3.05176000e-05
      -1.15582001e+00 7.60345012e-02 -1.23183000e+00 -1.07974005e+00
      -1.15578997e+00 7.60651007e-02 0. 3.05176000e-05 4.57763999e-05
      1.52588000e-05 0. 0. 7.60421976e-02 1.15579998e+00 -1.07974994e+00
      1.23185003e+00 1.52588000e-05 0. 7.62938998e-06 1.52588000e-05
      1.52588000e-05 -7.62938998e-06 6.10351999e-05 7.62938998e-06
      7.60497972e-02 1.15578997e+00 7.60802999e-02 1.15579998e+00 0. 0.
      4.57763999e-05 7.62938998e-06 1.15584004e+00 -7.60269016e-02
      -1.07973003e+00 1.23186004e+00 7.60497972e-02 1.15582001e+00
      -1.07974005e+00 1.23187006e+00 3.05176000e-05 3.05176000e-05
      3.05176000e-05 1.52588000e-05 3.05176000e-05 3.05176000e-05
      1.15581000e+00 -7.60193020e-02 1.15582001e+00 -7.59887993e-02
      1.15582001e+00 -7.60039985e-02 1.52588000e-05 1.52588000e-05
      -7.60193020e-02 -1.15578997e+00 3.05176000e-05 6.10351999e-05
      -1.15577996e+00 7.60802999e-02 1.52588000e-05 3.05176000e-05
      3.05176000e-05 4.57763999e-05 7.60651007e-02 1.15582001e+00
      1.15584004e+00 -7.60039985e-02 1.15581000e+00 -7.60193020e-02 0.
      3.05176000e-05 3.05176000e-05 3.05176000e-05</_>
    <_>
      8.75374019e-01 -6.69937992e+00 2.65673012e-01 -5.48791981e+00
      -3.65417004e-01 -4.29212999e+00 -2.14016008e+00 -1.78392005e+00
      -1.69730997e+00 -1.98453999e+00 -1.36023998e-01 -2.36641002e+00
      -1.12189996e+00 -2.67919993e+00 -2.00598001e+00 -6.01440012e-01
      5.65963984e-01 -7.74535984e-02 4.49340999e-01 -5.90057015e-01
      1.24394000e+00 -3.62038994e+00 9.35088992e-01 -4.02762985e+00
      1.76028001e+00 -4.39119005e+00 2.51566005e+00 -4.59245014e+00
      7.02117980e-01 -5.79177999e+00 1.51339996e+00 -4.70376015e+00
      -3.47198009e-01 -5.83903980e+00 -1.75179994e+00 -3.14136004e+00
      -2.11658001e+00 -4.59158993e+00 -2.30016994e+00 -4.92337990e+00
      -2.44137001e+00 -6.52161980e+00 -2.23873997e+00 -5.63383007e+00
      2.33566001e-01 -5.26508999e+00 -1.15955997e+00 -5.51534986e+00
      2.14539006e-01 -3.53803992e+00 -7.76672006e-01 -2.59008002e+00
      6.70714974e-01 -2.97339010e+00 -2.18933001e-01 -1.17895997e+00
      1.67266995e-01 4.06036004e-02 4.69116002e-01 3.21732014e-02
      7.70981014e-01 2.36968994e-02 2.51221991e+00 2.66459990e+00
      1.25395000e+00 1.38002002e+00 5.87158017e-02 1.30773997e+00
      -1.23196006e+00 1.23119998e+00 -8.78143013e-02 9.70260978e-01 0.
      0. -3.35274011e-01 -2.67681003e+00 3.42760992e+00 -1.98521996e+00
      3.82887006e+00 1.42984998e+00 2.93072009e+00 5.45179987e+00
      4.14406002e-01 4.67296982e+00 -1.04567003e+00 2.07417011e+00
      -1.42360997e+00 -6.33994997e-01 -3.01223993e-01 -2.20836997e+00 0.
      0. 2.58361995e-01 2.66967010e+00 -9.45541024e-01 3.03451991e+00
      -3.77151012e-01 4.45346022e+00 7.41698980e-01 5.32372999e+00
      1.87725997e+00 5.00724983e+00 1.90723002e+00 4.83211994e+00
      1.75454998e+00 3.40618992e+00 6.84997976e-01 4.46087980e+00
      7.45926023e-01 2.94531012e+00 -3.62594992e-01 3.31445003e+00
      9.39423025e-01 3.46503997e+00 1.15794003e+00 6.12189007e+00
      1.06496000e+00 5.08463001e+00 1.02506006e+00 5.31812000e+00
      8.30994010e-01 4.23953009e+00 2.08370996e+00 4.99449015e+00
      8.48586977e-01 4.90942001e+00 8.17322016e-01 4.70581007e+00
      8.31664979e-01 4.30573988e+00 -5.10757029e-01 3.58349991e+00
      7.45697021e-01 3.68423009e+00 7.37121999e-01 3.87503004e+00</_>
    <_>
      2.48885012e+00 -1.25821996e+00 1.37550998e+00 -3.07143986e-01
      1.32635999e+00 -5.27541995e-01 1.32378995e+00 3.78219992e-01
      1.30647004e+00 1.29294002e+00 1.28261995e+00 3.34593010e+00
      4.30298001e-02 4.36159992e+00 -1.37253003e-02 7.60925007e+00
      8.61984015e-01 7.52914000e+00 5.55922985e-01 6.44765997e+00
      2.95302987e-01 5.44756985e+00 -1.04863000e+00 4.54469013e+00
      -1.29822001e-01 2.45647001e+00 -1.88262999e-01 2.68578005e+00
      2.02094007e+00 2.82056999e+00 8.28765988e-01 1.97477996e+00
      -2.46460006e-01 3.38713002e+00 1.65900998e-02 -4.38979006e+00
      -1.42845005e-01 -5.38276005e+00 -2.25814998e-01 -3.10819006e+00
      -2.46527004e+00 1.44976997e+00 -4.65299988e+00 7.10247993e+00
      7.55698013e+00 7.71906996e+00 5.00153017e+00 4.51698017e+00
      2.33488011e+00 -9.66868997e-01 2.00870991e+00 -4.35311985e+00
      1.92154002e+00 -3.34751010e+00 6.35284007e-01 1.13169003e+00
      6.31546021e-01 9.92676020e-01 6.27182007e-01 8.46008003e-01
      6.22817993e-01 6.99286997e-01 7.58697987e-01 5.64224005e-01
      -4.38582987e-01 5.93491018e-01 -4.70748991e-01 1.70292997e+00
      -1.68015003e+00 1.77187002e+00 -5.90698004e-01 2.87381005e+00 0.
      0. -1.30586004e+00 -2.12888002e+00 8.61693978e-01 -1.09282994e+00
      -2.78786004e-01 1.12205994e+00 -1.66015998e-01 1.08178997e+00
      -8.90045017e-02 -4.68369015e-02 1.54926002e+00 2.17070007e+00
      -8.89174998e-01 1.04404002e-01 1.18585002e+00 -1.10412002e+00 0.
      0. 2.38668990e+00 9.71503973e-01 1.43849003e+00 2.14115000e+00
      -2.78191000e-01 2.86132991e-01 -3.64082009e-01 3.70620996e-01
      -2.65883994e+00 1.63601995e+00 -1.57384002e+00 2.68412995e+00
      -5.29724002e-01 2.67526007e+00 5.30974984e-01 3.70985007e+00
      4.96691990e+00 4.56627989e+00 1.78355002e+00 6.88031006e+00
      -3.63647014e-01 6.93384981e+00 -1.44479001e+00 5.83900023e+00
      -2.53103995e+00 4.77553988e+00 -1.44865000e+00 1.38900995e+00
      -1.40384996e+00 1.46269000e+00 -1.44777000e+00 3.74179006e+00
      -1.53359997e+00 3.73337007e+00 -4.44777995e-01 4.82758999e+00
      3.94180012e+00 5.74225998e+00 -3.98819000e-01 5.94608021e+00
      -1.44166994e+00 5.97031021e+00 -1.40179002e+00 4.86022997e+00</_>
    <_>
      -1.45137000e+00 4.49306011e+00 -1.51313996e+00 1.74474001e+00
      -1.60578001e+00 -9.88143981e-01 -1.71387005e+00 -2.58620000e+00
      -1.89914000e+00 -3.00307012e+00 -3.32734990e+00 -2.23878002e+00
      -4.83275986e+00 -2.53214002e+00 -5.24962997e+00 -2.74829006e+00
      -1.17348003e+00 -5.06433010e+00 1.79876995e+00 -4.98709011e+00
      1.42818999e+00 -5.87488985e+00 -4.63103987e-02 -4.44673014e+00
      -2.54761004e+00 -5.18009996e+00 -2.68654990e+00 -4.74776983e+00
      -2.76376009e+00 -3.16518998e+00 -2.82553005e+00 -4.47768986e-01
      -1.73696995e+00 2.28513002e+00 2.73288012e+00 -8.26045990e-01
      1.36644006e+00 5.55846989e-01 1.01134002e+00 -4.70923990e-01
      -4.78630006e-01 -5.17241001e-01 3.01086009e-01 -1.79104996e+00
      -2.58621001e+00 -1.79104996e+00 -1.79103005e+00 -5.32679021e-01
      -9.95864987e-01 6.48477972e-01 -2.45493007e+00 -5.48119009e-01
      -1.52081001e+00 3.39686990e-01 -3.86046991e-02 -1.05764997e+00
      -3.86046991e-02 -1.36644995e+00 -1.17346001e+00 -2.81008005e+00
      -5.40619008e-02 -4.25371981e+00 2.70186990e-01 -3.39679003e+00
      1.15768000e-01 -5.69736004e+00 -1.17348003e+00 -6.86308002e+00
      -1.32787001e+00 -4.56253004e+00 -1.48223996e+00 -3.39679003e+00 0.
      0. -2.00721994e-01 -9.80434000e-01 -1.58260000e+00 -9.80434000e-01
      -6.63924992e-01 -1.16571999e+00 -4.47762012e-01 -1.21203005e+00
      -1.85279995e-01 -9.26207975e-02 6.48482978e-01 -1.16571999e+00
      4.47768986e-01 -9.80434000e-01 2.00728998e-01 -9.80434000e-01 0.
      0. 1.30469000e+00 -1.21203005e+00 -7.02498972e-01 -1.21203005e+00
      7.32630014e+00 4.78668004e-01 1.45134997e+00 -6.09880018e+00
      8.49151984e-02 -1.04991999e+01 -1.20432997e+00 -1.05609999e+01
      -1.35871994e+00 -9.36435986e+00 -3.84458995e+00 -3.84454012e+00
      -8.56923008e+00 3.86774993e+00 -3.85999990e+00 5.95215988e+00
      -1.38961995e+00 4.74013996e+00 -1.21976995e+00 3.58980989e+00
      -1.03447998e+00 3.60526991e+00 3.31954986e-01 2.57851005e+00
      8.33761978e+00 -1.76013005e+00 8.49151984e-02 -9.59595013e+00
      -1.20434999e+00 -9.61141968e+00 -1.35871994e+00 -8.46111012e+00
      -1.07308998e+01 1.62893999e+00 -1.37418997e+00 -1.76013005e+00
      -1.20434999e+00 -4.04526997e+00 8.49151984e-02 -2.89499998e+00</_>
    <_>
      -2.33126998e+00 -2.66652989e+00 -3.75184011e+00 -3.27589989e+00
      -3.89189005e+00 -2.71613002e+00 -4.00633001e+00 -2.16727996e+00
      -4.01461983e+00 -1.61828995e+00 -4.96126986e+00 1.12853996e-01
      -4.50279999e+00 2.91442990e+00 -2.80484009e+00 5.62375021e+00
      -2.18875003e+00 8.29755020e+00 -4.74563986e-01 7.19369984e+00
      1.11020005e+00 3.52675009e+00 3.87219000e+00 -2.36237004e-01
      5.38854980e+00 -2.89822006e+00 4.47833014e+00 -4.40712023e+00
      3.58004999e+00 -4.79371977e+00 2.65616012e+00 -5.16941977e+00
      4.14615011e+00 -4.46844006e+00 -5.02842009e-01 -4.21305990e+00
      -1.28079998e+00 -4.31764984e+00 -8.79082024e-01 -5.46478987e+00
      -4.62280005e-01 -5.23346996e+00 -7.39746019e-02 -3.72623992e+00
      4.08587980e+00 -4.77306986e+00 4.45455980e+00 -5.89098978e+00
      3.60207009e+00 -6.90929985e+00 3.93548989e+00 -5.42411995e+00
      4.08938980e+00 -3.86240005e+00 1.25225997e+00 -3.18877006e+00
      1.19411004e+00 -1.73359001e+00 1.13589001e+00 -2.78380990e-01
      2.26953006e+00 1.15038002e+00 1.65429997e+00 1.30666995e+00
      1.83343995e+00 1.44240999e+00 8.31664979e-01 1.63024998e+00
      2.17635012e+00 4.41605002e-01 1.18208003e+00 5.04974008e-01 0. 0.
      3.11241001e-01 -8.73031989e-02 6.22177005e-01 3.76968011e-02
      7.37869024e-01 -8.20792973e-01 4.34127986e-01 -8.57924998e-01
      1.23253003e-01 -9.82932985e-01 1.61927998e+00 -4.23934996e-01
      2.02659988e+00 6.66038990e-01 1.06055999e+00 -3.34136993e-01 0. 0.
      9.87671018e-01 1.15762997e+00 6.57669008e-01 -1.77460000e-01
      -1.35636997e+00 2.02100992e+00 -1.03875995e+00 8.18801999e-01
      -8.23684990e-01 -3.39644998e-01 4.81445014e-01 -2.78075993e-01
      1.84894001e+00 -3.18863004e-01 8.32503974e-01 -9.44366008e-02
      1.08183002e+00 1.33569002e+00 9.45312977e-01 4.86683989e+00
      1.96239996e+00 5.95134020e+00 6.09573007e-01 5.95549011e+00
      -7.28546023e-01 5.92316008e+00 -9.51583982e-01 5.79098988e+00
      -1.19452000e+00 3.24597001e+00 3.95186990e-01 2.13457990e+00
      5.34164011e-01 2.21169996e+00 1.88698006e+00 2.20748997e+00
      1.03151000e+00 2.45415998e+00 1.93909001e+00 3.38837004e+00
      5.78917980e-01 3.41087008e+00 -7.33596981e-01 3.36753988e+00</_>
    <_>
      2.38512993e+00 -4.38160992e+00 3.77376008e+00 -4.88216019e+00
      6.57418013e+00 -5.29932022e+00 9.29113007e+00 -4.30459976e+00
      6.20615005e+00 -3.53573990e+00 1.61611998e+00 -4.18007994e+00
      -3.10126990e-01 -3.20367002e+00 -7.33916998e-01 -4.92535019e+00
      -2.74774003e+00 -5.05996990e+00 -1.89391994e+00 -4.97533989e+00
      -2.56698990e+00 -1.90366006e+00 -4.46704006e+00 -1.66478002e+00
      -4.84295988e+00 -1.23585999e+00 -7.93242979e+00 -8.43276978e-01
      -6.55431986e+00 -1.64795005e+00 -6.64950991e+00 -1.09820998e+00
      -5.36818981e+00 9.50995982e-01 3.65348005e+00 -8.17889023e+00
      3.32465005e+00 -6.44833994e+00 2.80418992e+00 -3.46073008e+00
      3.80864000e+00 -3.43606997e+00 1.93419003e+00 -2.21270990e+00
      -1.53653002e+00 -3.75652003e+00 -1.98430002e+00 -3.62474990e+00
      -2.50533009e+00 -2.20159006e+00 -4.34440994e+00 -2.39410996e+00
      -4.63296986e+00 -2.70967007e+00 2.29218006e-01 -4.12806988e+00
      2.37854004e-01 -4.51540995e+00 3.29970986e-01 -6.31452990e+00
      3.38593006e-01 -6.70188999e+00 6.26962996e+00 -2.42675996e+00
      1.79342997e+00 -2.69762993e+00 -1.27096999e+00 -2.88504004e+00
      -5.78352022e+00 -3.01355004e+00 -7.54108000e+00 -1.67297006e-01 0.
      0. -1.34253994e-01 -2.70366001e+00 1.07201004e+00 -4.05649996e+00
      6.98585987e-01 -1.37171996e+00 -5.91208994e-01 1.39294004e+00
      -1.73608994e+00 1.30786002e+00 -2.01973009e+00 -1.49335003e+00
      -7.99561024e-01 -2.72375989e+00 3.49426001e-01 -2.68683004e+00 0.
      0. 1.59932995e+00 1.44553995e+00 -9.87533987e-01 1.34719002e+00
      1.03402996e+01 1.27625999e+01 4.47168016e+00 8.32303047e+00
      -1.52696002e+00 8.12901020e+00 -4.65285015e+00 9.37950039e+00
      -7.72542000e+00 9.28841972e+00 -1.52614002e+01 1.03464003e+01
      -2.15746002e+01 1.42853003e+01 -1.51661997e+01 7.22568989e+00
      -1.04939003e+01 5.90030003e+00 -7.33774996e+00 4.57958984e+00
      -1.41954005e+00 4.86377001e+00 4.47008991e+00 8.05611038e+00
      8.86542988e+00 1.12791996e+01 -3.73535007e-02 6.58194017e+00
      -4.51973009e+00 6.38326979e+00 -9.08965015e+00 7.64458990e+00
      -2.28306999e+01 1.27961998e+01 -9.05228043e+00 6.20458984e+00
      -6.04117012e+00 7.73363018e+00 -2.91320992e+00 6.45905018e+00</_>
    <_>
      1.40087996e+01 1.43371000e+01 1.08275003e+01 1.14493999e+01
      1.15967999e+01 8.78267956e+00 1.09075003e+01 7.39733982e+00
      1.11140003e+01 6.07017994e+00 9.22515011e+00 3.84731007e+00
      5.31176996e+00 2.14383006e+00 3.74850011e+00 1.26604998e+00
      -7.20627010e-01 1.16393995e+00 -3.62595010e+00 1.92922997e+00
      -7.18839979e+00 3.25542998e+00 -8.94851971e+00 3.91435003e+00
      -8.71273994e+00 7.73238993e+00 -6.45070982e+00 9.03425980e+00
      -5.07977009e+00 1.03827000e+01 -2.28882003e+00 1.17650003e+01
      -2.23311996e+00 1.30747995e+01 6.65836000e+00 1.98553002e+00
      4.96748018e+00 6.05639982e+00 2.91830993e+00 9.19865990e+00
      -2.10011005e+00 1.17540998e+01 -5.57936001e+00 1.24993000e+01
      6.34381008e+00 1.45665998e+01 1.69008994e+00 1.40051003e+01
      -1.63416004e+00 1.16429996e+01 -3.39025998e+00 5.94582987e+00
      -3.27999997e+00 7.34844029e-01 7.11960018e-01 1.62738991e+01
      5.67840993e-01 1.32867002e+01 1.80998003e+00 1.17532997e+01
      1.62720001e+00 1.00812998e+01 4.11636019e+00 1.14371004e+01
      2.87790990e+00 9.76107979e+00 1.85608000e-01 9.47132969e+00
      -1.05745006e+00 9.84424019e+00 -3.61086011e+00 1.02832003e+01 0.
      0. -1.02557003e+00 -7.83285999e+00 3.01486993e+00 -4.78446007e+00
      1.19790995e+00 1.12711000e+01 -2.60490000e-01 9.40573025e+00
      -2.88086009e+00 6.39113998e+00 -5.38466990e-01 9.12954998e+00
      -1.51894999e+00 -4.06410980e+00 1.34631002e+00 -6.62970018e+00 0.
      0. 3.68496990e+00 6.38538980e+00 8.19687009e-01 8.95098019e+00
      -1.66782999e+00 5.79713011e+00 -2.22275004e-01 5.35140991e+00
      -6.78557977e-02 3.23733997e+00 2.55706996e-01 4.42548990e+00
      5.37476003e-01 4.82727003e+00 1.95687997e+00 5.85425997e+00
      1.73688996e+00 6.64755011e+00 1.49539006e+00 1.11823997e+01
      -1.37967002e+00 1.35384998e+01 -3.36501986e-01 1.33849001e+01
      -6.03637993e-01 1.32974997e+01 -1.89419997e+00 1.06359997e+01
      -9.49127018e-01 8.59543991e+00 -2.90526986e-01 9.18457031e+00
      5.59997978e-03 7.74721003e+00 -1.03270996e+00 8.00555038e+00
      2.29326010e+00 9.35359001e+00 2.48671994e-01 9.46422958e+00
      -2.82134991e-02 9.16722012e+00 -2.90526986e-01 9.18457031e+00</_>
    <_>
      6.22181988e+00 -5.49908018e+00 4.99884987e+00 -7.03540993e+00
      5.99554014e+00 -7.31180000e+00 3.44628000e+00 -7.66804981e+00
      2.87593007e+00 -5.59772015e+00 4.33751011e+00 -6.81775999e+00
      3.13948989e+00 -5.57883978e+00 1.81938004e+00 -6.56744003e+00
      1.47244000e+00 -7.96651983e+00 2.28434992e+00 -7.74288988e+00
      -2.39867996e-02 -1.04249001e+01 -9.18533027e-01 -1.28484001e+01
      -1.81110001e+00 -1.27549000e+01 -3.44674993e+00 -1.25739002e+01
      -4.83877993e+00 -1.23257999e+01 -7.31280994e+00 -1.21138000e+01
      -8.68863010e+00 -9.54638958e+00 1.32983997e-01 -2.38841996e-01
      -3.98123002e+00 -5.68274021e+00 -3.78239012e+00 -1.01970997e+01
      -2.50726008e+00 -1.14719000e+01 -3.36913988e-02 -1.29506998e+01
      7.45728016e-01 -1.16945000e+01 -2.64647990e-01 -1.01855001e+01
      9.65880990e-01 -7.71309996e+00 -1.01608001e-01 -5.52104998e+00
      -3.24556994e+00 -2.65794992e+00 3.39662004e+00 -8.41511011e-01
      4.45960999e+00 6.17133975e-01 4.47380018e+00 -2.75947988e-01
      5.57986021e+00 1.87683001e-03 6.84067011e-01 1.43155003e+00
      2.60167003e+00 2.02744007e-01 4.43657017e+00 1.28610003e+00
      5.15211010e+00 3.10698986e-01 5.88385010e+00 1.65459001e+00 0. 0.
      5.92705011e-01 -1.91970003e+00 2.06119990e+00 -1.84774005e+00
      3.67653990e+00 1.05765998e-01 1.95169997e+00 3.26909995e+00
      4.33806986e-01 3.19359994e+00 -2.78869987e-01 -3.65067013e-02
      2.21359000e-01 -7.78941989e-01 1.79222000e+00 -7.49336004e-01 0.
      0. 1.58035004e+00 4.40985012e+00 4.90416996e-02 3.24885011e+00
      -2.61834002e+00 -3.09323001e+00 1.01665998e+00 4.65105009e+00
      2.57620001e+00 6.11206007e+00 3.16472006e+00 4.82958984e+00
      2.51796007e+00 6.11619997e+00 4.16226006e+00 7.08655977e+00
      8.36458015e+00 4.35718012e+00 5.45412016e+00 3.72668004e+00
      2.62479997e+00 3.35039997e+00 2.09353995e+00 3.25441003e+00
      1.55517995e+00 3.25730991e+00 -1.17110002e+00 2.25089002e+00
      4.38988000e-01 -5.81223011e-01 1.43785000e+00 5.47594023e+00
      3.16048002e+00 5.46672010e+00 2.51729012e+00 6.70394993e+00
      6.35520983e+00 5.48012018e+00 2.73276997e+00 7.99926996e-01
      3.37596011e+00 -4.37301993e-01 2.74158001e+00 7.92281985e-01</_>
    <_>
      4.61183977e+00 1.62195003e+00 3.48750997e+00 -2.98996009e-02
      3.71599007e+00 -1.71486998e+00 1.12312996e+00 -4.74031019e+00
      1.29122996e+00 -5.11452007e+00 2.78851008e+00 -4.15526009e+00
      4.19316006e+00 -3.21510005e+00 2.75588012e+00 -7.91351020e-01
      2.50080991e+00 2.52074987e-01 7.47039974e-01 2.64282003e-02
      -1.10406005e+00 -2.82324004e+00 -1.56344998e+00 -4.21573019e+00
      -2.01834011e+00 -6.88227987e+00 -2.40048003e+00 -8.07145977e+00
      -2.64261007e+00 -5.05468988e+00 -2.88489008e+00 -3.42649007e+00
      -3.08023000e+00 -3.88648987e-01 1.43631995e+00 -2.44663000e+00
      -1.60297000e+00 -2.40089011e+00 -1.82849002e+00 -1.19802999e+00
      -2.03344989e+00 -2.81913996e+00 -3.58095002e+00 -3.05332994e+00
      2.94708014e-01 -3.40916991e+00 5.90973012e-02 -2.17143989e+00
      1.21027994e+00 -9.79776025e-01 -3.70209008e-01 -1.17815995e+00
      -1.75729001e+00 -1.41902995e+00 -6.80832028e-01 7.39764988e-01
      8.71551991e-01 5.37674010e-01 1.02508998e+00 -1.01796997e+00
      -2.09090993e-01 -2.55048990e+00 2.06405997e-01 -1.11028004e+00
      1.46263003e+00 -2.64279008e+00 -4.55322005e-02 -4.14096022e+00
      -1.52664006e-01 -2.85121012e+00 -2.93960989e-01 -2.93718004e+00 0.
      0. 1.22460997e+00 1.30339003e+00 1.05754995e+00 1.14965999e+00
      2.36678004e+00 -4.88364995e-01 1.16717005e+00 -3.58245999e-01
      1.35734999e+00 1.18313003e+00 -9.24224973e-01 4.05562997e-01
      -1.16623998e+00 3.81172001e-01 6.53380975e-02 1.92387000e-01 0. 0.
      2.08313003e-01 1.42586994e+00 -1.03446996e+00 2.37984002e-01
      2.20440006e+00 2.33153999e-02 1.98456001e+00 1.36371005e+00
      1.70556998e+00 -1.05163999e-01 1.66526997e+00 1.13593996e+00
      1.51299000e+00 1.06193995e+00 1.42280996e+00 8.24676991e-01
      -1.37391996e+00 6.30797982e-01 1.70063996e+00 3.37230992e+00
      1.99196994e+00 7.62938976e+00 2.08813000e+00 6.35153008e+00
      2.19650006e+00 6.47326994e+00 2.26237011e+00 3.91135001e+00
      3.53165007e+00 1.31102002e+00 5.18845022e-01 2.54914999e+00
      1.80917001e+00 2.39232993e+00 1.67885995e+00 2.29448009e+00
      -2.68900990e+00 7.42736995e-01 1.71394002e+00 3.69312000e+00
      4.56589013e-01 3.81413007e+00 1.90652001e+00 2.52602005e+00</_>
    <_>
      3.46537995e+00 -4.09110993e-01 3.12881994e+00 -2.31511998e+00
      1.57254004e+00 -4.17719984e+00 1.18383002e+00 -4.88892984e+00
      -1.65322006e+00 -6.71539021e+00 -3.46073008e+00 -7.19876003e+00
      -2.99222994e+00 -7.48109007e+00 -3.75108004e+00 -6.39486980e+00
      -9.61380005e-01 -5.08218002e+00 -4.70535010e-01 -4.70239019e+00
      1.43722996e-01 -2.95528007e+00 -2.95760989e-01 -3.45746994e+00
      -4.99237001e-01 -2.68909001e+00 -1.66982996e+00 -1.90485001e+00
      -1.54196000e+00 -1.10403001e+00 -2.59048009e+00 -3.03238004e-01
      -1.19891000e+00 1.67337000e+00 3.20847988e+00 -3.32660007e+00
      3.01199007e+00 -1.61707997e+00 2.50888991e+00 -1.29963005e+00
      7.23075986e-01 -1.20797002e+00 1.29784000e+00 -1.26452005e+00
      -7.91351020e-01 2.23731995e-01 -5.62592000e-02 -5.39888024e-01
      -1.76191998e+00 -2.13531002e-01 -2.36301994e+00 -1.35941005e+00
      -4.82665986e-01 -2.81123996e+00 6.41372979e-01 7.01134026e-01
      4.63836998e-01 2.66716003e-01 3.03496987e-01 -1.37916005e+00
      1.17095999e-01 -1.83966005e+00 4.96140003e-01 -2.43502998e+00
      2.25799993e-01 -2.45917010e+00 -5.27953990e-02 -1.24580002e+00
      8.71825993e-01 -3.48357010e+00 6.81640983e-01 -2.09652996e+00 0.
      0. 9.43054020e-01 -2.09847999e+00 1.75445998e+00 -1.97377002e+00
      1.41608998e-01 1.47172999e+00 4.79988009e-01 2.44524002e+00
      -3.31389993e-01 2.32054996e+00 1.03419006e+00 7.94098020e-01
      7.40387022e-01 -1.22553003e+00 1.55176997e+00 -1.10081995e+00 0.
      0. 1.41878998e+00 2.12456989e+00 1.81886005e+00 3.19350004e+00
      6.09215021e-01 -3.63846993e+00 2.62589008e-01 -5.72739983e+00
      -4.07714993e-02 -7.86022997e+00 9.00330007e-01 -7.86722994e+00
      6.92382991e-01 -6.53235006e+00 1.52025998e+00 -5.35329008e+00
      2.28711009e+00 -1.82956004e+00 1.42165005e+00 -3.37433004e+00
      1.70785999e+00 -2.38298011e+00 7.57171988e-01 -3.66570997e+00
      -1.75705001e-01 -3.71978998e+00 1.72882006e-01 -2.54593992e+00
      1.62923002e+00 -3.58505011e+00 -9.48792025e-02 -5.75089979e+00
      8.37981999e-01 -4.52035999e+00 6.12213016e-01 -4.41409016e+00
      1.26712000e+00 -3.05945992e+00 1.81473994e+00 -4.42301989e+00
      8.55163991e-01 -5.73180008e+00 1.10766995e+00 -4.58336020e+00</_>
    <_>
      1.05621996e+01 9.51667976e+00 9.36657047e+00 8.34477043e+00
      1.08031998e+01 4.51078987e+00 9.33078957e+00 3.28870010e+00
      7.34178019e+00 3.39040995e+00 6.03088999e+00 3.89164996e+00
      2.67542005e+00 4.69823980e+00 1.61205006e+00 4.77031994e+00
      -1.08492005e+00 5.50815010e+00 -2.24978995e+00 2.83367991e+00
      -4.38758993e+00 3.58926010e+00 -6.25494003e+00 2.22580004e+00
      -4.97036982e+00 5.57265997e+00 -4.57141018e+00 6.40956020e+00
      -3.72796988e+00 7.42231989e+00 -1.47707999e+00 8.49048996e+00
      -1.94885004e+00 9.46457005e+00 4.58177996e+00 8.23978007e-01
      4.27397013e+00 3.03384995e+00 2.32169008e+00 7.12286997e+00
      -1.04664004e+00 1.06785002e+01 -5.60788012e+00 1.24190998e+01
      5.22157001e+00 1.24799004e+01 2.07535005e+00 1.14539003e+01
      -1.04078996e+00 8.63465977e+00 -2.46276999e+00 2.61145997e+00
      -1.92089999e+00 -2.69541001e+00 1.21399999e+00 1.61264992e+01
      2.78010988e+00 1.47816000e+01 2.99423003e+00 1.19737997e+01
      3.22504997e+00 9.07369995e+00 5.58234978e+00 1.25151997e+01
      4.58103991e+00 1.06302004e+01 2.11686993e+00 1.00973997e+01
      9.59824026e-01 1.01733999e+01 -1.77215993e-01 1.17657003e+01 0. 0.
      -9.30206001e-01 -6.68460989e+00 3.20519996e+00 -3.89897990e+00
      1.50841999e+00 1.18507004e+01 -1.80054002e-03 1.02732000e+01
      -2.72973990e+00 7.54292011e+00 -1.02142000e+00 9.86048985e+00
      -4.09530997e-01 -3.54603004e+00 1.26349998e+00 -7.79955006e+00 0.
      0. 3.63278008e+00 5.26226997e+00 2.01517010e+00 8.10832977e+00
      3.61281991e-01 1.17820997e+01 -1.06394994e+00 1.22858000e+01
      5.62301993e-01 9.91767979e+00 1.04212999e+00 1.09365997e+01
      1.38475001e+00 1.10846996e+01 1.56589997e+00 1.32763004e+01
      1.76224005e+00 1.10276003e+01 1.38874996e+00 1.87120991e+01
      -1.60286999e+00 2.13183002e+01 7.43698001e-01 2.14487000e+01
      -1.11197996e+00 2.29293003e+01 -2.51946998e+00 1.91070995e+01
      1.06579995e+00 1.58671999e+01 5.24643004e-01 1.45328999e+01
      9.34203982e-01 1.43120003e+01 -2.16674991e-02 1.43291998e+01
      7.58773983e-01 1.52026997e+01 -1.69327006e-01 1.57200003e+01
      8.78784001e-01 1.57194996e+01 -9.93622005e-01 1.72924004e+01</_>
    <_>
      -5.01485014e+00 -2.28014994e+00 -4.97195005e+00 -1.32617998e+00
      -4.92806005e+00 2.02714992e+00 -3.61547995e+00 3.00020003e+00
      -4.55919981e+00 3.90788007e+00 -4.05284977e+00 4.69881010e+00
      -3.29465008e+00 5.32062006e+00 -3.58843994e+00 5.71789980e+00
      -6.18379021e+00 7.00107002e+00 -6.28801012e+00 6.94512987e+00
      -6.50692987e+00 5.36864996e+00 -2.04699993e+00 7.31511021e+00
      9.03716981e-01 8.98849010e+00 2.46390009e+00 6.89899015e+00
      3.88509989e+00 4.73494005e+00 5.27105999e+00 2.56984997e+00
      5.37026978e+00 1.58475006e+00 -3.21195006e+00 -6.65607977e+00
      -2.68690991e+00 -8.33450031e+00 -1.96161997e+00 -9.61900043e+00
      -2.45878005e+00 -9.50992012e+00 6.73798025e-01 -9.24263954e+00
      6.04797006e-01 -9.29757977e+00 2.53539991e+00 -8.34185028e+00
      3.33221006e+00 -7.22491980e+00 4.08559990e+00 -5.82697010e+00
      4.60100985e+00 -2.91868997e+00 -1.32903993e-01 2.14851999e+00
      -1.85500994e-01 2.74682999e+00 -1.84723005e-01 2.11172009e+00
      -1.41939998e+00 1.49374998e+00 1.47678006e+00 8.08771992e+00
      -6.25487983e-01 6.96820021e+00 -2.67438006e+00 7.04991007e+00
      -2.28354001e+00 9.39006042e+00 -3.12711000e+00 9.27737045e+00 0.
      0. -7.87056029e-01 -3.88649011e+00 2.14115000e+00 -3.87213993e+00
      1.37594998e+00 4.63104015e-03 8.45070004e-01 2.49442005e+00
      -8.66874993e-01 3.73267007e+00 -1.46363997e+00 1.19253004e+00
      -9.09453988e-01 -2.70797992e+00 8.17505002e-01 -2.64026999e+00 0.
      0. 1.95509005e+00 3.76156998e+00 -9.89226997e-01 4.91114998e+00
      5.92804015e-01 1.18022003e+01 -1.26652002e+00 1.14308004e+01
      -1.87836003e+00 1.00193005e+01 -2.76320994e-01 1.13535995e+01
      1.31622002e-01 1.24946003e+01 -1.65532994e+00 1.14547005e+01
      -2.21304011e+00 1.06093998e+01 -1.67477000e+00 1.21246004e+01
      -2.31348991e+00 1.46819000e+01 -1.55552995e+00 1.59211998e+01
      -3.17670012e+00 1.34218998e+01 -1.26777995e+00 1.08662004e+01
      2.03874993e+00 1.18266001e+01 -1.90880001e+00 1.16766996e+01
      -2.87551999e-01 1.17413998e+01 1.18377998e-01 1.29528999e+01
      -3.71241999e+00 1.18185997e+01 -1.11607003e+00 1.29347000e+01
      -1.55727005e+00 1.41569004e+01 -3.16139007e+00 1.28929996e+01</_>
    <_>
      -2.70212007e+00 -1.91993999e+00 -2.21620011e+00 -8.74190986e-01
      -1.69287002e+00 1.06872998e-01 -3.02444011e-01 2.02362001e-01
      1.09308004e+00 1.95308995e+00 2.47550988e+00 2.67909002e+00
      3.79817009e+00 3.30743003e+00 3.32729006e+00 3.80102992e+00
      4.47055006e+00 2.42077994e+00 3.72713995e+00 2.71356010e+00
      2.79816008e+00 1.28989005e+00 1.72975004e+00 7.92755008e-01
      1.40287995e+00 -1.37422001e+00 9.68780994e-01 -2.57272005e+00
      1.34106004e+00 -4.56904984e+00 -1.62354000e-02 -3.92712998e+00
      3.32581013e-01 -3.25764990e+00 3.41441989e-01 -8.40406036e+00
      8.83904025e-02 -6.15673018e+00 8.60442966e-02 -4.84461021e+00
      -6.25710011e-01 -2.65537000e+00 -2.99746990e+00 4.33788002e-01
      1.46121001e+00 -1.35943994e-01 6.38275027e-01 -5.80798984e-01
      -9.73021984e-01 -1.85975003e+00 1.69098005e-01 -4.76998997e+00
      5.82260013e-01 -6.60845995e+00 1.92780003e-01 -5.08965015e-01
      -3.59528005e-01 -2.14393997e+00 -6.34308010e-02 -2.89348006e+00
      2.51235992e-01 -3.65218997e+00 -3.73282999e-01 -3.91977000e+00
      5.87692022e-01 -3.27485991e+00 1.56252003e+00 -2.62518001e+00
      2.47249007e+00 -3.72845006e+00 1.66699004e+00 -4.83159018e+00 0.
      0. 8.26911986e-01 3.18037009e+00 3.54995988e-02 2.91650009e+00
      -6.17362976e-01 -1.61213005e+00 2.25113004e-01 -4.80994999e-01
      1.01654994e+00 -2.17140004e-01 6.12578988e-01 -1.85132003e+00
      5.63431025e-01 3.03060007e+00 -2.00240999e-01 2.77617002e+00 0. 0.
      -8.72955024e-01 -6.30562007e-01 7.62268007e-01 -1.22923005e+00
      1.12096000e+00 -1.54724002e+00 9.97765005e-01 -2.79512000e+00
      9.71741021e-01 -3.12906003e+00 1.98828006e+00 -3.34625006e+00
      2.01758003e+00 -4.49590015e+00 2.24631000e+00 -3.04348993e+00
      2.59064007e+00 -2.40178990e+00 3.49769998e+00 4.88683987e+00
      2.59652996e+00 7.81693983e+00 2.51623988e+00 8.09930038e+00
      1.55049002e+00 8.34920025e+00 5.19737005e-01 6.01157999e+00
      2.01196003e+00 4.78058010e-02 2.08408999e+00 -4.38643992e-01
      1.32493997e+00 -1.54153001e+00 2.25837994e+00 -9.52377021e-01
      1.65810001e+00 -1.41457999e+00 2.29099989e+00 5.11690998e+00
      1.36223996e+00 5.39479017e+00 1.24969006e+00 5.63530016e+00</_>
    <_>
      -1.36784995e+00 3.93848991e+00 2.49760002e-01 3.77173990e-01
      6.14449024e-01 -2.05770993e+00 -2.92468995e-01 -3.35060000e+00
      -1.14541996e+00 -5.87294006e+00 -2.13100004e+00 -6.04231024e+00
      -8.58916998e-01 -3.75722003e+00 -7.78526008e-01 -2.76566005e+00
      -8.39905024e-01 -6.21978998e-01 -9.18914974e-01 3.20221007e-01
      1.84906006e-01 1.46697998e-01 1.29430997e+00 -1.20028996e+00
      1.14391994e+00 -2.55227995e+00 9.10645008e-01 -2.64303994e+00
      -5.96619010e-01 -1.56615996e+00 -1.02129996e+00 1.97671998e+00
      -2.46123999e-01 5.61394978e+00 3.72886993e-02 -2.16321993e+00
      -7.05794990e-02 -2.30274010e+00 -1.35969996e+00 -1.34368002e+00
      -1.29837000e+00 -2.74502993e+00 -3.71256995e+00 -1.84749997e+00
      2.24702001e+00 -5.85071981e-01 1.12282002e+00 -3.25344992e+00
      2.33548999e+00 -3.39095998e+00 2.32793999e+00 -2.38169003e+00
      1.25750995e+00 -2.56760001e+00 -1.69845998e-01 3.03137994e+00
      -1.15857995e+00 1.78264999e+00 -9.35851991e-01 5.94871998e-01
      -1.91602004e+00 -6.53060973e-01 -1.49268997e+00 -6.50088978e+00
      -4.36583996e-01 -2.91514993e+00 -4.19250011e-01 -3.00851011e+00
      -4.27581996e-01 -3.10424995e+00 -4.36751992e-01 -3.19139004e+00 0.
      0. -1.27117002e+00 -1.61457002e-01 -1.32712996e+00 9.03732002e-01
      -7.98645020e-02 2.06431007e+00 -1.14722002e+00 -2.88024992e-01
      -1.15056002e+00 -1.58867002e-01 -5.85326999e-02 1.55698001e+00
      -9.07592997e-02 2.33269006e-01 1.12491000e+00 1.56487003e-01 0. 0.
      1.24549997e+00 1.59058005e-01 1.23356998e+00 2.87445009e-01
      -6.08653021e+00 -2.82845001e+01 -3.98873997e+00 -2.34624004e+01
      -5.99807978e-01 -1.98064003e+01 6.37526989e-01 -1.98379993e+01
      1.76420999e+00 -1.86800003e+01 6.87275982e+00 -2.33925991e+01
      9.59961033e+00 -2.82059994e+01 7.74079990e+00 -1.37040997e+01
      1.33525002e+00 -5.44353008e+00 7.11975023e-02 -4.19724989e+00
      -2.23248005e+00 -6.62151003e+00 -5.46640015e+00 -1.50972004e+01
      -7.41351986e+00 -2.59909992e+01 -2.12723002e-01 -2.58216000e+01
      1.00755000e+00 -2.58547993e+01 3.46594000e+00 -2.70417004e+01
      1.07798004e+01 -2.80874996e+01 2.22002006e+00 -1.77883995e+00
      -2.38434002e-01 -5.91903985e-01 -3.81370997e+00 -1.87413001e+00</_>
    <_>
      4.09119010e-01 8.23902988e+00 -1.34732997e+00 6.48109007e+00
      -2.70767003e-01 7.70757008e+00 8.18050027e-01 7.49106979e+00
      4.75071013e-01 5.84451008e+00 1.49419999e+00 5.78817987e+00
      1.09142005e+00 4.36499023e+00 -7.57598996e-01 3.00469995e+00
      3.83026004e-01 4.30756003e-01 6.69097975e-02 2.22451997e+00
      -2.64586993e-02 1.19124997e+00 -5.68847992e-02 1.60414004e+00
      -1.49145997e+00 4.88082981e+00 -2.76134992e+00 6.67095995e+00
      -2.52600002e+00 7.03257990e+00 -2.28948998e+00 7.36916018e+00
      -5.98357975e-01 9.18702030e+00 5.27508020e-01 -1.45826995e+00
      -9.52133000e-01 -2.65194011e+00 -1.08776999e+00 -5.31874990e+00
      1.95755005e-01 -9.45547009e+00 1.38296998e+00 -1.07847996e+01
      2.44571996e+00 -1.03999004e+01 2.29518008e+00 -8.66172981e+00
      2.03412008e+00 -4.07910013e+00 1.73737001e+00 -9.91707027e-01
      -1.48666000e+00 1.86862004e+00 -6.85882986e-01 -6.82358027e-01
      -9.02984977e-01 5.63416004e-01 -1.12114000e+00 1.83421004e+00
      1.15555003e-01 3.13036990e+00 5.56792989e-02 8.57516003e+00
      -2.22625993e-02 5.73511982e+00 -1.60570002e+00 5.77957010e+00
      -3.15336990e+00 7.31920004e+00 -4.72642994e+00 1.03137999e+01 0.
      0. -1.41251004e+00 -5.64659023e+00 1.30209994e+00 -3.98528004e+00
      -4.81689006e-01 1.84933996e+00 1.08102000e+00 1.70360994e+00
      -1.65883994e+00 1.49717999e+00 -1.09707999e+00 2.43774009e+00
      4.23386008e-01 -4.56302977e+00 1.72141004e+00 -4.39388990e+00 0.
      0. 1.46201003e+00 2.76185989e+00 1.63925007e-01 2.59275007e+00
      -1.67593002e+00 1.37845001e+01 -2.31383994e-01 1.11484003e+01
      -2.63565004e-01 8.41073990e+00 -1.87204003e+00 8.45411968e+00
      -1.95371997e+00 8.60120964e+00 -2.17098999e+00 1.15916996e+01
      -5.35928011e+00 1.59471998e+01 -3.79474998e+00 1.14083996e+01
      -3.68668008e+00 9.78137016e+00 -2.10086012e+00 8.23085022e+00
      -1.99545002e+00 9.56583977e+00 -1.86632001e+00 1.23830004e+01
      -1.72929001e+00 1.38575001e+01 -3.59436005e-01 8.30618000e+00
      -1.94395006e+00 8.37570000e+00 -3.49251008e+00 8.48435974e+00
      -3.82682991e+00 1.44695997e+01 -3.50448990e+00 8.47130013e+00
      -1.95592999e+00 8.36260986e+00 -3.34136993e-01 6.85129023e+00</_>
    <_>
      -8.18817019e-01 2.05574012e+00 3.08449000e-01 8.57307017e-01
      -8.32718015e-01 1.64098001e+00 1.17817998e+00 2.61565995e+00
      1.06064999e+00 3.47267008e+00 3.00412011e+00 4.47136021e+00
      4.82754993e+00 6.55913019e+00 5.62753010e+00 7.56683016e+00
      7.52057981e+00 7.65587997e+00 8.42683029e+00 6.68209982e+00
      8.42815971e+00 3.60367990e+00 6.33612013e+00 4.37592000e-01
      5.21929979e+00 -5.11932015e-01 4.27904987e+00 -3.54390001e+00
      3.15267992e+00 -3.41034007e+00 1.04711998e+00 -4.40302992e+00
      -2.15521002e+00 -4.39365005e+00 -9.36810017e-01 1.11843002e+00
      -7.82089010e-02 2.33330989e+00 -3.76365989e-01 4.45906019e+00
      -7.46245980e-01 7.59578991e+00 -3.21361995e+00 1.05733995e+01
      -1.29105997e+00 1.06854000e+01 -2.19261003e+00 5.37979984e+00
      -1.23954999e+00 4.39243984e+00 -1.26885998e+00 2.25254011e+00
      8.64226997e-01 1.63551003e-01 3.17703009e-01 3.21420002e+00
      3.90533000e-01 2.03553009e+00 5.27083993e-01 -1.93839997e-01
      -3.28262001e-01 -3.55109000e+00 -7.90404975e-02 -4.74696016e+00
      7.67989993e-01 -2.59120011e+00 1.80122006e+00 -3.60103989e+00
      6.66320980e-01 -3.66211009e+00 1.71555996e+00 -4.64414978e+00 0.
      0. -4.02451009e-02 -9.92393017e-01 -2.19184995e-01 5.06935008e-02
      8.09890985e-01 -1.03062999e+00 -1.41541004e-01 -1.11445999e+00
      -8.35724026e-02 -5.53894006e-02 1.36057997e+00 6.27669990e-02
      1.25430000e+00 1.40171006e-01 1.13909996e+00 1.32557005e-01 0. 0.
      1.13953996e+00 2.28957999e-02 1.25480998e+00 3.05099003e-02
      3.32742000e+00 -5.89963007e+00 3.06913996e+00 -3.73031998e+00
      1.89775002e+00 -3.75706005e+00 2.88719010e+00 -3.72023010e+00
      4.92264986e+00 -3.58154011e+00 3.76290989e+00 -3.70370007e+00
      3.78432012e+00 -5.88905001e+00 3.97182012e+00 -7.00212002e+00
      5.00403023e+00 -4.83018017e+00 3.96673989e+00 -3.84018993e+00
      3.04966998e+00 -4.94604015e+00 4.27062988e+00 -5.90714979e+00
      3.21129990e+00 -4.84241009e+00 1.90784001e+00 -3.83972001e+00
      2.96013999e+00 -4.84722996e+00 4.92638016e+00 -3.66497993e+00
      4.89227009e+00 -5.81835985e+00 4.93274021e+00 -3.66420007e+00
      3.95275998e+00 -3.72574997e+00 2.96490002e+00 -3.77526999e+00</_>
    <_>
      3.37233996e+00 -8.36395025e-01 2.42051005e+00 -5.71358025e-01
      1.41207004e+00 -2.47617006e+00 1.47837996e+00 -3.28193998e+00
      1.43393004e+00 -3.02846003e+00 2.25671005e+00 -3.78173995e+00
      5.60554981e-01 -1.14589000e+00 2.06679010e+00 -1.68099999e+00
      2.28808999e+00 -3.13470006e+00 2.42259002e+00 -4.37343979e+00
      2.61687994e+00 -4.21262980e+00 -4.03595001e-01 -6.14958000e+00
      -1.06558001e+00 -5.59055996e+00 -2.66250992e+00 -4.92132998e+00
      -3.03165007e+00 -4.17387009e+00 -3.35140991e+00 -3.41252995e+00
      -4.75933981e+00 -1.52023005e+00 3.82027006e+00 -4.80609989e+00
      2.18892002e+00 -4.67835999e+00 1.62015998e+00 -5.87487984e+00
      1.03538001e+00 -6.06541014e+00 -7.03018010e-01 -4.13277006e+00
      2.81711006e+00 -4.26293993e+00 2.12378001e+00 -4.35092020e+00
      2.54366994e+00 -3.38227010e+00 8.54218006e-01 -3.61648989e+00
      -7.37182975e-01 -1.82879996e+00 -5.18799003e-04 -1.51593995e+00
      8.01697001e-02 -8.55086982e-01 1.27237999e+00 -1.75200999e-01
      1.37248003e+00 1.55479002e+00 1.09809995e+00 2.24904990e+00
      1.89736998e+00 1.01049995e+00 1.55385005e+00 1.95133996e+00
      2.31856990e+00 8.36044014e-01 1.96516001e+00 1.90707004e+00 0. 0.
      -4.12979007e-01 -9.93317008e-01 1.34723997e+00 3.19366008e-02
      2.08449006e+00 1.86073995e+00 3.01270008e-01 1.86614001e+00
      -1.44646001e+00 1.93467999e+00 -9.81688976e-01 1.32036996e+00
      -1.44008005e+00 3.94100010e-01 -7.60132015e-01 -7.98121989e-01 0.
      0. 3.55498999e-01 2.14724994e+00 -3.12270999e-01 2.25259995e+00
      -5.72151995e+00 -3.30566001e+00 -7.67090023e-01 -7.73437977e-01
      9.88479972e-01 -6.80252016e-01 1.81930995e+00 -1.93655002e+00
      3.70113993e+00 -1.91428995e+00 4.39951992e+00 -2.22378993e+00
      7.31313992e+00 -2.65690994e+00 5.62462997e+00 -2.70474005e+00
      3.86475992e+00 -1.54929996e+00 1.97468996e+00 -4.03777987e-01
      1.18892002e+00 -1.39523005e+00 -1.74039996e+00 -1.28559995e+00
      -4.82758999e+00 -1.08727002e+00 1.05133001e-02 -2.12447000e+00
      1.89531004e+00 -2.20772004e+00 2.66727996e+00 -1.16698003e+00
      8.57129955e+00 -1.45328999e+00 4.84666014e+00 -2.42615007e-02
      1.86414003e+00 -9.27734002e-03 -8.56017973e-03 -1.01288998e+00</_>
    <_>
      2.60984993e+00 1.57158995e+00 1.46498001e+00 -6.91390991e-01
      2.39032999e-01 -2.93934989e+00 -1.05645001e+00 -6.57318020e+00
      3.39709997e-01 -6.11798000e+00 1.51441002e+00 -7.05402994e+00
      3.91640997e+00 -6.54741001e+00 4.77520990e+00 -5.82467985e+00
      5.24637985e+00 -7.67670012e+00 5.61211014e+00 -1.06562996e+01
      4.61674023e+00 -1.32523003e+01 3.67672992e+00 -1.56406002e+01
      2.93246007e+00 -1.64148006e+01 9.69299018e-01 -1.70331001e+01
      -2.16980004e+00 -1.47896004e+01 -5.21541977e+00 -9.74901962e+00
      -6.77901983e+00 -4.71196985e+00 -8.84068012e-01 -7.68374979e-01
      -1.44535005e+00 -1.91199005e+00 -7.03926027e-01 -6.47516012e-01
      -1.33516002e+00 -2.34842992e+00 -3.30930996e+00 -1.27397001e+00
      4.83856015e-02 -1.63592994e+00 -6.30263984e-01 -1.67762005e+00
      1.00951999e-01 -3.77691001e-01 -5.40450990e-01 -2.04314995e+00
      -8.08013976e-01 -2.58050990e+00 7.55416989e-01 7.62073994e-01
      2.31945992e+00 2.06588998e-01 2.48386002e+00 -1.72591996e+00
      2.64819002e+00 -3.65845990e+00 6.77291989e-01 -3.90298009e+00
      1.72037995e+00 -5.47536993e+00 2.79751992e+00 -5.67206001e+00
      2.45689011e+00 -4.32739019e+00 2.08208990e+00 -4.35845995e+00 0.
      0. 9.94292974e-01 1.45234001e+00 5.22086978e-01 2.72082996e+00
      4.36402988e+00 -5.79060018e-01 2.05684996e+00 9.06127989e-01
      1.14183998e+00 1.07272005e+00 -1.49073994e+00 3.54027003e-01
      8.14620972e-01 5.02834022e-01 3.28673989e-01 3.24730009e-01 0. 0.
      1.85062003e+00 1.27653003e+00 -4.74274009e-01 1.01501003e-01
      -2.69271994e+00 -1.05429001e+01 3.96436000e+00 -2.04453993e+00
      6.13597012e+00 -4.81949997e+00 4.44658995e+00 -5.02904987e+00
      5.47281981e+00 -5.04852009e+00 6.48308992e+00 -4.05202007e+00
      7.46286011e+00 -1.30094004e+01 5.21552992e+00 -1.03713999e+01
      4.37540007e+00 -8.97074986e+00 4.72974014e+00 -8.86888027e+00
      5.07393980e+00 -8.73151970e+00 2.69677997e+00 -8.36382961e+00
      -9.45281982e-02 -9.25092030e+00 4.96444988e+00 -1.01259005e+00
      6.04162979e+00 -1.20930004e+00 5.70097017e+00 1.35406002e-01
      6.28959990e+00 -1.28787003e+01 4.03821993e+00 -1.67644005e+01
      2.99165010e+00 -1.66739998e+01 4.70135021e+00 -1.65354004e+01</_>
    <_>
      6.38089991e+00 2.68584996e-01 6.48317003e+00 2.03690007e-01
      6.57241011e+00 -1.24706995e+00 7.90809011e+00 -1.23973000e+00
      6.37377977e+00 -2.74466991e+00 7.24310017e+00 -2.67667007e+00
      6.36221981e+00 -2.44185996e+00 5.29909992e+00 -3.44832993e+00
      3.95287991e+00 -5.33938980e+00 2.47632003e+00 -5.56430006e+00
      1.04364002e+00 -5.26343012e+00 -2.78014988e-01 -4.67440987e+00
      -1.32330000e+00 -5.13280010e+00 -2.18506002e+00 -3.90038991e+00
      -2.70334005e+00 -3.95310998e+00 -3.28476000e+00 -2.57729006e+00
      -2.44144011e+00 3.06998998e-01 1.06692004e+00 -4.38854009e-01
      -1.00139999e+00 -4.12360001e+00 -1.98977005e+00 -5.46434021e+00
      -3.01302004e+00 -7.13577986e+00 -2.69654989e+00 -4.81508017e+00
      4.29958010e+00 -6.19903994e+00 4.66728020e+00 -8.87924004e+00
      3.51761007e+00 -7.69368982e+00 1.01968002e+00 -5.42318010e+00
      -2.49206996e+00 -3.54784012e+00 2.15879989e+00 -1.10458001e-01
      3.77985001e+00 -9.55413997e-01 4.03184986e+00 -1.84676003e+00
      2.80892992e+00 -1.43227005e+00 3.81659007e+00 -2.04584002e+00
      3.38783002e+00 -9.13208008e-01 2.94603992e+00 -1.16643000e+00
      2.42023993e+00 -1.12252998e+00 -9.03137028e-01 -1.18829000e+00 0.
      0. -6.06010020e-01 -1.10427999e+00 7.58057013e-02 -1.12381995e+00
      2.25728989e+00 -1.27029002e-01 1.44002998e+00 2.55443001e+00
      7.58231997e-01 2.57395005e+00 5.78917980e-01 -8.77929986e-01
      2.66844010e+00 -1.96563005e+00 3.40059996e+00 -2.16341996e+00 0.
      0. 2.01370001e+00 3.61252017e-02 2.71001005e+00 2.97134012e-01
      3.69316006e+00 -2.79651999e+00 3.03151989e+00 -5.36289978e+00
      2.38686991e+00 -5.35266018e+00 1.98766005e+00 -5.52962017e+00
      1.53812003e+00 -5.52837992e+00 2.25753999e+00 -4.47594976e+00
      1.57271996e-01 -5.11410999e+00 2.38283992e+00 -5.14644003e+00
      3.08694005e+00 -5.13993979e+00 2.08741999e+00 -3.69965005e+00
      3.93190002e+00 -3.51887989e+00 1.69497001e+00 -3.34166002e+00
      2.01019001e+00 -2.86749005e+00 2.44124007e+00 -4.34008980e+00
      2.02523994e+00 -4.45769978e+00 3.02478004e+00 -5.89793015e+00
      4.37575996e-01 -4.97066021e+00 2.91515994e+00 -3.10035992e+00
      1.97883999e+00 -3.08863997e+00 3.74710011e+00 -2.86517000e+00</_>
    <_>
      3.15240002e+00 -3.56779003e+00 1.97202003e+00 -5.32326984e+00
      1.82148004e+00 -7.10365009e+00 -5.95493019e-01 -7.68416977e+00
      2.44717002e-01 -6.09122992e+00 -1.22018003e+00 -3.20991993e+00
      -3.79708004e+00 3.09667993e+00 -6.51002979e+00 7.34820986e+00
      -4.89345980e+00 9.44867039e+00 -2.26704001e+00 7.27112007e+00
      -7.31926012e+00 4.41244984e+00 -6.79204988e+00 4.19144005e-01
      -6.07219982e+00 -1.26236999e+00 -6.27135992e+00 4.49692011e-01
      -5.24420023e+00 2.16990995e+00 -4.15240002e+00 3.88674998e+00
      -3.07506990e+00 3.39071989e+00 2.73640990e+00 -1.86605000e+00
      2.33449006e+00 -2.65987992e+00 7.77664006e-01 -1.40335000e+00
      -7.50984013e-01 1.91389000e+00 -3.38649011e+00 4.05588007e+00
      7.95515013e+00 2.66395998e+00 4.12565994e+00 7.14972019e-01
      2.50671005e+00 -3.25421989e-01 9.25247014e-01 -1.47592998e+00
      -4.80347008e-01 -6.38316989e-01 5.13046026e-01 1.12690997e+00
      5.21041989e-01 1.83314002e+00 -5.87082028e-01 2.56873989e+00
      -6.59393013e-01 1.04386997e+00 -1.11211002e+00 -4.46716011e-01
      -3.51211995e-01 -1.61845005e+00 -6.99768007e-01 -1.66518998e+00
      -1.02110004e+00 -1.60512996e+00 -2.43582010e+00 -1.49530005e+00 0.
      0. -3.14590007e-01 1.89456999e-01 -1.74759996e+00 1.33135998e+00
      -9.39254999e-01 2.17609000e+00 -1.79159999e+00 -6.51779026e-02
      -1.42487001e+00 -8.43200982e-02 9.97879028e-01 1.02232003e+00
      1.78120005e+00 1.24825001e+00 -8.05069029e-01 1.86195001e-01 0. 0.
      2.74811000e-01 -1.22482002e-01 5.91750979e-01 -1.23501003e+00
      -6.34113979e+00 -2.40926003e+00 -6.79401016e+00 -4.31807995e+00
      -3.95406008e+00 -7.51620007e+00 -3.10910010e+00 -8.73563004e+00
      -2.27008009e+00 -8.68566990e+00 -1.46653998e+00 -5.58378983e+00
      -2.94243002e+00 -5.81683016e+00 -1.97968006e-01 1.59666002e+00
      -1.96712995e+00 3.75834990e+00 -3.86905003e+00 4.89589024e+00
      -3.60907006e+00 4.90395021e+00 -6.57010984e+00 3.98404002e+00
      -3.14983010e+00 -2.53890991e-01 -4.92307997e+00 -2.31736994e+00
      -4.07480001e+00 -3.47204995e+00 -2.11520004e+00 -2.39894009e+00
      -4.92174006e+00 -3.53601003e+00 -2.03046989e+00 8.84658992e-01
      -3.99005008e+00 -1.88476995e-01 -3.69286990e+00 2.05292010e+00</_>
    <_>
      1.75570995e-02 -1.89156997e+00 2.36939996e-01 -1.90620995e+00
      1.49593997e+00 -5.25376987e+00 1.71411002e+00 -5.30500984e+00
      8.25538993e-01 -5.35599995e+00 -1.15630996e+00 -3.24502993e+00
      -2.07756996e+00 -1.19872999e+00 -1.93011999e+00 1.90404999e+00
      -8.09494019e-01 1.66144001e+00 2.45010003e-01 1.41373003e+00
      1.22704005e+00 9.10492018e-02 -2.41547003e-02 -1.16456997e+00
      -1.82281002e-01 -1.91802993e-01 -1.51821995e+00 -2.44867992e+00
      -1.73221004e+00 -2.49286008e+00 -1.96042001e+00 -2.52191997e+00
      -1.08893001e+00 -2.54365993e+00 -2.31594992e+00 1.32323003e+00
      -2.42212009e+00 1.21680999e+00 -1.37955999e+00 -4.92877997e-02
      -2.48388004e+00 -1.29512000e+00 -1.33931994e+00 -1.47986996e+00
      -1.33298004e+00 -6.29875004e-01 -2.98462003e-01 -8.18271995e-01
      -3.18984985e-01 -9.93505001e-01 -2.80411005e-01 -1.15602005e+00
      -1.37848005e-01 9.20776010e-01 -4.71039005e-02 -5.33484995e-01
      7.73620978e-02 -5.37635982e-01 2.09136993e-01 -5.42023003e-01
      -7.57750988e-01 -5.24437010e-01 5.00258982e-01 -3.83148015e-01
      5.19577026e-01 -4.64385986e-01 -5.60073972e-01 -5.31020999e-01
      -5.63004017e-01 4.80545014e-01 4.96367991e-01 -7.20169008e-01 0.
      0. -1.16772997e+00 -7.10105971e-02 -1.17189002e+00 -1.95469007e-01
      -1.10235000e+00 -1.40714002e+00 -1.03987002e+00 9.06859994e-01
      -1.05035996e+00 -6.75887987e-02 3.66211007e-03 -7.69707024e-01
      -6.56280965e-02 2.29396999e-01 1.01446998e+00 -1.00864995e+00 0.
      0. 4.70886007e-02 9.37194973e-02 2.92968992e-02 -8.80508006e-01
      7.52316999e+00 7.34979010e+00 2.93340993e+00 7.08419979e-01
      -4.40048009e-01 -1.54648995e+00 6.77917004e-01 -1.64972997e+00
      1.77418995e+00 -6.45492971e-01 -2.56663990e+00 4.00757015e-01
      -7.88228989e+00 6.93992996e+00 -2.34692001e+00 4.79109001e+00
      1.01209998e+00 5.95441008e+00 -6.19048998e-02 7.15559006e+00
      -8.09784010e-02 6.14476013e+00 2.08368993e+00 6.21918011e+00
      8.58351040e+00 5.07897997e+00 -3.00918996e-01 6.47705019e-01
      8.17062020e-01 1.64388001e+00 7.92403996e-01 4.64675993e-01
      -7.90230989e+00 5.89979982e+00 8.36593986e-01 2.66935992e+00
      -2.30361998e-01 3.86296010e+00 -2.56989002e-01 2.84506011e+00</_>
    <_>
      3.65083003e+00 2.00653000e+01 2.72720003e+00 1.67922001e+01
      1.76811004e+00 1.60228996e+01 3.44296002e+00 1.39750004e+01
      4.84736013e+00 1.29562998e+01 4.56865978e+00 1.13900995e+01
      3.83559990e+00 1.35255003e+01 2.95351005e+00 1.29483995e+01
      2.68510008e+00 1.12152004e+01 5.67291021e-01 1.08383999e+01
      -2.13237000e+00 1.09389000e+01 -9.78637993e-01 8.70110989e+00
      -2.69562006e+00 8.06278992e+00 -3.16677999e+00 8.02398968e+00
      -1.03796005e+00 8.38171959e+00 -1.55272996e+00 1.13001003e+01
      -2.04509997e+00 1.56209002e+01 1.89717996e+00 8.46341991e+00
      2.28637004e+00 6.46474981e+00 1.69920003e+00 6.54705000e+00
      1.45711994e+00 6.47299004e+00 3.39202993e-02 8.92117023e+00
      6.92780018e-01 8.63607025e+00 1.43737998e-02 4.90440989e+00
      -5.02914011e-01 3.68865991e+00 5.75408995e-01 5.08686018e+00
      -1.73266995e+00 7.80626011e+00 8.83041024e-01 9.07201004e+00
      2.02019000e+00 7.42514992e+00 3.17334008e+00 5.83845997e+00
      3.08867002e+00 4.16589022e+00 5.38782978e+00 6.40867996e+00
      2.78380990e+00 5.75537014e+00 2.67392993e+00 6.41947985e+00
      2.47917008e+00 4.61185980e+00 9.32465017e-01 4.09257984e+00 0. 0.
      -4.47998010e-02 -1.22763996e+01 2.17093992e+00 -1.04432001e+01
      5.79971015e-01 4.20905018e+00 1.16263998e+00 9.88991022e-01
      -2.42108989e+00 3.84003013e-01 -5.17898977e-01 3.45096993e+00
      -6.73400998e-01 -1.00753002e+01 1.69191003e+00 -1.21203003e+01 0.
      0. 1.87965000e+00 5.59471011e-01 8.66302013e-01 1.31612003e+00
      6.66002989e+00 1.76092994e+00 5.80457020e+00 4.92473984e+00
      5.29522991e+00 4.22252989e+00 4.00765991e+00 4.78473997e+00
      2.38476992e+00 4.22130013e+00 2.49326992e+00 3.41893005e+00
      1.48766005e+00 -1.25655994e-01 1.97759998e+00 3.14057994e+00
      2.33113003e+00 6.37870979e+00 3.85942006e+00 5.75239992e+00
      5.25762987e+00 6.44013977e+00 6.64714003e+00 4.70026016e+00
