<?xml version="1.0"?>
<opencv_storage>
<opencv_ml_svm>
  <format>3</format>
  <svmType>C_SVC</svmType>
  <kernel>
    <type>LINEAR</type></kernel>
  <C>8.3966598510742188e+01</C>
  <term_criteria><iterations>1000</iterations></term_criteria>
  <var_count>136</var_count>
  <class_count>2</class_count>
  <class_labels type_id="opencv-matrix">
    <rows>2</rows>
    <cols>1</cols>
    <dt>i</dt>
    <data>
      -1082130432 1065353216</data></class_labels>
  <sv_total>1</sv_total>
  <support_vectors>
    <_>
      4.23762314e-02 -3.85753490e-04 -2.85469536e-02 3.03496327e-02
      2.61210147e-02 -2.90596057e-02 5.89410886e-02 -2.26742066e-02
      -4.15915623e-02 1.80330430e-03 2.55603045e-02 3.77340019e-02
      -2.05410365e-03 2.68630721e-02 -2.79189367e-02 -1.93771981e-02
      -9.47385654e-03 2.33236011e-02 1.60119031e-02 -3.59366573e-02
      -1.75453238e-02 6.64226525e-03 -3.01761180e-02 1.85208283e-02
      1.61617976e-02 -5.02465069e-02 1.67782418e-02 -1.79855805e-02
      3.93653214e-02 1.39790503e-02 1.66480709e-02 2.38324027e-03
      2.13884353e-03 7.72895897e-03 -6.22954406e-02 -2.80008428e-02
      -5.22698183e-03 -3.26975398e-02 1.28321191e-02 1.38549982e-02
      3.84211503e-02 -3.39770527e-03 -6.78686649e-02 1.51807126e-02
      -3.90251656e-03 3.85171585e-02 1.63118225e-02 -4.41110730e-02
      -4.60879365e-03 1.32831447e-02 -3.76272686e-02 -2.34084073e-02
      1.70893744e-02 7.21903751e-03 -4.97105569e-02 4.81950976e-02
      -2.19908133e-02 -4.28239629e-02 -3.14440913e-02 -3.19848061e-02
      1.20909186e-02 -4.70816717e-02 -1.36401160e-02 -8.22079703e-02
      4.66175787e-02 8.07554349e-02 8.30272026e-03 6.64064148e-03
      3.07930671e-02 -1.76575419e-03 -7.41886199e-02 5.94037063e-02 0.
      0. 5.31758741e-02 -1.45713817e-02 2.36736257e-02 -7.21802413e-02
      -4.56395894e-02 -1.76092722e-02 -1.75207164e-02 -2.81280745e-02
      -4.04969826e-02 -6.50349166e-03 7.61111602e-02 3.76761146e-02
      -6.81487247e-02 3.97180114e-03 -7.93624017e-03 6.95818057e-03 0.
      0. 1.87500715e-02 3.62946801e-02 -1.83593817e-02 2.04273053e-02
      -4.11198922e-02 -2.19862373e-03 3.55224544e-03 4.62148525e-03
      -1.37728378e-02 -3.24593647e-03 6.05141111e-02 -8.55216607e-02
      -6.40107039e-03 5.73900975e-02 -9.30244382e-03 4.14407067e-02
      4.95306216e-02 -1.66820213e-02 -2.52414700e-02 -5.12323268e-02
      -9.67162475e-03 2.56669745e-02 2.86587831e-02 1.75206978e-02
      1.38521846e-02 1.33816223e-03 3.48945409e-02 -6.17687544e-03
      -2.04261653e-02 5.15002199e-03 2.78026666e-02 2.40161307e-02
      -4.14740061e-03 3.95092787e-03 1.13217486e-02 1.90124698e-02
      5.91680931e-04 -6.76185591e-03 -2.16444745e-03 8.87339585e-04
      -2.91329119e-02 -4.07052971e-02 -5.34734165e-04 2.31652893e-03</_></support_vectors>
  <uncompressed_sv_total>126</uncompressed_sv_total>
  <uncompressed_support_vectors>
    <_>
      4.71610022e+00 1.91770995e+00 3.19508004e+00 5.88531017e-01
      4.38284016e+00 8.59833002e-01 4.25559998e+00 -1.75476003e+00
      3.96563005e+00 -2.89373994e+00 5.45273006e-01 -2.69016004e+00
      -3.46466005e-01 -3.58999991e+00 3.87878008e-02 -5.54311991e+00
      1.92642003e-01 -5.78423977e+00 -2.51808000e+00 -5.66521978e+00
      -3.73591995e+00 -3.74714994e+00 -3.44244003e+00 -1.51796997e+00
      -5.65637016e+00 8.59726012e-01 -4.68475008e+00 4.92716980e+00
      -3.54842997e+00 6.22340012e+00 -3.73733997e+00 6.02558994e+00
      -2.39846992e+00 5.94646978e+00 1.16709995e+00 -7.59853005e-01
      -7.30422974e-01 -3.06586003e+00 -1.42931998e+00 -7.20681000e+00
      -7.68051028e-01 -1.15340004e+01 -4.66766024e+00 -7.71429014e+00
      2.59015989e+00 -6.06327009e+00 1.82060003e+00 -8.67230988e+00
      2.27815008e+00 -8.49991989e+00 3.90249991e+00 -2.86280990e+00
      1.61621004e-01 2.07254004e+00 1.07818998e-01 -1.11699998e+00
      7.14111030e-02 -5.50934017e-01 3.50494012e-02 1.51367001e-02
      6.10656999e-02 -8.54598999e-01 9.86298025e-01 -2.74930000e+00
      5.69992006e-01 -2.97869992e+00 1.47484004e+00 -1.66594994e+00
      9.81598020e-01 -1.56289995e+00 5.28213978e-01 -1.35950994e+00 0.
      0. -3.22411001e-01 -4.01182985e+00 1.91981995e+00 -3.89244008e+00
      1.18434000e+00 2.87781004e-02 3.37974995e-01 -1.28471002e-01
      9.19158995e-01 -1.27129003e-01 1.97265998e-01 1.37321997e+00
      1.21029997e+00 -2.53631997e+00 6.29135013e-01 -2.53765988e+00 0.
      0. 4.34951991e-01 1.28460002e+00 1.07445002e+00 -1.01723000e-01
      -1.06994998e+00 -5.74705982e+00 -1.61953998e+00 -5.55192995e+00
      6.62551999e-01 -5.33224010e+00 1.79748997e-01 -4.07778978e+00
      2.62038994e+00 -5.28565979e+00 3.42904997e+00 -3.98113990e+00
      2.92067003e+00 -4.26689005e+00 1.98855996e+00 -3.28103995e+00
      2.47156000e+00 -1.99236000e+00 2.25983001e-02 -6.88338995e-01
      -8.78112972e-01 -2.04916000e+00 -1.67645001e+00 -4.74541998e+00
      -1.35848999e+00 -5.77173996e+00 -8.65036011e-01 -2.90787005e+00
      1.52969003e+00 -2.87227011e+00 2.52852988e+00 -2.79886007e+00
      3.16114998e+00 -4.24628019e+00 2.53263998e+00 -2.84694004e+00
      1.53381002e+00 -2.92036009e+00 -8.02627981e-01 -4.34357977e+00</_>
    <_>
      -4.10683006e-01 1.11379004e+00 2.81022996e-01 5.69343996e+00
      1.08571005e+00 9.20868015e+00 3.15766001e+00 1.06751003e+01
      3.27856994e+00 9.81439018e+00 2.20022988e+00 1.09854002e+01
      1.37749004e+00 9.98217964e+00 9.61578012e-01 4.64834976e+00
      3.18146013e-02 5.67178011e+00 -7.90436029e-01 5.57924986e+00
      -6.44515991e-01 6.60918999e+00 -1.48965001e+00 6.44046021e+00
      -2.38814998e+00 6.20453978e+00 -2.19640994e+00 4.93697977e+00
      -1.16140997e+00 5.88325977e+00 5.17883003e-02 4.68510008e+00
      2.31896996e+00 3.57644010e+00 -1.18962002e+00 -1.26225996e+00
      1.05761003e+00 -1.21800995e+00 1.23115003e+00 -1.26008999e+00
      1.40652001e+00 -1.22956002e+00 2.64388990e+00 -1.07201004e+00
      -4.35806006e-01 -2.78232992e-01 -1.31052005e+00 -4.01564002e-01
      -1.12448001e+00 -3.90866995e-01 -9.44854975e-01 -3.01780999e-01
      -8.33557010e-01 -1.52317002e-01 -4.91180003e-01 -1.20573997e+00
      -4.28207010e-01 -2.14878988e+00 -2.73299992e-01 -4.15993023e+00
      -1.28670001e+00 -5.18909979e+00 5.24310017e+00 5.21286011e+00
      3.35733008e+00 2.92600989e+00 4.12856996e-01 5.34408987e-01
      -3.85414004e+00 1.21550000e+00 -6.07816982e+00 3.15555000e+00 0.
      0. -2.57874001e-03 1.01137996e+00 2.05268994e-01 -5.82351983e-02
      3.15979004e-01 1.16347997e-02 1.12700999e-01 1.09648001e+00
      -8.81576985e-02 2.16731000e+00 -2.24944994e-01 -1.11602998e+00
      -1.26880002e+00 -1.84699997e-01 -1.81640998e-01 1.00188994e+00 0.
      0. -1.88049003e-01 1.08027995e+00 -1.27519000e+00 -1.06322996e-01
      1.46604004e+01 1.92469006e+01 9.71901989e+00 1.55391998e+01
      3.60815001e+00 1.28205004e+01 4.85596001e-01 1.25733004e+01
      -4.85074997e+00 1.31694002e+01 -1.12215996e+01 1.37300997e+01
      -1.76576004e+01 1.53706999e+01 -1.07566996e+01 8.48447037e+00
      -4.48294020e+00 9.06328964e+00 -2.19269007e-01 8.35999012e+00
      4.94385004e+00 9.88018990e+00 9.90443993e+00 1.35188999e+01
      1.37404003e+01 1.80965996e+01 4.85496998e+00 1.08477001e+01
      -3.08151007e-01 9.32744026e+00 -4.48566008e+00 8.95442009e+00
      -1.75310993e+01 1.32316999e+01 -4.47986984e+00 8.96269035e+00
      -3.08151007e-01 9.32744026e+00 4.86194992e+00 1.08488998e+01</_>
    <_>
      2.98769999e+00 6.24409008e+00 2.24206996e+00 6.02301979e+00
      3.81067991e+00 6.82834005e+00 4.29436016e+00 8.81305027e+00
      4.68478012e+00 9.60680962e+00 6.06267977e+00 9.12637043e+00
      7.25568008e+00 8.56651020e+00 7.09723997e+00 5.76003981e+00
      5.64837980e+00 3.01150990e+00 5.27216005e+00 1.39461994e+00
      3.73343992e+00 1.08266997e+00 1.03241003e+00 2.07557988e+00
      1.63873005e+00 8.43352973e-01 1.20395005e+00 2.08960009e+00
      -4.56757009e-01 1.16681004e+00 -9.29443002e-01 1.34298003e+00
      9.38232005e-01 2.58759999e+00 -9.43375006e-03 5.48729002e-01
      -1.66709995e+00 -2.95084000e+00 -3.19991994e+00 -6.62463999e+00
      -3.47788000e+00 -9.27954960e+00 -3.50136995e+00 -8.55926037e+00
      6.61589003e+00 -7.13049984e+00 6.24762011e+00 -8.57781029e+00
      4.93174982e+00 -7.74023008e+00 2.67690992e+00 -4.60372019e+00
      -5.34484982e-01 -1.40260994e+00 1.65204000e+00 1.15311003e+00
      1.89906001e+00 1.01964998e+00 2.11019993e+00 -2.43340001e-01
      2.42975998e+00 7.49373972e-01 2.82849002e+00 -2.41881996e-01
      2.88686991e+00 1.87024999e+00 2.87804008e+00 2.83353996e+00
      1.52196002e+00 4.54178005e-01 1.45704997e+00 1.45216000e+00 0. 0.
      2.00021005e+00 -1.37352002e+00 1.91998005e+00 -4.62994009e-01
      -2.31200993e-01 1.61276996e+00 1.07049000e+00 1.76117003e+00
      7.44704977e-02 2.04405999e+00 1.54264998e+00 6.00364983e-01
      1.69373006e-02 -1.77102995e+00 -1.07849002e-01 -2.00401998e+00 0.
      0. 1.32644999e+00 9.43375006e-02 1.45992005e+00 3.41354012e-01
      -2.87634993e+00 7.95347977e+00 -2.15422010e+00 4.32674980e+00
      -1.41714001e+00 -4.41498011e-01 -2.06496999e-01 1.64014006e+00
      1.91252005e+00 2.70660013e-01 3.22692990e+00 4.47510004e+00
      2.08147001e+00 4.17187977e+00 2.65095997e+00 1.24048996e+01
      4.07230997e+00 1.59926004e+01 1.87535000e+00 1.62586002e+01
      -3.38973999e-01 1.64965992e+01 -2.68026996e+00 1.33774004e+01
      -1.75771999e+00 8.94032001e+00 -1.01747000e+00 5.18607998e+00
      1.21086001e+00 4.93941021e+00 2.25897002e+00 4.74065018e+00
      1.07377994e+00 6.61031008e+00 3.59472990e+00 9.26154995e+00
      1.40311003e+00 9.50487995e+00 -8.69812012e-01 8.60797024e+00</_>
    <_>
      -3.15351009e-01 1.22509003e+00 -9.93642986e-01 1.48002994e+00
      1.81350994e+00 4.18164015e+00 3.51067996e+00 3.38766003e+00
      5.73116004e-01 4.99215984e+00 -2.27759004e+00 5.60039997e+00
      -1.50735998e+00 5.14554024e+00 -5.44991016e-01 8.19092020e-02
      -3.95161009e+00 -3.29254001e-01 -5.91662979e+00 1.54744995e+00
      -5.32432985e+00 5.54090977e+00 -3.45778990e+00 9.42807007e+00
      -3.88793993e+00 1.19532003e+01 -5.47783995e+00 1.07185001e+01
      -3.54418993e+00 9.47574997e+00 -2.82738996e+00 8.15509033e+00
      2.26348996e-01 6.85126019e+00 9.39903036e-02 -7.24937022e-01
      -1.68395996e+00 -2.84727001e+00 1.03130996e+00 -5.79791021e+00
      2.32179999e+00 -5.18379021e+00 3.50205994e+00 -4.56516981e+00
      1.36030996e+00 -2.72018003e+00 1.70685005e+00 -3.40212011e+00
      1.95816004e+00 -4.02821016e+00 7.77161002e-01 -1.11520004e+00
      -6.79320991e-01 5.17445028e-01 7.32773006e-01 -1.76048005e+00
      1.94351003e-01 -2.79624009e+00 -1.51250005e+00 -3.84044003e+00
      -2.07658005e+00 -4.86864996e+00 4.41753006e+00 5.24138021e+00
      2.11181998e+00 2.02433991e+00 -2.53084993e+00 -1.20949996e+00
      -4.72542000e+00 2.56452990e+00 -5.72501993e+00 5.14533997e+00 0.
      0. 3.28682005e-01 -3.23179007e+00 1.61020005e+00 -2.83818007e+00
      1.46782994e+00 -7.39135966e-02 1.24274004e+00 1.93359005e+00
      -1.24884999e+00 2.68186998e+00 -4.28649992e-01 1.31412995e+00
      1.12734997e+00 -1.89864004e+00 1.26610994e+00 -1.52096999e+00 0.
      0. 2.07462001e+00 3.28487992e+00 -4.08538997e-01 2.86472988e+00
      1.96713009e+01 1.80904999e+01 1.06777000e+01 1.12861996e+01
      2.75869989e+00 6.84976006e+00 -7.33169973e-01 7.15529013e+00
      -7.55730009e+00 6.16307020e+00 -1.45986996e+01 1.11760998e+01
      -2.17521000e+01 1.85818005e+01 -1.50379000e+01 6.69694996e+00
      -7.08618021e+00 -5.35889030e-01 -1.35178006e+00 -1.96293998e+00
      3.24878001e+00 -1.07658005e+00 1.14077997e+01 5.62134981e+00
      1.86074009e+01 1.35549002e+01 2.44260001e+00 1.16063995e+01
      -1.02358997e+00 1.19043999e+01 -7.87423992e+00 1.21139002e+01
      -2.05779991e+01 1.49231997e+01 -6.63193989e+00 -4.19507980e+00
      -9.15633976e-01 -5.58888006e+00 3.68485999e+00 -4.70252991e+00</_>
    <_>
      3.79628986e-01 -8.48845989e-02 -7.18802989e-01 -3.22800010e-01
      3.56550008e-01 5.10544002e-01 -7.57736027e-01 2.45488000e+00
      2.46555001e-01 1.13103998e+00 1.24737002e-01 2.02942991e+00
      -5.20401001e-02 2.96826005e+00 -2.67684996e-01 3.96322989e+00
      -1.60889995e+00 3.94307995e+00 -2.97304010e+00 1.80472004e+00
      -3.18559003e+00 1.91886997e+00 -3.37366009e+00 9.93270993e-01
      -3.49770999e+00 1.19342005e+00 -2.47089005e+00 1.41653001e+00
      -2.51495004e+00 5.68192005e-01 -1.45626998e+00 -2.88277000e-01
      -1.46862996e+00 -1.13710999e+00 1.26347005e+00 -9.62605000e-01
      2.24879003e+00 1.31616998e+00 2.09857988e+00 2.44507003e+00
      8.44703972e-01 2.43157005e+00 -4.09698009e-01 1.29137003e+00
      4.07622993e-01 1.29534996e+00 -8.37127984e-01 1.36105001e+00
      -2.09034991e+00 1.39515996e+00 -2.24961996e+00 2.62829006e-01
      -1.27528000e+00 -9.41543996e-01 -5.38986027e-01 2.22159004e+00
      -5.48919976e-01 9.91859019e-01 -5.58867991e-01 -2.37838998e-01
      -1.65584004e+00 -3.72658014e-01 -3.88915986e-01 5.37247002e-01
      -1.56344998e+00 5.22583008e-01 -2.72997999e+00 1.60281003e+00
      -2.80912995e+00 1.61984003e+00 -2.89595008e+00 5.57860970e-01 0.
      0. -9.40399021e-02 8.07190016e-02 -2.13081002e-01 1.16948998e+00
      -1.42051995e+00 1.07597005e+00 -1.30185997e+00 1.05043995e+00
      -8.79516974e-02 -4.63333018e-02 3.40728998e-01 1.05826998e+00
      -8.71703982e-01 7.61452019e-02 -9.98520017e-01 8.59375000e-02 0.
      0. -1.00042999e+00 1.04605997e+00 -8.73474002e-01 1.04419994e+00
      4.18436003e+00 2.37503004e+00 -3.28635991e-01 1.40918005e+00
      -1.57358003e+00 -1.81000996e+00 -2.74805999e+00 -7.29691029e-01
      -2.84295988e+00 -1.79951000e+00 -4.04162979e+00 3.44406009e-01
      -7.41486979e+00 4.63850021e+00 -3.99628997e+00 5.64407015e+00
      -2.78273010e+00 6.70555019e+00 -2.69552994e+00 5.60928011e+00
      -2.60022998e+00 5.61582994e+00 7.87781000e-01 4.51917982e+00
      4.12094021e+00 1.28891003e+00 -2.63016009e+00 2.46622992e+00
      -2.73334002e+00 1.37273002e+00 -2.81261992e+00 2.46885991e+00
      -7.36710978e+00 3.55869007e+00 -1.71799004e+00 2.44505000e+00
      -2.71766996e+00 2.45163012e+00 -1.54340994e+00 1.35546994e+00</_>
    <_>
      -2.29110997e-02 1.40828001e+00 -1.43116999e+00 1.38538003e+00
      -1.40825999e+00 -2.28882004e-02 -1.43113995e+00 1.38538003e+00
      -2.83943009e+00 1.36247003e+00 -2.86233997e+00 2.77074003e+00
      -1.43113995e+00 1.38536000e+00 -6.86950982e-02 4.22482014e+00
      1.31667995e+00 5.65598011e+00 1.33957005e+00 4.24773979e+00
      1.36249006e+00 2.83944988e+00 1.38538003e+00 1.43120003e+00
      1.40825999e+00 2.29186993e-02 0. 4.57763999e-05 -1.40825999e+00
      -2.29033995e-02 -1.43118000e+00 1.38534999e+00 -1.43112004e+00
      1.38538003e+00 -1.36248004e+00 -2.83941007e+00 -2.72492003e+00
      -5.67884016e+00 -2.67914009e+00 -8.49538040e+00 -4.06449986e+00
      -9.92656040e+00 -5.49567986e+00 -8.54117966e+00 1.54563999e+00
      -8.42667961e+00 1.56857002e+00 -9.83495045e+00 1.54568005e+00
      -8.42669010e+00 1.49987996e+00 -5.61014986e+00 -1.36249006e+00
      -2.83942008e+00 1.43114996e+00 -1.38536000e+00 2.29033995e-02
      -1.40825999e+00 -1.52588000e-05 1.52588000e-05 -2.29033995e-02
      1.40825999e+00 2.29033995e-02 -1.40828001e+00 1.40824997e+00
      2.29186993e-02 0. 0. -1.52588000e-05 1.52588000e-05
      -2.28729006e-02 1.40828001e+00 0. 0. -1.38537002e+00
      -1.43115997e+00 -7.62938998e-06 3.81469999e-06 2.29186993e-02
      -1.40827000e+00 -2.28957999e-02 1.40828001e+00 -2.28882004e-02
      1.40825999e+00 2.28882004e-02 -1.40823996e+00 3.05176000e-05 0. 0.
      -1.14441000e-05 0. 0. 1.38538003e+00 1.43115997e+00
      -4.57915999e-02 2.81654000e+00 1.11287003e+01 8.63280010e+00
      8.28931046e+00 9.99528980e+00 4.06447983e+00 9.92656040e+00
      -1.60309002e-01 9.85785961e+00 -1.59144998e+00 1.12432003e+01
      -5.79336977e+00 9.76628017e+00 -8.60988045e+00 9.72049999e+00
      -5.74750996e+00 6.94971991e+00 -2.90813994e+00 5.58726978e+00
      -6.87256008e-02 4.22481012e+00 2.74780011e+00 4.27060986e+00
      6.97261000e+00 4.33929014e+00 9.74335957e+00 7.20164013e+00
      2.74782991e+00 4.27059984e+00 -9.15680006e-02 5.63305998e+00
      -2.88524008e+00 4.17901993e+00 -8.56408978e+00 6.90392017e+00
      -1.47695994e+00 4.20192003e+00 -6.87102973e-02 4.22481012e+00
      4.15610981e+00 4.29349995e+00</_>
    <_>
      5.07484019e-01 -7.33255005e+00 5.38244009e-01 -9.65153980e+00
      5.54745018e-01 -1.19710999e+01 -1.54001999e+00 -1.32919998e+01
      -5.82539988e+00 -1.15043001e+01 -8.06447983e+00 -1.06964998e+01
      -8.29319954e+00 -7.72881985e+00 -7.48172998e+00 -5.75377989e+00
      -3.57849002e+00 -3.61630011e+00 -6.76849008e-01 -3.51883006e+00
      1.24432003e+00 -5.45334005e+00 2.14369011e+00 -7.36547995e+00
      2.02850008e+00 -8.21265030e+00 9.28252995e-01 -9.06443977e+00
      -1.58172995e-01 -8.85908985e+00 -1.25873005e+00 -7.61194992e+00
      -1.30385995e+00 -6.33588982e+00 1.11491001e+00 7.46328020e+00
      1.95800996e+00 1.18028002e+01 2.76883006e+00 1.50129004e+01
      4.93797004e-01 1.49554005e+01 1.40933001e+00 1.28226004e+01
      -8.44757020e-01 1.17307997e+01 -1.05391002e+00 1.28288002e+01
      -2.22347999e+00 9.66104031e+00 -1.25099003e+00 4.39646006e+00
      7.87169993e-01 1.17454004e+00 -5.65567017e-01 3.17518997e+00
      -1.57909000e+00 1.94856000e+00 -1.56552005e+00 1.79205000e+00
      -1.53014004e+00 5.79833984e-01 7.35664010e-01 -1.57618999e+00
      -3.75916004e-01 -1.62884998e+00 -1.52324998e+00 -6.33560002e-01
      -1.60991001e+00 -6.08536005e-01 -1.68949997e+00 -5.83221018e-01 0.
      0. -1.09695002e-01 1.10922003e+00 -2.31162995e-01 1.11138999e+00
      -3.06450009e-01 -1.25580002e-02 -1.24696004e+00 -5.82351983e-02
      -1.12723999e-01 1.00915003e+00 1.37688994e+00 -1.02160001e+00
      -8.37661982e-01 5.84984012e-02 1.11298002e-01 -9.73492026e-01 0.
      0. 1.08231001e-01 -1.07358003e+00 -8.19167972e-01 -1.09015000e+00
      2.00514007e+00 -5.02950001e+00 -1.28664994e+00 -2.92269993e+00
      6.87286019e-01 -2.83464003e+00 5.81390023e-01 -1.81807995e+00
      5.16205013e-01 -2.84166002e+00 2.46557999e+00 -1.80515003e+00
      1.32742000e+00 -2.95123005e+00 1.33667004e+00 2.22510004e+00
      3.46648991e-01 5.30433989e+00 -6.30234003e-01 6.32088995e+00
      -5.16312003e-01 5.28328991e+00 -3.24981987e-01 1.13610995e+00
      2.97487998e+00 -3.95459008e+00 5.83908021e-01 2.30133009e+00
      4.98703003e-01 2.29069996e+00 4.05456990e-01 2.30113006e+00
      3.14040989e-01 -1.91472006e+00 -6.57257020e-01 3.32133007e+00
      4.77432013e-01 3.33213997e+00 -4.57534999e-01 2.28008008e+00</_>
    <_>
      1.36843002e+00 -3.78961992e+00 1.65295994e+00 -3.78998995e+00
      5.26211023e-01 -5.16609001e+00 -1.98852003e+00 -6.53030014e+00
      -3.20670992e-01 -5.27900982e+00 1.32214999e+00 -4.08362007e+00
      2.95127010e+00 -1.56740999e+00 1.75889003e+00 9.74425972e-01
      3.19060993e+00 2.01920009e+00 3.10970998e+00 3.38135004e-01
      1.55226004e+00 -1.27057004e+00 1.29286003e+00 -4.24173021e+00
      1.01361001e+00 -5.76665020e+00 7.14385986e-01 -7.22248983e+00
      -9.24530029e-01 -7.22304010e+00 -1.15270996e+00 -5.85923004e+00
      -2.73334002e+00 -3.07375002e+00 -1.95666999e-01 -3.90707994e+00
      -1.67972004e+00 -2.63930011e+00 -1.71135998e+00 -2.85423994e+00
      -1.68573999e+00 -3.06015992e+00 -2.99080992e+00 -1.86808002e+00
      -2.61581004e-01 -3.57428002e+00 -2.92724997e-01 -2.40072989e+00
      -3.12943012e-01 -1.23901999e+00 -3.21456999e-01 -2.82065010e+00
      -1.58920002e+00 -4.30471992e+00 -1.38112998e+00 7.28595972e-01
      1.42746001e-01 -6.77383006e-01 2.90908992e-01 -2.04925990e+00
      4.16274995e-01 -4.79731989e+00 -7.68715024e-01 -3.17775989e+00
      -7.84775019e-01 -4.66798019e+00 6.09405994e-01 -4.80530977e+00
      -7.60039985e-01 -3.51952004e+00 -8.10257018e-01 -5.00840998e+00 0.
      0. -3.92456017e-02 1.25356996e+00 1.33037996e+00 1.07175004e+00
      2.76909995e+00 -4.67303991e-01 1.43306994e+00 -2.98233002e-01
      6.34689033e-02 -1.16432004e-01 -1.35883999e+00 -9.33997989e-01
      -1.46670997e+00 -1.06612003e+00 -1.43919003e+00 1.50551006e-01 0.
      0. 7.28759989e-02 1.10802002e-01 -1.33039999e+00 -1.07175004e+00
      1.03588998e+00 -1.64757001e+00 9.61616993e-01 -4.15313989e-01
      8.75046015e-01 -5.82458019e-01 -4.59915012e-01 -6.63848996e-01
      -4.98688012e-01 -7.76015997e-01 -4.25781012e-01 -9.38385010e-01
      -1.67072999e+00 3.30855995e-01 -1.07024997e-01 4.56830978e+00
      1.84630998e-03 7.47744989e+00 1.35996997e+00 6.19211006e+00
      1.37607002e+00 7.68239021e+00 1.28032005e+00 5.09143019e+00
      2.45426989e+00 1.00256002e+00 -3.30215007e-01 8.21731985e-01
      -3.12195003e-01 7.07153022e-01 -3.05496007e-01 1.97022998e+00
      -3.05498004e+00 4.33593988e-01 -2.82303005e-01 3.35778999e+00
      -2.66220003e-01 3.47094989e+00 1.09145999e+00 3.55137992e+00</_>
    <_>
      9.96520996e-01 -1.48799002e+00 7.61327982e-01 -1.25426996e+00
      -6.47189975e-01 -1.07472003e+00 -7.79025972e-01 -2.00712991e+00
      -2.16413999e+00 -1.81579995e+00 -2.26129007e+00 -1.49488997e+00
      -3.55550003e+00 -3.36456001e-02 -4.70871019e+00 2.33490005e-01
      -3.33950996e+00 6.09497011e-01 -3.07998991e+00 8.40057015e-01
      -1.72728002e+00 3.45043993e+00 -1.58050999e-01 3.60435009e+00
      2.05443993e-01 3.58205009e+00 -7.42583990e-01 4.56610012e+00
      7.78168023e-01 4.47834015e+00 9.82451975e-01 5.48835993e+00
      1.27145004e+00 5.28765011e+00 2.54509997e+00 -2.56858993e+00
      2.68058991e+00 -1.31729996e+00 4.60242987e-01 -1.31501997e+00
      4.87343013e-01 1.04709998e-01 -5.47927976e-01 -9.51323986e-01
      1.00208998e+00 -1.75524998e+00 1.14681995e+00 -4.52351004e-01
      1.35030997e+00 -2.96972007e-01 3.12500000e-01 -1.88905999e-01
      3.60870004e-01 5.27267009e-02 -6.00463986e-01 -6.49039984e-01
      4.12842005e-01 -4.17190999e-01 2.24792004e-01 -2.77114987e-01
      -1.16692996e+00 -2.12402001e-01 -1.49996996e+00 9.20166016e-01
      -1.46516001e+00 1.02578998e+00 -2.52583003e+00 -1.42883003e-01
      -1.21689999e+00 1.48620997e-02 8.26416016e-02 1.79656997e-01 0. 0.
      8.62732008e-02 1.24409997e+00 2.80701011e-01 2.00187996e-01
      2.65967995e-01 4.15840000e-01 1.30318001e-01 3.12247992e-01
      1.20314002e+00 2.51213014e-01 8.15536022e-01 -2.49442995e-01
      1.04061997e+00 -2.41684005e-01 1.17848003e+00 -9.58786011e-02 0.
      0. -1.54662997e-01 -3.09676994e-02 -2.92510986e-01 -1.76772997e-01
      -6.64375007e-01 -9.70612019e-02 -5.92284977e-01 1.18684006e+00
      -1.65798998e+00 1.19865000e+00 -1.60909998e+00 1.32308996e+00
      -2.60641003e+00 1.21780001e-01 -1.32822001e+00 3.75580013e-01
      -1.34317005e+00 1.73891997e+00 -1.47168005e+00 4.97070014e-01
      -1.73430002e+00 1.60637999e+00 -1.75476003e+00 3.13232005e-01
      -1.82237005e+00 2.02834994e-01 -6.79153025e-01 1.18561000e-01
      -6.38778985e-01 -4.30755988e-02 -2.94629002e+00 1.18633997e+00
      -2.87864995e+00 1.29674006e+00 -1.58144999e+00 1.47791004e+00
      -1.01501003e-01 5.80002010e-01 -1.49907994e+00 2.83614993e-01
      -1.69373000e+00 1.38610995e+00 -1.76137996e+00 1.27569997e+00</_>
    <_>
      1.34116995e+00 -2.29065990e+00 1.61047006e+00 -4.26906013e+00
      7.60726988e-01 -5.06184006e+00 9.53709006e-01 -5.84539986e+00
      3.30353999e+00 -4.35822010e+00 6.52859020e+00 -3.70978999e+00
      6.42447996e+00 -3.86113000e+00 4.17688990e+00 -3.69312000e+00
      3.11796999e+00 -5.27236986e+00 -2.08916998e+00 -5.34118986e+00
      -6.85439014e+00 -6.28008986e+00 -6.99119997e+00 -5.10466003e+00
      -3.63323998e+00 -5.09546995e+00 -2.14633012e+00 -5.13742018e+00
      -1.60666001e+00 -4.13610983e+00 -2.09057999e+00 -8.96690011e-01
      -2.45989990e+00 2.24789000e+00 -2.05153990e+00 3.15130997e+00
      1.25528002e+00 5.03155994e+00 2.95771003e+00 5.75343990e+00
      2.21848011e+00 8.48406982e+00 1.35135996e+00 8.71947002e+00
      4.64422989e+00 2.59738994e+00 4.18464994e+00 2.32925010e+00
      1.21585000e+00 -1.33914995e+00 3.38881999e-01 -9.99054015e-01
      5.82458019e-01 -1.19693005e+00 3.04596007e-01 3.99796009e+00
      -2.88634986e-01 1.11573005e+00 -8.29192996e-01 4.04799998e-01
      -1.40794003e+00 -1.40604997e+00 -1.19649994e+00 -6.59030008e+00
      -1.56325996e+00 -5.39637995e+00 -1.96352005e+00 -4.12635994e+00
      -3.31223989e+00 -3.68900990e+00 -2.46103001e+00 -3.32810998e+00 0.
      0. 1.97920001e+00 -6.38972998e-01 1.51613998e+00 -2.07165003e-01
      1.94945002e+00 -1.75956994e-01 2.29855990e+00 4.25094992e-01
      1.68540001e+00 6.01195991e-02 2.50809014e-01 2.26595998e+00
      -1.79443005e-02 7.08114982e-01 -5.37963986e-01 -4.10346985e-02 0.
      0. 2.39487007e-01 6.43577993e-01 -3.49976003e-01 3.07235986e-01
      -1.10454998e+01 -2.54041004e+01 -5.71828985e+00 -2.17675991e+01
      -3.78618002e+00 -2.02975006e+01 -3.09600997e+00 -2.01893997e+01
      -3.32568002e+00 -2.09375992e+01 4.45053011e-01 -2.08589993e+01
      6.21989012e+00 -2.63043003e+01 2.61884999e+00 -1.03702002e+01
      -9.78545994e-02 -3.10713005e+00 -8.68346989e-01 -2.25850010e+00
      -1.64412999e+00 -3.52385998e+00 -4.63002014e+00 -1.01693001e+01
      -1.22645998e+01 -2.30522995e+01 -1.97582996e+00 -2.28936996e+01
      -2.27144003e+00 -2.16138000e+01 -2.57715011e+00 -2.23957005e+01
      6.44437981e+00 -2.42752991e+01 -6.36947989e-01 1.76537001e+00
      -1.43120003e+00 2.58539009e+00 -2.21184993e+00 1.37232995e+00</_>
    <_>
      -2.81912994e+00 -4.24995005e-01 5.17199993e-01 1.17533004e+00
      2.75667000e+00 3.32747996e-01 2.60300994e+00 -5.86791992e-01
      -1.28212003e-02 8.19091976e-01 1.05560005e+00 2.41343999e+00
      -4.35256995e-02 3.28063995e-01 5.16357012e-02 6.67205989e-01
      1.51745999e+00 -2.10814998e-01 1.78761005e+00 1.14136003e-02
      2.19792008e+00 -2.29415989e+00 1.35651007e-01 -2.36228991e+00
      -7.36603022e-01 -2.47531009e+00 -1.62856996e+00 -2.66845989e+00
      -1.79931998e-01 -1.57603002e+00 1.32260001e+00 -1.70948005e+00
      1.59262002e+00 -1.92354000e+00 -2.35513997e+00 -2.85713005e+00
      -9.65752006e-01 -1.56876004e+00 -7.76703000e-01 -1.42282999e+00
      5.99418998e-01 -1.17374003e+00 7.63382018e-01 -2.13786006e+00
      -1.39037001e+00 -1.93408000e+00 -9.27734002e-03 -5.41670024e-01
      2.38937005e-01 -1.57758999e+00 3.70483011e-01 -1.36645997e+00
      3.85863990e-01 -1.12093997e+00 -5.39856017e-01 -6.71131015e-01
      5.28304994e-01 -4.98901010e-01 -8.12682986e-01 -4.22371000e-01
      -9.62432981e-01 -2.94708014e-01 -1.28887999e+00 -1.45485997e+00
      -1.78986005e-02 -1.31013000e+00 4.31823991e-02 -1.20058000e+00
      1.51093006e-01 -1.13089001e+00 -9.49585021e-01 -1.11381996e+00 0.
      0. -9.75983024e-01 -1.22060001e+00 -8.48312020e-01 -1.07081997e+00
      4.13543999e-01 -2.01736999e+00 1.68648005e-01 2.92602986e-01
      -1.16893995e+00 1.07657999e-01 -3.56644005e-01 -3.42453003e-01
      -1.05377004e-01 -1.52646995e+00 -2.88695991e-02 -1.85505003e-01 0.
      0. -1.00754000e-01 -1.25563002e+00 -2.80959994e-01 -1.96860999e-01
      7.56812000e+00 5.10410976e+00 1.95552003e+00 9.45281982e-02
      -2.15804994e-01 -1.12521005e+00 -1.56112999e-01 -9.98336971e-01
      -2.44794989e+00 -1.03234994e+00 -4.88126993e+00 1.47863996e+00
      -8.63895035e+00 6.37945986e+00 -3.99885988e+00 5.30042982e+00
      -1.69570994e+00 4.09650993e+00 -1.79285002e+00 4.00151014e+00
      -6.36901975e-01 2.74117994e+00 1.68855000e+00 2.68193007e+00
      7.67653990e+00 3.96107006e+00 -2.86316007e-01 -2.21266007e+00
      -1.40706003e+00 -2.16226006e+00 -1.31789005e+00 -2.07661009e+00
      -8.65958977e+00 5.10402012e+00 -1.48491001e+00 1.55694997e+00
      -1.62662005e+00 2.67986989e+00 -4.53307986e-01 1.42094004e+00</_>
    <_>
      1.96668005e+00 1.11474001e+00 1.94610000e+00 6.35932982e-01
      3.10358000e+00 1.73462003e-01 3.03156996e+00 -1.50238001e+00
      2.82178998e+00 4.72900003e-01 2.48990989e+00 1.33453000e+00
      2.05344009e+00 3.47423005e+00 1.63216996e+00 8.66180003e-01
      2.35133004e+00 8.01146984e-01 3.08275008e+00 9.07288015e-01
      2.65008998e+00 -9.56116021e-02 2.25051999e+00 -1.06340003e+00
      -4.39666986e-01 -1.95955002e+00 -6.05651975e-01 -3.24631006e-01
      -1.88229001e+00 -1.07822001e+00 -1.93005002e+00 -6.01325989e-01
      -1.96042001e+00 1.07163000e+00 -7.96440005e-01 3.99112010e+00
      -1.04214001e+00 4.22326994e+00 1.05552995e+00 1.92579997e+00
      1.87638998e+00 3.09343004e+00 3.92937994e+00 4.17647982e+00
      -1.63654006e+00 4.10390997e+00 -1.94781005e+00 3.03614998e+00
      -1.09598005e+00 3.11156011e+00 -1.43535995e+00 3.03362012e+00
      -4.89684999e-01 4.01690006e+00 -3.60869989e-02 2.47552991e+00
      -9.56725981e-03 9.39109981e-01 -1.71814002e-02 1.80997002e+00
      -2.45514009e-02 1.46814001e+00 1.55251002e+00 6.11420013e-02
      1.38332999e+00 5.11169014e-03 1.92260998e-03 -6.82677999e-02
      -1.70166001e-01 -2.19116006e-02 -3.59573007e-01 1.23662996e+00 0.
      0. -1.38645005e+00 -1.09828997e+00 7.64832020e-01 -1.07139003e+00
      5.13885021e-01 -5.37414998e-02 7.54531980e-01 1.09741998e+00
      -1.84821993e-01 -1.07735001e-01 7.01659977e-01 -4.84085009e-02
      4.91791010e-01 -1.07914996e+00 2.35351995e-01 -1.06933999e+00 0.
      0. 1.91147000e-01 -1.14136003e-01 4.47127998e-01 -1.06865004e-01
      1.02579002e+01 6.86674023e+00 4.00671005e+00 3.25636005e+00
      1.39321995e+00 8.59359980e-01 -2.25067008e-02 1.99769998e+00
      -1.94869995e-01 8.48465025e-01 -2.87375998e+00 3.16358995e+00
      -6.83234978e+00 6.63800001e+00 -1.72356999e+00 5.36534023e+00
      9.42382991e-01 4.10880995e+00 -6.45447001e-02 4.08022022e+00
      1.31805003e+00 5.31502008e+00 5.19124985e+00 4.24642992e+00
      8.94334984e+00 6.84652996e+00 2.55808997e+00 3.14692998e+00
      1.17597997e+00 1.89503002e+00 -2.24655002e-01 3.10210991e+00
      -5.50044012e+00 5.44604015e+00 9.69924986e-01 3.13601995e+00
      1.15863001e+00 3.10721993e+00 1.34592998e+00 3.12962008e+00</_>
    <_>
      -5.20456016e-01 3.13775992e+00 -5.08732021e-01 2.72357988e+00
      5.80582023e-01 1.30490005e+00 1.56623995e+00 9.44992006e-01
      3.52139997e+00 1.73629999e+00 5.30430984e+00 3.61696005e+00
      7.04064989e+00 4.49835014e+00 6.71836996e+00 3.20560002e+00
      8.46584988e+00 2.19219995e+00 9.09609985e+00 2.29528999e+00
      7.77662992e+00 2.89519995e-01 5.56588984e+00 -3.82541990e+00
      4.38275003e+00 -5.67165995e+00 2.23215008e+00 -7.51941013e+00
      3.09069991e+00 -5.99218988e+00 8.51195991e-01 -5.73380995e+00
      -2.40225005e+00 -5.52161980e+00 1.36986995e+00 1.38206005e+00
      1.96788001e+00 4.82558012e+00 3.68117988e-01 7.97408009e+00
      -1.17554002e-01 1.00316000e+01 -2.63150001e+00 1.08343000e+01
      1.23705006e+00 1.10611000e+01 -1.02981997e+00 7.82892990e+00
      -2.43225002e+00 7.77414989e+00 -4.68184996e+00 4.40119982e+00
      -2.51504993e+00 6.87637031e-02 -3.61373991e-01 5.33919001e+00
      -2.79143989e-01 4.03098011e+00 -6.80084005e-02 6.08588994e-01
      7.94219971e-02 -1.76311004e+00 5.16541004e-01 -3.10578990e+00
      2.22809002e-01 -1.02472997e+00 2.17223001e+00 -9.28969979e-01
      2.08081007e+00 -1.98569000e+00 2.00062990e+00 -3.02801991e+00 0.
      0. -8.02536011e-02 -1.99696004e+00 6.87682986e-01 -8.96399975e-01
      4.36477989e-01 -1.14975004e-02 -4.14429009e-01 -1.15668997e-01
      -1.68166995e-01 -1.11511000e-01 -5.17960012e-01 9.95094001e-01
      3.96881014e-01 1.52503997e-01 2.30286002e-01 -9.26402986e-01 0. 0.
      1.66060999e-01 -8.35648030e-02 3.97933990e-01 -6.81686029e-02
      7.37194014e+00 -5.42261982e+00 4.85410023e+00 -3.31514001e+00
      3.56052995e+00 -3.30461001e+00 4.48794985e+00 -3.29501009e+00
      5.32793999e+00 -2.14665008e+00 4.05787992e+00 -2.32813001e+00
      2.90862989e+00 -4.66371012e+00 4.95698977e+00 6.71661019e-01
      6.09943008e+00 2.85065007e+00 5.14015007e+00 3.84366012e+00
      4.29390001e+00 2.74647999e+00 5.75319004e+00 -3.15308005e-01
      7.13749981e+00 -3.29535007e+00 3.58088994e+00 -3.47095990e+00
      4.57041979e+00 -4.49927998e+00 6.46423006e+00 -3.31283998e+00
      3.01101995e+00 -4.65117979e+00 6.08555984e+00 3.06973004e+00
      5.24245977e+00 1.94699001e+00 4.31816006e+00 1.91176999e+00</_>
    <_>
      1.25326002e+00 2.42184997e+00 2.48959994e+00 3.62432003e+00
      4.92838001e+00 3.59044003e+00 6.13083982e+00 2.35409999e+00
      3.69204998e+00 2.38796997e+00 2.45569992e+00 1.18552995e+00
      1.21937001e+00 -1.69066992e-02 -1.27023005e+00 -3.64123988e+00
      -1.28711998e+00 -4.86059999e+00 -5.08574992e-02 -3.65816998e+00
      -1.20245004e+00 1.23635995e+00 3.38134989e-02 2.43881011e+00
      -3.60738993e+00 3.70902991e+00 -4.80981016e+00 4.94533014e+00
      -4.82672024e+00 3.72593999e+00 -2.40491009e+00 2.47266006e+00
      1.21941996e+00 -1.69449002e-02 2.40493011e+00 -2.47267008e+00
      -6.77414015e-02 -4.87760019e+00 -1.01631001e-01 -7.31638002e+00
      1.08389997e+00 -9.77208996e+00 2.30329990e+00 -9.78905010e+00
      -3.77675009e+00 -8.48495960e+00 -3.75979996e+00 -7.26557016e+00
      -3.72588992e+00 -4.82677984e+00 -3.72588992e+00 -4.82678986e+00
      -4.91143990e+00 -2.37104988e+00 -3.38745005e-02 -2.43880010e+00
      1.18552005e+00 -2.45572996e+00 1.18552995e+00 -2.45571995e+00
      1.18550003e+00 -2.45569992e+00 3.67511010e+00 1.16858006e+00
      2.47267008e+00 2.40493989e+00 2.43880010e+00 -3.38898003e-02
      1.69066992e-02 1.21938002e+00 -2.43875003e+00 3.38898003e-02 0. 0.
      -1.25328004e+00 -2.42184997e+00 -1.25327003e+00 -2.42185998e+00
      -1.52588000e-05 -1.52588000e-05 7.62938998e-06 -7.62938998e-06
      -1.20246005e+00 1.23632002e+00 0. -7.62938998e-06 -1.23631001e+00
      -1.20246994e+00 -3.38440016e-02 -2.43878007e+00 0. 0.
      1.69373006e-02 1.21938002e+00 1.69524997e-02 1.21938002e+00
      2.21693001e+01 1.55473003e+01 1.35488005e+01 9.56886005e+00
      6.14776993e+00 3.57352996e+00 5.08118011e-02 3.65816998e+00
      -6.06310987e+00 2.52347994e+00 -1.32947998e+01 8.72208023e+00
      -1.80876007e+01 1.48867998e+01 -1.33625002e+01 3.84450006e+00
      -6.16473007e+00 -4.79286003e+00 -1.01639003e-01 -7.31636000e+00
      7.24861002e+00 -4.97921991e+00 1.46836004e+01 3.45496988e+00
      2.21522999e+01 1.43278999e+01 6.19857979e+00 7.23169994e+00
      1.30409002e+00 6.08004999e+00 -4.79289007e+00 6.16472006e+00
      -1.93239994e+01 1.36843004e+01 -4.96225023e+00 -6.02922010e+00
      1.11777997e+00 -7.33330011e+00 6.01227999e+00 -6.18164015e+00</_>
    <_>
      2.01465011e+00 1.95869005e+00 3.60009003e+00 -9.04640019e-01
      4.01912022e+00 -3.02947998e-01 5.55461979e+00 2.83051014e-01
      5.84181976e+00 -1.47816002e+00 5.98012018e+00 -2.15336990e+00
      4.77116013e+00 -2.87537003e+00 1.08272004e+00 -8.09326023e-02
      5.98038018e-01 4.84252989e-01 1.14932001e+00 1.14974999e+00
      -6.92840993e-01 -2.20154002e-01 9.32434022e-01 9.06494021e-01
      2.59323001e+00 1.06377006e+00 1.99059999e+00 -9.14840996e-01
      1.45456004e+00 -4.96719003e-01 -2.63641000e-01 -1.22793996e+00
      -8.15369010e-01 -7.60353029e-01 1.47074997e+00 -5.13378024e-01
      9.46265996e-01 1.89162004e+00 1.59931004e+00 2.78564000e+00
      1.19926000e+00 7.02814007e+00 -1.40231001e+00 1.00372000e+01
      4.47234988e-01 1.07665005e+01 -6.61315992e-02 8.12981987e+00
      -1.63171005e+00 3.07747006e+00 4.30602998e-01 -9.09278989e-01
      5.05523980e-01 -1.41940999e+00 1.00316000e+00 9.42852020e+00
      1.31070995e+00 9.11217022e+00 1.60211003e+00 6.48054981e+00
      1.90967000e+00 4.99823999e+00 2.55116010e+00 3.90535998e+00
      3.58252001e+00 2.51136994e+00 1.11649001e+00 2.31621003e+00
      9.17159975e-01 4.48671007e+00 -4.31061000e-01 5.54029989e+00 0. 0.
      8.36197019e-01 -1.25984001e+00 1.73575997e+00 -3.52890015e-01
      5.15685976e-01 5.13281012e+00 7.64503002e-01 1.81207001e+00
      -1.35520995e-01 2.03822994e+00 -4.99985009e-01 4.14537001e+00
      -8.62075984e-01 -5.79062998e-01 1.21957004e+00 -2.02065992e+00 0.
      0. 1.41383004e+00 1.27741003e+00 4.81476009e-01 2.70285010e+00
      1.48315001e-02 -1.17748003e+01 -1.49571002e+00 -1.17535000e+01
      1.67191994e+00 -1.18802004e+01 1.55399001e+00 -1.20921001e+01
      2.50446010e+00 -1.10707998e+01 5.89870977e+00 -1.02646999e+01
      8.24176025e+00 -1.18085003e+01 5.05744982e+00 -1.20436001e+00
      1.80790997e+00 3.60381007e+00 8.57940972e-01 4.94739008e+00
      -1.73920006e-01 2.81062007e+00 -2.37033010e+00 -2.72550988e+00
      -4.74846983e+00 -1.18389997e+01 1.85001004e+00 -1.55612001e+01
      1.73250997e+00 -1.45742998e+01 2.68250990e+00 -1.47518997e+01
      9.49190044e+00 -1.16618996e+01 1.54938996e+00 7.40091991e+00
      5.82764030e-01 7.56235981e+00 -4.49097008e-01 6.59153986e+00</_>
    <_>
      3.81924003e-01 -7.95954990e+00 5.64997017e-01 -6.13480997e+00
      7.36168027e-01 -6.35586977e+00 1.93020999e+00 -5.56585979e+00
      2.06562996e+00 -5.79861021e+00 2.09980011e+00 -4.01462984e+00
      -1.02998996e+00 -3.26495004e+00 -3.19629002e+00 -2.50302005e+00
      -5.44571018e+00 -1.71683002e+00 -7.73647022e+00 -2.93454003e+00
      -9.03363037e+00 -4.07476997e+00 -8.30255032e+00 -4.13856983e+00
      -6.53005981e+00 -5.12415981e+00 -4.72726011e+00 -4.98596001e+00
      -3.91741991e+00 -4.80632019e+00 -2.08471990e+00 -5.66147995e+00
      -1.26885998e+00 -6.49882984e+00 -9.73819971e-01 5.37594986e+00
      8.63960028e-01 9.48666954e+00 6.79015994e-01 1.45011997e+01
      5.23429990e-01 1.63813992e+01 3.47205997e+00 1.51569996e+01
      -1.85204995e+00 1.59372997e+01 -2.04299998e+00 1.68542995e+01
      -2.21039009e+00 1.26090002e+01 -2.72765994e-01 6.28180981e+00
      1.79571998e+00 3.01073003e+00 4.25644010e-01 3.65504003e+00
      5.37994027e-01 3.54139996e+00 -3.72512996e-01 2.41671991e+00
      -2.60239005e-01 3.31406999e+00 1.08388996e+00 2.55385995e-01
      9.30786016e-04 1.18349004e+00 -1.09387004e+00 6.58264011e-02
      -1.19536996e+00 9.91821056e-04 -2.30787992e+00 9.59015012e-01 0.
      0. -1.42867997e-01 2.02288008e+00 -2.56446987e-01 8.99524987e-01
      7.35702991e-01 -2.95684993e-01 -1.55883998e-01 -1.23610997e+00
      -4.22974005e-02 -1.12755001e-01 -7.17957020e-01 -7.33260989e-01
      1.38245001e-01 2.30076003e+00 3.05939000e-02 2.19432998e+00 0. 0.
      -8.97719979e-01 5.28029986e-02 -7.95975029e-01 -8.57711971e-01
      2.58769011e+00 -6.02169991e+00 3.45245004e-01 -3.01721001e+00
      -1.86155999e+00 -3.08168006e+00 -1.93950999e+00 -3.19424009e+00
      -3.06981993e+00 -3.25310993e+00 -6.21675014e+00 -4.42422009e+00
      -8.32911968e+00 -6.66590977e+00 -7.13326979e+00 -7.61254978e+00
      -3.93320990e+00 -5.48418999e+00 -2.81469989e+00 -5.40150023e+00
      -2.71898007e+00 -5.30690002e+00 -5.65338016e-01 -6.19958019e+00
      1.51691997e+00 -5.04607010e+00 -1.78468001e+00 -5.20527983e+00
      -1.88039005e+00 -5.29987001e+00 -2.99891996e+00 -5.38259983e+00
      -7.25240993e+00 -5.60169983e+00 -2.99901009e+00 -6.41742992e+00
      -1.87453997e+00 -5.31775999e+00 -1.78473997e+00 -6.24009991e+00</_>
    <_>
      3.14602995e+00 -4.50061989e+00 3.31009007e+00 -3.75108004e+00
      2.51169991e+00 -3.97432995e+00 1.70817006e+00 -4.19252014e+00
      -8.84208977e-02 -2.51636004e+00 -1.00381005e+00 -2.76572990e+00
      -2.96325994e+00 -1.58417001e-01 -4.02643013e+00 1.51144004e+00
      -4.21881008e+00 2.24892998e+00 -2.54231000e+00 2.07961988e+00
      -1.83889997e+00 1.01894999e+00 -1.14084005e+00 4.10461007e-03
      -4.33043987e-01 -9.19005990e-01 -6.57684028e-01 -2.72312999e+00
      -1.82467997e+00 -3.54425001e+00 -2.01901007e+00 -4.34488010e+00
      -3.13811988e-01 -3.21532011e+00 1.89805996e+00 -1.60432005e+00
      1.70448005e+00 3.09596986e-01 6.05086982e-01 -7.70905018e-01
      -4.53330994e-01 1.28440997e-02 4.33822989e-01 -1.12831998e+00
      1.15832996e+00 -2.32128000e+00 1.91764998e+00 -2.40381002e+00
      7.87627995e-01 -1.56950998e+00 6.56036019e-01 -7.70627975e-01
      -3.05449992e-01 -9.64206994e-01 4.45389003e-01 -4.30534005e-01
      -3.84155005e-01 -5.41908026e-01 -2.61337012e-01 -1.60567999e+00
      -1.38519004e-01 -1.71705997e+00 -8.51669014e-01 -1.69028997e+00
      -9.02145028e-01 -1.77205002e+00 -1.92028999e+00 -9.06615973e-01
      -2.01161003e+00 -9.68216002e-01 -2.10297990e+00 -1.02982998e+00 0.
      0. -1.11771002e-01 -5.15213013e-02 7.59621024e-01 -1.43630996e-01
      1.67191994e+00 -2.66068012e-01 8.15932989e-01 7.53036022e-01
      -4.01381999e-02 -1.12259001e-01 2.78854012e-01 -1.66390002e+00
      1.09897006e+00 -7.42797971e-01 1.00781000e+00 -8.34945977e-01 0.
      0. 1.01608001e-01 5.14678992e-02 1.92794994e-01 1.43638998e-01
      -2.42448997e+00 -2.80899000e+00 -5.44434023e+00 -1.90839005e+00
      -5.55618000e+00 -9.97359991e-01 -6.56409979e+00 -1.31835997e-01
      -7.61292982e+00 -1.14075994e+00 -8.64109993e+00 6.46453977e-01
      -1.06265001e+01 4.83047009e-01 -9.52169991e+00 1.50753999e+00
      -9.41512966e+00 1.58448994e+00 -8.37656021e+00 1.65118003e+00
      -6.39581013e+00 7.75588989e-01 -5.36238003e+00 -1.04724002e+00
      -2.46507001e+00 -1.88736999e+00 -5.49984980e+00 -1.05305004e+00
      -6.52315998e+00 -1.72379002e-01 -8.51918030e+00 -2.44140998e-01
      -1.15483999e+01 5.13778985e-01 -8.52939034e+00 1.66055000e+00
      -7.48061991e+00 7.74901986e-01 -7.41984987e+00 8.46526980e-01</_>
    <_>
      2.38512993e+00 -4.38160992e+00 3.77376008e+00 -4.88216019e+00
      6.57418013e+00 -5.29932022e+00 9.29113007e+00 -4.30459976e+00
      6.20615005e+00 -3.53573990e+00 1.61611998e+00 -4.18007994e+00
      -3.10126990e-01 -3.20367002e+00 -7.33916998e-01 -4.92535019e+00
      -2.74774003e+00 -5.05996990e+00 -1.89391994e+00 -4.97533989e+00
      -2.56698990e+00 -1.90366006e+00 -4.46704006e+00 -1.66478002e+00
      -4.84295988e+00 -1.23585999e+00 -7.93242979e+00 -8.43276978e-01
      -6.55431986e+00 -1.64795005e+00 -6.64950991e+00 -1.09820998e+00
      -5.36818981e+00 9.50995982e-01 3.65348005e+00 -8.17889023e+00
      3.32465005e+00 -6.44833994e+00 2.80418992e+00 -3.46073008e+00
      3.80864000e+00 -3.43606997e+00 1.93419003e+00 -2.21270990e+00
      -1.53653002e+00 -3.75652003e+00 -1.98430002e+00 -3.62474990e+00
      -2.50533009e+00 -2.20159006e+00 -4.34440994e+00 -2.39410996e+00
      -4.63296986e+00 -2.70967007e+00 2.29218006e-01 -4.12806988e+00
      2.37854004e-01 -4.51540995e+00 3.29970986e-01 -6.31452990e+00
      3.38593006e-01 -6.70188999e+00 6.26962996e+00 -2.42675996e+00
      1.79342997e+00 -2.69762993e+00 -1.27096999e+00 -2.88504004e+00
      -5.78352022e+00 -3.01355004e+00 -7.54108000e+00 -1.67297006e-01 0.
      0. -1.34253994e-01 -2.70366001e+00 1.07201004e+00 -4.05649996e+00
      6.98585987e-01 -1.37171996e+00 -5.91208994e-01 1.39294004e+00
      -1.73608994e+00 1.30786002e+00 -2.01973009e+00 -1.49335003e+00
      -7.99561024e-01 -2.72375989e+00 3.49426001e-01 -2.68683004e+00 0.
      0. 1.59932995e+00 1.44553995e+00 -9.87533987e-01 1.34719002e+00
      1.03402996e+01 1.27625999e+01 4.47168016e+00 8.32303047e+00
      -1.52696002e+00 8.12901020e+00 -4.65285015e+00 9.37950039e+00
      -7.72542000e+00 9.28841972e+00 -1.52614002e+01 1.03464003e+01
      -2.15746002e+01 1.42853003e+01 -1.51661997e+01 7.22568989e+00
      -1.04939003e+01 5.90030003e+00 -7.33774996e+00 4.57958984e+00
      -1.41954005e+00 4.86377001e+00 4.47008991e+00 8.05611038e+00
      8.86542988e+00 1.12791996e+01 -3.73535007e-02 6.58194017e+00
      -4.51973009e+00 6.38326979e+00 -9.08965015e+00 7.64458990e+00
      -2.28306999e+01 1.27961998e+01 -9.05228043e+00 6.20458984e+00
      -6.04117012e+00 7.73363018e+00 -2.91320992e+00 6.45905018e+00</_>
    <_>
      -5.35664022e-01 -5.63552976e-01 -8.85773003e-02 -7.50702024e-01
      1.54869998e+00 -1.96294999e+00 1.85485005e+00 -1.09171999e+00
      2.13506007e+00 -2.50564992e-01 1.32913995e+00 -7.67302990e-01
      1.47768998e+00 -1.26322997e+00 2.52208996e+00 -5.72692990e-01
      3.42852998e+00 7.96509013e-02 3.33001995e+00 -1.55904996e+00
      4.24291992e+00 -2.95327997e+00 2.80733991e+00 -4.46036005e+00
      2.37909007e+00 -5.66695976e+00 8.45947027e-01 -6.83764982e+00
      -9.34020996e-01 -5.75403023e+00 -3.40270996e-01 -5.49477005e+00
      -9.45128977e-01 -4.17165995e+00 1.07053006e+00 -1.59561002e+00
      6.36435986e-01 -6.09196007e-01 1.41930997e+00 3.49494994e-01
      -1.02889001e+00 8.81384015e-01 -2.15332007e+00 4.09144998e-01
      -1.90292001e-01 1.54839000e-02 -1.51682997e+00 -3.86969000e-01
      -1.78385997e+00 3.91997993e-01 -1.55997002e+00 -2.16805005e+00
      -2.52921009e+00 -2.60652995e+00 -6.98180974e-01 -1.08652997e+00
      -5.68145990e-01 -1.15516998e-01 -1.99799001e-01 -1.36004996e+00
      7.52106011e-02 -1.50338995e+00 1.66135001e+00 -5.29174991e-02
      5.29067993e-01 -3.39980990e-01 4.80881006e-01 -5.29266000e-01
      -6.98547006e-01 -7.85933971e-01 -7.68020988e-01 -9.14810002e-01 0.
      0. 6.85791016e-01 2.18913007e+00 6.83364987e-01 8.55773985e-01
      8.18611026e-01 -5.12656987e-01 8.46679986e-01 7.77518988e-01
      1.08741999e+00 -1.04690999e-01 3.37448001e-01 -4.30442989e-01
      1.26563001e+00 -5.12901008e-01 8.14818963e-02 -8.59992981e-01 0.
      0. 2.62008995e-01 -9.42611992e-01 3.23334008e-01 -7.01705992e-01
      6.83513021e+00 1.64180005e+00 4.58125019e+00 -1.03480995e+00
      2.29445004e+00 -2.58892989e+00 -1.68883994e-01 -7.92557001e-01
      9.60617006e-01 -1.91210997e+00 -2.35259995e-01 -1.19710004e+00
      -1.46001995e+00 5.84366024e-01 -1.27380002e+00 8.11843991e-01
      -7.68280029e-02 1.13730001e+00 9.79233027e-01 2.52117991e+00
      1.13358998e+00 1.58764994e+00 3.52109003e+00 9.61273015e-01
      6.77003002e+00 1.53014004e+00 2.36879992e+00 -1.54876995e+00
      1.21935999e+00 -1.83143997e+00 1.03496003e+00 -8.71918023e-01
      -3.40912014e-01 8.19809020e-01 8.31023991e-01 1.33487999e+00
      8.92075002e-01 1.50256002e+00 2.15205002e+00 6.79625988e-01</_>
    <_>
      6.22181988e+00 -5.49908018e+00 4.99884987e+00 -7.03540993e+00
      5.99554014e+00 -7.31180000e+00 3.44628000e+00 -7.66804981e+00
      2.87593007e+00 -5.59772015e+00 4.33751011e+00 -6.81775999e+00
      3.13948989e+00 -5.57883978e+00 1.81938004e+00 -6.56744003e+00
      1.47244000e+00 -7.96651983e+00 2.28434992e+00 -7.74288988e+00
      -2.39867996e-02 -1.04249001e+01 -9.18533027e-01 -1.28484001e+01
      -1.81110001e+00 -1.27549000e+01 -3.44674993e+00 -1.25739002e+01
      -4.83877993e+00 -1.23257999e+01 -7.31280994e+00 -1.21138000e+01
      -8.68863010e+00 -9.54638958e+00 1.32983997e-01 -2.38841996e-01
      -3.98123002e+00 -5.68274021e+00 -3.78239012e+00 -1.01970997e+01
      -2.50726008e+00 -1.14719000e+01 -3.36913988e-02 -1.29506998e+01
      7.45728016e-01 -1.16945000e+01 -2.64647990e-01 -1.01855001e+01
      9.65880990e-01 -7.71309996e+00 -1.01608001e-01 -5.52104998e+00
      -3.24556994e+00 -2.65794992e+00 3.39662004e+00 -8.41511011e-01
      4.45960999e+00 6.17133975e-01 4.47380018e+00 -2.75947988e-01
      5.57986021e+00 1.87683001e-03 6.84067011e-01 1.43155003e+00
      2.60167003e+00 2.02744007e-01 4.43657017e+00 1.28610003e+00
      5.15211010e+00 3.10698986e-01 5.88385010e+00 1.65459001e+00 0. 0.
      5.92705011e-01 -1.91970003e+00 2.06119990e+00 -1.84774005e+00
      3.67653990e+00 1.05765998e-01 1.95169997e+00 3.26909995e+00
      4.33806986e-01 3.19359994e+00 -2.78869987e-01 -3.65067013e-02
      2.21359000e-01 -7.78941989e-01 1.79222000e+00 -7.49336004e-01 0.
      0. 1.58035004e+00 4.40985012e+00 4.90416996e-02 3.24885011e+00
      -2.61834002e+00 -3.09323001e+00 1.01665998e+00 4.65105009e+00
      2.57620001e+00 6.11206007e+00 3.16472006e+00 4.82958984e+00
      2.51796007e+00 6.11619997e+00 4.16226006e+00 7.08655977e+00
      8.36458015e+00 4.35718012e+00 5.45412016e+00 3.72668004e+00
      2.62479997e+00 3.35039997e+00 2.09353995e+00 3.25441003e+00
      1.55517995e+00 3.25730991e+00 -1.17110002e+00 2.25089002e+00
      4.38988000e-01 -5.81223011e-01 1.43785000e+00 5.47594023e+00
      3.16048002e+00 5.46672010e+00 2.51729012e+00 6.70394993e+00
      6.35520983e+00 5.48012018e+00 2.73276997e+00 7.99926996e-01
      3.37596011e+00 -4.37301993e-01 2.74158001e+00 7.92281985e-01</_>
    <_>
      -3.63491988e+00 -4.08729982e+00 -3.45125008e+00 -3.68026996e+00
      -3.24769998e+00 -2.24888992e+00 -2.98883009e+00 -1.90552998e+00
      -1.65117002e+00 -5.13840020e-01 -2.37105995e-01 7.83950984e-01
      1.27850997e+00 8.98727000e-01 3.87459993e+00 9.53460991e-01
      3.28751993e+00 7.90832996e-01 5.86459017e+00 -5.05768001e-01
      5.14082003e+00 -1.95176995e+00 4.34027004e+00 -4.51520014e+00
      4.41875982e+00 -4.96631002e+00 4.36400986e+00 -5.41665983e+00
      3.21933007e+00 -6.93996000e+00 9.30939019e-01 -6.35261011e+00
      7.53937006e-01 -6.77754021e+00 -2.49480009e+00 -3.36364007e+00
      -1.29778004e+00 -2.54688001e+00 2.25600991e-02 -2.70029998e+00
      1.40774000e+00 -2.80876994e+00 1.74951005e+00 -2.87391996e+00
      -2.05890012e+00 -3.20701003e+00 -7.24289000e-01 -2.34841990e+00
      6.74911022e-01 -3.57071996e+00 -8.41064006e-02 -2.60763001e+00
      2.58819997e-01 -3.61753988e+00 3.05176014e-04 -1.68368995e+00
      1.23931997e-01 -1.44256997e+00 1.30653000e+00 -1.17750001e+00
      3.88442993e-01 -2.00136995e+00 1.15196002e+00 5.78734994e-01
      2.43096995e+00 -5.15091002e-01 1.56695998e+00 -5.67580998e-01
      2.79421997e+00 -6.64184988e-01 1.90283000e+00 -1.85640001e+00 0.
      0. 4.30908017e-02 5.16183996e+00 -8.06137025e-01 5.04330015e+00
      -4.31807995e-01 -1.32535994e+00 4.28077996e-01 -1.04111001e-01
      1.25899005e+00 1.08571994e+00 5.24672985e-01 -1.77188003e+00
      5.75760007e-01 3.34186006e+00 7.61475027e-01 4.30616999e+00 0. 0.
      -1.09833002e-01 -8.94676030e-01 7.39455998e-01 -7.76108027e-01
      2.05939007e+00 3.34630990e+00 3.33285999e+00 3.15468001e+00
      3.56930995e+00 8.62595022e-01 3.75194001e+00 8.39554012e-01
      3.93181992e+00 -3.34259003e-01 3.13460994e+00 6.75734997e-01
      2.40944004e+00 6.34810984e-01 3.26430011e+00 -1.48834005e-01
      5.14056015e+00 1.10072005e+00 4.94955015e+00 2.24991012e+00
      4.73503017e+00 3.38000011e+00 3.44462991e+00 2.32331991e+00
      3.22258997e+00 3.33805990e+00 3.64722991e+00 1.03529000e+00
      4.90833998e+00 -6.53228983e-02 5.08100986e+00 -1.43250003e-01
      1.23949003e+00 6.60965025e-01 5.06313992e+00 -1.49978995e-01
      5.94336987e+00 1.01756001e+00 3.62931991e+00 1.02849996e+00</_>
    <_>
      -1.36784995e+00 3.93848991e+00 2.49760002e-01 3.77173990e-01
      6.14449024e-01 -2.05770993e+00 -2.92468995e-01 -3.35060000e+00
      -1.14541996e+00 -5.87294006e+00 -2.13100004e+00 -6.04231024e+00
      -8.58916998e-01 -3.75722003e+00 -7.78526008e-01 -2.76566005e+00
      -8.39905024e-01 -6.21978998e-01 -9.18914974e-01 3.20221007e-01
      1.84906006e-01 1.46697998e-01 1.29430997e+00 -1.20028996e+00
      1.14391994e+00 -2.55227995e+00 9.10645008e-01 -2.64303994e+00
      -5.96619010e-01 -1.56615996e+00 -1.02129996e+00 1.97671998e+00
      -2.46123999e-01 5.61394978e+00 3.72886993e-02 -2.16321993e+00
      -7.05794990e-02 -2.30274010e+00 -1.35969996e+00 -1.34368002e+00
      -1.29837000e+00 -2.74502993e+00 -3.71256995e+00 -1.84749997e+00
      2.24702001e+00 -5.85071981e-01 1.12282002e+00 -3.25344992e+00
      2.33548999e+00 -3.39095998e+00 2.32793999e+00 -2.38169003e+00
      1.25750995e+00 -2.56760001e+00 -1.69845998e-01 3.03137994e+00
      -1.15857995e+00 1.78264999e+00 -9.35851991e-01 5.94871998e-01
      -1.91602004e+00 -6.53060973e-01 -1.49268997e+00 -6.50088978e+00
      -4.36583996e-01 -2.91514993e+00 -4.19250011e-01 -3.00851011e+00
      -4.27581996e-01 -3.10424995e+00 -4.36751992e-01 -3.19139004e+00 0.
      0. -1.27117002e+00 -1.61457002e-01 -1.32712996e+00 9.03732002e-01
      -7.98645020e-02 2.06431007e+00 -1.14722002e+00 -2.88024992e-01
      -1.15056002e+00 -1.58867002e-01 -5.85326999e-02 1.55698001e+00
      -9.07592997e-02 2.33269006e-01 1.12491000e+00 1.56487003e-01 0. 0.
      1.24549997e+00 1.59058005e-01 1.23356998e+00 2.87445009e-01
      -6.08653021e+00 -2.82845001e+01 -3.98873997e+00 -2.34624004e+01
      -5.99807978e-01 -1.98064003e+01 6.37526989e-01 -1.98379993e+01
      1.76420999e+00 -1.86800003e+01 6.87275982e+00 -2.33925991e+01
      9.59961033e+00 -2.82059994e+01 7.74079990e+00 -1.37040997e+01
      1.33525002e+00 -5.44353008e+00 7.11975023e-02 -4.19724989e+00
      -2.23248005e+00 -6.62151003e+00 -5.46640015e+00 -1.50972004e+01
      -7.41351986e+00 -2.59909992e+01 -2.12723002e-01 -2.58216000e+01
      1.00755000e+00 -2.58547993e+01 3.46594000e+00 -2.70417004e+01
      1.07798004e+01 -2.80874996e+01 2.22002006e+00 -1.77883995e+00
      -2.38434002e-01 -5.91903985e-01 -3.81370997e+00 -1.87413001e+00</_>
    <_>
      4.09119010e-01 8.23902988e+00 -1.34732997e+00 6.48109007e+00
      -2.70767003e-01 7.70757008e+00 8.18050027e-01 7.49106979e+00
      4.75071013e-01 5.84451008e+00 1.49419999e+00 5.78817987e+00
      1.09142005e+00 4.36499023e+00 -7.57598996e-01 3.00469995e+00
      3.83026004e-01 4.30756003e-01 6.69097975e-02 2.22451997e+00
      -2.64586993e-02 1.19124997e+00 -5.68847992e-02 1.60414004e+00
      -1.49145997e+00 4.88082981e+00 -2.76134992e+00 6.67095995e+00
      -2.52600002e+00 7.03257990e+00 -2.28948998e+00 7.36916018e+00
      -5.98357975e-01 9.18702030e+00 5.27508020e-01 -1.45826995e+00
      -9.52133000e-01 -2.65194011e+00 -1.08776999e+00 -5.31874990e+00
      1.95755005e-01 -9.45547009e+00 1.38296998e+00 -1.07847996e+01
      2.44571996e+00 -1.03999004e+01 2.29518008e+00 -8.66172981e+00
      2.03412008e+00 -4.07910013e+00 1.73737001e+00 -9.91707027e-01
      -1.48666000e+00 1.86862004e+00 -6.85882986e-01 -6.82358027e-01
      -9.02984977e-01 5.63416004e-01 -1.12114000e+00 1.83421004e+00
      1.15555003e-01 3.13036990e+00 5.56792989e-02 8.57516003e+00
      -2.22625993e-02 5.73511982e+00 -1.60570002e+00 5.77957010e+00
      -3.15336990e+00 7.31920004e+00 -4.72642994e+00 1.03137999e+01 0.
      0. -1.41251004e+00 -5.64659023e+00 1.30209994e+00 -3.98528004e+00
      -4.81689006e-01 1.84933996e+00 1.08102000e+00 1.70360994e+00
      -1.65883994e+00 1.49717999e+00 -1.09707999e+00 2.43774009e+00
      4.23386008e-01 -4.56302977e+00 1.72141004e+00 -4.39388990e+00 0.
      0. 1.46201003e+00 2.76185989e+00 1.63925007e-01 2.59275007e+00
      -1.67593002e+00 1.37845001e+01 -2.31383994e-01 1.11484003e+01
      -2.63565004e-01 8.41073990e+00 -1.87204003e+00 8.45411968e+00
      -1.95371997e+00 8.60120964e+00 -2.17098999e+00 1.15916996e+01
      -5.35928011e+00 1.59471998e+01 -3.79474998e+00 1.14083996e+01
      -3.68668008e+00 9.78137016e+00 -2.10086012e+00 8.23085022e+00
      -1.99545002e+00 9.56583977e+00 -1.86632001e+00 1.23830004e+01
      -1.72929001e+00 1.38575001e+01 -3.59436005e-01 8.30618000e+00
      -1.94395006e+00 8.37570000e+00 -3.49251008e+00 8.48435974e+00
      -3.82682991e+00 1.44695997e+01 -3.50448990e+00 8.47130013e+00
      -1.95592999e+00 8.36260986e+00 -3.34136993e-01 6.85129023e+00</_>
    <_>
      2.28187990e+00 -2.12325994e-02 2.29172993e+00 -1.22275996e+00
      2.26573992e+00 -1.41752994e+00 2.22231007e+00 -6.22101009e-01
      1.18868995e+00 -8.35129023e-01 -9.06898022e-01 -1.03374004e+00
      -4.07048988e+00 -2.21558005e-01 -5.27948999e+00 6.71294987e-01
      -5.49538994e+00 6.49291992e-01 -5.68993998e+00 -3.21503013e-01
      -6.84784985e+00 -1.25563002e+00 -7.01137018e+00 -1.14610004e+00
      -6.15173006e+00 2.02636998e-02 -4.26284981e+00 2.23786998e+00
      -3.29387999e+00 2.45370007e+00 -2.32457995e+00 2.66367006e+00
      -1.35555995e+00 2.87943006e+00 2.14517999e+00 1.42361000e-01
      1.06150997e+00 2.43622005e-01 1.90259004e+00 3.12655985e-01
      1.74462998e+00 3.05209994e-01 2.56070995e+00 1.27603996e+00
      1.33126998e+00 1.23556995e+00 1.92993000e-01 1.25216997e+00
      1.05373001e+00 2.84307003e-01 8.86107981e-01 1.22627997e+00
      -2.09197998e-01 2.07164001e+00 1.50098002e+00 -8.67268026e-01
      1.50035000e+00 -9.78713989e-01 1.52917004e+00 -2.08554006e+00
      5.15717030e-01 -1.23627996e+00 1.67068005e+00 -1.35764003e+00
      1.59522998e+00 -1.37296999e+00 5.17898977e-01 -1.40621996e+00
      4.17739987e-01 -4.02435005e-01 3.40851009e-01 -3.88473988e-01 0.
      0. -8.49533007e-02 6.04819991e-02 8.05122018e-01 8.49303976e-02
      7.08427012e-01 2.17438005e-02 8.03429008e-01 -3.11278994e-03
      -1.04094997e-01 9.62562978e-01 2.86942005e-01 7.69043015e-03
      1.18015003e+00 9.09003988e-02 6.16912991e-02 1.05246997e+00 0. 0.
      5.97229004e-02 9.70291018e-01 1.88324004e-01 -1.45645002e-02
      -2.65136987e-01 2.26250005e+00 -1.33429003e+00 3.18114996e-01
      -2.40807009e+00 -6.59012020e-01 -2.51271009e+00 3.15230995e-01
      -1.58263004e+00 -6.31775022e-01 -1.72781003e+00 1.32562006e+00
      -4.94078016e+00 6.16371012e+00 -2.77120996e+00 3.18197989e+00
      -2.65265989e+00 2.16147995e+00 -3.53646994e+00 1.13469005e+00
      -3.44872999e+00 1.13882005e+00 -2.34826994e+00 1.17908001e+00
      -3.12225014e-01 2.26613998e+00 -2.42802000e+00 2.60589987e-01
      -1.52010000e+00 2.80014008e-01 -1.62614000e+00 1.28351998e+00
      -4.87044001e+00 5.17022991e+00 -2.60439992e+00 2.69867003e-01
      -2.53935003e+00 1.25212002e+00 -2.45745993e+00 1.25600004e+00</_>
    <_>
      3.15240002e+00 -3.56779003e+00 1.97202003e+00 -5.32326984e+00
      1.82148004e+00 -7.10365009e+00 -5.95493019e-01 -7.68416977e+00
      2.44717002e-01 -6.09122992e+00 -1.22018003e+00 -3.20991993e+00
      -3.79708004e+00 3.09667993e+00 -6.51002979e+00 7.34820986e+00
      -4.89345980e+00 9.44867039e+00 -2.26704001e+00 7.27112007e+00
      -7.31926012e+00 4.41244984e+00 -6.79204988e+00 4.19144005e-01
      -6.07219982e+00 -1.26236999e+00 -6.27135992e+00 4.49692011e-01
      -5.24420023e+00 2.16990995e+00 -4.15240002e+00 3.88674998e+00
      -3.07506990e+00 3.39071989e+00 2.73640990e+00 -1.86605000e+00
      2.33449006e+00 -2.65987992e+00 7.77664006e-01 -1.40335000e+00
      -7.50984013e-01 1.91389000e+00 -3.38649011e+00 4.05588007e+00
      7.95515013e+00 2.66395998e+00 4.12565994e+00 7.14972019e-01
      2.50671005e+00 -3.25421989e-01 9.25247014e-01 -1.47592998e+00
      -4.80347008e-01 -6.38316989e-01 5.13046026e-01 1.12690997e+00
      5.21041989e-01 1.83314002e+00 -5.87082028e-01 2.56873989e+00
      -6.59393013e-01 1.04386997e+00 -1.11211002e+00 -4.46716011e-01
      -3.51211995e-01 -1.61845005e+00 -6.99768007e-01 -1.66518998e+00
      -1.02110004e+00 -1.60512996e+00 -2.43582010e+00 -1.49530005e+00 0.
      0. -3.14590007e-01 1.89456999e-01 -1.74759996e+00 1.33135998e+00
      -9.39254999e-01 2.17609000e+00 -1.79159999e+00 -6.51779026e-02
      -1.42487001e+00 -8.43200982e-02 9.97879028e-01 1.02232003e+00
      1.78120005e+00 1.24825001e+00 -8.05069029e-01 1.86195001e-01 0. 0.
      2.74811000e-01 -1.22482002e-01 5.91750979e-01 -1.23501003e+00
      -6.34113979e+00 -2.40926003e+00 -6.79401016e+00 -4.31807995e+00
      -3.95406008e+00 -7.51620007e+00 -3.10910010e+00 -8.73563004e+00
      -2.27008009e+00 -8.68566990e+00 -1.46653998e+00 -5.58378983e+00
      -2.94243002e+00 -5.81683016e+00 -1.97968006e-01 1.59666002e+00
      -1.96712995e+00 3.75834990e+00 -3.86905003e+00 4.89589024e+00
      -3.60907006e+00 4.90395021e+00 -6.57010984e+00 3.98404002e+00
      -3.14983010e+00 -2.53890991e-01 -4.92307997e+00 -2.31736994e+00
      -4.07480001e+00 -3.47204995e+00 -2.11520004e+00 -2.39894009e+00
      -4.92174006e+00 -3.53601003e+00 -2.03046989e+00 8.84658992e-01
      -3.99005008e+00 -1.88476995e-01 -3.69286990e+00 2.05292010e+00</_>
    <_>
      -9.03244019e-02 1.14145994e+00 -9.03377980e-02 1.14148998e+00
      9.03358012e-02 -1.14147997e+00 1.80664003e-01 -2.28292990e+00
      -9.60807979e-01 -2.37328005e+00 9.03320014e-02 -1.14145005e+00 0.
      -1.52588000e-05 1.05113006e+00 1.23184001e+00 9.60815012e-01
      2.37322998e+00 3.33407998e+00 1.41248000e+00 2.37328005e+00
      -9.60815012e-01 2.46360993e+00 -2.10228992e+00 2.46361995e+00
      -2.10226011e+00 1.23180997e+00 -1.05110002e+00 1.23180997e+00
      -1.05115998e+00 1.14142001e+00 9.03244019e-02 0. -7.62938998e-06
      1.23179996e+00 -1.05113995e+00 1.80664003e-01 -2.28292990e+00
      -9.60807979e-01 -2.37328005e+00 3.61342996e-01 -4.56586981e+00
      -8.70437980e-01 -3.51473999e+00 1.50277996e+00 -4.47553015e+00
      5.41992009e-01 -6.84881020e+00 4.51660007e-01 -5.70733976e+00
      1.41248000e+00 -3.33408999e+00 3.05176000e-05 0. -1.80664003e-01
      2.28293991e+00 -1.80664003e-01 2.28294992e+00 -1.80664003e-01
      2.28292990e+00 -9.03320014e-02 1.14146996e+00 -2.71010995e-01
      3.42441010e+00 -2.70996004e-01 3.42441010e+00 -2.70996004e-01
      3.42439008e+00 -1.80648997e-01 2.28291011e+00 -2.70996004e-01
      3.42441010e+00 0. 0. 0. 3.81469999e-06 -1.52588000e-05
      1.52588000e-05 -1.80648997e-01 2.28293991e+00 -1.80656001e-01
      2.28293991e+00 -1.32213998e+00 2.19262004e+00 -9.03320014e-02
      1.14145994e+00 -1.52588000e-05 1.14441000e-05 1.23178005e+00
      -1.05114996e+00 0. 0. 9.60799992e-01 2.37328005e+00
      -1.80664003e-01 2.28292990e+00 -9.93651986e-01 1.25562000e+01
      -3.87603998e+00 5.43632984e+00 -2.46358991e+00 2.10227990e+00
      9.60799992e-01 2.37328005e+00 3.24376011e+00 2.55392003e+00
      5.16533995e+00 7.30048990e+00 4.80401993e+00 1.18663998e+01
      4.44268990e+00 1.64321995e+01 3.21091008e+00 1.74834003e+01
      -2.13501006e-01 1.72124004e+01 -2.40613008e+00 1.58901997e+01
      -4.59872007e+00 1.45681000e+01 2.38159001e-01 1.15050001e+01
      -3.09592009e+00 1.00925999e+01 3.28460991e-01 1.03635998e+01
      2.61141992e+00 1.05441999e+01 3.66257000e+00 1.17760000e+01
      2.61142993e+00 1.05443001e+01 1.46993995e+00 1.04539003e+01
      -3.18624997e+00 1.12340002e+01</_>
    <_>
      -2.66669011e+00 1.64856994e+00 -1.92866004e+00 3.01700997e+00
      -2.12930012e+00 3.24182010e+00 -3.28839993e+00 2.31204009e+00
      -2.21988010e+00 5.10375977e-01 -2.16505003e+00 -1.34522998e+00
      -6.44684017e-01 -6.26593018e+00 -1.26506996e+00 -1.03133001e+01
      -9.85687017e-01 -1.10900002e+01 -8.21259022e-01 -9.76064968e+00
      -2.85190010e+00 -7.61880016e+00 -3.89144993e+00 -4.38184023e+00
      -1.72446001e+00 -9.74578977e-01 4.26696986e-01 2.32077003e+00
      5.19379020e-01 4.28308010e+00 1.86719000e+00 4.21644020e+00
      4.08376980e+00 6.35500002e+00 -1.80587995e+00 7.04644012e+00
      3.20782995e+00 1.38757000e+01 3.14046001e+00 1.71954002e+01
      3.47126007e+00 1.52593002e+01 6.25926018e+00 9.27737999e+00
      -2.12607002e+00 9.84095955e+00 -1.48886001e+00 1.75428009e+01
      -3.63698006e+00 1.96923008e+01 -4.24973011e+00 1.56027002e+01
      7.15789974e-01 7.70890999e+00 5.39641976e-01 4.24934000e-01
      -5.93886971e-01 -6.45325005e-01 -7.57430971e-01 -5.44463992e-01
      -9.20989990e-01 -4.43549991e-01 -1.08039999e+00 -1.48162997e+00
      -1.05359995e+00 -1.38962996e+00 1.58400998e-01 -2.26501012e+00
      2.60589987e-01 -2.18834996e+00 4.63364005e-01 -3.18221998e+00 0.
      0. 9.42528009e-01 3.31485009e+00 -8.77349973e-01 1.11056995e+00
      -1.53921998e+00 -3.06780005e+00 -5.12427986e-01 -4.12214994e+00
      1.39973998e+00 -2.98267007e+00 1.07729995e+00 -3.48418999e+00
      -3.80248994e-01 2.88521004e+00 -2.41792011e+00 2.83354998e+00 0.
      0. -1.86844003e+00 -4.52877998e+00 2.64068991e-01 -5.55595016e+00
      -1.10064995e+00 -6.63203001e+00 5.45502007e-02 -5.44166994e+00
      1.17396998e+00 -4.21426010e+00 2.28535008e+00 -4.01917982e+00
      3.45235991e+00 -3.85016990e+00 2.63979006e+00 -5.88556004e+00
      3.84853005e+00 -6.62363005e+00 2.09699988e+00 -1.33088999e+01
      3.29111004e+00 -1.65177002e+01 2.13501000e+00 -1.67064991e+01
      9.08966005e-01 -1.58336000e+01 -5.10596991e-01 -1.28618002e+01
      -2.10286999e+00 -6.66939020e+00 3.00384998e-01 -7.42947006e+00
      1.33614004e+00 -6.18102980e+00 3.55707002e+00 -5.89996004e+00
      4.86164999e+00 -6.60609007e+00 3.03763008e+00 -1.23753004e+01
      1.88727999e+00 -1.25558004e+01 -3.11295003e-01 -1.28401003e+01</_>
    <_>
      4.05171990e-01 -6.78043985e+00 1.55921996e+00 -6.17404985e+00
      4.50607002e-01 -4.33829021e+00 4.10084009e-01 -3.67940998e+00
      1.47107005e+00 -1.89819002e+00 1.32509995e+00 1.11957002e+00
      2.15512991e+00 1.86511004e+00 -5.41145027e-01 1.74008000e+00
      -2.15514994e+00 1.74785995e+00 -6.05241013e+00 1.97960997e+00
      -7.49651003e+00 4.57897997e+00 -5.50705004e+00 5.99436998e+00
      -4.66092014e+00 5.21983004e+00 -2.52145004e+00 5.56752014e+00
      -1.46228004e+00 4.85500002e+00 -1.58270001e+00 3.04263997e+00
      -1.62417996e+00 2.35870004e+00 1.50969994e+00 2.72747010e-01
      1.22326005e+00 -6.62383974e-01 9.41016972e-01 5.44381976e-01
      1.74793005e+00 4.44552988e-01 3.35815012e-01 1.52247000e+00
      -1.44878995e+00 1.59257996e+00 -1.78954005e+00 5.82085013e-01
      -2.08846998e+00 6.39201999e-01 -3.62079000e+00 -1.61401999e+00
      -1.54926002e+00 -1.88408005e+00 -1.12627006e+00 1.24573004e+00
      -1.13574004e+00 9.42771971e-01 -1.19237006e+00 -4.91279989e-01
      -1.20314002e+00 -8.10119987e-01 3.01620007e-01 -2.53295992e-02
      -9.92218018e-01 -1.24968998e-02 -1.17082000e+00 -4.54406999e-02
      -1.32693005e+00 -3.35693010e-04 -1.51560998e+00 -1.10358000e+00 0.
      0. -1.97036996e-01 1.28468007e-01 6.77390993e-01 7.09495991e-02
      5.20690978e-01 1.05932999e+00 -3.92181009e-01 1.04014003e+00
      -1.85310006e-01 -1.12328000e-01 -4.98778999e-01 -3.80019993e-02
      -7.07672000e-01 1.39434993e-01 1.85303003e-01 1.12328000e-01 0. 0.
      1.96486995e-01 1.00662005e+00 -6.79244995e-01 1.04826999e+00
      3.19903994e+00 3.82367992e+00 1.63163996e+00 5.82229972e-01
      1.25884995e-01 -1.54532003e+00 -1.20105004e+00 -1.54567003e+00
      -1.38884997e+00 -1.49787998e+00 -3.88178992e+00 -3.45077991e-01
      -6.18490982e+00 5.34796000e+00 -2.41038990e+00 7.26879978e+00
      -2.11464000e+00 8.31499958e+00 -1.90962005e+00 8.28180027e+00
      -1.70055997e+00 8.29619026e+00 7.92366028e-01 7.14339018e+00
      5.31618977e+00 2.57454991e+00 2.68478006e-01 1.67203999e+00
      -1.10429001e+00 5.56457996e-01 -1.30930996e+00 5.89661002e-01
      -7.25331020e+00 4.23878002e+00 -2.23467994e+00 5.17573977e+00
      -8.98544014e-01 5.09537983e+00 4.25704986e-01 5.06400013e+00</_>
    <_>
      -1.63987994e+00 2.04701996e+00 -1.84582996e+00 -8.07266012e-02
      -8.65092993e-01 1.90720007e-01 1.34405994e+00 -1.89441001e+00
      2.40742993e+00 -2.76648998e+00 3.57910991e+00 -2.43249989e+00
      3.63892007e+00 -2.09685993e+00 2.58756995e+00 -1.79294002e+00
      2.78230000e+00 -3.25866997e-01 1.86731994e+00 1.04253995e+00
      2.19924998e+00 -2.88543999e-02 2.52356005e+00 5.31921014e-02
      1.64670002e+00 9.62829962e-03 1.92544997e+00 -1.26633003e-01
      2.20534992e+00 -1.50845003e+00 1.27371001e+00 -1.72871995e+00
      3.00568014e-01 4.15969998e-01 -1.22847998e+00 -1.60591996e+00
      -1.01111996e+00 7.72849977e-01 4.15367007e-01 -1.46258998e+00
      5.61439991e-01 -6.34078979e-02 1.84335005e+00 1.97688997e-01
      1.00850999e+00 5.39557993e-01 5.38025014e-02 6.19756997e-01
      2.59719998e-01 7.66211987e-01 3.89221013e-01 9.69568014e-01
      3.92455995e-01 1.21208000e+00 5.98297000e-01 2.94689012e+00
      4.44489002e-01 1.91541004e+00 2.82150000e-01 8.92090023e-01
      1.30663002e+00 1.07248998e+00 2.21901989e+00 1.01653004e+00
      2.27523994e+00 1.12638998e+00 1.14449000e+00 1.22793996e+00
      6.49719015e-02 1.28042996e+00 1.72379002e-01 1.34122002e+00 0. 0.
      -1.02868998e+00 2.01034993e-02 2.89124012e-01 1.64924994e-01
      3.09769005e-01 3.74352008e-01 1.36360005e-01 2.65293002e+00
      3.04793995e-02 1.32983994e+00 8.09143007e-01 8.78104985e-01
      -1.69281006e-01 -2.96173006e-01 -1.22499001e+00 -1.84661999e-01 0.
      0. 1.02063000e+00 2.34554005e+00 9.06234980e-01 1.03065002e+00
      8.84488964e+00 8.32054043e+00 5.48323011e+00 4.79710007e+00
      3.26645994e+00 2.48484993e+00 2.14393997e+00 2.59495997e+00
      2.27634001e+00 1.46915996e+00 -4.18700986e-02 3.97005010e+00
      -4.72650003e+00 6.49628019e+00 1.03365004e+00 5.29684019e+00
      3.25020003e+00 6.43033981e+00 3.14351010e+00 6.33614016e+00
      4.23213005e+00 7.43753004e+00 6.55057001e+00 6.11535978e+00
      8.90225029e+00 7.18481016e+00 4.37650013e+00 3.76221991e+00
      3.27099991e+00 3.85594010e+00 9.79201972e-01 5.10339022e+00
      -4.76724005e+00 5.25816011e+00 3.37805009e+00 3.93343997e+00
      3.27099991e+00 3.85594010e+00 4.36820984e+00 4.94914007e+00</_>
    <_>
      -2.81655002e+00 -4.24042009e-02 -3.02525997e+00 7.26852000e-01
      -2.08273005e+00 1.59502995e+00 -2.13405991e+00 2.43645000e+00
      -3.10425997e+00 3.30098009e+00 -3.94146991e+00 5.11418009e+00
      -3.66676998e+00 7.95778990e+00 -3.22254992e+00 1.06113997e+01
      -3.53277993e+00 1.30082998e+01 -3.69921994e+00 1.09679003e+01
      -1.87766004e+00 9.65769958e+00 -1.15678000e+00 9.17488003e+00
      -5.51620007e-01 7.57110977e+00 -6.81914985e-02 6.87643003e+00
      1.32828999e+00 5.06747007e+00 1.65430999e+00 4.30056000e+00
      1.84977996e+00 2.46763992e+00 3.81745005e+00 -6.85682011e+00
      3.21670008e+00 -5.12865019e+00 6.82190001e-01 -5.11709023e+00
      -1.85611999e+00 -6.99077988e+00 -3.43042994e+00 -8.72784042e+00
      7.97859001e+00 -8.44484997e+00 4.48003006e+00 -8.56993961e+00
      2.01373005e+00 -7.47978020e+00 -5.60364008e-01 -7.21351004e+00
      -1.29541004e+00 -8.78880024e+00 -1.07536995e+00 1.29057002e+00
      -1.21629000e+00 2.81383991e+00 -3.35090995e-01 5.37261009e+00
      -4.83437002e-01 6.92337990e+00 7.75153995e-01 1.34050999e+01
      1.10263002e+00 1.04905996e+01 -6.13411009e-01 9.62769032e+00
      -2.29744005e+00 1.16588001e+01 -2.96684003e+00 1.47529001e+01 0.
      0. -6.06006980e-01 -2.15967989e+00 8.49044979e-01 -3.09737992e+00
      1.52549997e-01 3.13796997e-01 -3.09516996e-01 3.39818001e+00
      -7.35786021e-01 4.34260988e+00 1.91829002e+00 7.63359010e-01
      3.52614999e-01 -2.44438004e+00 7.50533998e-01 -1.27632999e+00 0.
      0. 1.68371999e+00 4.21139002e+00 2.37000003e-01 3.00167990e+00
      -2.08484006e+00 1.45010996e+01 -5.12314022e-01 1.73637009e+01
      2.09878993e+00 1.31690998e+01 2.93617010e-01 1.33126001e+01
      -2.44736004e+00 1.43282003e+01 -1.01717997e+00 1.67115002e+01
      -1.70332003e+00 1.71812000e+01 -2.32337999e+00 2.57591000e+01
      -3.88476992e+00 2.78754997e+01 -2.17182994e+00 2.78544998e+01
      -4.36500996e-01 2.77509995e+01 -2.90289998e+00 2.53885002e+01
      -8.29726994e-01 1.66599998e+01 9.02390003e-01 1.56794004e+01
      -8.46207023e-01 1.47192001e+01 -3.60212994e+00 1.57897997e+01
      -2.99352002e+00 1.81636009e+01 -2.65917993e+00 2.11327000e+01
      -9.46219981e-01 2.11116009e+01 8.09844971e-01 2.20443993e+01</_>
    <_>
      8.10886025e-01 -6.68530989e+00 5.74313998e-01 -8.17401981e+00
      3.23116004e-01 -1.07054005e+01 -9.90795016e-01 -1.22166004e+01
      -4.49768019e+00 -1.16035004e+01 -7.05319977e+00 -1.19064999e+01
      -7.60792017e+00 -8.92831039e+00 -7.10238981e+00 -7.94787979e+00
      -4.49336004e+00 -6.68706989e+00 -2.83768010e+00 -6.34298992e+00
      2.73438003e-02 -6.89184999e+00 -1.62719995e-01 -8.47953987e+00
      8.53577018e-01 -1.00332003e+01 -1.12029999e-01 -1.05909004e+01
      -2.06856990e+00 -1.01260004e+01 -2.97568011e+00 -8.61170006e+00
      -2.80541992e+00 -7.07496977e+00 4.37682986e-01 7.37488985e+00
      3.43431997e+00 1.20127001e+01 3.08692002e+00 1.54435997e+01
      1.65910006e+00 1.55816002e+01 2.33238006e+00 1.35489998e+01
      -3.29172993e+00 1.26019001e+01 -2.57642007e+00 1.39632998e+01
      -2.90573001e+00 1.09835997e+01 -1.13390994e+00 5.83332014e+00
      6.66565001e-01 1.52497995e+00 -1.01912999e+00 3.73852992e+00
      -2.19318008e+00 2.33995008e+00 -2.31111002e+00 9.55917001e-01
      -2.45035005e+00 6.13358021e-01 8.80348027e-01 -7.31781006e-01
      -3.33923012e-01 -7.44567990e-01 -1.59189999e+00 3.12072992e-01
      -1.72581005e+00 -6.05286002e-01 -1.85973001e+00 -4.73297000e-01 0.
      0. -1.29616007e-01 1.26774001e+00 6.99416995e-01 3.54553014e-01
      -6.27968013e-01 2.87575006e-01 -4.35654014e-01 1.28852993e-01
      8.32778990e-01 2.84882002e-02 6.21262014e-01 -3.02177012e-01
      -1.60713005e+00 -8.37287977e-02 -7.99315989e-01 4.45404015e-02 0.
      0. 1.48498997e-01 -1.38671994e-01 -6.59317017e-01 -2.66930014e-01
      -1.25145003e-01 -6.84671021e+00 -2.41179991e+00 -3.45344996e+00
      -1.55721998e+00 -3.22292995e+00 -7.17711985e-01 -2.13048005e+00
      -8.51653993e-01 -3.04786992e+00 -1.19842999e-01 -1.95908999e+00
      -1.41820002e+00 -6.23691988e+00 -1.33880997e+00 -1.53610006e-01
      -1.21017003e+00 4.91073990e+00 -2.10432005e+00 5.83606005e+00
      -2.96385002e+00 5.74917984e+00 -2.63182998e+00 4.56176996e-01
      1.84772003e+00 -4.63737011e+00 -1.71580994e+00 7.82211006e-01
      -8.27086985e-01 -1.93588004e-01 -1.00360000e+00 -7.74841011e-02
      -2.37987995e+00 -4.17826986e+00 -2.09543991e+00 3.05484009e+00
      -8.77502024e-01 2.95992994e+00 -2.77182007e+00 1.81702006e+00</_>
    <_>
      1.65655994e+00 4.10662985e+00 1.89649999e+00 3.84175992e+00
      2.10071993e+00 4.79174995e+00 4.76332998e+00 3.28351998e+00
      4.91433001e+00 4.19633007e+00 4.96705008e+00 3.84630990e+00
      4.92110014e+00 2.25143003e+00 3.56966996e+00 -5.78796029e-01
      8.84658992e-01 -9.17023003e-01 -6.77612007e-01 1.02141999e-01
      -2.28678989e+00 2.43497992e+00 -3.87966990e+00 2.39094996e+00
      -5.42995977e+00 1.23123002e+00 -5.73077011e+00 1.39568996e+00
      -3.55624008e+00 1.60562003e+00 -2.61547995e+00 3.04908991e+00
      -1.62109005e+00 8.28788996e-01 2.54859996e+00 3.98265988e-01
      1.07266998e+00 -8.67859006e-01 2.10229993e+00 -4.69025993e+00
      3.16936994e+00 -7.35021019e+00 3.02197003e+00 -6.38091993e+00
      -2.13952994e+00 -6.71065998e+00 -2.37999010e+00 -6.83299017e+00
      -1.61392003e-01 -4.53295994e+00 -1.55179000e+00 -2.32136989e+00
      -3.49090993e-01 -1.32237995e+00 -6.62322998e-01 -3.04919004e+00
      7.00438976e-01 -1.95664001e+00 8.47976983e-01 -2.11548996e+00
      2.22003007e+00 -2.26538992e+00 2.57055998e+00 2.18642995e-01
      2.51011992e+00 1.00295998e-01 2.44983006e+00 -1.25179994e+00
      2.31609988e+00 -8.41216967e-02 9.66826975e-01 -1.49826005e-01 0.
      0. -1.79085001e-01 -1.27362001e+00 -3.02298993e-01 -1.40240002e+00
      8.81699026e-01 -1.60144997e+00 2.25658011e+00 -1.47217000e+00
      -8.68377984e-02 -1.45996004e-01 -8.45031977e-01 -8.83056998e-01
      1.82357997e-01 -2.14812994e+00 1.28340006e+00 -1.03430998e+00 0.
      0. 1.24268003e-01 1.30843997e+00 2.47543007e-01 1.43721998e+00
      1.53017998e+01 8.88234043e+00 1.14336004e+01 5.02414989e+00
      7.58269978e+00 3.65173006e+00 6.27985001e+00 3.52399993e+00
      2.49138999e+00 2.17996001e+00 -8.01239014e-02 3.23098993e+00
      -3.92047000e+00 7.92800999e+00 -1.12123001e+00 -1.83464003e+00
      2.79351997e+00 -6.63811016e+00 5.35725021e+00 -6.51866007e+00
      7.91178989e+00 -6.39039993e+00 1.28771000e+01 -1.23838997e+00
      1.52761002e+01 6.36942005e+00 7.65660000e+00 4.79694986e+00
      5.10203981e+00 4.66872978e+00 2.54709005e+00 4.55844021e+00
      -2.60692000e+00 5.52561998e+00 2.65564990e+00 -4.05675983e+00
      6.45303011e+00 -3.93718004e+00 7.77434015e+00 -3.82702994e+00</_>
    <_>
      8.57544038e-03 4.41605997e+00 1.71183002e+00 3.47873998e+00
      3.42022991e+00 3.49502993e+00 4.18530989e+00 3.52658010e+00
      4.95566988e+00 4.53212023e+00 6.70026016e+00 4.63994980e+00
      9.42409992e+00 4.77823019e+00 1.02868004e+01 4.94180012e+00
      1.12056999e+01 3.23873997e+00 9.33014965e+00 6.07391000e-01
      6.57236004e+00 -1.09114003e+00 4.79355001e+00 2.50854008e-02
      1.15335000e+00 -7.76260018e-01 3.78632009e-01 -7.00667977e-01
      -1.32428002e+00 2.92724997e-01 -1.14063001e+00 1.25551999e+00
      -9.56969976e-01 1.26982999e+00 1.67502999e-01 7.99705982e-01
      1.19807994e+00 -5.23643009e-02 2.70698994e-01 8.01239014e-02
      1.20974004e+00 2.17840001e-01 2.11304998e+00 -5.92754006e-01
      1.16570997e+00 -2.26535010e+00 2.15575004e+00 -2.41135001e-01
      2.16160989e+00 -9.83790979e-02 1.19854999e+00 9.82813001e-01
      1.11242998e+00 1.41868994e-01 1.91981995e+00 4.53667015e-01
      2.76121998e+00 4.49119985e-01 3.59749007e+00 -1.44220996e+00
      4.43379021e+00 -1.44672000e+00 4.29532003e+00 1.23633003e+00
      4.28037977e+00 -5.78994989e-01 6.15733004e+00 -5.12650013e-01
      5.21947002e+00 -1.37955999e+00 5.23004007e+00 -1.30823004e+00 0.
      0. 9.84627008e-01 8.13675001e-02 9.80010986e-01 -7.70210028e-01
      9.19265985e-01 2.50000000e-01 9.03496027e-01 1.68479994e-01
      9.13177013e-01 1.01495004e+00 9.26635981e-01 6.78306997e-01
      9.78057981e-01 -1.12715995e+00 9.83718991e-01 -1.03030002e+00 0.
      0. 9.12338018e-01 -8.14284980e-02 1.85010004e+00 -1.83387995e-01
      1.63341007e+01 3.87906003e+00 1.26171999e+01 1.16077006e+00
      1.26483002e+01 -1.57272005e+00 1.07414999e+01 -1.50121999e+00
      9.80867004e+00 -3.32177997e+00 9.76840019e+00 -2.27614999e+00
      6.87249994e+00 -2.81920999e-01 1.24965000e+01 2.42605996e+00
      1.34189997e+01 4.21608019e+00 1.43620005e+01 4.14470005e+00
      1.53151999e+01 5.95493984e+00 1.62835999e+01 3.97112989e+00
      1.82261009e+01 3.90962005e+00 1.25667000e+01 1.25792003e+00
      1.06701002e+01 3.85971010e-01 1.06756001e+01 -4.91149992e-01
      7.82588005e+00 6.20604992e-01 1.25622997e+01 4.42016989e-01
      1.35052996e+01 2.26253009e+00 1.54019003e+01 3.12935996e+00</_>
    <_>
      -1.65087998e+00 -1.46372998e+00 -1.91144001e+00 -2.42391992e+00
      -2.11217999e+00 -2.16652989e+00 -1.09366000e+00 -1.93489003e+00
      -2.47686005e+00 -2.81434989e+00 -3.74727988e+00 -3.65666008e+00
      -2.47702003e+00 -4.55551004e+00 -4.82133007e+00 -6.58258009e+00
      -4.54207993e+00 -5.06851006e+00 -5.34879017e+00 -1.16257000e+00
      -4.89036989e+00 3.82498002e+00 -3.25949001e+00 6.27121019e+00
      -2.90465999e+00 7.41454983e+00 -2.64841008e+00 6.02780008e+00
      -1.18463004e+00 5.76815987e+00 1.93634003e-01 3.07161999e+00
      1.58780003e+00 1.56926000e+00 -1.27980006e+00 -3.38279992e-01
      2.10033000e-01 8.00517976e-01 4.97711003e-01 3.35542011e+00
      6.86156988e-01 3.54246998e+00 -3.67507994e-01 5.02809000e+00
      -1.31500006e-01 2.88277006e+00 -1.17337000e+00 6.12416983e-01
      1.46168995e+00 7.39027023e-01 2.81992006e+00 9.36878026e-01
      2.81542993e+00 1.19315004e+00 -1.80656004e+00 -6.36718988e-01
      -1.94420004e+00 -4.84863013e-01 -8.97307992e-01 -1.58609998e+00
      -2.28800988e+00 -2.61879992e+00 -3.91160989e+00 -5.09100008e+00
      -2.58370996e+00 -3.77354002e+00 -3.72795010e+00 -4.82690001e+00
      -2.34253001e+00 -3.55496001e+00 -2.21021008e+00 -3.46758008e+00 0.
      0. -9.86815989e-01 2.49803996e+00 -2.08888006e+00 1.43408000e+00
      -2.15426993e+00 -3.19720006e+00 -1.07730997e+00 -2.12350011e+00
      -9.99451033e-04 -2.27879000e+00 7.32513011e-01 -2.80985999e+00
      1.04179001e+00 8.79135013e-01 -8.75854027e-03 2.25367999e+00 0. 0.
      -1.98532000e-01 -1.26195002e+00 8.76937985e-01 -1.43428004e+00
      5.30964994e+00 -5.19404984e+00 1.89366996e+00 -5.06037998e+00
      -3.51410002e-01 -6.11085987e+00 -3.83980989e+00 -3.45578003e+00
      -6.12000990e+00 -3.30964994e+00 -8.35093975e+00 -5.96877992e-01
      -7.00928020e+00 2.04282999e+00 -8.67171955e+00 -5.21559000e+00
      -6.58866978e+00 -1.02426004e+01 -3.10770011e+00 -1.16597004e+01
      -8.04062009e-01 -1.18497000e+01 2.78236008e+00 -9.73001003e+00
      5.37303019e+00 -5.12040997e+00 -4.38995004e-01 -4.76654005e+00
      -3.93613005e+00 -3.33155990e+00 -6.23251009e+00 -3.16753006e+00
      -8.33382988e+00 7.93502986e-01 -5.25026989e+00 -1.16654997e+01
      -4.17313004e+00 -1.18037004e+01 -6.75994992e-01 -1.32386999e+01</_>
    <_>
      -3.86416006e+00 -1.28252006e+00 -3.63320994e+00 9.18807983e-01
      -4.65561008e+00 1.64742994e+00 -4.27686977e+00 2.42162991e+00
      -5.22593021e+00 4.44846010e+00 -3.16271996e+00 3.66132998e+00
      -3.82321000e+00 5.39696980e+00 -1.52286005e+00 4.25919008e+00
      7.73315012e-01 4.25799990e+00 1.61562002e+00 3.86191010e+00
      3.70758009e+00 1.90647995e+00 4.20718002e+00 1.16240001e+00
      4.50180006e+00 3.25408995e-01 3.25310993e+00 -1.98295999e+00
      3.11804008e+00 -1.50223994e+00 2.94887996e+00 -1.01288998e+00
      2.80275989e+00 -3.30841994e+00 -3.42569995e+00 -4.57240009e+00
      -4.37968016e+00 -7.87376022e+00 -3.74697995e+00 -9.53337955e+00
      -3.07365990e+00 -9.59617043e+00 -2.43375993e+00 -9.50533009e+00
      2.56702995e+00 -8.21864033e+00 1.74368000e+00 -8.70172977e+00
      2.29328990e+00 -7.66998005e+00 1.53661001e+00 -6.45401001e+00
      -6.33728027e-01 -6.34343004e+00 -6.67801023e-01 -3.55935001e+00
      8.46207023e-01 -3.07091999e+00 -4.53552008e-01 -1.28118002e+00
      -3.31984997e-01 -8.04221988e-01 -8.20801020e-01 -1.59751999e+00
      -4.62769002e-01 -1.61620998e+00 -1.04736000e-01 -1.63492000e+00
      1.98333994e-01 -4.31519002e-01 1.91411996e+00 -5.74997008e-01 0.
      0. -1.11818004e+00 2.51623988e+00 -2.11924005e+00 2.33240008e+00
      -1.11809000e-01 -1.69115996e+00 -5.03220022e-01 -1.51883996e+00
      4.09462005e-01 4.07410003e-02 -1.09186006e+00 -2.31931996e+00
      -8.80568981e-01 1.54139996e+00 -5.25986016e-01 2.80425000e+00 0.
      0. -2.85766989e-01 -1.13528001e+00 -6.40320003e-01 -2.39811993e+00
      -3.62816000e+00 -3.16034007e+00 -3.16079998e+00 -7.77451992e+00
      6.82068011e-03 -7.95792007e+00 1.73195004e+00 -7.92238998e+00
      2.10078001e+00 -9.47844982e+00 2.51265001e+00 -6.69556999e+00
      2.98811007e+00 -5.10073996e+00 2.64944005e+00 -4.57907009e+00
      8.37341011e-01 -2.94896007e+00 -8.95766973e-01 -2.87361002e+00
      -1.19086003e+00 -4.18796015e+00 -4.49085999e+00 -2.94406009e+00
      -4.79077005e+00 -3.26669002e+00 -1.40140998e+00 -3.43405008e+00
      3.60565007e-01 -4.83368015e+00 2.00535989e+00 -3.53330994e+00
      2.70409012e+00 -3.63881993e+00 2.13123012e+00 -6.19927979e+00
      4.32204992e-01 -6.13263988e+00 -1.28422999e+00 -6.13410997e+00</_>
    <_>
      -1.32730997e+00 3.08822989e-01 -1.04466999e+00 2.88451999e-01
      6.02389991e-01 3.13659996e-01 8.18436027e-01 1.63225996e+00
      1.08332002e+00 1.55175996e+00 2.69264007e+00 1.47984004e+00
      4.32977009e+00 -1.66321006e-02 4.48011017e+00 -2.48260006e-01
      3.14387989e+00 -5.95336974e-01 3.19441009e+00 -2.26345992e+00
      3.07802010e+00 -2.51995993e+00 4.36724997e+00 -4.04889011e+00
      2.77450991e+00 -4.27960014e+00 2.58627009e+00 -5.77115011e+00
      9.37346995e-01 -5.90176010e+00 6.49627984e-01 -5.95204020e+00
      3.73504996e-01 -6.00123978e+00 -1.51145995e+00 1.51234001e-01
      -1.66297996e+00 2.01225001e-02 -1.72681999e+00 -1.73021004e-01
      -1.70731997e+00 -3.81765008e-01 1.18766999e+00 -1.81920004e+00
      -2.61550993e-01 -8.31584990e-01 1.05058002e+00 -9.78065014e-01
      1.04689002e+00 -1.18895996e+00 1.11170995e+00 -1.38178003e+00
      1.18456995e+00 -1.58386007e-01 -6.69249967e-02 -6.61327004e-01
      -1.25516999e+00 -7.13851988e-01 3.05298001e-01 -6.38283014e-01
      4.90814000e-01 -6.20934010e-01 6.98441029e-01 -1.84153998e+00
      6.70943975e-01 -5.45608997e-01 7.59963989e-01 -1.99953997e+00
      -6.28341973e-01 -2.16431999e+00 -6.54510021e-01 -2.26034999e+00 0.
      0. -1.41288996e-01 1.26187003e+00 -1.52532005e+00 1.05069005e+00
      -1.06659001e-02 -3.87032002e-01 -1.40827000e+00 1.04990995e+00
      -1.39805996e+00 1.19124997e+00 2.25067008e-02 -9.92218018e-01
      1.26988006e+00 3.05817008e-01 -7.93457031e-02 9.78545994e-02 0. 0.
      9.48792025e-02 -1.26619995e+00 7.02971965e-02 -1.12811995e+00
      1.05735004e+00 -2.98920006e-01 -3.98445010e-01 -4.93454009e-01
      -4.23492014e-01 -6.01073980e-01 -1.77814996e+00 -7.51038015e-01
      -1.72279000e+00 -2.21976995e+00 -1.73328996e+00 -9.80789006e-01
      2.40528989e+00 4.23599005e-01 -2.41318002e-01 -9.23264027e-01
      1.15541005e+00 -7.22625971e-01 -2.16582999e-01 -6.86995983e-01
      1.14967000e+00 -5.35995007e-01 1.11565006e+00 -4.22149986e-01
      1.05008996e+00 -3.46419990e-01 -3.53882015e-01 -5.94559014e-01
      -1.70855999e+00 -7.44521976e-01 -1.71149004e+00 -8.38379025e-01
      2.38936996e+00 4.68856990e-01 -2.78304994e-01 -2.15500998e+00
      -3.33633006e-01 -6.86278999e-01 1.02105999e+00 -5.36315978e-01</_>
    <_>
      -7.92940021e-01 9.45409012e+00 -7.49912024e-01 9.67354965e+00
      -6.07433021e-01 1.10476999e+01 1.57783997e+00 8.76140022e+00
      3.89301991e+00 7.62494993e+00 3.96741009e+00 6.62961006e+00
      5.15064001e+00 4.32461977e+00 5.00331020e+00 -2.41058007e-01
      2.56336999e+00 -4.69625998e+00 1.83335996e+00 -2.33913994e+00
      -1.01639003e-01 4.75158989e-02 -9.85046029e-01 1.15711999e+00
      3.80524009e-01 2.03063989e+00 4.23676014e-01 1.81299996e+00
      1.67532003e+00 2.65795994e+00 2.55957007e+00 -1.12102997e+00
      1.39221001e+00 -1.24588001e+00 -2.73318005e+00 -2.24622989e+00
      -1.38434994e+00 -1.33098996e+00 -1.20782995e+00 -1.39833999e+00
      1.39110005e+00 -4.26194996e-01 2.73310995e+00 -4.77649987e-01
      -1.60446000e+00 -1.24939002e-01 -1.52225995e+00 -1.36348999e+00
      -2.68700004e+00 -3.61168003e+00 -2.60046005e+00 -4.72606993e+00
      -1.23049998e+00 -3.53325009e+00 5.82213998e-01 -1.16852000e-01
      4.97115999e-01 -1.13343000e+00 1.48127997e+00 -3.41433001e+00
      1.48808002e+00 -3.27493000e+00 1.49352002e+00 -8.09418023e-01
      1.68280005e+00 3.69933993e-01 4.36829001e-01 -1.84964001e+00
      -6.21490002e-01 -1.78122997e+00 -1.59677005e+00 -5.63247979e-01 0.
      0. 4.88281017e-03 -1.23396003e+00 1.19956994e+00 -2.49496007e+00
      1.55959994e-01 -2.33526993e+00 1.36100993e-01 -1.14576006e+00
      -9.65484977e-01 1.27885997e+00 6.33789003e-01 -2.37294006e+00
      7.44536996e-01 -2.46095991e+00 8.67492974e-01 -2.47287989e+00 0.
      0. 2.22428989e+00 -1.46263003e-01 9.45357978e-01 -4.24422994e-02
      1.52686996e+01 1.35339003e+01 1.03137999e+01 8.04619980e+00
      4.19774008e+00 2.66679001e+00 9.11468983e-01 4.12297010e+00
      -3.71671009e+00 3.29695010e+00 -9.08314991e+00 7.25677013e+00
      -1.30143995e+01 1.46155005e+01 -8.18962002e+00 3.82751012e+00
      -1.83993995e+00 -2.46763992e+00 1.52910995e+00 -2.72737002e+00
      4.99524021e+00 -1.84756005e+00 1.22701998e+01 3.36146998e+00
      1.51393995e+01 1.12209997e+01 4.48041010e+00 6.22731018e+00
      1.00670004e+00 5.34868002e+00 -2.36234999e+00 5.60840988e+00
      -1.32525997e+01 1.23044996e+01 -1.94131005e+00 -3.73137999e+00
      1.42900002e+00 -3.98346996e+00 6.05870008e+00 -3.19675994e+00</_>
    <_>
      -5.17025995e+00 -4.34314013e+00 -5.21458006e+00 -2.50626993e+00
      -4.13259983e+00 3.74862999e-01 -2.94291997e+00 1.13973999e+00
      -1.65675998e+00 1.88399005e+00 -1.75910994e-01 2.53902006e+00
      2.58999991e+00 2.02797008e+00 4.37328005e+00 3.47775006e+00
      5.24805021e+00 2.57919002e+00 6.17962980e+00 1.41912997e+00
      5.92763996e+00 2.13165004e-02 4.53185987e+00 -2.61292005e+00
      5.00911999e+00 -3.26740003e+00 5.27438021e+00 -4.02485991e+00
      3.35003996e+00 -4.84467983e+00 2.40127993e+00 -5.64930010e+00
      2.43514991e+00 -5.41460991e+00 -1.59809005e+00 -3.73097992e+00
      -1.13294005e+00 -4.02658987e+00 -5.79429984e-01 -4.10362005e+00
      1.07158995e+00 -2.99370003e+00 1.66489005e+00 -2.82985997e+00
      -1.64320004e+00 -3.99000001e+00 1.08475995e+00 -3.02917004e+00
      2.79809999e+00 -4.10883999e+00 2.30330992e+00 -2.93994999e+00
      2.73615003e+00 -5.17993987e-01 1.10048997e+00 -2.25617003e+00
      1.10815001e+00 -1.77686000e+00 1.11585999e+00 -1.29752004e+00
      1.09885001e+00 -7.95096993e-01 1.37547004e+00 1.81913996e+00
      2.81519008e+00 -1.97968006e-01 2.09955001e+00 -1.08475000e-01
      2.46086001e+00 -1.68090999e-01 1.72696996e+00 -2.46840999e-01 0.
      0. 2.91900992e-01 4.10585022e+00 -3.48708987e-01 4.10208988e+00
      1.17020003e-01 -9.78096008e-01 7.60726988e-01 1.69510007e-01
      1.40051997e+00 1.97205007e-01 9.36630011e-01 -9.56299007e-01
      1.27883995e+00 3.07941008e+00 1.66801000e+00 4.14054012e+00 0. 0.
      7.24228024e-01 -8.73664975e-01 1.36485004e+00 -8.69919002e-01
      1.75156999e+00 3.79602003e+00 3.30787992e+00 3.63925004e+00
      3.77846003e+00 1.41557002e+00 4.08628988e+00 1.52181995e+00
      5.48854017e+00 4.31594998e-01 3.84911990e+00 1.62756002e+00
      3.34476995e+00 1.84402001e+00 4.89859009e+00 1.05235004e+00
      6.53629017e+00 1.14381003e+00 6.18297005e+00 2.20373988e+00
      4.76000977e+00 3.19742990e+00 3.28690004e+00 3.02172995e+00
      2.98951006e+00 3.84401011e+00 3.76711988e+00 1.75053000e+00
      5.16618013e+00 7.56042004e-01 5.48355007e+00 1.81473994e+00
      2.08207989e+00 1.81914997e+00 5.47801018e+00 7.42660999e-01
      6.21350002e+00 7.73575008e-01 3.74398994e+00 1.72580004e+00</_>
    <_>
      -1.82732999e+00 6.34558010e+00 -9.85496998e-01 3.87867999e+00
      -1.27820003e+00 1.44252002e+00 -1.57079995e+00 1.41097993e-01
      -1.88602996e+00 -2.22587991e+00 -3.33526993e+00 -1.12723005e+00
      -5.91870022e+00 -1.07120001e+00 -8.49409008e+00 -2.08096004e+00
      -5.38008022e+00 -4.14938021e+00 -3.30064011e+00 -3.91064000e+00
      -4.48693991e+00 -3.59582996e+00 -4.50002003e+00 -2.15429997e+00
      -6.67529011e+00 -2.95210004e+00 -6.51995993e+00 -1.54243004e+00
      -6.32644987e+00 -1.56005993e-01 -4.99063015e+00 2.34200001e+00
      -1.39312994e+00 3.69742990e+00 3.75092000e-01 -1.20631003e+00
      3.84384006e-01 -9.68684971e-01 2.55576998e-01 -1.86485004e+00
      4.95757982e-02 -2.83717990e+00 -1.95038006e-01 -2.72815990e+00
      -1.62662005e+00 -2.41166997e+00 5.29358029e-01 -1.06936002e+00
      3.92731011e-01 2.50335991e-01 2.01965004e-01 3.81971002e-01
      -1.13979995e+00 1.49523997e+00 5.79192996e-01 -5.09994984e-01
      -7.09930003e-01 -1.78158998e+00 -8.72025013e-01 -3.06086993e+00
      -1.04174995e+00 -4.33245993e+00 -1.02081001e+00 -4.63161993e+00
      -1.12006998e+00 -5.69669008e+00 -2.33868003e+00 -5.62697983e+00
      -2.39168000e+00 -4.40755987e+00 -2.44466996e+00 -3.18811011e+00 0.
      0. -1.16425002e+00 -2.06981993e+00 -2.41308999e+00 -1.93859005e+00
      -1.47757995e+00 -8.02582026e-01 -1.40186000e+00 -2.06051993e+00
      -1.27242005e+00 -1.07235003e+00 3.04367006e-01 -3.39439005e-01
      2.90298015e-01 -1.27472997e+00 1.68472007e-01 -1.15121996e+00 0.
      0. 1.17219996e+00 -1.30698994e-01 1.66885003e-01 -1.38123000e+00
      6.69684982e+00 4.98488992e-01 1.02452004e+00 -7.13745022e+00
      -1.30510998e+00 -1.14457998e+01 -1.39670002e+00 -9.14500046e+00
      -2.56902003e+00 -9.02962017e+00 -4.96824980e+00 -3.34714007e+00
      -1.07564001e+01 4.55897999e+00 -5.11477995e+00 6.59813023e+00
      -2.80806994e+00 5.31724977e+00 -2.73977995e+00 4.09769011e+00
      -2.64069009e+00 4.01268005e+00 -1.36085999e+00 1.68842995e+00
      7.76293993e+00 -1.68624997e+00 -2.78472990e-01 -9.31363964e+00
      -1.48934996e+00 -9.23633957e+00 -2.66933990e+00 -6.88979006e+00
      -1.18302002e+01 2.27382994e+00 -2.69239998e+00 -1.30031002e+00
      -2.63180995e+00 -3.64684010e+00 -1.41322005e+00 -2.59715009e+00</_>
    <_>
      1.57832995e-01 1.22169003e-01 -9.50447023e-01 9.53552008e-01
      3.61057013e-01 -6.54677987e-01 4.75841999e-01 -1.05707002e+00
      1.92983997e+00 -3.48419011e-01 -4.61349003e-02 2.73360997e-01
      -6.75926030e-01 7.36663997e-01 -3.58424997e+00 2.31154990e+00
      -5.23116016e+00 3.62160993e+00 -5.74277020e+00 -1.07634999e-01
      -3.91472006e+00 -5.25542974e-01 2.39226997e-01 1.31654000e+00
      4.28115988e+00 3.05325007e+00 4.50442982e+00 2.33926010e+00
      3.39386010e+00 -8.09737980e-01 1.12276995e+00 -3.51256996e-01
      2.38546991e+00 2.76947003e-02 -2.85321999e+00 1.03048000e+01
      -3.75964999e+00 7.61206007e+00 -8.89792979e-01 6.26504993e+00
      1.98499000e+00 5.08109999e+00 2.48775005e+00 4.01415014e+00
      3.24097015e-02 5.27607012e+00 5.53710997e-01 7.52711010e+00
      2.24624991e+00 8.62753963e+00 1.54198003e+00 9.92726040e+00
      -4.35638011e-01 1.25983000e+01 6.13007009e-01 2.28452992e+00
      6.07620001e-01 1.50494003e+00 -5.94528019e-01 1.93111002e+00
      -5.99929988e-01 1.15149999e+00 -1.15382004e+00 -1.87830997e+00
      -8.89083982e-01 -6.16927981e-01 -6.33408010e-01 -1.75805998e+00
      8.51166010e-01 -1.83913004e+00 1.07558000e+00 -3.11530995e+00 0.
      0. 3.37273002e-01 9.59990978e-01 -4.50980991e-01 2.18066001e+00
      -1.24091998e-01 9.44214016e-02 -5.10375977e-01 -2.18790007e+00
      2.68433005e-01 -2.22049999e+00 1.29855001e+00 -1.13633001e+00
      1.69678998e+00 2.14299989e+00 8.89998972e-01 2.14923000e+00 0. 0.
      -3.11737001e-01 -1.01516998e+00 4.31609988e-01 -3.42227006e+00
      2.99588990e+00 -6.78201008e+00 1.08427000e+00 -4.62977982e+00
      -9.05640006e-01 -2.36638999e+00 -6.32233024e-01 -2.32020998e+00
      -1.57657003e+00 -2.36425996e+00 -4.80692005e+00 -5.74846983e+00
      -6.83809996e+00 -1.02570000e+01 -4.91864014e+00 -1.36515999e+01
      -1.69000006e+00 -1.24252996e+01 -7.55936027e-01 -1.12203999e+01
      -1.02853000e+00 -1.12393999e+01 2.19601989e+00 -1.01489000e+01
      3.16758990e+00 -8.00220966e+00 -8.78921986e-01 -8.80187988e-01
      -5.88608027e-01 3.26034993e-01 -1.54979002e+00 -8.78051996e-01
      -5.84188986e+00 -1.02960997e+01 -1.74556005e+00 -1.39650002e+01
      -7.84331977e-01 -1.27609997e+01 -1.03839004e+00 -1.15655003e+01</_>
    <_>
      -2.70589995e+00 -6.00019979e+00 -3.53541994e+00 -3.47164011e+00
      -2.23795009e+00 -9.27588999e-01 -3.00885010e+00 1.54088998e+00
      -2.71843004e+00 5.03558016e+00 -1.26628995e+00 8.45186043e+00
      2.03330994e-01 1.17923002e+01 -3.98499012e-01 1.49733000e+01
      4.81720008e-02 1.69125004e+01 -4.74593997e-01 1.24164000e+01
      -1.67815998e-01 7.78456020e+00 1.03355002e+00 5.21061993e+00
      2.13782001e+00 3.67154002e+00 2.09789991e+00 2.13491988e+00
      2.04337001e+00 -1.48130000e+00 8.87755990e-01 -3.02811003e+00
      6.85669005e-01 -3.48403001e+00 -2.54567003e+00 -1.06053996e+00
      -2.37064004e+00 -2.41971993e+00 1.38092004e-02 -1.49225998e+00
      3.66737008e-01 -1.58044004e+00 1.80586004e+00 -2.67133999e+00
      -8.59435976e-01 -5.05597019e+00 1.48020995e+00 -3.16792011e+00
      7.02744007e-01 -2.35308003e+00 2.08915997e+00 -2.46281004e+00
      1.34768999e+00 -1.37423003e+00 1.99890006e-02 -1.62452996e+00
      -8.77731025e-01 -1.37339997e+00 -7.09762990e-01 -2.13296008e+00
      -5.48705995e-01 -1.84640002e+00 -7.97240973e-01 6.39496028e-01
      3.95431995e-01 1.69275999e+00 -4.45953012e-01 5.86104989e-01
      7.16781974e-01 1.53332996e+00 -1.90933004e-01 3.53882015e-01 0. 0.
      1.49597004e-01 -1.26269996e+00 -6.73888981e-01 -3.59328985e-01
      -1.42990005e+00 -1.35034001e+00 -5.44762015e-01 -2.22989011e+00
      2.71797001e-01 -2.08715010e+00 1.51013005e+00 -6.69036984e-01
      5.53939998e-01 8.86344984e-02 7.96112001e-01 -1.86768007e-02 0. 0.
      -1.05636999e-01 -8.76949012e-01 7.04635978e-01 -7.48470008e-01
      3.11766005e+00 8.83777046e+00 2.71697998e-01 4.34486008e+00
      5.59525013e-01 2.06313992e+00 7.63641000e-01 2.02382994e+00
      9.10369992e-01 2.91664004e+00 2.17459011e+00 6.02421999e+00
      -1.79007995e+00 9.06229019e+00 1.12289000e+00 1.25677004e+01
      -1.91131994e-01 1.59108000e+01 -3.77929986e-01 1.60275993e+01
      4.81979012e-01 1.50910997e+01 2.43316993e-01 1.19825001e+01
      4.27615976e+00 8.82903957e+00 5.65398991e-01 5.37711000e+00
      -2.81296015e-01 5.28179979e+00 9.16199028e-01 6.23058987e+00
      -2.96343994e+00 1.01377001e+01 8.01726997e-01 1.25735998e+01
      -3.68286014e-01 1.05866003e+01 4.50866997e-01 1.17201004e+01</_>
    <_>
      -1.36159003e+00 -2.27441001e+00 -2.23731995e-01 -3.11716008e+00
      9.21878994e-01 -3.96720004e+00 -1.24572003e+00 -4.86253023e+00
      -1.18414998e+00 -4.63490009e+00 4.48684990e-02 -5.50522995e+00
      2.44936991e+00 -8.59582996e+00 2.67088008e+00 -1.06386995e+01
      2.93298006e+00 -1.16861000e+01 2.07584000e+00 -1.06399002e+01
      2.29049993e+00 -1.07771997e+01 2.40830994e+00 -6.54050016e+00
      4.70354986e+00 -4.52684021e+00 3.63333011e+00 -2.57491994e+00
      2.54813004e+00 -1.73073995e+00 2.57764006e+00 -8.78737986e-01
      3.70651007e+00 -1.11908996e+00 -3.27136993e-01 1.08760004e+01
      3.03460002e+00 1.41089001e+01 3.17047000e+00 1.63047009e+01
      3.32732010e+00 1.63542004e+01 5.72756004e+00 1.31429996e+01
      -2.82616997e+00 1.30148001e+01 -2.70398998e+00 1.62647991e+01
      -1.44524002e+00 1.73386993e+01 -1.22767997e+00 1.40604000e+01
      2.25539994e+00 9.81657028e+00 5.20294011e-01 1.08387005e+00
      5.16158998e-01 1.23441005e+00 5.11870980e-01 1.39248002e+00
      5.22507012e-01 4.51187015e-01 4.06296015e-01 -1.63859999e+00
      4.73419011e-01 -1.61416996e+00 5.40664971e-01 -4.89928991e-01
      -4.75311011e-01 -5.25192022e-01 -3.91907007e-01 -5.45517027e-01 0.
      0. 6.22482002e-02 2.13348007e+00 -8.86551023e-01 -8.44765007e-02
      3.53363007e-01 -2.18237996e+00 2.54622996e-01 -3.25475001e+00
      1.21837997e+00 -2.13617992e+00 8.27895999e-01 -3.28428006e+00
      8.90456975e-01 -5.85364997e-02 -1.22551000e+00 2.12090993e+00 0.
      0. -1.14607000e+00 -3.27040005e+00 -1.51947007e-01 -4.36563015e+00
      3.59360009e-01 -6.81493998e+00 -1.81426001e+00 -3.62760997e+00
      -6.46041989e-01 -3.41583014e-01 -5.56518972e-01 -3.08975011e-01
      -1.56476998e+00 -3.51592988e-01 -2.93350011e-01 -3.60115004e+00
      3.17543006e+00 -7.87546015e+00 9.50332999e-01 -1.32845001e+01
      -2.48733997e-01 -1.54414997e+01 7.37426996e-01 -1.43148003e+01
      1.73934996e+00 -1.43175001e+01 1.62065005e+00 -1.32812996e+01
      -1.77908003e+00 -7.95052004e+00 -5.88042974e-01 -4.67132998e+00
      5.93810976e-01 -3.53927994e+00 -3.99857014e-01 -4.66617012e+00
      3.11523008e+00 -7.87714005e+00 -2.97637999e-01 -1.22714996e+01
      6.95846975e-01 -1.11371002e+01 6.13586009e-01 -1.22616997e+01</_>
    <_>
      1.44256994e-01 1.34598002e-01 1.52969003e+00 1.64520001e+00
      2.82209992e+00 1.98466003e+00 4.06637001e+00 1.19237995e+00
      4.05839014e+00 1.59096003e+00 3.80967999e+00 2.06445003e+00
      3.34418011e+00 1.41714001e+00 3.84882998e+00 -1.50356996e+00
      3.01786995e+00 -4.12570000e+00 1.02506995e+00 -4.16564989e+00
      2.82166004e-01 -1.65288997e+00 -4.79461998e-01 -1.38320994e+00
      -3.39373994e+00 2.96721995e-01 -3.84423995e+00 -2.49862999e-01
      -5.27627993e+00 5.20676017e-01 -3.19421005e+00 2.32479000e+00
      -1.16901004e+00 1.82055998e+00 7.54372001e-01 1.70406997e+00
      2.61125994e+00 1.99837995e+00 3.16813993e+00 3.13938999e+00
      1.36245000e+00 1.80850995e+00 2.02115011e+00 2.56180000e+00
      -1.20058000e+00 1.20438004e+00 -3.01920009e+00 1.23787999e+00
      -2.43031001e+00 1.04717004e+00 -2.94463992e+00 6.91009998e-01
      -1.94729996e+00 1.31218004e+00 -6.59865975e-01 -3.80566001e-01
      6.80252016e-01 3.03023994e-01 8.02474976e-01 -1.62239000e-01
      -2.67441005e-01 -1.76958001e+00 3.71719003e-01 -2.09908009e+00
      1.33621007e-01 -2.24450994e+00 -1.25334001e+00 -1.17194998e+00
      -1.51671004e+00 -1.15662003e-02 -2.94632006e+00 1.35650998e-02 0.
      0. -1.62381005e+00 -2.18110991e+00 -8.53958011e-01 -2.32428002e+00
      1.78543001e-01 7.92931020e-01 5.34950018e-01 8.03658009e-01
      -2.34900996e-01 9.46861029e-01 -1.30704999e+00 3.47458005e-01
      -1.82146001e+00 -3.00669003e+00 -1.04477000e+00 -3.17571998e+00 0.
      0. -8.46099973e-01 1.26266005e-02 -1.64856005e+00 1.74880996e-01
      6.12648010e+00 2.65918994e+00 1.96335006e+00 -1.84682000e+00
      -2.04988003e+00 -2.87332010e+00 -3.46461010e+00 -3.01006007e+00
      -4.97858000e+00 -2.97942996e+00 -8.77213955e+00 4.17542011e-01
      -1.00681000e+01 7.19223022e+00 -8.58080959e+00 2.31908989e+00
      -4.67121983e+00 -2.04650998e-01 -3.24676991e+00 -2.52454996e+00
