<?xml version="1.0"?>
<opencv_storage>
<opencv_ml_svm>
  <format>3</format>
  <svmType>C_SVC</svmType>
  <kernel>
    <type>LINEAR</type></kernel>
  <C>8.3966598510742188e+01</C>
  <term_criteria><iterations>1000</iterations></term_criteria>
  <var_count>136</var_count>
  <class_count>2</class_count>
  <class_labels type_id="opencv-matrix">
    <rows>2</rows>
    <cols>1</cols>
    <dt>i</dt>
    <data>
      -1082130432 1065353216</data></class_labels>
  <sv_total>1</sv_total>
  <support_vectors>
    <_>
      2.88409591e-02 -2.90655065e-02 -3.85760218e-02 2.56458670e-02
      -7.23641366e-02 -5.05138822e-02 6.91836476e-02 -8.07955768e-03
      -1.77594852e-02 -2.53514536e-02 5.64355627e-02 -5.69960615e-03
      -5.67548117e-03 8.12353194e-03 2.80841882e-03 2.03913227e-02
      -5.15413517e-03 1.73407595e-03 3.20492424e-02 -1.62692391e-03
      5.71408262e-03 2.02474184e-02 6.25556521e-03 -5.05035557e-02
      3.46317291e-02 1.75255667e-02 -3.68101075e-02 4.19865269e-03
      3.10214180e-02 7.32429605e-03 -1.02765951e-02 1.61588844e-02
      2.95630209e-02 5.71727753e-02 -1.91673972e-02 -1.88981574e-02
      -2.61993483e-02 2.02650707e-02 2.71730404e-02 1.29725842e-03
      1.79147087e-02 -1.79365166e-02 -4.63469811e-02 5.34230322e-02
      4.70084995e-02 3.33337076e-02 -6.19026413e-03 -1.31929964e-02
      -1.30928801e-02 -1.15096131e-02 2.64630001e-02 3.65286949e-04
      -3.63067281e-03 -8.01659003e-03 1.39818881e-02 6.21637851e-02
      1.21025434e-02 3.32851373e-02 3.00367479e-04 1.79278255e-02
      -3.07533965e-02 -1.06095504e-02 3.37116085e-02 -6.15251921e-02
      2.29565124e-03 -5.04768118e-02 7.14060734e-04 -2.14578522e-05
      -2.39609256e-02 -6.98362291e-03 -1.48992625e-03 -1.75230261e-02 0.
      0. 2.18044110e-02 -3.88772748e-02 -8.17133393e-03 -1.47747435e-02
      -9.36449133e-03 -2.09921654e-02 1.33583490e-02 -2.09242273e-02
      -4.17598411e-02 -2.32650079e-02 -4.03050333e-03 2.45460030e-02
      2.86266971e-02 3.96622792e-02 -2.90439762e-02 3.61430682e-02 0. 0.
      6.06368994e-03 -3.40557359e-02 1.57244615e-02 -1.19940871e-02
      4.65055741e-02 -2.38122772e-02 8.28543399e-03 -5.41936513e-03
      1.95900816e-02 -3.37739475e-02 2.41374467e-02 2.57074810e-03
      3.45199592e-02 9.11130477e-03 -3.84124406e-02 -1.38776125e-02
      -1.38163082e-02 -2.36114673e-02 5.49163250e-03 -6.76220516e-03
      -1.11882184e-02 -1.93120935e-03 -2.29772311e-02 9.07839369e-03
      -1.13585377e-02 3.44455452e-03 1.57860611e-02 9.53163486e-03
      -1.95578672e-02 4.80232853e-03 -4.78258282e-02 2.57158764e-02
      7.68010691e-03 4.29563690e-03 1.90820955e-02 7.19547132e-03
      -2.81634871e-02 3.50199975e-02 7.58629888e-02 -8.96753371e-03
      2.91774748e-04 4.50968882e-03 -2.21675131e-02 -6.35065436e-02</_></support_vectors>
  <uncompressed_sv_total>137</uncompressed_sv_total>
  <uncompressed_support_vectors>
    <_>
      4.71610022e+00 1.91770995e+00 3.19508004e+00 5.88531017e-01
      4.38284016e+00 8.59833002e-01 4.25559998e+00 -1.75476003e+00
      3.96563005e+00 -2.89373994e+00 5.45273006e-01 -2.69016004e+00
      -3.46466005e-01 -3.58999991e+00 3.87878008e-02 -5.54311991e+00
      1.92642003e-01 -5.78423977e+00 -2.51808000e+00 -5.66521978e+00
      -3.73591995e+00 -3.74714994e+00 -3.44244003e+00 -1.51796997e+00
      -5.65637016e+00 8.59726012e-01 -4.68475008e+00 4.92716980e+00
      -3.54842997e+00 6.22340012e+00 -3.73733997e+00 6.02558994e+00
      -2.39846992e+00 5.94646978e+00 1.16709995e+00 -7.59853005e-01
      -7.30422974e-01 -3.06586003e+00 -1.42931998e+00 -7.20681000e+00
      -7.68051028e-01 -1.15340004e+01 -4.66766024e+00 -7.71429014e+00
      2.59015989e+00 -6.06327009e+00 1.82060003e+00 -8.67230988e+00
      2.27815008e+00 -8.49991989e+00 3.90249991e+00 -2.86280990e+00
      1.61621004e-01 2.07254004e+00 1.07818998e-01 -1.11699998e+00
      7.14111030e-02 -5.50934017e-01 3.50494012e-02 1.51367001e-02
      6.10656999e-02 -8.54598999e-01 9.86298025e-01 -2.74930000e+00
      5.69992006e-01 -2.97869992e+00 1.47484004e+00 -1.66594994e+00
      9.81598020e-01 -1.56289995e+00 5.28213978e-01 -1.35950994e+00 0.
      0. -3.22411001e-01 -4.01182985e+00 1.91981995e+00 -3.89244008e+00
      1.18434000e+00 2.87781004e-02 3.37974995e-01 -1.28471002e-01
      9.19158995e-01 -1.27129003e-01 1.97265998e-01 1.37321997e+00
      1.21029997e+00 -2.53631997e+00 6.29135013e-01 -2.53765988e+00 0.
      0. 4.34951991e-01 1.28460002e+00 1.07445002e+00 -1.01723000e-01
      -1.06994998e+00 -5.74705982e+00 -1.61953998e+00 -5.55192995e+00
      6.62551999e-01 -5.33224010e+00 1.79748997e-01 -4.07778978e+00
      2.62038994e+00 -5.28565979e+00 3.42904997e+00 -3.98113990e+00
      2.92067003e+00 -4.26689005e+00 1.98855996e+00 -3.28103995e+00
      2.47156000e+00 -1.99236000e+00 2.25983001e-02 -6.88338995e-01
      -8.78112972e-01 -2.04916000e+00 -1.67645001e+00 -4.74541998e+00
      -1.35848999e+00 -5.77173996e+00 -8.65036011e-01 -2.90787005e+00
      1.52969003e+00 -2.87227011e+00 2.52852988e+00 -2.79886007e+00
      3.16114998e+00 -4.24628019e+00 2.53263998e+00 -2.84694004e+00
      1.53381002e+00 -2.92036009e+00 -8.02627981e-01 -4.34357977e+00</_>
    <_>
      -4.10683006e-01 1.11379004e+00 2.81022996e-01 5.69343996e+00
      1.08571005e+00 9.20868015e+00 3.15766001e+00 1.06751003e+01
      3.27856994e+00 9.81439018e+00 2.20022988e+00 1.09854002e+01
      1.37749004e+00 9.98217964e+00 9.61578012e-01 4.64834976e+00
      3.18146013e-02 5.67178011e+00 -7.90436029e-01 5.57924986e+00
      -6.44515991e-01 6.60918999e+00 -1.48965001e+00 6.44046021e+00
      -2.38814998e+00 6.20453978e+00 -2.19640994e+00 4.93697977e+00
      -1.16140997e+00 5.88325977e+00 5.17883003e-02 4.68510008e+00
      2.31896996e+00 3.57644010e+00 -1.18962002e+00 -1.26225996e+00
      1.05761003e+00 -1.21800995e+00 1.23115003e+00 -1.26008999e+00
      1.40652001e+00 -1.22956002e+00 2.64388990e+00 -1.07201004e+00
      -4.35806006e-01 -2.78232992e-01 -1.31052005e+00 -4.01564002e-01
      -1.12448001e+00 -3.90866995e-01 -9.44854975e-01 -3.01780999e-01
      -8.33557010e-01 -1.52317002e-01 -4.91180003e-01 -1.20573997e+00
      -4.28207010e-01 -2.14878988e+00 -2.73299992e-01 -4.15993023e+00
      -1.28670001e+00 -5.18909979e+00 5.24310017e+00 5.21286011e+00
      3.35733008e+00 2.92600989e+00 4.12856996e-01 5.34408987e-01
      -3.85414004e+00 1.21550000e+00 -6.07816982e+00 3.15555000e+00 0.
      0. -2.57874001e-03 1.01137996e+00 2.05268994e-01 -5.82351983e-02
      3.15979004e-01 1.16347997e-02 1.12700999e-01 1.09648001e+00
      -8.81576985e-02 2.16731000e+00 -2.24944994e-01 -1.11602998e+00
      -1.26880002e+00 -1.84699997e-01 -1.81640998e-01 1.00188994e+00 0.
      0. -1.88049003e-01 1.08027995e+00 -1.27519000e+00 -1.06322996e-01
      1.46604004e+01 1.92469006e+01 9.71901989e+00 1.55391998e+01
      3.60815001e+00 1.28205004e+01 4.85596001e-01 1.25733004e+01
      -4.85074997e+00 1.31694002e+01 -1.12215996e+01 1.37300997e+01
      -1.76576004e+01 1.53706999e+01 -1.07566996e+01 8.48447037e+00
      -4.48294020e+00 9.06328964e+00 -2.19269007e-01 8.35999012e+00
      4.94385004e+00 9.88018990e+00 9.90443993e+00 1.35188999e+01
      1.37404003e+01 1.80965996e+01 4.85496998e+00 1.08477001e+01
      -3.08151007e-01 9.32744026e+00 -4.48566008e+00 8.95442009e+00
      -1.75310993e+01 1.32316999e+01 -4.47986984e+00 8.96269035e+00
      -3.08151007e-01 9.32744026e+00 4.86194992e+00 1.08488998e+01</_>
    <_>
      1.52762994e-01 -1.74389994e+00 8.79712999e-01 -8.15369010e-01
      5.23841977e-01 1.35714996e+00 -1.10780001e+00 1.30148005e+00
      -3.34598988e-01 3.43624997e+00 -8.36570978e-01 3.49127007e+00
      -2.38029003e+00 4.87955999e+00 -1.87187004e+00 1.67440999e+00
      -3.25989008e+00 3.34259009e+00 -4.63773012e+00 2.82153010e+00
      -5.60725021e+00 5.74117994e+00 -5.43220997e+00 6.26906013e+00
      -5.13345003e+00 6.71299982e+00 -4.77536011e+00 5.91570997e+00
      -2.06896996e+00 6.08023024e+00 -5.45624018e-01 5.14740992e+00
      9.95818973e-01 4.16573000e+00 -9.14180994e-01 -3.63543010e+00
      -7.60264993e-01 -3.30063009e+00 -9.46959972e-01 -4.07731009e+00
      1.51062000e-03 -2.69636989e+00 9.29427981e-01 -1.36008000e+00
      7.57950008e-01 2.84240991e-01 7.01599002e-01 -4.44205999e-01
      -4.96719003e-01 3.09695993e-02 3.80401999e-01 -8.07577014e-01
      9.36584026e-02 4.97714996e-01 -4.22057986e-01 1.14034998e+00
      -1.91472006e+00 -7.15178996e-02 -1.00676000e+00 8.68416011e-01
      -2.44530010e+00 7.91580021e-01 1.12353003e+00 4.76132011e+00
      -2.61368006e-01 2.67797995e+00 -2.65282011e+00 2.96349001e+00
      -3.77356005e+00 4.36013985e+00 -4.87806988e+00 5.76285982e+00 0.
      0. -1.27787006e+00 -3.10321999e+00 -1.95488006e-01 -1.78384995e+00
      -1.46978998e+00 7.08130002e-01 -2.16750994e-01 1.51643002e+00
      -1.19707000e+00 2.48352003e+00 3.89755011e-01 1.55938995e+00
      -8.67645025e-01 -1.49919999e+00 -1.03446996e+00 -2.37965989e+00 0.
      0. 1.31650996e+00 3.09897995e+00 -8.46893013e-01 2.96877003e+00
      -1.51308000e+00 7.80115986e+00 -2.27340996e-01 9.12168980e+00
      -1.57644999e+00 6.01060009e+00 -2.86533999e+00 6.23003006e+00
      -5.09463978e+00 7.70911980e+00 -5.20647001e+00 9.04211044e+00
      -3.33455992e+00 6.79723978e+00 -4.55329990e+00 5.44594002e+00
      -5.70691013e+00 4.11873007e+00 -3.30432010e+00 4.93395996e+00
      -2.04198003e+00 4.68617010e+00 -6.99065983e-01 5.60190010e+00
      -1.47890997e+00 9.04001999e+00 -5.44205010e-01 7.01504993e+00
      -2.94159007e+00 7.31683016e+00 -4.13876009e+00 7.58872986e+00
      -3.33614993e+00 5.57041979e+00 -5.34419012e+00 6.50167990e+00
      -4.09295988e+00 7.36490011e+00 -1.69555998e+00 7.06307983e+00</_>
    <_>
      1.15533996e+00 -1.74241996e+00 7.43318975e-01 -2.38203001e+00
      2.47275993e-01 -2.97800994e+00 -3.76807988e-01 -1.38206005e+00
      -2.07911992e+00 -8.55437994e-01 -5.48317015e-01 -2.16704011e+00
      1.88487995e+00 -2.13139009e+00 4.49196005e+00 -5.18753004e+00
      1.62832999e+00 -6.05627012e+00 9.25888002e-01 -4.46892977e+00
      -4.71130013e-01 -4.91931009e+00 3.34044993e-01 -4.13093996e+00
      3.46679986e-01 -4.42673016e+00 -5.09429991e-01 -4.81122017e+00
      -2.32970998e-01 -5.16396999e+00 -2.24976003e-01 -1.17126003e-01
      -2.19591999e+00 2.61903000e+00 2.10936999e+00 -4.29947996e+00
      9.12140012e-01 -5.96962023e+00 4.20387000e-01 -5.58102989e+00
      -3.29223990e-01 -2.05710006e+00 -1.01625001e+00 -8.51139009e-01
      2.66191006e+00 7.80632019e-01 1.20876002e+00 1.19335003e-01
      9.31106985e-01 -3.85405993e+00 4.38385010e-01 -4.66100979e+00
      -1.13463998e-01 -4.74796009e+00 5.25054991e-01 9.06028971e-02
      1.36261001e-01 2.97381997e+00 8.37981999e-01 5.91056013e+00
      5.56258976e-01 6.61276007e+00 4.84972000e+00 1.25719995e+01
      3.58223009e+00 1.04582005e+01 1.22423005e+00 8.29090977e+00
      -2.24609002e-01 1.06021996e+01 -1.56705999e+00 1.18221998e+01 0.
      0. -1.06070006e+00 -3.99981999e+00 1.84352005e+00 -3.62193990e+00
      1.09801996e+00 1.73193002e+00 7.50503987e-02 5.76085997e+00
      -1.68516004e+00 4.34602022e+00 -2.46802998e+00 2.45051003e+00
      -2.36290002e+00 -2.54427004e+00 6.38260007e-01 -4.31547022e+00 0.
      0. 1.00876999e+00 5.19616985e+00 -1.87444997e+00 4.80740023e+00
      7.37694025e-01 5.74101019e+00 5.40746021e+00 1.62194004e+01
      5.21264982e+00 1.43817997e+01 6.51260018e-01 1.31550999e+01
      -2.90404010e+00 1.42580004e+01 -3.36928010e+00 1.54287996e+01
      -1.13998003e-01 6.88271999e+00 -3.86415005e+00 -1.38138998e+00
      -3.28296995e+00 -7.10332012e+00 1.36284006e+00 -8.15256977e+00
      5.93432999e+00 -6.95789003e+00 7.15799999e+00 -1.55321002e+00
      4.62570012e-01 8.00928020e+00 5.09271002e+00 1.41506996e+01
      1.55820000e+00 1.41000004e+01 -3.07752991e+00 1.51174002e+01
      -1.08994997e+00 7.83245993e+00 -3.29070997e+00 -2.39505005e+00
      2.42464995e+00 -3.37993002e+00 5.90562010e+00 -2.23873997e+00</_>
    <_>
      1.51742005e+00 2.82738996e+00 8.27217028e-02 4.56351995e-01
      8.99116993e-01 2.27768004e-01 5.88317990e-01 -1.03731000e+00
      1.38607001e+00 -1.19547999e+00 1.03608000e+00 -2.35036993e+00
      -3.76244009e-01 -2.29953003e+00 -1.72872996e+00 -1.06002998e+00
      -1.99198997e+00 -8.43352973e-01 -2.22872996e+00 -1.66696000e+00
      -2.30959010e+00 -2.69378990e-01 -1.22940004e+00 2.38799993e-02
      -6.54297024e-02 3.04138005e-01 -1.07584000e+00 -1.56288004e+00
      -8.66364002e-01 -1.29147005e+00 -6.41601980e-01 -1.02105999e+00
      -1.53058004e+00 -1.81876004e+00 -8.00952971e-01 -2.20339990e+00
      -3.09769011e+00 -5.18920994e+00 -3.22302008e+00 -4.98125982e+00
      -2.35258007e+00 -5.93639994e+00 -1.47802997e+00 -5.85324001e+00
      5.02822995e-01 -4.57839012e+00 1.49960005e+00 -4.38754988e+00
      2.59337991e-01 -4.17062998e+00 -9.91150022e-01 -2.89913011e+00
      -2.29613996e+00 -2.85506010e+00 -5.73943973e-01 -1.53306997e+00
      3.78035992e-01 -1.68560004e+00 2.62878001e-01 -7.09007025e-01
      -9.81445014e-01 -7.99552977e-01 2.03812003e-01 1.03337002e+00
      1.07605003e-01 1.09326005e+00 -1.91192999e-02 6.27288967e-02
      -8.27637017e-02 1.51412994e-01 -1.22153997e+00 2.69576997e-01 0.
      0. -1.14208996e+00 1.87629998e-01 -1.20636001e-01 1.37698996e+00
      7.81836987e-01 3.19831997e-01 -2.48855993e-01 2.00394005e-01
      -1.23985004e+00 1.01493999e-01 -7.72736013e-01 -2.97309995e-01
      -7.54211009e-01 2.06329012e+00 -8.78189027e-01 2.17113996e+00 0.
      0. -1.01457000e+00 9.87327993e-01 -8.98742974e-01 8.72313976e-01
      1.66625995e-02 5.06682992e-01 1.12056005e+00 1.78313005e+00
      1.02409005e+00 8.66074026e-01 9.26926017e-01 9.10690010e-01
      -2.26256996e-01 1.04516995e+00 -3.84734988e-01 1.09367001e+00
      -6.07285023e-01 7.59888021e-03 -6.26906991e-01 -1.27588999e+00
      4.92859006e-01 -2.54682994e+00 -5.18723011e-01 -2.60593009e+00
      6.51687980e-01 -2.71071005e+00 8.16421986e-01 -2.78267002e+00
      -3.26232985e-02 5.79041004e-01 8.86718988e-01 -3.33038002e-01
      8.05800974e-01 -2.74078012e-01 -3.63617003e-01 -1.53945997e-01
      5.18280029e-01 -1.17137003e+00 -3.48297000e-01 -1.54937997e-01
      8.13004017e-01 -2.82211006e-01 8.55239987e-01 -1.43883002e+00</_>
    <_>
      1.14315004e+01 1.31287003e+01 8.60743999e+00 1.08161001e+01
      9.76764965e+00 7.30440998e+00 9.44826031e+00 6.46155977e+00
      7.27770996e+00 6.94739008e+00 5.99251986e+00 5.05766010e+00
      2.70553994e+00 6.29914999e+00 4.58099008e-01 5.33923006e+00
      -3.35220003e+00 6.38428020e+00 -5.63570976e+00 5.33980989e+00
      -7.46216011e+00 7.61700010e+00 -7.59261990e+00 7.73259020e+00
      -5.93593979e+00 1.09624004e+01 -3.84027004e+00 1.30660000e+01
      -2.64923000e+00 1.24384003e+01 -1.04675002e-01 1.32517004e+01
      -2.72583008e-01 1.39826002e+01 3.06395006e+00 3.10941005e+00
      3.05002999e+00 5.37311983e+00 1.39385998e+00 8.23711014e+00
      -1.71668005e+00 1.06422005e+01 -4.72529984e+00 1.27241001e+01
      4.92986012e+00 1.44219999e+01 7.05994010e-01 1.21069002e+01
      -2.18274999e+00 9.50220013e+00 -3.47989011e+00 3.74141002e+00
      -1.61480999e+00 1.48998007e-01 6.75827026e-01 1.53165998e+01
      2.06573009e+00 1.41246004e+01 2.05840993e+00 1.28888998e+01
      2.09972000e+00 1.01738997e+01 4.08463001e+00 1.34237003e+01
      3.15868998e+00 1.17205000e+01 7.91854978e-01 1.13709002e+01
      -2.51311988e-01 1.29546003e+01 -1.17377996e+00 1.32278996e+01 0.
      0. -7.52448976e-01 -7.95111990e+00 3.51861000e+00 -5.05663013e+00
      1.93420005e+00 1.22226000e+01 3.08533013e-01 9.15937042e+00
      -2.60892010e+00 7.70583010e+00 4.24499996e-02 9.47259998e+00
      -1.98592997e+00 -5.26734018e+00 1.13959002e+00 -7.91858006e+00 0.
      0. 3.43148994e+00 6.54916000e+00 1.70325994e+00 9.24405956e+00
      -3.04834008e+00 1.29082003e+01 -4.23685980e+00 1.34948997e+01
      -2.40780997e+00 9.81789970e+00 -1.85969996e+00 1.09629002e+01
      -1.37990999e+00 1.11978998e+01 -1.11166000e+00 1.35611000e+01
      -9.10202026e-01 1.29556999e+01 -1.40936005e+00 1.91427002e+01
      -3.08398008e+00 2.02761993e+01 -2.30222988e+00 2.16413002e+01
      -4.19423008e+00 2.16086998e+01 -4.37048006e+00 1.90863991e+01
      -3.62294006e+00 1.55908003e+01 -2.57133007e+00 1.59017000e+01
      -6.74332023e-01 1.58521996e+01 -1.50476003e+00 1.59665003e+01
      -5.00258982e-01 1.56981001e+01 -1.58678997e+00 1.59615002e+01
      -2.07158995e+00 1.58085003e+01 -3.96861005e+00 1.58579998e+01</_>
    <_>
      1.59282005e+00 -2.48340988e+00 3.65114003e-01 -2.72992992e+00
      1.55565000e+00 -2.95005989e+00 3.19263011e-01 -3.20553994e+00
      1.45688999e+00 -3.41766000e+00 1.23020001e-01 -3.62173009e+00
      -5.94559014e-02 -3.77393007e+00 -1.48269999e+00 -3.88260007e+00
      -2.97732997e+00 -2.70815992e+00 -5.67719984e+00 -2.72110009e+00
      -4.72855997e+00 -2.18323007e-01 -3.72807002e+00 -7.18230978e-02
      -2.67563009e+00 1.34186995e+00 -2.75797009e+00 1.56055999e+00
      -2.78786993e+00 5.92711985e-01 -2.80905008e+00 -3.66257012e-01
      -1.60782003e+00 -1.32503998e+00 -1.00560999e+00 2.62387991e+00
      2.50136995e+00 3.98534012e+00 3.52105999e+00 7.65010023e+00
      4.54169989e+00 1.00396004e+01 6.80275011e+00 8.77962017e+00
      -6.88992023e+00 1.11222000e+01 -5.87091017e+00 1.24123001e+01
      -4.82476997e+00 1.00264997e+01 -2.55521011e+00 6.36559010e+00
      -2.49420002e-01 5.05351019e+00 6.14502013e-01 2.49792004e+00
      -5.79361022e-01 1.13493001e+00 6.45080984e-01 -2.10494995e-01
      6.56051993e-01 -3.59840006e-01 -3.88411999e-01 -5.06958008e-01
      -4.67162997e-01 -5.34515023e-01 6.58813000e-01 -1.75821996e+00
      -6.51763976e-01 -1.75090003e+00 4.64812994e-01 -1.72586000e+00 0.
      0. -9.78012010e-02 1.28266001e+00 -2.20978007e-01 7.59506002e-02
      -3.51790994e-01 1.20860004e+00 -2.19321996e-01 -3.83681990e-02
      -8.74252021e-02 -3.64455990e-02 -8.44268978e-01 -3.47899995e-03
      -9.68414009e-01 6.50672987e-02 -1.10033000e+00 6.31408989e-02 0.
      0. -1.10741997e+00 -5.12772016e-02 -9.75661993e-01 -4.05807011e-02
      -1.37686002e+00 -2.08683991e+00 -1.51041996e+00 -1.97446001e+00
      -4.29580986e-01 -3.11970997e+00 -5.34713984e-01 -3.14757991e+00
      5.55450022e-01 -1.90922999e+00 1.62928998e+00 -3.17765999e+00
      1.48148000e+00 -3.29416990e+00 4.18273985e-01 -3.36241007e+00
      -6.45461977e-01 -3.39545989e+00 -5.31143010e-01 -3.39380002e+00
      -4.16931003e-01 -3.38333011e+00 -2.85553008e-01 -3.34625006e+00
      -1.43855000e+00 -2.07895994e+00 -4.36630011e-01 -2.02922010e+00
      6.62734985e-01 -2.03079009e+00 -6.47614002e-01 -3.24597001e+00
      3.38272005e-01 -3.30202007e+00 5.57265997e-01 -2.03235006e+00
      -5.33173025e-01 -3.25310993e+00 7.85812020e-01 -3.23392010e+00</_>
    <_>
      1.53351998e+00 2.33550000e+00 1.74828994e+00 3.11725998e+00
      1.90846002e+00 2.84688997e+00 2.04925990e+00 2.58453012e+00
      1.12193000e+00 2.33806992e+00 1.15941000e+00 2.02324009e+00
      1.09652996e+00 6.66199028e-01 9.63286996e-01 -6.52679026e-01
      1.76682997e+00 -9.35393989e-01 4.88083005e-01 -4.78820987e-02
      1.93542004e-01 -8.01543966e-02 -7.00377971e-02 9.81247008e-01
      6.77612007e-01 1.03455997e+00 1.42913997e+00 1.11327998e-01
      1.16296005e+00 -7.39883006e-01 1.95682001e+00 -5.96831977e-01
      6.78223014e-01 -1.39624000e+00 -1.99268997e+00 -1.69195998e+00
      -1.31628001e+00 -4.80158997e+00 -5.43823004e-01 -5.99198008e+00
      3.76845986e-01 -4.15106010e+00 1.34855998e+00 -2.34031010e+00
      1.14853001e+00 -2.53868008e+00 8.22463989e-01 -5.73672009e+00
      1.66604996e+00 -5.92264986e+00 2.57291007e+00 -6.15290022e+00
      1.66912997e+00 -3.25299001e+00 3.70056003e-01 -1.52718997e+00
      4.92828012e-01 -1.66870999e+00 6.48055971e-01 -7.89741993e-01
      1.80978000e+00 -9.84916985e-01 2.22555995e+00 2.16689992e+00
      3.15240002e+00 9.98809993e-01 2.04508996e+00 9.31075990e-01
      9.07104015e-01 8.98773015e-01 8.10836971e-01 8.52463007e-01 0. 0.
      9.05646980e-01 9.71943021e-01 -2.81715006e-01 -1.32797003e-01
      1.77953994e+00 6.51062012e-01 8.77448976e-01 7.61413991e-01
      1.04433000e+00 1.89858997e+00 2.93121010e-01 -7.38036990e-01
      1.45659998e-01 2.75269002e-01 -1.84630998e-03 -8.69919002e-01 0.
      0. 1.22665003e-01 4.44489010e-02 2.37762004e-01 1.69120997e-01
      6.56075001e-01 3.07503009e+00 3.58162999e+00 2.93430996e+00
      2.39077997e+00 2.90573001e+00 2.29000998e+00 1.76389003e+00
      2.16637993e+00 1.70622003e+00 2.09614992e+00 1.55842996e+00
      4.03986979e+00 -7.24411011e-01 2.17072010e+00 -6.71752989e-01
      3.35965991e+00 -6.69586003e-01 3.51144004e+00 4.42061990e-01
      3.59823990e+00 5.42174995e-01 2.66904998e+00 1.77023005e+00
      2.62646008e+00 1.91937006e+00 2.44343996e+00 1.77293003e+00
      2.33034992e+00 6.45232975e-01 2.21901011e+00 5.73471010e-01
      4.12984991e+00 3.58458996e-01 4.28549004e+00 4.93515015e-01
      3.37021995e+00 6.04797006e-01 3.48325992e+00 1.73253000e+00</_>
    <_>
      -4.24959004e-01 8.22459984e+00 -1.48196995e-01 7.17794991e+00
      -1.13027000e+00 4.81592989e+00 -8.33885014e-01 3.73210001e+00
      -1.81405997e+00 3.85160995e+00 -2.73538995e+00 3.85957003e+00
      -2.38577008e+00 5.06098986e+00 -2.03505993e+00 4.92770004e+00
      8.17611992e-01 4.71774006e+00 3.62433004e+00 4.45980978e+00
      3.76357007e+00 2.82730007e+00 3.85601997e+00 1.18441999e+00
      3.83547997e+00 8.36211979e-01 2.39520001e+00 1.79148996e+00
      2.17575002e+00 4.08017015e+00 1.97485006e+00 3.81255007e+00
      1.75515997e+00 3.54454994e+00 -2.92477989e+00 -2.49867010e+00
      -5.42778015e+00 -4.08574009e+00 -6.48486996e+00 -8.16952038e+00
      -6.20871019e+00 -1.08986998e+01 -7.22992992e+00 -1.10527000e+01
      1.99397004e+00 -1.11885996e+01 3.39972997e+00 -1.01426001e+01
      2.27680993e+00 -9.08629036e+00 1.16248000e+00 -5.42615986e+00
      1.01989999e-01 -2.93038988e+00 -6.61086977e-01 -1.99781001e+00
      -4.95651007e-01 -1.82499003e+00 -3.11340004e-01 -4.22719002e+00
      -1.45950004e-01 -4.05435991e+00 2.28986001e+00 1.45081997e+00
      1.14497006e+00 8.15735012e-02 -8.95691011e-03 -1.89971998e-02
      -1.19965994e+00 -1.57928005e-01 -2.41873002e+00 -2.88055003e-01 0.
      0. 1.26212999e-01 -6.60505009e+00 1.54858005e+00 -6.74302006e+00
      4.03259009e-01 -3.85910004e-01 1.56526005e+00 1.05891001e+00
      -1.13502002e+00 1.17821002e+00 -3.75366002e-01 -8.82385015e-01
      -1.56412995e+00 -6.24738979e+00 1.15451002e+00 -6.34748983e+00 0.
      0. 1.18081999e+00 1.44523001e+00 -1.51919997e+00 2.67426014e-01
      -2.58659005e-01 1.09259005e+01 -1.22024998e-01 8.12790012e+00
      1.28246999e+00 5.37651014e+00 1.38733006e+00 5.31296015e+00
      1.45530999e+00 5.21111012e+00 1.59865999e+00 1.02430000e+01
      5.01770020e-01 1.26815004e+01 1.67148995e+00 1.54893999e+01
      2.67197013e-01 1.69438000e+01 1.99019998e-01 1.57672997e+01
      1.03423998e-01 1.58403997e+01 -1.33701003e+00 1.46619997e+01
      1.08659005e+00 1.21585999e+01 1.30894005e+00 1.05937996e+01
      1.41401994e+00 9.23311996e+00 1.49124002e+00 9.14085007e+00
      4.43740994e-01 1.27554998e+01 1.94686994e-01 1.04000998e+01
      1.07970998e-01 1.17799997e+01 3.10363993e-02 1.05750999e+01</_>
    <_>
      -8.95905018e-01 2.45203996e+00 -6.47682011e-01 3.44414997e+00
      -4.33795989e-01 3.38947010e+00 -1.29351997e+00 2.33488011e+00
      -1.10163999e+00 2.24878001e+00 -1.95369995e+00 2.14397001e+00
      -7.80593991e-01 1.93578005e+00 -7.21436024e-01 7.17406988e-01
      3.15246999e-01 4.46227998e-01 2.99088001e-01 1.24582005e+00
      1.68838993e-01 1.08343995e+00 7.62938987e-03 9.49692011e-01
      -1.77551001e-01 8.50555003e-01 6.54510021e-01 7.65442014e-01
      4.15253013e-01 -2.86713004e-01 2.08496004e-01 -3.18275005e-01
      -2.93274000e-02 -1.35071003e+00 -1.11029005e+00 2.56554008e-01
      -1.31625998e+00 -1.91314006e+00 -1.40108001e+00 -3.11473989e+00
      -3.01429987e-01 -1.27869999e+00 -1.24857998e+00 -3.93566012e-01
      8.37737978e-01 3.69774014e-01 6.74880981e-01 -2.87196994e+00
      6.23322010e-01 -4.06931019e+00 6.58141971e-01 -4.23016024e+00
      8.55408013e-01 -2.27761006e+00 -1.17371000e-01 -1.56886005e+00
      1.39464997e-02 -1.57811999e+00 1.84279993e-01 -5.67328990e-01
      3.28278005e-01 -5.84106028e-01 4.92828012e-01 6.25046015e-01
      5.06515980e-01 5.38330019e-01 4.87259001e-01 -5.75546026e-01
      5.01038015e-01 3.67157012e-01 4.43298012e-01 -7.30804026e-01 0. 0.
      -6.60476983e-02 -9.43297967e-02 -7.39364997e-02 -2.05947995e-01
      3.03649995e-02 7.10541010e-01 5.74721992e-02 8.14194024e-01
      7.23801032e-02 9.31931019e-01 -1.01189005e+00 3.41987997e-01
      -9.73663032e-02 -8.17992985e-01 -1.31577000e-01 -1.95719004e+00 0.
      0. 3.88184004e-02 8.30535963e-02 -9.93041992e-01 2.35062003e-01
      -1.23508000e+00 8.26233029e-01 7.85049021e-01 1.68007004e+00
      -2.56392986e-01 2.63123989e+00 7.58041024e-01 1.48400998e+00
      1.75241005e+00 1.36104000e+00 7.30911016e-01 2.58513987e-01
      2.79776001e+00 -9.36614990e-01 8.49013984e-01 -7.79220998e-01
      1.93561006e+00 -7.17392027e-01 9.61502016e-01 4.40201014e-01
      9.21950996e-01 -4.94049013e-01 8.77318978e-01 -3.78708005e-01
      8.14971983e-01 7.01309025e-01 8.29742014e-01 1.56473005e+00
      8.03909004e-01 4.51308995e-01 7.84301996e-01 3.60352010e-01
      1.77440000e+00 -8.51166010e-01 1.85042000e+00 1.34748995e+00
      8.10486019e-01 4.50850993e-01 8.36304009e-01 1.56427002e+00</_>
    <_>
      -2.98608994e+00 -8.91956043e+00 -3.06241989e+00 -1.00503998e+01
      -2.31542993e+00 -8.25372028e+00 -1.57035005e+00 -9.30722046e+00
      -3.45650017e-02 -7.40333986e+00 2.84134001e-01 -6.32467985e+00
      -1.58703005e+00 -2.16704988e+00 2.65868992e-01 -5.94025016e-01
      3.00304008e+00 -3.53445005e+00 4.68709993e+00 -3.36760998e+00
      3.62758994e+00 -6.86905003e+00 3.64523005e+00 -9.20676994e+00
      2.97455001e+00 -1.22841997e+01 6.78771973e-01 -1.52024002e+01
      -1.54822004e+00 -1.41608000e+01 -3.65155005e+00 -1.30825996e+01
      -4.82857990e+00 -1.09723997e+01 -9.23820019e-01 -6.87807989e+00
      1.38591003e+00 -4.28298998e+00 1.43904996e+00 7.61753023e-01
      5.15594006e-01 4.49057007e+00 6.21047974e-01 6.15507984e+00
      -7.77374029e-01 7.10721016e+00 -1.66486001e+00 7.35069990e+00
      -3.42093992e+00 2.57677007e+00 -4.18172979e+00 -2.51950002e+00
      -1.73635995e+00 -7.88416004e+00 9.67468023e-01 3.21556997e+00
      1.99918997e+00 1.56896996e+00 2.06157994e+00 8.51333976e-01
      1.14354002e+00 1.12121999e-01 3.94692993e+00 -4.97330010e-01
      2.56415009e+00 -6.30263984e-01 1.15014994e+00 -7.64526010e-01
      6.55623972e-01 2.89368004e-01 -7.66479015e-01 3.42667013e-01 0. 0.
      -5.54091990e-01 2.18927002e+00 -1.87842995e-01 3.13426995e+00
      -6.54281974e-01 1.85087001e+00 -1.11941004e+00 2.70766997e+00
      -5.13611019e-01 7.71193981e-01 2.56831002e+00 1.92768002e+00
      1.03108001e+00 4.15793991e+00 4.78897005e-01 2.20267010e+00 0. 0.
      1.41570997e+00 1.78383994e+00 2.00966001e+00 1.80955005e+00
      -5.99044991e+00 -1.21084995e+01 1.97286999e+00 1.21288002e+00
      2.41025996e+00 4.37421989e+00 1.05873001e+00 4.24263000e+00
      -3.44543010e-01 3.37802005e+00 -8.54659975e-01 1.17402995e+00
      4.64344978e+00 -1.08025999e+01 3.10088992e-01 -8.12965012e+00
      -1.56403005e-01 -7.24159002e+00 2.24480009e+00 -7.24208021e+00
      2.62964010e+00 -6.24408007e+00 1.11478996e+00 -5.25516987e+00
      -7.22444010e+00 -9.16563034e+00 2.62038994e+00 -4.82462978e+00
      2.21402001e+00 -4.84223986e+00 -1.87163994e-01 -4.84178019e+00
      7.72779989e+00 -8.73781013e+00 -2.31644005e-01 -2.84965992e+00
      1.16894996e+00 -1.92253006e+00 1.57398999e+00 -1.87370002e+00</_>
    <_>
      6.88982010e-01 2.64341998e+00 2.05191994e+00 2.32599998e+00
      2.17866993e+00 8.75411987e-01 3.48077989e+00 -6.34598017e-01
      3.58732009e+00 -9.29443002e-01 2.41090012e+00 -1.20834005e+00
      2.28934002e+00 -2.72583008e+00 3.35361004e+00 -3.08871007e+00
      3.11391997e+00 -3.37322998e+00 1.61678004e+00 -3.53966999e+00
      1.33231997e+00 -2.43220997e+00 -1.32512999e+00 -1.16070998e+00
      -4.37438995e-01 -1.12772000e+00 -6.60094976e-01 2.09076002e-01
      2.79724002e-01 3.50708008e-01 -8.66699032e-03 -6.50084972e-01
      -2.87781000e-01 -1.64296997e+00 -2.23567009e+00 1.66287994e+00
      -3.78198004e+00 -6.34190023e-01 -2.94491005e+00 -3.18292999e+00
      -2.03642011e+00 -5.81548023e+00 1.57211006e-01 -7.35349989e+00
      -1.36243999e+00 -8.77632046e+00 -3.85300010e-01 -7.73525000e+00
      1.87557995e+00 -5.61688995e+00 1.94296002e+00 -1.09275997e+00
      -2.56713986e-01 2.32001996e+00 4.16411996e-01 -1.73408997e+00
      5.43335021e-01 -1.88309002e+00 6.70242012e-01 -2.03207994e+00
      1.98975003e+00 -2.24193001e+00 2.48395991e+00 1.32823002e+00
      1.17844999e+00 8.77991021e-02 1.04831004e+00 -1.21199000e+00
      -2.01752007e-01 -2.72368994e-02 -1.40031004e+00 2.34221005e+00 0.
      0. -2.76825011e-01 -2.37273002e+00 8.11713994e-01 -1.34924996e+00
      8.21457028e-01 -3.60825002e-01 9.83551025e-01 -2.87048012e-01
      -1.91802997e-02 1.06016004e+00 -2.02989006e+00 4.40268993e-01
      -1.08919001e+00 -8.15181971e-01 -2.83966009e-02 -1.00427997e+00 0.
      0. 1.43509001e-01 5.79224005e-02 -2.05979991e+00 1.47523999e+00
      1.73704004e+00 -1.17171001e+00 3.97446990e+00 1.08732998e+00
      3.67349005e+00 -1.37023997e+00 1.26912999e+00 -1.88430995e-01
      1.16946006e+00 -2.41164997e-01 1.18039000e+00 1.95327997e+00
      2.29555011e+00 4.92949992e-01 1.20964003e+00 -1.79762006e+00
      1.87119007e-01 -1.67233002e+00 2.88147002e-01 -1.60232997e+00
      2.70974994e+00 -2.78551006e+00 1.67664003e+00 -1.38382995e+00
      2.90003991e+00 -8.48082975e-02 3.82949996e+00 -2.89382994e-01
      2.60181999e+00 8.50234985e-01 1.27253997e+00 -3.62244010e-01
      1.12459004e+00 -5.84656000e-01 6.02263995e-02 -1.52332997e+00
      1.34591997e+00 -1.50485003e+00 2.62508011e+00 -1.45975995e+00</_>
    <_>
      1.68002999e+00 7.66491985e+00 1.67421997e+00 6.11963987e+00
      1.65875006e+00 4.58375978e+00 1.62419999e+00 3.04762006e+00
      2.54168987e-01 1.52035999e+00 1.38238001e+00 1.33669996e+00
      1.15564001e+00 1.19027996e+00 -3.87802005e-01 1.07211006e+00
      6.32996023e-01 1.05856001e+00 3.56018007e-01 1.08313000e+00
      1.25412002e-01 -9.35058966e-02 -8.65783989e-02 -1.24123001e+00
      1.03594995e+00 2.53769010e-01 -3.40790004e-01 4.71863002e-01
      -3.91907007e-01 1.99722004e+00 -4.33654994e-01 3.53228998e+00
      -1.75345004e+00 3.77032995e+00 -3.62632990e+00 -1.16948998e+00
      -5.05857992e+00 -3.65148997e+00 -5.23057985e+00 -7.50748014e+00
      -5.43030977e+00 -8.83623981e+00 -6.92682981e+00 -8.90600967e+00
      3.17309999e+00 -8.83323956e+00 2.97201991e+00 -8.77896976e+00
      1.47432005e+00 -7.47525978e+00 1.25519001e+00 -3.61552000e+00
      -2.02483997e-01 -2.43523002e+00 -1.92721999e+00 -3.84372997e+00
      -6.46835029e-01 -1.41166997e+00 -6.34963989e-01 -2.86128998e+00
      -6.42014027e-01 -1.73588002e+00 2.14512992e+00 -5.78751028e-01
      7.52960026e-01 -6.08841002e-01 -6.48697019e-01 -6.39083982e-01
      -7.53875971e-01 -6.21551991e-01 -2.13718009e+00 -6.03836000e-01 0.
      0. -7.73238987e-02 -6.39173985e+00 2.36406994e+00 -6.36523008e+00
      9.06157970e-01 -1.29334998e+00 2.31798005e+00 -1.34659000e-02
      -1.23420998e-01 -3.99780013e-02 -2.18384004e+00 -1.31989002e+00
      -2.27105999e+00 -6.39552021e+00 1.70608997e-01 -6.38809013e+00 0.
      0. 1.05407998e-01 1.26059997e+00 -2.32668996e+00 -4.38842997e-02
      -1.56936002e+00 4.22137022e+00 -4.35470998e-01 3.00767994e+00
      2.01467991e+00 1.79434001e+00 6.32125974e-01 1.76435995e+00
      5.45975029e-01 1.78217995e+00 3.75198007e-01 4.30727005e+00
      2.13912994e-01 4.24768019e+00 3.38959008e-01 8.05527973e+00
      -8.24051023e-01 1.05944004e+01 5.68512022e-01 1.05958004e+01
      1.96082997e+00 9.31917000e+00 -4.81124997e-01 9.33082962e+00
      -3.58063012e-01 5.51735020e+00 1.99700999e+00 4.28352022e+00
      6.23749018e-01 2.97560000e+00 -7.59247005e-01 2.97427011e+00
      2.71178991e-01 5.53621006e+00 -7.78473020e-01 5.56838989e+00
      5.95077991e-01 6.85722017e+00 6.80755973e-01 6.86804008e+00</_>
    <_>
      -2.01411009e+00 1.13408003e+01 -1.82129002e+00 1.20804005e+01
      -4.44308996e-01 1.16188002e+01 8.85116994e-01 1.23399000e+01
      3.39007998e+00 1.18757000e+01 4.59167004e+00 1.01514997e+01
      5.67126989e+00 7.25494003e+00 5.44475985e+00 4.38726997e+00
      3.80437994e+00 4.05053997e+00 2.08686996e+00 2.64773989e+00
      3.29468012e-01 3.88619995e+00 -2.38037005e-01 6.40503979e+00
      -1.92885995e+00 6.61447001e+00 -2.35922003e+00 8.16306973e+00
      -2.74200010e+00 8.52898026e+00 -6.86156988e-01 8.96819019e+00
      -9.91180003e-01 9.41722965e+00 -2.24910998e+00 1.72959006e+00
      -1.39821994e+00 1.82245004e+00 -5.88158011e-01 2.89684010e+00
      -8.84773016e-01 1.40453005e+00 -1.18875003e+00 2.30476999e+00
      -4.80834991e-01 2.09476995e+00 -9.14870977e-01 2.06415009e+00
      -1.32905996e+00 1.92141998e+00 -4.91881996e-01 2.90811992e+00
      5.99457026e-01 1.34933996e+00 -9.62830037e-02 4.33121014e+00
      4.23583984e-02 5.24622011e+00 1.80999994e-01 6.16124010e+00
      1.54394996e+00 7.08491993e+00 1.99500000e+00 9.50080967e+00
      1.86391997e+00 8.11876011e+00 4.83994007e-01 7.94378996e+00
      -9.55932975e-01 7.87962008e+00 -2.42905998e+00 1.02553997e+01 0.
      0. -1.57996997e-01 -4.91976976e+00 7.95844972e-01 -3.80833006e+00
      -3.16824007e+00 3.19740009e+00 -1.65630996e+00 2.07161999e+00
      -1.41031003e+00 2.18458009e+00 1.84859002e+00 3.99331999e+00
      4.98046994e-01 -3.33490992e+00 2.85109997e-01 -4.67937994e+00 0.
      0. 1.43262005e+00 2.45672989e+00 4.45632994e-01 3.78534007e+00
      1.34291005e+00 9.00368023e+00 1.02818000e+00 1.02257996e+01
      1.99531996e+00 9.00936985e+00 6.47078991e-01 8.85155964e+00
      -7.52669990e-01 8.78870964e+00 2.67105013e-01 1.10625000e+01
      2.55429006e+00 9.64033985e+00 1.67776000e+00 7.17797995e+00
      7.10723996e-01 7.18599987e+00 2.10187006e+00 7.26464987e+00
      2.28323007e+00 7.38350010e+00 1.22308004e+00 7.52534008e+00
      1.20764995e+00 1.01592999e+01 8.65341008e-01 1.00351000e+01
      6.99859977e-01 9.92485046e+00 -6.66809022e-01 8.63045025e+00
      2.66515994e+00 8.49190998e+00 5.57465017e-01 8.63910961e+00
      1.96454000e+00 7.51786995e+00 2.13001990e+00 7.62813997e+00</_>
    <_>
      1.32785997e+01 1.10257998e+01 1.23397999e+01 5.17473984e+00
      1.11773005e+01 -5.20247996e-01 9.94038963e+00 -3.91462994e+00
      8.52577972e+00 -8.24289036e+00 7.48385000e+00 -1.09670000e+01
      4.76243019e+00 -1.07446003e+01 3.91179991e+00 -1.00150003e+01
      1.45895004e+00 -1.11497002e+01 -2.02780008e+00 -1.11056995e+01
      -3.60889006e+00 -9.65557957e+00 -4.46967983e+00 -8.90100002e+00
      -7.09521008e+00 -7.92947006e+00 -7.66881990e+00 -4.26987982e+00
      -9.89348984e+00 -1.86304998e+00 -1.32825003e+01 2.79825997e+00
      -1.41578999e+01 8.70932007e+00 4.44370985e+00 5.27031994e+00
      -9.12285000e-02 1.25775003e+00 -1.19582999e+00 -2.46094990e+00
      -1.27030003e+00 -4.57492018e+00 -5.13926983e+00 -1.70414996e+00
      4.88280010e+00 -4.91319990e+00 3.77448010e+00 -5.84849977e+00
      1.18988001e+00 -1.60388994e+00 -1.48308003e+00 2.03718996e+00
      -6.01221991e+00 4.42907000e+00 -5.89630008e-01 3.51336002e+00
      -2.07924008e+00 2.14313006e+00 -2.38653994e+00 2.01191998e+00
      -4.93767977e+00 -6.15005016e-01 -9.92408991e-01 2.86560003e-02
      -1.05954003e+00 -2.49008000e-01 -3.42724991e+00 -6.01073980e-01
      -3.54828000e+00 -9.67651010e-01 -4.71297979e+00 9.02617991e-01 0.
      0. 6.31714016e-02 -4.72632980e+00 1.70704997e+00 -1.93706000e+00
      2.03445005e+00 3.47246003e+00 2.39689994e+00 3.80366993e+00
      7.06978023e-01 2.10433006e+00 -2.24007010e+00 3.54999995e+00
      -8.93402025e-02 -2.27719998e+00 5.95794976e-01 -4.25584984e+00 0.
      0. 3.55784988e+00 2.76996994e+00 5.72127998e-01 4.67418003e+00
      -6.51768017e+00 -1.60631008e+01 -4.43767977e+00 -8.60857964e+00
      -2.43560004e+00 -6.46181011e+00 -4.54268992e-01 -5.29831982e+00
      2.91820002e+00 -5.68281984e+00 6.87707996e+00 -6.93384981e+00
      1.07293997e+01 -1.56548004e+01 7.60950994e+00 -9.89134026e+00
      4.41469002e+00 -8.57299995e+00 1.36733994e-01 -9.22146988e+00
      -1.92602003e+00 -9.53639030e+00 -4.90500021e+00 -9.55296040e+00
      -8.43488979e+00 -1.58647003e+01 -2.76147008e+00 -6.44050980e+00
      -5.49651980e-01 -7.35390997e+00 4.93898010e+00 -6.67705011e+00
      9.24543953e+00 -1.46422997e+01 3.72834992e+00 -6.70544004e+00
      -6.70364022e-01 -7.33620024e+00 -2.71543002e+00 -7.53045988e+00</_>
    <_>
      3.86327004e+00 -6.02569008e+00 3.56132007e+00 -7.51009989e+00
      3.12491012e+00 -7.80298996e+00 2.69356990e+00 -8.04584980e+00
      3.10918999e+00 -7.04247999e+00 3.16415000e+00 -8.15637016e+00
      3.03946996e+00 -9.04996014e+00 3.67294014e-01 -9.84237957e+00
      -1.24744999e+00 -9.83020020e+00 -2.80620003e+00 -8.24184990e+00
      -5.01692009e+00 -9.51774979e+00 -5.81057978e+00 -9.40320015e+00
      -5.27322006e+00 -1.02957001e+01 -5.52615023e+00 -8.80556965e+00
      -5.45520020e+00 -9.65349960e+00 -6.50009012e+00 -9.36472988e+00
      -7.58444023e+00 -7.94454002e+00 3.62933993e-01 -2.81563997e+00
      -4.94301987e+00 -5.77190018e+00 -4.74803019e+00 -1.00964003e+01
      -3.47609997e+00 -1.23736000e+01 -2.29852009e+00 -1.25380001e+01
      -3.28323007e-01 -1.09961996e+01 -1.27203000e+00 -9.31865025e+00
      -1.78528000e-02 -6.68054008e+00 -2.31256008e+00 -3.16957998e+00
      -5.53432989e+00 -1.73366994e-01 1.04646003e+00 -3.13529998e-01
      1.99713004e+00 -3.72695997e-02 1.89042997e+00 -2.11332989e+00
      2.84105992e+00 -1.83709002e+00 1.27639994e-01 1.87873995e+00
      2.04936004e+00 -4.64278996e-01 1.56879997e+00 -1.74495006e+00
      1.05470002e+00 -3.12988013e-01 6.35528982e-01 1.05887997e+00 0. 0.
      -5.00739992e-01 -3.02837992e+00 9.67299998e-01 -2.81821990e+00
      1.33425999e+00 -7.99919009e-01 7.29263008e-01 3.46516991e+00
      -7.88757026e-01 3.26007009e+00 -1.45480001e+00 -4.16245013e-01
      -8.93158019e-01 -1.04231000e+00 -5.11551023e-01 -9.26769018e-01 0.
      0. -8.10028017e-01 4.23537016e+00 -2.33340001e+00 2.95393991e+00
      -2.53307009e+00 3.09837008e+00 -9.48882997e-01 4.97966003e+00
      -4.91959006e-01 5.34004021e+00 9.84344035e-02 2.97772002e+00
      -1.70203996e+00 4.33533001e+00 -1.28032994e+00 5.37215996e+00
      -8.33953977e-01 6.15407991e+00 -1.43668997e+00 4.32752991e+00
      -7.32773006e-01 2.77534008e+00 -9.31091011e-02 2.60949993e+00
      5.22231996e-01 3.72500992e+00 -1.01540995e+00 3.82487011e+00
      -5.99632025e-01 4.43923998e+00 -5.18249989e-01 3.55888009e+00
      4.26940992e-02 2.42782998e+00 -1.76285994e+00 3.73550010e+00
      -1.58089995e+00 4.89770985e+00 -5.47011971e-01 2.58864999e+00
      4.26940992e-02 2.42782998e+00 1.79451001e+00 3.63290000e+00</_>
    <_>
      -3.79196000e+00 -5.07824004e-01 -5.90876007e+00 -3.62280989e+00
      -6.83871984e+00 -6.59880018e+00 -1.00691996e+01 -9.66308975e+00
      -1.21288996e+01 -1.02686996e+01 -1.04525003e+01 -1.52285995e+01
      -7.42010021e+00 -1.88579998e+01 -4.15631008e+00 -2.35566006e+01
      -1.64293003e+00 -2.60312996e+01 -1.22501004e+00 -2.51618996e+01
      -1.64190996e+00 -2.33458004e+01 3.03528011e-01 -1.92401009e+01
      3.60693002e+00 -1.77222996e+01 2.27884007e+00 -1.42974005e+01
      9.63257015e-01 -1.09773998e+01 7.80121028e-01 -6.41733980e+00
      1.74353004e+00 -1.91465998e+00 -2.06393003e+00 9.36544037e+00
      3.08346009e+00 1.45059996e+01 3.28112006e+00 1.75324001e+01
      5.67381001e+00 1.60018997e+01 6.77021980e+00 1.32650003e+01
      -4.58796978e+00 1.53851004e+01 -3.04076004e+00 1.83465004e+01
      -2.75345993e+00 1.78798008e+01 -2.54547000e-01 1.51693001e+01
      4.21918011e+00 1.00587997e+01 5.53986013e-01 4.59100008e+00
      -4.51355018e-02 2.43209004e+00 1.60060000e+00 2.65524006e+00
      9.34677005e-01 1.70240998e+00 -1.97685003e+00 -6.66045994e-02
      3.67675990e-01 -1.99667001e+00 3.76358002e-01 -1.62308002e+00
      1.74132001e+00 -1.28190994e+00 7.81081975e-01 -2.18211007e+00 0.
      0. 1.42911994e+00 1.52030003e+00 3.78448009e-01 8.43425989e-01
      -9.06876028e-01 -1.01160002e+00 1.20236003e+00 -2.55396008e+00
      2.26109004e+00 -3.03693008e+00 7.36464977e-01 1.01257002e+00
      1.07790005e+00 2.54408002e+00 5.99670000e-02 1.86045003e+00 0. 0.
      -1.43718004e+00 -3.60428005e-01 7.96248972e-01 -1.96248996e+00
      -1.14547005e+01 -1.55141001e+01 -5.26398993e+00 -7.00333023e+00
      -3.79802990e+00 -3.07184005e+00 -2.62277007e+00 -2.65750003e+00
      -4.36553992e-02 -3.40937996e+00 2.28519011e+00 -7.48200989e+00
      6.83093023e+00 -1.85688992e+01 6.94580019e-01 -2.81807003e+01
      -7.97408998e-01 -3.20727005e+01 -2.14308000e+00 -3.24860992e+01
      -3.43941998e+00 -3.05932999e+01 -4.60843992e+00 -2.65125999e+01
      -1.36931000e+01 -1.65002995e+01 -3.04091001e+00 -5.26314020e+00
      -1.80820000e+00 -3.70240998e+00 -4.54436988e-01 -4.44888020e+00
      9.11017990e+00 -1.87492008e+01 -2.94661999e-01 -2.64535007e+01
      -2.80022001e+00 -2.68750000e+01 -2.88917994e+00 -2.61079006e+01</_>
    <_>
      -9.90985990e-01 -4.32757998e+00 1.58805996e-01 -5.06911993e+00
      3.67973000e-01 -6.98354006e+00 -2.50583005e+00 -1.02650003e+01
      -5.47191000e+00 -1.24815998e+01 -6.26617002e+00 -1.45056000e+01
      -3.39204001e+00 -2.05291004e+01 -3.86974001e+00 -2.47667999e+01
      -1.40622997e+00 -2.55797997e+01 -1.81519002e-01 -2.44113998e+01
      -1.39708996e-01 -2.23260002e+01 -5.16387999e-01 -1.60268993e+01
      2.44924998e+00 -1.16168003e+01 3.32361007e+00 -8.51702976e+00
      1.05438006e+00 -6.81028986e+00 1.88350999e+00 -3.74080992e+00
      5.02432013e+00 -2.60262990e+00 -2.16107988e+00 9.36139011e+00
      2.67301989e+00 1.61075993e+01 3.50705004e+00 2.04200001e+01
      2.81169009e+00 1.82183990e+01 5.69739008e+00 1.20956001e+01
      -3.74271989e+00 1.22730999e+01 -2.02394009e+00 1.88229008e+01
      -4.16453981e+00 2.07719002e+01 -4.65926981e+00 1.65090008e+01
      -5.63843012e-01 8.44287968e+00 1.84570000e-01 3.13648009e+00
      -1.98038006e+00 3.06154990e+00 -1.14751995e+00 5.41981983e+00
      -2.24331999e+00 5.45251989e+00 -2.05884004e+00 2.40028000e+00
      -1.99966002e+00 2.43322992e+00 -7.61047006e-01 1.49055004e+00
      -6.71599984e-01 1.47844005e+00 5.82015991e-01 4.94980007e-01 0. 0.
      1.82175004e+00 4.39012003e+00 -1.25136006e+00 4.08548021e+00
      -1.71564996e+00 -1.26118004e+00 5.03814995e-01 -3.16621995e+00
      2.41411996e+00 -1.89730000e+00 8.40210021e-01 -1.02523005e+00
      4.61014003e-01 4.24921989e+00 -2.61736989e+00 3.97263002e+00 0. 0.
      -1.92577004e+00 -3.37830997e+00 1.82677999e-01 -4.27287006e+00
      -3.05156994e+00 -1.12978001e+01 2.54470992e+00 -1.20434999e+00
      2.35570002e+00 1.94872999e+00 2.43019009e+00 1.97732997e+00
      3.58320999e+00 2.06447005e+00 1.01549995e+00 -3.49082994e+00
      5.24186993e+00 -1.26725998e+01 2.13428998e+00 -2.68647995e+01
      4.63051987e+00 -3.19643993e+01 4.53670979e+00 -3.19675999e+01
      4.45252991e+00 -3.19834995e+01 3.65381002e+00 -2.45655994e+01
      -3.95707989e+00 -1.24640999e+01 1.88019001e+00 -4.45335007e+00
      1.85808003e+00 -3.37523007e+00 4.17823982e+00 -4.23697996e+00
      7.40513992e+00 -1.35495005e+01 3.93581009e+00 -2.46357994e+01
      3.94829011e+00 -2.57012005e+01 2.70131993e+00 -2.47528000e+01</_>
    <_>
      3.70413995e+00 5.05089998e+00 3.34534001e+00 4.18959999e+00
      5.12303019e+00 3.41956997e+00 4.82457018e+00 2.59513998e+00
      3.51553988e+00 1.79334998e+00 1.82815999e-01 9.92371023e-01
      1.16337001e+00 -6.31500006e-01 -1.97424996e+00 -2.39303994e+00
      -4.93863010e+00 -4.17797995e+00 -6.89100981e+00 -1.78597999e+00
      -8.84103012e+00 3.66385007e+00 -7.41435003e+00 4.95131016e+00
      -1.01582003e+01 5.96985006e+00 -1.07905998e+01 5.87212992e+00
      -7.20789003e+00 5.88856983e+00 -2.58041000e+00 5.92960978e+00
      -4.45557013e-03 4.79546022e+00 1.29367995e+00 -2.47921991e+00
      -4.90184993e-01 -3.51765990e+00 -2.41760001e-01 -5.33640003e+00
      9.34776008e-01 -6.04926014e+00 2.05883002e+00 -6.74113989e+00
      -4.07227993e+00 -4.29527998e+00 -2.77067995e+00 -4.00796986e+00
      -1.53735006e+00 -3.66299009e+00 -1.40807998e+00 -4.36892986e+00
      -1.56155002e+00 -2.99893999e+00 -1.46090996e+00 -1.18250000e+00
      -1.65758002e+00 -4.19329977e+00 -1.94283998e+00 -5.09912014e+00
      -1.17299998e+00 -5.95410013e+00 2.30565000e+00 4.48263979e+00
      3.42514008e-01 1.43083000e+00 -5.97992003e-01 -5.07125974e-01
      -3.70244002e+00 1.62917995e+00 -6.79898024e+00 3.74711990e+00 0.
      0. -8.07525992e-01 -9.56157982e-01 3.87443990e-01 -1.73724997e+00
      -7.23038018e-01 -1.50729001e+00 1.28196999e-01 4.35829014e-01
      -1.11765003e+00 2.27203012e+00 -2.89779991e-01 -1.68013000e+00
      7.61413993e-03 -2.57488990e+00 7.20824972e-02 -1.30706000e+00 0.
      0. -2.40676999e-01 1.95261002e+00 -2.97226012e-01 6.66435003e-01
      1.59319000e+01 1.75823994e+01 1.30359001e+01 1.55874996e+01
      4.93727016e+00 1.12700996e+01 -1.33065999e+00 1.11987000e+01
      -6.51550007e+00 1.22018003e+01 -1.60410004e+01 1.52560997e+01
      -1.91201000e+01 1.54343004e+01 -1.67264004e+01 -1.45389998e+00
      -9.21870041e+00 -1.08253002e+01 -1.95868003e+00 -1.07082996e+01
      4.24791002e+00 -9.60799026e+00 1.33392000e+01 -5.58624007e-02
      1.70482006e+01 1.66805000e+01 4.73052979e+00 1.34223003e+01
      -1.53211999e+00 1.33639002e+01 -7.78001022e+00 1.43345003e+01
      -2.12931995e+01 1.52511997e+01 -7.88688993e+00 -1.19500999e+01
      -1.64424002e+00 -1.29337997e+01 4.52982998e+00 -1.07705002e+01</_>
    <_>
      2.38512993e+00 -4.38160992e+00 3.77376008e+00 -4.88216019e+00
      6.57418013e+00 -5.29932022e+00 9.29113007e+00 -4.30459976e+00
      6.20615005e+00 -3.53573990e+00 1.61611998e+00 -4.18007994e+00
      -3.10126990e-01 -3.20367002e+00 -7.33916998e-01 -4.92535019e+00
      -2.74774003e+00 -5.05996990e+00 -1.89391994e+00 -4.97533989e+00
      -2.56698990e+00 -1.90366006e+00 -4.46704006e+00 -1.66478002e+00
      -4.84295988e+00 -1.23585999e+00 -7.93242979e+00 -8.43276978e-01
      -6.55431986e+00 -1.64795005e+00 -6.64950991e+00 -1.09820998e+00
      -5.36818981e+00 9.50995982e-01 3.65348005e+00 -8.17889023e+00
      3.32465005e+00 -6.44833994e+00 2.80418992e+00 -3.46073008e+00
      3.80864000e+00 -3.43606997e+00 1.93419003e+00 -2.21270990e+00
      -1.53653002e+00 -3.75652003e+00 -1.98430002e+00 -3.62474990e+00
      -2.50533009e+00 -2.20159006e+00 -4.34440994e+00 -2.39410996e+00
      -4.63296986e+00 -2.70967007e+00 2.29218006e-01 -4.12806988e+00
      2.37854004e-01 -4.51540995e+00 3.29970986e-01 -6.31452990e+00
      3.38593006e-01 -6.70188999e+00 6.26962996e+00 -2.42675996e+00
      1.79342997e+00 -2.69762993e+00 -1.27096999e+00 -2.88504004e+00
      -5.78352022e+00 -3.01355004e+00 -7.54108000e+00 -1.67297006e-01 0.
      0. -1.34253994e-01 -2.70366001e+00 1.07201004e+00 -4.05649996e+00
      6.98585987e-01 -1.37171996e+00 -5.91208994e-01 1.39294004e+00
      -1.73608994e+00 1.30786002e+00 -2.01973009e+00 -1.49335003e+00
      -7.99561024e-01 -2.72375989e+00 3.49426001e-01 -2.68683004e+00 0.
      0. 1.59932995e+00 1.44553995e+00 -9.87533987e-01 1.34719002e+00
      1.03402996e+01 1.27625999e+01 4.47168016e+00 8.32303047e+00
      -1.52696002e+00 8.12901020e+00 -4.65285015e+00 9.37950039e+00
      -7.72542000e+00 9.28841972e+00 -1.52614002e+01 1.03464003e+01
      -2.15746002e+01 1.42853003e+01 -1.51661997e+01 7.22568989e+00
      -1.04939003e+01 5.90030003e+00 -7.33774996e+00 4.57958984e+00
      -1.41954005e+00 4.86377001e+00 4.47008991e+00 8.05611038e+00
      8.86542988e+00 1.12791996e+01 -3.73535007e-02 6.58194017e+00
      -4.51973009e+00 6.38326979e+00 -9.08965015e+00 7.64458990e+00
      -2.28306999e+01 1.27961998e+01 -9.05228043e+00 6.20458984e+00
      -6.04117012e+00 7.73363018e+00 -2.91320992e+00 6.45905018e+00</_>
    <_>
      7.87489986e+00 6.68873978e+00 8.93321991e+00 6.76307011e+00
      1.10346003e+01 6.87299013e+00 1.06983004e+01 4.32145977e+00
      1.25654001e+01 3.27121997e+00 1.39118996e+01 1.12908995e+00
      1.33157997e+01 -2.08041000e+00 9.91160011e+00 -6.28402996e+00
      4.57314014e+00 -8.24767971e+00 1.75983000e+00 -8.12125015e+00
      -2.00075006e+00 -6.99460983e+00 -5.51584005e+00 -5.47266006e+00
      -8.52365017e+00 -3.34576011e+00 -8.16399956e+00 -8.48221004e-01
      -8.71094036e+00 4.86144990e-01 -9.47066975e+00 4.45459986e+00
      -9.95226955e+00 8.44744015e+00 2.39083004e+00 6.16946983e+00
      1.06658006e+00 3.38167000e+00 4.87892002e-01 -2.37349004e-01
      -1.37931001e+00 -4.28716993e+00 4.84665006e-01 -4.66512012e+00
      3.11665010e+00 -5.70416021e+00 2.19690990e+00 -3.95420003e+00
      1.25788999e+00 -1.34660995e+00 -9.28924978e-01 2.06675005e+00
      -6.44955015e+00 4.51458979e+00 1.53095996e+00 1.49826002e+00
      1.62568998e+00 1.05823004e+00 1.72037005e+00 6.18201971e-01
      1.81508994e+00 1.78168997e-01 3.57831001e+00 1.58478999e+00
      2.72774005e+00 -3.15857003e-03 1.66437995e+00 1.04295003e+00
      1.85689998e+00 1.19062996e+00 9.32982981e-01 -1.26309001e+00 0. 0.
      -8.77205014e-01 -5.96174002e+00 2.91599011e+00 -5.75916004e+00
      1.46477997e+00 2.46391010e+00 1.16846001e+00 4.77302980e+00
      -1.30366004e+00 4.63050985e+00 -1.47078001e+00 2.28064990e+00
      -1.03206003e+00 -5.90060997e+00 1.50009000e+00 -7.07919979e+00 0.
      0. 9.81002986e-01 3.50492001e+00 -2.62710989e-01 3.41429996e+00
      6.31536007e+00 4.66484022e+00 6.39084005e+00 6.78249979e+00
      3.73130989e+00 7.07186985e+00 2.65155005e+00 6.60336018e+00
      1.85623005e-01 6.81634998e+00 -2.52588010e+00 4.93408012e+00
      -1.18149996e+00 1.54013002e+00 -1.13162005e+00 7.59887993e-01
      3.92150998e-01 4.26743001e-01 2.89373994e+00 -8.29239011e-01
      6.52818012e+00 2.03081989e+00 7.87781000e+00 2.61646008e+00
      5.75106001e+00 4.70866013e+00 5.10126019e+00 4.87575006e+00
      1.50759995e+00 3.25225997e+00 2.86330998e-01 3.33172989e+00
      -4.80803996e-01 3.68728995e-01 2.94463992e-01 3.23905993e+00
      2.74419999e+00 3.21149993e+00 5.10126019e+00 4.87575006e+00</_>
    <_>
      -2.50623989e+00 6.75620985e+00 -9.73783016e-01 5.07555008e+00
      -1.68637002e+00 3.25646996e+00 -2.37209010e+00 1.40918005e+00
      -4.18985987e+00 5.75088978e-01 -2.35542011e+00 -2.40485001e+00
      -5.48247993e-01 -4.35161018e+00 1.34177005e+00 -7.53704977e+00
      4.18815994e+00 -8.63916016e+00 4.56946993e+00 -7.80914021e+00
      4.72264004e+00 -6.04018021e+00 4.88254976e+00 -5.46390009e+00
      3.66536999e+00 -2.72538996e+00 2.34610009e+00 -1.12172997e+00
      9.28528011e-01 5.17471015e-01 7.82195985e-01 -4.15038988e-02
      4.07348990e-01 2.81177998e+00 -3.92353010e+00 1.66713009e+01
      1.61274004e+00 2.11383991e+01 2.90350008e+00 2.43838005e+01
      4.52301979e+00 2.32315998e+01 7.40485001e+00 1.99587002e+01
      -8.03345966e+00 2.21082993e+01 -5.53371000e+00 2.30853996e+01
      -5.19658995e+00 2.28894997e+01 -1.29108000e+00 2.07262001e+01
      1.48456001e+00 1.76214008e+01 -3.47793996e-01 6.16205978e+00
      -2.18842000e-01 6.46774006e+00 -2.07214002e-02 5.65089989e+00
      -1.00835001e+00 5.90375996e+00 1.10930996e-02 2.97712994e+00
      -8.96880984e-01 2.88606000e+00 -6.65938973e-01 2.85828996e+00
      -5.62026978e-01 3.84408998e+00 -4.05319005e-01 3.71335006e+00 0.
      0. -7.37289011e-01 -3.61216998e+00 5.78476012e-01 -2.51521993e+00
      -1.76841998e+00 3.01915002e+00 -7.02911019e-01 9.69474971e-01
      -9.42969978e-01 1.07474005e+00 1.50258005e+00 2.71287990e+00
      -2.58911014e-01 -3.27326012e+00 5.03540002e-02 -4.50102997e+00 0.
      0. 1.06325996e+00 -8.95682991e-01 8.23180974e-01 -7.90450990e-01
      -4.08575010e+00 -4.38287020e+00 -1.92479002e+00 9.18579008e-03
      -1.81991994e+00 2.05513000e+00 -4.82773006e-01 2.10245991e+00
      -1.36896002e+00 7.57645011e-01 1.27011001e+00 -2.51114011e-01
      4.07945013e+00 -4.57682991e+00 2.17206001e+00 -1.22603998e+01
      -2.76184008e-02 -1.66569996e+01 8.99489999e-01 -1.64615993e+01
      6.96762025e-01 -1.64069996e+01 -1.03331006e+00 -1.19778004e+01
      -5.09938002e+00 -4.50995016e+00 -1.60449004e+00 2.32696999e-02
      -3.42559993e-01 1.17673004e+00 -1.47110000e-01 1.05053997e+00
      5.09305000e+00 -4.44980001e+00 6.89163029e-01 -1.24034004e+01
      4.93728995e-01 -1.22771997e+01 -8.37418020e-01 -1.23081999e+01</_>
    <_>
      6.22181988e+00 -5.49908018e+00 4.99884987e+00 -7.03540993e+00
      5.99554014e+00 -7.31180000e+00 3.44628000e+00 -7.66804981e+00
      2.87593007e+00 -5.59772015e+00 4.33751011e+00 -6.81775999e+00
      3.13948989e+00 -5.57883978e+00 1.81938004e+00 -6.56744003e+00
      1.47244000e+00 -7.96651983e+00 2.28434992e+00 -7.74288988e+00
      -2.39867996e-02 -1.04249001e+01 -9.18533027e-01 -1.28484001e+01
      -1.81110001e+00 -1.27549000e+01 -3.44674993e+00 -1.25739002e+01
      -4.83877993e+00 -1.23257999e+01 -7.31280994e+00 -1.21138000e+01
      -8.68863010e+00 -9.54638958e+00 1.32983997e-01 -2.38841996e-01
      -3.98123002e+00 -5.68274021e+00 -3.78239012e+00 -1.01970997e+01
      -2.50726008e+00 -1.14719000e+01 -3.36913988e-02 -1.29506998e+01
      7.45728016e-01 -1.16945000e+01 -2.64647990e-01 -1.01855001e+01
      9.65880990e-01 -7.71309996e+00 -1.01608001e-01 -5.52104998e+00
      -3.24556994e+00 -2.65794992e+00 3.39662004e+00 -8.41511011e-01
      4.45960999e+00 6.17133975e-01 4.47380018e+00 -2.75947988e-01
      5.57986021e+00 1.87683001e-03 6.84067011e-01 1.43155003e+00
      2.60167003e+00 2.02744007e-01 4.43657017e+00 1.28610003e+00
      5.15211010e+00 3.10698986e-01 5.88385010e+00 1.65459001e+00 0. 0.
      5.92705011e-01 -1.91970003e+00 2.06119990e+00 -1.84774005e+00
      3.67653990e+00 1.05765998e-01 1.95169997e+00 3.26909995e+00
      4.33806986e-01 3.19359994e+00 -2.78869987e-01 -3.65067013e-02
      2.21359000e-01 -7.78941989e-01 1.79222000e+00 -7.49336004e-01 0.
      0. 1.58035004e+00 4.40985012e+00 4.90416996e-02 3.24885011e+00
      -2.61834002e+00 -3.09323001e+00 1.01665998e+00 4.65105009e+00
      2.57620001e+00 6.11206007e+00 3.16472006e+00 4.82958984e+00
      2.51796007e+00 6.11619997e+00 4.16226006e+00 7.08655977e+00
      8.36458015e+00 4.35718012e+00 5.45412016e+00 3.72668004e+00
      2.62479997e+00 3.35039997e+00 2.09353995e+00 3.25441003e+00
      1.55517995e+00 3.25730991e+00 -1.17110002e+00 2.25089002e+00
      4.38988000e-01 -5.81223011e-01 1.43785000e+00 5.47594023e+00
      3.16048002e+00 5.46672010e+00 2.51729012e+00 6.70394993e+00
      6.35520983e+00 5.48012018e+00 2.73276997e+00 7.99926996e-01
      3.37596011e+00 -4.37301993e-01 2.74158001e+00 7.92281985e-01</_>
    <_>
      -1.74179003e-01 3.18600988e+00 1.50813997e+00 2.14141989e+00
      1.95965004e+00 1.08861005e+00 1.24176002e+00 1.28954995e+00
      1.75714004e+00 1.35338998e+00 1.03498995e+00 2.50397008e-02
      1.54346001e+00 9.43665028e-01 1.96342003e+00 5.67169011e-01
      2.29278994e+00 6.63146973e-02 2.51588011e+00 -5.24078012e-01
      2.59490991e+00 1.39099002e-01 2.46945000e+00 -1.63296998e+00
      9.90112007e-01 -2.06659007e+00 1.81137002e+00 -2.45133996e+00
      1.34717000e+00 -2.72246003e+00 8.67278993e-01 -2.95867991e+00
      3.71796012e-01 -3.16009998e+00 7.28420019e-01 -9.70448017e-01
      5.76560974e-01 -1.33152997e+00 -1.76180005e+00 -1.66937995e+00
      -1.52065003e+00 -8.07898998e-01 -1.26897001e+00 -2.34800005e+00
      1.95831001e-01 -1.64883006e+00 2.88527995e-01 -2.08849001e+00
      -7.87781000e-01 -2.48778009e+00 -4.94414985e-01 -1.60283005e+00
      -1.25458002e-01 -1.77208996e+00 -7.59414971e-01 -1.19868004e+00
      7.92267025e-01 1.46247998e-01 1.05399001e+00 -9.49898005e-01
      1.35968006e+00 -7.91817009e-01 1.38290000e+00 -2.37366006e-01
      1.57112002e+00 7.88695991e-01 1.72498000e+00 5.85677981e-01
      1.79953003e+00 3.26247990e-01 6.27669990e-01 9.33379978e-02 0. 0.
      -1.26628995e+00 -1.46796000e+00 7.99788982e-02 -1.76359999e+00
      4.05272990e-01 4.95712012e-01 -9.23111022e-01 -4.14229989e-01
      1.80861995e-01 -1.69937000e-01 -3.59070003e-01 -4.12216008e-01
      -4.07745004e-01 -1.98242998e+00 -2.65228003e-01 -2.25328994e+00 0.
      0. -1.24354994e+00 2.99872994e-01 -1.81777999e-01 -6.67442024e-01
      1.88619995e+00 1.57869995e+00 1.79440999e+00 1.22365999e+00
      1.82273996e+00 8.80692005e-01 1.95969999e+00 -5.43502986e-01
      2.04340005e+00 4.35638011e-01 3.54285002e+00 1.25075996e-01
      2.67309999e+00 -3.50494012e-02 2.73051000e+00 -9.09012020e-01
      2.68601990e+00 6.82205021e-01 2.57663989e+00 9.26041007e-01
      2.44980001e+00 1.16205001e+00 2.21240997e+00 1.41127002e+00
      1.94089997e+00 1.45679998e+00 2.10143995e+00 1.00574005e+00
      2.23786998e+00 7.94983029e-01 2.32988000e+00 5.43273985e-01
      2.61841011e+00 8.69140998e-02 2.29550004e+00 -6.85745001e-01
      9.82299984e-01 -4.17145014e-01 2.10143995e+00 1.00574005e+00</_>
    <_>
      3.32155991e+00 5.84833002e+00 3.47841001e+00 5.39319992e+00
      3.65690994e+00 6.07650995e+00 3.84136009e+00 6.74431992e+00
      3.90528011e+00 6.25356007e+00 3.88007998e+00 6.91200018e+00
      3.60576010e+00 6.46912003e+00 3.18123007e+00 4.94506979e+00
      1.44414997e+00 2.42342997e+00 1.98787999e+00 1.04342997e+00
      -8.46466005e-01 1.10385001e+00 -2.45748997e+00 2.39423990e+00
      -2.87894011e+00 2.65900993e+00 -3.14760995e+00 4.18364000e+00
      -3.47147012e+00 3.46231008e+00 -3.74271011e+00 3.89133000e+00
      -2.79543996e+00 5.42402983e+00 2.74096996e-01 -7.05132008e-01
      -1.40803003e+00 -3.96267009e+00 -3.04367995e+00 -6.28544998e+00
      -2.37391996e+00 -8.81832981e+00 -2.63364005e+00 -7.96550989e+00
      3.83133006e+00 -7.33660984e+00 4.48475981e+00 -8.58567047e+00
      3.05240989e+00 -6.38092995e+00 1.74532998e+00 -3.12239003e+00
      -1.75320005e+00 -1.00673997e+00 1.18949997e+00 1.79977000e+00
      1.25339997e+00 3.92051995e-01 1.33275998e+00 -1.00974000e+00
      1.51378000e+00 -1.47735998e-01 1.96152997e+00 -2.95792013e-01
      1.88303006e+00 7.33138978e-01 6.32781982e-01 1.82428002e+00
      -7.52457023e-01 6.92183971e-01 -9.28786993e-01 6.42288029e-01 0.
      0. 8.17817986e-01 -1.16820002e+00 1.77892995e+00 -1.81057006e-01
      5.88317990e-01 1.90318000e+00 8.32512021e-01 1.96133006e+00
      -1.07124001e-01 9.64653015e-01 7.65137017e-01 1.42370999e+00
      -8.03664982e-01 -7.49042988e-01 5.21697998e-02 -2.06258011e+00 0.
      0. 1.43408000e+00 1.09753001e+00 5.41077018e-01 1.26669002e+00
      -6.24316978e+00 7.60180998e+00 -5.62610006e+00 3.00165009e+00
      -2.60692000e+00 -5.87981999e-01 -3.69186014e-01 3.41659993e-01
      5.98891973e-01 2.54622996e-01 2.85352993e+00 3.34447002e+00
      3.92028987e-01 4.32272005e+00 2.25623012e+00 1.23484001e+01
      2.65242004e+00 1.58731003e+01 5.31647027e-01 1.60652008e+01
      -1.62006998e+00 1.62453995e+01 -4.97731018e+00 1.42321997e+01
      -4.01376009e+00 8.59934998e+00 -2.30960011e+00 3.83347988e+00
      -9.92736965e-02 4.78812981e+00 8.80692005e-01 4.67013979e+00
      -5.50552011e-01 6.73315001e+00 2.24750996e+00 9.20337963e+00
      1.17202997e-01 9.37403965e+00 -2.04046988e+00 9.56968975e+00</_>
    <_>
      -5.01485014e+00 -2.28014994e+00 -4.97195005e+00 -1.32617998e+00
      -4.92806005e+00 2.02714992e+00 -3.61547995e+00 3.00020003e+00
      -4.55919981e+00 3.90788007e+00 -4.05284977e+00 4.69881010e+00
      -3.29465008e+00 5.32062006e+00 -3.58843994e+00 5.71789980e+00
      -6.18379021e+00 7.00107002e+00 -6.28801012e+00 6.94512987e+00
      -6.50692987e+00 5.36864996e+00 -2.04699993e+00 7.31511021e+00
      9.03716981e-01 8.98849010e+00 2.46390009e+00 6.89899015e+00
      3.88509989e+00 4.73494005e+00 5.27105999e+00 2.56984997e+00
      5.37026978e+00 1.58475006e+00 -3.21195006e+00 -6.65607977e+00
      -2.68690991e+00 -8.33450031e+00 -1.96161997e+00 -9.61900043e+00
      -2.45878005e+00 -9.50992012e+00 6.73798025e-01 -9.24263954e+00
      6.04797006e-01 -9.29757977e+00 2.53539991e+00 -8.34185028e+00
      3.33221006e+00 -7.22491980e+00 4.08559990e+00 -5.82697010e+00
      4.60100985e+00 -2.91868997e+00 -1.32903993e-01 2.14851999e+00
      -1.85500994e-01 2.74682999e+00 -1.84723005e-01 2.11172009e+00
      -1.41939998e+00 1.49374998e+00 1.47678006e+00 8.08771992e+00
      -6.25487983e-01 6.96820021e+00 -2.67438006e+00 7.04991007e+00
      -2.28354001e+00 9.39006042e+00 -3.12711000e+00 9.27737045e+00 0.
      0. -7.87056029e-01 -3.88649011e+00 2.14115000e+00 -3.87213993e+00
      1.37594998e+00 4.63104015e-03 8.45070004e-01 2.49442005e+00
      -8.66874993e-01 3.73267007e+00 -1.46363997e+00 1.19253004e+00
      -9.09453988e-01 -2.70797992e+00 8.17505002e-01 -2.64026999e+00 0.
      0. 1.95509005e+00 3.76156998e+00 -9.89226997e-01 4.91114998e+00
      5.92804015e-01 1.18022003e+01 -1.26652002e+00 1.14308004e+01
      -1.87836003e+00 1.00193005e+01 -2.76320994e-01 1.13535995e+01
      1.31622002e-01 1.24946003e+01 -1.65532994e+00 1.14547005e+01
      -2.21304011e+00 1.06093998e+01 -1.67477000e+00 1.21246004e+01
      -2.31348991e+00 1.46819000e+01 -1.55552995e+00 1.59211998e+01
      -3.17670012e+00 1.34218998e+01 -1.26777995e+00 1.08662004e+01
      2.03874993e+00 1.18266001e+01 -1.90880001e+00 1.16766996e+01
      -2.87551999e-01 1.17413998e+01 1.18377998e-01 1.29528999e+01
      -3.71241999e+00 1.18185997e+01 -1.11607003e+00 1.29347000e+01
      -1.55727005e+00 1.41569004e+01 -3.16139007e+00 1.28929996e+01</_>
    <_>
      -1.36784995e+00 3.93848991e+00 2.49760002e-01 3.77173990e-01
      6.14449024e-01 -2.05770993e+00 -2.92468995e-01 -3.35060000e+00
      -1.14541996e+00 -5.87294006e+00 -2.13100004e+00 -6.04231024e+00
      -8.58916998e-01 -3.75722003e+00 -7.78526008e-01 -2.76566005e+00
      -8.39905024e-01 -6.21978998e-01 -9.18914974e-01 3.20221007e-01
      1.84906006e-01 1.46697998e-01 1.29430997e+00 -1.20028996e+00
      1.14391994e+00 -2.55227995e+00 9.10645008e-01 -2.64303994e+00
      -5.96619010e-01 -1.56615996e+00 -1.02129996e+00 1.97671998e+00
      -2.46123999e-01 5.61394978e+00 3.72886993e-02 -2.16321993e+00
      -7.05794990e-02 -2.30274010e+00 -1.35969996e+00 -1.34368002e+00
      -1.29837000e+00 -2.74502993e+00 -3.71256995e+00 -1.84749997e+00
      2.24702001e+00 -5.85071981e-01 1.12282002e+00 -3.25344992e+00
      2.33548999e+00 -3.39095998e+00 2.32793999e+00 -2.38169003e+00
      1.25750995e+00 -2.56760001e+00 -1.69845998e-01 3.03137994e+00
      -1.15857995e+00 1.78264999e+00 -9.35851991e-01 5.94871998e-01
      -1.91602004e+00 -6.53060973e-01 -1.49268997e+00 -6.50088978e+00
      -4.36583996e-01 -2.91514993e+00 -4.19250011e-01 -3.00851011e+00
      -4.27581996e-01 -3.10424995e+00 -4.36751992e-01 -3.19139004e+00 0.
      0. -1.27117002e+00 -1.61457002e-01 -1.32712996e+00 9.03732002e-01
      -7.98645020e-02 2.06431007e+00 -1.14722002e+00 -2.88024992e-01
      -1.15056002e+00 -1.58867002e-01 -5.85326999e-02 1.55698001e+00
      -9.07592997e-02 2.33269006e-01 1.12491000e+00 1.56487003e-01 0. 0.
      1.24549997e+00 1.59058005e-01 1.23356998e+00 2.87445009e-01
      -6.08653021e+00 -2.82845001e+01 -3.98873997e+00 -2.34624004e+01
      -5.99807978e-01 -1.98064003e+01 6.37526989e-01 -1.98379993e+01
      1.76420999e+00 -1.86800003e+01 6.87275982e+00 -2.33925991e+01
      9.59961033e+00 -2.82059994e+01 7.74079990e+00 -1.37040997e+01
      1.33525002e+00 -5.44353008e+00 7.11975023e-02 -4.19724989e+00
      -2.23248005e+00 -6.62151003e+00 -5.46640015e+00 -1.50972004e+01
      -7.41351986e+00 -2.59909992e+01 -2.12723002e-01 -2.58216000e+01
      1.00755000e+00 -2.58547993e+01 3.46594000e+00 -2.70417004e+01
      1.07798004e+01 -2.80874996e+01 2.22002006e+00 -1.77883995e+00
      -2.38434002e-01 -5.91903985e-01 -3.81370997e+00 -1.87413001e+00</_>
    <_>
      3.37233996e+00 -8.36395025e-01 2.42051005e+00 -5.71358025e-01
      1.41207004e+00 -2.47617006e+00 1.47837996e+00 -3.28193998e+00
      1.43393004e+00 -3.02846003e+00 2.25671005e+00 -3.78173995e+00
      5.60554981e-01 -1.14589000e+00 2.06679010e+00 -1.68099999e+00
      2.28808999e+00 -3.13470006e+00 2.42259002e+00 -4.37343979e+00
      2.61687994e+00 -4.21262980e+00 -4.03595001e-01 -6.14958000e+00
      -1.06558001e+00 -5.59055996e+00 -2.66250992e+00 -4.92132998e+00
      -3.03165007e+00 -4.17387009e+00 -3.35140991e+00 -3.41252995e+00
      -4.75933981e+00 -1.52023005e+00 3.82027006e+00 -4.80609989e+00
      2.18892002e+00 -4.67835999e+00 1.62015998e+00 -5.87487984e+00
      1.03538001e+00 -6.06541014e+00 -7.03018010e-01 -4.13277006e+00
      2.81711006e+00 -4.26293993e+00 2.12378001e+00 -4.35092020e+00
      2.54366994e+00 -3.38227010e+00 8.54218006e-01 -3.61648989e+00
      -7.37182975e-01 -1.82879996e+00 -5.18799003e-04 -1.51593995e+00
      8.01697001e-02 -8.55086982e-01 1.27237999e+00 -1.75200999e-01
      1.37248003e+00 1.55479002e+00 1.09809995e+00 2.24904990e+00
      1.89736998e+00 1.01049995e+00 1.55385005e+00 1.95133996e+00
      2.31856990e+00 8.36044014e-01 1.96516001e+00 1.90707004e+00 0. 0.
      -4.12979007e-01 -9.93317008e-01 1.34723997e+00 3.19366008e-02
      2.08449006e+00 1.86073995e+00 3.01270008e-01 1.86614001e+00
      -1.44646001e+00 1.93467999e+00 -9.81688976e-01 1.32036996e+00
      -1.44008005e+00 3.94100010e-01 -7.60132015e-01 -7.98121989e-01 0.
      0. 3.55498999e-01 2.14724994e+00 -3.12270999e-01 2.25259995e+00
      -5.72151995e+00 -3.30566001e+00 -7.67090023e-01 -7.73437977e-01
      9.88479972e-01 -6.80252016e-01 1.81930995e+00 -1.93655002e+00
      3.70113993e+00 -1.91428995e+00 4.39951992e+00 -2.22378993e+00
      7.31313992e+00 -2.65690994e+00 5.62462997e+00 -2.70474005e+00
      3.86475992e+00 -1.54929996e+00 1.97468996e+00 -4.03777987e-01
      1.18892002e+00 -1.39523005e+00 -1.74039996e+00 -1.28559995e+00
      -4.82758999e+00 -1.08727002e+00 1.05133001e-02 -2.12447000e+00
      1.89531004e+00 -2.20772004e+00 2.66727996e+00 -1.16698003e+00
      8.57129955e+00 -1.45328999e+00 4.84666014e+00 -2.42615007e-02
      1.86414003e+00 -9.27734002e-03 -8.56017973e-03 -1.01288998e+00</_>
    <_>
      9.70116034e-02 1.58850002e+00 1.95840001e+00 -2.91626000e+00
      -6.15131021e-01 -6.43207979e+00 -2.08995008e+00 -9.91672993e+00
      -4.65135002e+00 -1.33851995e+01 -6.13705015e+00 -1.67154999e+01
      -5.38742018e+00 -2.09577999e+01 -4.71436977e+00 -2.29104996e+01
      -4.96692991e+00 -2.47115993e+01 -2.98425007e+00 -2.30363007e+01
      -7.95302987e-01 -2.02222004e+01 2.49510002e+00 -1.52213001e+01
      3.73150992e+00 -1.14356003e+01 1.82679999e+00 -8.94974995e+00
      -1.15770996e+00 -5.44704008e+00 2.52685994e-01 -1.81963003e+00
      2.77947998e+00 1.80918002e+00 -5.47658014e+00 1.60494003e+01
      -8.56307983e+00 1.40867004e+01 -9.53925037e+00 6.72977018e+00
      -6.15622997e+00 -2.73797011e+00 -3.08536005e+00 -5.70738983e+00
      4.51777983e+00 -1.14807997e+01 6.68800020e+00 -1.10327997e+01
      8.56566048e+00 -5.13164997e+00 8.06305981e+00 3.95050001e+00
      4.30776978e+00 8.37561989e+00 -1.37522995e+00 -4.45449018e+00
      -5.96526980e-01 -3.51556993e+00 -9.62616026e-01 -1.51789999e+00
      -1.25147998e+00 -1.70888996e+00 -2.36381993e-01 -3.12573004e+00
      -3.29131991e-01 -4.11694002e+00 -1.58295000e+00 -2.94181991e+00
      -3.80895996e+00 -2.82010007e+00 -3.86864996e+00 -1.53728998e+00 0.
      0. 1.47399995e-02 1.32683003e+00 9.78653014e-01 1.61983001e+00
      8.43384027e-01 -2.60743999e+00 9.41031992e-01 -3.98836994e+00
      1.06702006e+00 -4.23529005e+00 -7.09854007e-01 -1.80241001e+00
      2.97194988e-01 1.82749999e+00 -8.96362007e-01 9.44541991e-01 0. 0.
      -9.88892019e-01 -3.55882001e+00 -8.24280024e-01 -3.80304003e+00
      -7.91927004e+00 -1.93612995e+01 -4.43085015e-01 -1.00716000e+01
      -2.82157993e+00 -4.39397001e+00 -2.98073006e+00 -4.22685003e+00
      -4.14043999e+00 -4.05305004e+00 -6.30530977e+00 -1.15948000e+01
      3.61267000e-01 -2.33113995e+01 -6.92658997e+00 -3.81156998e+01
      -5.61432981e+00 -4.38456001e+01 -3.30096006e+00 -4.50931015e+01
      -1.05133998e+00 -4.30266991e+01 -1.10908997e+00 -3.44249001e+01
      -1.01547003e+01 -1.93255005e+01 -2.69867992e+00 -1.43557997e+01
      -2.80437994e+00 -1.41772003e+01 -4.00266981e+00 -1.40060997e+01
      1.49048996e+00 -2.22856998e+01 -4.58783007e+00 -3.16082993e+01
      -2.31444001e+00 -3.17422009e+01 -2.21623993e+00 -3.08281002e+01</_>
    <_>
      3.68875003e+00 1.62424004e+00 2.26479006e+00 9.54155028e-01
      3.60298991e+00 4.23797995e-01 2.03379989e+00 1.18935001e+00
      1.83377004e+00 2.02398992e+00 1.14738002e-01 1.47720003e+00
      -1.72966003e+00 1.01751995e+00 -7.67349005e-01 -2.07101011e+00
      -1.35547996e+00 -2.20651007e+00 -1.98195004e+00 -2.12961006e+00
      -2.54832006e+00 -1.88132000e+00 -1.70379996e+00 -6.78557977e-02
      -1.99994004e+00 -9.83932018e-01 -3.64822006e+00 9.47036982e-01
      -3.78378010e+00 1.53511000e+00 -2.47713995e+00 2.17336988e+00
      -1.12612998e+00 2.86240005e+00 1.94761002e+00 3.47247988e-01
      2.93532997e-01 -8.04378986e-01 -4.56696004e-02 -3.55120993e+00
      9.00246024e-01 -3.58257008e+00 -9.85015988e-01 -2.38450003e+00
      1.23330998e+00 -2.32947993e+00 7.71744013e-01 -2.21745992e+00
      2.66555995e-01 -7.58422971e-01 -2.05933005e-01 -8.38284016e-01
      -1.98629999e+00 2.23563999e-01 -2.08588000e-02 1.53968000e+00
      3.12347002e-02 -2.84606993e-01 -1.35800004e+00 -7.61177003e-01
      -1.35276997e+00 -1.19089997e+00 4.14458990e-01 1.46168995e+00
      -1.16298997e+00 -1.14776999e-01 -1.34906006e+00 -1.59683001e+00
      -1.59177995e+00 -1.54161000e+00 -1.86078000e+00 -4.26787995e-02 0.
      0. -2.00637996e-01 -1.26801002e+00 9.30701971e-01 -1.21510994e+00
      5.61233997e-01 1.41194999e+00 -5.68512022e-01 1.33525002e+00
      -1.69982004e+00 1.28234994e+00 -6.31179988e-01 1.37878001e+00
      -2.22707009e+00 -1.33388996e+00 -1.09414995e+00 -1.30475998e+00 0.
      0. -1.24726999e+00 2.71081996e+00 -2.38019991e+00 2.68171000e+00
      -3.41390991e+00 -7.45437980e-01 -2.28741002e+00 -6.21185005e-01
      -1.15770996e+00 -5.44479012e-01 -2.78525996e+00 -6.78833008e-01
      -1.60799003e+00 -5.98937988e-01 -1.91391003e+00 -6.67496026e-01
      -7.99926996e-01 -7.11349010e-01 -1.93822002e+00 3.94104004e-01
      -1.64635003e+00 3.18343997e-01 -1.36002004e+00 -1.08385003e+00
      -2.54375005e+00 -1.06861997e+00 -2.26640010e+00 -9.30374026e-01
      -2.13667011e+00 -7.30391979e-01 -1.14640999e+00 -7.10968018e-01
      -2.77556992e+00 -8.21533024e-01 -1.59666002e+00 -7.65442014e-01
      -6.53991997e-01 -7.49221981e-01 -1.59508002e+00 -7.89229989e-01
      -1.37935996e+00 -7.98476994e-01 -1.14476001e+00 -7.34740973e-01</_>
    <_>
      -6.03507996e-01 -2.83942997e-01 -8.41875017e-01 4.56505001e-01
      -1.17319000e+00 6.58721998e-02 -1.48975003e+00 -3.34212989e-01
      -1.72371995e+00 1.59361005e+00 -9.46502984e-01 2.41816998e+00
      -2.45654011e+00 4.63483000e+00 -1.88411999e+00 3.39583993e+00
      -2.35354996e+00 4.71859980e+00 -2.88544011e+00 3.90810990e+00
      -3.20634007e+00 4.38173008e+00 -3.45118999e+00 3.76188993e+00
      -3.54568005e+00 3.15016007e+00 -4.62493992e+00 2.60062003e+00
      -3.25757003e+00 4.19035006e+00 -1.91466999e+00 4.62617016e+00
      -5.27405024e-01 5.03388977e+00 3.96483988e-01 -2.25921988e+00
      2.52380013e-01 -3.04676008e+00 -1.26503006e-01 -3.97531009e+00
      7.50275016e-01 -1.65063000e+00 4.24499989e-01 -4.60678011e-01
      -1.27258003e-02 9.45285976e-01 -1.52979004e+00 -9.51523006e-01
      -1.82243001e+00 -6.61769986e-01 -2.20498991e+00 -4.80755001e-01
      -2.59142995e+00 -5.66771984e-01 1.16272002e-01 5.93742013e-01
      -1.17306995e+00 3.72626990e-01 -1.27321994e+00 1.23254001e+00
      -2.57189989e+00 9.96635020e-01 1.25632000e+00 5.01524019e+00
      -1.17996000e-01 3.96903992e+00 -2.59351993e+00 4.14549017e+00
      -5.04622984e+00 4.39042997e+00 -5.12642002e+00 5.67301989e+00 0.
      0. -1.36942005e+00 -1.99070001e+00 -4.74608988e-01 -1.93344998e+00
      -1.73872006e+00 1.52437997e+00 -3.32138002e-01 2.42565989e+00
      -1.10648997e-01 2.28484011e+00 7.03751028e-01 7.22000003e-01
      -7.39883006e-01 -2.37023997e+00 -9.76119995e-01 -2.22004008e+00 0.
      0. 1.40295005e+00 2.01082993e+00 -5.72861016e-01 3.14273000e+00
      -9.86945987e-01 7.82669020e+00 1.97113007e-01 1.03085003e+01
      -7.48291016e-02 8.20460987e+00 -2.58385992e+00 8.36095047e+00
      -5.01778984e+00 8.63541985e+00 -4.06755018e+00 9.76467991e+00
      -2.28292990e+00 6.16663980e+00 -4.48090982e+00 4.91427994e+00
      -5.49148989e+00 3.65750003e+00 -3.03875995e+00 3.41260004e+00
      -1.68355000e+00 3.28078008e+00 9.42946970e-01 5.40941000e+00
      -1.01209998e+00 9.03281975e+00 -1.78069994e-01 8.04220963e+00
      -2.66831994e+00 8.22805977e+00 -3.98599005e+00 8.41893005e+00
      -2.17557001e+00 6.13985014e+00 -4.09813023e+00 6.10985994e+00
      -2.72640991e+00 7.05408001e+00 -2.36129999e-01 6.86822987e+00</_>
    <_>
      2.47970009e+00 1.13790998e+01 2.47969007e+00 1.13790998e+01
      3.52075005e+00 1.13430004e+01 2.44356990e+00 1.03381004e+01
      2.47971010e+00 1.13792000e+01 1.40252995e+00 1.03743000e+01
      2.44355989e+00 1.03381004e+01 2.29898000e+00 6.17389011e+00
      1.22178996e+00 5.16904020e+00 1.80739999e-01 5.20520020e+00
      -8.24172974e-01 6.28239012e+00 -7.51877010e-01 8.36446953e+00
      3.25302005e-01 9.36937046e+00 3.61449987e-01 1.04104004e+01
      3.61420006e-01 1.04104004e+01 1.40250003e+00 1.03741999e+01
      1.40246999e+00 1.03741999e+01 2.19052005e+00 3.05082011e+00
      2.19051003e+00 3.05081010e+00 1.14947999e+00 3.08697009e+00
      1.14947999e+00 3.08696008e+00 1.14945996e+00 3.08697009e+00
      -8.60320985e-01 5.24133015e+00 1.44592002e-01 4.16415024e+00
      1.08414002e-01 3.12312007e+00 1.18559003e+00 4.12799978e+00
      2.26279998e+00 5.13290024e+00 1.14945996e+00 3.08697009e+00
      1.14945996e+00 3.08697009e+00 2.19054008e+00 3.05082011e+00
      2.19052005e+00 3.05081010e+00 1.22177005e+00 5.16904020e+00
      1.22177005e+00 5.16905022e+00 1.18563998e+00 4.12798977e+00
      1.18561995e+00 4.12800980e+00 1.18563998e+00 4.12800980e+00 0. 0.
      -2.53021002e-01 -7.28728008e+00 1.90134001e+00 -5.27750015e+00
      1.44600004e-01 4.16415024e+00 7.22656026e-02 2.08207989e+00
      -1.04104996e+00 3.61557007e-02 1.08459003e-01 3.12310004e+00
      -1.22183001e+00 -5.16905022e+00 8.24141979e-01 -6.28238010e+00 0.
      0. 2.11821008e+00 9.68750000e-01 1.07716000e+00 1.00488997e+00
      -8.24158013e-01 6.28239012e+00 2.26285005e+00 5.13290024e+00
      1.18561006e+00 4.12801981e+00 2.22665000e+00 4.09183979e+00
      2.19051003e+00 3.05082989e+00 2.22665000e+00 4.09182978e+00
      2.26279998e+00 5.13287020e+00 2.26283002e+00 5.13289022e+00
      2.26279998e+00 5.13290024e+00 2.29896998e+00 6.17395020e+00
      2.29896998e+00 6.17395020e+00 1.25790000e+00 6.21005011e+00
      1.80732995e-01 5.20520020e+00 2.26279998e+00 5.13290024e+00
      2.22665000e+00 4.09182978e+00 2.22665000e+00 4.09185982e+00
      2.26282001e+00 5.13291979e+00 1.25792003e+00 6.21007013e+00
      2.26282001e+00 5.13289022e+00 2.29894996e+00 6.17397022e+00</_>
    <_>
      -4.88082981e+00 -1.13050997e+00 -4.10304022e+00 -3.77127004e+00
      -5.31414986e+00 -6.34416008e+00 -7.49726009e+00 -7.86206007e+00
      -8.57213020e+00 -8.38500977e+00 -7.52647018e+00 -9.97002029e+00
      -6.42333984e+00 -1.25967999e+01 -4.16421986e+00 -1.43029003e+01
      -1.70544004e+00 -1.51245003e+01 8.42606008e-01 -1.50620003e+01
      2.38609004e+00 -1.21250000e+01 4.92829990e+00 -1.03420000e+01
      5.32797003e+00 -9.59235001e+00 4.64208984e+00 -8.87170029e+00
      1.93801999e+00 -6.08872986e+00 1.30057001e+00 -2.35248995e+00
      4.67931986e+00 2.13753000e-01 8.74442980e-02 1.28149996e+01
      4.60677004e+00 1.55759001e+01 7.12530994e+00 1.86520004e+01
      8.39449024e+00 1.57496004e+01 1.25923996e+01 1.08172998e+01
      -8.38243008e+00 1.06686001e+01 -5.82261992e+00 1.57222004e+01
      -3.37229991e+00 1.78285007e+01 -1.12241006e+00 1.59607000e+01
      2.91669011e+00 1.31406002e+01 1.14479005e+00 3.82663995e-01
      2.08696008e+00 1.65318000e+00 9.55016971e-01 1.95134997e+00
      8.74221981e-01 3.26714993e+00 2.94815004e-01 2.75283992e-01
      4.44884986e-01 4.03046012e-01 6.08276010e-01 5.36575019e-01
      -2.18780994e-01 6.03164971e-01 -5.51605001e-02 6.26296997e-01 0.
      0. -7.09648013e-01 2.01371002e+00 -1.51935995e+00 1.13161004e+00
      -2.45648003e+00 -6.19513988e-01 -6.89773977e-01 -1.73926997e+00
      1.13148999e+00 -8.75846982e-01 1.40907001e+00 -3.33434999e-01
      7.05520988e-01 6.47861004e-01 -1.10854006e+00 8.22597980e-01 0. 0.
      -2.28726006e+00 -9.53705013e-01 5.17807007e-01 -2.19106007e+00
      -1.66898000e+00 -1.03816004e+01 1.94865000e+00 -1.34431005e+00
      -7.78580010e-01 8.03817987e-01 3.88794005e-01 8.99596989e-01
      5.84778011e-01 9.20898020e-01 -1.36539996e+00 -1.86303997e+00
      5.03051996e-01 -1.19074001e+01 -2.20102000e+00 -2.39372005e+01
      -6.11481011e-01 -3.01033993e+01 -8.48861992e-01 -3.11933994e+01
      -9.97421026e-01 -3.02696991e+01 2.07927990e+00 -2.44601994e+01
      -2.57977009e+00 -1.03037996e+01 -1.95340002e+00 -1.01813996e+00
      -7.74582028e-01 -9.49005008e-01 4.08538997e-01 -1.94463003e+00
      3.48041010e+00 -1.10319004e+01 -3.00963998e-01 -2.43115997e+01
      -5.30776978e-01 -2.53824997e+01 -6.92306995e-01 -2.54836998e+01</_>
    <_>
      5.08041009e-02 3.65818000e+00 1.27019000e+00 3.64126992e+00
      4.91143990e+00 2.37103009e+00 6.11390018e+00 1.13471997e+00
      3.69204998e+00 2.38799000e+00 1.23632002e+00 1.20247996e+00
      1.21935999e+00 -1.69066992e-02 -2.48965001e+00 -3.62430000e+00
      -2.50653005e+00 -4.84365988e+00 -2.47270012e+00 -2.40488005e+00
      -2.42182994e+00 1.25330997e+00 -1.18554997e+00 2.45574999e+00
      -2.38796997e+00 3.69209003e+00 -4.82674980e+00 3.72595000e+00
      -3.62430000e+00 2.48960996e+00 -2.42188001e+00 1.25327003e+00
      -1.69373006e-02 -1.21939003e+00 2.40493011e+00 -2.47267008e+00
      -6.77414015e-02 -4.87760019e+00 -1.32102001e+00 -7.29943991e+00
      1.08389997e+00 -9.77208996e+00 2.28635001e+00 -1.10084000e+01
      -3.75980997e+00 -7.26557016e+00 -3.75980997e+00 -7.26557016e+00
      -3.72588992e+00 -4.82677984e+00 -2.50650001e+00 -4.84370995e+00
      -4.89452982e+00 -1.15165997e+00 -3.38745005e-02 -2.43879008e+00
      1.18552005e+00 -2.45572996e+00 1.18552995e+00 -2.45571995e+00
      1.18550003e+00 -2.45569992e+00 3.67511010e+00 1.16858995e+00
      2.47266006e+00 2.40492010e+00 2.43880010e+00 -3.38898003e-02
      1.69066992e-02 1.21939003e+00 -1.21935999e+00 1.69524997e-02 0. 0.
      -1.25328004e+00 -2.42184997e+00 -1.25327003e+00 -2.42185998e+00
      -1.69449002e-02 -1.21939003e+00 -1.21939003e+00 1.69373006e-02
      -1.20246005e+00 1.23633003e+00 0. -7.62938998e-06 -3.38593014e-02
      -2.43879008e+00 1.18554997e+00 -2.45571995e+00 0. 0.
      1.69373006e-02 1.21938002e+00 1.69373006e-02 1.21939003e+00
      1.97304993e+01 1.55811996e+01 1.23294001e+01 9.58578014e+00
      6.14776993e+00 3.57352996e+00 5.08118011e-02 3.65819001e+00
      -6.06310987e+00 2.52349997e+00 -1.20585003e+01 9.92453003e+00
      -1.80876007e+01 1.48867998e+01 -1.33795004e+01 2.62508011e+00
      -6.18169022e+00 -6.01224995e+00 -1.01654001e-01 -7.31636000e+00
      6.02922010e+00 -4.96226978e+00 1.34471998e+01 2.25253010e+00
      1.96966000e+01 1.31423998e+01 6.19856024e+00 7.23171997e+00
      1.30409002e+00 6.08006001e+00 -4.79291010e+00 6.16473007e+00
      -1.93239994e+01 1.36843004e+01 -4.94534016e+00 -4.80981016e+00
      -8.47015008e-02 -6.09694004e+00 4.79288006e+00 -6.16469002e+00</_>
    <_>
      6.41745996e+00 -3.05228996e+00 6.27637005e+00 -4.51939011e+00
      4.64113998e+00 -5.98083019e+00 5.69344997e+00 -5.92000008e+00
      3.82214999e+00 -5.90407991e+00 5.81780005e+00 -4.21120024e+00
      6.12124014e+00 -2.28347993e+00 4.79716015e+00 -1.77246004e-01
      1.97211003e+00 -1.81839001e+00 -2.29922009e+00 -3.26846004e+00
      -4.99326992e+00 -4.17190981e+00 -4.66381979e+00 -4.71978998e+00
      -5.48269987e+00 -4.99519014e+00 -4.58239985e+00 -5.01773024e+00
      -6.24328995e+00 -5.06010008e+00 -6.57580996e+00 -2.19283009e+00
      -5.36771011e+00 -7.00294018e-01 1.26368999e+00 -2.11041999e+00
      -6.26419008e-01 -7.07496023e+00 -1.56784999e+00 -8.20897007e+00
      -2.60917997e+00 -9.65349960e+00 -3.72655010e+00 -8.60161972e+00
      4.02069002e-01 -9.82104969e+00 2.24518991e+00 -1.22313004e+01
      1.05202997e+00 -9.38735008e+00 -5.96924014e-02 -6.84133005e+00
      -5.17904997e+00 -3.41965008e+00 8.52661014e-01 -9.12383974e-01
      2.23401999e+00 -3.42925996e-01 8.67416024e-01 -1.29998004e+00
      8.83895993e-01 -8.37356985e-01 4.53658009e+00 -9.81445014e-02
      2.69661999e+00 -3.59405994e-01 7.92114019e-01 -5.64406991e-01
      -1.13344002e+00 -4.67254996e-01 -4.42804003e+00 -4.16503996e-01 0.
      0. -4.76204008e-01 -2.41328001e+00 1.64921999e+00 -2.24153996e+00
      8.48052979e-01 2.04575002e-01 3.02124000e-03 2.75695992e+00
      -6.92939997e-01 2.63579988e+00 5.60500979e-01 1.48177996e-01
      1.33668995e+00 -2.28752995e+00 2.04520011e+00 -2.34766006e+00 0.
      0. 1.88475001e+00 2.76606011e+00 1.22681999e+00 1.39670002e+00
      9.84969974e-01 1.73210001e+00 1.76678002e+00 7.90512025e-01
      1.14989996e+00 9.29840028e-01 -6.98424995e-01 7.89505005e-01
      -1.07921004e+00 -5.48523009e-01 -4.59289998e-01 2.06908989e+00
      -1.16913998e+00 2.22504005e-01 -6.25442982e-01 5.68867016e+00
      1.28174003e-03 6.98299980e+00 4.88922000e-01 6.95612001e+00
      8.61359000e-01 8.41495991e+00 1.56827998e+00 7.15245008e+00
      6.88453972e-01 3.20526004e+00 1.17923999e+00 5.06882012e-01
      -6.22695982e-01 -1.00258005e+00 3.19213986e-01 -9.25095022e-01
      -2.35130000e+00 1.68279004e+00 7.03888014e-02 6.16200018e+00
      -8.71490002e-01 6.08449984e+00 9.16396976e-01 6.22069979e+00</_>
    <_>
      5.18323994e+00 -1.88045006e+01 6.38152981e+00 -2.26357002e+01
      6.38832998e+00 -2.64298992e+01 6.10606003e+00 -2.92094002e+01
      5.71637011e+00 -3.50737991e+01 6.25378990e+00 -4.28865013e+01
      4.35674000e+00 -4.74080009e+01 2.28343010e+00 -5.37349014e+01
      -3.54462004e+00 -5.42713013e+01 -8.39863968e+00 -5.19505997e+01
      -1.19856997e+01 -4.57044983e+01 -1.33275003e+01 -3.69734993e+01
      -1.23615999e+01 -2.80300007e+01 -1.10621004e+01 -2.21797009e+01
      -1.16490002e+01 -1.73976002e+01 -9.82186985e+00 -1.46226997e+01
      -7.75854015e+00 -1.28184004e+01 -1.48187995e+00 7.82361984e+00
      4.03517008e+00 1.20424004e+01 6.98620987e+00 1.88554001e+01
      5.73088980e+00 2.18637009e+01 9.23657990e+00 1.73362999e+01
      -8.44758987e+00 1.21303997e+01 -5.22234011e+00 1.49012003e+01
      -4.13831997e+00 1.40574999e+01 -7.03476012e-01 9.76821995e+00
      1.74442995e+00 1.02032003e+01 2.09563994e+00 1.10951004e+01
      9.53414977e-01 1.21920004e+01 1.92920005e+00 1.34350004e+01
      1.82396996e+00 1.45783997e+01 3.13980013e-01 8.20557976e+00
      1.81730998e+00 7.05803013e+00 1.50603997e-02 7.88452005e+00
      3.55102986e-01 8.06258011e+00 -2.46857002e-01 7.16154003e+00 0. 0.
      1.55373001e+00 -1.69498003e+00 2.75409007e+00 4.49180990e-01
      2.76452994e+00 7.39682007e+00 4.01473999e-01 6.04017019e+00
      -7.94417977e-01 3.84747005e+00 -2.56439000e-01 7.26551008e+00
      -1.68009996e+00 -8.04580986e-01 7.45392025e-01 -1.72047997e+00 0.
      0. 1.45975995e+00 3.95711994e+00 1.15355998e-01 4.97252989e+00
      5.80869007e+00 -1.86140995e+01 7.37356997e+00 -1.67644000e+00
      4.09653997e+00 1.73283005e+00 1.30382001e+00 1.47581005e+00
      -4.30175990e-01 1.56078994e+00 -5.37265015e+00 -4.34526014e+00
      -1.04556000e+00 -2.09852009e+01 -3.94780993e+00 -3.41743011e+01
      1.47005999e+00 -3.98115997e+01 3.24564004e+00 -3.87536011e+01
      6.09137011e+00 -3.85405998e+01 9.93486977e+00 -3.25400009e+01
      6.40663004e+00 -1.75177994e+01 2.97601008e+00 3.12528992e+00
      1.25988996e+00 3.01620007e+00 -4.14214998e-01 1.91867006e+00
      -7.55005002e-01 -1.88269005e+01 1.43127000e+00 -3.77953987e+01
      4.29732990e+00 -3.88664017e+01 6.05307007e+00 -3.86558990e+01</_>
    <_>
      -4.93464994e+00 -4.34699011e+00 -4.97264004e+00 -2.69830990e+00
      -3.88461995e+00 -1.04738998e+00 -2.72410011e+00 -4.66003001e-01
      -1.49080002e+00 9.98687968e-02 -1.16390002e+00 5.80688000e-01
      1.43551004e+00 9.94231999e-01 3.05700994e+00 1.30234003e+00
      3.70354009e+00 1.41457999e+00 5.46388006e+00 2.94189006e-01
      6.06830978e+00 -1.01010001e+00 4.48031998e+00 -2.47919989e+00
      4.85802984e+00 -4.02603006e+00 5.07596016e+00 -5.65050983e+00
      4.16901016e+00 -7.31334019e+00 2.13689995e+00 -7.94245005e+00
      2.19348001e+00 -9.60859013e+00 -2.52600002e+00 -2.57294989e+00
      -1.12193000e+00 -2.77812004e+00 -7.04445004e-01 -2.83616996e+00
      8.17299008e-01 -2.78443003e+00 2.31796002e+00 -2.64306998e+00
      -1.20796001e+00 -4.85257006e+00 3.00628990e-01 -2.82006001e+00
      1.86069000e+00 -3.89310002e+00 1.21973002e+00 -2.75267005e+00
      5.19348025e-01 -2.52357006e+00 5.75729012e-01 -2.23260999e+00
      5.81497014e-01 -1.87109005e+00 1.64049995e+00 -1.49182999e+00
      1.64539003e+00 -2.16613007e+00 1.05505002e+00 3.18892986e-01
      2.39545989e+00 -6.71280026e-01 1.59240997e+00 -6.08260989e-01
      2.91814995e+00 -6.35437012e-01 2.10130000e+00 -6.99356019e-01 0.
      0. 2.02125996e-01 4.14993000e+00 5.26633978e-01 3.10713005e+00
      -1.52770996e-01 -2.05865002e+00 1.62697005e+00 1.45644993e-01
      1.31959999e+00 1.53266996e-01 1.84325993e-01 -9.93377984e-01
      1.47759998e+00 3.12140989e+00 7.13424981e-01 4.16731024e+00 0. 0.
      7.96294987e-01 1.35468006e-01 1.56052005e+00 -9.10431027e-01
      5.26421010e-01 3.11314011e+00 1.98127997e+00 1.94620001e+00
      3.38071990e+00 8.13507020e-01 3.61286998e+00 8.93616021e-01
      4.93829012e+00 -1.87378004e-01 4.22388983e+00 9.86679018e-01
      2.50924993e+00 2.18094993e+00 4.21225023e+00 1.32954001e+00
      4.92078018e+00 1.38977003e+00 4.64979982e+00 2.45244002e+00
      3.32650995e+00 2.40745997e+00 1.95218003e+00 2.27039003e+00
      1.72338998e+00 3.15385008e+00 3.37214994e+00 1.06613004e+00
      4.69512987e+00 5.72815016e-02 4.94772005e+00 6.58721998e-02
      1.31133997e+00 1.10442996e+00 4.93032980e+00 4.72107008e-02
      4.67738008e+00 1.11049998e+00 3.35471010e+00 1.04746997e+00</_>
    <_>
      -7.99769998e-01 1.53868997e+00 6.25070989e-01 2.12859996e-02
      2.03262997e+00 -1.49523997e+00 1.03276002e+00 -5.01419008e-01
      1.17394996e+00 -8.03070009e-01 1.17444003e+00 -2.38045001e+00
      2.35172009e+00 -1.52829003e+00 2.23157001e+00 -6.20971978e-01
      7.53386974e-01 -8.95080984e-01 4.37622011e-01 -1.14821994e+00
      1.09633997e-01 -1.29681003e+00 -2.74017006e-01 -2.57799006e+00
      -5.99976003e-01 -2.50994992e+00 -9.03594971e-01 -2.33905005e+00
      -1.16101003e+00 -2.10973001e+00 -1.40030003e+00 -1.86395001e+00
      -1.62145996e+00 -1.60175002e+00 6.88782036e-02 3.43295991e-01
      -2.07602993e-01 -8.73848021e-01 -2.88987994e+00 -9.58739996e-01
      -3.06479001e+00 -1.16682005e+00 -3.23212004e+00 -2.63199997e+00
      2.45299995e-01 -1.71079004e+00 -4.44030995e-03 -1.85451996e+00
      -2.29523003e-01 -2.02549005e+00 -3.53606999e-01 -1.02267003e+00
      -3.57452005e-01 -4.30984013e-02 -1.88782001e+00 -4.96616006e-01
      -4.75585997e-01 5.52039981e-01 -3.70162994e-01 -8.31184030e-01
      -1.86950997e-01 2.51845986e-01 -1.08231997e+00 3.73840004e-01
      7.06939995e-02 2.04529002e-01 -2.25371998e-02 7.04040974e-02
      -1.65985003e-01 -2.65197996e-02 -3.08593988e-01 -1.06201001e-01 0.
      0. -1.43062997e+00 -1.24710000e+00 -3.37662011e-01 -1.40480006e+00
      -3.39203000e-01 8.57361019e-01 -1.44193006e+00 -2.41172999e-01
      -6.77718967e-02 -1.44020006e-01 -8.12622011e-01 3.95264000e-01
      -1.05790997e+00 -8.92723024e-01 4.33043987e-02 -1.05949998e+00 0.
      0. 1.68075994e-01 6.97403029e-02 -9.59258974e-01 -1.00159001e+00
      -6.23076975e-01 1.95267007e-01 3.54133993e-01 -1.08344996e+00
      1.50589004e-01 -1.16878998e+00 1.29543996e+00 -1.32903004e+00
      -5.08423001e-02 -1.53519005e-01 1.06336999e+00 -4.07608002e-01
      1.02508998e+00 -6.57059014e-01 1.22545004e+00 -1.87158000e+00
      1.43886006e+00 -1.76075995e+00 1.56592000e+00 -1.64567995e+00
      4.46579009e-01 -1.49532998e+00 5.51422000e-01 -1.30113006e+00
      -6.86583996e-01 1.37725994e-01 1.54639006e+00 -1.01974003e-01
      2.06801996e-01 -2.00820997e-01 1.30969000e+00 -3.33023012e-01
      1.08861005e+00 -5.99471986e-01 3.72162014e-02 -1.53590000e+00
      1.72440007e-01 -1.42989004e+00 3.08288991e-01 -7.58209005e-02</_>
    <_>
      -2.25097990e+00 -8.86246026e-01 -4.07129002e+00 8.80973995e-01
      -4.63701010e+00 2.68864012e+00 -2.69549990e+00 4.61707020e+00
      -1.79121995e+00 4.06223011e+00 -1.92682004e+00 6.05019999e+00
      -1.86414003e+00 9.30422974e+00 -2.83675003e+00 1.00353003e+01
      -6.03609991e+00 1.06190996e+01 -5.38515997e+00 1.24256001e+01
      -4.56338978e+00 1.02712002e+01 -2.54140997e+00 1.05282001e+01
      -1.82190001e+00 1.17396002e+01 1.46118000e-01 1.02187996e+01
      8.06549013e-01 8.51537991e+00 1.42904997e+00 6.77029991e+00
      7.77435005e-01 6.22035980e+00 -2.02025995e-02 -8.27807999e+00
      4.73717004e-01 -6.93794012e+00 -2.99019009e-01 -7.87267017e+00
      -1.15707004e+00 -8.69184017e+00 -2.09859991e+00 -9.43525028e+00
      5.78928995e+00 -6.32296991e+00 6.29327011e+00 -6.01946020e+00
      4.20201015e+00 -4.42486000e+00 4.45817995e+00 -1.46066999e+00
      2.04159999e+00 -9.78706002e-01 1.28241003e+00 1.11882997e+00
      9.70763981e-01 2.61963010e+00 6.40259027e-01 4.09957981e+00
      3.07785004e-01 5.61931992e+00 1.96272004e+00 1.18420000e+01
      2.10982990e+00 9.61532974e+00 -1.46832001e+00 9.78207016e+00
      -2.45265007e+00 1.11707001e+01 -3.45466995e+00 1.37551003e+01 0.
      0. -7.62390018e-01 -6.11988020e+00 1.95446002e+00 -4.55302000e+00
      1.99583006e+00 -4.42389995e-01 1.60734999e+00 3.06912994e+00
      -1.14995003e+00 2.75683999e+00 -8.00689995e-01 1.71658003e+00
      -1.52328002e+00 -4.40139008e+00 1.17270005e+00 -2.81557012e+00 0.
      0. 2.12067008e+00 3.59246993e+00 -6.15813971e-01 3.26127005e+00
      -5.43170977e+00 1.09076004e+01 -3.71918011e+00 1.22066002e+01
      -7.97484994e-01 9.93400955e+00 -3.10216999e+00 1.01620998e+01
      -2.83124995e+00 1.03346996e+01 -2.40234002e-01 1.32716999e+01
      1.12976003e+00 1.00867004e+01 -5.95458984e-01 1.48501997e+01
      -2.15882993e+00 1.45953999e+01 -2.38737011e+00 1.31283998e+01
      -1.37968004e+00 1.41542997e+01 -4.05481005e+00 1.25495005e+01
      -4.06223011e+00 1.22897997e+01 -2.28220010e+00 1.13584003e+01
      -2.03529000e+00 1.03731003e+01 -1.82570004e+00 1.18191996e+01
      -2.77648985e-01 1.23922997e+01 -1.84657001e+00 1.18381004e+01
      -2.05616999e+00 1.03920002e+01 -2.26256990e+00 1.01227999e+01</_>
    <_>
      7.32965994e+00 5.95807981e+00 6.75087023e+00 1.78924000e+00
      5.79219007e+00 9.64813009e-02 3.63204002e+00 -2.94678998e+00
      3.79048991e+00 -4.38110018e+00 1.11773002e+00 -7.00256014e+00
      -7.18231022e-01 -7.82272005e+00 -3.95303011e+00 -8.40355968e+00
      -4.61471987e+00 -8.00191975e+00 -5.13246012e+00 -7.08065987e+00
      -6.54282999e+00 -4.31540012e+00 -7.72379017e+00 -2.51936007e+00
      -9.63601971e+00 -5.98999023e-01 -9.69863987e+00 1.44667006e+00
      -9.41845989e+00 3.46735001e+00 -9.13827991e+00 5.48796988e+00
      -9.96679974e+00 8.57314968e+00 4.34242010e+00 2.09727001e+00
      3.59252000e+00 4.46969986e+00 3.46597004e+00 6.32811022e+00
      2.12238002e+00 5.23521996e+00 7.15317011e-01 5.20548010e+00
      -2.57570004e+00 4.64380980e+00 -2.41881990e+00 5.72785997e+00
      -3.76735997e+00 7.70662022e+00 -5.02938986e+00 5.61557007e+00
      -5.07500982e+00 4.17147017e+00 -8.97934020e-01 6.76435995e+00
      -2.45942998e+00 4.11474991e+00 -1.51584995e+00 1.69711006e+00
      -1.89383996e+00 3.33054006e-01 1.77872002e-01 5.33156991e-01
      -1.75472999e+00 3.60825002e-01 -1.22923005e+00 5.03418028e-01
      -3.07323003e+00 -3.89297009e-01 -4.95427990e+00 1.16908002e+00 0.
      0. -3.19427013e-01 -4.30342007e+00 2.46926999e+00 -3.79190993e+00
      2.11632991e+00 4.75212002e+00 1.67773998e+00 4.16579008e+00
      -1.12898004e+00 3.58931994e+00 -2.81795001e+00 3.53032994e+00
      -2.84183002e+00 -4.34125996e+00 1.43546999e+00 -7.37036991e+00 0.
      0. 1.55799997e+00 3.20286989e+00 -1.34118998e+00 3.83745003e+00
      -5.67367971e-01 -3.46173000e+00 -1.50819004e+00 -1.52599001e+00
      -2.28062010e+00 -1.03217995e+00 -4.26012993e+00 -1.12160003e+00
      -3.61714005e+00 -1.84729004e+00 -4.78493023e+00 -4.78148997e-01
      -5.73873997e+00 -1.67902005e+00 -5.13784981e+00 -1.49940002e+00
      -4.38202000e+00 -1.01303005e+00 -3.56403995e+00 -2.63495994e+00
      -1.55557001e+00 -2.69350004e+00 -1.83219004e+00 -2.69517994e+00
      -1.04960001e+00 -2.14267993e+00 -2.46059990e+00 -1.68173003e+00
      -3.19312000e+00 -1.54872000e+00 -3.93657994e+00 -1.20279002e+00
      -5.44151020e+00 -5.75942993e-01 -5.16561985e+00 -1.36028004e+00
      -3.21111012e+00 -1.61365998e+00 -2.47862005e+00 -1.74667001e+00</_>
    <_>
      3.68102002e+00 -4.82727003e+00 2.79743004e+00 -5.75970984e+00
      2.93759990e+00 -6.67815018e+00 2.04767990e+00 -8.67113972e+00
      -8.19168016e-02 -8.62267971e+00 -1.49168003e+00 -7.49602985e+00
      -2.02477002e+00 -6.27393007e+00 -2.73348999e+00 -4.97858000e+00
      -2.61276007e+00 -2.23337007e+00 -1.47774994e+00 -3.34069991e+00
      -3.48404002e+00 -4.13918018e+00 -3.32515001e+00 -6.83859015e+00
      -3.00911999e+00 -8.24857044e+00 -4.55077982e+00 -8.51152039e+00
      -3.94024992e+00 -5.54000998e+00 -3.26480007e+00 -4.63643980e+00
      -4.68142986e+00 -1.65622997e+00 9.10393000e-01 -4.59919024e+00
      -6.59729004e-01 -7.35886002e+00 -3.20517987e-01 -1.04703999e+01
      -1.67084001e-02 -9.66633987e+00 -2.83663988e+00 -6.98748016e+00
      6.07833982e-01 -6.05961990e+00 -1.13735998e+00 -9.17881966e+00
      -1.87426996e+00 -1.03874998e+01 -4.92965996e-01 -7.59109020e+00
      1.03485003e-01 -6.07716990e+00 1.13067999e-02 1.74600005e+00
      1.23026001e+00 2.16355991e+00 1.41712999e+00 2.59564996e+00
      1.61227000e+00 2.99916005e+00 1.22581005e+00 2.70438004e+00
      9.72976983e-01 2.50805998e+00 -4.05243009e-01 4.38599014e+00
      -7.58666992e-01 3.34937000e+00 -1.11390996e+00 3.40192008e+00 0.
      0. -1.46905005e+00 1.36360005e-01 1.41837999e-01 6.98662028e-02
      -1.97745994e-01 2.77744007e+00 -8.03313971e-01 1.73205996e+00
      -1.39038002e+00 1.81259000e+00 -8.59924018e-01 2.51358002e-01
      -1.32156003e+00 4.58889008e-01 -7.32620001e-01 -7.10776985e-01 0.
      0. 3.61633003e-01 1.00802004e+00 8.18710029e-01 1.13936996e+00
      -3.23447990e+00 8.78127956e+00 -3.72282004e+00 7.89144993e+00
      -2.06595993e+00 4.84743977e+00 -1.34581006e+00 5.70929003e+00
      -6.69098020e-01 5.74730015e+00 -1.26144007e-01 7.55509996e+00
      -1.57568002e+00 8.16821003e+00 8.69965017e-01 1.64405003e+01
      -7.52029002e-01 2.05531998e+01 -2.47719002e+00 2.05869007e+01
      -2.12037992e+00 1.96616001e+01 -3.72834992e+00 1.57103996e+01
      -2.42656994e+00 1.08507996e+01 -2.10665989e+00 1.18141003e+01
      -1.38071001e+00 1.16807003e+01 -1.73989999e+00 1.16393003e+01
      -2.47257996e+00 1.03081999e+01 -7.46033013e-01 1.47901001e+01
      -1.41692996e+00 1.37567997e+01 -2.16514993e+00 1.49426003e+01</_>
    <_>
      9.82297039e+00 4.18030024e+00 9.32371998e+00 1.93297994e+00
      8.59313965e+00 -1.97113007e-01 1.05202999e+01 -1.27371001e+00
      9.61046982e+00 -4.58445978e+00 9.38566971e+00 -7.50339985e+00
      7.38434982e+00 -8.69882011e+00 5.10669994e+00 -9.52155018e+00
      1.05377004e-01 -1.07249002e+01 -2.28016996e+00 -1.00391998e+01
      -5.49457979e+00 -8.48050976e+00 -5.87487984e+00 -7.97719002e+00
      -6.89599991e+00 -5.91881990e+00 -8.40771008e+00 -2.41056991e+00
      -7.16153002e+00 1.17780995e+00 -8.31976032e+00 5.92373991e+00
      -8.19219971e+00 1.06406002e+01 7.13966990e+00 -4.42009009e-02
      3.40369010e+00 -3.81322002e+00 4.73533988e-01 -5.87179995e+00
      -3.83224003e-02 -8.46304035e+00 -4.31122005e-01 -1.02792997e+01
      -3.50267005e+00 -1.24867001e+01 -2.33008003e+00 -9.17654991e+00
      -2.39335990e+00 -4.96920013e+00 -3.93465996e+00 -4.74052000e+00
      -5.27801991e+00 -1.58282995e+00 -1.86606002e+00 1.01089001e+00
      -3.38057995e+00 -5.01396000e-01 -3.60924006e+00 -2.04272008e+00
      -5.14074993e+00 -4.75973988e+00 3.01537991e+00 5.37237978e+00
      -3.80463004e-01 2.72368002e+00 -5.04520988e+00 1.30871999e+00
      -8.36289978e+00 3.01623988e+00 -8.98194981e+00 7.14425993e+00 0.
      0. -1.07308996e+00 -9.24981022e+00 2.70809007e+00 -7.95652008e+00
      1.75806999e+00 2.71778011e+00 1.64680004e+00 6.11123991e+00
      -2.11739993e+00 6.02264977e+00 -1.67319000e+00 3.30573010e+00
      -4.13019991e+00 -7.10772991e+00 -4.11987007e-01 -9.50967026e+00 0.
      0. 2.23897004e+00 5.69986010e+00 -1.57736003e+00 6.90910006e+00
      4.86034012e+00 8.73040962e+00 3.58247995e+00 1.07075996e+01
      3.48551989e+00 4.84763002e+00 -1.21923995e+00 4.81162977e+00
      -5.94499016e+00 5.19327021e+00 -5.88429022e+00 1.12992001e+01
      -4.69487000e+00 1.08660002e+01 -7.40470982e+00 5.91744995e+00
      -8.76263046e+00 5.21497011e+00 -2.76806998e+00 3.59962010e+00
      8.30109000e-01 4.84529018e+00 3.44599009e+00 6.48940992e+00
      4.37856007e+00 9.92619038e+00 2.21134996e+00 7.66747999e+00
      -1.27670002e+00 7.69565010e+00 -6.01447010e+00 7.99617004e+00
      -6.73971987e+00 9.47276020e+00 -7.30618000e+00 4.15567017e+00
      -2.59736991e+00 2.56931996e+00 2.12434006e+00 3.80999994e+00</_>
    <_>
      9.56211016e-02 5.27884007e+00 -1.28685999e+00 6.14418983e+00
      -1.57079005e+00 7.06139994e+00 -7.02468991e-01 6.90166998e+00
      -9.81784999e-01 6.74784994e+00 -3.40423989e+00 3.24164009e+00
      -1.37997997e+00 -4.62951995e-02 -3.91624004e-01 -5.53247023e+00
      5.52353024e-01 -8.67358017e+00 1.46059000e+00 -8.36742973e+00
      -1.08412004e+00 -2.52798009e+00 -1.27917004e+00 2.28484988e+00
      -2.40573001e+00 4.80698013e+00 -2.30954003e+00 6.21849012e+00
      -3.28162003e+00 7.57995987e+00 -1.93929994e+00 6.75016022e+00
      -2.87124991e+00 8.07612991e+00 -4.44842994e-01 -1.12570000e+01
      -1.58872998e+00 -9.94400024e+00 -3.94370008e+00 -1.09462996e+01
      -6.31080008e+00 -1.31195002e+01 -6.48414993e+00 -1.52574997e+01
      6.61314011e+00 -1.23684998e+01 5.35523987e+00 -1.10549002e+01
      5.13879013e+00 -8.62909985e+00 2.66492009e+00 -7.43528986e+00
      -9.15862978e-01 -7.52475023e+00 -3.54461998e-01 -5.02111006e+00
      -4.37682986e-01 -6.27228022e+00 -4.90280002e-01 -8.64605045e+00
      -6.18224978e-01 -8.79063988e+00 2.58541012e+00 -4.51496983e+00
      1.40778005e+00 -5.63535023e+00 1.35088003e+00 -6.69495010e+00
      -9.52468991e-01 -6.67599010e+00 8.06121975e-02 -5.42765999e+00 0.
      0. -1.11030996e+00 -9.79538023e-01 -1.24682999e+00 -8.58718991e-01
      -2.99407989e-01 -1.94059002e+00 -1.39019001e+00 1.20269999e-01
      -2.38337994e+00 -3.91388014e-02 -7.59094000e-01 -1.50515997e+00
      3.04931998e-01 -1.40945002e-01 2.06055000e-01 -1.13471997e+00 0.
      0. -1.08309996e+00 -1.80098996e-01 -9.46578979e-01 -3.00940990e-01
      2.26757002e+00 -5.53008974e-01 3.45498991e+00 -4.81894016e+00
      2.43039989e+00 -1.03141003e+01 2.33681989e+00 -1.02742004e+01
      1.00250002e-02 -9.12458992e+00 -1.33684003e+00 -6.85145998e+00
      -3.94340992e+00 -1.24372995e+00 -1.53392005e+00 -4.74363995e+00
