<?xml version="1.0"?>
<opencv_storage>
<opencv_ml_svm>
  <format>3</format>
  <svmType>C_SVC</svmType>
  <kernel>
    <type>LINEAR</type></kernel>
  <C>1.0000000000000001e-01</C>
  <term_criteria><iterations>1000</iterations></term_criteria>
  <var_count>136</var_count>
  <class_count>2</class_count>
  <class_labels type_id="opencv-matrix">
    <rows>2</rows>
    <cols>1</cols>
    <dt>i</dt>
    <data>
      -1 1</data></class_labels>
  <sv_total>1</sv_total>
  <support_vectors>
    <_>
      6.24085136e-04 -1.05085981e-03 -1.87455527e-02 1.47807095e-02
      -4.12985384e-02 -4.59284969e-02 2.57613845e-02 2.53149420e-02
      -9.93135944e-03 -3.06106955e-02 5.51555566e-02 -3.10750939e-02
      4.57739085e-03 6.57725707e-02 -5.69289550e-02 2.78606378e-02
      -7.15265935e-03 1.87424812e-02 7.33024674e-04 4.44511592e-04
      -1.60933118e-02 -2.80237440e-02 -1.54335471e-02 -1.86237916e-02
      3.36932577e-02 -2.13989820e-02 1.40036631e-03 -4.57892241e-03
      -2.23446172e-02 1.14630936e-02 1.25314444e-02 1.81870796e-02
      -6.11702038e-04 6.75722808e-02 -3.70103903e-02 -3.39730643e-02
      4.57374146e-03 1.05578341e-02 -9.21092695e-04 5.85206784e-02
      -2.08395366e-02 -3.63350590e-03 -1.22886961e-02 -2.34674982e-04
      -9.90564656e-03 7.42403865e-02 3.76731604e-02 -1.90965869e-02
      -1.40670072e-02 -3.49756405e-02 1.30153634e-02 -3.48267891e-02
      6.17170185e-02 3.15111800e-04 3.80409397e-02 -9.33629554e-03
      5.16387895e-02 -7.11861998e-03 5.45625985e-02 -1.87133607e-02
      -1.48234116e-02 4.96948231e-03 -6.40513981e-03 3.59813645e-02
      -4.06439863e-02 1.35382796e-02 2.08945759e-02 -3.06966547e-02
      -2.90730353e-02 -1.60008818e-02 -2.41939295e-02 5.12837283e-02 0.
      0. 4.11604717e-02 2.46559270e-02 -4.64524478e-02 -3.74822319e-02
      -3.11923251e-02 1.11440858e-02 -2.15779450e-02 -3.31099075e-03
      -3.21519598e-02 7.07747694e-03 -4.44349423e-02 -8.39438103e-03
      -9.61892016e-04 -4.94115502e-02 -1.36723751e-02 -3.88167030e-03 0.
      0. -2.71297283e-02 9.45830867e-02 -1.57695469e-02 -2.20768712e-03
      3.45035791e-02 2.81872205e-03 -1.77214388e-03 2.13389006e-02
      3.71842571e-02 -4.23681103e-02 -2.54495582e-03 4.06018570e-02
      6.75109550e-02 -4.27098293e-03 -2.72455420e-02 7.56101981e-02
      4.01116349e-02 -4.96457294e-02 -1.47788217e-02 1.87249482e-02
      -4.06490779e-03 3.12219765e-02 1.31254122e-02 -4.38339729e-03
      2.65411334e-03 3.50100584e-02 -3.72111686e-02 -2.67725991e-04
      -1.80282574e-02 -4.08695191e-02 -4.42224704e-02 -5.03905490e-02
      -7.27395527e-04 -6.09516166e-02 -1.67896207e-02 2.34802850e-02
      1.86482929e-02 -2.14524404e-03 -5.89936180e-03 -6.82603493e-02
      -2.03005429e-02 6.01957261e-04 1.75530072e-02 -2.66275853e-02</_></support_vectors>
  <uncompressed_sv_total>156</uncompressed_sv_total>
  <uncompressed_support_vectors>
    <_>
      -3.81469999e-06 -3.81469999e-06 -9.53674044e-06 7.62938998e-06
      -1.14441000e-05 0. -3.81469999e-06 1.52588000e-05 -2.28882000e-05
      0. -3.05176000e-05 1.52588000e-05 -1.52588000e-05 0.
      -3.05176000e-05 0. -1.52588000e-05 0. 0. 0. 0. 0. -1.52588000e-05
      0. 0. -1.52588000e-05 0. 0. 0. 1.52588000e-05 3.05176000e-05
      7.62938998e-06 0. 0. 1.14441000e-05 3.81469999e-06 1.14441000e-05
      -1.90735000e-06 0. 1.33514004e-05 1.52588000e-05 7.62938998e-06 0.
      -3.81469999e-06 0. 1.52588000e-05 1.52588000e-05 3.81469999e-06
      1.52588000e-05 3.81469999e-06 -1.52588000e-05 5.72204999e-06
      3.05176000e-05 3.81469999e-06 0. -3.81469999e-06 -1.52588000e-05
      7.62938998e-06 0. 0. 0. 1.52588000e-05 -1.52588000e-05 0.
      -3.05176000e-05 0. 1.52588000e-05 0. -3.05176000e-05
      1.52588000e-05 -3.05176000e-05 1.52588000e-05 0. 0.
      -7.62938998e-06 0. 7.62938998e-06 -7.62938998e-06 0.
      3.81469999e-06 7.62938998e-06 0. -7.62938998e-06 7.62938998e-06 0.
      0. -1.52588000e-05 1.14441000e-05 -1.52588000e-05 0. 0. 0. 0. 0.
      3.05176000e-05 1.52588000e-05 0. -1.52588000e-05 7.62938998e-06
      1.52588000e-05 -1.52588000e-05 0. 0. 1.52588000e-05
      -1.52588000e-05 0. 0. -1.52588000e-05 -1.52588000e-05 0.
      -1.52588000e-05 0. 0. 0. 0. 0. -3.05176000e-05 1.52588000e-05
      -1.52588000e-05 3.05176000e-05 -7.62938998e-06 -1.52588000e-05 0.
      0. 0. 0. -1.52588000e-05 3.05176000e-05 0. -1.52588000e-05 0.
      1.52588000e-05 -1.52588000e-05 1.52588000e-05 0. 1.52588000e-05</_>
    <_>
      -6.51579022e-01 -7.93693018e+00 -1.01195002e+00 -7.02757978e+00
      1.51037002e+00 -6.06981993e+00 4.00880003e+00 -5.16098022e+00
      3.56212997e+00 -7.03809977e+00 3.00482011e+00 -5.85059977e+00
      2.36076999e+00 -3.00937009e+00 3.16348004e+00 -2.99050999e+00
      2.52884007e+00 -4.20012999e+00 1.96597004e+00 -3.80333996e+00
      1.00249998e-01 -6.19106007e+00 -3.16489005e+00 -9.97723007e+00
      -3.30404997e+00 -1.22531996e+01 -4.67168999e+00 -1.16320000e+01
      -7.35300016e+00 -1.24815998e+01 -4.20769978e+00 -1.32947998e+01
      -3.94507003e+00 -1.26964998e+01 -2.22562003e+00 8.69149971e+00
      3.48781991e+00 1.50162001e+01 6.00304985e+00 2.26644993e+01
      6.95032978e+00 2.57744999e+01 7.83778000e+00 2.73024998e+01
      -7.21276999e+00 2.46954002e+01 -6.18228006e+00 2.51175995e+01
      -5.21160984e+00 2.39578991e+01 -2.84038997e+00 1.53162003e+01
      2.48925996e+00 1.22221003e+01 7.82622993e-02 9.58656979e+00
      -4.13361005e-02 7.88249016e+00 1.26244998e+00 7.62572002e+00
      1.11890996e+00 7.33258009e+00 1.24660003e+00 3.68420005e+00
      2.47459006e+00 3.76740003e+00 8.07403982e-01 3.83863997e+00
      6.23947024e-01 3.95879006e+00 -9.82924998e-01 2.63160992e+00 0. 0.
      -1.48613006e-01 1.77481997e+00 9.81132984e-01 5.06923974e-01
      5.80322027e-01 1.89039004e+00 8.25622976e-01 1.64914000e+00
      -3.04123014e-01 1.45725000e+00 -5.55877984e-01 2.47701001e+00
      -2.18920994e+00 1.40504003e+00 -1.08339000e+00 8.82797018e-02 0.
      0. -1.23889005e+00 1.23048997e+00 -2.34472990e+00 1.08745003e+00
      1.14862003e+01 -3.22528005e+00 6.92133999e+00 1.51747000e+00
      3.74401999e+00 3.25489998e+00 -8.79119992e-01 3.31364012e+00
      -2.53487992e+00 3.47020006e+00 -8.71500015e+00 2.05620003e+00
      -1.49793997e+01 -9.27718997e-01 -8.91882038e+00 -4.13741016e+00
      -4.28222990e+00 -4.35422993e+00 -1.15477002e+00 -4.48627996e+00
      2.00911999e+00 -4.60590982e+00 6.70554018e+00 -6.16036987e+00
      1.27749996e+01 -1.68178999e+00 3.62438989e+00 5.93019009e+00
      -9.86786008e-01 7.47318983e+00 -2.67891002e+00 6.15746021e+00
      -1.47964001e+01 -9.86968994e-01 -4.11427021e+00 -8.45238018e+00
      -9.98749018e-01 -7.14908981e+00 2.15263009e+00 -8.69209003e+00</_>
    <_>
      -3.60472012e+00 1.11628997e+00 -1.04436004e+00 1.70438004e+00
      -1.23802996e+00 -4.62691993e-01 -1.44395995e+00 -2.60471010e+00
      -2.94647002e+00 -1.96818995e+00 -4.31158018e+00 -2.70392990e+00
      -4.11854982e+00 -4.83701992e+00 -5.18544006e+00 -4.26671982e+00
      -6.04195976e+00 -2.46426010e+00 -3.98369002e+00 5.46325982e-01
      -3.27371001e+00 3.30703998e+00 -1.19368005e+00 3.13908005e+00
      8.35205019e-01 2.82199001e+00 -1.04217999e-01 3.71527004e+00
      1.68542004e+00 3.12607002e+00 -7.12523997e-01 2.58639002e+00
      1.06491005e+00 2.02222991e+00 -3.28795999e-01 -5.33047020e-01
      -1.33941996e+00 -3.46564007e+00 4.93553013e-01 -4.79060984e+00
      9.06943977e-01 -4.55744982e+00 2.64251995e+00 -4.21134996e+00
      -8.81805003e-01 -3.86856008e+00 2.40915990e+00 -2.41443992e+00
      2.87204003e+00 -2.21911001e+00 4.63211012e+00 -5.14636993e-01
      3.46399999e+00 2.69899011e+00 1.75476000e-02 -8.35250974e-01
      1.25402999e+00 -1.95550001e+00 1.09487998e+00 -4.44692993e+00
      9.35729980e-01 -5.52990007e+00 3.13112998e+00 -1.11207998e+00
      5.15091002e-01 -2.36028004e+00 6.78664982e-01 -3.59566998e+00
      -1.85115004e+00 -2.13988996e+00 -3.00979996e+00 -6.71341002e-01 0.
      0. -1.10909998e+00 -4.20307016e+00 5.74752986e-01 -4.06839991e+00
      2.16011000e+00 -2.38731003e+00 4.63997006e-01 3.19961995e-01
      -1.21984994e+00 1.59375000e+00 -8.13416004e-01 -1.77517998e+00
      -1.91029000e+00 -4.59484005e+00 1.18201995e+00 -4.46016979e+00 0.
      0. -2.74872005e-01 2.74454999e+00 -1.97096002e+00 1.22646999e+00
      1.19715004e+01 9.11754036e+00 9.61588001e+00 7.71750021e+00
      4.44440985e+00 5.03359985e+00 -9.00650024e-01 3.85941005e+00
      -7.55565977e+00 5.36414003e+00 -1.41590004e+01 8.48875046e+00
      -1.93782997e+01 1.44804001e+01 -1.58484001e+01 -3.54909992e+00
      -6.62466002e+00 -1.33776999e+01 -1.35362005e+00 -1.49324999e+01
      3.94191003e+00 -1.51289997e+01 1.06809998e+01 -5.72832012e+00
      1.21094999e+01 7.80762005e+00 4.32198000e+00 6.69243002e+00
      -1.01083004e+00 4.08472013e+00 -7.67809010e+00 7.02295017e+00
      -1.81695995e+01 1.16278000e+01 -7.86172009e+00 -1.37283001e+01
      -1.19447005e+00 -1.52580004e+01 4.13835001e+00 -1.40587997e+01</_>
    <_>
      1.50366998e+00 -7.97588015e+00 1.51075006e+00 -7.32102013e+00
      1.50064003e+00 -6.68068981e+00 2.64679015e-01 -7.12032986e+00
      1.32568002e+00 -5.33910990e+00 3.27376984e-02 -2.27284002e+00
      -1.33423996e+00 8.63556027e-01 -1.73658001e+00 6.41570985e-01
      -4.40061998e+00 2.99179006e+00 -7.15090990e+00 3.17505002e+00
      -7.44802999e+00 5.72594023e+00 -5.55551004e+00 4.84741020e+00
      -4.70938015e+00 4.07287979e+00 -2.56992006e+00 4.42054987e+00
      -2.70618010e+00 2.60953999e+00 -1.67963004e+00 7.48710990e-01
      -1.67263997e+00 1.21171999e+00 1.50969994e+00 2.72742987e-01
      1.22326005e+00 -6.62388027e-01 8.92554998e-01 -6.02595985e-01
      6.00960016e-01 4.93010014e-01 -7.62679994e-01 2.71790004e+00
      8.45153987e-01 1.49565995e+00 -6.42562985e-01 5.33617020e-01
      -2.04000998e+00 1.78614998e+00 -2.42534995e+00 -5.15528023e-01
      -2.74465990e+00 -2.98259997e+00 -2.77405009e-02 5.02891988e-02
      1.12305004e-02 8.94309998e-01 -4.53949012e-02 -5.39734006e-01
      -5.61675988e-02 -8.58582020e-01 3.01620007e-01 -2.53295992e-02
      -9.92232978e-01 -1.24968998e-02 -2.38799993e-02 -9.39026028e-02
      -1.32693005e+00 -3.35693010e-04 -2.61414003e+00 9.18731987e-02 0.
      0. 9.49935973e-01 8.00018013e-02 1.82436001e+00 2.24686004e-02
      5.20690978e-01 1.05932999e+00 7.54791021e-01 9.91675973e-01
      1.01012003e+00 9.86182988e-01 -4.98778999e-01 -3.80019993e-02
      4.39301014e-01 9.09691006e-02 1.85317993e-01 1.12319998e-01 0. 0.
      1.96502998e-01 1.00662005e+00 -6.79244995e-01 1.04826999e+00
      5.63837004e+00 7.16765022e+00 1.68010998e+00 1.72922003e+00
      1.25870004e-01 -1.54530001e+00 -2.29958010e+00 -3.50234985e-01
      -2.48737001e+00 -3.02444011e-01 -3.83332992e+00 8.01864982e-01
      -7.23495007e+00 7.69037008e+00 -3.46042991e+00 9.61118031e+00
      -2.01771998e+00 1.06089001e+01 -1.76422000e+00 1.17227001e+01
      -1.60363996e+00 1.05901003e+01 9.37752008e-01 1.05843000e+01
      6.60855007e+00 5.96703005e+00 -8.30031991e-01 2.86748004e+00
      -2.20275998e+00 1.75188994e+00 -1.21238995e+00 2.88362002e+00
      -9.45032024e+00 6.62965012e+00 -2.18621993e+00 6.32271004e+00
      -1.94859004e+00 7.43775988e+00 -6.24328971e-01 7.40640020e+00</_>
    <_>
      -1.56134999e+00 -3.63792992e+00 -1.57224000e+00 -2.16620994e+00
      -1.60918999e+00 1.73747003e+00 -1.55789006e+00 1.97771001e+00
      -1.53227997e+00 4.64106989e+00 -2.69436002e+00 8.46953011e+00
      -3.78377008e+00 1.22482996e+01 -4.80003023e+00 1.35265999e+01
      -3.29520988e+00 1.23663998e+01 -4.26199007e+00 1.22980003e+01
      -1.60622001e+00 1.22456999e+01 -1.33547997e+00 8.44029045e+00
      -1.21230996e+00 8.24289036e+00 1.00800000e-01 6.82755995e+00
      1.39670002e+00 5.40274000e+00 2.71883988e+00 2.76250005e+00
      1.55797994e+00 1.27524996e+00 -1.44360006e-01 -3.78810000e+00
      1.24338996e+00 -5.09436989e+00 2.67209005e+00 -6.32832003e+00
      4.11608982e+00 -7.50871992e+00 5.49657011e+00 -6.20590019e+00
      -5.24849987e+00 -3.99169993e+00 -3.76694012e+00 -7.66524982e+00
      -1.14180005e+00 -7.62201023e+00 2.30254993e-01 -6.32836008e+00
      2.69347996e-01 -2.55363011e+00 6.54007018e-01 -1.25872004e+00
      6.30492985e-01 9.78621989e-02 5.80322027e-01 2.67863011e+00
      -6.85181022e-01 5.23317003e+00 2.32100993e-01 1.03065996e+01
      3.45580995e-01 9.11256027e+00 4.41588998e-01 9.13438034e+00
      -1.90886998e+00 9.05893993e+00 -1.82816994e+00 9.02715969e+00 0.
      0. -1.01888001e+00 -3.74665999e+00 -8.95676017e-01 -3.74132991e+00
      3.95781994e-01 -1.19939005e+00 2.18987003e-01 1.25250006e+00
      -1.12876999e+00 1.22932994e+00 -2.77486992e+00 -1.26628006e+00
      -2.56917000e+00 -4.99514008e+00 -3.26232985e-02 -3.72156000e+00 0.
      0. -1.33130002e+00 3.99779994e-03 -1.45448005e+00 -1.33513997e-03
      -8.11386034e-02 1.67194996e+01 3.71809006e+00 1.67255001e+01
      2.64525008e+00 1.54448004e+01 3.01665992e-01 1.54138002e+01
      3.90778005e-01 1.53912001e+01 -1.98842001e+00 1.78092995e+01
      -5.64620972e-01 1.42477999e+01 -3.02515006e+00 9.38969040e+00
      -6.13586009e-01 5.81809998e+00 1.72846997e+00 5.88434982e+00
      2.82961988e+00 7.12217999e+00 3.85271001e+00 1.07720003e+01
      1.19625998e+00 1.67395992e+01 2.59812999e+00 1.79552002e+01
      2.72765994e-01 1.66907997e+01 -8.80523980e-01 1.78750000e+01
      -6.43630981e-01 1.54610004e+01 -5.39093018e-01 2.06592011e+00
      1.78549004e+00 3.34798002e+00 4.10206985e+00 4.61199999e+00</_>
    <_>
      6.25360012e-01 7.36393023e+00 1.01745999e+00 9.65151978e+00
      7.27538988e-02 9.68729019e+00 3.69290996e+00 8.21010971e+00
      6.14238024e+00 6.78000021e+00 7.46995020e+00 6.52811003e+00
      7.39991999e+00 3.98669004e+00 5.86817980e+00 -1.97310996e+00
      3.35411000e+00 -4.37319994e+00 -1.00357004e-01 -3.19643998e+00
      -1.20296001e+00 -9.76715028e-01 -2.33505011e+00 1.25539005e+00
      -1.96686000e-01 9.64828014e-01 8.34563971e-01 1.99944997e+00
      2.94338989e+00 1.82337999e+00 2.55185008e+00 -5.11406004e-01
      1.16869998e+00 -4.15854990e-01 -3.52921009e+00 1.65946996e+00
      -2.59917998e+00 3.06674987e-01 -1.50114000e+00 4.30736989e-02
      8.29514027e-01 -3.24276000e-01 3.28632998e+00 4.82620001e-01
      -2.55066991e+00 6.21159017e-01 -2.80359006e+00 -1.88420999e+00
      -2.91622996e+00 -3.22542000e+00 -1.70846999e+00 -3.49024010e+00
      -1.49267995e+00 -2.44765997e+00 -2.87170000e-02 5.77697992e-01
      1.11740001e-01 5.71753979e-01 1.22957003e+00 -1.85451996e+00
      1.19857997e-01 -2.93982005e+00 4.44182992e-01 -4.29717988e-01
      4.68322992e-01 -5.27679026e-01 3.84063989e-01 -1.78690004e+00
      4.46426004e-01 -7.20656991e-01 -7.47924984e-01 -7.24929988e-01 0.
      0. -1.63360998e-01 -1.26270998e+00 9.88991022e-01 -1.47969997e+00
      -1.06766000e-01 -1.50703001e+00 1.17111001e-02 -2.29545996e-01
      -1.04754996e+00 1.15104997e+00 -5.63660003e-02 -8.23729992e-01
      -2.29766995e-01 -2.10058999e+00 -2.41027996e-01 -2.22448993e+00 0.
      0. 1.20196998e+00 3.08989990e-03 4.84467000e-02 2.12424994e-01
      1.32736998e+01 1.05017996e+01 8.28334045e+00 7.21938992e+00
      3.22409010e+00 2.77745008e+00 -1.59514993e-01 4.10817003e+00
      -3.86192012e+00 1.94637001e+00 -7.06639004e+00 5.55829000e+00
      -1.00770998e+01 1.14961996e+01 -7.10566998e+00 3.21625996e+00
      -1.67339003e+00 -2.90668011e+00 6.71523988e-01 -2.97779989e+00
      4.25017977e+00 -1.97485006e+00 9.14490986e+00 1.29879999e+00
      1.19375000e+01 8.20279980e+00 3.40276003e+00 3.93569994e+00
      -1.74728006e-01 2.94043994e+00 -2.43425012e+00 4.17632008e+00
      -9.08250046e+00 9.13611984e+00 -2.94674993e+00 -2.81238008e+00
      -5.08697987e-01 -1.71985996e+00 4.23352003e+00 -8.10059011e-01</_>
    <_>
      -2.31177998e+00 1.00964999e+00 -2.00665995e-01 9.21187997e-01
      8.01600993e-01 2.07003999e+00 1.74045002e+00 2.05366993e+00
      2.63489008e+00 9.02114987e-01 2.44899011e+00 1.03270996e+00
      1.02406001e+00 -1.05331004e+00 -3.10584992e-01 -1.94498003e+00
      -1.50594997e+00 -1.63135004e+00 -2.62086010e+00 -1.31006002e+00
      -2.36811996e+00 1.23856997e+00 -2.13463998e+00 2.58559990e+00
      -3.09677005e+00 2.76378012e+00 -1.64716005e+00 3.92262006e+00
      -2.47558996e-01 3.89105010e+00 3.99474986e-02 5.06517982e+00
      2.14782998e-01 3.89158010e+00 1.78142995e-01 9.62170005e-01
      2.45155007e-01 -9.68170017e-02 2.78679013e-01 7.51056969e-02
      1.41428006e+00 1.90066993e-01 2.51754999e+00 3.00368994e-01
      -2.19814992e+00 -3.72913003e-01 -2.10942006e+00 -2.06618994e-01
      -2.05061007e+00 -2.13527996e-02 -8.97643983e-01 1.07776999e-01
      -1.01089001e+00 2.46891007e-01 -1.10082996e+00 6.14760995e-01
      -1.41051993e-01 -5.99318981e-01 -1.44983995e+00 -5.37140012e-01
      -1.66389000e+00 -1.69489002e+00 -5.69778025e-01 -7.38770008e-01
      -5.29846013e-01 5.08499026e-01 -5.44632018e-01 5.97687006e-01
      -1.73987997e+00 -4.11835015e-01 -5.41306019e-01 -3.83011013e-01 0.
      0. 1.01851998e-02 -1.06911004e+00 -4.82100993e-02 -2.10725999e+00
      -6.81610033e-02 -8.21968019e-01 -4.13284004e-02 2.19420999e-01
      -1.21150994e+00 1.55823007e-01 -3.55071984e-02 -3.47068995e-01
      -1.17393005e+00 -1.34648001e+00 4.97436989e-03 -1.27578998e+00 0.
      0. 5.56945987e-03 1.06747997e+00 -1.16543996e+00 9.95994985e-01
      6.54229021e+00 6.91866016e+00 5.31839991e+00 4.77226019e+00
      1.68334997e+00 1.57332003e+00 -6.69723988e-01 1.79015005e+00
      -2.95967007e+00 2.00049996e+00 -7.52965021e+00 4.69980001e+00
      -9.66444016e+00 9.62088013e+00 -7.59244013e+00 5.87793016e+00
      -4.26651001e+00 3.25010991e+00 -8.43231022e-01 1.80791998e+00
      1.49322999e+00 1.58478999e+00 5.13664007e+00 3.61916995e+00
      6.48451996e+00 5.80867004e+00 2.76174998e+00 1.51880002e+00
      -7.40692019e-01 1.79742002e+00 -2.99009991e+00 3.18329000e+00
      -9.73348999e+00 8.40044975e+00 -4.15609980e+00 3.23878002e+00
      -7.40692019e-01 1.79742002e+00 1.65997005e+00 2.74741006e+00</_>
    <_>
      1.77051997e+00 1.37967002e+00 2.00739002e+00 2.31011009e+00
      2.18442011e+00 2.05200005e+00 3.47144008e+00 5.30487001e-01
      5.94503021e+00 1.18712999e-01 4.77256012e+00 -1.47506997e-01
      1.07879996e+00 -1.47347999e+00 -2.97852010e-01 -2.92117000e+00
      -5.40648997e-01 -3.19375992e+00 4.12261993e-01 -2.27227998e+00
      1.25989997e+00 -2.40631008e+00 -1.94823995e-01 -1.17400002e+00
      -1.74901998e+00 -2.20992994e+00 -7.57934988e-01 -9.34020996e-01
      -2.24127007e+00 -1.86667001e+00 -1.21276999e+00 -5.60616016e-01
      9.27582026e-01 -5.01182973e-01 2.20388007e+00 -4.49685001e+00
      2.00308990e+00 -3.27168012e+00 4.96360987e-01 -4.50052977e+00
      3.61999989e-01 -3.53008008e+00 -1.01490998e+00 -4.90094995e+00
      -1.21291006e+00 -3.96630001e+00 -1.48057997e+00 -4.07401991e+00
      -4.47205007e-01 -3.11846995e+00 -1.69509995e+00 -2.10476995e+00
      -4.03943014e+00 -2.23613000e+00 -2.04896998e+00 -2.77506995e+00
      -2.04070997e+00 -5.31103992e+00 -7.16690004e-01 -5.53914022e+00
      -1.82958996e+00 -6.83605003e+00 -1.70853004e-01 -4.51397991e+00
      9.29931998e-01 -4.67534018e+00 -1.52556002e+00 -4.64956999e+00
      -1.63408005e+00 -4.70616007e+00 -1.67523003e+00 -3.58359003e+00 0.
      0. 1.19386005e+00 3.47329998e+00 -1.94701999e-01 2.23168993e+00
      -5.02945006e-01 -2.68568993e+00 8.97056997e-01 -1.49655998e+00
      2.29317999e+00 -2.64304996e-01 -1.02248001e+00 -3.15035009e+00
      3.47290009e-01 3.85477996e+00 -9.57031012e-01 3.79053998e+00 0. 0.
      -1.10427999e+00 -1.05885994e+00 -9.79156017e-01 -9.27231014e-01
      7.69871998e+00 -2.41089001e-01 4.96407986e+00 -2.56666994e+00
      3.03345006e-02 -2.41032004e+00 -4.99114990e-02 -2.52115011e+00
      -2.35137999e-01 -3.76445007e+00 -1.39145994e+00 -1.50586998e+00
      -3.82227993e+00 -1.56816006e+00 -2.37671003e-01 -5.29200983e+00
      9.41619992e-01 -8.84193039e+00 1.00147998e+00 -9.94946003e+00
      -8.99657980e-02 -9.78061008e+00 4.87888002e+00 -7.47396994e+00
      7.56408978e+00 -1.48982000e+00 1.89896002e-01 -1.32641995e+00
      9.45892036e-02 -1.41858006e+00 1.10359001e+00 -2.74792004e+00
      -2.64507008e+00 -2.76202011e+00 9.39025998e-01 -6.33223009e+00
      1.05875003e+00 -6.25122023e+00 1.08668995e+00 -7.33824015e+00</_>
    <_>
      -1.61937997e-01 1.25116003e+00 -1.49030995e+00 4.04121011e-01
      -3.69067997e-01 -1.69102001e+00 7.61493981e-01 -2.55668998e+00
      -1.99563003e+00 -3.33414006e+00 -4.95995998e+00 -5.19513988e+00
      -6.81679010e+00 -8.17875957e+00 -8.73853970e+00 -8.55914021e+00
      -8.25409985e+00 -8.67142010e+00 -6.51677990e+00 -6.01955986e+00
      -5.90902996e+00 -1.81580997e+00 -5.25252008e+00 1.21480000e+00
      -6.95831013e+00 1.86052001e+00 -7.20385981e+00 2.63641000e+00
      -8.56396008e+00 3.44839001e+00 -6.18823004e+00 2.97349000e+00
      -6.24203014e+00 2.57398009e+00 -5.93066990e-01 4.85686988e-01
      -9.79393005e-01 -1.71027005e+00 -2.35054001e-01 -1.65494001e+00
      1.74627995e+00 -4.93838996e-01 2.49733996e+00 6.19410992e-01
      -2.42129993e+00 6.09027982e-01 -4.17998999e-01 7.11775005e-01
      3.35860997e-01 -1.72090006e+00 1.11722004e+00 -4.93737996e-01
      -5.53680003e-01 1.81000996e+00 -5.90453982e-01 1.27679002e+00
      -6.16546988e-01 -1.66816998e+00 -6.23565972e-01 -2.12559009e+00
      -1.89838004e+00 -3.83132005e+00 -6.59942999e-02 6.68259025e-01
      -1.58270001e+00 5.96176028e-01 -3.12753010e+00 5.53146005e-01
      -4.63225985e+00 1.88207996e+00 -6.13653994e+00 3.23955989e+00 0.
      0. -3.59055012e-01 -2.28216004e+00 -7.59750009e-01 -2.30461001e+00
      1.69478998e-01 -1.36047006e-01 -6.98746026e-01 2.29836011e+00
      -1.53726995e+00 1.07207000e+00 -2.65120006e+00 1.15587997e+00
      -1.75089002e+00 -1.05025995e+00 -9.21645999e-01 -1.05343997e+00 0.
      0. 3.40683013e-01 3.56924009e+00 -1.75635004e+00 2.32411003e+00
      6.86675978e+00 1.08183002e+01 3.87719989e+00 8.55741978e+00
      -1.57256997e+00 6.22935009e+00 -6.81537008e+00 8.70226955e+00
      -9.58745956e+00 8.81145954e+00 -1.50214996e+01 1.24883003e+01
      -2.04461994e+01 1.73945999e+01 -1.76310997e+01 8.13598990e-01
      -1.10483999e+01 -9.39113998e+00 -6.99856997e+00 -1.07114000e+01
      -4.19610977e+00 -1.07067003e+01 2.54408002e+00 -4.41412020e+00
      7.90518999e+00 8.29547024e+00 -2.79714990e+00 7.18228006e+00
      -6.82859993e+00 7.21544981e+00 -9.62043953e+00 8.52602959e+00
      -2.02752991e+01 1.36173000e+01 -1.10145998e+01 -9.04848957e+00
      -8.22278023e+00 -1.03590002e+01 -1.70332003e+00 -1.03827000e+01</_>
    <_>
      -1.37134004e+00 2.30830002e+00 -2.51971990e-01 3.54036999e+00
      8.66694987e-01 4.75158978e+00 9.18811977e-01 5.80478001e+00
      1.27172995e+00 4.70666981e+00 1.60993004e+00 3.54234004e+00
      -1.28638995e+00 1.85927999e+00 -5.43584013e+00 1.04192996e+00
      -8.74505997e+00 1.40137005e+00 -9.03789043e+00 3.29391003e+00
      -9.55797958e+00 6.30123997e+00 -8.89896011e+00 8.41401958e+00
      -7.22437000e+00 1.07178001e+01 -5.44204998e+00 1.20088997e+01
      -2.28472996e+00 1.13501997e+01 -7.88299978e-01 7.18204021e+00
      1.45490003e+00 5.31766987e+00 -1.02415001e+00 -1.06637001e+00
      -9.82658029e-01 -2.24992990e+00 -1.16263998e+00 -1.34109998e+00
      -2.02626991e+00 -2.71727991e+00 -2.08884001e+00 -1.78737998e+00
      -2.04433990e+00 -2.07661009e+00 -2.08526993e+00 -2.23992991e+00
      -2.08644009e+00 -2.39836001e+00 -2.02255011e+00 -2.54434991e+00
      -8.23090017e-01 -2.46378994e+00 -3.49412990e+00 1.12252998e+00
      -3.05688000e+00 -1.00214005e+00 -3.99592996e+00 -1.14986002e+00
      -4.61892986e+00 -3.43066001e+00 3.35709006e-01 7.45513976e-01
      -1.76669002e+00 3.49258006e-01 -2.64273000e+00 -9.61884022e-01
      -5.25708008e+00 1.83023000e+00 -6.49268007e+00 2.65997005e+00 0.
      0. -2.03662992e+00 -1.47640002e+00 -8.03650022e-01 -2.50615001e+00
      -8.66638005e-01 -1.52829003e+00 -1.16650999e+00 7.12700009e-01
      -2.24780989e+00 6.74018979e-01 -9.56786990e-01 -9.22698975e-01
      -1.92944002e+00 -2.25559998e+00 -9.93484020e-01 -1.14663005e+00 0.
      0. -2.94281006e-01 2.22201991e+00 -2.29672003e+00 9.55054998e-01
      8.31258011e+00 1.51780005e+01 1.73183000e+00 7.53710985e+00
      -1.77190995e+00 1.43361998e+00 -3.11377001e+00 3.31767011e+00
      -3.12545991e+00 3.21798992e+00 -7.06506014e+00 7.95410013e+00
      -1.49493999e+01 1.75828991e+01 -9.21158981e+00 8.72688007e+00
      -5.20315981e+00 3.99050999e+00 -3.82974005e+00 2.11579990e+00
      -2.62062001e+00 1.30577004e+00 3.10921001e+00 6.64642000e+00
      8.78896046e+00 1.19239998e+01 -2.14931989e+00 4.65501022e+00
      -3.19408011e+00 4.40039015e+00 -4.41773987e+00 5.21295023e+00
      -1.34155998e+01 1.45873003e+01 -4.09160995e+00 3.06910992e+00
      -3.93645000e+00 2.10481000e+00 -2.58194995e+00 2.24487007e-01</_>
    <_>
      4.88734007e+00 1.23045998e+01 2.71287990e+00 1.21686001e+01
      3.28284001e+00 1.20990000e+01 5.20049000e+00 1.34708996e+01
      4.38373995e+00 1.32610998e+01 4.87800980e+00 1.29736004e+01
      3.89615989e+00 1.24913998e+01 7.12571001e+00 9.30817032e+00
      5.87554979e+00 8.66232014e+00 5.88013983e+00 6.65307999e+00
      5.57506990e+00 7.48534012e+00 6.63546991e+00 7.03397989e+00
      3.43259001e+00 5.15432978e+00 2.88424993e+00 4.96717978e+00
      2.30858994e+00 4.82467985e+00 1.66079998e+00 6.09813976e+00
      1.03261995e+00 6.02175999e+00 2.34283996e+00 3.44080997e+00
      -1.85922003e+00 -2.62444997e+00 -1.65970004e+00 -8.62475014e+00
      -1.81107000e-01 -9.01739025e+00 -2.16370001e-01 -5.24793005e+00
      -1.65298000e-01 -5.85473013e+00 -1.27579004e-01 -9.09515953e+00
      1.09192002e+00 -6.68907022e+00 2.35980010e+00 -2.90390992e+00
      -3.28368992e-01 8.30268979e-01 -1.19644001e-01 2.51694005e-02
      1.60143995e+00 1.49804997e+00 4.88525003e-01 4.24841022e+00
      2.23297000e+00 5.72325993e+00 4.88846016e+00 1.32683001e+01
      3.74732995e+00 1.02108002e+01 2.56151009e+00 7.12587023e+00
      1.04829001e+00 8.20901012e+00 8.32184017e-01 1.07763004e+01 0. 0.
      6.69327006e-02 -4.42493010e+00 1.45975995e+00 -4.63676023e+00
      1.24875998e+00 3.45448995e+00 -1.20757997e-01 3.66826010e+00
      -1.51356995e+00 3.88006997e+00 -1.41466999e+00 7.50564992e-01
      -1.29892004e+00 -5.09226990e+00 1.17264003e-01 -5.30210018e+00 0.
      0. -6.87102973e-02 3.04977989e+00 -1.48485994e+00 3.25962996e+00
      1.54708996e-01 9.19145012e+00 4.05206013e+00 1.32919998e+01
      4.09918022e+00 1.16154003e+01 2.79427004e+00 1.13409996e+01
      2.69706988e+00 1.24962997e+01 2.76926994e+00 1.21968002e+01
      5.86069012e+00 7.86191988e+00 2.00760007e+00 6.58565998e+00
      2.14759994e+00 5.48098993e+00 3.66097999e+00 2.99939990e+00
      3.52446008e+00 4.62147999e+00 3.24376011e+00 7.67687988e+00
      1.19606003e-01 1.04460001e+01 4.26255989e+00 1.16290998e+01
      2.86410999e+00 1.27454004e+01 2.86039996e+00 1.25100002e+01
      5.82532978e+00 9.39848042e+00 1.84223998e+00 5.47880983e+00
      3.24048996e+00 5.76102018e+00 3.17419004e+00 5.99050999e+00</_>
    <_>
      3.15786004e-01 -1.91433001e+00 -6.35675013e-01 -2.17234993e+00
      7.04886973e-01 -1.30656004e+00 8.91993999e-01 -4.10109997e-01
      2.20939994e+00 -7.05627024e-01 3.44922996e+00 1.23657003e-01
      3.44261003e+00 2.10876012e+00 3.32076001e+00 6.26281977e-01
      1.91527998e+00 -1.95388997e+00 1.64197004e+00 -2.15618992e+00
      1.71432003e-01 -1.04975998e+00 -1.31305003e+00 -2.18965006e+00
      -2.78032994e+00 -3.23751998e+00 -1.88469994e+00 -3.07839990e+00
      -9.73357975e-01 -2.90422010e+00 -6.23474009e-02 -2.74538994e+00
      -2.97057986e-01 -1.39433002e+00 3.06739993e-02 -7.77660012e-01
      -1.93015993e-01 -1.96572995e+00 1.94272995e+00 -9.61921990e-01
      2.96967006e+00 -5.27954008e-03 2.88081002e+00 9.42813993e-01
      -2.17319012e+00 1.75126004e+00 -1.23652995e+00 4.93936986e-01
      -2.62008995e-01 3.66816998e-01 -1.53481996e+00 -9.61911976e-01
      -1.51566005e+00 -5.83648973e-04 5.19820988e-01 6.05148017e-01
      6.62827015e-01 -7.13310003e-01 1.98273003e+00 -8.85788023e-01
      2.14099002e+00 -1.05051005e+00 3.58106995e+00 1.33661997e+00
      2.35595989e+00 8.38776007e-02 1.12292004e+00 -1.17641997e+00
      -1.31972998e-01 -5.89293987e-02 -1.37902999e+00 1.06608999e+00 0.
      0. -1.77543998e-01 -1.18897998e+00 8.50700021e-01 -1.32485998e+00
      -3.30078006e-01 -3.47328007e-01 9.87106025e-01 8.88198972e-01
      -1.21048999e+00 -1.29776001e-01 3.44817996e-01 3.16253990e-01
      1.44058004e-01 -8.79948020e-01 1.18015003e+00 -1.00829995e+00 0.
      0. 1.47079006e-01 1.20499003e+00 -8.89038026e-01 1.33331001e+00
      1.22495003e+01 1.04886999e+01 1.08701000e+01 6.90018988e+00
      6.06012011e+00 4.51093006e+00 2.51198006e+00 4.44306993e+00
      9.52605978e-02 4.39888000e+00 -5.79210997e+00 5.47011995e+00
      -8.18770027e+00 8.80303955e+00 -5.73326015e+00 -2.77863002e+00
      -9.85641003e-01 -8.54339981e+00 2.58516002e+00 -9.65316963e+00
      6.14859009e+00 -8.43157959e+00 1.09442997e+01 -1.34888005e+00
      1.21943998e+01 8.11248970e+00 4.95139980e+00 3.30967999e+00
      2.56475997e+00 4.38815022e+00 1.40288994e-01 3.18236995e+00
      -8.14828014e+00 6.53260994e+00 1.01150997e-01 -4.96441984e+00
      2.51818991e+00 -4.90488005e+00 6.07387018e+00 -4.84486008e+00</_>
    <_>
      1.91389000e+00 4.40997982e+00 1.89446998e+00 2.64387989e+00
      3.30466008e+00 9.02328014e-01 4.71483994e+00 -8.39278996e-01
      4.63286018e+00 -2.58155990e+00 4.47561979e+00 -4.28783989e+00
      2.80048990e+00 -5.94565010e+00 5.45138979e+00 -8.97155952e+00
      9.50524998e+00 -1.18739004e+01 1.20908003e+01 -1.18170996e+01
      1.18147001e+01 -1.02178001e+01 1.01451998e+01 -1.00349998e+01
      4.19778013e+00 -1.12811003e+01 1.20861995e+00 -9.55426025e+00
      -2.88605005e-01 -7.81418991e+00 -1.81099999e+00 -4.60719013e+00
      -1.85372996e+00 -2.84214997e+00 2.69645989e-01 -2.66893005e+00
      1.57314003e+00 -3.98952007e+00 -1.05827004e-01 -2.52614999e+00
      2.56764007e+00 -1.07508004e+00 8.90502989e-01 1.73132002e+00
      -2.34187007e+00 -1.20911002e+00 -1.07506001e+00 -2.56765008e+00
      1.67648003e-01 -2.52144003e+00 -4.32434008e-02 -2.54993010e+00
      -1.64498997e+00 -2.68936992e+00 3.61752009e+00 6.21033013e-02
      2.19112992e+00 -3.04629993e+00 5.10378981e+00 -4.66260004e+00
      5.11975002e+00 -6.31616020e+00 6.73851013e+00 -2.09771991e+00
      6.62717009e+00 -6.82097971e-01 5.08596992e+00 -2.17583990e+00
      2.08916998e+00 -2.17759991e+00 -9.07851994e-01 -2.16688991e+00 0.
      0. 1.34175003e+00 -2.82457995e+00 2.63484001e+00 -2.81483006e+00
      2.48723006e+00 -1.46194005e+00 2.62450004e+00 -4.19768989e-02
      -1.48117006e-01 2.83264995e+00 4.48181003e-01 -2.92699003e+00
      3.22281003e-01 -4.28457022e+00 1.60277998e+00 -2.82011008e+00 0.
      0. 1.55515003e+00 1.40698004e+00 2.62221992e-01 1.38478994e+00
      2.27826996e+01 1.51142998e+01 1.83428001e+01 7.90030003e+00
      1.09694004e+01 3.52092004e+00 6.49413013e+00 3.44408989e+00
      3.47236991e+00 1.99947000e+00 -3.96203995e+00 4.79407978e+00
      -1.13959999e+01 1.04611998e+01 -3.84608006e+00 -9.92702007e+00
      5.08232021e+00 -1.71725998e+01 8.10391045e+00 -1.57156000e+01
      1.25795002e+01 -1.42087002e+01 1.98887005e+01 -2.46883988e+00
      2.27455997e+01 1.22038002e+01 1.09337997e+01 7.77309990e+00
      6.48310995e+00 4.81176996e+00 3.44897008e+00 4.80942011e+00
      -1.27510996e+01 6.09807014e+00 3.66240001e+00 -1.99326992e+01
      6.69648981e+00 -1.99302998e+01 1.26267004e+01 -1.98533993e+01</_>
    <_>
      -8.62276018e-01 7.11244011e+00 9.55753028e-02 5.46926022e+00
      1.18173003e+00 1.72265995e+00 -9.41649973e-01 -1.08309996e+00
      -1.97005999e+00 -3.84069991e+00 -3.93287992e+00 -6.63367987e+00
      -4.78704023e+00 -8.33034039e+00 -4.45843983e+00 -1.10834999e+01
      -3.03806996e+00 -1.07379999e+01 -6.02447987e-01 -7.30634022e+00
      -2.52579004e-01 -4.14377022e+00 8.03069994e-02 -1.09240997e+00
      3.71459991e-01 1.83281004e+00 1.64914000e+00 4.70714998e+00
      1.88497996e+00 6.45809984e+00 2.12075996e+00 8.20903015e+00
      3.34537005e+00 9.96096039e+00 -1.75129998e+00 1.32596998e+01
      5.51590025e-01 1.64094009e+01 3.97487998e+00 1.87173004e+01
      4.31404018e+00 1.78652000e+01 6.73541021e+00 1.61056004e+01
      -7.63854980e+00 1.78852997e+01 -4.19290018e+00 2.01562004e+01
      -1.82523000e+00 2.24902000e+01 6.69036984e-01 1.96504002e+01
      5.08865023e+00 1.69829998e+01 -1.20743001e+00 4.62243986e+00
      -2.70141989e-01 3.88895988e+00 -3.95660013e-01 3.10981011e+00
      -1.57914996e+00 2.30481005e+00 1.57226995e-01 1.35688996e+00
      -1.79970002e+00 3.61220986e-01 -2.71216011e+00 4.56786990e-01
      -3.61819005e+00 1.52884996e+00 -3.44039989e+00 1.56882000e+00 0.
      0. -6.93672001e-01 -3.22866988e+00 -4.83954996e-01 -3.10214996e+00
      -4.90500987e-01 3.16536009e-01 -6.72011971e-01 -8.16070974e-01
      -9.34813976e-01 1.32584006e-01 -6.29333019e-01 -2.95601010e-01
      -2.42270994e+00 -1.47869003e+00 -1.14269996e+00 -1.31883001e+00 0.
      0. -1.23711002e+00 -1.10657001e+00 -1.50480998e+00 -1.77710995e-01
      5.55794001e-01 2.84929991e+00 -2.48795003e-01 3.86477995e+00
      -1.01165998e+00 2.80882001e+00 -1.92416000e+00 2.90439010e+00
      -4.95097017e+00 3.90494990e+00 -5.88206005e+00 5.13013983e+00
      -5.70233011e+00 5.39000988e+00 -7.74251986e+00 -5.21703005e+00
      -5.63199997e+00 -1.15257998e+01 -2.61001992e+00 -1.25460997e+01
      -7.00133979e-01 -1.15283003e+01 2.15078998e+00 -7.38498020e+00
      -3.24570000e-01 7.49877989e-01 -1.13176000e+00 3.99502993e+00
      -3.04163003e+00 2.97720003e+00 -4.98718023e+00 2.97779989e+00
      -5.76282978e+00 4.27997017e+00 -5.54854012e+00 -1.07047997e+01
      -3.57713008e+00 -1.17632999e+01 -5.58715999e-01 -1.17627001e+01</_>
    <_>
      1.54428005e+00 8.07448983e-01 1.19639003e+00 8.51112008e-01
      2.28291011e+00 -6.98746026e-01 3.32462013e-01 -2.04418993e+00
      -1.47955000e+00 -1.81682003e+00 -1.72948003e+00 -1.57931995e+00
      -4.08394009e-01 -1.37695003e+00 -5.45929015e-01 -1.06527996e+00
      -5.60257018e-01 -7.10083008e-01 -4.74914998e-01 -3.82111013e-01
      -2.66418010e-01 -1.28539994e-01 6.96410984e-02 1.61096001e+00
      2.64679015e-01 2.31827006e-01 6.69556022e-01 1.81541002e+00
      8.93494010e-01 3.14864993e-01 1.20334005e+00 3.20160002e-01
      1.51323998e+00 3.25455010e-01 2.92848992e+00 -3.53320003e+00
      1.70798004e+00 -1.76038003e+00 1.79872000e+00 -1.50671995e+00
      1.71474004e+00 -2.76247001e+00 1.40212998e-01 -2.40290999e+00
      1.76645994e+00 -7.07557976e-01 3.36899012e-01 -3.66207004e-01
      3.67783010e-01 -1.19781002e-01 2.36693993e-01 -1.39907002e+00
      1.55413997e+00 -1.34350002e+00 1.51815999e+00 -8.08921993e-01
      1.34421003e+00 -7.87101984e-01 -3.62731993e-01 -6.61239982e-01
      8.66943002e-01 -2.24382997e+00 7.40692019e-01 -1.02058005e+00
      7.28057981e-01 -8.86429012e-01 7.15439022e-01 -7.52335012e-01
      7.46291995e-01 -6.23672009e-01 7.75345027e-01 -5.09598017e-01 0.
      0. 1.53595996e+00 -1.48846996e+00 1.54325998e+00 -1.31269002e+00
      1.44369996e+00 -1.16769004e+00 -1.23833001e-01 -1.22130001e+00
      1.47687995e+00 3.55377011e-02 2.91107011e+00 -2.14692998e+00
      1.61440003e+00 -3.94008994e-01 1.01410002e-01 -1.30515993e-01 0.
      0. 1.37273002e+00 -1.73301995e+00 1.36725998e+00 -1.89431000e+00
      3.31764013e-01 2.97028005e-01 3.52829009e-01 -1.06024003e+00
      -1.06948996e+00 -7.78671026e-01 3.19687009e-01 -2.26345992e+00
      -1.15344000e+00 -2.03442001e+00 3.87589008e-01 -4.31457996e-01
      -1.23230004e+00 -1.98730007e-01 6.43158033e-02 -1.95163000e+00
      8.67156982e-02 -5.99853992e-01 7.03582987e-02 -7.30301023e-01
      1.70684993e-01 6.55898988e-01 2.19482005e-01 4.58373994e-01
      2.38631994e-01 -1.14895999e+00 -1.23075998e+00 -7.73132026e-01
      -1.33113003e+00 -2.15935993e+00 -1.21250999e+00 -5.10406017e-01
      -1.24138999e+00 -2.71194011e-01 3.05999994e-01 -6.12609982e-01
      2.89566010e-01 -7.43088007e-01 2.87734985e-01 -8.75365973e-01</_>
    <_>
      -3.14445011e-02 1.19482005e+00 -6.28909990e-02 2.38963008e+00
      1.13191998e+00 2.42105007e+00 3.52151990e+00 2.48394990e+00
      3.49008989e+00 3.67877007e+00 2.29527998e+00 3.64734006e+00
      1.13192999e+00 2.42109990e+00 1.13194001e+00 2.42105007e+00
      1.16336000e+00 1.22628999e+00 1.19479001e+00 3.14636007e-02
      1.22626996e+00 -1.16331005e+00 2.42109990e+00 -1.13188004e+00
      6.28966987e-02 -2.38960004e+00 6.28662035e-02 -2.38959002e+00
      3.14940996e-02 -1.19481003e+00 6.29272014e-02 -2.38960004e+00
      9.43604037e-02 -3.58441997e+00 1.19480002e+00 3.14484015e-02
      1.19479001e+00 3.14292982e-02 1.19480002e+00 3.14388014e-02 0.
      1.14441000e-05 1.16332996e+00 1.22624004e+00 -6.28814995e-02
      2.38963008e+00 0. 1.90735000e-06 1.19479001e+00 3.14407013e-02
      -3.14636007e-02 1.19480002e+00 -3.14636007e-02 1.19481003e+00
      -3.14177983e-02 1.19482005e+00 1.52588000e-05 1.52588000e-05
      1.52588000e-05 0. 0. 3.05176000e-05 1.16338003e+00 1.22625995e+00
      -3.14331017e-02 1.19482005e+00 -3.14484015e-02 1.19481003e+00
      -1.22624004e+00 1.16341996e+00 -1.22623003e+00 1.16339004e+00 0.
      0. -1.52588000e-05 1.14441000e-05 -7.62938998e-06 -7.62938998e-06
      1.52588000e-05 0. -3.14484015e-02 1.19481003e+00 -3.14331017e-02
      1.19482005e+00 3.05176000e-05 0. 0. 3.81469999e-06 1.19481003e+00
      3.14369015e-02 0. 0. -3.14331017e-02 1.19481003e+00
      -1.22625995e+00 1.16338003e+00 6.98016977e+00 7.35751009e+00
      3.52155995e+00 2.48400998e+00 1.13192999e+00 2.42108011e+00
      -6.29120022e-02 2.38963008e+00 -6.28966987e-02 2.38963008e+00
      -2.45248008e+00 2.32677007e+00 -4.93639994e+00 5.84830999e+00
      -2.51537991e+00 4.71637011e+00 -6.28966987e-02 2.38962007e+00
      -6.28814995e-02 2.38963008e+00 1.13190997e+00 2.42109990e+00
      3.49009991e+00 3.67876005e+00 7.01163006e+00 6.16269016e+00
      1.13189995e+00 2.42109990e+00 1.10048997e+00 3.61589003e+00
      -9.42993015e-02 3.58443999e+00 -3.71016002e+00 4.68488979e+00
      1.10051000e+00 3.61588001e+00 -9.43297967e-02 3.58442998e+00
      1.10048997e+00 3.61588001e+00</_>
    <_>
      -1.55457005e-01 -1.23193002e+00 8.07775021e-01 3.84079009e-01
      1.82854998e+00 -1.23954999e+00 2.77138996e+00 -7.06328988e-01
      2.65288997e+00 -2.35349989e+00 2.39150000e+00 -3.95139003e+00
      8.87557983e-01 -5.52064991e+00 1.47238004e+00 -6.89752007e+00
      7.85950005e-01 -5.94598007e+00 -9.32296991e-01 -7.03339005e+00
      -1.58624005e+00 -4.62009001e+00 -1.01323998e+00 -4.20015001e+00
      -2.42682004e+00 -4.82741022e+00 -2.60876012e+00 -4.24371004e+00
      -2.77379990e+00 -3.61894011e+00 -1.91714001e+00 -8.16689014e-01
      -9.03320014e-01 -1.65489003e-01 1.56994998e+00 3.93310994e-01
      1.23011005e+00 6.86886013e-01 1.88213003e+00 -2.47266993e-01
      2.46568990e+00 -2.44433999e-01 2.03970003e+00 -1.49614000e+00
      -8.51882994e-01 -5.06686985e-01 -2.41744995e-01 -3.22811007e-01
      -8.01192999e-01 7.97196984e-01 -2.29614004e-01 1.78093004e+00
      -5.83953977e-01 1.45652997e+00 5.16906977e-01 1.27824998e+00
      5.87723017e-01 -2.35679999e-01 -4.38293010e-01 -1.80983996e+00
      7.12418020e-01 -3.30456996e+00 2.23087001e+00 -1.38926995e+00
      9.00909007e-01 -1.52628005e+00 6.68518007e-01 -2.70409012e+00
      -7.33246028e-01 -1.58591998e+00 -2.05496001e+00 -1.56305003e+00 0.
      0. -2.88666010e-01 1.38110995e-01 5.12000978e-01 -9.24468994e-01
      2.06855997e-01 -1.10598004e+00 4.88891989e-01 -6.37741014e-02
      7.68119991e-01 1.01801002e+00 9.75143015e-01 -1.08965003e+00
      -1.55188000e+00 8.56361017e-02 2.86835015e-01 1.60258994e-01 0. 0.
      2.45422006e-01 9.99687016e-01 -5.16327024e-01 9.83856022e-01
      6.90014982e+00 4.52407980e+00 5.51347017e+00 2.43930006e+00
      4.14948988e+00 3.16406012e-01 6.42226994e-01 -9.81276989e-01
      -1.79612994e+00 -1.02011001e+00 -4.41965008e+00 9.30922985e-01
      -8.21996021e+00 3.91704011e+00 -5.45141983e+00 -5.64072013e-01
      -2.83036995e+00 -2.75402999e+00 7.62070000e-01 -3.71218991e+00
      4.27225018e+00 -2.45411992e+00 5.57991982e+00 9.84772027e-01
      6.80202007e+00 3.41573000e+00 4.16536999e+00 9.86481011e-02
      6.16240978e-01 -8.10241997e-02 -1.83902001e+00 -1.60889000e-01
      -7.98074007e+00 1.73214996e+00 -2.83804011e+00 -2.37650990e+00
      6.95602000e-01 -2.25765991e+00 4.20576000e+00 -9.99541998e-01</_>
    <_>
      -2.24905992e+00 5.46815014e+00 -1.92224002e+00 6.30795002e+00
      -4.35256988e-01 8.12637043e+00 -1.01146996e+00 9.98064995e+00
      -2.47319007e+00 1.29048004e+01 -1.74905002e+00 1.35579004e+01
      1.36603996e-01 1.50978003e+01 2.03597999e+00 1.33239002e+01
      3.95099998e+00 1.11190004e+01 4.75603008e+00 9.65939045e+00
      3.20958996e+00 6.87894011e+00 3.63514996e+00 7.03593016e+00
      3.86008000e+00 6.11269999e+00 3.81823993e+00 6.23508978e+00
      3.62972999e+00 5.35152006e+00 2.45544004e+00 4.48655987e+00
      2.24798989e+00 3.63940001e+00 -7.82012998e-04 -3.32009006e+00
      -1.80763996e+00 -5.86595011e+00 -1.25261998e+00 -8.17712021e+00
      -6.36291981e-01 -1.02946997e+01 -9.35073972e-01 -9.19775009e+00
      5.26521015e+00 -7.64948988e+00 4.77150011e+00 -9.02175999e+00
      4.40379000e+00 -7.21560001e+00 3.06483006e+00 -4.12992001e+00
      -5.16937017e-01 -2.66082001e+00 4.10115004e+00 -1.73380995e+00
      4.35735989e+00 9.29023981e-01 6.66805983e+00 3.52833009e+00
      6.89690018e+00 5.17778015e+00 3.31646991e+00 7.80987978e+00
      4.66906977e+00 7.79678011e+00 6.01320982e+00 6.73387003e+00
      4.26438999e+00 6.60936022e+00 4.51465988e+00 6.43877983e+00 0. 0.
      -8.24721992e-01 -4.33359003e+00 2.72167993e+00 -3.52361989e+00
      2.31977010e+00 2.74676991e+00 1.98624003e+00 3.96572995e+00
      -5.46822011e-01 3.12837005e+00 -8.46100003e-02 2.39487004e+00
      -9.26620007e-01 -3.01616001e+00 1.51529002e+00 -4.22446012e+00 0.
      0. 2.83447003e+00 2.17920995e+00 1.36986005e+00 2.31908011e+00
      -1.90746999e+00 1.22495003e+01 3.55049992e+00 1.27369003e+01
      4.85271978e+00 9.39966965e+00 4.17859983e+00 9.44130993e+00
      3.37962008e+00 7.23499012e+00 3.87410998e+00 9.30504990e+00
      3.29029989e+00 9.43982029e+00 4.01314020e+00 8.81713963e+00
      5.76030016e+00 1.00555000e+01 5.47337008e+00 1.12292995e+01
      7.24196005e+00 1.32700005e+01 3.73412991e+00 1.43397999e+01
      -7.09250987e-01 1.21330996e+01 6.02600002e+00 1.17308998e+01
      4.25742006e+00 9.69021988e+00 4.58054018e+00 9.55745983e+00
      3.12410998e+00 1.05145998e+01 4.58899021e+00 1.06072998e+01
      5.31570005e+00 1.07314997e+01 6.06215000e+00 1.27720003e+01</_>
    <_>
      5.08494997e+00 7.08578014e+00 5.97610998e+00 7.57523012e+00
      4.37942982e+00 4.38794994e+00 3.97287011e+00 3.68723011e+00
      2.18786001e+00 3.08414006e+00 1.50224996e+00 2.62298989e+00
      1.94233000e+00 2.38457990e+00 -1.32355005e-01 2.26254010e+00
      -9.47494984e-01 2.40880990e+00 -2.89148998e+00 1.51828003e+00
      -3.41455007e+00 3.36646008e+00 -2.58736992e+00 5.30478001e+00
      -2.81638002e+00 6.06357002e+00 -1.56939995e+00 8.10323048e+00
      -1.44063997e+00 8.86458969e+00 -2.55504990e+00 1.08516998e+01
      -1.12917995e+00 1.28926001e+01 2.09221005e+00 -1.08557999e+00
      -7.47283995e-01 -4.38009024e+00 -1.27719998e+00 -6.61149979e+00
      -6.25046015e-01 -7.73409986e+00 -1.26067996e+00 -7.67598009e+00
      1.65404999e+00 -4.89982986e+00 -1.02219000e-01 -7.02363014e+00
      5.84854007e-01 -4.25433016e+00 1.24634004e+00 -4.17806005e+00
      -1.75753999e+00 -6.83444977e-01 -6.14181995e-01 -4.22703981e+00
      -7.98629999e-01 -5.96395016e+00 2.69515991e-01 -6.46632004e+00
      7.62633979e-02 -8.23011971e+00 -7.07168996e-01 -4.98813009e+00
      -1.01119995e+00 -3.74675012e+00 -1.33336997e+00 -4.99256992e+00
      8.92943978e-01 -4.80680990e+00 -5.75591981e-01 -4.62040997e+00 0.
      0. -2.35267997e-01 -3.41023993e+00 5.68877995e-01 -1.99995005e+00
      1.40349999e-01 -3.38966990e+00 4.73152012e-01 -1.12389004e+00
      -3.66607994e-01 -1.29087996e+00 -1.67220995e-01 -1.64732003e+00
      8.40775013e-01 -3.76045990e+00 4.10416007e-01 -3.62037992e+00 0.
      0. 1.51359999e+00 -1.49225998e+00 6.82555974e-01 -1.63233995e+00
      -4.39949006e-01 -1.04091001e+00 1.66938996e+00 -7.57552981e-01
      3.94744985e-02 -1.78004003e+00 -2.76054001e+00 -5.47393978e-01
      -3.00329995e+00 8.82278025e-01 -4.67636013e+00 8.97247016e-01
      -2.62767005e+00 -3.58581990e-01 -6.06035995e+00 -7.40768015e-01
      -5.71878004e+00 -3.49381995e+00 -4.19711018e+00 -4.86974001e+00
      -1.38769996e+00 -4.90347004e+00 1.54683006e+00 -2.39557004e+00
      1.88585997e+00 2.54913002e-01 -1.27384996e+00 -3.29231000e+00
      -2.82184005e+00 -3.25857997e+00 -4.34352016e+00 -1.88266003e+00
      -4.96223021e+00 -4.19845998e-01 -4.34352016e+00 -6.21215999e-01
      -2.83058000e+00 -7.62603998e-01 -1.27384996e+00 -2.03086996e+00</_>
    <_>
      2.18731001e-01 2.84176993e+00 5.54205000e-01 2.44430995e+00
      3.34470010e+00 3.16055012e+00 2.53698993e+00 2.72560000e+00
      4.21974993e+00 2.17060995e+00 1.24802005e+00 2.65513992e+00
      -4.22775000e-01 2.93796992e+00 -2.04250002e+00 4.27121019e+00
      -3.66840005e+00 5.33267021e+00 -3.00695992e+00 3.72198009e+00
      -1.31638002e+00 1.91565001e+00 1.46940994e+00 2.42348003e+00
      5.30484009e+00 4.04070997e+00 5.30481005e+00 4.43964005e+00
      1.58782995e+00 2.44800997e+00 1.42471004e+00 1.65390003e+00
      2.42123008e+00 2.02109003e+00 -3.07050991e+00 1.04958000e+01
      -2.88066006e+00 7.68100023e+00 -4.07485999e-02 6.18399000e+00
      1.66977000e+00 4.85772991e+00 3.41824007e+00 4.79984999e+00
      9.72075999e-01 6.86811018e+00 1.42783999e+00 7.77342987e+00
      1.90292001e+00 8.73272038e+00 1.22168005e+00 9.87238979e+00
      -6.88018978e-01 1.24090004e+01 5.64499021e-01 1.70064998e+00
      7.09685981e-01 2.10532999e+00 -3.59573007e-01 2.52852988e+00
      -2.23235995e-01 1.74576998e+00 -5.78490973e-01 -1.12010002e+00
      -2.97805995e-01 6.11420013e-02 2.13623003e-04 1.20574999e+00
      2.64365005e+00 -1.59835994e-01 1.65224004e+00 -2.69391990e+00 0.
      0. 2.64030010e-01 2.04293990e+00 -5.36064029e-01 1.94325995e+00
      -9.65958014e-02 -2.60711998e-01 -4.27123994e-01 -1.24141002e+00
      3.37112010e-01 -2.31952000e+00 1.33325005e+00 -7.73727000e-01
      1.61374998e+00 2.39300990e+00 -3.83468986e-01 2.27523994e+00 0. 0.
      -2.47528002e-01 -9.19112980e-01 5.07843018e-01 -3.18467999e+00
      3.97465992e+00 -5.82012987e+00 1.96197999e+00 -3.82516003e+00
      -1.28034997e+00 -1.68441999e+00 1.96259007e-01 -1.73608005e+00
      4.19678003e-01 -1.87716997e+00 -2.74316001e+00 -5.41356993e+00
      -3.47513008e+00 -8.89647007e+00 -2.65114999e+00 -1.21336002e+01
      -5.97931027e-01 -1.19446001e+01 3.47153008e-01 -9.45475960e+00
      5.88379018e-02 -1.05724001e+01 2.07252002e+00 -9.33080959e+00
      4.14493990e+00 -7.10231018e+00 -1.16501999e+00 -2.00195000e-01
      3.10759991e-01 9.08568978e-01 5.35018981e-01 -3.92944008e-01
      -3.67365003e+00 -8.85564995e+00 -7.59598017e-01 -1.34730997e+01
      2.03597993e-01 -1.21803999e+01 -1.24477994e+00 -1.08872995e+01</_>
    <_>
      -3.94759989e+00 1.39273005e+01 -2.20743990e+00 1.51980000e+01
      -2.73816991e+00 1.71790009e+01 -8.34758997e-01 1.72637005e+01
      2.43457007e+00 1.52662001e+01 4.68422985e+00 1.18090000e+01
      4.35065985e+00 9.98388958e+00 1.90041006e+00 6.61630011e+00
      8.79119992e-01 6.56149006e+00 8.22722971e-01 6.66406012e+00
      -6.32018983e-01 6.76684999e+00 -1.46405005e+00 9.25522995e+00
      -2.37402010e+00 1.08245001e+01 -2.24944997e+00 1.17010002e+01
      -9.17846978e-01 1.17657003e+01 -1.71841002e+00 1.15427999e+01
      -2.22229004e-01 1.06167002e+01 -1.39330995e+00 -6.17546022e-01
      -9.27055001e-01 1.31448999e-01 -2.99176002e+00 -1.89742994e+00
      -2.62588000e+00 -3.61124992e+00 -3.32927990e+00 -4.30801010e+00
      4.21109009e+00 -3.23102999e+00 3.71294999e+00 -1.74187005e+00
      2.32734990e+00 -3.88502002e-01 -8.42132986e-01 -3.73604000e-01
      -1.24756002e+00 -1.94047999e+00 1.27350998e+00 4.57040024e+00
      1.92024004e+00 3.54696989e+00 3.51507998e+00 3.74057007e+00
      3.90003991e+00 4.85651016e+00 2.55317998e+00 9.76858997e+00
      1.78320003e+00 8.21154976e+00 2.06998992e+00 6.78180981e+00
      -4.62875009e-01 8.23307991e+00 -1.90174997e+00 9.87775040e+00 0.
      0. 2.78252006e-01 -1.13176003e+01 2.32068992e+00 -1.04081001e+01
      -1.37330997e+00 1.80897999e+00 -2.58002996e-01 2.42563009e+00
      -2.45356989e+00 2.56560993e+00 7.39242971e-01 2.46678996e+00
      1.16637003e+00 -9.98511028e+00 3.42077994e+00 -1.01365004e+01 0.
      0. 1.89880002e+00 2.82446003e+00 -3.22555989e-01 2.95722008e+00
      1.39251995e+00 1.80091991e+01 2.71673989e+00 1.43776999e+01
      2.81427002e+00 1.27284002e+01 -1.25121996e-01 1.08177004e+01
      -1.41509998e+00 1.13281002e+01 -1.82783997e+00 1.51089001e+01
      -3.02231002e+00 1.77745991e+01 -2.90802002e+00 1.16428003e+01
      -1.11424005e+00 8.02392960e+00 1.03198004e+00 8.76066971e+00
      3.26108003e+00 8.40044975e+00 3.81320000e+00 1.12395000e+01
      1.61035001e+00 1.67271996e+01 3.34331989e+00 1.17278004e+01
      1.91971004e-01 1.08781004e+01 -1.03917003e+00 1.13771000e+01
      -2.72622991e+00 1.58118000e+01 -1.92124999e+00 1.01226997e+01
      1.46784997e+00 9.91856003e+00 3.37630010e+00 1.17091999e+01</_>
    <_>
      6.58428013e-01 2.50664997e+00 1.03724003e+00 -3.41820002e-01
      2.66857004e+00 -7.56865978e-01 5.46406984e+00 -3.63163996e+00
      9.97635007e-01 -3.77694988e+00 -3.50693989e+00 -4.88840008e+00
      -4.33029985e+00 -4.63749981e+00 -6.38465977e+00 -5.42196989e+00
      -6.97394991e+00 -4.72720003e+00 -6.13651991e+00 -5.12515020e+00
      -6.15056992e+00 -2.97519994e+00 -6.06194019e+00 -2.07063007e+00
      -9.37526989e+00 1.23901004e-02 -1.24930000e+01 7.61672974e-01
      -9.40775013e+00 1.08078003e-01 -6.27960014e+00 3.04487991e+00
      -5.57778978e+00 4.76497984e+00 7.51731992e-01 -8.77017975e+00
      3.28555989e+00 -5.76875019e+00 1.79694998e+00 -5.14094019e+00
      1.39374006e+00 -4.62287998e+00 -3.59894007e-01 -3.07424998e+00
      1.42938006e+00 -2.17185998e+00 -1.09454000e+00 -1.51306999e+00
      -2.57599998e+00 -9.54464018e-01 -4.20547009e+00 -2.85311007e+00
      -1.15442002e+00 -5.08586979e+00 -1.10688996e+00 1.91454005e+00
      -1.65833998e+00 3.63853008e-01 -2.20978999e+00 -2.38685989e+00
      -1.56122994e+00 -3.93755007e+00 4.75832987e+00 2.46993995e+00
      8.36211979e-01 1.54453003e+00 -4.32888985e+00 6.28677011e-01
      -8.04094982e+00 2.23685002e+00 -9.33631992e+00 3.81875992e+00 0.
      0. -1.35502005e+00 -9.18227005e+00 3.21834993e+00 -8.88385010e+00
      2.86994004e+00 9.74021971e-01 3.10371995e+00 5.40639019e+00
      -1.46959996e+00 6.30798006e+00 -2.99169993e+00 1.38542998e+00
      -3.07748008e+00 -6.58969021e+00 1.49585998e+00 -8.69128990e+00 0.
      0. 3.76455998e+00 5.62521982e+00 -2.05175996e+00 6.53636980e+00
      1.66434002e+01 8.34292984e+00 1.28931999e+01 1.01850004e+01
      4.10911989e+00 5.98899984e+00 -4.63685989e+00 6.35902023e+00
      -1.32587004e+01 8.08180046e+00 -2.08523006e+01 1.22427998e+01
      -2.49438992e+01 1.26677999e+01 -2.16138992e+01 -1.44145000e+00
      -1.31352997e+01 -8.20285034e+00 -5.68726015e+00 -9.90894032e+00
      3.03959990e+00 -1.03648996e+01 1.20696001e+01 -5.97561979e+00
      1.89335995e+01 8.45750046e+00 2.69904995e+00 1.06554003e+01
      -4.84692001e+00 8.62543964e+00 -1.22783003e+01 1.15052004e+01
      -2.60865993e+01 1.25198002e+01 -1.39939003e+01 -1.27858000e+01
      -5.34589005e+00 -1.44919004e+01 2.17383003e+00 -1.36786003e+01</_>
    <_>
      6.93722010e-01 8.94830036e+00 1.26125002e+00 8.04905987e+00
      2.77266002e+00 8.11544991e+00 1.46272004e+00 7.20598984e+00
      2.06147003e+00 6.35039997e+00 1.78315997e+00 5.60912991e+00
      2.53279996e+00 5.91042995e+00 1.45763004e+00 6.24557018e+00
      3.30957007e+00 7.62332010e+00 3.35959005e+00 7.07180977e+00
      6.36573982e+00 4.61825991e+00 8.48262024e+00 3.05662990e+00
      6.87402010e+00 2.30669999e+00 4.38823986e+00 4.85473990e-01
      1.92519999e+00 5.10254025e-01 1.35010004e+00 5.56273997e-01
      7.80640006e-01 1.54128003e+00 1.83745995e-01 -3.14507008e+00
      4.21413004e-01 -3.92835999e+00 -4.48318005e-01 -3.66367006e+00
      -1.38312995e+00 -5.26743984e+00 -1.46475005e+00 -4.97957993e+00
      -1.48564005e+00 -4.52940989e+00 -2.37707996e+00 -2.35528994e+00
      -3.32800007e+00 -1.11065996e+00 -3.42006993e+00 -8.33759010e-01
      -3.63818002e+00 -2.57693005e+00 -7.51160026e-01 -3.79390001e+00
      -9.44213986e-01 -5.69745016e+00 -1.14261997e+00 -6.65151978e+00
      -1.36269999e+00 -7.59533978e+00 3.05872989e+00 -2.16805005e+00
      1.14081001e+00 -3.00005007e+00 -1.72710001e+00 -3.81594992e+00
      -2.66388988e+00 -2.72122002e+00 -4.54991007e+00 -1.64256001e+00 0.
      0. -8.08067024e-01 -2.70073009e+00 1.47522002e-01 -2.49135995e+00
      3.95965995e-03 -4.13024992e-01 -4.55399007e-02 1.30263996e+00
      -1.01719999e+00 2.04252005e+00 -9.53200996e-01 3.96926999e-01
      -1.76738000e+00 -1.32219005e+00 1.16256997e-01 -1.10792994e+00 0.
      0. -7.17009977e-02 1.74734998e+00 -1.00580001e+00 1.53845000e+00
      -1.37679994e+00 1.33693004e+00 -2.13807988e+00 -2.24794006e+00
      -2.02958989e+00 -4.91184998e+00 -1.12105000e+00 -3.80762005e+00
      -1.26938000e-01 -4.58989000e+00 7.43072987e-01 -2.49396992e+00
      3.43091011e+00 -1.30663002e+00 1.49389994e+00 -1.53280997e+00
      -4.11377013e-01 -1.73679996e+00 -1.36798000e+00 -1.90325999e+00
      -2.33011007e+00 -1.10952997e+00 -2.34186006e+00 -3.53347987e-01
      -1.34096003e+00 4.63257015e-01 -2.17438006e+00 -2.06634998e+00
      -1.24440002e+00 -9.61609006e-01 6.72133982e-01 -7.78838992e-01
      1.54997003e+00 -4.53186005e-01 6.77505016e-01 -1.72829998e+00
      -1.24463999e+00 -9.50896978e-01 -2.19073009e+00 -1.10637999e+00</_>
    <_>
      -6.11975014e-01 3.46883011e+00 -5.78768015e-01 4.39032984e+00
      -5.52757025e-01 5.32053995e+00 2.83230996e+00 3.74547005e+00
      3.76204991e+00 -1.15355998e-02 1.26107001e+00 -1.25626004e+00
      -1.25062001e+00 -1.28564000e+00 -1.61242998e+00 -3.68698001e+00
      -3.11124992e+00 -4.79583979e+00 -3.28442001e+00 -2.43909001e+00
      -3.36234999e+00 1.14672995e+00 -5.82006979e+00 2.58355999e+00
      -5.88849020e+00 3.94911003e+00 -3.49676991e+00 6.38642979e+00
      -2.40930009e+00 5.41240978e+00 -1.32985997e+00 4.43912983e+00
      -1.39337003e+00 3.53666997e+00 -2.46715999e+00 -6.69176006e+00
      -3.86736012e+00 -8.85552979e+00 -5.19431019e+00 -8.77488995e+00
      -4.10014009e+00 -6.53318024e+00 -5.25687981e+00 -3.04359007e+00
      2.73073006e+00 -1.10950005e+00 3.55214000e+00 -4.57454014e+00
      3.20999002e+00 -8.01502991e+00 3.03960991e+00 -8.03067017e+00
      1.91803002e+00 -4.59275007e+00 1.55658996e+00 -3.51231003e+00
      3.33754987e-01 -4.76052999e+00 3.19016010e-01 -4.91188002e+00
      -9.04555976e-01 -6.16805983e+00 3.94706988e+00 -5.39286995e+00
      1.55214000e+00 -5.29700994e+00 -8.50784004e-01 -5.20031977e+00
      -2.03375006e+00 -3.96771002e+00 -4.36839008e+00 -2.67151999e+00 0.
      0. -2.46674991e+00 -9.74636018e-01 -2.53934002e+00 1.82278007e-01
      -1.60450995e+00 -2.28060007e+00 -1.43020999e+00 -1.14767003e+00
      -1.24554002e+00 8.38469993e-03 1.38144004e+00 -2.41781998e+00
      1.82357997e-01 -1.10324001e+00 5.49011007e-02 -1.09087002e+00 0.
      0. 1.30785000e+00 1.04697001e+00 2.19192997e-01 -6.15005009e-02
      1.75464993e+01 6.38525009e+00 1.38071003e+01 4.31199980e+00
      5.38375998e+00 1.28644001e+00 -4.52881008e-01 2.70561004e+00
      -6.34131002e+00 3.01206994e+00 -1.32112999e+01 7.94901991e+00
      -1.66110001e+01 1.26857004e+01 -1.47655001e+01 -2.70720989e-01
      -6.85475016e+00 -7.65674019e+00 -2.23009992e+00 -1.02125998e+01
      4.82909012e+00 -1.05523996e+01 1.22045002e+01 -5.06904984e+00
      1.85303993e+01 4.01410007e+00 5.38319016e+00 1.19799995e+00
      -1.66877997e+00 1.52907002e+00 -6.34183979e+00 2.92369008e+00
      -1.67236996e+01 9.20680046e+00 -8.22774029e+00 -1.21068001e+01
      -2.45057988e+00 -1.47182999e+01 4.60143995e+00 -1.50493002e+01</_>
    <_>
      2.44375992e+00 3.00139999e+00 2.30423999e+00 4.22276020e+00
      3.41863990e+00 6.54652023e+00 5.56175995e+00 6.45495987e+00
      7.57517004e+00 4.04683018e+00 6.07796001e+00 1.92233002e+00
      3.37373996e+00 -1.26782000e+00 1.87681997e+00 -4.50335979e+00
      1.63838005e+00 -7.78204012e+00 6.58981025e-01 -5.10137987e+00
      2.19946003e+00 -1.43855000e+00 7.50121996e-02 5.86548001e-02
      -4.43853998e+00 4.64554012e-01 -5.33960009e+00 1.77025998e+00
      -5.04983997e+00 2.96474004e+00 -1.24228001e+00 3.93407989e+00
      2.49886990e+00 3.73255992e+00 1.74998999e+00 -1.21549997e+01
      3.22861004e+00 -9.76537991e+00 2.13136005e+00 -9.51292038e+00
      3.52776003e+00 -5.84954023e+00 2.37149000e+00 -4.41096020e+00
      -3.51383996e+00 -3.77849007e+00 -2.32947993e+00 -4.84732008e+00
      -1.20366001e+00 -5.90897989e+00 -2.51238990e+00 -6.83510017e+00
      -1.54919004e+00 -7.97875977e+00 -1.33257997e+00 -4.04435015e+00
      -1.62609994e+00 -6.38334990e+00 -6.74133003e-01 -7.61892986e+00
      -9.00313973e-01 -8.77877045e+00 6.52498007e+00 -1.15996003e+00
      2.90926003e+00 -2.01694012e+00 -7.83249021e-01 -4.06042004e+00
      -4.21506977e+00 -2.57351995e+00 -6.47710991e+00 -1.16132998e+00 0.
      0. 1.47468999e-01 1.27968001e+00 1.62765995e-01 1.40503001e+00
      -1.09725997e-01 -2.01365995e+00 1.24899006e+00 1.34048998e+00
      1.22924998e-01 2.47005010e+00 -1.25389004e+00 -1.45016003e+00
      -9.69635010e-01 2.20459008e+00 -9.72091973e-01 2.32362008e+00 0.
      0. -1.06501997e+00 2.32646990e+00 -3.41993999e+00 2.35054994e+00
      1.98558006e+01 8.42768955e+00 1.51535997e+01 7.70309019e+00
      6.72897005e+00 4.82845020e+00 2.00246000e+00 5.22640991e+00
      -4.00352001e+00 3.33763003e+00 -1.09642000e+01 6.28090000e+00
      -1.56631002e+01 7.87978983e+00 -1.19488001e+01 -6.66890001e+00
      -4.28058004e+00 -1.55675001e+01 1.58966005e+00 -1.60454998e+01
      6.38252020e+00 -1.52726002e+01 1.63728008e+01 -7.76280022e+00
      2.21445007e+01 7.16488981e+00 6.93065023e+00 9.54494953e+00
      9.66965020e-01 8.83845997e+00 -2.62270999e+00 7.98676014e+00
      -1.57365999e+01 6.65047979e+00 -4.30568981e+00 -1.79307995e+01
      1.56453001e+00 -1.84087009e+01 7.46085978e+00 -1.88813992e+01</_>
    <_>
      8.95689011e-01 -4.80088997e+00 -3.30606014e-01 -3.35540009e+00
      -1.58295000e+00 5.22049010e-01 -1.53164995e+00 7.62283027e-01
      -1.50603998e+00 3.42564011e+00 -2.66811991e+00 7.25411987e+00
      -2.56837010e+00 1.22744999e+01 -3.58464003e+00 1.35528002e+01
      -2.07979989e+00 1.23926001e+01 -1.80491996e+00 1.11351004e+01
      -3.64578009e-01 1.10565004e+01 -9.38415974e-02 7.25110006e+00
      5.55115007e-02 5.83829021e+00 1.36864996e+00 4.42298985e+00
      1.47539997e+00 1.75654995e+00 2.74509001e+00 1.54709005e+00
      1.58422995e+00 5.98450005e-02 2.28644991e+00 -3.73564005e+00
      2.45880008e+00 -5.06814003e+00 2.67208004e+00 -6.32832003e+00
      5.35772991e+00 -8.69787979e+00 5.52280998e+00 -7.42130995e+00
      -5.22229004e+00 -5.20708990e+00 -3.74075007e+00 -8.88066006e+00
      -1.14182997e+00 -7.62201023e+00 2.30224997e-01 -6.32836008e+00
      2.95563012e-01 -3.76903009e+00 6.54007018e-01 -1.25873005e+00
      1.87208998e+00 -1.09131002e+00 6.06536984e-01 1.46322000e+00
      5.82656980e-01 2.82858992e+00 1.47371995e+00 9.11740017e+00
      1.58719003e+00 7.92338991e+00 4.67804015e-01 7.91895008e+00
      -6.67235970e-01 7.86978006e+00 -1.82816994e+00 9.02715969e+00 0.
      0. 1.70287997e-01 -2.50503993e+00 2.93494999e-01 -2.49969006e+00
      4.22028005e-01 -2.41478992e+00 1.46063006e+00 6.33163005e-02
      8.66241008e-02 1.25556004e+00 -1.53324997e+00 -2.45544004e+00
      -1.64597005e-01 -3.72726989e+00 1.18273997e+00 -3.69532990e+00 0.
      0. -1.15906000e-01 3.02277002e-02 -2.39075005e-01 2.48946995e-02
      1.16050994e+00 1.55303001e+01 4.93348980e+00 1.67516994e+01
      2.67148995e+00 1.42293997e+01 1.54330003e+00 1.42245998e+01
      4.43237007e-01 1.29603996e+01 -7.20565975e-01 1.54047003e+01
      7.03231990e-01 1.18431997e+01 -1.78354001e+00 8.20049000e+00
      6.28051996e-01 4.62889004e+00 1.75468004e+00 4.66895008e+00
      4.07125998e+00 5.93297005e+00 5.09434986e+00 9.58285999e+00
      2.43790007e+00 1.55503998e+01 3.83974004e+00 1.67660007e+01
      1.51440001e+00 1.55016003e+01 3.87329012e-01 1.54703999e+01
      6.24221981e-01 1.30564003e+01 6.76299989e-01 2.09214997e+00
      3.02712989e+00 2.15877008e+00 4.12831020e+00 3.39658999e+00</_>
    <_>
      2.91552997e+00 3.39984989e+00 3.74780011e+00 4.01876020e+00
      4.51460981e+00 3.57584000e+00 3.03293991e+00 2.20247006e+00
      2.66084003e+00 1.91692996e+00 1.01891005e+00 -3.34854007e-01
      4.64080989e-01 -1.44376004e+00 1.84613001e+00 -5.79592991e+00
      1.16638005e+00 -8.81365967e+00 8.45551014e-01 -7.41106987e+00
      1.80331004e+00 -4.93539000e+00 -3.14345986e-01 -2.21837997e+00
      -1.30321002e+00 -6.38671994e-01 -1.05032003e+00 1.95951998e+00
      -8.35601985e-01 3.47742009e+00 -1.65057003e+00 5.07884979e+00
      -2.52219009e+00 5.57272005e+00 2.79929996e+00 2.12172008e+00
      1.56436002e+00 1.43686998e+00 2.35675001e+00 5.66901982e-01
      2.06081009e+00 7.47101009e-01 1.71836996e+00 7.99618006e-01
      1.01087999e+00 1.12227999e-01 -2.59368986e-01 4.57861006e-01
      -5.12695014e-01 1.69545996e+00 2.11074993e-01 1.65962005e+00
      -1.16227996e+00 1.61741996e+00 1.19165003e+00 6.38514996e-01
      1.11382997e+00 1.45902002e+00 8.95874023e-01 1.42234996e-01
      1.80520999e+00 -1.78192005e-01 2.06107998e+00 1.48300004e+00
      7.51114011e-01 5.10680974e-01 5.86914003e-01 5.62041998e-01
      1.52145004e+00 6.02539003e-01 1.41262996e+00 7.35794008e-01 0. 0.
      -1.36962995e-01 -8.14522028e-01 -3.55423003e-01 -6.66831970e-01
      4.83649999e-01 2.85721004e-01 -4.05539989e-01 1.94633007e-01
      -1.87079996e-01 4.69437018e-02 -3.99719000e-01 8.03412974e-01
      4.97848988e-01 -5.80977984e-02 2.74596989e-01 5.30585982e-02 0. 0.
      1.28627002e+00 8.49052012e-01 3.73046994e-01 -2.72125006e-01
      3.00179005e+00 -4.62096989e-01 5.13945007e+00 1.82849002e+00
      2.76884007e+00 1.09987998e+00 1.52917004e+00 1.22595000e+00
      -7.35396981e-01 1.47203004e+00 -2.14126992e+00 5.04929006e-01
      -1.54438996e+00 -1.73681998e+00 -3.17155004e+00 -1.26283998e+01
      -1.13748002e+00 -1.72224998e+01 7.45391995e-02 -1.73894997e+01
      2.45509005e+00 -1.65282993e+01 5.18462992e+00 -1.13795004e+01
      3.90701008e+00 -1.54762006e+00 3.96683002e+00 4.10142994e+00
      1.60912001e+00 3.24475002e+00 3.22432995e-01 2.33629990e+00
      -2.64154005e+00 -3.85962009e+00 1.19019002e-01 -1.60349998e+01
      1.33102000e+00 -1.62019997e+01 2.56148005e+00 -1.63416996e+01</_>
    <_>
      -1.69523001e+00 -4.93451977e+00 -2.52474999e+00 -2.40596008e+00
      -2.23795009e+00 -9.27582026e-01 -1.97068000e+00 1.56841004e+00
      -2.69092989e+00 3.99741006e+00 -2.00615004e-01 7.44121981e+00
      -1.87302005e+00 1.17372999e+01 -2.47483993e+00 1.49182997e+01
      -2.02817011e+00 1.68575001e+01 -1.54024994e+00 1.34271002e+01
      -2.24415994e+00 7.72954988e+00 -2.05345011e+00 4.08992004e+00
      1.16455004e-01 1.54021001e+00 1.08724999e+00 1.06923997e+00
      2.01587009e+00 -4.43114996e-01 1.89838004e+00 -1.96245003e+00
      -4.07501012e-01 -1.43517995e+00 -1.53499997e+00 5.13840001e-03
      -1.35999000e+00 -1.35404003e+00 -1.36871003e-02 -4.54100013e-01
      -6.98935986e-01 -5.69770992e-01 7.95226991e-01 -3.73701000e+00
      -1.89758003e+00 -5.08346987e+00 4.14535999e-01 -2.15723991e+00
      7.02727973e-01 -2.35308003e+00 2.08916998e+00 -2.46281004e+00
      1.34768999e+00 -1.37424004e+00 -3.50341983e-02 4.51813012e-01
      1.32949993e-01 -3.07723999e-01 -7.37258971e-01 -1.09477997e+00
      -5.48690975e-01 -1.84639001e+00 -7.69729972e-01 -3.98681998e-01
      4.22942996e-01 6.54586971e-01 -4.45937991e-01 5.86104989e-01
      7.44278014e-01 4.95148003e-01 -1.63436994e-01 -6.84296012e-01 0.
      0. 1.49597004e-01 -1.26269996e+00 -6.73888981e-01 -3.59328985e-01
      -1.45740998e+00 -3.12159985e-01 -5.44762015e-01 -2.22989011e+00
      2.71804988e-01 -2.08715010e+00 2.54832006e+00 -6.41541004e-01
      5.53939998e-01 8.86306986e-02 7.96127021e-01 -1.86768007e-02 0. 0.
      -1.05636999e-01 -8.76949012e-01 7.04635978e-01 -7.48470008e-01
      3.06268001e+00 1.09140997e+01 -7.66479015e-01 4.31737995e+00
      5.59539974e-01 2.06315994e+00 7.63656974e-01 2.02382994e+00
      1.97606003e+00 1.90597999e+00 2.17460990e+00 6.02423000e+00
      -1.81760001e+00 1.01005001e+01 5.72356991e-02 1.35783997e+01
      -2.46123999e-01 1.79871006e+01 -4.32922006e-01 1.81040001e+01
      -6.38687015e-01 1.81781006e+01 -8.49853992e-01 1.40313997e+01
      3.18299007e+00 1.08779001e+01 5.65398991e-01 5.37712002e+00
      7.84393013e-01 4.27113008e+00 9.43726003e-01 5.19240999e+00
      -2.96343994e+00 1.01377001e+01 -2.63947010e-01 1.35843000e+01
      -4.23263997e-01 1.26630001e+01 3.95889014e-01 1.37965002e+01</_>
    <_>
      3.58409993e-02 2.83951998e+00 -1.55692995e+00 3.71294999e+00
      -5.13472021e-01 3.69994998e+00 1.40725005e+00 4.55495977e+00
      2.43703008e+00 6.26397991e+00 3.44854999e+00 7.93593979e+00
      3.55538011e+00 8.68906021e+00 3.62543988e+00 1.11686001e+01
      4.52201986e+00 1.18704996e+01 4.49988985e+00 1.25675001e+01
      2.68172002e+00 9.77402020e+00 8.26476991e-01 7.00802994e+00
      -1.79489002e-01 4.27884007e+00 5.45624018e-01 2.46825004e+00
      1.25216997e+00 1.56244004e+00 1.96326005e+00 1.54773998e+00
      9.24499989e-01 -2.16750994e-01 1.66599000e+00 -8.64311981e+00
      6.83052003e-01 -8.72677994e+00 -2.25760996e-01 -9.73801994e+00
      -1.95629001e+00 -1.25125999e+01 -2.78663993e+00 -1.17643995e+01
      4.23174000e+00 -1.19259996e+01 3.30909991e+00 -1.11829996e+01
      2.40955997e+00 -9.56719017e+00 1.56075001e+00 -7.94653988e+00
      -9.64203000e-01 -6.27470016e+00 -4.84771989e-02 -3.07043004e+00
      5.30853011e-02 -3.06989002e+00 -7.27158010e-01 -3.06938004e+00
      2.56209999e-01 -3.94601989e+00 3.85175991e+00 3.25203991e+00
      1.23912001e+00 2.28722000e+00 -4.96322989e-01 1.32242000e+00
      -2.26408005e+00 1.23001003e+00 -4.03646994e+00 2.89657998e+00 0.
      0. 8.31405997e-01 -9.51309025e-01 8.31902027e-01 -1.92083001e+00
      8.87763977e-01 -2.00826001e+00 1.93709992e-02 -1.70715004e-01
      1.88750997e-02 7.98804998e-01 7.90404994e-03 -6.23238027e-01
      -4.70427983e-02 -7.11242974e-01 -4.65851016e-02 -7.98950016e-01 0.
      0. -8.54476988e-01 6.93740994e-02 -8.54964972e-01 -7.15484977e-01
      1.47816002e+00 4.23677015e+00 2.25889993e+00 5.89830017e+00
      2.21784997e+00 5.80112982e+00 2.23674011e+00 6.59533978e+00
      2.22337008e+00 5.63036013e+00 3.14728999e+00 4.65184021e+00
      4.11729002e+00 2.80558991e+00 4.15832996e+00 9.92029953e+00
      2.42189002e+00 1.26489000e+01 2.42602992e+00 1.27412996e+01
      1.53915000e+00 1.28243999e+01 1.52019000e+00 1.02849998e+01
      2.34173989e+00 5.94954014e+00 2.28709006e+00 9.31027031e+00
      3.17394996e+00 8.35464001e+00 2.29259992e+00 8.26229954e+00
      3.22603011e+00 5.47865009e+00 2.32028008e+00 1.08985996e+01
      2.32448006e+00 1.18635998e+01 2.31938004e+00 1.01922998e+01</_>
    <_>
      3.34970999e+00 7.98776007e+00 4.59548998e+00 8.39004040e+00
      4.70114994e+00 8.79292011e+00 4.79916000e+00 8.07837009e+00
      4.83721018e+00 6.25496006e+00 5.78950024e+00 5.50059986e+00
      5.46824980e+00 3.71444988e+00 8.24682999e+00 -2.40987992e+00
      7.47508001e+00 -6.06955004e+00 7.71881008e+00 -7.36456013e+00
      4.74490023e+00 -6.06669998e+00 1.81228995e+00 -4.58211994e+00
      1.19719997e-01 -4.08275986e+00 -1.38244998e+00 -2.33467007e+00
      -1.67660999e+00 -5.66055000e-01 -1.98581004e+00 2.31293011e+00
      -3.38242006e+00 2.97882009e+00 -5.14667988e-01 -6.14757013e+00
      1.19229996e+00 -7.04475021e+00 -5.12115002e-01 -9.35039997e+00
      3.79790999e-02 -1.18142004e+01 -4.85870004e-01 -1.21260996e+01
      -1.19459999e+00 -1.45270004e+01 -6.63177013e-01 -1.23626003e+01
      -2.32286000e+00 -1.02438002e+01 -3.91794991e+00 -6.04857016e+00
      -3.07985997e+00 -6.51561022e+00 1.59579003e+00 -3.79015994e+00
      1.73782003e+00 -1.96290004e+00 2.98967004e+00 -1.26066995e+00
      3.13878012e+00 5.43906987e-01 7.16039991e+00 6.89789009e+00
      5.81528997e+00 4.55495977e+00 3.33014011e+00 2.21268010e+00
      8.39721978e-01 3.31325006e+00 -1.63597000e+00 5.50863981e+00 0. 0.
      7.43758976e-01 -3.27034998e+00 1.51359999e+00 -2.29586005e+00
      1.88125998e-01 7.68752992e-01 5.33882022e-01 1.91683996e+00
      -2.43835002e-01 2.03011990e+00 -1.36673003e-01 2.87795991e-01
      -5.47104001e-01 -2.93666005e+00 2.15087995e-01 -3.07961988e+00 0.
      0. 1.42493999e+00 1.10371006e+00 6.69875979e-01 1.22400999e+00
      -1.97467005e+00 7.30061007e+00 -1.28965998e+00 5.20155001e+00
      4.95361000e-01 5.19539022e+00 2.44843006e+00 4.96827984e+00
      6.52002001e+00 3.79813004e+00 8.35921955e+00 2.39574003e+00
      9.19242954e+00 3.16643000e+00 9.59519958e+00 -2.77038991e-01
      8.92761040e+00 -2.78488010e-01 5.95932007e+00 9.29244995e-01
      2.96996999e+00 2.20496011e+00 -3.90625000e-02 3.62360001e+00
      -2.14082003e+00 6.13391018e+00 1.71138000e+00 4.87067986e+00
      3.62859011e+00 3.61673999e+00 6.59685993e+00 2.40894008e+00
      1.04684000e+01 3.20805001e+00 7.71428013e+00 2.40128994e+00
      4.73838997e+00 2.49165010e+00 2.81412005e+00 3.76826000e+00</_>
    <_>
      -6.16552019e+00 1.97467995e+00 -5.19425011e+00 2.19664001e+00
      -3.22428989e+00 1.45102000e+00 -2.22828007e+00 1.66712999e+00
      7.46567011e-01 -4.59900014e-02 2.79720998e+00 -8.33710015e-01
      1.98795998e+00 -1.67623997e+00 2.19646001e+00 -5.47137022e+00
      4.76226985e-01 -5.45624018e+00 7.04788029e-01 -6.46438980e+00
      -6.46667033e-02 -5.58631992e+00 -8.64486992e-01 -5.71365023e+00
      -1.71921003e+00 -4.91689014e+00 -2.63515997e+00 -5.12582016e+00
      -6.66015983e-01 -5.32272005e+00 3.29102010e-01 -4.55182981e+00
      3.37951988e-01 -2.81932998e+00 -5.93492985e+00 -7.92969990e+00
      -4.84883022e+00 -8.98248005e+00 -2.76481009e+00 -8.99917030e+00
      -1.67400002e+00 -5.08280993e+00 -2.53139997e+00 -1.92443997e-01
      3.52242994e+00 -1.13898003e+00 3.68319988e+00 -4.09001017e+00
      2.88195992e+00 -7.99035978e+00 4.96514988e+00 -8.91333008e+00
      3.10228992e+00 -5.92224979e+00 1.46165001e+00 -1.01101005e+00
      2.44022989e+00 -2.82345009e+00 2.44487000e+00 -4.64209986e+00
      3.42950010e+00 -7.41619015e+00 4.21689987e+00 -2.42479992e+00
      3.32275009e+00 -3.37939000e+00 2.43477988e+00 -4.33397007e+00
      1.53494000e+00 -3.38365006e+00 -3.32596004e-01 -3.41968989e+00 0.
      0. 8.10393989e-02 9.01130974e-01 -7.69721985e-01 -7.14225993e-02
      3.07983011e-01 -1.91960001e+00 -7.71094978e-01 -9.34554994e-01
      8.57924968e-02 -9.29840028e-01 6.90231025e-01 -1.92091000e+00
      7.65320003e-01 1.87774003e+00 8.82476985e-01 9.05135989e-01 0. 0.
      8.93356025e-01 4.83397990e-02 7.82378972e-01 4.69207987e-02
      1.46681995e+01 4.74229002e+00 1.38063002e+01 4.64507008e+00
      8.12302971e+00 6.88857973e-01 2.37729001e+00 2.61953998e+00
      -3.34319997e+00 6.23413026e-01 -1.19741001e+01 2.54828000e+00
      -1.67033997e+01 2.60536003e+00 -1.28698997e+01 -9.92891979e+00
      -4.22744989e+00 -1.37340002e+01 3.44125009e+00 -1.36796999e+01
      9.16203022e+00 -1.26761999e+01 1.38720999e+01 -6.84582996e+00
      1.47299004e+01 2.79491997e+00 8.12209988e+00 7.62817025e-01
      2.38271999e+00 1.70718002e+00 -3.35027003e+00 1.66522002e+00
      -1.57726002e+01 6.62872016e-01 -3.26452994e+00 -1.28525000e+01
      3.43006992e+00 -1.18304005e+01 9.15713978e+00 -1.08329000e+01</_>
    <_>
      7.08962011e+00 1.11977997e+01 6.09480000e+00 8.67780018e+00
      6.15812016e+00 7.36349010e+00 6.18455982e+00 5.99465990e+00
      7.24274015e+00 3.48691010e+00 7.86341000e+00 -2.03766003e-01
      6.91634989e+00 -3.67309999e+00 3.31540990e+00 -6.98599005e+00
      6.93436027e-01 -8.68204021e+00 -2.01637006e+00 -7.43947983e+00
      -4.62257004e+00 -3.26886010e+00 -4.63629007e+00 1.06516004e+00
      -5.56939983e+00 3.21613002e+00 -6.08074999e+00 5.63777018e+00
      -6.46390009e+00 6.89060020e+00 -6.80133009e+00 8.15217972e+00
      -5.85220003e+00 8.18169975e+00 3.52892995e+00 4.68206978e+00
      1.47976005e+00 5.18982983e+00 4.39529002e-01 2.69748998e+00
      -5.39138973e-01 2.36707997e+00 -1.43701005e+00 1.86275005e+00
      -2.25647002e-01 1.57097995e+00 -1.24653995e+00 1.70624995e+00
      -2.31489992e+00 3.54595006e-01 -3.23028994e+00 2.42336988e+00
      -3.74689007e+00 2.90161991e+00 -5.51010013e-01 3.23396993e+00
      -3.92852992e-01 2.41163993e+00 -2.71560997e-01 2.77571988e+00
      -1.34544003e+00 1.90770996e+00 2.21869993e+00 2.69353008e+00
      5.56122005e-01 2.42293000e+00 -1.20657003e+00 2.18039989e+00
      -1.74428999e+00 3.50734997e+00 -2.28197002e+00 3.59344006e+00 0.
      0. -6.09733999e-01 -7.23087978e+00 1.19552004e+00 -6.16752005e+00
      -5.51361024e-01 3.18834996e+00 1.05820000e-01 1.97915995e+00
      -1.69946003e+00 9.15794015e-01 -5.36606014e-01 2.71377993e+00
      -2.31781006e-02 -5.63848019e+00 1.77328002e+00 -7.01116991e+00 0.
      0. 1.83305001e+00 2.35878992e+00 1.27744997e+00 2.49060988e+00
      3.48566008e+00 -1.20262003e+00 3.96215010e+00 1.55842996e+00
      7.59994984e-01 2.85025001e+00 1.46805003e-01 2.59015989e+00
      -1.72314000e+00 3.89956999e+00 -2.41897988e+00 3.57618999e+00
      -5.60958982e-01 6.42838001e-01 -3.56487989e+00 -8.33139038e+00
      -1.58603001e+00 -1.21962996e+01 -9.28864002e-01 -1.21646004e+01
      2.13799000e+00 -1.32455997e+01 4.07464981e+00 -1.04405003e+01
      3.16585994e+00 -1.26410997e+00 8.47899973e-01 2.39339995e+00
      2.25876004e-01 4.66073990e+00 -1.63528001e+00 3.44271994e+00
      9.54024971e-01 6.95541024e-01 -1.67215002e+00 -9.02048969e+00
      1.88979998e-01 -9.04333019e+00 8.10974002e-01 -1.00698004e+01</_>
    <_>
      9.47194993e-01 -4.44305992e+00 2.39726996e+00 -6.38153982e+00
      3.69832993e+00 -5.42220020e+00 5.03879023e+00 -5.92685986e+00
      3.39174008e+00 -5.09653997e+00 1.78206995e-01 -4.24152994e+00
      -3.71589988e-01 -1.76572001e+00 -2.29471993e+00 -2.11089993e+00
      -4.30855989e+00 -2.24551010e+00 -3.45471001e+00 -2.16091990e+00
      -4.06636000e+00 -5.27130008e-01 -4.52844000e+00 -2.26806998e-01
      -4.84298992e+00 -1.23583996e+00 -6.49445009e+00 -7.81799018e-01
      -5.11636019e+00 -1.58647001e+00 -3.77367997e+00 -9.75273013e-01
      -3.86879992e+00 -4.25491005e-01 2.15407991e+00 -6.80241013e+00
      3.20173001e+00 -3.57249999e+00 2.68127990e+00 -5.84887981e-01
      2.24781990e+00 -6.21674001e-01 4.34830010e-01 -8.36254001e-01
      -1.65941000e+00 -8.80671978e-01 -2.10718012e+00 -7.48905003e-01
      -2.62820005e+00 6.74255013e-01 -4.34438992e+00 -2.39411998e+00
      -4.63290024e+00 -2.70968008e+00 -1.33159995e+00 -1.31367004e+00
      -1.32297003e+00 -1.70099998e+00 -1.23082995e+00 -3.50013995e+00
      -1.16075003e+00 -5.32541990e+00 3.39377999e+00 -2.54964995e+00
      2.94037014e-01 -1.32114995e+00 -2.77035999e+00 -1.50855994e+00
      -4.40706015e+00 -1.51414001e+00 -7.60251999e+00 1.27065003e+00 0.
      0. -1.95717007e-01 -1.26574004e+00 9.49119985e-01 -1.18063998e+00
      -7.39341974e-01 -1.43316996e+00 -5.91202021e-01 1.39294004e+00
      -1.79753995e+00 2.74577999e+00 -6.43218994e-01 6.01958996e-03
      -2.29891992e+00 -1.34729004e+00 2.88010001e-01 -1.24890995e+00 0.
      0. 9.99908000e-02 2.82202005e+00 -1.04900002e+00 2.78511000e+00
      8.90235043e+00 1.27011995e+01 3.03376007e+00 8.26159954e+00
      -2.90346003e+00 6.62962008e+00 -6.02930021e+00 7.88015985e+00
      -9.10190964e+00 7.78908014e+00 -1.52614002e+01 1.03464003e+01
      -2.15746002e+01 1.42854004e+01 -1.52890997e+01 1.01014996e+01
      -1.06168003e+01 8.77616978e+00 -7.46062994e+00 7.45546007e+00
      -2.91890001e+00 6.24025011e+00 2.97073007e+00 9.43258953e+00
      7.48893976e+00 9.77982044e+00 -2.97466993e+00 7.89698982e+00
      -5.95764017e+00 6.32181978e+00 -9.08965015e+00 7.64460993e+00
      -2.13927002e+01 1.28577003e+01 -9.11373997e+00 7.64252996e+00
      -6.04115009e+00 7.73364019e+00 -4.41260004e+00 7.83552980e+00</_>
    <_>
      -1.63651001e+00 1.31725998e+01 -9.71745014e-01 1.42828999e+01
      -4.27058995e-01 1.64242001e+01 1.47634006e+00 1.65090008e+01
      3.50997996e+00 1.54265003e+01 4.68422985e+00 1.18090000e+01
      4.35065985e+00 9.98386955e+00 1.74010003e+00 7.69171000e+00
      8.79135013e-01 6.56149006e+00 8.22739005e-01 6.66403008e+00
      -6.32004023e-01 6.76684999e+00 -2.37912011e+00 8.01949978e+00
      -2.21371007e+00 9.74911022e+00 -2.24941993e+00 1.17010002e+01
      -9.17815983e-01 1.17656002e+01 -4.82634991e-01 1.06276999e+01
      -2.22197995e-01 1.06167002e+01 -4.78233010e-01 6.18164003e-01
      -9.27070975e-01 1.31440997e-01 -4.22748995e+00 -9.82348979e-01
      -3.70128012e+00 -3.77156997e+00 -3.16897988e+00 -5.38340998e+00
      4.21109009e+00 -3.23104000e+00 3.87326002e+00 -2.81727004e+00
      2.32734990e+00 -3.88507992e-01 2.33307004e-01 -2.13303000e-01
      -3.32457989e-01 -7.04780996e-01 1.98135003e-01 4.41007996e+00
      6.84525013e-01 4.46205997e+00 1.20397997e+00 4.49535990e+00
      1.58894002e+00 5.61127996e+00 1.47776997e+00 9.60828972e+00
      7.07808971e-01 8.05123997e+00 -2.41104007e-01 7.53659010e+00
      -1.53827000e+00 8.07277012e+00 -1.90172994e+00 9.87773037e+00 0.
      0. 1.17942996e-01 -1.02423000e+01 2.32068992e+00 -1.04081001e+01
      -1.37330997e+00 1.80896997e+00 -2.58002996e-01 2.42562008e+00
      -2.45357990e+00 2.56560993e+00 -3.36165994e-01 2.30646992e+00
      9.09575969e-02 -1.01454000e+01 3.42078996e+00 -1.01365004e+01 0.
      0. 8.23424995e-01 2.66415000e+00 -3.22555989e-01 2.95722008e+00
      4.77440000e-01 1.67733994e+01 1.64134002e+00 1.42173996e+01
      6.63483024e-01 1.24076996e+01 -1.20053005e+00 1.06573000e+01
      -2.49050999e+00 1.11677999e+01 -2.90323997e+00 1.49485998e+01
      -2.86199999e+00 1.66993008e+01 -2.74774003e+00 1.05674000e+01
      -2.18965006e+00 7.86359978e+00 1.03199995e+00 8.76064968e+00
      2.18567991e+00 8.24013996e+00 2.89812994e+00 1.00038004e+01
      5.34958005e-01 1.65669003e+01 2.26794004e+00 1.15675001e+01
      -8.83437991e-01 1.07178001e+01 -2.11455989e+00 1.12167997e+01
      -1.65083003e+00 1.59721003e+01 -3.15697002e+00 1.10377998e+01
      2.32146993e-01 1.08336000e+01 1.22552001e+00 1.13885002e+01</_>
    <_>
      3.86327004e+00 -6.02569008e+00 3.56132007e+00 -7.51009989e+00
      3.12491012e+00 -7.80298996e+00 2.69356990e+00 -8.04584980e+00
      3.10918999e+00 -7.04247999e+00 3.16415000e+00 -8.15637016e+00
      3.03946996e+00 -9.04996014e+00 3.67294014e-01 -9.84237957e+00
      -1.24744999e+00 -9.83020020e+00 -2.80620003e+00 -8.24184990e+00
      -5.01692009e+00 -9.51774979e+00 -5.81057978e+00 -9.40320015e+00
      -5.27322006e+00 -1.02957001e+01 -5.52615023e+00 -8.80556965e+00
      -5.45520020e+00 -9.65349960e+00 -6.50009012e+00 -9.36472988e+00
      -7.58444023e+00 -7.94454002e+00 3.62933993e-01 -2.81563997e+00
      -4.94301987e+00 -5.77190018e+00 -4.74803019e+00 -1.00964003e+01
      -3.47609997e+00 -1.23736000e+01 -2.29852009e+00 -1.25380001e+01
      -3.28323007e-01 -1.09961996e+01 -1.27203000e+00 -9.31865025e+00
      -1.78528000e-02 -6.68054008e+00 -2.31256008e+00 -3.16957998e+00
      -5.53432989e+00 -1.73366994e-01 1.04646003e+00 -3.13529998e-01
      1.99713004e+00 -3.72695997e-02 1.89042997e+00 -2.11332989e+00
      2.84105992e+00 -1.83709002e+00 1.27639994e-01 1.87873995e+00
      2.04936004e+00 -4.64278996e-01 1.56879997e+00 -1.74495006e+00
      1.05470002e+00 -3.12988013e-01 6.35528982e-01 1.05887997e+00 0. 0.
      -5.00739992e-01 -3.02837992e+00 9.67299998e-01 -2.81821990e+00
      1.33425999e+00 -7.99919009e-01 7.29263008e-01 3.46516991e+00
      -7.88757026e-01 3.26007009e+00 -1.45480001e+00 -4.16245013e-01
      -8.93158019e-01 -1.04231000e+00 -5.11551023e-01 -9.26769018e-01 0.
      0. -8.10028017e-01 4.23537016e+00 -2.33340001e+00 2.95393991e+00
      -2.53307009e+00 3.09837008e+00 -9.48882997e-01 4.97966003e+00
      -4.91959006e-01 5.34004021e+00 9.84344035e-02 2.97772002e+00
      -1.70203996e+00 4.33533001e+00 -1.28032994e+00 5.37215996e+00
      -8.33953977e-01 6.15407991e+00 -1.43668997e+00 4.32752991e+00
      -7.32773006e-01 2.77534008e+00 -9.31091011e-02 2.60949993e+00
      5.22231996e-01 3.72500992e+00 -1.01540995e+00 3.82487011e+00
      -5.99632025e-01 4.43923998e+00 -5.18249989e-01 3.55888009e+00
      4.26940992e-02 2.42782998e+00 -1.76285994e+00 3.73550010e+00
      -1.58089995e+00 4.89770985e+00 -5.47011971e-01 2.58864999e+00
      4.26940992e-02 2.42782998e+00 1.79451001e+00 3.63290000e+00</_>
    <_>
      -8.42334986e-01 6.87172985e+00 9.03090984e-02 5.44220018e+00
      3.43145990e+00 4.00406981e+00 5.55548000e+00 1.36602998e+00
      2.84594989e+00 1.23108995e+00 -1.10576999e+00 -9.26208030e-03
      -2.66563010e+00 -2.38953996e+00 -4.22500992e+00 -3.50125003e+00
      -5.71483994e+00 -3.27634001e+00 -5.91842985e+00 -2.98345995e+00
      -4.77580023e+00 9.85535026e-01 -3.60767007e+00 1.32860994e+00
      -7.17081022e+00 2.88837004e+00 -9.44863987e+00 1.99606001e+00
      -5.62392998e+00 1.05160999e+00 -3.00786996e+00 1.29863000e+00
      -2.78316998e+00 2.75414991e+00 -8.83297026e-01 -7.26225996e+00
      1.51840997e+00 -4.62228012e+00 1.36559999e+00 -4.41547012e+00
      1.16962004e+00 -4.25121021e+00 -2.69744992e-01 -2.96378994e+00
      1.82378995e+00 -2.67018008e+00 5.31157970e-01 -2.43809009e+00
      -8.21762025e-01 -2.24840999e+00 -1.01786995e+00 -4.50130987e+00
      -4.90112007e-02 -5.65679979e+00 6.47476017e-01 3.04679990e+00
      -7.50961006e-01 4.68223989e-01 -9.32236016e-01 -2.11050010e+00
      8.65020975e-02 -3.48920989e+00 5.06461000e+00 3.44383001e+00
      2.52795005e+00 2.31336999e+00 -1.22582996e+00 1.18303001e+00
      -4.90194988e+00 2.52929997e+00 -6.16953993e+00 3.86690998e+00 0.
      0. -1.01997003e-01 -1.18793001e+01 4.59590006e+00 -1.05756998e+01
      4.45936012e+00 1.51101005e+00 3.36135006e+00 4.99027014e+00
      -1.33651996e+00 4.88670015e+00 -2.08539009e+00 8.46320987e-01
      -2.17009997e+00 -9.81593037e+00 1.31927001e+00 -1.09036999e+01 0.
      0. 3.68472004e+00 4.66225004e+00 -1.01314998e+00 5.75864983e+00
      1.71208992e+01 8.92053032e+00 1.34111004e+01 1.03528004e+01
      6.03251982e+00 6.95118999e+00 -2.52954006e+00 7.06377983e+00
      -9.85694981e+00 7.22754002e+00 -1.72528000e+01 1.10088997e+01
      -1.86490993e+01 1.23218002e+01 -1.74859009e+01 -2.08282005e-02
      -8.99361992e+00 -6.30431986e+00 -4.49187994e-01 -7.68537998e+00
      6.90412998e+00 -7.82360983e+00 1.43690996e+01 -3.11977005e+00
      1.94783001e+01 1.01637001e+01 5.96331978e+00 1.04659996e+01
      -1.39871001e+00 8.17856026e+00 -9.93465042e+00 1.07509003e+01
      -1.98152008e+01 1.22700996e+01 -1.00813999e+01 -1.09937000e+01
      -1.54547000e+00 -1.23661003e+01 5.80795002e+00 -1.12872000e+01</_>
    <_>
      3.32155991e+00 5.84833002e+00 3.47841001e+00 5.39318991e+00
      3.60427999e+00 4.92615986e+00 4.93907022e+00 5.54134989e+00
      6.15335989e+00 4.99792004e+00 4.97780991e+00 5.70903015e+00
      5.85381985e+00 5.21353006e+00 4.22629976e+00 2.59173989e+00
      2.54187012e+00 1.22048998e+00 1.93526006e+00 -1.06934004e-01
      3.56505990e-01 2.20160007e+00 -1.25452006e+00 3.49196005e+00
      -5.25604010e-01 3.70411992e+00 -1.99728000e+00 4.13098001e+00
      -2.32114005e+00 3.40967989e+00 -1.38940001e+00 4.93641996e+00
      7.08221018e-01 6.41648006e+00 3.26721013e-01 4.45210010e-01
      -1.40804005e+00 -3.96267009e+00 -3.04367995e+00 -6.28546000e+00
      -2.42654991e+00 -9.96866989e+00 -1.53592002e+00 -9.16847992e+00
      2.57574010e+00 -9.58467960e+00 3.28176999e+00 -9.68338966e+00
      3.05240989e+00 -6.38092995e+00 1.74530005e+00 -3.12240005e+00
      -5.50231993e-01 9.09729004e-02 1.13686001e+00 6.49417996e-01
      2.35108995e+00 -8.10927987e-01 1.33275998e+00 -1.00974000e+00
      1.46114004e+00 -1.29807997e+00 1.96155000e+00 -2.95807004e-01
      1.88303995e+00 7.33153999e-01 1.78311002e+00 1.77166998e+00
      3.97873014e-01 6.39572024e-01 2.21542001e-01 5.89676023e-01 0. 0.
      2.02079010e+00 -7.04879984e-02 1.77892005e+00 -1.81061000e-01
      5.88317990e-01 1.90316999e+00 8.32512021e-01 1.96133006e+00
      -5.44967987e-02 2.11500001e+00 7.65137017e-01 1.42370999e+00
      3.99291992e-01 3.48655999e-01 5.21545000e-02 -2.06258988e+00 0. 0.
      1.48668003e+00 2.24786997e+00 5.93719006e-01 2.41702008e+00
      -1.74705005e+00 5.09059000e+00 -2.22771001e+00 1.69343996e+00
      -1.50919998e+00 -1.79094005e+00 -4.21828985e-01 -8.08685005e-01
      5.46248972e-01 -8.95705998e-01 1.65056002e+00 2.24676991e+00
      -8.10927987e-01 3.22498989e+00 2.15096998e+00 1.00476999e+01
      3.69751000e+00 1.35198002e+01 4.26407009e-01 1.37644997e+01
      -5.74981987e-01 1.38921003e+01 -1.68419003e+00 1.06232996e+01
      5.34987986e-01 7.23846006e+00 -1.15924001e+00 3.78084993e+00
      -1.51886001e-01 3.63779998e+00 8.28064024e-01 3.51977992e+00
      -5.50552011e-01 6.73315001e+00 2.08961010e+00 5.75236988e+00
      1.10968006e+00 5.87035990e+00 -1.04803002e+00 6.06604004e+00</_>
    <_>
      -2.47706994e-01 7.22969007e+00 -6.78106010e-01 6.11993980e+00
      -1.13354003e+00 6.17076015e+00 -1.57474995e+00 6.23746014e+00
      -3.09697008e+00 5.22710991e+00 -5.62496996e+00 3.14373994e+00
      -3.59325004e+00 -9.41284001e-01 -2.55140996e+00 -6.11353016e+00
      -3.45764011e-01 -7.83516979e+00 8.33922982e-01 -7.32626009e+00
      -2.51845986e-01 -1.34151995e+00 1.00101995e+00 4.64896011e+00
      -8.88518989e-01 5.96517992e+00 -1.61264002e+00 7.21622992e+00
      -2.32512999e+00 9.50903034e+00 -7.60773003e-01 9.60120964e+00
      -1.44661999e+00 1.07033997e+01 -5.44716001e-01 -1.04338999e+01
      -2.52279997e+00 -1.13858995e+01 -3.57251000e+00 -1.22047005e+01
      -5.78271008e+00 -1.52818003e+01 -7.02218008e+00 -1.49640999e+01
      7.44651985e+00 -1.40833998e+01 5.31141996e+00 -1.26899004e+01
      4.15540981e+00 -9.03279018e+00 1.83887994e+00 -7.63403988e+00
      -1.71518004e+00 -7.48676014e+00 2.27509007e-01 -5.60107994e+00
      -1.10605001e+00 -6.75213003e+00 -1.86127007e-01 -8.97340012e+00
      -1.57236004e+00 -9.01066017e+00 2.19971001e-01 -4.76401997e+00
      -9.24468994e-01 -5.78409004e+00 1.90338001e-01 -6.72726011e+00
      -2.04035997e+00 -5.52003002e+00 -8.87924016e-01 -5.34453011e+00 0.
      0. -9.14481997e-01 -2.06395006e+00 -9.28291023e-01 -1.80817997e+00
      -5.60759986e-03 -1.56965995e+00 -1.18327999e+00 -1.83703995e+00
      -2.29988003e+00 -2.11625004e+00 -2.35596001e-02 -6.80305004e-01
      1.59821004e-01 -4.44045991e-01 1.83669999e-01 -1.30288994e+00 0.
      0. -1.10579997e-01 -1.87057003e-01 -1.21219003e+00 -4.65445995e-01
      5.00564992e-01 5.09932995e-01 1.88907003e+00 -5.91108990e+00
      -1.79184005e-01 -9.10130024e+00 -2.09014997e-01 -1.00837002e+01
      -1.71233997e-01 -9.94585037e+00 -1.45694995e+00 -6.40143013e+00
      -2.85810995e+00 5.31966984e-01 -6.81015015e-01 -3.03215003e+00
      1.56133997e+00 -5.43085003e+00 1.55439997e+00 -5.58210993e+00
      1.53992999e+00 -4.61713982e+00 2.64324999e+00 -1.44145000e+00
      1.64712000e+00 -4.61685002e-01 -4.27567005e-01 -5.76479006e+00
      7.24929988e-01 -7.82255983e+00 -3.82766992e-01 -7.70894003e+00
      -3.94437003e+00 -7.26424992e-01 1.81798005e+00 -7.66533995e+00
      2.92566991e+00 -7.77897978e+00 7.18017995e-01 -7.97380018e+00</_>
    <_>
      -3.05258012e+00 2.82439995e+00 -1.23351002e+00 1.76027000e+00
      -2.56301999e+00 -1.24661005e+00 -3.82655001e+00 -2.18649006e+00
      -4.01898003e+00 -2.10313010e+00 -3.23070002e+00 -4.06135988e+00
      -3.41174006e+00 -4.92529011e+00 -1.48459995e+00 -5.82470989e+00
      -1.53007996e+00 -6.61754990e+00 -1.47722006e+00 -6.38391018e+00
      -1.25800002e+00 -3.13585997e+00 -6.18896000e-02 -3.02697992e+00
      -8.76403987e-01 -1.86925995e+00 -6.82555974e-01 -1.81466997e+00
      -4.50989008e-01 -7.56408989e-01 -2.19299003e-01 3.01865011e-01
      1.01552999e+00 2.83585012e-01 4.60265994e-01 1.11162996e+01
      3.78715992e+00 1.42189999e+01 4.89309978e+00 1.53914003e+01
      5.78909016e+00 1.14153996e+01 8.69277954e+00 7.37022018e+00
      -7.78523016e+00 8.10521030e+00 -6.59508991e+00 1.13172998e+01
      -4.38711977e+00 1.55424995e+01 -3.42653990e+00 1.46393995e+01
      4.96367991e-01 1.25474005e+01 7.70720989e-02 5.41206002e-01
      9.37241018e-01 -5.07377982e-01 -2.89611995e-01 -2.52747011e+00
      5.96801996e-01 -2.54544997e+00 -5.55694997e-01 -2.69629002e+00
      -6.09833002e-01 -3.63980007e+00 4.32251006e-01 -2.54912996e+00
      4.56786990e-01 -2.46512008e+00 5.13396978e-01 -1.36395001e+00 0.
      0. -9.92232978e-01 -9.09434974e-01 -2.01570010e+00 -7.58686006e-01
      -2.12111998e+00 -1.67954004e+00 -1.15591002e+00 -2.84591007e+00
      -1.06201001e-01 -1.96607006e+00 9.79752004e-01 -1.37099004e+00
      1.06438994e+00 -1.27067006e+00 3.40270996e-02 -1.12609994e+00 0.
      0. -1.14040995e+00 -2.11710000e+00 -1.36307001e-01 -3.29227996e+00
      -9.44854975e-01 -4.89589977e+00 -8.13889027e-01 -2.72747993e+00
      -1.79837000e+00 -2.58553004e+00 -7.89474010e-01 -2.53163004e+00
      -1.78858995e+00 -2.41514993e+00 -8.04398000e-01 -2.33357000e+00
      1.13403000e-01 -4.32552004e+00 -1.08633006e+00 -6.44579983e+00
      -1.20383000e+00 -8.60840988e+00 -1.24883997e+00 -9.73657036e+00
      -1.24754000e+00 -9.82868958e+00 -1.38137996e-01 -8.93912029e+00
      -9.41848993e-01 -4.84349012e+00 -1.92329001e+00 -3.61699009e+00
      -1.96433997e+00 -4.56132984e+00 -1.91315997e+00 -3.44011998e+00
      1.43218994e-01 -3.34770012e+00 -9.87884998e-01 -6.56322002e+00
      -2.06928992e+00 -7.65157986e+00 -1.03086996e+00 -7.77030993e+00</_>
    <_>
      1.55429006e+00 2.32240009e+00 2.69566989e+00 8.75122011e-01
      2.61976004e+00 -5.45898020e-01 1.41736996e+00 4.26407009e-01
      3.69387007e+00 -1.04358995e+00 4.72194004e+00 -2.44497991e+00
      4.50976992e+00 -3.77801991e+00 1.87302995e+00 -6.19506979e+00
      -1.95264995e+00 -7.31931019e+00 -2.14040995e+00 -3.73855996e+00
      -4.66068983e+00 -2.73132008e-02 -3.66733003e+00 1.04019001e-01
      -2.61401010e+00 2.90482014e-01 -2.66190004e+00 5.22948980e-01
      -1.50037003e+00 7.37807989e-01 -1.54779005e+00 -1.98677003e-01
      -3.44971001e-01 1.19991004e+00 1.56178999e+00 8.40587044e+00
      3.89496994e+00 1.20292997e+01 3.75715995e+00 1.32616997e+01
      4.71040010e+00 1.08591003e+01 4.49328995e+00 8.42319012e+00
      -5.22063017e+00 1.21718998e+01 -3.02126002e+00 1.22033997e+01
      -3.21763992e+00 1.10508003e+01 1.28296003e-01 9.75831985e+00
      2.29485989e+00 6.05363989e+00 -5.00365973e-01 3.58558989e+00
      -1.70764005e+00 2.27772999e+00 -1.70558000e+00 2.12947989e+00
      -5.52200019e-01 7.72278011e-01 7.49801993e-01 -5.74692011e-01
      6.74835026e-01 -5.96221983e-01 -1.79356003e+00 -1.74432003e+00
      -6.98836982e-01 -1.74898005e+00 -7.55463004e-01 -5.44677973e-01 0.
      0. 1.17973995e+00 4.78310013e+00 9.82123971e-01 2.42042994e+00
      -3.38470012e-01 1.15847003e+00 9.43000972e-01 -8.88442993e-02
      1.05820000e+00 -1.27089000e+00 -8.15674007e-01 -1.52740004e-02
      3.24142009e-01 3.61695004e+00 1.84494004e-01 3.62280011e+00 0. 0.
      -1.08858001e+00 -4.50134017e-02 2.35550001e-01 -7.57293999e-02
      3.09548998e+00 -1.04282999e+01 3.09135008e+00 -4.42665005e+00
      -5.25252998e-01 -1.92913997e+00 5.42891979e-01 -3.15929008e+00
      4.45327997e-01 -3.13049006e+00 -3.29161000e+00 -5.47687006e+00
      -5.86959982e+00 -9.04889965e+00 -5.98111010e+00 -2.09647999e+01
      -2.32219005e+00 -2.22539005e+01 -2.22358990e+00 -2.22581005e+01
      -2.14944005e+00 -2.34384003e+01 2.74584007e+00 -2.11487999e+01
      3.06248999e+00 -9.24962997e+00 -5.04166007e-01 -8.35083008e-01
      5.64635992e-01 -2.04883003e+00 4.90875006e-01 -8.60229015e-01
      -3.45139003e+00 -9.10068989e+00 -2.29149008e+00 -2.09298000e+01
      -2.19320989e+00 -2.09421997e+01 -9.26285028e-01 -2.09622002e+01</_>
    <_>
      2.83322001e+00 1.18786001e+01 3.01812005e+00 1.02950001e+01
      4.30271006e+00 9.83335972e+00 5.59499979e+00 8.21156025e+00
      5.69687986e+00 6.56674004e+00 5.69271994e+00 4.90602016e+00
      4.38418007e+00 3.25939989e+00 2.95396996e+00 5.20049989e-01
      1.32549000e+00 1.38132000e+00 8.03650022e-01 1.17313004e+00
      -2.07000995e+00 2.26876998e+00 -1.48671997e+00 4.65374994e+00
      -1.98110998e+00 6.02298021e+00 -3.49268007e+00 7.55230999e+00
      -3.80645990e+00 9.12753010e+00 -1.76941001e+00 9.55049038e+00
      -2.00731993e+00 9.98114967e+00 1.30829000e+00 -6.33076000e+00
      9.97291982e-01 -8.60772991e+00 7.02682018e-01 -9.92154026e+00
      1.62199998e+00 -1.24785004e+01 1.43417001e+00 -1.27452002e+01
      -4.28954989e-01 -1.42362003e+01 -8.08059990e-01 -1.19485998e+01
      -1.17183006e+00 -9.69130039e+00 -2.65708995e+00 -6.41008997e+00
      -2.85998988e+00 -5.53939009e+00 1.06811998e-02 -4.62502003e-01
      1.87103003e-01 3.72810006e-01 3.55910987e-01 1.22323000e+00
      5.32348990e-01 2.05853009e+00 3.20131993e+00 7.82414007e+00
      1.92841995e+00 6.51901007e+00 -5.27405024e-01 6.35866022e+00
      -1.89967000e+00 6.31926012e+00 -3.24170995e+00 7.44022989e+00 0.
      0. -2.19292000e-01 -8.10772991e+00 1.85916996e+00 -7.07024002e+00
      1.67061996e+00 3.08218002e+00 7.52556026e-01 3.15951991e+00
      -1.32590997e+00 2.12205005e+00 -1.62476003e+00 2.59022999e+00
      -1.85941005e+00 -6.63229990e+00 2.19054997e-01 -7.88490009e+00 0.
      0. 1.38739002e+00 2.33717990e+00 -6.91070974e-01 3.58978009e+00
      2.70042002e-01 8.46446037e+00 2.28678012e+00 1.08058004e+01
      2.08234000e+00 8.46885967e+00 7.79007018e-01 8.33135986e+00
      5.59448004e-01 8.27678967e+00 -7.89291024e-01 1.04062996e+01
      1.32810998e+00 7.85725021e+00 -6.66091979e-01 6.69141006e+00
      -4.23752010e-01 5.59346008e+00 9.48273003e-01 4.52579021e+00
      2.26699996e+00 5.77814007e+00 3.57013011e+00 8.24367046e+00
      1.79336995e-01 8.41835022e+00 3.29651999e+00 9.47786045e+00
      1.98548996e+00 8.21041965e+00 -5.31554997e-01 8.13306999e+00
      1.41112995e+00 9.06348038e+00 -5.23895025e-01 6.97292995e+00
      1.99318004e+00 7.05026007e+00 3.30420995e+00 7.17266989e+00</_>
    <_>
      -5.31541014e+00 9.15231991e+00 -2.72655010e+00 7.92165995e+00
      -2.37250996e+00 7.65036011e+00 -9.43522990e-01 8.54790974e+00
      -4.08809990e-01 8.19519043e+00 3.62594992e-01 7.69239998e+00
      -1.02003002e+00 8.01471043e+00 -1.09958994e+00 6.06824017e+00
      -1.16755998e+00 4.89130020e+00 -2.55176997e+00 5.54358006e+00
      -8.10638011e-01 6.14071989e+00 -1.32923996e+00 6.48811007e+00
      -8.44299018e-01 5.68284988e+00 -7.30742991e-01 5.90658998e+00
      1.52100003e+00 5.14934015e+00 3.78848004e+00 3.27329993e+00
      4.66213989e+00 4.66649008e+00 -5.29570007e+00 -1.66366994e+00
      -3.88799000e+00 -2.21273994e+00 -2.13681006e+00 -2.48179007e+00
      8.24005008e-01 -2.46083999e+00 1.47871006e+00 -1.25286996e+00
      -1.88107002e+00 -1.80752003e+00 -9.98856008e-01 -4.35210991e+00
      8.71200979e-01 -4.38130999e+00 1.52904999e+00 -3.14214993e+00
      9.84650016e-01 -2.77549005e+00 -8.14208984e-02 -8.17992985e-01
      -1.04007995e+00 -1.46332002e+00 -8.23531985e-01 -3.12126994e+00
      -6.53931022e-01 -3.65727997e+00 3.86780000e+00 4.05260992e+00
      9.51004028e-01 2.71738005e+00 -7.28164971e-01 3.63128990e-01
      -2.74527001e+00 2.25997996e+00 -4.70906019e+00 3.09722996e+00 0.
      0. -5.38856983e-01 -3.70976996e+00 6.85120001e-03 -4.88246012e+00
      2.55890012e-01 -1.39888000e+00 7.63512015e-01 1.03941000e+00
      -7.13523984e-01 -5.70526011e-02 -1.21843004e+00 -8.67142022e-01
      -6.04140997e-01 -4.53309011e+00 9.85351980e-01 -4.53374004e+00 0.
      0. 6.51260018e-01 1.33800995e+00 -2.03218007e+00 1.25734997e+00
      1.35883999e+01 1.61149998e+01 9.81116009e+00 1.32426004e+01
      1.63962996e+00 1.01728001e+01 -2.35571003e+00 9.87182999e+00
      -7.49199009e+00 9.33685017e+00 -1.38038998e+01 1.33234997e+01
      -1.54306002e+01 1.43783998e+01 -1.47404003e+01 -1.66182995e+00
      -9.21238995e+00 -8.67187977e+00 -1.81325996e+00 -9.13057995e+00
      3.27919006e+00 -8.71712017e+00 1.10656996e+01 -1.54898000e+00
      1.50911999e+01 1.39518003e+01 2.71518993e+00 1.16566000e+01
      -2.29595995e+00 1.01492004e+01 -8.60433960e+00 1.06581001e+01
      -1.54048996e+01 1.11188002e+01 -7.18780994e+00 -7.91089010e+00
      -2.00451994e+00 -8.49787998e+00 3.11909008e+00 -8.08763027e+00</_>
    <_>
      -8.87184024e-01 -1.01729002e+01 3.15319002e-01 -8.41952991e+00
      -7.93292999e-01 -6.58378983e+00 -8.33819985e-01 -5.92491007e+00
      2.27169007e-01 -4.14369011e+00 1.29662007e-01 2.10418999e-02
      -4.18853983e-02 4.25594997e+00 -3.95767003e-01 5.18100023e+00
      -3.10827994e+00 6.38422012e+00 -7.05399990e+00 5.46895981e+00
      -7.44804001e+00 5.72589016e+00 -6.70249987e+00 4.89584017e+00
      -5.85634995e+00 4.12131023e+00 -2.52142000e+00 5.56750011e+00
      -2.60928011e+00 4.90344000e+00 -1.53420997e+00 4.18961000e+00
      -1.52725005e+00 4.65263987e+00 1.50969994e+00 2.72751004e-01
      1.27172995e+00 4.84598011e-01 9.41016972e-01 5.44390023e-01
      6.49451971e-01 1.63999999e+00 3.35830986e-01 1.52248001e+00
      8.45153987e-01 1.49566996e+00 -6.42562985e-01 5.33627987e-01
      -9.41497982e-01 5.90732992e-01 -2.42534995e+00 -5.15514016e-01
      -2.69619989e+00 -1.83561003e+00 2.07214002e-02 1.19727004e+00
      1.12305004e-02 8.94309998e-01 -4.53949012e-02 -5.39741993e-01
      -5.61675988e-02 -8.58582020e-01 1.49704003e+00 1.07314003e+00
      2.03217000e-01 1.08598006e+00 2.45818999e-02 1.05305004e+00
      -1.27847004e+00 1.14662004e+00 -2.61412001e+00 9.18731987e-02 0.
      0. 9.49935973e-01 8.00094977e-02 1.82438004e+00 2.24762000e-02
      5.20690978e-01 1.05932999e+00 -3.92181009e-01 1.04014003e+00
      -1.36848003e-01 1.03464997e+00 -4.98778999e-01 -3.79943997e-02
      -7.07672000e-01 1.39439002e-01 1.85317993e-01 1.12328000e-01 0. 0.
      2.44965002e-01 2.15358996e+00 -6.79244995e-01 1.04826999e+00
      3.44134998e+00 9.55850029e+00 5.81588984e-01 2.92461991e+00
      1.74346998e-01 -3.98360997e-01 -1.15260005e+00 -3.98712009e-01
      -2.48737001e+00 -3.02460015e-01 -4.93184996e+00 1.99728000e+00
      -9.43198013e+00 1.00811996e+01 -4.46203995e+00 1.31005001e+01
      -3.01928997e+00 1.40983000e+01 -1.66727996e+00 1.40165997e+01
      -1.45826995e+00 1.40310001e+01 -1.12311997e-01 1.29266996e+01
      5.55849981e+00 8.30939960e+00 4.13863987e-01 5.11291981e+00
      -2.10584998e+00 4.04579020e+00 -2.31087995e+00 4.07904005e+00
      -1.05003996e+01 8.97202015e+00 -3.28470993e+00 7.51812983e+00
      -1.94860995e+00 7.43773985e+00 -5.75866997e-01 8.55333042e+00</_>
    <_>
      2.92605996e-01 -9.42162037e+00 1.14973001e-01 -7.59840012e+00
      -8.71715993e-02 -5.78094006e+00 -4.23209995e-01 -6.22205019e+00
      4.18541014e-01 -4.35583019e+00 8.33510980e-02 -1.19098997e+00
      -2.90015996e-01 2.08131003e+00 -1.94955003e+00 2.12064004e+00
      -4.67133999e+00 3.57608008e+00 -7.37466002e+00 4.00641012e+00
      -8.72667980e+00 5.66485977e+00 -6.65710020e+00 4.94843006e+00
      -5.60544014e+00 4.29291010e+00 -3.18499994e+00 5.84732008e+00
