<?xml version="1.0"?>
<opencv_storage>
<opencv_ml_svm>
  <format>3</format>
  <svmType>C_SVC</svmType>
  <kernel>
    <type>LINEAR</type></kernel>
  <C>1.0000000000000001e-01</C>
  <term_criteria><iterations>1000</iterations></term_criteria>
  <var_count>136</var_count>
  <class_count>2</class_count>
  <class_labels type_id="opencv-matrix">
    <rows>2</rows>
    <cols>1</cols>
    <dt>i</dt>
    <data>
      -1 1</data></class_labels>
  <sv_total>1</sv_total>
  <support_vectors>
    <_>
      -1.81069076e-02 1.12397317e-02 -1.01683848e-02 2.46776058e-03
      3.80846416e-03 -3.43418028e-03 2.34862464e-03 -1.33396480e-02
      -8.67237709e-03 7.16863992e-03 -1.61789975e-03 -2.27623992e-03
      -4.95349290e-03 2.04288401e-02 -7.81156914e-03 3.60216643e-03
      -4.47709439e-03 -8.13298766e-03 6.99791824e-03 3.44108907e-03
      -1.00023858e-03 -9.97773558e-03 -1.42482156e-02 7.85321277e-03
      6.50375790e-04 6.00844575e-03 1.37974871e-02 -1.18890395e-02
      -6.19092351e-03 -4.74254659e-04 -2.76196911e-03 -3.29889503e-04
      1.35571286e-02 4.50282432e-02 -2.28526890e-02 -1.11449156e-02
      -2.48184102e-03 -4.22238698e-03 -5.34372497e-03 1.85325779e-02
      9.51699167e-03 -7.12570082e-03 1.98280206e-03 9.04061925e-03
      7.68177584e-03 1.45294005e-02 -2.62039006e-02 -7.92356115e-03
      1.10203717e-02 8.40874948e-03 4.43409476e-03 -4.43453901e-03
      2.04515061e-04 -1.47341648e-02 -3.96858854e-03 2.34440938e-02
      8.46564677e-03 1.81318186e-02 1.05525600e-02 -7.27894343e-03
      -1.33691458e-02 -3.59665044e-02 3.32680484e-03 1.86314955e-02
      2.95712296e-02 -5.53262513e-03 -7.82551011e-04 2.10180487e-02
      -1.42451311e-02 5.46187675e-03 -2.07382273e-02 6.34222198e-03 0.
      0. -2.98825349e-03 -2.74435263e-02 -9.72587441e-04 -1.21728657e-02
      -2.37075537e-02 8.78868566e-04 2.41539627e-02 1.33847340e-03
      1.70207379e-04 8.80205724e-03 1.29514271e-02 -8.77710059e-03
      -3.59641155e-03 1.44298596e-03 4.36476804e-03 -4.98059532e-03 0.
      0. -1.64214382e-03 1.86066534e-02 -8.58167466e-03 -8.32523964e-03
      4.64528659e-03 -1.70891415e-02 2.36937087e-02 3.49990018e-02
      2.55385824e-02 -3.08870170e-02 4.68290364e-03 -7.85608403e-03
      3.83952982e-03 -2.34805960e-02 -1.09795174e-02 2.88829468e-02
      5.83786517e-03 -1.89256836e-02 -1.03309639e-02 -1.84559152e-02
      -2.58251675e-03 2.29765140e-02 -3.99976177e-03 1.22351851e-02
      5.69953630e-03 -5.48056699e-03 -1.94277999e-03 -1.14670685e-02
      1.19431224e-02 1.49604829e-03 -1.70529075e-02 2.15468295e-02
      3.95764923e-03 -1.02022439e-02 1.82557330e-02 6.94860192e-03
      -1.36625557e-03 1.25660812e-02 1.07458457e-02 -2.49649081e-02
      -4.37369163e-05 -1.35423541e-02 -1.44714424e-02 -1.60168465e-02</_></support_vectors>
  <uncompressed_sv_total>262</uncompressed_sv_total>
  <uncompressed_support_vectors>
    <_>
      -6.51579022e-01 -7.93693018e+00 -1.01195002e+00 -7.02757978e+00
      1.51037002e+00 -6.06981993e+00 4.00880003e+00 -5.16098022e+00
      3.56212997e+00 -7.03809977e+00 3.00482011e+00 -5.85059977e+00
      2.36076999e+00 -3.00937009e+00 3.16348004e+00 -2.99050999e+00
      2.52884007e+00 -4.20012999e+00 1.96597004e+00 -3.80333996e+00
      1.00249998e-01 -6.19106007e+00 -3.16489005e+00 -9.97723007e+00
      -3.30404997e+00 -1.22531996e+01 -4.67168999e+00 -1.16320000e+01
      -7.35300016e+00 -1.24815998e+01 -4.20769978e+00 -1.32947998e+01
      -3.94507003e+00 -1.26964998e+01 -2.22562003e+00 8.69149971e+00
      3.48781991e+00 1.50162001e+01 6.00304985e+00 2.26644993e+01
      6.95032978e+00 2.57744999e+01 7.83778000e+00 2.73024998e+01
      -7.21276999e+00 2.46954002e+01 -6.18228006e+00 2.51175995e+01
      -5.21160984e+00 2.39578991e+01 -2.84038997e+00 1.53162003e+01
      2.48925996e+00 1.22221003e+01 7.82622993e-02 9.58656979e+00
      -4.13361005e-02 7.88249016e+00 1.26244998e+00 7.62572002e+00
      1.11890996e+00 7.33258009e+00 1.24660003e+00 3.68420005e+00
      2.47459006e+00 3.76740003e+00 8.07403982e-01 3.83863997e+00
      6.23947024e-01 3.95879006e+00 -9.82924998e-01 2.63160992e+00 0. 0.
      -1.48613006e-01 1.77481997e+00 9.81132984e-01 5.06923974e-01
      5.80322027e-01 1.89039004e+00 8.25622976e-01 1.64914000e+00
      -3.04123014e-01 1.45725000e+00 -5.55877984e-01 2.47701001e+00
      -2.18920994e+00 1.40504003e+00 -1.08339000e+00 8.82797018e-02 0.
      0. -1.23889005e+00 1.23048997e+00 -2.34472990e+00 1.08745003e+00
      1.14862003e+01 -3.22528005e+00 6.92133999e+00 1.51747000e+00
      3.74401999e+00 3.25489998e+00 -8.79119992e-01 3.31364012e+00
      -2.53487992e+00 3.47020006e+00 -8.71500015e+00 2.05620003e+00
      -1.49793997e+01 -9.27718997e-01 -8.91882038e+00 -4.13741016e+00
      -4.28222990e+00 -4.35422993e+00 -1.15477002e+00 -4.48627996e+00
      2.00911999e+00 -4.60590982e+00 6.70554018e+00 -6.16036987e+00
      1.27749996e+01 -1.68178999e+00 3.62438989e+00 5.93019009e+00
      -9.86786008e-01 7.47318983e+00 -2.67891002e+00 6.15746021e+00
      -1.47964001e+01 -9.86968994e-01 -4.11427021e+00 -8.45238018e+00
      -9.98749018e-01 -7.14908981e+00 2.15263009e+00 -8.69209003e+00</_>
    <_>
      -2.28735000e-01 1.27874994e+00 -4.56440002e-01 -2.32785010e+00
      -7.14069009e-01 -5.90630007e+00 3.97186019e-02 -7.44325018e+00
      -1.29497004e+00 -6.94080019e+00 2.95242012e-01 -8.23851013e+00
      3.80396008e+00 -1.03184996e+01 6.21588993e+00 -9.24872017e+00
      9.61155987e+00 -9.01727009e+00 1.00162001e+01 -9.73845959e+00
      1.05118999e+01 -1.14049997e+01 1.21033001e+01 -1.19350004e+01
      1.08964005e+01 -1.54651003e+01 7.88568020e+00 -1.79596004e+01
      5.93838978e+00 -1.63813000e+01 4.00882006e+00 -1.48084002e+01
      -9.79278982e-01 -1.12413998e+01 -4.44999993e-01 1.03515998e-01
      1.41253996e+00 3.66399002e+00 9.49310005e-01 1.00598001e+01
      -6.03424013e-01 1.32896004e+01 -1.22482002e-01 1.43619003e+01
      -1.83650005e+00 1.55165005e+01 -3.23363996e+00 1.27311001e+01
      -4.65577984e+00 5.76342010e+00 -4.03799009e+00 -1.35502005e+00
      -1.34323001e+00 -4.65651989e+00 5.56731999e-01 3.89527011e+00
      4.73037988e-01 2.56100011e+00 1.42386997e+00 2.38723993e-01
      2.35180998e+00 -2.09584999e+00 2.66245008e+00 -2.78479004e+00
      2.42828012e+00 -2.73340011e+00 1.15383995e+00 -2.70609999e+00
      9.23354983e-01 -2.57895994e+00 -3.24126989e-01 -1.46912003e+00 0.
      0. 2.82262993e+00 1.34911001e+00 4.93835002e-01 1.43330002e+00
      -8.75487983e-01 2.33025002e+00 1.42586994e+00 1.68975994e-01
      7.32200980e-01 2.10724007e-02 -1.43935993e-01 7.57750988e-01
      -3.84766012e-01 1.04161000e+00 -7.06862986e-01 1.11958003e+00 0.
      0. 2.30469003e-01 -1.27143994e-01 1.57005000e+00 -1.93268001e-01
      8.42414975e-01 -1.10841999e+01 2.53302002e+00 -6.57473993e+00
      4.28662014e+00 -6.27416992e+00 1.99514997e+00 -5.26416016e+00
      -2.76764005e-01 -4.12563992e+00 1.40418994e+00 -4.12961006e+00
      5.10029984e+00 -8.27472019e+00 1.26127994e+00 -3.76587003e-01
      1.53806996e+00 5.15380979e-01 2.79659009e+00 4.35272008e-01
      4.07881021e+00 -1.67970002e+00 3.40301991e+00 -4.87468004e+00
      6.64893985e-01 -6.93673992e+00 3.19410992e+00 -4.48519993e+00
      1.91840994e+00 -3.40524006e+00 -3.52310002e-01 -3.31940007e+00
      5.19328022e+00 -5.24193001e+00 1.63071001e+00 -1.29074001e+00
      1.91308999e+00 -3.42284989e+00 4.17152023e+00 -3.48581004e+00</_>
    <_>
      3.02332014e-01 1.95249999e+00 5.92512012e-01 1.62530005e+00
      7.77541995e-01 2.68146992e+00 1.02090001e+00 2.34990001e+00
      1.30133998e+00 6.05103016e-01 -1.39541999e-02 1.54524004e+00
      -1.47816002e+00 2.43613005e+00 -1.35605007e-01 6.95679009e-01
      1.02718997e+00 3.78906012e-01 6.74468994e-01 1.09954998e-01
      1.34613007e-01 2.73961997e+00 -3.76922995e-01 4.04972982e+00
      -8.67461979e-01 5.51521015e+00 -1.22759998e+00 5.70601988e+00
      -1.33301005e-01 4.60367012e+00 -4.26696986e-01 3.44303989e+00
      -7.11609006e-01 2.31855989e+00 1.72347993e-01 -9.63847995e-01
      -1.37962997e+00 -3.82361007e+00 -1.49247003e+00 -6.79737997e+00
      -1.49147999e+00 -1.12481003e+01 -3.21736002e+00 -7.41835022e+00
      3.50021005e+00 -7.41889000e+00 1.96346998e+00 -1.04425001e+01
      3.02721000e+00 -9.18657017e+00 3.95656991e+00 -3.82286000e+00
      8.93311024e-01 1.31093001e+00 7.38570988e-01 -1.97368002e+00
      -5.11184990e-01 -8.50372016e-01 -3.62594992e-01 3.44040006e-01
      -1.42913997e-01 1.40166998e-01 1.78268000e-01 2.40890995e-01
      1.33895993e-01 8.32671970e-02 1.39332998e+00 1.39291000e+00
      1.24879003e+00 1.29680002e+00 1.08928001e+00 1.23474002e+00 0. 0.
      -1.45177996e+00 -2.92129993e+00 -2.04308003e-01 -3.00590992e+00
      9.42856014e-01 1.03220999e+00 -2.89649993e-01 1.08279002e+00
      -1.49482995e-01 1.22572005e+00 3.38806003e-01 1.81421995e+00
      3.22403014e-01 -2.44922996e+00 1.58051002e+00 -2.52102995e+00 0.
      0. 1.55561996e+00 1.56562999e-01 2.84714013e-01 2.38997996e-01
      -3.41087008e+00 -1.53346002e+00 -2.19333005e+00 -1.55002999e+00
      -9.60846007e-01 -1.60060000e+00 -1.08904004e+00 -3.49258006e-01
      3.03230000e+00 -1.63037002e+00 2.87224007e+00 -4.17450011e-01
      2.81943011e+00 -6.11281991e-01 2.98026991e+00 8.32184017e-01
      3.14818001e+00 9.30481017e-01 3.99475008e-01 2.30387998e+00
      -8.47168028e-01 9.83642995e-01 -7.10434020e-01 -2.31445000e-01
      -3.47455001e+00 -1.61020994e+00 -1.00064003e+00 1.11104000e+00
      3.04244995e-01 1.04361999e+00 1.59422004e+00 1.01014996e+00
      4.27081013e+00 -4.76195991e-01 3.00528002e+00 1.07062995e+00
      3.17061990e-01 1.03298998e+00 -9.29534972e-01 -2.87200987e-01</_>
    <_>
      -8.76274034e-02 -1.71481001e+00 -3.38324010e-01 -4.26048011e-01
      -5.89004993e-01 8.62716973e-01 -8.50075006e-01 9.17235970e-01
      -1.08984005e+00 1.01339996e+00 -7.38297030e-02 -7.25860968e-02
      -1.50516999e+00 1.38199002e-01 -1.66014004e+00 3.69659007e-01
      -2.95488000e+00 -5.92315972e-01 -2.90008998e+00 9.44945991e-01
      -2.75173998e+00 -7.09991008e-02 -2.55132008e+00 1.37085998e+00
      -2.33034992e+00 1.52593994e+00 -2.08905005e+00 1.60757005e+00
      -1.82720995e+00 1.64719999e+00 -3.20740014e-01 1.66593003e+00
      -6.95189983e-02 1.68474996e+00 1.54694006e-01 -2.62820989e-01
      1.54700994e+00 -1.38334000e+00 1.63226998e+00 -1.19578004e+00
      1.62356997e+00 -9.86486018e-01 2.96752989e-01 4.57767010e-01
      2.99376994e-01 7.71564007e-01 -8.60077024e-01 -2.75213003e-01
      -8.47869992e-01 -6.61068037e-02 -9.19510007e-01 1.22786999e-01
      1.69373006e-01 2.39173993e-01 1.31276000e+00 -6.28211975e-01
      1.11403000e+00 -6.26541018e-01 -3.18984985e-01 -6.14494026e-01
      -5.17714977e-01 -6.12807989e-01 6.10473990e-01 -8.00109982e-01
      -6.75400019e-01 -7.05627024e-01 -7.06008971e-01 -6.11236989e-01
      -6.73828006e-01 -5.17364979e-01 6.13541007e-01 -4.34020996e-01 0.
      0. 1.30835998e+00 -1.15120995e+00 7.52563030e-02 -1.00485003e+00
      1.34429997e-02 3.55545014e-01 -2.94495001e-02 2.30377004e-01
      1.20378006e+00 -1.15032995e+00 7.46155018e-03 -3.55728000e-01
      1.31592000e+00 -2.51655996e-01 1.31708002e+00 -1.15668997e-01 0.
      0. -4.26940992e-02 -1.04240000e-01 -3.33862007e-02 -2.40310997e-01
      -2.25739002e+00 -9.95682001e-01 -9.38216984e-01 -8.60351980e-01
      -2.13998008e+00 -7.14232981e-01 -2.18083000e+00 -5.98846018e-01
      -9.03778017e-01 -4.94507015e-01 -2.18918991e+00 -3.47716987e-01
      -2.24025011e+00 -2.00820997e-01 -2.34598994e+00 -3.35938007e-01
      -1.16518998e+00 -4.81842011e-01 -1.18706000e+00 -1.84154999e+00
      -2.41201997e+00 -7.22411990e-01 -1.10557997e+00 -8.58916998e-01
      -2.25686002e+00 -9.32937980e-01 -1.01031005e+00 -7.23739982e-01
      -2.27498007e+00 -5.98038018e-01 -2.25307989e+00 -4.83170003e-01
      -2.25115991e+00 -2.53035992e-01 -2.26355004e+00 -4.83078003e-01
      -2.28544998e+00 -5.97945988e-01 -2.26547003e+00 -7.13181019e-01</_>
    <_>
      2.83046991e-01 -7.32352972e-01 4.69969004e-01 -9.80880976e-01
      5.97630024e-01 -2.32505989e+00 7.68871009e-01 -2.58710003e+00
      8.42781007e-01 -3.96402001e+00 -1.90230995e-01 -4.24672985e+00
      -1.92656994e-01 -4.57658005e+00 -1.35807002e+00 -4.86420012e+00
      -4.34691995e-01 -4.08197021e+00 3.34030002e-01 -5.38565016e+00
      8.13445970e-02 -3.25483990e+00 -2.53098011e-01 -3.21534991e+00
      -5.54015994e-01 -3.11971998e+00 -8.21442008e-01 -2.96788001e+00
      2.57262997e-02 -2.81803989e+00 -2.02515006e-01 -2.63243008e+00
      -3.78264993e-01 -1.34335005e+00 3.15628004e+00 -3.02817011e+00
      1.89782000e+00 -1.90081000e+00 6.16263986e-01 -1.97448003e+00
      -6.19049013e-01 -2.11753988e+00 -1.80495000e+00 -2.28626990e+00
      1.15056002e+00 -2.68144011e+00 9.25261974e-01 -2.75273991e+00
      -1.43949997e+00 -2.79740000e+00 -1.54890001e+00 -2.98728991e+00
      -2.63947010e+00 -3.15577006e+00 4.97635007e-01 5.79140007e-01
      -4.79506999e-01 -6.31798029e-01 7.15408027e-01 -1.92312002e+00
      -2.98568994e-01 -4.22406006e+00 1.12522995e+00 -2.03417993e+00
      1.08065999e+00 -2.14087009e+00 -1.12106003e-01 -3.29181004e+00
      -2.26334006e-01 -3.34934998e+00 -3.24950993e-01 -3.39338994e+00 0.
      0. -1.21993995e+00 -3.41949016e-02 -1.34526002e+00 -1.42258003e-01
      -2.50336003e+00 -2.32391000e-01 -1.23309004e+00 8.76143992e-01
      -6.24160990e-02 -1.49368003e-01 1.37655997e+00 -8.20755005e-01
      1.42029002e-01 -8.53882015e-01 1.15699995e+00 7.55385980e-02 0. 0.
      1.18096995e+00 -1.08494997e+00 1.34310997e+00 1.13098003e-01
      2.65984988e+00 -2.20665002e+00 2.40576005e+00 -4.44658995e+00
      1.20020998e+00 -3.39648008e+00 5.89141995e-02 -3.45850992e+00
      1.02675998e+00 -3.55964994e+00 9.41971004e-01 -3.71467996e+00
      -2.11532995e-01 -3.84180999e+00 1.07701004e+00 -3.87137008e+00
      2.33285999e+00 -3.84717011e+00 1.35931003e+00 -3.72361994e+00
      1.47555995e+00 -2.55151010e+00 1.54689002e+00 -2.38077998e+00
      2.57493997e+00 -3.35175991e+00 1.28802001e+00 -3.49832010e+00
      1.76772997e-01 -2.46254992e+00 3.24249007e-02 -3.61788988e+00
      9.33288991e-01 -3.83137989e+00 1.12241995e+00 -3.65472007e+00
      1.22993004e+00 -3.58936000e+00 1.33940005e+00 -2.40942001e+00</_>
    <_>
      1.54505000e-01 -1.28899002e+00 -4.12559994e-02 -1.49282002e+00
      -2.87400991e-01 -1.67623997e+00 -5.33843994e-01 -1.84543002e+00
      -8.09409976e-01 -1.98661995e+00 -1.08611000e+00 -2.07076001e+00
      -1.37768996e+00 -2.12659001e+00 -1.64959002e+00 -1.03270996e+00
      -4.01546001e+00 -8.87695014e-01 -4.17762995e+00 -6.33971989e-01
      -3.17711997e+00 7.28255987e-01 -3.16911006e+00 2.09904003e+00
      -3.09632993e+00 1.32239997e+00 -2.98055005e+00 2.65967989e+00
      -1.73648000e+00 1.85674000e+00 -4.92157012e-01 1.03945994e+00
      -2.74901986e-01 1.80069000e-01 1.34139001e+00 3.42102014e-02
      3.02558988e-01 -8.43394995e-01 1.85028002e-01 3.82090002e-01
      1.09615004e+00 -5.48977017e-01 9.16068971e-01 -1.53060997e+00
      6.38671994e-01 -1.65573001e-01 5.63202024e-01 -1.02374005e+00
      1.48752999e+00 -8.40892971e-01 1.29980004e+00 3.26056987e-01
      1.10001004e+00 3.22032988e-01 6.02401972e-01 1.63266003e+00
      4.76547003e-01 1.50160003e+00 1.42139995e+00 3.14224005e-01
      1.28857005e+00 1.75918996e-01 2.73597986e-01 -1.15828998e-01
      1.65252998e-01 -5.37872016e-02 4.96520996e-02 1.52740004e-02
      -1.69983003e-02 1.35284007e-01 -9.06829983e-02 2.48032004e-01 0.
      0. 1.01782000e+00 1.49039999e-01 9.22820985e-01 -8.02321970e-01
      7.50481009e-01 3.07846010e-01 8.31710994e-01 1.73828006e-01
      9.33914006e-01 6.16836995e-02 2.91579992e-01 7.62580991e-01
      2.38297001e-01 9.25709009e-01 1.22115999e-01 1.02330995e+00 0. 0.
      1.09445000e+00 9.50119019e-01 1.68578997e-01 -2.17903003e-01
      7.55539015e-02 5.01236022e-01 -1.01365995e+00 -3.55987996e-01
      -1.07573997e-02 -1.23522997e+00 -1.17525005e+00 -1.30783007e-01
      -1.24161005e+00 -2.50549000e-02 -3.50800008e-01 5.00335991e-02
      -5.72556019e-01 2.19430995e+00 -5.89309990e-01 4.08572006e+00
      -1.57081997e+00 2.84520006e+00 -1.50463998e+00 3.81024003e+00
      -2.47378993e+00 3.72645998e+00 -2.30091000e+00 2.58773994e+00
      1.06657004e+00 5.64072013e-01 -1.18587005e+00 -1.37314999e+00
      -1.26591003e+00 -1.29624999e+00 -1.34630001e+00 -1.20506001e+00
      -5.06851017e-01 1.06058002e+00 -3.60473990e-01 3.00524998e+00
      -1.35064006e+00 2.89958000e+00 -1.26355004e+00 2.82998991e+00</_>
    <_>
      -1.68166995e+00 1.76765001e+00 -1.43488002e+00 6.64352000e-01
      1.58819997e+00 -4.73861992e-01 3.27372003e+00 -2.53098011e-01
      2.22709990e+00 -2.80985999e+00 1.27015996e+00 -1.31166005e+00
      3.22479010e-01 -1.27664006e+00 7.20229983e-01 -1.36654997e+00
      -3.26247990e-01 -1.62616003e+00 1.33295000e+00 -6.27533019e-01
      2.80805993e+00 -1.05287004e+00 1.43779004e+00 -1.46441996e+00
      2.72983003e+00 -5.25207996e-01 2.53793001e+00 -8.86107981e-01
      2.31323004e+00 -1.18910003e+00 2.08931994e+00 -8.63875970e-02
      1.82007003e+00 -3.42545003e-01 -3.29627991e-01 1.44823003e+00
      -3.07816005e+00 1.21960998e+00 -1.70745999e-01 -4.30038005e-01
      -1.30631995e+00 -5.96010029e-01 -1.04674995e+00 -7.28191018e-01
      6.36794984e-01 -1.04446006e+00 7.67624021e-01 -1.29913998e+00
      -4.26865011e-01 -1.60786003e-01 1.15684998e+00 -1.73170996e+00
      1.45404005e+00 -3.56254995e-01 -7.37151980e-01 -2.06165004e+00
      -5.61325014e-01 -5.11718988e-01 -3.96896005e-01 -3.32953990e-01
      -1.58053994e+00 1.23942995e+00 1.10214996e+00 2.01095998e-01
      -1.34002998e-01 1.50048995e+00 7.62938987e-04 1.40572000e+00
      8.87451023e-02 1.26638997e+00 1.77031994e-01 -2.32970998e-01 0. 0.
      -1.33003998e+00 -1.72562003e-01 -1.17412996e+00 -3.36441010e-01
      -9.69291985e-01 -1.74728000e+00 -1.03341997e+00 1.18008006e+00
      -1.18937004e+00 1.34395003e+00 9.93668020e-01 4.32365000e-01
      1.02231002e+00 -1.16837001e+00 1.17823994e+00 -1.33223999e+00 0.
      0. 1.33004999e+00 1.72562003e-01 1.15109003e+00 -1.04586005e+00
      -6.02798015e-02 7.90054023e-01 2.72180009e+00 -8.45016003e-01
      6.53839037e-02 3.29802990e-01 2.23541006e-01 2.57308990e-01
      2.99820006e-01 1.06826998e-01 5.14815986e-01 2.14690994e-02
      2.12502003e+00 -3.01207993e-02 2.12013006e+00 2.32864007e-01
      6.74621999e-01 1.84605002e+00 1.92307997e+00 5.80642998e-01
      1.78887999e+00 6.98288023e-01 1.57381999e+00 7.83630013e-01
      1.76772997e-02 7.08176017e-01 1.58870995e+00 4.63241994e-01
      1.72350001e+00 3.68454009e-01 1.82312000e+00 2.40294993e-01
      2.04703999e+00 5.18036000e-02 4.40842003e-01 2.63321012e-01
      3.18145990e-01 -9.90828991e-01 2.06435993e-01 4.86281991e-01</_>
    <_>
      1.90735000e-06 2.28882000e-05 -1.33514004e-05 1.52588000e-05
      -1.52588000e-05 -1.52588000e-05 7.62938998e-06 0. 1.14441000e-05
      -1.52588000e-05 0. 0. 2.28882000e-05 -3.05176000e-05
      1.52588000e-05 -3.05176000e-05 3.05176000e-05 0. 1.52588000e-05
      -3.05176000e-05 0. 0. 0. -3.05176000e-05 0. 1.52588000e-05
      3.05176000e-05 -1.52588000e-05 3.05176000e-05 -1.52588000e-05 0.
      0. 0. 2.28882000e-05 -3.81469999e-06 -1.14441000e-05
      -7.62938998e-06 7.62938998e-06 -2.28882000e-05 -1.90735000e-06
      -7.62938998e-06 1.90735000e-06 3.05176000e-05 3.81469999e-06
      1.52588000e-05 3.81469999e-06 1.52588000e-05 7.62938998e-06 0.
      -9.53674044e-06 -3.05176000e-05 3.81469999e-06 0. 7.62938998e-06
      1.52588000e-05 -3.81469999e-06 3.05176000e-05 7.62938998e-06
      1.52588000e-05 -2.28882000e-05 0. 1.52588000e-05 3.05176000e-05
      3.05176000e-05 -1.52588000e-05 0. 1.52588000e-05 0. 1.52588000e-05
      -1.52588000e-05 0. 0. 0. 0. 7.62938998e-06 7.62938998e-06
      2.28882000e-05 7.62938998e-06 0. 0. 2.28882000e-05 7.62938998e-06
      0. 0. -3.05176000e-05 7.62938998e-06 1.52588000e-05 3.81469999e-06
      -1.52588000e-05 3.81469999e-06 0. 0. 1.52588000e-05 0.
      1.52588000e-05 -1.52588000e-05 7.62938998e-06 0. 3.05176000e-05
      -3.05176000e-05 1.52588000e-05 0. 1.52588000e-05 0. 3.05176000e-05
      -1.52588000e-05 -1.52588000e-05 3.05176000e-05 0. 1.52588000e-05
      1.52588000e-05 3.05176000e-05 0. 1.52588000e-05 3.05176000e-05
      3.05176000e-05 1.52588000e-05 -1.52588000e-05 -1.52588000e-05
      -3.05176000e-05 -1.52588000e-05 3.05176000e-05 -1.52588000e-05
      -1.52588000e-05 1.52588000e-05 0. 1.52588000e-05 -3.05176000e-05
      -1.52588000e-05 -1.52588000e-05 -3.05176000e-05 -3.05176000e-05 0.
      -1.52588000e-05 1.52588000e-05 1.52588000e-05</_>
    <_>
      -2.96275997e+00 -5.06081009e+00 -3.18946004e+00 -4.81066990e+00
      -3.39018989e+00 -4.55327988e+00 -3.58197999e+00 -4.28779984e+00
      -3.68716002e+00 -2.78051996e+00 -4.92371988e+00 -2.41250992e+00
      -3.58577991e+00 -8.90747011e-01 -3.40788007e+00 6.45416021e-01
      -7.41867006e-01 8.81408989e-01 -4.39835012e-01 1.12258995e+00
      -8.29925984e-02 2.47921991e+00 1.44632006e+00 1.29456997e+00
      5.57036996e-01 1.26143003e+00 8.47075999e-01 1.08501005e+00
      1.10058999e+00 8.59176993e-01 1.25884995e-01 6.51015997e-01
      3.09814006e-01 -8.17505002e-01 -4.97842979e+00 -2.65733004e+00
      -6.01077986e+00 -5.08174992e+00 -5.82467985e+00 -6.15777016e+00
      -5.63622999e+00 -5.97070980e+00 -5.41187000e+00 -2.09833002e+00
      4.54042006e+00 -3.30419993e+00 3.49861002e+00 -5.57453012e+00
      4.92330980e+00 -5.41408014e+00 5.10516024e+00 -3.97204995e+00
      1.57125998e+00 1.66969001e-02 -1.80655003e+00 -6.36718988e-01
      -7.33901978e-01 -5.18715024e-01 -8.63418996e-01 -3.75800997e-01
      -1.00997996e+00 -2.32032999e-01 -2.63358998e+00 -2.70425010e+00
      -1.30569005e+00 -1.38676000e+00 -2.41609001e+00 -1.22983003e+00
      -2.27481008e+00 -1.13434994e+00 -2.14248991e+00 -1.04697001e+00 0.
      0. -1.02066004e+00 1.28772998e+00 -2.12276006e+00 2.23769993e-01
      -9.10094976e-01 -2.02075005e+00 -2.28764009e+00 -2.08963990e+00
      -9.99451033e-04 -2.27879000e+00 8.00231993e-01 -3.89229000e-01
      2.28592992e+00 2.05558991e+00 -8.75854027e-03 2.25367999e+00 0. 0.
      1.04560995e+00 -8.54950026e-02 9.10781980e-01 -2.23984003e-01
      -6.06476009e-01 -1.83562994e-01 -1.63567996e+00 -1.32790995e+00
      -1.42630005e+00 -1.23579001e+00 -2.56177998e+00 -1.06904995e+00
      -2.38751006e+00 2.19696000e-01 -2.26553011e+00 4.44153011e-01
      2.86406994e-01 3.04998994e+00 -2.38320994e+00 3.08728004e+00
      -2.61916995e+00 1.75887001e+00 -1.55882001e+00 4.09485012e-01
      -1.67583001e+00 2.87185997e-01 -1.75416994e+00 1.29814005e+00
      -5.43097973e-01 -1.09879002e-01 -1.58159995e+00 -2.31208992e+00
      -1.44780004e+00 -9.78653014e-01 -2.53386998e+00 -8.48510981e-01
      -2.21455002e+00 3.04483008e+00 -1.24693000e+00 1.54636002e+00
      -2.62426996e+00 2.65518010e-01 -1.51387000e+00 1.08505003e-01</_>
    <_>
      -4.94117022e+00 -6.46950006e-01 -2.89143991e+00 -2.05645990e+00
      -3.15074992e+00 -2.51964998e+00 -3.29475999e+00 -4.16176987e+00
      -4.55078983e+00 -4.88031006e+00 -1.07167006e+00 -6.65677977e+00
      2.89054990e-01 -9.89688015e+00 3.83364010e+00 -1.31865997e+01
      7.02971983e+00 -1.46489000e+01 8.70026970e+00 -1.42349997e+01
      8.70110989e+00 -1.19171000e+01 8.63317966e+00 -1.08022003e+01
      7.15291977e+00 -8.61577034e+00 5.44155979e+00 -7.46631002e+00
      2.37789989e+00 -5.16718006e+00 2.74216008e+00 -3.77717996e+00
      3.09436011e+00 -2.29507995e+00 -5.75298023e+00 1.67593002e+01
      -3.73108000e-01 2.08507004e+01 1.05467999e+00 2.37145004e+01
      4.07458019e+00 2.23460999e+01 8.40787983e+00 1.89333992e+01
      -6.69553995e+00 2.03819008e+01 -4.21758986e+00 2.20799007e+01
      -2.69531012e+00 2.27318001e+01 1.53798997e+00 1.91889000e+01
      4.58084011e+00 1.71679993e+01 1.42990005e+00 3.98006010e+00
      1.83606005e+00 4.45464993e+00 2.32543993e+00 3.81634998e+00
      2.66829991e+00 5.42987013e+00 1.54378998e+00 1.73956001e+00
      1.99947000e+00 4.64722008e-01 2.31458998e+00 1.39566004e+00
      2.46367002e+00 2.16435003e+00 2.67003012e+00 1.84019005e+00 0. 0.
      5.18264994e-02 1.80955005e+00 -6.44546986e-01 1.40621996e+00
      -1.28505003e+00 1.29114997e+00 -2.83980995e-01 -5.13229012e-01
      4.58449990e-01 -1.03867002e-01 1.41387999e+00 -9.97924991e-03
      3.30047995e-01 5.19267976e-01 -4.12369013e-01 1.09889999e-01 0. 0.
      2.62755994e-02 -1.86953998e+00 7.68692017e-01 -1.46018004e+00
      -1.71218002e+00 -9.39406967e+00 1.17071998e+00 -7.75406003e-01
      1.24337995e+00 2.06702995e+00 2.81197000e+00 8.75442982e-01
      1.91138995e+00 4.21967000e-01 2.72983003e+00 -3.14668012e+00
      7.26527023e+00 -1.19177999e+01 4.67496014e+00 -2.26520996e+01
      4.80883980e+00 -2.76683006e+01 5.64334011e+00 -2.72469006e+01
      6.34059000e+00 -2.58367004e+01 4.22270012e+00 -2.01515999e+01
      -3.69247007e+00 -1.08395996e+01 1.83656001e+00 -2.04615998e+00
      2.10564995e+00 -1.12123001e+00 2.46732998e+00 -2.57230997e+00
      8.13263035e+00 -1.05556002e+01 3.98633003e+00 -2.25783997e+01
      4.82081985e+00 -2.21569996e+01 4.46844006e+00 -2.19689999e+01</_>
    <_>
      -3.52225995e+00 -2.92724991e+00 -2.42500997e+00 -2.43966007e+00
      -1.29191995e+00 -1.90816998e+00 -7.92312995e-02 3.26537993e-03
      -2.23186001e-01 -2.11102009e+00 -1.51052999e+00 -6.23627007e-02
      -1.35885000e+00 -7.82958984e-01 -1.05246997e+00 -1.60058999e+00
      -1.84209001e+00 -1.22783995e+00 1.95206001e-01 -1.03982997e+00
      8.61588001e-01 -1.10133004e+00 1.61713004e-01 7.27081001e-02
      7.36786008e-01 -2.79861003e-01 1.17084002e+00 -7.51266003e-01
      1.53549004e+00 1.18010998e-01 1.84362996e+00 9.89692986e-01
      2.04904008e+00 -9.00924981e-01 -4.23516989e+00 5.07285023e+00
      -5.25936985e+00 3.60715008e+00 -2.10427999e+00 2.30910993e+00
      -3.93790990e-01 1.17273998e+00 1.26247001e+00 9.52797011e-02
      5.16692996e-01 4.32190001e-01 9.94843006e-01 1.85240996e+00
      2.83452010e+00 3.29578996e+00 4.58880997e+00 3.49549007e+00
      3.43871999e+00 6.67225981e+00 1.34011996e+00 -7.69626975e-01
      1.16127002e+00 -4.33434010e-01 9.82361019e-01 -9.72366035e-02
      7.93151975e-01 2.62046993e-01 -1.15038002e+00 -9.50272024e-01
      3.96026999e-01 -8.44025016e-01 1.99890006e+00 6.31789982e-01
      2.21731997e+00 -6.69785023e-01 3.81789994e+00 -6.22437000e-01 0.
      0. -1.06585002e+00 -1.37711002e-03 -7.42401004e-01 1.44027993e-01
      -1.99733996e+00 -2.24185991e+00 -9.23492014e-01 -9.48279977e-01
      1.12205997e-01 -1.12711000e+00 1.86585999e+00 -3.94477993e-01
      8.66973996e-01 -4.21290994e-01 1.19043005e+00 -2.75887012e-01 0.
      0. 1.06582999e+00 1.37328997e-03 7.19359994e-01 -1.52634001e+00
      -1.92963004e+00 -1.70044005e+00 -1.54620004e+00 -1.75029004e+00
      -2.50925994e+00 -3.61312985e-01 -9.60601985e-01 -1.98440999e-01
      -6.98364019e-01 -1.63910002e-01 -4.60341990e-01 1.09695002e-01
      1.08266997e+00 4.08843994e-01 -7.01430976e-01 -7.87369013e-01
      -1.02037001e+00 1.92421997e+00 -1.28483999e+00 4.61227000e-01
      -2.88778996e+00 3.57300013e-01 -3.12589002e+00 8.36639032e-02
      -1.76787996e+00 -1.62775004e+00 -1.28511000e+00 -9.43604037e-02
      -1.07481003e+00 5.57098016e-02 5.59203982e-01 1.46222997e+00
      -4.38248008e-01 3.69567990e-01 -8.56491029e-01 1.26083001e-01
      -2.48016000e+00 -1.30357003e+00 -2.70080996e+00 -1.43052995e+00</_>
    <_>
      1.77051997e+00 1.37967002e+00 2.00739002e+00 2.31011009e+00
      2.18442011e+00 2.05200005e+00 3.47144008e+00 5.30487001e-01
      5.94503021e+00 1.18712999e-01 4.77256012e+00 -1.47506997e-01
      1.07879996e+00 -1.47347999e+00 -2.97852010e-01 -2.92117000e+00
      -5.40648997e-01 -3.19375992e+00 4.12261993e-01 -2.27227998e+00
      1.25989997e+00 -2.40631008e+00 -1.94823995e-01 -1.17400002e+00
      -1.74901998e+00 -2.20992994e+00 -7.57934988e-01 -9.34020996e-01
      -2.24127007e+00 -1.86667001e+00 -1.21276999e+00 -5.60616016e-01
      9.27582026e-01 -5.01182973e-01 2.20388007e+00 -4.49685001e+00
      2.00308990e+00 -3.27168012e+00 4.96360987e-01 -4.50052977e+00
      3.61999989e-01 -3.53008008e+00 -1.01490998e+00 -4.90094995e+00
      -1.21291006e+00 -3.96630001e+00 -1.48057997e+00 -4.07401991e+00
      -4.47205007e-01 -3.11846995e+00 -1.69509995e+00 -2.10476995e+00
      -4.03943014e+00 -2.23613000e+00 -2.04896998e+00 -2.77506995e+00
      -2.04070997e+00 -5.31103992e+00 -7.16690004e-01 -5.53914022e+00
      -1.82958996e+00 -6.83605003e+00 -1.70853004e-01 -4.51397991e+00
      9.29931998e-01 -4.67534018e+00 -1.52556002e+00 -4.64956999e+00
      -1.63408005e+00 -4.70616007e+00 -1.67523003e+00 -3.58359003e+00 0.
      0. 1.19386005e+00 3.47329998e+00 -1.94701999e-01 2.23168993e+00
      -5.02945006e-01 -2.68568993e+00 8.97056997e-01 -1.49655998e+00
      2.29317999e+00 -2.64304996e-01 -1.02248001e+00 -3.15035009e+00
      3.47290009e-01 3.85477996e+00 -9.57031012e-01 3.79053998e+00 0. 0.
      -1.10427999e+00 -1.05885994e+00 -9.79156017e-01 -9.27231014e-01
      7.69871998e+00 -2.41089001e-01 4.96407986e+00 -2.56666994e+00
      3.03345006e-02 -2.41032004e+00 -4.99114990e-02 -2.52115011e+00
      -2.35137999e-01 -3.76445007e+00 -1.39145994e+00 -1.50586998e+00
      -3.82227993e+00 -1.56816006e+00 -2.37671003e-01 -5.29200983e+00
      9.41619992e-01 -8.84193039e+00 1.00147998e+00 -9.94946003e+00
      -8.99657980e-02 -9.78061008e+00 4.87888002e+00 -7.47396994e+00
      7.56408978e+00 -1.48982000e+00 1.89896002e-01 -1.32641995e+00
      9.45892036e-02 -1.41858006e+00 1.10359001e+00 -2.74792004e+00
      -2.64507008e+00 -2.76202011e+00 9.39025998e-01 -6.33223009e+00
      1.05875003e+00 -6.25122023e+00 1.08668995e+00 -7.33824015e+00</_>
    <_>
      -1.60019004e+00 -2.59878993e+00 -6.90577984e-01 -3.17866993e+00
      -8.57876003e-01 -2.68085003e+00 -2.13948989e+00 -3.29811001e+00
      -2.23979998e+00 -2.78397012e+00 -2.22090006e+00 -2.24492002e+00
      -9.67392027e-01 -3.91004992e+00 -1.82292998e+00 -4.51110983e+00
      -2.48060989e+00 -3.08068991e+00 -3.03006005e+00 -1.82012999e+00
      -2.47507000e+00 -7.91275024e-01 -8.93417001e-01 2.34576011e+00
      1.75338995e+00 2.05576992e+00 3.19042993e+00 1.65875006e+00
      3.47661996e+00 2.30050993e+00 3.81487989e+00 7.58819997e-01
      5.21597004e+00 2.86255002e-01 -1.37488997e+00 6.13639021e+00
      1.11856997e+00 8.22229004e+00 1.45202005e+00 8.37874031e+00
      1.71618998e+00 8.63101959e+00 3.08678007e+00 5.62915993e+00
      -1.89184999e+00 6.90387011e+00 -1.53377998e+00 1.02477999e+01
      -5.45349009e-02 1.03453999e+01 2.77740002e-01 9.46193981e+00
      2.61203003e+00 8.72416019e+00 1.08214998e+00 4.93449986e-01
      -1.65648997e-01 7.82142997e-01 -3.21716011e-01 9.00269020e-04
      -4.85199004e-01 3.11751992e-01 2.08877996e-01 3.93279999e-01
      -7.65960991e-01 -5.91736019e-01 -6.33835018e-01 6.30385995e-01
      -4.47647005e-01 6.71645999e-01 -2.61489987e-01 7.12845027e-01 0.
      0. 2.40302995e-01 1.05227995e+00 -5.99770010e-01 6.25381023e-02
      1.73561001e+00 -1.82729995e+00 3.90327007e-01 -1.89224005e+00
      1.23041999e+00 -9.02504027e-01 4.69954997e-01 -1.39684999e+00
      7.40279973e-01 7.48322010e-01 -1.44942999e-01 1.96458006e+00 0. 0.
      -2.16979995e-01 -1.09669995e+00 -4.38643992e-01 -2.32813001e+00
      -1.41782999e+00 -2.37065005e+00 -1.20634997e+00 -1.37128997e+00
      1.24160998e-01 8.77792001e-01 2.70675987e-01 1.03043997e+00
      -6.05286002e-01 -3.48511003e-02 7.14736998e-01 -9.28023994e-01
      3.05048990e+00 -1.74056995e+00 5.64072013e-01 -3.80388999e+00
      -1.92665005e+00 -4.92465019e+00 -1.04256999e+00 -4.98886013e+00
      -1.27379999e-01 -5.11225986e+00 -2.72323996e-01 -5.33966017e+00
      -1.31384003e+00 -3.43083000e+00 -1.01584005e+00 -2.27260995e+00
      2.45757997e-01 -1.04235995e+00 -6.53137028e-01 -9.85900998e-01
      1.83998001e+00 -1.81023002e+00 -7.31812000e-01 -2.99248004e+00
      1.59317002e-01 -3.03410006e+00 -1.10186994e+00 -3.18708992e+00</_>
    <_>
      1.45997000e+00 -3.15559000e-01 1.26504004e+00 -1.73204005e+00
      1.07743001e+00 -4.29526997e+00 7.91893005e-01 -4.50888014e+00
      -1.88363004e+00 -3.57873988e+00 -4.55657005e+00 -3.72514009e+00
      -4.86665010e+00 -4.87588978e+00 -6.32712984e+00 -5.98120022e+00
      -6.61317015e+00 -5.79766989e+00 -3.33999991e+00 -4.22494984e+00
      -3.56524992e+00 -3.92394990e-01 -2.46230006e+00 2.74657999e-04
      -3.58607006e+00 3.03420991e-01 -2.27804995e+00 6.65893972e-01
      -9.14978027e-01 9.96841013e-01 5.10497987e-01 1.49444997e-01
      7.47986019e-01 4.21494007e-01 -1.97412002e+00 1.12783003e+00
      -7.66411006e-01 2.39135996e-01 -2.00407004e+00 -1.93658996e+00
      -1.09800994e+00 -5.95324993e-01 -1.61034003e-01 -4.87513989e-01
      -2.77817988e+00 -2.85930991e-01 -1.65952003e+00 -1.16301000e+00
      -1.77072001e+00 -2.12370992e+00 -8.64655018e-01 -7.82446027e-01
      -2.23011994e+00 -1.98725998e+00 -1.66921997e+00 -1.79910004e+00
      -3.00434995e+00 -2.02223992e+00 -3.16810989e+00 -2.20988989e+00
      -4.45952988e+00 -3.59496999e+00 -2.14090991e+00 -3.13217014e-01
      -3.44003010e+00 -2.86819011e-01 -3.57718992e+00 -2.16704994e-01
      -5.99031019e+00 -1.60095006e-01 -6.02526999e+00 -1.20386004e+00 0.
      0. -1.18175006e+00 -1.05112004e+00 -1.27758002e+00 -2.10786009e+00
      -1.51574004e+00 -9.41429019e-01 -1.40195000e+00 -1.05726004e+00
      -1.27060997e+00 -1.17188001e+00 -1.99041998e+00 -1.61793995e+00
      -8.41614008e-01 -1.38100004e+00 2.14766994e-01 -1.21211004e+00 0.
      0. 6.22559004e-02 -1.36986002e-01 -9.94109988e-01 -3.05855006e-01
      1.02055998e+01 1.13723001e+01 4.45077991e+00 6.70970011e+00
      -1.45028996e+00 5.49663019e+00 -5.03908014e+00 4.28191996e+00
      -8.63173962e+00 4.29362011e+00 -1.47852001e+01 8.87047958e+00
      -1.98887005e+01 1.57868004e+01 -1.59533997e+01 2.81632996e+00
      -1.10177002e+01 -3.06117010e+00 -6.20994997e+00 -4.19935989e+00
      -2.62000990e+00 -3.00219989e+00 4.41963005e+00 1.84484994e+00
      1.02192001e+01 9.09632969e+00 -1.56770003e+00 6.57419014e+00
      -5.15763998e+00 5.37702990e+00 -8.79399014e+00 6.55072021e+00
      -1.97612991e+01 1.33950005e+01 -9.72233963e+00 -2.90252995e+00
      -6.08594990e+00 -4.07618999e+00 -2.49602008e+00 -2.87906003e+00</_>
    <_>
      1.14315004e+01 1.31287003e+01 8.60743999e+00 1.08161001e+01
      9.76764965e+00 7.30440998e+00 9.44826031e+00 6.46155977e+00
      7.27770996e+00 6.94739008e+00 5.99251986e+00 5.05766010e+00
      2.70553994e+00 6.29914999e+00 4.58099008e-01 5.33923006e+00
      -3.35220003e+00 6.38428020e+00 -5.63570976e+00 5.33980989e+00
      -7.46216011e+00 7.61700010e+00 -7.59261990e+00 7.73259020e+00
      -5.93593979e+00 1.09624004e+01 -3.84027004e+00 1.30660000e+01
      -2.64923000e+00 1.24384003e+01 -1.04675002e-01 1.32517004e+01
      -2.72583008e-01 1.39826002e+01 3.06395006e+00 3.10941005e+00
      3.05002999e+00 5.37311983e+00 1.39385998e+00 8.23711014e+00
      -1.71668005e+00 1.06422005e+01 -4.72529984e+00 1.27241001e+01
      4.92986012e+00 1.44219999e+01 7.05994010e-01 1.21069002e+01
      -2.18274999e+00 9.50220013e+00 -3.47989011e+00 3.74141002e+00
      -1.61480999e+00 1.48998007e-01 6.75827026e-01 1.53165998e+01
      2.06573009e+00 1.41246004e+01 2.05840993e+00 1.28888998e+01
      2.09972000e+00 1.01738997e+01 4.08463001e+00 1.34237003e+01
      3.15868998e+00 1.17205000e+01 7.91854978e-01 1.13709002e+01
      -2.51311988e-01 1.29546003e+01 -1.17377996e+00 1.32278996e+01 0.
      0. -7.52448976e-01 -7.95111990e+00 3.51861000e+00 -5.05663013e+00
      1.93420005e+00 1.22226000e+01 3.08533013e-01 9.15937042e+00
      -2.60892010e+00 7.70583010e+00 4.24499996e-02 9.47259998e+00
      -1.98592997e+00 -5.26734018e+00 1.13959002e+00 -7.91858006e+00 0.
      0. 3.43148994e+00 6.54916000e+00 1.70325994e+00 9.24405956e+00
      -3.04834008e+00 1.29082003e+01 -4.23685980e+00 1.34948997e+01
      -2.40780997e+00 9.81789970e+00 -1.85969996e+00 1.09629002e+01
      -1.37990999e+00 1.11978998e+01 -1.11166000e+00 1.35611000e+01
      -9.10202026e-01 1.29556999e+01 -1.40936005e+00 1.91427002e+01
      -3.08398008e+00 2.02761993e+01 -2.30222988e+00 2.16413002e+01
      -4.19423008e+00 2.16086998e+01 -4.37048006e+00 1.90863991e+01
      -3.62294006e+00 1.55908003e+01 -2.57133007e+00 1.59017000e+01
      -6.74332023e-01 1.58521996e+01 -1.50476003e+00 1.59665003e+01
      -5.00258982e-01 1.56981001e+01 -1.58678997e+00 1.59615002e+01
      -2.07158995e+00 1.58085003e+01 -3.96861005e+00 1.58579998e+01</_>
    <_>
      -5.10643005e-01 -5.99126005e+00 3.92271012e-01 -5.24877977e+00
      9.78240967e-02 -6.78853989e+00 -2.18895003e-01 -6.00815010e+00
      5.86933017e-01 -6.38010979e+00 -9.79004025e-01 -4.36421013e+00
      -2.98866004e-01 -3.35830998e+00 -8.15124989e-01 -3.33997011e+00
      -2.46763992e+00 -1.97458005e+00 -6.32187009e-01 -2.83227992e+00
      -9.88770008e-01 -3.57083011e+00 -1.24017000e+00 -3.10521007e+00
      -1.32675004e+00 -3.75571990e+00 -2.40868998e+00 -3.26220989e+00
      -2.25583005e+00 -2.77672005e+00 -2.08074999e+00 -2.32138991e+00
      -1.86087000e+00 -1.88874996e+00 6.00887001e-01 -1.95723999e+00
      1.59797001e+00 -1.69432998e+00 1.54816002e-01 -3.60244989e-01
      9.63325977e-01 -3.20621014e-01 6.26555979e-01 -3.18423986e-01
      -8.19092020e-02 6.04019016e-02 -2.97134012e-01 3.38705003e-01
      -1.70998001e+00 5.87431014e-01 -2.02346992e+00 -4.35817987e-01
      -1.20789003e+00 -1.60114002e+00 1.25411999e+00 -1.63221002e+00
      1.10222995e+00 -8.22951972e-01 -2.09594995e-01 -2.29620004e+00
      -3.61449987e-01 -2.63193989e+00 -1.61667004e-01 -1.83249998e+00
      -3.41156006e-01 -1.81636000e+00 6.09435976e-01 -1.79264998e+00
      -6.84296012e-01 -1.64200997e+00 -8.18068981e-01 -1.49892998e+00 0.
      0. 9.88997996e-01 3.60825992e+00 -4.02289987e-01 3.71463990e+00
      4.73228008e-01 -2.02375007e+00 -4.70795006e-01 -1.03717995e+00
      -2.47008994e-01 -1.15090001e+00 -4.96459991e-01 -1.53095996e+00
      5.00365973e-01 4.41972017e+00 -8.75762999e-01 5.70098019e+00 0. 0.
      -9.81658995e-01 -1.95648000e-01 -7.42981017e-01 -3.16947997e-01
      -2.11296007e-01 -3.70314002e+00 7.70599008e-01 -1.18000996e+00
      1.77453995e+00 -2.15949988e+00 -7.32223988e-01 -2.10570002e+00
      -8.65981996e-01 -1.96259999e+00 -1.11275995e+00 -3.07608008e+00
      -2.58673000e+00 -1.87653005e+00 -1.24115002e+00 -2.10981989e+00
      -2.21499991e+00 -2.25313997e+00 2.53845006e-01 -2.38155007e+00
      4.40445006e-01 -2.45760989e+00 6.49536014e-01 -2.52631998e+00
      -1.45318997e+00 -2.49012995e+00 5.53924978e-01 -2.27124000e+00
      3.67325008e-01 -2.19517994e+00 -2.10153008e+00 -2.06680012e+00
      -2.48230004e+00 -1.92960000e+00 -2.10153008e+00 -2.06680012e+00
      -7.92617977e-01 -2.18761992e+00 5.53924978e-01 -2.27124000e+00</_>
    <_>
      -1.22175002e+00 -7.10746002e+00 -1.04600000e+00 -5.44254017e+00
      1.30558002e+00 -4.82560015e+00 4.13650990e-01 -4.32042980e+00
      -5.94359994e-01 -3.86265993e+00 -6.42440975e-01 -5.53502989e+00
      3.23615998e-01 -8.23705006e+00 1.28839004e+00 -1.30773001e+01
      9.55260992e-01 -1.66840992e+01 3.77853006e-01 -1.57686005e+01
      -3.47519010e-01 -1.13020000e+01 -1.01364005e+00 -7.84883022e+00
      -2.62067008e+00 -6.50872993e+00 -4.11684990e+00 -5.04204988e+00
      -4.40297985e+00 -5.64129019e+00 -3.68073010e+00 -4.06727982e+00
      -3.91201997e+00 -4.65490007e+00 -1.84986997e+00 -6.31358981e-01
      -7.51990974e-02 6.54731989e-01 -4.25415009e-01 -5.36907017e-01
      3.19831997e-01 3.31198007e-01 2.99529992e-02 1.10681999e+00
      1.62472999e+00 9.10521984e-01 1.02523997e-01 1.93033004e+00
      -2.61002004e-01 1.77906001e+00 -1.59258997e+00 4.03104991e-01
      -2.68715000e+00 -2.14941001e+00 1.14532006e+00 -1.56939995e+00
      2.58850008e-01 -1.98585999e+00 1.45813000e+00 -1.73575997e-01
      1.65793002e+00 -5.49804986e-01 4.19729996e+00 2.86950994e+00
      2.98815989e+00 1.56527996e+00 6.61499023e-01 1.29174995e+00
      3.93494010e-01 1.25810003e+00 -9.30206001e-01 1.20211995e+00 0. 0.
      -1.26115000e+00 -2.19793010e+00 6.19994998e-01 -1.19886005e+00
      -6.31111026e-01 -4.31320012e-01 -3.65714997e-01 -3.58092993e-01
      -1.20903000e-01 -2.14690998e-01 7.12448001e-01 -7.95302987e-01
      4.64096010e-01 -1.84507000e+00 1.29656994e+00 -1.93295002e+00 0.
      0. 1.31734002e+00 3.17078009e-02 4.69559014e-01 1.10625997e-01
      1.20044003e+01 1.37519999e+01 1.07149000e+01 1.03043003e+01
      5.08588982e+00 7.80878019e+00 5.59799016e-01 7.50073004e+00
      -4.02008009e+00 7.28448009e+00 -8.77031040e+00 1.02363005e+01
      -1.34246998e+01 1.10246000e+01 -9.26729965e+00 -3.12621999e+00
      -3.21086001e+00 -1.05538998e+01 1.38432002e+00 -1.03287001e+01
      5.89445019e+00 -8.94073009e+00 1.12479000e+01 -8.51867974e-01
      1.19491997e+01 1.25481005e+01 5.08872986e+00 9.80405998e+00
      1.63995004e+00 9.55154037e+00 -4.02622986e+00 9.29506016e+00
      -1.32504997e+01 9.95520020e+00 -3.37287998e+00 -9.18953037e+00
      2.36482000e+00 -1.10902996e+01 6.85962009e+00 -9.71127033e+00</_>
    <_>
      -1.61937997e-01 1.25116003e+00 -1.49030995e+00 4.04121011e-01
      -3.69067997e-01 -1.69102001e+00 7.61493981e-01 -2.55668998e+00
      -1.99563003e+00 -3.33414006e+00 -4.95995998e+00 -5.19513988e+00
      -6.81679010e+00 -8.17875957e+00 -8.73853970e+00 -8.55914021e+00
      -8.25409985e+00 -8.67142010e+00 -6.51677990e+00 -6.01955986e+00
      -5.90902996e+00 -1.81580997e+00 -5.25252008e+00 1.21480000e+00
      -6.95831013e+00 1.86052001e+00 -7.20385981e+00 2.63641000e+00
      -8.56396008e+00 3.44839001e+00 -6.18823004e+00 2.97349000e+00
      -6.24203014e+00 2.57398009e+00 -5.93066990e-01 4.85686988e-01
      -9.79393005e-01 -1.71027005e+00 -2.35054001e-01 -1.65494001e+00
      1.74627995e+00 -4.93838996e-01 2.49733996e+00 6.19410992e-01
      -2.42129993e+00 6.09027982e-01 -4.17998999e-01 7.11775005e-01
      3.35860997e-01 -1.72090006e+00 1.11722004e+00 -4.93737996e-01
      -5.53680003e-01 1.81000996e+00 -5.90453982e-01 1.27679002e+00
      -6.16546988e-01 -1.66816998e+00 -6.23565972e-01 -2.12559009e+00
      -1.89838004e+00 -3.83132005e+00 -6.59942999e-02 6.68259025e-01
      -1.58270001e+00 5.96176028e-01 -3.12753010e+00 5.53146005e-01
      -4.63225985e+00 1.88207996e+00 -6.13653994e+00 3.23955989e+00 0.
      0. -3.59055012e-01 -2.28216004e+00 -7.59750009e-01 -2.30461001e+00
      1.69478998e-01 -1.36047006e-01 -6.98746026e-01 2.29836011e+00
      -1.53726995e+00 1.07207000e+00 -2.65120006e+00 1.15587997e+00
      -1.75089002e+00 -1.05025995e+00 -9.21645999e-01 -1.05343997e+00 0.
      0. 3.40683013e-01 3.56924009e+00 -1.75635004e+00 2.32411003e+00
      6.86675978e+00 1.08183002e+01 3.87719989e+00 8.55741978e+00
      -1.57256997e+00 6.22935009e+00 -6.81537008e+00 8.70226955e+00
      -9.58745956e+00 8.81145954e+00 -1.50214996e+01 1.24883003e+01
      -2.04461994e+01 1.73945999e+01 -1.76310997e+01 8.13598990e-01
      -1.10483999e+01 -9.39113998e+00 -6.99856997e+00 -1.07114000e+01
      -4.19610977e+00 -1.07067003e+01 2.54408002e+00 -4.41412020e+00
      7.90518999e+00 8.29547024e+00 -2.79714990e+00 7.18228006e+00
      -6.82859993e+00 7.21544981e+00 -9.62043953e+00 8.52602959e+00
      -2.02752991e+01 1.36173000e+01 -1.10145998e+01 -9.04848957e+00
      -8.22278023e+00 -1.03590002e+01 -1.70332003e+00 -1.03827000e+01</_>
    <_>
      -5.67143011e+00 -8.22516978e-01 -4.56525993e+00 1.40166998e-01
      -3.45333004e+00 1.08791006e+00 -1.35666001e+00 1.52344003e-01
      6.90501988e-01 1.09435999e+00 2.73457003e+00 1.04572999e+00
      1.87763000e+00 1.84362996e+00 3.84921002e+00 1.72580004e+00
      4.83806992e+00 6.00646973e-01 4.82253981e+00 3.97736013e-01
      3.85712004e+00 -1.71047997e+00 3.76400995e+00 -1.87659001e+00
      1.78101003e+00 -3.94764996e+00 6.88812017e-01 -4.99050999e+00
      4.88799989e-01 -4.08537006e+00 -5.90453982e-01 -6.03223991e+00
      -7.50792980e-01 -7.01024008e+00 -3.01006007e+00 6.30263984e-02
      -2.17782998e+00 9.41834986e-01 -2.19676995e+00 8.09531987e-01
      -2.16501999e+00 6.74592972e-01 -2.15302005e-01 5.91103017e-01
      -1.15865004e+00 3.43753994e-01 -2.98842996e-01 2.12347007e+00
      -1.22074997e+00 5.77755012e-02 -2.65105993e-01 8.91942978e-01
      -1.29150003e-01 -1.10286999e+00 -2.82288007e-02 -4.66316015e-01
      1.03162003e+00 -4.35759991e-01 1.12212002e+00 5.23765981e-01
      2.88940012e-01 5.09094000e-01 4.18839008e-01 -3.03375006e-01
      4.11850005e-01 5.80688000e-01 4.30373996e-01 5.10818005e-01
      1.34253001e+00 1.40862000e+00 1.33080006e+00 1.33729994e+00 0. 0.
      -6.17064983e-02 8.66302013e-01 -5.20858988e-02 7.70744026e-01
      -2.83813011e-03 6.92252994e-01 -9.10453975e-01 -1.95221007e-01
      3.41187008e-02 -7.92312995e-02 7.61413993e-03 2.63161004e-01
      -1.01311004e+00 1.10374999e+00 -6.46514967e-02 1.03294003e+00 0.
      0. 3.16466987e-02 7.73238987e-02 5.22918999e-02 -7.75780022e-01
      6.21185005e-01 1.69753003e+00 5.85219979e-01 6.54694021e-01
      5.53557992e-01 5.77392995e-01 5.71547985e-01 5.17609000e-01
      5.49727976e-01 4.45800990e-01 1.53827000e+00 3.81972998e-01
      1.56852996e+00 1.22739995e+00 2.59334993e+00 -5.42908013e-01
      1.63020003e+00 4.67238992e-01 1.63692999e+00 5.38299978e-01
      1.63379002e+00 6.03851020e-01 6.76177979e-01 6.54021978e-01
      -3.31344992e-01 1.64180005e+00 6.14028990e-01 5.80291986e-01
      1.56608999e+00 5.39947987e-01 6.10489011e-01 4.43648994e-01
      3.48511004e+00 3.58978003e-01 1.57958996e+00 -4.80255008e-01
      1.56608999e+00 5.39947987e-01 6.08977973e-01 5.80031991e-01</_>
    <_>
      -2.61626989e-01 6.40869024e-04 3.92952003e-02 -5.33735991e+00
      -2.93652010e+00 -1.06907997e+01 -4.83604002e+00 -1.49371996e+01
      -8.86100960e+00 -1.91494999e+01 -9.52923965e+00 -2.53115005e+01
      -7.91718006e+00 -3.01601009e+01 -5.20689011e+00 -3.15615997e+01
      -5.34897995e+00 -3.28620987e+01 -3.03519011e+00 -3.18700008e+01
      7.46948004e-01 -2.88099995e+01 4.55128002e+00 -2.25942993e+01
      5.21366978e+00 -1.66019001e+01 1.63240004e+00 -1.20334997e+01
      2.56653011e-01 -6.46377993e+00 -4.27855998e-02 2.13005006e-01
      2.96694994e+00 4.69125986e+00 -7.36378002e+00 1.76194000e+01
      -1.00918999e+01 1.46957998e+01 -9.82110977e+00 6.61707020e+00
      -6.46117020e+00 -1.39521003e+00 -3.45246005e+00 -3.99540997e+00
      2.15510988e+00 -9.29584980e+00 6.79399014e+00 -8.60348988e+00
      1.11225004e+01 -3.49692988e+00 1.30066004e+01 7.02682018e+00
      8.10585022e+00 1.50753002e+01 -8.37539971e-01 -2.33997989e+00
      -1.48010004e+00 -2.21924007e-01 -1.06171000e+00 1.90979004e+00
      -1.68892002e+00 2.93618011e+00 -2.09401989e+00 -1.88765001e+00
      -1.10994995e+00 -1.60134995e+00 -2.32459998e+00 -2.54135013e-01
      -3.31084991e+00 4.41895016e-02 -4.29712009e+00 3.42498988e-01 0.
      0. 2.58819997e-01 3.22333992e-01 2.60086000e-01 8.45607996e-01
      1.10941005e+00 -8.45345020e-01 -7.72171021e-02 -3.54356003e+00
      -8.02154988e-02 -4.03612995e+00 -1.10765004e+00 8.14658999e-01
      2.34130993e-01 1.30577004e+00 -8.23776007e-01 -4.00355995e-01 0.
      0. -1.32584006e-01 -2.56184006e+00 -1.16415000e+00 -3.09701991e+00
      -1.17294998e+01 -2.34043999e+01 -1.82009006e+00 -8.65818977e+00
      -2.84241009e+00 -1.71439004e+00 -2.95694995e+00 -1.32073998e+00
      -3.97730994e+00 -9.62845027e-01 -6.15739012e+00 -9.24125957e+00
      1.44010997e+00 -2.50009003e+01 -7.29737997e+00 -4.30662994e+01
      -6.21014023e+00 -5.22531013e+01 -4.06566000e+00 -5.26245995e+01
      -1.87524998e+00 -5.19010010e+01 -2.95662999e+00 -4.25446014e+01
      -1.49841995e+01 -2.32646999e+01 -3.01253009e+00 -1.15260000e+01
      -4.12500000e+00 -1.11732998e+01 -4.10138988e+00 -1.18643999e+01
      2.54390001e+00 -2.52003002e+01 -4.77799988e+00 -3.91696014e+01
      -2.63525009e+00 -3.95105019e+01 -2.59747005e+00 -3.88158989e+01</_>
    <_>
      4.88734007e+00 1.23045998e+01 2.71287990e+00 1.21686001e+01
      3.28284001e+00 1.20990000e+01 5.20049000e+00 1.34708996e+01
      4.38373995e+00 1.32610998e+01 4.87800980e+00 1.29736004e+01
      3.89615989e+00 1.24913998e+01 7.12571001e+00 9.30817032e+00
      5.87554979e+00 8.66232014e+00 5.88013983e+00 6.65307999e+00
      5.57506990e+00 7.48534012e+00 6.63546991e+00 7.03397989e+00
      3.43259001e+00 5.15432978e+00 2.88424993e+00 4.96717978e+00
      2.30858994e+00 4.82467985e+00 1.66079998e+00 6.09813976e+00
      1.03261995e+00 6.02175999e+00 2.34283996e+00 3.44080997e+00
      -1.85922003e+00 -2.62444997e+00 -1.65970004e+00 -8.62475014e+00
      -1.81107000e-01 -9.01739025e+00 -2.16370001e-01 -5.24793005e+00
      -1.65298000e-01 -5.85473013e+00 -1.27579004e-01 -9.09515953e+00
      1.09192002e+00 -6.68907022e+00 2.35980010e+00 -2.90390992e+00
      -3.28368992e-01 8.30268979e-01 -1.19644001e-01 2.51694005e-02
      1.60143995e+00 1.49804997e+00 4.88525003e-01 4.24841022e+00
      2.23297000e+00 5.72325993e+00 4.88846016e+00 1.32683001e+01
      3.74732995e+00 1.02108002e+01 2.56151009e+00 7.12587023e+00
      1.04829001e+00 8.20901012e+00 8.32184017e-01 1.07763004e+01 0. 0.
      6.69327006e-02 -4.42493010e+00 1.45975995e+00 -4.63676023e+00
      1.24875998e+00 3.45448995e+00 -1.20757997e-01 3.66826010e+00
      -1.51356995e+00 3.88006997e+00 -1.41466999e+00 7.50564992e-01
      -1.29892004e+00 -5.09226990e+00 1.17264003e-01 -5.30210018e+00 0.
      0. -6.87102973e-02 3.04977989e+00 -1.48485994e+00 3.25962996e+00
      1.54708996e-01 9.19145012e+00 4.05206013e+00 1.32919998e+01
      4.09918022e+00 1.16154003e+01 2.79427004e+00 1.13409996e+01
      2.69706988e+00 1.24962997e+01 2.76926994e+00 1.21968002e+01
      5.86069012e+00 7.86191988e+00 2.00760007e+00 6.58565998e+00
      2.14759994e+00 5.48098993e+00 3.66097999e+00 2.99939990e+00
      3.52446008e+00 4.62147999e+00 3.24376011e+00 7.67687988e+00
      1.19606003e-01 1.04460001e+01 4.26255989e+00 1.16290998e+01
      2.86410999e+00 1.27454004e+01 2.86039996e+00 1.25100002e+01
      5.82532978e+00 9.39848042e+00 1.84223998e+00 5.47880983e+00
      3.24048996e+00 5.76102018e+00 3.17419004e+00 5.99050999e+00</_>
    <_>
      -1.85640007e-01 -6.03868008e+00 -1.55389994e-01 -1.13846998e+01
      -5.32356024e-01 -1.32189999e+01 -2.06671000e+00 -1.51837997e+01
      -2.51952004e+00 -1.71165009e+01 -4.62832022e+00 -1.57268000e+01
      -5.76256990e+00 -1.43242998e+01 -7.09882021e+00 -1.29323997e+01
      -4.17778015e+00 -9.88708019e+00 -2.55991006e+00 -8.00924969e+00
      3.18511993e-01 -9.38022995e+00 7.49008000e-01 -1.07897997e+01
      1.22005999e+00 -1.31858997e+01 2.94555992e-01 -1.30455999e+01
      -6.77155018e-01 -1.15544996e+01 -3.60962003e-01 -1.10902004e+01
      -2.69713998e-01 -8.22828960e+00 3.77021998e-01 -4.91025019e+00
      -3.12613994e-01 -3.90385008e+00 -9.40765023e-01 -2.05398989e+00
      -2.50925994e+00 -1.59553003e+00 -1.67252004e+00 1.85050994e-01
      1.58813000e-01 8.69350016e-01 -2.08771005e-01 -8.27326000e-01
      -4.65820014e-01 -2.57214999e+00 -5.57067990e-01 -4.38926983e+00
      -3.79058987e-01 -6.19220018e+00 -1.24163997e+00 -5.61828971e-01
      -1.64895999e+00 -3.31890011e+00 -9.89731014e-01 -4.77244997e+00
      -1.39705002e+00 -7.52947998e+00 -7.38556027e-01 -8.45650959e+00
      -8.82552981e-01 -7.55642986e+00 -9.35684025e-01 -7.82923985e+00
      6.27135998e-03 -7.96659994e+00 -1.21840999e-01 -9.34006977e+00 0.
      0. -9.10827994e-01 6.80245018e+00 -3.52031994e+00 6.24231005e+00
      -1.58008003e+00 -3.56140995e+00 -1.45494998e+00 -8.88809025e-01
      -4.60433997e-02 -4.07478005e-01 -2.80350000e-01 -2.56446004e+00
      -1.64382994e-01 5.52588987e+00 -1.72737002e+00 7.37842989e+00 0.
      0. -2.04755998e+00 5.00031002e-02 -5.75438976e-01 -6.29570007e-01
      4.26434994e+00 -9.40503979e+00 2.74930000e+00 -1.09076996e+01
      -3.39813009e-02 -1.02587996e+01 -1.19330001e+00 -1.18507004e+01
      -2.11669996e-01 -1.19723997e+01 -2.75829005e+00 -1.14595003e+01
      -1.67544997e+00 -1.07222004e+01 -2.45865989e+00 -2.24909992e+01
      1.77425003e+00 -2.54034996e+01 7.77007997e-01 -2.52420998e+01
      2.09453011e+00 -2.48195992e+01 3.97334003e+00 -1.82742004e+01
      5.42824984e+00 -1.06408997e+01 -9.42611992e-01 -1.04976997e+01
      -9.56619024e-01 -1.19867001e+01 -6.58264011e-02 -1.09355001e+01
      -3.87029004e+00 -1.19386997e+01 1.47467005e+00 -2.63404999e+01
      1.76888001e+00 -2.72733002e+01 5.97869992e-01 -2.59027004e+01</_>
    <_>
      7.40350008e+00 -6.65476990e+00 5.54479980e+00 -1.61417007e+01
      1.38349998e+00 -2.55447006e+01 -5.00625992e+00 -3.14904995e+01
      -1.36816998e+01 -3.73364983e+01 -1.45868998e+01 -4.77158012e+01
      -1.33317003e+01 -6.24720993e+01 -1.08600998e+01 -7.13944016e+01
      -7.03862000e+00 -7.66763992e+01 -2.84722996e+00 -7.04602966e+01
      5.41229010e-01 -5.96186981e+01 7.56822014e+00 -4.65374985e+01
      1.24949999e+01 -3.46132011e+01 8.45928955e+00 -2.59661007e+01
      4.48038006e+00 -1.84731998e+01 2.87917995e+00 -7.65820980e+00
      4.69091988e+00 1.91240001e+00 3.13281012e+00 5.48976994e+00
      5.51002979e+00 9.35519981e+00 5.34259987e+00 1.43160000e+01
      3.81228995e+00 1.57522001e+01 3.27324009e+00 1.14048004e+01
      -4.18907022e+00 6.50292015e+00 -9.24697995e-01 1.03011999e+01
      -8.98590013e-02 1.06966000e+01 -1.67935002e+00 8.70975018e+00
      2.26932001e+00 4.11555004e+00 1.50360003e-01 3.44497991e+00
      -1.32457995e+00 3.11776996e+00 -1.68016005e+00 2.78242993e+00
      -3.14704990e+00 3.57456994e+00 -5.41077995e+00 -2.59926009e+00
      -4.54485989e+00 -3.67017007e+00 -3.64381003e+00 -2.42057991e+00
      -3.75174999e+00 -2.17043996e+00 -3.78574991e+00 -8.02856028e-01 0.
      0. 2.27441001e+00 1.48104000e+00 8.74741018e-01 2.88041997e+00
      -7.38380015e-01 6.47307992e-01 5.19608021e-01 -1.93339002e+00
      8.16124022e-01 -1.08589995e+00 6.69968009e-01 1.51159000e+00
      -4.11789000e-01 3.08277011e+00 -6.83273017e-01 3.37064004e+00 0.
      0. -1.07033002e+00 -1.40930998e+00 3.53637993e-01 5.49453974e-01
      -1.57096004e+01 -3.85531006e+01 -1.66390002e+00 -1.68854008e+01
      -2.75399995e+00 -9.69941998e+00 -4.05881023e+00 -8.43459034e+00
      -4.20872021e+00 -9.33572006e+00 -6.98773003e+00 -1.59554996e+01
      3.44687009e+00 -3.99706993e+01 -8.45263958e+00 -6.95879974e+01
      -7.46198988e+00 -8.35381012e+01 -6.21808004e+00 -8.60360031e+01
      -4.86506987e+00 -8.50960999e+01 -3.14580011e+00 -7.05338974e+01
      -1.35429001e+01 -3.96208992e+01 -4.08467007e+00 -1.10023003e+01
      -5.37160015e+00 -9.68855000e+00 -3.30065989e+00 -1.06548004e+01
      2.43214011e+00 -4.11675987e+01 -7.10000992e+00 -7.98935013e+01
      -6.95820999e+00 -8.01117020e+01 -4.50182009e+00 -7.91629028e+01</_>
    <_>
      1.20019996e+00 -2.49331999e+00 9.40702021e-01 -2.48720002e+00
      -3.63786995e-01 -3.54122996e+00 -6.31721020e-01 -3.51973009e+00
      -8.85985970e-01 -3.44269991e+00 -3.24740005e+00 -2.26523995e+00
      -3.43511009e+00 -2.07577991e+00 -3.59264994e+00 -1.85379004e+00
      -2.59676003e+00 -5.28320014e-01 -1.48289001e+00 -2.67120004e-01
      -1.33296001e+00 9.87700999e-01 -1.11936998e+00 9.99450982e-02
      -9.04343009e-01 2.33612001e-01 -6.86707020e-01 1.35739005e+00
      6.23596013e-01 1.40590000e+00 8.97369027e-01 3.78944010e-01
      1.14876997e+00 3.80398005e-01 1.33671001e-01 -2.15041995e-01
      2.70846993e-01 -1.16062999e+00 -7.56125987e-01 -1.01013005e+00
      2.65922993e-01 -8.15120995e-01 1.97020993e-01 -6.52675986e-01
      1.87729001e-01 6.59061015e-01 -7.76169002e-01 -2.56610990e-01
      3.08914006e-01 -6.71290979e-02 -7.88680971e-01 8.07742998e-02
      1.56951994e-01 2.17963994e-01 -1.16272001e-02 5.25986016e-01
      -2.00225994e-01 5.26862979e-01 -3.72817993e-01 -5.40207028e-01
      -5.61432004e-01 -5.39336979e-01 -6.40465021e-01 -7.38692999e-01
      -6.98898017e-01 4.14092988e-01 -1.77842999e+00 -5.60882986e-01
      -1.75870001e+00 6.02661014e-01 -1.72294998e+00 6.98302984e-01 0.
      0. 6.71387017e-02 -9.63917017e-01 3.89328003e-02 2.21435994e-01
      -2.00500004e-02 -7.31429994e-01 -1.10716999e+00 -8.65989983e-01
      9.93834972e-01 1.07543997e-01 -2.72826999e-02 -3.23150992e-01
      4.74090986e-02 -2.18230993e-01 4.27245982e-02 -9.27048028e-02 0.
      0. -5.95703013e-02 -8.86306986e-02 -5.48859015e-02 -2.14172006e-01
      -9.02283013e-01 -8.81958008e-01 -8.99124026e-01 3.04535002e-01
      -8.80203009e-01 4.30938989e-01 -1.94378996e+00 -5.51285028e-01
      -2.99170995e+00 5.88393986e-01 -1.95226002e+00 7.36938000e-01
      1.55471995e-01 8.93599987e-01 -2.07835007e+00 7.47986019e-01
      -2.14460993e+00 6.27655029e-01 -2.16435003e+00 5.24796009e-01
      -1.07692003e+00 -6.21307015e-01 -1.01735997e+00 -7.44812012e-01
      -1.98011005e+00 -8.43322992e-01 -9.66507018e-01 4.27733988e-01
      -2.01440001e+00 -5.53909004e-01 -3.07828999e+00 5.93062997e-01
      1.57516003e-01 -2.22014993e-01 -2.03418994e+00 1.67670000e+00
      -9.78438973e-01 5.37292004e-01 -2.01906991e+00 4.20150995e-01</_>
    <_>
      1.54428005e+00 8.07448983e-01 1.19639003e+00 8.51112008e-01
      2.28291011e+00 -6.98746026e-01 3.32462013e-01 -2.04418993e+00
      -1.47955000e+00 -1.81682003e+00 -1.72948003e+00 -1.57931995e+00
      -4.08394009e-01 -1.37695003e+00 -5.45929015e-01 -1.06527996e+00
      -5.60257018e-01 -7.10083008e-01 -4.74914998e-01 -3.82111013e-01
      -2.66418010e-01 -1.28539994e-01 6.96410984e-02 1.61096001e+00
      2.64679015e-01 2.31827006e-01 6.69556022e-01 1.81541002e+00
      8.93494010e-01 3.14864993e-01 1.20334005e+00 3.20160002e-01
      1.51323998e+00 3.25455010e-01 2.92848992e+00 -3.53320003e+00
      1.70798004e+00 -1.76038003e+00 1.79872000e+00 -1.50671995e+00
      1.71474004e+00 -2.76247001e+00 1.40212998e-01 -2.40290999e+00
      1.76645994e+00 -7.07557976e-01 3.36899012e-01 -3.66207004e-01
      3.67783010e-01 -1.19781002e-01 2.36693993e-01 -1.39907002e+00
      1.55413997e+00 -1.34350002e+00 1.51815999e+00 -8.08921993e-01
      1.34421003e+00 -7.87101984e-01 -3.62731993e-01 -6.61239982e-01
      8.66943002e-01 -2.24382997e+00 7.40692019e-01 -1.02058005e+00
      7.28057981e-01 -8.86429012e-01 7.15439022e-01 -7.52335012e-01
      7.46291995e-01 -6.23672009e-01 7.75345027e-01 -5.09598017e-01 0.
      0. 1.53595996e+00 -1.48846996e+00 1.54325998e+00 -1.31269002e+00
      1.44369996e+00 -1.16769004e+00 -1.23833001e-01 -1.22130001e+00
      1.47687995e+00 3.55377011e-02 2.91107011e+00 -2.14692998e+00
      1.61440003e+00 -3.94008994e-01 1.01410002e-01 -1.30515993e-01 0.
      0. 1.37273002e+00 -1.73301995e+00 1.36725998e+00 -1.89431000e+00
      3.31764013e-01 2.97028005e-01 3.52829009e-01 -1.06024003e+00
      -1.06948996e+00 -7.78671026e-01 3.19687009e-01 -2.26345992e+00
      -1.15344000e+00 -2.03442001e+00 3.87589008e-01 -4.31457996e-01
      -1.23230004e+00 -1.98730007e-01 6.43158033e-02 -1.95163000e+00
      8.67156982e-02 -5.99853992e-01 7.03582987e-02 -7.30301023e-01
      1.70684993e-01 6.55898988e-01 2.19482005e-01 4.58373994e-01
      2.38631994e-01 -1.14895999e+00 -1.23075998e+00 -7.73132026e-01
      -1.33113003e+00 -2.15935993e+00 -1.21250999e+00 -5.10406017e-01
      -1.24138999e+00 -2.71194011e-01 3.05999994e-01 -6.12609982e-01
      2.89566010e-01 -7.43088007e-01 2.87734985e-01 -8.75365973e-01</_>
    <_>
      2.90445995e+00 5.77028990e+00 2.60627007e+00 6.78233004e+00
      2.34311008e+00 2.85619998e+00 8.01253974e-01 3.90349007e+00
      -7.67502010e-01 2.52551007e+00 -1.12871003e+00 3.72229004e+00
      -2.56134003e-01 3.79018998e+00 -1.84431005e+00 3.90247011e+00
      -2.13683009e+00 6.60763979e+00 -3.57623005e+00 5.64502001e+00
      -2.42338991e+00 5.97945976e+00 -1.21774006e+00 6.33195019e+00
      8.49914998e-02 7.91969013e+00 1.47609997e+00 8.22939968e+00
      4.33562994e-01 8.50419998e+00 -6.08856022e-01 8.76134014e+00
      -3.90320003e-01 1.02797003e+01 1.60564005e+00 -3.82470012e+00
      -9.09461975e-01 -6.05600023e+00 -2.30435991e+00 -8.32343960e+00
      -2.51723003e+00 -9.39200020e+00 -2.75639009e+00 -9.24378014e+00
      6.80953979e-01 -6.48563004e+00 -6.78879023e-01 -7.47415018e+00
      3.86642009e-01 -6.02033997e+00 1.65131003e-01 -4.62858009e+00
      -1.32500994e+00 -9.17712986e-01 -1.82152998e+00 -3.03768992e+00
      -7.44567990e-01 -5.67561007e+00 -9.19830024e-01 -7.07901001e+00
      -1.09508002e+00 -9.72579956e+00 -2.25693011e+00 -5.06020021e+00
      -2.38074994e+00 -3.76477003e+00 -2.50470996e+00 -4.93850994e+00
      -9.81749967e-02 -3.56339002e+00 -1.43066004e-01 -4.69247007e+00 0.
      0. -1.26242995e+00 -3.53638005e+00 -1.69991001e-01 -2.14411998e+00
      -3.64226997e-01 -3.35362005e+00 -2.83668995e-01 -1.03378999e+00
      -1.39376998e+00 -1.18276000e+00 -8.88031006e-01 -1.61126995e+00
      -9.07195985e-01 -3.88660002e+00 1.94168001e-01 -3.74652004e+00 0.
      0. 5.39246015e-02 -1.38414001e+00 -1.04738998e+00 -2.80800015e-01
      -2.36812997e+00 6.71065986e-01 -1.23189998e+00 -1.62252998e+00
      -1.33008003e+00 -2.69910002e+00 -2.68845010e+00 -1.41236997e+00
      -3.99442005e+00 -5.47485016e-02 -4.15374994e+00 1.27570999e+00
      -1.85277998e+00 2.61480999e+00 -4.27630997e+00 3.63823009e+00
      -5.43041992e+00 9.93300974e-01 -4.10698986e+00 -3.46558005e-01
      -2.75725007e+00 -1.65976000e+00 -1.11008003e-01 7.40020990e-01
      4.78058010e-02 7.23479986e-01 -2.64339995e+00 -1.54429996e+00
      -2.74973989e+00 -1.47452998e+00 -5.31659985e+00 -1.34644002e-01
      -4.27742004e+00 1.31013000e+00 -5.31659985e+00 1.10876000e+00
      -2.75848007e+00 -2.40005001e-01 -2.64339995e+00 -3.00888002e-01</_>
    <_>
      2.38512993e+00 -4.38160992e+00 3.77376008e+00 -4.88216019e+00
      6.57418013e+00 -5.29932022e+00 9.29113007e+00 -4.30459976e+00
      6.20615005e+00 -3.53573990e+00 1.61611998e+00 -4.18007994e+00
      -3.10126990e-01 -3.20367002e+00 -7.33916998e-01 -4.92535019e+00
      -2.74774003e+00 -5.05996990e+00 -1.89391994e+00 -4.97533989e+00
      -2.56698990e+00 -1.90366006e+00 -4.46704006e+00 -1.66478002e+00
      -4.84295988e+00 -1.23585999e+00 -7.93242979e+00 -8.43276978e-01
      -6.55431986e+00 -1.64795005e+00 -6.64950991e+00 -1.09820998e+00
      -5.36818981e+00 9.50995982e-01 3.65348005e+00 -8.17889023e+00
      3.32465005e+00 -6.44833994e+00 2.80418992e+00 -3.46073008e+00
      3.80864000e+00 -3.43606997e+00 1.93419003e+00 -2.21270990e+00
      -1.53653002e+00 -3.75652003e+00 -1.98430002e+00 -3.62474990e+00
      -2.50533009e+00 -2.20159006e+00 -4.34440994e+00 -2.39410996e+00
      -4.63296986e+00 -2.70967007e+00 2.29218006e-01 -4.12806988e+00
      2.37854004e-01 -4.51540995e+00 3.29970986e-01 -6.31452990e+00
      3.38593006e-01 -6.70188999e+00 6.26962996e+00 -2.42675996e+00
      1.79342997e+00 -2.69762993e+00 -1.27096999e+00 -2.88504004e+00
      -5.78352022e+00 -3.01355004e+00 -7.54108000e+00 -1.67297006e-01 0.
      0. -1.34253994e-01 -2.70366001e+00 1.07201004e+00 -4.05649996e+00
      6.98585987e-01 -1.37171996e+00 -5.91208994e-01 1.39294004e+00
      -1.73608994e+00 1.30786002e+00 -2.01973009e+00 -1.49335003e+00
      -7.99561024e-01 -2.72375989e+00 3.49426001e-01 -2.68683004e+00 0.
      0. 1.59932995e+00 1.44553995e+00 -9.87533987e-01 1.34719002e+00
      1.03402996e+01 1.27625999e+01 4.47168016e+00 8.32303047e+00
      -1.52696002e+00 8.12901020e+00 -4.65285015e+00 9.37950039e+00
      -7.72542000e+00 9.28841972e+00 -1.52614002e+01 1.03464003e+01
      -2.15746002e+01 1.42853003e+01 -1.51661997e+01 7.22568989e+00
      -1.04939003e+01 5.90030003e+00 -7.33774996e+00 4.57958984e+00
      -1.41954005e+00 4.86377001e+00 4.47008991e+00 8.05611038e+00
      8.86542988e+00 1.12791996e+01 -3.73535007e-02 6.58194017e+00
      -4.51973009e+00 6.38326979e+00 -9.08965015e+00 7.64458990e+00
      -2.28306999e+01 1.27961998e+01 -9.05228043e+00 6.20458984e+00
      -6.04117012e+00 7.73363018e+00 -2.91320992e+00 6.45905018e+00</_>
    <_>
      3.31361008e+00 -8.28423023e-01 1.32143998e+00 -1.89075005e+00
      -6.50813997e-01 -1.88648999e+00 -4.20185000e-01 -8.50570977e-01
      -1.77662000e-01 1.23105001e+00 -1.04568005e+00 4.39510012e+00
      -2.96034002e+00 1.08373003e+01 -4.99631023e+00 1.39692001e+01
      -5.49148977e-01 1.58539000e+01 3.76384997e+00 1.44570999e+01
      2.31674001e-01 7.78740978e+00 -3.68346982e-02 2.15790009e+00
      -1.38411999e+00 -1.21706998e+00 -3.76813006e+00 -1.25075996e+00
      -3.95373988e+00 -1.96044996e-01 -3.02239990e+00 1.95346999e+00
      -1.02385998e+00 3.00139999e+00 5.20690012e+00 -6.49195004e+00
      6.23962021e+00 -4.44598007e+00 4.05705976e+00 -2.36786008e+00
      8.57010007e-01 8.16708028e-01 -3.40909004e+00 4.03528976e+00
      9.65209961e+00 2.00152993e-01 5.18869019e+00 -9.48484004e-01
      1.91129994e+00 5.50385006e-02 -1.41498995e+00 -3.30830002e+00
      -3.52448010e+00 -4.46434021e+00 2.17090988e+00 -6.14189029e-01
      2.32618999e+00 4.74602014e-01 1.38654995e+00 1.58458996e+00
      1.54147005e+00 2.66633010e+00 5.55893004e-01 1.82005000e+00
      5.22858024e-01 -4.76105005e-01 5.60088992e-01 5.04898012e-01
      1.63606000e+00 3.78540009e-01 5.15594006e-01 3.01941007e-01 0. 0.
      -6.12182990e-02 -1.03286996e-01 -1.11173999e+00 1.99439001e+00
      -2.12668991e+00 1.90592003e+00 -2.15722990e+00 -1.78246006e-01
      -1.05698001e+00 -7.95058981e-02 2.21811008e+00 2.74466991e-01
      2.13542008e+00 1.65085003e-01 -5.19867018e-02 1.01322003e-01 0. 0.
      1.11304998e+00 -1.02591002e+00 1.11109996e+00 -9.12711978e-01
      -6.82651997e+00 -9.45435017e-02 -4.76284981e+00 -1.36135995e+00
      -1.59764004e+00 -3.75252008e+00 -4.99267995e-01 -4.94746017e+00
      1.68631005e+00 -3.98575997e+00 2.89543009e+00 -1.94777000e+00
      2.98203993e+00 -2.06476998e+00 5.47301006e+00 7.84751987e+00
      2.27219009e+00 1.02332001e+01 1.15234002e-01 1.14688997e+01
      -2.07768011e+00 1.15963001e+01 -4.34603977e+00 9.58495045e+00
      -2.38674998e+00 3.03469992e+00 -2.45215988e+00 1.74389994e+00
      -1.37496996e+00 5.49926996e-01 1.92632997e+00 1.48241997e+00
      8.37601006e-01 2.30789006e-01 3.10591006e+00 4.74481010e+00
      -1.74193993e-01 4.90713978e+00 -1.27258003e+00 5.00625992e+00</_>
    <_>
      8.99260998e-01 -2.93419003e+00 8.52419019e-01 -2.10827994e+00
      9.39612985e-01 -3.93645000e+00 -3.20118010e-01 -5.84560013e+00
      -5.41671991e-01 -5.02388000e+00 -8.05522978e-01 -5.45790005e+00
      1.08185001e-01 -5.70477009e+00 -3.74298006e-01 -5.99619007e+00
      3.72283995e-01 -6.00504017e+00 -1.01989999e-01 -7.30353022e+00
      -6.93099976e-01 -5.76989985e+00 1.70456007e-01 -5.38862991e+00
      -1.54174998e-01 -4.97685003e+00 -4.58954006e-01 -3.15929008e+00
      -3.18680000e+00 -2.80022001e+00 -3.26699996e+00 -2.26422000e+00
      -3.39708996e+00 -4.42443997e-01 4.45564002e-01 -8.53954017e-01
      1.11759000e-01 7.18140006e-01 1.05672002e+00 8.48546982e-01
      2.02412009e+00 8.28864992e-01 4.02718008e-01 5.31521022e-01
      -1.60503995e+00 -9.19616997e-01 -7.57049978e-01 6.64884984e-01
      1.84691995e-01 8.16721022e-01 -1.49562001e+00 6.20167017e-01
      -1.74547994e+00 3.85509014e-01 2.63006997e+00 2.94806987e-01
      1.34412003e+00 -1.93465993e-01 2.67802000e+00 -4.65195000e-01
      1.29288006e+00 3.68759006e-01 -8.67736995e-01 -1.37921000e+00
      2.68005013e-01 -1.35178006e+00 1.30453002e+00 -2.13623000e-03
      1.10195994e+00 3.33251990e-02 9.20822024e-01 7.19909966e-02 0. 0.
      1.00445998e+00 1.56408000e+00 -5.78284979e-01 1.44786000e+00
      6.08314991e-01 3.62014994e-02 8.56994987e-01 -1.42746000e-02
      1.12067997e+00 -1.86615009e-02 -5.05997002e-01 -1.37987995e+00
      4.52407986e-01 1.99202999e-01 1.91894993e-01 1.82144001e-01 0. 0.
      2.09014997e-01 -7.83386007e-02 5.65414011e-01 -1.36208999e+00
      -1.77752995e+00 -2.18388009e+00 5.99052012e-01 -1.80644000e+00
      -8.54462028e-01 -3.15270996e+00 1.42395005e-01 -1.83089995e+00
      1.21597004e+00 -1.68125999e+00 -3.75366002e-01 -1.88644004e+00
      -5.57129025e-01 -3.38222003e+00 -2.77343988e-01 -3.49381995e+00
      1.41094995e+00 -4.74271011e+00 3.30917001e-01 -4.84946012e+00
      5.66771984e-01 -4.81420994e+00 7.00255990e-01 -3.43523002e+00
      -4.69711006e-01 -3.38013005e+00 4.75203991e-01 -3.24973011e+00
      1.43387005e-01 -1.98415995e+00 -7.73926005e-02 -1.97338998e+00
      8.50875974e-01 -3.27022004e+00 1.29472005e+00 -3.16000009e+00
      1.54015994e+00 -3.18899989e+00 4.50545996e-01 -3.23147988e+00</_>
    <_>
      2.47326009e-02 1.55394006e+00 -8.98670018e-01 3.83323997e-01
      -6.48476005e-01 1.49529004e+00 -4.06731009e-01 2.59129000e+00
      -1.81670994e-01 3.66328001e+00 3.41034010e-02 5.82853985e+00
      2.08221003e-01 6.78828001e+00 -7.92114019e-01 1.00235996e+01
      -1.91483998e+00 9.76395035e+00 -7.87383974e-01 1.06307001e+01
      2.27982000e-01 8.10754013e+00 1.19553006e+00 5.61778021e+00
      2.13187003e+00 4.33499002e+00 3.02910995e+00 1.96814001e+00
      1.65234005e+00 3.09829998e+00 1.41696000e+00 4.22054005e+00
      1.15746999e+00 3.05208993e+00 -7.59773031e-02 1.38604999e+00
      -2.07839996e-01 3.57479000e+00 9.05174017e-01 6.82212019e+00
      -1.35759997e+00 1.12337999e+01 -2.43816996e+00 1.33535004e+01
      1.00548995e+00 1.42523003e+01 9.44580019e-01 1.29014997e+01
      -1.39893997e+00 6.97604990e+00 -1.37054002e+00 3.34028006e+00
      -9.37805027e-02 9.24938023e-01 3.60869989e-02 1.43536997e+01
      1.81747004e-01 1.32010002e+01 -8.30124021e-01 1.20565004e+01
      4.65012014e-01 1.08957005e+01 2.89722991e+00 9.90517044e+00
      1.77014005e+00 9.82373047e+00 -5.22445977e-01 8.60916042e+00
      -1.67377996e+00 9.67788982e+00 -3.98240995e+00 1.07711000e+01 0.
      0. -9.12398994e-02 -4.70193005e+00 2.22117996e+00 -2.54864001e+00
      -2.23311996e+00 7.73043013e+00 -1.10570002e+00 2.07978010e+00
      -2.25263000e+00 1.05962002e+00 1.19678998e+00 6.06301022e+00
      -2.39145994e+00 -3.21221995e+00 -1.03348002e-01 -5.65702009e+00 0.
      0. 1.19183004e+00 1.22970998e+00 4.49219011e-02 2.50885010e+00
      -2.57265997e+00 -2.59308004e+00 -2.66340995e+00 -2.67214990e+00
      7.34070003e-01 -2.80870008e+00 7.56622016e-01 -2.89014006e+00
      -4.02785987e-01 -1.82120001e+00 1.96662998e+00 -8.02567005e-01
      3.20322990e+00 -2.05123997e+00 2.16931009e+00 7.25689983e+00
      -6.28966987e-02 1.31170998e+01 -1.20219004e+00 1.32221003e+01
      -7.53325969e-02 1.21457996e+01 -3.59437990e+00 7.67821980e+00
      -6.02196980e+00 -1.45956004e+00 8.06931019e-01 -5.10950994e+00
      -3.19824010e-01 -4.02510023e+00 -3.29955995e-01 -4.12205982e+00
      4.33774996e+00 -2.00232005e+00 -1.34166002e+00 1.42856998e+01
      -1.33168006e+00 1.43746004e+01 -1.35425997e+00 1.33063002e+01</_>
    <_>
      -1.31295002e+00 -5.66063023e+00 -2.61981010e+00 -3.32430005e+00
      -2.83273005e+00 -1.99748003e+00 -3.05950999e+00 1.42110002e+00
      -4.28362989e+00 3.80230999e+00 -2.28130007e+00 6.27747011e+00
      -2.32095003e+00 8.71942043e+00 -4.40192986e+00 1.21602001e+01
      -4.24243021e+00 1.45244999e+01 -4.95739985e+00 1.05056000e+01
      -4.57224989e+00 6.34116983e+00 -4.20583010e+00 4.20509005e+00
      -1.77480996e+00 3.09996009e+00 -1.47510004e+00 1.90938997e+00
      -1.18814003e+00 6.76346004e-01 1.16608001e-01 5.02380013e-01
      -1.75677001e+00 1.30323994e+00 -1.14137006e+00 -2.39720988e+00
      -9.03487980e-01 -3.42130995e+00 -7.61435986e-01 -1.16286004e+00
      -6.20598018e-01 -2.01468992e+00 -4.66293007e-01 -3.89812994e+00
      8.11583996e-01 -4.73997021e+00 2.04227996e+00 -2.49424005e+00
      1.17475998e+00 -2.37583995e+00 1.33019996e+00 -2.19512010e+00
      2.91626006e-01 -9.52094972e-01 -4.79842991e-01 -5.56671023e-01
      -6.18041992e-01 -4.13863987e-01 -1.78793001e+00 -1.33062994e+00
      -1.91261005e+00 -2.21945000e+00 -2.22733998e+00 -1.58829004e-01
      -1.15005004e+00 1.00760996e+00 -2.12172008e+00 4.13055010e-02
      -9.72961009e-01 1.21872000e-01 -1.91469002e+00 -8.99582028e-01 0.
      0. 1.74529999e-01 -1.01919997e+00 -7.55874991e-01 -9.09934998e-01
      -1.79311001e+00 -7.55092978e-01 -1.88189006e+00 -2.92751002e+00
      -9.65880990e-01 -1.97710001e+00 2.82367992e+00 -2.49495998e-01
      9.07500982e-01 -2.64499992e-01 1.02271998e+00 -1.41293004e-01 0.
      0. -1.10931002e-01 -1.09195006e+00 8.26278985e-01 -1.19396996e+00
      1.32642996e+00 9.45232010e+00 -1.55258000e+00 4.22369003e+00
      -1.35242999e+00 2.22944999e+00 -2.31778002e+00 1.28442001e+00
      -2.19388008e+00 1.35880005e+00 -2.15038991e+00 4.67408991e+00
      -5.32060003e+00 1.00302000e+01 -3.46760988e+00 1.21422997e+01
      -3.71785998e+00 1.62621994e+01 -2.78158998e+00 1.61882000e+01
      -2.85529995e+00 1.50342999e+01 -2.89818001e+00 1.27510996e+01
      1.37344003e+00 9.51712036e+00 -2.52744007e+00 4.40170002e+00
      -3.47826004e+00 3.44309998e+00 -3.38281012e+00 4.57664013e+00
      -5.38210011e+00 9.97896957e+00 -3.53838992e+00 1.19503002e+01
      -3.63382006e+00 1.08168001e+01 -1.63736999e+00 1.17893000e+01</_>
    <_>
      -1.24363005e+00 2.18203998e+00 -7.66839981e-01 2.32217002e+00
      -1.41624999e+00 3.69008994e+00 3.01876009e-01 4.92082024e+00
      1.96063995e+00 4.88968992e+00 4.77082014e+00 3.45683002e+00
      5.17160988e+00 2.00272012e+00 4.36223984e+00 5.25695980e-01
      3.47710991e+00 7.57751018e-02 2.46725011e+00 -4.21508998e-01
      1.28945994e+00 2.97576994e-01 1.15307999e+00 -2.02575997e-01
      2.01327991e+00 -1.85745001e+00 4.08264017e+00 -1.13354003e+00
      4.73538017e+00 -3.82105994e+00 1.98071003e+00 -3.95296001e+00
      1.51146996e+00 -5.37025023e+00 -4.10969019e+00 -6.54129028e-01
      -3.17827010e+00 -2.28197002e+00 -3.12967992e+00 -2.73235011e+00
      -2.85210991e+00 -1.93810999e+00 -1.30842996e+00 -1.16087997e+00
      -1.06325996e+00 -1.69973004e+00 -1.03250003e+00 -2.15686011e+00
      2.31383994e-01 -3.80128002e+00 5.77697992e-01 -2.91978002e+00
      2.20742989e+00 -1.88571000e+00 3.62015009e-01 -1.33024001e+00
      6.64901972e-01 -1.21534002e+00 9.67818975e-01 -1.10039997e+00
      2.40371990e+00 -2.23114991e+00 1.51136994e+00 7.11944997e-01
      1.61459005e+00 5.47272027e-01 1.66701996e+00 -7.94387996e-01
      1.76760995e+00 1.97693005e-01 6.26846015e-01 9.92126018e-02 0. 0.
      -9.70688015e-02 -2.81414002e-01 1.18813002e+00 -6.17329001e-01
      3.56826991e-01 4.77791011e-01 3.40247989e-01 7.36487985e-01
      1.81244001e-01 -1.55441001e-01 -3.06030005e-01 6.99218988e-01
      -4.82787997e-01 -7.90565014e-01 7.87216008e-01 -2.28996992e+00 0.
      0. 1.19174004e+00 1.78993002e-01 -1.29074007e-01 5.01389027e-01
      1.93304002e+00 2.23755002e-01 4.24835014e+00 -2.59445012e-01
      4.32502985e+00 5.80901980e-01 2.02767992e+00 -6.16791010e-01
      2.04181004e+00 -8.15231025e-01 2.28574991e+00 -1.02844000e+00
      3.75342989e+00 -1.25434995e+00 2.66161990e+00 3.12653005e-01
      2.56961012e+00 -5.94649971e-01 2.51308990e+00 -3.91891003e-01
      3.65549994e+00 9.05762017e-01 4.57343006e+00 -9.53368992e-02
      3.23275995e+00 1.21420002e+00 4.49908018e+00 -4.90447998e-01
      3.40071011e+00 -5.93216002e-01 1.10753000e+00 -6.51992977e-01
      2.50452995e+00 -1.06775999e+00 2.30235004e+00 -6.96013987e-01
      3.42957997e+00 -5.61890006e-01 4.57877016e+00 7.17940986e-01</_>
    <_>
      -1.70131004e+00 -4.62035984e-02 -1.62893999e+00 -6.60301030e-01
      -2.46820998e+00 -2.44897008e+00 -4.44545984e+00 -3.29032993e+00
      -5.25421000e+00 -5.08768988e+00 -4.91747999e+00 -6.79918003e+00
      -3.16784000e+00 -1.06113005e+01 -3.45734000e+00 -1.47062998e+01
      -2.88817000e+00 -1.56597004e+01 -3.55437994e-01 -1.43963003e+01
      -7.39135966e-02 -1.23662996e+01 -3.09142992e-02 -8.30331039e+00
      -8.10851976e-02 -4.35879993e+00 1.85580003e+00 -3.14316005e-01
      1.67376995e+00 2.41480994e+00 2.75815010e+00 3.13133001e+00
      4.96932983e+00 2.88389993e+00 -1.95222998e+00 4.96439981e+00
      3.92407990e+00 1.26873999e+01 3.76710010e+00 1.78887997e+01
      3.14555001e+00 1.67833004e+01 5.21190023e+00 9.60365009e+00
      -3.93654990e+00 9.79288006e+00 -3.09572005e+00 1.61707001e+01
      -5.03728008e+00 1.81284008e+01 -5.36069012e+00 1.39836998e+01
      -1.30340993e-01 6.20939016e+00 -1.25285006e+00 7.52543986e-01
      -2.38457990e+00 9.00192022e-01 -2.54633999e+00 2.21897006e+00
      -2.61016989e+00 2.48115993e+00 -2.54123998e+00 -4.13605005e-01
      -2.42368007e+00 -3.48190010e-01 -2.17505002e+00 -1.36197996e+00
      -1.03867996e+00 -2.31674001e-01 2.96279997e-01 -1.22852004e+00 0.
      0. 1.04287004e+00 2.08676004e+00 -7.38937020e-01 8.20465028e-01
      -1.29703999e+00 -2.30780005e+00 -2.55362988e-01 -4.27620983e+00
      1.52643001e+00 -3.00990009e+00 6.11510992e-01 -2.13598990e+00
      -6.04294002e-01 1.90645003e+00 -2.49457002e+00 1.75250995e+00 0.
      0. -2.01101995e+00 -3.34415007e+00 -3.41339000e-02 -4.26338005e+00
      -2.16525006e+00 -7.16121006e+00 -1.28518999e+00 -2.98379993e+00
      -1.26505005e+00 -9.45312977e-01 -6.03637993e-02 -7.90619016e-01
      1.27193999e+00 -1.77350998e+00 7.60879993e-01 -4.92180014e+00
      3.54892993e+00 -8.76918030e+00 1.07297003e+00 -1.95676003e+01
      2.17082000e+00 -2.26005001e+01 9.27811027e-01 -2.27047005e+01
      7.60559022e-01 -2.27362003e+01 1.62285000e-01 -1.85629997e+01
      -3.00716996e+00 -8.32264996e+00 -8.88077021e-01 -5.01585007e+00
      -8.32764030e-01 -3.93037009e+00 1.56482995e+00 -4.78479004e+00
      4.48016024e+00 -8.69482040e+00 1.68116999e+00 -1.75482006e+01
      4.52086985e-01 -1.76499004e+01 -7.71773994e-01 -1.77793007e+01</_>
    <_>
      -1.82608998e+00 1.19384003e+00 -1.84860003e+00 1.44665003e+00
      -1.72555995e+00 4.31762993e-01 -1.58196998e+00 -5.78689992e-01
      -2.58320004e-01 -1.95526004e-01 1.28131998e+00 -1.10775995e+00
      1.49860001e+00 -9.21127021e-01 1.60776997e+00 5.09064019e-01
      1.89049995e+00 5.91766000e-01 2.32855010e+00 -6.87804997e-01
      4.31975983e-02 -1.04294002e+00 1.56624997e+00 -1.03533995e+00
      1.74038994e+00 -1.24460006e+00 4.31701988e-01 -3.57544005e-01
      4.99695003e-01 -6.21948004e-01 4.19860989e-01 3.91532987e-01
      1.71753004e-01 2.67858005e+00 -2.75938010e+00 -4.47017998e-01
      -1.47643006e+00 8.18569005e-01 -1.13871002e+00 -4.93447989e-01
      3.34136993e-01 -3.03476006e-01 5.17898977e-01 -2.09995002e-01
      -3.51410002e-01 -1.60077000e+00 -1.46805003e-01 -1.65312004e+00
      1.20401001e+00 -2.54750997e-01 -1.14758003e+00 -4.52430993e-01
      2.47314006e-01 -1.50474995e-01 -6.48375988e-01 -1.29616007e-01
      4.73419011e-01 1.43391001e+00 -6.82007015e-01 1.74484000e-01
      -6.94839001e-01 3.32787007e-01 -8.82812977e-01 5.06820977e-01
      -8.05221975e-01 5.45104980e-01 -7.12906003e-01 5.65063000e-01
      -6.16135001e-01 5.64559996e-01 -5.27435005e-01 5.51544011e-01 0.
      0. -1.15762997e+00 -2.07653001e-01 -1.14715004e+00 1.08311999e+00
      -2.30149007e+00 1.05871999e+00 -1.16574001e+00 1.21866000e+00
      -1.31156003e+00 1.19784999e+00 8.79317999e-01 1.04461998e-01
      1.02458000e+00 2.85378005e-02 1.17042994e+00 4.93469015e-02 0. 0.
      -2.53464013e-01 1.31952000e+00 8.70682001e-01 1.43402004e+00
      -1.12325001e+00 8.73534977e-01 -2.25373006e+00 6.39541984e-01
      -8.32702994e-01 7.21664011e-01 -7.34588981e-01 7.64419973e-01
      -6.35604978e-01 7.53615975e-01 -4.92873996e-01 8.38181019e-01
      -2.23693997e-01 -3.06136996e-01 -2.31399998e-01 -1.51038003e+00
      -3.86108011e-01 -1.49019003e+00 6.51763976e-01 -8.44115987e-02
      -7.30988026e-01 -2.44140998e-01 -8.57666016e-01 -3.03786993e-01
      -1.04925001e+00 8.78799021e-01 -7.13760018e-01 -4.22957987e-01
      -7.48749018e-01 8.79455984e-01 -6.51978016e-01 8.78890991e-01
      -5.68314016e-01 2.22844005e+00 6.25976980e-01 1.02669001e+00
      -6.03164971e-01 -3.88260007e-01 -8.41033995e-01 8.59435976e-01</_>
    <_>
      -3.14445011e-02 1.19482005e+00 -6.28909990e-02 2.38963008e+00
      1.13191998e+00 2.42105007e+00 3.52151990e+00 2.48394990e+00
      3.49008989e+00 3.67877007e+00 2.29527998e+00 3.64734006e+00
      1.13192999e+00 2.42109990e+00 1.13194001e+00 2.42105007e+00
      1.16336000e+00 1.22628999e+00 1.19479001e+00 3.14636007e-02
      1.22626996e+00 -1.16331005e+00 2.42109990e+00 -1.13188004e+00
      6.28966987e-02 -2.38960004e+00 6.28662035e-02 -2.38959002e+00
      3.14940996e-02 -1.19481003e+00 6.29272014e-02 -2.38960004e+00
      9.43604037e-02 -3.58441997e+00 1.19480002e+00 3.14484015e-02
      1.19479001e+00 3.14292982e-02 1.19480002e+00 3.14388014e-02 0.
      1.14441000e-05 1.16332996e+00 1.22624004e+00 -6.28814995e-02
      2.38963008e+00 0. 1.90735000e-06 1.19479001e+00 3.14407013e-02
      -3.14636007e-02 1.19480002e+00 -3.14636007e-02 1.19481003e+00
      -3.14177983e-02 1.19482005e+00 1.52588000e-05 1.52588000e-05
      1.52588000e-05 0. 0. 3.05176000e-05 1.16338003e+00 1.22625995e+00
      -3.14331017e-02 1.19482005e+00 -3.14484015e-02 1.19481003e+00
      -1.22624004e+00 1.16341996e+00 -1.22623003e+00 1.16339004e+00 0.
      0. -1.52588000e-05 1.14441000e-05 -7.62938998e-06 -7.62938998e-06
      1.52588000e-05 0. -3.14484015e-02 1.19481003e+00 -3.14331017e-02
      1.19482005e+00 3.05176000e-05 0. 0. 3.81469999e-06 1.19481003e+00
      3.14369015e-02 0. 0. -3.14331017e-02 1.19481003e+00
      -1.22625995e+00 1.16338003e+00 6.98016977e+00 7.35751009e+00
      3.52155995e+00 2.48400998e+00 1.13192999e+00 2.42108011e+00
      -6.29120022e-02 2.38963008e+00 -6.28966987e-02 2.38963008e+00
      -2.45248008e+00 2.32677007e+00 -4.93639994e+00 5.84830999e+00
      -2.51537991e+00 4.71637011e+00 -6.28966987e-02 2.38962007e+00
      -6.28814995e-02 2.38963008e+00 1.13190997e+00 2.42109990e+00
      3.49009991e+00 3.67876005e+00 7.01163006e+00 6.16269016e+00
      1.13189995e+00 2.42109990e+00 1.10048997e+00 3.61589003e+00
      -9.42993015e-02 3.58443999e+00 -3.71016002e+00 4.68488979e+00
      1.10051000e+00 3.61588001e+00 -9.43297967e-02 3.58442998e+00
      1.10048997e+00 3.61588001e+00</_>
    <_>
      1.28354996e-01 1.71556997e+00 3.86114001e-01 1.68186998e+00
      6.95061028e-01 2.84015989e+00 2.22192001e+00 3.93581009e+00
      2.39231992e+00 2.61455989e+00 2.56419992e+00 2.43611002e+00
      3.93935990e+00 3.35727000e+00 3.89791989e+00 6.70471013e-01
      5.07210016e+00 -8.81896973e-01 3.79292011e+00 -1.08334005e+00
      2.43687010e+00 -1.24138999e+00 1.06473005e+00 -1.37990999e+00
      8.72681022e-01 -1.50551999e+00 1.86975002e+00 -1.61901999e+00
      4.23797995e-01 -1.58849001e+00 -1.07509995e+00 -2.76778007e+00
      -1.24682999e+00 -1.55441999e+00 -1.33639002e+00 1.54992998e+00
      -1.48381996e+00 1.42005002e+00 -1.55698001e+00 1.22008002e+00
      -1.54987001e+00 1.01242006e+00 -3.33191007e-01 -4.72038001e-01
      8.61176014e-01 -8.74439001e-01 -3.65494013e-01 2.23993003e-01
      -3.91478986e-01 4.65126000e-02 -2.72857994e-01 1.09704995e+00
      -1.35834002e+00 1.03906000e+00 -6.29578009e-02 5.63979983e-01
      7.08008036e-02 5.51163018e-01 1.42246997e+00 4.75677013e-01
      1.56514001e+00 4.61997986e-01 2.96662998e+00 6.24710023e-01
      1.71230996e+00 -6.32018983e-01 1.71989000e+00 -7.40723014e-01
      1.75616002e+00 3.89694005e-01 1.72090006e+00 3.03084999e-01 0. 0.
      -1.09191999e-01 -1.06528997e-01 -1.27090001e+00 1.01268995e+00
      -1.22070003e+00 -3.42009991e-01 4.65697981e-02 -2.65457004e-01
      6.10808991e-02 -1.13853000e-01 3.67432013e-02 3.83453012e-01
      -1.30988002e+00 3.23478997e-01 -9.67255011e-02 1.17256001e-01 0.
      0. -1.14607000e+00 1.54778004e-01 7.83080980e-02 2.53479004e-01
      8.49976003e-01 -3.33420008e-01 2.04555988e+00 6.85944021e-01
      1.99791002e+00 5.64499021e-01 2.01786995e+00 4.90601003e-01
      1.92964005e+00 -8.05846989e-01 2.01776004e+00 3.01620007e-01
      8.05465996e-01 -9.86083984e-01 2.07991004e+00 -9.28237975e-01
      2.11687994e+00 -8.23791981e-01 2.13352990e+00 -7.44385004e-01
      2.13315010e+00 -6.54358029e-01 2.11752009e+00 -5.35872996e-01
      8.44848990e-01 -3.86916995e-01 2.07903004e+00 5.65750003e-01
      2.02646995e+00 -7.34116018e-01 2.06365991e+00 4.05227989e-01
      2.02042007e+00 -9.85549986e-01 2.00989008e+00 -8.13521981e-01
      2.03544998e+00 -7.34955013e-01 3.24319005e+00 -7.15698004e-01</_>
    <_>
      2.30493999e+00 4.39976978e+00 2.39619994e+00 2.48460007e+00
      2.18323994e+00 3.78646994e+00 3.10293007e+00 2.99242997e+00
      3.83061004e+00 4.39705992e+00 4.40842009e+00 4.77723980e+00
      5.83641005e+00 5.35416985e+00 6.19556999e+00 3.87966990e+00
      7.51529980e+00 2.77331996e+00 6.63808012e+00 2.84927011e+00
      4.91238022e+00 1.00616002e+00 3.27120996e+00 -6.68747008e-01
      2.89794993e+00 -2.12175012e+00 5.65825999e-01 -3.57932997e+00
      -7.27356017e-01 -3.91617990e+00 -3.04221010e+00 -4.33936024e+00
      -5.32339001e+00 -3.64732003e+00 6.18305027e-01 2.66664004e+00
      4.95147984e-03 4.12304020e+00 -8.85185003e-01 7.39942980e+00
      -2.81450009e+00 9.34459019e+00 -4.67607021e+00 1.11666002e+01
      1.07007003e+00 1.04214001e+01 -4.85504001e-01 7.30400991e+00
      -1.17183006e+00 7.32465982e+00 -2.69229007e+00 3.92226005e+00
      -1.99634004e+00 2.48920012e+00 -2.71759003e-01 3.27367997e+00
      -1.70150995e-01 1.70165002e+00 -1.08148003e+00 -9.87930000e-01
      -9.13025022e-01 -3.63657999e+00 -1.59697995e-01 -4.20126009e+00
      5.86547971e-01 -4.22769022e+00 1.37047994e+00 -5.30800009e+00
      -2.33612005e-02 -5.36137009e+00 6.91878974e-01 -4.17526007e+00 0.
      0. -2.93137014e-01 -1.89022005e+00 -8.26317012e-01 -8.71043980e-01
      -1.92780003e-01 -8.94851983e-02 2.37679005e-01 -1.67976007e-01
      -3.40339988e-01 -2.26027995e-01 1.60141006e-01 -7.23342970e-02
      8.03452015e-01 3.09372008e-01 4.00878996e-01 -7.98779011e-01 0. 0.
      3.36410999e-01 -1.68953001e-01 8.05922985e-01 -1.37412995e-01
      5.04460001e+00 -8.34008980e+00 3.37378001e+00 -7.10605001e+00
      1.76438999e+00 -5.94328022e+00 2.63246012e+00 -7.06586981e+00
      4.39834976e+00 -5.81604004e+00 2.90369010e+00 -6.11850023e+00
      3.67641997e+00 -8.49549961e+00 4.24474001e+00 -9.79963970e+00
      5.67851019e+00 -8.68280029e+00 3.80158997e+00 -7.75023985e+00
      3.03264999e+00 -7.75291014e+00 5.65770006e+00 -8.56702995e+00
      4.76726007e+00 -7.26311016e+00 1.87274003e+00 -7.35665989e+00
      2.66753006e+00 -7.35083008e+00 5.55740023e+00 -7.16576004e+00
      4.96027994e+00 -8.40305996e+00 5.51642990e+00 -6.08596992e+00
      3.67725992e+00 -6.20732021e+00 2.88246012e+00 -6.21320009e+00</_>
    <_>
      -2.24905992e+00 5.46815014e+00 -1.92224002e+00 6.30795002e+00
      -4.35256988e-01 8.12637043e+00 -1.01146996e+00 9.98064995e+00
      -2.47319007e+00 1.29048004e+01 -1.74905002e+00 1.35579004e+01
      1.36603996e-01 1.50978003e+01 2.03597999e+00 1.33239002e+01
      3.95099998e+00 1.11190004e+01 4.75603008e+00 9.65939045e+00
      3.20958996e+00 6.87894011e+00 3.63514996e+00 7.03593016e+00
      3.86008000e+00 6.11269999e+00 3.81823993e+00 6.23508978e+00
      3.62972999e+00 5.35152006e+00 2.45544004e+00 4.48655987e+00
      2.24798989e+00 3.63940001e+00 -7.82012998e-04 -3.32009006e+00
      -1.80763996e+00 -5.86595011e+00 -1.25261998e+00 -8.17712021e+00
      -6.36291981e-01 -1.02946997e+01 -9.35073972e-01 -9.19775009e+00
      5.26521015e+00 -7.64948988e+00 4.77150011e+00 -9.02175999e+00
      4.40379000e+00 -7.21560001e+00 3.06483006e+00 -4.12992001e+00
      -5.16937017e-01 -2.66082001e+00 4.10115004e+00 -1.73380995e+00
      4.35735989e+00 9.29023981e-01 6.66805983e+00 3.52833009e+00
      6.89690018e+00 5.17778015e+00 3.31646991e+00 7.80987978e+00
      4.66906977e+00 7.79678011e+00 6.01320982e+00 6.73387003e+00
      4.26438999e+00 6.60936022e+00 4.51465988e+00 6.43877983e+00 0. 0.
      -8.24721992e-01 -4.33359003e+00 2.72167993e+00 -3.52361989e+00
      2.31977010e+00 2.74676991e+00 1.98624003e+00 3.96572995e+00
      -5.46822011e-01 3.12837005e+00 -8.46100003e-02 2.39487004e+00
      -9.26620007e-01 -3.01616001e+00 1.51529002e+00 -4.22446012e+00 0.
      0. 2.83447003e+00 2.17920995e+00 1.36986005e+00 2.31908011e+00
      -1.90746999e+00 1.22495003e+01 3.55049992e+00 1.27369003e+01
      4.85271978e+00 9.39966965e+00 4.17859983e+00 9.44130993e+00
      3.37962008e+00 7.23499012e+00 3.87410998e+00 9.30504990e+00
      3.29029989e+00 9.43982029e+00 4.01314020e+00 8.81713963e+00
      5.76030016e+00 1.00555000e+01 5.47337008e+00 1.12292995e+01
      7.24196005e+00 1.32700005e+01 3.73412991e+00 1.43397999e+01
      -7.09250987e-01 1.21330996e+01 6.02600002e+00 1.17308998e+01
      4.25742006e+00 9.69021988e+00 4.58054018e+00 9.55745983e+00
      3.12410998e+00 1.05145998e+01 4.58899021e+00 1.06072998e+01
      5.31570005e+00 1.07314997e+01 6.06215000e+00 1.27720003e+01</_>
    <_>
      2.76383996e+00 -2.53876001e-01 1.64023995e+00 -1.64426005e+00
      1.49005997e+00 -3.07053995e+00 1.36776996e+00 -3.45679998e+00
      -8.44615996e-01 -3.74700999e+00 -1.06913996e+00 -3.06998992e+00
      -1.40827000e+00 -3.36034012e+00 -7.28928030e-01 -2.59506011e+00
      -1.16710997e+00 -1.61126995e+00 -1.63408995e+00 -1.50916004e+00
      2.98308991e-02 -2.33731008e+00 -2.74246007e-01 -3.02606010e+00
      -4.57610995e-01 -2.66887999e+00 -1.57202005e+00 -2.23945999e+00
      -1.62121999e+00 -1.85309005e+00 -1.63039994e+00 -4.40833986e-01
      -6.66534007e-01 -1.10923004e+00 1.42181003e+00 -8.88576984e-01
      2.32291996e-01 4.43713993e-01 8.72283995e-01 -4.89787996e-01
      -5.09697020e-01 -4.48588997e-01 1.52969003e-01 -5.79117000e-01
      -2.56576985e-01 -5.86947978e-01 -5.90424001e-01 -4.68717992e-01
      -9.31366026e-01 -4.42276001e-01 -1.25522995e+00 -5.35889030e-01
      -1.43493998e+00 -8.12179983e-01 -1.43889999e-02 1.17519999e+00
      -1.09958994e+00 -5.98601997e-02 -1.46102995e-01 -1.37383997e+00
      -1.40609995e-01 -6.22336984e-01 1.23212004e+00 -9.53032970e-01
      4.58068997e-02 -9.40186024e-01 -1.28708005e-01 -9.79416013e-01
      -1.30890000e+00 -8.87908995e-01 -1.45113003e+00 -8.50494027e-01 0.
      0. -1.34468004e-01 1.15812004e+00 6.15417004e-01 1.10592000e-01
      3.94423991e-01 -1.73873994e-02 -4.12589997e-01 -4.71496992e-02
      -1.37619004e-01 9.47296023e-01 -4.08569008e-01 5.29479980e-03
      4.18731987e-01 1.25827998e-01 1.80634007e-01 1.17916003e-01 0. 0.
      1.64352000e-01 -9.18961018e-02 -6.23427987e-01 -4.40139994e-02
      5.52443981e-01 -5.30929983e-01 2.98736989e-01 -1.42150998e+00
      1.08153999e+00 -1.36348999e+00 9.19098020e-01 -1.41684997e+00
      -3.13140988e-01 -2.33708000e+00 -5.04226983e-01 -1.39884996e+00
      -6.71142995e-01 -4.88860995e-01 -3.97628993e-01 1.33684003e+00
      -1.16674995e+00 2.30673003e+00 -9.45221007e-01 3.29212999e+00
      -7.59598017e-01 3.30412006e+00 -5.67505002e-01 2.37900996e+00
      1.42034996e+00 -1.58762002e+00 1.08041000e+00 -1.54807997e+00
      -1.05850004e-01 -1.53524995e+00 -2.87429988e-01 -1.49479997e+00
      -1.53901994e+00 5.67870975e-01 -1.18332005e+00 1.58246005e+00
      -1.00177002e+00 1.54200995e+00 1.84524998e-01 1.52917004e+00</_>
    <_>
      5.52721024e-01 -2.29008007e+00 4.85689014e-01 -1.39040995e+00
      -6.63773000e-01 -1.69625998e+00 4.56328988e-01 -1.86493003e+00
      -8.25278997e-01 -1.02350998e+00 -9.47257996e-01 -1.22927999e+00
      -1.27771997e+00 8.74924004e-01 -1.34509003e+00 -1.53680003e+00
      -5.29555976e-01 -3.74175996e-01 -7.88726985e-01 -3.49945009e-01
      -2.23529005e+00 8.08624029e-01 -2.44315004e+00 9.46883976e-01
      -3.66348004e+00 -8.65631029e-02 -2.61853004e+00 1.97478995e-01
      -2.60021996e+00 -7.08510995e-01 -2.64700007e+00 -4.75098014e-01
      -2.75277996e+00 9.15009022e-01 -9.98833001e-01 1.20832002e+00
      -1.13042998e+00 1.33167005e+00 -1.23518002e+00 2.28073001e-01
      -1.43113995e+00 2.10952997e-01 -4.66217011e-01 2.20364004e-01
      -1.85139000e+00 1.39982000e-01 -8.99062991e-01 2.46855006e-01
      -2.27965992e-02 1.45039999e+00 -1.34164000e+00 1.30429995e+00
      -1.44765997e+00 1.16668999e+00 -1.72052002e+00 -4.12597992e-02
      -1.70969999e+00 -1.88507006e-01 -4.79247987e-01 -1.39984000e+00
      -4.67361003e-01 -1.55520999e+00 -4.14032012e-01 5.82198977e-01
      -1.64663994e+00 4.72045988e-01 -6.04735970e-01 5.24444997e-01
      -7.05353022e-01 5.36194026e-01 -7.16552973e-01 -5.88303030e-01 0.
      0. -1.16112001e-01 6.75430000e-02 -2.47107998e-01 5.88111989e-02
      -3.50266010e-01 -3.71246003e-02 -1.37882996e+00 -1.29105002e-01
      -1.74567997e-01 1.09218001e+00 -8.67294014e-01 1.08499002e+00
      -9.11270022e-01 2.22968999e-02 -1.11543000e+00 1.15192997e+00 0.
      0. -1.04271996e+00 -1.10329002e-01 -9.12781000e-01 -9.34982002e-02
      -1.38107002e-01 -9.09744024e-01 -2.65502989e-01 -8.18924010e-01
      -4.10919011e-01 -7.79906988e-01 -5.13351023e-01 -8.17932010e-01
      -6.97372019e-01 3.47305000e-01 3.83437991e-01 -7.92617977e-01
      -8.75365973e-01 -9.55718994e-01 3.16101015e-01 1.73065007e-01
      4.54452991e-01 1.24954000e-01 -5.68054020e-01 5.02624996e-02
      -4.54360992e-01 6.49719015e-02 -2.48390004e-01 -1.01485002e+00
      -2.04146996e-01 -9.10034001e-01 -1.61583996e+00 1.70486003e-01
      -5.73913991e-01 2.22916007e-01 -6.16531014e-01 -9.13924992e-01
      -8.10379028e-01 -9.47265983e-01 5.22858024e-01 -8.48846018e-01
      -4.98627007e-01 -9.31656003e-01 -4.67269987e-01 2.28469998e-01</_>
    <_>
      1.45895004e-01 -3.38031006e+00 2.43181005e-01 -5.63385010e+00
      2.43181005e-01 -5.63383007e+00 -8.83583009e-01 -5.68245983e+00
      -2.01037002e+00 -5.73109007e+00 -2.01037002e+00 -5.73111010e+00
      -3.13712001e+00 -5.77973986e+00 -3.18576002e+00 -4.65291977e+00
      -2.10762000e+00 -3.47754002e+00 -9.80865002e-01 -3.42892003e+00
      1.45919994e-01 -3.38028002e+00 1.22406006e+00 -2.20484996e+00
      4.86754999e-02 -1.12673998e+00 3.05176000e-05 1.52588000e-05
      3.05176000e-05 0. -4.85839993e-02 1.12679005e+00 1.17544997e+00
      -1.07813001e+00 -4.86450009e-02 1.12678003e+00 -1.12677002e+00
      -4.86374013e-02 2.28882000e-05 0. 1.12679005e+00 4.86259013e-02
      1.12679005e+00 4.86336015e-02 4.86450009e-02 -1.12678003e+00
      1.12677002e+00 4.86336015e-02 1.12679005e+00 4.86202016e-02
      1.12679005e+00 4.86298017e-02 1.12679994e+00 4.86526005e-02
      1.12677002e+00 4.86336015e-02 1.52588000e-05 0. 1.52588000e-05
      7.62938998e-06 3.05176000e-05 7.62938998e-06 4.86679003e-02
      -1.12677002e+00 4.86603007e-02 -1.12674999e+00 -1.07813001e+00
      -1.17537999e+00 -1.07810998e+00 -1.17537999e+00 1.52588000e-05
      1.52588000e-05 0. 0. 7.62938998e-06 7.62938998e-06 1.12679005e+00
      4.86374013e-02 2.28882000e-05 1.52588000e-05 1.52588000e-05 0.
      1.52588000e-05 0. 1.07816005e+00 1.17541003e+00 4.57763999e-05 0.
      4.57763999e-05 0. 0. 0. 1.07816005e+00 1.17542005e+00
      -4.86298017e-02 1.12678003e+00 -7.62938998e-06 4.57763999e-05
      -2.28882000e-05 3.05176000e-05 -1.07813001e+00 -1.17536998e+00
      -1.12674999e+00 -4.85991985e-02 0. 1.52588000e-05 -1.52588000e-05
      1.52588000e-05 1.12679005e+00 4.86603007e-02 1.52588000e-05
      6.10351999e-05 -1.07814002e+00 -1.17537999e+00 3.05176000e-05
      6.10351999e-05 4.86450009e-02 -1.12671006e+00 4.86298017e-02
      -1.12674999e+00 4.86068986e-02 -1.12673998e+00 4.86298017e-02
      -1.12673998e+00 1.52588000e-05 3.05176000e-05 3.05176000e-05
      3.05176000e-05 4.86450009e-02 -1.12671995e+00 4.86603007e-02
      -1.12673998e+00 4.86450009e-02 -1.12671995e+00 4.86754999e-02
      -1.12673998e+00</_>
    <_>
      2.18731001e-01 2.84176993e+00 5.54205000e-01 2.44430995e+00
      3.34470010e+00 3.16055012e+00 2.53698993e+00 2.72560000e+00
      4.21974993e+00 2.17060995e+00 1.24802005e+00 2.65513992e+00
      -4.22775000e-01 2.93796992e+00 -2.04250002e+00 4.27121019e+00
      -3.66840005e+00 5.33267021e+00 -3.00695992e+00 3.72198009e+00
      -1.31638002e+00 1.91565001e+00 1.46940994e+00 2.42348003e+00
      5.30484009e+00 4.04070997e+00 5.30481005e+00 4.43964005e+00
      1.58782995e+00 2.44800997e+00 1.42471004e+00 1.65390003e+00
      2.42123008e+00 2.02109003e+00 -3.07050991e+00 1.04958000e+01
      -2.88066006e+00 7.68100023e+00 -4.07485999e-02 6.18399000e+00
      1.66977000e+00 4.85772991e+00 3.41824007e+00 4.79984999e+00
      9.72075999e-01 6.86811018e+00 1.42783999e+00 7.77342987e+00
      1.90292001e+00 8.73272038e+00 1.22168005e+00 9.87238979e+00
      -6.88018978e-01 1.24090004e+01 5.64499021e-01 1.70064998e+00
      7.09685981e-01 2.10532999e+00 -3.59573007e-01 2.52852988e+00
      -2.23235995e-01 1.74576998e+00 -5.78490973e-01 -1.12010002e+00
      -2.97805995e-01 6.11420013e-02 2.13623003e-04 1.20574999e+00
      2.64365005e+00 -1.59835994e-01 1.65224004e+00 -2.69391990e+00 0.
      0. 2.64030010e-01 2.04293990e+00 -5.36064029e-01 1.94325995e+00
      -9.65958014e-02 -2.60711998e-01 -4.27123994e-01 -1.24141002e+00
      3.37112010e-01 -2.31952000e+00 1.33325005e+00 -7.73727000e-01
      1.61374998e+00 2.39300990e+00 -3.83468986e-01 2.27523994e+00 0. 0.
      -2.47528002e-01 -9.19112980e-01 5.07843018e-01 -3.18467999e+00
      3.97465992e+00 -5.82012987e+00 1.96197999e+00 -3.82516003e+00
      -1.28034997e+00 -1.68441999e+00 1.96259007e-01 -1.73608005e+00
      4.19678003e-01 -1.87716997e+00 -2.74316001e+00 -5.41356993e+00
      -3.47513008e+00 -8.89647007e+00 -2.65114999e+00 -1.21336002e+01
      -5.97931027e-01 -1.19446001e+01 3.47153008e-01 -9.45475960e+00
      5.88379018e-02 -1.05724001e+01 2.07252002e+00 -9.33080959e+00
      4.14493990e+00 -7.10231018e+00 -1.16501999e+00 -2.00195000e-01
      3.10759991e-01 9.08568978e-01 5.35018981e-01 -3.92944008e-01
      -3.67365003e+00 -8.85564995e+00 -7.59598017e-01 -1.34730997e+01
      2.03597993e-01 -1.21803999e+01 -1.24477994e+00 -1.08872995e+01</_>
    <_>
      -3.94759989e+00 1.39273005e+01 -2.20743990e+00 1.51980000e+01
      -2.73816991e+00 1.71790009e+01 -8.34758997e-01 1.72637005e+01
      2.43457007e+00 1.52662001e+01 4.68422985e+00 1.18090000e+01
      4.35065985e+00 9.98388958e+00 1.90041006e+00 6.61630011e+00
      8.79119992e-01 6.56149006e+00 8.22722971e-01 6.66406012e+00
      -6.32018983e-01 6.76684999e+00 -1.46405005e+00 9.25522995e+00
      -2.37402010e+00 1.08245001e+01 -2.24944997e+00 1.17010002e+01
      -9.17846978e-01 1.17657003e+01 -1.71841002e+00 1.15427999e+01
      -2.22229004e-01 1.06167002e+01 -1.39330995e+00 -6.17546022e-01
      -9.27055001e-01 1.31448999e-01 -2.99176002e+00 -1.89742994e+00
      -2.62588000e+00 -3.61124992e+00 -3.32927990e+00 -4.30801010e+00
      4.21109009e+00 -3.23102999e+00 3.71294999e+00 -1.74187005e+00
      2.32734990e+00 -3.88502002e-01 -8.42132986e-01 -3.73604000e-01
      -1.24756002e+00 -1.94047999e+00 1.27350998e+00 4.57040024e+00
      1.92024004e+00 3.54696989e+00 3.51507998e+00 3.74057007e+00
      3.90003991e+00 4.85651016e+00 2.55317998e+00 9.76858997e+00
      1.78320003e+00 8.21154976e+00 2.06998992e+00 6.78180981e+00
      -4.62875009e-01 8.23307991e+00 -1.90174997e+00 9.87775040e+00 0.
      0. 2.78252006e-01 -1.13176003e+01 2.32068992e+00 -1.04081001e+01
      -1.37330997e+00 1.80897999e+00 -2.58002996e-01 2.42563009e+00
      -2.45356989e+00 2.56560993e+00 7.39242971e-01 2.46678996e+00
      1.16637003e+00 -9.98511028e+00 3.42077994e+00 -1.01365004e+01 0.
      0. 1.89880002e+00 2.82446003e+00 -3.22555989e-01 2.95722008e+00
      1.39251995e+00 1.80091991e+01 2.71673989e+00 1.43776999e+01
      2.81427002e+00 1.27284002e+01 -1.25121996e-01 1.08177004e+01
      -1.41509998e+00 1.13281002e+01 -1.82783997e+00 1.51089001e+01
      -3.02231002e+00 1.77745991e+01 -2.90802002e+00 1.16428003e+01
      -1.11424005e+00 8.02392960e+00 1.03198004e+00 8.76066971e+00
      3.26108003e+00 8.40044975e+00 3.81320000e+00 1.12395000e+01
      1.61035001e+00 1.67271996e+01 3.34331989e+00 1.17278004e+01
      1.91971004e-01 1.08781004e+01 -1.03917003e+00 1.13771000e+01
      -2.72622991e+00 1.58118000e+01 -1.92124999e+00 1.01226997e+01
      1.46784997e+00 9.91856003e+00 3.37630010e+00 1.17091999e+01</_>
    <_>
