<?xml version="1.0"?>
<opencv_storage>
<opencv_ml_svm>
  <format>3</format>
  <svmType>C_SVC</svmType>
  <kernel>
    <type>LINEAR</type></kernel>
  <C>8.3966598510742188e+01</C>
  <term_criteria><iterations>1000</iterations></term_criteria>
  <var_count>136</var_count>
  <class_count>2</class_count>
  <class_labels type_id="opencv-matrix">
    <rows>2</rows>
    <cols>1</cols>
    <dt>i</dt>
    <data>
      -1082130432 1065353216</data></class_labels>
  <sv_total>1</sv_total>
  <support_vectors>
    <_>
      -2.94331200e-02 -3.00340112e-02 2.90160086e-02 -5.70234749e-03
      -5.87489037e-03 -1.26894182e-02 1.35978106e-02 1.52380150e-02
      1.79765970e-02 1.09671457e-02 1.63140818e-02 2.50196178e-02
      4.97231930e-02 3.25958431e-02 -6.18481003e-02 -1.04340659e-02
      2.25209794e-03 2.19674110e-02 -1.51040480e-02 -2.14159619e-02
      -1.90581772e-02 7.94718117e-02 2.83109043e-02 1.06900083e-02
      -2.42994819e-02 9.35441721e-03 -8.26068781e-03 1.58492359e-03
      -8.85290466e-03 2.25521568e-02 -2.25434601e-02 -6.54618368e-02
      -6.41720463e-03 3.92203704e-02 6.85619712e-02 1.81968622e-02
      5.23684695e-02 -3.08457036e-02 -3.41203138e-02 -7.30588585e-02
      -3.10661905e-02 -6.96047693e-02 -5.00810444e-02 3.93642448e-02
      -2.19412036e-02 3.13805118e-02 1.05287868e-03 3.94294150e-02
      5.63998185e-02 -8.84860232e-02 4.17768024e-02 5.87379597e-02
      1.50714833e-02 -3.97697613e-02 4.73810807e-02 -2.51989532e-02
      5.98547223e-04 -2.12294031e-02 -2.90559754e-02 3.23616676e-02
      -6.89259404e-03 -5.67871146e-02 4.79401760e-02 2.91573182e-02
      2.11424902e-02 7.32041243e-03 -2.37841625e-02 -9.15420998e-04
      2.21518055e-02 -2.82275807e-02 -1.00157596e-01 3.80812138e-02 0.
      0. 9.27980393e-02 -3.45474556e-02 3.68471071e-02 2.81379581e-03
      3.62871611e-03 -1.73202399e-02 4.00866717e-02 3.46044637e-02
      2.18567532e-02 3.51246037e-02 2.59937998e-02 1.41836666e-02
      -2.68981848e-02 8.05070903e-03 -3.35393064e-02 -3.24264839e-02 0.
      0. 6.84715360e-02 4.96608019e-02 2.30641756e-02 2.87726615e-02
      1.35024935e-02 -4.48779985e-02 4.66016829e-02 2.97504812e-02
      -6.31212397e-03 -3.51704136e-02 5.82167245e-02 -9.59962327e-03
      5.33232503e-02 -2.12720074e-02 -1.63783804e-02 3.18943635e-02
      -7.29028834e-03 -3.32643203e-02 -5.37932515e-02 2.96646934e-02
      1.91923305e-02 1.58854630e-02 1.37055153e-03 8.15985799e-02
      -4.20066938e-02 -1.02147628e-02 3.96835171e-02 -2.13133916e-02
      5.12969354e-03 -2.88974885e-02 -3.87605000e-03 2.94002630e-02
      -4.56642807e-02 7.82835856e-03 8.33286066e-03 -2.16242466e-02
      -9.79629532e-03 4.25503077e-03 -3.37137170e-02 3.33547629e-02
      7.49404952e-02 -2.10174341e-02 -1.98909156e-02 -5.56908771e-02</_></support_vectors>
  <uncompressed_sv_total>99</uncompressed_sv_total>
  <uncompressed_support_vectors>
    <_>
      -3.20951009e+00 1.06051998e+01 -2.47197008e+00 9.98303032e+00
      -2.84729004e+00 8.21594048e+00 -9.33238983e-01 6.51335001e+00
      -1.19762003e+00 4.82789993e+00 -1.42089993e-01 2.11211991e+00
      -5.55419996e-02 -6.01378977e-01 -9.69604015e-01 -3.34511995e+00
      -4.96917993e-01 -6.18127012e+00 -1.08845997e+00 -4.56403017e+00
      -1.59650004e+00 -9.27550972e-01 -9.56848025e-01 2.53298998e+00
      -3.14972013e-01 5.83341980e+00 2.66052008e-01 7.77959013e+00
      1.92929006e+00 9.64505005e+00 1.31848001e+00 1.03650999e+01
      2.98215008e+00 9.94025993e+00 -2.58523989e+00 4.98438978e+00
      -8.94065976e-01 2.62197995e+00 7.60559022e-01 5.79361022e-01
      3.44549990e+00 9.85814989e-01 3.69490004e+00 3.72812009e+00
      -1.46004999e+00 1.87720001e+00 1.93192005e-01 1.05981004e+00
      1.68446004e+00 3.75566006e+00 3.04636002e+00 3.15836000e+00
      1.78176999e+00 4.79806995e+00 2.49260998e+00 9.80319977e-01
      1.07114995e+00 1.35315001e-01 1.94000006e+00 -7.09205985e-01
      5.18539011e-01 -1.55420995e+00 3.23387003e+00 2.92077994e+00
      1.10097003e+00 1.98559999e+00 1.12990998e-01 -6.24542013e-02
      -1.95539999e+00 3.48779011e+00 -2.89417005e+00 3.61863995e+00 0.
      0. -1.93892002e+00 -5.57708979e+00 5.71929991e-01 -5.31724977e+00
      6.63483024e-01 6.50062978e-01 4.09514993e-01 4.86304998e-01
      -9.88892019e-01 1.40340996e+00 5.13947010e-01 4.63753015e-01
      -2.64281988e-01 -5.08086014e+00 1.08542001e+00 -4.82147980e+00 0.
      0. 9.06783998e-01 9.97864008e-01 -4.42916989e-01 7.38471985e-01
      1.01562996e+01 1.11471004e+01 7.15135002e+00 1.01515999e+01
      2.93701005e+00 6.91258001e+00 -1.47040999e+00 7.12234020e+00
      -5.78081989e+00 7.26939011e+00 -1.01422997e+01 1.10114002e+01
      -1.11171999e+01 1.59464998e+01 -1.04020996e+01 -2.74353009e-02
      -6.17149019e+00 -6.96646023e+00 -1.86061001e+00 -8.27470016e+00
      3.64390993e+00 -8.48491001e+00 9.16555977e+00 -2.00011992e+00
      1.13958998e+01 7.87341022e+00 2.77460003e+00 1.04579000e+01
      -1.61658001e+00 1.06518002e+01 -5.92746019e+00 1.08309002e+01
      -1.23568001e+01 1.35746002e+01 -5.92746019e+00 -8.36441040e+00
      -1.61658001e+00 -9.67265034e+00 2.75837994e+00 -8.72169018e+00</_>
    <_>
      1.11185002e+00 -5.07146978e+00 7.46733010e-01 -4.66710997e+00
      3.23978007e-01 -5.39239979e+00 2.12189007e+00 -8.43879986e+00
      1.59729004e+00 -9.06865025e+00 8.59703004e-01 -1.06561003e+01
      -2.19080997e+00 -1.20516005e+01 -4.21849012e+00 -1.67248993e+01
      -5.01394987e+00 -1.76774006e+01 -4.49433994e+00 -1.50529003e+01
      -4.72156000e+00 -8.72974968e+00 -2.66608000e+00 -6.88951015e+00
      -5.06096983e+00 -7.17767000e+00 -4.94680977e+00 -5.26296997e+00
      -3.64523005e+00 -4.52505016e+00 -3.48270011e+00 -3.75364995e+00
      -3.27193999e+00 -3.00111008e+00 7.84016013e-01 -1.04131997e+00
      2.86565995e+00 2.75920010e+00 2.35760999e+00 3.09700990e+00
      1.80756998e+00 4.38079977e+00 1.20096004e+00 4.39535999e+00
      -1.86861002e+00 3.59172010e+00 -1.13683999e+00 5.06453991e+00
      -1.65840006e+00 4.17191982e+00 -2.27956009e+00 1.97121000e+00
      -5.04882991e-01 -5.65173984e-01 -5.13198972e-01 4.09707022e+00
      -7.07260013e-01 3.67197990e+00 -9.10750985e-01 3.22272992e+00
      -2.22921991e+00 2.79758000e+00 1.68335998e+00 6.61134005e+00
      1.35599005e+00 5.50365019e+00 -1.22548997e+00 4.45350981e+00
      -1.46271002e+00 4.62975979e+00 -1.65165997e+00 4.78715992e+00 0.
      0. -3.05397004e-01 -8.37989986e-01 4.13955986e-01 -1.85959005e+00
      7.27386028e-02 2.99950004e-01 4.40041006e-01 1.22507000e+00
      -3.36959988e-01 1.11698997e+00 -1.10596001e-01 7.27886021e-01
      -4.45235997e-01 -2.29176998e+00 3.22311014e-01 -2.20782995e+00 0.
      0. 1.43919003e+00 1.98662996e+00 -4.67514008e-01 1.93619001e+00
      1.34584999e+01 1.29949999e+01 9.69676018e+00 1.34250002e+01
      3.61915994e+00 1.27010002e+01 -1.01516999e-01 1.28086996e+01
      -3.75609994e+00 1.30854998e+01 -8.72183037e+00 1.21160002e+01
      -9.13527012e+00 1.09306002e+01 -9.40882969e+00 -7.62061977e+00
      -3.70519996e+00 -1.71203995e+01 -4.10767011e-02 -1.84974003e+01
      4.85740995e+00 -1.64328995e+01 1.24029999e+01 -6.40270996e+00
      1.43614998e+01 1.07494001e+01 4.66388988e+00 1.24260998e+01
      -1.86370999e-01 1.14671001e+01 -2.73547006e+00 1.16956997e+01
      -1.01964998e+01 8.62922955e+00 -3.41489005e+00 -1.22354002e+01
      2.25113004e-01 -1.36029997e+01 5.07537985e+00 -1.26440001e+01</_>
    <_>
      1.59282005e+00 -2.48340988e+00 3.65114003e-01 -2.72992992e+00
      1.55565000e+00 -2.95005989e+00 3.19263011e-01 -3.20553994e+00
      1.45688999e+00 -3.41766000e+00 1.23020001e-01 -3.62173009e+00
      -5.94559014e-02 -3.77393007e+00 -1.48269999e+00 -3.88260007e+00
      -2.97732997e+00 -2.70815992e+00 -5.67719984e+00 -2.72110009e+00
      -4.72855997e+00 -2.18323007e-01 -3.72807002e+00 -7.18230978e-02
      -2.67563009e+00 1.34186995e+00 -2.75797009e+00 1.56055999e+00
      -2.78786993e+00 5.92711985e-01 -2.80905008e+00 -3.66257012e-01
      -1.60782003e+00 -1.32503998e+00 -1.00560999e+00 2.62387991e+00
      2.50136995e+00 3.98534012e+00 3.52105999e+00 7.65010023e+00
      4.54169989e+00 1.00396004e+01 6.80275011e+00 8.77962017e+00
      -6.88992023e+00 1.11222000e+01 -5.87091017e+00 1.24123001e+01
      -4.82476997e+00 1.00264997e+01 -2.55521011e+00 6.36559010e+00
      -2.49420002e-01 5.05351019e+00 6.14502013e-01 2.49792004e+00
      -5.79361022e-01 1.13493001e+00 6.45080984e-01 -2.10494995e-01
      6.56051993e-01 -3.59840006e-01 -3.88411999e-01 -5.06958008e-01
      -4.67162997e-01 -5.34515023e-01 6.58813000e-01 -1.75821996e+00
      -6.51763976e-01 -1.75090003e+00 4.64812994e-01 -1.72586000e+00 0.
      0. -9.78012010e-02 1.28266001e+00 -2.20978007e-01 7.59506002e-02
      -3.51790994e-01 1.20860004e+00 -2.19321996e-01 -3.83681990e-02
      -8.74252021e-02 -3.64455990e-02 -8.44268978e-01 -3.47899995e-03
      -9.68414009e-01 6.50672987e-02 -1.10033000e+00 6.31408989e-02 0.
      0. -1.10741997e+00 -5.12772016e-02 -9.75661993e-01 -4.05807011e-02
      -1.37686002e+00 -2.08683991e+00 -1.51041996e+00 -1.97446001e+00
      -4.29580986e-01 -3.11970997e+00 -5.34713984e-01 -3.14757991e+00
      5.55450022e-01 -1.90922999e+00 1.62928998e+00 -3.17765999e+00
      1.48148000e+00 -3.29416990e+00 4.18273985e-01 -3.36241007e+00
      -6.45461977e-01 -3.39545989e+00 -5.31143010e-01 -3.39380002e+00
      -4.16931003e-01 -3.38333011e+00 -2.85553008e-01 -3.34625006e+00
      -1.43855000e+00 -2.07895994e+00 -4.36630011e-01 -2.02922010e+00
      6.62734985e-01 -2.03079009e+00 -6.47614002e-01 -3.24597001e+00
      3.38272005e-01 -3.30202007e+00 5.57265997e-01 -2.03235006e+00
      -5.33173025e-01 -3.25310993e+00 7.85812020e-01 -3.23392010e+00</_>
    <_>
      5.07484019e-01 -7.33255005e+00 5.38244009e-01 -9.65153980e+00
      5.54745018e-01 -1.19710999e+01 -1.54001999e+00 -1.32919998e+01
      -5.82539988e+00 -1.15043001e+01 -8.06447983e+00 -1.06964998e+01
      -8.29319954e+00 -7.72881985e+00 -7.48172998e+00 -5.75377989e+00
      -3.57849002e+00 -3.61630011e+00 -6.76849008e-01 -3.51883006e+00
      1.24432003e+00 -5.45334005e+00 2.14369011e+00 -7.36547995e+00
      2.02850008e+00 -8.21265030e+00 9.28252995e-01 -9.06443977e+00
      -1.58172995e-01 -8.85908985e+00 -1.25873005e+00 -7.61194992e+00
      -1.30385995e+00 -6.33588982e+00 1.11491001e+00 7.46328020e+00
      1.95800996e+00 1.18028002e+01 2.76883006e+00 1.50129004e+01
      4.93797004e-01 1.49554005e+01 1.40933001e+00 1.28226004e+01
      -8.44757020e-01 1.17307997e+01 -1.05391002e+00 1.28288002e+01
      -2.22347999e+00 9.66104031e+00 -1.25099003e+00 4.39646006e+00
      7.87169993e-01 1.17454004e+00 -5.65567017e-01 3.17518997e+00
      -1.57909000e+00 1.94856000e+00 -1.56552005e+00 1.79205000e+00
      -1.53014004e+00 5.79833984e-01 7.35664010e-01 -1.57618999e+00
      -3.75916004e-01 -1.62884998e+00 -1.52324998e+00 -6.33560002e-01
      -1.60991001e+00 -6.08536005e-01 -1.68949997e+00 -5.83221018e-01 0.
      0. -1.09695002e-01 1.10922003e+00 -2.31162995e-01 1.11138999e+00
      -3.06450009e-01 -1.25580002e-02 -1.24696004e+00 -5.82351983e-02
      -1.12723999e-01 1.00915003e+00 1.37688994e+00 -1.02160001e+00
      -8.37661982e-01 5.84984012e-02 1.11298002e-01 -9.73492026e-01 0.
      0. 1.08231001e-01 -1.07358003e+00 -8.19167972e-01 -1.09015000e+00
      2.00514007e+00 -5.02950001e+00 -1.28664994e+00 -2.92269993e+00
      6.87286019e-01 -2.83464003e+00 5.81390023e-01 -1.81807995e+00
      5.16205013e-01 -2.84166002e+00 2.46557999e+00 -1.80515003e+00
      1.32742000e+00 -2.95123005e+00 1.33667004e+00 2.22510004e+00
      3.46648991e-01 5.30433989e+00 -6.30234003e-01 6.32088995e+00
      -5.16312003e-01 5.28328991e+00 -3.24981987e-01 1.13610995e+00
      2.97487998e+00 -3.95459008e+00 5.83908021e-01 2.30133009e+00
      4.98703003e-01 2.29069996e+00 4.05456990e-01 2.30113006e+00
      3.14040989e-01 -1.91472006e+00 -6.57257020e-01 3.32133007e+00
      4.77432013e-01 3.33213997e+00 -4.57534999e-01 2.28008008e+00</_>
    <_>
      -2.82244992e+00 -1.26250005e+00 -3.08434010e+00 -2.15986991e+00
      -4.40662003e+00 -1.81622005e+00 -4.49229002e+00 -3.88671994e-01
      -4.69642019e+00 -1.25576997e+00 -3.39550996e+00 1.28854001e+00
      -4.36928988e+00 2.82369995e+00 -3.06438994e+00 3.01813006e+00
      -2.89956999e+00 2.10767007e+00 -1.45925999e+00 2.22983003e+00
      -1.23804998e+00 1.17376995e+00 1.50177002e-01 -2.07519997e-02
      4.46381003e-01 -9.23767015e-02 6.97997987e-01 -2.64892995e-01
      2.08221006e+00 -5.48232973e-01 2.46524000e+00 1.55682003e+00
      4.42840993e-01 2.64773989e+00 -1.59080994e+00 -4.86122990e+00
      -1.18073002e-01 -3.84055996e+00 -1.03232002e+00 -3.64521003e+00
      1.48102000e-01 -5.84410000e+00 2.95029014e-01 -5.61187983e+00
      -1.81149006e+00 -6.34592009e+00 -1.48473001e+00 -5.09018993e+00
      -1.19292997e-01 -5.01125002e+00 -2.21868992e+00 -3.48110008e+00
      -7.75756985e-02 -5.70571995e+00 -2.93885994e+00 -1.60607004e+00
      -1.82284999e+00 -3.98292989e-01 -3.09520006e+00 -1.91680998e-01
      -1.98565996e+00 1.02462995e+00 -1.98459995e+00 5.62370014e+00
      -3.15099001e+00 4.66011000e+00 -1.90758002e+00 4.68709993e+00
      -2.85890007e+00 5.99717999e+00 -2.73689008e+00 6.04918003e+00 0.
      0. -1.15445006e+00 -2.20494008e+00 1.36107996e-01 -2.16919994e+00
      2.75970012e-01 -8.26393008e-01 1.52640998e+00 2.45958996e+00
      -8.39538991e-01 3.66692996e+00 -1.52341998e+00 -2.25448996e-01
      -1.49401999e+00 -2.50233006e+00 -2.12006003e-01 -2.47305989e+00 0.
      0. 1.11435004e-01 3.40527010e+00 -1.25548005e+00 2.20928001e+00
      -7.05781984e+00 6.18010998e+00 -4.45945978e+00 7.20576000e+00
      -3.21495008e+00 6.02349997e+00 -1.91226006e+00 7.19778013e+00
      -6.53533995e-01 7.16901016e+00 -4.87807989e-01 8.47762966e+00
      1.79199004e+00 7.36640978e+00 -6.89163029e-01 7.46477985e+00
      -2.07337999e+00 6.30942011e+00 -3.24489999e+00 7.46631002e+00
      -4.48422003e+00 7.46940994e+00 -4.58655024e+00 7.33817005e+00
      -6.91519022e+00 7.37714005e+00 -3.22479010e+00 7.27988005e+00
      -8.31695974e-01 7.20898008e+00 -7.31200993e-01 7.27161980e+00
      6.76163018e-01 8.53853989e+00 -3.13455009e+00 6.27255011e+00
      -3.31138992e+00 5.04964018e+00 -4.54421997e+00 5.04418993e+00</_>
    <_>
      4.29437017e+00 3.81225991e+00 4.48402023e+00 2.12289000e+00
      3.41322994e+00 4.19600993e-01 3.55238008e+00 -1.29288995e+00
      4.83401012e+00 -3.04518008e+00 5.94238997e+00 -4.77495003e+00
      5.70125008e+00 -6.45748997e+00 2.96037006e+00 -8.03616047e+00
      7.51800984e-02 -9.47723007e+00 -4.28954989e-01 -6.11075020e+00
      -2.15256000e+00 -3.72128010e+00 -3.87176991e+00 -2.39300990e+00
      -1.96457005e+00 -2.13632011e+00 -3.49120998e+00 -1.70172000e+00
      -2.57205009e+00 -6.76880032e-02 -2.88723993e+00 -7.86078990e-01
      -3.11069012e+00 2.07319999e+00 1.59323001e+00 1.00158005e+01
      2.49303007e+00 1.37061996e+01 2.11754990e+00 1.36364002e+01
      1.71191001e+00 9.85412025e+00 2.58691001e+00 5.95249987e+00
      -5.12903976e+00 1.04991999e+01 -4.35906982e+00 1.04723997e+01
      -4.75278997e+00 9.16810989e+00 -2.71561003e+00 7.68778992e+00
      6.60552979e-01 3.72367001e+00 -1.15342999e+00 1.86391997e+00
      -9.97955024e-01 1.56835997e+00 -8.59314024e-01 7.97576979e-02
      -7.20703006e-01 -2.23480001e-01 8.82034004e-01 -1.56429005e+00
      7.36724973e-01 -2.87720990e+00 -6.09375000e-01 -4.15647984e+00
      -7.93289006e-01 -3.01447010e+00 2.15881005e-01 -3.07454991e+00 0.
      0. -2.13394001e-01 4.80692005e+00 6.42807007e-01 2.26537991e+00
      5.07080019e-01 7.53180981e-01 7.73787975e-01 -3.91754001e-01
      1.05251002e+00 -2.43988007e-01 -1.62170005e+00 -8.63471985e-01
      -7.23372996e-01 2.78557992e+00 -1.00975001e+00 2.65464997e+00 0.
      0. -2.13917994e+00 -1.20183003e+00 -6.59698009e-01 -1.08773005e+00
      3.82155991e+00 -1.16224003e+01 4.75978994e+00 -5.64543009e+00
      -2.60955989e-01 -3.19883990e+00 -4.39987004e-01 -4.52716017e+00
      5.27846992e-01 -4.58582020e+00 -4.49370003e+00 -7.14587021e+00
      -7.13050985e+00 -1.09663000e+01 -6.95050001e+00 -2.29008007e+01
      -3.09543991e+00 -2.40716000e+01 -1.71703005e+00 -2.51889992e+01
      -1.52253997e+00 -2.50797997e+01 4.67228985e+00 -2.26270008e+01
      4.92119980e+00 -1.05167999e+01 -1.59409001e-01 -2.19109011e+00
      -3.37067008e-01 -2.29268003e+00 6.53854012e-01 -2.40186000e+00
      -5.83632994e+00 -1.09369001e+01 -2.08368993e+00 -2.73812008e+01
      -1.85703003e+00 -2.61124992e+01 -5.03220022e-01 -2.60354996e+01</_>
    <_>
      -1.46528006e+00 -5.95892000e+00 -1.73046994e+00 -9.24015999e+00
      -4.30005980e+00 -1.38395996e+01 -6.95128012e+00 -1.61837006e+01
      -8.42455006e+00 -1.74416008e+01 -5.09947014e+00 -2.34400997e+01
      -3.04251003e+00 -2.72618999e+01 -1.07581997e+00 -3.23658981e+01
      2.80956006e+00 -3.28866997e+01 5.20530987e+00 -3.23286018e+01
      7.17829990e+00 -2.94719009e+01 6.62661982e+00 -2.43383999e+01
      9.48110962e+00 -1.90289993e+01 5.28225994e+00 -1.73164997e+01
      2.13564992e+00 -1.42721996e+01 1.29799998e+00 -9.99631977e+00
      1.61877000e+00 -6.78176022e+00 5.03814995e-01 -6.69215977e-01
      2.47592998e+00 3.55174994e+00 2.32559991e+00 1.00009003e+01
      1.68861002e-01 1.17145004e+01 -6.23016000e-01 1.12304001e+01
      -3.94478011e+00 1.37964001e+01 -2.80360007e+00 1.32383003e+01
      -2.58400011e+00 1.03297005e+01 -2.10941005e+00 5.17481995e+00
      3.28763008e+00 -7.25430012e-01 -8.05266976e-01 5.16390991e+00
      -2.58621007e-01 5.34854984e+00 -8.82934988e-01 5.49012995e+00
      -1.46422005e+00 4.46075010e+00 -1.34727001e+00 2.86776996e+00
      -1.17798996e+00 3.79769993e+00 -9.81200993e-01 3.52103996e+00
      2.07642004e-01 3.21742010e+00 2.05504999e-01 2.92182994e+00 0. 0.
      1.04358006e+00 8.27296972e-01 -3.77578996e-02 2.75287008e+00
      3.90922993e-01 1.34977996e+00 3.70514005e-01 5.66619992e-01
      1.40134001e+00 9.67406988e-01 -3.31191987e-01 2.20761991e+00
      6.55745983e-01 2.95375991e+00 -3.57573986e-01 1.37198997e+00 0. 0.
      1.22421002e+00 3.58657986e-01 1.08405995e+00 7.16414988e-01
      -7.02811003e+00 -1.63789005e+01 3.02079010e+00 -2.45988011e+00
      2.88903999e+00 2.95606995e+00 1.84428000e+00 5.01385021e+00
      7.24242985e-01 3.47872996e+00 -6.77184984e-02 -1.55036998e+00
      8.86238003e+00 -1.56282997e+01 1.28015006e+00 -2.83423996e+01
      5.19867003e-01 -3.85318985e+01 1.72543001e+00 -4.16850014e+01
      3.93168998e+00 -4.13278999e+01 4.56646013e+00 -3.39258003e+01
      -4.63362980e+00 -1.52907000e+01 1.99109006e+00 1.83213997e+00
      9.28299010e-01 2.72446990e+00 9.97268975e-01 2.39783001e+00
      8.76735020e+00 -1.31131001e+01 1.20389998e+00 -3.51161003e+01
      2.39199996e+00 -3.70882988e+01 3.41174006e+00 -3.68097000e+01</_>
    <_>
      -2.79065990e+00 -6.92261982e+00 -2.20079994e+00 -9.31830978e+00
      -3.97070003e+00 -1.03641996e+01 -4.46046019e+00 -1.02390003e+01
      -4.85493994e+00 -8.81993008e+00 -2.82350993e+00 -9.78923035e+00
      5.84526002e-01 -9.48773003e+00 1.74047995e+00 -6.61471987e+00
      1.74431002e+00 -4.86855984e+00 2.99110007e+00 -6.81366014e+00
      3.16529989e+00 -8.80457020e+00 4.52823019e+00 -1.20768995e+01
      4.90224981e+00 -1.18371000e+01 4.13024998e+00 -1.16732998e+01
      1.04382002e+00 -9.05823040e+00 -7.62390018e-01 -5.27212000e+00
      1.07138002e+00 -1.66489005e+00 -2.27818990e+00 -6.49701977e+00
      -6.93436027e-01 -3.85156989e+00 7.04062998e-01 -2.29718995e+00
      -4.55933005e-01 -6.25795007e-01 -1.66898000e+00 2.26128006e+00
      4.34755993e+00 1.44410002e+00 5.56486988e+00 -6.59210026e-01
      5.55669022e+00 -1.49616003e+00 6.57653999e+00 -2.40879011e+00
      7.53418016e+00 -2.22979999e+00 1.46394002e+00 1.24653995e+00
      -1.10473996e-02 1.30167997e+00 -3.12500000e-01 1.12113997e-01
      -5.94771981e-01 1.50726005e-01 -3.50545001e+00 -2.59314990e+00
      -2.33644009e+00 -2.44754004e+00 -1.20163000e+00 -3.49338007e+00
      -1.20644999e+00 -4.52662992e+00 -1.14153004e+00 -4.37099981e+00 0.
      0. 1.94205999e-01 2.17354000e-01 2.16399997e-01 5.18661022e-01
      1.23111999e+00 7.46901989e-01 -1.32964003e+00 -6.32744014e-01
      -1.43989995e-01 -9.87320006e-01 1.20633996e+00 4.10133004e-01
      2.68201995e+00 1.81620002e+00 1.42402995e+00 9.46547985e-01 0. 0.
      1.08717000e+00 -2.40425006e-01 1.13597000e+00 6.64810002e-01
      -1.35632000e+01 -2.18111992e+01 -6.68627977e+00 -6.10120010e+00
      -4.00380993e+00 -2.34259009e+00 -2.83741999e+00 -2.23245001e+00
      -1.61790001e+00 -3.33798003e+00 -7.33047009e-01 -9.23036003e+00
      6.78134012e+00 -2.74612007e+01 1.29240000e+00 -1.29434996e+01
      2.30178997e-01 -8.24985027e+00 -2.16300988e+00 -7.11137009e+00
      -3.36490011e+00 -7.21892023e+00 -5.90425014e+00 -1.09701996e+01
      -1.33765001e+01 -1.80650005e+01 -3.16861010e+00 -7.21552992e+00
      -3.17589998e+00 -7.07243013e+00 -2.02745008e+00 -9.38451958e+00
      6.96755981e+00 -2.39643002e+01 6.02752984e-01 -4.64197016e+00
      -5.45746028e-01 -2.32993007e+00 -2.99103999e+00 -3.59329009e+00</_>
    <_>
      5.69249988e-01 4.23957014e+00 2.09278989e+00 6.57696009e+00
      2.31779003e+00 4.99888992e+00 3.83186007e+00 4.70973015e+00
      1.36296999e+00 3.07279992e+00 -1.22177005e+00 7.81403035e-02
      -2.61450005e+00 -1.60895002e+00 -2.73763990e+00 -5.88396978e+00
      9.37758982e-01 -8.78345013e+00 5.84328985e+00 -6.38202000e+00
      5.45635986e+00 -2.58575010e+00 5.07891989e+00 -2.65641999e+00
      3.42144990e+00 -2.63001990e+00 1.79208004e+00 -1.17870998e+00
      2.81784010e+00 3.31146002e-01 3.85320997e+00 1.85081005e+00
      4.87880993e+00 2.08137989e+00 6.47239983e-02 3.01463008e+00
      -1.48552001e+00 3.57203007e-01 -4.08477992e-01 -1.10791004e+00
      7.17377007e-01 -2.37293001e-02 3.19060993e+00 -2.66952991e-01
      -6.24676991e+00 -5.99056005e-01 -5.18923998e+00 -7.46232986e-01
      -2.79410005e+00 3.86206001e-01 -2.95734000e+00 1.48014998e+00
      -3.96941990e-01 1.24726999e+00 -2.03076005e+00 -6.06350005e-01
      -5.56457996e-01 -7.60116994e-01 -3.90471995e-01 -9.23636973e-01
      -2.14752004e-01 -2.39546990e+00 2.75035000e+00 1.58089995e+00
      1.37514997e+00 1.44464004e+00 -9.70458984e-03 -7.62939017e-05
      -1.46288002e+00 2.51865005e+00 -1.58835006e+00 2.44987011e+00 0.
      0. -2.03155994e-01 -2.64738011e+00 -3.66820991e-01 -2.79397011e+00
      -3.84627998e-01 -4.09934998e-01 -2.30269998e-01 -1.61056006e+00
      -1.37495005e+00 -1.47372997e+00 -8.84796023e-01 -9.17640984e-01
      1.81473002e-01 -2.23744988e+00 3.73076983e-02 -2.40329003e+00 0.
      0. 1.54479995e-01 -1.22001004e+00 -9.99924004e-01 -2.37226009e+00
      1.50299997e+01 9.34848022e+00 1.08830004e+01 5.31478977e+00
      4.14828014e+00 2.57024002e+00 1.65894002e-01 2.44355989e+00
      -5.17346001e+00 2.33588004e+00 -1.05215998e+01 5.99825001e+00
      -9.34737968e+00 1.09885998e+01 -1.02774000e+01 -7.24861002e+00
      -4.79241991e+00 -1.75585003e+01 -7.51754999e-01 -1.87495003e+01
      4.55835009e+00 -1.73143005e+01 1.11465998e+01 -7.93193007e+00
      1.62808990e+01 7.96216011e+00 4.23615980e+00 6.37974977e+00
      2.43973002e-01 4.96401978e+00 -5.09536982e+00 6.15503979e+00
      -1.18675003e+01 8.43052959e+00 -4.94879007e+00 -1.47877998e+01
      3.90578985e-01 -1.72775993e+01 4.39238024e+00 -1.58521004e+01</_>
    <_>
      7.57601023e-01 5.78045988e+00 2.03673005e+00 7.51271009e+00
      2.18340993e+00 8.13547993e+00 1.21271002e+00 7.65599012e+00
      1.97230995e-01 6.06743002e+00 1.27400005e+00 6.63417006e+00
      1.10731995e+00 3.91843009e+00 2.96806002e+00 -2.05651999e+00
      3.58028007e+00 -3.46194005e+00 5.20718002e+00 -4.79108000e+00
      3.58446002e+00 -1.41343999e+00 1.94926000e+00 -1.23134995e+00
      3.83148015e-01 -2.04891992e+00 -1.06140006e+00 -1.64723003e+00
      -2.43816996e+00 -1.07101001e-01 -2.71268010e+00 2.52814007e+00
      -2.97217011e+00 2.95799994e+00 -1.87610996e+00 -7.30735016e+00
      -1.15892994e+00 -8.31264973e+00 -1.57123005e+00 -1.17535000e+01
      -1.95567000e+00 -1.52917004e+01 -2.28890991e+00 -1.55606003e+01
      5.67458987e-01 -1.68773003e+01 1.70745999e-01 -1.47610998e+01
      -1.81945994e-01 -1.15730000e+01 -1.58691001e+00 -7.37278986e+00
      -3.94003010e+00 -5.48515987e+00 2.13530993e+00 -4.92265987e+00
      2.27899003e+00 -2.97378993e+00 3.53256011e+00 -1.03243005e+00
      3.67588997e+00 -2.08443001e-01 6.40679979e+00 6.26958990e+00
      5.14572001e+00 3.95591998e+00 2.76732993e+00 2.75253010e+00
      3.75427008e-01 3.82892990e+00 -2.00177002e+00 6.00017023e+00 0. 0.
      -2.82943994e-01 -4.41189003e+00 6.08452022e-01 -2.32912993e+00
      -6.09961987e-01 7.79648006e-01 -3.70415002e-01 1.94439995e+00
      -1.25454998e+00 2.05912995e+00 -4.55794990e-01 2.99759001e-01
      -7.68082023e-01 -4.08920002e+00 1.22558999e+00 -3.12382007e+00 0.
      0. 1.32646000e+00 1.12785995e+00 4.64920014e-01 2.35957003e+00
      -3.96301007e+00 8.11083984e+00 -2.06270003e+00 5.93434000e+00
      -1.56676993e-01 5.88090992e+00 1.88812006e+00 5.69054985e+00
      4.94081020e+00 4.50391006e+00 6.90991020e+00 3.15295005e+00
      7.85808992e+00 3.99048996e+00 8.13292027e+00 -4.69909996e-01
      6.22690010e+00 -4.16458011e-01 4.26974010e+00 7.92679012e-01
      1.18137002e+00 2.05452991e+00 -8.17505002e-01 4.51607990e+00
      -4.07584000e+00 6.95094013e+00 1.04565001e+00 4.55289984e+00
      1.94446003e+00 3.32043004e+00 5.01141024e+00 2.10369992e+00
      7.96338987e+00 4.04051018e+00 6.13634014e+00 4.31583023e+00
      3.06186008e+00 4.42269993e+00 1.04606998e+00 5.67778015e+00</_>
    <_>
      -3.52225995e+00 -2.92724991e+00 -2.42500997e+00 -2.43966007e+00
      -1.29191995e+00 -1.90816998e+00 -7.92312995e-02 3.26537993e-03
      -2.23186001e-01 -2.11102009e+00 -1.51052999e+00 -6.23627007e-02
      -1.35885000e+00 -7.82958984e-01 -1.05246997e+00 -1.60058999e+00
      -1.84209001e+00 -1.22783995e+00 1.95206001e-01 -1.03982997e+00
      8.61588001e-01 -1.10133004e+00 1.61713004e-01 7.27081001e-02
      7.36786008e-01 -2.79861003e-01 1.17084002e+00 -7.51266003e-01
      1.53549004e+00 1.18010998e-01 1.84362996e+00 9.89692986e-01
      2.04904008e+00 -9.00924981e-01 -4.23516989e+00 5.07285023e+00
      -5.25936985e+00 3.60715008e+00 -2.10427999e+00 2.30910993e+00
      -3.93790990e-01 1.17273998e+00 1.26247001e+00 9.52797011e-02
      5.16692996e-01 4.32190001e-01 9.94843006e-01 1.85240996e+00
      2.83452010e+00 3.29578996e+00 4.58880997e+00 3.49549007e+00
      3.43871999e+00 6.67225981e+00 1.34011996e+00 -7.69626975e-01
      1.16127002e+00 -4.33434010e-01 9.82361019e-01 -9.72366035e-02
      7.93151975e-01 2.62046993e-01 -1.15038002e+00 -9.50272024e-01
      3.96026999e-01 -8.44025016e-01 1.99890006e+00 6.31789982e-01
      2.21731997e+00 -6.69785023e-01 3.81789994e+00 -6.22437000e-01 0.
      0. -1.06585002e+00 -1.37711002e-03 -7.42401004e-01 1.44027993e-01
      -1.99733996e+00 -2.24185991e+00 -9.23492014e-01 -9.48279977e-01
      1.12205997e-01 -1.12711000e+00 1.86585999e+00 -3.94477993e-01
      8.66973996e-01 -4.21290994e-01 1.19043005e+00 -2.75887012e-01 0.
      0. 1.06582999e+00 1.37328997e-03 7.19359994e-01 -1.52634001e+00
      -1.92963004e+00 -1.70044005e+00 -1.54620004e+00 -1.75029004e+00
      -2.50925994e+00 -3.61312985e-01 -9.60601985e-01 -1.98440999e-01
      -6.98364019e-01 -1.63910002e-01 -4.60341990e-01 1.09695002e-01
      1.08266997e+00 4.08843994e-01 -7.01430976e-01 -7.87369013e-01
      -1.02037001e+00 1.92421997e+00 -1.28483999e+00 4.61227000e-01
      -2.88778996e+00 3.57300013e-01 -3.12589002e+00 8.36639032e-02
      -1.76787996e+00 -1.62775004e+00 -1.28511000e+00 -9.43604037e-02
      -1.07481003e+00 5.57098016e-02 5.59203982e-01 1.46222997e+00
      -4.38248008e-01 3.69567990e-01 -8.56491029e-01 1.26083001e-01
      -2.48016000e+00 -1.30357003e+00 -2.70080996e+00 -1.43052995e+00</_>
    <_>
      1.71608996e+00 -2.33224010e+00 1.96061003e+00 -4.55564022e+00
      1.06356001e+00 -5.58416986e+00 1.24030995e+00 -5.49528980e+00
      3.47504997e+00 -5.32629013e+00 6.52468014e+00 -5.97645998e+00
      7.34708023e+00 -6.33122015e+00 5.95212984e+00 -7.42560005e+00
      4.61339998e+00 -1.01419001e+01 1.31638002e+00 -1.13464003e+01
      -4.77043009e+00 -1.21082001e+01 -6.17960978e+00 -1.07130003e+01
      -5.10709000e+00 -9.31062031e+00 -4.78131008e+00 -9.08652973e+00
      -5.30184984e+00 -5.59778976e+00 -4.67593002e+00 -1.04015005e+00
      -5.01247978e+00 3.45919991e+00 -7.04243004e-01 4.33727980e+00
      2.47427011e+00 5.26265001e+00 2.94325995e+00 7.20404005e+00
      4.21927023e+00 9.86347008e+00 2.10909009e+00 1.11802998e+01
      1.88290000e+00 5.12638998e+00 1.17418003e+00 2.72433996e+00
      -8.87009025e-01 -9.76530015e-01 -8.44771981e-01 -7.23698020e-01
      4.28101003e-01 1.67084001e-02 8.32458019e-01 2.94331002e+00
      -8.35388005e-01 1.01508999e+00 -1.41984999e+00 -9.88189995e-01
      -2.04301000e+00 -4.09906006e+00 -4.54163015e-01 -6.11777020e+00
      -2.04612994e+00 -6.01808023e+00 -1.47117996e+00 -5.91102982e+00
      -2.91747999e+00 -5.43604994e+00 -2.14856005e+00 -5.03856993e+00 0.
      0. 7.90908992e-01 -5.40633976e-01 1.26684999e+00 -1.23841000e+00
      1.62608004e+00 -1.68816000e-01 2.08818007e+00 3.93509001e-01
      1.59779000e+00 1.99584998e-02 -5.25817990e-01 2.29700994e+00
      -9.44091976e-01 -2.99057007e-01 -1.58800006e+00 -1.05499005e+00 0.
      0. 2.90176004e-01 -5.08841991e-01 -1.37268007e-01 2.61543006e-01
      -1.01085997e+01 -2.09279003e+01 -5.00824022e+00 -2.16476002e+01
      -2.13530993e+00 -2.23866005e+01 -1.56280994e+00 -2.34115009e+01
      -2.97519994e+00 -2.40925999e+01 7.70020008e-01 -2.18377991e+01
      6.40868998e+00 -2.84610004e+01 3.97847009e+00 -1.36496000e+01
      2.93121010e-01 -5.23945999e+00 7.07015991e-01 -4.43486023e+00
      4.72411998e-02 -4.59032011e+00 -3.92314005e+00 -1.00951996e+01
      -1.13808002e+01 -1.85646992e+01 -2.08618000e-01 -2.17679005e+01
      -1.76659000e+00 -2.26669006e+01 -2.15618992e+00 -2.34351997e+01
      7.82610989e+00 -2.53586998e+01 -2.73972005e-01 -1.32114005e+00
      -9.92020011e-01 -5.14129996e-01 -5.17455995e-01 4.59899992e-01</_>
    <_>
      3.86327004e+00 -6.02569008e+00 3.56132007e+00 -7.51009989e+00
      3.12491012e+00 -7.80298996e+00 2.69356990e+00 -8.04584980e+00
      3.10918999e+00 -7.04247999e+00 3.16415000e+00 -8.15637016e+00
      3.03946996e+00 -9.04996014e+00 3.67294014e-01 -9.84237957e+00
      -1.24744999e+00 -9.83020020e+00 -2.80620003e+00 -8.24184990e+00
      -5.01692009e+00 -9.51774979e+00 -5.81057978e+00 -9.40320015e+00
      -5.27322006e+00 -1.02957001e+01 -5.52615023e+00 -8.80556965e+00
      -5.45520020e+00 -9.65349960e+00 -6.50009012e+00 -9.36472988e+00
      -7.58444023e+00 -7.94454002e+00 3.62933993e-01 -2.81563997e+00
      -4.94301987e+00 -5.77190018e+00 -4.74803019e+00 -1.00964003e+01
      -3.47609997e+00 -1.23736000e+01 -2.29852009e+00 -1.25380001e+01
      -3.28323007e-01 -1.09961996e+01 -1.27203000e+00 -9.31865025e+00
      -1.78528000e-02 -6.68054008e+00 -2.31256008e+00 -3.16957998e+00
      -5.53432989e+00 -1.73366994e-01 1.04646003e+00 -3.13529998e-01
      1.99713004e+00 -3.72695997e-02 1.89042997e+00 -2.11332989e+00
      2.84105992e+00 -1.83709002e+00 1.27639994e-01 1.87873995e+00
      2.04936004e+00 -4.64278996e-01 1.56879997e+00 -1.74495006e+00
      1.05470002e+00 -3.12988013e-01 6.35528982e-01 1.05887997e+00 0. 0.
      -5.00739992e-01 -3.02837992e+00 9.67299998e-01 -2.81821990e+00
      1.33425999e+00 -7.99919009e-01 7.29263008e-01 3.46516991e+00
      -7.88757026e-01 3.26007009e+00 -1.45480001e+00 -4.16245013e-01
      -8.93158019e-01 -1.04231000e+00 -5.11551023e-01 -9.26769018e-01 0.
      0. -8.10028017e-01 4.23537016e+00 -2.33340001e+00 2.95393991e+00
      -2.53307009e+00 3.09837008e+00 -9.48882997e-01 4.97966003e+00
      -4.91959006e-01 5.34004021e+00 9.84344035e-02 2.97772002e+00
      -1.70203996e+00 4.33533001e+00 -1.28032994e+00 5.37215996e+00
      -8.33953977e-01 6.15407991e+00 -1.43668997e+00 4.32752991e+00
      -7.32773006e-01 2.77534008e+00 -9.31091011e-02 2.60949993e+00
      5.22231996e-01 3.72500992e+00 -1.01540995e+00 3.82487011e+00
      -5.99632025e-01 4.43923998e+00 -5.18249989e-01 3.55888009e+00
      4.26940992e-02 2.42782998e+00 -1.76285994e+00 3.73550010e+00
      -1.58089995e+00 4.89770985e+00 -5.47011971e-01 2.58864999e+00
      4.26940992e-02 2.42782998e+00 1.79451001e+00 3.63290000e+00</_>
    <_>
      -3.67402005e+00 -8.11250019e+00 -3.34266996e+00 -1.02278004e+01
      -6.13084984e+00 -1.34574003e+01 -6.75194979e+00 -1.45483999e+01
      -5.09994984e+00 -1.67821007e+01 -2.21846008e+00 -1.59658003e+01
      -2.39830995e+00 -1.00099001e+01 -3.49287009e+00 -1.42670006e-01
      -1.29004002e+00 1.92553997e+00 8.65005016e-01 4.85565007e-01
      2.71802998e+00 -6.62408018e+00 3.28133988e+00 -9.67661953e+00
      7.87563992e+00 -9.59031963e+00 6.94402981e+00 -9.59634018e+00
      4.80575991e+00 -9.65256977e+00 3.71915007e+00 -7.52809000e+00
      3.57125998e+00 -6.49853992e+00 -3.12764001e+00 9.91757965e+00
      -1.65524006e+00 1.14305000e+01 1.25922993e-01 1.43007002e+01
      2.00391006e+00 1.63950005e+01 2.77889991e+00 1.55248003e+01
      -7.48836994e+00 1.51617002e+01 -2.62177992e+00 1.67954998e+01
      -8.06427002e-01 1.44075003e+01 2.09348011e+00 1.23865995e+01
      4.80749989e+00 9.64443970e+00 5.42434990e-01 7.76749992e+00
      6.85836971e-01 8.50953960e+00 8.29239011e-01 9.25156021e+00
      9.72640991e-01 9.99361038e+00 2.76015997e-01 6.40355015e+00
      -3.94942999e-01 7.55671978e+00 4.95757982e-02 8.66775990e+00
      2.59853005e+00 7.43497992e+00 2.92458010e+00 7.22538996e+00 0. 0.
      -6.87865973e-01 4.84449005e+00 -1.09662998e+00 4.75008011e+00
      -1.54429996e+00 -2.21755996e-01 -9.74898994e-01 -2.03907990e+00
      4.85489011e-01 -8.50890994e-01 1.62742996e+00 4.62296009e-01
      9.54406977e-01 4.10699987e+00 -5.54977000e-01 5.02887011e+00 0. 0.
      -3.27225000e-01 -6.93831980e-01 9.51538011e-02 -5.28747976e-01
      -9.04311985e-02 -6.72701979e+00 2.44843006e+00 4.46252012e+00
      1.93605006e+00 8.36942959e+00 1.22292995e+00 9.49411011e+00
      2.68492007e+00 8.26136971e+00 3.31856990e+00 4.15760994e+00
      7.11836004e+00 -9.27056980e+00 3.58489990e+00 -1.29426003e+01
      3.06731009e+00 -1.47599001e+01 2.65013003e+00 -1.35556002e+01
      2.24779010e+00 -1.35511999e+01 2.67944002e+00 -1.26308002e+01
      1.50101006e-01 -4.63625002e+00 9.24193978e-01 1.20190001e+01
      1.28438997e+00 1.30730000e+01 3.81166005e+00 1.19177999e+01
      5.81255007e+00 -8.17798042e+00 2.92952991e+00 -1.96308994e+01
      2.54085994e+00 -1.73819008e+01 1.08690000e+00 -1.73841991e+01</_>
    <_>
      1.66990995e+00 9.74624991e-01 1.22281003e+00 -1.58861005e+00
      1.76909006e+00 -4.10577011e+00 1.30962002e+00 -5.62249994e+00
      1.84941006e+00 -8.11071968e+00 1.26671004e+00 -1.03397999e+01
      1.63739002e+00 -1.43263998e+01 9.58054006e-01 -1.51328001e+01
      2.30919003e+00 -1.47122002e+01 1.71027994e+00 -1.42084999e+01
      2.03017995e-01 -1.36555996e+01 -1.60918996e-01 -1.19891996e+01
      -2.40204006e-01 -1.33459997e+01 -4.56543006e-02 -1.37137003e+01
      -7.86742985e-01 -1.10731001e+01 -4.86541986e-01 -9.45534992e+00
      -2.20977998e+00 -6.84311008e+00 -1.37696004e+00 9.57000971e-01
      6.33010983e-01 4.59706020e+00 1.28533995e+00 9.11314011e+00
      -2.46864006e-01 1.35383997e+01 2.13561997e-01 1.27348003e+01
      -4.98795003e-01 1.41257000e+01 -1.87502003e+00 1.25181999e+01
      -2.32397008e+00 6.74483013e+00 -1.80333996e+00 7.84377992e-01
      -2.69439995e-01 -2.44864988e+00 6.95724010e-01 2.37120008e+00
      4.93712991e-01 2.05254006e+00 3.14758003e-01 -2.83538997e-01
      1.00922003e-01 -1.60854006e+00 2.26607990e+00 -2.44858003e+00
      1.01303005e+00 -3.34383988e+00 7.42766976e-01 -3.22211003e+00
      -4.83063012e-01 -4.03533983e+00 -6.96700990e-01 -2.83646011e+00 0.
      0. 1.88654006e+00 4.03854012e-01 5.79246998e-01 6.06460989e-01
      -8.50952029e-01 1.60294998e+00 3.93188000e-01 3.52126986e-01
      -3.10454994e-01 9.75494012e-02 -1.32980004e-01 1.48569000e+00
      7.12997019e-01 8.59584987e-01 3.83102000e-01 1.04393005e+00 0. 0.
      2.14187995e-01 -2.10251004e-01 5.38132012e-01 6.22970998e-01
      -1.98892999e+00 -7.84990978e+00 -1.46544993e-01 -8.30774021e+00
      6.46880984e-01 -7.91149998e+00 3.83056998e-01 -7.81869984e+00
      1.74179003e-01 -6.57320976e+00 8.00400019e-01 -7.50674009e+00
      1.32389998e+00 -8.52402020e+00 -4.07364011e-01 -9.86641979e+00
      -1.22910000e-01 -1.11101999e+01 1.13692999e-01 -1.12849998e+01
      -6.67205989e-01 -1.14658003e+01 -3.76937985e-01 -1.06857004e+01
      -3.12563992e+00 -7.73061991e+00 -4.92965996e-01 -9.17632961e+00
      2.76717991e-01 -9.01331043e+00 -9.66262996e-01 -8.82668972e+00
      2.47657990e+00 -8.57898045e+00 1.70898009e-02 -9.86252022e+00
      -7.40218997e-01 -1.10719995e+01 4.90355998e-01 -1.02122002e+01</_>
    <_>
      -1.03987002e+00 3.43190002e+00 1.24492999e-02 2.73848009e+00
      -1.59202993e-01 2.05527997e+00 -3.10054988e-01 2.62705994e+00
      -1.58113003e+00 3.20820999e+00 -3.90997005e+00 2.58443999e+00
      -4.93195009e+00 1.93941998e+00 -3.39201999e+00 7.53783993e-03
      -4.01565999e-01 -8.88763011e-01 2.65984011e+00 5.06896973e-01
      2.04714990e+00 1.67379999e+00 2.62655997e+00 3.98224998e+00
      6.84448004e-01 4.95279980e+00 1.10605001e+00 7.00322008e+00
      2.65774989e+00 8.97161961e+00 4.19922018e+00 8.47122002e+00
      4.50649977e+00 9.24666977e+00 -1.60198998e+00 -1.78125000e+00
      2.49710009e-02 -1.98152995e+00 1.71572995e+00 -1.99562001e+00
      8.97758007e-01 6.77168012e-01 2.43593001e+00 2.27222991e+00
      -4.31403017e+00 1.60441995e-01 -1.38866997e+00 1.67174995e-01
      2.82990009e-01 1.59514999e+00 5.66177011e-01 -5.23383975e-01
      6.32140994e-01 1.16692996e+00 7.65075982e-02 -7.78648019e-01
      -1.07101001e-01 -1.64848006e+00 -2.80501992e-01 -1.29433000e+00
      -1.68805003e+00 -9.09195006e-01 2.75170994e+00 2.81937003e+00
      4.29596007e-01 1.75989997e+00 -6.16653025e-01 1.93458998e+00
      -2.86736989e+00 1.97411001e+00 -3.86304998e+00 3.23758006e+00 0.
      0. -2.21968007e+00 -3.70556998e+00 5.09299994e-01 -3.61420012e+00
      7.18491018e-01 -9.18853998e-01 4.48089987e-01 1.49003994e+00
      -2.27067995e+00 2.62265992e+00 -1.94289005e+00 -1.61243999e+00
      -1.65213001e+00 -4.06300020e+00 -1.57333001e-01 -2.69577003e+00 0.
      0. -2.39364997e-01 2.39826012e+00 -4.89349008e-01 1.03104997e+00
      1.43203001e+01 1.67789993e+01 1.09910002e+01 1.43585997e+01
      5.17253017e+00 1.32349005e+01 4.74730998e-01 1.46434002e+01
      -1.74451995e+00 1.47241001e+01 -7.61356020e+00 1.50011997e+01
      -1.22896996e+01 1.65235996e+01 -7.85794020e+00 1.86008000e+00
      -3.37603998e+00 -5.54239988e+00 1.29117000e+00 -6.88835001e+00
      5.97832012e+00 -5.83823013e+00 1.19497995e+01 2.44189000e+00
      1.32110996e+01 1.56264000e+01 5.07053995e+00 1.46879997e+01
      3.62549007e-01 1.36276999e+01 -3.08068991e+00 1.49633999e+01
      -1.11903000e+01 1.40143995e+01 -1.99907005e+00 -4.62026978e+00
      1.43395996e+00 -5.93518019e+00 4.90733004e+00 -4.89565992e+00</_>
    <_>
      1.45997000e+00 -3.15559000e-01 1.26504004e+00 -1.73204005e+00
      1.07743001e+00 -4.29526997e+00 7.91893005e-01 -4.50888014e+00
      -1.88363004e+00 -3.57873988e+00 -4.55657005e+00 -3.72514009e+00
      -4.86665010e+00 -4.87588978e+00 -6.32712984e+00 -5.98120022e+00
      -6.61317015e+00 -5.79766989e+00 -3.33999991e+00 -4.22494984e+00
      -3.56524992e+00 -3.92394990e-01 -2.46230006e+00 2.74657999e-04
      -3.58607006e+00 3.03420991e-01 -2.27804995e+00 6.65893972e-01
      -9.14978027e-01 9.96841013e-01 5.10497987e-01 1.49444997e-01
      7.47986019e-01 4.21494007e-01 -1.97412002e+00 1.12783003e+00
      -7.66411006e-01 2.39135996e-01 -2.00407004e+00 -1.93658996e+00
      -1.09800994e+00 -5.95324993e-01 -1.61034003e-01 -4.87513989e-01
      -2.77817988e+00 -2.85930991e-01 -1.65952003e+00 -1.16301000e+00
      -1.77072001e+00 -2.12370992e+00 -8.64655018e-01 -7.82446027e-01
      -2.23011994e+00 -1.98725998e+00 -1.66921997e+00 -1.79910004e+00
      -3.00434995e+00 -2.02223992e+00 -3.16810989e+00 -2.20988989e+00
      -4.45952988e+00 -3.59496999e+00 -2.14090991e+00 -3.13217014e-01
      -3.44003010e+00 -2.86819011e-01 -3.57718992e+00 -2.16704994e-01
      -5.99031019e+00 -1.60095006e-01 -6.02526999e+00 -1.20386004e+00 0.
      0. -1.18175006e+00 -1.05112004e+00 -1.27758002e+00 -2.10786009e+00
      -1.51574004e+00 -9.41429019e-01 -1.40195000e+00 -1.05726004e+00
      -1.27060997e+00 -1.17188001e+00 -1.99041998e+00 -1.61793995e+00
      -8.41614008e-01 -1.38100004e+00 2.14766994e-01 -1.21211004e+00 0.
      0. 6.22559004e-02 -1.36986002e-01 -9.94109988e-01 -3.05855006e-01
      1.02055998e+01 1.13723001e+01 4.45077991e+00 6.70970011e+00
      -1.45028996e+00 5.49663019e+00 -5.03908014e+00 4.28191996e+00
      -8.63173962e+00 4.29362011e+00 -1.47852001e+01 8.87047958e+00
      -1.98887005e+01 1.57868004e+01 -1.59533997e+01 2.81632996e+00
      -1.10177002e+01 -3.06117010e+00 -6.20994997e+00 -4.19935989e+00
      -2.62000990e+00 -3.00219989e+00 4.41963005e+00 1.84484994e+00
      1.02192001e+01 9.09632969e+00 -1.56770003e+00 6.57419014e+00
      -5.15763998e+00 5.37702990e+00 -8.79399014e+00 6.55072021e+00
      -1.97612991e+01 1.33950005e+01 -9.72233963e+00 -2.90252995e+00
      -6.08594990e+00 -4.07618999e+00 -2.49602008e+00 -2.87906003e+00</_>
    <_>
      4.09119010e-01 8.23902988e+00 -1.34732997e+00 6.48109007e+00
      -2.70767003e-01 7.70757008e+00 8.18050027e-01 7.49106979e+00
      4.75071013e-01 5.84451008e+00 1.49419999e+00 5.78817987e+00
      1.09142005e+00 4.36499023e+00 -7.57598996e-01 3.00469995e+00
      3.83026004e-01 4.30756003e-01 6.69097975e-02 2.22451997e+00
      -2.64586993e-02 1.19124997e+00 -5.68847992e-02 1.60414004e+00
      -1.49145997e+00 4.88082981e+00 -2.76134992e+00 6.67095995e+00
      -2.52600002e+00 7.03257990e+00 -2.28948998e+00 7.36916018e+00
      -5.98357975e-01 9.18702030e+00 5.27508020e-01 -1.45826995e+00
      -9.52133000e-01 -2.65194011e+00 -1.08776999e+00 -5.31874990e+00
      1.95755005e-01 -9.45547009e+00 1.38296998e+00 -1.07847996e+01
      2.44571996e+00 -1.03999004e+01 2.29518008e+00 -8.66172981e+00
      2.03412008e+00 -4.07910013e+00 1.73737001e+00 -9.91707027e-01
      -1.48666000e+00 1.86862004e+00 -6.85882986e-01 -6.82358027e-01
      -9.02984977e-01 5.63416004e-01 -1.12114000e+00 1.83421004e+00
      1.15555003e-01 3.13036990e+00 5.56792989e-02 8.57516003e+00
      -2.22625993e-02 5.73511982e+00 -1.60570002e+00 5.77957010e+00
      -3.15336990e+00 7.31920004e+00 -4.72642994e+00 1.03137999e+01 0.
      0. -1.41251004e+00 -5.64659023e+00 1.30209994e+00 -3.98528004e+00
      -4.81689006e-01 1.84933996e+00 1.08102000e+00 1.70360994e+00
      -1.65883994e+00 1.49717999e+00 -1.09707999e+00 2.43774009e+00
      4.23386008e-01 -4.56302977e+00 1.72141004e+00 -4.39388990e+00 0.
      0. 1.46201003e+00 2.76185989e+00 1.63925007e-01 2.59275007e+00
      -1.67593002e+00 1.37845001e+01 -2.31383994e-01 1.11484003e+01
      -2.63565004e-01 8.41073990e+00 -1.87204003e+00 8.45411968e+00
      -1.95371997e+00 8.60120964e+00 -2.17098999e+00 1.15916996e+01
      -5.35928011e+00 1.59471998e+01 -3.79474998e+00 1.14083996e+01
      -3.68668008e+00 9.78137016e+00 -2.10086012e+00 8.23085022e+00
      -1.99545002e+00 9.56583977e+00 -1.86632001e+00 1.23830004e+01
      -1.72929001e+00 1.38575001e+01 -3.59436005e-01 8.30618000e+00
      -1.94395006e+00 8.37570000e+00 -3.49251008e+00 8.48435974e+00
      -3.82682991e+00 1.44695997e+01 -3.50448990e+00 8.47130013e+00
      -1.95592999e+00 8.36260986e+00 -3.34136993e-01 6.85129023e+00</_>
    <_>
      2.37535000e+00 -1.62678003e+00 2.31219006e+00 -2.21181011e+00
      3.65967011e+00 -2.76094007e+00 4.99559021e+00 -1.89902997e+00
      4.82189989e+00 -3.87284994e+00 4.48872995e+00 -4.31642008e+00
      5.45488977e+00 -3.16873002e+00 6.39587021e+00 -4.86828995e+00
      5.80096006e+00 -6.38683987e+00 5.17885017e+00 -4.84006023e+00
      3.17950010e+00 -4.59386015e+00 1.21566999e+00 -5.73398018e+00
      -5.91888011e-01 -8.20969009e+00 -2.23090005e+00 -7.68974018e+00
      -5.20868015e+00 -7.13151979e+00 -3.81981993e+00 -7.97196007e+00
      -5.31363010e+00 -7.40092993e+00 -9.78507996e-01 1.18937998e+01
      3.06576991e+00 1.66455994e+01 5.47146988e+00 2.26229000e+01
      7.89277983e+00 2.40505009e+01 8.85647964e+00 2.53441010e+01
      -9.13506985e+00 2.38008003e+01 -8.18904018e+00 2.39748001e+01
      -5.75658989e+00 2.11203003e+01 -1.81246996e+00 1.51889000e+01
      2.24408007e+00 1.34200001e+01 -5.17425984e-02 8.86793995e+00
      -1.48257005e+00 5.69295979e+00 -1.79749001e-02 2.51798010e+00
      -1.46036994e+00 7.54043996e-01 1.85713005e+00 2.50214010e-01
      1.63865995e+00 2.22183004e-01 -1.51977995e-02 1.82205006e-01
      1.23708999e+00 1.67532003e+00 -3.81301999e-01 2.49054000e-01 0. 0.
      -2.58904010e-01 1.65016997e+00 8.72192025e-01 2.21458003e-01
      5.71624994e-01 1.45730996e+00 8.65149975e-01 1.36494005e+00
      -2.53585994e-01 1.33396006e+00 -5.72021008e-01 1.46245003e+00
      -8.55620980e-01 2.41099998e-01 2.63900995e-01 2.23415002e-01 0. 0.
      2.69226015e-01 -9.28039998e-02 -8.50327015e-01 -7.51342997e-02
      9.65721989e+00 -6.37066984e+00 4.93309021e+00 -3.55042011e-01
      2.23450005e-01 1.18381000e+00 -2.91402006e+00 1.10674000e+00
      -4.60583019e+00 2.59904003e+00 -7.80307007e+00 1.01239002e+00
      -9.52583027e+00 -5.06291008e+00 -6.26259995e+00 -1.10179996e+01
      -4.49743986e+00 -1.25333004e+01 1.00906000e-01 -1.25167999e+01
      1.80388999e+00 -1.25003996e+01 6.47396994e+00 -1.24097004e+01
      9.48694992e+00 -6.37354994e+00 2.15149000e-01 2.40028000e+00
      -1.47542000e+00 3.81955004e+00 -3.17870998e+00 3.82742000e+00
      -9.35593987e+00 -5.03573990e+00 -4.45328999e+00 -1.51604004e+01
      -1.32655001e+00 -1.37208996e+01 3.63983005e-01 -1.51401997e+01</_>
    <_>
      9.41675007e-01 8.34702969e+00 5.87255001e-01 7.76184988e+00
      1.55411005e-01 8.66742992e+00 2.65879011e+00 8.16835022e+00
      2.24979997e+00 4.75722980e+00 3.09928012e+00 4.43955994e+00
      9.93614018e-01 2.77807999e+00 3.24295014e-01 1.28024006e+00
      1.13462996e+00 -1.34353995e+00 -9.44031000e-01 -1.00329995e+00
      -1.31059003e+00 -1.89287996e+00 -3.03261995e+00 -1.30927002e+00
      -4.64236021e+00 2.22946000e+00 -5.97375011e+00 2.85539007e+00
      -4.35818005e+00 5.01471996e+00 -5.68939018e+00 8.55288982e+00
      -3.99640012e+00 9.22152042e+00 -6.80320978e-01 -1.24506998e+00
      -8.74877989e-01 -2.30445004e+00 -1.22777998e+00 -4.96609020e+00
      -1.59286007e-01 -9.16139030e+00 8.14391971e-01 -9.13175964e+00
      6.53839037e-02 -1.02531996e+01 1.14911997e+00 -6.92676020e+00
      -7.60146976e-01 -3.78088999e+00 -1.27374005e+00 -7.01072991e-01
      -4.65996981e+00 2.05144000e+00 1.70897995e-03 8.35753977e-01
      -1.67635000e+00 1.86447001e+00 -1.87523997e+00 1.48863006e+00
      -6.32309020e-01 2.60618997e+00 9.83963013e-01 7.95637989e+00
      -6.87592030e-01 6.50362015e+00 -2.35921001e+00 5.05092001e+00
      -4.01027012e+00 6.62522984e+00 -5.68712997e+00 9.66722012e+00 0.
      0. -1.55367994e+00 -5.62598991e+00 -4.47472006e-01 -3.98256993e+00
      -9.15344000e-01 1.83419001e+00 -6.91649973e-01 3.09742999e+00
      -1.79780996e+00 1.45401001e+00 -6.75719976e-01 2.43969989e+00
      -7.64557004e-01 -4.55347013e+00 1.86082006e+00 -4.36348009e+00 0.
      0. 1.59089994e+00 2.72804999e+00 4.33090001e-01 2.56382990e+00
      -3.46659994e+00 1.13084002e+01 -7.23114014e-01 1.02372999e+01
      -8.83728027e-01 7.52068996e+00 -1.15076005e+00 7.54710007e+00
      -1.34855998e+00 7.72843981e+00 -1.69291997e+00 1.07017002e+01
      -4.98143005e+00 1.20783005e+01 -3.33643007e+00 1.03516998e+01
      -3.07282996e+00 7.19775009e+00 -1.38428998e+00 7.09381008e+00
      -1.15178001e+00 8.44604015e+00 -2.32647991e+00 9.83847046e+00
      -3.58415008e+00 1.13919001e+01 -9.76043999e-01 7.31411982e+00
      -1.22000003e+00 7.39213991e+00 -2.89699006e+00 7.52190018e+00
      -3.41051006e+00 1.20578003e+01 -2.90848994e+00 7.49605989e+00
      -1.23152006e+00 7.36633015e+00 -9.50272024e-01 5.84644985e+00</_>
    <_>
      -2.23680997e+00 -3.50647002e-01 -1.17157996e+00 -5.74326992e+00
      -2.28801990e+00 -1.12049999e+01 -3.48125005e+00 -1.44856997e+01
      -6.87982988e+00 -1.67362003e+01 -9.17609978e+00 -1.89011002e+01
      -8.05856037e+00 -2.41742001e+01 -5.99174976e+00 -2.50072994e+01
      -3.82013011e+00 -2.58013992e+01 -1.68832004e+00 -2.33026009e+01
      2.76536989e+00 -2.18481998e+01 7.12158012e+00 -1.71515999e+01
      8.27875996e+00 -1.37042999e+01 5.14056015e+00 -1.15682001e+01
      1.97397006e+00 -8.37162971e+00 2.04056001e+00 -3.96931005e+00
      3.19887996e+00 4.56099987e-01 -1.31393003e+01 4.78704023e+00
      -1.60573997e+01 -1.76938999e+00 -1.26372004e+01 -4.76145983e+00
      -1.04308004e+01 -5.60681009e+00 -6.11167002e+00 -6.38831997e+00
      7.17475986e+00 -1.10868998e+01 9.49724960e+00 -1.30321999e+01
      1.26559000e+01 -9.47579002e+00 1.46013002e+01 -3.78029990e+00
      1.10670996e+01 5.81375003e-01 1.52541995e-01 -2.76044011e+00
      -1.12888002e+00 -1.72783995e+00 -2.36908004e-01 -6.19033992e-01
      -1.51832998e+00 4.13551003e-01 5.48575997e-01 3.73672009e-01
      5.97075999e-01 -1.74028003e+00 -1.61230004e+00 -1.74992001e+00
      -3.80711007e+00 -6.57288015e-01 -4.91134977e+00 4.73755002e-01 0.
      0. 6.29578009e-02 8.18938985e-02 9.89075005e-02 -8.77914011e-01
      2.24762011e+00 -1.77392995e+00 1.14601001e-01 -4.15722990e+00
      1.16447002e-01 -4.28029013e+00 -2.17022991e+00 -4.14786994e-01
      3.23638991e-02 8.72711003e-01 -1.02158999e+00 -1.33156002e-01 0.
      0. -1.01416004e+00 -3.40539002e+00 -9.96414006e-01 -3.53494000e+00
      -8.90832996e+00 -1.86802006e+01 -4.99251992e-01 -7.36217022e+00
      -2.79570007e+00 -2.97381997e+00 -1.73589003e+00 -2.83765006e+00
      -6.67877018e-01 -1.61510003e+00 -3.70317006e+00 -9.24330044e+00
      2.06212997e+00 -1.98311996e+01 -3.92667007e+00 -3.76302986e+01
      -1.54454005e+00 -4.42145004e+01 -1.51373005e+00 -4.54057007e+01
      -1.54440999e+00 -4.44146996e+01 -6.83127999e-01 -3.68549995e+01
      -9.99477005e+00 -1.86720009e+01 -2.60402989e+00 -1.06057997e+01
      -2.61118007e+00 -1.05139999e+01 -1.52070999e+00 -1.03753996e+01
      4.28576994e+00 -2.08985004e+01 -1.75882006e+00 -3.44048996e+01
      -6.76468015e-01 -3.44594994e+01 -2.84212995e+00 -3.46352997e+01</_>
    <_>
      -3.10240006e+00 5.94769001e+00 -1.05127001e+00 2.98241997e+00
      -3.81469999e-06 1.52588000e-05 1.71470996e-02 -9.99877989e-01
      -9.48428988e-01 -3.01672006e+00 1.06842005e+00 -3.98224998e+00
      4.11939001e+00 -6.93041992e+00 6.13621998e+00 -7.89593983e+00
      9.13580036e+00 -7.84454012e+00 9.15295029e+00 -8.84442043e+00
      8.17022991e+00 -9.86135960e+00 9.18723011e+00 -1.08441000e+01
      8.23880005e+00 -1.38607998e+01 4.27370977e+00 -1.59291000e+01
      2.23965001e+00 -1.39636002e+01 1.20556998e+00 -1.19811001e+01
      -1.82831001e+00 -1.00327997e+01 -3.05098009e+00 2.94813991e+00
      -1.08555996e+00 4.98213005e+00 -1.54258996e-01 8.99866962e+00
      -2.22801000e-01 1.29981003e+01 7.77054012e-01 1.30151997e+01
      -3.23952007e+00 1.39464998e+01 -4.18794012e+00 1.09298000e+01
      -5.06783009e+00 3.91371012e+00 -3.98227000e+00 -1.06842005e+00
      -9.31273997e-01 -4.01656008e+00 9.48441029e-01 3.01671004e+00
      9.48455989e-01 3.01669002e+00 9.82726991e-01 1.01699996e+00
      1.99970996e+00 3.42940986e-02 3.03383994e+00 -1.94826996e+00
      2.03397012e+00 -1.96542001e+00 2.03399992e+00 -1.96542001e+00
      2.05113006e+00 -2.96530008e+00 1.03411996e+00 -1.98258996e+00 0.
      0. 1.98257005e+00 1.03413999e+00 -1.71127003e-02 9.99850988e-01
      -1.01699996e+00 9.82711971e-01 7.62938998e-06 0. 7.62938998e-06 0.
      0. 0. 0. 3.81469999e-06 1.52588000e-05 0. 0. 0. 1.71661004e-02
      -9.99840021e-01 1.01699996e+00 -9.82711971e-01 1.13696003e+00
      -7.98166990e+00 2.10254002e+00 -5.96483994e+00 4.08511019e+00
      -4.93068981e+00 3.08527994e+00 -4.94783020e+00 1.06842005e+00
      -3.98224998e+00 2.08542991e+00 -4.96498013e+00 4.13653994e+00
      -7.93027020e+00 3.06812000e+00 -3.94796991e+00 2.05115008e+00
      -2.96527004e+00 3.06812000e+00 -3.94799995e+00 4.06795979e+00
      -3.93083000e+00 3.08523989e+00 -4.94785023e+00 1.10268998e+00
      -5.98195982e+00 3.08526993e+00 -4.94781017e+00 3.08526993e+00
      -4.94783020e+00 1.06843996e+00 -3.98228002e+00 4.10225010e+00
      -5.93057013e+00 2.05112004e+00 -2.96530008e+00 3.08526993e+00
      -4.94785023e+00 4.06798983e+00 -3.93085003e+00</_>
    <_>
      -9.03244019e-02 1.14145994e+00 -9.03377980e-02 1.14148998e+00
      9.03358012e-02 -1.14147997e+00 1.80664003e-01 -2.28292990e+00
      -9.60807979e-01 -2.37328005e+00 9.03320014e-02 -1.14145005e+00 0.
      -1.52588000e-05 1.05113006e+00 1.23184001e+00 9.60815012e-01
      2.37322998e+00 3.33407998e+00 1.41248000e+00 2.37328005e+00
      -9.60815012e-01 2.46360993e+00 -2.10228992e+00 2.46361995e+00
      -2.10226011e+00 1.23180997e+00 -1.05110002e+00 1.23180997e+00
      -1.05115998e+00 1.14142001e+00 9.03244019e-02 0. -7.62938998e-06
      1.23179996e+00 -1.05113995e+00 1.80664003e-01 -2.28292990e+00
      -9.60807979e-01 -2.37328005e+00 3.61342996e-01 -4.56586981e+00
      -8.70437980e-01 -3.51473999e+00 1.50277996e+00 -4.47553015e+00
      5.41992009e-01 -6.84881020e+00 4.51660007e-01 -5.70733976e+00
      1.41248000e+00 -3.33408999e+00 3.05176000e-05 0. -1.80664003e-01
      2.28293991e+00 -1.80664003e-01 2.28294992e+00 -1.80664003e-01
      2.28292990e+00 -9.03320014e-02 1.14146996e+00 -2.71010995e-01
      3.42441010e+00 -2.70996004e-01 3.42441010e+00 -2.70996004e-01
      3.42439008e+00 -1.80648997e-01 2.28291011e+00 -2.70996004e-01
      3.42441010e+00 0. 0. 0. 3.81469999e-06 -1.52588000e-05
      1.52588000e-05 -1.80648997e-01 2.28293991e+00 -1.80656001e-01
      2.28293991e+00 -1.32213998e+00 2.19262004e+00 -9.03320014e-02
      1.14145994e+00 -1.52588000e-05 1.14441000e-05 1.23178005e+00
      -1.05114996e+00 0. 0. 9.60799992e-01 2.37328005e+00
      -1.80664003e-01 2.28292990e+00 -9.93651986e-01 1.25562000e+01
      -3.87603998e+00 5.43632984e+00 -2.46358991e+00 2.10227990e+00
      9.60799992e-01 2.37328005e+00 3.24376011e+00 2.55392003e+00
      5.16533995e+00 7.30048990e+00 4.80401993e+00 1.18663998e+01
      4.44268990e+00 1.64321995e+01 3.21091008e+00 1.74834003e+01
      -2.13501006e-01 1.72124004e+01 -2.40613008e+00 1.58901997e+01
      -4.59872007e+00 1.45681000e+01 2.38159001e-01 1.15050001e+01
      -3.09592009e+00 1.00925999e+01 3.28460991e-01 1.03635998e+01
      2.61141992e+00 1.05441999e+01 3.66257000e+00 1.17760000e+01
      2.61142993e+00 1.05443001e+01 1.46993995e+00 1.04539003e+01
      -3.18624997e+00 1.12340002e+01</_>
    <_>
      7.29773998e-01 7.28672028e-01 4.69965011e-01 2.76221991e-01
      1.23109996e+00 -1.56540006e-01 9.06322002e-01 -5.61828971e-01
      5.30894995e-01 -9.26558971e-01 -1.02406001e+00 -1.20340002e+00
      -1.53948998e+00 -1.38249004e+00 7.47374967e-02 -1.40662003e+00
      -1.46559000e+00 -2.33825994e+00 -1.89177001e+00 -2.02120996e+00
      -2.07512999e+00 -2.65430999e+00 -3.26087999e+00 -2.16514993e+00
      -2.26395011e+00 -5.68068981e-01 -2.18889999e+00 -6.53839037e-02
      -3.14151001e+00 1.46723998e+00 -1.92575002e+00 1.98652995e+00
      -1.72967994e+00 2.45096993e+00 5.14687002e-01 -1.11656003e-02
      1.44703996e+00 3.43775004e-01 1.12334001e+00 5.44431984e-01
      7.45934010e-01 6.65812016e-01 -7.28179991e-01 1.77954996e+00
      -9.47571024e-02 2.01187992e+00 -1.40656996e+00 1.36662006e-01
      -2.80066991e+00 3.23033988e-01 -2.09337997e+00 4.52107996e-01
      -1.35043001e+00 3.56914997e-01 -1.06233001e+00 5.91907978e-01
      -1.20805001e+00 3.12325001e-01 -1.36037004e+00 1.84173994e-02
      -1.51270998e+00 -2.75481999e-01 -1.30849004e+00 -6.98517025e-01
      -1.48563004e+00 -6.69143975e-01 -1.67701995e+00 -6.33194029e-01
      -1.82897997e+00 -5.11413991e-01 -8.89633000e-01 -3.67615014e-01 0.
      0. -1.20277002e-01 2.28504002e-01 -3.63518000e-01 3.40240002e-01
      -1.70656002e+00 2.60589987e-01 -4.76348996e-01 1.19605994e+00
      -2.18863994e-01 1.38931004e-02 -1.52327001e+00 6.82345986e-01
      -5.67749023e-01 -8.92295986e-02 -8.10958982e-01 2.24875994e-02 0.
      0. -9.44671988e-01 8.70575011e-01 -1.77190995e+00 7.44567990e-01
      -1.27513003e+00 -1.49357998e+00 -1.40318000e+00 -2.30803990e+00
      -1.62131000e+00 -2.10384989e+00 -1.86216998e+00 -9.98642027e-01
      -2.03621006e+00 -8.49411011e-01 -2.34752989e+00 -8.10379028e-01
      -2.64214993e+00 2.15561002e-01 -2.49324012e+00 -2.60924995e-02
      -3.36646008e+00 -2.52227992e-01 -3.16493011e+00 -3.79424989e-01
      -2.95808005e+00 -4.57183987e-01 -2.64022994e+00 -1.54576004e+00
      -1.38189006e+00 -1.46185005e+00 -1.73417997e+00 -1.24804997e+00
      -1.94762003e+00 -1.18464994e+00 -2.16340995e+00 1.30005004e-02
      -2.54196000e+00 1.69540003e-01 -2.14912009e+00 -1.05745006e+00
      -1.96195996e+00 -1.17808998e+00 -1.74846995e+00 -1.24146998e+00</_>
    <_>
      -1.58506000e+00 -9.99817014e-01 -2.85226989e+00 -3.01291990e+00
      -3.96128011e+00 -2.72152996e+00 -3.83367991e+00 -1.34615004e+00
      -4.90608978e+00 -1.06719995e+00 -3.45006990e+00 1.33411002e+00
      -4.33019018e+00 2.66629004e+00 -2.88716006e+00 3.80718994e+00
      -2.64262009e+00 3.80556989e+00 -1.24267995e+00 3.69000006e+00
      3.53698991e-02 2.35898995e+00 1.21808004e+00 -1.60370007e-01
      1.25632000e+00 -1.49643004e+00 1.29724002e+00 -1.70834005e+00
      2.46743989e+00 -2.00014997e+00 2.62896991e+00 9.74121019e-02
      1.53882003e+00 1.11300004e+00 -4.47852999e-01 -3.57440996e+00
      -2.01224998e-01 -1.41156006e+00 -1.25383997e+00 -2.55035996e+00
      -1.21358001e+00 -4.85808992e+00 -1.09955001e+00 -5.96694994e+00
      -8.33405018e-01 -5.97905016e+00 -5.83527029e-01 -4.89518023e+00
      -3.95554006e-01 -4.91993999e+00 -2.45895004e+00 -3.56961012e+00
      -1.05651997e-01 -4.75158024e+00 -1.81438005e+00 -1.11494005e+00
      -1.72970998e+00 1.66633993e-01 -1.72889996e+00 2.88917989e-01
      -1.64324999e+00 1.57799995e+00 -2.66478992e+00 6.42453003e+00
      -2.57813001e+00 6.44369984e+00 -1.39997995e+00 5.22529984e+00
      -2.38065004e+00 6.43297005e+00 -2.29340005e+00 6.39856005e+00 0.
      0. -1.13827002e+00 -1.15046000e+00 1.29603004e+00 -1.31045997e+00
      1.49506998e+00 -8.98360983e-02 1.52743995e+00 2.24657989e+00
      3.22205007e-01 3.49148989e+00 -1.49303997e+00 1.04858004e-01
      -1.53233004e+00 -2.28417993e+00 -2.58285999e-01 -2.36786008e+00 0.
      0. 1.20972002e+00 2.27311993e+00 -1.22562003e+00 2.42561007e+00
      -7.39869022e+00 7.07098007e+00 -3.73865008e+00 7.91225004e+00
      -2.54688001e+00 6.62317991e+00 -1.30742002e+00 6.56701994e+00
      1.46484002e-03 7.61847019e+00 1.21140003e-01 7.65622997e+00
      3.71163988e+00 7.50464010e+00 5.50994985e-02 6.63233995e+00
      -1.21594000e+00 6.73856020e+00 -2.45895004e+00 6.82580996e+00
      -3.69545007e+00 6.90453005e+00 -4.88959980e+00 8.11740017e+00
      -6.11794996e+00 8.14148045e+00 -2.46613002e+00 7.87468004e+00
      -1.22116005e+00 7.80249023e+00 1.32903997e-02 7.70871019e+00
      2.50426006e+00 7.57184982e+00 -2.38260007e+00 6.70862007e+00
      -2.54064989e+00 5.56676006e+00 -3.77812004e+00 5.63796997e+00</_>
    <_>
      -1.15464997e+00 -8.45833004e-01 -9.27484989e-01 -8.56956005e-01
      -1.87180996e+00 3.53134006e-01 -4.33135986e-01 2.82653987e-01
      -2.17690006e-01 2.04620004e-01 -3.96118015e-02 5.25055006e-02
      5.98450005e-02 -1.36078000e+00 1.37969995e+00 -4.13361013e-01
      1.40019000e+00 -6.84265018e-01 2.57449007e+00 -9.86328006e-01
      2.46199012e+00 -2.42297006e+00 1.08737004e+00 -3.79778004e+00
      2.10855007e+00 -3.95741010e+00 6.22711003e-01 -6.39786005e+00
      3.85955989e-01 -6.41156006e+00 -1.05483997e+00 -6.38313007e+00
      -8.52051005e-02 -6.38846016e+00 -1.49963006e-01 2.09758997e-01
      9.99064982e-01 3.69556999e+00 2.22891998e+00 7.10995007e+00
      -1.21872000e-01 9.39253044e+00 -1.27637994e+00 9.23822975e+00
      -1.29082000e+00 8.94375992e+00 -2.55469990e+00 8.79481983e+00
      -3.79425001e+00 7.42183018e+00 -3.82821989e+00 3.62840009e+00
      -1.37448001e+00 -1.68804005e-01 -1.24956000e+00 6.59995973e-01
      -1.10653996e+00 6.52976990e-01 -9.71542001e-01 6.54799998e-01
      -8.19687009e-01 6.55791998e-01 4.62630987e-01 -1.57446003e+00
      -6.88140988e-01 -4.47021008e-01 -6.68685973e-01 -5.66070974e-01
      -6.91314995e-01 -6.82999015e-01 -7.22289979e-01 -7.99544990e-01 0.
      0. -1.21803999e+00 2.33671999e+00 -2.42899990e+00 2.23579001e+00
      -2.40198994e+00 -3.12469006e-01 -2.39546990e+00 -1.38383996e+00
      2.06528008e-02 -1.29979002e+00 2.48718006e-03 -8.09737980e-01
      -3.76739986e-02 1.46929002e+00 -1.24106002e+00 1.35109997e+00 0.
      0. -1.20749998e+00 -2.26852989e+00 2.95714997e-02 -9.46013987e-01
      7.89741993e-01 -1.43867004e+00 -5.22156000e-01 -1.53467000e+00
      6.49978995e-01 -5.04135013e-01 -5.59341013e-01 -1.77742004e+00
      -1.79430997e+00 -1.85185003e+00 -1.70994997e+00 -8.18648994e-01
      -1.63285995e+00 -2.17182994e+00 -1.52528000e+00 -2.04214001e+00
      -1.48383999e+00 -1.88393998e+00 9.30634022e-01 -1.83352995e+00
      -2.76778996e-01 -1.69005001e+00 -3.20228994e-01 -1.54454005e+00
      7.86445975e-01 -1.50598001e+00 -4.53444988e-01 -1.68138003e+00
      -4.75647002e-01 -2.99593997e+00 -1.69378996e+00 -3.07119989e+00
      -1.66327000e+00 -3.30884004e+00 -4.89441007e-01 -3.10491991e+00
      -4.50363010e-01 -1.79117000e+00 7.50899971e-01 -1.71506000e+00</_>
    <_>
      -1.47696996e+00 -3.67790014e-01 -2.89488006e+00 -1.56746000e-01
      -1.86712003e+00 -1.07430995e+00 -2.06307006e+00 3.92670006e-01
      -2.19688010e+00 -5.23787975e-01 -2.25384998e+00 -1.40658998e+00
      -2.24091005e+00 -1.08655000e+00 -3.37298012e+00 -7.96020985e-01
      -3.17909002e+00 -5.24658024e-01 -4.14366007e+00 2.03989005e+00
      -2.61893010e+00 9.43633974e-01 -2.27690005e+00 -2.22351000e-01
      -7.56072998e-01 -2.42950007e-01 -4.40582007e-01 -1.55014002e+00
      1.04459000e+00 -1.67320001e+00 1.33807003e+00 -1.82735002e+00
      4.48668987e-01 -4.43669987e+00 2.94112996e-03 -2.72059011e+00
      -9.95193005e-01 -3.20885003e-01 -8.05840015e-01 -1.50998995e-01
      -1.85705996e+00 -1.14414001e+00 -1.75563002e+00 -9.06966984e-01
      8.85971010e-01 -6.33738995e-01 -1.25182998e+00 -5.78709006e-01
      1.60904005e-01 -3.92338008e-01 -8.58703971e-01 -1.40004003e+00
      3.33038002e-01 6.54221028e-02 -6.11159980e-01 5.72539985e-01
      -7.71973014e-01 7.23213017e-01 -9.24773991e-01 8.66333008e-01
      -2.26987004e+00 -1.98730007e-01 -1.64199993e-01 -2.23647997e-01
      -1.30525005e+00 -1.36139005e-01 -2.31934004e-02 -1.20131004e+00
      -1.12392998e+00 4.12749983e-02 1.75308004e-01 1.22620001e-01 0. 0.
      -1.02192998e+00 2.12402008e-02 -2.07866001e+00 -1.04224002e+00
      -2.07770991e+00 -8.31726015e-01 -2.22238994e+00 -9.37775016e-01
      -2.35045004e+00 -1.07448006e+00 7.89489985e-01 8.91067982e-01
      -1.69235006e-01 -3.09543997e-01 -3.31268013e-02 -1.80370003e-01 0.
      0. -1.54739007e-01 -3.62243988e-02 -2.90863007e-01 -1.65405005e-01
      -1.77451003e+00 -8.90349969e-02 -1.60460997e+00 1.15599000e+00
      -1.44298005e+00 2.30864994e-02 -1.99508995e-01 1.41586006e-01
      -1.29980004e+00 1.75888002e-01 -2.41832995e+00 -9.05197024e-01
      -2.37719989e+00 -7.32361019e-01 -2.57052994e+00 4.15114999e-01
      -2.70112991e+00 3.56276989e-01 -1.61578000e+00 1.49863994e+00
      -1.66760004e+00 2.18491003e-01 -1.74141002e+00 9.13390964e-02
      -1.74479997e+00 1.15143001e+00 -1.53139997e+00 1.05971999e-01
      -2.87353992e-01 1.40163004e+00 -2.57247996e+00 2.35747993e-01
      -2.43790007e+00 4.11635995e-01 -1.38829005e+00 2.58742988e-01
      -1.47966003e+00 1.93405002e-01 -1.53895998e+00 9.79309008e-02</_>
    <_>
      5.18323994e+00 -1.88045006e+01 6.38152981e+00 -2.26357002e+01
      6.38832998e+00 -2.64298992e+01 6.10606003e+00 -2.92094002e+01
      5.71637011e+00 -3.50737991e+01 6.25378990e+00 -4.28865013e+01
      4.35674000e+00 -4.74080009e+01 2.28343010e+00 -5.37349014e+01
      -3.54462004e+00 -5.42713013e+01 -8.39863968e+00 -5.19505997e+01
      -1.19856997e+01 -4.57044983e+01 -1.33275003e+01 -3.69734993e+01
      -1.23615999e+01 -2.80300007e+01 -1.10621004e+01 -2.21797009e+01
      -1.16490002e+01 -1.73976002e+01 -9.82186985e+00 -1.46226997e+01
      -7.75854015e+00 -1.28184004e+01 -1.48187995e+00 7.82361984e+00
      4.03517008e+00 1.20424004e+01 6.98620987e+00 1.88554001e+01
      5.73088980e+00 2.18637009e+01 9.23657990e+00 1.73362999e+01
      -8.44758987e+00 1.21303997e+01 -5.22234011e+00 1.49012003e+01
      -4.13831997e+00 1.40574999e+01 -7.03476012e-01 9.76821995e+00
      1.74442995e+00 1.02032003e+01 2.09563994e+00 1.10951004e+01
      9.53414977e-01 1.21920004e+01 1.92920005e+00 1.34350004e+01
      1.82396996e+00 1.45783997e+01 3.13980013e-01 8.20557976e+00
      1.81730998e+00 7.05803013e+00 1.50603997e-02 7.88452005e+00
      3.55102986e-01 8.06258011e+00 -2.46857002e-01 7.16154003e+00 0. 0.
      1.55373001e+00 -1.69498003e+00 2.75409007e+00 4.49180990e-01
      2.76452994e+00 7.39682007e+00 4.01473999e-01 6.04017019e+00
      -7.94417977e-01 3.84747005e+00 -2.56439000e-01 7.26551008e+00
      -1.68009996e+00 -8.04580986e-01 7.45392025e-01 -1.72047997e+00 0.
      0. 1.45975995e+00 3.95711994e+00 1.15355998e-01 4.97252989e+00
      5.80869007e+00 -1.86140995e+01 7.37356997e+00 -1.67644000e+00
      4.09653997e+00 1.73283005e+00 1.30382001e+00 1.47581005e+00
      -4.30175990e-01 1.56078994e+00 -5.37265015e+00 -4.34526014e+00
      -1.04556000e+00 -2.09852009e+01 -3.94780993e+00 -3.41743011e+01
      1.47005999e+00 -3.98115997e+01 3.24564004e+00 -3.87536011e+01
      6.09137011e+00 -3.85405998e+01 9.93486977e+00 -3.25400009e+01
      6.40663004e+00 -1.75177994e+01 2.97601008e+00 3.12528992e+00
      1.25988996e+00 3.01620007e+00 -4.14214998e-01 1.91867006e+00
      -7.55005002e-01 -1.88269005e+01 1.43127000e+00 -3.77953987e+01
      4.29732990e+00 -3.88664017e+01 6.05307007e+00 -3.86558990e+01</_>
    <_>
      -4.24141979e+00 -8.82507038e+00 -3.34978008e+00 -1.24279003e+01
      -5.63302994e+00 -1.70897007e+01 -6.79379988e+00 -1.85265007e+01
      -6.76760006e+00 -1.99783993e+01 -4.46044016e+00 -2.03796997e+01
      -6.26603985e+00 -1.33097000e+01 -7.86554003e+00 -2.08640003e+00
      -6.13315010e+00 3.69323999e-01 -3.28619003e+00 -5.93352973e-01
      -2.66463995e+00 -7.19785023e+00 -3.15992999e+00 -1.07414999e+01
      2.70061994e+00 -9.07096958e+00 3.09038997e+00 -9.60988045e+00
      2.34973001e+00 -9.14731979e+00 1.60904002e+00 -6.51087999e+00
      1.87634003e+00 -5.01092005e+00 -2.42914009e+00 6.85950994e+00
      -9.29039001e-01 8.78757954e+00 1.72391999e+00 1.20381002e+01
      2.19740009e+00 1.33507996e+01 3.61572003e+00 1.15466003e+01
      -5.17090988e+00 1.18474998e+01 -1.43192995e+00 1.49551001e+01
      1.27517998e-01 1.39507999e+01 1.58841002e+00 1.20890999e+01
      3.89412999e+00 8.21236992e+00 6.60080016e-01 7.94046021e+00
      5.12862980e-01 8.39194012e+00 1.43113995e+00 8.83640003e+00
      2.18459994e-01 9.29489994e+00 -3.95186990e-01 5.15135002e+00
      -2.08221003e-01 6.39439011e+00 2.17438005e-02 6.56450987e+00
      1.38770998e+00 6.58413982e+00 1.63074994e+00 6.56822014e+00 0. 0.
      -7.01843023e-01 3.10101008e+00 -1.38031995e+00 4.32115984e+00
      -2.24293995e+00 1.46642005e+00 -1.54200995e+00 3.96301001e-01
      -8.63541007e-01 2.63123006e-01 1.17091000e+00 1.89446998e+00
      1.57705998e+00 3.84401989e+00 -1.88354000e-01 3.97720003e+00 0. 0.
      -2.92571992e-01 9.48792025e-02 3.78876001e-01 -1.67922992e-02
      -4.43555021e+00 -1.00752001e+01 3.17443997e-01 3.68785000e+00
      1.80448997e+00 6.88886976e+00 9.11468983e-01 8.11044025e+00
      2.24895000e+00 7.05759001e+00 3.58828998e+00 3.02988005e+00
      6.92444992e+00 -1.16159000e+01 3.32894993e+00 -1.24790001e+01
      8.18984985e-01 -1.24695997e+01 5.53986013e-01 -1.14453001e+01
      3.38515997e-01 -1.04998999e+01 -1.01485002e+00 -9.69009018e+00
      -4.27806997e+00 -7.87372017e+00 6.40411019e-01 1.03862000e+01
      8.48389030e-01 1.15648003e+01 2.16483998e+00 9.48948956e+00
      6.78795004e+00 -9.53409004e+00 9.16656017e-01 -1.50159998e+01
      6.73156977e-01 -1.39847002e+01 -6.07773006e-01 -1.30323000e+01</_>
    <_>
      4.81436014e-01 -2.87061000e+00 9.82470989e-01 -1.95379996e+00
      2.65471005e+00 -3.46199012e+00 3.09939003e+00 -2.62195992e+00
      3.50311995e+00 -4.20736980e+00 3.80872011e+00 -5.87079000e+00
      5.13615990e+00 -8.80132961e+00 5.13521004e+00 -1.17607002e+01
      6.14539003e+00 -1.11139002e+01 4.59614992e+00 -1.16169004e+01
      4.14609003e+00 -1.19638996e+01 3.62665009e+00 -1.10254002e+01
      3.04384995e+00 -9.91308975e+00 1.00676998e-01 -1.10903997e+01
      -4.64233011e-01 -9.71848965e+00 -2.16608000e+00 -1.07440996e+01
      -3.90215993e+00 -1.05417004e+01 -2.49818993e+00 4.14345980e+00
      -5.48461974e-01 8.86258030e+00 3.20297003e-01 1.33759003e+01
      1.13586001e-01 1.77840004e+01 1.24479997e+00 1.73892994e+01
      -5.08175993e+00 2.03223991e+01 -4.14549017e+00 1.88271008e+01
      -5.48889017e+00 1.36484003e+01 -3.10446000e+00 8.49024963e+00
      6.41785026e-01 4.55718994e+00 -1.96606004e+00 4.84381008e+00
      -4.66690004e-01 3.53979993e+00 -1.70424998e-01 2.21052003e+00
      9.23004001e-02 3.27953005e+00 1.90981996e+00 -1.33438003e+00
      6.78664982e-01 -1.55263996e+00 1.82059002e+00 -5.34348011e-01
      1.70035994e+00 -1.91703999e+00 1.56279004e+00 -2.07969999e+00 0.
      0. -3.05869997e-01 3.46903992e+00 -1.62723994e+00 3.18970990e+00
      -2.70466995e+00 -7.35953987e-01 -1.32302999e+00 -1.71723998e+00
      1.52968997e-02 -1.44579005e+00 3.74161005e-01 6.70853019e-01
      2.65197996e-02 4.13873005e+00 -1.29488003e+00 3.85942006e+00 0. 0.
      -9.98489022e-01 -1.06447995e+00 3.22860986e-01 -7.85156012e-01
      -8.11661005e-01 -6.25893021e+00 1.21372998e+00 -1.55446005e+00
      1.01034999e+00 -5.56991994e-01 2.15222001e+00 4.61349010e-01
      3.20946002e+00 1.51909995e+00 2.00629997e+00 -1.19791996e+00
      3.34488010e+00 -7.52222013e+00 1.33529997e+00 -1.21927996e+01
      2.74217010e+00 -1.43772001e+01 2.86205006e+00 -1.53769999e+01
      2.93188000e+00 -1.51828003e+01 1.73792005e+00 -1.25410995e+01
      3.19290012e-01 -6.34440994e+00 1.21361005e+00 -6.51610970e-01
      2.34691000e+00 -8.20602000e-01 2.24321008e+00 -9.99038994e-01
      2.19702005e+00 -7.42885017e+00 2.51250005e+00 -1.30376997e+01
      1.43834996e+00 -1.40875998e+01 2.79846013e-01 -1.27154999e+01</_>
    <_>
      8.10886025e-01 -6.68530989e+00 5.74313998e-01 -8.17401981e+00
      3.23116004e-01 -1.07054005e+01 -9.90795016e-01 -1.22166004e+01
      -4.49768019e+00 -1.16035004e+01 -7.05319977e+00 -1.19064999e+01
      -7.60792017e+00 -8.92831039e+00 -7.10238981e+00 -7.94787979e+00
      -4.49336004e+00 -6.68706989e+00 -2.83768010e+00 -6.34298992e+00
      2.73438003e-02 -6.89184999e+00 -1.62719995e-01 -8.47953987e+00
      8.53577018e-01 -1.00332003e+01 -1.12029999e-01 -1.05909004e+01
      -2.06856990e+00 -1.01260004e+01 -2.97568011e+00 -8.61170006e+00
      -2.80541992e+00 -7.07496977e+00 4.37682986e-01 7.37488985e+00
      3.43431997e+00 1.20127001e+01 3.08692002e+00 1.54435997e+01
      1.65910006e+00 1.55816002e+01 2.33238006e+00 1.35489998e+01
      -3.29172993e+00 1.26019001e+01 -2.57642007e+00 1.39632998e+01
      -2.90573001e+00 1.09835997e+01 -1.13390994e+00 5.83332014e+00
      6.66565001e-01 1.52497995e+00 -1.01912999e+00 3.73852992e+00
      -2.19318008e+00 2.33995008e+00 -2.31111002e+00 9.55917001e-01
      -2.45035005e+00 6.13358021e-01 8.80348027e-01 -7.31781006e-01
      -3.33923012e-01 -7.44567990e-01 -1.59189999e+00 3.12072992e-01
      -1.72581005e+00 -6.05286002e-01 -1.85973001e+00 -4.73297000e-01 0.
      0. -1.29616007e-01 1.26774001e+00 6.99416995e-01 3.54553014e-01
      -6.27968013e-01 2.87575006e-01 -4.35654014e-01 1.28852993e-01
      8.32778990e-01 2.84882002e-02 6.21262014e-01 -3.02177012e-01
      -1.60713005e+00 -8.37287977e-02 -7.99315989e-01 4.45404015e-02 0.
      0. 1.48498997e-01 -1.38671994e-01 -6.59317017e-01 -2.66930014e-01
      -1.25145003e-01 -6.84671021e+00 -2.41179991e+00 -3.45344996e+00
      -1.55721998e+00 -3.22292995e+00 -7.17711985e-01 -2.13048005e+00
      -8.51653993e-01 -3.04786992e+00 -1.19842999e-01 -1.95908999e+00
      -1.41820002e+00 -6.23691988e+00 -1.33880997e+00 -1.53610006e-01
      -1.21017003e+00 4.91073990e+00 -2.10432005e+00 5.83606005e+00
      -2.96385002e+00 5.74917984e+00 -2.63182998e+00 4.56176996e-01
      1.84772003e+00 -4.63737011e+00 -1.71580994e+00 7.82211006e-01
      -8.27086985e-01 -1.93588004e-01 -1.00360000e+00 -7.74841011e-02
      -2.37987995e+00 -4.17826986e+00 -2.09543991e+00 3.05484009e+00
      -8.77502024e-01 2.95992994e+00 -2.77182007e+00 1.81702006e+00</_>
    <_>
      -4.56085014e+00 -1.19408998e+01 -4.71758986e+00 -1.63588009e+01
      -6.94903994e+00 -1.97257996e+01 -9.12355042e+00 -2.19920998e+01
      -7.97335005e+00 -2.53600006e+01 -4.50081015e+00 -2.55816002e+01
      -5.09994984e+00 -2.05123005e+01 -4.38679981e+00 -1.03151999e+01
      -1.38669002e+00 -8.90686035e+00 6.17156982e-01 -8.83465958e+00
      2.46328998e+00 -1.65904007e+01 4.25017023e+00 -1.71135998e+01
      8.06783962e+00 -1.56182003e+01 7.46615982e+00 -1.52875004e+01
      3.58898997e+00 -1.50206003e+01 2.89417005e+00 -1.15421000e+01
      2.11395001e+00 -1.02581997e+01 -2.58483005e+00 5.60796022e+00
      -9.88723993e-01 7.42334986e+00 7.51289010e-01 1.16887999e+01
      2.45059991e+00 1.40718002e+01 1.89908004e+00 1.44731998e+01
      -8.67743015e+00 1.58353004e+01 -3.77654004e+00 1.56682997e+01
      -1.01958001e+00 1.35759001e+01 1.63979995e+00 1.17610998e+01
      5.09615993e+00 9.06019020e+00 1.43767998e-01 7.87061024e+00
      1.06392002e+00 9.51988983e+00 9.32448983e-01 1.22346001e+01
      7.94098020e-01 1.38908005e+01 8.01085960e-03 7.75070000e+00
      -8.00414979e-01 7.96912003e+00 5.71945012e-01 8.15909004e+00
      2.02118993e+00 8.15672016e+00 1.27500999e+00 8.11896038e+00 0. 0.
      -5.98541021e-01 4.07466984e+00 -2.20321989e+00 5.30000019e+00
      -1.90851998e+00 1.47595000e+00 -1.31847000e+00 4.49081004e-01
      -7.72292972e-01 3.17618996e-01 8.50784004e-01 1.91260004e+00
      3.01452994e-01 4.82183981e+00 -1.33168006e+00 4.95330000e+00 0. 0.
      -3.68454009e-01 1.51595995e-01 1.77718997e-01 1.10710001e+00
      -1.01862001e+00 -1.34560003e+01 3.84372997e+00 4.39374018e+00
      3.33828998e+00 9.66843033e+00 1.45668006e+00 1.09168997e+01
      1.81207001e+00 9.85599995e+00 1.12595999e+00 3.79343009e+00
      6.63702011e+00 -1.38825998e+01 2.90394998e+00 -2.41735992e+01
      2.39321995e+00 -2.73174992e+01 3.10323000e+00 -2.62919998e+01
      3.86248994e+00 -2.64319000e+01 4.54168987e+00 -2.25147991e+01
      -8.12447011e-01 -1.12621002e+01 2.16828990e+00 1.21838999e+01
      1.39442003e+00 1.44338999e+01 2.78751993e+00 1.23646002e+01
      6.44469976e+00 -1.28725004e+01 2.48235011e+00 -2.99820995e+01
      2.16236997e+00 -2.89428005e+01 2.92160010e+00 -2.90827999e+01</_>
    <_>
      -4.31544018e+00 6.96380973e-01 -4.31729984e+00 1.32404006e+00
      -4.55076981e+00 4.07953978e+00 -3.40786004e+00 4.82387018e+00
      -2.08729005e+00 4.50014019e+00 -6.04210019e-01 4.09731007e+00
      1.22138999e-01 2.40265012e+00 -2.25676998e-01 1.56210005e+00
      -4.52118009e-01 4.89776999e-01 2.46474996e-01 5.30364990e-01
      -5.09598017e-01 2.33892989e+00 2.01384997e+00 3.38309002e+00
      2.27840996e+00 3.99923992e+00 2.66663003e+00 2.35805988e+00
      1.76617002e+00 1.61632001e+00 2.99767995e+00 1.16804004e+00
      5.25518990e+00 8.25637996e-01 -2.33023000e+00 5.89558983e+00
      9.27742004e-01 8.08391953e+00 1.25981998e+00 9.06219959e+00
      2.78309989e+00 9.35881042e+00 5.56720018e+00 7.77613020e+00
      -3.30078006e+00 7.74936008e+00 -1.88990998e+00 8.78654957e+00
      -1.41895998e+00 8.76772976e+00 9.93651971e-02 9.08329010e+00
      3.00952005e+00 5.46674013e+00 5.28732002e-01 -8.47930983e-02
      5.10406017e-01 2.95433015e-01 4.73221004e-01 6.70723021e-01
      3.15216005e-01 2.12888002e+00 -6.64063022e-02 1.34026003e+00
      3.10012996e-01 3.64654988e-01 4.11911011e-01 1.52596998e+00
      8.22997987e-01 4.17587012e-01 -2.53295992e-03 2.42507994e-01 0. 0.
      2.24686004e-02 1.93079996e+00 -5.45409977e-01 7.69336998e-01
      -1.08089006e+00 -1.21441996e+00 -2.01392993e-01 -2.09912992e+00
      3.61541986e-01 -9.18671012e-01 1.35043001e+00 -9.03526008e-01
      3.37891012e-01 8.78502011e-01 -5.09459972e-01 1.87291002e+00 0. 0.
      -1.27487004e-01 -9.85648990e-01 7.19833016e-01 -1.98005998e+00
      1.42288003e-02 -3.15723991e+00 1.98487997e+00 1.16689003e+00
      1.18179001e-01 1.87479997e+00 3.92791986e-01 1.98703003e+00
      -2.12203994e-01 7.34817982e-01 -1.71008003e+00 -1.52057004e+00
      -8.93096983e-01 -5.50154018e+00 -3.95431995e-01 -1.16731005e+01
      1.49519002e+00 -1.23950996e+01 2.11505008e+00 -1.11997995e+01
      2.86061001e+00 -1.11063004e+01 3.40543008e+00 -1.00116997e+01
      1.70913994e-01 -3.13653994e+00 1.01092994e+00 3.34398007e+00
      1.06674001e-01 4.32350016e+00 5.45807004e-01 3.26296997e+00
      2.81677004e-02 -5.38248014e+00 1.65732002e+00 -1.37914000e+01
      2.27712989e+00 -1.25960999e+01 3.18143010e+00 -1.35755997e+01</_>
    <_>
      -2.28292990e+00 -1.80664003e-01 -2.37326002e+00 9.60822999e-01
      -1.14145994e+00 -9.03168023e-02 -1.14147997e+00 -9.03168023e-02
      -9.03282017e-02 1.14147997e+00 1.14146996e+00 9.03320014e-02
      1.14145994e+00 9.03168023e-02 1.14146996e+00 9.03320014e-02
      -9.03472975e-02 1.14145005e+00 -1.80678993e-01 2.28295994e+00
      -1.23180997e+00 1.05113006e+00 -1.32217002e+00 2.19260001e+00
      -9.03624967e-02 1.14147997e+00 9.60815012e-01 2.37331009e+00
      2.19256997e+00 1.32210004e+00 2.19256997e+00 1.32213998e+00
      1.23175001e+00 -1.05113995e+00 1.32212996e+00 -2.19260001e+00
      1.50279999e+00 -4.47554016e+00 2.71010995e-01 -3.42441010e+00
      1.59311998e+00 -5.61702013e+00 -7.80121028e-01 -4.65619993e+00
      2.64423990e+00 -4.38519001e+00 6.32323980e-01 -7.99028015e+00
      6.32323980e-01 -7.99028015e+00 4.51629996e-01 -5.70733976e+00
      -9.60815012e-01 -2.37326002e+00 0. 0. -9.03320014e-02
      1.14148998e+00 -9.03320014e-02 1.14145994e+00 -1.23183000e+00
      1.05114996e+00 -1.80678993e-01 2.28292990e+00 -1.80648997e-01
      2.28292990e+00 9.60799992e-01 2.37329006e+00 1.05115998e+00
      1.23179996e+00 -1.80648997e-01 2.28292990e+00 0. 0.
      -1.14145994e+00 -9.03244019e-02 9.03168023e-02 -1.14145994e+00
      9.60830986e-01 2.37328005e+00 -9.03244019e-02 1.14145994e+00
      -1.23179996e+00 1.05115998e+00 1.05113006e+00 1.23179996e+00
      -1.52588000e-05 1.52588000e-05 1.23177004e+00 -1.05113995e+00 0.
      0. 1.05113006e+00 1.23179996e+00 -9.03320014e-02 1.14145994e+00
      -3.00562000e+00 8.95110035e+00 -4.92718983e+00 4.20453978e+00
      -3.51476002e+00 8.70468020e-01 -3.05176000e-05 0. 3.42441010e+00
      2.70981014e-01 6.48749018e+00 5.10786009e+00 6.12614012e+00
      9.67374992e+00 5.85516024e+00 1.30980997e+01 2.34040999e+00
      1.39686003e+01 -1.08399999e+00 1.36976004e+01 -4.50838995e+00
      1.34266996e+01 -6.70099020e+00 1.21044998e+01 -1.86410999e+00
      9.04139996e+00 -2.91525006e+00 7.80962992e+00 -6.32339001e-01
      7.99028015e+00 2.79206991e+00 8.26128960e+00 4.98466015e+00
      9.58339024e+00 1.65063000e+00 8.17094040e+00 5.09140015e-01
      8.08061028e+00 -4.14707994e+00 8.86075974e+00</_>
    <_>
      -7.10649014e-01 6.02805972e-01 3.10744997e-02 1.45332003e+00
      -2.47613996e-01 2.26114011e+00 -1.49022996e+00 2.00723004e+00
      -6.82555974e-01 8.70666981e-01 -1.95047998e+00 -2.85232991e-01
      -1.27780998e+00 -2.50580013e-01 -1.56858003e+00 -1.21481001e+00
      -1.85970998e+00 -1.02877998e+00 -2.13025999e+00 2.39989996e-01
      -2.28851008e+00 1.56914997e+00 -3.39066005e+00 2.85660005e+00
      -2.34164000e+00 3.22992992e+00 -3.20984006e+00 3.46784997e+00
      -1.96823001e+00 2.78745008e+00 -1.79312003e+00 3.04954004e+00
      -1.60283995e+00 3.29928994e+00 3.96164000e-01 -1.06756997e+00
      1.41233003e+00 -7.81280994e-01 2.67769009e-01 -6.34639978e-01
      -9.41505015e-01 -5.36527991e-01 -1.54662997e-01 -3.92475009e-01
      -4.11895990e-01 8.14944983e-01 -1.55167997e+00 9.82991993e-01
      -7.16781974e-01 1.20173001e+00 -1.94939005e+00 1.25562000e+00
      -1.11741996e+00 2.88868010e-01 -1.48517001e+00 4.73975986e-01
      -6.02218986e-01 3.63022000e-01 -6.83211982e-01 -8.09601009e-01
      -8.19275022e-01 -9.77057993e-01 -1.79264998e+00 -1.27283001e+00
      -8.80707026e-01 -1.19252002e+00 -2.04466009e+00 -1.83411002e-01
      -1.09845996e+00 -2.98462007e-02 -9.57031026e-02 -8.95294011e-01 0.
      0. -2.94799991e-02 1.50325999e-01 -1.15787995e+00 2.08014995e-01
      -1.27120996e+00 -7.86713004e-01 -1.84181005e-01 -8.48679006e-01
      -7.47909993e-02 -9.62852001e-01 -7.53005981e-01 6.75117016e-01
      -7.83890009e-01 8.39241028e-01 9.95026007e-02 9.93294001e-01 0. 0.
      -1.00748003e+00 8.44025016e-01 -8.36807013e-01 -2.67746001e-01
      -2.08267999e+00 2.51892000e-01 -3.01766992e+00 -1.62950003e+00
      -1.06432998e+00 -1.37186003e+00 -1.22166002e+00 -3.21442008e-01
      -1.24697995e+00 -1.22338998e+00 -4.63364005e-01 -1.03652999e-01
      -1.60947001e+00 -1.15629995e+00 -1.57097006e+00 -1.32660997e+00
      -1.48488998e+00 -1.48504996e+00 -1.39830005e+00 -1.58065999e+00
      -1.30077004e+00 -1.64727998e+00 -2.15472007e+00 -1.74948001e+00
      -3.14258003e+00 2.53859997e-01 -1.16470003e+00 -1.47983003e+00
      -1.25461996e+00 -1.41943002e+00 -2.34639001e+00 -1.37888002e+00
      -5.37200987e-01 -1.14311004e+00 -1.40104997e+00 -3.39996010e-01
      -1.32210004e+00 -4.29459006e-01 -2.23738003e+00 -5.44937015e-01</_>
    <_>
      1.10718000e+00 6.88562012e+00 2.35295010e+00 7.28790998e+00
      2.44331002e+00 5.45592022e+00 1.42388999e+00 4.74901009e+00
      1.46193004e+00 2.92560005e+00 1.94656000e-01 4.42140007e+00
      -1.26617000e-01 2.63527012e+00 1.54984999e+00 -1.24652004e+00
      1.91849005e+00 -1.56151998e+00 3.27965999e+00 -2.86422992e+00
      1.43086004e+00 -4.56573009e-01 -3.99657995e-01 -1.21451998e+00
      -2.09222007e+00 -7.15164006e-01 -3.60208011e+00 -8.45184028e-02
      -3.90384007e+00 5.66695988e-01 -3.09560990e+00 3.43801999e+00
      -3.37478995e+00 4.09625006e+00 -2.75718999e+00 -7.24970007e+00
      -2.17531991e+00 -9.25666046e+00 -2.77759004e+00 -1.38048000e+01
      -3.36023998e+00 -1.84958992e+01 -2.76665998e+00 -1.88155003e+01
      -1.15433000e-01 -2.01217995e+01 1.53341997e+00 -1.79650993e+01
      1.01416004e+00 -1.25016003e+01 5.51804006e-01 -6.07918978e+00
      -3.05688000e+00 -3.16330004e+00 1.58813000e+00 -4.90758991e+00
      2.83997011e+00 -4.20542002e+00 2.97434998e+00 -3.49556994e+00
      4.22559977e+00 -3.93352008e+00 6.02767992e+00 4.67068005e+00
      5.79999018e+00 2.32008004e+00 3.31482005e+00 -2.21862998e-02
      8.24432015e-01 1.07837999e+00 -5.26198983e-01 4.38353014e+00 0. 0.
      -3.81339997e-01 -4.38012981e+00 3.88511986e-01 -3.40564990e+00
      1.88125998e-01 7.68752992e-01 -5.83557010e-01 1.92449999e+00
      -2.51495004e-01 9.12674010e-01 -1.25409997e+00 2.95441002e-01
      -5.54763973e-01 -4.05410004e+00 1.32483995e+00 -4.20469999e+00 0.
      0. 1.42492998e+00 1.10371006e+00 -4.47555989e-01 1.23167002e+00
      -6.46738005e+00 3.97893000e+00 -2.41476011e+00 4.09175014e+00
      4.80026007e-01 2.96051002e+00 3.55054998e+00 2.72573996e+00
      7.62215996e+00 1.55560005e+00 9.46901989e+00 1.27065003e+00
      9.18476963e+00 2.04898000e+00 9.58751965e+00 -1.39449000e+00
      8.91993999e+00 -1.39593995e+00 5.94398022e+00 -1.30562997e+00
      2.96228004e+00 1.08750999e+00 -1.17182004e+00 1.39635003e+00
      -5.50078011e+00 5.03941011e+00 1.70371997e+00 3.75323009e+00
      3.61330009e+00 1.38181996e+00 7.70662022e+00 1.28383994e+00
      8.22585011e+00 2.10590005e+00 8.82406998e+00 1.27618003e+00
      4.73073006e+00 1.37418997e+00 2.80645990e+00 2.65076995e+00</_>
    <_>
      -1.10409999e+00 1.56368005e+00 -8.76927972e-01 1.55254996e+00
      -1.82124996e+00 2.76265001e+00 8.22178006e-01 2.66688991e+00
      1.03761995e+00 2.58887005e+00 2.39520001e+00 1.20673001e+00
      1.28989005e+00 -1.81273997e-01 1.40499997e+00 7.91382015e-01
      1.42545998e+00 5.20476997e-01 1.39499998e+00 2.43713006e-01
      1.02996998e-01 3.71094011e-02 -6.68335035e-02 -1.36299002e+00
      9.54315007e-01 -1.52262998e+00 7.23846018e-01 -1.57879996e+00
      4.87029999e-01 -1.59249997e+00 -9.53705013e-01 -1.56409001e+00
      -1.18886995e+00 -1.54413998e+00 -1.35472000e+00 2.35030994e-01
      -2.56244987e-01 1.31131995e+00 -2.81699985e-01 2.34147000e+00
      -1.45302999e+00 3.39400005e+00 -1.42804003e+00 2.00967002e+00
      -2.12463006e-01 2.89469004e+00 -1.47634995e+00 2.74575996e+00
      -2.69059992e+00 2.57751989e+00 -2.69928002e+00 -1.11464998e-02
      -2.60457993e+00 -1.34828997e+00 -1.24957001e+00 6.60000026e-01
      -1.10654998e+00 6.52976990e-01 -9.96810973e-01 -5.49965024e-01
      -2.02443004e+00 6.81068003e-01 -7.16880977e-01 -3.44406009e-01
      -6.88140988e-01 -4.47005987e-01 -6.43387020e-01 6.38718009e-01
      -6.66015983e-01 5.21790028e-01 4.82452005e-01 -8.24844003e-01 0.
      0. -1.24329996e+00 1.13197005e+00 -1.24952996e+00 1.00576997e+00
      7.53021007e-03 -3.63014013e-01 -1.16542995e+00 -2.04353005e-01
      -1.15882003e+00 -6.97403029e-02 -1.17699003e+00 4.20287997e-01
      -1.26773000e+00 2.89810002e-01 -1.24106002e+00 1.35109997e+00 0.
      0. -1.18224001e+00 -1.06376004e+00 -1.17522001e+00 -9.20731008e-01
      -3.89732003e-01 -2.08633006e-01 6.82617009e-01 -1.55993998e+00
      6.49994016e-01 -5.04135013e-01 -5.59341013e-01 -1.77740002e+00
      -5.89554012e-01 -1.87712002e+00 6.99585021e-01 -8.69202018e-01
      8.01926017e-01 -1.01760995e+00 9.09500003e-01 -8.87938976e-01
      -2.53784001e-01 -7.04482973e-01 9.55932975e-01 -6.28754020e-01
      9.78546023e-01 6.94199026e-01 9.09775019e-01 -3.65036011e-01
      8.11721981e-01 -3.01223993e-01 7.51312017e-01 -1.70668006e+00
      7.54378974e-01 -1.81648004e+00 -4.63744998e-01 -1.89168000e+00
      7.71529973e-01 -2.15462995e+00 7.40601003e-01 -1.92540002e+00
      -4.50363010e-01 -1.79118001e+00 7.76169002e-01 -5.10315001e-01</_>
    <_>
      -2.44585991e+00 9.87044990e-01 -1.32925999e+00 1.78696007e-01
      -2.30497003e+00 -7.31124997e-01 -2.27641010e+00 -5.33538997e-01
      -2.22788000e+00 -3.40759009e-01 -1.07556999e+00 -1.24802001e-01
      -9.39284980e-01 2.99987998e-02 -1.87527001e+00 1.15957999e+00
      -1.66495001e+00 1.21013999e+00 -1.44321001e+00 1.20316005e+00
      -1.20843995e+00 5.89293987e-02 -1.09285998e+00 9.86007988e-01
      -1.01909995e+00 1.87047005e+00 6.74744025e-02 2.77677989e+00
      1.23931997e-01 2.57347012e+00 1.80389002e-01 2.37016010e+00
      -8.96911979e-01 3.17537999e+00 -6.34955987e-02 -2.21703005e+00
      1.05999005e+00 -1.21000004e+00 2.23013997e+00 -1.40424997e-01
      1.33460999e+00 -1.65215999e-01 1.44061005e+00 9.49676991e-01
      -1.52081001e+00 8.19209993e-01 -1.31522000e+00 -2.88446009e-01
      -1.34384006e-01 8.08072984e-01 1.14990003e-01 -1.26504004e+00
      2.22412005e-01 -1.15175998e+00 -5.35399973e-01 -5.24291992e-02
      -5.41137993e-01 9.01793987e-02 -5.53328991e-01 2.32216001e-01
      -1.62244999e+00 3.35648000e-01 -1.73474002e+00 -6.30187988e-01
      -1.71103001e+00 4.58160013e-01 -1.62874997e+00 4.84726012e-01
      -1.54314005e+00 4.72564995e-01 -3.61938000e-01 -5.57937980e-01 0.
      0. 9.00574028e-02 -6.38274997e-02 1.99820995e-01 -5.44128008e-02
      2.96485990e-01 3.19443010e-02 1.91483006e-01 4.24422994e-02
      3.55224982e-02 1.10232997e+00 -1.36910999e+00 -3.93982008e-02
      -1.27153003e+00 -1.15581997e-01 -1.15471995e+00 -1.12067997e-01 0.
      0. -1.15067995e+00 -7.63702020e-03 -1.26749003e+00 -1.11694001e-02
      -3.00373006e+00 6.66000009e-01 -1.83205998e+00 6.55884027e-01
      -1.72485006e+00 6.19583011e-01 -5.86181998e-01 6.91254020e-01
      -5.07598996e-01 6.84982002e-01 -4.46792990e-01 1.79598999e+00
      -2.77556986e-01 8.08791995e-01 -4.12247002e-01 8.62258971e-01
      5.84258974e-01 -1.38503999e-01 -6.01684988e-01 8.72039974e-01
      -6.85073972e-01 8.58353019e-01 -7.79160023e-01 8.17763984e-01
      -2.91289997e+00 -3.92975003e-01 -6.74591005e-01 7.35687017e-01
      -5.46082020e-01 -3.07053000e-01 -4.68062997e-01 -3.06854010e-01
      -3.29207987e-01 8.04367006e-01 -5.13718009e-01 7.55997002e-01
      -1.65459001e+00 7.10159004e-01 -6.74591005e-01 7.35687017e-01</_>
    <_>
      3.03638005e+00 -3.62664008e+00 1.85327995e+00 -4.13138008e+00
      1.76912999e+00 -3.45473003e+00 5.19420981e-01 -3.92737007e+00
      3.51929009e-01 -3.20233011e+00 1.01081997e-01 -2.42888999e+00
      9.15413022e-01 -2.72305012e+00 5.05043030e-01 -2.92737007e+00
      1.17545998e+00 -4.13287020e+00 -4.78821009e-01 -4.06577015e+00
      2.53661990e-01 -2.69125009e+00 -1.14303999e-01 -1.00860998e-01
      8.05755973e-01 3.00918996e-01 -4.81505990e-01 -4.36798006e-01
      -5.87067008e-01 8.07190035e-03 -1.83355999e+00 4.61326987e-01
      -1.89001000e+00 9.39963996e-01 1.54962003e+00 3.11619014e-01
      2.45504999e+00 2.87898993e+00 9.49065983e-01 5.27939987e+00
      5.61218023e-01 8.67959976e+00 -9.07898009e-01 6.21984005e+00
      -3.37601006e-01 7.37709999e+00 -6.95267022e-01 1.09761000e+01
      -1.04286003e+00 8.70611954e+00 -1.38016999e+00 7.44475985e+00
      -1.58304000e+00 3.73847008e+00 -1.15871000e+00 2.39714003e+00
      -1.37938997e-02 2.10773993e+00 -1.15857005e+00 6.61162972e-01
      -1.16244996e+00 -7.93770015e-01 -8.27086985e-01 -1.11960995e+00
      -9.67010021e-01 -2.31203008e+00 -1.15647995e+00 -1.20702004e+00
      -1.33062994e+00 -2.31722999e+00 -1.49661005e+00 -2.27002001e+00 0.
      0. 9.48547006e-01 1.29495001e+00 6.92237973e-01 2.44854999e+00
      4.71572995e-01 1.12275004e+00 7.12059021e-01 -8.07114020e-02
      -1.80634007e-01 -8.52584988e-02 6.69799984e-01 1.13387001e+00
      -7.13042974e-01 2.44488001e+00 -9.52620983e-01 1.28411996e+00 0.
      0. -9.57611024e-01 -8.81882012e-02 -7.01552987e-01 1.07281005e+00
      -5.02420998e+00 -7.59480000e+00 -2.98506999e+00 -6.25936985e+00
      -4.39977980e+00 -5.03147984e+00 -2.28302002e+00 -5.06715012e+00
      -1.51215002e-01 -5.00341988e+00 -3.89586985e-01 -6.24679995e+00
      1.67946994e+00 -8.71352959e+00 -3.35480005e-01 -1.34544001e+01
      -1.24375999e+00 -1.35253000e+01 -2.20235991e+00 -1.35474005e+01
      -3.16141009e+00 -1.35363998e+01 -2.94748998e+00 -1.11690998e+01
      -6.28894997e+00 -6.44742012e+00 -4.38039017e+00 -7.52765989e+00
      -2.26411009e+00 -7.53029013e+00 -1.28900003e+00 -7.50799990e+00
      2.93559003e+00 -8.68717957e+00 -1.27274001e+00 -7.49119997e+00
      -2.24760008e+00 -7.53003979e+00 -4.37224007e+00 -6.37024021e+00</_>
    <_>
      9.99363005e-01 -5.92018986e+00 2.09612989e+00 -9.96271992e+00
      5.34152985e-01 -1.19154997e+01 -1.11870003e+00 -1.26953001e+01
      -1.57149994e+00 -1.46280003e+01 -3.68030000e+00 -1.32384005e+01
      -3.51106000e+00 -1.29022999e+01 -4.84730005e+00 -1.15102997e+01
      -2.99276996e+00 -9.76858997e+00 -1.37491000e+00 -7.89077997e+00
      3.18527013e-01 -9.38022995e+00 -4.35974002e-01 -1.09083004e+01
      1.10152996e+00 -1.20009003e+01 1.76055998e-01 -1.18606005e+01
      -7.95653999e-01 -1.03695002e+01 -5.97992003e-01 -8.72019005e+00
      -3.88184011e-01 -7.04328012e+00 -9.26472008e-01 -3.84375000e+00
      -3.12613994e-01 -3.90385008e+00 -9.40773010e-01 -2.05398989e+00
      -1.32427001e+00 -1.47703004e+00 -1.67252004e+00 1.85050994e-01
      2.77312994e-01 -3.15661997e-01 8.57711971e-01 4.76186991e-01
      -4.65851009e-01 -2.57214999e+00 -5.57067990e-01 -4.38926983e+00
      -3.79058987e-01 -6.19220018e+00 -1.12311995e+00 -1.74684000e+00
      -4.63943005e-01 -3.20040011e+00 -9.89731014e-01 -4.77244997e+00
      -1.51555002e+00 -6.34448004e+00 -7.38556027e-01 -8.45650959e+00
      4.20958996e-01 -8.62292004e+00 -8.17183971e-01 -9.01424026e+00
      1.24770999e-01 -9.15159988e+00 -1.21840999e-01 -9.34006977e+00 0.
      0. -9.10820007e-01 6.80245018e+00 -3.40181994e+00 5.05730009e+00
      -3.95049989e-01 -3.44290996e+00 -1.45493996e+00 -8.88809025e-01
      -4.60433997e-02 -4.07478005e-01 9.04663026e-01 -2.44596004e+00
      -1.64398000e-01 5.52588987e+00 -1.72739005e+00 7.37842989e+00 0.
      0. -2.04755998e+00 5.00031002e-02 -5.75455010e-01 -6.29570007e-01
      5.33086014e+00 -8.10155010e+00 2.63081002e+00 -9.72266960e+00
      1.15102005e+00 -1.01402998e+01 -8.30078032e-03 -1.17321997e+01
      9.73327994e-01 -1.18539000e+01 -5.06775022e-01 -1.00375004e+01
      5.76065004e-01 -9.30020046e+00 2.98308991e-02 -2.34391003e+01
      3.07775998e+00 -2.64699993e+01 2.19901991e+00 -2.74936008e+01
      2.33154011e+00 -2.71896000e+01 5.27687979e+00 -1.93407001e+01
      6.49478006e+00 -9.33743000e+00 1.23885997e-01 -9.19417953e+00
      1.17638004e+00 -9.37971020e+00 1.00068998e+00 -9.63199043e+00
      -1.61873996e+00 -1.05166998e+01 1.59318995e+00 -2.75254993e+01
      3.07241988e+00 -2.83397999e+01 1.90137994e+00 -2.69692001e+01</_>
    <_>
      1.57832995e-01 1.22169003e-01 -9.50447023e-01 9.53552008e-01
      3.61057013e-01 -6.54677987e-01 4.75841999e-01 -1.05707002e+00
      1.92983997e+00 -3.48419011e-01 -4.61349003e-02 2.73360997e-01
      -6.75926030e-01 7.36663997e-01 -3.58424997e+00 2.31154990e+00
      -5.23116016e+00 3.62160993e+00 -5.74277020e+00 -1.07634999e-01
      -3.91472006e+00 -5.25542974e-01 2.39226997e-01 1.31654000e+00
      4.28115988e+00 3.05325007e+00 4.50442982e+00 2.33926010e+00
      3.39386010e+00 -8.09737980e-01 1.12276995e+00 -3.51256996e-01
      2.38546991e+00 2.76947003e-02 -2.85321999e+00 1.03048000e+01
      -3.75964999e+00 7.61206007e+00 -8.89792979e-01 6.26504993e+00
      1.98499000e+00 5.08109999e+00 2.48775005e+00 4.01415014e+00
      3.24097015e-02 5.27607012e+00 5.53710997e-01 7.52711010e+00
      2.24624991e+00 8.62753963e+00 1.54198003e+00 9.92726040e+00
      -4.35638011e-01 1.25983000e+01 6.13007009e-01 2.28452992e+00
      6.07620001e-01 1.50494003e+00 -5.94528019e-01 1.93111002e+00
      -5.99929988e-01 1.15149999e+00 -1.15382004e+00 -1.87830997e+00
      -8.89083982e-01 -6.16927981e-01 -6.33408010e-01 -1.75805998e+00
      8.51166010e-01 -1.83913004e+00 1.07558000e+00 -3.11530995e+00 0.
      0. 3.37273002e-01 9.59990978e-01 -4.50980991e-01 2.18066001e+00
      -1.24091998e-01 9.44214016e-02 -5.10375977e-01 -2.18790007e+00
      2.68433005e-01 -2.22049999e+00 1.29855001e+00 -1.13633001e+00
      1.69678998e+00 2.14299989e+00 8.89998972e-01 2.14923000e+00 0. 0.
      -3.11737001e-01 -1.01516998e+00 4.31609988e-01 -3.42227006e+00
      2.99588990e+00 -6.78201008e+00 1.08427000e+00 -4.62977982e+00
      -9.05640006e-01 -2.36638999e+00 -6.32233024e-01 -2.32020998e+00
      -1.57657003e+00 -2.36425996e+00 -4.80692005e+00 -5.74846983e+00
      -6.83809996e+00 -1.02570000e+01 -4.91864014e+00 -1.36515999e+01
      -1.69000006e+00 -1.24252996e+01 -7.55936027e-01 -1.12203999e+01
      -1.02853000e+00 -1.12393999e+01 2.19601989e+00 -1.01489000e+01
      3.16758990e+00 -8.00220966e+00 -8.78921986e-01 -8.80187988e-01
      -5.88608027e-01 3.26034993e-01 -1.54979002e+00 -8.78051996e-01
      -5.84188986e+00 -1.02960997e+01 -1.74556005e+00 -1.39650002e+01
      -7.84331977e-01 -1.27609997e+01 -1.03839004e+00 -1.15655003e+01</_>
    <_>
      3.01666999e+00 5.52204990e+00 1.15366006e+00 4.59778023e+00
      2.14807010e+00 5.22874022e+00 3.15609002e+00 2.90951991e+00
      2.60183001e+00 2.14443994e+00 3.27873993e+00 1.56076002e+00
      2.40145993e+00 -2.91336000e-01 -2.85797007e-02 -1.98117006e+00
      4.19418007e-01 -3.17516994e+00 -5.17409980e-01 -2.78170991e+00
      -1.16205001e+00 -3.52512002e+00 -3.12506008e+00 -2.74204993e+00
      -4.91311979e+00 1.06329000e+00 -6.33295012e+00 1.98502004e+00
      -4.74151993e+00 2.98683000e+00 -4.62930012e+00 5.39321995e+00
      -2.96026993e+00 6.37291002e+00 2.55851007e+00 -2.43052006e+00
      7.10457027e-01 -3.40521002e+00 1.10221997e-01 -4.58101988e+00
      9.59891975e-01 -8.83603001e+00 1.76828003e+00 -1.03848000e+01
      -8.76510978e-01 -1.00784998e+01 3.46221998e-02 -8.12271023e+00
      -6.16486013e-01 -4.90647984e+00 -1.35067999e+00 -1.83446002e+00
      -4.90204000e+00 8.08269978e-01 7.79632986e-01 -2.06094003e+00
      -9.30739999e-01 2.53241986e-01 -1.13578999e+00 -3.17764014e-01
      1.39800996e-01 -8.62518013e-01 4.74487007e-01 5.82004023e+00
      1.68075994e-01 4.35045004e+00 -1.38336003e-01 2.88087010e+00
      -3.37523007e+00 4.46429014e+00 -3.65095997e+00 6.10011005e+00 0.
      0. -2.42950007e-01 -4.09821987e+00 7.33223021e-01 -3.92795992e+00
      1.50177002e-01 3.64196986e-01 5.17578006e-01 1.60652995e+00
      -4.58579987e-01 1.43624997e+00 -2.20717996e-01 9.61188972e-01
      -4.92873996e-01 -4.51791000e+00 2.00269008e+00 -4.33249998e+00 0.
      0. 1.72205997e+00 2.69368005e+00 7.07046986e-01 2.53449988e+00
      -2.37932992e+00 1.18016005e+01 2.83569008e-01 7.85554981e+00
      -7.75146019e-03 5.16031981e+00 -1.87083006e+00 5.11745977e+00
      -2.18684006e+00 5.33360004e+00 -2.68674994e+00 9.76990986e+00
      -4.67433023e+00 1.25830002e+01 -2.86963010e+00 9.27657032e+00
      -2.47350001e+00 6.04922009e+00 -6.54708982e-01 5.93690014e+00
      -1.77348006e+00 7.28048992e+00 -1.36581004e+00 1.02362003e+01
      -1.08159995e+00 1.19219999e+01 -9.63898003e-02 4.84988022e+00
      -1.93735003e+00 4.88461018e+00 -3.74505997e+00 5.03576994e+00
      -4.51910019e+00 1.25386000e+01 -3.78233004e+00 6.47758007e+00
      -1.97461998e+00 6.32644987e+00 -9.63898003e-02 4.84988022e+00</_>
    <_>
      -1.63422003e-01 -2.57151008e+00 -1.09508999e-01 -4.28248978e+00
      -5.14259003e-02 -4.84024000e+00 -3.43170017e-02 -5.33657980e+00
      2.04948997e+00 -6.84108019e+00 4.08611012e+00 -6.91596985e+00
      4.04555988e+00 -5.63460016e+00 1.85374999e+00 -6.23145008e+00
      -4.14276011e-02 -6.40825987e+00 -3.84395003e+00 -6.31035995e+00
      -7.16952991e+00 -7.22205019e+00 -6.96549988e+00 -6.06499004e+00
      -5.43416977e+00 -4.97345018e+00 -3.67144990e+00 -5.18855000e+00
      -2.78302002e+00 -2.20583010e+00 -1.93973005e+00 -3.14911008e-01
      -3.15298009e+00 2.63537002e+00 -1.04440999e+00 2.79313993e+00
      2.50093007e+00 4.60958004e+00 2.25464010e+00 5.51037979e+00
      2.85702991e+00 9.47743034e+00 1.05246997e+00 1.10848999e+01
      1.21740997e+00 5.33813000e+00 9.17510986e-01 2.97375011e+00
      -7.54836977e-01 -5.50055981e-01 -4.45708990e-01 -1.11420000e+00
      -2.13927999e-01 -1.06778002e+00 -2.05658004e-01 3.39033008e+00
      -2.07351995e+00 7.49763012e-01 -2.78983998e+00 2.27157995e-01
      -3.55138993e+00 -1.38724005e+00 -3.51835990e+00 -4.42060995e+00
      -3.87679005e+00 -4.21606016e+00 -3.10854006e+00 -2.88297009e+00
      -4.36871004e+00 -3.47921991e+00 -2.30820990e+00 -3.11919999e+00 0.
      0. 1.02578998e+00 -5.73913991e-01 1.75472999e+00 -1.16849995e+00
      1.23064005e+00 1.27073002e+00 1.38457000e+00 7.07718015e-01
      5.95978022e-01 -8.60854983e-01 -4.00085002e-02 3.04112005e+00
      -1.75963998e-01 4.31136996e-01 -5.79757988e-01 -1.89980000e-01 0.
      0. 1.19871998e+00 5.55260003e-01 -6.05820000e-01 1.44180000e-01
      -1.28233004e+01 -2.50785007e+01 -7.30669022e+00 -2.03535995e+01
      -4.19533014e+00 -1.99773006e+01 -3.45172000e+00 -1.97667007e+01
