<?xml version="1.0"?>
<opencv_storage>
<opencv_ml_ann_mlp>
  <format>3</format>
  <layer_sizes>
    136 136 136 8</layer_sizes>
  <activation_function>SIGMOID_SYM</activation_function>
  <f_param1>1.</f_param1>
  <f_param2>1.</f_param2>
  <min_val>-9.4999999999999996e-01</min_val>
  <max_val>9.4999999999999996e-01</max_val>
  <min_val1>-9.7999999999999998e-01</min_val1>
  <max_val1>9.7999999999999998e-01</max_val1>
  <training_params>
    <train_method>BACKPROP</train_method>
    <dw_scale>5.0000000745058060e-02</dw_scale>
    <moment_scale>5.0000000745058060e-02</moment_scale>
    <term_criteria>
      <epsilon>9.9999997473787516e-06</epsilon>
      <iterations>100</iterations></term_criteria></training_params>
  <input_scale>
    3.4848766751512089e-01 -1.1839860312239485e-01
    2.3119825240733119e-01 -8.7358124343544064e-02
    3.6797179637059990e-01 -1.6823792355192679e-01
    2.0640932742548512e-01 8.3444818456047898e-02 3.4188739060874263e-01
    -1.9092369568368092e-01 1.6604051773424275e-01
    1.9002557332698017e-01 2.7587431626268505e-01
    -1.3246944952753009e-01 1.4505371978742715e-01
    2.6225330116852541e-01 2.4170761539846874e-01
    -4.4966474428696892e-03 1.2713989558099278e-01
    3.1072046351414428e-01 2.6381240165455183e-01 1.4779585835297922e-02
    1.0494890487686306e-01 3.4971838950381345e-01 3.0499537588729708e-01
    1.1611332338063990e-02 8.5796966181649656e-02 3.6798051941195820e-01
    3.3212725445329488e-01 3.2232330737265939e-02 7.7075176426049455e-02
    4.2082982423070270e-01 3.5947742326824994e-01 7.9827766645266061e-03
    7.2680697717467865e-02 4.4291819391773685e-01 3.4199019252953533e-01
    -5.2232611015923192e-02 7.6107156431452314e-02
    4.3163685407062369e-01 3.1581193308115535e-01
    -3.0543561172955994e-02 8.4744999339922814e-02
    3.9438345817447651e-01 2.8251610029648705e-01
    -6.9848806795282117e-02 1.0463593679918338e-01
    3.8514507697914230e-01 2.5602098984466171e-01
    -3.0170221320565165e-02 1.2718696208215488e-01
    3.6472681084385450e-01 2.9476819583310432e-01 1.1186347476706421e-01
    1.4705506482915767e-01 3.1264304290356015e-01 3.7083792664864346e-01
    2.2366028034623020e-01 1.7570741587087707e-01 2.3943009174787294e-01
    4.0886921827220324e-01 1.9127087754361899e-01 2.2353483758334564e-01
    8.3694646603237832e-02 3.8183016823687416e-01 1.4017962180883861e-01
    2.4529456520986917e-01 -1.5516499519418600e-01
    4.5826534637339617e-01 1.3216853654046348e-01 1.9332221462930732e-01
    -3.8561998974476611e-02 4.9537154835275371e-01
    -1.5930885185260289e-02 1.5739134734071447e-01
    -1.0364036534048511e-01 4.7762170733411702e-01
    -1.2656658082579667e-01 1.3052086800740365e-01
    -1.2528875654292199e-01 4.2330310910747582e-01
    -1.3429859697059970e-01 1.2351753206393068e-01
    -1.3645008475632270e-01 3.1380111140351924e-01
    -1.2547403288456618e-01 1.3339620399035668e-01
    -1.6357896040304890e-01 3.0294572944294051e-01
    1.0970199017731512e-01 1.3191383361010417e-01
    -1.6502615140979790e-01 4.0350696410153197e-01
    4.2016709790837152e-02 1.2458949239658898e-01
    -1.4080876989353872e-01 4.5215708225098555e-01
    3.5935912382631038e-02 1.3205567452078493e-01
    -1.3884997090739948e-01 4.8301432364039926e-01
    5.9837463644756032e-03 1.6150883008851466e-01
    -1.0458097688906393e-01 4.5697142267279173e-01
    -9.2859982907600669e-02 1.9893805589998786e-01
    -5.5728425853136226e-02 9.6125918492641338e-01
    -1.3832628698194183e-01 3.8391779290943240e-01
    -2.9594900980772737e-01 9.0347981316922665e-01
    -1.4065022291792212e-01 3.6801313709929395e-01
    -1.5482054703546352e-01 7.6698413003010124e-01
    -1.0280692160359269e-01 3.2512148826293763e-01
    -3.0661286885799152e-02 6.4711354028721990e-01
    -4.7591756634919845e-02 2.7169883311667548e-01
    4.0303119173952399e-02 4.7959420136611158e-01
    -5.5405131702354504e-01 3.0690580546430152e-01
    -2.9095245604352959e-01 6.5241378521956828e-01
    -4.2391454400772444e-01 3.4543075536604301e-01
    -1.7457656150822204e-01 7.3011195672554019e-01
    2.4921030033451624e-02 3.5952458163375678e-01
    -7.0930589470477381e-02 5.7898876995849591e-01
    3.8445764522524983e-01 3.4189396327263738e-01
    -2.0027500269260556e-01 4.2979210223241571e-01
    5.1118677335758711e-01 3.0688833637527074e-01
    -3.0787335722396814e-01 1. 0. 1. 0. 1.2015179485738987e+00
    2.2319565022501753e-01 3.9123114251323210e-01 2.3159144049049471e-01
    8.6304478188353539e-01 -1.1976645235659913e-01
    4.1665141650256793e-01 2.0956466379207156e-01 8.3135164917269055e-01
    -5.1483717010795911e-02 6.3685487211420810e-01
    -1.9320902541799909e-01 9.8909672238996471e-01
    -9.3318192727370672e-02 5.2865966850626889e-01
    -3.4332166732614550e-01 1.0068019059098687e+00
    2.9571192459742474e-01 5.6862457481083351e-01
    -3.9724974333862589e-01 8.6100683115573007e-01
    4.4033057170610429e-02 6.8917879154058304e-01
    -2.2994399611685415e-01 8.8665682622293851e-01
    1.5383033537965604e-01 4.1467412281131544e-01 1.7696694142370906e-01
    1.1500186229653580e+00 -1.5946616022225768e-01
    3.8554128361529061e-01 2.1442085766779068e-01 1. 0. 1. 0.
    1.0206033086947717e+00 -3.5333772825460075e-01
    5.6599620403516260e-01 -3.8029272950065640e-01
    9.7584548963884288e-01 3.2813521456952481e-02 5.4158063854149707e-01
    -3.4863484222655267e-01 1.3726831322057165e-01
    -2.8261472283459965e-01 9.2165385656452201e-02
    1.3009708573608652e-02 2.0687117156441809e-01
    -5.0770114069769345e-01 1.5709594136292210e-01
    -2.4674669719191994e-01 3.7842685866821735e-01
    -3.5398339366350290e-01 2.0357656440418931e-01
    -2.9949468563667392e-01 5.4278126747300193e-01
    9.6200026981614964e-03 1.9898415719263429e-01
    -3.3560082059715113e-01 3.3054155116260464e-01
    3.3839321539178879e-01 1.9969215999069187e-01
    -2.9047762545887656e-01 1.8892823850892879e-01
    4.8180538582220028e-01 1.5332738274404592e-01
    -2.4532773632352145e-01 1.3072430906238688e-01
    2.9428867659000663e-01 8.6915521489488487e-02 3.3419400717802430e-02
    1.7627854379648855e-01 4.7794661411459222e-01 6.3755668134954577e-02
    3.4819773644340662e-01 2.9460393671711255e-01 3.5584615710904194e-01
    5.3416403455191407e-02 4.2786026150181183e-01 4.5361767641351602e-01
    1.3059243285543556e-03 5.2690601132292771e-02 4.3843351790853907e-01
    3.3655571485672087e-01 -4.0536897789966470e-01
    5.3915905480383178e-02 4.2961269741463354e-01 1.9361917017035704e-01
    -5.1629037267467848e-01 6.5178254646209507e-02
    3.5266793641462157e-01 1.3390663812937426e-01
    -2.9269023503608799e-01 9.6718478589020898e-02
    2.9070406517239366e-02 3.6967812962058577e-01
    -3.2858047660871659e-01 1.7127780420732414e-01
    -3.2829814570835425e-01 5.3826217135560828e-01
    2.9725417317247916e-02 1.7879452058466300e-01
    -3.4292875720670496e-01 3.3381244706003160e-01
    3.2294437940385146e-01 1.7018347657816879e-01
    -3.1501373190942705e-01 1.2721275119864298e-01
    2.8915272756673055e-01 9.1540559070566963e-02 4.6034762675129418e-02
    3.0046674897818310e-01 3.3330510757383885e-01 5.8963081893089568e-02
    4.5920790336231593e-01 4.6887756741281172e-01 1.3446849885826681e-03
    5.8880498623442294e-02 4.7017766482902168e-01 3.5105801430109967e-01
    -3.8534748917006312e-01 5.9621104244930265e-02
    4.6255349085073749e-01</input_scale>
  <output_scale>
    5.2631578947368418e-01 4.9999999999999994e-01 5.2631578947368418e-01
    4.9999999999999994e-01 5.2631578947368418e-01 4.9999999999999994e-01
    5.2631578947368418e-01 4.9999999999999994e-01 5.2631578947368418e-01
    4.9999999999999994e-01 5.2631578947368418e-01 4.9999999999999994e-01
    5.2631578947368418e-01 4.9999999999999994e-01 5.2631578947368418e-01
    4.9999999999999994e-01</output_scale>
  <inv_output_scale>
    1.8999999999999999e+00 -9.4999999999999996e-01
    1.8999999999999999e+00 -9.4999999999999996e-01
    1.8999999999999999e+00 -9.4999999999999996e-01
    1.8999999999999999e+00 -9.4999999999999996e-01
    1.8999999999999999e+00 -9.4999999999999996e-01
    1.8999999999999999e+00 -9.4999999999999996e-01
    1.8999999999999999e+00 -9.4999999999999996e-01
    1.8999999999999999e+00 -9.4999999999999996e-01</inv_output_scale>
  <weights>
    <_>
      -9.0347528238632901e-02 1.1292308490182729e-01
      1.1878938763149618e-01 -2.7421761037870029e-01
      6.7680728736455281e-02 7.7733424110368002e-02
      2.4635128701228085e-01 5.4047376667302388e-02
      -9.2141102522501780e-02 3.4423488896312103e-02
      1.2255535283474500e-01 -8.9406738850735565e-02
      -2.2031967246577025e-01 1.4452862471195541e-01
      -2.3208518873528494e-01 -2.5836356001014155e-01
      1.1903056292861904e-01 1.3347696954934252e-01
      -2.8702503335142848e-01 8.5464158863480522e-02
      4.5121123417826103e-01 -6.1286966260074925e-02
      -1.9411797887264579e-01 -2.3707352624172973e-01
      -1.7582088118821806e-01 -2.3962029903978482e-01
      -8.3600780610275455e-02 8.3506164762559773e-02
      -3.4126853260756512e-01 -7.4957684702057728e-02
      -1.4586210227365670e-01 7.9419449984020896e-02
      -1.6320482017157016e-02 1.8859985373012533e-01
      1.0778432736931817e-01 -2.5598598318288762e-01
      -2.1934608545087850e-01 -8.4070811450512636e-02
      2.0425466209643191e-02 2.4725707487316720e-01
      -1.2681119082117834e-01 -4.0658863635581542e-02
      3.8779037526911445e-03 1.8954146333884453e-01
      1.4475466654772054e-01 -2.3054594637928608e-01
      -3.2799156144992286e-01 -1.6492649112977581e-01
      -1.9938816180251645e-01 2.7907606761519027e-01
      -2.6951772810217273e-01 -9.5942708958833972e-03
      -8.1697793803402516e-02 -2.7774738974549440e-01
      2.2231866513279730e-01 -5.1573697554920923e-02
      1.3599913935493438e-01 1.5956515046887096e-01
      -2.0375633214136146e-01 -2.4801976446301707e-01
      6.1192096672266827e-02 1.8061237654824006e-01
      -7.2086601689666718e-03 -6.8761776090821181e-02
      -1.9307806717860565e-01 4.3248132047973890e-02
      1.9732818030141130e-01 -7.6085886852800433e-02
      1.1892973494781188e-01 1.8158659490638179e-01
      5.0650529559533954e-02 2.2112599699519186e-01
      -1.0378593345899083e-01 -1.1783239974704701e-01
      1.0578030975985997e-01 -1.5601394334107392e-02
      4.0973502157225267e-01 4.7311504733089517e-02
      -6.3682119423752501e-02 4.9680808837136853e-02
      1.1089521370828528e-01 5.9468931516456741e-02
      1.8285702855258190e-01 -5.0419605678983362e-02
      7.5546897580679687e-02 -2.5547740335605967e-01
      1.8473365170008396e-01 1.8911203891924435e-02
      -1.1741611045372193e-01 -2.4286663854114027e-01
      6.7852896520166933e-02 2.9745483999194722e-01
      -1.0363632830567772e-02 1.5383903215486672e-01
      -5.9961905165057082e-02 1.7585842132151761e-01
      1.5734765917222571e-01 -3.6952534233959367e-01
      -1.0494379736680456e-01 -2.5917941894375840e-01
      9.9014621268242412e-02 -8.4700307204089734e-02
      -8.4460457902035241e-02 1.8568600771480201e-01
      1.1051496501967717e-01 1.4073486251210021e-01
      -4.3577767075112864e-02 -7.9671897311004727e-02
      -3.7039862477464436e-02 -1.4709951082220757e-01
      -1.1147322564837159e-01 -2.1903815243114752e-01
      -5.0041905524476765e-02 -1.9075492393038651e-01
      1.4384055205941951e-01 8.5566276594687324e-02
      -6.9572123102314393e-02 1.5846941590135197e-02
      3.7969931333348396e-02 1.7331788421884264e-01
      1.1141983710107091e-01 1.1865193432098803e-01
      -2.4657974756517277e-03 -1.6067423803858263e-01
      -2.2501879942048555e-01 -1.1356688703068493e-01
      1.1845041217981080e-01 -2.6288038469232507e-02
      8.6838913475778285e-04 -1.4960430463412611e-01
      -3.5441127254760657e-01 -1.9375989722089310e-01
      8.6108540392241251e-03 -6.8682301155716413e-02
      1.2641531711631249e-01 1.6701325827421920e-01
      2.0696121268642420e-01 -8.6970519599178162e-02
      7.9210211094558239e-02 -3.5776862555809960e-02
      -1.5484217490708643e-01 5.5614184855290454e-02
      -5.8110052008549778e-03 -1.5816314020832545e-01
      -3.7412245605237406e-02 -7.1553834908943646e-03
      -1.7762595917578554e-02 -7.5028333504536304e-02
      -1.7484648349044457e-01 2.1188268920306605e-01
      -3.4763910509099535e-02 -7.0537630065195187e-03
      -5.3544445061086118e-02 -7.0277311654188632e-03
      -2.1275754538117184e-01 -1.0052223945493190e-01
      2.9089919741177628e-02 -2.4261707209818179e-01
      -2.2623393258131680e-01 -2.4184706300554113e-02
      -3.9021746320741402e-02 -2.2017538928913150e-01
      -1.0289781772480269e-01 -8.1916055257279824e-02
      -2.2253268216974909e-01 7.1548104146266889e-02
      -7.3155761600505256e-03 8.6199347841044077e-02
      1.3604828675308225e-01 -3.2751406068530040e-02
      -8.4418652780726286e-02 4.9545917361469974e-02
      -2.2257706375088721e-01 -3.8659587932757436e-02
      -7.8546207907997864e-02 -2.4763711439621480e-03
      9.8668226560401839e-04 -4.1153633002916860e-03
      -2.2258786605130129e-01 -2.1651837736815744e-02
      -1.6045217388092897e-01 -1.9448961293430261e-01
      -1.1241024246459888e-01 -8.3674853105747626e-02
      -4.8036382717513676e-02 2.3610219391631163e-01
      1.0522132286451273e-01 9.7120038291558339e-02
      -9.9759894406550211e-05 7.2793884239972947e-02
      3.6763037617219552e-02 -1.0539623463576070e-02
      -9.0852795147033441e-02 -8.1263810460529939e-02
      5.3495303783014932e-02 -1.1931799295631504e-01
      -9.1886510519676654e-02 -5.2647841048812415e-03
      1.0213337750193674e-02 1.7690596665507180e-02
      6.7053361124045668e-02 -4.0861066960839682e-03
      2.4332129576251138e-02 1.0312831155031028e-01
      -8.5495619395943537e-02 1.6619169790107152e-01
      1.2095557718233466e-01 1.7592344627079648e-02
      -2.3832033921668935e-01 -1.9860585468619113e-01
      3.3516461537828002e-02 -4.3719661636613810e-02
      8.5560687764672252e-02 -2.4670974760141476e-01
      -3.5065239084458100e-01 1.4645562482098859e-01
      2.2814660025096037e-02 1.3042571187766913e-01
      1.7780711477953248e-01 -1.4042692579096658e-01
      -3.7511736664259461e-03 -1.7515393492146366e-02
      7.0068602541536781e-02 -3.5244860767579966e-01
      1.2413061841105411e-01 1.0151477400172496e-01
      8.7659540741143571e-02 8.5413246056545378e-02
      -2.1140811908092508e-01 2.6656992759156371e-02
      -1.5318777012015602e-01 6.9843677871074636e-02
      -7.0523250244510435e-02 2.0959332350265814e-02
      1.0819771913940340e-01 5.0188697091518734e-02
      3.9150104091497223e-01 1.8499212821111298e-02
      -2.2113975366377533e-01 -3.8641095860413879e-02
      -1.1399686115615648e-01 -8.2582448927649668e-02
      1.1848869589693364e-01 6.0228437144030623e-02
      2.9349661032841017e-02 -2.5745995551132634e-03
      -4.7765699273259701e-02 2.3153213955794293e-02
      6.0628651069878692e-02 1.9373749205174800e-02
      4.9321115022900833e-02 1.6181166346071446e-01
      -1.6292537543898328e-01 -1.8723118776548120e-01
      2.6784579770078309e-01 -1.3751813503461954e-01
      1.3713138192559313e-01 -7.0020074836507379e-02
      -1.6794254251999780e-01 5.3022372015987480e-02
      -2.1270925832092941e-01 8.0023737188916255e-02
      -1.8856429372388109e-01 -1.0231858106715719e-01
      4.7442339056483332e-02 7.3944217972964882e-02
      1.7819868308537900e-03 -3.0514697048060613e-01
      1.7313143493926209e-01 1.0463755156714460e-01
      -5.0702279056163244e-02 -2.7282445590297577e-02
      -2.6840270094521407e-02 5.4953401705615086e-02
      7.3190056079419016e-02 -1.3730151758739267e-01
      3.1811049143653590e-02 6.9192782128394387e-02
      1.9411211931174496e-01 -2.0048584831312742e-02
      -8.5818118396254015e-02 -5.8289834439013951e-03
      1.0340746070427949e-01 -9.4051518882721660e-02
      -1.3698916803562378e-01 7.3403970913681824e-02
      -1.6688206664743296e-01 -8.6521280913977788e-02
      3.8457123541731288e-02 -1.4333258128324380e-01
      -2.1254122940178671e-01 1.6291436467341811e-02
      2.6997310285492626e-01 -1.5644407036878367e-02
      -2.2062867274980988e-01 -5.7559165223804283e-02
      -1.3088988777583371e-01 -1.5085706641071001e-01
      -1.1878612166535828e-01 3.4254749446826153e-02
      -1.9142046538745952e-01 -2.0019983041339111e-02
      -7.1849445141927652e-03 1.7747645490996314e-01
      -1.6675422827853417e-02 1.3621933403768569e-01
      3.5249169613608161e-02 -2.0797643668397162e-01
      -2.1500837219104929e-01 -1.0462548777743466e-01
      -3.3108937549778179e-02 7.3089714341632972e-02
      -6.4709681875913458e-02 7.3500306970897128e-02
      -4.2499893737954667e-02 1.5051131443537877e-01
      5.7775765268344784e-02 -1.8632810489181045e-01
      -1.8570893580113454e-01 -3.2718981950278982e-02
      -1.6804534438323911e-02 2.5497917112338447e-01
      -1.1295978078013559e-01 -1.6949568124877171e-01
      -6.5135578790018106e-02 -1.2257034023641739e-01
      7.6188262576250748e-02 -3.5142976259356570e-02
      -2.3206380054111537e-02 1.4810460183339397e-02
      -6.5113329198751230e-03 -1.2220273317641057e-01
      3.5897604865065031e-03 -5.1654134093150799e-04
      -5.0140783660882079e-02 -2.1035920548668017e-02
      -5.0093269259764303e-02 3.6541162699092605e-02
      6.7396504759788978e-02 -3.3444922844139115e-02
      4.6243895356179926e-02 1.1761113003650547e-01
      7.8613321115507562e-02 1.6038006549027048e-01
      -1.6322458742683787e-01 -2.2722909372064762e-01
      9.2031464577096503e-03 1.0120952579759481e-02
      2.0327220492199993e-01 -1.6489376349967964e-02
      -7.3157199190547764e-02 1.4994095923539830e-02
      9.7752487928335602e-02 -1.6128739573681126e-02
      6.1626360261259436e-02 1.2724767694677138e-02
      7.2294548749428936e-02 -7.6602130933441120e-02
      1.8874055692294830e-01 -5.5378376984781950e-02
      -3.7251821593793324e-02 -9.8441834762560521e-02
      5.0764529497930019e-02 2.6820512627091186e-01
      -9.6780339481659622e-02 8.5879637073239687e-02
      -1.6137582681721144e-01 1.4773336798908879e-01
      1.4419614328565032e-02 -1.4796584039880600e-01
      -7.7371210084222847e-02 -6.3218345322211905e-02
      1.3435904688249961e-01 2.1142133758176598e-02
      -1.2684851712163348e-01 3.4308855660004210e-02
      1.0060172552857977e-01 9.4349577351177660e-02
      6.6197269503122630e-02 -5.4780596169978178e-02
      -1.5133777152891178e-02 -1.2205649302648575e-01
      -1.4342612529404747e-01 -1.0554312109439669e-01
      -7.1510020296175385e-03 -6.3969392455322446e-02
      1.5613566100105145e-01 5.8194850223846836e-02
      -1.4221114066666582e-01 -4.2456624354340375e-02
      1.0941744471183729e-01 6.1932739595201555e-02
      1.6791455245521886e-01 1.6886763673849253e-02
      -1.1677711621996158e-01 -2.4331738081664445e-02
      -2.2243184653141088e-01 5.0253327617795142e-02
      1.7533929671101497e-02 -5.3264545008205690e-02
      7.8731332232288481e-02 -4.2217536121274601e-02
      -1.2082278543274805e-01 -1.8704295162386633e-01
      7.7788396822766490e-02 6.0179777458083283e-02
      3.1037502578880202e-02 6.1740048853182447e-02
      1.4251807700943250e-01 -1.8039832521193374e-03
      5.8976901637204114e-02 5.5992076483281791e-02
      -9.5605605439577593e-02 5.0846381388375429e-03
      1.5759922048020015e-03 -1.2710052357021892e-01
      -6.2064953537557616e-02 -7.8430302823563613e-02
      -2.4261360847800915e-02 -6.4979175864406186e-02
      3.0688272914310026e-02 1.2400994212547374e-01
      -5.6318247357278195e-02 1.5472482405354870e-01
      -9.8774944990270164e-03 -5.8735509231338150e-03
      -5.2761366942959013e-02 -8.4077092066936379e-02
      -1.5281967574374569e-01 -2.4458381272577906e-02
      -1.0289702247418367e-01 -5.9942805295988416e-02
      -2.7626484988354859e-03 -1.5486821664605024e-01
      -2.7804213588462485e-02 1.4577577898598002e-03
      -6.4232568511460725e-02 4.6211335905049604e-02
      3.5231890612331090e-02 1.5846931416524718e-01
      2.4002974266693622e-02 -1.8402715354405467e-02
      -4.0413874040904602e-02 2.9783969768204032e-02
      -1.4596300795191766e-01 -6.2810537485723059e-02
      -5.6029444971469299e-02 -2.8686554302846504e-02
      -1.3652973759683679e-02 -1.0955067051609975e-01
      -8.8083746529753273e-02 -1.0689979545613162e-01
      -1.6936656144955778e-01 -1.3282433499319699e-01
      -3.1635196476325843e-03 5.1550182719041132e-02
      -1.4810470902767381e-02 9.3461144726859055e-02
      -4.3294843408232350e-02 2.1216670593347742e-02
      -3.8406549952264377e-02 1.6968986661047095e-01
      -1.8019841094933022e-03 -8.4634920866129906e-02
      -1.0856706582771364e-01 -3.5631178805494344e-02
      1.2120263613158393e-02 -5.9207840026388953e-03
      -1.8001265823272865e-02 4.7543410829253459e-02
      1.5706103147016542e-01 3.0871706536959968e-02
      6.4930711392512788e-02 -3.7112220648865275e-02
      -6.0391344811231991e-02 5.7569527835699429e-02
      -1.4115601821322547e-02 -7.6530873596437256e-03
      1.1211770389645474e-01 -1.9957295968658285e-02
      -1.3416472144169264e-01 -3.6444851170911487e-02
      -5.8616983583172973e-02 -9.0203332575162276e-02
      -1.4633320558960671e-02 -1.1040875885124907e-01
      -1.1664301533501588e-01 1.0739009356602616e-02
      -3.1095694486954543e-04 2.5887963325309651e-02
      -6.3603064481255717e-02 1.6728377478044287e-02
      4.9733588027887889e-02 1.8602931876689495e-02
      4.8267024001054086e-02 -8.1992686573078399e-02
      1.7034465220180156e-01 1.7780584085510168e-01
      -9.5016064848343129e-02 3.3622191401084182e-02
      -2.8915241385341659e-02 3.4856289033018920e-02
      -1.6076518873264081e-01 -5.5225185523237248e-02
      -6.5028811443779561e-02 1.1665213110689845e-01
      7.5975925218147991e-03 1.5673038742691117e-01
      1.9254558514043091e-01 2.1329769256975797e-02
      -7.0128322710367244e-02 4.3929173887116355e-02
      -3.5849233012224556e-02 -3.5699888593734158e-02
      1.1260698599940723e-01 -6.6899579125214950e-02
      -2.1771227169381513e-02 1.8699828837988319e-02
      -2.6104045336456598e-02 1.1592308473471273e-01
      -9.6060512548197668e-02 8.4944149916631143e-02
      5.6228111160793173e-03 4.1996376900433022e-02
      -9.0462186845145631e-03 -8.2048092289170149e-02
      7.9463600936769213e-02 4.3894298602166083e-03
      1.4312892609342934e-01 3.4826113509943621e-02
      8.2906533690771181e-03 1.1299301099064751e-01
      -1.7168861044522671e-01 1.0454729085738861e-01
      -7.6026199227106364e-02 -1.2972902655817697e-01
      5.8676173223665064e-02 2.1469795963392789e-02
      7.6054479991457938e-02 -2.5161888228614349e-01
      2.1687679370084533e-03 5.9814992371382457e-02
      -7.8191632100144293e-02 3.3287917568846664e-02
      5.9387820600912043e-02 5.5964077169800688e-02
      -1.8237879924945192e-02 3.7872319082383074e-02
      -1.1094140661962744e-01 9.6112918804864708e-02
      1.3931769586115075e-01 -6.2482652702896734e-02
      -9.6582971921613567e-02 -6.9199833662535210e-02
      8.0013468343103966e-02 -7.4962820756295345e-02
      -1.1296295311468392e-01 -9.3063915466673752e-02
      -1.0507755626692646e-01 6.4198633916170478e-02
      4.8309204082778112e-02 -4.6183910004311984e-01
      -4.3802618358168205e-02 4.6525647537132651e-03
      1.2093188828138982e-01 -2.7317438865226775e-02
      -2.6770939766557239e-01 1.1003013444830945e-01
      -1.3426879822604540e-01 -1.4246754433143372e-01
      -1.5486303789975220e-01 3.1170580546480458e-02
      1.9951868648658722e-02 5.9709792720467475e-02
      1.1868682852828107e-01 2.8238327960613091e-01
      -2.9204759745136956e-02 1.0599037647646378e-01
      9.2309460034584855e-03 -1.2010471013224791e-01
      -1.3357460844315375e-01 -9.8995274124201130e-02
      -8.9668196741299014e-02 -4.3575011505871293e-02
      -1.0955281016796915e-01 8.6645434417837425e-02
      -1.8935672522896747e-02 4.6967149887587815e-02
      -6.0941965730235408e-02 -1.5410597847407295e-01
      -7.6571798666630275e-02 1.3463081096927379e-01
      7.1549174770216578e-02 3.3709304790960026e-01
      2.9656865748065864e-02 -2.5967509488903728e-01
      -4.6614672073832311e-02 7.1132647310759032e-03
      2.4196075789978920e-02 -4.6938643921691968e-02
      -1.6354184311161402e-01 -1.0257886967592869e-01
      8.3335986762760383e-02 -2.5169798063348719e-02
      4.9985223882131665e-03 -2.7978416033705394e-01
      -3.7484665693166969e-02 9.8885941860603344e-02
      7.1367005606696551e-02 -7.6843438813897658e-02
      -4.7355132451213235e-02 5.1690336357144442e-02
      2.1379676201729179e-02 3.5125956007253656e-02
      1.7738190007726709e-01 1.0244212911396904e-01
      -2.5688145748500718e-01 -4.4547694322972792e-01
      -1.0014678658275677e-01 -7.4597131452226670e-03
      -3.2431191306691535e-03 -1.4063839407230605e-01
      1.5317422451801460e-02 -8.9743012291581450e-02
      1.0297040289702328e-01 -1.7308853151491446e-01
      -5.3476842560832995e-02 1.2019792161215236e-01
      9.5475196228233500e-02 5.8294490908934016e-02
      1.4778436481766066e-01 -1.7220674384617021e-01
      8.6486106254069023e-02 2.8816451992400563e-03
      -4.9831078766831259e-02 2.7490108647261535e-01
      -1.2771000958899170e-01 1.2652339775172722e-01
      -2.1996424197402176e-01 1.1627676206734668e-02
      -2.0442050311746068e-01 2.5283446269768313e-02
      -5.4042408500194039e-02 1.2767327083603244e-01
      1.8801303300740602e-01 7.5760797363177396e-02
      -2.3542796256605794e-01 -1.5277513969788958e-01
      1.6730502409266587e-01 8.6141074457273106e-02
      1.1543513704303042e-01 -2.8925461711295126e-02
      -4.4014417219024514e-02 -2.5172780799498407e-01
      -1.9954533176855505e-01 1.0200256836714853e-02
      -2.9760518808816649e-02 1.6653409337376504e-01
      2.8345474343373289e-01 -5.7674536668856795e-02
      -3.4614818082820027e-02 -1.3806518609128207e-01
      1.7515501712784087e-01 -8.2931726437768846e-02
      1.5119271600896905e-01 -9.2962457126314207e-02
      -1.2604637155166334e-01 5.6742504343910892e-02
      -2.1121763644730859e-01 1.4136863579473938e-01
      -9.4159152899249601e-02 -9.2064326654513987e-02
      1.5469086277904739e-01 1.3086676742463801e-01
      4.2682282231385919e-02 -2.0935881295222392e-01
      1.2099109273024862e-01 9.5247447910639466e-02
      -9.5000253659877798e-02 -7.5882655610469293e-02
      8.8912871305217106e-02 1.5227597411538740e-02
      -4.0494781749358284e-02 2.0046015190282851e-01
      -5.3348373429249044e-02 2.2855350436733979e-02
      -1.5517093927904348e-02 -3.4962717939631412e-02
      -6.5923286424532879e-02 -7.2564184078594426e-02
      -2.8576383197712420e-02 -6.4537535503530516e-02
      1.1745485839007475e-01 2.8342245005548002e-02
      5.1856879742768680e-03 2.6378910489579421e-01
      2.4937198606715238e-02 -5.7305278176265739e-02
      1.0061985455489840e-01 -4.6259614276947261e-02
      -3.1818155218148153e-01 1.0131962431083961e-01
      -3.9063340807669475e-02 -2.0808393292536396e-02
      -1.7073510912292531e-03 -7.5236185505101166e-02
      -6.7029816808204098e-03 2.6124978497087913e-02
      7.3124304772529750e-02 3.7554742531581906e-02
      1.1166265937164370e-01 1.8748957915095021e-01
      -2.3372549731599065e-02 -2.6818994942846151e-02
      -4.8573542804083970e-02 5.2885030855208653e-02
      3.0363006216270867e-02 -4.8351325505079437e-02
      -5.1228704549694935e-02 -6.5005582497845021e-02
      -5.8745084670106092e-02 -1.8588582657711999e-01
      -2.5421973327892063e-03 -1.6239387007639766e-01
      -1.4473733882562756e-01 -9.5631765590332901e-02
      1.3556953412608680e-01 1.2116355905513947e-01
      5.5574220619394953e-02 -2.6010739838963893e-02
      -9.8997503782822807e-02 6.2522137316053435e-03
      -6.9099805511714574e-02 1.9712438866112761e-01
      -7.1845791054014382e-02 -9.5049912076385773e-02
      -1.7186203798704813e-01 -6.3580959948059901e-02
      3.9486051407844398e-02 3.6958244340120391e-02
      -1.2031842937780775e-03 2.9748326313633680e-02
      2.2145076214046122e-01 5.3671679708482516e-02
      7.6098667165645117e-02 -6.2026216036536561e-02
      -1.0636033068088814e-01 5.7199074037766966e-02
      1.8233236496927086e-02 -1.2366832879118111e-01
      9.7630361093916804e-02 -2.7559606001024674e-02
      -7.6686662763203156e-02 2.9727212671047779e-02
      -1.2118630340078142e-01 -1.0232832931685662e-01
      -1.0169762172262635e-01 -6.3131233089194641e-03
      6.0631084550402344e-02 -3.6044091602705483e-02
      -6.2559829159432260e-03 -3.2700910146764017e-03
      -1.9032517052808853e-01 4.6042304649158469e-02
      5.2836577698054124e-02 7.5329856637961032e-02
      1.5617164629393408e-02 8.4543068106037747e-02
      1.9133049204092226e-01 2.3568532514313598e-01
      -1.7103506135946725e-01 -1.8737571004522603e-02
      6.4382582373277694e-02 5.5469457981666442e-02
      -1.6757582962918638e-01 -8.8363665027741095e-02
      -8.3472535578384036e-02 2.2545606435940652e-01
      2.5011189543625752e-02 2.4054541174759569e-01
      9.0514896475556425e-02 5.2686017114378564e-02
      -4.1286993080727766e-02 5.3561967138475892e-02
      -1.4719401401710385e-02 -4.4562275294327706e-02
      1.1023507759456720e-01 -7.7013954176268759e-02
      -1.3791601087770687e-02 2.9825404760844651e-02
      -2.0132317104158880e-02 2.0626912366610040e-01
      -1.3484292323864547e-01 1.9778087995596186e-01
      -2.7414476849493566e-02 -3.2945128210183326e-02
      1.2732362088861759e-01 9.4168938558483115e-03
      -4.1394503993618680e-02 6.3775769482857500e-02
      9.2130078572608839e-02 1.1861867584942067e-01
      1.4380613498224834e-01 2.0485617591510089e-01
      -9.8331200067457283e-02 1.6275636107493685e-01
      -1.5444772014148116e-02 -9.5888056105177449e-02
      6.5643848402783131e-02 1.4512971481766777e-02
      1.6449611783940746e-01 -1.3883001531734987e-01
      -9.7720512996227638e-02 7.1640276714098172e-02
      -1.4216466256354060e-01 4.4295226515820435e-02
      1.1170477673079239e-01 1.4780203774232556e-01
      -1.5647597056579621e-01 5.7840778872069960e-02
      -7.7713877989536870e-02 1.4960045225834054e-03
      2.0691798032457746e-02 -1.8957966309721165e-02
      -8.4178113480021757e-02 -6.6903712622406689e-03
      1.8305803113001611e-02 -4.5554064389695670e-03
      -5.6321352533867101e-02 -1.2257818984753788e-01
      -3.2892472606958954e-02 1.1724777033592476e-01
      2.8445369620110253e-02 -2.3747847456709961e-01
      -2.9031704522227614e-02 2.7641494067196754e-02
      1.8591440361094491e-01 7.5575239972012154e-02
      -1.3742743009757150e-01 8.6786761374701191e-02
      -7.3552680332527542e-02 -7.5080409072593862e-02
      1.2254018724093353e-02 2.1735175877685683e-02
      -7.9743512614779619e-02 8.0496366068098249e-02
      5.3946366768273524e-02 2.0270803013793864e-01
      -9.6498727925893434e-03 4.0906580090015542e-02
      1.2919953098063094e-01 -2.8165478097294080e-02
      3.0769792718899512e-03 -4.7551794495489123e-02
      -5.1858879356984536e-02 -1.0626306376385922e-01
      -7.1375933740003075e-02 -2.1552784754247312e-02
      8.5333714083569660e-03 6.1131664091904035e-02
      -7.6215725739352466e-02 -2.5843344920209804e-01
      -1.5956263087289962e-01 1.0768521490231103e-01
      -1.4000212438937409e-02 1.9794863301318244e-01
      -1.6508948801685766e-01 -2.1181772998566198e-01
      -3.2550548047633562e-02 -2.5206971985444183e-02
      7.1584582928111803e-02 -3.4984954527987992e-02
      -7.4983981954457435e-02 -1.0651224027819438e-01
      7.4441830768950043e-02 -9.0898860794721648e-02
      1.4378825297573519e-02 -3.7167975682786701e-02
      7.3032822636367192e-02 -7.5001600756657216e-03
      3.8684619728386389e-02 2.1639504646854307e-02
      -9.9655532931604979e-02 6.1366988517639096e-02
      4.2495514389699680e-02 3.7069920616814536e-02
      3.8922983827817940e-02 -1.6968368701344664e-03
      -6.9957073708154252e-02 -1.7853476149516406e-01
      -1.0980070599047423e-01 2.3335106755738359e-02
      1.5067942345848298e-01 -1.0742902256636168e-01
      1.4145837036114109e-01 -2.3127509026214400e-02
      4.4317829187676874e-03 -7.9101619780693272e-02
      -1.0939130213001533e-01 6.1235277059140024e-02
      2.8264378931834262e-02 1.1442702222585392e-01
      -7.5009336229035261e-03 1.3408796875649920e-01
      3.4414717375031059e-02 4.2990986015944491e-02
      -1.3691225911485058e-01 1.8348968093417861e-01
      -9.9133511598217816e-02 9.3346303584584595e-02
      -2.2346215114690318e-01 7.8969705560699224e-02
      4.6062968377138656e-02 -1.2385149422869992e-02
      -3.3521840658177177e-02 6.5418407043237758e-02
      1.4761679726358432e-01 -9.7605319121839718e-03
      -4.3354083372437291e-02 -4.9806750288593153e-02
      1.0915127649824272e-01 2.0392847593888705e-03
      2.9874560765924350e-02 -4.8044265980635735e-02
      -1.1405578515332101e-02 -1.2300503366727732e-01
      -6.4556615388265862e-02 1.2382435869649069e-01
      -7.8988195789270702e-02 -1.0742080984754251e-02
      1.2038257073237348e-01 -1.0410365023055203e-01
      1.1308116956228849e-01 7.3023657429428512e-02
      9.7158136251727659e-02 1.7121876318204413e-01
      3.5014608589725590e-02 2.8917566126780099e-02
      2.4294184349848834e-02 2.4011944738326563e-02
      -1.1753364804394520e-01 8.4727908027497204e-02
      -2.7539924037569420e-02 -7.7408164931318607e-02
      5.7792628299112497e-02 -1.8136442403123984e-01
      3.0758330671146649e-02 -2.3801117321448459e-01
      2.7640951409234109e-02 2.9663619939122088e-02
      -2.8454187892076654e-02 1.6415837725982504e-01
      3.2685076134889177e-02 3.6605989655070940e-02
      4.6254692750203004e-02 1.3676615947860196e-01
      1.4493627944682234e-02 2.2944555961011766e-03
      1.9472425842994048e-02 -8.3293960604243159e-03
      -5.0781122687012653e-02 -6.0198241518680889e-02
      -9.2260690399773686e-03 -6.9880743444016555e-02
      1.1797614917345205e-01 -6.9711800422559630e-02
      -1.8843692766544688e-02 1.7904365548729723e-01
      -7.8388947735353860e-04 2.5364810226355349e-02
      7.1946678685126803e-02 -2.7750403342990816e-02
      -2.3369598156206803e-01 1.3875028784057822e-01
      -5.8061729093363142e-05 -8.4759982020655697e-02
      -1.9422835455087516e-02 -5.3810608485978760e-02
      -1.3667554466611947e-02 4.9707409721527471e-02
      7.1238025104118835e-02 -2.1683931916482574e-02
      6.4978284521569327e-02 1.2121726298488655e-01
      -9.7118567321771987e-02 -2.2251082390452929e-02
      2.3143682550331415e-02 6.0728722944193674e-02
      7.9977096065086156e-02 -3.0281558265656490e-02
      -8.9565626770102703e-03 -1.0565045857814407e-02
      -5.6161510762839956e-02 -1.6925906600316459e-01
      -7.4910454311698611e-03 -1.4357307454850426e-01
      -6.3750439839755327e-02 -9.5630236397913834e-02
      7.1279495755148359e-02 1.0801453034009502e-01
      -2.3988586831073730e-02 -4.2145461617419208e-02
      -1.4140917187673571e-01 -1.6357658671617325e-02
      -6.9345254496769093e-02 1.8718263456190354e-01
      -3.3709201987472667e-02 -9.0623084809146201e-02
      -8.1065640617536669e-02 -5.5359878007713113e-03
      -3.1497393458573546e-02 4.8944698280217698e-02
      2.8453371504523466e-02 1.3602797732785998e-01
      2.1216450749675395e-01 4.6862716163708198e-02
      -2.3211809889722799e-02 -5.1936644627615457e-02
      -7.4550905982034746e-02 -4.4918429770054065e-03
      2.0941102368867384e-02 -1.2321697669611656e-01
      7.5940262163003466e-02 -2.5179376435215270e-02
      -5.4375645017397674e-02 1.6784320612969066e-02
      -9.2644492367697798e-02 -8.4671487884948757e-02
      -4.6224370097941989e-02 5.3950101901374219e-02
      8.7795372357840518e-02 -5.2626078967801505e-02
      1.0458403836433868e-02 -3.8712940208574208e-02
      -1.2476261115724456e-01 5.9964181084904873e-02
      4.4072297159067651e-02 4.6648560288869809e-02
      -6.0891855210706794e-02 7.6353733701239448e-02
      1.6385396900178203e-01 1.6322049334409125e-01
      -2.0224594621683731e-01 -3.2815993795878177e-02
      1.5521636478948475e-01 4.3309405501218409e-02
      -8.5179419955178193e-02 -7.4525065537253216e-02
      -2.7639879486388033e-02 1.5579136659923692e-01
      3.5072729492189807e-02 1.7134321457586238e-01
      -1.8911189690049167e-03 3.4110199377531160e-02
      -8.7372484007536225e-03 1.3812769613093090e-01
      -1.4408746417818913e-02 -3.7998382445505519e-02
      3.2537672075127838e-02 -7.4774788581685347e-02
      -1.9424920434782823e-02 -6.1000081562395539e-04
      3.1101470501267520e-02 2.1919711171926454e-01
      -1.1438260201692985e-01 1.3510153731715993e-01
      3.0655409114051371e-02 -7.9050495676291008e-02
      1.4937909730468493e-01 8.5500563351397565e-02
      -1.1363962196128116e-01 1.2301577588009660e-01
      4.2709871248256134e-02 1.6536412683661250e-01
      1.8560119062523803e-01 1.5371386478206456e-01
      -7.7447064511701552e-02 7.0845686908832070e-02
      9.7828996589896522e-02 -8.5870320209093548e-02
      2.6961059625535959e-02 -4.3631561185362600e-02
      1.1679473801036634e-01 -9.5994441416439258e-02
      -1.7718675706797848e-01 -1.0293513894257620e-02
      -9.7285105874680394e-02 9.2150514919994361e-02
      6.9477892377240266e-02 1.3890421523956326e-01
      -1.7533088758089696e-01 2.1282331044025565e-01
      -2.1300128057549696e-02 -9.0750581367028627e-02
      -2.1089881598794064e-02 -2.1079720764437433e-03
      -6.4231615873542022e-02 -3.8743786991388453e-02
      -6.1118206125995778e-02 4.2517101331184790e-02
      7.9839311242550184e-02 -1.0224899480322996e-01
      2.8332780603384697e-03 2.2802117527204824e-01
      7.8151492867993243e-03 -1.9262186340872564e-01
      1.4778140099550863e-01 3.1612518209792372e-03
      -6.7767838500117236e-02 1.9504457007047876e-01
      4.2428061079898112e-02 -1.0059785150883249e-03
      1.6116633845520451e-02 -2.0694698186070875e-02
      1.2873691969853618e-01 4.0145727268842267e-02
      1.8813892589553258e-01 7.7801755217677931e-02
      7.9886115597172597e-02 2.3028844302954482e-01
      -8.1204322707231449e-02 -1.8068297299038685e-03
      5.2511657387180125e-02 4.9918193418348696e-02
      -2.9458729136646593e-02 5.8786267054548764e-02
      -6.8827050397578166e-02 -7.6769465629076813e-02
      -9.6021771960673324e-02 -8.6536795306664596e-02
      1.2703125435627710e-01 1.2125137959908805e-02
      -7.9889787194167908e-02 -1.4050613470427029e-01
      -1.7839866025687683e-03 2.4840838034359003e-01
      -1.1829158867025392e-02 4.2411955538866862e-02
      -1.2023888509021173e-01 -1.7814399344554349e-01
      1.0943199410302418e-02 3.2826933162715670e-02
      -1.6392005844300622e-03 -7.3112217484785760e-02
      -1.5820526148999486e-01 -1.0218813820535023e-01
      9.6424898918650498e-02 -4.1284046670143418e-02
      2.5233982165407568e-02 -5.1933971015104628e-02
      2.0203673085184029e-01 -1.2218092390105472e-02
      4.1598712158716397e-02 5.6969648686464938e-02
      -1.5821343235892987e-01 -5.2871665593065796e-03
      1.9998902140140610e-02 -9.3481993648153211e-02
      4.9492642246237013e-02 -7.1662786067126089e-02
      7.1243972338926945e-02 6.0272177706385488e-02
      -2.1261876167255464e-01 5.8739926640950851e-03
      -1.5584687213515750e-02 1.6023596586889576e-02
      1.9717208481729259e-01 -1.0790461656034547e-01
      -8.9608543125711648e-02 -1.2513718731883078e-01
      -2.7891953601234071e-01 1.4065564533966118e-01
      2.8483442406203378e-02 7.7898370849167731e-02
      1.1725224071745388e-01 2.3879654481206350e-01
      5.5460450822819182e-02 8.4160171696740019e-02
      -2.3610633771777204e-01 5.2683359657555842e-02
      9.1077378492245592e-02 6.4990479706822132e-02
      -3.4705603621766051e-01 -6.9774882358583395e-02
      -8.4715584427428964e-02 9.1642241545393910e-02
      -6.7870868221348551e-02 1.6872280452059576e-01
      3.3382283711977760e-02 -2.8566675912398823e-02
      1.2763174600144023e-01 4.6305524026295238e-02
      1.5137917326068226e-01 -4.5730376849158413e-02
      -8.2009403517310023e-03 -1.4888021093414505e-01
      -2.0567007247723881e-02 -3.8397303055797867e-02
      7.1671915036570305e-02 1.5193343972578685e-01
      -2.0261703271477916e-01 1.4187632400931810e-01
      1.6541964743379742e-02 -1.6862911909671463e-01
      1.7262166913195653e-01 -1.3939502342113601e-02
      -1.4984780532692527e-02 1.1250179174024229e-01
      1.5229796955396319e-01 6.3901818146381434e-02
      1.4366649846255947e-01 1.9658458091065481e-01
      -6.7338548051533262e-02 1.0437449162849544e-01
      7.7046951409501491e-02 -6.9928731710757155e-02
      7.0346213589622453e-02 -1.2644218138706462e-01
      7.4882596562116280e-02 -1.8013529202084608e-01
      -1.1341950668808640e-01 5.6315476805840127e-02
      -9.2809597103091668e-02 7.7968090840938600e-02
      3.1462806340443433e-02 4.2506688107187482e-02
      -6.3232263312513401e-02 1.7612106579678086e-01
      2.5945151903748607e-02 -1.2257186328544544e-02
      3.1047344605884715e-02 2.7847762128182792e-02
      -5.8442598769951316e-02 -8.2730202151194421e-02
      8.3668654717380280e-04 -4.7605107550658957e-02
      1.3064539276963769e-01 -1.0307226291513992e-01
      -2.3802785973847225e-02 2.2625961562734645e-01
      2.6289756935900369e-02 -1.6104514198380066e-02
      8.7471078167024333e-02 1.2637588442018385e-02
      -2.1020136059283098e-01 1.2909950644801757e-01
      3.6393453050944345e-02 -5.4334317988568769e-02
      2.4912524540525689e-02 -1.0232184215702860e-02
      -7.3627459149380979e-03 3.9929839007903839e-02
      6.9044911307163379e-02 2.1619390744138205e-03
      8.2932681856163148e-02 1.3047336621737682e-01
      -8.2190535420408592e-02 6.6762029412770884e-03
      6.8285421762739926e-02 5.2722355948748426e-02
      1.7118929144694231e-01 8.3648043710045673e-03
      1.1451033852109778e-02 -9.5307434495457196e-03
      -4.2427311684731468e-02 -1.8925487832005791e-01
      6.9536595092059630e-02 -2.0556492693344838e-01
      -4.9210407196746193e-02 -1.0257931902533785e-01
      6.6589657029458614e-03 3.1499417012599971e-02
      3.2987602598991109e-03 -1.1496979299996829e-01
      -2.1774396281809549e-01 -1.2330601013924863e-02
      -3.4642873118792390e-02 2.1372808533294924e-01
      -5.6169191417902317e-02 -8.2133507356609986e-02
      -7.1039948328459890e-02 6.9358199310085022e-03
      -3.0043648808143756e-02 6.3279551199673573e-02
      4.5578216238644283e-02 1.2052820944766134e-01
      1.9955425563326573e-01 2.6199328875415914e-02
      -1.7585178336411905e-02 -9.6678252880427945e-02
      -6.4710362899736446e-02 1.2170737028032567e-02
      3.1118702774108359e-02 -1.7696129022409807e-01
      7.0682825162382737e-02 -9.5669010061352896e-04
      -7.8039511845038887e-03 8.2287814712450849e-02
      -5.4219948715031885e-02 -7.8901989683086690e-02
      -4.0653350430145049e-03 7.9713042031375067e-02
      2.2127645427480214e-01 -7.4003926326508443e-02
      6.1841452512828186e-03 -3.4026327035123163e-02
      -2.2665608845513699e-01 6.1387640747343201e-02
      2.7312605863867863e-02 4.4830505472131001e-02
      -1.1728369902621766e-01 2.6081186362644732e-01
      1.7376727641780607e-01 2.1131241673516921e-01
      -2.2965637602857150e-01 -7.3560763023296671e-02
      1.0760451155700111e-01 6.4465379802964374e-03
      -6.5082793247358675e-02 -2.7450919201826469e-02
      6.0468078000863207e-02 1.7897067376661235e-01
      -2.7041109360448470e-02 1.7480727259397910e-01
      -2.9308033178019655e-02 2.7920769147805481e-02
      -9.3372504241917391e-03 1.0520248509649913e-01
      2.2253555103912009e-02 1.5345858235478091e-02
      4.9858936762488308e-02 -1.0932783052602152e-01
      -5.0672274057644129e-02 6.7945025790369096e-02
      2.6523543239164268e-02 1.7576792502392177e-01
      -1.2746240892017399e-01 8.4815215314536382e-02
      -2.6127896372921205e-02 -9.8307232523463225e-02
      2.7583511859831167e-01 9.5217733442234720e-02
      -1.1710110285045504e-01 2.2429182191119842e-01
      -7.1459839857696730e-02 1.8401465848722218e-01
      2.4535334225602989e-01 8.5364859326050077e-02
      -2.1325318561235374e-02 9.7837142458195844e-02
      5.5584679633855334e-02 -8.9027255624695267e-02
      3.7375962686459548e-02 -1.7757453663518438e-01
      1.5293471720915131e-01 -8.9982272217798046e-02
      -1.6836009278992964e-01 -1.3684181931447289e-02
      -9.9379714547767381e-02 1.7727765873895326e-01
      5.0640920093574168e-02 2.1163294684606304e-01
      -1.0340354891744886e-01 1.7983561913247134e-01
      -7.3034519002708456e-03 -1.8606363556244102e-01
      -2.3022047554502528e-02 -4.1049211447494523e-02
      -3.4938121906842014e-02 -1.5995278664676980e-03
      -9.7872303239673428e-02 3.9159985564030740e-02
      1.3097441650153810e-01 3.0896674489880624e-03
      -6.2884728347588370e-04 2.3228825209534551e-01
      -3.1529908438687436e-02 -6.1379474321557971e-02
      1.1299828631378538e-01 -5.3426026890462990e-02
      -1.6157555818075908e-01 2.1774569720855028e-01
      1.8256763981959098e-01 -6.7716167020508478e-02
      1.1355988487253033e-01 8.7949000658663814e-03
      1.9508085816056761e-01 -9.5805271199761021e-03
      1.5633975513737947e-01 -1.4938168046967916e-02
      2.3828280927909760e-02 1.9758154579284601e-01
      -1.4432357070881655e-01 -1.8752802998318680e-02
      -6.6853351352293196e-03 7.0172285396021342e-02
      -7.2855540532004451e-02 1.6477977849894887e-01
      -1.3023728918384660e-02 3.9756679939686054e-02
      2.8272778059680880e-02 -1.0048447095913191e-01
      1.4461689005549438e-01 5.5993811061812150e-02
      -4.4464553346191829e-02 -7.7374714985346121e-02
      3.7937941422311404e-02 1.2474738532710185e-01
      -4.1594797349740115e-02 -1.3934349813113625e-01
      -1.5335888822148488e-01 -8.9970132750397960e-02
      8.4067389062893197e-02 -3.7566077304106917e-02
      2.5996483004774060e-02 -4.9401900266820398e-02
      -7.1667256130252543e-02 8.4289844485348681e-02
      -1.1332840819894902e-01 -1.9288873139554308e-01
      -2.3621862444621188e-02 4.5910383455699991e-02
      2.3482658110227439e-01 -7.8497966217717402e-02
      3.9084587522411757e-02 1.0941471181637913e-01
      -8.6144930241336487e-02 -3.7643140881378732e-02
      -4.1215433523792082e-02 -2.2947757047257371e-02
      2.2885797067026585e-02 -7.2708280187820537e-02
      1.3011251489012104e-01 1.8833547759920166e-01
      -1.6593170407600039e-01 -2.6420619524259380e-04
      -6.9130496361858404e-02 1.3279928591791973e-01
      1.6809418880311708e-01 -6.6371091580255101e-02
      -1.3666209038392069e-01 -4.8685128139889525e-02
      -2.3177645919821185e-01 8.8417526736071839e-02
      -5.7003058980911285e-02 -2.1710373818197411e-02
      1.7463832296893639e-01 3.0483010218197010e-01
      -2.8513901984943482e-02 8.0900940832616536e-02
      -2.4876691195589892e-01 -1.1388439489697554e-01
      1.8942015924185007e-01 -1.7147290944617182e-02
      -3.2153398687893381e-01 -1.0085260232613177e-01
      -6.6360614332285961e-02 3.4724983862859146e-02
      -9.0840536314314171e-02 1.2271434647837628e-01
      -2.9261335082896609e-02 -1.0717496595064870e-01
      2.6046192365785820e-01 8.3111728562406895e-02
      1.1224671223889104e-01 -9.1431162580048839e-02
      -5.5185150832624298e-02 -1.3825213522373281e-01
      1.7938662979011134e-02 5.9526214457701176e-02
      2.0246934003940262e-01 1.2526381185983965e-01
      -1.5517861401479099e-01 1.6916923643106477e-01
      -4.0931503548232006e-03 -9.6941828828462917e-02
      1.4428077787209168e-01 -5.8513934692232761e-02
      -7.9194728644305559e-02 1.3509044238784862e-01
      2.2522607459731334e-01 7.9054096582432565e-02
      1.6039623188238858e-01 1.6894357836837090e-01
      -5.1402124207312980e-02 3.5102334070276395e-02
      1.3486076457621793e-01 -9.4621999974551799e-02
      -5.7872049115666943e-03 -1.1795778722754342e-01
      5.8130565621923688e-02 -1.8884826897761539e-01
      -1.5825395446863119e-01 2.9519210052248397e-02
      -5.7869788369972502e-02 1.0660092460498670e-01
      -6.1086605286831408e-02 7.5068332151972728e-02
      -8.2309012549614702e-02 1.5876819548280344e-01
      6.0568376489485216e-02 4.1629468097238817e-02
      1.4064680674693460e-02 1.0650356180290391e-01
      -5.1813120759361314e-02 -5.9351286994199920e-02
      4.5942996514675538e-02 -9.0191312747345820e-02
      3.4767516996515792e-02 -1.0621991432067293e-01
      -9.9755490931917202e-03 1.5362071702608779e-01
      7.4608870157321774e-02 3.8605527353589686e-02
      6.6917509187567059e-03 5.0935301169020369e-02
      -5.7090624076581942e-02 1.1991676044549633e-01
      2.9507036768162992e-02 -6.6714685596209633e-02
      -4.1191668244229790e-02 2.2719057953233087e-02
      -2.7164021710808648e-02 1.0551907529292086e-01
      -2.1287013353120707e-02 -7.3572557196232458e-02
      4.4131871266053870e-02 6.2238599443752249e-02
      -1.0731084020186038e-01 2.0813713739885661e-02
      1.2606397984904685e-01 5.6711783703928209e-02
      2.2316937576451881e-01 -9.6839788043724118e-03
      7.8017533002919540e-02 1.5142818415933505e-02
      -8.7232996069344926e-02 -1.9429331471968608e-01
      1.0307670635273078e-01 -1.5131263134529530e-01
      5.4482873200370173e-02 -1.1921272968861309e-01
      -5.0252619504490829e-02 -6.1350670853126989e-02
      -2.6529760479276517e-02 -7.8674808491808718e-02
      -2.5184754043927859e-01 1.7052991758851048e-02
      -6.7375031942460362e-02 1.6778861620370569e-01
      3.0793277191349831e-03 -8.9876566747925046e-02
      -4.0148694478588853e-03 7.2127827979559314e-02
      -1.0086273775671302e-01 6.6067721199054602e-02
      1.1460382337916904e-01 2.0725020021208213e-01
      1.9137374216757574e-01 6.8076285736913419e-02
      -7.6658245052098936e-02 -9.8429915227338710e-02
      3.5398679766508144e-02 -2.5078733845185584e-02
      7.1960184148482792e-02 -1.7063368644059429e-01
      7.7865171897466903e-02 1.4992397187166719e-02
      5.7067049486226847e-03 6.7646102753553053e-02
      1.9891265031990794e-02 -1.2729669898049095e-01
      8.3581298088218500e-02 1.3467036320520306e-01
      3.0648908047555629e-01 -1.0011874384112392e-01
      5.1999794533975761e-02 -4.5141056696883314e-02
      -1.8785865963579831e-01 4.7873132169860194e-02
      6.2539087228889706e-02 -2.1171710448955088e-02
      -1.6357710463126501e-01 3.3029259595029015e-01
      1.1335391257235285e-01 1.5390726838240557e-01
      -2.2921530630203946e-01 -1.6674765439380401e-02
      1.4325328014253852e-01 3.6121498607419110e-02
      -6.7681761670490337e-02 2.0278815490100063e-02
      1.4984322842984191e-01 1.3516321098971701e-01
      -6.7692524224267914e-02 1.4458355147795340e-01
      -9.5049691007334916e-02 2.4570152626991006e-02
      -3.6957982065214397e-02 1.2511648650910340e-01
      7.1798424372292863e-02 3.3455221674856338e-02
      -1.1868924132730414e-03 -1.2005690235115815e-01
      -6.7068022033958910e-02 2.3717639233361537e-02
      9.2750690441391233e-03 1.1719342423262176e-01
      -1.5639927226152572e-01 -3.1800039324376694e-02
      -2.7747729779564093e-02 -9.4300012370163208e-02
      3.0317592897215478e-01 1.8484302284900395e-01
      -1.7412903327326332e-01 2.6621818957259097e-01
      -1.5237656454758153e-01 2.0043964381895329e-01
      2.5658522259466027e-01 -1.3360265461917415e-02
      3.0823418392739086e-02 8.2956786759360249e-03
      1.2726825581371734e-01 -4.0957191034336961e-02
      3.2114008859555010e-02 -2.4610115026614154e-01
      1.2103305775185483e-01 -6.8272137549032080e-02
      -1.9193666255557809e-01 -7.1185892581341684e-02
      -3.3946212160059094e-02 2.3237006558615092e-01
      -9.4778598310468185e-02 1.9233095695475294e-01
      4.2200137000100994e-02 1.9483307192149290e-03
      7.4499580218645792e-02 -9.6629235068033267e-02
      3.2012514647880838e-02 -3.3765448105427510e-02
      5.0238408286728447e-03 1.1588438077997754e-02
      -7.3472667492813379e-02 4.5017309956805550e-02
      3.2703367577809596e-02 7.0610992947602966e-02
      -7.4807914615955748e-03 1.4456424076230659e-01
      -4.7888344830305581e-02 -7.7327143214989971e-02
      -3.4530365915740893e-02 -3.1171056886352914e-02
      -6.5086198455208258e-02 3.4998077013879574e-02
      4.3050129887204518e-02 -1.5138162330663926e-01
      7.1898917154084183e-02 -2.8046077515448475e-02
      1.3021696176726544e-01 -3.6498233283516167e-02
      -3.9874508994095850e-02 -1.3697126969217988e-01
      -1.1598797609831296e-01 -5.2832317125862159e-03
      -1.2390621119692814e-01 -1.7198366592196705e-02
      1.2889704471558570e-02 -9.2320942314282357e-03
      -8.1530933177613354e-02 8.5394818641625916e-02
      5.9814494555644554e-02 1.1414150473946716e-01
      4.8209195472402773e-02 -6.4304988509857372e-02
      1.0829290325149635e-01 1.2554125912316574e-01
      5.8183752791779286e-02 -8.3557257103348506e-02
      3.7418043163955417e-02 -4.7781436895624578e-02
      -8.7112679560269274e-02 -3.4548279423578888e-02
      -1.4229384837148970e-01 -1.0082640127266988e-01
      5.3861056707276984e-02 -1.4244575492713579e-01
      1.0374227788328774e-01 5.3824562776425373e-03
      6.9347969246396066e-02 2.4057939100964398e-01
      -1.9330557937640733e-01 -2.4579935306231099e-01
      -1.1723372507206557e-02 6.3516138867832639e-02
      1.4174198661479465e-01 -1.0679398504270353e-01
      2.5606855223302489e-02 1.6511835856317275e-01
      2.6065576066489585e-02 -1.0919202217387547e-01
      -4.6002987519550634e-02 3.6455894385297720e-02
      4.3576610649490151e-02 -2.9220699893169805e-02
      5.6025059429897620e-02 1.0440123765425612e-01
      -4.0675512022239083e-02 3.6175686426220488e-02
      -7.1447075640565225e-02 2.3896556553565637e-01
      7.5931617610935712e-02 -3.7098096016943818e-02
      -6.9715988451869534e-02 -3.5513128399521053e-02
      -9.9073134940747265e-02 4.4931436087026884e-02
      -5.0454942291140101e-02 -9.7682430940326206e-02
      1.4110017262053970e-01 1.5620884740969279e-01
      -7.9702707319095609e-02 3.7523402458980004e-02
      -1.9047099380788599e-01 -5.1273884657031796e-02
      1.5037084421470073e-01 -4.0099054797901906e-02
      -1.7098700139989753e-01 -3.5920345709820084e-02
      -6.7732306088928822e-03 -2.3635429224618872e-02
      -2.5334494185654647e-02 5.7958320174772017e-02
      9.8627590499879812e-04 -1.5150995161380068e-01
      1.4049280113149820e-01 7.6878984095489100e-02
      4.2707958224229466e-03 -6.0222273528391455e-02
      -1.3297781182250348e-01 -7.1111295653126169e-02
      5.7217628146185376e-02 7.4949336395670391e-02
      7.8674482340286511e-02 2.2043429282921398e-02
      -6.6965190618933468e-02 1.0424484422706301e-01
      -3.3309210924268369e-02 -2.5156115874819508e-02
      5.8396679191628484e-02 6.6777084746397191e-03
      -8.2345350648256238e-02 1.8905665897550453e-01
      1.8541211449621597e-01 9.0711258195744077e-02
      1.7659532047698151e-01 4.9168577614738029e-02
      -2.2354376661987061e-02 -1.0470793828822524e-01
      1.1366578077680231e-01 -1.0598471799463620e-01
      -1.1688987765829081e-01 -1.5520903433396524e-01
      -3.0494398373218403e-02 -2.6301371687209518e-01
      -1.2813897117369277e-01 -3.1545073119250679e-02
      1.9066235132048418e-02 1.3028090840229845e-01
      -1.2853913603454120e-01 1.2681196248523316e-01
      -1.3504803601180554e-01 1.3588463732422190e-01
      1.3543053412457048e-01 4.3786744916031101e-02
      3.6072235573922716e-02 1.8101863174887678e-01
      -3.8534087154138322e-02 4.1438440103481093e-03
      8.0759553304274811e-02 -6.3730127122418573e-02
      6.1274076418591896e-03 -1.0457724969993909e-01
      8.8703841834087804e-04 1.4199023705908481e-01
      1.1628377704140637e-01 1.0414939065366723e-01
      -3.0064500051590060e-02 1.1921317129212544e-01
      9.8452328013364357e-02 1.0756824323511130e-01
      8.0765838080722158e-02 -7.5394351018904709e-02
      -4.2407288060378898e-02 3.4366867409332195e-02
      4.1981457813792993e-03 1.1893508332345995e-01
      -5.5980832877294377e-02 -1.0818754589605373e-01
      3.5286488533204770e-02 4.4090040115016306e-02
      -1.1754094442745332e-01 4.1007628121031613e-02
      1.8010885947171923e-01 3.1996612340914027e-02
      2.6919560814392779e-01 -6.4645233943648288e-03
      1.4184649298218557e-01 5.0767731302994223e-02
      -8.5335121791380003e-02 -2.1692448732872599e-01
      1.8605151986904672e-01 -1.2323058395971967e-01
      1.3825825469234776e-01 -1.4475156024677752e-01
      -1.5797969660292369e-01 -1.0629056716410505e-01
      -5.6176684832624314e-02 -1.4007276758045870e-01
      -3.0885407930830749e-01 6.5367658425898062e-02
      -8.7676453856327746e-02 9.8876831278050581e-02
      6.6755286456552099e-02 -1.1907686582598391e-01
      4.7276041233168073e-02 1.2251978019793468e-01
      -1.3871147821995927e-01 4.2748489487938836e-02
      1.3808029279871792e-01 2.5748677562571115e-01
      1.9483068273065449e-01 4.6299640564255673e-02
      -1.5963451848010954e-01 -1.0798137713036643e-01
      6.7411846648605001e-02 -7.6918459813694037e-02
      1.2509744568958717e-01 -1.4936021702875840e-01
      5.1670857641846479e-02 3.3742358750407597e-02
      8.9241055030979413e-02 1.4089047816713154e-01
      8.1881177539481015e-02 -1.1433219743102188e-01
      1.8477487776351800e-01 1.9431264544270593e-01
      3.5997665432189796e-01 -9.2933362221491136e-02
      5.4515833590842139e-02 -2.4470437819559883e-02
      -2.1600364391483157e-01 2.2933081333592665e-02
      6.3072890995763978e-02 -3.7284131192883783e-02
      -1.8519354729102072e-01 4.2604232545305942e-01
      5.2005162669455804e-02 1.1209038035453765e-01
      -2.0238793918608819e-01 -4.3109285928668424e-02
      1.9566877258514564e-01 5.5009460777235404e-02
      -5.5414443126239409e-02 7.6912455688148335e-02
      2.3686594960630375e-01 1.2975913852622056e-01
      -1.0894642822586341e-01 9.5026962531725531e-02
      -1.3726301818078279e-01 2.2329992987164250e-02
      1.1533862181879292e-02 1.8754437941890079e-01
      1.2016651621513090e-01 4.7368033558221542e-02
      -3.1752569312845653e-02 -1.5996458903832059e-01
      -1.0724028875772651e-01 1.9724458537228245e-02
      8.6383949943851894e-03 6.3641503679151237e-02
      -1.6313992275802222e-01 -1.3842282025102012e-01
      -2.6044132661622095e-02 -1.0113274153869489e-01
      3.5320408498707001e-01 2.6388512471988507e-01
      -2.0239038861866820e-01 3.1213832325451457e-01
      -2.5266512809058561e-01 2.2754619466858053e-01
      3.0412789621574626e-01 -9.2102302005661205e-02
      6.4310345648990297e-02 -9.6695053618166549e-03
      2.0504641648223834e-01 2.1758290663941778e-04
      4.7347485005317901e-03 -3.6008466963083990e-01
      1.0108956387959454e-01 -4.7456328986690013e-02
      -2.1269782751025262e-01 -8.7974195352607490e-02
      -1.5185294888152776e-02 2.5503118675162462e-01
      -1.5912273356135559e-01 1.8001086347691700e-01
      1.4524651764625227e-01 -9.4004480660668577e-02
      1.2449989891296452e-01 -1.6223704822297427e-02
      8.7278940920954909e-02 -7.3409029012269547e-02
      2.2576310294482829e-02 -1.3423735747712731e-03
      -9.2777312672270539e-03 -4.5976208446657431e-04
      -3.4489275368344754e-03 5.7188115699493877e-02
      -4.1459840107623276e-02 1.1912543230742483e-01
      -3.8195592060950981e-02 -2.0328605231187413e-01
      -9.1303091515804957e-02 -5.8071581619861125e-02
      -6.7285970756481434e-02 -1.8533619273253596e-01
      -1.2300328313452097e-01 -2.3378674035102615e-01
      1.8151214079741441e-02 1.4990113849826131e-02
      -8.4094399036523295e-03 -4.5632163163912297e-02
      -2.8916684214692963e-02 -1.4711289089512913e-01
      -6.6619258313051599e-02 2.3341820580260200e-02
      -9.1641055360170406e-02 -1.9030494978370113e-02
      -5.1887868182569456e-02 -5.9482397043370779e-02
      -1.1025872401412876e-01 1.2515752803770255e-02
      6.4542858959521249e-02 1.5716150818978109e-01
      4.6931643513492612e-02 7.4500299933451600e-03
      -2.1821330770661906e-02 6.2229738156105108e-02
      1.2563865495454024e-01 -3.4131801488867554e-02
      8.3849610009569073e-02 -1.5832023333509096e-01
      -1.7816408046200931e-02 1.1540059337368039e-01
      -6.2177982800061170e-02 -1.4895385050158857e-01
      3.9953223777898991e-02 -5.7105710424097823e-02
      7.9506410515148493e-02 3.3502485061699935e-02
      9.6892194315733177e-02 2.4830922074129255e-01
      -1.5070552984633306e-01 -2.4497333842507540e-01
      -1.0354619926237152e-02 7.4444180147458733e-03
      4.6265750289074876e-02 -3.6302152781659000e-03
      3.9532595649895169e-02 1.4808150341543946e-01
      9.6239468890418178e-02 -1.1082454619355878e-01
      -4.9896086148396683e-02 -4.9726210392068261e-03
      -6.1619230445174502e-03 9.3496027943835557e-03
      -6.9356851535108413e-02 -1.6044341439879548e-01
      -2.9105795902294521e-02 4.0918928964730053e-02
      -9.3850793852783165e-02 2.3319283711915295e-01
      -4.2972653339458398e-02 -5.1599317570127368e-02
      1.5028962503609660e-03 -4.1709781877172850e-02
      3.6013766590562754e-02 3.8650000589591303e-02
      -2.3314685714370204e-02 -1.2054628894673775e-01
      1.3385888076563726e-01 -8.8379080032697663e-02
      -3.3434001131169753e-03 7.9258984297831792e-02
      -1.3385105211822340e-01 -4.7960539277564990e-03
      7.7249283311156394e-02 -2.3211717559910534e-02
      -1.1991496244003408e-01 7.7934031090018110e-03
      4.5102759885012916e-02 -4.6847802672520117e-03
      5.8623748480627055e-02 7.8693739012935554e-02
      -2.4575944309501156e-02 -1.0923048953208418e-01
      -3.3138883174884316e-02 4.6313669162347471e-02
      -1.1031641866579996e-01 -6.1443399530037655e-02
      -1.1008599047977960e-01 1.8574624602385029e-02
      5.3654846196857245e-02 2.0078966896970047e-02
      -8.3097412608493681e-02 -1.1797946417441656e-01
      2.4561227086422867e-02 1.3207046714746948e-01
      7.0290485986696155e-02 -2.2774070176308482e-02
      -8.5169358491011919e-04 -2.2999909941221669e-02
      -8.2516751115342027e-02 1.2022855585686260e-01
      1.4677573251002923e-01 7.4551853670612123e-02
      3.3580220186610228e-02 1.4640225765532823e-03
      -4.3180155858190274e-02 -4.7128597420899254e-02
      5.0996136342892344e-02 -1.4335916860836023e-01
      -7.5941067121443648e-02 -3.7463391088059801e-02
      2.0060075479288460e-02 -2.9252271304233673e-01
      -5.1350706397776454e-02 -2.0004164184507074e-02
      3.9480133719485222e-02 9.0251574276277627e-02
      -1.5795483818127282e-01 1.1884323348314187e-01
      -1.3190367347208212e-01 7.4715768464312091e-02
      1.3737132840035499e-01 3.8799173513369603e-02
      2.6635580108989414e-02 2.1996273813859726e-01
      -2.8903414237233470e-03 5.3322580897679946e-02
      1.0424897834618914e-01 -6.9004461520485477e-02
      -5.5651664494239923e-02 -8.5438153656627713e-02
      1.2544230537360751e-02 4.7222026536070778e-02
      1.4178359275044702e-01 1.6215317843524227e-01
      -6.7851540161859916e-02 1.5415685027907072e-01
      2.6487420188375271e-01 9.2584765220087059e-02
      9.6835150126009864e-02 -2.9592347101770021e-02
      -6.9239497916834578e-02 5.6459826216869805e-02
      1.2012805378872652e-03 1.3353219758718768e-01
      -1.3203982089364849e-01 -1.2479334781251085e-01
      -4.9571800667704238e-02 -2.1653614896886258e-02
      -1.0525484500536325e-01 5.9510742755849298e-02
      2.2954160235425894e-01 1.9293672455797238e-02
      2.8671285286838322e-01 -1.2393832677264620e-02
      1.6423593929643976e-01 6.8435164234614182e-02
      -9.6661148377490000e-02 -2.3906421318672647e-01
      2.1035589105806735e-01 -3.8792607015123715e-02
      1.4671962094114618e-01 -1.9597669879355387e-01
      -2.6922978861991453e-01 -1.4708098698121752e-01
      -1.3914543442853028e-01 -1.4714937158301497e-01
      -3.4407332597776641e-01 7.1969350124686429e-02
      -8.5264366195550237e-02 -1.7979302862026947e-03
      1.6706780311719679e-01 -1.0181268233063481e-01
      8.9230120872289626e-02 1.0656577225647786e-01
      -1.4151651119149458e-01 1.2229181777212312e-02
      1.6038050366354992e-01 3.5587015421969409e-01
      1.5359283779721689e-01 3.0825739170304817e-02
      -2.2446752151045660e-01 -6.2481096742985597e-02
      8.4135836800779115e-02 -8.4231738310049376e-02
      1.4045299844693337e-01 -1.0842148669470214e-01
      3.6149930377204570e-02 4.3880749190320839e-02
      1.1886984408870389e-01 1.5835207338964599e-01
      1.4026913138134006e-01 -1.1042475441880176e-01
      3.1270009694932499e-01 1.7782845097297420e-01
      3.4944010260488717e-01 -9.0672153503579364e-02
      6.8006076935273649e-02 -1.3537298072410334e-02
      -1.4019837650343525e-01 -3.1061569847191596e-03
      5.2918727018214512e-02 -6.0105517014704291e-02
      -2.4053928566077890e-01 4.6935853779262615e-01
      -6.3801912420889825e-02 3.3654367614386421e-02
      -1.4253845038107707e-01 -2.2058037820923360e-02
      1.7830659870091736e-01 6.8699909650793339e-02
      -2.1442088664484580e-03 1.4022076147385401e-01
      3.0687017868379279e-01 3.6365645435714807e-02
      -1.1488843171119051e-01 -1.5051471009621422e-02
      -1.2052256242412086e-01 -3.5267468869967324e-02
      2.0527207727566190e-02 2.2938973642292484e-01
      1.2366621555410376e-01 6.2061791062665760e-02
      -9.7468413113608612e-02 -1.3836730892354146e-01
      -9.2442384121705468e-02 3.2283545893464098e-02
      -1.4447345047570209e-02 5.5268495997539920e-02
      -1.4584082523889308e-01 -2.4686995533076497e-01
      -6.9841142023703090e-02 -8.6904993436319286e-02
      3.3470196185374274e-01 3.1104092226165436e-01
      -1.9503407800178718e-01 3.6092141880663953e-01
      -3.3752139916366036e-01 2.5022635270214605e-01
      3.2555435586078818e-01 -1.6509372812803652e-01
      1.1213991845748528e-01 -9.1276164044587133e-02
      2.1308455595253215e-01 3.6351212912103817e-02
      -5.5658704122964420e-02 -4.2137203759300651e-01
      8.6333277796213810e-03 -1.3417686301499891e-02
      -2.4663780199163196e-01 -1.2820035155698312e-01
      4.9948361413693569e-02 2.9888264897063466e-01
      -1.9827238880484485e-01 1.9079727613495304e-01
      1.0111791503900483e-01 -2.3006191607143231e-01
      1.8345333433147215e-01 6.9154132592220946e-02
      -5.8571896682422540e-02 1.5571139496027260e-02
      1.4139979541165382e-01 1.6432989767615105e-01
      -1.4265985921148579e-02 -7.7277212796854414e-02
      -4.5242237231358971e-02 2.6763712462486600e-01
      6.7391784837496527e-02 -9.7520891528020889e-02
      -2.4117932087732729e-02 -1.7093769891423913e-01
      -2.1039251158013877e-01 -2.2055109831771599e-02
      2.0716820188934587e-01 -9.7377489480752630e-02
      -7.2019764195700733e-02 -1.3182245690049044e-01
      5.6915600165675390e-03 6.6530714567824403e-02
      -4.2476243645639816e-03 -2.7802782705826853e-02
      -2.0450041781945916e-01 -2.7897691049861501e-01
      -1.7465274486349841e-01 -1.5760412426678930e-01
      -4.6880184991154733e-02 -1.3990580468501590e-01
      1.9592343696033659e-02 8.7513086539321980e-02
      -9.6082456450510056e-02 -5.9456859174240824e-02
      1.4773598627982046e-01 1.4803855304873101e-01
      6.9686581010143786e-02 -6.4903658309811083e-02
      -4.5305171396305230e-02 1.5738738890283485e-01
      1.8605025179943668e-01 -1.0726536572375389e-01
      -1.4462309906478760e-01 -1.9319514184128733e-01
      -6.4793278039329064e-02 -3.1632184781471902e-02
      -2.1805933870253941e-01 9.6310023959844240e-02
      1.6726220300548187e-02 -1.6848795428216154e-01
      1.3506714197997821e-01 1.1429933716972985e-03
      2.8098851292889615e-01 4.1494266209192909e-01
      -1.5126845961706231e-01 -3.2515856634801843e-01
      8.2048751903450077e-04 1.0127157549495459e-01
      1.6518200049085577e-01 -7.6313477673887575e-02
      1.4074015450052663e-01 2.7661174157375795e-01
      1.3112870216710365e-01 -1.4183503819171769e-01
      -3.3460497302500281e-02 8.6769069914223243e-02
      6.1174354956918309e-02 -8.8803853561262802e-02
      -6.0755566934044540e-02 -8.7141293383816848e-02
      1.5062964581791058e-01 -8.9951850876670625e-02
      1.3994524259161212e-01 3.0388210393287168e-01
      -6.9602116904763880e-02 4.5310559367029213e-02
      4.8216541501112806e-02 6.3668051169413889e-02
      9.9684498678269215e-02 -3.3416282911375765e-02
      -5.5618697923906217e-02 -1.3962001060561341e-01
      -1.8961193078192547e-02 1.4144550780099879e-01
      -1.2138197722594107e-01 -5.0901439824825111e-02
      -8.8998282272843968e-02 -4.0505483387151181e-02
      4.1454496648583626e-03 -5.9208537744406174e-02
      3.3101219953235152e-02 2.3327153873089229e-01
      2.7008095873648713e-01 -1.1500261044221244e-01
      1.3149969300912201e-01 -4.5495793342881258e-02
      -4.2943316649070758e-03 -2.1247277581307242e-01
      -7.3979173404374585e-02 -9.3744072194485953e-02
      -2.3376826248375532e-01 -2.4562981775816028e-01
      -2.1135972415887996e-01 2.2582685924886228e-02
      1.0507746674199031e-01 1.4188493433183666e-01
      -3.0384750500982619e-02 -6.4206189710532366e-02
      -1.1742180658852124e-02 -6.3135554564852481e-02
      -1.4226604685074234e-01 5.0375925453463498e-02
      1.0427156594794790e-01 1.3323876853265079e-01
      -7.1943574741463359e-02 2.5591289551954099e-01
      -7.1964929610979535e-03 7.7928744577628606e-02
      2.0707769067707441e-02 -1.4803497944493418e-01
      8.1126392302175554e-02 -2.0751837579459081e-01
      2.9302466709062347e-03 -7.4656205916909829e-02
      -1.4109050393792863e-01 -2.6926036257288671e-01
      -8.5501607260484835e-02 -3.4020968813205665e-01
      2.1813814234321743e-02 -1.2236504312182334e-01
      7.8499980735509220e-02 2.0432222526772639e-01
      -1.4881356059413994e-01 1.1082130962542371e-01
      -4.9108913151229824e-02 -1.0802310992224604e-02
      1.5176486924963029e-01 8.5052612871910072e-02
      2.1109164917056528e-02 2.0588752172946118e-01
      3.1912492982546753e-02 5.9295741482394658e-02
      1.0920994428664085e-01 -1.0034218325148689e-01
      -9.2505657113605200e-02 -3.0661185645958971e-02
      1.7121383259711177e-02 -2.7770199226924999e-02
      1.4440721808198381e-01 1.6371588245817700e-01
      -1.0692780314859802e-01 1.6622754071860382e-01
      3.0922303254596856e-01 6.4564354441551078e-02
      6.0444227940139372e-02 -8.3235101575693613e-03
      -7.1928917595362046e-02 5.0084543807241262e-02
      -4.9309789971106834e-02 1.5159183436417609e-01
      -1.6621052985567855e-01 -1.2627849336370228e-01
      -8.6554197407021749e-02 -7.1513940013107180e-02
      -1.3203131749467964e-01 5.9111660934482065e-02
      2.1074963841084263e-01 4.7851488095661684e-02
      2.2658587427773741e-01 -7.1851004527308027e-02
      2.0966254065958548e-01 5.7911380283081688e-02
      -8.1466986569295061e-02 -2.2230819192321902e-01
      1.9228971236987602e-01 -8.6168380198163898e-03
      1.5409011408460169e-01 -1.8276720737151736e-01
      -2.8899338028997168e-01 -2.0800030980295439e-01
      -1.7287465756010698e-01 -1.3872148848829952e-01
      -3.0080782207420564e-01 8.6041287078110304e-02
      -1.0334010041919360e-01 -2.3168976981325303e-02
      1.4955886991563894e-01 -1.2293367261904067e-01
      1.3976530967384815e-01 1.8073050596622114e-01
      -2.0433063364707307e-01 -2.4468022097310565e-02
      1.5976769650500006e-01 3.9162343301715369e-01
      1.8184146982338847e-01 2.5800245522810527e-02
      -2.1923029357646465e-01 -6.1636311123970243e-02
      1.1905866771348585e-01 -9.6298013135147978e-02
      1.2474905151640928e-01 -7.9600525831027766e-02
      1.0041917468598080e-01 7.0739197890349312e-02
      6.5788841608944965e-02 1.1454291794677782e-01
      2.0349036719943883e-01 -1.4048628136620878e-01
      3.1455644207272160e-01 1.8242831782399876e-01
      2.8448484765579418e-01 -5.0697486385040021e-02
      1.1326312222158839e-01 1.0641884423378477e-02
      -1.1467232525740356e-01 5.3104193502921445e-03
      5.3104384019805044e-02 -5.8548442261784260e-02
      -2.2090956590041771e-01 4.1727544492798774e-01
      -1.1507940390745920e-01 -2.8056995216733674e-02
      -1.1077207041985276e-01 -1.1404768719405765e-02
      1.7831417880991360e-01 3.0939083650065650e-02
      6.0984225575025135e-02 8.8876189691921056e-02
      3.1451655138932555e-01 -2.8488791285002521e-02
      -1.2242700960563252e-01 -5.3466289491627156e-02
      -1.3711938710928970e-01 -6.9993190868518559e-02
      -5.2178281727270182e-02 2.2060284253757900e-01
      1.0478480946406733e-01 2.8902735482446474e-02
      -1.4586521795129123e-01 -1.5651015773043284e-01
      -1.0985398418464570e-01 5.5482904580161363e-02
      -4.1511334634514424e-02 6.4038755685336402e-02
      -1.4210757988020833e-01 -2.6281790788523013e-01
      -9.7343525640726042e-02 -5.6126782083573495e-02
      2.4871353022906423e-01 3.1709101350009905e-01
      -1.8494606671490318e-01 3.1492739904645017e-01
      -2.9826829040757347e-01 2.5098379700385176e-01
      3.0522308068288367e-01 -2.0948104993360089e-01
      1.1204222503068902e-01 -1.4528860329448506e-01
      2.2613753566820782e-01 3.9068357250464959e-02
      -9.9634624337799890e-02 -4.1949691445425336e-01
      -2.1652290898282519e-02 6.4912704999366072e-03
      -2.4232003595461804e-01 -1.9107417826811590e-01
      7.0253273311507894e-02 2.7897906056229632e-01
      -1.0723745120675562e-01 1.4550326620269788e-01
      -7.0964269819454584e-02 -3.1708144187801462e-01
      6.7414391941914370e-02 1.1792120429567884e-01
      -1.1638289444719972e-01 4.8552921262441012e-02
      1.2513059226647619e-01 1.5823864264798040e-01
      1.3401642043269170e-02 -5.8993739838288761e-02
      -1.6990606912360878e-01 7.3023928199741350e-02
      1.0180425068908240e-01 -1.3331005114881886e-01
      3.5769540034651562e-02 -1.8410512371305451e-01
      -2.0144771882070653e-01 2.6786241493962210e-02
      3.9960275192005068e-01 -6.5843486260421490e-03
      -2.0143659315430754e-01 -2.0954367718597409e-02
      -1.3362848359696716e-01 2.8267255400783398e-02
      -7.1936900457924930e-03 6.9794924039490083e-03
      -2.6174574008051121e-01 -1.3287384066856800e-01
      -2.2114770768329461e-01 -1.9532358718906059e-01
      2.7581217218430668e-02 -1.5637061228982585e-01
      1.7126883747979657e-01 1.2106344233639361e-01
      1.2185565127856067e-01 -1.3423008006932560e-01
      7.3997692542861371e-02 3.9901946539809219e-02
      2.1216797670056919e-02 -5.4129305735082643e-02
      -1.4710322063956266e-01 1.6587039680928337e-01
      8.3524150619543436e-02 -3.1242127048273716e-01
      -2.5845015766495633e-01 -2.4964112794180995e-02
      -9.8818327851009607e-02 1.3415031823785856e-01
      -2.0731245553408348e-01 7.2025926380629032e-02
      -8.4114004460362310e-02 -1.1234542329736166e-01
      2.3884887115338096e-01 5.2513686303089996e-03
      2.9387358321912865e-01 1.2296887040061732e-01
      5.9455998954119092e-02 -2.7155681077100424e-01
      3.0725472516482305e-02 1.0866969612623882e-01
      1.2562010682268754e-01 -2.7991956416959774e-02
      1.0704716379710623e-01 2.5692855359266842e-01
      9.4992327726368855e-02 -1.7219983330350859e-02
      5.0654875263562396e-02 1.0723347005622021e-01
      1.3975726670833447e-02 -9.7595217035466864e-02
      -8.6488119679201822e-02 -1.3574820487935665e-01
      1.3681870966748558e-01 -1.0586366412039136e-01
      3.4350015215511626e-01 4.4959257040522269e-02
      1.2274336140190608e-02 9.1994093404725918e-02
      6.6013381726639508e-02 7.5549123080553268e-02
      2.7876836079030382e-01 -5.5623496208382577e-02
      -2.8256640070546919e-02 -3.9000963811857352e-02
      -2.3661398157202640e-01 9.4120967143023662e-02
      -5.3117414494682005e-02 -1.0409051001517307e-01
      -9.6777962982439431e-02 1.5135879118492723e-01
      -1.8452464504459579e-01 3.5594153895127018e-02
      8.6075483650426457e-02 2.8301975694683906e-01
      3.8992750647912805e-01 -1.5313718003332114e-01
      1.8546589119730741e-01 -1.2797002542914090e-01
      1.0070008614177206e-01 -2.2336934538242065e-01
      -1.1667576634313975e-01 -1.4869440107642126e-01
      -2.5920860441537030e-01 -2.5122194982261320e-01
      -1.7255497101151146e-01 9.9680635712513441e-02
      9.7897934252834037e-02 4.2700886027050175e-02
      -1.4887832902591122e-01 4.9193246835383307e-02
      3.6710093485696441e-02 -1.7605083434955138e-01
      -1.0436333263179375e-01 2.5515859418446082e-02
      1.7211995024393187e-01 2.1639923495574911e-01
      5.2730742963627522e-02 2.9554662591030789e-01
      -2.3223262736249484e-01 1.2053763350675220e-01
      -1.2728422918387100e-01 -1.5917906230274087e-01
      3.3294433445938965e-02 -1.9384839886760077e-01
      -1.2550155495795123e-01 -5.7445729211938398e-02
      -1.3968994227079645e-01 -2.7402995910337080e-01
      -9.0734675552743366e-02 -3.9268647226589432e-01
      1.6410224462957673e-01 -1.2276780975478392e-01
      1.5159692751781079e-01 2.8920437976640401e-01
      -1.2761269143957182e-01 8.2867831628819652e-02
      -7.6473511205900679e-02 2.8945445125699319e-02
      1.2258111821972119e-01 7.8670929664760317e-02
      5.0065739322991375e-03 2.0009996982450151e-01
      2.3333528491153849e-02 2.1822197300388788e-02
      9.2599495468075610e-02 -9.3366207323663047e-02
      -7.2339611614918947e-02 -4.5667041041827082e-02
      4.1133081820581160e-02 4.1697634739836856e-02
      1.1809795200828289e-01 1.7183782377455983e-01
      -9.2145512099037485e-02 1.5211479792848276e-01
      2.5352517905753019e-01 9.8364817416276770e-02
      8.4752329693439807e-02 -1.4180782220617232e-02
      -6.0706761733871455e-02 6.3534518368403931e-02
      -1.4679901577971529e-02 1.2488343155196054e-01
      -1.4583818101414978e-01 -1.2745440808535918e-01
      -6.7145186606457019e-02 -3.9413744771487978e-02
      -9.4931041587764595e-02 2.8230360999165215e-02
      1.9459164819644106e-01 3.0027915103827456e-02
      2.2406583951579812e-01 -2.4976090917974526e-02
      1.9560003114365732e-01 4.9359846997255576e-02
      -7.0640958583261443e-02 -2.0562160224447748e-01
      1.6992189009437866e-01 -4.4603919703016255e-02
      1.5523850922389132e-01 -1.6373202589878683e-01
      -2.5349629118036110e-01 -1.4105263209511132e-01
      -1.4424707474928686e-01 -1.5305555921649894e-01
      -3.0798830279369793e-01 7.2909776283419991e-02
      -9.9321514078258760e-02 -1.0154747564682706e-02
      1.3774861587491743e-01 -1.0496156280441853e-01
      1.1512718509562343e-01 1.0994526387272972e-01
      -1.5664372385540795e-01 4.8068736798321868e-03
      1.3157058092611842e-01 3.5172308310433847e-01
      1.7189207889638503e-01 3.2445760325459122e-02
      -2.2003485142207294e-01 -5.5185067381288248e-02
      1.1194429165474470e-01 -9.4358249933559207e-02
      1.2361326925255599e-01 -7.5438324177763055e-02
      6.5096788785179105e-02 4.9391568016837500e-02
      8.8508132802053358e-02 1.2179734145637849e-01
      1.5877796054874074e-01 -1.2748070025450467e-01
      3.0653831383415120e-01 1.5349970091619120e-01
      2.7074520566865573e-01 -6.4344013909611961e-02
      9.3073725136174637e-02 -9.9861886587119097e-03
      -1.2371058314148867e-01 2.7419121154328888e-02
      4.9014909738863660e-02 -6.7102408095668434e-02
      -2.2825301506152817e-01 4.0094169313310729e-01
      -7.4533163284487364e-02 -6.0437246292942975e-03
      -1.3211665661402247e-01 -8.5726312504353624e-03
      1.6529467064396305e-01 2.9225654272178790e-02
      3.4143146050006026e-02 6.2699130153522548e-02
      2.9641159547111651e-01 9.7866763087940522e-03
      -1.0960734785890391e-01 -3.9844750159337881e-02
      -1.4538171767803892e-01 -5.8275818855376624e-02
      -1.3442640824354358e-02 2.0144208274663938e-01
      1.0303410247051141e-01 2.2477547651387930e-02
      -1.0860348154011197e-01 -1.5450369129744240e-01
      -8.5533785347103999e-02 8.0582384092984655e-02
      -2.0053293903271145e-02 7.6011087584320722e-02
      -1.4037340762262776e-01 -2.6088768923401456e-01
      -1.0037404152330351e-01 -4.3680933419664073e-02
      2.8108254931723353e-01 2.8601880447566963e-01
      -1.6939469562679021e-01 3.0095233891724743e-01
      -2.7271943939138038e-01 2.4062748931221084e-01
      2.9549151329111362e-01 -1.9350518801923861e-01
      1.2136084697708314e-01 -1.2331118235024895e-01
      2.2555344377308931e-01 6.4233977390746912e-03
      -5.0824217286717349e-02 -4.0226327200905926e-01
      -2.2028564369344937e-02 -2.0446086058280104e-03
      -2.2128113922399478e-01 -1.4953529035972390e-01
      3.7074797124073161e-02 2.5763214313254601e-01
      -1.3666608962383361e-01 1.8939341275229574e-03
      -6.1059144520442220e-03 -3.5603018686496718e-01
      3.9398603163675688e-02 1.9091070175988656e-01
      -7.0656741774792392e-02 -2.4050558387202856e-03
      1.4598103501361961e-01 1.0108401018842382e-01
      1.0046927597391843e-01 -9.5680645920257920e-02
      -1.2483188233773727e-01 1.5411311039144027e-01
      4.2730362072057916e-02 -1.0333450697084734e-01
      3.3315539656704959e-02 -1.8508858382148938e-01
      -2.3292329877400214e-01 1.5166882462943447e-02
      2.3433054665581932e-01 -1.3444195096960559e-01
      -2.1145104467788708e-01 -6.3273562193556249e-03
      -1.1197154429270594e-01 7.3108598972551168e-03
      -1.1171006351327928e-01 7.2932764618908264e-03
      -1.5747474411972257e-01 -1.4685073238703980e-01
      -9.8705382957102225e-02 -1.6198423041021504e-01
      2.4680807375486353e-02 -8.4951443863118578e-02
      -6.1472578182859292e-03 9.3579771068687062e-02
      -2.7966646987749588e-02 -1.8057799606013589e-01
      6.0783045727188574e-02 7.7787039245962572e-02
      2.5869889662490719e-02 5.1899778122551810e-02
      -2.5347205320500243e-01 7.8416837142307017e-02
      1.4146765809626302e-01 -1.7522148864821147e-01
      -1.6348025336179606e-01 -1.7157876081776499e-01
      4.7416385201120112e-02 1.3022101637616601e-01
      5.6473208302963577e-04 1.9571751053475469e-02
      -1.1558145940135139e-01 -3.1774589824899488e-02
      1.0945883871546043e-01 -2.2004682609714686e-02
      2.4174515432623528e-01 1.6090443191084774e-01
      4.0893585830876204e-02 -1.3726228602071305e-01
      3.2809344838611830e-02 -7.1501670676140008e-02
      3.8801235572078950e-02 5.9365048723244253e-02
      2.1759362274712715e-02 1.8391332152717441e-01
      1.6005823070176994e-01 -5.7637673485170906e-03
      3.8666232724371453e-02 6.4012545749829841e-02
      3.7174730898027468e-02 1.0053783390239285e-02
      -1.7311164114190039e-01 -1.6612254550595737e-01
      1.5707806773227229e-01 -1.1787506323674284e-01
      1.7401182063809090e-01 -9.4071308755317596e-03
      -1.5241630559703842e-01 6.6404941398575917e-02
      1.5138293716655668e-01 -1.7630798157255708e-02
      2.3669086183171220e-01 -3.4351583399129207e-02
      4.2106671080557427e-02 -7.2302072624467292e-02
      -1.3164840533308123e-01 -2.0006833991911480e-01
      -4.0310746584438228e-02 -2.7479194850707184e-02
      1.4133984627669466e-01 1.0011260565017595e-01
      -2.1121086464937988e-01 1.2462873457598344e-02
      1.9772025168765761e-01 1.7945630804110849e-01
      1.3942465146637512e-01 -3.6323439667837153e-02
      1.8288435794936719e-01 -5.2630912234482331e-03
      6.0628100706902902e-02 -1.2933875302879930e-01
      -2.1564589430348172e-01 -1.1215936659592773e-01
      -3.6294457429916821e-01 -1.9617239518481955e-01
      -1.1535634056361342e-01 1.0216406475904616e-01
      5.0689858520914691e-02 2.1794595161148480e-02
      -2.3355063481297478e-01 -1.0854814811331370e-01
      1.1272613292768539e-01 -1.3240020839646212e-02
      -1.1747658652192548e-01 7.8910469806808894e-02
      2.4485794189520758e-02 6.7081533086221279e-02
      1.1373503354404787e-02 -3.5790497720071132e-02
      -1.2141559087699319e-01 3.2489871550609610e-02
      -2.4062839818051285e-01 -1.8502561295955644e-01
      1.0669143245334096e-02 -1.2500903613745123e-01
      -1.3384772283793331e-01 -6.7212386982331104e-02
      -5.5176667447457237e-02 -4.3604536513573849e-03
      1.6788506980659930e-02 -1.8482265855065222e-01
      1.8456263384652327e-01 -4.3163428484639957e-02
      7.9318898586721323e-02 -2.3762718974779867e-02
      -6.2184942343741605e-02 8.1792869904072932e-02
      -1.5012454241615031e-01 1.0735853969244026e-01
      1.1529292028560842e-01 -2.8701228406751919e-02
      -2.7300829753663349e-02 1.2726977121645888e-01
      2.0554615428771031e-02 -7.6793144042931602e-03
      9.6093190589053180e-03 -2.2865385608375987e-02
      6.6637324555231837e-03 -5.3361204544717378e-02
      5.4625186762498348e-02 1.3223241588687659e-01
      5.4856055839142978e-02 1.6955865817154639e-01
      -5.4553395075602792e-02 7.1767775789533722e-02
      1.3644524609729719e-01 9.8856870546802991e-02
      1.4779130219955036e-01 2.0313371672143827e-02
      3.4450468569924092e-02 7.4658259803819974e-02
      4.0474730238494280e-02 6.1268518247260421e-02
      -5.5730677356354875e-02 -8.4875523398390981e-02
      2.3946421212316066e-02 2.1124307569372221e-02
      -7.9880418749810306e-02 3.8250124571034463e-03
      1.6385544425837401e-01 7.1701054549560994e-02
      2.2199325209721019e-01 6.3362995282996340e-02
      1.4919521094694327e-01 1.1835208596076849e-02
      -1.2426085682324903e-02 -1.7021686325203753e-01
      1.1823388209985652e-01 -8.1906369229842207e-02
      9.7719738557389788e-02 -1.6507420644268844e-01
      -2.1884915060225993e-01 -9.4417050848889073e-02
      -8.4776436769410976e-02 -2.0545880625766375e-01
      -2.8142043029285391e-01 1.0800887395969522e-01
      -9.6816814917051203e-03 8.2554661340629068e-02
      5.6777787433854213e-02 -7.4731699415407277e-02
      3.2516214233158335e-02 9.1343604747628440e-02
      -1.3834656359398068e-01 4.0580282339923619e-02
      8.0643517096281869e-02 2.8626093579408168e-01
      1.4331751100065032e-01 -8.9223007396134566e-03
      -1.6564015028863696e-01 -7.7798373329465556e-02
      4.3824347621358152e-02 -5.6157762302826146e-02
      5.7289212122251583e-02 -1.1573338126424078e-01
      2.0946743643557773e-02 2.2763317355030076e-02
      1.4261393145100276e-01 2.1810647422751797e-01
      7.6768219531353349e-02 -8.1535431269462652e-02
      2.1969200885534221e-01 1.4389770793510456e-01
      3.2481780637465735e-01 -6.9121855075740007e-02
      1.4600191241521019e-02 1.3540384338531738e-02
      -2.3557322411196172e-01 2.5158136919112652e-02
      -2.6201582273379727e-03 -3.1944588210602490e-02
      -1.8299513180272675e-01 4.5133707248825683e-01
      -8.9261844598486368e-03 5.8828020685831754e-02
      -1.3427001725774701e-01 -1.3570299750027148e-01
      1.2566840441474178e-01 -4.2217553924921304e-02
      -5.6188448130805028e-02 5.6225293189910971e-02
      2.2577488588805222e-01 9.2180654057264000e-02
      -8.5751945960136980e-02 4.5023545099387080e-02
      -1.2556299183920563e-01 -1.8899824220295609e-03
      9.9814490746421652e-02 1.7908892566987425e-01
      8.0851080339189640e-02 2.0516346717177811e-02
      -6.6261544149754853e-02 -1.4301799478416929e-01
      -6.0261812961994711e-02 1.2141485169302840e-01
      8.1029020682333919e-02 7.0548734858467202e-02
      -1.1678070030123079e-01 -1.9419173825221359e-01
      -1.1566508572191982e-01 -3.5049132606539773e-02
      3.5054184220188955e-01 2.3671592569312397e-01
      -1.1647770855308957e-01 2.9835088397971160e-01
      -2.0321635674633604e-01 2.2365562854317164e-01
      2.7049523032164829e-01 -9.9620536957424344e-02
      1.3818045070436050e-01 -4.2066912176025345e-02
      1.9798449422257602e-01 3.0212988671840753e-02
      6.2014585340527187e-03 -4.3310299051525669e-01
      4.2583830714000924e-02 3.6489224083116431e-02
      -1.7535031692792991e-01 -1.1346016652230397e-01
      -1.6598097535514496e-02 2.5258356324828418e-01
      2.4577653168632179e-02 -5.3195834030449897e-02
      -2.4050167055591062e-03 -3.2138997892939275e-01
      -1.2887385623032496e-01 1.6786828315254990e-01
      -6.1791204767590098e-02 -3.5770520033590963e-02
      1.4794675752531899e-01 6.2842659800640091e-02
      8.4948197862577901e-02 -9.8869064497126735e-02
      8.1317945607054572e-03 1.5974182441610585e-01
      6.1907286042284425e-02 -1.5349588744103260e-01
      8.4593665069000491e-03 -2.2461661767539776e-01
      -1.3129110443585207e-01 -3.4980441921370682e-02
      5.5875230323076563e-02 -8.3482648811745094e-02
      -1.7406952055977809e-01 1.4670095929594770e-01
      -2.7116239220863043e-02 1.1404043176338365e-02
      -1.0349419621149514e-01 -1.7321840081519050e-02
      -9.9355389945331635e-02 -3.5038987919904716e-02
      -1.1607750971067651e-01 -2.0399696446206342e-01
      9.7807632535126324e-02 -8.8725258960958328e-02
      3.1317379313975206e-02 5.9304583961420479e-02
      -4.8160576527295357e-02 -1.5202075090037648e-01
      -4.3877915329784550e-02 -5.1459997287962245e-02
      1.0572224021790690e-01 6.4817112602262764e-02
      -2.2609280797089382e-01 8.2374027416519155e-02
      -6.4962262876074678e-02 -7.2286544989084406e-02
      -5.8880733327456393e-02 -9.8873193832244050e-02
      2.8325684850953180e-02 5.8069469478659709e-03
      -1.3076629378313631e-01 2.6188823391826724e-02
      -4.8997599337925572e-02 -7.1408971832514420e-02
      -8.8105118228921121e-03 -1.5283098643965909e-02
      1.5671625292022839e-01 8.7528656030012558e-02
      4.9029621382513454e-02 -1.6621024415546462e-01
      -1.4316330510693235e-02 -1.2687052804462387e-01
      2.2156410855328768e-02 -1.0431051175759667e-02
      1.2735068815839776e-01 1.4265712028612404e-01
      1.5859720207627458e-02 1.0138180307730708e-01
      5.2358011047483619e-03 4.0707154004211592e-02
      1.1678582293449197e-01 -8.5281822543162404e-03
      -1.4969230395705527e-01 -1.2971150102833803e-01
      9.2601058416517168e-02 -1.2912654815487987e-01
      5.5469322868867507e-02 -1.7615260889144216e-01
      -1.4809063873180237e-01 6.8312811574790952e-02
      1.1573497146207408e-01 2.6990644194935733e-03
      1.8879043188191380e-01 -2.5607128973397519e-02
      1.7210241217077968e-02 7.0313127772521244e-02
      -1.6527879052913003e-01 -6.6684728308089719e-02
      -9.4756930606711740e-02 -9.6060655533330708e-02
      1.2106454737358975e-01 4.9725259481603916e-03
      -3.0203020238472894e-01 -7.0085557320606756e-02
      2.7643315710128391e-01 9.9857511072645261e-02
      1.4751153664866848e-01 -9.4231307171328382e-02
      1.1965625548318792e-01 -8.5798899954418029e-02
      4.8731995448036698e-02 -8.0645130256454700e-02
      -2.3477563388914599e-01 -1.5991413743256827e-01
      -3.1202982335682578e-01 -1.3535660058793270e-01
      -5.4705837224633021e-02 3.4316170062999030e-02
      3.2952520227583978e-02 1.2826387119028507e-01
      -1.4553243891449508e-01 -7.4976766721076379e-02
      7.1517241593659145e-02 4.1479462316995647e-02
      -1.6671184440424291e-01 1.0473668255475818e-01
      -3.3126532270010491e-03 -2.2836536630834015e-02
      1.5480639149638237e-01 6.6926883943059623e-02
      -1.4486566149933666e-01 1.5005119792419780e-02
      -1.5635804154281596e-01 -1.1385594240421222e-01
      1.9989246862682348e-02 -9.2815610804078505e-02
      -2.5906346856688345e-01 -7.3211452030346000e-02
      -7.4668467479170567e-02 -8.7755020275603737e-02
      -7.0101695804533751e-02 -1.5882135209616205e-01
      2.4924693648723428e-01 -9.4452907261724194e-03
      4.6106375059365802e-02 7.0876946502097818e-02
      9.6085737427614368e-04 1.0630010578894495e-02
      -1.0328128337373002e-01 1.5885738025726087e-01
      6.3845048920403574e-02 -6.7704724477059053e-02
      -5.6613628401365024e-02 4.1976982782797205e-02
      3.2008193110676493e-02 -3.6182061147511789e-02
      -2.3251765379926650e-02 -3.7899530609209635e-02
      6.7186242330258772e-02 9.7090721433603906e-04
      5.9593852404894496e-02 1.1889087079262829e-01
      -3.5391015738317107e-02 1.0378790973233586e-01
      -1.0432249601257085e-02 -3.0817491058716315e-02
      2.6363979010535416e-03 8.6152596732786815e-02
      1.9421621044773990e-01 3.5453978759002566e-02
      1.2086496570742647e-01 8.7857180885318464e-02
      4.4792579006975503e-02 -2.1621344004122484e-02
      1.5082734001422609e-02 -3.7961752371625218e-02
      3.9802317849477097e-02 5.1747451896213228e-02
      -9.9783055093574533e-02 -2.2968946240055185e-02
      1.1174542309338555e-01 9.8123997673276384e-02
      1.4434578335967765e-01 1.0013151749458543e-01
      9.8471785841227108e-02 -4.5645134418315202e-03
      6.6624119985384214e-02 -1.3398206278803287e-01
      6.9964541486967596e-02 -1.2476097571311928e-01
      6.4681722526124695e-03 -6.5229550383879883e-02
      -8.5768062236696391e-02 -9.2394317833146999e-02
      -6.8833846525297296e-02 -2.7869946880300167e-01
      -2.2653480488383412e-01 1.0302996803077617e-01
      4.0809123346679202e-02 1.5966830851562019e-01
      -7.9140115427340632e-02 -2.5344046093173343e-02
      -1.2514127602613506e-02 8.3389487929337439e-02
      -1.5025110418525084e-01 7.4960084696458346e-02
      1.3803854110954529e-02 1.6892199316706108e-01
      8.9319998461443742e-02 -2.1248704920955451e-02
      -5.7363944452208084e-02 -8.8922736133439678e-02
      1.0008792704301911e-02 -2.2657184945440383e-02
      -3.7315618185657484e-02 -1.0870984119315898e-01
      -1.8229027740032079e-02 -3.2718050767701241e-02
      1.1555943889671280e-01 2.0007740647295902e-01
      2.7397176334838843e-02 -1.6244101587721230e-02
      6.8292448194812921e-02 9.1716330977939964e-02
      2.3999902736423054e-01 -3.5898886376859257e-02
      -2.2609737321418136e-02 4.1424037738656320e-02
      -2.1493793208222298e-01 1.9569026962655015e-02
      -4.7350436321377483e-02 9.8234880983763210e-03
      -9.2490634329518429e-02 3.5928389082953394e-01
      2.6573324606939008e-02 9.7336860783356280e-02
      -1.3152939201589467e-01 -2.0641750488276178e-01
      1.1558187538543796e-01 -9.7865652814190213e-02
      -5.2448289415442405e-02 -5.7781480390996882e-03
      1.4922741421493912e-01 1.0420447809099209e-01
      -6.2884152459428300e-02 9.4507466720282304e-02
      -1.3952840294584154e-01 -1.2726557357881430e-03
      8.4261615710551213e-02 9.0880769621590307e-02
      3.5821225107181061e-02 -1.5688201052307661e-02
      -5.4349467236526498e-02 -1.1326581258705040e-01
      -5.0369589197231474e-02 1.6559995154725060e-01
      1.5250876818811346e-01 5.3681318634119284e-02
      -5.0950438870452058e-02 -1.1086044259382764e-01
      -1.5119215564765001e-01 -3.9580619228885908e-02
      2.7043680283499227e-01 1.4083012524856575e-01
      -1.0232024788664400e-01 2.3469986103257687e-01
      -9.4336251018680706e-02 1.6258474603665871e-01
      2.0107352252346869e-01 -5.3466809783450704e-02
      9.6127655892254069e-02 -1.1016429542854902e-03
      1.4094184024577877e-01 9.7980021658288230e-03
      9.2223656324152848e-03 -3.3506581342561409e-01
      5.5214063969598971e-02 5.8961176595040209e-02
      -1.7635644475255927e-01 -8.0860582359075561e-02
      -6.4421064966710864e-02 1.9786603004584763e-01
      -1.7059734799361578e-03 -8.9696978291703783e-02
      1.4167225256692903e-01 -3.5831840133766646e-01
      -8.7726547641445760e-02 6.1404988653242391e-02
      -1.2885319252455027e-03 -9.1396393109963586e-02
      1.7478859945196737e-01 8.7479131571484597e-02
      3.7072847424674871e-02 -2.1278294842650532e-02
      -1.2421551814874288e-03 1.2368550850037732e-01
      2.9144669489314365e-02 -2.7374369165667251e-01
      -5.6764213895564630e-02 -3.9512278929580147e-02
      -1.8592466450394274e-01 -8.0065088809717216e-02
      1.0840486173645968e-01 -1.6383376671277911e-01
      -7.3382542931267253e-02 3.9818764750766920e-02
      4.3575629816612747e-02 1.9883736816134034e-02
      -1.1643032101023766e-01 -1.2975897676130407e-01
      -1.1732624213274361e-01 -6.9166312180069911e-02
      -1.6496282221425071e-01 -2.5081913799815075e-01
      5.9540579366500090e-02 -4.8604819378137445e-02
      3.7859333178640211e-03 -3.1336161338754602e-02
      -9.6212917345684032e-03 8.3835606092334076e-04
      3.6476821149921332e-02 1.8570133401640894e-04
      1.7169790904345936e-01 1.3005938417908247e-01
      -2.4209529715726213e-01 1.6913970678007481e-01
      -1.4649826117173128e-02 -2.4277736167590259e-02
      -6.1434022398802822e-02 -2.4198849538286463e-01
      -8.6270209858487976e-02 -2.4047961048497862e-02
      -9.4179011803386101e-02 3.8536947575559840e-03
      6.0016820638354083e-02 -1.6434109322034038e-01
      3.7379444480018086e-02 9.2693878961190815e-02
      1.7118549022383059e-01 1.3728080598753897e-01
      -2.8069303530009082e-02 -2.2926992462463086e-01
      -7.4970700390585399e-02 1.8707903012247607e-02
      -1.4927627128094867e-01 -3.4782849874043564e-02
      -4.5155345918991674e-02 1.8343898606756012e-01
      8.4876085671184681e-02 7.6059588127640201e-02
      -1.0163154562655588e-01 1.2324004970665034e-01
      -3.2017502274656294e-02 4.6776419835054726e-02
      -1.2335209758663761e-01 -9.1714610819171205e-02
      1.4076160668310156e-01 4.2797007091877476e-02
      1.1046079636768795e-01 -1.8123531890335867e-01
      -2.1365467724007944e-01 1.0960502810294384e-01
      5.9109098407600834e-02 -2.5356577778755617e-02
      3.4954433416011849e-01 -5.6520899369528081e-02
      -5.4798675213008477e-02 -9.9674878009146737e-03
      -1.2329041585331615e-01 -2.3342190960264753e-01
      -2.1309941230213880e-01 -2.0327722222735614e-01
      1.8099876718296198e-01 -6.4264724070206669e-02
      -1.7244322378605731e-01 -1.2086981341232668e-01
      2.9255968340921218e-01 1.2917660761765029e-01
      1.3193891059860796e-01 -2.5759654796453313e-01
      1.2510843453780748e-01 -2.3890378956067199e-01
      -2.5697122444811846e-02 -9.7305407626745125e-02
      -1.5377555140070287e-01 1.8412967531614206e-02
      -3.4719942240061269e-01 -7.9468862411916322e-02
      -1.2385063577455259e-01 1.5527508455175312e-01
      6.3133430973834254e-02 1.1262245682420627e-01
      -8.5371955853001141e-02 -1.5685731029673014e-01
      2.4304511266243062e-01 2.0323170581728080e-02
      -1.5578405086084521e-01 1.7510858696987977e-01
      -7.8176885350242697e-02 -6.3431552230642611e-03
      9.9138665692645095e-02 4.5938404304694355e-02
      -8.3388773657921855e-02 3.8879494568147738e-02
      -1.8520136789503114e-01 -1.4936905834636166e-01
      -4.3401598221250327e-03 -1.6226976405384660e-01
      -8.9547156867138072e-02 -4.4958451192939043e-02
      -9.9695645741878447e-02 5.4953726086798736e-02
      -2.2150954489935559e-01 -7.9438810717714359e-02
      1.3452548151826735e-01 -6.7055856376015813e-02
      1.1096942462447798e-01 5.4401478413216152e-02
      2.0345104654192068e-02 -1.1188343805084383e-02
      -4.4658299611898204e-02 1.7530468037710137e-01
      5.2696641695707008e-02 -5.4721402288550811e-02
      -2.1874804231222459e-02 -5.6736621813624419e-03
      6.1528294125612969e-02 -4.7666745811416007e-02
      -1.2292857981996783e-02 -2.7385767895862518e-02
      8.7415494767640101e-02 2.1998873298561785e-02
      5.5677481525697993e-02 9.9775279221091084e-02
      -4.6922098654350007e-02 5.2618002776595008e-02
      -2.4304317701197394e-02 -4.7513965090071324e-02
      -4.8801424907185094e-02 5.9711422483491143e-02
      1.4500231511282696e-01 4.5929455187313180e-02
      1.0780083142549841e-01 9.2604297288306256e-02
      3.1503840036139194e-02 -3.2423684003766641e-02
      1.7158547999496260e-03 -3.7811082460143752e-02
      4.9816063864206707e-02 4.4882184231450614e-02
      -1.1335493622840057e-01 -2.6498200942334852e-02
      5.0083997992208064e-02 5.1975815733715826e-02
      7.8554823790106407e-02 8.8942654301905455e-02
      1.0303930050990476e-01 -4.3001974775437747e-02
      3.7882655679705092e-02 -1.0636035923993047e-01
      1.8546331369615362e-02 -1.2144456936462859e-01
      -2.4784838265289568e-02 -7.6214385659768333e-02
      -4.6182157926961155e-02 -6.5279985586892339e-02
      -5.4220822617666871e-02 -2.0512954497271058e-01
      -1.8090988671180863e-01 6.6804298306662277e-02
      4.0439529397913725e-02 1.5915881344111085e-01
      -1.0845278762008841e-01 -2.4002795244902213e-02
      2.0025281865386754e-02 6.2847004164455558e-02
      -1.2110636658129785e-01 8.9426206330737473e-02
