<?xml version="1.0"?>
<opencv_storage>
<opencv_ml_ann_mlp>
  <format>3</format>
  <layer_sizes>
    136 136 136 8</layer_sizes>
  <activation_function>SIGMOID_SYM</activation_function>
  <f_param1>1.</f_param1>
  <f_param2>1.</f_param2>
  <min_val>-9.4999999999999996e-01</min_val>
  <max_val>9.4999999999999996e-01</max_val>
  <min_val1>-9.7999999999999998e-01</min_val1>
  <max_val1>9.7999999999999998e-01</max_val1>
  <training_params>
    <train_method>BACKPROP</train_method>
    <dw_scale>5.0000000745058060e-02</dw_scale>
    <moment_scale>5.0000000745058060e-02</moment_scale>
    <term_criteria>
      <epsilon>9.9999997473787516e-06</epsilon>
      <iterations>100</iterations></term_criteria></training_params>
  <input_scale>
    3.4011394695828834e-01 -1.0255638466885537e-01
    2.2566721180135332e-01 -8.2200148216271862e-02
    3.6496188433803994e-01 -1.3859653503348737e-01
    2.0462390059703309e-01 9.1652086538255045e-02 3.4107650940785317e-01
    -1.6627464794886751e-01 1.6712000155759596e-01
    2.0578124698700073e-01 2.7064656451077029e-01
    -1.0181570061190284e-01 1.4633780426845658e-01
    2.7910759744740715e-01 2.3635626507496754e-01 2.5760641482953456e-02
    1.2778828637755332e-01 3.3015077593047276e-01 2.5994619948537034e-01
    2.9441985199800878e-02 1.0514059469698563e-01 3.7030474378966044e-01
    2.9831333135236798e-01 1.1232954173274367e-02 8.5678236901361990e-02
    3.9186690805878160e-01 3.2631749994303477e-01 2.9068067455802343e-02
    7.6774499641289309e-02 4.4145263105403576e-01 3.5318394341269610e-01
    -5.7880504146821075e-03 7.2383269675386386e-02
    4.6437852886310382e-01 3.3695474529366126e-01
    -6.7067397395400852e-02 7.5768061720210125e-02
    4.5192207837534909e-01 3.0482008688826373e-01
    -3.8195970566865953e-02 8.4289304423174657e-02
    4.1871888609766600e-01 2.7192203772959084e-01
    -7.6586723831299830e-02 1.0366246960076471e-01
    4.0933546185618591e-01 2.4556021093094366e-01
    -3.5769502734585588e-02 1.2563209297057906e-01
    3.8713702058952965e-01 2.8274969233407726e-01 9.6090906545398064e-02
    1.4441078111839351e-01 3.3654724648285894e-01 3.5226662816124404e-01
    2.0763384804793900e-01 1.7255729018874558e-01 2.6252109253875056e-01
    3.8792953429015076e-01 1.8583445626419792e-01 2.1655841634233280e-01
    1.0056247298769071e-01 3.6210475259582053e-01 1.3714480665830189e-01
    2.3336564299621021e-01 -1.4156562360590583e-01
    4.5060881456115243e-01 1.6767204779694442e-01 1.9126492389420563e-01
    -4.5524296609809597e-02 4.9773874555412384e-01
    2.6281870084054561e-02 1.5672831135376902e-01
    -1.0959997000004523e-01 4.8452287398514504e-01
    -8.9759191259947274e-02 1.3000160614243969e-01
    -1.3281012665409939e-01 4.2642966845587166e-01
    -1.2460146468017311e-01 1.2257793834605800e-01
    -1.4299725863694407e-01 3.0897582092870540e-01
    -1.2125935496085487e-01 1.3296081450518443e-01
    -1.7473884895897154e-01 3.0426705019247352e-01
    1.1272160935291149e-01 1.3025037012018104e-01
    -1.7822206992819004e-01 4.0894542768448416e-01
    3.8766709059432275e-02 1.2337903203752444e-01
    -1.5140523758552282e-01 4.5979448227504782e-01
    3.4086178185361790e-02 1.3194400483538643e-01
    -1.5496393685003407e-01 4.9011931530300834e-01
    2.5422332176104961e-03 1.6120517735803042e-01
    -1.2118718961681060e-01 4.5051527677926689e-01
    -9.2662087672152477e-02 1.9796941416645858e-01
    -7.4115237913931875e-02 9.5611246667203353e-01
    -1.4010850540512634e-01 3.6987518171663175e-01
    -2.9319919417821988e-01 9.0779931711907047e-01
    -1.5521016595575612e-01 3.5728877097482958e-01
    -1.6934624583409569e-01 7.7001389936924780e-01
    -1.0804562206452309e-01 3.1819506389167646e-01
    -4.8782812724239878e-02 6.4595891305826447e-01
    -5.7069128489785015e-02 2.6753782317432029e-01
    2.1657064529062332e-02 4.7478151377672778e-01
    -5.2818554045443966e-01 3.1039993691156215e-01
    -2.8830082376286359e-01 6.4514306295349200e-01
    -4.1119024984246921e-01 3.4640092136379497e-01
    -1.7036561776100398e-01 7.2442156938855506e-01
    -6.8712685220321682e-03 3.5809722562707336e-01
    -7.3808013728132379e-02 5.7975079968996190e-01
    3.4505169759925597e-01 3.4112182947149688e-01
    -1.8281245655032782e-01 4.2710490485080249e-01
    4.7227112449223890e-01 3.0848196056791116e-01
    -2.8933039696317309e-01 1. 0. 1. 0. 1.1911190979685935e+00
    2.0875540972588189e-01 3.6995497087803553e-01 2.1813135810206505e-01
    8.1290681203203352e-01 -1.1545399447574531e-01
    3.9507801537673659e-01 1.9062793963109942e-01 7.9985532782849400e-01
    -4.6410541285364114e-02 5.9731197245017087e-01
    -1.7766028304668741e-01 9.5484472464164583e-01
    -8.5561504856450643e-02 5.1161673617723491e-01
    -3.2454859567075878e-01 9.7217843172849960e-01
    2.7248643834636743e-01 5.6341844736906255e-01
    -3.7968295796443607e-01 8.5472124515766335e-01
    2.9997279788589216e-02 6.3621890638421874e-01
    -2.1708402633185245e-01 8.7615110881164948e-01
    1.1617214744487712e-01 3.9431722549868337e-01 1.5167857835385024e-01
    1.1424583824535059e+00 -1.5863855308098695e-01
    3.6973792156013940e-01 1.9603475471160212e-01 1. 0. 1. 0.
    9.7916501534331912e-01 -3.3359974875071280e-01
    5.5556075892657952e-01 -3.6315790059477443e-01
    9.6300072791212887e-01 7.5967501753666702e-03 5.2067462993178160e-01
    -3.3709571147773976e-01 1.3697325220906270e-01
    -2.5524089402674527e-01 9.2514981432233911e-02
    3.8702001121081270e-02 2.0738703972581646e-01
    -4.8926042150062715e-01 1.5989326717191946e-01
    -2.2935195240737780e-01 3.7015498451832579e-01
    -3.4204490473172111e-01 2.0666161008310019e-01
    -2.8105173930199967e-01 5.3636135517098049e-01
    -1.2755994744814264e-02 2.0199363501301232e-01
    -3.1964707523776514e-01 3.3537313549206754e-01
    3.0855687615724037e-01 2.0277375766875402e-01
    -2.7641520519498575e-01 1.9194012878443081e-01
    4.5616273665977047e-01 1.5573095113059185e-01
    -2.2108692857923257e-01 1.3294956725342955e-01
    2.6801201197577640e-01 8.7163879406343639e-02 6.6859430960177324e-02
    1.7946881150670072e-01 4.5313625108934569e-01 6.3025577294868448e-02
    3.6478798905853771e-01 2.9971741978450189e-01 3.1708628258745036e-01
    5.2752733529868374e-02 4.3825123722185721e-01 4.4637207442784066e-01
    -3.6599157786041447e-02 5.2112234493919114e-02
    4.4837382017108540e-01 3.3104630083256281e-01
    -4.0235057166633065e-01 5.3337316963161803e-02
    4.3885200299817578e-01 1.9380402156661236e-01
    -4.9998453283777233e-01 6.4553508973262536e-02
    3.6673205362405042e-01 1.3372270063920649e-01
    -2.6272793320893933e-01 9.6586856259315651e-02
    5.1926698167432402e-02 3.6214184333473548e-01
    -3.1555435816508681e-01 1.7564586555407835e-01
    -3.0472540050375696e-01 5.3452564709102446e-01
    -7.4030024758816601e-03 1.8349504293228455e-01
    -3.1838882653088590e-01 3.3838876931128670e-01
    2.8580510253337360e-01 1.7477440497424732e-01
    -2.8993527932115076e-01 1.2954790104941036e-01
    2.6287566956872338e-01 9.1675603116181184e-02 7.7463359990373487e-02
    3.0412900912332741e-01 3.0139741226866335e-01 5.8350585331183431e-02
    4.6808859901313266e-01 4.6648744151911692e-01
    -3.2921611206525578e-02 5.8335591439098146e-02
    4.7840124473707774e-01 3.4453327266828987e-01
    -3.7897276378097194e-01 5.8992000702641045e-02
    4.6953326077048563e-01</input_scale>
  <output_scale>
    5.2631578947368418e-01 4.9999999999999994e-01 5.2631578947368418e-01
    4.9999999999999994e-01 5.2631578947368418e-01 4.9999999999999994e-01
    5.2631578947368418e-01 4.9999999999999994e-01 5.2631578947368418e-01
    4.9999999999999994e-01 5.2631578947368418e-01 4.9999999999999994e-01
    5.2631578947368418e-01 4.9999999999999994e-01 5.2631578947368418e-01
    4.9999999999999994e-01</output_scale>
  <inv_output_scale>
    1.8999999999999999e+00 -9.4999999999999996e-01
    1.8999999999999999e+00 -9.4999999999999996e-01
    1.8999999999999999e+00 -9.4999999999999996e-01
    1.8999999999999999e+00 -9.4999999999999996e-01
    1.8999999999999999e+00 -9.4999999999999996e-01
    1.8999999999999999e+00 -9.4999999999999996e-01
    1.8999999999999999e+00 -9.4999999999999996e-01
    1.8999999999999999e+00 -9.4999999999999996e-01</inv_output_scale>
  <weights>
    <_>
      -1.6330954184697516e-01 5.3849764932954548e-02
      2.3770004755469773e-01 -1.8402738245750772e-03
      -6.2521941524926175e-03 9.8512883000579185e-02
      2.4452192548482263e-01 4.6689817011484142e-02
      1.5025544676863378e-01 -5.5828485784475322e-02
      1.5600898489879800e-01 -2.9874064605114942e-01
      -3.9855939196181744e-02 1.3562914371290752e-01
      -3.1863123051405491e-02 -1.9202749239469113e-01
      2.8920033672888656e-02 1.0275987652765871e-01
      -1.5047714398817538e-01 1.4442191458288209e-01
      5.6027396989200832e-02 -2.8683170790350088e-01
      6.0147431995081421e-02 -3.1076735787910988e-02
      -2.8281954203875947e-01 1.2714308463133009e-01
      2.1356017748963368e-03 4.5829254885159904e-02
      -3.0869922929232652e-01 -1.1603841239449728e-01
      -2.0116435283257988e-01 9.9561846860032367e-03
      -2.5430104876972198e-01 2.2701949095915533e-01
      9.0255137885589781e-02 -5.8844493646073658e-02
      -7.7976611375258020e-02 -1.5184786236479389e-01
      -1.4098814967670420e-01 2.0461152993169593e-01
      -1.1795633311090020e-01 -2.5157747787794038e-01
      -2.6757833241824214e-01 1.3620894702282690e-01
      6.8644197574338206e-02 1.4277435539578828e-01
      -1.0348979461366165e-01 -7.0344947229438043e-02
      -3.1705947319621269e-01 3.3335163556796255e-01
      1.9924148247199250e-01 3.9946851424123582e-02
      -1.7554813109714576e-01 4.7843938916216848e-02
      -4.2257439469906073e-02 1.7969029175215984e-01
      8.1275941447661218e-02 2.4672034456417517e-02
      -9.3869326457884025e-02 1.4830459545614533e-01
      6.7150838551823758e-02 -3.9898051971829379e-01
      -6.3459725135985414e-04 9.6286678878917023e-02
      -1.4493380776161183e-01 -1.3232872290639175e-01
      -1.0158562518837431e-01 -9.2848036367356848e-02
      2.4802482146861694e-02 -9.8105400589495267e-02
      -1.1310090631269391e-01 1.9949377778643504e-01
      -3.6257929507523851e-01 -2.1844648796235194e-01
      3.0049273959463119e-01 -3.4088284545764680e-02
      9.2025891980101318e-02 2.3807058061431088e-01
      -1.7193838331666297e-01 2.5514901499017617e-01
      1.3573739151494499e-01 -3.1816571199300330e-03
      3.0570440988271408e-01 -3.8123292032914230e-01
      1.2645390437157922e-01 -4.7802306660953552e-02
      -2.1304176660601234e-02 9.9767665582773226e-04
      -2.5300909410640476e-01 -1.6646477516118263e-01
      1.3931147859298371e-01 2.1330805320396448e-01
      9.2393974049731153e-02 1.9433258934994904e-01
      -8.6479102715780298e-02 -1.5191139435757502e-02
      4.8709893037445801e-02 -2.4454943413451286e-01
      9.6454519777232309e-02 -1.7411884045231832e-01
      7.4497630647634872e-02 1.7657405808066098e-01
      5.3186588347183365e-02 3.2381163881691870e-03
      -1.2538972856959274e-01 -1.5699331566460670e-01
      7.6205829935465610e-02 2.6297983714153633e-01
      9.8681372850537435e-02 2.1883173012222273e-01
      -1.8725808239273950e-01 -2.0211875884945718e-01
      -1.2629380354756567e-01 2.2372602517952617e-01
      1.0635825138353792e-01 5.5300421788065830e-02
      -1.8895762978722222e-01 4.9397155933086162e-02
      -2.6242084943807933e-02 -5.7657861034288424e-02
      -2.6604264695611612e-02 7.1425226220178023e-02
      5.1906102342181668e-02 -8.4777391350135803e-02
      -2.1666783598197806e-01 1.3041597601651667e-01
      1.1407393327000503e-01 8.2316289713264768e-02
      4.2706881217343215e-02 2.6491062039806673e-01
      -1.8398491383826476e-01 -4.1437746261400155e-01
      -7.4914508143905951e-03 -1.0295413520851808e-01
      1.4775639779712396e-01 -1.4512006641102915e-01
      1.3985570718290996e-01 -5.8279897036436013e-03
      -8.5478865559226718e-03 5.6794935285321403e-02
      -1.2390949593507611e-01 -1.4545875823768165e-02
      2.7946942097637217e-01 -1.0687231450788012e-01
      5.1833686417799778e-02 -2.2301344667208278e-01
      -1.0948141100260687e-01 -6.8314870206754447e-02
      -3.1001590721133360e-02 -6.4634141764987163e-02
      1.2104508777825738e-01 1.2777208493060188e-01
      -5.7312756397822698e-03 -1.3656878230093256e-01
      1.3459964327338222e-01 7.8771867024784864e-02
      -2.1613078805760924e-01 -4.7972381290449950e-02
      -9.7410725082259907e-03 -6.8205416242546682e-02
      -3.3135429736008004e-01 -8.3991343973853008e-02
      -3.4741514865252038e-02 -1.2273130818544381e-01
      9.8557855019068968e-02 2.6652031346202618e-02
      -8.4468873051276511e-02 1.6092101760027741e-01
      9.8849625336262185e-03 1.2531825196353705e-01
      6.8909691413071841e-03 -1.3225162571091173e-01
      -7.2639601430476416e-02 3.6136902599597780e-02
      1.3018049239647231e-01 -3.2128784982662480e-02
      -1.0897881128435370e-01 2.4201606110530707e-02
      -2.2706015340838426e-01 -1.3433445224394644e-01
      4.0351717786929614e-02 8.1928233290578550e-02
      3.1345536135123225e-02 7.4207105331014434e-02
      -2.2383181964915531e-02 6.2471586969636450e-01
      2.6808626315757367e-01 -2.9852374084029114e-02
      -1.5278641108784824e-01 -1.1194127389204235e-01
      2.3332940610597847e-02 9.1041554658550031e-02
      -9.6684820123662119e-04 -1.2016958143513337e-01
      2.4493815668867737e-03 1.6885074630014811e-02
      3.2349697378116465e-02 -1.4948743003302972e-01
      -4.4319088552931929e-02 1.9663548338637099e-01
      5.3820294608429874e-02 1.1489396785694755e-01
      8.5572344814743809e-02 -2.9613082412425586e-02
      2.2354425031680530e-03 4.6157277349464100e-02
      -1.7807973340134184e-01 1.4082488228404486e-01
      -3.3614539575306235e-01 1.0845830798191635e-03
      -1.1754742495288656e-02 -3.9686319301723914e-02
      -9.1006338098701345e-02 4.0265724987679857e-02
      -1.2074386483750803e-01 -4.2764444664118743e-03
      -3.1652538530359174e-02 1.0590096514868221e-02
      1.9655865708692679e-02 3.7979156593579741e-02
      5.1930172270404286e-02 -5.7166710476809712e-02
      -3.0846162409552316e-02 -1.0733239498489432e-01
      3.4431795860744088e-02 -1.1199887284568345e-01
      2.4271344851088023e-02 -8.6026703777487251e-02
      -7.1996011703798574e-02 -1.1061968316670678e-02
      -6.3155621443683578e-03 -1.7172128925261726e-01
      -8.2271445812738001e-02 1.0495258544104458e-01
      -9.9045447153999766e-02 1.6833797489953581e-01
      2.8828692827876583e-02 1.1067752493406011e-01
      -9.1043469626734069e-02 2.3812212074906448e-02
      -7.3869830642991449e-02 8.0929075703669348e-02
      1.0375193351157450e-01 1.3901734958986095e-01
      9.8822049738862189e-02 1.3867309086229754e-01
      -4.7809585221798206e-02 5.1290073785269223e-02
      5.5705751447967272e-02 1.8874471567072001e-01
      -2.3817952094577780e-01 -1.1298955795479637e-01
      -3.7185235016680487e-02 -6.2959351341980982e-02
      1.8687710256995332e-01 -1.2282345309991054e-01
      -2.4952858076370253e-03 -9.1257862949147325e-02
      -8.5898596632097687e-02 1.4479384101580431e-01
      7.1147752755054500e-02 2.3402004791380349e-01
      -8.9646264679015444e-02 -1.2895249214272700e-01
      1.5227710582379422e-01 4.0960557025885075e-01
      5.4502292226080253e-02 -9.7288799796909090e-02
      8.4668560866382414e-02 2.7615118836357873e-03
      1.7652155349903145e-01 -9.3719363247678669e-02
      -1.5893894857751764e-01 1.1478050189205257e-02
      9.7269350401699470e-02 2.1122163273744572e-02
      -2.2667843724102212e-02 7.0362307505091828e-02
      1.4341067095003174e-01 6.8548441282868397e-02
      8.9734490805909881e-02 -1.4538521112170805e-01
      1.5649006189139067e-01 -2.1651052935674467e-01
      -1.0952208497508227e-01 1.2954692752791994e-01
      -4.6264427502534657e-02 -1.1641567289672793e-02
      -2.6263087204179216e-02 3.5431699116487761e-02
      -1.5593376057239863e-01 4.5578868501847336e-02
      2.2838384929711386e-03 -7.1520842389123096e-02
      2.5267616512781036e-02 -3.6923274861525648e-02
      -1.8890773674639202e-01 8.4195684965606435e-02
      8.2704869449696516e-03 6.4207143762378141e-02
      -1.6388684687719282e-01 -1.8049483651804008e-02
      -1.6409642993495216e-01 4.5662357439364240e-02
      -1.2614979706933829e-01 7.5256087464247334e-02
      9.7126249813986140e-02 -6.1090459485213446e-02
      3.4241365457478259e-02 -4.3903456037545502e-02
      -9.5941392009048679e-02 1.6592693652196544e-01
      -1.0674720340352227e-01 -9.7702078876414106e-02
      -1.0821099704408903e-01 7.3363174893314953e-02
      4.2240128393590308e-02 1.2029086555607230e-01
      7.9452579019236459e-03 -6.3559095102648400e-02
      -1.2465913336361947e-01 3.0851771126159699e-01
      1.3068100546824679e-01 4.9282426622725434e-03
      -5.2150238423082348e-02 1.2030438609915524e-01
      -3.0526682001565185e-02 5.0566155993251267e-02
      7.5995722162439203e-02 2.0258156365422211e-01
      -6.2526299640198776e-02 8.3467526961524638e-02
      6.6071460022918915e-02 -1.4781013998156051e-01
      1.4474024500191462e-01 3.0526698234260907e-02
      -3.5800084742744341e-02 -5.1965558421116678e-02
      -7.9241255067556277e-02 -1.1656080497714952e-01
      9.5363373666395076e-03 -4.7858083163954547e-02
      -1.9916567591478439e-02 1.6524605229590281e-01
      -3.3413062575579472e-01 -1.5969046059379560e-01
      8.7053196138557262e-02 -8.7980666069950933e-02
      -8.3580638250046857e-02 2.4922814829030351e-01
      -1.4308208787877016e-01 1.4209588474517465e-01
      8.0268935136491804e-02 -5.1425300101215050e-02
      1.0224184524310108e-01 -2.2379691875393085e-01
      1.0953822765043435e-01 -7.1186115875991565e-02
      -7.8587450283139876e-02 9.5089503585607554e-02
      -1.6367482312069009e-01 -6.8588393319741023e-02
      9.5489624951718255e-02 1.1626617578514628e-01
      4.2336295276501873e-02 1.2739475027788655e-01
      1.0891702677821569e-01 -9.6111656461003697e-02
      -7.3149497216690271e-02 -5.6048035337114957e-02
      2.0279574634615733e-02 -7.4749959451741177e-02
      -7.1933330086819458e-02 1.7082019158622488e-01
      1.3338143534711664e-03 -5.8625134688666432e-02
      -8.0807728662129708e-02 -6.3189967654915136e-02
      -4.1956462941220678e-02 1.2205563491528000e-01
      5.4859731407114289e-02 1.2967755003668843e-01
      -1.7880802601351578e-01 -1.5240047838551063e-01
      -1.5943601550390873e-01 1.9988295837129413e-01
      8.2032468955343191e-02 -2.0123240648595879e-02
      -8.2759464503824223e-02 7.0345456996665848e-02
      -2.6655464332522569e-02 2.4625389611745575e-02
      -3.9521613641970377e-02 8.5576098054837443e-02
      5.5156112174608524e-03 -3.0218232560557577e-02
      -1.3631428854921207e-01 1.9511520248456019e-01
      1.0460470836908373e-01 2.2824426755588639e-02
      2.9764864241742833e-02 1.8378333857577520e-01
      -4.7202594840244277e-02 -1.8273635056200510e-01
      -1.7447388115930811e-04 -7.3031177347643333e-02
      5.1510623242236445e-02 -4.4839325030997322e-02
      1.2976806894586637e-01 3.0556081787082454e-02
      7.2961835128973265e-02 8.7892652392190559e-02
      -6.0353932675222830e-03 -3.4062697211921768e-02
      3.9051262888466602e-02 -7.0782092176677872e-02
      2.2054930032442527e-04 -1.2702520744255916e-01
      -1.2380030271352449e-01 1.5114840075731483e-02
      -7.1797903188394976e-02 -9.1463648968859376e-02
      1.4952648389795326e-01 1.7650006663816450e-01
      6.2002298166686232e-02 -2.1612666923059697e-02
      9.8931821048847693e-02 -4.8735626251551714e-02
      -1.7164622338634192e-01 1.7224672783760481e-01
      -7.1264824405259677e-02 -1.4920089890674973e-01
      -4.9433052415709229e-02 -2.2661934948935666e-01
      -7.6256082665751013e-02 -3.5697763319126823e-02
      2.7626117062125177e-01 1.7315446705679999e-02
      -1.7248971384586775e-01 1.1594013648027729e-01
      -1.5115121322445668e-01 -1.1388780176092896e-01
      4.7268639286859586e-02 -6.2498933946617749e-03
      -2.1975826895664286e-02 2.4250233489758920e-02
      2.6277588526296131e-01 -1.4870244322209730e-01
      -1.2895040234067692e-01 7.9336850429902711e-02
      -3.5818655149681157e-04 -7.0898026109387322e-02
      7.4143096974096087e-02 1.1855225957507118e-01
      4.0362794721763323e-02 1.0288047363919288e-01
      5.5168792841595114e-02 3.4740825931671315e-01
      5.4594799647032989e-02 -1.3597548683099611e-01
      -2.1818587532010361e-01 -4.3920700018080371e-02
      -1.2295130541043128e-02 -7.8319882381541847e-02
      -6.2190664323111287e-02 3.6806535608378765e-02
      1.3563332194540804e-02 6.0141165173980049e-02
      6.1600485049483032e-02 7.9705674330604104e-02
      8.5655344107477049e-02 1.2808764515733376e-01
      3.9978174312144989e-02 1.3601556966541362e-01
      8.5175531146287342e-02 2.9567115407437526e-02
      7.5059605606508609e-02 -1.1951648268657530e-01
      -4.6721477786636184e-02 3.2823162831619512e-02
      -1.3479315905373351e-01 7.5568868125181946e-02
      -6.7408933377161362e-02 -8.7470957167412572e-02
      -1.2354825721992423e-01 -4.6818673901651467e-02
      -4.5804153256292529e-02 -1.0688575909585649e-01
      -1.2249277983445184e-01 -1.8778830917814612e-02
      -7.2731581205020213e-02 2.0645528570585175e-01
      7.5981315504883143e-02 -1.3441333862673255e-01
      -5.4319684692650395e-02 5.8366811428970086e-02
      8.7970252604675198e-02 -1.3238985024070690e-02
      1.8972460038044987e-02 -3.6408991480756042e-01
      -6.7265316658946125e-02 -9.9222572637815754e-02
      2.2126427284376243e-01 -1.7336227961814155e-01
      -7.6338037764132463e-02 1.9570284112605582e-01
      -1.3278470153815589e-01 2.2963388001397361e-01
      -2.1569700182025878e-01 1.4397588209175286e-02
      -4.9864428520187236e-02 -4.4972745206028890e-02
      5.3571168139983832e-02 1.2804653052850504e-01
      -1.2544886246039449e-02 -6.3947538340691779e-02
      1.0979670038942860e-02 -3.9848633905834263e-02
      2.1355466301141390e-02 1.3677775490550187e-01
      -5.3277811873611594e-02 1.3693840180900982e-01
      -3.3033238975413859e-01 -1.1534167426763826e-01
      6.1102971790369831e-02 -1.0829530239830359e-01
      7.1746414719880816e-02 1.1275634934548655e-02
      -7.2765315590351154e-02 -2.8655317915066609e-02
      -1.3678982179601246e-01 8.0587214130593568e-02
      1.3588583914350197e-01 1.6127967343757846e-01
      7.2099899382872118e-02 -1.3611178510114093e-02
      -7.0542295244167864e-03 2.7012777221360706e-01
      1.9574906348367666e-01 1.6105155272267910e-01
      1.3530460771553457e-01 -1.2730674338695361e-01
      1.2838354256808779e-01 9.8359098863023756e-02
      -6.5058943545606041e-02 -3.8271815597654421e-03
      3.4271336629161306e-03 1.2177580521375761e-01
      -1.2358092692460057e-01 4.5649385914955647e-02
      -6.7531415687140245e-02 2.1082828399906949e-02
      4.0779090197604881e-02 -2.3348267879402804e-01
      7.0084347662433377e-02 -8.5641767204278796e-02
      -1.1082609394031713e-01 1.2242707652917509e-01
      -1.7350115733285459e-02 1.5446709554280422e-01
      -6.1059876936760252e-02 -9.4374870661619842e-02
      -4.8424440270822870e-02 -1.0583639091511070e-02
      -1.4491037983871388e-01 1.3973923148351899e-01
      4.0690359516148022e-02 -3.9955637671727121e-02
      -1.1356531294978212e-01 1.4807750750570566e-02
      1.3867723672365334e-02 5.2398780382189314e-02
      5.3026428494504793e-03 1.3081468677321453e-01
      -7.5189436309630431e-02 1.5150328976739882e-01
      -1.2051033840574760e-01 -5.4877346050556247e-02
      7.0451242241656553e-02 -7.4010374163400533e-02
      1.7025207388243313e-01 1.1463692089552412e-01
      -1.7915588804303437e-01 4.4586289708540359e-02
      -1.7459478635891759e-01 -1.1741068158451367e-02
      -2.3889168779576413e-02 -7.2251907490532577e-02
      1.4575520325431895e-01 2.9158467291388285e-01
      1.2269401055467689e-02 3.8002076465369850e-02
      -3.4571743709338430e-02 1.7765638695612504e-01
      7.2923779713164161e-02 -3.6718513076516180e-03
      -3.0535020334334625e-02 3.1099531394286101e-01
      -5.9714017684809099e-02 -2.4125363408107857e-02
      -4.9931526034258003e-02 3.1717418067401881e-01
      5.7122784180023152e-02 1.0806398389561456e-01
      3.7787043256067125e-02 -2.2988656577478218e-02
      1.7495185680718947e-01 3.9541094488251598e-02
      4.9445747044843134e-02 -1.4602891695529341e-01
      -3.3941735746917320e-02 6.8395905119336811e-02
      1.2799510242206319e-01 1.5858794401199436e-01
      1.6343135823644561e-01 1.0463965023070207e-01
      -2.6896709876798214e-01 -1.4883641946638795e-01
      -7.3014508514403678e-02 -9.3980763452324728e-02
      -3.1354405664750634e-01 2.5517081509741185e-01
      -1.4526505605279705e-01 3.3437343155111522e-02
      -7.8109722850559843e-03 -1.7615908973329386e-01
      -6.0691777236422835e-02 -1.3409326099571278e-01
      8.3618635696178362e-02 -9.0566249241210872e-02
      -4.6238505759749901e-02 2.5557305528351042e-02
      -4.6511640810694629e-02 4.6046597655595919e-03
      6.4860244803116668e-02 6.6843844808912312e-02
      -1.4579191512980430e-01 1.5123014443679123e-01
      -2.3790258416706820e-02 -2.3690736484101232e-01
      -2.4782788677441142e-01 8.8300089627214251e-02
      -6.5057125682291495e-02 4.5717823140497764e-02
      -6.6837115232321664e-02 1.0792542923800730e-01
      -7.1465824204125186e-02 -8.6947774780498727e-02
      -8.5709352222389013e-02 -1.5898155406599151e-02
      -1.4023230768051992e-01 7.1579766911938861e-02
      5.1631580189030385e-02 2.9513505937951729e-02
      -2.1947303964452561e-01 -5.7309149152161044e-02
      -2.6708418116315968e-01 1.8157464586613217e-01
      1.3715299049940188e-01 -7.1204426145058730e-02
      -2.4941777502752168e-02 -1.5193952799901728e-01
      -7.8740409478701437e-02 3.0310958951269035e-02
      -1.0185229101203738e-01 7.0296011637806027e-03
      -1.7961019287751875e-01 2.5826097268365510e-02
      -1.8099266808794442e-01 1.7223234687111982e-01
      3.1953303983794243e-02 -2.5016656657782979e-02
      1.2449494635709940e-02 1.1868691574002729e-01
      5.6718644191545826e-02 -1.8831143074910430e-02
      1.3699096404802638e-03 -7.6037250439147568e-03
      -4.9234451910916542e-02 1.1670373890159718e-02
      1.0302288288315613e-01 6.6421983794212311e-02
      3.7597063680736578e-02 1.1582900715424237e-01
      1.5958430558159424e-02 -1.2384028295737346e-03
      -8.8954540394583614e-02 -1.7225266074100542e-03
      -4.7395434918900546e-02 -2.0418508998244444e-02
      -1.1545003648844056e-01 9.4599724520314135e-02
      -7.5394823701251334e-02 -5.8702925047839485e-02
      1.8146344420066593e-01 2.1219196361687745e-01
      1.3611166487819337e-01 -1.9379255746308388e-02
      3.8393429870876385e-02 -1.1132803596942820e-01
      -1.9298496125962694e-01 2.4584937338180823e-01
      -1.0546920734165148e-01 -1.2982536046664106e-01
      1.1954947705166648e-01 -2.5084323236112777e-01
      -7.4790667752232504e-02 -4.7925716327820028e-02
      3.6501183533418635e-01 4.5126509246666877e-02
      -1.2484063748463715e-01 1.2464134328975243e-01
      -7.7239053544410546e-02 -2.0627903207454404e-01
      4.6837591812215917e-02 8.3922031917775086e-02
      8.1727583212979987e-02 1.2151679275084123e-01
      2.2289323271049194e-01 -1.7374163832610093e-01
      -1.0974285912565272e-01 8.1471808906713017e-02
      9.5686283937922348e-02 -1.0796318498699836e-01
      4.3164701387243945e-02 5.9311752729832003e-02
      1.0499071814541255e-01 4.7364160689614167e-02
      1.6260156471731285e-01 1.0325391551930158e-01
      -2.6969464396386585e-02 -1.4126871218214532e-01
      -1.1857124838528729e-01 -8.5051499283362572e-02
      -5.3909438626719687e-02 -1.2607674490003021e-01
      -9.9765665092317019e-02 -5.5621393008774027e-03
      2.3704963318957439e-02 1.4370716410789979e-02
      2.9024756275443517e-02 1.6458420245383049e-01
      7.8990961031712811e-02 8.7500753388350158e-02
      1.3033488006299260e-01 6.8654407501835699e-02
      6.4980465503834808e-02 1.0752042195446780e-01
      5.0739420942993947e-02 -2.1651995329292711e-01
      7.2967842965325463e-02 1.3186333468318063e-02
      -3.1915749051795193e-02 7.7733539645969130e-02
      -2.1274426890079928e-01 -7.6364068752836786e-02
      -1.0785718492082808e-01 -6.8285454381191490e-02
      6.8526964563458293e-03 -1.5031746991541084e-01
      -1.8716965346654893e-01 1.1656728153110087e-02
      -1.6488801475913623e-01 2.7177078078736550e-01
      6.8764474707122339e-02 -1.1297279671448283e-01
      -4.3440817918724055e-02 1.7681201124401175e-01
      1.0665547499601721e-01 2.0980876913385158e-02
      5.3736339239010720e-03 -4.3711182278314797e-01
      -1.0437632286438946e-01 -6.4441432416889863e-02
      2.7282639876845494e-01 -1.2883563951225346e-01
      -1.7765260947870821e-02 2.4266658157096083e-01
      -1.6368535980826729e-01 1.9189972919032533e-01
      -3.2216972330379784e-01 -1.1892542328346816e-02
      -2.6467523738532440e-02 -4.2365910777885152e-02
      1.0082493965180751e-01 9.7944158851199545e-02
      -4.0598472786020155e-02 -1.4811572053198679e-01
      -3.7938186237115742e-02 -1.2974427560151724e-01
      3.1893449428054103e-02 1.5505635225405909e-01
      2.0702335587677714e-02 4.7754362943340435e-02
      -2.6283526755189734e-01 -1.2944344051979198e-01
      8.5819783784332512e-02 -1.7460676252381735e-01
      1.8160288877332658e-02 4.7814946042472051e-02
      -6.7200866692425976e-02 5.4166500061993167e-02
      -9.5035825543204930e-02 8.7149971860747272e-02
      9.3769722334725844e-02 1.2627453746176032e-01
      1.7152706926555508e-01 3.1940793284972645e-02
      -3.8785325667552606e-02 1.1367608051025435e-01
      2.5832609987453031e-01 3.5928275099751533e-01
      1.4955882108572238e-01 -1.2495020299122976e-01
      9.4458172281415495e-02 1.4355599736404187e-01
      2.2701327498327820e-03 4.2333692310535199e-03
      -2.7324602268873659e-02 3.4920446350390328e-03
      -1.7727308035337213e-02 -6.2551953437628580e-02
      -1.2441861733919395e-01 3.8913124218312588e-03
      5.4018355043484075e-02 2.4234638162798916e-02
      2.2288797869126228e-03 -1.2608967777954996e-01
      -4.6022999295741336e-02 -2.3282689124804801e-02
      -3.6628631189182040e-02 -1.1682989616802655e-01
      -1.3954104407200789e-02 6.1818507929656138e-02
      -1.3192494787785601e-02 -6.4781980651247129e-02
      -2.7994890822388057e-03 5.2212651262653585e-02
      -8.9371424750579898e-03 -3.7597512436949261e-02
      1.4926824779094200e-01 -9.1541981762579914e-03
      5.8033670767754751e-02 -1.4222469443389368e-02
      -9.0442199640904317e-02 9.0367661961805595e-02
      -1.5045421029213066e-02 1.4179879592124311e-01
      -1.0459081712727795e-01 -6.0675284337273080e-02
      -4.8595627598987419e-04 1.3135878212116472e-01
      7.0906959393769495e-02 1.0364771325395761e-01
      4.3769013058740099e-02 -5.4674547138078965e-03
      -8.7601248645350877e-02 -1.3748440432211653e-01
      9.0815661983891585e-02 -1.5283792604847211e-02
      1.3025262852908316e-02 1.4366195348727362e-01
      2.0923648134032299e-02 -8.7035687004303561e-03
      -5.5055897472814426e-02 -7.7948224850203418e-02
      -4.0869046315254856e-02 -6.0414973396992686e-02
      1.2210074950585612e-01 2.0732511359323719e-01
      -1.0168767171776534e-01 -7.0073647436785139e-02
      -5.8754019801744578e-02 3.1990602841412363e-01
      -2.5148928607392311e-02 -9.1438981809069345e-03
      -1.7487414475589259e-02 -1.3614090684777010e-02
      2.4898303365992594e-01 -1.2581762333944985e-01
      9.7496451242997745e-02 1.9325918961981051e-02
      -3.7452057982129507e-02 2.6214296251896408e-02
      4.7307669173533032e-02 -1.3838199841807552e-01
      1.4074844121624053e-01 -6.9625116339754087e-02
      6.5637499195294657e-02 3.0368498780716586e-02
      4.9112688631167266e-02 -1.1699054198387075e-02
      2.3593220954007108e-02 1.7268827953760901e-02
      1.7627011153771556e-02 7.1263028033176343e-02
      -1.0724164758538880e-01 -4.0280650929663202e-02
      -2.4840790113195815e-02 -3.1912403072427908e-01
      5.2397353698772102e-03 -7.8672735732916554e-02
      -5.0275904420638354e-03 1.3314655375518281e-01
      -1.0367853537615866e-01 1.5719794905109050e-01
      -1.4329371437913983e-02 1.6837220054107575e-03
      -6.8639347981529920e-03 -4.0692237936817706e-02
      1.0791605050332266e-01 3.7755818483082335e-02
      2.1097058946330734e-02 2.0505913903304855e-02
      -1.4253414406010021e-02 -8.0161289498399430e-02
      -2.2356173259892231e-01 -6.9093069200849580e-02
      3.7425944127302555e-04 -8.6304821347490762e-02
      3.6697640860370458e-03 -2.6571200873524114e-02
      -1.1397903871379744e-01 -7.2943499127843675e-02
      1.7078026907675611e-02 -3.9243223262593614e-02
      1.9841213887871793e-02 1.4793646153498985e-02
      -1.7381661139317139e-01 6.1773614778872103e-02
      -5.2546487141900994e-02 -3.0436447134705495e-02
      3.3218461081899152e-02 -3.0962180400897440e-03
      -6.6744167758679723e-02 3.4871517460396656e-02
      -1.7990725932652347e-02 4.4411398273836201e-02
      2.6932859570637208e-02 5.5381656992807511e-02
      -1.9411617475438261e-02 9.9419192648903892e-02
      1.9603722963433720e-01 1.0986112080825268e-01
      -9.2860672486319421e-02 -1.3317779169362989e-01
      -8.8133270418681835e-03 -2.0465330079830474e-01
      3.1732163426164542e-02 -5.4937646292393012e-02
      -1.3721858999605482e-01 1.8665463163057033e-01
      8.8730300119920530e-02 1.2501233286609492e-01
      -1.8486082048112966e-02 1.8390433218996305e-02
      7.1788607532827592e-02 -2.3956995960922483e-03
      -6.9704902664111834e-02 3.8910326222134944e-02
      -6.5821072526710392e-02 7.4605366852501090e-02
      -8.5205349602300584e-02 1.1450021453532148e-01
      -4.3207042847287998e-02 -2.0769210488381991e-02
      1.0634498449658591e-01 1.3818955688574031e-01
      1.4682146088496076e-01 4.8441130246726256e-02
      3.4444123943340586e-02 -8.1243124753615378e-02
      -7.1006285133769179e-02 1.4398898546483632e-01
      -1.2462080774249748e-01 -8.7181053374454684e-02
      8.9813571229996697e-02 -2.0363974433049770e-01
      -7.5168729766070030e-02 -6.2054083069922718e-03
      2.6878315206170184e-01 2.4914248148146984e-02
      -7.3621779921246966e-02 1.0783147375007940e-01
      -6.5435670469354945e-02 -1.6973630945899912e-01
      8.0760155556239097e-02 8.9813130759553661e-02
      6.4749402520295332e-02 9.7035702976985078e-02
      8.1784099832513488e-02 -1.0844980895583162e-01
      -8.0637238533805361e-02 6.2753279600612277e-02
      1.3714701544027877e-01 -5.3562126175772252e-02
      3.7459184081988332e-02 -1.0391223221974839e-02
      9.6438628516864591e-02 2.1447509703860460e-02
      1.5373378220017536e-01 1.7768545133235822e-03
      -8.1628045982298073e-02 -1.3179457426938407e-01
      -6.5076061015846093e-02 -9.0789679284459135e-02
      3.5007255414450933e-02 -1.0627333724572562e-01
      -6.7499769056968639e-02 -6.7430967667159197e-02
      4.4429885382554837e-02 1.7386136326205160e-02
      4.6435211728350169e-02 1.7523371437546048e-01
      6.8859969560510423e-02 5.1534072448940774e-02
      1.1558887924103579e-01 -2.1152751476107370e-02
      -1.8143788657324585e-02 8.4287163281293043e-02
      -2.9061426673254873e-02 -1.9843102925088468e-01
      4.6428259881365182e-02 4.9698752141209088e-03
      2.7014819551461046e-02 6.6205879389822893e-03
      -1.8362905623823111e-01 -7.1765339181788512e-02
      -3.1284022129570273e-02 -4.5589122161220449e-02
      1.9187071643154203e-02 -1.4717160221018172e-01
      -1.1264072978598547e-01 3.4287598509723245e-02
      -8.8712513056135964e-02 1.1214149830349619e-01
      5.0350434222347522e-02 -6.1912860256243082e-02
      -4.1114477511817960e-02 1.7712077196901280e-01
      1.0125732343457716e-01 4.2101476470164136e-02
      5.3490052803389357e-03 -2.9774814747754025e-01
      -8.3436300954700060e-02 -1.6864255855648859e-03
      9.4152951559972081e-02 4.6760105854168725e-03
      7.5597885121682279e-02 1.8047086873196039e-01
      -1.1888607327906318e-01 1.3499107060484192e-01
      -2.2197329576562658e-01 1.4317342413962923e-02
      -1.8017052925723351e-02 -6.3018068431357280e-02
      1.5556958556848949e-01 5.8921800596551395e-02
      7.9469153019022312e-03 -1.5250102786107025e-01
      -8.8012637865333754e-02 -1.6874133583745349e-01
      1.7656121710375437e-03 9.4796028808893956e-02
      3.9880417361366924e-02 -1.6263695878380117e-02
      -1.1103859324130998e-01 -9.4333967341409392e-02
      9.3100212069403540e-02 -1.2104978841866990e-01
      4.8626541628593320e-03 8.2531138104991894e-02
      -2.4260043916681465e-02 8.9038675134494233e-02
      -1.4080398281937734e-02 5.5774226415502316e-02
      -1.9798661387856898e-03 4.9391304683705790e-02
      1.8778292459217430e-01 7.7837412239473255e-02
      -6.1271606300783203e-02 1.0883527412680453e-02
      2.0025797405558624e-01 2.3520400649605949e-01
      1.5348636299696064e-01 -1.0603010822700223e-01
      -2.5443651529153444e-02 1.2609304539778304e-01
      -2.9096873718485908e-02 9.4047993496733331e-02
      -5.2183472051080662e-02 -4.7419617533877620e-02
      4.5752749281227176e-02 -6.3327055418208336e-02
      -1.0033740943365201e-01 1.0812231591137425e-01
      3.5455951522622479e-02 9.8146439481675313e-02
      4.4448926324179737e-03 -6.7288889896279383e-03
      1.2854716880574666e-02 9.8444385839717170e-03
      6.4438079461515224e-02 5.1836648540111632e-03
      5.4607234466308455e-02 6.3514089739654195e-02
      -5.4458499189475498e-02 -1.4955165798639819e-01
      -7.5319520171811434e-03 1.1732863055435455e-01
      -1.2387815478631907e-01 -1.4859599810250817e-02
      1.8216878685790408e-01 -5.9478944123910700e-02
      6.2687936132927403e-03 -8.2322746114737638e-02
      3.0051222854821761e-02 6.4696677561821681e-02
      5.7670159752322314e-02 1.3509946518767149e-01
      -3.3386382712819761e-02 -1.3050426399095363e-01
      -9.4469721430842108e-03 1.2110388014275187e-02
      3.9538315749886574e-02 1.4598455449242281e-01
      -1.9607238939061498e-02 -3.0501364332399326e-02
      1.5338778041923590e-02 5.3707436896429255e-02
      2.0977856509557605e-01 -1.9506591031524714e-03
      -9.9900928857211316e-02 -7.4394608292828721e-02
      1.0180033024147961e-01 -5.7115219888984138e-02
      7.9822146546679212e-02 -1.6096098584652158e-01
      -5.3096352306902614e-02 -4.7975339793343889e-02
      1.7894375578602512e-01 -3.5237755341545857e-02
      -3.7068297888647517e-02 -8.8729291923093520e-02
      -1.0535570013489695e-01 9.9504750880891599e-02
      3.5563064371061985e-02 -9.1541865733079070e-02
      1.1728175732392980e-02 1.1226367935984523e-01
      9.4350387454444004e-02 -1.1789855830202257e-01
      1.5462480905709522e-01 -2.9767489277171096e-02
      -7.9881714683646160e-02 4.1532784322230502e-02
      -3.4031445613437586e-02 -3.1432080734463963e-01
      1.5236686482641693e-01 -8.5906098454956489e-02
      2.0243081807341279e-01 8.4740417588960601e-02
      -1.1360669903579657e-01 5.3050205736418776e-02
      -4.1457842074026974e-02 -5.9719654753383734e-02
      1.0391086211273187e-01 -7.0731957801021157e-03
      -1.0656321759009052e-01 6.6661945155339769e-02
      -1.1676392391760294e-01 -2.3188528697250863e-01
      -7.2346225212349046e-03 -3.7812448628961305e-02
      1.1185818070160403e-01 2.9783329248500029e-01
      -5.7955461107734030e-02 1.8545097992112614e-01
      6.0502273316902257e-03 -1.2887688757862886e-01
      -2.7873442157651473e-03 -3.0002029386883341e-02
      4.8810196371485516e-02 1.0206948600156106e-01
      3.2337394850605043e-02 1.2026153727627255e-01
      -1.1536069336247638e-01 -1.0999841908298322e-02
      -3.1335929711763316e-01 -8.7313637250682211e-02
      1.6019213551454245e-01 -3.6525936345003777e-02
      1.5799122020115783e-01 -3.0909614161302355e-02
      -2.1460109908084609e-02 -2.1086573323558511e-01
      -6.5461722738032427e-02 -1.4371728336422451e-01
      3.0711646791412844e-02 -6.6239519955410119e-04
      -1.3257121557845895e-02 -2.9161980932327605e-03
      5.3126123151559256e-02 -7.5182114068964939e-02
      1.2073924011563150e-01 -5.6597679516212619e-02
      -7.2092517908284151e-02 7.8291446830702660e-02
      4.0288856697787194e-02 1.3103482675778996e-01
      1.1939809262423356e-02 7.5811303562938331e-02
      -7.4844969651588975e-02 1.0608320554529675e-01
      2.6566511136089815e-01 1.3599721915950083e-01
      3.6259893854039848e-03 -5.5183159013688476e-02
      9.1851613934130619e-02 -3.4831986872690519e-02
      4.4356527200094656e-02 -4.4576221023761027e-02
      -9.8201208697752382e-02 1.3363482751017164e-01
      6.0016946859420689e-02 1.4096418874010597e-01
      -3.9765624539006526e-02 1.8175362461361828e-02
      7.9703360979054602e-02 1.7826616144057870e-02
      -1.5112134529462731e-01 7.4099882176155374e-02
      -8.8706088723917789e-02 1.2459243457453377e-01
      -4.8222023449195961e-02 1.4202751091785476e-01
      -3.4377566608386562e-02 1.2245861954847288e-03
      8.1792317379292295e-02 7.0038081467982030e-02
      1.8709646088064982e-01 5.7150915903352750e-02
      -2.8995372693252520e-03 -1.2023092022503745e-02
      -7.0794067088775919e-02 1.4844994294601749e-01
      -1.0829375916341981e-01 -9.2322193828957275e-02
      1.8180474720497439e-01 -1.8590510808258512e-01
      -8.7756311628256534e-02 -1.3674106647387772e-02
      1.5571752078731368e-01 7.2297783895964420e-03
      -6.1337021211363861e-03 5.8127278362766960e-02
      5.5954195098647214e-02 -2.0130504014115908e-01
      8.6296594878977465e-02 1.0187334099066025e-01
      3.8729128410411244e-03 6.1854800100364468e-02
      -5.9304725366697555e-03 -6.3495671730007752e-02
      -3.7357944897080830e-02 -1.9131830844881310e-02
      1.7500546585122548e-01 -4.2036545071899620e-02
      2.2136846868170180e-02 -2.0408189685697659e-02
      8.6291300666312992e-02 -5.0344153882783085e-02
      1.6960565307937128e-01 -5.1470989006704368e-02
      -1.2320523738132556e-01 -1.2349764789170196e-01
      -2.3291607068969673e-02 -7.3563221494662837e-02
      -1.0045805615017452e-02 -1.1010044434606844e-01
      -5.1487372005098890e-02 -5.1975206370594239e-02
      -6.6206219134093223e-03 -6.0005355371908681e-02
      6.6814615884630696e-02 2.2012221169078883e-01
      1.7958281826398869e-02 6.9299633653684869e-02
      6.9038927145465390e-02 -6.3665326604445377e-02
      -8.7576112331923639e-02 6.5998032648672628e-02
      3.4919815411262746e-02 -2.6303203158307598e-01
      1.0834605606873306e-01 3.7775105381442034e-02
      1.0488777569345818e-02 6.4507822693441385e-03
      -9.7010719462710920e-02 -4.1985773409249909e-02
      6.5102567805919706e-02 -1.0338403490985720e-02
      1.0862159010575955e-03 -1.5714936857841783e-01
      -8.7867803773505615e-02 -2.9675277853807333e-03
      -7.2264527158915418e-02 -2.4941788185283372e-03
      7.6223481349516981e-02 -4.4052340095570332e-02
      -5.0888717117415862e-02 2.3901607812385331e-01
      1.1004535713010009e-01 1.0390139702875728e-01
      7.0460687457294974e-02 -2.1823647619829992e-01
      -7.5828592642910881e-03 1.7197918182846612e-02
      5.5518252210170330e-02 7.9239501509460852e-02
      1.3583513180885787e-01 1.6213806901185093e-01
      -1.1404026231595782e-01 1.2785851543486196e-01
      -1.9953896485584569e-01 4.7034200991145757e-03
      -3.7469120624707537e-02 -6.2540379246824457e-02
      1.8210418038491649e-01 8.8379373510019260e-02
      -2.2466152110203672e-02 -1.6872512360510486e-01
      -1.4337028393825058e-01 -1.7095605404102432e-01
      -5.8745982847607237e-02 5.0361407628117548e-02
      6.7766145867207653e-02 -7.2527032013610354e-02
      -5.4707790098402834e-03 -7.6893079153779326e-02
      1.0612273007298012e-01 -1.4398791919648737e-01
      -1.0662030673402381e-01 8.6340186224425658e-02
      -7.8678527676576515e-02 1.1816210237233712e-01
      4.9931298822095724e-02 1.8695810190104981e-02
      -1.9818677441773076e-02 -1.2859289493771919e-02
      2.2970634695841707e-01 1.4555955364932485e-01
      -6.4130455640229025e-02 -9.9260731788940210e-02
      1.2316649174137582e-01 1.4799321039258032e-01
      1.2684057162601955e-01 -5.2686437072951439e-02
      -6.2534390240516588e-02 1.3106753025154166e-01
      -4.8538765248265841e-03 1.5119965346846198e-01
      -3.5315597627958830e-03 -2.1277168380542524e-01
      1.2314162948072473e-01 -1.0715469835151921e-01
      -1.5577478927492795e-02 1.0122320961013802e-01
      1.2718977776326001e-01 1.8227623888089750e-01
      -2.6341693989305356e-02 -1.0853405274093296e-01
      8.7147547050874047e-02 -1.7022683706954870e-02
      9.2566600310596006e-02 -7.8090848333456669e-02
      9.9738192770647549e-02 2.0585632075029248e-01
      -2.2394687287992307e-02 -9.2132309960394135e-02
      1.9696382967943435e-01 -1.0724745773749746e-01
      -1.0958647891124179e-01 4.5474230647528840e-02
      1.5924807426893089e-01 4.7841739095447214e-02
      2.5727125214842748e-02 -1.0192797289129214e-01
      1.2938122616043152e-02 6.4700301627246215e-02
      7.4337891825973210e-02 2.0019385485515867e-01
      -7.4327687146159394e-02 4.3458497109881311e-02
      -6.6938185248429677e-02 4.3512544412140440e-02
      -1.4370483916138146e-02 1.2625815608802915e-01
      1.6784621751178733e-02 -6.3497448570216993e-03
      8.6057755250955589e-02 -2.7222592373404145e-02
      8.9281386112586417e-02 3.6111123719074836e-02
      -9.8513406307973256e-02 -8.6753643691964852e-02
      2.8621955443575868e-02 -7.3069998379198794e-02
      9.3666789337947427e-03 -1.2679489613034511e-01
      2.3309353479385314e-03 -6.4430391543752775e-03
      1.1563089522247130e-01 -7.9519514612315198e-02
      -2.4999747146696338e-02 3.7889446835574853e-02
      -1.2271023076572012e-01 3.7420462072718999e-02
      1.7810019146753935e-02 -1.1139620885787928e-01
      -2.7666407387740136e-02 -1.0624886663334704e-01
      3.0445325619874754e-02 -1.2485648534721358e-01
      1.0417061689537320e-01 -4.2372678218684776e-02
      -1.0345117383801913e-01 7.1823711568083023e-02
      -8.1016386433074419e-02 -4.6226323748140091e-01
      6.5462002200326703e-03 -1.0733771127548683e-01
      9.4762148166667975e-02 9.7675962641179698e-02
      -8.6766013908965892e-02 1.1110584112871361e-01
      1.9461273161676981e-01 -5.2792076990295797e-02
      9.6132995812103217e-02 8.5784865986677644e-02
      -5.0033267259242141e-02 1.2245457375169266e-01
      1.0928926347836805e-02 -4.5130503639218539e-01
      -3.7424884194695071e-02 -4.4996336083414018e-03
      1.5891048387509191e-01 2.5865678067869829e-01
      -1.3317574477363919e-01 9.8678589655504786e-02
      -2.9951325624537166e-02 -1.5817488688086992e-01
      5.2371694104066634e-02 -3.7208708846759517e-02
      -4.8511498144395676e-02 1.8119203814207324e-01
      2.3219973608799138e-01 -5.4122748345324906e-02
      -2.0357744954363276e-02 -1.3078269018050839e-01
      -2.8125084338833212e-01 -1.3727257257280631e-01
      2.0908952259830663e-01 -1.9371995735577199e-02
      1.7496864064120210e-01 -9.4382049177626048e-02
      5.2166537388285361e-02 -1.3627331750107474e-01
      -1.9906440920669775e-03 -2.9751164350269726e-02
      5.0443675966230742e-02 -3.0769498071742236e-02
      6.0439632930520279e-02 -1.4978542464962486e-03
      3.0696320668571253e-02 3.5438424009877283e-02
      4.7869036243822188e-02 9.4451811027972427e-02
      -5.7035941468384907e-02 1.1437225989124366e-02
      7.9632287635872170e-02 1.6927552471550750e-01
      6.6963359548473725e-02 9.9991980194386654e-02
      -1.1392795566049851e-01 1.0357933654199226e-01
      3.3393532974929446e-01 1.7962784517331878e-01
      2.9405497023436207e-02 -7.3316115813783653e-02
      3.4366710266868106e-02 -1.9363119112674876e-01
      7.1020527749505485e-02 -1.4311450807212878e-02
      -1.2340747493955247e-02 6.2687456991263935e-02
      -6.4031701746034902e-03 1.6960324188346629e-01
      1.7718035871376218e-02 -1.5517487351356227e-02
      1.0652590363198182e-01 5.6036192250478706e-02
      -1.6558601368970385e-01 1.2411564053649403e-01
      -7.2304646806519837e-02 1.8141358595971938e-01
      1.2263949325069646e-04 7.9237691653108469e-02
      -2.6178684877350093e-02 3.9164926061115254e-02
      4.3840122352542546e-02 -4.4394356868064651e-02
      1.9807873831162326e-01 1.2026385881931119e-01
      -5.3212341707354983e-02 8.6443017121209213e-03
      1.3901970528842195e-02 8.4819414488660053e-02
      -1.1316568981402804e-01 -5.5288633649066610e-02
      2.0449342964175091e-01 -1.2252015579555051e-01
      -6.1589817240930211e-02 3.2100731794028600e-02
      3.1547070893624039e-02 -7.0279807705658420e-02
      -4.2408482916091672e-02 -3.0990053312019743e-02
      7.6548042427598745e-02 -1.7354597949883369e-01
      8.8983966735922404e-02 1.0664353720451270e-01
      -5.7838305181363944e-02 -5.4268561286347590e-03
      -3.8414682739440854e-02 -2.1090715439688098e-02
      2.7528802985616198e-02 -8.1646267892098667e-02
      1.7602618674480341e-01 4.9246227691629188e-02
      -8.0676676545064739e-03 -9.4907338891510609e-02
      1.0004065090157720e-01 -9.8954903402398778e-02
      1.1872475506560388e-01 -1.7653908827640549e-01
      -1.4812614913875621e-01 -8.3720735917625605e-02
      7.3277476575302290e-03 -1.1584143686842964e-01
      -3.4956717812225889e-02 -6.9177941101185622e-02
      3.1917710764469364e-03 -1.0857184736641717e-01
      -7.9318453096664590e-02 -1.0444704360880781e-01
      9.0079878258558468e-02 1.9127989924702152e-01
      -3.9737885957018812e-02 4.2541566308246688e-02
      -2.6622471627615711e-04 -8.5187650784107977e-02
      -1.1777266065193628e-01 3.8582477269052131e-03
      2.1573351033166957e-03 -3.1942753108905936e-01
      1.0634165404255394e-01 1.4178558099141309e-02
      7.0474091186216378e-02 -2.3694944380402184e-02
      2.2978506602768865e-02 -3.7966516753654166e-02
      1.2372327235357304e-01 -1.7299440982327448e-02
      4.5085087254125342e-02 -1.2082588585507772e-01
      -8.6803444351663006e-04 1.5470242246476832e-02
      2.7466681678334659e-02 -8.9286434437925666e-02
      4.7066471212438961e-02 -7.3721973666747058e-03
      -2.7814269082354320e-02 2.6247129923323798e-01
      6.6341513409410371e-02 1.1651659715603138e-01
      7.5974698411098052e-02 -7.5825293455741710e-02
      6.2038006570162917e-02 3.5717716044328315e-02
      -1.0046547047775205e-02 1.6458993500520369e-01
      1.8600466248959346e-01 9.8037741539191786e-02
      -7.2326284093357424e-02 6.7459609160055833e-02
      -1.4351570444306344e-01 8.3580968621756145e-03
      -1.0571998982595452e-02 -3.6857134383962355e-02
      1.9681724476820175e-01 2.3286824103721036e-02
      -1.4208455051541042e-02 -1.6454038195373941e-01
      -1.5178616075445767e-01 -1.8118764144495542e-01
      -3.5072676601224255e-02 -1.3716926397253025e-02
      9.4464184384813576e-02 -1.3482336251263038e-01
      5.1587637861275459e-02 -1.5885791819561030e-02
      7.0490579864980737e-02 -6.7563816184981945e-02
      -1.3473921338625436e-01 7.5553186231039779e-02
      -3.5393239693691340e-02 1.5106957156200460e-01
      1.3427826266382648e-01 -4.0310148402803746e-02
      -6.3360003552754007e-02 -1.1415545303438188e-01
      2.6731105555175344e-01 1.9628438596971540e-01
      -4.4685782139588272e-02 -1.2323239810004301e-01
      3.3243571209103213e-02 1.3380007505248974e-02
      8.4701251649188930e-02 -1.0288686265119673e-01
      -8.2650569563461493e-02 1.2320906226279198e-01
      1.4320057087121408e-02 7.0480991260218284e-02
      2.2069989369727078e-01 -1.9826609465144049e-01
      8.6381903582954500e-02 -1.3622152124697356e-01
      -3.6710987970806699e-02 3.0747200252402466e-02
      1.4791281686287128e-01 1.3677855422198437e-01
      -7.3456141865910568e-02 -1.2998146695242760e-01
      1.5197941197082054e-01 -1.0274858253564918e-01
      2.7600608225927392e-01 3.7893884033074324e-02
      -5.5518764937870562e-03 1.0496700171016028e-01
      8.6112648881382592e-02 -4.2588912493735399e-02
      1.7777977547096582e-01 -1.1966182020058357e-02
      -8.0460739038973508e-02 3.0566805178704057e-02
      2.0122379590970962e-01 7.4667124299542843e-03
      3.6864247790748060e-02 -1.2207306968231135e-01
      1.7530431807510097e-01 -1.2384420637873861e-01
      -2.8984989983586350e-02 -2.0701170372290040e-03
      -1.9061227021984226e-01 6.1224285607466532e-02
      -1.0459124025582885e-01 -1.3238531802614565e-02
      -1.6624517380130102e-01 -1.0655719620851084e-01
      1.0040027112780371e-01 -5.6135951537478523e-02
      1.4691677452307758e-01 7.7045759629311289e-02
      -1.0652097138086777e-03 -3.9251625205854214e-02
      -1.0695668912038914e-01 -1.0490349871543862e-01
      -9.3175770862073074e-03 -2.8247736890429708e-02
      -1.0036638116607398e-02 -5.1965169242787441e-02
      6.9445059507457621e-02 5.7406517224517228e-03
      7.8167914049432317e-03 -1.9553008195724250e-01
      -1.1329281953190258e-01 7.0760669617505642e-02
      -1.6471131871578662e-03 3.0922951553602328e-02
      -1.0894351117569581e-01 2.7375842513511758e-02
      -6.6832667764130355e-02 -1.5864280801982930e-01
      -4.8285668887004779e-02 -1.6664831116992890e-01
      -1.2656619177921885e-01 1.0929486007474877e-02
      -7.9491672707852845e-02 -1.3365793377650687e-01
      -2.9587686311596251e-02 -4.1786236782430275e-01
      2.9831899155671492e-02 -2.0171918161731897e-01
      1.0680919750669383e-01 1.5529385198606027e-01
      -1.7717616656355431e-01 1.7024103035764604e-01
      1.0711401565310848e-01 -7.8241406712205128e-02
      1.2392436141739685e-01 6.7760557077093150e-02
      5.0834427802866960e-03 1.3778097820800009e-01
      6.0865840443854111e-03 -2.7359087218172590e-01
      -2.7776204935905702e-02 3.2437966200008640e-02
      1.9869654250279351e-01 2.5326325402030148e-01
      -9.2340961623450790e-02 -5.5985077433159121e-02
      -1.1129519783915730e-01 -2.8004157901543325e-01
      1.8191018589415622e-01 -1.3003408280393333e-01
      1.0135365941752457e-01 1.1499743694900215e-01
      1.6340375402964488e-01 -4.0108677880120337e-03
      3.7646231740350936e-02 -1.0266360063391075e-01
      -3.3093267773111262e-01 -2.2650525726451995e-01
      2.4414998072544816e-01 5.5775661960959289e-02
      1.2732457274542475e-01 -5.6503525368174601e-02
      -6.8520968682141284e-03 -1.4033792096483202e-01
      6.0605942819890776e-02 2.6923731145281873e-02
      1.2214611833509208e-01 5.2305926657108863e-02
      1.3719475747225821e-01 3.1724553791544215e-02
      -9.6069817417939199e-02 7.1121023972639613e-02
      -8.9824203528221902e-02 9.7042506606860521e-02
      -5.1233396225880294e-02 -3.7684772291764604e-02
      7.1527785034398897e-02 1.3388831175482840e-01
      -1.4825531512805579e-02 -1.9875898192093119e-02
      7.4456773454918468e-02 1.2274403942972874e-01
      3.8419954414520574e-01 8.3229292253936271e-02
      1.0817615279404778e-01 -3.2419831439155833e-02
      1.4802493208052292e-01 8.4489738615929032e-03
      2.9882910543849901e-02 -8.7213148658976766e-02
      2.1963706821504389e-01 -1.5317054256315450e-02
      -7.8024294639658584e-02 2.1047306050236017e-01
      -2.1887871248868814e-03 -7.9252080231821412e-02
      1.4343485065149200e-01 1.0534364916582625e-01
      -1.2083832784590615e-01 1.6865373032144704e-01
      -7.3929682726047941e-02 2.1889911428076678e-01
      7.7510430440951822e-02 8.3910928391534981e-02
      -5.4321205059681800e-03 9.7202041279210852e-02
      -3.1233444552905888e-03 -9.7083140917138655e-02
      2.2568620981814050e-01 1.5674187634024633e-01
      -1.0967743896443537e-01 1.1278804694559319e-01
      6.5647329993515538e-02 1.6007351653560497e-02
      -9.1341322603893618e-02 -1.7192833276558829e-02
      1.7597491275811797e-01 -5.7458310321650295e-02
      -6.1381349895721103e-02 1.9599904476680047e-02
      -7.7800608695894155e-02 -1.0268611496421332e-01
      -1.2602278133888575e-02 -5.2452176259518243e-02
      9.8692828075755940e-02 -1.1824517352036673e-01
      1.0386610077798047e-01 6.2997416417341079e-02
      -1.2965760279940197e-01 -6.2822395144032053e-02
      -1.5572805941108972e-01 7.4435597252205304e-02
      9.4354250023842207e-02 -1.1954827151231379e-01
      1.9562963133365155e-01 8.4834521719913764e-02
      -3.5401473283527968e-02 -1.4529288021556838e-01
      9.1679172973154741e-02 -1.5891425006543428e-01
      8.6364458023942423e-02 -1.8280651436103568e-01
      -1.2990402700479253e-01 -1.9162645817328332e-02
      3.0170714773377478e-02 -1.5981852834001228e-01
      -1.3129981753403979e-02 -3.8816689624907419e-02
      8.7686592532440447e-02 -1.7477890709677063e-01
      -1.1813778817774891e-01 -1.5786076313750436e-01
      9.8191913883767759e-02 1.1682631245081261e-01
      -8.3316498081150228e-02 4.1413951928372487e-02
      -4.3720776454600110e-02 -1.6741938943537851e-01
      -1.9008325702671544e-01 -7.6884474255969754e-02
      -1.8160348041059607e-02 -3.4747448185196883e-01
      1.0985653331370072e-01 8.4866096498031313e-02
      4.4094608451991764e-02 -8.2335066754165173e-02
      1.0072911400040734e-01 -9.9271691656322714e-03
      1.7726537712443480e-01 4.6409868612547589e-02
      1.7615725836594303e-02 -8.3920899392038423e-02
      7.7568712597380934e-02 4.5253306846481114e-02
      5.9024628561206327e-02 -1.8655478774288120e-01
      5.0602624163110822e-02 5.3778460099812436e-02
      -3.5597773728488786e-03 2.6989788294944239e-01
      5.4784174583143844e-02 1.4096155552444839e-01
      1.1095605737011613e-01 6.9054951438274781e-02
      1.4842554533232485e-01 1.2209901153748792e-01
      -1.7083255831821828e-01 2.2461256355797549e-01
      2.6677253730323092e-01 6.7982350141766873e-02
      -5.3053145372687328e-02 -8.5624053448731582e-03
      -3.0686789754203289e-02 7.4869353837300492e-02
      1.2164675454849470e-02 -1.2820741236451227e-02
      2.0218300366470210e-01 -2.1429862719800800e-02
      3.9089925642236199e-02 -1.6728067326312998e-01
      -1.9384084563778031e-01 -1.6381848879236471e-01
      -1.1988287894181635e-01 -8.7617677898393476e-02
      1.3599704625403922e-01 -1.5141761147267330e-01
      2.0136350461574956e-01 -1.0710686458555127e-02
      7.8359452879854741e-02 -4.7195366988577389e-02
      -1.2393975846101991e-01 7.5250053258519661e-02
      -2.1112503585861288e-02 1.9453897960432329e-01
      2.0903538234915320e-01 -1.2252088735438650e-01
      -1.4937082745240132e-01 -1.3243904609318324e-01
      2.6592959571997055e-01 2.1965803319676960e-01
      -3.7927160755869528e-02 -1.8834886991874444e-01
      -7.2561910648326469e-02 -1.1122411204445230e-01
      5.6501015384523533e-02 -1.0041235460327959e-01
      -1.4174376515573650e-01 4.8971921554473725e-02
      6.8176290670371592e-02 -2.4089383163176874e-02
      2.1425426471527415e-01 -1.7879512097321459e-01
      -6.8464156816049841e-03 -3.4619916449535847e-02
      4.4459273327926097e-02 -9.8787860891162829e-02
      1.4274373252932421e-01 -1.6858149256245311e-01
      -3.0249305518237665e-02 -9.9987915888406914e-02
      1.3364587250538989e-03 1.6381216323850444e-02
      1.7769490011587183e-01 1.7948633776999079e-01
      -1.0012737330066106e-01 -4.8475751808890383e-02
      1.1075893946049077e-01 8.5404752707817444e-02
      1.2864377585327588e-01 -2.5637708439059288e-02
      -5.0783720193604102e-02 -1.1569742350017119e-02
      -1.3303799252084839e-01 9.5569624470683581e-02
      9.9480934707095858e-03 2.3086642627342554e-02
      2.4724452867059657e-01 -9.9603454007639439e-02
      -4.9280323737807490e-02 -5.9156833606207590e-02
      -1.6775406158237161e-01 1.0874380105193264e-01
      -1.9584128144945350e-02 -1.4801325112943942e-01
      -1.5397747583594418e-01 -1.1705390243477228e-01
      -8.1316595662623739e-02 -1.3686320050888431e-01
      1.6870273348676651e-03 1.4105893360275346e-01
      -9.1630686352693322e-02 -7.2400005014024202e-02
      9.4227263585827239e-02 9.6196824886026058e-02
      -3.7483993767666965e-02 8.8812836285988267e-02
      -4.9279261534316908e-02 2.4075036559616875e-01
      2.2437351126445210e-01 -4.9833070457205126e-03
      -1.7898877596023216e-01 1.1452284554258656e-01
      -1.2800521887083255e-01 1.0025429822002586e-01
      6.9707884969843675e-02 1.9524129737510437e-01
      -8.2869347376965510e-02 1.5900096912679956e-01
      -4.7885586146159891e-02 -1.7170881233059898e-01
      7.9849767000768804e-02 -6.5396133691708422e-02
      -1.6602650651789347e-01 -1.6597494557678477e-01
      1.9277822684420298e-02 -1.4994924483120750e-01
      6.3141220016148011e-02 -2.6468800059342247e-02
      2.6800586827699330e-02 -7.8527376676189142e-02
      -1.7449066799306481e-01 -3.1587633789598842e-02
      -8.9242613539679633e-02 -6.8514230458478946e-03
      -1.3944188787460696e-01 1.6534911209816419e-01
      -9.1619680897157510e-02 2.2999225413033387e-02
      2.4090418862686085e-02 -8.6852276164378905e-02
      3.0323109455106217e-02 3.6366803190941148e-02
      3.1760678990997847e-02 7.9841444064354238e-03
      -2.6999202159299331e-02 -2.2803775664188841e-02
      -5.0639312079952259e-02 -1.6810660065903310e-01
      -1.0420941640425521e-01 -1.5513227093332729e-01
      8.9732832897700815e-02 2.9578707519176108e-02
      2.0951945987739209e-01 -1.7554595349041732e-01
      -1.6338405882090710e-02 -2.4545692920052539e-02
      9.9212651406338587e-02 -9.2748729427446580e-02
      -2.0877715799339849e-01 -1.0017633677993802e-01
      -5.7530703816874237e-02 4.1042583465493554e-02
      -7.6780479875369779e-03 -6.8837666724302873e-02
      -1.5467921429389542e-01 7.5463210860553264e-04
      7.6138713455274218e-02 9.1441344831972665e-02
      -9.5271438548229850e-02 1.1384459660136440e-01
      -1.2961711548992366e-01 2.4498017731680521e-01
      1.2447272850887878e-02 7.0837644767241775e-02
      -9.8095451765815841e-02 2.0566289591253922e-02
      -5.3400557932658507e-02 -1.6584977447206724e-02
      -9.7445830073266307e-02 -1.6658716266319630e-02
      -1.8674766239734789e-01 -6.2681181223382829e-02
      -2.0811093950291855e-02 2.5113310714495163e-01
      8.2226667628968131e-02 -1.4252415750318237e-01
      1.5904439537836820e-01 1.6503699751421544e-01
      2.0603884004077672e-01 1.5500870620006227e-01
      -4.1769021815095376e-04 -6.3092121641963081e-02
      1.5360033646637331e-01 -7.6512937902325717e-02
      -1.2870360050240953e-01 2.1936293452825728e-01
      1.9277771363840932e-02 -1.4400511751992157e-01
      2.2212691750503744e-01 1.1971342581795484e-01
      -9.1112178147873896e-02 1.9378203700484251e-01
      -1.7147986486926892e-02 3.0455283705349034e-01
      1.3029603634383430e-01 -3.1689105623670336e-03
      -1.0314639363722638e-02 1.4566308210484646e-01
      -6.3205601471153450e-02 -2.3425936861785618e-01
      2.5475617055957628e-01 2.4760053742129368e-01
      -1.4837210341755064e-01 1.5418452842863492e-01
      1.9731962463995037e-01 -1.0463071150934813e-01
      -7.9017934954661612e-02 3.1710076385857003e-02
      1.8783829467099572e-01 2.1271204142912968e-02
      -5.6187109112270088e-02 4.0874778007363020e-02
      -2.0939974668746267e-01 -1.6350784034528071e-01
      -2.9596946357978150e-02 -9.5507392037602903e-02
      1.4628865062441967e-01 -2.7079916864152037e-02
      1.0614555039740348e-01 1.0152908164010385e-01
      -1.8211099038478412e-01 -1.0717147726820284e-01
      -1.9964911529460735e-01 1.4880163617924247e-01
      1.2291955681187537e-01 -2.3485847544226418e-01
      1.8355163081599571e-01 1.8822545094604773e-01
      -8.5372716666878054e-02 -1.8985169598813276e-01
      4.8417918680356740e-02 -2.1449712294104251e-01
      1.3387407528980915e-02 -2.0286958955885692e-01
      -1.2296907317019790e-01 -4.7084994918765227e-03
      6.4900328845825056e-02 -1.8736955829315266e-01
      -1.8176316490187583e-03 2.1560015570253138e-02
      1.0727001577771092e-01 -2.2797698835926625e-01
      -1.5009647152663280e-01 -1.7470912337140646e-01
      9.6583584090159727e-02 3.6613083544104426e-02
      -1.0131109936938131e-01 3.5927591831243805e-02
      -7.2434181336000977e-02 -1.6976020516922125e-01
      -2.3697247046417544e-01 -1.1949199683868587e-01
      -5.7648269773586315e-02 -3.8401690667545069e-01
      4.5835776993774904e-02 1.0031241884107558e-01
      1.1694752123306033e-02 -1.4305921411515696e-01
      2.4419183532085917e-01 -6.7013208062226739e-03
      3.3711581836059268e-01 7.4038607588444660e-02
      -9.0809419411453183e-03 -1.6499429984419126e-02
      1.3573844676119440e-01 6.2030522113281042e-02
      2.1351398716506803e-01 -3.2809802176766306e-01
      1.4615751752029379e-02 6.6034448699018894e-02
      -3.1861389476963049e-02 2.4576583477276187e-01
      -3.2419241634077396e-02 1.3910939691773219e-01
      1.2278495222529860e-01 1.3827491227375172e-01
      1.7475345881346271e-01 1.5981223686066823e-01
      -2.0097435203414263e-01 3.3411381630846582e-01
      3.7907621372851719e-01 -5.8988946388760857e-02
      4.2299183939127433e-02 -1.2789543939875458e-01
      6.2768641401842809e-03 6.3801720033093270e-02
      -6.4532920219523135e-03 1.7322127321394536e-02
      1.9021788928579725e-01 -6.9541071307668095e-02
      4.9577226622006476e-02 -1.2732845188128930e-01
      -1.7407165785019971e-01 -1.2617300234967219e-01
      -1.5024583668341979e-01 -1.3338493862188311e-01
      1.6098660784873259e-01 -1.5454818170044082e-01
      2.2571685571652775e-01 7.6865053323524293e-02
      4.3649339973099846e-02 6.3077436545930746e-02
      -1.0856989977553960e-01 7.8122483064742745e-02
      8.7511681419794561e-03 2.1382525959097409e-01
      3.0577971151096567e-01 -1.5371221460732973e-01
      -1.7783121105047778e-01 -1.9879118158882161e-01
      2.4761681738513938e-01 2.4820695706815041e-01
      -6.4944268765365881e-02 -2.2576898956232933e-01
      -1.9253457949358160e-01 -2.8297533335441527e-01
      1.9779473530058631e-02 -1.3053992523868815e-01
      -1.5193752320826484e-01 4.5796654667103739e-02
      6.7136345013067131e-02 -4.7629913675679210e-02
      1.0743290217355232e-01 -1.9672540310008452e-01
      -5.2710158956562697e-02 -6.9412038566327803e-03
      2.6972692155054000e-02 -1.0027873247897463e-01
      1.4729727737338072e-01 -5.9022807026829500e-02
      -4.3290437813109608e-02 -1.6651463373775466e-01
      3.6565941950170003e-02 1.8281769441033019e-02
      5.3492611890884452e-02 -7.2121982426125502e-03
      -1.4110247576700458e-01 -9.4743256899808559e-02
      1.5573186987297291e-01 2.1314074853946766e-01
      1.4704326178204111e-01 -3.4343551521624632e-02
      8.5176703254846789e-03 5.6419645542021203e-02
      -9.0399986186767506e-02 1.7225800273562533e-01
      9.0838203441531470e-02 -2.1075892334420171e-02
      -4.5038386371255325e-02 -1.5707380674737020e-01
      4.9624897680951560e-02 -2.4425547491856697e-01
      6.8244172363650726e-02 1.5225479731731731e-01
      -5.9888872141410726e-02 -7.2146278335783839e-02
      -2.3489326591874596e-01 -1.6572704950967351e-01
      -1.0200927240173888e-01 -6.8537279522616748e-02
      1.2644026999236938e-01 7.7731051901555317e-03
      -5.9791130440379578e-02 -6.3317842142906061e-02
      2.2076252846360958e-02 -3.0947845307955774e-02
      -1.3656581943378371e-01 5.7476548931720196e-02
      -1.1710971057611115e-01 1.7569933376901078e-01
      1.8296204062762561e-01 1.0203940423235922e-01
      -9.8934894968177145e-02 4.9572207768126972e-02
      -1.1491102341245783e-01 1.9594058527143363e-01
      1.5118947936143237e-01 8.3115617880154147e-02
      -1.1281654892565889e-01 4.5050314187087076e-02
      -9.4928649684026548e-02 -2.0910878518267909e-01
      -4.1532350254079455e-02 -1.2051301866758449e-01
      -1.8826669736352591e-01 -2.1756102619821657e-01
      -1.6799201084600604e-02 -2.2413349607378266e-01
      2.5609568393509245e-02 -4.0977264947189160e-02
      6.3918501456360730e-02 -9.5539788307700532e-02
      -1.4446211039955728e-01 -6.1075945446202755e-02
      1.8087738407435650e-01 2.2136417958515210e-02
      -6.7388339811394415e-02 1.3421280252934051e-01
      -1.9594713743181620e-02 3.9111223532398404e-02
      1.6628629353710206e-01 -5.6224073560439583e-02
      1.9860167554570812e-01 -8.3743955615335861e-02
      -9.5193951202473370e-02 8.9010268454154426e-02
      -2.8698654797048171e-02 -8.9397337507399324e-02
      -6.3592194533214685e-02 -1.0180119650455102e-01
      -1.1472505186192598e-01 2.4066061190994198e-01
      1.3424359004159211e-01 4.6798554292033820e-02
      7.7336825682165350e-02 -1.1089851697075765e-02
      5.3898797862109410e-02 -1.4662074500383354e-01
      1.6337015429710847e-01 -2.0094720829050991e-01
      -1.4717183527725438e-02 -1.3203675340302493e-01
      -4.2504714555530079e-02 1.4824067587553350e-01
      -5.4964766818533219e-02 -1.1894850450202150e-01
      -9.3869383019507244e-02 7.3046929348264081e-02
      1.0920991552929607e-01 8.0830247979614814e-02
      -9.1542226047077055e-02 7.3494174142868365e-02
      -7.5103408020095784e-03 1.2096601368783380e-01
      4.6127707156672311e-02 1.2199768258105063e-01
      -6.0692794786960713e-02 3.1531226130170349e-02
      -4.3098855171778354e-02 -6.1440514796526402e-02
      -4.4068217086261255e-02 -7.3643229566229762e-02
      -9.3421990279789230e-02 -1.3864549784094807e-01
      -1.7645353158643830e-02 1.1223443850994402e-01
      2.1361342163716705e-02 -1.1436196439590778e-01
      2.3617021306868993e-01 1.0367409794327732e-01
      3.1528339464679390e-03 -5.8763599884752958e-02
      -1.0417425765942080e-01 2.6443597071547045e-02
      3.2125502494584755e-02 -8.7310519760639041e-02
      -1.4133878275728473e-01 2.3565632140162543e-01
      4.6132558514143440e-02 -1.5245772385799988e-01
      2.4004751956236478e-01 1.5026961764333163e-01
      -7.7005709738994649e-02 1.8898440097746705e-01
      -1.6370982882256573e-02 3.0104052171147982e-01
      1.4701241068778817e-01 -1.1005360383387208e-02
      -2.2051326921481342e-02 1.6257548829389071e-01
      -8.8466770712123943e-02 -2.6928510386061810e-01
      2.5554413314115787e-01 2.8027643168441568e-01
      -1.4186635206613782e-01 2.0849879218571091e-01
      2.2210904069495016e-01 -1.5023653186669444e-01
      -8.0536360559621004e-02 3.5758051099782237e-02
      1.6446462246305879e-01 3.3428671915984164e-02
      -7.2776975035229244e-02 7.2023471945336037e-02
      -2.4167918262657825e-01 -1.7559252366563044e-01
      -4.0792986978824254e-02 -1.3259059929538417e-01
      1.1705546731715410e-01 -6.8790788020486352e-03
      1.2575573399366816e-01 1.0872239352897689e-01
      -1.8849900844867479e-01 -1.6951515364506903e-01
      -2.0945090923435455e-01 1.8573879507773852e-01
      9.9257789503700386e-02 -2.4812456223158966e-01
      1.6181987178009388e-01 2.0624977818644541e-01
      -7.5539805418738781e-02 -1.9007044362372283e-01
      2.0570994125445930e-02 -2.4838845411878543e-01
      1.4569516374323699e-03 -1.6795481266874224e-01
      -8.9645043604383190e-02 1.0873834990529497e-03
      4.4640246845439616e-02 -1.6985594265789014e-01
      -2.5811202638416179e-02 1.2507652641872948e-02
      1.4186505859180087e-01 -2.0815411837477085e-01
      -1.7537462986854044e-01 -1.7474273651845149e-01
      1.1183660894370651e-01 3.2896923418873215e-02
      -8.2467626788404080e-02 6.9797562746530775e-02
      -1.1454844769111568e-01 -2.1473955984571474e-01
      -2.3073803484267721e-01 -1.4569233848856286e-01
      -6.3725042287129052e-02 -3.5856884697256597e-01
      4.4429824065301569e-02 1.4182726773768392e-01
      -3.3397463888479272e-02 -1.7094874966965271e-01
      2.9548119699651548e-01 -1.0608798759828848e-02
      3.6467952267040576e-01 1.1398150127815154e-01
      -2.1401913113578121e-02 1.7371436126158740e-02
      1.8585965836616344e-01 6.7070541792431201e-02
      2.4064116738230590e-01 -3.4748091005064718e-01
      1.1649310960542350e-02 6.8279981836829345e-02
      -5.4384847070831875e-02 2.1216032749893307e-01
      -3.9842607108358144e-02 1.2333228958960238e-01
      1.3640423407793553e-01 2.0663759137726750e-01
      2.0328109329190816e-01 1.7582042819963808e-01
      -2.1482239606872369e-01 3.2055196238592187e-01
      3.9252231710489660e-01 -8.8979730568799487e-02
      5.7360264751711909e-02 -1.3361922689856837e-01
      4.7197286475521211e-02 9.6614258250875121e-02
      -3.4565231285852177e-02 1.0152427593972529e-02
      1.9108433088015364e-01 -9.3086247937295377e-02
      4.6284371615796349e-02 -1.1017285900435275e-01
      -1.9361502905806405e-01 -1.2623442660842477e-01
      -1.8162732968561179e-01 -1.6271672668689530e-01
      1.3675234021830771e-01 -1.4113983172924607e-01
      2.4114169929006365e-01 8.8221443186476553e-02
      2.8247657049310392e-02 1.1797224840439662e-01
      -1.1158494739013954e-01 6.4187222204842118e-02
      -6.7805130191967797e-03 2.2899053635309941e-01
      3.3640281957203272e-01 -1.7809896579511794e-01
      -2.0993738990944061e-01 -2.1614485996917299e-01
      2.3901153817140941e-01 2.3479508274336797e-01
      -6.5927534116627107e-02 -2.3635417086237451e-01
      -2.0585632455595618e-01 -3.4556125977491908e-01
      1.5097230572897916e-02 -1.7332015271310491e-01
      -1.4043240228741669e-01 2.7198413508383749e-02
      8.7723553145033023e-02 -1.2189952083219378e-01
      -1.8847287596910376e-02 -1.1447213120965606e-01
      -1.2572963724298742e-02 -3.5405152437897260e-03
      -6.8385666219731300e-02 -1.0816265654010228e-01
      1.7364018698912073e-01 1.2327152469282151e-02
      -1.1386285445589749e-01 -2.6392582934081521e-01
      4.4217005927380997e-03 -5.2988472788093044e-02
      -5.3882014548579868e-02 -2.2258485639556586e-01
      -1.3730880899282999e-01 1.3804369171769157e-02
      1.1341829980021140e-01 1.4039956764368203e-01
      1.9307945172430804e-01 -9.4650698000095707e-02
      4.9868672060060452e-02 4.8169233215343853e-02
      2.6514350912072777e-02 1.8224588311894727e-01
      1.5493910239708211e-01 1.0545380835197377e-02
      -1.5863751491656997e-01 -5.8900773758804544e-02
      8.9463605906902430e-02 -2.7718116687242678e-01
      1.6070164905189432e-01 3.2132633319015953e-02
      -1.3110032438486154e-02 1.7276645795223339e-01
      -1.0793407659530591e-01 -4.3844362546098872e-02
      2.5328639456770011e-02 -1.3121282604579057e-01
      1.2297823631129710e-01 -2.7590462995255011e-01
      -5.6508248961040217e-02 2.1200486549603732e-02
      -1.0824058233162379e-02 4.1479497383147358e-02
      -1.9627986112762513e-01 8.9976861310247361e-02
      -2.5922120162231754e-01 9.0709391565915953e-02
      1.0699541690120774e-01 1.3820912773490160e-01
      -8.2708203882029454e-03 1.9154931467899808e-01
      -8.0903641678268190e-02 1.2814430271462085e-01
      8.5533372623614115e-02 1.1958619006234765e-01
      -1.2123686161931897e-01 8.8150237650121820e-03
      -1.2515371070446277e-01 -1.3184173982047417e-01
      4.3781148513658913e-02 -1.4222118583746785e-01
      -5.0000081707610673e-02 -8.0169931242895801e-02
      -7.1677917561509706e-03 -9.7279597430255896e-02
      7.5206749045104368e-02 4.1297628723211841e-02
      4.6050949412251574e-02 -1.5192117646141268e-01
      -9.5472183327587279e-02 -2.5017925745025864e-02
      3.8865691537033653e-01 -9.6153647146590988e-03
      1.7888593773596886e-01 4.3017744123017509e-02
      2.1234945077242575e-02 1.1580819313350259e-01
      3.3525142666376795e-02 -8.5725403703950515e-02
      3.0935340408145556e-01 -2.1857860650207109e-01
      -2.1672511357409210e-01 6.8203297430247722e-02
      -1.0817119342551730e-01 -2.4335056774496389e-01
      -1.1789048801315796e-01 3.6442433674505524e-02
      -1.7869076644608800e-01 2.7417423883118425e-01
      1.0272853640739847e-02 -3.5406861903592594e-02
      8.0793788561606850e-02 1.1093292928225747e-02
      1.6808367998819940e-01 -2.4916946523343658e-01
      2.5587359546047689e-01 -2.3937365397867583e-01
      6.9834078824111773e-02 -1.7462496066365651e-01
      -1.1649504712117469e-01 1.4182039550123707e-01
      -1.5302266122313357e-01 -1.5043464325720440e-01
      -1.1302863511176509e-01 1.4467355216823102e-01
      1.1643043300389505e-01 1.1447892831322230e-01
      2.0845945937034448e-02 1.3457669590068103e-01
      -4.1782730803597144e-02 7.3562376562568893e-02
      -6.6067875125437422e-02 1.9075378379856958e-01
      -5.3557043958311928e-02 1.0380914826320665e-01
      -4.5048067739391233e-02 -7.9921849134172454e-02
      -7.2471686775266331e-02 -8.6836165797314555e-02
      -2.7229225973803076e-02 -9.5431508454114869e-02
      6.8059626167489978e-02 -7.7614035140788851e-02
      -3.8597669349948870e-02 -2.7222746755293365e-02
      1.0335876484088484e-01 -7.2643932042452092e-02
      -8.3579889878655333e-02 -1.8992406593886796e-01
      -1.0976293627574234e-01 9.7124796776164743e-02
      -1.2933019226559606e-01 9.9444014310863416e-02
      -1.2330795730941785e-01 1.8676295044364316e-01
      1.6306598062638501e-02 -1.5130035476629897e-01
      2.2681784513941783e-01 1.4482082245604472e-01
      -7.9839983797693539e-02 1.8496637236139415e-01
      -1.6673315277392260e-02 2.9136998970071487e-01
      1.2001017424724932e-01 7.0584722966695105e-04
      -1.1897793791706011e-03 1.4501970922511637e-01
      -5.9863276466623219e-02 -2.3337732876403630e-01
      2.2025023028182508e-01 2.8865682509633611e-01
      -1.2579140237718583e-01 1.8221437309154981e-01
      1.9099990501163577e-01 -1.3079467333870878e-01
      -5.6819977739648406e-02 2.6589493700497523e-02
      1.5763744612001360e-01 3.3321233684818916e-02
      -3.4743680563582555e-02 3.9833814529362882e-02
      -2.5420689125024543e-01 -1.8434322095833633e-01
      -2.8659884686922574e-02 -1.1156870194693853e-01
      1.6603090574981447e-01 -3.4819248158560828e-02
      9.8943661077920741e-02 9.4284172307257330e-02
      -1.8899310866580385e-01 -1.2617480321870925e-01
      -1.6422558616957711e-01 1.6673187622666871e-01
      1.2377399037755261e-01 -2.2578222200177281e-01
      1.5284514672919117e-01 1.9265018575799603e-01
      -7.7001619785268816e-02 -2.1724797435433896e-01
      5.3803868533026815e-02 -2.1588178273446171e-01
      3.1538249927177055e-02 -2.2429895835619593e-01
      -1.3146075642792984e-01 1.2046789950561949e-02
      6.8446297666854922e-02 -2.1619462080846558e-01
      5.7479872938514306e-03 2.8663171394321486e-02
      1.4880652614480119e-01 -2.6087943462200003e-01
      -1.3958227732653011e-01 -1.7935914178376111e-01
      8.1584379524334782e-02 2.5508975781953845e-02
      -9.5566570780004592e-02 4.0726527565933979e-02
      -1.0564602488750294e-01 -1.5738745271177570e-01
      -2.0362534685467043e-01 -1.6089870384053834e-01
      -7.3808004241629074e-02 -3.2297335765071966e-01
      3.4750182508275190e-02 1.0237803649525766e-01
      4.9410292581170689e-02 -1.3327008625204728e-01
      2.6101126419293702e-01 -1.2501248579955130e-03
      3.4543710401789812e-01 5.6419992576937333e-02
      9.4373819410797817e-03 4.5702230683379004e-03
      1.6892156075476686e-01 8.1274790662870397e-02
      1.9889651293810406e-01 -3.1115084885705085e-01
      -1.5366749614554462e-02 6.4542186203718821e-02
      -3.4216587692316627e-02 2.3572450986906815e-01
      -2.6623778138563450e-02 1.2920209421322720e-01
      1.0759141008873566e-01 2.2596322774199429e-01
      1.9915590358372820e-01 1.4521882253065840e-01
      -2.4128986902861646e-01 3.1978191622505048e-01
      3.7544501239838818e-01 -5.9792811906059541e-02
      3.7321639341588046e-02 -1.3683513240441286e-01
      3.6873225470640980e-02 6.4155718737362699e-02
      7.8951546299161918e-03 1.6975774059726084e-02
      1.9113297686216330e-01 -9.9418294966673260e-02
      8.7826811178481318e-02 -1.2266622729151441e-01
      -1.6331986363336579e-01 -1.0427858564036657e-01
      -1.4215284519379867e-01 -1.5998321948186350e-01
      1.5825361726191967e-01 -1.8264420053611002e-01
      2.0278795288463480e-01 8.6427237113651884e-02
      7.0709030540953094e-02 9.5332646236108459e-02
      -9.6739368129585765e-02 6.7582474728151251e-02
      2.3814276560652735e-02 2.1245441008569557e-01
      3.2816280712951224e-01 -1.7574554418969984e-01
      -1.5170567129691492e-01 -2.3855105059726936e-01
      2.5147525685231570e-01 2.4202402413228477e-01
      -5.1804510685802149e-02 -2.5114103800119858e-01
      -2.2135509561497682e-01 -3.5364433084145364e-01
      2.3059565907094289e-03 -1.3414497176134846e-01
      -1.8519942998640229e-01 3.3235955365554154e-02
      9.4871375104499389e-02 -1.2048177763283795e-01
      -1.0950724260313066e-02 -3.1918903695458190e-02
      -1.2980295905057251e-01 6.3942407262557691e-02
      3.2679577541878391e-03 -1.8986486870496905e-01
      1.4580208035152362e-01 -1.7396864346971833e-01
      -8.0469554486283970e-02 -1.9271291986712955e-01
      -4.5607558817970094e-02 2.7869795845871539e-02
      -1.1871809982310169e-01 -9.9878310455778302e-02
      -1.2273794809800199e-01 -9.6002569257807535e-02
      1.0670133630591111e-01 1.3132726604675662e-01
      4.0191389836353467e-02 -6.3832601477842699e-02
      1.0176378090452945e-01 -1.3273263203970926e-02
      -1.3866777058939134e-01 1.5995906088626372e-01
      1.4063910537422181e-01 4.1478581030028938e-02
      -1.3175312657010627e-01 -9.5939038075912364e-02
      7.7079384399465420e-02 -3.4890134534416661e-01
      2.1067183272148585e-01 6.1963676889040037e-03
      1.6693366173293252e-02 7.4007549862967634e-02
      -5.0638060966641411e-02 -1.1457517825473500e-01
      2.8186757665981933e-02 -8.3722080791360634e-02
      5.0955675340519022e-02 -1.6304951695628359e-01
      -9.9237450051030338e-02 -1.9186989462317731e-02
      6.7243456943742050e-02 1.6229124854311910e-02
      -1.7697608088916972e-01 8.5095433009196211e-02
      -2.5869626205184454e-01 2.2811080075306034e-01
      9.8500734264211007e-02 1.4315657464248133e-01
      -1.2547711578945550e-01 1.4786426178648793e-01
      -2.1805318173684925e-02 1.1425406527898214e-01
      1.5093962663751057e-01 3.2300728676990090e-02
      -1.0971201311102101e-01 9.1764018134485772e-02
      -9.0956732077528704e-02 -1.0620128447126920e-01
      -1.1192487239089440e-04 -5.4885100104099041e-02
      -8.7811332580563686e-02 -1.2834427112303923e-01
      9.1925760041323787e-02 -1.6134508341992634e-01
      7.9227508151222578e-02 3.0893179923590225e-01
      3.2258485236625625e-02 -1.4321880205673150e-03
      -2.4101137726452235e-01 -1.2484035342561536e-01
      3.3802872206008167e-01 -9.2908605274591355e-02
      4.8120787838564306e-02 1.2605646146959676e-01
      -6.0834154327119271e-02 1.0087121822930818e-01
      9.1941639064268998e-02 -1.3980123962893845e-01
      2.0296465825371393e-01 7.6008020773161142e-02
      -1.8250553825164326e-01 1.9989226302000587e-02
      -1.4831691171544978e-01 -3.2896254730509306e-01
      -5.6368652443882894e-02 -6.1398548881838107e-02
      -1.3453922730015508e-01 2.4870905124359594e-01
      -5.3663486595374163e-02 4.2857309113647130e-02
      2.0749944265867110e-01 -1.9637314155717067e-01
      6.3903335474743778e-02 -2.0656269380026784e-01
      2.1596162002574090e-01 -1.7413233807874257e-01
      1.0931655220980424e-01 -2.8045013261157312e-02
      -2.0519693492922852e-01 1.4157240512665364e-01
      -2.6742055864234415e-01 -8.9554904853872463e-02
      -1.5004088467531954e-01 1.9585236071349701e-01
      1.7227362808219554e-01 1.3891057645557950e-01
      -8.3387044103916716e-02 8.7035779813036118e-02
      -8.4213994169519024e-02 8.0917412934863167e-02
      -9.7170788225392102e-02 1.0390618301718006e-01
      -3.1096898367201906e-02 1.4293617981369973e-02
      -1.4923469095496232e-02 -3.6519805152391754e-02
      -9.4329925896854377e-02 -1.7178038001937604e-01
      -7.3703742669761069e-02 -1.4520568826421840e-01
      3.1835006739044096e-02 -5.5323866162843578e-02
      -1.7360088370725438e-01 -1.7333573960785983e-01
      1.0445118639574594e-01 1.0165282910955924e-01
      -5.4404830238731945e-02 -1.0150765769453969e-01
      -1.2611433665169250e-01 9.5089108816089507e-02
      -8.3558018288514183e-02 5.8982802964414757e-02
      -9.1873433015440056e-02 1.8095840123892018e-01
      3.2443753108200288e-02 -1.1162882998707192e-01
      1.9783718377117690e-01 7.5485328845779354e-02
      -1.2186774400490888e-01 1.5752956367163010e-01
      -3.5841405037194622e-02 2.6649626742339971e-01
      5.7544288735360515e-02 4.3342251142969711e-02
      2.6893818746082810e-02 4.7643878201774445e-02
      2.6860469904962440e-02 -2.0884806784313972e-01
      2.3325337701283758e-01 2.4565236614588246e-01
      -1.1414098294416836e-01 1.1318265400817744e-01
      1.1192856863002601e-01 -7.2488006184404444e-02
      -9.4192919590854143e-02 1.2145485520588580e-02
      1.9905302213314124e-01 -5.0736263294428492e-02
      -5.2486750592055403e-02 1.4627505405156517e-02
      -2.1602317743129676e-01 -1.6356940929626762e-01
      -7.6285371891579683e-03 -8.8841881537823963e-02
      1.3407867586947853e-01 -7.8674853300287187e-02
      6.8178695717480184e-02 9.5046761363764082e-02
      -1.5512303306226333e-01 -1.1493752011010690e-01
      -6.5445224867778290e-02 1.1095919652742468e-01
      1.0856083710332719e-01 -1.9206357682223585e-01
      1.5079257489181103e-01 1.7683940951128513e-01
      -8.6815289199207071e-02 -2.2849614664682541e-01
      6.0246348276594648e-02 -1.9162774596821805e-01
      3.8560068950013161e-02 -2.7657930860670871e-01
      -1.6815237554463322e-01 -3.0578880855270012e-03
      7.2672766951404927e-02 -2.4827196930723416e-01
      -1.8360736672521970e-03 -1.7963111509172423e-02
      1.0173733830211956e-01 -2.5084051056461448e-01
      -1.3781454725821146e-01 -1.8262504235086546e-01
      9.8791734001126549e-02 8.8297341475362570e-02
      -1.2265197370990769e-01 3.4288336647778681e-02
      -8.2025039389089768e-02 -4.9470486298272776e-02
      -1.8321702752069288e-01 -1.1435735386978646e-01
      -2.6745253504684464e-02 -3.7175608024409118e-01
      8.0098986149454918e-02 6.0563945458342316e-02
      1.9555105197840417e-01 -1.9783985872887086e-02
      1.8332389492532014e-01 1.0061098354817449e-02
      2.9109485325337298e-01 -5.9646725699082581e-02
      9.3247010752989593e-02 -4.4722368095142045e-02
      1.0280758976083580e-01 9.3761544134628644e-02
      9.9840336319519274e-02 -2.6821224858535064e-01
      -1.6577985540157911e-02 4.1178706816321659e-02
      1.6789352682679726e-02 3.0011819370884080e-01
      2.3347204517378908e-03 1.3035148764621368e-01
      1.1953525109889875e-01 1.3607145475868759e-01
      1.7356666704145518e-01 4.4334538410978647e-02
      -2.0281584942862269e-01 2.8696866567767676e-01
      3.0838542414592546e-01 6.5608715019264876e-03
      -3.0177788543272388e-03 -6.5587034101805566e-02
      -2.2430575081261866e-02 3.4957725137986208e-02
      9.5566176133574821e-02 2.7065518883655552e-02
      1.8330624869841372e-01 -3.9500004057525337e-02
      6.9087470451670463e-02 -1.5017406817514023e-01
      -1.6014867576381261e-01 -1.2380250755213984e-01
      -4.0725869487345176e-02 -1.0728775710276928e-01
      1.8957033818431371e-01 -1.9975186452127042e-01
      1.2347032117599764e-01 3.8619329598944610e-02
      7.7977448086467435e-02 2.2879503636046718e-02
      -9.6742174958964311e-02 7.2667177356011178e-02
      1.8229048244972054e-02 2.0798297741998253e-01
      3.0673111818205240e-01 -1.2290744030341606e-01
      -6.0920829194993829e-02 -2.2053176434217592e-01
      3.0291745922453439e-01 2.8619861461645607e-01
      -8.0654017148935137e-02 -2.1796518194302886e-01
      -1.7791505548099126e-01 -2.6561670538480187e-01
      3.3494805066783886e-02 -1.3718670950975881e-01
      -1.2075617521972856e-01 5.7655973965567653e-02
      8.8908519457319507e-02 -6.1858163270996018e-02
      -6.7453902418158768e-02 3.8143398201445397e-02
      -1.5614356255759698e-01 -2.7731765768692088e-02
      -1.2693118649193971e-01 -1.2223025367120802e-01
      2.1056762746971977e-01 -5.5245996157280576e-02
      -1.1086430377386110e-01 -2.1567172340989230e-01
      1.9478496824632853e-02 -1.1715384814530966e-01
      2.8361231058544670e-02 -1.6156595912805025e-01
      -4.0511076628405029e-02 -1.0507685197525472e-01
      1.1782561265666718e-01 3.0471031299919602e-02
      4.2586891246432036e-02 1.8094750780048761e-02
      6.4881385855193624e-02 -3.8614791087543190e-02
      -2.6718383819504126e-02 8.5731897272546584e-02
      1.6825003838492458e-01 1.2093548041244523e-02
      -4.0115544335221472e-02 -6.7483486383337649e-02
      7.3028015467935581e-02 -2.4836900673124387e-01
      1.1761531721691415e-01 -1.9897262104526484e-01
      -3.3418513916015226e-02 1.8486183675342341e-01
      -7.6486665633578019e-02 -5.3983149455562832e-02
      1.9630923837501416e-01 -1.3041051009230401e-01
      1.2189090917220323e-01 -2.4356658614600174e-01
      -1.2547673721024644e-01 -3.5624540867101283e-02
      3.2899279254509509e-03 1.0120048791725249e-02
      -1.7861264263824106e-01 6.3206527864540632e-02
      -2.9142157296169080e-01 -4.7798519046026486e-02
      -4.0550437899622586e-02 1.4174244023028887e-01
      -4.1192631375305447e-02 7.5331445235679334e-02
      -8.0033377649826903e-02 3.1864890848872063e-02
      8.8885762037651306e-02 3.8785041780624890e-02
      -9.2126924920308106e-02 1.0041036938468108e-01
      -1.1347146205099223e-01 -5.6233101606627388e-02
      -8.4015686101545535e-03 -7.5773554419168609e-02
      -7.7843276134909628e-02 8.1671716501074729e-02
      1.1363094572536606e-01 -1.0444697148365335e-01
      1.6247369019145597e-01 1.3617634993273264e-01
      8.8799689993208156e-02 -1.0420035047705829e-01
      1.7892722731280054e-02 5.2121521339695623e-02
      3.1817445161210717e-01 -1.1211348264049978e-02
      1.4363226529469303e-01 -9.0490899119898993e-02
      7.1974280135813848e-02 1.9374539763410190e-01
      9.7976530733230871e-03 -5.8914348064096907e-02
      1.9487265454764330e-01 3.1525766897332656e-02
      -2.1540531332585736e-01 2.3166259930260228e-02
      -9.4069218764030835e-02 -2.5096901252191484e-01
      -1.6451477329518038e-01 -5.5945620126562741e-02
      -1.6313803356505496e-01 -1.4856544565175532e-03
      -1.9435434978352841e-02 -1.4611402574272786e-01
      8.9205363136094548e-02 -1.1102103781207855e-01
      1.1303533292401667e-01 -2.5608863005101329e-01
      1.6910071084835449e-01 -1.9652480361017477e-01
      1.6015937172801111e-02 -1.3528478114627387e-01
      -8.1497302560656751e-02 1.9753777572410519e-01
      -1.9859749253317449e-01 -1.2802152974732847e-01
      -2.1586605237853884e-01 1.6705099088564843e-01
      1.4304915196962129e-01 1.6790338486725465e-01
      1.3002650167284308e-01 1.3160830577361729e-01
      5.1045676975814067e-02 -7.7810866027221412e-02
      -2.0264226314262609e-01 1.0611723083485670e-01
      -1.2263062544401254e-01 3.3360619166768746e-03
      -8.8775331040519996e-03 -7.6498112938508472e-02
      -1.2198610957662073e-01 -1.3827242429946796e-01
      3.0958222596023967e-02 -6.8241199828025095e-02
      1.9278454765613090e-01 -1.3659821401658778e-01
      -7.2063887966517817e-02 -8.1421363555610970e-02
      -3.4102626981720861e-02 -9.3504772228435538e-03
      -4.3907939077170770e-02 -1.1575605754917119e-01
      -9.8538960754049248e-02 7.4054202191103313e-02
      5.3903679496825736e-02 1.7760700032813198e-01
      -2.7283764157455676e-02 1.0350406284033202e-01
      7.3673963332021586e-02 -9.7390115508338756e-03
      1.5016228051345276e-01 3.5344454087523132e-02
      -1.8647971492826923e-01 1.0277915586910841e-01
      -4.8268453174940329e-02 2.0282810107314886e-01
      6.9549434176396415e-03 5.3323279804557956e-02
      2.0959992375159744e-02 -1.2035607344178682e-02
      8.6024099869331322e-02 -1.4065531100525053e-01
      1.6567147728377077e-01 1.7475054502147627e-01
      -2.9317844312498814e-02 5.6278486954485334e-02
      1.4156995758728173e-02 4.5294626135297285e-02
      -5.8015871397398978e-02 -3.2617453541426318e-02
      2.5510607761094500e-01 -1.2786683058805182e-01
      -3.7405041259800369e-02 3.3592720061840255e-03
      -1.3120327517587127e-01 -1.4922555940284959e-01
      -9.1887231334111627e-02 -9.7903762049676768e-02
      -3.6348412246685604e-03 -1.5167825541199939e-01
      7.0008880824433406e-02 1.0289821209119056e-01
      -1.1047813733336315e-01 -1.2768746918151269e-01
      7.7758711181939999e-02 5.1903894676035470e-02
      6.9185507312969949e-02 -1.4986648738596395e-01
      1.3147572266428151e-01 1.0771063667098608e-01
      -6.3985476850331457e-02 -1.3649695718285082e-01
      6.3513338974411540e-02 -1.2467375538178820e-01
      3.8573144102691172e-02 -3.2834267149203400e-01
      -2.1138909774358550e-01 -5.0662078733266121e-02
      7.6362156553324353e-04 -2.1205243179706315e-01
      -5.5594136171675988e-02 -7.0101029675416038e-02
      9.0749357959774776e-02 -1.9734665959117781e-01
      -1.5113805217412593e-01 -1.2008150927330287e-01
      8.6096315035129295e-02 1.6530451161911042e-01
      -8.9603060437774079e-02 3.7783882215482290e-02
      -8.9814547311236850e-02 6.7936687363187739e-02
      -1.3698029119168759e-01 -1.1467040036052158e-01
      -9.0000898013179870e-03 -3.3628265423898057e-01
      1.0462265176627239e-01 -1.7278664593352394e-02
      2.7658133645829203e-01 5.5663857705246761e-02
      1.1513602466929503e-01 2.3242709419899050e-02
      1.2648208451763160e-01 -1.5253772018090958e-01
      1.3349720262197856e-01 -6.5984922692031378e-02
      2.4971513835843402e-02 9.5475515002080388e-02
      1.2032601492760663e-02 -1.3165766484869362e-01
      -1.2238587185922861e-02 1.4686963776988242e-02
      4.8813997405823727e-02 2.8503266894796359e-01
      4.5965989302597134e-03 1.2701830856039531e-01
      8.5156988020181290e-02 7.2860821360908753e-02
      1.6004884349702297e-01 -3.4046676446534821e-02
      -8.7371830836719538e-02 1.9487097001549408e-01
      1.8532986754269512e-01 8.9595318907131988e-02
      -6.0143528938286318e-02 1.1111652154303514e-02
      -9.8565739661746962e-02 -2.4036268496822791e-02
      8.8615248274109215e-02 9.7380348998769364e-03
      1.5792919038097170e-01 -2.2038959146608975e-02
      2.1138630847380078e-02 -1.6001834124804901e-01
      -1.4918061257840934e-01 -1.2195389356274922e-01
      6.2478947659957235e-02 -3.7610960168671798e-02
      1.5922523914929765e-01 -2.0751216327237765e-01
      -4.7051613676736395e-02 -3.3313049955884612e-02
      6.4554902204615766e-02 -5.1869478784195316e-02
      -1.1009106986828292e-01 7.2614464022388886e-02
      -4.8506668672365161e-03 1.5281679389211630e-01
      2.0644317901417059e-01 -1.2943100831868320e-01
      4.4417262253271403e-02 -1.9507190506931285e-01
      3.2707937018905259e-01 2.5569634621572013e-01
      -1.0984141596869652e-01 -2.4252383016763537e-01
      -1.2265887131066290e-01 -9.4372816872803744e-02
      2.0645306428929765e-02 -1.6743618150411727e-01
      -7.2234427145624613e-02 1.0363590202126216e-01
      1.2020466779335880e-01 -1.1896565423639022e-01
      2.0848277504224497e-02 1.4333920423977038e-02
      -1.0163590975077078e-01 -3.0305416187944145e-02
      2.9850759777644057e-03 -1.6147249592723886e-01
      2.1293434482594303e-01 -1.4180126165358201e-01
      -1.0944179539525176e-01 -2.8687940452944777e-01
      3.8277148389429930e-02 -1.0399547087965519e-01
      1.3873059265992199e-02 -1.1850697989768416e-01
      -7.3446812097073044e-02 -9.7145296549047425e-02
      1.6463037907559844e-01 1.0267150713887215e-01
      6.5701457328446150e-02 -1.9068884683279388e-01
      7.8400170269142588e-02 -4.3008172717532038e-02
      -1.0189018106865488e-01 6.9294511684260790e-02
      1.0011306832982061e-01 1.2251808086250952e-02
      -5.4022650522443823e-02 -1.1794196781618307e-01
      3.8975967291054014e-02 -2.1294976397896906e-01
      -2.9068936323917174e-02 -3.0688909989418204e-02
      -5.5257503510591000e-02 6.9285466985767472e-02
      -9.5067096265491716e-02 -1.5776262694518584e-01
      2.1273660391432708e-01 -7.8688337141395170e-02
      -1.9610011341737954e-02 -1.9782359929998566e-01
      -1.9409699009647721e-01 2.5996470944776837e-02
      4.5709873508806731e-02 1.1350180295767467e-01
      -1.6664932669906424e-01 8.4633975021815563e-02
      -3.4662860061718503e-01 2.1788301191000348e-01
      1.0030553500897151e-01 6.8135495741006871e-02
      -1.3321173278465245e-01 9.5824354953053373e-02
      2.4898904086733703e-02 5.4774188065532178e-02
      9.4405172352209063e-02 -1.7268431388111329e-02
      -8.8767377991445837e-02 1.5298111854436214e-01
      -9.9713101070088683e-02 -1.2466193952294752e-01
      -2.5193961380641006e-02 -2.2150228443465321e-02
      -1.8762894758229476e-01 1.2495852610770372e-01
      1.2163652742014459e-01 -1.0369999608584181e-01
      5.8988012448418330e-02 1.3841765918067500e-01
      -5.6169829454743532e-02 -8.1229542025593154e-02
      -2.1493661996112681e-01 1.8511731804690276e-02
      3.5239462826068274e-01 -1.3058193598293816e-02
      1.3430917035243170e-01 -1.1396547278125451e-02
      -1.1428020497695051e-02 2.2381936225049937e-01
      5.8763476520072175e-02 -7.9265371212025371e-02
      2.8298871711791634e-01 4.2938364377430802e-02
      -1.0330220116355569e-01 -4.0477513670959760e-02
      -3.3111418498660602e-02 -2.6934276121644096e-01
      -1.8276422994475511e-01 -1.4678015933997393e-01
      -1.5260044254293251e-01 2.8019596461779716e-02
      3.3298541950710067e-02 -6.8243880624922759e-02
      6.1180954064914611e-02 -1.4786481216745628e-01
      8.8410931458551278e-02 -3.2456953485773610e-01
      1.5597425155959382e-01 -2.2122097858420106e-01
      5.3891431498737673e-02 -5.4871797672696260e-02
      -5.3323250682905006e-02 8.9109030670229988e-02
      -2.0754252471179468e-01 -1.3920663870653302e-01
      -9.7716795588133995e-02 2.3963175654860860e-01
      1.5458926750129715e-01 2.1273638304115067e-01
      5.1858130966588659e-02 9.2331626388153551e-02
      -6.2354595757989656e-02 2.8833033839117839e-02
      -2.4969749689697895e-01 1.2503504354698633e-01
      -1.3899306582315912e-01 5.9270535831176162e-02
      5.9011461522594462e-02 -6.2133786533165279e-02
      -3.8033639493089612e-02 -1.8140815102660390e-01
      2.3476392800645542e-02 -1.0756459578093432e-01
      2.4154743164271594e-01 -1.0474760837174624e-01
      -1.0066670272034066e-01 -9.0142856696241197e-02
      5.2491069970187390e-02 -2.3434461732938942e-02
      -2.7186294941457839e-02 -1.0680308686195973e-01
      -2.7095383848650741e-02 7.0329443311439394e-02
      1.0686813323009114e-01 7.1311634634650928e-02
      4.3712177456209401e-02 5.1565117479516469e-02
      4.8457490279865900e-02 -7.8539190156900821e-02
      1.7627473684046796e-01 5.5889114412121799e-03
      -1.1982023404443549e-01 5.2282798855876729e-02
      2.4619730389433901e-02 1.3985652551046199e-01
      -4.4952715086600453e-02 8.2725230512202975e-03
      2.0085655440976787e-02 -4.3994344774782465e-02
      1.0896300816371791e-01 -9.2210054139569980e-02
      1.3262611235666227e-01 1.8029626281176542e-01
      1.7280685650395252e-02 2.8852033452454951e-02
      5.8348473530853595e-02 9.4781516380622616e-03
      -6.2699530542370027e-02 -1.8327520657644328e-02
      1.8161845360940154e-01 -9.3563717708325181e-02
      -4.1204926319364362e-03 1.4663689353657475e-02
      -1.0834629343470077e-01 -7.8254233955887723e-02
      -1.3042653192677908e-01 -4.8678935389516828e-02
      -8.3870122170924891e-02 -1.2540972640687217e-01
      4.1200528013701998e-02 8.9532131231555262e-02
      -4.2254639926501955e-02 -7.5400360224784801e-02
      1.2847481117674778e-01 -3.9041612725288208e-02
      -1.5226384238741796e-02 -1.2035133684690476e-01
      5.6777410505791319e-02 1.0138933477484111e-01
      -1.3255906175548320e-02 -8.4066686423459214e-02
      2.2835545904429315e-02 -6.0141255734095907e-02
      -1.3092939664131715e-02 -2.8593515131129732e-01
      -1.9244906896155586e-01 -4.7182432479493913e-02
      -3.7918153071226424e-02 -1.5284048730993099e-01
      6.8058435398580374e-03 -3.2742135241312822e-02
      9.3526066265439037e-02 -1.7659910076907459e-01
