<?xml version="1.0"?>
<opencv_storage>
<opencv_ml_svm>
  <format>3</format>
  <svmType>C_SVC</svmType>
  <kernel>
    <type>RBF</type>
    <gamma>1.5000000000000001e-04</gamma></kernel>
  <C>3.1250000000000000e+02</C>
  <term_criteria><iterations>100</iterations></term_criteria>
  <var_count>136</var_count>
  <class_count>8</class_count>
  <class_labels type_id="opencv-matrix">
    <rows>8</rows>
    <cols>1</cols>
    <dt>i</dt>
    <data>
      0 1 2 3 4 5 6 7</data></class_labels>
  <sv_total>531</sv_total>
  <support_vectors>
    <_>
      -3.81469999e-06 -3.81469999e-06 -9.53674044e-06 7.62938998e-06
      -1.14441000e-05 0. -3.81469999e-06 1.52588000e-05 -2.28882000e-05
      0. -3.05176000e-05 1.52588000e-05 -1.52588000e-05 0.
      -3.05176000e-05 0. -1.52588000e-05 0. 0. 0. 0. 0. -1.52588000e-05
      0. 0. -1.52588000e-05 0. 0. 0. 1.52588000e-05 3.05176000e-05
      7.62938998e-06 0. 0. 1.14441000e-05 3.81469999e-06 1.14441000e-05
      -1.90735000e-06 0. 1.33514004e-05 1.52588000e-05 7.62938998e-06 0.
      -3.81469999e-06 0. 1.52588000e-05 1.52588000e-05 3.81469999e-06
      1.52588000e-05 3.81469999e-06 -1.52588000e-05 5.72204999e-06
      3.05176000e-05 3.81469999e-06 0. -3.81469999e-06 -1.52588000e-05
      7.62938998e-06 0. 0. 0. 1.52588000e-05 -1.52588000e-05 0.
      -3.05176000e-05 0. 1.52588000e-05 0. -3.05176000e-05
      1.52588000e-05 -3.05176000e-05 1.52588000e-05 0. 0.
      -7.62938998e-06 0. 7.62938998e-06 -7.62938998e-06 0.
      3.81469999e-06 7.62938998e-06 0. -7.62938998e-06 7.62938998e-06 0.
      0. -1.52588000e-05 1.14441000e-05 -1.52588000e-05 0. 0. 0. 0. 0.
      3.05176000e-05 1.52588000e-05 0. -1.52588000e-05 7.62938998e-06
      1.52588000e-05 -1.52588000e-05 0. 0. 1.52588000e-05
      -1.52588000e-05 0. 0. -1.52588000e-05 -1.52588000e-05 0.
      -1.52588000e-05 0. 0. 0. 0. 0. -3.05176000e-05 1.52588000e-05
      -1.52588000e-05 3.05176000e-05 -7.62938998e-06 -1.52588000e-05 0.
      0. 0. 0. -1.52588000e-05 3.05176000e-05 0. -1.52588000e-05 0.
      1.52588000e-05 -1.52588000e-05 1.52588000e-05 0. 1.52588000e-05</_>
    <_>
      -1.07641001e+01 -1.59217997e+01 -9.46572018e+00 -1.68901997e+01
      -8.96154022e+00 -1.91347008e+01 -1.29664001e+01 -1.94617004e+01
      -1.32579002e+01 -2.07056999e+01 -1.21435003e+01 -2.20596008e+01
      -9.32773972e+00 -2.58348007e+01 -7.47579002e+00 -2.89930000e+01
      -9.28040028e-01 -3.04326000e+01 5.71465015e+00 -3.14820004e+01
      9.77406025e+00 -3.01343002e+01 1.36653004e+01 -2.91702003e+01
      1.47722998e+01 -2.65025005e+01 1.21364002e+01 -2.43857002e+01
      9.07843018e+00 -2.34976006e+01 7.92870998e+00 -1.80291004e+01
      8.97667980e+00 -1.47735996e+01 -8.43612003e+00 -2.16471004e+00
      -6.40548992e+00 -9.31613982e-01 -4.93511009e+00 -1.10565996e+00
      -2.28859997e+00 4.07303005e-01 3.85010004e-01 8.99505988e-03
      1.38098001e+00 -1.11066997e+00 3.91248989e+00 1.86790001e+00
      4.42267990e+00 1.71589994e+00 6.04302979e+00 2.06788993e+00
      8.58841038e+00 -1.29133999e+00 1.51233006e+00 -3.13492000e-01
      2.57153010e+00 2.30560005e-02 1.29578996e+00 1.38048995e+00
      1.18485999e+00 2.81440997e+00 -1.91439998e+00 -2.07904005e+00
      -1.35756999e-01 -1.70682001e+00 4.81949002e-01 -3.08441013e-01
      2.46826005e+00 -2.69327998e+00 3.07849002e+00 -1.80270004e+00 0.
      0. 1.22474998e-01 1.20671997e+01 -3.23999000e+00 1.06800003e+01
      -1.35333002e+00 -2.37739992e+00 -7.95745999e-02 -3.02709007e+00
      2.18551993e+00 -2.80991006e+00 2.74390006e+00 -2.14317012e+00
      1.77664006e+00 1.09593000e+01 -2.83245993e+00 1.18343000e+01 0. 0.
      -1.93040001e+00 -2.01675010e+00 1.58512998e+00 -2.95904994e+00
      -3.17068005e+00 -1.78633003e+01 4.41905022e+00 -1.59107995e+00
      6.17325008e-01 3.28892994e+00 2.21771002e-01 4.55775023e+00
      1.02895999e+00 3.34159994e+00 -4.15787983e+00 -3.28302002e+00
      3.52287006e+00 -2.08209000e+01 -3.58442998e+00 -4.70957985e+01
      1.58581996e+00 -5.74566002e+01 2.89455009e+00 -5.61147003e+01
      4.16318989e+00 -5.38930016e+01 5.80354023e+00 -4.19935989e+01
      -2.58634996e+00 -1.90356007e+01 1.01102996e+00 -2.62211990e+00
      5.62484980e-01 -1.50490999e+00 1.49921000e+00 -3.73430991e+00
      8.46207023e-01 -2.10907001e+01 3.29906011e+00 -4.96510010e+01
      2.42978001e+00 -4.85152016e+01 2.67224002e+00 -4.74543991e+01</_>
    <_>
      -6.51579022e-01 -7.93693018e+00 -1.01195002e+00 -7.02757978e+00
      1.51037002e+00 -6.06981993e+00 4.00880003e+00 -5.16098022e+00
      3.56212997e+00 -7.03809977e+00 3.00482011e+00 -5.85059977e+00
      2.36076999e+00 -3.00937009e+00 3.16348004e+00 -2.99050999e+00
      2.52884007e+00 -4.20012999e+00 1.96597004e+00 -3.80333996e+00
      1.00249998e-01 -6.19106007e+00 -3.16489005e+00 -9.97723007e+00
      -3.30404997e+00 -1.22531996e+01 -4.67168999e+00 -1.16320000e+01
      -7.35300016e+00 -1.24815998e+01 -4.20769978e+00 -1.32947998e+01
      -3.94507003e+00 -1.26964998e+01 -2.22562003e+00 8.69149971e+00
      3.48781991e+00 1.50162001e+01 6.00304985e+00 2.26644993e+01
      6.95032978e+00 2.57744999e+01 7.83778000e+00 2.73024998e+01
      -7.21276999e+00 2.46954002e+01 -6.18228006e+00 2.51175995e+01
      -5.21160984e+00 2.39578991e+01 -2.84038997e+00 1.53162003e+01
      2.48925996e+00 1.22221003e+01 7.82622993e-02 9.58656979e+00
      -4.13361005e-02 7.88249016e+00 1.26244998e+00 7.62572002e+00
      1.11890996e+00 7.33258009e+00 1.24660003e+00 3.68420005e+00
      2.47459006e+00 3.76740003e+00 8.07403982e-01 3.83863997e+00
      6.23947024e-01 3.95879006e+00 -9.82924998e-01 2.63160992e+00 0. 0.
      -1.48613006e-01 1.77481997e+00 9.81132984e-01 5.06923974e-01
      5.80322027e-01 1.89039004e+00 8.25622976e-01 1.64914000e+00
      -3.04123014e-01 1.45725000e+00 -5.55877984e-01 2.47701001e+00
      -2.18920994e+00 1.40504003e+00 -1.08339000e+00 8.82797018e-02 0.
      0. -1.23889005e+00 1.23048997e+00 -2.34472990e+00 1.08745003e+00
      1.14862003e+01 -3.22528005e+00 6.92133999e+00 1.51747000e+00
      3.74401999e+00 3.25489998e+00 -8.79119992e-01 3.31364012e+00
      -2.53487992e+00 3.47020006e+00 -8.71500015e+00 2.05620003e+00
      -1.49793997e+01 -9.27718997e-01 -8.91882038e+00 -4.13741016e+00
      -4.28222990e+00 -4.35422993e+00 -1.15477002e+00 -4.48627996e+00
      2.00911999e+00 -4.60590982e+00 6.70554018e+00 -6.16036987e+00
      1.27749996e+01 -1.68178999e+00 3.62438989e+00 5.93019009e+00
      -9.86786008e-01 7.47318983e+00 -2.67891002e+00 6.15746021e+00
      -1.47964001e+01 -9.86968994e-01 -4.11427021e+00 -8.45238018e+00
      -9.98749018e-01 -7.14908981e+00 2.15263009e+00 -8.69209003e+00</_>
    <_>
      2.85926008e+00 -1.72386006e-01 2.83045006e+00 -4.07974005e-01
      2.72301006e+00 -1.87987006e+00 1.47369003e+00 -8.12804997e-01
      1.33200002e+00 -2.27298999e+00 1.19310999e+00 -2.45514989e+00
      1.11081004e+00 -1.03210002e-01 8.83835018e-01 -1.80877998e-01
      -1.86757004e+00 -8.81652981e-02 -4.57021999e+00 1.30515003e+00
      -6.03769016e+00 1.46507001e+00 -6.17400980e+00 2.86951995e+00
      -3.75076008e+00 4.20638990e+00 -2.56363010e+00 4.37879992e+00
      -1.35825002e+00 4.55848980e+00 -2.06664994e-01 3.48212004e+00
      -1.52197003e+00 2.52716994e+00 1.82831004e-01 -1.06461000e+00
      1.44958001e-04 -2.17747998e+00 -1.42948997e+00 -2.09127998e+00
      -3.77739012e-01 -2.16302991e+00 -1.70137000e+00 3.12041998e-01
      1.71598995e+00 1.71565995e-01 1.43201005e+00 -2.23742008e+00
      -4.99878004e-02 -3.38981009e+00 -2.37517998e-01 -3.41793990e+00
      8.76861989e-01 -3.58313990e+00 6.20850027e-01 4.42200005e-02
      6.17706001e-01 -9.65500027e-02 6.15325987e-01 -2.28591993e-01
      6.12151980e-01 -3.69370013e-01 -5.09064019e-01 -1.73749995e+00
      -5.98784983e-01 -1.75635004e+00 -6.35528982e-01 -5.27846992e-01
      -7.92114019e-01 -1.74872994e+00 3.69186014e-01 -1.77687001e+00 0.
      0. 1.08566999e+00 -1.22946000e+00 1.00670004e+00 2.02636998e-02
      -3.60352010e-01 1.29699996e-02 -2.40027994e-01 -2.36968994e-02
      -1.08749002e-01 -3.48434001e-02 3.59573007e-01 -2.17438005e-02
      1.81899995e-01 -1.17912996e+00 4.98810001e-02 -1.17673004e+00 0.
      0. 9.32769999e-02 -4.31899987e-02 2.25296006e-01 -4.56008986e-02
      -1.58481002e+00 -2.05164003e+00 -1.73640001e+00 -1.96825004e+00
      -3.04944992e+00 -6.13692999e-01 -1.88314998e+00 -6.86294973e-01
      -7.83707023e-01 -1.96104002e+00 -2.16753006e+00 -1.95804000e+00
      -1.13606000e+00 -3.30637002e+00 -2.16845989e+00 -2.07259989e+00
      -7.38234997e-01 -9.06997979e-01 -1.89804006e+00 -8.61388981e-01
      -1.80976999e+00 -8.60031009e-01 -1.68499994e+00 -8.44192982e-01
      -1.64608002e+00 -2.04642010e+00 -1.80958998e+00 -7.54271984e-01
      -1.88909996e+00 -7.56331980e-01 -1.97663999e+00 -7.48856008e-01
      1.63834006e-01 -3.36390996e+00 -7.29323983e-01 -8.01926017e-01
      -1.88909996e+00 -7.56331980e-01 -1.75652003e+00 4.93027002e-01</_>
    <_>
      1.25513995e+00 1.23440003e+00 1.24477005e+00 -1.03759998e-02
      1.26551998e+00 2.47916007e+00 2.51029992e+00 2.46875000e+00
      3.74468994e+00 1.21363997e+00 3.74470997e+00 1.21359003e+00
      2.48955011e+00 -2.07825005e-02 2.48954010e+00 -2.08129995e-02
      3.73430991e+00 -3.11890002e-02 2.47916007e+00 -1.26556003e+00
      1.23438001e+00 -1.25516999e+00 -1.04064997e-02 -1.24479997e+00
      -3.05176000e-05 -4.57763999e-05 1.03759998e-02 1.24477005e+00
      1.25515997e+00 1.23441005e+00 1.26552999e+00 2.47917008e+00
      1.27587998e+00 3.72392988e+00 1.22400999e+00 -2.49991012e+00
      2.47918010e+00 -1.26550996e+00 2.48955989e+00 -2.07310002e-02
      -2.28882000e-05 9.53674044e-06 -1.52588000e-05 1.14441000e-05
      -3.05176000e-05 1.90735009e-05 1.03455000e-02 1.24478996e+00
      1.03759998e-02 1.24478996e+00 -1.24480999e+00 1.03874002e-02
      -1.04064997e-02 -1.24477005e+00 -3.05176000e-05 7.62938998e-06
      -1.52588000e-05 0. -1.52588000e-05 -7.62938998e-06 -1.24477994e+00
      1.03455000e-02 1.24479997e+00 -1.03912000e-02 0. -4.57763999e-05
      1.52588000e-05 1.52588000e-05 -1.24479997e+00 1.03302002e-02
      -1.24477994e+00 1.03607001e-02 0. 0. -1.52588000e-05
      1.52588000e-05 1.25513005e+00 1.23440003e+00 -3.05176000e-05
      -7.62938998e-06 1.03759998e-02 1.24477005e+00 7.62938998e-06
      -7.62938998e-06 1.03455000e-02 1.24476004e+00 -1.52588000e-05
      1.14441000e-05 1.03912000e-02 1.24477005e+00 0. 0. 1.03607001e-02
      1.24476004e+00 1.03759998e-02 1.24477005e+00 1.24476004e+00
      -1.03912000e-02 7.62938998e-06 -1.52588000e-05 -1.52588000e-05
      -6.10351999e-05 -1.24477994e+00 1.03759998e-02 -1.24477994e+00
      1.03302002e-02 -1.23441005e+00 1.25513005e+00 -4.57763999e-05
      -1.52588000e-05 1.03759998e-02 1.24475002e+00 -1.24477005e+00
      1.03149004e-02 1.03912000e-02 1.24474001e+00 1.24477005e+00
      -1.04218004e-02 -1.52588000e-05 -4.57763999e-05 1.25513005e+00
      1.23439002e+00 1.24477994e+00 -1.03912000e-02 -1.23438001e+00
      1.25511003e+00 -1.23439002e+00 1.25510001e+00 -1.24479997e+00
      1.03302002e-02 -1.52588000e-05 -3.05176000e-05 1.52588000e-05
      -3.05176000e-05 -1.52588000e-05 0.</_>
    <_>
      -1.38426995e+00 -8.86670971e+00 -4.41219002e-01 -8.84195042e+00
      -7.45124996e-01 -1.12374001e+01 -3.46891999e+00 -1.23675003e+01
      -7.39308023e+00 -1.34610004e+01 -8.83106041e+00 -1.45278997e+01
      -7.80150986e+00 -1.67966003e+01 -7.90770006e+00 -1.53712997e+01
      -4.29944992e+00 -1.63864994e+01 -1.79039001e+00 -1.49466000e+01
      -1.61931002e+00 -1.22987003e+01 -2.19971001e-01 -1.08982000e+01
      2.35290993e-02 -8.31653976e+00 3.02489996e-01 -5.80035019e+00
      -6.20208979e-01 -3.30309010e+00 9.04877007e-01 -8.42934012e-01
      3.63980007e+00 3.70025992e-01 -2.23114991e+00 3.46953011e+00
      2.84261990e+00 9.60970974e+00 5.40520000e+00 1.58438997e+01
      5.40919018e+00 1.72390995e+01 6.56779003e+00 1.61779003e+01
      -1.98677003e+00 1.54391003e+01 5.20370007e-01 1.67957993e+01
      2.97236991e+00 1.69433994e+01 6.53251982e+00 1.21870003e+01
      1.24475002e+01 6.14813995e+00 5.03692999e-02 1.80991006e+00
      -7.89031982e-02 1.81283998e+00 -1.42765999e+00 1.82500994e+00
      -1.56623995e+00 1.82816994e+00 -5.90866029e-01 -2.01014996e+00
      -5.98190010e-01 -7.07138002e-01 -1.84305000e+00 -1.81534004e+00
      -1.81327999e+00 -5.03983021e-01 -3.02140999e+00 -1.62223995e+00 0.
      0. 1.04102999e-01 1.32818997e+00 -2.32224011e+00 2.71391010e+00
      -4.70351987e-02 -8.49021971e-01 -1.31541002e+00 -2.17845988e+00
      -8.07953030e-02 -1.11620998e+00 1.19239998e+00 -3.87459010e-01
      1.32441998e+00 9.49340999e-01 1.17523000e-01 2.32582998e+00 0. 0.
      -1.29565001e+00 -1.31035995e+00 -8.87755975e-02 -2.68684006e+00
      -6.01680994e+00 -1.30764999e+01 -2.15267992e+00 -5.67989016e+00
      -3.26758003e+00 -1.88462996e+00 -2.06469989e+00 -1.81032002e+00
      -2.04433990e+00 -1.72762001e+00 -4.60022020e+00 -6.44661999e+00
      -1.16070998e+00 -1.61068001e+01 -5.05259991e+00 -2.71618004e+01
      -2.70914006e+00 -3.09757996e+01 -2.71121001e+00 -3.10681000e+01
      -2.69490004e+00 -2.99412003e+01 -2.58677006e+00 -2.39652996e+01
      -3.55811000e+00 -1.18203001e+01 -2.12198997e+00 5.47195017e-01
      -2.13857007e+00 -5.88927984e-01 -2.14594007e+00 -1.72528005e+00
      -3.58245993e+00 -1.49244003e+01 -2.58006001e+00 -3.09878998e+01
      -2.59119010e+00 -3.10708008e+01 -3.79410005e+00 -2.99253998e+01</_>
    <_>
      2.61922985e-01 9.81522024e-01 1.38321996e+00 7.78320014e-01
      -3.50719005e-01 5.02213001e-01 7.44853973e-01 3.21074992e-01
      3.99051994e-01 1.26525998e-01 1.50820994e+00 -1.33972001e+00
      1.04984999e+00 1.03882000e-01 7.17773020e-01 -1.21948004e+00
      3.98131996e-01 -9.67377007e-01 1.70975000e-01 -2.09042001e+00
      -1.48009998e-03 -1.71893001e+00 -1.50506997e+00 -1.38852000e+00
      -1.47528005e+00 -9.89609003e-01 -2.74907994e+00 -6.77765012e-01
      -2.52263999e+00 -3.36014003e-01 -2.29443002e+00 -1.81808006e-02
      -3.58957005e+00 3.10473990e+00 4.12337989e-01 -1.47116005e+00
      3.78928989e-01 2.33150005e-01 2.39441007e-01 4.86965001e-01
      1.43466997e+00 7.34102011e-01 -2.53006011e-01 7.98129976e-01
      -5.67047000e-01 1.13485003e+00 -7.21237004e-01 1.42363000e+00
      4.72182989e-01 1.69464004e+00 -1.21727002e+00 1.78257000e+00
      -1.56531000e+00 3.19850993e+00 -5.74218988e-01 -6.68708980e-01
      6.14624023e-01 6.11670971e-01 -9.77737010e-01 3.70438010e-01
      2.59445012e-01 2.24083006e-01 3.44253987e-01 -1.52441001e+00
      2.21114993e-01 -1.48566997e+00 4.78058010e-02 3.64684989e-03
      2.64282003e-02 -1.29615998e+00 -1.02737002e-01 2.44644001e-01 0.
      0. 8.11005011e-03 -1.21341002e+00 -1.24153003e-01 -1.05517995e+00
      -3.91227990e-01 4.02969003e-01 -1.66121995e+00 -1.23213005e+00
      -1.57737994e+00 3.63311991e-02 3.76038015e-01 1.06231999e+00
      -1.06649995e+00 -2.01289997e-01 2.05933005e-01 -2.04048008e-02 0.
      0. 8.26262981e-02 -1.37954995e-01 1.88553005e-01 1.15626001e+00
      5.39398007e-02 7.13286996e-01 -2.83914995e+00 -6.00463986e-01
      -2.93461990e+00 -4.51476991e-01 -1.63285995e+00 -3.40499997e-01
      -1.71364999e+00 -2.26425007e-01 -3.26836991e+00 -1.59470999e+00
      -3.56667995e+00 -4.27704006e-02 -2.07456994e+00 1.20059001e+00
      -5.37734985e-01 1.06497002e+00 -1.85969996e+00 9.04388011e-01
      -2.83585012e-01 -5.38421988e-01 -1.59510005e+00 7.44216979e-01
      -1.36477995e+00 -7.04742014e-01 -1.59808004e+00 -4.82071012e-01
      -1.68806005e+00 -4.04769987e-01 -1.77990997e+00 -3.03557992e-01
      -4.92908001e+00 -1.46347001e-01 -4.14444000e-01 1.18251002e+00
      -3.33649009e-01 1.06848001e+00 -1.64640999e+00 9.44625974e-01</_>
    <_>
      3.02332014e-01 1.95249999e+00 5.92512012e-01 1.62530005e+00
      7.77541995e-01 2.68146992e+00 1.02090001e+00 2.34990001e+00
      1.30133998e+00 6.05103016e-01 -1.39541999e-02 1.54524004e+00
      -1.47816002e+00 2.43613005e+00 -1.35605007e-01 6.95679009e-01
      1.02718997e+00 3.78906012e-01 6.74468994e-01 1.09954998e-01
      1.34613007e-01 2.73961997e+00 -3.76922995e-01 4.04972982e+00
      -8.67461979e-01 5.51521015e+00 -1.22759998e+00 5.70601988e+00
      -1.33301005e-01 4.60367012e+00 -4.26696986e-01 3.44303989e+00
      -7.11609006e-01 2.31855989e+00 1.72347993e-01 -9.63847995e-01
      -1.37962997e+00 -3.82361007e+00 -1.49247003e+00 -6.79737997e+00
      -1.49147999e+00 -1.12481003e+01 -3.21736002e+00 -7.41835022e+00
      3.50021005e+00 -7.41889000e+00 1.96346998e+00 -1.04425001e+01
      3.02721000e+00 -9.18657017e+00 3.95656991e+00 -3.82286000e+00
      8.93311024e-01 1.31093001e+00 7.38570988e-01 -1.97368002e+00
      -5.11184990e-01 -8.50372016e-01 -3.62594992e-01 3.44040006e-01
      -1.42913997e-01 1.40166998e-01 1.78268000e-01 2.40890995e-01
      1.33895993e-01 8.32671970e-02 1.39332998e+00 1.39291000e+00
      1.24879003e+00 1.29680002e+00 1.08928001e+00 1.23474002e+00 0. 0.
      -1.45177996e+00 -2.92129993e+00 -2.04308003e-01 -3.00590992e+00
      9.42856014e-01 1.03220999e+00 -2.89649993e-01 1.08279002e+00
      -1.49482995e-01 1.22572005e+00 3.38806003e-01 1.81421995e+00
      3.22403014e-01 -2.44922996e+00 1.58051002e+00 -2.52102995e+00 0.
      0. 1.55561996e+00 1.56562999e-01 2.84714013e-01 2.38997996e-01
      -3.41087008e+00 -1.53346002e+00 -2.19333005e+00 -1.55002999e+00
      -9.60846007e-01 -1.60060000e+00 -1.08904004e+00 -3.49258006e-01
      3.03230000e+00 -1.63037002e+00 2.87224007e+00 -4.17450011e-01
      2.81943011e+00 -6.11281991e-01 2.98026991e+00 8.32184017e-01
      3.14818001e+00 9.30481017e-01 3.99475008e-01 2.30387998e+00
      -8.47168028e-01 9.83642995e-01 -7.10434020e-01 -2.31445000e-01
      -3.47455001e+00 -1.61020994e+00 -1.00064003e+00 1.11104000e+00
      3.04244995e-01 1.04361999e+00 1.59422004e+00 1.01014996e+00
      4.27081013e+00 -4.76195991e-01 3.00528002e+00 1.07062995e+00
      3.17061990e-01 1.03298998e+00 -9.29534972e-01 -2.87200987e-01</_>
    <_>
      1.53741002e+00 -2.45727992e+00 1.31849003e+00 -4.60375977e+00
      8.84406984e-01 -4.48355007e+00 4.91917014e-01 -5.47165012e+00
      -2.14721990e+00 -6.50483990e+00 -1.71740997e+00 -7.24522018e+00
      -2.61788988e+00 -7.86303997e+00 -2.52200007e+00 -8.21918011e+00
      -3.05404991e-01 -8.13605022e+00 8.09067011e-01 -7.75040007e+00
      1.07451999e+00 -9.29891968e+00 -7.20077991e-01 -9.60422993e+00
      -1.14426005e+00 -9.69211006e+00 -3.51602006e+00 -7.58458996e+00
      -4.69995022e+00 -6.51381016e+00 -5.92535019e+00 -4.33474016e+00
      -5.94799995e+00 -1.02187002e+00 -3.11775003e-02 -2.89276004e+00
      5.63232005e-01 -2.23883009e+00 -6.21413998e-02 -5.19934988e+00
      1.57967001e-01 -5.08740997e+00 -1.84773004e+00 -3.09208012e+00
      -1.84210002e+00 -3.92027998e+00 -1.42666996e+00 -5.65891981e+00
      -1.23205996e+00 -4.30264997e+00 -1.07714999e+00 -2.11413002e+00
      -2.85785007e+00 -2.59353995e+00 -1.48499000e+00 -1.47979999e+00
      -1.60732996e+00 -2.22394991e+00 -1.73717999e+00 -1.86377001e+00
      -7.55280018e-01 -2.60039997e+00 -1.11563003e+00 -3.31644011e+00
      -4.31472987e-01 -3.36273003e+00 -1.99394000e+00 -3.45409989e+00
      -1.39121997e+00 -2.14599991e+00 -1.73768997e+00 -3.03608990e+00 0.
      0. 6.26304984e-01 3.39836001e-01 -9.88098025e-01 3.92502010e-01
      -1.55276000e+00 -8.85612011e-01 8.35876018e-02 -1.04429996e+00
      -4.43031013e-01 -2.29242992e+00 -6.00356996e-01 -4.11879987e-01
      -4.55932990e-02 1.07428002e+00 -1.69402003e+00 1.13097000e+00 0.
      0. -6.26296997e-01 -3.39836001e-01 -1.19051003e+00 -4.45648015e-01
      -4.83451992e-01 -8.18397999e+00 -2.10022998e+00 -9.02754021e+00
      -2.57869005e+00 -9.86758041e+00 -1.89049995e+00 -9.87985039e+00
      -3.59192006e-02 -9.65054035e+00 -1.87516999e+00 -6.53699017e+00
      -2.65140009e+00 -6.68670988e+00 -8.99093986e-01 -7.03150988e+00
      -3.78585994e-01 -6.12747002e+00 -3.21985006e+00 -7.41267014e+00
      -3.91605997e+00 -7.46837997e+00 -2.28160000e+00 -7.35102987e+00
      -7.63077021e-01 -7.04753017e+00 -2.74349999e+00 -6.88270998e+00
      -2.00979996e+00 -7.96927977e+00 9.15114999e-01 -7.72839022e+00
      -2.40937996e+00 -6.68081999e+00 -1.06078997e-01 -9.95258999e+00
      -1.92264998e+00 -1.01519003e+01 -2.61485004e+00 -1.01736002e+01</_>
    <_>
      1.50366998e+00 -7.97588015e+00 1.51075006e+00 -7.32102013e+00
      1.50064003e+00 -6.68068981e+00 2.64679015e-01 -7.12032986e+00
      1.32568002e+00 -5.33910990e+00 3.27376984e-02 -2.27284002e+00
      -1.33423996e+00 8.63556027e-01 -1.73658001e+00 6.41570985e-01
      -4.40061998e+00 2.99179006e+00 -7.15090990e+00 3.17505002e+00
      -7.44802999e+00 5.72594023e+00 -5.55551004e+00 4.84741020e+00
      -4.70938015e+00 4.07287979e+00 -2.56992006e+00 4.42054987e+00
      -2.70618010e+00 2.60953999e+00 -1.67963004e+00 7.48710990e-01
      -1.67263997e+00 1.21171999e+00 1.50969994e+00 2.72742987e-01
      1.22326005e+00 -6.62388027e-01 8.92554998e-01 -6.02595985e-01
      6.00960016e-01 4.93010014e-01 -7.62679994e-01 2.71790004e+00
      8.45153987e-01 1.49565995e+00 -6.42562985e-01 5.33617020e-01
      -2.04000998e+00 1.78614998e+00 -2.42534995e+00 -5.15528023e-01
      -2.74465990e+00 -2.98259997e+00 -2.77405009e-02 5.02891988e-02
      1.12305004e-02 8.94309998e-01 -4.53949012e-02 -5.39734006e-01
      -5.61675988e-02 -8.58582020e-01 3.01620007e-01 -2.53295992e-02
      -9.92232978e-01 -1.24968998e-02 -2.38799993e-02 -9.39026028e-02
      -1.32693005e+00 -3.35693010e-04 -2.61414003e+00 9.18731987e-02 0.
      0. 9.49935973e-01 8.00018013e-02 1.82436001e+00 2.24686004e-02
      5.20690978e-01 1.05932999e+00 7.54791021e-01 9.91675973e-01
      1.01012003e+00 9.86182988e-01 -4.98778999e-01 -3.80019993e-02
      4.39301014e-01 9.09691006e-02 1.85317993e-01 1.12319998e-01 0. 0.
      1.96502998e-01 1.00662005e+00 -6.79244995e-01 1.04826999e+00
      5.63837004e+00 7.16765022e+00 1.68010998e+00 1.72922003e+00
      1.25870004e-01 -1.54530001e+00 -2.29958010e+00 -3.50234985e-01
      -2.48737001e+00 -3.02444011e-01 -3.83332992e+00 8.01864982e-01
      -7.23495007e+00 7.69037008e+00 -3.46042991e+00 9.61118031e+00
      -2.01771998e+00 1.06089001e+01 -1.76422000e+00 1.17227001e+01
      -1.60363996e+00 1.05901003e+01 9.37752008e-01 1.05843000e+01
      6.60855007e+00 5.96703005e+00 -8.30031991e-01 2.86748004e+00
      -2.20275998e+00 1.75188994e+00 -1.21238995e+00 2.88362002e+00
      -9.45032024e+00 6.62965012e+00 -2.18621993e+00 6.32271004e+00
      -1.94859004e+00 7.43775988e+00 -6.24328971e-01 7.40640020e+00</_>
    <_>
      -8.76274034e-02 -1.71481001e+00 -3.38324010e-01 -4.26048011e-01
      -5.89004993e-01 8.62716973e-01 -8.50075006e-01 9.17235970e-01
      -1.08984005e+00 1.01339996e+00 -7.38297030e-02 -7.25860968e-02
      -1.50516999e+00 1.38199002e-01 -1.66014004e+00 3.69659007e-01
      -2.95488000e+00 -5.92315972e-01 -2.90008998e+00 9.44945991e-01
      -2.75173998e+00 -7.09991008e-02 -2.55132008e+00 1.37085998e+00
      -2.33034992e+00 1.52593994e+00 -2.08905005e+00 1.60757005e+00
      -1.82720995e+00 1.64719999e+00 -3.20740014e-01 1.66593003e+00
      -6.95189983e-02 1.68474996e+00 1.54694006e-01 -2.62820989e-01
      1.54700994e+00 -1.38334000e+00 1.63226998e+00 -1.19578004e+00
      1.62356997e+00 -9.86486018e-01 2.96752989e-01 4.57767010e-01
      2.99376994e-01 7.71564007e-01 -8.60077024e-01 -2.75213003e-01
      -8.47869992e-01 -6.61068037e-02 -9.19510007e-01 1.22786999e-01
      1.69373006e-01 2.39173993e-01 1.31276000e+00 -6.28211975e-01
      1.11403000e+00 -6.26541018e-01 -3.18984985e-01 -6.14494026e-01
      -5.17714977e-01 -6.12807989e-01 6.10473990e-01 -8.00109982e-01
      -6.75400019e-01 -7.05627024e-01 -7.06008971e-01 -6.11236989e-01
      -6.73828006e-01 -5.17364979e-01 6.13541007e-01 -4.34020996e-01 0.
      0. 1.30835998e+00 -1.15120995e+00 7.52563030e-02 -1.00485003e+00
      1.34429997e-02 3.55545014e-01 -2.94495001e-02 2.30377004e-01
      1.20378006e+00 -1.15032995e+00 7.46155018e-03 -3.55728000e-01
      1.31592000e+00 -2.51655996e-01 1.31708002e+00 -1.15668997e-01 0.
      0. -4.26940992e-02 -1.04240000e-01 -3.33862007e-02 -2.40310997e-01
      -2.25739002e+00 -9.95682001e-01 -9.38216984e-01 -8.60351980e-01
      -2.13998008e+00 -7.14232981e-01 -2.18083000e+00 -5.98846018e-01
      -9.03778017e-01 -4.94507015e-01 -2.18918991e+00 -3.47716987e-01
      -2.24025011e+00 -2.00820997e-01 -2.34598994e+00 -3.35938007e-01
      -1.16518998e+00 -4.81842011e-01 -1.18706000e+00 -1.84154999e+00
      -2.41201997e+00 -7.22411990e-01 -1.10557997e+00 -8.58916998e-01
      -2.25686002e+00 -9.32937980e-01 -1.01031005e+00 -7.23739982e-01
      -2.27498007e+00 -5.98038018e-01 -2.25307989e+00 -4.83170003e-01
      -2.25115991e+00 -2.53035992e-01 -2.26355004e+00 -4.83078003e-01
      -2.28544998e+00 -5.97945988e-01 -2.26547003e+00 -7.13181019e-01</_>
    <_>
      2.83046991e-01 -7.32352972e-01 4.69969004e-01 -9.80880976e-01
      5.97630024e-01 -2.32505989e+00 7.68871009e-01 -2.58710003e+00
      8.42781007e-01 -3.96402001e+00 -1.90230995e-01 -4.24672985e+00
      -1.92656994e-01 -4.57658005e+00 -1.35807002e+00 -4.86420012e+00
      -4.34691995e-01 -4.08197021e+00 3.34030002e-01 -5.38565016e+00
      8.13445970e-02 -3.25483990e+00 -2.53098011e-01 -3.21534991e+00
      -5.54015994e-01 -3.11971998e+00 -8.21442008e-01 -2.96788001e+00
      2.57262997e-02 -2.81803989e+00 -2.02515006e-01 -2.63243008e+00
      -3.78264993e-01 -1.34335005e+00 3.15628004e+00 -3.02817011e+00
      1.89782000e+00 -1.90081000e+00 6.16263986e-01 -1.97448003e+00
      -6.19049013e-01 -2.11753988e+00 -1.80495000e+00 -2.28626990e+00
      1.15056002e+00 -2.68144011e+00 9.25261974e-01 -2.75273991e+00
      -1.43949997e+00 -2.79740000e+00 -1.54890001e+00 -2.98728991e+00
      -2.63947010e+00 -3.15577006e+00 4.97635007e-01 5.79140007e-01
      -4.79506999e-01 -6.31798029e-01 7.15408027e-01 -1.92312002e+00
      -2.98568994e-01 -4.22406006e+00 1.12522995e+00 -2.03417993e+00
      1.08065999e+00 -2.14087009e+00 -1.12106003e-01 -3.29181004e+00
      -2.26334006e-01 -3.34934998e+00 -3.24950993e-01 -3.39338994e+00 0.
      0. -1.21993995e+00 -3.41949016e-02 -1.34526002e+00 -1.42258003e-01
      -2.50336003e+00 -2.32391000e-01 -1.23309004e+00 8.76143992e-01
      -6.24160990e-02 -1.49368003e-01 1.37655997e+00 -8.20755005e-01
      1.42029002e-01 -8.53882015e-01 1.15699995e+00 7.55385980e-02 0. 0.
      1.18096995e+00 -1.08494997e+00 1.34310997e+00 1.13098003e-01
      2.65984988e+00 -2.20665002e+00 2.40576005e+00 -4.44658995e+00
      1.20020998e+00 -3.39648008e+00 5.89141995e-02 -3.45850992e+00
      1.02675998e+00 -3.55964994e+00 9.41971004e-01 -3.71467996e+00
      -2.11532995e-01 -3.84180999e+00 1.07701004e+00 -3.87137008e+00
      2.33285999e+00 -3.84717011e+00 1.35931003e+00 -3.72361994e+00
      1.47555995e+00 -2.55151010e+00 1.54689002e+00 -2.38077998e+00
      2.57493997e+00 -3.35175991e+00 1.28802001e+00 -3.49832010e+00
      1.76772997e-01 -2.46254992e+00 3.24249007e-02 -3.61788988e+00
      9.33288991e-01 -3.83137989e+00 1.12241995e+00 -3.65472007e+00
      1.22993004e+00 -3.58936000e+00 1.33940005e+00 -2.40942001e+00</_>
    <_>
      1.54505000e-01 -1.28899002e+00 -4.12559994e-02 -1.49282002e+00
      -2.87400991e-01 -1.67623997e+00 -5.33843994e-01 -1.84543002e+00
      -8.09409976e-01 -1.98661995e+00 -1.08611000e+00 -2.07076001e+00
      -1.37768996e+00 -2.12659001e+00 -1.64959002e+00 -1.03270996e+00
      -4.01546001e+00 -8.87695014e-01 -4.17762995e+00 -6.33971989e-01
      -3.17711997e+00 7.28255987e-01 -3.16911006e+00 2.09904003e+00
      -3.09632993e+00 1.32239997e+00 -2.98055005e+00 2.65967989e+00
      -1.73648000e+00 1.85674000e+00 -4.92157012e-01 1.03945994e+00
      -2.74901986e-01 1.80069000e-01 1.34139001e+00 3.42102014e-02
      3.02558988e-01 -8.43394995e-01 1.85028002e-01 3.82090002e-01
      1.09615004e+00 -5.48977017e-01 9.16068971e-01 -1.53060997e+00
      6.38671994e-01 -1.65573001e-01 5.63202024e-01 -1.02374005e+00
      1.48752999e+00 -8.40892971e-01 1.29980004e+00 3.26056987e-01
      1.10001004e+00 3.22032988e-01 6.02401972e-01 1.63266003e+00
      4.76547003e-01 1.50160003e+00 1.42139995e+00 3.14224005e-01
      1.28857005e+00 1.75918996e-01 2.73597986e-01 -1.15828998e-01
      1.65252998e-01 -5.37872016e-02 4.96520996e-02 1.52740004e-02
      -1.69983003e-02 1.35284007e-01 -9.06829983e-02 2.48032004e-01 0.
      0. 1.01782000e+00 1.49039999e-01 9.22820985e-01 -8.02321970e-01
      7.50481009e-01 3.07846010e-01 8.31710994e-01 1.73828006e-01
      9.33914006e-01 6.16836995e-02 2.91579992e-01 7.62580991e-01
      2.38297001e-01 9.25709009e-01 1.22115999e-01 1.02330995e+00 0. 0.
      1.09445000e+00 9.50119019e-01 1.68578997e-01 -2.17903003e-01
      7.55539015e-02 5.01236022e-01 -1.01365995e+00 -3.55987996e-01
      -1.07573997e-02 -1.23522997e+00 -1.17525005e+00 -1.30783007e-01
      -1.24161005e+00 -2.50549000e-02 -3.50800008e-01 5.00335991e-02
      -5.72556019e-01 2.19430995e+00 -5.89309990e-01 4.08572006e+00
      -1.57081997e+00 2.84520006e+00 -1.50463998e+00 3.81024003e+00
      -2.47378993e+00 3.72645998e+00 -2.30091000e+00 2.58773994e+00
      1.06657004e+00 5.64072013e-01 -1.18587005e+00 -1.37314999e+00
      -1.26591003e+00 -1.29624999e+00 -1.34630001e+00 -1.20506001e+00
      -5.06851017e-01 1.06058002e+00 -3.60473990e-01 3.00524998e+00
      -1.35064006e+00 2.89958000e+00 -1.26355004e+00 2.82998991e+00</_>
    <_>
      -2.31177998e+00 1.00964999e+00 -2.00665995e-01 9.21187997e-01
      8.01600993e-01 2.07003999e+00 1.74045002e+00 2.05366993e+00
      2.63489008e+00 9.02114987e-01 2.44899011e+00 1.03270996e+00
      1.02406001e+00 -1.05331004e+00 -3.10584992e-01 -1.94498003e+00
      -1.50594997e+00 -1.63135004e+00 -2.62086010e+00 -1.31006002e+00
      -2.36811996e+00 1.23856997e+00 -2.13463998e+00 2.58559990e+00
      -3.09677005e+00 2.76378012e+00 -1.64716005e+00 3.92262006e+00
      -2.47558996e-01 3.89105010e+00 3.99474986e-02 5.06517982e+00
      2.14782998e-01 3.89158010e+00 1.78142995e-01 9.62170005e-01
      2.45155007e-01 -9.68170017e-02 2.78679013e-01 7.51056969e-02
      1.41428006e+00 1.90066993e-01 2.51754999e+00 3.00368994e-01
      -2.19814992e+00 -3.72913003e-01 -2.10942006e+00 -2.06618994e-01
      -2.05061007e+00 -2.13527996e-02 -8.97643983e-01 1.07776999e-01
      -1.01089001e+00 2.46891007e-01 -1.10082996e+00 6.14760995e-01
      -1.41051993e-01 -5.99318981e-01 -1.44983995e+00 -5.37140012e-01
      -1.66389000e+00 -1.69489002e+00 -5.69778025e-01 -7.38770008e-01
      -5.29846013e-01 5.08499026e-01 -5.44632018e-01 5.97687006e-01
      -1.73987997e+00 -4.11835015e-01 -5.41306019e-01 -3.83011013e-01 0.
      0. 1.01851998e-02 -1.06911004e+00 -4.82100993e-02 -2.10725999e+00
      -6.81610033e-02 -8.21968019e-01 -4.13284004e-02 2.19420999e-01
      -1.21150994e+00 1.55823007e-01 -3.55071984e-02 -3.47068995e-01
      -1.17393005e+00 -1.34648001e+00 4.97436989e-03 -1.27578998e+00 0.
      0. 5.56945987e-03 1.06747997e+00 -1.16543996e+00 9.95994985e-01
      6.54229021e+00 6.91866016e+00 5.31839991e+00 4.77226019e+00
      1.68334997e+00 1.57332003e+00 -6.69723988e-01 1.79015005e+00
      -2.95967007e+00 2.00049996e+00 -7.52965021e+00 4.69980001e+00
      -9.66444016e+00 9.62088013e+00 -7.59244013e+00 5.87793016e+00
      -4.26651001e+00 3.25010991e+00 -8.43231022e-01 1.80791998e+00
      1.49322999e+00 1.58478999e+00 5.13664007e+00 3.61916995e+00
      6.48451996e+00 5.80867004e+00 2.76174998e+00 1.51880002e+00
      -7.40692019e-01 1.79742002e+00 -2.99009991e+00 3.18329000e+00
      -9.73348999e+00 8.40044975e+00 -4.15609980e+00 3.23878002e+00
      -7.40692019e-01 1.79742002e+00 1.65997005e+00 2.74741006e+00</_>
    <_>
      -1.68166995e+00 1.76765001e+00 -1.43488002e+00 6.64352000e-01
      1.58819997e+00 -4.73861992e-01 3.27372003e+00 -2.53098011e-01
      2.22709990e+00 -2.80985999e+00 1.27015996e+00 -1.31166005e+00
      3.22479010e-01 -1.27664006e+00 7.20229983e-01 -1.36654997e+00
      -3.26247990e-01 -1.62616003e+00 1.33295000e+00 -6.27533019e-01
      2.80805993e+00 -1.05287004e+00 1.43779004e+00 -1.46441996e+00
      2.72983003e+00 -5.25207996e-01 2.53793001e+00 -8.86107981e-01
      2.31323004e+00 -1.18910003e+00 2.08931994e+00 -8.63875970e-02
      1.82007003e+00 -3.42545003e-01 -3.29627991e-01 1.44823003e+00
      -3.07816005e+00 1.21960998e+00 -1.70745999e-01 -4.30038005e-01
      -1.30631995e+00 -5.96010029e-01 -1.04674995e+00 -7.28191018e-01
      6.36794984e-01 -1.04446006e+00 7.67624021e-01 -1.29913998e+00
      -4.26865011e-01 -1.60786003e-01 1.15684998e+00 -1.73170996e+00
      1.45404005e+00 -3.56254995e-01 -7.37151980e-01 -2.06165004e+00
      -5.61325014e-01 -5.11718988e-01 -3.96896005e-01 -3.32953990e-01
      -1.58053994e+00 1.23942995e+00 1.10214996e+00 2.01095998e-01
      -1.34002998e-01 1.50048995e+00 7.62938987e-04 1.40572000e+00
      8.87451023e-02 1.26638997e+00 1.77031994e-01 -2.32970998e-01 0. 0.
      -1.33003998e+00 -1.72562003e-01 -1.17412996e+00 -3.36441010e-01
      -9.69291985e-01 -1.74728000e+00 -1.03341997e+00 1.18008006e+00
      -1.18937004e+00 1.34395003e+00 9.93668020e-01 4.32365000e-01
      1.02231002e+00 -1.16837001e+00 1.17823994e+00 -1.33223999e+00 0.
      0. 1.33004999e+00 1.72562003e-01 1.15109003e+00 -1.04586005e+00
      -6.02798015e-02 7.90054023e-01 2.72180009e+00 -8.45016003e-01
      6.53839037e-02 3.29802990e-01 2.23541006e-01 2.57308990e-01
      2.99820006e-01 1.06826998e-01 5.14815986e-01 2.14690994e-02
      2.12502003e+00 -3.01207993e-02 2.12013006e+00 2.32864007e-01
      6.74621999e-01 1.84605002e+00 1.92307997e+00 5.80642998e-01
      1.78887999e+00 6.98288023e-01 1.57381999e+00 7.83630013e-01
      1.76772997e-02 7.08176017e-01 1.58870995e+00 4.63241994e-01
      1.72350001e+00 3.68454009e-01 1.82312000e+00 2.40294993e-01
      2.04703999e+00 5.18036000e-02 4.40842003e-01 2.63321012e-01
      3.18145990e-01 -9.90828991e-01 2.06435993e-01 4.86281991e-01</_>
    <_>
      -2.22627997e+00 8.66195965e+00 -8.78764987e-01 6.88871002e+00
      -9.07851994e-01 8.02408028e+00 4.65808988e-01 7.69243002e+00
      2.95608997e-01 4.53213978e+00 1.40457004e-01 4.28283978e+00
      -1.54453003e+00 2.65999007e+00 1.00697005e+00 -4.40674007e-01
      -7.71071970e-01 -1.87811005e+00 -1.09085000e+00 -1.83513999e+00
      -1.33981001e+00 -2.37014994e-01 -1.49628997e+00 2.83776999e+00
      -1.61081004e+00 5.97473001e+00 -3.12570000e+00 6.31398010e+00
      -4.54962015e+00 8.10422993e+00 -3.15636992e+00 8.37705994e+00
      -3.13930988e+00 1.01283998e+01 9.80072021e-02 -5.59692001e+00
      1.87683001e-03 -4.03279018e+00 -3.18600011e+00 -8.20300961e+00
      -4.84667015e+00 -8.17798996e+00 -8.00257969e+00 -1.10358000e+01
      6.03254986e+00 -1.14308004e+01 4.41567993e+00 -9.87500000e+00
      1.39406002e+00 -6.89069986e+00 -1.90810993e-01 -4.02240992e+00
      -1.80562997e+00 -4.10294008e+00 6.72088981e-01 -2.83200002e+00
      2.14365005e+00 -1.58421004e+00 3.57623005e+00 -1.77728999e+00
      2.13985991e+00 -1.89320004e+00 3.83821011e+00 6.95205986e-01
      2.26776004e+00 -7.14766979e-01 2.20252991e+00 7.05963016e-01
      6.21307015e-01 -6.64734006e-01 -2.31082010e+00 8.71749997e-01 0.
      0. -1.59129000e+00 -1.31865001e+00 -3.17420989e-01 -1.34862006e+00
      -1.80155003e+00 1.47560000e+00 -1.95357993e-01 2.83210993e+00
      -8.01391974e-02 1.38290000e+00 4.62906003e-01 1.41807997e+00
      -1.14055002e+00 1.12961002e-01 -1.33434999e+00 -1.33248997e+00 0.
      0. 1.64673001e-01 1.38259995e+00 3.57742012e-01 2.81522012e+00
      -1.58912003e+00 3.26794004e+00 -3.61443013e-01 1.90056002e+00
      -5.64651012e-01 5.20003974e-01 7.58575022e-01 4.48792011e-01
      2.04697990e+00 -9.86343026e-01 1.90260005e+00 4.00040001e-01
      -1.07384002e+00 3.26599002e+00 3.86992991e-01 -2.62333989e+00
      3.43303990e+00 -2.76161003e+00 2.15885997e+00 -1.30154002e+00
      -6.32049978e-01 -2.64578009e+00 -3.97942007e-01 2.66281009e-01
      -1.62723994e+00 4.71299982e+00 9.86159980e-01 4.67534018e+00
      9.20943975e-01 6.09604979e+00 2.19513988e+00 4.63600016e+00
      -9.57840025e-01 4.70271015e+00 3.40309000e+00 -4.03551006e+00
      6.88018978e-01 -2.53650999e+00 2.23305011e+00 -2.55524993e+00</_>
    <_>
      -2.96275997e+00 -5.06081009e+00 -3.18946004e+00 -4.81066990e+00
      -3.39018989e+00 -4.55327988e+00 -3.58197999e+00 -4.28779984e+00
      -3.68716002e+00 -2.78051996e+00 -4.92371988e+00 -2.41250992e+00
      -3.58577991e+00 -8.90747011e-01 -3.40788007e+00 6.45416021e-01
      -7.41867006e-01 8.81408989e-01 -4.39835012e-01 1.12258995e+00
      -8.29925984e-02 2.47921991e+00 1.44632006e+00 1.29456997e+00
      5.57036996e-01 1.26143003e+00 8.47075999e-01 1.08501005e+00
      1.10058999e+00 8.59176993e-01 1.25884995e-01 6.51015997e-01
      3.09814006e-01 -8.17505002e-01 -4.97842979e+00 -2.65733004e+00
      -6.01077986e+00 -5.08174992e+00 -5.82467985e+00 -6.15777016e+00
      -5.63622999e+00 -5.97070980e+00 -5.41187000e+00 -2.09833002e+00
      4.54042006e+00 -3.30419993e+00 3.49861002e+00 -5.57453012e+00
      4.92330980e+00 -5.41408014e+00 5.10516024e+00 -3.97204995e+00
      1.57125998e+00 1.66969001e-02 -1.80655003e+00 -6.36718988e-01
      -7.33901978e-01 -5.18715024e-01 -8.63418996e-01 -3.75800997e-01
      -1.00997996e+00 -2.32032999e-01 -2.63358998e+00 -2.70425010e+00
      -1.30569005e+00 -1.38676000e+00 -2.41609001e+00 -1.22983003e+00
      -2.27481008e+00 -1.13434994e+00 -2.14248991e+00 -1.04697001e+00 0.
      0. -1.02066004e+00 1.28772998e+00 -2.12276006e+00 2.23769993e-01
      -9.10094976e-01 -2.02075005e+00 -2.28764009e+00 -2.08963990e+00
      -9.99451033e-04 -2.27879000e+00 8.00231993e-01 -3.89229000e-01
      2.28592992e+00 2.05558991e+00 -8.75854027e-03 2.25367999e+00 0. 0.
      1.04560995e+00 -8.54950026e-02 9.10781980e-01 -2.23984003e-01
      -6.06476009e-01 -1.83562994e-01 -1.63567996e+00 -1.32790995e+00
      -1.42630005e+00 -1.23579001e+00 -2.56177998e+00 -1.06904995e+00
      -2.38751006e+00 2.19696000e-01 -2.26553011e+00 4.44153011e-01
      2.86406994e-01 3.04998994e+00 -2.38320994e+00 3.08728004e+00
      -2.61916995e+00 1.75887001e+00 -1.55882001e+00 4.09485012e-01
      -1.67583001e+00 2.87185997e-01 -1.75416994e+00 1.29814005e+00
      -5.43097973e-01 -1.09879002e-01 -1.58159995e+00 -2.31208992e+00
      -1.44780004e+00 -9.78653014e-01 -2.53386998e+00 -8.48510981e-01
      -2.21455002e+00 3.04483008e+00 -1.24693000e+00 1.54636002e+00
      -2.62426996e+00 2.65518010e-01 -1.51387000e+00 1.08505003e-01</_>
    <_>
      3.35216999e+00 1.09759998e+01 2.33467007e+00 9.41746044e+00
      2.28927994e+00 8.99512005e+00 2.26289010e+00 7.49870014e+00
      3.33544993e+00 5.01300001e+00 4.30067015e+00 2.55479002e+00
      3.92297006e+00 3.32898998e+00 1.33264005e+00 4.05822992e+00
      -1.72745004e-01 3.92708993e+00 -2.73342991e+00 3.84426999e+00
      -4.11616993e+00 2.88512993e+00 -4.45638990e+00 3.13509989e+00
      -1.60900998e+00 5.79926014e+00 -6.98669016e-01 6.24392986e+00
      -8.33800972e-01 6.64661980e+00 -1.00216997e+00 8.13496971e+00
      -2.14266992e+00 8.48701954e+00 -6.57997012e-01 -9.06383991e-01
      -1.93616998e+00 -1.86717999e+00 -1.14944005e+00 -2.86430001e+00
      -1.49470997e+00 -2.92793012e+00 -4.16276979e+00 7.55653009e-02
      2.05088997e+00 -1.76619995e+00 2.90398002e+00 -3.79310012e+00
      2.50272012e+00 -2.68232012e+00 2.05081010e+00 -5.66141009e-01
      -3.40027004e-01 -8.91391993e-01 -3.43170017e-02 1.58309992e-02
      -2.19420996e-02 -2.17612997e-01 -1.26358002e-01 1.70159996e+00
      -1.12625003e-01 1.45524001e+00 -8.25133979e-01 1.11031997e+00
      9.14153978e-02 1.13826001e+00 -8.76464993e-02 1.10573006e+00
      -1.87454000e-01 4.48302999e-02 -2.74475008e-01 -1.01468003e+00 0.
      0. -9.06829983e-02 -2.04475999e+00 -4.40865010e-01 9.55504999e-02
      4.39621001e-01 -2.39410009e-02 6.52846992e-01 -6.59637004e-02
      -1.83562994e-01 -1.11267000e-01 -3.83621007e-01 -1.15047002e+00
      -5.96619010e-01 -9.91028011e-01 -7.70981014e-01 -2.08614993e+00 0.
      0. -8.31984997e-01 -1.22533000e+00 4.84221995e-01 -1.15392995e+00
      -3.66908002e+00 -6.86034977e-01 -2.68099999e+00 -3.77436996e+00
      -1.78103995e+00 -4.73308992e+00 2.46932998e-01 -4.66905022e+00
      3.34917998e+00 -4.46865988e+00 5.28970003e+00 -4.44019985e+00
      3.81031990e+00 -1.39224005e+00 5.08292007e+00 -3.79851997e-01
      3.08446002e+00 5.44143975e-01 -1.24450997e-01 2.52354002e+00
      -3.16038990e+00 1.29332995e+00 -4.01668978e+00 1.31106997e+00
      -3.87743998e+00 1.46970999e+00 -1.93999004e+00 -1.65235996e+00
      1.44226000e-01 -2.64535999e+00 3.24792004e+00 -2.45777988e+00
      3.90054011e+00 -1.38240004e+00 3.19027996e+00 -1.38792002e+00
      -9.25629020e-01 -2.70299006e+00 -3.00984001e+00 -1.71003997e+00</_>
    <_>
      8.18999958e+00 3.63562012e+00 8.56692982e+00 3.25179005e+00
      8.91938019e+00 1.46815002e+00 1.04928999e+01 1.14014995e+00
      1.06020002e+01 -6.64810002e-01 1.30272999e+01 -9.18213010e-01
      1.06955004e+01 -1.17154002e+00 9.46817970e+00 -1.15648997e+00
      6.43523979e+00 -3.48196006e+00 1.76231003e+00 -4.16119003e+00
      -1.50390995e+00 -4.10415983e+00 -3.16336012e+00 -5.03418016e+00
      -4.69927979e+00 -4.01631021e+00 -4.45593023e+00 -3.99496007e+00
      -5.40609980e+00 -2.38631010e+00 -4.91625977e+00 -7.00515985e-01
      -5.79552984e+00 9.38849986e-01 2.59643006e+00 3.13606001e-02
      2.48970002e-01 -3.68074989e+00 -9.15031016e-01 -6.62714005e+00
      -2.14424992e+00 -8.54934025e+00 -3.34334993e+00 -8.01688957e+00
      3.47566009e+00 -1.11218996e+01 3.50203991e+00 -1.25417995e+01
      6.01409972e-01 -1.02213001e+01 -7.88986027e-01 -5.26745987e+00
      -5.77545023e+00 -3.76729989e+00 1.41295004e+00 -7.34405994e-01
      3.16582990e+00 -3.11066002e-01 2.10973001e+00 -1.12915002e-02
      2.52428007e+00 2.94746011e-01 6.60140991e+00 2.73626995e+00
      4.75757980e+00 2.23136997e+00 2.81216002e+00 1.76668000e+00
      7.13057995e-01 1.65630996e+00 -2.83224010e+00 2.93945003e+00 0. 0.
      -6.52244985e-01 -4.02944994e+00 1.31576002e+00 -4.10222006e+00
      1.85825002e+00 -4.99206990e-01 1.12009001e+00 3.72719002e+00
      -8.47899973e-01 3.79993010e+00 -4.94812012e-01 -5.09247005e-01
      1.55095005e+00 -4.54749012e+00 3.53397012e+00 -3.39288998e+00 0.
      0. 2.01566005e+00 3.02099991e+00 1.47255003e+00 1.94356000e+00
      1.29633999e+00 2.83536005e+00 1.78803003e+00 1.70146000e+00
      2.42708993e+00 1.68386996e+00 4.84160995e+00 1.55223000e+00
      5.72404003e+00 1.55596995e+00 6.35934019e+00 2.42080998e+00
      5.62241983e+00 1.59609997e+00 6.47220993e+00 4.49038982e+00
      5.82686996e+00 5.97864008e+00 3.54468989e+00 5.99934006e+00
      2.60083008e+00 6.13730001e+00 5.16151011e-01 5.02286005e+00
      9.05005991e-01 4.22323990e+00 2.48790002e+00 4.06772995e+00
      3.50889993e+00 2.48977995e+00 5.79114008e+00 2.46910000e+00
      4.50609016e+00 1.74346995e+00 5.66759014e+00 5.27812004e+00
      3.38538003e+00 5.29879999e+00 2.41704988e+00 4.03697014e+00</_>
    <_>
      -1.27899003e+00 1.03085005e+00 -1.86601996e+00 1.24528003e+00
      -1.13293004e+00 1.46281004e+00 -3.70299995e-01 1.69693005e+00
      -9.00184989e-01 1.67126000e+00 -1.54039001e+00 2.67230010e+00
      -2.22872996e+00 3.41298008e+00 -3.89396995e-01 4.29094982e+00
      -2.03933999e-01 6.10577011e+00 1.51769996e+00 4.07958984e+00
      1.36098003e+00 4.49693012e+00 2.62473989e+00 2.52446008e+00
      2.44963002e+00 -7.61840999e-01 1.96140003e+00 -2.59127998e+00
      1.46887004e+00 -5.58939981e+00 7.30163991e-01 -6.00449991e+00
      1.28393996e+00 -6.15984011e+00 -3.48949003e+00 -1.68265998e-02
      -1.29559004e+00 1.06039000e+00 -1.56174004e+00 4.37091017e+00
      -2.12914005e-01 6.60617018e+00 1.21688999e-01 7.53282022e+00
      2.04178005e-01 1.02229004e+01 -9.87640023e-01 8.19248009e+00
      -4.39498991e-01 3.75743008e+00 1.46078002e+00 8.59700978e-01
      3.25535989e+00 7.79448986e-01 1.15982004e-01 3.25311995e+00
      7.72781014e-01 2.22257996e+00 1.41663003e+00 1.14586997e+00
      1.96511996e+00 1.41517997e+00 1.04716003e+00 6.27258003e-01
      1.20951998e+00 4.07454997e-01 1.26357996e+00 1.48752999e+00
      2.60756993e+00 1.30964994e+00 2.78960991e+00 -2.59795994e-01 0. 0.
      1.05839002e+00 1.02235997e+00 -2.09610000e-01 1.82608998e+00
      -1.22467995e+00 2.73309994e+00 2.40348995e-01 6.79305971e-01
      1.00226998e-01 1.06711996e+00 -4.42642003e-01 9.95369017e-01
      8.16390991e-01 6.92000985e-01 -3.43338013e-01 1.95877001e-01 0. 0.
      1.06582999e-01 -9.50905025e-01 1.23676002e+00 -4.71390009e-01
      1.11713004e+00 -3.64881992e+00 -5.41763008e-01 -1.66512001e+00
      5.00609994e-01 6.31179988e-01 2.02561998e+00 4.77218986e-01
      3.35666990e+00 2.53219992e-01 4.96103001e+00 2.71911994e-02
      8.35445023e+00 -3.93656993e+00 4.20340014e+00 -1.25376999e+00
      1.53930998e+00 -1.07898998e+00 1.43234003e+00 -7.50289977e-01
      1.04355000e-01 -1.84635997e+00 -1.24389999e-01 -1.50838006e+00
      1.17059004e+00 -3.81318998e+00 7.83156991e-01 7.51052976e-01
      2.24904990e+00 5.63903987e-01 3.50133991e+00 1.65630996e+00
      8.27141953e+00 -3.78880000e+00 3.59674001e+00 3.10317993e-01
      9.36233997e-01 4.09438998e-01 6.32369995e-01 1.98817003e+00</_>
    <_>
      -1.21004999e+00 2.55283999e+00 1.42994002e-01 2.59471989e+00
      4.19086009e-01 1.44579005e+00 6.95807993e-01 2.88863987e-01
      9.26784992e-01 2.26302996e-01 -1.16436994e+00 1.15164006e+00
      1.44501001e-01 1.03670001e+00 3.70155001e+00 -1.52740002e-01
      4.82464981e+00 7.59064019e-01 4.90191984e+00 -1.76180995e+00
      2.44847012e+00 1.76514000e-01 1.19963002e+00 -1.18927002e+00
      -1.66260004e-01 -2.47207999e-01 -4.81781006e-01 1.91583002e+00
      4.13910002e-01 1.92172003e+00 1.82494998e-01 1.88736999e+00
      -4.22057994e-02 1.86970997e+00 -2.18778992e+00 -5.54094982e+00
      -1.31768000e+00 -2.23502994e+00 -3.54182005e+00 -3.62106991e+00
      -4.51022005e+00 -7.21724987e+00 -5.53501987e+00 -8.55735016e+00
      6.91108990e+00 -9.44287968e+00 6.77163982e+00 -7.36286020e+00
      3.30025005e+00 -5.41585016e+00 1.08464003e+00 -5.67899990e+00
      7.93457031e-02 -5.83078003e+00 1.05756998e+00 6.16074026e-01
      2.33646989e+00 6.76338017e-01 1.31355000e+00 1.77454996e+00
      2.60049009e+00 1.83545005e+00 3.54311991e+00 8.83654976e+00
      2.54485989e+00 6.44095993e+00 1.53922999e+00 4.03668022e+00
      2.52685994e-01 7.25357008e+00 -9.86846983e-01 9.36005974e+00 0. 0.
      -7.26547018e-02 -1.02596000e-01 -7.05794990e-02 -2.31606007e-01
      -2.17819009e-02 7.89474010e-01 -9.50545967e-02 3.15725994e+00
      -9.71297994e-02 3.28628993e+00 -5.13610989e-02 1.47336996e+00
      -1.12908995e+00 -2.06681991e+00 -8.04596022e-02 9.86365974e-02 0.
      0. -5.60149997e-02 2.35302997e+00 -6.61315992e-02 2.48137999e+00
      -2.73655009e+00 5.33101988e+00 3.30062985e-01 1.09896002e+01
      1.41112006e+00 1.08970003e+01 3.07617009e-01 1.07616997e+01
      -3.13718009e+00 1.16533003e+01 -7.75833011e-01 1.04747000e+01
      1.66339004e+00 8.20421982e+00 -6.14226997e-01 1.16014996e+01
      -1.64698994e+00 1.05676003e+01 6.62047982e-01 9.64321995e+00
      1.72467005e+00 1.09136000e+01 -5.87799013e-01 1.09576998e+01
      -1.69419003e+00 7.57672024e+00 1.53946996e+00 1.09070997e+01
      4.28604007e-01 1.07631998e+01 -1.83275998e+00 1.05691004e+01
      4.43939000e-01 1.04657001e+01 -1.78450000e+00 9.44264030e+00
      5.25177002e-01 8.51027966e+00 2.71486998e+00 9.82089043e+00</_>
    <_>
      9.90235984e-01 -4.23124981e+00 7.68171012e-01 -3.22626996e+00
      5.74729979e-01 -3.19931006e+00 3.58233988e-01 -2.18828011e+00
      -8.37395012e-01 -1.17683005e+00 -1.97746003e+00 -1.08974004e+00
      -3.07873988e+00 -9.54406977e-01 -4.18146992e+00 1.19738996e+00
      -4.20197010e+00 1.41217005e+00 -3.18583989e+00 1.64633000e+00
      -4.07280016e+00 8.23013008e-01 -2.97285008e+00 1.00237000e+00
      -2.82590008e+00 1.11334002e+00 -1.65734994e+00 1.18474996e+00
      -4.75982994e-01 1.22762001e+00 -2.73070991e-01 2.62695014e-01
      -6.43310994e-02 -7.02033997e-01 9.37537998e-02 -1.53495997e-01
      -7.71670997e-01 -8.42475966e-02 2.81989992e-01 -9.03398991e-01
      2.92998999e-01 -1.73636997e+00 1.21840000e+00 -5.73424995e-01
      2.12920994e-01 -3.58402014e-01 2.53722996e-01 -2.16858000e-01
      1.24892998e+00 -4.18053009e-02 1.19640994e+00 1.01749003e-01
      6.33544996e-02 1.15074003e+00 1.10889995e+00 -1.45216000e+00
      9.98093009e-01 -1.45089996e+00 8.87543023e-01 -1.45544004e+00
      -2.42172003e-01 -4.87884998e-01 6.02844000e-01 -6.27898991e-01
      5.88104010e-01 -5.52765012e-01 5.78903019e-01 -4.71572995e-01
      -4.02617991e-01 -4.12903011e-01 -3.88289988e-01 -3.36548001e-01 0.
      0. 7.81174004e-02 -9.05978978e-01 7.95975029e-02 -8.00998986e-01
      1.73569005e-02 -7.04474986e-01 -2.53753997e-02 1.91268995e-01
      -3.24478000e-02 8.02612007e-02 5.90514997e-03 -2.85347015e-01
      6.58416972e-02 -1.83791995e-01 5.59540018e-02 -8.51287991e-02 0.
      0. -2.57111005e-02 -8.26568976e-02 -1.56097002e-02 -1.87157005e-01
      -7.19184995e-01 1.97678000e-01 -1.62092996e+00 -6.90398991e-01
      -3.55858994e+00 -6.24512017e-01 -2.60678005e+00 4.63791013e-01
      -6.01180971e-01 5.87172985e-01 -1.62440002e+00 6.67419016e-01
      -3.70804000e+00 2.72054005e+00 -1.77011001e+00 2.64882994e+00
      -1.79535997e+00 2.55454993e+00 -2.79348993e+00 2.44931006e+00
      -3.76248002e+00 1.35451996e+00 -2.73900008e+00 2.77678996e-01
      -7.15286016e-01 2.44431004e-01 -2.66161990e+00 3.79913002e-01
      -1.69263005e+00 1.47473001e+00 -1.68434000e+00 1.55664003e+00
      -3.70612001e+00 2.67394996e+00 -1.66129005e+00 5.72646976e-01
      -2.68266010e+00 1.45726001e+00 -3.65193009e+00 3.68270993e-01</_>
    <_>
      -3.52225995e+00 -2.92724991e+00 -2.42500997e+00 -2.43966007e+00
      -1.29191995e+00 -1.90816998e+00 -7.92312995e-02 3.26537993e-03
      -2.23186001e-01 -2.11102009e+00 -1.51052999e+00 -6.23627007e-02
      -1.35885000e+00 -7.82958984e-01 -1.05246997e+00 -1.60058999e+00
      -1.84209001e+00 -1.22783995e+00 1.95206001e-01 -1.03982997e+00
      8.61588001e-01 -1.10133004e+00 1.61713004e-01 7.27081001e-02
      7.36786008e-01 -2.79861003e-01 1.17084002e+00 -7.51266003e-01
      1.53549004e+00 1.18010998e-01 1.84362996e+00 9.89692986e-01
      2.04904008e+00 -9.00924981e-01 -4.23516989e+00 5.07285023e+00
      -5.25936985e+00 3.60715008e+00 -2.10427999e+00 2.30910993e+00
      -3.93790990e-01 1.17273998e+00 1.26247001e+00 9.52797011e-02
      5.16692996e-01 4.32190001e-01 9.94843006e-01 1.85240996e+00
      2.83452010e+00 3.29578996e+00 4.58880997e+00 3.49549007e+00
      3.43871999e+00 6.67225981e+00 1.34011996e+00 -7.69626975e-01
      1.16127002e+00 -4.33434010e-01 9.82361019e-01 -9.72366035e-02
      7.93151975e-01 2.62046993e-01 -1.15038002e+00 -9.50272024e-01
      3.96026999e-01 -8.44025016e-01 1.99890006e+00 6.31789982e-01
      2.21731997e+00 -6.69785023e-01 3.81789994e+00 -6.22437000e-01 0.
      0. -1.06585002e+00 -1.37711002e-03 -7.42401004e-01 1.44027993e-01
      -1.99733996e+00 -2.24185991e+00 -9.23492014e-01 -9.48279977e-01
      1.12205997e-01 -1.12711000e+00 1.86585999e+00 -3.94477993e-01
      8.66973996e-01 -4.21290994e-01 1.19043005e+00 -2.75887012e-01 0.
      0. 1.06582999e+00 1.37328997e-03 7.19359994e-01 -1.52634001e+00
      -1.92963004e+00 -1.70044005e+00 -1.54620004e+00 -1.75029004e+00
      -2.50925994e+00 -3.61312985e-01 -9.60601985e-01 -1.98440999e-01
      -6.98364019e-01 -1.63910002e-01 -4.60341990e-01 1.09695002e-01
      1.08266997e+00 4.08843994e-01 -7.01430976e-01 -7.87369013e-01
      -1.02037001e+00 1.92421997e+00 -1.28483999e+00 4.61227000e-01
      -2.88778996e+00 3.57300013e-01 -3.12589002e+00 8.36639032e-02
      -1.76787996e+00 -1.62775004e+00 -1.28511000e+00 -9.43604037e-02
      -1.07481003e+00 5.57098016e-02 5.59203982e-01 1.46222997e+00
      -4.38248008e-01 3.69567990e-01 -8.56491029e-01 1.26083001e-01
      -2.48016000e+00 -1.30357003e+00 -2.70080996e+00 -1.43052995e+00</_>
    <_>
      1.66104996e+00 3.28345990e+00 1.36286998e+00 3.05205989e+00
      -1.43719003e-01 1.61275995e+00 -1.68559003e+00 1.41665995e+00
      -2.01091003e+00 1.28206003e+00 -3.61557007e+00 1.23539996e+00
      -2.74300003e+00 1.30332994e+00 -3.08774996e+00 2.65897012e+00
      -3.38029003e+00 2.87737989e+00 -4.81969023e+00 3.15816998e+00
      -4.91026020e+00 4.73601007e+00 -4.94806004e+00 6.33192015e+00
      -3.64531994e+00 7.91968012e+00 -2.25417995e+00 8.22937012e+00
      -8.09937000e-01 8.50417995e+00 -1.85229003e+00 1.00046997e+01
      -3.90350014e-01 1.15230999e+01 3.62239987e-01 -3.82470012e+00
      -9.09470022e-01 -6.05599022e+00 -1.06095004e+00 -5.83660984e+00
      -1.27379000e+00 -6.90515995e+00 -2.75639009e+00 -6.75694990e+00
      1.92433000e+00 -3.99879003e+00 5.64499021e-01 -6.23072004e+00
      1.63004005e+00 -4.77691984e+00 1.40848005e+00 -3.38514996e+00
      -1.32509995e+00 3.25695008e-01 -5.78155994e-01 -1.79427004e+00
      -7.44583011e-01 -4.43221998e+00 -9.19845998e-01 -7.07903004e+00
      -1.09509003e+00 -8.48241997e+00 -3.50038004e+00 -6.30361986e+00
      -3.62421989e+00 -5.00819016e+00 -2.50472999e+00 -4.93853998e+00
      -1.34162998e+00 -3.56340003e+00 -1.38654006e+00 -4.69249010e+00 0.
      0. -1.26243997e+00 -3.53638005e+00 1.07343996e+00 -2.14411998e+00
      -3.64243001e-01 -2.11021996e+00 -2.83683985e-01 -1.03378999e+00
      -1.39377999e+00 -1.18276000e+00 -8.88062000e-01 -3.67873996e-01
      3.36196989e-01 -2.64317989e+00 1.94138005e-01 -3.74652004e+00 0.
      0. 1.29732001e+00 -1.40717000e-01 1.95984006e-01 -2.80800015e-01
      -6.09840012e+00 -5.72387993e-01 -3.71875000e+00 -1.62256002e+00
      -3.81696010e+00 -2.69913006e+00 -6.41871977e+00 -1.41240001e+00
      -7.72468996e+00 -5.47791012e-02 -7.88404989e+00 1.27567995e+00
      -4.33966017e+00 1.37135005e+00 -8.00660992e+00 1.15137005e+00
      -9.16071987e+00 -2.50153005e-01 -7.83725023e+00 -3.46587986e-01
      -6.48753023e+00 -2.90320992e+00 -3.84131002e+00 -1.74686003e+00
      -3.68246007e+00 -5.19958019e-01 -5.13028002e+00 -1.54433000e+00
      -6.48001003e+00 -1.47455001e+00 -7.80347013e+00 1.10871994e+00
      -6.76430988e+00 1.31008995e+00 -7.80347013e+00 -1.34673998e-01
      -7.73216009e+00 -2.40021005e-01 -6.37369013e+00 -1.54433000e+00</_>
    <_>
      1.71772003e+00 -3.97018003e+00 2.91166997e+00 -3.36694002e+00
      3.05877995e+00 -2.75761008e+00 3.19981003e+00 -2.16617990e+00
      2.25817990e+00 -3.61439991e+00 2.17800999e+00 -2.99774003e+00
      -1.09366998e-01 -3.37927008e+00 -2.48024011e+00 -2.68350005e+00
      -3.93539000e+00 -2.93826008e+00 -4.40294981e+00 -4.13796997e+00
      -5.90471983e+00 -5.20601988e+00 -6.37703991e+00 -5.15543985e+00
      -6.77072001e+00 -5.99063015e+00 -7.06790018e+00 -5.65990019e+00
      -7.29900980e+00 -4.25272989e+00 -5.47830009e+00 -3.89245009e+00
      -3.63955998e+00 -4.53725004e+00 -1.85232997e+00 6.54327011e+00
      9.30153012e-01 1.07924004e+01 6.00807011e-01 1.48501997e+01
      1.31167996e+00 1.77653008e+01 4.11591005e+00 1.54638996e+01
      -1.46695006e+00 1.62320995e+01 -1.80832005e+00 1.71972008e+01
      -2.13817000e+00 1.39628000e+01 -3.38928014e-01 7.55742979e+00
      1.65130997e+00 4.15396023e+00 9.37119007e-01 3.75731993e+00
      1.04946995e+00 3.52935004e+00 1.38962001e-01 2.29035997e+00
      2.45193005e-01 2.04446006e+00 1.76382005e+00 -1.59821004e-01
      5.96648991e-01 7.56271005e-01 -5.88440001e-01 -3.79424989e-01
      -1.80309999e+00 -4.26223993e-01 -2.99983001e+00 5.49866021e-01 0.
      0. -2.27111995e-01 2.09507990e+00 -4.48974997e-01 9.71724987e-01
      1.47582996e+00 -3.01703990e-01 -3.42400014e-01 -1.27222002e+00
      -1.20506003e-01 -1.48864999e-01 -4.23079997e-01 2.83623010e-01
      3.36838007e-01 1.34403002e+00 -9.08051014e-01 2.26653004e+00 0. 0.
      -1.84238994e+00 1.66931003e-02 -6.03393972e-01 1.35109007e-01
      -6.67586982e-01 -7.81478977e+00 -2.02550006e+00 -4.72608995e+00
      -4.35864019e+00 -4.74242020e+00 -2.47501993e+00 -4.87303019e+00
      -3.69559002e+00 -4.90781021e+00 -6.97488022e+00 -6.12107992e+00
      -8.20273018e+00 -8.44095993e+00 -6.87450981e+00 -7.38388014e+00
      -3.54811001e+00 -6.29651022e+00 -3.36224008e+00 -5.19089985e+00
      -4.19919014e+00 -5.09630013e+00 -2.94211006e+00 -5.98297024e+00
      -7.63565004e-01 -6.83314991e+00 -3.25284004e+00 -6.95627022e+00
      -2.41588998e+00 -7.05085993e+00 -3.63071990e+00 -7.12758017e+00
      -8.10081005e+00 -7.37674999e+00 -2.60788012e+00 -8.17442036e+00
      -2.41608000e+00 -7.08078003e+00 -3.25892997e+00 -6.97418022e+00</_>
    <_>
      1.77051997e+00 1.37967002e+00 2.00739002e+00 2.31011009e+00
      2.18442011e+00 2.05200005e+00 3.47144008e+00 5.30487001e-01
      5.94503021e+00 1.18712999e-01 4.77256012e+00 -1.47506997e-01
      1.07879996e+00 -1.47347999e+00 -2.97852010e-01 -2.92117000e+00
      -5.40648997e-01 -3.19375992e+00 4.12261993e-01 -2.27227998e+00
      1.25989997e+00 -2.40631008e+00 -1.94823995e-01 -1.17400002e+00
      -1.74901998e+00 -2.20992994e+00 -7.57934988e-01 -9.34020996e-01
      -2.24127007e+00 -1.86667001e+00 -1.21276999e+00 -5.60616016e-01
      9.27582026e-01 -5.01182973e-01 2.20388007e+00 -4.49685001e+00
      2.00308990e+00 -3.27168012e+00 4.96360987e-01 -4.50052977e+00
      3.61999989e-01 -3.53008008e+00 -1.01490998e+00 -4.90094995e+00
      -1.21291006e+00 -3.96630001e+00 -1.48057997e+00 -4.07401991e+00
      -4.47205007e-01 -3.11846995e+00 -1.69509995e+00 -2.10476995e+00
      -4.03943014e+00 -2.23613000e+00 -2.04896998e+00 -2.77506995e+00
      -2.04070997e+00 -5.31103992e+00 -7.16690004e-01 -5.53914022e+00
      -1.82958996e+00 -6.83605003e+00 -1.70853004e-01 -4.51397991e+00
      9.29931998e-01 -4.67534018e+00 -1.52556002e+00 -4.64956999e+00
      -1.63408005e+00 -4.70616007e+00 -1.67523003e+00 -3.58359003e+00 0.
      0. 1.19386005e+00 3.47329998e+00 -1.94701999e-01 2.23168993e+00
      -5.02945006e-01 -2.68568993e+00 8.97056997e-01 -1.49655998e+00
      2.29317999e+00 -2.64304996e-01 -1.02248001e+00 -3.15035009e+00
      3.47290009e-01 3.85477996e+00 -9.57031012e-01 3.79053998e+00 0. 0.
      -1.10427999e+00 -1.05885994e+00 -9.79156017e-01 -9.27231014e-01
      7.69871998e+00 -2.41089001e-01 4.96407986e+00 -2.56666994e+00
      3.03345006e-02 -2.41032004e+00 -4.99114990e-02 -2.52115011e+00
      -2.35137999e-01 -3.76445007e+00 -1.39145994e+00 -1.50586998e+00
      -3.82227993e+00 -1.56816006e+00 -2.37671003e-01 -5.29200983e+00
      9.41619992e-01 -8.84193039e+00 1.00147998e+00 -9.94946003e+00
      -8.99657980e-02 -9.78061008e+00 4.87888002e+00 -7.47396994e+00
      7.56408978e+00 -1.48982000e+00 1.89896002e-01 -1.32641995e+00
      9.45892036e-02 -1.41858006e+00 1.10359001e+00 -2.74792004e+00
      -2.64507008e+00 -2.76202011e+00 9.39025998e-01 -6.33223009e+00
      1.05875003e+00 -6.25122023e+00 1.08668995e+00 -7.33824015e+00</_>
    <_>
      8.85065019e-01 3.63013005e+00 8.33778024e-01 3.15668988e+00
      6.86290979e-01 1.45319998e+00 5.82274973e-01 9.83489990e-01
      3.65723014e-01 -6.97449028e-01 -1.15927994e+00 -1.02207994e+00
      -2.98325002e-01 -1.33936000e+00 1.74992001e+00 -1.60852003e+00
      1.27977002e+00 -3.91265988e-01 7.11395025e-01 -1.55245996e+00
      1.41244996e+00 -3.87280011e+00 -2.50427008e-01 -4.77075005e+00
      -5.05523980e-01 -4.38154984e+00 -1.92859006e+00 -5.13750982e+00
      -3.20958996e+00 -3.39439011e+00 -3.19573998e+00 -4.62195992e-01
      -3.20648003e+00 1.25256002e+00 -8.70041013e-01 -2.04976010e+00
      1.41235006e+00 -6.39235973e-01 1.04691005e+00 -5.60262978e-01
      -5.17654002e-01 6.72886014e-01 3.70849997e-01 4.94922996e-01
      8.55484009e-01 -7.67548025e-01 -7.38785028e-01 -5.74810028e-01
      -1.06081998e+00 7.37944007e-01 -1.46206999e+00 -5.58788002e-01
      -5.19043028e-01 -2.08352995e+00 9.38415993e-03 1.31843999e-01
      8.20923038e-03 -1.33094996e-01 1.24088001e+00 -4.41513002e-01
      4.68445010e-03 -6.80617988e-01 3.51395011e-01 -1.02330005e+00
      1.42323005e+00 -1.10825002e+00 -7.70568987e-03 -1.10380995e+00
      -1.44998002e+00 -1.01023996e+00 -3.89495999e-01 -1.00602996e+00 0.
      0. -2.46941000e-01 -1.11333001e+00 7.84187019e-01 9.45053026e-02
      5.28046012e-01 -2.86560003e-02 -5.06789982e-01 -1.28925002e+00
      -1.99631006e-01 -7.41730034e-02 -5.29281974e-01 1.10930996e-02
      4.23644990e-01 -1.12560999e+00 1.76238999e-01 -1.12571001e+00 0.
      0. 1.61316007e-01 -1.33668995e+00 -8.25133979e-01 -1.29314995e+00
      6.44797981e-01 -2.98783994e+00 -1.07299995e+00 -7.76920986e+00
      -1.31412005e+00 -7.68140984e+00 -2.68157989e-01 -9.00139046e+00
      8.53332996e-01 -7.76464987e+00 -5.79849005e-01 -5.30395985e+00
      -7.99362004e-01 -2.92060995e+00 8.34061027e-01 -5.71671009e-01
      1.31624997e+00 5.59618998e+00 2.40646005e-01 5.62839985e+00
      -8.33679020e-01 5.67819023e+00 -7.61307001e-01 7.25510001e-01
      1.81779003e+00 -1.77240002e+00 1.03531003e-01 -2.89638996e+00
      -1.00647002e-01 -4.15409994e+00 -2.75207996e-01 -4.12405014e+00
      -1.90057003e+00 -1.63199997e+00 1.06431997e+00 -1.68355000e+00
      -5.59692010e-02 -2.90272999e+00 1.48239002e-01 -1.64498997e+00</_>
    <_>
      -3.82200003e-01 -8.33176017e-01 -8.91348004e-01 -1.50332999e+00
      -3.21583003e-01 -9.42856014e-01 -8.73359978e-01 -2.71263003e+00
      -2.65474010e+00 -3.23508000e+00 -1.04088998e+00 -3.50483990e+00
      -1.82887006e+00 -3.63364005e+00 -3.74409008e+00 -4.79471016e+00
      -4.49460983e+00 -4.47320986e+00 -6.28902006e+00 -3.90639997e+00
      -7.84975004e+00 -3.17772007e+00 -6.96257019e+00 -2.34769011e+00
      -5.81142998e+00 -2.66861010e+00 -5.57885981e+00 -1.89771998e+00
      -4.07306004e+00 -1.10617006e+00 -3.77618003e+00 -3.40636998e-01
      -4.55965996e+00 3.88191015e-01 6.85863018e-01 5.88613987e+00
      1.74327004e+00 7.63676023e+00 3.70863008e+00 8.16687012e+00
      4.31899977e+00 9.68262005e+00 4.85570002e+00 9.88111019e+00
      4.35440004e-01 1.03872995e+01 -1.12070000e+00 9.64974022e+00
      -1.63054001e+00 7.64132977e+00 -9.80468988e-01 4.32669020e+00
      -3.18787009e-01 1.89397001e+00 6.97997987e-01 1.33507001e+00
      -6.86737001e-01 9.09119010e-01 -9.10445988e-01 -6.54708982e-01
      -1.14090002e+00 -1.08896995e+00 -1.05044997e+00 -3.08053994e+00
      -1.30237997e+00 -2.99480009e+00 -1.59537995e+00 -1.72478998e+00
      -1.78065002e+00 -2.67003012e+00 -8.68973017e-01 -1.27003002e+00 0.
      0. 1.03840005e+00 4.67693001e-01 6.75185978e-01 -4.36825007e-01
      1.25479996e+00 -5.00976980e-01 4.36439991e-01 -2.02534008e+00
      1.96893001e+00 -1.10444999e+00 -1.30811000e+00 -7.27263987e-01
      -1.46501005e+00 9.33013976e-01 -6.83593988e-01 5.98563999e-02 0.
      0. -9.63379025e-01 -3.44375998e-01 -5.44128001e-01 -5.99494994e-01
      -3.51795006e+00 -6.77263021e+00 -2.59158993e+00 -3.98574996e+00
      -2.83182001e+00 -3.60300994e+00 -8.25927973e-01 -2.30994010e+00
      -9.71496999e-01 -3.24551010e+00 -1.41643000e+00 -3.14380002e+00
      -8.19427013e-01 -4.20885992e+00 -1.71950996e+00 -4.72693014e+00
      -1.41927004e+00 -5.01100016e+00 -2.36365008e+00 -4.07245016e+00
      -3.26164007e+00 -4.25388002e+00 -4.03928995e+00 -5.60024977e+00
      -4.85156012e+00 -5.52970982e+00 -1.86728001e+00 -3.86760998e+00
      -2.09750009e+00 -4.88679981e+00 -1.14485002e+00 -4.67110014e+00
      -6.46820009e-01 -4.31389999e+00 -1.17623997e+00 -3.52649999e+00
      -9.84268010e-01 -3.71085000e+00 -3.05152988e+00 -3.90858006e+00</_>
    <_>
      -1.05227995e+00 5.75401008e-01 -5.59123993e-01 6.44568980e-01
      -7.14930966e-02 6.24724984e-01 -8.58528018e-01 4.79218006e-01
      -2.50762999e-01 -9.04326975e-01 -1.23442996e+00 1.37633998e-02
      -2.30082011e+00 7.84500003e-01 -8.27422976e-01 1.73880005e+00
      -8.33510995e-01 2.48563004e+00 1.88773000e+00 8.54919016e-01
      1.69772005e+00 3.35846007e-01 1.56168997e+00 -1.42711997e+00
      2.56642008e+00 -2.93520999e+00 2.07558990e+00 -3.13593006e+00
      3.56231987e-01 -4.66367006e+00 -1.75506994e-01 -4.76198006e+00
      -8.06151986e-01 -3.49270010e+00 -3.09588003e+00 8.75853971e-02
      -2.17068005e+00 1.27051997e+00 -1.15611005e+00 3.63587999e+00
      -1.17631996e+00 4.57806015e+00 2.01796994e-01 5.69075012e+00
      1.16934001e+00 8.90530968e+00 1.27482998e+00 5.95511007e+00
      1.49449003e+00 2.98203993e+00 1.86304998e+00 3.64703983e-02
      1.99728000e+00 1.09518003e+00 9.22501028e-01 2.74429011e+00
      1.21719003e-01 1.36438000e+00 1.89541996e+00 2.18413994e-01
      2.28222990e+00 2.67928988e-01 1.38387001e+00 -8.22067022e-01
      1.43657005e+00 -9.88296986e-01 1.38100004e+00 1.45325005e-01
      1.35257006e+00 -5.79071008e-02 1.44980001e+00 -1.53580999e+00 0.
      0. 1.16111004e+00 -9.33075026e-02 -2.42393002e-01 8.35106015e-01
      -1.75910994e-01 1.90330005e+00 1.03844002e-01 -4.42764014e-01
      9.92202982e-02 -1.79642007e-01 6.75506964e-02 -6.03447020e-01
      -1.67648003e-01 4.30961996e-01 -1.66945994e-01 1.89117000e-01 0.
      0. 1.79260001e-01 -1.08875000e+00 2.76794005e-02 4.45084006e-01
      -1.75476001e-04 -5.82945013e+00 8.84406984e-01 -3.35615993e+00
      6.91742003e-01 -2.31385994e+00 1.94386005e+00 -1.11449003e+00
      1.89812005e+00 -1.34292996e+00 4.60879993e+00 -1.36971998e+00
      7.88822985e+00 -6.61488008e+00 2.53924990e+00 -4.21611023e+00
      -1.85851995e-02 -4.18303013e+00 -1.53809004e-02 -3.96248007e+00
      7.09381029e-02 -5.02437019e+00 2.49480992e-03 -4.77308989e+00
      -1.81579997e-03 -5.93977022e+00 7.57523000e-01 -1.00386000e+00
      2.09668994e+00 -1.10821998e+00 1.96389997e+00 -3.29285003e-02
      7.73897982e+00 -5.21260023e+00 7.58971989e-01 -1.48752999e+00
      -5.16403019e-01 -1.37135005e+00 7.40189016e-01 -1.02903998e+00</_>
    <_>
      2.68496990e+00 -5.81309986e+00 1.52322996e+00 -6.06775999e+00
      1.46907997e+00 -4.00856018e+00 2.74269015e-01 -4.24730015e+00
      1.78756997e-01 -2.16408992e+00 5.01250997e-02 -1.20569003e+00
      1.02879000e+00 -1.34759998e+00 -3.23799014e-01 -1.45728004e+00
      5.95825016e-01 -3.77489996e+00 -7.99789011e-01 -3.74564004e+00
      -1.01473999e+00 -2.49304008e+00 -1.20560002e+00 -5.83343990e-02
      -1.31506002e+00 -1.01189005e+00 -2.52429008e+00 -1.95662999e+00
      -1.42786002e+00 -1.72751999e+00 -1.46393001e+00 -2.64721990e+00
      -1.49190998e+00 -2.40964007e+00 2.03079000e-01 -9.98344004e-01
      2.37590003e+00 2.88477004e-01 2.18628001e+00 3.78192997e+00
      1.97318006e+00 8.34197044e+00 6.77672982e-01 5.96797991e+00
      -1.91547000e+00 7.09619999e+00 -9.39940989e-01 8.31661034e+00
      -1.10427999e+00 6.04092979e+00 -1.26760995e+00 4.84036016e+00
      -2.15424001e-01 2.43439007e+00 -5.83374023e-01 2.33882999e+00
      -5.89478016e-01 2.19102001e+00 -1.71982002e+00 -2.54447997e-01
      -1.71765006e+00 -1.55113006e+00 -1.55118001e+00 -1.71289003e+00
      -1.61652994e+00 -2.87923002e+00 -1.71468997e+00 -1.75627005e+00
      -1.79702997e+00 -2.88178992e+00 -3.03656006e+00 -1.71774006e+00 0.
      0. -9.93957967e-02 6.42357022e-02 -2.30743006e-01 1.21133006e+00
      -1.49327004e+00 1.11934996e+00 -2.20946997e-01 -4.42276001e-02
      -8.96682963e-02 -4.23202999e-02 3.28399986e-01 1.13726997e+00
      -9.28313971e-01 1.20955002e+00 1.05728000e-01 6.71615973e-02 0. 0.
      9.90601033e-02 -3.96271013e-02 2.30346993e-01 -3.77350003e-02
      -1.34122002e+00 -4.33611012e+00 -3.77139997e+00 -4.27248001e+00
      -5.04393005e+00 -4.24146986e+00 -2.84430003e+00 -4.25095987e+00
      -6.37192011e-01 -4.21112013e+00 -7.51419008e-01 -5.40277004e+00
      2.59048015e-01 -4.32960987e+00 -7.24776983e-01 -8.98062038e+00
      -1.75007999e+00 -9.01998997e+00 -3.94922996e+00 -9.04329014e+00
      -4.99971008e+00 -9.04195023e+00 -2.60401011e+00 -6.70141983e+00
      -2.54758000e+00 -3.19623995e+00 -5.03437996e+00 -5.48058987e+00
      -2.83501005e+00 -5.47368002e+00 -6.27640009e-01 -5.45027018e+00
      3.16421986e-01 -5.46951008e+00 -1.76841998e+00 -5.45020008e+00
      -3.98393011e+00 -4.33296013e+00 -5.03444004e+00 -4.33160019e+00</_>
    <_>
      -5.29212999e+00 -2.51672006e+00 -4.00290012e+00 -6.53879976e+00
      -7.03149986e+00 -1.39867001e+01 -8.85799026e+00 -1.81222000e+01
      -8.31050968e+00 -2.45508003e+01 -6.48205996e+00 -3.21944008e+01
      -3.28636003e+00 -4.00127983e+01 1.24168001e-01 -4.48969002e+01
      1.53199995e+00 -4.68623009e+01 1.79198003e+00 -4.60444984e+01
      5.05883980e+00 -4.23232002e+01 9.23775005e+00 -3.34012985e+01
      9.79053974e+00 -2.46930008e+01 9.08047009e+00 -1.71732998e+01
      7.14528990e+00 -9.66294956e+00 5.17238998e+00 -3.33186007e+00
      6.36361980e+00 2.97372007e+00 -2.23740005e+00 -8.14509988e-01
      -1.59061003e+00 6.21371984e-01 -6.24701977e-01 2.52698994e+00
      -6.89429998e-01 2.71994996e+00 -8.50463986e-01 3.14419007e+00
      8.16085994e-01 4.29968023e+00 2.89179993e+00 2.81659007e+00
      3.91714001e+00 2.69133997e+00 4.89015007e+00 2.98412991e+00
      4.42255020e+00 3.79806995e-01 -1.19171003e-02 1.96174002e+00
      1.60674993e-02 3.83870006e+00 -1.08859003e+00 5.75413990e+00
      -1.06869996e+00 8.76315022e+00 -2.02817988e+00 5.29124022e+00
      -1.56497002e+00 5.43730021e+00 -1.06263995e+00 6.66953993e+00
      -1.63449001e+00 6.52970982e+00 -1.15120006e+00 4.13256979e+00 0.
      0. 5.18822014e-01 6.14884996e+00 -3.12549996e+00 6.12884998e+00
      -2.44357991e+00 1.17551994e+00 -9.26406980e-01 1.36733997e+00
      5.07790029e-01 2.86269993e-01 1.34061003e+00 1.17418003e+00
      8.29163015e-01 6.13768005e+00 -6.36718988e-01 5.04703999e+00 0. 0.
      -5.62088013e-01 2.71301001e-01 -2.20245004e-01 2.21809000e-01
      -1.05320997e+01 -2.76061001e+01 -1.35376006e-01 -3.07268000e+00
      -6.01378012e+00 6.38313007e+00 -3.25545001e+00 8.76358032e+00
      -2.73435998e+00 7.54565001e+00 -4.09748983e+00 -1.99596000e+00
      7.62752008e+00 -2.74993000e+01 -3.74423003e+00 -5.43959999e+01
      -3.23202991e+00 -7.27127991e+01 -2.69856000e+00 -7.37057037e+01
      -2.21645999e+00 -7.37996979e+01 2.40189001e-01 -5.87294006e+01
      -7.98822021e+00 -2.76326008e+01 -5.98441982e+00 1.51372004e+00
      -3.21673989e+00 2.66910005e+00 -1.56484997e+00 1.55226004e+00
      6.21701002e+00 -2.75578003e+01 -2.22110009e+00 -6.79296036e+01
      -2.72601008e+00 -6.89757996e+01 -3.33751011e+00 -6.79451981e+01</_>
    <_>
      2.15235996e+00 2.59150004e+00 2.28779006e+00 4.01277018e+00
      2.34306002e+00 6.52753019e+00 2.43583989e+00 5.78113985e+00
      4.58315992e+00 5.09499979e+00 5.33752012e+00 8.71098042e+00
      2.78801990e+00 1.01218004e+01 2.26504993e+00 1.17286997e+01
      1.57953000e+00 1.14150000e+01 1.92508996e+00 1.02040005e+01
      -8.30582023e-01 7.08609009e+00 -3.55872989e+00 4.14996004e+00
      -4.08669996e+00 3.55484009e+00 -4.47393990e+00 3.03856993e+00
      -3.74640012e+00 2.61070991e+00 -1.87945998e+00 1.13180995e+00
      -1.06680000e+00 1.81244004e+00 -4.39662993e-01 -3.86109996e+00
      -8.73893976e-01 -5.83779001e+00 -3.20389003e-01 -5.94177008e+00
      2.31819004e-01 -4.01729012e+00 7.79174984e-01 -2.14354992e+00
      3.42003989e+00 -3.34791994e+00 2.87329006e+00 -3.38802004e+00
      3.47743011e+00 -5.64805984e+00 8.56719971e-01 -7.02712011e+00
      -1.65549004e+00 -4.25744009e+00 2.60050988e+00 2.88685989e+00
      2.69298005e+00 4.60930014e+00 2.83606005e+00 4.17565012e+00
      1.87741005e+00 4.75873995e+00 1.20687997e+00 1.21266003e+01
      2.14508009e+00 9.82454014e+00 1.92262006e+00 8.56521988e+00
      -5.51010013e-01 9.58973980e+00 -8.76724005e-01 1.17617998e+01 0.
      0. -2.99849987e-01 -2.07146001e+00 3.68369997e-01 -4.36400995e-03
      7.27081001e-02 2.91265011e+00 -6.93458974e-01 4.01005983e+00
      -1.43358004e+00 4.09083986e+00 -2.08144993e-01 3.51307011e+00
      -1.53304994e+00 -1.79004002e+00 2.82700002e-01 -1.87088001e+00 0.
      0. 1.30499005e+00 3.26642990e+00 -5.10773003e-01 3.34726000e+00
      -4.44983006e+00 1.00636997e+01 -2.69020009e+00 9.17895985e+00
      -1.99126995e+00 8.12889004e+00 -1.17562997e+00 9.05510044e+00
      -3.96393001e-01 7.98718023e+00 2.99820006e-01 9.91843033e+00
      2.23549008e+00 1.06661997e+01 1.50215006e+00 1.06028996e+01
      -2.64358997e-01 9.48044968e+00 2.04163007e-02 1.06415997e+01
      -1.86731994e+00 1.07191000e+01 -2.57663012e+00 8.75837994e+00
      -4.62823009e+00 1.00193005e+01 -1.93506002e+00 1.00085001e+01
      -1.15715003e+00 1.09689999e+01 -1.45012999e+00 1.09047003e+01
      1.30877995e+00 1.07237997e+01 -2.94449002e-01 7.65988016e+00
      -1.03945994e+00 6.61429024e+00 -1.86803997e+00 6.73422003e+00</_>
    <_>
      1.14315004e+01 1.31287003e+01 8.60743999e+00 1.08161001e+01
      9.76764965e+00 7.30440998e+00 9.44826031e+00 6.46155977e+00
      7.27770996e+00 6.94739008e+00 5.99251986e+00 5.05766010e+00
      2.70553994e+00 6.29914999e+00 4.58099008e-01 5.33923006e+00
      -3.35220003e+00 6.38428020e+00 -5.63570976e+00 5.33980989e+00
      -7.46216011e+00 7.61700010e+00 -7.59261990e+00 7.73259020e+00
      -5.93593979e+00 1.09624004e+01 -3.84027004e+00 1.30660000e+01
      -2.64923000e+00 1.24384003e+01 -1.04675002e-01 1.32517004e+01
      -2.72583008e-01 1.39826002e+01 3.06395006e+00 3.10941005e+00
      3.05002999e+00 5.37311983e+00 1.39385998e+00 8.23711014e+00
      -1.71668005e+00 1.06422005e+01 -4.72529984e+00 1.27241001e+01
      4.92986012e+00 1.44219999e+01 7.05994010e-01 1.21069002e+01
      -2.18274999e+00 9.50220013e+00 -3.47989011e+00 3.74141002e+00
      -1.61480999e+00 1.48998007e-01 6.75827026e-01 1.53165998e+01
      2.06573009e+00 1.41246004e+01 2.05840993e+00 1.28888998e+01
      2.09972000e+00 1.01738997e+01 4.08463001e+00 1.34237003e+01
      3.15868998e+00 1.17205000e+01 7.91854978e-01 1.13709002e+01
      -2.51311988e-01 1.29546003e+01 -1.17377996e+00 1.32278996e+01 0.
      0. -7.52448976e-01 -7.95111990e+00 3.51861000e+00 -5.05663013e+00
      1.93420005e+00 1.22226000e+01 3.08533013e-01 9.15937042e+00
      -2.60892010e+00 7.70583010e+00 4.24499996e-02 9.47259998e+00
      -1.98592997e+00 -5.26734018e+00 1.13959002e+00 -7.91858006e+00 0.
      0. 3.43148994e+00 6.54916000e+00 1.70325994e+00 9.24405956e+00
      -3.04834008e+00 1.29082003e+01 -4.23685980e+00 1.34948997e+01
      -2.40780997e+00 9.81789970e+00 -1.85969996e+00 1.09629002e+01
      -1.37990999e+00 1.11978998e+01 -1.11166000e+00 1.35611000e+01
      -9.10202026e-01 1.29556999e+01 -1.40936005e+00 1.91427002e+01
      -3.08398008e+00 2.02761993e+01 -2.30222988e+00 2.16413002e+01
      -4.19423008e+00 2.16086998e+01 -4.37048006e+00 1.90863991e+01
      -3.62294006e+00 1.55908003e+01 -2.57133007e+00 1.59017000e+01
      -6.74332023e-01 1.58521996e+01 -1.50476003e+00 1.59665003e+01
      -5.00258982e-01 1.56981001e+01 -1.58678997e+00 1.59615002e+01
      -2.07158995e+00 1.58085003e+01 -3.96861005e+00 1.58579998e+01</_>
    <_>
      -5.10643005e-01 -5.99126005e+00 3.92271012e-01 -5.24877977e+00
      9.78240967e-02 -6.78853989e+00 -2.18895003e-01 -6.00815010e+00
      5.86933017e-01 -6.38010979e+00 -9.79004025e-01 -4.36421013e+00
      -2.98866004e-01 -3.35830998e+00 -8.15124989e-01 -3.33997011e+00
      -2.46763992e+00 -1.97458005e+00 -6.32187009e-01 -2.83227992e+00
      -9.88770008e-01 -3.57083011e+00 -1.24017000e+00 -3.10521007e+00
      -1.32675004e+00 -3.75571990e+00 -2.40868998e+00 -3.26220989e+00
      -2.25583005e+00 -2.77672005e+00 -2.08074999e+00 -2.32138991e+00
      -1.86087000e+00 -1.88874996e+00 6.00887001e-01 -1.95723999e+00
      1.59797001e+00 -1.69432998e+00 1.54816002e-01 -3.60244989e-01
      9.63325977e-01 -3.20621014e-01 6.26555979e-01 -3.18423986e-01
      -8.19092020e-02 6.04019016e-02 -2.97134012e-01 3.38705003e-01
      -1.70998001e+00 5.87431014e-01 -2.02346992e+00 -4.35817987e-01
      -1.20789003e+00 -1.60114002e+00 1.25411999e+00 -1.63221002e+00
      1.10222995e+00 -8.22951972e-01 -2.09594995e-01 -2.29620004e+00
      -3.61449987e-01 -2.63193989e+00 -1.61667004e-01 -1.83249998e+00
      -3.41156006e-01 -1.81636000e+00 6.09435976e-01 -1.79264998e+00
      -6.84296012e-01 -1.64200997e+00 -8.18068981e-01 -1.49892998e+00 0.
      0. 9.88997996e-01 3.60825992e+00 -4.02289987e-01 3.71463990e+00
      4.73228008e-01 -2.02375007e+00 -4.70795006e-01 -1.03717995e+00
      -2.47008994e-01 -1.15090001e+00 -4.96459991e-01 -1.53095996e+00
      5.00365973e-01 4.41972017e+00 -8.75762999e-01 5.70098019e+00 0. 0.
      -9.81658995e-01 -1.95648000e-01 -7.42981017e-01 -3.16947997e-01
      -2.11296007e-01 -3.70314002e+00 7.70599008e-01 -1.18000996e+00
      1.77453995e+00 -2.15949988e+00 -7.32223988e-01 -2.10570002e+00
      -8.65981996e-01 -1.96259999e+00 -1.11275995e+00 -3.07608008e+00
      -2.58673000e+00 -1.87653005e+00 -1.24115002e+00 -2.10981989e+00
      -2.21499991e+00 -2.25313997e+00 2.53845006e-01 -2.38155007e+00
      4.40445006e-01 -2.45760989e+00 6.49536014e-01 -2.52631998e+00
      -1.45318997e+00 -2.49012995e+00 5.53924978e-01 -2.27124000e+00
      3.67325008e-01 -2.19517994e+00 -2.10153008e+00 -2.06680012e+00
      -2.48230004e+00 -1.92960000e+00 -2.10153008e+00 -2.06680012e+00
      -7.92617977e-01 -2.18761992e+00 5.53924978e-01 -2.27124000e+00</_>
    <_>
      -1.61937997e-01 1.25116003e+00 -1.49030995e+00 4.04121011e-01
      -3.69067997e-01 -1.69102001e+00 7.61493981e-01 -2.55668998e+00
      -1.99563003e+00 -3.33414006e+00 -4.95995998e+00 -5.19513988e+00
      -6.81679010e+00 -8.17875957e+00 -8.73853970e+00 -8.55914021e+00
      -8.25409985e+00 -8.67142010e+00 -6.51677990e+00 -6.01955986e+00
      -5.90902996e+00 -1.81580997e+00 -5.25252008e+00 1.21480000e+00
      -6.95831013e+00 1.86052001e+00 -7.20385981e+00 2.63641000e+00
      -8.56396008e+00 3.44839001e+00 -6.18823004e+00 2.97349000e+00
      -6.24203014e+00 2.57398009e+00 -5.93066990e-01 4.85686988e-01
      -9.79393005e-01 -1.71027005e+00 -2.35054001e-01 -1.65494001e+00
      1.74627995e+00 -4.93838996e-01 2.49733996e+00 6.19410992e-01
      -2.42129993e+00 6.09027982e-01 -4.17998999e-01 7.11775005e-01
      3.35860997e-01 -1.72090006e+00 1.11722004e+00 -4.93737996e-01
      -5.53680003e-01 1.81000996e+00 -5.90453982e-01 1.27679002e+00
      -6.16546988e-01 -1.66816998e+00 -6.23565972e-01 -2.12559009e+00
      -1.89838004e+00 -3.83132005e+00 -6.59942999e-02 6.68259025e-01
      -1.58270001e+00 5.96176028e-01 -3.12753010e+00 5.53146005e-01
      -4.63225985e+00 1.88207996e+00 -6.13653994e+00 3.23955989e+00 0.
      0. -3.59055012e-01 -2.28216004e+00 -7.59750009e-01 -2.30461001e+00
      1.69478998e-01 -1.36047006e-01 -6.98746026e-01 2.29836011e+00
      -1.53726995e+00 1.07207000e+00 -2.65120006e+00 1.15587997e+00
      -1.75089002e+00 -1.05025995e+00 -9.21645999e-01 -1.05343997e+00 0.
      0. 3.40683013e-01 3.56924009e+00 -1.75635004e+00 2.32411003e+00
      6.86675978e+00 1.08183002e+01 3.87719989e+00 8.55741978e+00
      -1.57256997e+00 6.22935009e+00 -6.81537008e+00 8.70226955e+00
      -9.58745956e+00 8.81145954e+00 -1.50214996e+01 1.24883003e+01
      -2.04461994e+01 1.73945999e+01 -1.76310997e+01 8.13598990e-01
      -1.10483999e+01 -9.39113998e+00 -6.99856997e+00 -1.07114000e+01
      -4.19610977e+00 -1.07067003e+01 2.54408002e+00 -4.41412020e+00
      7.90518999e+00 8.29547024e+00 -2.79714990e+00 7.18228006e+00
      -6.82859993e+00 7.21544981e+00 -9.62043953e+00 8.52602959e+00
      -2.02752991e+01 1.36173000e+01 -1.10145998e+01 -9.04848957e+00
      -8.22278023e+00 -1.03590002e+01 -1.70332003e+00 -1.03827000e+01</_>
    <_>
      -1.35193002e+00 -3.09745997e-01 -3.59789014e-01 -1.57231998e+00
      -5.67912996e-01 -3.02338004e-01 -2.08071995e+00 -2.72261000e+00
      -2.26903009e+00 -1.38364005e+00 -2.42941999e+00 6.62230980e-03
      -2.56187010e+00 2.02880993e-01 -1.35306001e+00 2.89498997e+00
      -3.83234000e+00 4.46213007e+00 -6.25948000e+00 6.02747011e+00
      -4.93765020e+00 4.97978020e+00 -3.53836012e+00 5.14854002e+00
      -2.11547995e+00 4.00151014e+00 -6.51215017e-01 4.03737020e+00
      -1.69461000e+00 2.83724999e+00 9.86663997e-01 1.56786001e+00
      1.19540000e+00 3.15239012e-01 1.15059003e-01 -2.68620992e+00
      2.59108990e-01 -1.30663002e+00 2.91572988e-01 -1.12487996e+00
      -2.23463011e+00 -2.14249992e+00 -3.55118990e+00 -3.18499994e+00
      1.48773000e-01 -4.21136999e+00 1.80969000e-01 -5.28361988e+00
      2.30865002e-01 -3.85718989e+00 1.46396005e+00 -2.46343994e+00
      2.59981990e+00 -2.35511994e+00 -1.18737996e+00 6.59820974e-01
      -8.21532980e-02 6.38602972e-01 -1.95221007e-01 1.88784003e+00
      9.27718997e-01 3.11999989e+00 5.83713007e+00 6.54484987e+00
      4.54416990e+00 5.43184996e+00 7.71164000e-01 4.37076998e+00
      -2.88872004e+00 7.04166985e+00 -4.07729006e+00 8.41557026e+00 0.
      0. 7.35168010e-02 1.10641003e-01 1.29668999e+00 -1.02068996e+00
      1.31072998e-02 1.61930001e+00 -8.83483980e-03 1.48944998e+00
      -1.25811005e+00 1.37639999e+00 -3.75366001e-03 8.88405025e-01
      -1.20070004e+00 -1.46456003e+00 1.31033003e+00 -1.32915005e-01 0.
      0. 5.11169014e-03 2.38593006e+00 -1.68762002e-02 1.01077998e+00
      1.76766002e+00 6.46950006e+00 1.95521998e+00 1.03381996e+01
      1.98644996e+00 7.99451017e+00 -5.25345027e-01 8.13463020e+00
      -2.96728992e+00 9.52630997e+00 -1.74379003e+00 1.21395998e+01
      -1.88742006e+00 9.77589035e+00 -3.17951989e+00 1.34176998e+01
      -4.49867010e+00 1.20530996e+01 -7.77572989e-01 1.18793001e+01
      4.71893013e-01 1.17486000e+01 1.73746002e+00 1.03371000e+01
      3.05801010e+00 9.00205994e+00 3.10911989e+00 9.21798992e+00
      6.06293023e-01 9.36649036e+00 -3.08902001e+00 1.07757998e+01
      -1.87213004e+00 1.09596996e+01 -3.10645008e+00 1.07763996e+01
      -6.55791998e-01 9.38446045e+00 1.86443996e+00 1.04806995e+01</_>
    <_>
      5.76516986e-01 -2.65053004e-01 3.90507013e-01 -1.75451005e+00
      -9.72644985e-01 -2.16025996e+00 -1.24782002e+00 -2.52599001e+00
      -2.61909008e+00 -2.91253996e+00 -2.94957995e+00 -4.24813986e+00
      -3.39363003e+00 -4.40244007e+00 -2.73114991e+00 -5.50054979e+00
      -1.02013004e+00 -5.31180000e+00 7.32528985e-01 -4.98092985e+00
      2.67525005e+00 -6.71149015e+00 2.92984009e-01 -6.35828018e+00
      2.55524009e-01 -6.96964979e+00 -1.88469994e+00 -5.49945021e+00
      -1.82985997e+00 -3.94106007e+00 -2.86292005e+00 -2.42270994e+00
      -2.75332999e+00 -8.86429012e-01 5.29362023e-01 -2.08737993e+00
      1.43343997e+00 -6.46750987e-01 1.55517995e-01 -2.62625003e+00
      8.82674992e-01 -2.45612001e+00 5.24169981e-01 -2.43828011e+00
      1.16164997e-01 -3.29728007e+00 -1.56463996e-01 -3.02796006e+00
      5.52765012e-01 -1.71519995e+00 1.43463001e-01 -5.57345986e-01
      -1.27340996e+00 -7.02849984e-01 -9.52255011e-01 -1.58334005e+00
      -3.96271013e-02 -7.50411987e-01 -1.24921000e+00 -1.09107995e+00
      -3.02109003e-01 -1.35979998e+00 -6.81305006e-02 -1.72477996e+00
      -2.54227012e-01 -1.71311998e+00 -1.53644001e+00 -1.72223997e+00
      -6.63208008e-01 -4.75845009e-01 -1.84744000e+00 -1.46921003e+00 0.
      0. 9.21715021e-01 2.18639001e-01 -1.45367002e+00 2.35129997e-01
      -5.96664011e-01 -8.14453006e-01 -4.00168985e-01 -9.57572997e-01
      -1.46988004e-01 -2.14766002e+00 6.33789003e-01 -3.20023000e-01
      3.79287988e-01 2.05367994e+00 -9.21752989e-01 2.11575007e+00 0. 0.
      -9.21645999e-01 -2.18628004e-01 3.84932995e-01 -2.67044008e-01
      -2.08835006e+00 -5.76694012e+00 -3.36993003e+00 -5.61734009e+00
      -2.42735004e+00 -6.49483013e+00 -1.51996005e+00 -6.42939997e+00
      5.22216976e-01 -6.24749994e+00 -9.16809022e-01 -4.11327982e+00
      -2.08205998e-01 -2.95930004e+00 5.53589016e-02 -4.28081989e+00
      2.65549004e-01 -4.42946005e+00 -2.78066993e+00 -5.70944023e+00
      -3.69914007e+00 -5.80216980e+00 -3.51213002e+00 -4.74247980e+00
      -2.22408009e+00 -4.64026022e+00 -2.52271008e+00 -5.54346991e+00
      -1.60979998e+00 -5.46441984e+00 4.13253993e-01 -5.29061985e+00
      -6.70012981e-02 -4.07230997e+00 4.98870999e-01 -7.45292997e+00
      -1.56421995e+00 -6.53873014e+00 -3.56508994e+00 -6.65786982e+00</_>
    <_>
      9.28040981e-01 -3.09881997e+00 8.77234995e-01 -5.14354992e+00
      3.68436003e+00 -5.68027020e+00 5.03268003e+00 -6.27807999e+00
      4.85898018e+00 -8.25185966e+00 5.98549986e+00 -8.68309021e+00
      5.49196005e+00 -7.54779005e+00 6.42058992e+00 -7.78766012e+00
      7.28531981e+00 -9.29382038e+00 8.12290955e+00 -7.73468018e+00
      6.13594007e+00 -8.94814014e+00 4.17212009e+00 -1.00882998e+01
      8.92455995e-01 -1.11167002e+01 -2.20615005e+00 -1.06091003e+01
      -3.72429991e+00 -1.00384998e+01 -2.34777999e+00 -9.41926003e+00
      -3.84157991e+00 -8.84823990e+00 -9.66152012e-01 1.04341002e+01
      3.07814002e+00 1.51858997e+01 5.48383999e+00 2.11632996e+01
      6.43311024e+00 2.40382004e+01 7.39679003e+00 2.53318005e+01
      -7.66302013e+00 2.23535004e+01 -6.71700001e+00 2.25275002e+01
      -4.29691982e+00 2.11327000e+01 -1.80014002e+00 1.37292004e+01
      3.72851992e+00 1.05130997e+01 -2.69774999e-02 5.94858980e+00
      1.86157005e-03 2.78599000e+00 1.45404005e+00 1.07068002e+00
      1.16576999e-02 -6.93252981e-01 1.85713005e+00 2.50214010e-01
      3.11069012e+00 -1.22510004e+00 1.45683002e+00 -1.26507998e+00
      -2.10205004e-01 2.03278005e-01 -1.84099996e+00 2.36709997e-01 0.
      0. -2.58904010e-01 1.65017998e+00 8.72184992e-01 2.21466005e-01
      5.71624994e-01 1.45731997e+00 8.65149975e-01 1.36494005e+00
      -2.53585994e-01 1.33397996e+00 -5.72005987e-01 1.46246004e+00
      -8.55606019e-01 2.41111994e-01 2.63915986e-01 2.23423004e-01 0. 0.
      2.56835997e-01 1.36689997e+00 -2.31000996e+00 -8.74938965e-02
      1.11415997e+01 -9.27766037e+00 7.86479998e+00 -1.78996003e+00
      3.15516996e+00 -2.51129001e-01 1.77002009e-02 -3.28200996e-01
      -3.13380003e+00 1.15172005e+00 -6.33098984e+00 -4.34937000e-01
      -8.05379009e+00 -6.51022005e+00 -4.80292988e+00 -1.10056000e+01
      -1.57813001e+00 -1.25086002e+01 1.57293999e+00 -1.39642000e+01
      4.73559999e+00 -1.39352999e+01 9.40569019e+00 -1.38446999e+01
      1.09589996e+01 -7.82087994e+00 3.13448000e+00 2.42499995e+00
      -1.57471001e-02 3.83194995e+00 -1.70669997e+00 2.38014007e+00
      -7.88393021e+00 -6.48302984e+00 -2.99361992e+00 -1.51479998e+01
      1.45476997e-01 -1.51681995e+01 3.29570007e+00 -1.65751991e+01</_>
    <_>
      -5.67143011e+00 -8.22516978e-01 -4.56525993e+00 1.40166998e-01
      -3.45333004e+00 1.08791006e+00 -1.35666001e+00 1.52344003e-01
      6.90501988e-01 1.09435999e+00 2.73457003e+00 1.04572999e+00
      1.87763000e+00 1.84362996e+00 3.84921002e+00 1.72580004e+00
      4.83806992e+00 6.00646973e-01 4.82253981e+00 3.97736013e-01
      3.85712004e+00 -1.71047997e+00 3.76400995e+00 -1.87659001e+00
      1.78101003e+00 -3.94764996e+00 6.88812017e-01 -4.99050999e+00
      4.88799989e-01 -4.08537006e+00 -5.90453982e-01 -6.03223991e+00
      -7.50792980e-01 -7.01024008e+00 -3.01006007e+00 6.30263984e-02
      -2.17782998e+00 9.41834986e-01 -2.19676995e+00 8.09531987e-01
      -2.16501999e+00 6.74592972e-01 -2.15302005e-01 5.91103017e-01
      -1.15865004e+00 3.43753994e-01 -2.98842996e-01 2.12347007e+00
      -1.22074997e+00 5.77755012e-02 -2.65105993e-01 8.91942978e-01
      -1.29150003e-01 -1.10286999e+00 -2.82288007e-02 -4.66316015e-01
      1.03162003e+00 -4.35759991e-01 1.12212002e+00 5.23765981e-01
      2.88940012e-01 5.09094000e-01 4.18839008e-01 -3.03375006e-01
      4.11850005e-01 5.80688000e-01 4.30373996e-01 5.10818005e-01
      1.34253001e+00 1.40862000e+00 1.33080006e+00 1.33729994e+00 0. 0.
      -6.17064983e-02 8.66302013e-01 -5.20858988e-02 7.70744026e-01
      -2.83813011e-03 6.92252994e-01 -9.10453975e-01 -1.95221007e-01
      3.41187008e-02 -7.92312995e-02 7.61413993e-03 2.63161004e-01
      -1.01311004e+00 1.10374999e+00 -6.46514967e-02 1.03294003e+00 0.
      0. 3.16466987e-02 7.73238987e-02 5.22918999e-02 -7.75780022e-01
      6.21185005e-01 1.69753003e+00 5.85219979e-01 6.54694021e-01
      5.53557992e-01 5.77392995e-01 5.71547985e-01 5.17609000e-01
      5.49727976e-01 4.45800990e-01 1.53827000e+00 3.81972998e-01
      1.56852996e+00 1.22739995e+00 2.59334993e+00 -5.42908013e-01
      1.63020003e+00 4.67238992e-01 1.63692999e+00 5.38299978e-01
      1.63379002e+00 6.03851020e-01 6.76177979e-01 6.54021978e-01
      -3.31344992e-01 1.64180005e+00 6.14028990e-01 5.80291986e-01
      1.56608999e+00 5.39947987e-01 6.10489011e-01 4.43648994e-01
      3.48511004e+00 3.58978003e-01 1.57958996e+00 -4.80255008e-01
      1.56608999e+00 5.39947987e-01 6.08977973e-01 5.80031991e-01</_>
    <_>
      2.24148011e+00 -7.91770995e-01 1.41268003e+00 -2.75432992e+00
      5.13761997e-01 -4.73769999e+00 -1.83097994e+00 -6.70777988e+00
      -6.25763014e-02 -4.67225981e+00 1.54176998e+00 -2.70077991e+00
      2.95960999e+00 -7.69302011e-01 1.38463998e+00 -1.15355998e-01
      3.62842011e+00 -8.37768972e-01 2.88243008e+00 -2.74520993e+00
      3.41869998e+00 -5.75976992e+00 2.50354004e+00 -9.97562027e+00
      1.66577005e+00 -1.11626997e+01 -4.84771997e-01 -1.35557003e+01
      -2.44650006e+00 -1.02624998e+01 -4.36199999e+00 -6.97086000e+00
      -4.81835985e+00 -2.24659991e+00 -1.23754001e+00 -2.07627010e+00
      -1.76996005e+00 -2.08172011e+00 -2.26839995e+00 -2.45857000e+00
      -2.63123989e+00 -2.93246007e+00 -2.92585993e+00 -6.54919028e-01
      -7.13150024e-01 -2.66061997e+00 1.78939998e-01 -1.57948995e+00
      1.05779004e+00 -1.94421995e+00 6.60843015e-01 -3.79383993e+00
      -7.09807992e-01 -1.51526999e+00 -1.38554001e+00 1.48072004e+00
      3.37540001e-01 -2.88879007e-01 6.96640015e-01 -6.24763012e-01
      -3.67415994e-01 -3.74809003e+00 -9.64760005e-01 -2.22417998e+00
      2.06650004e-01 -3.88286996e+00 1.41208005e+00 -4.16586018e+00
      -2.36876994e-01 -2.95409012e+00 -5.20431995e-01 -3.12982011e+00 0.
      0. -3.62700999e-01 1.27320004e+00 -6.85310006e-01 2.35994005e+00
      3.38223004e+00 -9.33799982e-01 9.60510015e-01 -6.91375971e-01
      -9.29946974e-02 1.03284001e+00 -1.88262999e+00 -5.96992016e-01
      4.28878993e-01 -6.73740029e-01 1.28631994e-01 3.89122009e-01 0. 0.
      1.77251995e+00 6.84280023e-02 -7.02560008e-01 -9.48578000e-01
      -1.15262997e+00 1.30843997e-01 1.18083000e+00 2.80710006e+00
      3.43006992e+00 -1.58329999e+00 1.91668999e+00 -4.68582004e-01
      3.01044989e+00 -6.32140994e-01 1.45641005e+00 1.69877994e+00
      1.41720998e+00 1.21411002e+00 5.27648985e-01 1.25522006e+00
      9.85535026e-01 2.84827995e+00 1.21252000e+00 1.67215002e+00
      1.44080997e+00 3.31911993e+00 2.52068013e-01 2.36353993e+00
      9.15222019e-02 1.36229002e+00 2.39191008e+00 3.73873997e+00
      2.19777989e+00 3.46753001e+00 3.33624005e+00 3.25621009e+00
      -1.24892998e+00 1.83410998e-02 4.90325987e-01 -5.09560013e+00
      -6.59865975e-01 -6.28381014e+00 9.09973025e-01 -6.04672003e+00</_>
    <_>
      -1.37134004e+00 2.30830002e+00 -2.51971990e-01 3.54036999e+00
      8.66694987e-01 4.75158978e+00 9.18811977e-01 5.80478001e+00
      1.27172995e+00 4.70666981e+00 1.60993004e+00 3.54234004e+00
      -1.28638995e+00 1.85927999e+00 -5.43584013e+00 1.04192996e+00
      -8.74505997e+00 1.40137005e+00 -9.03789043e+00 3.29391003e+00
      -9.55797958e+00 6.30123997e+00 -8.89896011e+00 8.41401958e+00
      -7.22437000e+00 1.07178001e+01 -5.44204998e+00 1.20088997e+01
      -2.28472996e+00 1.13501997e+01 -7.88299978e-01 7.18204021e+00
      1.45490003e+00 5.31766987e+00 -1.02415001e+00 -1.06637001e+00
      -9.82658029e-01 -2.24992990e+00 -1.16263998e+00 -1.34109998e+00
      -2.02626991e+00 -2.71727991e+00 -2.08884001e+00 -1.78737998e+00
      -2.04433990e+00 -2.07661009e+00 -2.08526993e+00 -2.23992991e+00
      -2.08644009e+00 -2.39836001e+00 -2.02255011e+00 -2.54434991e+00
      -8.23090017e-01 -2.46378994e+00 -3.49412990e+00 1.12252998e+00
      -3.05688000e+00 -1.00214005e+00 -3.99592996e+00 -1.14986002e+00
      -4.61892986e+00 -3.43066001e+00 3.35709006e-01 7.45513976e-01
      -1.76669002e+00 3.49258006e-01 -2.64273000e+00 -9.61884022e-01
      -5.25708008e+00 1.83023000e+00 -6.49268007e+00 2.65997005e+00 0.
      0. -2.03662992e+00 -1.47640002e+00 -8.03650022e-01 -2.50615001e+00
      -8.66638005e-01 -1.52829003e+00 -1.16650999e+00 7.12700009e-01
      -2.24780989e+00 6.74018979e-01 -9.56786990e-01 -9.22698975e-01
      -1.92944002e+00 -2.25559998e+00 -9.93484020e-01 -1.14663005e+00 0.
      0. -2.94281006e-01 2.22201991e+00 -2.29672003e+00 9.55054998e-01
      8.31258011e+00 1.51780005e+01 1.73183000e+00 7.53710985e+00
      -1.77190995e+00 1.43361998e+00 -3.11377001e+00 3.31767011e+00
      -3.12545991e+00 3.21798992e+00 -7.06506014e+00 7.95410013e+00
      -1.49493999e+01 1.75828991e+01 -9.21158981e+00 8.72688007e+00
      -5.20315981e+00 3.99050999e+00 -3.82974005e+00 2.11579990e+00
      -2.62062001e+00 1.30577004e+00 3.10921001e+00 6.64642000e+00
      8.78896046e+00 1.19239998e+01 -2.14931989e+00 4.65501022e+00
      -3.19408011e+00 4.40039015e+00 -4.41773987e+00 5.21295023e+00
      -1.34155998e+01 1.45873003e+01 -4.09160995e+00 3.06910992e+00
      -3.93645000e+00 2.10481000e+00 -2.58194995e+00 2.24487007e-01</_>
    <_>
      -2.61626989e-01 6.40869024e-04 3.92952003e-02 -5.33735991e+00
      -2.93652010e+00 -1.06907997e+01 -4.83604002e+00 -1.49371996e+01
      -8.86100960e+00 -1.91494999e+01 -9.52923965e+00 -2.53115005e+01
      -7.91718006e+00 -3.01601009e+01 -5.20689011e+00 -3.15615997e+01
      -5.34897995e+00 -3.28620987e+01 -3.03519011e+00 -3.18700008e+01
      7.46948004e-01 -2.88099995e+01 4.55128002e+00 -2.25942993e+01
      5.21366978e+00 -1.66019001e+01 1.63240004e+00 -1.20334997e+01
      2.56653011e-01 -6.46377993e+00 -4.27855998e-02 2.13005006e-01
      2.96694994e+00 4.69125986e+00 -7.36378002e+00 1.76194000e+01
      -1.00918999e+01 1.46957998e+01 -9.82110977e+00 6.61707020e+00
      -6.46117020e+00 -1.39521003e+00 -3.45246005e+00 -3.99540997e+00
      2.15510988e+00 -9.29584980e+00 6.79399014e+00 -8.60348988e+00
      1.11225004e+01 -3.49692988e+00 1.30066004e+01 7.02682018e+00
      8.10585022e+00 1.50753002e+01 -8.37539971e-01 -2.33997989e+00
      -1.48010004e+00 -2.21924007e-01 -1.06171000e+00 1.90979004e+00
      -1.68892002e+00 2.93618011e+00 -2.09401989e+00 -1.88765001e+00
      -1.10994995e+00 -1.60134995e+00 -2.32459998e+00 -2.54135013e-01
      -3.31084991e+00 4.41895016e-02 -4.29712009e+00 3.42498988e-01 0.
      0. 2.58819997e-01 3.22333992e-01 2.60086000e-01 8.45607996e-01
      1.10941005e+00 -8.45345020e-01 -7.72171021e-02 -3.54356003e+00
      -8.02154988e-02 -4.03612995e+00 -1.10765004e+00 8.14658999e-01
      2.34130993e-01 1.30577004e+00 -8.23776007e-01 -4.00355995e-01 0.
      0. -1.32584006e-01 -2.56184006e+00 -1.16415000e+00 -3.09701991e+00
      -1.17294998e+01 -2.34043999e+01 -1.82009006e+00 -8.65818977e+00
      -2.84241009e+00 -1.71439004e+00 -2.95694995e+00 -1.32073998e+00
      -3.97730994e+00 -9.62845027e-01 -6.15739012e+00 -9.24125957e+00
      1.44010997e+00 -2.50009003e+01 -7.29737997e+00 -4.30662994e+01
      -6.21014023e+00 -5.22531013e+01 -4.06566000e+00 -5.26245995e+01
      -1.87524998e+00 -5.19010010e+01 -2.95662999e+00 -4.25446014e+01
      -1.49841995e+01 -2.32646999e+01 -3.01253009e+00 -1.15260000e+01
      -4.12500000e+00 -1.11732998e+01 -4.10138988e+00 -1.18643999e+01
      2.54390001e+00 -2.52003002e+01 -4.77799988e+00 -3.91696014e+01
      -2.63525009e+00 -3.95105019e+01 -2.59747005e+00 -3.88158989e+01</_>
    <_>
      -1.89218998e+00 1.03757000e+00 -2.19587994e+00 2.72242999e+00
      -2.41930008e+00 3.04465008e+00 -2.64268994e+00 3.36690998e+00
      -1.43192005e+00 3.75149989e+00 -1.46047997e+00 2.74325991e+00
      -1.44228005e+00 3.11901999e+00 -1.28477001e+00 2.12491012e+00
      -1.03937995e+00 2.43603992e+00 -7.54683971e-01 2.69171000e+00
      -1.75571001e+00 2.77929997e+00 -1.38706994e+00 2.85414004e+00
      -1.00954998e+00 2.81266999e+00 7.28667974e-01 2.72269011e+00
      -2.69347996e-01 1.07912004e+00 4.00390998e-02 8.56994987e-01
      4.08203006e-01 -7.52731025e-01 -1.50218999e+00 9.85355020e-01
      -1.17146003e+00 -4.40086007e-01 -8.54888976e-01 -1.67944002e+00
      -7.20252991e-01 -6.65016025e-02 -6.10870004e-01 1.87481001e-01
      1.15070999e+00 -8.24898005e-01 1.38545001e+00 7.02058971e-01
      2.27035999e-01 8.59570026e-01 3.11600000e-01 2.51548004e+00
      3.59923989e-01 1.41951001e+00 -2.02686000e+00 5.00881016e-01
      -8.39478016e-01 7.31621027e-01 -2.41666007e+00 8.57276976e-01
      -1.27553999e+00 2.46487999e+00 -1.54785007e-01 1.11126995e+00
      -1.49397004e+00 1.18488002e+00 -1.43306994e+00 1.30648994e+00
      -1.30954003e+00 1.37435997e+00 -1.18599999e+00 1.44225001e+00 0.
      0. -1.19257998e+00 -8.86536017e-03 -1.03857994e+00 1.19838998e-01
      -9.84749019e-01 3.34511012e-01 -1.15303004e+00 2.39814997e-01
      -1.24818003e+00 -1.27654004e+00 1.02225995e+00 -3.66753012e-01
      1.23882997e+00 -2.91770995e-01 -7.86591023e-02 1.18726003e+00 0.
      0. -8.80127028e-02 -1.45729995e+00 -2.63229012e-01 -2.30606005e-01
      6.39038026e-01 1.44070005e+00 -5.30258000e-01 1.43364000e+00
      -4.42245007e-01 2.89095998e+00 -3.22555989e-01 1.62492001e+00
      1.16536999e+00 1.74983001e+00 1.18724000e+00 3.30739999e+00
      -6.62536994e-02 2.10065007e+00 -1.99019998e-01 6.16546988e-01
      1.03285003e+00 5.69885015e-01 -4.53247011e-01 4.21721995e-01
      -1.91609001e+00 2.75299013e-01 -1.99854004e+00 1.28662005e-01
      -6.34270012e-01 3.36151011e-02 -1.84800994e+00 1.53225994e+00
      -3.85132015e-01 1.67867994e+00 2.47789001e+00 1.87311995e+00
      -1.09298997e-01 2.05057001e+00 1.10099995e+00 1.82681000e+00
      -3.97628993e-01 1.68938994e+00 -1.84800994e+00 1.53225994e+00</_>
    <_>
      1.72841001e+00 9.07387018e-01 1.42279994e+00 6.59736991e-01
      2.50767994e+00 1.87474000e+00 3.61694002e+00 1.65088999e+00
      1.87042999e+00 3.52936015e-02 1.50011003e+00 -1.44954002e+00
      2.57752991e+00 -5.63281012e+00 3.67811990e+00 -1.12069998e+01
      4.77510023e+00 -1.23668003e+01 4.51473999e+00 -1.06099997e+01
      5.76357985e+00 -7.33966017e+00 5.63292980e+00 -5.49556017e+00
      2.81607008e+00 -6.52647018e+00 1.32721007e-01 -6.19846010e+00
      3.64594012e-01 -5.88068008e+00 2.01156998e+00 -4.12364006e+00
      8.52539003e-01 -3.82908010e+00 4.48089987e-01 -4.43908024e+00
      4.88395989e-01 -2.71069002e+00 1.74005997e+00 -9.75646973e-01
      1.44705999e+00 6.48361027e-01 1.13116002e+00 8.08333993e-01
      -1.99462998e+00 2.50465989e+00 -6.95617974e-01 -5.58472006e-03
      -9.06601012e-01 -1.15051997e+00 2.16796994e-01 -2.40564990e+00
      1.30890000e+00 -2.42602992e+00 -6.31103992e-01 7.63770998e-01
      -7.59627998e-01 6.28555000e-01 -8.88167977e-01 4.93355006e-01
      -1.00460994e+00 -1.06904995e+00 3.13205004e+00 5.64521980e+00
      1.60698998e+00 4.28713989e+00 -1.34531999e+00 2.91691995e+00
      -2.84749007e+00 3.02289009e+00 -4.37338018e+00 4.54374981e+00 0.
      0. -1.45661998e+00 2.03079000e-01 -1.59263003e+00 -1.05991006e+00
      -4.30198997e-01 4.08957988e-01 -3.29834014e-01 1.65907001e+00
      -1.60894001e+00 1.48277998e+00 -2.42400002e+00 9.82345998e-01
      -2.46567988e+00 1.20920002e+00 -1.22229004e+00 1.37259996e+00 0.
      0. 6.42547980e-02 2.67667007e+00 -2.64243007e+00 3.92775989e+00
      1.71676006e+01 9.41888046e+00 1.28437996e+01 9.63341045e+00
      4.21535015e+00 8.34762955e+00 -1.88109994e-01 6.96476984e+00
      -5.99620008e+00 8.47331047e+00 -1.47772999e+01 9.90666008e+00
      -1.64817009e+01 9.94756985e+00 -1.47953997e+01 -8.83108997e+00
      -6.08331013e+00 -1.60722008e+01 -2.63366997e-01 -1.61529007e+01
      5.56769991e+00 -1.61973991e+01 1.42291002e+01 -7.67737007e+00
      1.71298008e+01 6.64693022e+00 4.08641005e+00 9.65192032e+00
      -3.17474008e-01 9.70849991e+00 -6.12517023e+00 9.77756023e+00
      -1.77749004e+01 5.58441019e+00 -5.90701008e+00 -1.73512001e+01
      -9.93499979e-02 -1.74202995e+01 5.73166990e+00 -1.74647999e+01</_>
    <_>
      1.91389000e+00 4.40997982e+00 1.89446998e+00 2.64387989e+00
