<?xml version="1.0"?>
<opencv_storage>
<opencv_ml_svm>
  <format>3</format>
  <svmType>C_SVC</svmType>
  <kernel>
    <type>RBF</type>
    <gamma>3.3749999999999999e-06</gamma></kernel>
  <C>8.3966600000000000e+01</C>
  <term_criteria><iterations>100</iterations></term_criteria>
  <var_count>136</var_count>
  <class_count>7</class_count>
  <class_labels type_id="opencv-matrix">
    <rows>7</rows>
    <cols>1</cols>
    <dt>i</dt>
    <data>
      1 2 3 4 5 6 7</data></class_labels>
  <sv_total>494</sv_total>
  <support_vectors>
    <_>
      -1.42857000e-01 -1.02043003e-01 -2.79502988e-01 4.69383001e-01
      -5.52794993e-01 4.08173017e-02 3.72695997e-02 -4.08172995e-01
      -7.14286983e-01 2.12245011e+00 -1.24206999e-02 3.53061008e+00
      -1.65216994e+00 6.85715008e+00 -2.49689007e+00 7.06122017e+00
      -1.47826004e+00 9.14284992e+00 -2.39129996e+00 1.00204000e+01
      -2.16769004e+00 8.75510025e+00 -8.07448983e-01 8.44896984e+00
      9.93805006e-02 7.02040005e+00 5.52794993e-01 5.51021004e+00
      2.79509991e-01 1.93877995e+00 1.42853007e-01 3.67347986e-01
      1.42853007e-01 -1.83678001e-01 -3.04347992e-01 3.06122005e-01
      -1.26085997e+00 2.04086006e-02 -1.69564998e+00 -2.10204005e+00
      -2.19875002e+00 -2.04081988e+00 -1.63353002e+00 -8.57142985e-01
      -2.50309992e+00 -1.87755001e+00 -2.80123997e+00 -3.06122994e+00
      -2.23602009e+00 -3.14285994e+00 -2.60247993e+00 -2.06122994e+00
      -1.62732005e+00 -7.75512993e-01 -3.06831002e+00 6.53060973e-01
      -3.06831002e+00 4.08173017e-02 -4.06830978e+00 4.48974997e-01
      -3.13664007e+00 1.85714996e+00 -2.77019000e+00 1.12244999e+00
      -2.45340991e+00 2.18367004e+00 -3.13664007e+00 1.24489999e+00
      -3.81987000e+00 1.18367004e+00 -4.50309992e+00 3.12245011e+00
      -1.21738994e+00 -2.65305012e-01 -2.96894002e+00 -4.28573996e-01
      -2.06210995e+00 -4.28573996e-01 -3.01863003e+00 -2.04086006e-01
      -2.99378991e+00 -1.22451998e-01 -1.96894002e+00 -1.42859995e-01
      -2.11801004e+00 -1.22449005e+00 -4.00620985e+00 -1.44897997e+00
      -3.03104997e+00 -1.46939003e+00 -1.91925001e+00 -1.30612004e+00
      -2.16769004e+00 -1.63268998e-01 -3.14284992e+00 -1.63268998e-01
      3.45963001e+00 7.83673000e+00 -4.96886998e-01 4.69388008e+00
      -2.38509011e+00 2.61224008e+00 -2.13664007e+00 4.67346001e+00
      -1.88820004e+00 2.59183002e+00 -3.77640009e+00 5.67346001e+00
      -6.86955023e+00 7.79590988e+00 -2.91303992e+00 7.95917988e+00
      -1.02484000e+00 9.06122017e+00 -1.20497000e+00 8.08162975e+00
      -1.45341003e+00 9.08162975e+00 4.34783995e-01 6.97957993e+00
      3.04969001e+00 7.83673000e+00 -1.45341003e+00 5.79590988e+00
      -1.20497000e+00 5.81632996e+00 -2.88820004e+00 5.79590988e+00
      -5.45963001e+00 7.79590988e+00 -1.95650995e+00 5.77550983e+00
      -1.20497000e+00 5.81632996e+00 -1.45341003e+00 6.79590988e+00</_>
    <_>
      -2.24837996e-02 -3.97567987e-01 -1.75754994e-01 -2.70843995e-03
      -1.02248001e+00 -7.83645988e-01 -1.71595001e+00 -7.40372002e-01
      -1.48978996e+00 1.47868001e+00 -4.97283995e-01 2.34615993e+00
      2.61566013e-01 4.68626022e+00 -6.73041999e-01 6.97159004e+00
      -5.34775019e-01 8.67477036e+00 6.03515983e-01 8.97159004e+00
      2.12871003e+00 8.68626022e+00 2.19410992e+00 5.52195978e+00
      3.33986998e+00 3.65447998e+00 3.56604004e+00 4.35425013e-01
      2.02585006e+00 -6.07849002e-01 3.32367003e-01 -4.75326985e-01
      3.32367003e-01 -3.42804015e-01 -4.02998018e+00 -2.21027994e+00
      -5.19075012e+00 -4.14402008e+00 -5.27862978e+00 -3.49561000e+00
      -5.51978016e+00 -3.96822000e+00 -6.76093006e+00 -3.08925009e+00
      -2.92917991e+00 -2.91346002e+00 -2.17033005e+00 -3.61663008e+00
      -2.58208990e-01 -3.14402008e+00 1.50064003e+00 -3.79242992e+00
      3.18659997e+00 -2.68289995e+00 -3.07497001e+00 8.99254024e-01
      -1.07497001e+00 2.53615999e+00 -2.22823000e+00 2.17307997e+00
      -1.38150001e+00 2.80999994e+00 -3.44688010e+00 3.27112007e+00
      -1.91418004e+00 2.44690990e+00 -1.38150001e+00 2.79851007e+00
      -8.48801017e-01 4.62271023e+00 -1.31610000e+00 4.27112007e+00
      -4.11786985e+00 -1.10074997e+00 -3.43190002e+00 2.02789009e-02
      -3.28612995e+00 1.02028000e+00 -4.46884006e-01 4.26636010e-01
      -2.43937993e+00 9.54017997e-01 -2.58517003e+00 9.54017997e-01
      -3.24321008e+00 7.78221011e-01 -4.03975993e-01 1.19607997e+00
      7.41791010e-01 3.71872008e-01 1.42774999e+00 1.42664003e+00
      1.89506996e+00 3.48140001e+00 -1.40398002e+00 2.30559993e+00
      -6.05247021e+00 -5.76080024e-01 -5.99670000e-02 7.01756001e+00
      1.23907006e+00 4.78700018e+00 6.18499994e-01 5.49019003e+00
      1.15120006e+00 5.96280003e+00 2.29697990e+00 7.19335985e+00
      2.98293996e+00 1.95131004e+00 1.14371002e+00 4.70923996e+00
      -2.05994002e-03 5.58823013e+00 -5.34775019e-01 4.58823013e+00
      -6.74590990e-02 4.41242981e+00 -2.21322989e+00 3.53345990e+00
      -3.97957993e+00 4.23920006e-01 -9.14184988e-01 9.07233047e+00
      6.18499994e-01 9.42391968e+00 1.51198998e-01 1.12481003e+01
      1.91006005e+00 1.77550995e+00 -1.00206006e+00 -2.75187993e+00
      -1.53477001e+00 -2.57608008e+00 8.58153999e-02 -2.92767000e+00</_>
    <_>
      -3.35934013e-01 -4.43877995e-01 3.80156994e-01 -2.36167997e-01
      -1.11668003e+00 9.51447010e-01 -1.68449998e+00 3.14574003e+00
      -2.46525002e+00 4.33334017e+00 -2.67186999e+00 4.49416018e+00
      -3.23337007e+00 6.62145996e+00 -4.00780010e+00 5.71527004e+00
      -3.06612992e+00 3.72198009e+00 -1.12448001e+00 3.68176007e+00
      -1.96989000e+00 2.56785989e+00 -1.60237002e+00 4.27154988e-01
      -7.38007009e-01 -7.40356028e-01 -3.76801014e-01 -1.94136000e+00
      4.81247008e-01 -1.14235997e+00 3.39293987e-01 -3.36677998e-01
      2.68310994e-01 4.55619991e-01 1.74135995e+00 -3.53767991e+00
      1.74767995e+00 -3.64489007e+00 1.25715995e+00 -6.67839003e+00
      -3.04343998e-01 -7.66498995e+00 -7.94861019e-01 -8.61808014e+00
      1.00484002e+00 -9.63148022e+00 5.14312983e-01 -8.69178963e+00
      8.81835997e-01 -4.71189022e+00 3.20342988e-01 -2.69848990e+00
      -8.86276007e-01 -3.62478995e+00 1.85654998e+00 -4.84077007e-01
      8.56552005e-01 -3.43376011e-01 -2.14416996e-01 1.79733002e+00
      -2.85400003e-01 2.93803000e+00 1.92121994e+00 7.01173019e+00
      1.21145999e+00 6.03184986e+00 5.01677990e-01 5.05193996e+00
      -2.08084002e-01 6.02514982e+00 1.08211994e+00 6.99164009e+00
      7.53997982e-01 -4.23781991e-01 1.90226996e+00 -1.47738004e+00
      1.83762002e+00 -1.49078000e+00 1.77295005e+00 -4.37171996e-01
      1.76663005e+00 1.58961999e+00 8.31291020e-01 1.60302997e+00
      1.65627003e+00 1.54271996e+00 7.33565986e-01 -1.52427995e+00
      6.68914974e-01 -5.24276972e-01 1.67523003e+00 5.15923023e-01
      2.52694988e+00 1.54942000e+00 1.59160995e+00 2.55611992e+00
      -5.01411009e+00 1.12865000e+01 9.21218991e-01 1.22194996e+01
      1.99849999e+00 9.17924023e+00 1.28874004e+00 1.01926003e+01
      1.50800002e+00 1.01724997e+01 2.51430988e+00 1.11858997e+01
      5.23672009e+00 7.22614002e+00 1.37235999e+00 9.28645039e+00
      2.95058995e-01 8.32664013e+00 7.58209005e-02 8.34675980e+00
      8.56552005e-01 9.35344982e+00 -1.14974999e+00 1.13332996e+01
      -3.51096010e+00 1.02730999e+01 9.98504996e-01 1.02461996e+01
      1.28874004e+00 1.02461996e+01 1.43701005e+00 1.12327995e+01
      4.73357010e+00 9.22614002e+00 4.37011987e-01 7.21945000e+00
      2.17773005e-01 7.23955011e+00 9.27536011e-01 8.23954964e+00</_>
    <_>
      2.75245994e-01 -4.63073999e-01 2.75245994e-01 -1.46187007e-01
      1.16025996e+00 -1.82930005e+00 2.00694990e+00 -3.51240993e+00
      3.66198993e+00 -6.44376993e+00 5.01041985e+00 -7.70609999e+00
      4.09054995e+00 -6.38216019e+00 3.09401989e+00 -7.38922024e+00
      1.94418001e+00 -6.22372007e+00 7.94357002e-01 -7.55469990e+00
      -2.40493998e-01 -5.46492004e+00 -1.16036999e+00 -5.70609999e+00
      -8.11950982e-01 -4.44376993e+00 -1.18575998e-01 -2.59517002e+00
      -2.71881014e-01 -1.82930005e+00 -3.10211003e-01 -1.46187007e-01
      -3.10211003e-01 -4.63073999e-01 -3.64461994e+00 7.63376999e+00
      -5.18121004e+00 6.72356987e+00 -4.90945005e+00 7.47532988e+00
      -4.63768005e+00 8.47533035e+00 -3.36591005e+00 7.80631018e+00
      -1.40076005e+00 7.80631018e+00 -1.67312995e-01 5.39258003e+00
      -8.95554006e-01 4.30984020e+00 2.37621999e+00 2.55806994e+00
      1.80130005e+00 3.46828008e+00 -1.86416996e+00 5.46122980e+00
      -1.86416996e+00 3.53693008e+00 -1.86416996e+00 6.95374012e-01
      -1.82584000e+00 -6.34384006e-02 -1.21259999e+00 -4.08524007e-01
      -5.19226015e-01 -1.16027999e+00 -1.86416996e+00 -1.07755005e+00
      -1.28577006e+00 -2.43027002e-01 -1.63072002e+00 -4.91257012e-01
      -2.60281992e+00 6.04045010e+00 -2.02443004e+00 5.37848997e+00
      -3.52269006e+00 6.37848997e+00 -2.02096009e+00 3.95771003e+00
      -3.52269006e+00 5.28869009e+00 -2.02443004e+00 6.37143993e+00
      -1.82237005e+00 4.87495995e+00 -1.28230000e+00 3.21299005e+00
      1.81107000e-01 2.21299005e+00 -2.78824002e-01 2.70947003e+00
      1.42775998e-01 3.12319994e+00 -1.32062995e+00 2.04045010e+00
      5.15640020e-01 -1.59453992e-02 -9.82627988e-01 4.07385015e+00
      -1.51923001e+00 3.57737994e+00 -2.90249991e+00 4.82562017e+00
      -2.32410002e+00 5.57738018e+00 -2.89901996e+00 5.07385015e+00
      -5.12283027e-01 -2.18143010e+00 -1.89901996e+00 -2.68495011e+00
      -3.32410002e+00 -4.36706990e-01 -1.94082999e+00 -1.35397005e+00
      -5.19226015e-01 -1.35397005e+00 9.79041994e-01 -2.60220003e+00
      2.85667002e-01 9.01320994e-01 -1.51923001e+00 5.48758984e+00
      -1.94082999e+00 4.48758984e+00 -3.32410002e+00 4.40482998e+00
      -2.43973002e-01 -1.18142998e+00 -3.32410002e+00 -2.59517002e+00
      -1.90250003e+00 -2.51240993e+00 -1.51923001e+00 -2.59517002e+00</_>
    <_>
      3.96225005e-01 3.07693005e-01 3.39621991e-01 4.01344001e-01
      -8.30188990e-01 1.49834001e+00 -2.11320996e+00 1.59197998e+00
      -2.62263989e+00 2.68228006e+00 -5.58490992e+00 2.75586009e+00 -6.
      1.80937004e+00 -5.64151001e+00 1.84616005e+00 -7.33963013e+00
      2.85956001e+00 -6.09434986e+00 2.83947992e+00 -5.56604004e+00
      2.79264998e+00 -2.92453003e+00 4.73578978e+00 -1.83019996e+00
      3.66222000e+00 -3.16982007e+00 2.57525992e+00 -2.28302002e+00
      1.48160994e+00 -4.52820003e-01 3.91312003e-01 -4.52820003e-01
      3.01010013e-01 3.20755005e-01 -4.78260994e+00 5.28297007e-01
      -6.83945990e+00 2.83019990e-01 -8.85618973e+00 2.03772998e+00
      -8.84615040e+00 9.05655026e-01 -6.81939983e+00 -4.79244995e+00
      -5.81605005e+00 -3.03772998e+00 -6.83945990e+00 -2.28302002e+00
      -7.84281015e+00 -4.71695006e-01 -8.82608032e+00 7.35840023e-01
      -6.77257013e+00 -2.88680005e+00 -7.74582005e+00 -2.88680005e+00
      -6.68561983e+00 -2.88680005e+00 -5.62541008e+00 -3.94340992e+00
      -5.56521988e+00 -1.69812000e+00 -3.51169991e+00 -3.32076001e+00
      -4.50165987e+00 -5.94340992e+00 -2.49164009e+00 -4.62265015e+00
      -1.50165999e+00 -6.18867016e+00 -1.51170003e+00 -2.07550004e-01
      -4.72574997e+00 -8.86794984e-01 -5.74582005e+00 -6.79244995e-01
      -5.74246979e+00 -1.41509998e+00 -5.71571016e+00 -1.62264001e+00
      -4.70902014e+00 -1.83018994e+00 -4.70902014e+00 -1.47169006e+00
      -5.71571016e+00 -1.26416004e+00 -4.74246979e+00 -1.05660999e+00
      -4.74246979e+00 -1.73585999e+00 -3.71905994e+00 -1.11319995e+00
      -2.70567989e+00 -2.26415992e+00 -3.70567989e+00 2.54715991e+00
      6.60869980e+00 -1.35848999e+00 1.58194995e+00 -6.20755005e+00
      5.65231025e-01 -7. 1.57526004e+00 -7.79244995e+00 1.56189001e+00
      -9.69812012e+00 3.57525992e+00 -1.26037998e+01 8.59531975e+00
      -1.08113003e+01 -1.37123001e+00 -8.90567017e+00 -4.34780979e+00
      -6.11320019e+00 -5.34112978e+00 -5.32075977e+00 -6.34447002e+00
      -1.41509998e+00 -2.36119008e+00 2.15093994e+00 3.60870004e+00
      -5.26416016e+00 2.60202003e+00 -6.05661011e+00 3.60536003e+00
      -8.79244995e+00 3.59531999e+00 -1.12642002e+01 7.59868002e+00
      -7.84906006e+00 -5.40131998e+00 -7.05661011e+00 -4.39130020e+00
      -5.26416016e+00 -6.39798021e+00</_>
    <_>
      -1.42857000e-01 -1.02043003e-01 -2.79502988e-01 4.69383001e-01
      4.47205007e-01 1.04082000e+00 1.03726995e+00 5.91826975e-01
      2.28571010e+00 3.12245011e+00 1.98757994e+00 4.53061008e+00
      1.34783006e+00 5.85715008e+00 1.50311005e+00 6.06122017e+00
      5.21744013e-01 6.14284992e+00 6.08703971e-01 7.02040005e+00
      8.32306027e-01 5.75509977e+00 1.92551002e-01 5.44896984e+00
      1.09938002e+00 5.02040005e+00 5.52794993e-01 3.51021004e+00
      2.79509991e-01 1.93877995e+00 1.42853007e-01 3.67347986e-01
      1.42853007e-01 -1.83678001e-01 6.95652008e-01 -6.93877995e-01
      7.39135981e-01 1.02040994e+00 3.04351985e-01 -1.10204005e+00
      -1.98752999e-01 -4.08173017e-02 3.66470009e-01 1.42857000e-01
      -5.03098011e-01 -8.77551973e-01 -8.01239014e-01 -1.06122994e+00
      -1.23601997e+00 -1.42857000e-01 -1.60248005e+00 -6.12258986e-02
      -6.27318978e-01 2.24487007e-01 -1.06831002e+00 2.65305996e+00
      -2.06831002e+00 2.04081988e+00 -2.06831002e+00 2.44897008e+00
      -1.13663995e+00 1.85714996e+00 -7.70187020e-01 1.12244999e+00
      -4.53415006e-01 2.18367004e+00 -1.13663995e+00 2.24489999e+00
      -2.81987000e+00 1.18367004e+00 -2.50309992e+00 1.12244999e+00
      -2.17391998e-01 -2.65305012e-01 3.10593005e-02 -4.28573996e-01
      -6.21109009e-02 -4.28573996e-01 -1.01863003e+00 -2.04086006e-01
      -9.93789971e-01 8.77547979e-01 -9.68940973e-01 -1.42859995e-01
      -1.11801004e+00 -2.24487007e-01 -2.00621009e+00 -1.44897997e+00
      -2.03104997e+00 -1.46939003e+00 -1.91925001e+00 -3.06122005e-01
      -1.16769004e+00 -1.63268998e-01 -1.14285004e+00 -1.63268998e-01
      6.45963001e+00 7.83673000e+00 2.50310993e+00 3.69388008e+00
      6.14914000e-01 2.61224008e+00 -1.36641994e-01 3.67346001e+00
      1.11800998e-01 1.59183002e+00 -1.77639997e+00 3.67346001e+00
      -3.86954999e+00 7.79590988e+00 -9.13039982e-01 5.95917988e+00
      9.75158989e-01 7.06122017e+00 7.95028985e-01 7.08163023e+00
      1.54658997e+00 8.08162975e+00 3.43477988e+00 6.97957993e+00
      5.04968977e+00 6.83673000e+00 1.54658997e+00 4.79590988e+00
      7.95028985e-01 4.81632996e+00 -8.88198972e-01 4.79590988e+00
      -4.45963001e+00 5.79590988e+00 1.04349005e+00 4.77550983e+00
      7.95028985e-01 4.81632996e+00 1.54658997e+00 5.79590988e+00</_>
    <_>
      -3.35934013e-01 -3.89930993e-01 3.80156994e-01 4.06203985e-01
      -1.90374994e+00 -3.03715992e+00 -2.32961988e+00 -2.36075997e+00
      -4.11037016e+00 -1.80411994e+00 -5.38795996e+00 -4.27078009e-01
      -4.16238022e+00 1.59072995e+00 -4.00780010e+00 3.36905003e+00
      -3.06612992e+00 4.60852003e+00 -1.98253000e+00 4.30916977e+00
      -6.85989022e-01 4.47099018e+00 7.52517998e-01 4.39331007e+00
      1.61687005e+00 3.01627994e+00 1.97809005e+00 2.45963001e+00
      1.69418001e+00 -1.56891003e-01 4.81247008e-01 2.86460996e-01
      2.68310994e-01 -3.89930993e-01 -2.96841002e+00 -7.40774012e+00
      -6.10404015e+00 -1.01861000e+01 -6.59457016e+00 -1.34254999e+01
      -6.15607023e+00 -1.43058004e+01 -6.71755981e+00 -1.50065002e+01
      -3.98885012e+00 -1.39466000e+01 -4.47937012e+00 -1.64255009e+01
      -3.04085994e+00 -1.45452995e+01 -1.53138995e+00 -1.43058004e+01
      -2.45409989e+00 -1.14076996e+01 -5.92418003e+00 -1.19287996e+01
      -4.99516010e+00 -1.28511000e+01 -4.06613016e+00 -1.27135000e+01
      -4.13711977e+00 -1.35760002e+01 -5.57561016e+00 -9.79767036e+00
      -5.28539991e+00 -8.55817986e+00 -5.06613016e+00 -9.37856960e+00
      -2.91788006e+00 -9.55817986e+00 -3.55665994e+00 -9.79767036e+00
      -5.81381989e+00 -7.50966978e+00 -5.66554022e+00 -1.01084003e+01
      -4.87215996e+00 -9.10838032e+00 -5.79485989e+00 -1.05695000e+01
      -4.80118990e+00 -8.27019024e+00 -5.66554022e+00 -8.21030998e+00
      -3.91156006e+00 -1.05096998e+01 -2.83425999e+00 -1.31682997e+01
      -2.96989012e+00 -1.31682997e+01 -1.82161999e+00 -9.56954956e+00
      -1.04086006e+00 -1.02701998e+01 -2.90523005e+00 -1.02701998e+01
      -5.08509016e+00 -4.76205015e+00 -3.29169989e+00 -5.06139994e+00
      -4.35636997e+00 -6.30088997e+00 -5.99516010e+00 -5.06139994e+00
      -5.70493984e+00 -3.24102998e+00 -5.69860983e+00 -3.00152993e+00
      -2.83425999e+00 -3.70217991e+00 -5.69860983e+00 -3.16335011e+00
      -6.70493984e+00 -4.92386007e+00 -5.99516010e+00 -6.86397982e+00
      -4.28539991e+00 -6.98371983e+00 -3.29169989e+00 -5.22321987e+00
      -3.58192992e+00 -3.70217991e+00 -5.28539991e+00 -6.76205015e+00
      -4.99516010e+00 -6.64230013e+00 -5.70493984e+00 -4.70217991e+00
      -5.33741999e+00 -3.70217991e+00 -5.70493984e+00 -3.70217991e+00
      -4.99516010e+00 -4.58243990e+00 -5.28539991e+00 -5.76205015e+00</_>
    <_>
      -1.42857000e-01 4.85671997e-01 5.88225983e-02 1.08687997e-01
      7.81512976e-01 8.08380008e-01 5.04203975e-01 1.58475995e+00
      6.72302023e-02 3.61129999e-01 -6.47056997e-01 4.44213986e-01
      1.52101004e+00 -1.26494998e-02 1.21008003e+00 -1.62796006e-01
      3.94117999e+00 -4.69512999e-01 1.83194005e+00 -2.39471003e-01
      2.36134005e+00 -1.16600001e+00 2.36975002e+00 -1.55578995e+00
      2.65546989e+00 -2.40883994e+00 1.37816000e+00 -2.03186011e+00
      4.20165986e-01 -6.54877007e-01 4.62188989e-01 -2.77893007e-01
      1.42853007e-01 2.52440989e-01 -1.68076009e-02 -4.90410995e+00
      4.28573996e-01 -5.67727995e+00 7.56301999e-01 -5.14054012e+00
      6.05041981e-01 -4.21721983e+00 -2.06722999e+00 -1.75396001e+00
      5.04195988e-01 -1.60061002e+00 6.72272027e-01 -2.91052008e+00
      5.21010995e-01 -4.60380983e+00 1.52942002e+00 -5.98718977e+00
      1.49580002e+00 -8.06066990e+00 1.05882001e+00 -5.17525017e-01
      1.05882001e+00 7.95578003e-01 1.05882001e+00 1.08687997e-01
      1.89915001e+00 1.34511995e+00 2.57142997e+00 1.04161000e+00
      1.81511998e+00 7.34908998e-01 7.39502013e-01 1.50487995e+00
      -3.36136013e-01 7.34908998e-01 -2.52106011e-01 1.04161000e+00
      9.91599977e-01 -2.20761991e+00 -1.24370003e+00 -7.51751995e+00
      1.04201996e+00 -7.51751995e+00 3.27735990e-01 -2.84294009e-01
      1.04201996e+00 -1.59099996e+00 -1.24370003e+00 -1.66768003e+00
      3.10927987e-01 -2.13093996e+00 -8.40302035e-02 -7.28749990e+00
      1.04201996e+00 -8.21082020e+00 -3.52936000e-01 -3.74756002e+00
      8.82354975e-01 -3.36097002e+00 -4.03365999e-01 -3.36097002e+00
      2.08403993e+00 -3.32168996e-01 2.36975002e+00 4.34601009e-01
      2.81511998e+00 1.89467001e+00 1.89915001e+00 1.66463995e+00
      9.83200014e-01 8.94668996e-01 1.10924995e+00 2.28127003e+00
      2.75629997e+00 -1.33217001e+00 1.94957995e+00 2.97775006e+00
      2.66386008e+00 1.74773002e+00 2.73950005e+00 1.74773002e+00
      3.81511998e+00 1.82439995e+00 3.21007991e+00 2.05443001e+00
      1.12605000e+00 6.67831004e-01 1.81511998e+00 2.12789989e+00
      1.73950005e+00 1.89786994e+00 1.82352996e+00 1.97455001e+00
      1.03362000e+00 6.67831004e-01 1.82352996e+00 2.05121994e+00
      8.99155021e-01 1.97455001e+00 2.81511998e+00 2.12789989e+00</_>
    <_>
      -1.42857000e-01 -1.23215001e-02 -4.84470010e-01 2.69874990e-01
      -8.94409001e-01 5.31906009e-01 -3.72669011e-01 8.04031014e-01
      -9.87578988e-01 1.05597997e+00 -1.08073997e+00 1.26761997e+00
      3.47831994e-01 4.38950002e-01 -4.28573996e-01 -4.50179994e-01
      3.85100991e-01 -1.41995001e+00 1.98761001e-01 -4.47033978e+00
      -1.57764006e+00 -1.60134995e+00 -3.08072996e+00 -1.79285002e+00
      -2.03726006e+00 -1.04480004e+00 -5.15518010e-01 -3.26995999e-01
      -6.52161002e-01 -1.62933004e+00 2.11181998e-01 7.83843994e-02
      1.42853007e-01 -2.13890001e-01 -1.96273005e+00 8.78610992e+00
      1.49070993e-01 6.61477995e+00 1.64596999e+00 6.54422998e+00
      4.14285994e+00 9.57446957e+00 5.63976002e+00 9.63494015e+00
      2.52173996e+00 9.59461975e+00 3.95032001e+00 8.49384022e+00
      3.37889004e+00 5.43337011e+00 3.73914003e+00 4.47368002e+00
      4.57765007e+00 2.61477995e+00 2.40994000e+00 4.80627012e+00
      3.34160995e+00 3.96750998e+00 2.27329993e+00 3.13884997e+00
      2.20496988e+00 3.32027006e+00 1.43478000e+00 2.51174998e+00
      7.51555979e-01 3.53190994e+00 1.06833005e+00 3.55205989e+00
      3.16772014e-01 2.51174998e+00 -3.66454989e-01 1.48152006e+00
      1.26086998e+00 8.96973014e-01 2.37266994e+00 1.79619002e+00
      3.27950001e+00 7.76031017e-01 2.32297993e+00 1.88689005e+00
      2.27950001e+00 1.93728006e+00 1.37267005e+00 1.95744002e+00
      2.29192996e+00 1.83650005e+00 3.40372992e+00 7.05482006e-01
      2.24224997e+00 1.69540000e+00 2.28572011e+00 7.86109984e-01
      2.10559011e+00 1.85666001e+00 3.19876003e+00 1.86673999e+00
      1.45963001e+00 9.35028017e-01 -2.91924000e-01 2.81410003e+00
      6.83228016e-01 2.73346996e+00 9.31685984e-01 1.76370001e+00
      2.48458996e-01 1.72340000e+00 -9.13039982e-01 7.83874989e-01
      -2.07452011e+00 -2.11536002e+00 -1.18010998e-01 1.56708006e-02
      -9.31702033e-02 3.07613993e+00 -2.73285002e-01 4.09630013e+00
      5.46585023e-01 5.08620977e+00 -4.28573996e-01 3.03583002e+00
      4.96901982e-02 1.92497003e+00 6.14914000e-01 2.87456012e+00
      8.63358021e-01 1.88463998e+00 1.11800998e-01 1.86450005e+00
      -2.59627008e+00 -1.10527003e+00 -8.88198972e-01 1.88463998e+00
      -1.36641994e-01 2.90479994e+00 5.46585023e-01 3.89473009e+00</_>
    <_>
      3.26240987e-01 7.69272000e-02 1.26789004e-01 -2.52746999e-01
      -3.12552989e-01 4.17587012e-01 -5.12009025e-01 4.39559996e-01
      3.28978986e-01 6.37359977e-01 5.31166017e-01 6.59331977e-02
      8.14231992e-01 1.90111005e+00 1.13774002e+00 -3.29589993e-02
      1.78199995e+00 -5.60424984e-01 9.06051993e-01 -1.68130004e+00
      1.50988996e+00 -3.21976995e+00 2.31316996e+00 -1.70328999e+00
      2.75524998e+00 -9.56039011e-01 1.83614004e+00 -1.53839007e-01
      1.11645997e+00 -8.24172974e-01 1.56891003e-01 3.29674006e-01
      4.37225014e-01 -3.40660006e-01 -3.19124007e+00 -5.76922989e+00
      -2.78959990e+00 -6.90110016e+00 -2.78687000e+00 -6.49451017e+00
      -3.50379992e+00 -8.31867981e+00 -1.98082995e+00 -7.54944992e+00
      -4.05624008e+00 -7.72526979e+00 -3.29340005e+00 -5.49451017e+00
      -3.01032996e+00 -4.31867981e+00 -1.24748003e+00 -3.72527003e+00
      -8.45839977e-01 -3.41757989e+00 -3.25844002e+00 -5.24175978e+00
      -3.25844002e+00 -5.58240986e+00 -3.25844002e+00 -5.92306995e+00
      -2.49832010e+00 -5.61538982e+00 -2.12708004e-02 -1.53845000e+00
      -1.89996004e+00 -1.89011002e+00 -3.25844002e+00 -3.24176002e+00
      -4.61689997e+00 -1.89011002e+00 -5.73548985e+00 -5.38452029e-01
      -1.90816998e+00 -2.40658998e+00 -2.26664996e+00 -3.29670000e+00
      -1.82456005e+00 -3.12087989e+00 -1.90269995e+00 -1.23076999e+00
      -1.82456005e+00 -9.34067011e-01 -2.26664996e+00 -2.85712987e-01
      -2.13438010e+00 -2.05495000e+00 -2.21251011e+00 -2.94505000e+00
      -1.77042997e+00 -1.12088001e+00 -3.68790001e-01 -1.87911999e+00
      -1.01032996e+00 6.59331977e-02 -2.45240998e+00 -7.58239985e-01
      -4.26390982e+00 -1.73626995e+00 -3.06170988e+00 -9.23080027e-01
      -2.13985991e+00 -1.34064996e+00 -1.49831998e+00 -1.86812997e+00
      -1.09668005e+00 -2.16482997e+00 -4.14703012e-01 -3.21976995e+00
      3.54759002e+00 -5.68132019e+00 1.34539998e+00 -2.38460994e+00
      -3.36562991e-01 -5.60440004e-01 -7.38219976e-01 2.63733000e-01
      -1.37975001e+00 1.08791995e+00 -3.06170988e+00 9.12093997e-01
      -3.94314003e+00 -2.20879006e+00 -2.13985991e+00 -4.50545996e-01
      -1.49831998e+00 -6.26372993e-01 -3.36562991e-01 -1.27471995e+00
      3.46671009e+00 -4.32966995e+00 6.63437009e-01 -2.74719000e-01
      -7.38219976e-01 -6.26372993e-01 -1.37975001e+00 1.37363005e+00</_>
    <_>
      -1.42857000e-01 -3.53065014e-01 4.81049001e-01 -2.53044009e-01
      -1.45770997e-01 8.12606990e-01 9.76677001e-01 -1.21749997e-01
      5.97671986e-01 8.40775013e-01 1.21573997e+00 -3.68575990e-01
      8.16344991e-02 -8.52950990e-01 -1.42857003e+00 -5.09186029e-01
      -3.18950009e+00 -2.40606999e+00 -4.07580996e+00 -2.57793999e+00
      -5.33527994e+00 -1.99045002e+00 -4.59475994e+00 -2.57483006e+00
      -3.72595000e+00 -1.39984000e+00 -1.97958004e+00 -3.62365991e-01
      -1.48105001e+00 -3.93646002e-01 2.68218994e-01 -3.90549004e-01
      1.42853007e-01 -4.21822011e-01 -1.51603997e-01 5.09692001e+00
      8.42567027e-01 5.58128023e+00 2.09914997e-01 3.44377995e+00
      4.51896995e-01 1.54691005e+00 -3.06122005e-01 3.75316000e+00
      1.55684996e+00 7.53162026e-01 7.98828006e-01 5.81283987e-01
      2.04081988e+00 1.47816002e+00 4.08172995e-01 -3.84337991e-01
      1.27698004e+00 6.25457987e-02 4.37317014e-01 5.37193012e+00
      4.37317014e-01 5.88755989e+00 4.37317014e-01 5.43758011e+00
      -5.62682986e-01 5.98758984e+00 9.44611013e-01 5.77823019e+00
      -3.09035987e-01 4.84697008e+00 -1.56268001e+00 3.91573000e+00
      -1.94169998e+00 4.88135004e+00 -2.19532990e+00 4.81261015e+00
      -1.53645003e+00 6.57817984e+00 -1.16618001e+00 4.30318022e+00
      1.07871997e+00 3.30317998e+00 2.32362008e+00 8.61256027e+00
      7.87201002e-02 9.71568012e+00 -2.04081988e+00 9.71568012e+00
      -5.74340999e-01 6.64693022e+00 7.95913994e-01 2.33754992e+00
      2.04081988e+00 1.37193000e+00 1.53644001e+00 2.57818007e+00
      2.91545010e+00 5.71568012e+00 1.67056000e+00 7.71568012e+00
      -8.42273998e+00 2.11888003e+00 -5.30320978e+00 7.75116026e-01
      -3.18367004e+00 6.37633979e-01 -1.56268001e+00 -2.59261996e-01
      9.32953000e-01 -1.36237001e+00 2.05246997e+00 -2.19051003e+00
      3.17200994e+00 -8.46741021e-01 1.05246997e+00 3.46265006e+00
      -1.92413002e-01 5.56578016e+00 -1.68805003e+00 5.56578016e+00
      -4.18367004e+00 6.53140020e+00 -6.42856979e+00 6.42826986e+00
      -7.30029011e+00 3.08450007e+00 -3.18367004e+00 3.05012989e+00
      -1.56268001e+00 3.08450007e+00 -6.70470968e-02 2.05012989e+00
      2.04956007e+00 1.11888003e+00 -6.70470968e-02 3.11888003e+00
      -2.56268001e+00 4.15326023e+00 -2.30904007e+00 4.08449984e+00</_>
    <_>
      -4.20390993e-01 -3.52401994e-02 -3.93433005e-01 4.47136015e-01
      -1.35299003e+00 -1.53244004e-01 -1.31255996e+00 3.29131991e-01
      -1.20472002e+00 1.64602995e+00 -1.00252998e+00 3.63193011e+00
      -7.32948005e-01 4.20410013e+00 -4.36401010e-01 6.44530010e+00
      -2.08593988e+00 6.77627993e+00 2.77999997e-01 7.36254978e+00
      -1.41197002e+00 8.20409966e+00 -1.15433000e-01 5.71469021e+00
      -8.86276007e-01 4.89426994e+00 -7.51495004e-01 2.66014004e+00
      -1.67061996e+00 1.34325004e+00 3.96773994e-01 -5.63964993e-02
      4.37225014e-01 4.61227000e-01 -3.25864005e+00 -3.94545007e+00
      -2.05644989e+00 -6.69015980e+00 -1.81382000e+00 -8.69015980e+00
      -2.58468008e+00 -6.35917997e+00 -2.32856989e+00 -4.86269999e+00
      1.21060002e+00 -2.69721007e+00 1.43975997e+00 -4.02820015e+00
      1.65541005e+00 -4.19368982e+00 3.88456988e+00 -5.19368982e+00
      3.10022998e+00 -1.69720995e+00 9.27536011e-01 6.26724005e-01
      -1.08594000e+00 9.50661004e-01 9.14062977e-01 3.35735011e+00
      -1.09941006e+00 3.68126988e+00 -3.55529994e-01 4.92245007e+00
      -2.34207004e-01 6.25344992e+00 -9.94110033e-02 4.41895008e+00
      -9.64630008e-01 5.25344992e+00 -8.29833984e-01 7.00521994e+00
      -1.93514001e+00 -1.62151003e+00 -2.77338004e+00 -3.20073009e+00
      4.28802013e-01 -4.11799002e+00 5.77080011e-01 8.74961972e-01
      -5.98151982e-01 2.04045010e+00 -2.78687000e+00 1.95771003e+00
      -2.69503999e+00 9.57710028e-01 -1.53329003e+00 -2.86975002e+00
      1.65541005e+00 -2.86975002e+00 8.03695977e-01 7.92221010e-01
      6.55411005e-01 4.28869009e+00 -2.53328991e+00 2.20595002e+00
      -2.62510991e+00 5.81857014e+00 -4.09447014e-01 6.23934984e+00
      -2.34207004e-01 5.99111986e+00 -1.11290002e+00 6.23934984e+00
      -2.97812009e+00 7.07385015e+00 -1.78939998e+00 8.32209969e+00
      1.41279995e+00 6.81857014e+00 -7.89398015e-01 7.56329012e+00
      -9.64630008e-01 7.89426994e+00 -2.11290002e+00 7.97701979e+00
      -2.47695997e-01 7.89426994e+00 -4.22919989e-01 5.64602995e+00
      -1.53075004e+00 6.90131998e+00 -2.34207004e-01 6.81857014e+00
      -1.11290002e+00 6.90131998e+00 -1.97811997e+00 7.81857014e+00
      -6.95038021e-01 5.81857014e+00 -1.97811997e+00 6.73583984e+00
      -1.11290002e+00 6.81857014e+00 -2.34207004e-01 6.73583984e+00</_>
    <_>
      2.29205996e-01 5.00000000e-01 -3.69170994e-01 7.14263991e-02
      2.34614998e-01 3.64284992e+00 1.24003005e+00 4.21428013e+00
      1.84651005e+00 6. 1.85732996e+00 7.10715008e+00 4.27248001e+00
      6.85715008e+00 3.88979006e+00 5.35715008e+00 3.90872002e+00
      4.14284992e+00 3.32657003e+00 3.89284992e+00 1.74170995e+00
      2.82142997e+00 -4.53033000e-02 2.39284992e+00 7.63351023e-01
      1.50000000e+00 1.67678997e-01 1.03570998e+00 7.71453977e-01
      1.46428001e+00 -2.25860998e-01 -2.14286998e-01 -4.25292999e-01
      2.14286998e-01 4.32663001e-02 -2.14285994e+00 1.25355005e+00
      -2.32142997e+00 2.06761003e+00 2.14286998e-01 1.48275006e+00 3.
      1.29681003e+00 6.25000000e+00 6.31304979e+00 6.35714006e+00
      5.32657003e+00 3.42857003e+00 6.14062977e+00 4.85714006e+00
      4.15416002e+00 2.75000000e+00 4.36442995e+00 3.25000000e+00
      3.90600991e+00 1.89285004e+00 3.70655990e+00 1.85713995e+00
      2.50710011e+00 9.28574026e-01 1.30762994e+00 -1.10714996e+00
      1.49357998e+00 -1.78571999e+00 1.90059996e+00 -1. 2.10818005e+00
      -2.10715008e+00 1.71466005e+00 -1.89285004e+00 2.52061009e+00
      -1.57142997e+00 8.60038996e-01 -2.85715008e+00 8.68156016e-01
      -4.57143021e+00 1.27788997e+00 -3.57142997e+00 3.08652997e+00
      -1.85714996e+00 2.27788997e+00 -1.39286005e+00 1.06761003e+00
      -1.60714996e+00 4.32385015e+00 5.71425974e-01 5.33198977e+00
      7.14263991e-02 5.74171019e+00 1.78573996e-01 4.94927979e+00
      1.21429002e+00 4.34279013e+00 1.35713995e+00 4.93304014e+00
      2.50000000e-01 3.68220997e+00 -4.92856979e+00 2.89248991e+00
      -2.75000000e+00 2.50167990e+00 -1.89285004e+00 2.30763006e+00
      -3.21428990e+00 3.91411996e+00 -2.89284992e+00 1.52331996e+00
      -2.64284992e+00 1.93304002e+00 -4.60715008e+00 2.52331996e+00
      -5.78571987e+00 3.71465993e+00 -5.10715008e+00 2.30763006e+00
      -3.32142997e+00 1.70114005e+00 -3.21428990e+00 3.89248991e+00
      -4.89284992e+00 3.08652997e+00 -2.82142997e+00 1.50168002e+00
      -3.28572011e+00 2.30763006e+00 -3.39284992e+00 4.71466017e+00
      -3.28572011e+00 3.52871990e+00 -3.60715008e+00 4.91412020e+00
      -2.28572011e+00 3.30763006e+00 -2.39284992e+00 2.50167990e+00
      -2.28572011e+00</_>
    <_>
      -4.20390993e-01 4.32029992e-01 -3.79951000e-01 2.82187998e-01
      6.87443018e-01 -1.86765003e+00 -2.58639991e-01 -3.09415007e+00
      -4.16427994e+00 -2.43973002e-01 -6.96210003e+00 1.60618997e+00
      -7.69251013e+00 1.60966003e+00 -7.35552979e+00 2.88141990e+00
      -5.95115995e+00 5.68978977e+00 -2.51980996e+00 4.88142014e+00
      8.17169011e-01 6.57133007e+00 3.07329011e+00 5.52954006e+00
      2.35016003e-01 3.67936993e+00 3.15903008e-01 1.86751997e+00
      -6.43661022e-01 1.01736999e+00 4.23736989e-01 1.67212993e-01
      4.37225014e-01 3.17047000e-01 -1.24515998e+00 3.62367010e+00
      -1.04296994e+00 5.16026020e+00 -7.59903014e-01 4.27524996e+00
      -1.46335995e+00 4.12193012e+00 -3.19376993e+00 1.85363996e+00
      -5.84331989e+00 1.81531000e+00 -5.57372999e+00 1.04527998e+00
      -5.29065990e+00 1.16025996e+00 -4.02107000e+00 -1.95472002e+00
      -3.81889009e+00 -1.45299006e+00 -4.01853991e+00 1.04875004e+00
      -5.00507021e+00 -1.71781003e+00 -4.00507021e+00 -3.52269006e+00
      -4.99158001e+00 -4.36591005e+00 -3.27466011e+00 1.74163997e-01
      -4.13986015e+00 -1.94082999e+00 -3.99158001e+00 -2.05581999e+00
      -3.84331989e+00 5.91735989e-02 -5.72200012e+00 -7.87505984e-01
      -2.90818000e+00 3.12541008e+00 -3.75990009e+00 3.39369988e+00
      -4.55772018e+00 2.35538006e+00 -4.39596987e+00 -6.62384033e-02
      -2.57119989e+00 8.57116997e-01 -3.77338004e+00 1.85712004e+00
      -3.68156004e+00 -1.04561001e-01 -4.51981020e+00 2.78717011e-01
      -4.31762981e+00 1.27872002e+00 -3.15586996e+00 1.04218004e-02
      -3.30415010e+00 7.80457020e-01 -4.50633001e+00 -2.19542995e-01
      3.44228005e+00 1.27177000e+01 -3.28568012e-01 6.87101984e+00
      -3.13985991e+00 3.02431989e+00 -3.99158001e+00 4.87101984e+00
      -5.84331989e+00 5.02432013e+00 -6.64112997e+00 7.94765997e+00
      -1.04253998e+01 1.48326998e+01 -7.62763977e+00 8.37275982e+00
      -5.81636000e+00 4.14277983e+00 -3.96462989e+00 5.06612015e+00
      -3.12636995e+00 4.10445023e+00 -3.15093994e-01 6.29610014e+00
      4.55011988e+00 1.06794004e+01 -4.13986015e+00 1.75602996e+00
      -4.97811985e+00 2.67936993e+00 -5.82983017e+00 3.75603008e+00
      -9.50632954e+00 1.37559996e+01 -5.82983017e+00 4.71770000e+00
      -4.97811985e+00 3.64104009e+00 -3.12636995e+00 3.67936993e+00</_>
    <_>
      2.25024998e-01 8.48541036e-02 -4.17248011e-01 -3.36784005e-01
      -2.73609012e-01 3.71627986e-01 -3.44063014e-01 9.49997008e-01
      -2.05679011e+00 9.18502986e-01 -2.12450004e+00 1.66729999e+00
      -3.11903000e+00 4.32642984e+00 -2.96992993e+00 4.76587009e+00
      -2.89127994e+00 5.37570000e+00 -1.81262004e+00 3.89590001e+00
      -1.87761998e+00 1.58652997e+00 -1.30032003e+00 5.74492998e-02
      -5.82138002e-01 -5.61309993e-01 -1.50893998e+00 -1.39974999e+00
      -1.15120995e+00 -1.08170003e-01 -7.56835984e-03 5.33600003e-02
      -4.35759991e-01 3.44947994e-01 -1.27234995e-01 1.21162996e+01
      2.44730997e+00 1.65872993e+01 2.30913997e+00 2.14976006e+01
      2.52870011e+00 2.53675003e+01 3.74826002e+00 2.44571991e+01
      -3.87176991e-01 2.40671005e+01 -1.73943996e+00 2.39773998e+01
      -2.51990008e+00 1.91075001e+01 1.27853006e-01 1.41970997e+01
      1.91649997e+00 1.07262001e+01 1.68053997e+00 1.04660997e+01
      1.68053997e+00 9.99518967e+00 8.94622982e-01 8.65433025e+00
      1.68053997e+00 8.05335999e+00 1.67506003e+00 5.67212009e+00
      8.91891003e-01 6.28197002e+00 -1.05377004e-01 5.02187014e+00
      -1.10263002e+00 5.41202021e+00 -1.88580000e+00 5.67212009e+00
      1.30640996e+00 5.77547979e+00 1.30913997e+00 8.07596016e+00
      4.55520988e-01 7.20600986e+00 1.81597996e+00 6.64543009e+00
      -3.30399007e-01 4.12523985e+00 5.23239017e-01 4.99519014e+00
      1.18737996e+00 7.51537991e+00 1.54784000e+00 7.94591999e+00
      6.94213986e-01 7.94591999e+00 1.48284996e+00 5.64543009e+00
      -3.05786014e-01 5.86513996e+00 5.47836006e-01 5.99519014e+00
      1.88370001e+00 -9.03931037e-02 1.17370999e+00 2.34015012e+00
      -8.94011974e-01 2.38052011e+00 -1.31946003e+00 2.99037004e+00
      -2.31673002e+00 2.51057005e+00 -4.38444996e+00 1.73027003e+00
      -4.09443998e+00 -7.00241029e-01 -4.59853983e+00 2.59368986e-01
      -2.74489999e+00 -2.60818005e-01 -1.53355002e+00 6.09130979e-01
      -1.10810995e+00 6.09130979e-01 1.73705995e-01 -1.30768001e-01
      1.17096996e+00 -9.03931037e-02 -8.94011974e-01 6.89895988e-01
      -1.31946003e+00 6.89895988e-01 -2.53081989e+00 1.81994998e+00
      -4.38171005e+00 1.16971004e+00 -2.74489999e+00 -1.31009996e+00
      -1.53355002e+00 4.29809988e-01 -1.10810995e+00 -4.40140009e-01</_>
    <_>
      -3.60107005e-01 -3.18672001e-01 -2.41135001e-01 -4.39453013e-02
      3.53722006e-01 -1.76923001e+00 1.18651998e+00 -2.59340000e+00
      2.37624002e+00 -4.51647997e+00 1.27979004e+00 -4.83515978e+00
      8.97156000e-01 -6.64834976e+00 7.52471983e-01 -9.85711956e+00
      -1.54266000e-01 -1.08570995e+01 -1.79977000e-01 -1.24504995e+01
      -6.81563973e-01 -1.07363005e+01 -3.54007006e+00 -9.21977043e+00
      -4.11241007e+00 -8.29668999e+00 -2.51754999e+00 -3.67032003e+00
      -2.51754999e+00 -2.14284992e+00 4.82452005e-01 3.84620994e-01
      1.25533998e-01 1.09894000e-01 -1.05141997e+00 -6.47252989e+00
      -1.98066998e+00 -8.75823975e+00 -7.71332011e-02 -8.15384007e+00
      9.45388973e-01 -5.95603991e+00 7.29964972e-01 -4.36262989e+00
      9.36985970e+00 -1.75823998e+00 1.02734003e+01 -2.74725008e+00
      1.12959003e+01 -4.14285994e+00 1.03184004e+01 -2.84614992e+00
      8.74608994e+00 -9.56039011e-01 4.46631002e+00 5.16487002e-01
      4.70424986e+00 -8.02192986e-01 4.94220018e+00 -2.12087011e+00
      5.18015003e+00 -2.43955994e+00 3.27659988e+00 -4.95603991e+00
      3.34734011e+00 -2.75823998e+00 3.41809011e+00 -1.65933001e+00
      3.36985993e+00 -2.95603991e+00 3.32161999e+00 -3.25274992e+00
      1.32801998e+00 -3.39560008e+00 2.79785007e-01 -4.18681002e+00
      7.07442999e-01 -3.28571010e+00 3.13509989e+00 -2.69231009e+00
      1.82641995e+00 -3.29670000e+00 3.98757994e-01 -2.09890008e+00
      5.03546000e+00 -8.79058987e-02 5.22517014e+00 1.20880000e-01
      5.65283012e+00 -7.69196004e-02 4.84255981e+00 6.15387022e-01
      5.77180004e+00 1.09940004e-02 5.46311998e+00 -9.89005983e-01
      7.49202013e+00 -6.29668999e+00 6.80070019e+00 -4.38461018e+00
      4.22836018e+00 -2.87910008e+00 1.41808999e+00 -2.68129992e+00
      -2.39219999e+00 -1.07692003e+00 -4.72661018e+00 -3.78021002e+00
      -5.82304001e+00 -7.18680000e+00 -6.36966991e+00 -9.49448967e+00
      -7.97348022e-01 -1.30988998e+01 1.89397001e+00 -1.29011002e+01
      4.58527994e+00 -1.08022003e+01 7.15761995e+00 -9.90108967e+00
      8.08687973e+00 -6.49449015e+00 4.34734011e+00 -1.98899996e+00
      5.37047982e-01 -1.98899996e+00 -2.27322006e+00 -2.18680000e+00
      -6.41792011e+00 -7.18680000e+00 -2.15426993e+00 -1.32856998e+01
      6.56036019e-01 -1.09890003e+01 4.46631002e+00 -1.19890003e+01</_>
    <_>
      -1.42857000e-01 -3.63640010e-01 -3.93584996e-01 -6.49337992e-02
      8.54228973e-01 1.18182003e+00 1.85131001e+00 1.45454001e+00
      8.48396003e-01 3.72726011e+00 1.96792996e+00 6.05193996e+00
      4.08454990e+00 6.53247023e+00 6.69970989e+00 5.22077990e+00
      7.56267977e+00 4.14284992e+00 6.42566013e+00 1.24675000e+00
      5.66472006e+00 2.53246999e+00 6.27989006e+00 4.97403002e+00
      4.14870024e+00 2.64934993e+00 2.14578009e+00 -5.97397029e-01
      6.44317985e-01 1.55837998e-01 1.42853007e-01 -9.09119025e-02
      1.42853007e-01 -3.63640010e-01 -2.52478004e+00 -9.45454025e+00
      -2.53061008e+00 -1.11688004e+01 -1.03789997e+00 -9.16882992e+00
      -1.54518998e+00 -4.32467985e+00 -1.80174994e+00 -3.50648999e+00
      6.18075991e+00 -6.50649023e+00 5.79883003e+00 -1.02727003e+01
      4.29155016e+00 -1.11429005e+01 3.78426003e+00 -1.21948004e+01
      3.65305996e+00 -1.24545002e+01 2.18950009e+00 -3.10389996e+00
      2.31487012e+00 -1.67532003e+00 2.44022989e+00 -2.46757999e-01
      1.56560004e+00 -8.18175972e-01 2.94753003e+00 -1.81823999e-01
      3.56851006e+00 1.68831003e+00 2.31487012e+00 1.61038005e+00
      1.93587005e+00 -2.85721004e-01 1.68221998e+00 7.92205989e-01
      -1.28279996e+00 -1.25974000e+00 -3.79027985e-02 -3.02598000e+00
      8.30901980e-01 -1.07792997e+00 2.07580996e+00 -3.89609993e-01
      1.08162999e+00 5.58440983e-01 8.74634013e-02 -4.15587991e-01
      3.05246997e+00 -1.38961005e+00 3.29737997e+00 -3.05194998e+00
      4.16618013e+00 -5.02598000e+00 3.28572011e+00 -3.25974011e+00
      4.91545010e+00 -1.41559005e+00 4.92127991e+00 -1.44156003e+00
      3.95335007e+00 -7.24674988e+00 7.07288980e+00 2.98701000e+00
      5.44315004e+00 3.14284992e+00 3.18950009e+00 3.06492996e+00
      3.68512988e+00 2.14284992e+00 3.80467010e+00 2.01299000e+00
      9.54811001e+00 -9.19480991e+00 5.55393982e+00 -8.37662983e+00
      6.30904007e+00 -9.48050976e+00 5.93877983e+00 -8.50650024e+00
      7.31778002e+00 -8.50650024e+00 7.94752979e+00 -6.42856979e+00
      2.20115995e+00 -4.24674988e+00 5.44315004e+00 3.85715008e+00
      4.06414986e+00 2.83116007e+00 4.55977011e+00 9.09088016e-01
      1.13002996e+01 -6.19480991e+00 5.43440008e+00 -8.09090996e+00
      4.06414986e+00 -6.16883993e+00 5.44315004e+00 -6.11687994e+00</_>
    <_>
      -4.63351995e-01 1.42859995e-01 2.89802998e-01 4.28573996e-01
      -4.55772012e-01 -1.14285004e+00 -1.95197999e+00 -7.14278996e-01
      -1.94693005e+00 -1.14285004e+00 -1.68491995e+00 -2.42857003e+00
      -9.16603029e-01 -4.42856979e+00 -2.14574003e+00 -6.71429014e+00
      -3.62175012e+00 -4.85715008e+00 -4.84837008e+00 -3.14284992e+00
      -6.32686996e+00 -1.71428001e+00 -5.05730009e+00 7.14294016e-01
      -4.29402018e+00 1.28571999e+00 -4.53833008e+00 -2.85706013e-01
      -2.53583002e+00 2.85721004e-01 -2.83904999e-01 -1.42853007e-01
      2.17345998e-01 4.28573996e-01 5.30739017e-02 -2. 2.31255007e+00
      -1.71429002e+00 3.07835007e+00 3.57142997e+00 2.84665990e+00
      7.85714006e+00 2.86436009e+00 8. 2.38837004e+00 1.25713997e+01
      2.90478992e+00 9.71428967e+00 1.92249000e+00 4.85714006e+00
      3.68828011e+00 1.71429002e+00 3.69839001e+00 7.14286983e-01
      3.12635994e+00 1.71429002e+00 2.12635994e+00 2.14285994e+00
      1.12636006e+00 1.71429002e+00 8.76999021e-01 1.14286005e+00
      2.60994005e+00 -2.85706013e-01 1.36815000e+00 -4.28573996e-01
      -1.12300003e+00 2.85721004e-01 -1.61415005e+00 1.71429002e+00
      -1.85593998e+00 3. 2.07076001e+00 -2.14284992e+00 3.08086991e+00
      -1.42857003e+00 1.84160995e+00 -2.85712987e-01 8.51723015e-01
      1.14286005e+00 1.59223998e+00 5.71425974e-01 1.33024001e+00
      -7.14286983e-01 2.89972997e+00 2.42857003e+00 2.66048002e+00 2.
      4.17186022e+00 2.85715008e+00 3.43131995e+00 3.28571010e+00
      2.92248988e+00 2.85715008e+00 3.41111994e+00 2. -4.15585995e+00
      -2.57142997e+00 -3.64194989e+00 -3.14284992e+00 -1.37995994e+00
      -1.71428001e+00 -1.62175000e+00 -2.14284992e+00 -2.11290002e+00
      -5.71425974e-01 -2.60153008e+00 -5.71425974e-01 -2.58888006e+00
      -4.28573996e-01 -3.60153008e+00 -1.42853007e-01 -2.36226010e+00
      -2.42857003e+00 -2.87110996e+00 -2.57142997e+00 -3.37996006e+00
      -3.71427989e+00 -2.89133000e+00 -4. -5.15080023e+00
      -3.28571010e+00 -3.13059998e+00 -2.57142997e+00 -2.62175012e+00
      -1.57142997e+00 -3.11290002e+00 -1.28570998e+00 -1.84331000e+00
      -2.85706013e-01 -2.36226010e+00 -1.57142997e+00 -3.62175012e+00
      -3.71427989e+00 -3.37996006e+00 -3.85715008e+00</_>
    <_>
      -1.42859995e-01 1.23009004e-01 1.42857000e-01 -1.55295998e-01
      5.71425974e-01 -5.82473993e-01 2.07142997e+00 -2.86078000e+00
      2.78571010e+00 -3.43683004e+00 1.71428001e+00 -7.31058979e+00
      3.07142997e+00 -8.48211956e+00 1.64285004e+00 -6.10023022e+00
      -1.57142997e+00 -4.50475979e+00 -5.78571987e+00 -7.10023022e+00
      -7.21429014e+00 -7.33325005e+00 -7. -5.16172981e+00
      -4.07144022e+00 -2.58569002e+00 -1.50002003e+00 -1.30738997e+00
      -3.21428990e+00 -1.77932993e-01 7.14111030e-02 -1.97372004e-01
      1.42853007e-01 -2.16804996e-01 -2.92857003e+00 5.93205976e+00 -1.
      8.44338989e+00 1.28570998e+00 1.18479004e+01 2.64284992e+00
      1.61457005e+01 2. 1.78899994e+01 -3.64286995e+00 1.52945004e+01
      -3.57147008e-01 1.52524004e+01 -7.14417025e-02 1.16569996e+01
      2.14278996e-01 6.95471001e+00 2.07142997e+00 5.44338989e+00
      -7.85721004e-01 7.71848011e+00 -7.14294016e-01 5.95148993e+00
      -1.64286995e+00 4.18451977e+00 -2.57142997e+00 3.56639004e+00
      -9.28574026e-01 3.35279989e+00 -1.28571999e+00 2.65054011e+00
      -3.57142997e+00 9.48273003e-01 -2.92857003e+00 2.65054011e+00
      -4.35715008e+00 2.20392990e+00 -2.85721004e-01 4.16508007e+00
      5.00000000e-01 6.27187014e+00 4.28566009e-01 6.12301016e+00
      -7.14286983e-01 6.31395006e+00 -5.71434021e-01 6.90942001e+00
      -5.00000000e-01 4.90942001e+00 1.07142997e+00 6.01621008e+00
      -1.42867997e-01 5.67640018e+00 -2.14294001e-01 5.37867022e+00
      6.42853022e-01 4.27187014e+00 -7.14417025e-02 5.16508007e+00 0.
      4.31395006e+00 -2.07142997e+00 -6.03230000e+00 -3.21428990e+00
      7.76763976e-01 -1.35714996e+00 1.33017004e+00 -2.64286995e+00
      6.27898991e-01 -2.92857003e+00 2.33016992e+00 -2.07143998e+00
      9.25643981e-01 -2.07143998e+00 -5.03230000e+00 -3. -3.69249010e+00
      -2.85715008e+00 -1.09702003e+00 -2.57142997e+00 -3.09701991e+00
      -3.35715008e+00 -2.24587989e+00 -3.21428990e+00 -2.84135008e+00
      -6.42859995e-01 -4.18116999e+00 -1.35714996e+00 -3.30017000e-01
      -1.64286995e+00 -1.81168005e-01 -1.92857003e+00 -3.30017000e-01
      -2.50000000e+00 -3.03230000e+00 -2.92857003e+00 -1.81168005e-01
      -1.64286995e+00 9.67697024e-01 -2.35715008e+00 -3.30017000e-01</_>
    <_>
      -3.21837991e-01 4.83932011e-02 1.26433998e-01 -1.29028007e-01
      -2.27586007e+00 2.90322995e+00 -6.78161979e-01 2.72581005e+00
      -1.78161001e+00 2.33871007e+00 -1.13793004e+00 2.53226995e+00
      -1.89655006e+00 2.30645990e+00 -2.05747008e+00 1.82258999e+00
      -2.62069988e+00 -3.38714987e-01 -2.88506007e+00 -1.75805998e+00
      -1.44826996e+00 -1.06450999e+00 -2.60918999e+00 -1.
      -2.21840000e+00 -9.83870983e-01 -1.17242002e+00 1.93557993e-01
      -2.72413993e+00 1.61301002e-01 2.29796991e-02 1.29035994e-01
      4.71251994e-01 9.67788994e-02 1.77011001e+00 -7.51612997e+00
      2.41380000e+00 -6.40322018e+00 6.55174017e-01 -9.45160961e+00
      1.19540000e+00 -1.10323000e+01 -5.63216984e-01 -1.19839001e+01
      8.77011013e+00 -1.25644999e+01 7.31034994e+00 -1.16128998e+01
      5.85057020e+00 -8.82258034e+00 4.39081001e+00 -6.77418995e+00
      2.33332992e+00 -6.67741013e+00 3.67815995e+00 -5.41935015e+00
      4.67816019e+00 -5.90322018e+00 4.67816019e+00 -5.38709021e+00
      3.52872992e+00 -4.87096024e+00 3.28734994e+00 -8.87085021e-01
      2.33332992e+00 -2.67740989e+00 3.52872992e+00 -3.25805998e+00
      3.72413993e+00 -3.67740989e+00 2.77010989e+00 -3.88707995e+00
      2.60918999e+00 -3.58064008e+00 2.95403004e+00 -5.83870983e+00
      4.89655018e+00 -4.83870983e+00 2.24137998e+00 -2.16128993e+00
      3.74711990e+00 -1.53225994e+00 2.95403004e+00 -2.53225994e+00
      3.41378999e+00 -3.95161009e+00 3.90805006e+00 -3.41934991e+00
      3.70113993e+00 -4.20968008e+00 3.34482002e+00 -3.95161009e+00
      3.85056996e+00 -4.11289978e+00 4.05745983e+00 -2.11290002e+00 -1.
      1.45160997e+00 1.09195006e+00 -2.25799993e-01 2.03448009e+00
      -1.06450999e+00 3.37930012e+00 -1.43549001e+00 4.72414017e+00
      -3.06451011e+00 5.81609011e+00 -2.01612997e+00 2.75862002e+00
      -2.33870006e+00 3.66666007e+00 -3.08064008e+00 3.72413993e+00
      -2.24193001e+00 1.22988999e+00 -3.22570987e-02 -2.64373988e-01
      -1.45159996e+00 -2.05747008e+00 9.19357002e-01 -1.03446998e-01
      1.45160997e+00 2.03448009e+00 1.03225994e+00 2.22989011e+00
      1.45160997e+00 4.72414017e+00 2.41943002e-01 4.86206007e+00
      -1.33870006e+00 4.72414017e+00 3.22570987e-02 2.22989011e+00
      2.41943002e-01 2.03448009e+00 -1.77414000e-01</_>
    <_>
      -1.42857000e-01 -1.73912004e-01 -5.22652008e-02 8.69522020e-02
      8.36258009e-02 -2.73914003e+00 1.35539997e+00 -3.47827005e+00
      1.76306999e+00 -5.39131021e+00 1.48781002e+00 -6.65218019e+00
      5.74913025e-01 -6.34781981e+00 7.52609015e-01 -7.56521988e+00
      -9.33791995e-01 -5.39130020e+00 -1.62021005e+00 -3.91305995e+00
      -1.53310001e+00 -1.95652997e+00 -1.62716997e+00 -1.52173996e+00
      -1.28905997e-01 -1.52173996e+00 -9.47722971e-01 -3.86957002e+00
      -8.57146978e-01 -1.04349005e+00 1.42853007e-01 -3.04351985e-01
      5.22766002e-02 4.34783995e-01 -1.41812003e+00 1. -2.87456989e+00
      1.78261006e+00 -2.05923009e+00 1.17391002e+00 -3.15331006e+00
      2.60868013e-01 -2.29268003e+00 1.78261006e+00 -2.06968999e+00
      6.08695984e-01 -1.25434995e+00 -8.69560018e-02 -1.39372003e+00
      4.78260010e-01 -5.33096015e-01 7.39127994e-01 1.01043999e-01
      1.86956000e+00 -2.65854001e+00 -8.26088011e-01 -1.56795001e+00
      -4.34783995e-01 -1.52263999e+00 -4.34799008e-02 -1.47736001e+00
      4.34783995e-01 -2.02087000e-01 -8.69598016e-02 -1.83972001e+00
      8.69598016e-02 -2.38674998e+00 2.60863990e-01 -2.93378997e+00 1.
      -3.57142997e+00 1.65217996e+00 -2.33101010e+00 3.21739006e+00
      -1.83274996e+00 6.78260994e+00 -2.28920007e+00 5.69565010e+00
      -3.70035005e+00 1.95651996e+00 -2.24390006e+00 1.30434000e+00
      -7.87452996e-01 2.39129996e+00 -1.43552995e+00 -3.91303986e-01
      -8.91982973e-01 5.17391014e+00 -2.34842992e+00 6.17391014e+00
      -8.04871023e-01 2.43477988e+00 -1.30313003e+00 2.78260994e+00
      -8.46679986e-01 1.78261006e+00 -1.97212005e+00 -9.56528008e-01
      -1.42857003e+00 8.69598016e-02 -1.79442000e+00 5.65216005e-01
      -3.34145999e+00 7.39120007e-01 -3.88849998e+00 1.47826004e+00
      -3.20905995e+00 9.13039982e-01 -1.57491004e+00 -3.04351985e-01
      -3.11846995e+00 5.65216005e-01 -2.75260997e+00 1. -1.20556998e+00
      1.73904002e-01 -7.49130011e-01 -9.13039982e-01 -3.37981999e-01
      -1.26087999e+00 -1.65505004e+00 -4.34875004e-02 -1.74913001e+00
      6.08687997e-01 -2.29615998e+00 1.69564998e+00 -3.84319997e+00
      1.52172995e+00 -1.84668005e+00 -3.04351985e-01 -2.79790998e+00
      6.08687997e-01 -2.29615998e+00 7.82607973e-01 -1.74913001e+00
      -3.04351985e-01</_>
    <_>
      3.64890993e-01 4.87480015e-01 -3.83652002e-01 -4.91180003e-01
      4.18689996e-01 -2.77678996e-01 -1.62925994e+00 8.39736998e-01
      -2.12634993e+00 1.05324996e+00 -3.67139006e+00 1.65109003e+00
      -4.11466980e+00 2.53722000e+00 -3.15678000e+00 1.99983001e+00
      -9.71527025e-02 2.51940989e+00 1.81279004e+00 3.90372992e+00
      2.62096000e+00 4.44112015e+00 3.17767000e+00 3.55502009e+00
      2.78235006e+00 2.24541998e+00 1.43497002e+00 2.22409010e+00
      5.36713004e-01 1.29884005e+00 -3.61541986e-01 3.73596013e-01
      4.88770008e-01 4.48348999e-01 -4.79557008e-01 3.50529003e+00
      2.12510991e+00 5.04266977e+00 4.53212023e+00 6.71527004e+00
      4.78942013e+00 6.61918020e+00 5.19644022e+00 4.94657993e+00
      -6.59422016e+00 6.13876009e+00 -4.18721008e+00 8.09961033e+00
      -3.07963991e+00 1.03879004e+01 -1.82233000e+00 8.00352955e+00
      1.48293996e+00 5.46614981e+00 -1.98898003e-01 -4.07122993e+00
      -3.48618001e-01 -3.18511009e+00 -3.48618001e-01 -2.29901004e+00
      -3.48618001e-01 -1.50899005e+00 1.09467995e+00 -1.04636002e+00
      -5.52124023e-01 -1.43070996e+00 -1.49831998e+00 -7.18963981e-01
      -2.44452000e+00 -4.30709988e-01 -2.24100995e+00 -1.04636002e+00
      7.77740002e-01 -6.83991003e+00 -1.68465003e-01 -9.78295994e+00
      2.86498994e-01 -9.78295994e+00 -1.08825997e-01 -6.93599987e+00
      -7.13500977e-01 -7.22424984e+00 -1.68465003e-01 -6.41643000e+00
      -1.43867004e+00 -7.64773989e+00 -2.53461003e+00 -9.39861965e+00
      -2.22934008e+00 -8.30253983e+00 -1.62466002e+00 -7.16731024e+00
      -2.52874994e+00 -8.83990955e+00 -1.83401000e+00 -6.93599987e+00
      3.88251990e-01 5.53367996e+00 8.43216002e-01 4.49455023e+00
      4.47876006e-01 3.16714001e+00 -4.98322010e-01 2.87889004e+00
      -2.29482007e+00 3.07105994e+00 -2.83983994e+00 5.39844990e+00
      -2.83400989e+00 5.53367996e+00 -4.83983994e+00 -4.27184999e-01
      -3.44452000e+00 -5.71543980e+00 -1.49831998e+00 -5.81152010e+00
      -5.52124023e-01 -4.71543980e+00 1.69350004e+00 -2.23499990e+00
      3.40301991e-01 3.62978005e+00 4.47876006e-01 5.11019993e+00
      -1.49831998e+00 4.01411009e+00 -3.29482007e+00 3.11019993e+00
      -3.63633990e+00 4.53367996e+00 -3.29482007e+00 -6.98588991e+00
      -1.34862006e+00 -7.08198977e+00 4.47876006e-01 -6.88980007e+00</_>
    <_>
      -1.75754994e-01 4.10567999e-01 2.84049988e-01 5.24902018e-03
      -1.10286999e+00 3.01761007e+00 -1.48978996e+00 5.82113981e+00
      -3.72343993e+00 9.62465954e+00 -2.88421011e+00 1.08016996e+01
      -2.43190002e+00 1.23521004e+01 -2.21322989e+00 1.40670996e+01
      -1.53477001e+00 1.36936998e+01 -5.49758971e-01 1.30670996e+01
      -1.33108997e+00 1.05608997e+01 -1.41898000e+00 9.42819023e+00
      -1.27319002e+00 6.46005011e+00 -1.35359001e+00 4.65655994e+00
      2.59490997e-01 1.64418006e+00 -1.27425998e-01 -1.59363002e-01
      3.32367003e-01 3.71246003e-02 8.16749990e-01 -7.13986015e+00
      2.50272012e+00 -9.43719959e+00 1.80175996e+00 -1.14813995e+01
      2.40734005e+00 -1.00636997e+01 1.85966003e+00 -8.81064987e+00
      4.99794006e+00 -9.81064987e+00 6.75679016e+00 -9.85488987e+00
      7.51563978e+00 -7.85488987e+00 5.96795988e+00 -7.01949978e+00
      4.96045017e+00 -5.93100977e+00 5.15868998e+00 -5.46905994e+00
      4.15868998e+00 -3.96287990e+00 5.15868998e+00 -3.45669007e+00
      5.15868998e+00 -3.95050001e+00 4.70637989e+00 2.01761007e+00
      3.77926993e+00 2.26471007e-01 3.00542998e+00 -3.55820000e-01
      2.23158002e+00 1.22646999e+00 3.04473996e-01 1.01760995e+00
      2.72886992e+00 -3.42481995e+00 2.10828996e+00 -4.67790985e+00
      1.94753003e+00 -4.67790985e+00 3.63350010e+00 -3.21597004e+00
      2.94753003e+00 -2.58943009e+00 2.10828996e+00 -2.58943009e+00
      3.83716011e+00 -2.00712991e+00 4.52312994e+00 -2.46905994e+00
      4.36237001e+00 -2.46905994e+00 3.89507008e+00 -2.21597004e+00
      5.51563978e+00 -1.71721995e-01 4.67639017e+00 -1.38057995e+00
      3.48772001e+00 5.11848021e+00 6.63350010e+00 7.44769001e+00
      3.47272992e+00 3.40344000e+00 8.52158010e-01 4.02998018e+00
      -2.76841998e+00 4.61228991e+00 -6.62265015e+00 4.65655994e+00
      -6.32360983e+00 3.32733011e+00 -6.62265015e+00 -3.21072006e+00
      -3.76841998e+00 -5.58417988e+00 -1.47842005e-01 -6.37533998e+00
      3.31945992e+00 -5.58417988e+00 5.48021984e+00 -2.41956997e+00
      3.40734005e+00 5.11848021e+00 3.47272992e+00 8.70079041e+00
      8.52158010e-01 6.90963984e+00 -1.61513996e+00 7.70078993e+00
      -6.24320984e+00 3.32733011e+00 -3.76841998e+00 -7.29921007e+00
      8.52158010e-01 -7.09036016e+00 3.47272992e+00 -7.29921007e+00</_>
    <_>
      -3.21278006e-01 3.54080014e-02 -4.72667992e-01 1.35741994e-01
      3.25480998e-01 -1.83981001e+00 1.07316995e+00 -3.73947001e+00
      1.66946995e+00 -5.71503019e+00 9.12528992e-01 -7.80439997e+00
      8.02353024e-01 -8.15937996e+00 -2.45920992e+00 -8.70405960e+00
      -2.92262006e+00 -6.55230999e+00 -2.38602996e+00 -3.74200010e+00
      -3.69807005e+00 -2.23526001e+00 -9.09179986e-01 1.19719997e-01
      -1.71658003e+00 1.24702001e+00 -1.20269999e-01 2.22580001e-01
      -3.72588992e-01 1.16018999e+00 4.25552011e-01 9.78012010e-02
      2.74170011e-01 -2.53295992e-03 8.71315002e-01 -2.60962009e+00
      -1.78470004e+00 -1.78756997e-01 -4.84440994e+00 -2.36846995e+00
      -6.90412998e+00 -3.17876005e+00 -7.96384001e+00 -4.87521982e+00
      -5.73003006e+00 -4.87521982e+00 -5.73927021e+00 -6.21670008e+00
      -5.79899979e+00 -5.40641022e+00 -5.85869980e+00 -8.29257965e+00
      -2.61565995e+00 -9.76138973e+00 -5.87215996e+00 -1.04048002e+00
      -5.92261982e+00 -3.35751009e+00 -4.92261982e+00 -4.71249008e+00
      -3.97309995e+00 -7.02951002e+00 -3.86292005e+00 -2.46039009e+00
      -3.36753988e+00 -2.30860996e+00 -4.92261982e+00 -2.19478989e+00
      -5.47771978e+00 -1.30860996e+00 -5.98234987e+00 -4.60388005e-01
      -1.44070995e+00 1.11290000e-01 -3.99580002e+00 -4.19224977e+00
      -3.75273991e+00 -3.15429997e+00 -6.40875006e+00 2.25121006e-01
      -2.75273991e+00 2.33893991e+00 -3.99580002e+00 3.37688994e+00
      -5.33558989e+00 -7.74878979e-01 -6.99159002e+00 -5.19224977e+00
      -4.74853992e+00 -5.19224977e+00 -5.35410023e+00 -8.88710022e-01
      -4.79899979e+00 1.33894002e+00 -6.04206991e+00 1.33894002e+00
      -2.00504994e+00 9.81429994e-01 -1.76198995e+00 1.63994002e+00
      -2.41799998e+00 2.45023990e+00 -5.87215996e+00 2.52611995e+00
      -6.37679005e+00 3.45023990e+00 -7.03282022e+00 4.63993979e+00
      -4.78975010e+00 4.98143005e+00 -6.03282022e+00 4.24701977e+00
      -7.37679005e+00 3.39879990e+00 -6.82170010e+00 2.43673992e+00
      -2.36753988e+00 2.39879990e+00 -1.71152997e+00 2.28497005e+00
      -1.35828996e+00 1.94348001e+00 -3.36753988e+00 2.82966995e+00
      -5.87215996e+00 2.86760998e+00 -6.37679005e+00 4.86760998e+00
      -6.43651009e+00 3.94348001e+00 -6.37679005e+00 2.86760998e+00
      -6.82170010e+00 2.90555000e+00 -3.36753988e+00 1.86760998e+00</_>
    <_>
      -4.58633006e-01 2.91671995e-02 4.87919003e-01 -3.54317009e-01
      -7.25880027e-01 -7.97667980e-01 -9.39670980e-01 -1.81152001e-01
      6.32740021e-01 -1.68438995e+00 8.84459972e-01 -3.36721992e+00
      8.15482974e-01 -4.28953981e+00 -5.20729005e-01 -6.63094997e+00
      -2.07071996e+00 -8.39148045e+00 -5.67419004e+00 -1.05112000e+01
      -7.06383991e+00 -9.10991955e+00 -8.29316998e+00 -8.06785965e+00
      -6.14834976e+00 -4.32512999e+00 -4.62938023e+00 -1.82193005e+00
      -2.00352001e+00 -1.37856996e+00 -3.77669990e-01 1.24656998e-01
      4.08569008e-01 -4.91858989e-01 -2.36725998e+00 -1.58735001e+00
      -1.22244000e+00 -1.42553997e+00 -3.44855994e-01 -2.54528999e+00
      -1.52073002e+00 -1.30580997e+00 -1.58968997e+00 2.92908013e-01
      4.43271017e+00 -6.47224009e-01 4.31028986e+00 -2.12618995e+00
      3.18788004e+00 -3.30580997e+00 3.06543994e+00 -4.00645018e+00
      2.31716990e+00 -4.16825008e+00 1.44823003e+00 -5.09674013e-01
      5.01677990e-01 4.48264986e-01 5.55114985e-01 -6.53671026e-01
      -3.91418010e-01 -6.95739985e-01 -2.15553001e-01 -2.61806011e+00
      2.49954000e-01 -3.43843007e+00 -1.28453004e+00 -2.25883007e+00
      7.40813985e-02 -3.37857008e+00 -4.60402995e-01 -3.49832010e+00
      -7.03476012e-01 7.89687991e-01 -3.98299992e-01 1.37057996e+00
      7.99965024e-01 4.30449992e-01 1.05132997e-01 9.09424007e-01
      -1.46584004e-01 8.90349969e-02 -3.44855994e-01 1.08904004e+00
      1.89821994e+00 -9.10965025e-01 2.09647989e+00 -1.44981003e+00
      2.29477000e+00 -2.38993001e+00 1.70683002e+00 -8.51089001e-01
      2.29477000e+00 -1.61161005e+00 3.09647989e+00 -6.71477973e-01
      1.37633998e-02 -4.22321987e+00 5.16890995e-02 -3.70217991e+00
      -1.69658995e+00 -2.00152993e+00 -1.17763996e+00 -1.82193005e+00
      2.34436005e-01 -3.94166994e+00 4.32709008e-01 -4.52257013e+00
      4.70642000e-01 -6.10346985e+00 -5.13840020e-01 -4.74424982e+00
      -7.12127984e-01 -3.62450004e+00 -1.17763996e+00 -2.62450004e+00
      3.56857002e-01 -2.68439007e+00 -8.94867003e-01 -3.86398005e+00
      -3.60374004e-01 -3.22322011e+00 -6.96594000e-01 -2.40282989e+00
      -1.17763996e+00 -3.34295988e+00 -7.12127984e-01 -3.34295988e+00
      1.79131997e+00 -6.10346985e+00 -7.12127984e-01 -2.34295988e+00
      -1.77643001e-01 -1.34296000e+00 3.03406000e-01 -2.40282989e+00</_>
    <_>
      3.26240987e-01 7.69272000e-02 1.26789004e-01 -2.52746999e-01
      -3.12552989e-01 1.41759002e+00 -1.51200998e+00 1.43956006e+00
      -3.67102003e+00 2.63736010e+00 -3.46883011e+00 3.06592989e+00
      -2.18577003e+00 4.90111017e+00 -2.86226010e+00 4.96704006e+00
      -2.18002006e-01 6.43957996e+00 9.06051993e-01 5.31869984e+00
      3.50989008e+00 4.78023005e+00 5.31316996e+00 3.29671001e+00
      4.75524998e+00 3.04396009e+00 2.83613992e+00 1.84616005e+00
      1.11645997e+00 1.75826997e-01 1.56891003e-01 3.29674006e-01
      4.37225014e-01 -3.40660006e-01 8.08758020e-01 -1.17692003e+01
      2.21040010e+00 -1.19011002e+01 2.21313000e+00 -1.04945002e+01
      1.49619997e+00 -1.03186998e+01 1.01917005e+00 -9.54944992e+00
      -5.62439002e-02 -8.72527027e+00 7.06604004e-01 -6.49451017e+00
      -1.01032996e+00 -4.31867981e+00 -2.24747992e+00 -3.72527003e+00
      -2.84583998e+00 -4.41758013e+00 7.41562009e-01 -9.24176025e+00
      -2.58437991e-01 -1.15824003e+01 -2.58437991e-01 -1.19231005e+01
      5.01677990e-01 -1.26154003e+01 2.97872996e+00 -7.53844976e+00
      1.10003996e+00 -7.89011002e+00 -1.25844002e+00 -9.24176025e+00
      -2.61689997e+00 -6.89011002e+00 -4.73548985e+00 -5.53844976e+00
      2.09183002e+00 -6.40658998e+00 7.33353019e-01 -9.29669952e+00
      2.17544007e+00 -8.12088013e+00 1.09730005e+00 -6.23077011e+00
      1.17543995e+00 -5.93407011e+00 7.33353019e-01 -5.28570986e+00
      -1.34384006e-01 -5.05495024e+00 -2.12509006e-01 -4.94504976e+00
      2.29568005e-01 -4.12088013e+00 -3.68790001e-01 -3.87912011e+00
      -1.03302002e-02 -1.93406999e+00 -4.52407986e-01 -2.75823998e+00
      -3.26391006e+00 -4.73626995e+00 -3.06170988e+00 -6.92307997e+00
      -2.13985991e+00 -8.34064960e+00 -1.49831998e+00 -7.86813021e+00
      -9.66797024e-02 -8.16483021e+00 1.58529997e+00 -7.21976995e+00
      2.54759002e+00 -4.68132019e+00 3.45398009e-01 -4.38461018e+00
      -1.33656001e+00 -4.56044006e+00 -2.73821998e+00 -4.73626995e+00
      -2.37975001e+00 -3.91208005e+00 -3.06170988e+00 -4.08791018e+00
      -2.94314003e+00 -3.20879006e+00 -2.13985991e+00 -5.45055008e+00
      -1.49831998e+00 -5.62636995e+00 6.63437009e-01 -5.27472019e+00
      1.46670997e+00 -4.32966995e+00 -3.36562991e-01 -5.27472019e+00
      -1.73821998e+00 -5.62636995e+00 -2.37975001e+00 -4.62636995e+00</_>
    <_>
      3.32103997e-01 -4.48509008e-01 3.32103997e-01 4.42283988e-01
      2.01041996e-01 1.20052004e+00 -2.15622997e+00 -7.76138008e-01
      -1.41835999e+00 -2.48768997e+00 -2.81154990e+00 -2.06667995e+00
      -4.78821993e+00 -2.98288989e+00 -6.34838009e+00 -3.97121000e+00
      -7.71824980e+00 -4.50143003e+00 -8.31429958e+00 -4.23633003e+00
      -7.00553989e+00 -1.77821004e+00 -5.79192019e+00 -2.86199999e+00
      -4.76858997e+00 -2.28299999e+00 -2.70935011e+00 -1.30634999e+00
      -2.74524999e+00 -9.32036996e-01 -1.02508999e-01 3.09731007e-01
      4.45068002e-01 -3.15955997e-01 -5.13512015e-01 -4.07419014e+00
      8.67096007e-01 -2.55563998e+00 6.64206982e-01 2.10713005e+00
      -1.53866994e+00 7.57691002e+00 -3.51536012e+00 1.02514000e+01
      4.17402983e+00 1.25165005e+01 3.29250002e+00 9.84202003e+00
      2.18477011e+00 4.37224007e+00 1.30323994e+00 1.31180000e+00
      3.00519991e+00 -9.41635013e-01 8.29330027e-01 5.74448013e+00
      -1.70670003e-01 5.96083021e+00 5.55419996e-02 5.30973005e+00
      -7.18245983e-01 5.52606010e+00 -1.70564997e+00 3.60985994e+00
      -2.09884000e+00 4.34473991e+00 -2.49201989e+00 4.94707012e+00
      -2.11141992e+00 4.21219015e+00 -2.73082995e+00 5.34473991e+00
      9.62242007e-01 2.14264005e-01 -6.57149971e-01 3.67236996e+00
      -6.33835018e-01 3.67236996e+00 -7.05649972e-01 1.41893995e+00
      -1.40761995e+00 8.88718009e-01 -4.30945992e-01 8.88718009e-01
      7.80838013e-01 3.55149007e+00 1.48278999e+00 6.67236996e+00
      7.32330024e-01 5.80493021e+00 6.60521984e-01 4.21426010e+00
      5.36957011e-02 4.15382004e+00 3.03802006e-02 4.02126980e+00
      -2.37171006e+00 1.90997005e+00 -1.12216997e+00 2.63320994e+00
      -1.87263000e+00 4.56107998e+00 -1.49202001e+00 6.03084993e+00
      -2.33763003e+00 5.56107998e+00 -4.54051018e+00 5.36809015e+00
      -7.29098988e+00 2.51231003e+00 -6.31430006e+00 -3.21091008e+00
      -6.11142015e+00 -5.74111986e+00 -5.81338978e+00 -6.74111986e+00
      -4.96778011e+00 -6.60857010e+00 -2.66973996e+00 -5.81323004e+00
      -4.18139982e+00 -9.00269002e-02 -2.64642000e+00 6.17508984e+00
      -2.26581001e+00 6.90996981e+00 -3.33763003e+00 7.04254007e+00
      -5.48128986e+00 3.51231003e+00 -4.11142015e+00 -4.82491016e+00
      -4.03959990e+00 -3.95745993e+00 -3.42020011e+00 -4.82491016e+00</_>
    <_>
      4.13944006e-01 4.97559011e-01 4.13944006e-01 4.04938012e-01
      -6.21303976e-01 2.77069002e-01 -7.27038980e-01 -8.15536022e-01
      -4.42466997e-02 1.27105996e-01 -6.08177006e-01 1.14021003e+00
      -3.48334998e-01 2.94326991e-01 -2.19424009e+00 -2.69607991e-01
      -5.21635008e+00 5.54138005e-01 -8.23847961e+00 -3.40103000e-01
      -7.15486002e+00 1.53336003e-01 -5.00076008e+00 1.89348996e+00
      -3.63518000e+00 7.74627984e-01 -2.05814004e+00 7.26273000e-01
      -2.23438001e+00 -2.16353998e-01 -3.75335991e-01 -1.58988997e-01
      -4.45861995e-01 -1.36864007e-01 6.38535023e-01 8.92051029e+00
      7.46155009e-02 9.34344959e+00 1.33446002e+00 1.04139004e+01
      -4.05707985e-01 8.23771954e+00 -7.53784031e-02 7.92050982e+00
      -1.48520994e+00 4.85000992e+00 -2.15486002e+00 5.09673977e+00
      -1.82454002e+00 4.16723013e+00 -1.45895004e+00 1.09674001e+00
      -9.17145014e-01 -3.26213986e-01 -1.70978999e+00 6.14510012e+00
      -1.67455006e+00 5.47543001e+00 -1.63931000e+00 2.84101009e+00
      -1.60406005e+00 2.13609004e+00 -8.63906980e-01 2.50167990e+00
      -2.18111992e+00 3.39594007e+00 -5.68817019e-01 2.29021001e+00
      -1.92128003e+00 1.36069000e+00 -3.23848009e+00 1.43118000e+00
      -1.01623997e-01 8.14509964e+00 -5.59813976e-01 8.39181995e+00
      -1.58988997e-01 7.32133007e+00 4.18067992e-01 6.93362999e+00
      -1.05324996e+00 7.82788992e+00 -4.89318997e-01 7.86314011e+00
      -1.73192000e+00 2.86314011e+00 -1.22537005e+00 3.21559000e+00
      -7.89291024e-01 3.21559000e+00 8.23013008e-01 1.93362999e+00
      1.75460994e-01 3.65165997e+00 -1.22537005e+00 3.68689990e+00
      2.15822005e+00 7.16234016e+00 5.23796022e-01 3.44430995e+00
      -1.07537997e+00 -3.44222993e-01 -1.46308994e+00 5.14786005e-01
      -2.88602996e+00 5.85296988e-01 -4.41470003e+00 3.38562012e-01
      -8.94340992e+00 4.98611021e+00 -5.37946987e+00 7.52791977e+00
      -2.81554008e+00 7.35167980e+00 -3.35735011e+00 9.31643963e+00
      -2.89914989e+00 9.38694954e+00 -2.37046003e+00 9.63364983e+00
      2.87626004e+00 6.12711000e+00 -1.04013002e+00 3.16233993e+00
      -2.42782998e+00 2.09184003e+00 -2.88602996e+00 2.12711000e+00
      -9.66143990e+00 5.98611021e+00 -4.81553984e+00 6.02135992e+00
      -3.39258003e+00 5.98611021e+00 -2.00487995e+00 6.05659008e+00</_>
    <_>
      3.96191001e-01 3.22730988e-01 8.94813985e-02 4.85695004e-01
      5.52745998e-01 -3.51348996e-01 1.09268999e+00 7.70065010e-01
      1.32591999e+00 -1.15004003e+00 1.09908998e+00 -1.94763005e-01
      1.33553004e+00 -4.05609012e-01 1.41859996e+00 -1.82413006e+00
      1.18300997e-01 -6.99523985e-01 -1.18201005e+00 -1.86565995e+00
      -1.09891999e+00 -1.48868001e+00 -7.85812020e-01 -1.27783000e+00
      -1.26494998e-02 -2.31617999e+00 3.73946995e-01 -1.43759000e+00
      -9.32770014e-01 -6.42104983e-01 -3.16161990e-01 1.53419003e-01
      -4.69512999e-01 -5.10788001e-02 -5.83063984e+00 -3.17566991e+00
      -4.98079014e+00 -3.75714993e+00 -4.66767979e+00 -6.96481991e+00
      -2.35456991e+00 -1.10064001e+01 -1.11815000e+00 -1.08402004e+01
      4.65822983e+00 -1.19647999e+01 5.89467001e+00 -1.32139997e+01
      7.13110018e+00 -1.02556000e+01 7.44421005e+00 -7.08942986e+00
      5.21738005e+00 -4.54947996e+00 1.73169994e+00 -2.05107999e+00
      1.73169994e+00 -3.26191998e+00 7.31705010e-01 -4.47277021e+00
      7.31705010e-01 -4.68361998e+00 3.18858004e+00 -6.06078990e-02
      1.42181003e+00 2.24609002e-02 1.57834995e+00 -8.94469976e-01
      6.58234000e-01 1.02245998e+00 -1.85195997e-01 -1.10215998e+00
      -6.05426979e+00 -7.88493013e+00 -4.97439003e+00 -1.42172003e+01
      -1.20121002e+00 -1.22587004e+01 -1.21338002e-01 -2.84340000e+00
      -2.20121002e+00 -1.67727005e+00 -5.97439003e+00 -2.63573003e+00
      1.27805996e+00 -2.92648005e+00 3.28127003e+00 -1.34249001e+01
      6.05443001e+00 -1.54664001e+01 7.05763006e+00 -8.13414001e+00
      6.97774982e+00 -3.88492990e+00 4.12790012e+00 -1.84340000e+00
      -8.66127968e+00 -5.39925003e+00 -4.58139992e+00 -1.77305996e+00
      -1.65488005e+00 1.01928997e+00 1.42499995e+00 1.18541002e+00
      3.50487995e+00 1.92871001e-02 5.27805996e+00 -4.81458998e+00
      1.20511999e+01 -9.48231983e+00 9.12469006e+00 8.91494989e-01
      5.35153008e+00 5.09915018e+00 3.27165008e+00 6.14069986e+00
      1.91771999e-01 8.14070034e+00 -4.65808010e+00 3.93302989e+00
      -8.12133980e+00 -4.44078016e+00 2.68447995e-01 -2.56538010e+00
      1.42499995e+00 -3.52384996e+00 3.42821002e+00 -3.60692000e+00
      1.05880003e+01 -8.52385044e+00 5.42820978e+00 6.43461990e+00
      2.34834003e+00 7.51768017e+00 -7.31552005e-01 7.43461990e+00</_>
    <_>
      -2.75303006e-01 2.92580009e-01 -6.07261993e-02 1.13541000e-01
      -3.84614992e+00 2.44536996e-01 -3.20243001e+00 3.06551003e+00
      -4.70039988e+00 4.57641983e+00 -4.91093016e+00 7.46724987e+00
      -4.04858017e+00 1.04279003e+01 -1.54250002e+00 1.11485004e+01
      -3.92715007e-01 1.10785999e+01 7.57094979e-01 1.14584999e+01
      1.83401000e+00 7.73798990e+00 2.26721001e+00 6.39737988e+00
      1.84212005e+00 4.81659985e+00 2.34413004e+00 2.61572003e+00
      9.87854004e-01 -8.95187020e-01 -1.53839007e-01 -4.06112999e-01
      4.89899009e-01 8.29697028e-02 1.44534004e+00 -2.80785990e+00
      1.23482001e+00 -2.52838993e+00 2.09717011e+00 -3.76855993e+00
      9.59518015e-01 -5.45851994e+00 8.21869016e-01 -5.59824991e+00
      5.46963978e+00 -4.97815990e+00 3.11741996e+00 -4.52838993e+00
      1.97976995e+00 -3.21833992e+00 4.12963986e-01 -1.97816002e+00
      -1.65586996e+00 -1.63755000e+00 2.75304008e+00 -1.63755000e+00
      1.75303996e+00 -6.06987000e-01 2.75304008e+00 1.13541000e-01
      7.53036022e-01 1.45414996e+00 3.67612004e+00 4.48472977e+00
      2.39271998e+00 3.79477000e+00 3.32389998e+00 1.41486001e+00
      1.04050004e+00 3.41486001e+00 -4.57489014e-01 3.10481000e+00
      3.16599011e+00 -1.01745999e+00 3.09717011e+00 1.22268997e-01
      3.67207003e+00 -8.77731025e-01 2.38866997e+00 2.92580009e-01
      3.45749998e+00 2.22709998e-01 3.88259006e+00 2.22709998e-01
      4.04453993e+00 -2.08733010e+00 1.19028997e+00 -6.37549996e-01
      1.55060995e+00 6.72492981e-01 1.26721001e+00 -1.46724999e+00
      1.55060995e+00 4.62882996e-01 3.19028997e+00 1.52840003e-01
      -4.00803000e-01 4.71615982e+00 2.38866997e+00 5.54584980e+00
      4.17815018e+00 3.99564004e+00 2.89474010e+00 2.92577004e+00
      2.82591009e+00 4.30567980e+00 4.40081978e+00 4.47597980e+00
      3.11741996e+00 3.95633006e+00 2.97165990e+00 3.81660008e+00
      3.61134005e+00 4.74672985e+00 4.65591013e-01 4.74672985e+00
      2.53442001e+00 5.43668985e+00 1.95951998e+00 6.19649982e+00
      -3.27933997e-01 4.71615982e+00 1.96355999e+00 5.40610981e+00
      3.89474010e+00 4.71615982e+00 3.82591009e+00 4.71615982e+00
      3.04453993e+00 4.95632982e+00 2.61134005e+00 3.40611005e+00
      2.68016005e+00 4.40610981e+00 1.96355999e+00 4.09606981e+00</_>
    <_>
      -4.63351995e-01 1.42859995e-01 2.89802998e-01 4.28573996e-01
      -4.55772012e-01 -1.42853007e-01 -9.51983988e-01 2.85721004e-01
      -1.94693005e+00 8.57146978e-01 -2.68492007e+00 1.57142997e+00
      -2.91659999e+00 3.57142997e+00 -1.14574003e+00 4.28570986e+00
      3.78250003e-01 6.14284992e+00 1.15163004e+00 5.85715008e+00
      6.73125982e-01 6.28571987e+00 9.42703009e-01 7.71429014e+00
      1.70597994e+00 4.28571987e+00 4.61670011e-01 1.71429002e+00
      4.64172006e-01 2.85721004e-01 -2.83904999e-01 -1.42853007e-01
      2.17345998e-01 4.28573996e-01 2.05307007e+00 0. 3.31255007e+00
      1.28570998e+00 4.07835007e+00 5.57143021e+00 2.84665990e+00
      8.85713959e+00 2.86436009e+00 10. 1.38837004e+00 1.15713997e+01
      9.04784977e-01 9.71428967e+00 -7.75145963e-02 3.85714006e+00
      1.68827999e+00 7.14286983e-01 2.69839001e+00 7.14286983e-01
      3.12635994e+00 5.71429014e+00 2.12635994e+00 5.14285994e+00
      1.12636006e+00 4.71429014e+00 8.76999021e-01 4.14285994e+00
      1.60994005e+00 4.71429014e+00 3.68149012e-01 5.57143021e+00
      -1.23001002e-01 6.28571987e+00 3.85848999e-01 6.71429014e+00
      -8.55942011e-01 7. 2.07076001e+00 8.57146978e-01 3.08086991e+00
      1.57142997e+00 1.84160995e+00 1.71429002e+00 8.51723015e-01
      3.14285994e+00 1.59223998e+00 2.57142997e+00 1.33024001e+00
      2.28571010e+00 1.89972997e+00 4.42856979e+00 2.66048002e+00 4.
      2.17185998e+00 3.85715008e+00 2.43131995e+00 5.28570986e+00
      2.92248988e+00 3.85715008e+00 2.41111994e+00 4. -1.15585995e+00
      1.42857003e+00 3.58047009e-01 4.85715008e+00 1.62004006e+00
      6.28571987e+00 3.78250003e-01 6.85715008e+00 -1.12899996e-01
      7.42856979e+00 -6.01531982e-01 7.42856979e+00 4.11118001e-01
      5.57143021e+00 -6.01531982e-01 8.85715008e+00 -3.62259001e-01
      9.57143021e+00 1.12889004e+00 1.04286003e+01 1.62004006e+00
      8.28571987e+00 1.10867000e+00 7. -1.15079999e+00 4.71429014e+00
      8.69400024e-01 6.42856979e+00 3.78250003e-01 7.42856979e+00
      -1.11290002e+00 7.71429014e+00 1.56692997e-01 7.71429014e+00
      6.37741029e-01 8.42856979e+00 3.78250003e-01 7.28571987e+00
      1.62004006e+00 8.14284992e+00</_>
    <_>
      2.27665007e-01 3.65272999e-01 -1.78672999e-01 -1.97601005e-01
      -1.26800999e-01 -6.58676028e-01 -1.21036994e+00 -1.01795995e+00
      -1.83572996e+00 -2.75451988e-01 -8.15559030e-01 7.72460997e-01
      -1.20173001e+00 2.22755003e+00 -2.99423003e+00 6.29340982e+00
      -3.46396995e+00 6.78442001e+00 -4.79826021e+00 2.59879994e+00
      -3.04898000e+00 9.40124989e-01 -1.75792003e+00 7.90421009e-01
      7.49358982e-02 -1.55684993e-01 -1.44088998e-01 0. -8.21319997e-01
      -6.40717030e-01 -3.63097996e-01 -3.83231997e-01 -3.63097996e-01
      -1.25747994e-01 9.76948023e-01 4.07784986e+00 -3.25645000e-01
      2.60478997e+00 4.23629999e-01 3.70658994e+00 -6.91643000e-01
      3.29940009e+00 1.05762994e+00 -1.20957994e+00 -8.70316029e-01
      -1.90418994e+00 7.43515015e-01 7.06588984e-01 -1.23631001e+00
      1.13773003e-01 -4.87029999e-01 1.19781001e-02 2.10372999e-01
      -1.31137002e+00 -2.44948998e-01 5.68862975e-01 -1.38039994e+00
      -4.67063993e-01 -2.51585007e+00 -1.50299001e+00 -1.78673995e+00
      -1.64072001e+00 -1.80692005e+00 -3.57484007e+00 -1.29683006e+00
      -9.82039988e-01 -2.78674006e+00 -2.18562007e+00 -1.41208994e+00
      -1.88022995e+00 -1.63111997e+00 -3.47305012e+00 9.13543999e-01
      2.95808005e+00 1.15274000e+00 2.97604990e+00 -1.49857000e-01
      2.97604990e+00 -1.91066003e+00 8.56293023e-01 -1.01440001e+00
      -4.49097008e-01 1.15274000e+00 4.49104011e-01 1.55620003e+00
      -4.19159010e-02 -2.04604998e-01 2.17964005e+00 -5.07202029e-01
      1.17964005e+00 -1.26801002e+00 2.63473988e-01 -6.42654002e-01
      -3.47305000e-01 -4.75493997e-01 6.52695000e-01 4.43809986e-01
      2.64071989e+00 -1.72334003e+00 -2.39517003e-01 -1.29683006e+00
      -2.62874007e+00 -1.05762994e+00 -1.93412995e+00 4.61121015e-02
      -2.52694988e+00 4.72626001e-01 -1.37725994e-01 -3.55907011e+00
      3.94611001e+00 -5.27374029e-01 5.41915989e+00 -2.08933997e+00
      7.40119982e+00 -3.19307995e+00 8.19760036e+00 -3.29682994e+00
      8.29940987e+00 -3.72334003e+00 5.11377001e+00 1.36022997e+00
      2.53892994e+00 -1.29683006e+00 -5.38939983e-02 -2.05763006e+00
      -1.15568995e+00 -1.95388997e+00 -9.52086985e-01 -4.47549009e+00
      3.84431005e+00 -1.95388997e+00 6.23354006e+00 -2.05763006e+00
      6.02994013e+00 -2.29682994e+00 7.13174009e+00</_>
    <_>
      -3.43024999e-01 4.10567999e-01 -4.52919006e-02 5.24902018e-03
      2.69904995e+00 -1.91238001e-01 1.14565003e+00 2.82114005e+00
      1.88998997e+00 5.41582012e+00 3.52752995e+00 7.59280014e+00
      3.90942001e+00 7.35207987e+00 6.73790979e+00 7.85826015e+00
      8.31072998e+00 6.69365978e+00 9.18130016e+00 6.27596998e+00
      8.60525990e+00 4.97862005e+00 7.43375015e+00 2.84589005e+00
      5.66674995e+00 1.87777996e+00 4.70882988e+00 1.28310001e+00
      1.15542996e+00 2.70720989e-01 -1.00235000e-01 2.58347005e-01
      4.95238990e-01 4.54818994e-01 -2.55661011e+00 -5.13986015e+00
      -9.19067025e-01 -6.43720007e+00 6.11687005e-01 -8.48143959e+00
      1.14243996e+00 -9.06373978e+00 -1.47567999e+00 -9.01949978e+00
      -1.90285003e+00 -9.81064987e+00 1.92563999e+00 -7.64604998e+00
      6.05255008e-01 -3.85489011e+00 2.13599992e+00 -1.60179996e+00
      1.07129002e+00 4.86687005e-01 1.45958996e+00 -1.46905994e+00
      1.31072998e+00 -2.17172003e+00 3.31072998e+00 -6.65543020e-01
      2.16187000e+00 -1.59363002e-01 5.07771015e+00 2.80875993e+00
      4.11978006e+00 2.01761007e+00 4.16187000e+00 1.43533003e+00
      2.35279989e+00 3.01761007e+00 3.94881994e-01 5.01761007e+00
      -7.28127003e-01 -4.24820006e-01 -1.23943996e+00 -2.88676000e+00
      5.46967030e-01 -1.88676000e+00 2.18452001e+00 7.84026980e-01
      3.98093998e-01 2.41056991e+00 -1.38830996e+00 1.41057003e+00
      1.18130004e+00 -7.12584984e-03 6.69983029e-01 -2.67791009e+00
      1.45638001e+00 -4.69063014e-01 -5.49315996e-02 9.92874026e-01
      2.60525990e+00 2.82827997e+00 8.18831980e-01 1.61942005e+00
      2.80262995e+00 4.90963984e+00 4.73790979e+00 7.02998018e+00
      5.52432013e+00 8.19460011e+00 1.71526003e+00 6.82113981e+00
      2.03933999e-01 8.40344048e+00 -8.60778987e-01 8.44769001e+00
      3.37224007e+00 4.32733011e+00 -9.64355003e-03 -6.28418028e-01
      1.05507004e+00 -4.21072006e+00 3.71526003e+00 -5.00188017e+00
      7.37545013e+00 -3.21072006e+00 7.73790979e+00 -4.61273007e-02
      2.69583011e+00 5.70078993e+00 5.52432013e+00 7.07425022e+00
      2.71526003e+00 6.49194002e+00 2.03933999e-01 7.28310013e+00
      2.33016992e+00 3.11847997e+00 1.05507004e+00 -3.71690011e+00
      4.71526003e+00 -4.50805998e+00 6.37545013e+00 -3.92575002e+00</_>
    <_>
      2.42736995e-01 1.18819997e-01 -3.65676999e-01 3.09464008e-01
      -5.82499981e-01 2.59073997e+00 -7.99328029e-01 3.87200999e+00
      -1.16824996e+00 5.24390984e+00 1.24599004e+00 6.97830009e+00
      1.59551001e+00 9.07520008e+00 2.33662009e+00 1.07158003e+01
      3.46931005e+00 1.12627001e+01 4.44992018e+00 1.17158003e+01
      5.03892994e+00 1.00752001e+01 4.38844013e+00 8.06892014e+00
      4.80269003e+00 3.60640001e+00 2.73797989e+00 2.41576004e+00
      1.82535005e+00 1.31572998e+00 -8.72803032e-02 2.15713993e-01
      -3.91478986e-01 1.15691997e-01 6.56982005e-01 -3.15932012e+00
      7.12279975e-02 -5.70933008e+00 5.72853029e-01 -7.98434019e+00
      1.61816001e+00 -8.07495975e+00 1.19796999e-01 -4.79995012e+00
      2.94829011e+00 -6.52807999e+00 3.29781008e+00 -8.62183952e+00
      2.34312010e+00 -6.34995985e+00 2.54053998e+00 -4.80309010e+00
      1.80269003e+00 -5.16244984e+00 1.53403997e+00 2.96936005e-01
      3.81942987e-01 3.03200006e-01 3.81942987e-01 1.30946004e+00
      2.22983003e+00 2.22510004e+00 2.88031006e+00 3.68448997e+00
      2.05507994e+00 4.32199001e+00 1.07773995e+00 5.05012989e+00
      -5.17119989e-02 5.32199001e+00 -8.76953006e-01 5.77512980e+00
      -1.29770005e+00 3.00072014e-01 4.20753002e-01 9.34432983e-01
      1.39206007e-01 1.02506006e+00 5.53452015e-01 3.90693992e-01
      -1.29012996e-02 1.02820003e+00 -5.79246998e-01 9.37575996e-01
      9.06219006e-01 -4.28054988e-01 4.72564995e-01 1.29693997e+00
      1.03893006e+00 3.87566000e-01 1.60527003e+00 -1.06557000e+00
      8.86825979e-01 3.00072014e-01 3.20464998e-01 3.00072014e-01
      1.92236996e+00 1.78766000e+00 1.33661997e+00 3.42200994e+00
      1.90296996e+00 2.96575999e+00 2.07773995e+00 3.69389009e+00
      2.40459991e+00 3.96575999e+00 1.81885004e+00 6.33140993e+00
      4.47255993e+00 4.69702005e+00 3.51463008e+00 6.88141012e+00
      4.10038996e+00 9.51891041e+00 3.07773995e+00 9.51891041e+00
      2.90297008e+00 8.60953045e+00 3.18452001e+00 5.97203016e+00
      1.85766006e+00 3.78765988e+00 2.90297008e+00 6.05951977e+00
      3.07773995e+00 5.87828016e+00 4.25249004e+00 5.05951977e+00
      4.53729010e+00 4.78766012e+00 4.25249004e+00 4.15014982e+00
      3.07773995e+00 4.96889019e+00 2.90297008e+00 4.15014982e+00</_>
    <_>
      3.26240987e-01 7.69272000e-02 1.26789004e-01 -2.52746999e-01
      -3.12552989e-01 1.41759002e+00 4.87991005e-01 1.43956006e+00
      -6.71020985e-01 1.63735998e+00 -4.68834013e-01 1.06593001e+00
      -1.85767993e-01 1.90111005e+00 -8.62258971e-01 9.67041016e-01
      7.81997979e-01 1.43957996e+00 9.06051993e-01 3.18695009e-01
      2.50989008e+00 -2.19771996e-01 3.31316996e+00 -7.03293025e-01
      2.75524998e+00 -9.56039011e-01 8.36135983e-01 -1.53839007e-01
      -8.83544981e-01 -8.24172974e-01 1.56891003e-01 3.29674006e-01
      4.37225014e-01 -3.40660006e-01 -1.19123995e+00 -8.76922989e+00
      2.10402995e-01 -8.90110016e+00 2.13135004e-01 -9.49450970e+00
      1.49619997e+00 -1.03186998e+01 2.01917005e+00 -8.54944992e+00
      9.43755984e-01 -7.72526979e+00 7.06604004e-01 -4.49451017e+00
      9.89669979e-01 -2.31868005e+00 -2.47482002e-01 -7.25273013e-01
      -1.84583998e+00 5.82419991e-01 1.74155998e+00 -8.24176025e+00
      7.41562009e-01 -9.58240986e+00 7.41562009e-01 -9.92306995e+00
      5.01677990e-01 -1.06154003e+01 1.97872996e+00 -6.53844976e+00
      1.00037001e-01 -6.89011002e+00 -1.25844002e+00 -7.24175978e+00
      -1.61689997e+00 -5.89011002e+00 -3.73549008e+00 -4.53844976e+00
      9.18274000e-02 -5.40658998e+00 7.33353019e-01 -6.29670000e+00
      1.17543995e+00 -7.12088013e+00 1.09730005e+00 -4.23077011e+00
      1.17543995e+00 -3.93407011e+00 -2.66647011e-01 -4.28570986e+00
      -1.34384006e-01 -3.05495000e+00 -2.12509006e-01 -2.94505000e+00
      1.22957003e+00 -1.12088001e+00 6.31210029e-01 -8.79119992e-01
      9.89669979e-01 1.06593001e+00 -4.52407986e-01 2.41760001e-01
      -1.26391006e+00 -4.73626995e+00 -1.06171000e+00 -6.92307997e+00
      -1.13986003e+00 -7.34065008e+00 -4.98322010e-01 -5.86813021e+00
      -9.66797024e-02 -7.16483021e+00 1.58529997e+00 -7.21976995e+00
      2.54759002e+00 -5.68132019e+00 1.34539998e+00 -5.38461018e+00
      -3.36562991e-01 -5.56044006e+00 -1.73821998e+00 -5.73626995e+00
      -2.37975001e+00 -4.91207981e+00 -2.06170988e+00 -5.08791018e+00
      -9.43138003e-01 -5.20878983e+00 -1.13986003e+00 -5.45055008e+00
      -4.98322010e-01 -4.62636995e+00 1.66343999e+00 -5.27472019e+00
      2.46671009e+00 -5.32966995e+00 6.63437009e-01 -5.27472019e+00
      -7.38219976e-01 -4.62636995e+00 -1.37975001e+00 -4.62636995e+00</_>
    <_>
      -4.51613992e-01 -3.31009001e-01 -4.83871013e-01 -1.74179003e-02
      -1.54839003e+00 -2.74913001e+00 -1.61290002e+00 -5.48083019e+00
      -8.38711023e-01 -7.34843016e+00 -2.58064002e-01 -1.14425001e+01
      -2.87097001e+00 -1.17178001e+01 -4.61290979e+00 -1.01288996e+01
      -5.51612997e+00 -7.85715008e+00 -5.41936016e+00 -6.94772005e+00
      -5.32258987e+00 -6.40070009e+00 -4.09678984e+00 -2.98955011e+00
      -2.67742991e+00 -2.85016990e+00 -1. -1.93727005e+00
      -2.25814998e-01 -2.11496997e+00 -4.51613992e-01 -2.92679012e-01
      4.19342011e-01 3.93730015e-01 -4.06451988e+00 4.76307011e+00
      -3.51612997e+00 4.17422009e+00 -4.12903976e+00 3.85714006e+00
      -4.77419996e+00 1.85713995e+00 -5.32258987e+00 1.26480997e+00
      -3.51612997e+00 1.35539997e+00 -3.12904000e+00 1.08362997e+00
      -2.80645990e+00 2.17422009e+00 -2.38709998e+00 3.67247009e+00
      1.61284998e-01 2.30662990e+00 -4.83870983e+00 5.48781013e+00
      -4.77419996e+00 4.21255016e+00 -3.70969009e+00 3.93728995e+00
      -3.64516997e+00 2.66201997e+00 -2.09678006e+00 5.38676023e+00
      -3.32259011e+00 2.56795001e+00 -4.58063984e+00 1.70384002e+00
      -5.87096977e+00 2.61325002e+00 -6.19356012e+00 3.47736001e+00
      -2.77418995e+00 5.57840014e+00 -4.19355011e+00 5.26132011e+00
      -1.67742002e+00 5.35192013e+00 -1.09677994e+00 5.80488014e+00
      -2.64515996e+00 1.08955002e+01 -3.16128993e+00 1.08501997e+01
      -5.67743015e+00 7.03136015e+00 -4.16130018e+00 3.62369990e+00
      -2.61292005e+00 3.66898990e+00 -2. 5.07666016e+00 -2.61292005e+00
      7.21255016e+00 -4.12903976e+00 7.16725016e+00 -4.38710022e+00
      -2.78625004e-02 -3.90322995e+00 2.60976005e+00 -3.32259011e+00
      3.47388005e+00 -3.61290002e+00 3.60976005e+00 -3.96774006e+00
      2.51917005e+00 -4.38710022e+00 3.79094005e+00 -5.83870983e+00
      2.24391007e+00 -5.32258987e+00 4.25094992e-01 -3.90322995e+00
      5.15685976e-01 -4.54838991e+00 1.56096995e+00 -3.22581005e+00
      4.70382988e-01 -3.83871007e+00 2.89200008e-01 -3.61291003e+00
      9.72136974e-01 -3.29032993e+00 1.97213995e+00 -4.58063984e+00
      2.01743007e+00 -4.93549013e+00 1.01742995e+00 -5.61291981e+00
      3.19861007e+00 -4.90323019e+00 -2.78625004e-02 -4.58063984e+00
      9.72136974e-01 -4.25806999e+00 -1.18469000e-01</_>
    <_>
      2.29205996e-01 5.00000000e-01 -3.69170994e-01 7.14263991e-02
      2.34614998e-01 -3.57147008e-01 2.24003005e+00 2.14278996e-01
      2.84650993e+00 0. 3.85733008e+00 1.07147001e-01 2.27248001e+00
      -1.14285004e+00 1.88979006e+00 -2.64284992e+00 1.90872002e+00
      -3.85715008e+00 3.26568991e-01 -2.10715008e+00 7.41714001e-01
      8.21425974e-01 9.54697013e-01 1.39285004e+00 -2.36649007e-01
      1.50000000e+00 -8.32320988e-01 -9.64294016e-01 -2.28545994e-01
      4.64278996e-01 -2.25860998e-01 -2.14286998e-01 -4.25292999e-01
      2.14286998e-01 2.04327011e+00 -4.14285994e+00 3.25355005e+00
      -2.32142997e+00 2.06761003e+00 -7.85713017e-01 4.82749999e-01 2.
      -7.03185976e-01 5.25000000e+00 3.31305003e+00 4.35714006e+00
      1.32657003e+00 1.42857003e+00 1.14063001e+00 2.85714006e+00
      1.54159993e-01 1.75000000e+00 2.36442995e+00 -7.50000000e-01
      9.06005979e-01 2.89284992e+00 1.70656002e+00 2.85714006e+00
      5.07094979e-01 1.92857003e+00 -6.92367971e-01 8.92853022e-01
      -5.06424010e-01 -7.85721004e-01 -9.93957967e-02 1. 1.10818005e+00
      1.89285004e+00 -2.85338998e-01 1.10714996e+00 -4.79384989e-01
      4.28573996e-01 8.60038996e-01 -2.85715008e+00 -1.31843999e-01
      -5.57143021e+00 1.27788997e+00 -4.57143021e+00 2.08652997e+00
      -1.85714996e+00 1.27788997e+00 -2.39285994e+00 -9.32388008e-01
      -1.60714996e+00 3.23852986e-01 -4.28573996e-01 1.33199000e+00
      -1.92857003e+00 2.74170995e+00 -2.82142997e+00 1.94928002e+00
      2.14286998e-01 2.34278989e+00 3.57140005e-01 9.33044016e-01
      2.50000000e-01 7.68220997e+00 -1.92857003e+00 5.89248991e+00
      2.25000000e+00 1.50168002e+00 3.10715008e+00 2.30763006e+00
      2.78571010e+00 -8.58765021e-02 3.10715008e+00 -3.47668004e+00
      4.35715008e+00 -4.06695986e+00 2.39284992e+00 -4.47667980e+00
      -6.78571987e+00 -2.85338998e-01 -1.31070995e+01 1.30762994e+00
      -1.33213997e+01 1.70114005e+00 -1.32143002e+01 6.89248991e+00
      -9.89284992e+00 8.08652973e+00 -8.21425974e-01 1.50168002e+00
      1.71428001e+00 3.07631999e-01 2.60715008e+00 7.14661002e-01
      1.71428001e+00 -2.47128010e+00 2.39284992e+00 9.14124012e-01
      -1.02856998e+01 1.30762994e+00 -1.13929005e+01 2.50167990e+00
      -1.12856998e+01</_>
    <_>
      4.66190010e-01 2.85712987e-01 -1.87190995e-01 4.48982000e-01
      1.59424007e-01 2.61224008e+00 5.92701018e-01 4.77550983e+00
      1.19928002e+00 7.48978996e+00 3.25798005e-01 8.53061008e+00
      9.72236991e-01 8.22449017e+00 4.87864017e+00 8.46938992e+00
      7.04501009e+00 8.14284992e+00 1.02980003e+01 6.24490023e+00
      9.20442009e+00 3.77551007e+00 8.11083984e+00 4.08163023e+00
      4.32400990e+00 8.16330016e-01 3.93058991e+00 8.77547979e-01
      1.90551996e-01 -2.85706013e-01 4.50531006e-01 3.26530010e-01
      -3.76190007e-01 -2.85712987e-01 -4.93954003e-01 -6.20408010e+00
      -1.45409000e+00 -8.34694004e+00 -8.07663023e-01 -8.46938992e+00
      9.25437987e-01 -9.02040958e+00 1.65854001e+00 -6.67347002e+00
      7.39162016e+00 -8.34694004e+00 7.21135998e+00 -1.19183998e+01
      9.11777973e+00 -1.11429005e+01 6.85088015e+00 -8.02040958e+00
      4.06404018e+00 -4.87755013e+00 4.69837999e+00 -7.55104005e-01
      5.69837999e+00 -1.28570998e+00 4.69837999e+00 -2.04081988e+00
      5.78504992e+00 -3.57142997e+00 6.48522997e+00 8.16330016e-01
      7.09181023e+00 -1.83669999e-01 5.78504992e+00 4.08173017e-02
      5.39162016e+00 -1.83669999e-01 4.08484983e+00 5.91843009e-01
      2.67242002e+00 -2.18367004e+00 3.53895998e+00 -2.97958994e+00
      3.66546988e+00 -2.20408010e+00 4.70532990e+00 -1.18367004e+00
      4.66547012e+00 -2.85712987e-01 2.45231009e+00 -6.12258986e-02
      4.77811003e+00 -2.63264990e+00 4.81795979e+00 -4.65305996e+00
      5.03112984e+00 -4.42856979e+00 4.98433018e+00 -2.40815997e+00
      5.03112984e+00 -1.51020002e+00 4.81795979e+00 -1.73469996e+00
      7.92543983e+00 7.12244987e+00 6.96529007e+00 7.65305996e+00
      6.00513983e+00 8.30611992e+00 6.78504992e+00 7.75509977e+00
      5.47829008e+00 7.30611992e+00 4.51812983e+00 6.42856979e+00
      3.64463997e+00 3.89795995e+00 4.51812983e+00 2.79590988e+00
      6.56492996e+00 4.46938992e+00 6.78504992e+00 4.69388008e+00
      5.91849995e+00 3.46938992e+00 7.96529007e+00 4.02042007e+00
      8.53201962e+00 7.89796019e+00 6.00513983e+00 6.77550983e+00
      6.78504992e+00 4.77550983e+00 5.47829008e+00 3.55102992e+00
      5.03807020e+00 4.44896984e+00 5.47829008e+00 3.55102992e+00
      6.78504992e+00 5. 6.91849995e+00 5.77550983e+00</_>
    <_>
      2.29205996e-01 8.29925984e-02 4.31369990e-01 -1.56783998e-01
      2.34614998e-01 9.02846992e-01 2.37320006e-01 2.81278992e+00
      -1.35835004e+00 4.02213001e+00 -1.14806998e+00 4.27942991e+00
      -2.53347993e+00 5.58467007e+00 -3.11561990e+00 6.78817987e+00
      -1.49561000e+00 5.48877001e+00 -8.75594974e-01 3.38701010e+00
      -2.05882001e+00 7.82348990e-01 -1.44422996e+00 7.76504993e-01
      -2.03449988e+00 -3.31084996e-01 -6.30173028e-01 3.09859991e-01
      -2.28545994e-01 2.50214010e-01 1.73065007e-01 4.08858992e-02
      -4.25292999e-01 -1.87531002e-02 8.41105998e-01 -5.75478017e-01
      4.86754999e-02 -1.28189003e+00 1.86274004e+00 -9.34525013e-01
      1.47735000e+00 -9.34525013e-01 3.09194994e+00 -9.82478976e-01
      2.11359000e+00 -1.32186994e-01 1.32657003e+00 -9.34525013e-01
      1.94117999e+00 -2.63510990e+00 1.95469999e+00 -8.32771003e-01
      1.16226006e+00 -9.76638973e-01 2.10277009e+00 -2.12634993e+00
      1.90330994e+00 -1.97080004e+00 2.90331006e+00 -2.81524992e+00
      1.90330994e+00 -1.95911002e+00 3.08925009e+00 -8.51531982e-01
      2.49627995e+00 -1.15095997e+00 1.70386004e+00 -1.30066001e+00
      2.11086988e+00 -1.23596005e-03 2.51791000e+00 -1.55211997e+00
      -5.44288993e-01 -8.21090996e-01 6.63284004e-01 -1.74309000e-01
      1.07301998e+00 -1.02460003e+00 1.68220997e+00 -5.21674991e-01
      8.73557985e-01 -1.27022004e+00 -3.36715996e-01 4.30366993e-01
      1.32114995e+00 -2.37196994e+00 2.93036008e+00 -1.72518003e+00
      1.53954995e+00 -1.87488997e+00 1.54764998e+00 -2.22226000e+00
      1.34009004e+00 -1.97080004e+00 1.93035996e+00 -1.82108998e+00
      6.76804006e-01 3.91454005e+00 6.87622011e-01 1.86073005e+00
      -7.03185976e-01 5.83954006e-02 -4.95604992e-01 1.60927999e+00
      5.12512028e-01 3.57818991e-01 1.21703997e-01 1.60927999e+00
      -6.68015003e-01 5.96249008e+00 9.22240973e-01 3.76483011e+00
      1.13586001e-01 3.01627994e+00 -8.94531012e-01 2.71686006e+00
      -9.02648985e-01 2.71686006e+00 -3.12377989e-01 3.01627994e+00
      1.08113003e+00 4.06423998e+00 2.96813995e-01 1.11220002e+00
      1.30491996e+00 1.11220002e+00 1.51250994e+00 2.41161990e+00
      -1.07234001e+00 4.96249008e+00 3.13048989e-01 5.61325014e-01
      3.04915994e-01 2.11220002e+00 9.73510966e-02 2.11220002e+00</_>
    <_>
      3.96191001e-01 3.22730988e-01 8.94813985e-02 4.85695004e-01
      5.52745998e-01 -1.35134995e+00 9.26856995e-02 -2.22992992e+00
      -6.74080014e-01 -6.15004015e+00 -1.90091002e+00 -6.19475985e+00
      -2.66446996e+00 -3.40561008e+00 -3.58139992e+00 -8.24127018e-01
      -4.88170004e+00 3.00476015e-01 -5.18201017e+00 3.13434005e+00
      -4.09891987e+00 2.51132011e+00 -2.78580999e+00 1.72217000e+00
      -1.01265001e+00 2.68382001e+00 3.73946995e-01 5.62407970e-01
      -9.32770014e-01 3.57894987e-01 -3.16161990e-01 1.53419003e-01
      -4.69512999e-01 -5.10788001e-02 -6.83063984e+00 -3.17566991e+00
      -6.98079014e+00 -5.75715017e+00 -7.66767979e+00 -1.09647999e+01
      -8.35457039e+00 -1.50064001e+01 -7.11815023e+00 -1.38402004e+01
      -2.34176993e+00 -1.59647999e+01 -1.05331004e-01 -1.62140007e+01
      2.13109994e+00 -1.32556000e+01 2.44421005e+00 -9.08942986e+00
      2.17377007e-01 -4.54947996e+00 -3.26830006e+00 -4.05108023e+00
      -3.26830006e+00 -6.26191998e+00 -4.26830006e+00 -6.47277021e+00
      -5.26830006e+00 -8.68362045e+00 -2.81141996e+00 -2.06061006e+00
      -3.57819009e+00 -2.97754002e+00 -4.42164993e+00 -2.89446998e+00
      -6.34177017e+00 -1.97754002e+00 -7.18520021e+00 -2.10215998e+00
      -8.05426979e+00 -7.88493013e+00 -7.97439003e+00 -1.32172003e+01
      -4.20121002e+00 -1.22587004e+01 -6.12133980e+00 -3.84340000e+00
      -6.20121002e+00 -1.67727005e+00 -9.97439003e+00 -2.63573003e+00
      -4.72194004e+00 -3.92648005e+00 -3.71872997e+00 -1.34249001e+01
      1.05443001e+00 -1.34664001e+01 1.05762994e+00 -9.13414001e+00
      9.77752984e-01 -2.88492990e+00 -2.87210011e+00 -3.84340000e+00
      -1.16612997e+01 3.60074997e+00 -1.05813999e+01 2.26944000e-01
      -8.65487957e+00 -9.80713010e-01 -6.57499981e+00 1.18541002e+00
      -4.49512005e+00 1.92871001e-02 -3.72194004e+00 1.18541002e+00
      5.12237996e-02 5.17684996e-01 -8.75304997e-01 4.89148998e+00
      -2.64846992e+00 6.09915018e+00 -4.72835016e+00 5.14069986e+00
      -6.80822992e+00 6.14069986e+00 -9.65808010e+00 2.93302989e+00
      -1.21212997e+01 1.55921996e+00 -7.73155022e+00 1.43462002e+00
      -6.57499981e+00 4.76150990e-01 -4.57179022e+00 3.93081993e-01
      -1.41202998e+00 4.76150990e-01 -3.57178998e+00 3.43461990e+00
      -5.65165997e+00 2.51767993e+00 -6.73155022e+00 2.43461990e+00</_>
    <_>
      -3.49963993e-01 1.89636007e-01 4.68787998e-01 -4.67278004e-01
      1.56631004e-02 9.29275990e-01 -4.37458009e-01 2.32580996e+00
      -2.34369993e+00 3.82925010e+00 -1.06557000e+00 5.43957996e+00
      5.78208983e-01 7.37061977e+00 9.50103998e-01 9.62232971e+00
      3.95950007e+00 9.40857029e+00 5.15014982e+00 7.78268003e+00
      4.88455009e+00 5.69129992e+00 3.89081001e+00 2.86717010e+00
      1.53145003e+00 1.20340002e+00 -1.10292006e+00 -2.46597007e-01
      -4.65424001e-01 -6.96594000e-01 2.62726009e-01 -2.00035006e-01
      2.62726009e-01 3.49976003e-01 4.75051999e-01 -1.58105004e+00
      2.50626002e-02 -1.72588003e+00 8.50081980e-01 -1.45862997e+00
      7.65724003e-01 -1.67243004e+00 7.71987975e-01 -2.20691991e+00
      -1.24847002e-01 -2.20691991e+00 -7.56088018e-01 -1.67243004e+00
      -5.68572998e-01 -1.45862997e+00 -2.29045010e+00 -6.18979990e-01
      -2.37793994e+00 -1.42070997e+00 6.87636971e-01 -1.38277996e+00
      1.59700000e+00 -5.05203009e-01 1.50637996e+00 -1.57416999e+00
      3.32511997e+00 -7.50046015e-01 1.68137002e+00 3.41324002e-01
      2.59386992e+00 1.12755001e+00 2.50638008e+00 -3.28064002e-02
      2.50951004e+00 -8.19015980e-01 2.60327005e+00 -5.51773012e-01
      1.18819997e-01 -6.50023997e-01 -1.49918005e-01 -1.06209004e+00
      1.21884000e+00 -2.06208992e+00 -4.98961993e-02 -1.75691998e+00
      3.09464008e-01 -1.02416003e+00 -5.92956990e-02 -1.02416003e+00
      1.24076998e+00 -2.65001988e+00 6.26526028e-02 -1.90174997e+00
      5.22033989e-01 -1.90174997e+00 4.34554994e-01 -1.43622994e+00
      3.40804994e-01 -1.81035995e+00 -2.79693995e-02 -8.10364008e-01
      6.40322018e+00 7.98959017e+00 3.86261010e+00 3.41719007e+00
      3.41261005e+00 1.73787999e+00 3.50638008e+00 1.57753003e+00
      4.60014009e+00 1.79131997e+00 4.33140993e+00 1.52408004e+00
      2.15327001e+00 8.14993000e+00 4.33140993e+00 6.56200981e+00
      4.50951004e+00 7.24132013e+00 4.50638008e+00 7.13440990e+00
      3.59386992e+00 6.18788004e+00 3.95322990e+00 7.45511007e+00
      5.85947990e+00 7.04304981e+00 2.50324988e+00 2.20339990e+00
      3.50638008e+00 2.14993000e+00 3.60014009e+00 4.20340014e+00
      1.69702005e+00 7.14993000e+00 3.60014009e+00 4.14993000e+00
      4.50638008e+00 4.04304981e+00 3.50324988e+00 3.09647989e+00</_>
    <_>
      -1.42857000e-01 -1.49063006e-01 -1.42857000e-01 -2.67075002e-01
      1.35569000e+00 6.14914000e-01 1.47812998e+00 1.56522000e+00
      5.72303009e+00 2.58385992e+00 6.34111023e+00 4.94410992e+00
      6.45772982e+00 9.44099045e+00 5.07288980e+00 1.14844999e+01
      7.18658018e+00 1.31429005e+01 9.30029011e+00 1.04844999e+01
      7.29155016e+00 4.57765007e+00 6.40817022e+00 -9.19250011e-01
      3.27697992e+00 -4.14284992e+00 2.77259994e+00 -4.29813004e+00
      -1.04950003e-01 -3.31677008e+00 3.93584996e-01 -3.35402995e-01
      1.42853007e-01 -2.85712987e-01 -9.00874972e-01 -4.37267017e+00
      -1.15743005e+00 -2.41615009e+00 -1.91544998e+00 -2.14285994e+00
      -1.79884005e+00 5.83850980e-01 -4.43148994e+00 4.03727007e+00
      5.30320978e+00 1.03726995e+00 1.79591000e+00 -1.41614997e+00
      3.79027985e-02 -1.34782004e+00 -4.69390988e-01 -4.62111998e+00
      -2.24487007e-01 -4.64595985e+00 1.81050003e+00 2.12422991e+00
      2.81049991e+00 2.82609010e+00 2.81049991e+00 4.52794981e+00
      4.68513012e+00 3.22981000e+00 3.82216001e+00 5.06832981e+00
      4.94169998e+00 2.93168998e+00 4.93587017e+00 2.72672009e+00
      4.05538988e+00 2.86335993e+00 3.30029011e+00 2.06833005e+00
      -2.03499007e+00 3.19254994e+00 -1.91544998e+00 1.73914003e+00
      -2.92127991e+00 2.67080998e+00 -8.01750004e-01 3.85093999e+00
      -9.21280026e-01 2.78260994e+00 -1.79007995e+00 2.78260994e+00
      3.17493010e+00 7.82607973e-01 2.16910005e+00 5.34164011e-01
      2.88634986e-01 4.65842992e-01 1.53351998e+00 -8.07418972e-02
      2.16327000e+00 5.77643991e-01 2.16910005e+00 -3.54034007e-01
      2.32944012e+00 5.99379015e+00 1.94753003e+00 9.50317025e-01
      3.44022989e+00 -1.36645997e+00 4.06123018e+00 -1.63973999e+00
      5.43148994e+00 -2.43477988e+00 6.17493010e+00 -1.18632996e+00
      7.16909981e+00 -2.07452011e+00 1.00495996e+01 7.90061998e+00
      8.43148994e+00 1.35590000e+01 6.18658018e+00 1.54906998e+01
      5.69095993e+00 1.55590000e+01 3.07289004e+00 1.29688997e+01
      6.07580996e+00 6.99379015e+00 3.56559992e+00 4.33540010e+00
      4.18658018e+00 3.26709008e+00 6.43148994e+00 3.26709008e+00
      4.29737997e+00 -7.45239034e-02 7.43148994e+00 7.06211996e+00
      5.18658018e+00 7.06211996e+00 4.56559992e+00 8.13045025e+00</_>
    <_>
      -1.42857000e-01 -3.53065014e-01 4.81049001e-01 -2.53044009e-01
      -1.45770997e-01 8.12606990e-01 1.97668004e+00 8.78250003e-01
      3.59767008e+00 1.84077001e+00 6.21574020e+00 6.31424010e-01
      5.08163023e+00 1.47048995e-01 4.57143021e+00 -5.09186029e-01
      1.81050003e+00 -2.40606999e+00 -7.58057013e-02 -3.57793999e+00
      -1.33527994e+00 -2.99044991e+00 -1.59475994e+00 -3.57483006e+00
      -7.25952029e-01 -2.39984012e+00 -9.79583979e-01 -1.36237001e+00
      5.18950999e-01 -1.39365005e+00 2.68218994e-01 -3.90549004e-01
      1.42853007e-01 -4.21822011e-01 -1.51603997e-01 5.09692001e+00
      -1.57433003e-01 5.58128023e+00 -7.90085018e-01 5.44377995e+00
      -5.48102975e-01 4.54690981e+00 -3.06122005e-01 4.75316000e+00
      2.55684996e+00 1.75316000e+00 2.79883003e+00 3.58127999e+00
      3.04081988e+00 3.47815990e+00 2.40816998e+00 3.61565995e+00
      2.27697992e+00 3.06255007e+00 1.43731999e+00 7.37193012e+00
      1.43731999e+00 6.88755989e+00 1.43731999e+00 8.43758011e+00
      1.43731999e+00 6.98758984e+00 3.94461012e+00 5.77823019e+00
      2.69095993e+00 4.84697008e+00 2.43731999e+00 5.91573000e+00
      2.05830002e+00 6.88135004e+00 8.04672003e-01 5.81261015e+00
      -1.53645003e+00 7.57817984e+00 -1.66182995e-01 4.30318022e+00
      1.07871997e+00 5.30318022e+00 2.32362008e+00 8.61256027e+00
      1.07871997e+00 1.17157001e+01 -2.04081988e+00 1.07157001e+01
      1.42566001e+00 8.64692974e+00 7.95913994e-01 4.33755016e+00
      2.04081988e+00 3.37192988e+00 1.53644001e+00 4.57817984e+00
      3.91545010e+00 8.71568012e+00 2.67055988e+00 9.71568012e+00
      -2.42273998e+00 1.11888003e+00 -2.30321002e+00 -2.24884003e-01
      -1.83669999e-01 -3.62365991e-01 1.43731999e+00 -2.59261996e-01
      3.93295002e+00 -1.36237001e+00 5.05247021e+00 -1.19051003e+00
      7.17200994e+00 -8.46741021e-01 5.05247021e+00 3.46265006e+00
      3.80759001e+00 4.56578016e+00 1.31194997e+00 5.56578016e+00
      8.16330016e-01 4.53140020e+00 -1.42857003e+00 4.42826986e+00
      -2.30029011e+00 2.08450007e+00 -1.83669999e-01 2.05012989e+00
      1.43731999e+00 3.08450007e+00 3.93295002e+00 2.05012989e+00
      6.04956007e+00 1.18881002e-01 3.93295002e+00 3.11888003e+00
      1.43731999e+00 4.15326023e+00 6.90963984e-01 3.08450007e+00</_>
    <_>
