<?xml version="1.0"?>
<opencv_storage>
<my_svm type_id="opencv-ml-svm">
  <svm_type>C_SVC</svm_type>
  <kernel><type>RBF</type>
    <gamma>3.3749999999999999e-006</gamma></kernel>
  <C>8.3966600000000000e+001</C>
  <term_criteria><epsilon>2.2204460492503131e-016</epsilon>
    <iterations>100</iterations></term_criteria>
  <var_all>136</var_all>
  <var_count>136</var_count>
  <class_count>7</class_count>
  <class_labels type_id="opencv-matrix">
    <rows>1</rows>
    <cols>7</cols>
    <dt>i</dt>
    <data>
      1 2 3 4 5 6 7</data></class_labels>
  <sv_total>495</sv_total>
  <support_vectors>
    <_>
      3.96191001e-001 -7.79265985e-002 3.19514990e-001 1.68831006e-001
      -9.87194002e-001 -1.55843997e+000 -1.21721995e+000
      -3.31169009e+000 2.46037006e-001 -6.01299000e+000 -7.50762999e-001
      -5.68831015e+000 -2.28429008e+000 -6.23375988e+000
      -2.20121002e+000 -6.67532015e+000 -3.57819009e+000
      -6.85715008e+000 -5.18520021e+000 -6.80519009e+000
      -6.48549986e+000 -6.44155979e+000 -6.40242004e+000
      -5.92207003e+000 -6.62926006e+000 -5.24674988e+000
      -5.31934977e+000 -2.51949000e+000 -2.85609007e+000
      -1.74026000e+000 -3.16161990e-001 -1.29851997e-002
      -4.69512999e-001 -2.33765006e-001 -1.52392995e+000
      -4.53247023e+000 -2.67407990e+000 -5.16882992e+000
      -1.36097002e+000 -5.14285994e+000 -3.04785991e+000
      -4.29869986e+000 -3.58139992e+000 -3.55843997e+000 1.04161000e+000
      -2.66233993e+000 1.35474002e+000 -3.42857003e+000 5.91156006e-001
      -4.29869986e+000 7.50916004e-001 -3.37663007e+000 1.44742000e+000
      -3.76623988e+000 -7.31552005e-001 -4. -1.65488005e+000
      -2.49351001e+000 -5.78185976e-001 -1.96104002e+000
      -1.42484999e+000 -4.80515003e-001 -4.46625017e-002
      -8.70132029e-001 -7.34755993e-001 -9.48059022e-001
      -1.57818997e+000 -1.02596998e+000 -3.42164993e+000
      -9.48059022e-001 -3.34176993e+000 -2.87013006e+000
      -1.36416996e+000 -3.02598000e+000 -2.28429008e+000
      -2.81818008e+000 -1.51111996e+000 -3.84415007e+000
      -1.58458996e+000 -1.15585005e+000 -1.35776997e+000
      -1.23376000e+000 -1.20762002e+000 -1.20779002e+000 7.38112986e-001
      -1.23376000e+000 -3.35357994e-001 -2.94805002e+000 3.61129999e-001
      -1.97403002e+000 -6.35666013e-001 -2.20778990e+000 3.61129999e-001
      -1.36363995e+000 -3.35357994e-001 -3.37662011e-001
      -2.66446996e+000 -3.88312006e+000 -2.81463003e+000
      -3.64934993e+000 -2.81141996e+000 -1.54545999e+000
      -3.73154998e+000 -2.64934993e+000 -1.57500005e+000
      -2.54545999e+000 -4.64846992e+000 -3.67531991e+000
      -4.72194004e+000 -4.93507004e+000 -4.57179022e+000
      -5.14284992e+000 -3.49832010e+000 -6.24674988e+000
      -3.57819009e+000 -6.27273989e+000 -3.65808010e+000
      -6.22077990e+000 -1.73794997e+000 -7.09090996e+000
      -4.12453985e+000 -2.88312006e+000 -3.81141996e+000
      -8.31176996e-001 -3.73154998e+000 -8.83117974e-001
      -2.57500005e+000 -8.57146978e-001 -3.18519998e+000
      -2.93507004e+000 -2.49832010e+000 -4.83118010e+000
      -3.65488005e+000 -3.88312006e+000 -2.73476005e+000
      -4.80519009e+000</_>
    <_>
      4.66190010e-001 2.85712987e-001 -1.87190995e-001 4.48982000e-001
      -2.84057999e+000 2.61224008e+000 -2.40730000e+000 4.77550983e+000
      -4.80072021e+000 7.48978996e+000 -5.67420006e+000 1.05305996e+001
      -5.02776003e+000 1.12244997e+001 -2.12136006e+000 1.34694004e+001
      1.04500997e+000 1.21429005e+001 5.29802990e+000 1.02448997e+001
      5.20442009e+000 5.77550983e+000 6.11083984e+000 6.08163023e+000
      4.32400990e+000 1.81632996e+000 1.93059003e+000 -1.22451998e-001
      1.90551996e-001 -2.85706013e-001 4.50531006e-001 3.26530010e-001
      -3.76190007e-001 -2.85712987e-001 5.06045997e-001 -5.20408010e+000
      -4.54093993e-001 -8.34694004e+000 2.19233990e+000 -9.46938992e+000
      3.92544007e+000 -9.02040958e+000 2.65854001e+000 -5.67347002e+000
      6.39162016e+000 -8.34694004e+000 6.21135998e+000 -1.29183998e+001
      8.11777973e+000 -1.01429005e+001 7.85088015e+000 -7.02041006e+000
      5.06404018e+000 -3.87754989e+000 5.69837999e+000 -2.75510001e+000
      4.69837999e+000 -4.28570986e+000 4.69837999e+000 -5.04082012e+000
      4.78504992e+000 -5.57143021e+000 4.48522997e+000 8.16330016e-001
      4.09181023e+000 -1.83669999e-001 3.78504992e+000 4.08173017e-002
      3.39161992e+000 -1.18367004e+000 3.08485007e+000 -4.08156991e-001
      2.67242002e+000 -3.18367004e+000 3.53895998e+000 -2.97958994e+000
      3.66546988e+000 -3.20408010e+000 5.70532990e+000 -2.18367004e+000
      3.66546988e+000 -1.28570998e+000 2.45231009e+000 -1.06122994e+000
      4.77811003e+000 -3.63264990e+000 4.81795979e+000 -5.65305996e+000
      6.03112984e+000 -5.42856979e+000 3.98432994e+000 -3.40815997e+000
      6.03112984e+000 -2.51020002e+000 4.81795979e+000 -2.73469996e+000
      2.92544007e+000 7.12244987e+000 2.96529007e+000 6.65305996e+000
      3.00514007e+000 8.30611992e+000 3.78504992e+000 6.75509977e+000
      2.47829008e+000 7.30611992e+000 1.51812994e+000 5.42856979e+000
      2.64463997e+000 4.89796019e+000 1.51812994e+000 4.79590988e+000
      2.56492996e+000 5.46938992e+000 3.78504992e+000 6.69388008e+000
      1.91849995e+000 6.46938992e+000 1.96528995e+000 6.02042007e+000
      2.53202009e+000 7.89796019e+000 3.00514007e+000 6.77550983e+000
      3.78504992e+000 5.77550983e+000 2.47829008e+000 3.55102992e+000
      2.03806996e+000 4.44896984e+000 2.47829008e+000 4.55103016e+000
      3.78504992e+000 7. 1.91849995e+000 6.77550983e+000</_>
    <_>
      -4.23106998e-001 1.18819997e-001 -2.17055995e-003 2.18842000e-001
      1.64669001e+000 3.18863004e-001 3.71648002e+000 -4.90494013e-001
      4.20721006e+000 -2.02797008e+000 6.15379000e+000 -3.29358006e+000
      5.94223022e+000 -6.19669008e+000 4.15160990e+000 -4.55605984e+000
      1.78193998e+000 -3.73727012e+000 -2.00868011e+000 -5.19356012e+000
      -4.02721024e+000 -7.65293980e+000 -5.65969992e+000
      -7.65919018e+000 -3.32709002e+000 -5.21233988e+000
      -1.25729001e+000 -2.40300012e+000 3.91555995e-001 -2.50302005e+000
      4.26452994e-001 3.96957010e-001 2.33429000e-001 2.96936005e-001
      -8.62578988e-001 -1.37967997e+001 -3.33695006e+000
      -1.83467999e+001 -1.54849994e+000 -1.78936996e+001
      -7.60056019e-001 -1.80750008e+001 -2.77857995e+000
      -1.37093000e+001 4.23778009e+000 -1.46187000e+001 5.21924019e+000
      -1.68031006e+001 5.20070982e+000 -1.43500004e+001 4.18216991e+000
      -1.14406004e+001 2.51479006e+000 -1.07093000e+001 1.74704003e+000
      -1.36124001e+001 1.55402005e+000 -1.12437000e+001 2.36101007e+000
      -7.96553993e+000 1.67983994e-001 -5.68739986e+000 1.18650997e+000
      -6.95300007e+000 1.67725003e+000 -7.04364014e+000 1.97495997e+000
      -6.13426018e+000 6.58721983e-001 -7.86238003e+000 5.35492003e-001
      -8.59051991e+000 3.46801996e-001 -1.21562004e+001 4.51499999e-001
      -1.51592999e+001 1.97713006e+000 -1.41592999e+001 1.69578004e+000
      -1.22468004e+001 1.78410995e+000 -1.16998997e+001 4.51499999e-001
      -1.17905998e+001 5.70388973e-001 -1.18843002e+001 6.75078988e-001
      -1.36155996e+001 2.00714007e-001 -1.35249004e+001 1.12396002e-001
      -1.03406000e+001 -1.85332999e-001 -1.00656004e+001 1.28902996e+000
      -1.01562004e+001 1.43297005e+000 -5.94048023e+000 1.57255995e+000
      -8.03423977e+000 2.09819007e+000 -1.03999004e+001 1.97495997e+000
      -1.06716995e+001 3.85173011e+000 -1.03999004e+001 4.37736988e+000
      -9.85297966e+000 2.90300012e+000 -9.66858959e+000 3.37737012e+000
      -7.75609016e+000 3.65872002e+000 -4.20920992e+000 1.97495997e+000
      -2.39047003e+000 2.91213989e-001 -4.29983997e+000 7.65564024e-001
      -4.93734980e+000 8.18253011e-002 -4.94048023e+000 1.09818995e+000
      -6.57799006e+000 1.97495997e+000 -8.66858959e+000 2.85173011e+000
      -7.48734999e+000 4.25414991e+000 -9.66858959e+000 2.85173011e+000
      -8.57798958e+000 1.16797996e+000 -8.66858959e+000 2.91213989e-001
      -7.57799006e+000</_>
    <_>
      4.35927987e-001 -2.46002004e-001 -4.00085002e-002 4.11742985e-001
      -1.22984004e+000 -1.71756005e+000 3.42364997e-001 -2.91788006e+000
      -3.72962989e-002 -5.18912983e+000 4.41345006e-001 -5.03456020e+000
      -1.98373997e+000 -4.45410013e+000 -1.83661997e+000
      -4.44777012e+000 -1.87933004e+000 -3.73168993e+000
      -1.16003001e+000 -2.37680006e+000 -2.01290989e+000
      -2.31215000e+000 -3.67596006e+000 -1.82161999e+000
      -4.19730997e+000 -1.83425999e+000 -1.81496000e+000 3.66043001e-001
      -1.24274004e+000 -3.62686008e-001 -1.94610998e-001
      -9.14077982e-002 3.29468012e-001 2.50838995e-001 -3.03730011e+000
      -5.47157001e+000 -4.32069016e+000 -4.69082022e+000
      -4.79391003e+000 -5.47789001e+000 -4.50509977e+000
      -6.54887009e+000 -4.45424986e+000 -4.83276987e+000 7.40997016e-001
      -5.69082022e+000 -6.84096992e-001 -6.40690994e+000 8.90823007e-001
      -5.33592987e+000 1.17963004e+000 -4.47789001e+000 3.18233991e+000
      -3.25864005e+000 -3.45153999e+000 -2.53623009e+000
      -2.68950009e+000 1.86179996e-001 -1.92746997e+000 -9.14077982e-002
      -2.92746997e+000 1.48904002e+000 -2.26442003e+000 2.78557992e+000
      -1.59596002e+000 3.64363003e+000 -2.92746997e+000 3.43069005e+000
      -3.25900006e+000 2.64363003e+000 -3.35255003e+000 3.78557992e+000
      -4.27255011e+000 -3.30657996e-002 -3.84205008e+000
      -2.39426994e+000 -3.12543988e+000 -1.39426994e+000
      -3.17087007e+000 1.75399995e+000 -3.12543988e+000 5.41060984e-001
      -4.60408020e+000 1.47009003e+000 -1.97018003e+000 1.82498002e+000
      -1.77766001e+000 -3.23296010e-001 -6.10352010e-002
      -1.25232005e+000 1.13147998e+000 1.10889006e+000 4.63028014e-001
      1.61204004e+000 -1.25358999e+000 2.61204004e+000 -7.79120016e+000
      -2.47937012e+000 -3.31255007e+000 5.14312983e-001 -2.35799003e+000
      1.01115000e+000 -1.45153999e+000 1.79822004e+000 -5.45104980e-001
      1.11542000e-002 9.33533013e-001 1.44333994e+000 9.36249018e-001
      4.49645996e-001 6.95572019e-001 2.02378988e+000 -7.83065975e-001
      2.88183999e+000 -1.45153999e+000 3.81086993e+000 -2.35799003e+000
      2.95282006e+000 -4.31255007e+000 2.09476995e+000 -7.45696020e+000
      5.91614008e-001 -2.12002993e+000 1.08843994e+000 -1.45153999e+000
      1.01747000e+000 -5.45104980e-001 1.01747000e+000 1.60202003e+000
      2.52062988e+000 2.16933995e-001 2.01746988e+000 -1.45153999e+000
      2.94649005e+000 -3.12002993e+000 2.08843994e+000</_>
    <_>
      2.75245994e-001 1.20659001e-001 1.60258994e-001 -3.75900000e-001
      9.68620002e-001 -8.19015980e-001 1.77698004e+000 -4.26211977e+000
      3.43202996e+000 -6.59834003e+000 2.85712004e+000 -7.77419996e+000
      3.97556996e+000 -9.73628044e+000 2.86405993e+000 -1.13776999e+001
      2.56090999e+000 -1.15914001e+001 1.37276006e+000 -9.32421970e+000
      1.33789003e+000 -8.57594013e+000 6.09664977e-001 -6.45351982e+000
      1.11140001e+000 -4.11731005e+000 9.19754028e-001 -3.56729007e+000
      8.43109012e-001 -1.07071996e+000 -2.71881014e-001 4.79270995e-001
      -3.10211003e-001 2.92815994e-002 -2.49130988e+000 -5.43129027e-001
      -3.95125008e+000 -1.52760994e+000 -3.75613999e+000
      -9.93117988e-001 -3.63768005e+000 -1.99311996e+000
      -4.48089981e+000 -4.20692015e+000 -7.84042001e-001
      -6.99312019e+000 -5.88913023e-001 -5.56552982e+000
      -1.39381003e+000 -5.45863008e+000 -2.19869995e+000
      -2.88621998e+000 -6.58630013e-001 -4.79484987e+000
      -2.20912004e+000 -3.27589011e+000 -2.24744010e+000
      -4.18451977e+000 -3.24097008e-001 -7.03969002e+000 6.37573004e-001
      -8.94830990e+000 -5.19226015e-001 -7.01729012e+000 5.91735989e-002
      -7.17763996e+000 6.37573004e-001 -7.28453016e+000 -7.45711982e-001
      -6.12417984e+000 -1.28983006e-001 -5.96384001e+000
      -4.56448984e+000 -3.97072005e+000 -3.02443004e+000
      -7.43623018e+000 -1.63768005e+000 -6.38278008e+000
      -2.13594007e+000 -9.17267025e-001 -1.63768005e+000
      -1.31057993e-001 -4.06275988e+000 -1.84516996e-001
      -2.16731000e+000 -1.70348001e+000 -1.70389998e+000
      -8.00864029e+000 -2.78824002e-001 -7.95519018e+000 2.26122999e+000
      -4.43623018e+000 2.64452004e+000 -1.75691998e+000 -1.74223006e+000
      -8.10364008e-001 1.09402001e+000 -4.42247009e+000 -4.04235989e-001
      -5.72765017e+000 1.05917001e+000 -6.35349989e+000 -3.24097008e-001
      -5.51384020e+000 -7.45711982e-001 -6.35349989e+000 6.79367006e-001
      -6.67419004e+000 -1.85722005e+000 -5.26211977e+000 6.41036987e-001
      -4.68971014e+000 1.13929999e+000 -2.90352011e+000 5.99242985e-001
      -2.95694995e+000 1.02084005e+000 -2.90352011e+000 1.51909995e+000
      -2.74316001e+000 8.25729012e-001 -5.31556988e+000 1.05917001e+000
      -4.04831982e+000 -1.32410002e+000 -4.04831982e+000 2.15957999e-001
      -4.99489021e+000 -1.58890998e+000 -5.20868015e+000 2.15957999e-001
      -4.04831982e+000 -3.62426996e-001 -3.10177994e+000 1.02084005e+000
      -2.10177994e+000</_>
    <_>
      3.26240987e-001 0. -1.53541997e-001 2.35297993e-001
      -3.52993011e-001 -1.29410994e+000 -2.72114009e-001
      -1.82352996e+000 -1.43113005e+000 -1.35293996e+000
      -7.49161005e-001 -4.11758006e-001 -1.26664996e+000 8.82354975e-001
      -4.63355988e-001 2.11765003e+000 -9.94110033e-002 2.52941990e+000
      7.84744024e-001 2.88234997e+000 -1.31652996e-001 3.41177011e+000
      9.11544979e-001 1. -1.26159996e-001 1.76468000e-001
      7.55249023e-001 -1.76468000e-001 5.96237004e-001 -2.94113010e-001
      1.56891003e-001 4.70589012e-001 4.37225014e-001 -4.11765993e-001
      -2.75189996e+000 -3.58822989e+000 -4.06993008e+000
      -2.70587993e+000 -6.06719017e+000 -4.11765003e+000
      -6.30433989e+000 -4.58823013e+000 -8.82182026e+000
      -2.64705992e+000 -8.97216976e-001 -3.41177011e+000
      -2.13438010e+000 -5.35294008e+000 -1.61143005e+000
      -6.76470995e+000 -2.32835007e+000 -5.35294008e+000
      -2.36606002e+000 -3.23529005e+000 -3.85950994e+000
      -1.05882001e+000 -2.85950994e+000 -1.52941000e+000
      -3.61963010e+000 -1.88234997e+000 -3.37975001e+000
      -1.35293996e+000 -3.42291999e+000 -2.05882001e+000
      -3.02127004e+000 -2.17647004e+000 -3.37975001e+000
      -5.29403985e-001 -3.21799994e+000 -2.94113010e-001
      -2.81634998e+000 -1.17647004e+000 -3.26938009e+000 4.70589012e-001
      -3.34752011e+000 7.64708996e-001 -3.62510991e+000 7.64708996e-001
      -3.70324993e+000 -2.35291004e-001 -4.14531994e+000 1.41176999e+000
      -4.10762978e+000 4.11765993e-001 -3.45514011e+000 1.88234997e+000
      -3.01306009e+000 8.82354975e-001 -3.05077004e+000 -8.82354975e-001
      -2.36878991e+000 7.05887020e-001 -2.53055000e+000 1.64706004e+000
      -2.49284005e+000 5.29411018e-001 -4.94587994e+000 -3.11765003e+000
      -3.74369001e+000 -2.82352996e+000 -2.54149008e+000
      -8.82354975e-001 -3.13985991e+000 -1.35293996e+000
      -1.97809994e+000 -8.82354975e-001 -1.25568998e+000
      -8.23531985e-001 -1.53329003e+000 -1.35293996e+000
      -2.55692005e-001 2. -9.78103995e-001 1.52942002e+000
      -1.89996004e+000 1.41176999e+000 -2.82182002e+000 5.29419005e-001
      -4.26390982e+000 -1.64706004e+000 -4.86499977e+000
      -1.11765003e+000 -2.54149008e+000 0. -3.13985991e+000
      7.64708996e-001 -1.97809994e+000 0. -6.14166021e-001
      -3.52936000e-001 -1.73821998e+000 1.11765003e+000 -2.89996004e+000
      1.88234997e+000 -4.06170988e+000 1.11765003e+000</_>
    <_>
      3.26240987e-001 7.69272000e-002 1.26789004e-001 -2.52746999e-001
      -1.31254995e+000 1.41759002e+000 -2.51201010e+000 2.43955994e+000
      -3.67102003e+000 3.63736010e+000 -3.46883011e+000 4.06592989e+000
      -4.18577003e+000 4.90111017e+000 -3.86226010e+000 4.96704006e+000
      -2.21799994e+000 5.43957996e+000 -1.09395003e+000 5.31869984e+000
      2.50989008e+000 3.78023005e+000 4.31316996e+000 3.29671001e+000
      2.75524998e+000 2.04396009e+000 8.36135983e-001 1.84616005e+000
      1.16455004e-001 1.75826997e-001 1.56891003e-001 3.29674006e-001
      4.37225014e-001 -3.40660006e-001 -1.91241995e-001 -1.27692003e+001
      -7.89596975e-001 -1.39011002e+001 -7.86864996e-001
      -1.44945002e+001 -1.50380003e+000 -1.53186998e+001
      -2.98082995e+000 -1.35494003e+001 -2.05624008e+000
      -1.17252998e+001 -2.29340005e+000 -8.49450970e+000
      -3.01032996e+000 -7.31867981e+000 -3.24747992e+000
      -5.72526979e+000 -4.84583998e+000 -5.41758013e+000
      -1.25844002e+000 -1.22418003e+001 -1.25844002e+000
      -1.25824003e+001 -2.25844002e+000 -1.39231005e+001
      -2.49832010e+000 -1.36154003e+001 9.78729010e-001 -9.53845024e+000
      -8.99963021e-001 -1.08900995e+001 -3.25844002e+000
      -1.12418003e+001 -4.61689997e+000 -8.89011002e+000
      -5.73548985e+000 -6.53844976e+000 9.18274000e-002 -8.40659046e+000
      -1.26664996e+000 -1.12966995e+001 -8.24562013e-001
      -1.11209002e+001 -9.02701974e-001 -8.23077011e+000
      -8.24562013e-001 -7.93407011e+000 -1.26664996e+000
      -7.28570986e+000 -2.13438010e+000 -6.05495024e+000
      -3.21251011e+000 -6.94504976e+000 -2.77043009e+000
      -6.12088013e+000 -2.36878991e+000 -4.87911987e+000
      -2.01032996e+000 -3.93407011e+000 -2.45240998e+000
      -4.75824022e+000 -6.26390982e+000 -4.73626995e+000
      -6.06170988e+000 -7.92307997e+000 -6.13986015e+000
      -9.34064960e+000 -4.49832010e+000 -8.86812973e+000
      -2.09667993e+000 -1.01647997e+001 -1.41470003e+000
      -7.21976995e+000 -4.52407986e-001 -4.68132019e+000
      -1.65460002e+000 -6.38461018e+000 -3.33656001e+000
      -7.56044006e+000 -4.73822021e+000 -6.73626995e+000
      -5.37974977e+000 -6.91207981e+000 -7.06170988e+000
      -6.08791018e+000 -6.94314003e+000 -5.20878983e+000
      -5.13986015e+000 -7.45055008e+000 -4.49832010e+000
      -5.62636995e+000 -2.33656001e+000 -6.27472019e+000
      -5.33294976e-001 -5.32966995e+000 -3.33656001e+000
      -7.27472019e+000 -4.73822021e+000 -7.62636995e+000
      -5.37974977e+000 -6.62636995e+000</_>
    <_>
      -3.35934013e-001 -3.89930993e-001 3.80156994e-001 4.06203985e-001
      -1.90374994e+000 -3.03715992e+000 -3.32961988e+000
      -2.36075997e+000 -5.11037016e+000 -3.80412006e+000
      -6.38795996e+000 -2.42707992e+000 -6.16238022e+000
      -2.40927005e+000 -7.00780010e+000 -6.30950987e-001
      -6.06613016e+000 6.08520985e-001 -5.98253012e+000 1.30917001e+000
      -3.68599010e+000 2.47098994e+000 -2.24747992e+000 1.39330995e+000
      6.16867006e-001 1.01628006e+000 1.97809005e+000 4.59625006e-001
      6.94182992e-001 -1.15689003e+000 4.81247008e-001 2.86460996e-001
      2.68310994e-001 -3.89930993e-001 -9.68414009e-001 -6.40774012e+000
      -3.10403991e+000 -8.18605995e+000 -4.59457016e+000
      -9.42553997e+000 -5.15607023e+000 -1.23058004e+001
      -5.71755981e+000 -1.20065002e+001 -1.98885000e+000
      -8.94657993e+000 -2.47937012e+000 -1.24254999e+001
      -1.04086006e+000 -1.05452995e+001 -5.31386971e-001
      -1.13058004e+001 -1.45410001e+000 -8.40773964e+000
      -3.92418003e+000 -7.92877007e+000 -3.99516010e+000
      -9.85109043e+000 -4.06613016e+000 -1.17135000e+001
      -4.13711977e+000 -1.35760002e+001 -4.57561016e+000
      -8.79767036e+000 -4.28539991e+000 -9.55817986e+000
      -5.06613016e+000 -9.37856960e+000 -2.91788006e+000
      -9.55817986e+000 -3.55665994e+000 -8.79767036e+000
      -2.81381989e+000 -4.50966978e+000 -3.66553998e+000
      -8.10838032e+000 -2.87215996e+000 -7.10837984e+000
      -2.79485989e+000 -7.56955004e+000 -3.80118990e+000
      -5.27018976e+000 -4.66554022e+000 -5.21030998e+000
      -2.91156006e+000 -7.50966978e+000 -2.83425999e+000
      -9.16825008e+000 -9.69893992e-001 -1.01682997e+001
      -1.82161999e+000 -7.56955004e+000 -1.04086006e+000
      -7.27018976e+000 -2.90523005e+000 -6.27018976e+000
      -5.08509016e+000 -3.76204991e+000 -3.29169989e+000
      -6.06139994e+000 -3.35636997e+000 -8.30088997e+000
      -5.99516010e+000 -7.06139994e+000 -5.70493984e+000
      -6.24103022e+000 -5.69860983e+000 -5.00153017e+000
      -3.83425999e+000 -3.70217991e+000 -5.69860983e+000
      -3.16335011e+000 -6.70493984e+000 -4.92386007e+000
      -5.99516010e+000 -5.86397982e+000 -4.28539991e+000
      -5.98371983e+000 -3.29169989e+000 -5.22321987e+000
      -3.58192992e+000 -3.70217991e+000 -5.28539991e+000
      -6.76205015e+000 -5.99516010e+000 -6.64230013e+000
      -6.70493984e+000 -5.70217991e+000 -5.33741999e+000
      -3.70217991e+000 -5.70493984e+000 -3.70217991e+000
      -4.99516010e+000 -3.58243990e+000 -4.28539991e+000
      -4.76205015e+000</_>
    <_>
      -3.35934013e-001 -3.89930993e-001 3.80156994e-001 4.06203985e-001
      -9.03751016e-001 -3.03715992e+000 -1.32962000e+000
      -3.36075997e+000 -2.11036992e+000 -3.80412006e+000
      -3.38795996e+000 -4.42708015e+000 -2.16237998e+000
      -3.40927005e+000 -3.00780010e+000 -3.63094997e+000
      -2.06612992e+000 -3.39147997e+000 -1.98253000e+000
      -2.69082999e+000 -1.68598998e+000 -1.52901006e+000
      -2.47482002e-001 -1.60669005e+000 6.16867006e-001 1.62811000e-002
      1.97809005e+000 -5.40374994e-001 6.94182992e-001 -1.15689003e+000
      4.81247008e-001 2.86460996e-001 2.68310994e-001 -3.89930993e-001
      -1.96841002e+000 -4.40774012e+000 -4.10404015e+000
      -6.18605995e+000 -4.59457016e+000 -7.42553997e+000
      -4.15607023e+000 -9.30580997e+000 -4.71755981e+000
      -1.10065002e+001 -9.88846004e-001 -9.94657993e+000
      -1.47937000e+000 -1.14254999e+001 -1.04086006e+000
      -1.05452995e+001 -5.31386971e-001 -1.03058004e+001
      -1.45410001e+000 -7.40774012e+000 -2.92418003e+000
      -7.92877007e+000 -2.99516010e+000 -1.08511000e+001
      -3.06612992e+000 -1.07135000e+001 -3.13712001e+000
      -1.35760002e+001 -3.57560992e+000 -8.79767036e+000
      -3.28539991e+000 -8.55817986e+000 -3.06612992e+000
      -9.37856960e+000 -1.91788006e+000 -9.55817986e+000
      -1.55666006e+000 -1.07976999e+001 -3.81381989e+000
      -2.50967002e+000 -3.66553998e+000 -7.10837984e+000
      -2.87215996e+000 -6.10837984e+000 -2.79485989e+000
      -6.56955004e+000 -2.80118990e+000 -4.27018976e+000
      -3.66553998e+000 -4.21030998e+000 -2.91156006e+000
      -7.50966978e+000 -2.83425999e+000 -9.16825008e+000
      -9.69893992e-001 -1.01682997e+001 -1.82161999e+000
      -5.56955004e+000 -1.04086006e+000 -7.27018976e+000
      -2.90523005e+000 -6.27018976e+000 -3.08508992e+000
      -4.76205015e+000 -1.29170001e+000 -6.06139994e+000
      -2.35636997e+000 -7.30088997e+000 -3.99516010e+000
      -7.06139994e+000 -3.70494008e+000 -6.24103022e+000
      -3.69861007e+000 -5.00153017e+000 -1.83425999e+000
      -4.70217991e+000 -4.69860983e+000 -4.16335011e+000
      -5.70493984e+000 -6.92386007e+000 -4.99516010e+000
      -6.86397982e+000 -3.28539991e+000 -6.98371983e+000
      -2.29169989e+000 -4.22321987e+000 -5.81932008e-001
      -3.70217991e+000 -2.28539991e+000 -6.76205015e+000
      -3.99516010e+000 -7.64230013e+000 -4.70493984e+000
      -6.70217991e+000 -3.33741999e+000 -4.70217991e+000
      -4.70493984e+000 -5.70217991e+000 -3.99516010e+000
      -5.58243990e+000 -2.28539991e+000 -5.76205015e+000</_>
    <_>
      -4.52919006e-002 2.69057989e-001 -1.94157004e-001 1.00800000e-001
      -1.34302998e+000 -1.22072995e+000 -1.89642000e+000 1.45774996e+000
      -2.70548010e+000 2.13619995e+000 -1.77020001e+000 5.66140985e+000
      -2.39441007e-001 8.72681046e+000 -1.11321998e+000 1.28725996e+001
      -1.09379995e+000 1.13324003e+001 -7.43561015e-002 8.87257004e+000
      2.00714007e-001 3.88006997e+000 1.78084999e-001 9.67957020e-001
      1.41109002e+000 -2.50717014e-001 1.60204005e+000 -9.29184020e-001
      -9.51354980e-001 -1.60765004e+000 3.46374989e-001 2.04163007e-002
      4.95238990e-001 4.95216012e-001 1.18772995e+000 -3.18324995e+000
      -1.17472994e+000 -5.86921978e+000 5.04890025e-001 -7.17574978e+000
      -9.64354992e-001 -7.86921978e+000 -1.28473997e+000
      -8.10286999e+000 3.58582997e+000 -8.94960022e+000 2.26543999e+000
      -8.56268024e+000 9.45068002e-001 -7.02248001e+000 4.75814998e-001
      -4.40941000e+000 -8.86641979e-001 -4.72344017e+000 2.50167990e+000
      -3.19074988e+000 1.35280001e+000 -1.89171004e+000 2.20392990e+000
      -5.92658997e-001 1.05507004e+000 8.59656990e-001 3.52431989e+000
      4.00543022e+000 3.86412001e+000 3.15868998e+000 3.20392990e+000
      1.31197000e+000 5.43747008e-001 2.15868998e+000 -1.11644006e+000
      2.15868998e+000 2.71848011e+000 -2.19074988e+000 3.35601997e+000
      -6.11037016e+000 2.44017005e+000 -5.11037016e+000 3.07770991e+000
      -1.73093998e+000 3.29131007e+000 -2.27113008e+000 2.20714998e+000
      -1.27112997e+000 7.45086968e-002 -2.42440009e+000 -1.13908005e+000
      -4.80383015e+000 -5.49315996e-002 -4.65054989e+000
      -5.66254020e-001 -2.73094010e+000 -5.49315996e-002
      -8.11325014e-001 -1.39083996e-001 1.88675001e-001 3.69583011e+000
      8.36985970e+000 4.82246011e-001 7.99042988e+000 1.71526003e+000
      4.07081985e+000 1.05507004e+000 4.53062010e+000 6.92611992e-001
      3.07082009e+000 -2.37210011e+000 5.14371014e+000 -5.73456001e+000
      7.52312994e+000 -3.52097011e+000 1.12090998e+001 -4.56252992e-001
      1.39754000e+001 -1.09379995e+000 1.39754000e+001 -5.82473993e-001
      1.49754000e+001 -6.66625977e-001 1.20558004e+001 5.73790979e+000
      9.36985970e+000 2.71526003e+000 8.06332016e+000 1.05507004e+000
      6.21657991e+000 5.43747008e-001 6.06332016e+000 -7.77662992e+000
      8.52313042e+000 5.43747008e-001 8.06332016e+000 5.50689995e-002
      7.21657991e+000 1.56639004e+000 9.06332016e+000</_>
    <_>
      4.54712003e-001 2.67562985e-001 -3.05804998e-001 -4.18930016e-002
      5.34209982e-002 1.46823001e+000 4.12647009e-001 -1.20202994e+000
      8.91617000e-001 -3.05270004e+000 -3.89930993e-001 -3.08379006e+000
      -1.19251001e+000 -4.01689005e+000 -7.55599976e-001
      -7.21283007e+000 -1.13909996e+000 -8.49120998e+000
      -1.58244002e+000 -9.57365036e+000 -3.20539999e+000
      -6.73853016e+000 -2.94812012e+000 -4.80539989e+000
      -3.16978002e+000 -2.77431989e+000 -2.87041998e+000
      -1.10405004e+000 -6.30950987e-001 2.05399007e-001 -4.51323986e-001
      -4.85137999e-001 -3.91478986e-001 -3.56086999e-001
      -5.87352991e-001 -3.17566991e+000 -9.28771973e-001
      -4.70135021e+000 1.48910999e-001 -7.60338020e+000 3.46329004e-001
      -1.06034002e+001 -5.76004028e-001 -7.52094984e+000 4.04053020e+000
      -8.34053993e+000 3.11821008e+000 -1.06034002e+001 4.31560993e+000
      -9.32499981e+000 5.57291985e+000 -4.78378010e+000 2.41109991e+000
      -4.38515007e-001 2.32207990e+000 -3.63445997e+000 1.38194001e+000
      -3.38716006e+000 4.41817999e-001 -2.13985991e+000 5.01677990e-001
      -2.89256001e+000 4.83871013e-001 -2.90810990e+000 2.27202997e-002
      -4.18648005e+000 1.62143004e+000 -2.64527988e+000 1.22013998e+000
      -3.18648005e+000 1.75897002e+000 -3.08852005e+000 8.49556029e-001
      -2.01080990e+000 4.48264986e-001 -5.27365017e+000 1.22659004e+000
      -4.45406008e+000 1.94503999e+000 -1.19122005e+000 1.22659004e+000
      -6.50002003e-001 5.08140981e-001 -1.46959996e+000 1.87871003e+000
      -3.71627986e-001 2.59717011e+000 -4.81486988e+000 3.31560993e+000
      -3.99527001e+000 1.97420001e+000 -1.91284001e+000 2.37549996e+000
      -2.19122005e+000 1.65704000e+000 -2.19122005e+000 -3.29445004e+000
      -6.31553984e+000 -1.63585997e+000 -5.21755981e+000
      -9.17419016e-001 -5.75879002e+000 -1.37856996e+000
      -4.21755981e+000 2.22013998e+000 -6.75879002e+000 1.93859994e+000
      -5.21755981e+000 5.97168028e-001 -6.31553984e+000 1.93859994e+000
      -4.69188976e+000 2.28000998e+000 -5.97028017e+000 -3.18695009e-001
      -3.78987002e+000 -9.17419016e-001 -5.15068007e+000
      -5.76004028e-001 -4.87230015e+000 -2.93520999e+000
      -5.31553984e+000 -9.17419016e-001 -4.31553984e+000
      -3.18695009e-001 -4.13512993e+000 2.20138997e-001 -4.31553984e+000
      2.29782009e+000 -5.31553984e+000 1.22013998e+000 -3.13512993e+000
      6.81304991e-001 -3.95473003e+000 -9.17419016e-001 -5.31553984e+000</_>
    <_>
      -2.37103000e-001 2.71872997e-001 -3.49388011e-002 -1.55295998e-001
      2.36939001e+000 4.56639004e+000 1.77372003e+000 6.13922024e+000
      3.44759989e+000 8.56317043e+000 2.39103007e+000 1.16893997e+001
      4.67139006e+000 1.25179005e+001 7.22131014e+000 1.37509003e+001
      9.04078960e+000 1.24952002e+001 9.86023998e+000 8.75090027e+000
      7.27539015e+000 7.51787996e+000 6.48836994e+000 6.68941021e+000
      5.36442995e+000 4.11655998e+000 3.83613992e+000 2.39488006e+000
      3.82843018e-002 1.52432001e+000 2.40447998e-001 -3.46244991e-001
      3.07861000e-001 -2.16804996e-001 9.75880027e-001 -8.21679974e+000
      -1.14807999e+000 -1.27054996e+001 6.49032965e-002 -1.51520996e+001
      -6.54731989e-001 -1.58542995e+001 -2.44174004e+000
      -1.29610996e+001 5.91682005e+000 -1.45565996e+001 6.06241989e+000
      -1.47475996e+001 4.27539015e+000 -1.23430004e+001 1.42098999e+000
      -1.00452995e+001 -7.02971995e-001 -3.55661011e+000 3.77124000e+000
      -1.98379004e+000 3.83861995e+000 -1.89963996e+000 5.90601015e+000
      -6.66625977e-001 5.97339010e+000 -4.33609009e-001 6.69301987e+000
      3.35279989e+000 6.29951000e+000 2.79941010e+000 5.97339010e+000
      2.09715009e+000 5.57988024e+000 2.79941010e+000 4.11896992e+000
      2.35279989e+000 2.52578998e+000 -1.53717995e+000 3.26707006e+000
      -5.57924986e+000 3.14310002e+000 -5.72812986e+000 5.01913977e+000
      -1.38830996e+000 3.14310002e+000 -9.41718996e-001 3.26707006e+000
      2.07153007e-001 2.45591998e+000 -8.34914982e-001 3.26457000e+000
      -4.32359982e+000 4.14062977e+000 -4.47246981e+000 2.94928002e+000
      -5.79253972e-001 3.27538991e+000 -6.86049998e-001 3.39934993e+000
      -1.53717995e+000 5.54743004e+000 7.81883001e+000 6.49085999e+000
      4.92564011e+000 6.29951000e+000 5.47903013e+000 6.90601015e+000
      4.77676010e+000 5.51249981e+000 4.47903013e+000 5.38852978e+000
      4.92564011e+000 6.39935017e+000 4.81883001e+000 6.45592022e+000
      8.45637989e+000 6.57988024e+000 8.90297985e+000 6.97339010e+000
      1.00517998e+001 8.36690998e+000 1.09029999e+001 7.49085999e+000
      9.15865040e+000 4.95175982e+000 8.96770000e+000 6.29951000e+000
      6.81883001e+000 5.90601015e+000 6.96770000e+000 5.51249981e+000
      4.81883001e+000 6.99502993e+000 4.81883001e+000 6.57988024e+000
      6.96770000e+000 6.97339010e+000 6.96770000e+000 7.36690998e+000
      6.81883001e+000</_>
    <_>
      -1.42857000e-001 -3.15070987e-001 -1.02043003e-001
      -1.02844000e-001 4. -2.00957990e+000 7.10203981e+000
      -2.79734993e+000 1.03060999e+001 -3.58510995e+000 1.36531000e+001
      -6.96774006e+000 1.11225004e+001 -9.94521999e+000 8.69388008e+000
      -1.07554998e+001 5.28570986e+000 -1.25174999e+001 -1.42853007e-001
      -1.42313995e+001 -3.71428990e+000 -1.26590004e+001
      -6.34694004e+000 -8.91950989e+000 -3.10205007e+000
      -5.53688002e+000 -2.95918012e+000 -2.51116991e+000
      -1.91837001e+000 -6.04430974e-001 1.22437000e-001 3.02307010e-001
      1.42853007e-001 2.09044993e-001 -5.73470020e+000 -1.24566002e+001
      -5.40816021e+000 -1.17651997e+001 -6.02041006e+000
      -9.00319004e+000 -7.61223984e+000 -6.64627981e+000
      -8.22449017e+000 -3.81347990e+000 3.48978996e+000 -1.93245006e+000
      8.57146978e-001 -2.88421988e+000 2.44903997e-001 -5.36010981e+000
      -1.38776004e+000 -9.24112988e+000 -1.12244999e+000
      -1.20514002e+001 -8.36731017e-001 6.84929013e-001 1.83669999e-001
      4.69505012e-001 2.20409012e+000 2.54074007e-001 2.22448993e+000
      -1.84238005e+000 4.71428013e+000 7.04253972e-001 4.95917988e+000
      -2.93883991e+000 2.20409012e+000 -2.58190989e+000 4.48974997e-001
      6.11572005e-002 -1.32653999e+000 -4.14718986e-001 -5.28570986e+000
      -1.21961002e+001 -5.04082012e+000 -1.99099007e+001
      -1.73469996e+000 -1.69099007e+001 -2.46938992e+000
      -1.72020996e+000 -3.73469996e+000 -4.36329985e+000
      -7.04082012e+000 -6.36329985e+000 -1.28571999e+000
      -3.07713008e+000 -1.02041996e+000 -1.51478996e+001 1.26530004e+000
      -1.82667999e+001 1.48978996e+000 -1.06719999e+001 3.28571010e+000
      -6.83919001e+000 1. -3.72021008e+000 4.28573996e-001
      -7.74825990e-001 -1.28571999e+000 2.73391992e-001 9.79583979e-001
      -3.44042993e+000 1.18367004e+000 -2.08350992e+000 2.40815997e+000
      -1.44043005e+000 1.67346001e+000 -8.45565975e-001 2.97957993e+000
      -1.01277006e+000 3.71427989e+000 3.17695999e+000 2.42857003e+000
      6.53386021e+000 2.22448993e+000 5.65283012e+000 1. 5.65283012e+000
      -2.85721004e-001 3.29590988e+000 5.51018000e-001 1.34413004e+000
      9.79583979e-001 1.86827004e+000 1.20409000e+000 -1.27715999e-002
      4.08156991e-001 7.49283016e-001 3.85715008e+000 1.10622001e+000
      1.42857003e+000 1.74927998e+000 2.04086006e-001 1.98722994e+000
      -2.04163007e-002 2.86826992e+000</_>
    <_>
      4.66190010e-001 -4.76226993e-002 -3.60500008e-001 -2.85712987e-001
      -1.01388001e+000 1.28570998e+000 -5.80608010e-001 1.85714996e+000
      -1.88736999e+000 2.23810005e+000 -1.67420006e+000 1.85714996e+000
      -2.11442995e+000 2.09523010e+000 -1.12135994e+000 1.19047999e+000
      -8.68346989e-001 2.14284992e+000 3.84674013e-001 1.19047999e+000
      3.77746999e-001 7.14278996e-001 -1.97581005e+000 -5.23819029e-001
      -1.76265001e+000 -1.52380002e+000 -2.06941009e+000
      -1.09525001e+000 -7.22793996e-001 -1.85714996e+000
      -4.62830007e-001 3.80950987e-001 -3.76190007e-001 2.38097996e-001
      -4.07299012e-001 -2.52380991e+000 -3.67446989e-001
      -5.80951977e+000 1.92337006e-001 -6.57143021e+000 8.38783026e-001
      -7. -6.88094974e-001 -4.66666985e+000 2.73825002e+000
      -3.66667008e+000 3.29802990e+000 -4.19048023e+000 2.94446993e+000
      -4.14285994e+000 2.59090996e+000 -2.76190996e+000 -1.19591999e+000
      -1.85713995e+000 2.52506995e+000 -6.19049013e-001 2.61174011e+000
      -1.42859995e-001 1.61173999e+000 1.52381003e+000 1.61173999e+000
      1.90475002e-001 9.65294003e-001 -5.23804009e-001 8.31833005e-001
      -1.42853007e-001 1.69837999e+000 2.38097996e-001 6.51596010e-001
      8.57146978e-001 1.60479999e+000 2.85706013e-001 3.41245008e+000
      5.23810983e-001 2.36564994e+000 2.14284992e+000 1.31885004e+000
      2.95237994e+000 2.44536996e+000 7.14286983e-001 2.40550995e+000
      1.09524000e+000 2.36564994e+000 2.85712987e-001 9.51400995e-001
      1.33334005e+000 9.91271973e-001 4.57143021e+000 1.03112996e+000
      5.57143021e+000 1.07097995e+000 3.76189995e+000 1.17783003e-001
      2.52380991e+000 1.07790995e+000 1.52381003e+000 -1.24786997e+000
      -2.04762006e+000 -2.08014995e-001 -5.33333015e+000 1.00513995e+000
      -7.28571987e+000 2.87170005e+000 -6.90476990e+000 1.73825002e+000
      -5.47620010e+000 1.95140004e+000 -5.52379990e+000 1.07790995e+000
      -3.61905003e+000 1.95140004e+000 -2.33332992e+000 8.24890018e-001
      -1.19047999e+000 -1.28296003e-001 -2. 5.14221005e-003
      -2.19047999e+000 -1.20801997e+000 -1.95237994e+000
      -1.72793996e+000 -3.04762006e+000 1.00513995e+000 -1.61905003e+000
      1.87170005e+000 -2.61905003e+000 1.73825002e+000 -2.80952001e+000
      1.47133994e+000 -1.42857003e+000 7.38250971e-001 -4.42856979e+000
      8.71703982e-001 -5.23810005e+000 5.14221005e-003 -6.42856979e+000</_>
    <_>
      3.79898012e-001 -2.89321989e-001 1.50505006e-001 1.96799994e-001
      5.77026010e-001 -3.17077994e-001 1.00354004e+000 1.69052005e-001
      1.20067000e+000 6.55166984e-001 2.48024011e+000 2.92663991e-001
      3.84222007e+000 2.32970998e-001 4.51603985e+000 -5.23986995e-001
      4.84575987e+000 -2.72583008e+000 6.06081009e+000 -3.52398992e+000
      5.61991978e+000 -3.86796999e+000 3.75252008e+000 -4.85869980e+000
      2.80269003e+000 -3.59715009e+000 1.77042997e+000 -2.18419003e+000
      2.08224010e+000 -1.67032003e+000 -2.61840999e-001 -2.06893995e-001
      -4.91210997e-001 3.57445002e-001 -1.79933000e+000 5.18082023e-001
      -5.19760013e-001 -1.62406003e+000 -9.28382993e-001
      -2.32128000e+000 1.43360996e+000 -2.57359004e+000 1.13969004e+000
      -1.97729003e+000 2.40035996e-001 -2.92683005e+000 7.16705024e-001
      -3.52312994e+000 2.19340992e+000 -2.42220998e+000 2.67008996e+000
      -2.72498012e+000 1.94965005e+000 -4.81918007e-001 2.07516003e+000
      -2.08747005e+000 2.18987012e+000 -3.14719009e+000 3.18987012e+000
      -3.20689011e+000 2.30454993e+000 -2.31708002e+000 7.13172972e-001
      -2.92262006e+000 1.56621003e+000 -2.17494011e+000 2.30454993e+000
      -1.37679005e+000 2.92818999e+000 -2.17494011e+000 2.89594007e+000
      -2.92262006e+000 7.59796023e-001 1.66021001e+000 -6.16562009e-001
      1.64840996e-001 5.48301995e-001 1.14380002e-001 5.72509989e-002
      -4.91172999e-001 6.63002014e-001 3.57445002e-001 4.98131007e-001
      2.30697989e+000 2.86366010e+000 -4.91172999e-001 1.37263000e+000
      -8.35159004e-001 2.53748989e+000 -2.83516002e+000 3.04643011e+000
      -1.33978999e+000 2.42279005e+000 -6.42554998e-001 2.25793004e+000
      -6.42554998e-001 3.54830003e+000 9.57931995e-001 2.94255996e+000
      -5.87906003e-001 1.56621003e+000 -4.23466015e+000 2.41925001e+000
      -4.38603020e+000 2.27228999e+000 -4.23466015e+000 2.55185008e+000
      -5.87906003e-001 3.60202003e+000 8.40758998e-003 1.55184996e+000
      1.70562994e+000 1.15759003e+000 1.55423999e+000 1.30455005e+000
      2.45331001e+000 5.66208005e-001 1.50376999e+000 1.94255996e+000
      1.65516996e+000 3.86013007e+000 1.00840998e+000 1.56621003e+000
      -7.89749026e-001 2.41925001e+000 -8.40210021e-001 2.15758991e+000
      -1.73926997e+000 2.40489006e+000 5.88531010e-002 2.15758991e+000
      1.59789994e-001 1.41925001e+000 1.09329000e-001 1.56621003e+000
      1.59789994e-001</_>
    <_>
      -4.58633006e-001 -1.04529999e-001 4.87919003e-001 1.18469000e-001
      2.74120003e-001 1.29617000e+000 6.03294000e-002 1.51917005e+000
      -1.36725998e+000 1.65156996e+000 -1.11554003e+000 2.64808989e+000
      -1.23795998e+000 3.41811991e+000 -1.57416999e+000 3.96168995e+000
      -1.12417996e+000 4.14284992e+000 2.72354007e-001 2.00696993e+000
      1.82924998e+000 5.08713007e-001 6.53380990e-001 7.83981025e-001
      7.98202991e-001 -1.67236000e-001 3.17169011e-001 -1.29964995e+000
      -1.00352001e+000 -1.43204999e+000 -3.24218988e-001 4.80843008e-001
      4.08569008e-001 3.03139001e-001 5.79291999e-001 -4.41811991e+000
      1.72411001e+000 -5.00696993e+000 2.60170007e+000 -5.14285994e+000
      1.53271997e+000 -4.91636992e+000 1.46375000e+000 -4.50870991e+000
      2.72354007e-001 -4.46340990e+000 -7.96599984e-001 -3.78048992e+000
      8.09630975e-002 -2.87107992e+000 -9.87990975e-001 -3.68989992e+000
      2.63718009e-001 -3.05574989e+000 4.48226988e-001 -3.51219010e+000
      5.01677990e-001 -2.83275008e+000 1.50168002e+000 -2.15331006e+000
      -3.91418010e-001 -1.42857003e+000 7.30988026e-001 -1.61324000e+000
      1.96502998e-001 -1.47736001e+000 6.62033021e-001 -1.34145999e+000
      -9.25918996e-001 -1.43204999e+000 1.48616004e+000 -5.22643983e-001
      1.24308002e+000 -3.28571010e+000 -3.98299992e-001 -4.60277987e+000
      -2.00035006e-001 -3.55749011e+000 1.05168998e+000 -3.19512010e+000
      8.53416026e-001 -4.10452986e+000 6.55143976e-001 -4.05922985e+000
      8.44771981e-001 -4.10452986e+000 1.04305005e+000 -4.46689987e+000
      1.29477000e+000 -4.42159986e+000 6.53380990e-001 -4.05922985e+000
      1.29477000e+000 -3.87804008e+000 1.09648001e+000 -3.92334008e+000
      -2.09313989e+000 1.53320000e-001 -1.00176001e+000 -4.25435019e+000
      -1.75004995e+000 -4.43553019e+000 7.68921018e-001 -6.34494019e+000
      1.23443997e+000 -5.39024019e+000 2.43270993e+000 -3.11846995e+000
      1.52408004e+000 2.43911996e-001 3.43270993e+000 1.47037995e+000
      3.23444009e+000 5.65156984e+000 7.68921018e-001 5.65156984e+000
      3.03406000e-001 5.60627985e+000 -1.94831002e+000 2.42509007e+000
      -1.46728003e+000 1.53320000e-001 -7.50046015e-001 -9.82573986e-001
      7.68921018e-001 -1.93727005e+000 1.23443997e+000 -1.98257005e+000
      1.84476995e+000 -7.56088018e-001 2.23444009e+000 -9.37270999e-001
      7.68921018e-001 -9.37270999e-001 -7.50046015e-001 -9.82573986e-001</_>
    <_>
      -4.52919006e-002 2.69057989e-001 -1.94157004e-001 1.00800000e-001
      -1.34302998e+000 -2.22073007e+000 -3.89642000e+000
      -2.54224992e+000 -6.70548010e+000 -2.86380005e+000
      -5.77019978e+000 6.61406994e-001 -6.23943996e+000 2.72680998e+000
      -6.11322021e+000 8.87257004e+000 -3.09380007e+000 1.03324003e+001
      -1.07436001e+000 1.18725996e+001 -1.79928994e+000 8.88006973e+000
      2.17809010e+000 5.96795988e+000 3.41108990e+000 5.74927998e+000
      3.60204005e+000 3.07082009e+000 2.04865003e+000 3.92349005e-001
      3.46374989e-001 2.04163007e-002 4.95238990e-001 4.95216012e-001
      -8.12274992e-001 8.16749990e-001 -3.17473006e+000 1.30783007e-001
      -4.49511003e+000 -2.17575002e+000 -8.96436024e+000
      -3.86922002e+000 -1.12847004e+001 -6.10286999e+000
      -7.41416979e+000 -6.94960022e+000 -7.73456001e+000
      -7.56267977e+000 -6.05493021e+000 -7.02248001e+000
      -4.52418995e+000 -5.40941000e+000 -3.88664007e+000
      -7.72344017e+000 -6.49832010e+000 -3.19074988e+000
      -7.64720011e+000 -3.89171004e+000 -7.79607010e+000
      -2.59265995e+000 -7.94493008e+000 -1.14033997e+000
      -4.47567987e+000 -1.99457002e+000 -5.13587999e+000
      -1.84131002e+000 -5.79607010e+000 -3.68803000e+000
      -8.45625019e+000 -8.41309011e-001 -9.11643982e+000 1.58691004e-001
      -4.28151989e+000 8.09249997e-001 -5.64398003e+000 -2.11036992e+000
      -5.55983019e+000 -1.11037004e+000 -5.92228985e+000
      -7.30942011e-001 -5.70869017e+000 2.72886992e+000 -5.79285002e+000
      1.72887003e+000 -7.92548990e+000 -1.42439997e+000 -8.13908005e+000
      -4.80383015e+000 -5.05493021e+000 -3.65054989e+000
      -4.56624985e+000 -2.73094010e+000 -4.05493021e+000 1.88675001e-001
      -7.13908005e+000 1.88675001e-001 -4.30417013e+000 3.69857997e-001
      -6.51774979e+000 -9.56725981e-003 -8.28474045e+000
      -1.92918003e+000 -8.94493008e+000 -4.69375998e-001
      -7.30739021e+000 7.08160028e-002 -8.37209988e+000 1.14371002e+000
      -9.73456001e+000 3.52312994e+000 -9.52097034e+000 6.20910978e+000
      -8.45625019e+000 6.97543001e+000 -9.09379959e+000 5.97543001e+000
      -8.58246994e+000 5.97543001e+000 -8.66662979e+000 4.05583000e+000
      -3.26208997e+000 1.36986005e+000 -6.28473997e+000 1.06332004e+000
      -6.94493008e+000 2.16582999e-001 -8.45625019e+000 2.06331992e+000
      -1.07765999e+001 4.52312994e+000 -8.45625019e+000 4.06332016e+000
      -6.94493008e+000 1.21658003e+000 -7.43360996e+000 2.06331992e+000</_>
    <_>
      -3.49963993e-001 -4.27994013e-001 -4.40589994e-001 4.52957004e-002
      1.19691002e+000 1.53549004e+000 2.74378991e+000 3.00879002e+000
      2.83754992e+000 4.44828987e+000 2.20631003e+000 6.78633022e+000
      9.40703988e-001 1.10229998e+001 2.49384999e+000 1.42089005e+001
      1.77513003e+000 1.72933998e+001 3.05640006e+000 1.62089005e+001
      3.79079008e+000 1.29722996e+001 5.61579990e+000 9.70182991e+000
      4.16580009e+000 7.36374998e+000 4.44083023e+000 4.95806980e+000
      1.98769999e+000 2.51858997e+000 -3.74801993e-001 9.60083008e-002
      2.62726009e-001 -3.26568991e-001 -4.79682016e+000 -9.01291013e-001
      -5.24680996e+000 -3.15482998e+000 -7.24055004e+000
      -4.27315998e+000 -6.41553020e+000 -4.22244978e+000
      -5.40925980e+000 -2.07031989e+000 -1.76235998e+000
      -4.05342007e+000 -1.66547000e+000 -5.13792992e+000
      -2.47796988e+000 -7.17174006e+000 -2.19981003e+000
      -4.01960993e+000 -1.28731000e+000 -2.74916005e+000
      -3.04049993e+000 -6.47736013e-001 -1.04050004e+000 6.05812013e-001
      -1.04050004e+000 1.85936999e+000 8.68866026e-001 3.12982011e+000
      2.25097999e-001 5.45099020e+000 1.22824001e+000 5.50167990e+000
      2.31383994e-001 6.55240011e+000 1.23450994e+000 5.51858997e+000
      4.18884009e-001 5.46787977e+000 -1.42492998e+000 3.52129006e+000
      -3.60303998e+000 2.35226011e+000 -2.14365005e+000 2.35226011e+000
      -2.41237998e+000 1.55510998e+000 -2.05303001e+000 2.62272000e+000
      -1.51241004e+000 2.62272000e+000 -2.85297990e+000 1.58890998e+000
      -3.21234012e+000 1.40297997e+000 -4.57170010e+000 4.19876009e-001
      -3.56856990e+000 1.60581005e+000 -2.57170010e+000 2.70723009e+000
      -3.12172008e+000 2.67342997e+000 9.46968019e-001 8.14400959e+000
      4.06356990e-001 7.00879002e+000 2.28240997e-001 4.94118023e+000
      5.03250003e-001 6.99187994e+000 2.68763995e+000 3.94117999e+000
      -3.09235007e-001 6.02570009e+000 4.22012001e-001 7.16092014e+000
      6.90765023e-001 1.12454004e+001 2.68763995e+000 1.12791996e+001
      1.50325000e+000 1.22960997e+001 1.31886005e+000 1.22791996e+001
      4.96978998e-001 1.12454004e+001 4.03221011e-001 9.14400959e+000
      1.22824001e+000 8.09329033e+000 1.50325000e+000 9.11021042e+000
      1.68763995e+000 9.09329033e+000 -3.42407003e-002 8.14400959e+000
      1.68763995e+000 9.09329033e+000 1.50325000e+000 1.01271000e+001
      2.28240997e-001 8.09329033e+000</_>
    <_>
      -1.42857000e-001 -3.15070987e-001 -1.02043003e-001
      -1.02844000e-001 3. -9.58252046e-003 4.10203981e+000
      1.20264995e+000 4.30611992e+000 4.41488981e+000 5.65305996e+000
      5.03225994e+000 5.12244987e+000 5.05478001e+000 6.69388008e+000
      5.24451017e+000 5.28570986e+000 4.48245001e+000 2.85715008e+000
      7.68616021e-001 1.28570998e+000 1.34096003e+000 -1.34694004e+000
      8.04900974e-002 -1.02050997e-001 4.63120013e-001 -9.59182978e-001
      4.88831013e-001 -9.18365002e-001 -6.04430974e-001 1.22437000e-001
      3.02307010e-001 1.42853007e-001 2.09044993e-001 -4.73470020e+000
      -6.45656013e+000 -2.40815997e+000 -6.76525021e+000
      -2.02041006e+000 -2.00319004e+000 -3.61224008e+000 3.53722006e-001
      -5.22449017e+000 1.18651998e+000 5.48978996e+000 3.06754994e+000
      3.85715008e+000 1.11578000e+000 1.24489999e+000 -1.36011004e+000
      6.12244010e-001 -6.24112988e+000 -1.22451998e-001 -1.10514002e+001
      3.16327000e+000 5.68492985e+000 3.18367004e+000 5.46951008e+000
      4.20409012e+000 5.25406981e+000 6.22449017e+000 5.15761995e+000
      5.71428013e+000 8.70425034e+000 6.95917988e+000 6.06116009e+000
      5.20409012e+000 6.41808987e+000 4.44896984e+000 7.06116009e+000
      2.67346001e+000 6.58527994e+000 -4.28570986e+000 -6.19610023e+000
      -4.04082012e+000 -1.19098997e+001 2.65305012e-001 -1.09098997e+001
      5.30609012e-001 3.27978992e+000 -7.34695017e-001 6.36695981e-001
      -5.04082012e+000 6.36695981e-001 2.71427989e+000 -7.71332011e-002
      2.97957993e+000 -1.01478996e+001 5.26529980e+000 -1.42667999e+001
      2.48978996e+000 -8.67197990e+000 6.28570986e+000 -3.83919001e+000
      5. -7.20215023e-001 2.42857003e+000 1.02251997e+001
      1.71428001e+000 1.02734003e+001 3.97957993e+000 6.55956984e+000
      4.18367004e+000 7.91649008e+000 5.40816021e+000 7.55956984e+000
      6.67346001e+000 7.15442991e+000 5.97957993e+000 7.98722982e+000
      7.71428013e+000 1.41770000e+001 5.42856979e+000 1.75338993e+001
      5.22449017e+000 1.86527996e+001 4. 1.86527996e+001 1.71428001e+000
      1.62959003e+001 3.55101991e+000 1.33441000e+001 3.97957993e+000
      1.08683004e+001 4.20409012e+000 1.09871998e+001 4.40816021e+000
      1.07493000e+001 5.85715008e+000 1.01062002e+001 4.42856979e+000
      1.17493000e+001 4.20409012e+000 1.19871998e+001 2.97957993e+000
      1.18683004e+001</_>
    <_>
      2.75245994e-001 -4.57282990e-001 1.98588997e-001 -2.56271005e-001
      6.94656000e-003 -5.52673005e-002 -1.84691995e-001 1.39037997e-001
      1.43202996e+000 1.33334005e+000 7.80457020e-001 4.94156003e-001
      8.98917973e-001 1.62817001e+000 1.86406004e+000 -2.98126012e-001
      7.90877998e-001 7.21984982e-001 7.17697024e-001 1.69516003e+000
      -2.02163994e-001 6.01364017e-001 9.54620004e-001 2.47406006e+000
      2.34137011e+000 2.30656004e+000 1.03473997e+000 2.11894011e+000
      9.19754028e-001 1.91794002e+000 -2.71881014e-001 -2.83073008e-001
      -3.10211003e-001 -4.84077007e-001 -3.29966998e+000
      -1.60468996e+000 -2.87458992e+000 -1.68508995e+000
      -3.67948008e+000 -3.71188998e+000 -3.52269006e+000
      -4.70519018e+000 -3.36591005e+000 -5.65828991e+000 5.21596003e+000
      -4.64488983e+000 3.44941998e+000 -4.69849014e+000 4.60619020e+000
      -2.71188998e+000 4.80130005e+000 -6.98485970e-001 3.22638011e+000
      3.81915987e-001 -1.05581999e+000 1.49582005e+000 -9.41466987e-002
      6.16416991e-001 -9.41466987e-002 7.37030029e-001 -9.41466987e-002
      8.64333987e-001 2.55743003e+000 1.99163997e+000 2.21249008e+000
      2.00503993e+000 8.67523015e-001 3.01842999e+000 4.84252989e-001
      2.00503993e+000 1.39296994e-001 9.84939992e-001 -2.21954012e+000
      -4.90783989e-001 -1.71781003e+000 -1.55109000e+000
      -1.33105004e+000 4.55619991e-001 -9.44298029e-001 5.29320002e-001
      -2.33104992e+000 1.54942000e+000 -2.67948008e+000 2.55611992e+000
      -1.67312995e-001 5.29320002e-001 2.57766992e-001 -1.55109000e+000
      6.06185973e-001 -1.55778003e+000 1.10792994e+000 -1.49748003e+000
      5.67856014e-001 5.49422979e-001 2.19437003e-001 5.49422979e-001
      2.40065002e+000 8.25963974e+000 1.82572997e+000 5.18593979e+000
      1.28913999e+000 3.14574003e+000 1.86751997e+000 3.16584992e+000
      4.84252989e-001 3.14574003e+000 -1.05234003e+000 6.19263983e+000
      2.96097010e-001 5.25964022e+000 -5.23376018e-002 3.29314995e+000
      4.84252989e-001 1.30656004e+000 2.86752009e+000 3.06564003e-001
      2.32747006e+000 1.30656004e+000 3.82573009e+000 3.29314995e+000
      2.17068005e+000 7.25294018e+000 1.28913999e+000 4.21945000e+000
      8.67523015e-001 3.22614002e+000 1.44591999e+000 4.21945000e+000
      -4.73953009e-001 5.25294018e+000 4.84252989e-001 4.21274996e+000
      9.05852973e-001 4.22614002e+000 2.28913999e+000 4.21274996e+000</_>
    <_>
      4.35927987e-001 -2.46002004e-001 -4.00085002e-002 4.11742985e-001
      -1.22984004e+000 2.82440007e-001 -6.57634974e-001 -9.17877018e-001
      -3.72962989e-002 8.10867012e-001 -5.58655024e-001 -3.45611982e-002
      1.62582006e-002 2.54590011e+000 -8.36624026e-001 2.55222988e+000
      -8.79333019e-001 4.26831007e+000 8.39965999e-001 4.62319994e+000
      9.87091005e-001 3.68785000e+000 3.24036002e-001 3.17838001e+000
      -1.97310999e-001 1.16574001e+000 1.85043007e-001 1.36603999e+000
      7.57263005e-001 6.37314022e-001 -1.94610998e-001 -9.14077982e-002
      3.29468012e-001 2.50838995e-001 -1.03729999e+000 -6.47157001e+000
      -3.32068992e+000 -5.69082022e+000 -4.79391003e+000
      -5.47789001e+000 -5.50509977e+000 -5.54887009e+000
      -6.45424986e+000 -4.83276987e+000 -2.25900006e+000
      -4.69082022e+000 -2.68409991e+000 -5.40690994e+000
      -1.10917997e+000 -5.33592987e+000 -1.82036996e+000
      -6.47789001e+000 1.82343006e-001 -5.25863981e+000 -4.45153999e+000
      -5.36231995e-001 -4.68949986e+000 1.86179996e-001 -2.92746997e+000
      -9.14077982e-002 -3.92746997e+000 1.48904002e+000 -2.26442003e+000
      5.78558016e+000 -2.59595990e+000 4.64363003e+000 -1.92746997e+000
      5.43068981e+000 -3.25900006e+000 5.64363003e+000 -3.35255003e+000
      4.78558016e+000 -3.27255011e+000 -3.30657996e-002 -3.84205008e+000
      -3.94272000e-001 -4.12544012e+000 6.05727971e-001 -4.17086983e+000
      1.75399995e+000 -4.12544012e+000 1.54105997e+000 -4.60408020e+000
      1.47009003e+000 -2.97018003e+000 1.82498002e+000 -2.77765989e+000
      1.67670000e+000 -2.06103992e+000 -2.52319008e-001 -8.68515015e-001
      1.10889006e+000 -1.53697002e+000 1.61204004e+000 -2.25359011e+000
      2.61204004e+000 -6.79120016e+000 1.52063000e+000 -4.31255007e+000
      3.51430988e+000 -2.35799003e+000 3.01114988e+000 -1.45153999e+000
      3.79821992e+000 -1.54509997e+000 3.01114988e+000 -1.06647003e+000
      4.44333982e+000 9.36249018e-001 4.44964981e+000 6.95572019e-001
      6.02378988e+000 2.16933995e-001 7.88184023e+000 -1.45153999e+000
      7.81087017e+000 -2.35799003e+000 6.95281982e+000 -4.31255007e+000
      6.09476995e+000 -6.45696020e+000 3.59160995e+000 -3.12002993e+000
      5.08843994e+000 -1.45153999e+000 4.01746988e+000 -1.54509997e+000
      6.01746988e+000 1.60202003e+000 5.52062988e+000 -7.83065975e-001
      7.01746988e+000 -2.45153999e+000 5.94648981e+000 -3.12002993e+000
      5.08843994e+000</_>
    <_>
      4.35927987e-001 -2.46002004e-001 -4.00085002e-002 4.11742985e-001
      -1.22984004e+000 -7.17559993e-001 -2.65762997e+000
      -1.91788006e+000 -4.03730011e+000 -2.18913007e+000
      -3.55865002e+000 -1.03455997e+000 -4.98373985e+000 1.54589999e+000
      -4.83661985e+000 3.55222988e+000 -4.87933016e+000 4.26831007e+000
      -4.16002989e+000 6.62319994e+000 -3.01290989e+000 5.68785000e+000
      -2.67596006e+000 5.17838001e+000 -3.19730997e+000 3.16574001e+000
      -1.81496000e+000 2.36603999e+000 -2.42736995e-001 1.63731003e+000
      -1.94610998e-001 -9.14077982e-002 3.29468012e-001 2.50838995e-001
      -3.72962989e-002 -7.47157001e+000 -3.20694000e-001
      -5.69082022e+000 -7.93906987e-001 -5.47789001e+000
      -2.50510001e+000 -6.54887009e+000 -3.45425010e+000
      -4.83276987e+000 1.74100006e+000 -5.69082022e+000 1.31589997e+000
      -5.40690994e+000 1.89082003e+000 -5.33592987e+000 1.17963004e+000
      -5.47789001e+000 2.18233991e+000 -5.25863981e+000 -1.45153999e+000
      -1.53622997e+000 -1.68949997e+000 -8.13820004e-001
      -9.27474976e-001 9.08591986e-001 -1.92746997e+000 3.48903990e+000
      -2.26442003e+000 4.78558016e+000 -2.59595990e+000 3.64363003e+000
      -2.92746997e+000 5.43068981e+000 -2.25900006e+000 3.64363003e+000
      -2.35255003e+000 3.78557992e+000 -2.27255011e+000 -3.30657996e-002
      -2.84205008e+000 -1.39426994e+000 -2.12543988e+000
      -1.39426994e+000 -1.17086995e+000 1.75399995e+000 -2.12543988e+000
      1.54105997e+000 -3.60407996e+000 1.47009003e+000 -1.97018003e+000
      1.82498002e+000 -7.77664006e-001 6.76703990e-001 -6.10352010e-002
      -1.25232005e+000 1.31485000e-001 1.08887002e-001 -5.36971986e-001
      1.61204004e+000 -2.53585994e-001 1.61204004e+000 -6.79120016e+000
      5.20630002e-001 -4.31255007e+000 2.51430988e+000 -1.35799003e+000
      3.01114988e+000 -1.45153999e+000 2.79821992e+000 -5.45104980e-001
      2.01114988e+000 -6.64673001e-002 3.44334006e+000 9.36249018e-001
      3.44965005e+000 6.95572019e-001 7.02378988e+000 -7.83065975e-001
      6.88184023e+000 -2.45153999e+000 8.81087017e+000 -3.35799003e+000
      6.95281982e+000 -5.31255007e+000 5.09476995e+000 -6.45696020e+000
      2.59160995e+000 -3.12002993e+000 4.08843994e+000 -1.45153999e+000
      4.01746988e+000 -1.54509997e+000 4.01746988e+000 1.60202003e+000
      4.52062988e+000 -7.83065975e-001 5.01746988e+000 -1.45153999e+000
      5.94648981e+000 -3.12002993e+000 5.08843994e+000</_>
    <_>
      3.26240987e-001 0. -1.53541997e-001 2.35297993e-001
      -3.52993011e-001 -1.29410994e+000 -2.72114009e-001
      -8.23531985e-001 -1.43113005e+000 6.47063971e-001 2.50838995e-001
      1.58824003e+000 -2.66647011e-001 2.88234997e+000 1.53664005e+000
      4.11765003e+000 1.90058994e+000 4.52941990e+000 1.78473997e+000
      3.88234997e+000 1.86835003e+000 2.41177011e+000 1.91154003e+000 0.
      8.73839974e-001 -8.23531985e-001 7.55249023e-001 -1.17647004e+000
      1.59624004e+000 -1.29410994e+000 1.56891003e-001 4.70589012e-001
      4.37225014e-001 -4.11765993e-001 -1.75189996e+000 -5.58823013e+000
      -2.06993008e+000 -3.70587993e+000 -3.06718993e+000
      -5.11765003e+000 -3.30433989e+000 -5.58823013e+000
      -5.82181978e+000 -2.64705992e+000 2.10278010e+000 -4.41176987e+000
      8.65616024e-001 -5.35294008e+000 -6.11434996e-001 -5.76470995e+000
      -3.28354001e-001 -6.35294008e+000 -2.36606002e+000
      -6.23529005e+000 -8.59511971e-001 -5.88225983e-002
      -8.59511971e-001 -5.29411018e-001 -6.19629025e-001
      -1.88234997e+000 -3.79745007e-001 -1.35293996e+000 5.77080011e-001
      -5.88225983e-002 9.78729010e-001 -1.17647004e+000 -3.79745007e-001
      4.70595986e-001 -2.18002006e-001 7.05887020e-001 -8.16344976e-001
      8.23531985e-001 -1.26937997e+000 4.70589012e-001 -1.34751999e+000
      7.64708996e-001 -1.62511003e+000 1.76470995e+000 -1.70325005e+000
      7.64708996e-001 -1.14532006e+000 1.41176999e+000 -1.10763001e+000
      1.41176999e+000 -4.55139011e-001 1.88234997e+000 -1.30615002e-002
      8.82354975e-001 -5.07659987e-002 -8.82354975e-001 -3.68790001e-001
      7.05887020e-001 -5.30547976e-001 6.47056997e-001 5.07156014e-001
      5.29411018e-001 -1.94588006e+000 -1.11765003e+000 -7.43690014e-001
      1.76468000e-001 -5.41489005e-001 1.17645003e-001 -1.39862001e-001
      6.47063971e-001 1.02190006e+000 1.17645003e-001 7.44307995e-001
      1.17647004e+000 4.66704994e-001 -1.35293996e+000 7.44307995e-001
      3. 1.02190006e+000 3.52941990e+000 1.00037001e-001 3.41177011e+000
      1.78176999e-001 3.52941990e+000 -1.26391006e+000 1.35293996e+000
      -1.86500001e+000 -1.17645003e-001 -5.41489005e-001 2.
      -1.39862001e-001 1.76470995e+000 2.18963996e-002 2.
      1.38583004e+000 6.47063971e-001 2.61779994e-001 2.11765003e+000
      -8.99963021e-001 2.88234997e+000 -1.06171000e+000 3.11765003e+000</_>
    <_>
      2.75245994e-001 -4.57282990e-001 1.98588997e-001 -2.56271005e-001
      6.94656000e-003 -2.05526996e+000 -1.84691995e-001 -1.86096001e+000
      4.32029992e-001 -6.66656017e-001 -2.19542995e-001 -5.05843997e-001
      -1.01081997e-001 1.62817001e+000 8.64058971e-001 -2.98126012e-001
      7.90877998e-001 1.72197998e+000 1.71770000e+000 1.69516003e+000
      1.79784000e+000 2.60136008e+000 2.95461988e+000 2.47406006e+000
      3.34137011e+000 1.30656004e+000 2.03473997e+000 2.11894011e+000
      9.19754028e-001 9.17937994e-001 -2.71881014e-001 -2.83073008e-001
      -3.10211003e-001 -4.84077007e-001 -3.29966998e+000
      -2.60469007e+000 -3.87458992e+000 -3.68509007e+000
      -3.67948008e+000 -5.71189022e+000 -3.52269006e+000
      -6.70519018e+000 -3.36591005e+000 -7.65828991e+000 5.21596003e+000
      -5.64488983e+000 3.44941998e+000 -4.69849014e+000 3.60618997e+000
      -3.71188998e+000 3.80130005e+000 -1.69849002e+000 2.22638011e+000
      3.81915987e-001 -5.58166988e-002 4.95819002e-001 9.05852973e-001
      6.16416991e-001 9.05852973e-001 7.37030029e-001 9.05852973e-001
      8.64333987e-001 3.55743003e+000 9.91638005e-001 2.21249008e+000
      2.00503993e+000 8.67523015e-001 3.01842999e+000 4.84252989e-001
      3.00503993e+000 1.39296994e-001 1.98494005e+000 -1.21954000e+000
      -4.90783989e-001 -7.17812002e-001 -2.55109000e+000
      -1.33105004e+000 -1.54437995e+000 5.57021983e-002 1.52932000e+000
      -1.33105004e+000 2.54942012e+000 -2.67948008e+000 2.55611992e+000
      -1.67312995e-001 1.52932000e+000 -7.42232978e-001 -5.51086009e-001
      6.06185973e-001 -1.55778003e+000 1.10792994e+000 5.02517998e-001
      5.67856014e-001 2.54942012e+000 2.19437003e-001 2.54942012e+000
      1.40065002e+000 7.25964022e+000 2.82573009e+000 5.18593979e+000
      1.28913999e+000 3.14574003e+000 1.86751997e+000 3.16584992e+000
      -5.15747011e-001 4.14574003e+000 -2.05234003e+000 7.19263983e+000
      2.96097010e-001 6.25964022e+000 -1.05234003e+000 4.29314995e+000
      4.84252989e-001 3.06564003e-001 2.86752009e+000 -6.93436027e-001
      2.32747006e+000 3.06564003e-001 3.82573009e+000 2.29314995e+000
      2.17068005e+000 6.25294018e+000 1.28913999e+000 5.21945000e+000
      8.67523015e-001 4.22614002e+000 4.45923001e-001 5.21945000e+000
      5.26046991e-001 7.25294018e+000 4.84252989e-001 3.21274996e+000
      9.05852973e-001 3.22614002e+000 2.28913999e+000 2.21274996e+000</_>
    <_>
      -1.42857000e-001 -3.15070987e-001 -1.02043003e-001
      -1.02844000e-001 0. -2.00957990e+000 1.02039002e-001
      -2.79734993e+000 -6.93877995e-001 -1.58510995e+000
      -1.34694004e+000 -2.96774006e+000 -8.77547979e-001
      -2.94521999e+000 -2.30611992e+000 -3.75549006e+000
      -2.71428990e+000 -3.51754999e+000 -3.14284992e+000
      -3.23137999e+000 -4.71429014e+000 -1.65903997e+000
      -4.34694004e+000 -9.19510007e-001 -3.10205007e+000 4.63120013e-001
      -9.59182978e-001 2.48883009e+000 -9.18365002e-001 1.39557004e+000
      1.22437000e-001 3.02307010e-001 1.42853007e-001 2.09044993e-001
      -3.73469996e+000 -1.14566002e+001 -2.40815997e+000
      -9.76525021e+000 -4.02041006e+000 -7.00319004e+000
      -6.61223984e+000 -5.64627981e+000 -8.22449017e+000
      -3.81347990e+000 4.89791989e-001 -2.93245006e+000 -1.14285004e+000
      -5.88422012e+000 -1.75510001e+000 -8.36011028e+000
      -2.38775992e+000 -1.12411003e+001 -1.12244999e+000
      -1.50514002e+001 -2.83673000e+000 -1.31507003e+000
      -3.81632996e+000 -2.53048992e+000 -2.79590988e+000
      -2.74592996e+000 -2.77551007e+000 -2.84238005e+000
      -2.28572011e+000 -1.29575002e+000 -2.04081988e+000
      -1.93884003e+000 -2.79590988e+000 -2.58190989e+000
      -3.55102992e+000 -1.93884003e+000 -3.32653999e+000
      -1.41472006e+000 -6.28570986e+000 -1.31961002e+001
      -7.04082012e+000 -1.99099007e+001 -3.73469996e+000
      -1.79099007e+001 -4.46938992e+000 -2.72021008e+000
      -5.73470020e+000 -5.36329985e+000 -9.04082012e+000
      -8.36330032e+000 -3.28572011e+000 -6.07712984e+000
      -3.02042007e+000 -1.71478996e+001 -7.34695017e-001
      -1.92667999e+001 -1.51021004e+000 -1.26719999e+001 2.85706013e-001
      -9.83918953e+000 -1. -6.72021008e+000 -7.57143021e+000
      -2.77483010e+000 -7.28571987e+000 -4.72661018e+000
      -5.02042007e+000 -5.44043016e+000 -3.81632996e+000
      -6.08350992e+000 -1.59184003e+000 -5.44043016e+000
      -1.32653999e+000 -2.84557009e+000 -1.02041996e+000
      -3.01276994e+000 -2.85721004e-001 1.17695999e+000 -2.57142997e+000
      2.53385997e+000 -3.77551007e+000 2.65282989e+000 -5.
      2.65282989e+000 -6.28571987e+000 2.95913994e-001 -7.44897985e+000
      -1.65586996e+000 -5.02042007e+000 -1.13172996e+000
      -3.79590988e+000 -3.01276994e+000 -3.59184003e+000
      -2.25072002e+000 -1.42853007e-001 -1.89377999e+000
      -2.57142997e+000 -1.25072002e+000 -4.79590988e+000
      -2.01276994e+000 -6.02042007e+000 -1.13172996e+000</_>
    <_>
      -1.42857000e-001 -3.15070987e-001 -1.02043003e-001
      -1.02844000e-001 2. -9.58252046e-003 3.10204005e+000
      2.20265007e+000 5.30611992e+000 4.41488981e+000 6.65305996e+000
      4.03225994e+000 6.12244987e+000 5.05478001e+000 5.69388008e+000
      4.24451017e+000 4.28570986e+000 3.48245001e+000 2.85715008e+000
      7.68616021e-001 -7.14294016e-001 1.34096003e+000 -3.46938998e-001
      8.04900974e-002 -1.02050997e-001 4.63120013e-001 -9.59182978e-001
      1.48882997e+000 -9.18365002e-001 1.39557004e+000 1.22437000e-001
      3.02307010e-001 1.42853007e-001 2.09044993e-001 -4.73470020e+000
      -1.04566002e+001 -4.40816021e+000 -1.07651997e+001
      -4.02041006e+000 -8.00319004e+000 -5.61223984e+000
      -6.64627981e+000 -7.22449017e+000 -3.81347990e+000 2.48978996e+000
      -2.93245006e+000 1.85714996e+000 -3.88421988e+000 2.44903997e-001
      -6.36010981e+000 -1.38776004e+000 -1.02411003e+001
      -1.12244999e+000 -1.20514002e+001 1.63268998e-001 1.68492997e+000
      1.18367004e+000 1.46950996e+000 2.20409012e+000 2.25407004e+000
      3.22448993e+000 1.15761995e+000 4.71428013e+000 5.70424986e+000
      3.95918012e+000 4.06116009e+000 4.20409012e+000 3.41809011e+000
      2.44897008e+000 5.06116009e+000 1.67346001e+000 4.58527994e+000
      -5.28570986e+000 -9.19610023e+000 -5.04082012e+000
      -1.49098997e+001 -7.34695017e-001 -1.39098997e+001
      -4.69390988e-001 2.79785007e-001 -2.73469996e+000 -1.36329997e+000
      -6.04082012e+000 -2.36330009e+000 -1.28571999e+000
      -2.07713008e+000 -2.04163007e-002 -1.21478996e+001 2.26530004e+000
      -1.52667999e+001 1.48978996e+000 -8.67197990e+000 3.28571010e+000
      -3.83919001e+000 2. -1.72020996e+000 2.42857003e+000
      8.22517014e+000 7.14278996e-001 9.27338982e+000 9.79583979e-001
      6.55956984e+000 2.18367004e+000 7.91649008e+000 2.40815997e+000
      7.55956984e+000 2.67346001e+000 7.15442991e+000 3.97957993e+000
      6.98722982e+000 3.71427989e+000 1.31770000e+001 2.42857003e+000
      1.55339003e+001 3.22448993e+000 1.56527996e+001 3. 1.56527996e+001
      7.14278996e-001 1.42959003e+001 1.55102003e+000 1.23441000e+001
      9.79583979e-001 1.08683004e+001 2.20409012e+000 1.09871998e+001
      1.40815997e+000 1.07493000e+001 4.85715008e+000 9.10622025e+000
      1.42857003e+000 1.07493000e+001 2.20409012e+000 1.09871998e+001
      9.79583979e-001 1.08683004e+001</_>
    <_>
      1.30992994e-001 2.70904988e-001 4.79240008e-002 3.71246010e-001
      -1.59743994e-001 4.71572995e-001 2.63259006e+000 1.56857002e+000
      4.21724987e+000 1.66556001e+000 3.51117992e+000 7.45833993e-001
      4.55592012e+000 1.81272995e+000 5.43451023e+000 -1.15048003e+000
      3.27155995e+000 -2.14043999e+000 3.10862994e+000 -2.15384007e+000
      2.11183000e+000 -1.20064998e+000 2.19809008e+000 -2.64205992e-001
      2.53355002e+000 -3.47808987e-001 2.20128012e+000 5.58533013e-001
      7.66754001e-002 4.58205998e-001 -1.30980998e-001 3.57863992e-001
      -1.72516003e-001 2.57530004e-001 -1.49201000e+000 -2.80267000e+000
      -1.11501002e+000 -1.84281003e+000 -9.87221003e-001
      -2.85618997e+000 -9.00955021e-001 -4.85283995e+000
      -8.14697027e-001 -4.82943010e+000 3.64856005e+000 -3.82274008e+000
      2.81789994e+000 -4.84949017e+000 3.90416002e+000 -2.85618997e+000
      3.03195000e+000 -1.84949005e+000 2.40895009e+000 1.90639004e-001
      4.37698007e-001 2.47498006e-001 2.39615989e+000 -6.92306995e-001
      1.39616001e+000 -6.32103026e-001 1.39616001e+000 -5.68557978e-001
      4.10223007e+000 1.49500000e+000 3.72844005e+000 1.50168002e+000
      2.35462999e+000 1.50836003e+000 2.93930006e+000 5.01677990e-001
      1.56549001e+000 -5.08346975e-001 -1.48881996e+000 2.54180998e-001
      -1.02875996e+000 -1.77592003e+000 3.06708992e-001 -7.72567987e-001
      6.42174006e-001 1.26422000e+000 -6.93291008e-001 2.27425003e+000
      -1.98722005e+000 2.27760005e+000 1.23322999e+000 2.64221013e-001
      6.10229015e-001 -1.77592003e+000 1.90416002e+000 -2.77925992e+000
      2.36422992e+000 -7.49161005e-001 2.86262989e+000 1.27425003e+000
      5.68695009e-001 1.27425003e+000 3.01598001e+000 6.62876987e+000
      4.39297009e+000 3.59197998e+000 1.81150997e+000 1.57191002e+000
      3.35462999e+000 5.81955016e-001 1.93929994e+000 5.71914971e-001
      -6.42166018e-001 2.59531999e+000 1.65175998e+000 1.62876999e+000
      -6.42166018e-001 -1.35450995e+000 9.39301014e-001 -1.34781003e+000
      3.35462999e+000 -2.34781003e+000 2.85303998e+000 -3.47808987e-001
      4.39297009e+000 1.64549005e+000 3.76677990e+000 6.62543011e+000
      1.81150997e+000 2.60870004e+000 3.35462999e+000 6.12044990e-001
      1.89777005e+000 1.60870004e+000 1.90095997e+000 2.62543011e+000
      1.93929994e+000 1.60536003e+000 2.39615989e+000 2.61205006e+000
      2.81151009e+000 2.60536003e+000</_>
    <_>
      3.02242011e-001 1.82227999e-001 4.14543003e-001 -4.72411998e-002
      1.69529998e+000 -4.90447998e-001 1.97606003e+000 1.06636000e+000
      1.59373999e+000 3.19571996e+000 2.60448003e+000 2.47018003e+000
      2.83982992e+000 2.67603993e+000 3.13133001e+000 2.66816998e+000
      2.53513002e+000 3.52304006e+000 1.88277996e+000 3.45444012e+000
      -9.38018978e-001 2.48581007e-001 -1.87114000e+000 6.15294993e-001
      -1.02884996e+000 -6.59164011e-001 -5.79635978e-001
      -1.78852999e+000 -1.46732998e+000 -1.13161004e+000
      -2.98889011e-001 -2.60971010e-001 -2.42706001e-001 1.82227999e-001
      -6.30867004e-001 1.89988995e+000 -2.84473991e+000 -2.45107007e+000
      -2.72168994e+000 -4.30596018e+000 -2.65479994e+000
      -6.66479015e+000 -3.64405990e+000 -4.74128008e+000
      -1.56555008e-002 -4.31383991e+000 -4.91333008e-003
      -5.23734999e+000 -1.99416995e+000 -5.09223986e+000
      -2.92727995e+000 -2.87852001e+000 -2.14113998e+000
      -2.74128008e+000 -6.89484000e-001 -1.07986003e-001
      -1.68947995e+000 3.11583996e-001 -6.33315980e-001 9.44885015e-001
      -5.77163994e-001 1.57818997e+000 -5.87906003e-001 7.15408027e-001
      1.91744995e+000 2.35658002e+000 4.22836006e-001 7.84026980e-001
      -7.18078986e-002 1.14286995e+000 -6.22588992e-001 1.50168002e+000
      -2.27065995e-001 2.10574007e+000 -6.09390020e-001 -1.76597998e-001
      1.76734999e-001 -1.76597998e-001 -2.05588996e-001 2.53318000e+000
      -8.79410028e-001 3.38807988e+000 -6.09390020e-001 3.38807988e+000
      -1.34183002e+000 1.31947005e+000 -1.72414994e+000 -3.90327007e-001
      -9.94171023e-001 -1.39032996e+000 -3.20342988e-001 6.78291023e-001
      1.18133999e-001 1.96062005e+000 -1.66799998e+000 3.17435002e+000
      4.56979990e+000 6.55455017e+000 4.35593987e+000 4.48592997e+000
      3.02975011e+000 3.84476995e+000 4.22836006e-001 2.27221990e+000
      -2.07181001e+000 2.84476995e+000 -2.39797997e+000 4.05848980e+000
      -3.72414994e+000 6.91339016e+000 -3.39797997e+000 7.83690023e+000
      -2.01566005e+000 8.69176960e+000 4.78973001e-001 6.90551996e+000
      1.97362006e+000 9.90552044e+000 2.29978991e+000 7.05061007e+000
      2.85055995e+000 5.34083986e+000 1.97362006e+000 5.12711000e+000
      4.22836006e-001 3.34084010e+000 -2.07181001e+000 2.91338992e+000
      -5.00490999e+000 4.91339016e+000 -1.01566005e+000 3.91338992e+000
      4.78973001e-001 4.34083986e+000 3.02975011e+000 6.12711000e+000</_>
    <_>
      3.26240987e-001 7.69272000e-002 1.26789004e-001 -2.52746999e-001
      -3.12552989e-001 4.17587012e-001 -2.51201010e+000 4.39559996e-001
      -3.67102003e+000 6.37359977e-001 -4.46883011e+000 2.06592989e+000
      -4.18577003e+000 3.90110993e+000 -4.86225986e+000 3.96704006e+000
      -3.21799994e+000 4.43957996e+000 -4.09394979e+000 4.31869984e+000
      -4.90112007e-001 2.78023005e+000 3.13170999e-001 2.29671001e+000
      7.55249023e-001 3.04396009e+000 -2.16386008e+000 2.84615993e+000
      -1.88354003e+000 1.17583001e+000 1.56891003e-001 3.29674006e-001
      4.37225014e-001 -3.40660006e-001 8.08758020e-001 -8.76922989e+000
      1.21039999e+000 -9.90110016e+000 1.21313000e+000 -8.49450970e+000
      4.96201009e-001 -9.31867981e+000 1.01917005e+000 -9.54944992e+000
      -1.05623996e+000 -7.72526979e+000 -2.93395996e-001
      -6.49451017e+000 -1.03302002e-002 -5.31867981e+000
      -2.47482002e-001 -3.72527003e+000 -1.84583998e+000
      -4.41758013e+000 -2.58437991e-001 -8.24176025e+000
      -1.25844002e+000 -9.58240986e+000 -2.25844002e+000
      -8.92306995e+000 -2.49832010e+000 -9.61538982e+000 9.78729010e-001
      -5.53844976e+000 -1.89996004e+000 -5.89011002e+000
      -3.25844002e+000 -5.24175978e+000 -4.61689997e+000
      -4.89011002e+000 -5.73548985e+000 -2.53845000e+000 9.18274000e-002
      -6.40658998e+000 -2.66647011e-001 -7.29670000e+000
      -8.24562013e-001 -7.12088013e+000 -9.02701974e-001
      -6.23077011e+000 -8.24562013e-001 -4.93407011e+000
      -1.26664996e+000 -4.28570986e+000 -1.13437998e+000
      -4.05495024e+000 -1.21250999e+000 -5.94504976e+000
      -7.70431995e-001 -4.12088013e+000 -1.36879003e+000
      -2.87912011e+000 -1.01032996e+000 -1.93406999e+000
      -1.45240998e+000 -2.75823998e+000 -7.26390982e+000
      -2.73626995e+000 -7.06170988e+000 -5.92307997e+000
      -6.13986015e+000 -6.34065008e+000 -4.49832010e+000
      -5.86813021e+000 -2.09667993e+000 -6.16483021e+000
      -2.41470003e+000 -4.21976995e+000 -1.45240998e+000
      -3.68131995e+000 -1.65460002e+000 -2.38460994e+000
      -3.33656001e+000 -2.56044006e+000 -5.73822021e+000
      -3.73626995e+000 -6.37974977e+000 -2.91208005e+000
      -8.06171036e+000 -3.08790994e+000 -6.94314003e+000
      -3.20879006e+000 -6.13986015e+000 -4.45055008e+000
      -5.49832010e+000 -3.62636995e+000 -2.33656001e+000
      -3.27471995e+000 -1.53329003e+000 -2.32966995e+000
      -3.33656001e+000 -4.27472019e+000 -4.73822021e+000
      -3.62636995e+000 -6.37974977e+000 -3.62636995e+000</_>
    <_>
      -1.42857000e-001 -4.55619991e-001 -2.68222988e-001 5.91735989e-002
      3.55686009e-001 -1.31360996e+000 7.28863001e-001 -1.91123998e+000
      2.72595000e+000 -3.28402996e+000 2.84547997e+000 -5.43196011e+000
      4.08746004e+000 -8.01774979e+000 5.57726002e+000 -9.92899990e+000
      5.31486988e+000 -1.16035004e+001 4.92711020e+000 -1.20414000e+001
      2.29154992e+000 -1.11302004e+001 2.82806009e-001 -8.54438972e+000
      -7.23021984e-001 -6.39645004e+000 -2.85130000e+000
      -4.13608980e+000 1.45781994e-001 -1.53847003e+000 -4.81049001e-001
      5.91735989e-002 1.42853007e-001 -2.30765998e-001 -3.14868999e+000
      -7.69234002e-001 -2.77842999e+000 1.42010003e-001 -5.36445975e-001
      4.14200015e-002 -1.54518998e+000 2.04141998e+000 -4.28573996e-001
      3.66863012e-001 8.10500979e-001 1.70413995e+000 -1.98241994e-001
      4.91122991e-001 6.67632997e-001 4.91122991e-001 7.84255981e-001
      5.91717005e-001 9.03792977e-001 1.68046999e+000 6.90963984e-001
      1.78106999e+000 8.16330016e-001 -4.67453003e-001 1.06705999e+000
      -1.71598005e+000 1.19243002e+000 -4.07693005e+000 -3.00292999e-001
      -3.21301007e+000 4.46060002e-001 -2.66271996e+000 1.06705999e+000
      -3. 1.43731999e+000 -2.66271996e+000 1.93295002e+000
      -2.21301007e+000 -3.53351998e+000 1.99407995e+000 -3.16325998e+000
      1.18340001e-001 -1.16910005e+000 1.18340001e-001 9.50438976e-001
      1.76923001e+000 -1.04373002e+000 3.54437995e+000 -2.16325998e+000
      2.54437995e+000 -1.95327997e-001 2.88164997e+000 4.95604984e-002
      2.30765998e-001 2.04373002e+000 2.23077011e+000 1.28864002e+000
      2.21893001e+000 1.91837001e+000 3.65681005e+000 9.24193978e-001
      3.65681005e+000 -9.18365002e-001 -7.37278986e+000 2.01164007e-001
      -1.02484999e+001 3.20694000e-001 -1.06864004e+001 2.81632996e+000
      -9.13609028e+000 2.43731999e+000 -8.79881001e+000 4.43148994e+000
      -9.36095047e+000 5.04956007e+000 -8.59764004e+000 4.43148994e+000
      -5.49703979e+000 4.31195021e+000 -5.94675016e+000 1.94169998e+000
      -6.94675016e+000 5.71425974e-001 -6.83432007e+000 -7.98835993e-001
      -7.38461018e+000 1.07871997e+000 -8.26035976e+000 1.32069004e+000
      -8.14793015e+000 2.81632996e+000 -8.26035976e+000 4.31195021e+000
      -7.26035976e+000 4.05247021e+000 -7.48520994e+000 4.43732023e+000
      -6.37278986e+000 1.94169998e+000 -8.37279034e+000 4.46060002e-001
      -7.26035976e+000</_>
    <_>
      -1.42857000e-001 -3.53065014e-001 4.81049001e-001 -2.53044009e-001
      1.85423005e+000 -1.87392995e-001 3.97668004e+000 8.78250003e-001
      3.59767008e+000 8.40775013e-001 7.21574020e+000 -1.36857998e+000
      6.08163023e+000 -2.85295010e+000 6.57143021e+000 -3.50919008e+000
      1.81050003e+000 -5.40607023e+000 -7.58057013e-002 -5.57793999e+000
      -1.33527994e+000 -4.99044991e+000 -2.59475994e+000
      -6.57483006e+000 -1.72595000e+000 -4.39983988e+000
      -9.79583979e-001 -2.36237001e+000 -4.81049001e-001
      -1.39365005e+000 2.68218994e-001 -3.90549004e-001 1.42853007e-001
      -4.21822011e-001 -1.15160000e+000 4.09692001e+000 -1.15743005e+000
      3.58127999e+000 -1.79007995e+000 2.44377995e+000 -1.54809999e+000
      1.54691005e+000 -1.30612004e+000 1.75316000e+000 -4.43145990e-001
      7.53162026e-001 7.98828006e-001 5.81283987e-001 1.04082000e+000
      4.78157014e-001 1.40816998e+000 6.15661979e-001 1.27698004e+000
      1.06254995e+000 4.37317014e-001 4.37193012e+000 4.37317014e-001
      3.88755989e+000 4.37317014e-001 4.43758011e+000 -5.62682986e-001
      4.98758984e+000 1.94461000e+000 4.77823019e+000 6.90963984e-001
      3.84697008e+000 4.37317014e-001 3.91573000e+000 -9.41695988e-001
      4.88135004e+000 -1.19533002e+000 4.81261015e+000 -1.53645003e+000
      4.57817984e+000 -1.66182995e-001 2.30317998e+000 7.87201002e-002
      2.30317998e+000 1.32361996e+000 7.61255980e+000 7.87201002e-002
      7.71568012e+000 -2.04081988e+000 7.71568012e+000 4.25659001e-001
      5.64693022e+000 -2.04086006e-001 2.33754992e+000 2.04081988e+000
      2.37192988e+000 1.53644001e+000 2.57818007e+000 2.91545010e+000
      5.71568012e+000 1.67056000e+000 6.71568012e+000 -6.42273998e+000
      -8.81119013e-001 -4.30320978e+000 -1.22487998e+000
      -1.18367004e+000 -1.36237001e+000 4.37317014e-001 -1.25926006e+000
      2.93295002e+000 -3.36237001e+000 5.05247021e+000 -2.19051003e+000
      5.17200994e+000 -8.46741021e-001 4.05247021e+000 2.46265006e+000
      2.80759001e+000 3.56577992e+000 1.31194997e+000 3.56577992e+000
      -1.18367004e+000 4.53140020e+000 -3.42857003e+000 4.42826986e+000
      -5.30029011e+000 8.45032036e-002 -1.18367004e+000 2.05012989e+000
      4.37317014e-001 1.08449996e+000 2.93295002e+000 1.05013001e+000
      5.04956007e+000 -8.81119013e-001 2.93295002e+000 2.11888003e+000
      4.37317014e-001 2.15325999e+000 6.90963984e-001 2.08450007e+000</_>
    <_>
      -1.42857000e-001 -2.35909000e-001 -2.46754006e-001
      -3.77151012e-001 -4.02599007e-001 -4.44550008e-001 4.41558987e-001
      4.14214998e-001 2.33765006e-001 -5.79361022e-001 8.44154000e-001
      -2.42525005e+000 3.50647002e-001 -9.75799978e-001 -2.72727996e-001
      6.95159972e-001 -1.05195999e+000 3.99811000e-001 -2.83118010e+000
      -1.57180995e-001 -1.50650001e+000 1.71859995e-001 -1.05195999e+000
      8.70101988e-001 -4.67528999e-001 7.89825022e-001 1.29870999e+000
      9.31061029e-001 2.20779002e-001 1.46133006e-001 1.68823004e-001
      2.87375987e-001 1.42853007e-001 4.28611994e-001 -5.35064983e+000
      -3.53768992e+000 -7.63636017e+000 -8.35630989e+000
      -7.18181992e+000 -9.91329956e+000 -7.72727013e+000
      -1.19870996e+001 -9.24676037e+000 -9.65165997e+000 2.74025989e+000
      -1.22825003e+001 4.19480991e+000 -1.26180000e+001 4.64935017e+000
      -1.04702997e+001 5.10389996e+000 -5.69179010e+000 2.71427989e+000
      -3.57782006e+000 -3.71428990e+000 -2.20220995e+000
      -4.68831015e+000 -1.75275004e+000 -5.66234016e+000 6.96686029e-001
      -6.61040020e+000 1.14612997e+000 -5.22077990e+000 1.18625998e+000
      -4.48051023e+000 8.90929997e-001 -5.71429014e+000 1.59557998e+000
      -4.02596998e+000 1.96475005e+000 -4.28571987e+000 2.26009989e+000
      -7. -5.79289007e+000 -5.31168985e+000 -8.12837029e+000
      -3.72726989e+000 -7.12836981e+000 -2.11687994e+000
      -1.71905994e+000 -2.75324988e+000 -2.08822989e+000
      -5.33765984e+000 -3.16208005e+000 -5.71425974e-001
      -1.57139003e+000 2.03895998e+000 -6.90686989e+000 2.64934993e+000
      -8.83302021e+000 3.31169009e+000 -4.34988022e+000 4.59740019e+000
      -2.79289007e+000 3.01299000e+000 -8.66729975e-001 -1.17532997e+001
      -8.69332981e+000 -8.09090996e+000 -2.02881002e+000
      -6.45453978e+000 -6.59636974e-001 -3.79221010e+000 1.18865997e-001
      8.70132029e-001 4.14214998e-001 4.42856979e+000 -8.81133974e-001
      9.93505955e+000 -8.32415962e+000 4.37661982e+000 -3.98867989e+000
      2.76623988e+000 -1.43168998e+000 -1.84415996e+000 -2.57936001e+000
      -5.50649977e+000 -2.57936001e+000 -9.11688042e+000
      -2.35785007e+000 -1.29090996e+001 -7.61949015e+000
      -5.48051023e+000 -3.39797997e+000 -3.79221010e+000
      -3.39797997e+000 1.81817997e+000 -3.25030994e+000 9.14284992e+000
      -7.32416010e+000 1.81817997e+000 -1.25030994e+000 -2.81818008e+000
      -3.97980005e-001 -6.48051023e+000 -1.32415998e+000</_>
    <_>
      4.35927987e-001 -2.46002004e-001 -4.00085002e-002 4.11742985e-001
      -2.22984004e+000 -2.71756005e+000 -1.65762997e+000
      -4.91788006e+000 -2.03730011e+000 -6.18912983e+000
      -2.55865002e+000 -7.03456020e+000 -4.98373985e+000
      -5.45410013e+000 -5.83661985e+000 -4.44777012e+000
      -5.87933016e+000 -2.73168993e+000 -5.16002989e+000
      -1.37679994e+000 -5.01290989e+000 -1.31215000e+000
      -3.67596006e+000 -8.21624994e-001 -4.19730997e+000
      -8.34258974e-001 -1.81496000e+000 3.66043001e-001 -2.42736995e-001
      6.37314022e-001 -1.94610998e-001 -9.14077982e-002 3.29468012e-001
      2.50838995e-001 -3.72962989e-002 -4.47157001e+000 -2.32068992e+000
      -3.69081998e+000 -4.79391003e+000 -4.47789001e+000
      -4.50509977e+000 -5.54887009e+000 -6.45424986e+000
      -3.83277011e+000 -2.59003013e-001 -5.69082022e+000
      -6.84096992e-001 -5.40690994e+000 8.90823007e-001 -5.33592987e+000
      1.17963004e+000 -4.47789001e+000 2.18233991e+000 -3.25864005e+000
      -3.45153999e+000 4.63768005e-001 -3.68950009e+000 1.18618000e+000
      -4.92747021e+000 9.08591986e-001 -3.92746997e+000 1.48904002e+000
      -4.26442003e+000 2.78557992e+000 -4.59596014e+000 2.64363003e+000
      -4.92747021e+000 2.43069005e+000 -5.25899982e+000 1.64363003e+000
      -5.35255003e+000 3.78557992e+000 -4.27255011e+000 9.66934025e-001
      -4.84205008e+000 -3.94272000e-001 -4.12544012e+000
      -3.94272000e-001 -4.17086983e+000 1.75399995e+000 -4.12544012e+000
      1.54105997e+000 -5.60408020e+000 2.47008991e+000 -2.97018003e+000
      1.82498002e+000 -1.77766001e+000 6.76703990e-001 -1.06104004e+000
      -1.25232005e+000 1.31485000e-001 1.08887002e-001 -1.53697002e+000
      2.61204004e+000 -2.25359011e+000 2.61204004e+000 -7.79120016e+000
      -2.47937012e+000 -5.31255007e+000 5.14312983e-001 -4.35798979e+000
      1.01115000e+000 -3.45153999e+000 7.98218012e-001 -2.54509997e+000
      1.11542000e-002 -2.06646991e+000 4.43343997e-001 -3.06375003e+000
      4.49645996e-001 -2.30443001e+000 2.02378988e+000 -3.78307009e+000
      3.88183999e+000 -4.45153999e+000 5.81087017e+000 -4.35798979e+000
      2.95282006e+000 -6.31255007e+000 1.09476995e+000 -7.45696020e+000
      -4.08385992e-001 -5.12002993e+000 2.08843994e+000 -3.45153999e+000
      2.01746988e+000 -3.54509997e+000 2.01746988e+000 -2.39797997e+000
      1.52063000e+000 -2.78307009e+000 4.01746988e+000 -3.45153999e+000
      3.94649005e+000 -5.12002993e+000 4.08843994e+000</_>
    <_>
      3.02242011e-001 1.82227999e-001 4.14543003e-001 -4.72411998e-002
      1.69529998e+000 -4.90447998e-001 2.97605991e+000 -9.33640003e-001
      3.59373999e+000 -8.04275990e-001 3.60448003e+000 -1.52981997e+000
      3.83982992e+000 -1.32395995e+000 4.13133001e+000 -3.31833005e-001
      4.53513002e+000 1.52304006e+000 3.88278008e+000 3.45444012e+000
      4.06197977e+000 2.24857998e+000 3.12886000e+000 2.61529994e+000
      1.97115004e+000 2.34084010e+000 1.42035997e+000 2.11472005e-001
      -4.67330992e-001 -1.31606996e-001 -2.98889011e-001
      -2.60971010e-001 -2.42706001e-001 1.82227999e-001 -1.63086998e+000
      -3.10011005e+000 -3.84473991e+000 -5.45106983e+000
      -3.72168994e+000 -8.30595970e+000 -3.65479994e+000
      -7.66479015e+000 -4.64406013e+000 -7.74128008e+000
      -1.56555008e-002 -7.31383991e+000 -1.00490999e+000
      -9.23735046e+000 5.82886022e-003 -8.09224033e+000 7.27234036e-002
      -5.87852001e+000 -1.41144007e-001 -2.74128008e+000
      -6.89484000e-001 -3.10799003e+000 -1.68947995e+000
      -1.68842006e+000 -6.33315980e-001 -1.05510998e+000 4.22836006e-001
      -4.21813995e-001 4.12093997e-001 -2.28459001e+000 1.91744995e+000
      -6.43417001e-001 1.42284000e+000 -2.15973005e-001 1.92818999e+000
      1.14286995e+000 2.37740993e+000 5.01677990e-001 -2.27065995e-001
      -8.94263983e-001 -1.60939002e+000 -1.76597998e-001
      -1.82326996e+000 -1.76597998e-001 -1.20559001e+000
      -2.46682000e+000 -8.79410028e-001 1.38808000e+000 -6.09390020e-001
      3.88076991e-001 -3.41827005e-001 -1.68052995e+000 -7.24152029e-001
      -1.39032996e+000 -9.94171023e-001 -1.39032996e+000 6.79656982e-001
      -1.32170999e+000 1.18133999e-001 -3.93753015e-002 -1.66799998e+000
      1.74355000e-001 9.56980038e+000 6.55455017e+000 7.35593987e+000
      7.48592997e+000 4.02974987e+000 7.84476995e+000 4.22836006e-001
      9.27221966e+000 -7.18078986e-002 9.84477043e+000 -3.39797997e+000
      9.05848980e+000 -4.72415018e+000 7.91339016e+000 -2.39797997e+000
      6.83690023e+000 9.84344006e-001 3.69177008e+000 2.47897005e+000
      2.90551996e+000 4.97361994e+000 2.90551996e+000 8.29979038e+000
      2.05061007e+000 8.85056019e+000 5.34083986e+000 2.97361994e+000
      3.12711000e+000 1.42284000e+000 3.34084010e+000 -1.07181001e+000
      3.91338992e+000 -4.00490999e+000 6.91339016e+000 -1.56555008e-002
      3.91338992e+000 2.47897005e+000 3.34084010e+000 3.02975011e+000
      3.12711000e+000</_>
    <_>
      -1.42857000e-001 -2.35909000e-001 -2.46754006e-001
      -3.77151012e-001 -4.02599007e-001 -2.44455004e+000 4.41558987e-001
      -1.58578002e+000 2.33765006e-001 -3.57936001e+000 8.44154000e-001
      -4.42525005e+000 1.35064995e+000 -4.97580004e+000 7.27271974e-001
      -4.30484009e+000 9.48044002e-001 -5.60019016e+000 -1.83117998e+000
      -5.15717983e+000 -5.06500006e-001 -4.82813978e+000
      -5.19561991e-002 -4.12989998e+000 -4.67528999e-001
      -4.21016979e+000 1.29870999e+000 -3.06893992e+000 1.22078001e+000
      -1.85387003e+000 1.68823004e-001 2.87375987e-001 1.42853007e-001
      4.28611994e-001 -6.35064983e+000 -4.53769016e+000 -8.63636017e+000
      -8.35630989e+000 -7.18181992e+000 -1.09132996e+001
      -6.72727013e+000 -1.39870996e+001 -7.24675989e+000
      -1.06517000e+001 4.74026012e+000 -1.32825003e+001 6.19480991e+000
      -1.46180000e+001 6.64935017e+000 -1.14702997e+001 7.10389996e+000
      -5.69179010e+000 4.71428013e+000 -3.57782006e+000 -1.71429002e+000
      -3.20220995e+000 -2.68830991e+000 -2.75274992e+000
      -2.66233993e+000 -2.30330992e+000 -4.61040020e+000
      -2.85386992e+000 -4.22077990e+000 -1.81374002e+000
      -2.48051000e+000 -2.10907006e+000 -3.71428990e+000
      -1.40442002e+000 -2.02596998e+000 -2.03524995e+000
      -2.28572011e+000 -1.73989999e+000 -6. -6.79289007e+000
      -5.31168985e+000 -1.11283998e+001 -1.72727001e+000
      -9.12837029e+000 -1.16881996e-001 -3.71905994e+000
      -7.53250003e-001 -4.08823013e+000 -4.33765984e+000
      -4.16207981e+000 1.42857003e+000 -2.57138991e+000 4.03895998e+000
      -7.90686989e+000 5.64935017e+000 -9.83302021e+000 5.31168985e+000
      -5.34988022e+000 7.59740019e+000 -4.79289007e+000 5.01299000e+000
      -2.86672997e+000 -1.27532997e+001 -1.26933002e+001
      -8.09090996e+000 -5.02881002e+000 -5.45453978e+000
      -4.65963984e+000 -2.79221010e+000 -3.88112998e+000 1.87012994e+000
      -3.58577991e+000 6.42856979e+000 -4.88113022e+000 1.09350996e+001
      -1.23241997e+001 6.37661982e+000 -7.98867989e+000 3.76623988e+000
      -6.43169022e+000 -1.84415996e+000 -5.57936001e+000
      -4.50649977e+000 -5.57936001e+000 -8.11688042e+000
      -7.35785007e+000 -1.39090996e+001 -1.16195002e+001
      -5.48051023e+000 -8.39797974e+000 -3.79221010e+000
      -7.39798021e+000 3.81818008e+000 -7.25030994e+000 9.14284992e+000
      -1.13241997e+001 2.81818008e+000 -3.25030994e+000 -1.81817997e+000
      -4.39798021e+000 -5.48051023e+000 -4.32416010e+000</_>
    <_>
      3.26240987e-001 7.69272000e-002 1.26789004e-001 -2.52746999e-001
      6.87447011e-001 4.17587012e-001 4.87991005e-001 -5.60440004e-001
      -6.71020985e-001 -3.62639993e-001 -4.68834013e-001
      -1.93406999e+000 -1.18577003e+000 -2.09889007e+000
      -2.86226010e+000 -2.03295994e+000 -3.21799994e+000
      -5.60424984e-001 -4.09394979e+000 -6.81304991e-001
      -3.49010992e+000 -1.21976995e+000 -1.68683004e+000 2.96707004e-001
      -1.24475002e+000 1.04395998e+000 -1.16385996e+000 -1.53839007e-001
      -8.83544981e-001 1.75826997e-001 1.56891003e-001 3.29674006e-001
      4.37225014e-001 -3.40660006e-001 -1.91241995e-001 -1.17692003e+001
      2.10402995e-001 -1.19011002e+001 -7.86864996e-001 -1.24945002e+001
      4.96201009e-001 -1.33186998e+001 1.01917005e+000 -1.25494003e+001
      -1.05623996e+000 -1.17252998e+001 -2.93395996e-001
      -9.49450970e+000 -1.03302002e-002 -7.31867981e+000
      -2.47482002e-001 -5.72526979e+000 -8.45839977e-001
      -5.41758013e+000 -2.58437991e-001 -1.12418003e+001
      -1.25844002e+000 -1.25824003e+001 -2.25844002e+000
      -1.29231005e+001 -2.49832010e+000 -1.26154003e+001
      -2.12708004e-002 -8.53845024e+000 -1.89996004e+000
      -8.89011002e+000 -3.25844002e+000 -8.24176025e+000
      -4.61689997e+000 -7.89011002e+000 -5.73548985e+000
      -6.53844976e+000 9.18274000e-002 -8.40659046e+000 -2.66647011e-001
      -1.02966995e+001 1.75438002e-001 -1.01209002e+001 9.72976983e-002
      -7.23077011e+000 1.75438002e-001 -6.93407011e+000 -1.26664996e+000
      -7.28570986e+000 -1.13437998e+000 -6.05495024e+000
      -2.21251011e+000 -6.94504976e+000 2.29568005e-001 -5.12088013e+000
      -3.68790001e-001 -4.87911987e+000 -1.01032996e+000
      -2.93407011e+000 -1.45240998e+000 -4.75824022e+000
      -6.26390982e+000 -7.73626995e+000 -6.06170988e+000
      -7.92307997e+000 -5.13986015e+000 -9.34064960e+000
      -3.49832010e+000 -9.86812973e+000 -2.09667993e+000
      -1.01647997e+001 -2.41470003e+000 -8.21977043e+000
      -1.45240998e+000 -7.68132019e+000 -2.65459991e+000
      -7.38461018e+000 -3.33656001e+000 -8.56044006e+000
      -4.73822021e+000 -7.73626995e+000 -6.37974977e+000
      -6.91207981e+000 -6.06170988e+000 -6.08791018e+000
      -6.94314003e+000 -7.20878983e+000 -5.13986015e+000
      -7.45055008e+000 -4.49832010e+000 -7.62636995e+000
      -2.33656001e+000 -7.27472019e+000 -2.53328991e+000
      -8.32966995e+000 -3.33656001e+000 -8.27472019e+000
      -4.73822021e+000 -7.62636995e+000 -4.37974977e+000
      -7.62636995e+000</_>
    <_>
      3.96191001e-001 2.85712987e-001 2.42835999e-001 -1.42859995e-001
      -1.40544996e-001 4.28573996e-001 -6.00605011e-001 4.76226993e-002
      6.32622004e-001 -1.28571999e+000 -2.44085002e+000 -4.33333015e+000
      -2.20442009e+000 -8.19048023e+000 -2.19800997e+000
      -1.27143002e+001 -2.57500005e+000 -1.38570995e+001
      -4.02865982e+000 -1.45713997e+001 -6.17560005e+000
      -1.00475998e+001 -5.09251022e+000 -4.19048023e+000
      -6.24268007e+000 -1. -4.93276978e+000 -6.66671991e-001
      -3.23947001e+000 -2.38097996e-001 -4.69512999e-001 1.90475002e-001
      -3.92821997e-001 -3.80950987e-001 1.47607005e+000 -1.52381001e+001
      1.47926998e+000 -1.44762001e+001 -1.30943000e-001 -1.32856998e+001
      -1.74116004e+000 -1.43809996e+001 -1.50470996e+000
      -1.47143002e+001 7.50487995e+000 -1.47143002e+001 4.89467001e+000
      -1.32856998e+001 5.20777988e+000 -1.11429005e+001 3.52089000e+000
      -1.12856998e+001 2.37073994e+000 -1.19048004e+001 1.96175003e+000
      -6.85714006e+000 9.61745977e-001 -6.61905003e+000 1.96175003e+000
      -7.38094997e+000 9.61745977e-001 -6.23810005e+000 1.18858004e+000
      -5.38094997e+000 5.75150013e-001 -4.52379990e+000 -1.91620007e-001
      -5.57143021e+000 -8.81699026e-001 -6.47620010e+000
      -6.48468018e-001 -4.33333015e+000 4.82475013e-001 -4.33334017e+000
      1.56235003e+000 -6.80951977e+000 1.25883996e+000 -5.80951977e+000
      1.08687997e-001 -5.38094997e+000 3.35525990e-001 -4.61905003e+000
      -3.60969990e-001 -3.66666007e+000 5.84762990e-001 -5.28570986e+000
      3.43460011e+000 -4.66665983e+000 3.13109994e+000 -6.61905003e+000
      2.13431001e+000 -4.09524012e+000 2.05443001e+000 -3.47619009e+000
      1.35792994e+000 -3.47619009e+000 6.45431995e-001 -3.71427989e+000
      2.41860008e+000 -4.23810005e+000 4.21813995e-001 -6.90474987e+000
      -2.68294990e-001 -8.04761982e+000 -1.95839000e+000
      -6.90474987e+000 -4.10854006e+000 -5.19048023e+000
      -6.48870993e+000 -2.61905003e+000 -4.18520021e+000
      -5.04761982e+000 -1.11171997e+000 -8.19048023e+000 6.55044973e-001
      -8.23810005e+000 4.21813995e-001 -7.23810005e+000 2.41860008e+000
      -6.09523010e+000 2.03202009e+000 -3.66667008e+000 -5.78185976e-001
      -6.47620010e+000 -3.44954997e-001 -7.47620010e+000
      -2.03504992e+000 -7.42856979e+000 -6.87530994e+000
      -2.61905003e+000 -1.03505003e+000 -9.52379990e+000
      -3.44954997e-001 -8.57143021e+000 4.21813995e-001 -9.52379990e+000</_>
    <_>
      -3.21278006e-001 -1.43341005e-001 -4.72667992e-001 1.38854995e-001
      -6.74519002e-001 4.10964996e-001 -1.92683005e+000 1.70323002e+000
      -3.28007007e+000 1.97536004e+000 -4.03701019e+000 4.21723986e+000
      -3.14719009e+000 5.39865017e+000 -2.40875006e+000 6.52966022e+000
      1.07737994e+000 8.58005047e+000 2.61397004e+000 8.52966022e+000
      4.25146008e+000 8.40872002e+000 4.09081984e+000 6.21723986e+000
      3.28342009e+000 3.97535992e+000 1.87972999e+000 2.70322990e+000
      1.62741005e+000 1.41095996e+000 4.25552011e-001 1.18698001e-001
      2.74170011e-001 -1.73575997e-001 -1.28684998e-001 -3.35499001e+000
      2.15302005e-001 -3.50616002e+000 -8.44413996e-001 -3.55655003e+000
      -1.90412998e+000 -3.51623988e+000 -9.63837028e-001
      -3.42552996e+000 -1.67957997e+000 -1.41544998e+000
      -7.39273012e-001 -2.51623988e+000 -2.79900002e+000
      -2.56662989e+000 -2.85870004e+000 -3.51623988e+000
      -6.15661979e-001 -4.37514019e+000 -8.72161984e-001
      -1.93733007e-001 7.73772970e-002 9.77599978e-001 7.73772970e-002
      1.48932993e-001 2.69012004e-002 1.33034003e+000 3.61633003e-002
      1.49159002e+000 -4.17998999e-001 1.53190994e+000 7.73772970e-002
      3.56215000e+000 5.22278011e-001 1.53190994e+000 2.06813002e+000
      1.49159002e+000 -2.39024997e+000 -1.53419003e-001 -9.95796025e-001
      -2.23405004e+000 -7.52739012e-001 -2.23405004e+000
      -1.40875006e+000 8.76815975e-001 -7.02270985e-001 1.91712999e+000
      -1.94534004e+000 1.91712999e+000 6.64412975e-001 8.66737008e-001
      -4.20685001e-002 -2.23405004e+000 1.20099998e+000 -2.23405004e+000
      6.45905018e-001 -1.15341997e+000 1.15053999e+000 1.91712999e+000
      1.90749002e+000 2.91712999e+000 -5.55115007e-002 3.89473009e+000
      1.87546000e-001 8.24172974e-001 5.31525016e-001 -1.23629999e+000
      1.07737994e+000 -1.20605004e+000 1.62320995e+000 7.73787975e-001
      1.96718001e+000 1.82416999e+000 3.21024990e+000 4.90479994e+000
      3.01764989e+000 4.98543978e+000 2.62320995e+000 6.02574015e+000
      1.12784004e+000 4.02574015e+000 6.32462025e-001 4.01566982e+000
      2.38006994e-001 4.98543978e+000 5.91247976e-001 3.89473009e+000
      5.82000971e-001 8.74557018e-001 1.07737994e+000 1.89472997e+000
      1.62320995e+000 2.88463998e+000 2.56348991e+000 3.89473009e+000
      2.62320995e+000 2.88463998e+000 1.12784004e+000 8.94729972e-001
      1.58200002e+000 1.88463998e+000</_>
    <_>
      -1.42857000e-001 -1.79550007e-001 -2.68222988e-001 4.27269012e-001
      -2.64431000e+000 -8.56460989e-001 -2.27114010e+000
      -1.35909998e+000 -4.27405024e+000 -6.42822027e-001
      -4.15452003e+000 -7.07642019e-001 -1.91253996e+000
      -1.22513998e+000 5.77262998e-001 -1.08594000e+000 3.31487012e+000
      -1.74267995e+000 6.92711020e+000 -1.95403993e-001 5.29155016e+000
      -3.33460999e+000 2.28280997e+000 -4.81709003e+000 -7.23021984e-001
      -5.75228977e+000 -2.85130000e+000 -4.57802010e+000
      -8.54218006e-001 -2.07538009e+000 -4.81049001e-001 4.27269012e-001
      1.42853007e-001 3.93677019e-002 -1.14868999e+000 -5.37688971e-001
      1.22157001e+000 -1.67691004e+000 3.46355009e+000 1.98752999e-001
      4.45481014e+000 1.98752999e-001 4.57143021e+000 5.42007029e-001
      2.81049991e+000 8.70377004e-001 2.80175996e+000 -3.63418996e-001
      2.66762996e+000 -3.63418996e-001 2.78426003e+000 -2.39078999e-001
      4.90379000e+000 -9.98535007e-002 3.69095993e+000 2.02448010e+000
      2.81632996e+000 -1.16466999e+000 3.06705999e+000 -2.35382009e+000
      2.19243002e+000 -3.65243006e+000 1.69971001e+000 -1.73212004e+000
      2.44605994e+000 -2.16995001e+000 3.06705999e+000 -2.49832010e+000
      2.43731999e+000 -3.16995001e+000 3.93295002e+000 -2.73212004e+000
      -1.53351998e+000 1.25828004e+000 -1.16325998e+000 -1.64715004e+000
      2.83089995e+000 -2.64715004e+000 3.95043993e+000 2.03937006e+000
      9.56268013e-001 3.82045007e+000 -1.16325998e+000 3.82045007e+000
      1.80466998e+000 2.14881992e+000 2.04956007e+000 -5.37688971e-001
      4.04372978e+000 -1.53769004e+000 5.28864002e+000 1.47720003e+000
      4.91836977e+000 3.92990994e+000 2.92419004e+000 4.92991018e+000
      -2.91837001e+000 -5.78206015e+000 -2.79884005e+000
      -1.06875000e+001 3.20694000e-001 -1.21401997e+001 3.81632996e+000
      -1.15780001e+001 6.43732023e+000 -1.22496004e+001 8.43148994e+000
      -1.17968998e+001 9.04955959e+000 -7.00095987e+000 8.43148994e+000
      -3.87662005e+000 6.31195021e+000 -3.31445003e+000 2.94169998e+000
      -3.31445003e+000 -4.28573996e-001 -2.20498991e+000
      -1.79884005e+000 -2.76716995e+000 -9.21280026e-001
      -6.67258978e+000 1.32069004e+000 -7.56313992e+000 4.81632996e+000
      -8.67259026e+000 7.31195021e+000 -7.67258978e+000 9.05247021e+000
      -6.89151001e+000 6.43732023e+000 -6.78206015e+000 3.94169998e+000
      -6.78206015e+000 4.46060002e-001 -5.67258978e+000</_>
    <_>
      4.66190010e-001 2.85712987e-001 -1.87190995e-001 4.48982000e-001
      -8.40575993e-001 2.61224008e+000 -4.07299012e-001 2.77551007e+000
      -2.80071998e+000 4.48978996e+000 -2.67420006e+000 5.53061008e+000
      -2.02776003e+000 5.22449017e+000 8.78638983e-001 5.46938992e+000
      2.04501009e+000 4.14284992e+000 5.29802990e+000 3.24489999e+000
      4.20442009e+000 -2.24487007e-001 4.11083984e+000 8.16344991e-002
      2.32400990e+000 -2.18367004e+000 -6.94122016e-002 -3.12245011e+000
      1.90551996e-001 -1.28570998e+000 4.50531006e-001 3.26530010e-001
      -3.76190007e-001 -2.85712987e-001 1.50604999e+000 -4.20408010e+000
      3.54590988e+000 -4.34694004e+000 5.19233990e+000 -4.46938992e+000
      5.92543983e+000 -4.02041006e+000 4.65853977e+000 -6.73470020e-001
      1.23915997e+001 -1.34694004e+000 1.02114000e+001 -4.91836977e+000
      1.01177998e+001 -3.14285994e+000 7.85088015e+000 -2.02041006e+000
      5.06404018e+000 -8.77547979e-001 8.69838047e+000 3.24489999e+000
      7.69837999e+000 1.71429002e+000 7.69837999e+000 9.59182978e-001
      8.78505039e+000 4.28573996e-001 7.48522997e+000 3.81632996e+000
      7.09181023e+000 2.81632996e+000 6.78504992e+000 3.04081988e+000
      6.39162016e+000 8.16330016e-001 6.08484983e+000 1.59184003e+000
      4.67242002e+000 8.16330016e-001 6.53895998e+000 2.04086006e-002
      6.66547012e+000 7.95921028e-001 8.70532990e+000 2.81632996e+000
      6.66547012e+000 3.71428990e+000 4.45231009e+000 3.93877006e+000
      6.77811003e+000 1.36734998e+000 7.81795979e+000 3.46938998e-001
      8.03112984e+000 5.71425974e-001 6.98433018e+000 1.59184003e+000
      8.03112984e+000 2.48979998e+000 7.81795979e+000 2.26530004e+000
      6.92543983e+000 8.12244987e+000 5.96529007e+000 3.65305996e+000
      8.00514030e+000 1.30612004e+000 7.78504992e+000 -2.44903997e-001
      7.47829008e+000 -6.93877995e-001 7.51812983e+000 1.42857003e+000
      4.64463997e+000 4.89796019e+000 7.51812983e+000 4.79590988e+000
      6.56492996e+000 6.46938992e+000 6.78504992e+000 8.69388008e+000
      4.91849995e+000 9.46938992e+000 4.96529007e+000 8.02042007e+000
      7.53202009e+000 7.89796019e+000 7.00513983e+000 3.77551007e+000
      7.78504992e+000 1.77550995e+000 6.47829008e+000 5.51024973e-001
      5.03807020e+000 3.44897008e+000 6.47829008e+000 2.55102992e+000
      7.78504992e+000 5. 4.91849995e+000 4.77550983e+000</_>
    <_>
      -1.42857000e-001 3.66692007e-001 -4.07294989e-001 -1.97647005e-001
      -7.59880006e-001 2.18755007e+000 -1.02432001e+000 2.62320995e+000
      -7.29484975e-001 3.15979004e+000 -2.27965996e-001 3.74684000e+000
      -1.67174995e-001 4.53573990e+000 -4.58968997e-001 3.57693005e+000
