<?xml version="1.0"?>
<opencv_storage>
<opencv_ml_svm>
  <format>3</format>
  <svmType>C_SVC</svmType>
  <kernel>
    <type>RBF</type>
    <gamma>3.3749999999999999e-06</gamma></kernel>
  <C>8.3966600000000000e+01</C>
  <term_criteria><iterations>100</iterations></term_criteria>
  <var_count>136</var_count>
  <class_count>8</class_count>
  <class_labels type_id="opencv-matrix">
    <rows>8</rows>
    <cols>1</cols>
    <dt>i</dt>
    <data>
      0 1 2 3 4 5 6 7</data></class_labels>
  <sv_total>563</sv_total>
  <support_vectors>
    <_>
      -1.45670998e+00 4.43871021e+00 -2.19319999e-01 4.66141987e+00
      2.03892994e+00 4.89122009e+00 2.25216007e+00 6.06232977e+00
      2.54641008e+00 5.16955996e+00 1.86353004e+00 4.19357014e+00
      1.18523002e+00 3.13933992e+00 1.57573998e+00 3.28674018e-02
      1.82893002e+00 -1.55304000e-01 3.00675988e+00 6.40044987e-01
      3.05631995e+00 1.36301005e+00 1.07352996e+00 1.01178002e+00
      -9.94385004e-01 6.62154973e-01 -2.18163991e+00 2.38667011e+00
      -2.34448004e+00 2.14808989e+00 5.25330007e-01 1.99454999e+00
      3.81897002e-01 7.48916984e-01 -2.32312989e+00 -1.02569997e+00
      -3.10721993e-01 -1.18338001e+00 -2.01065004e-01 -1.37992001e+00
      9.83971000e-01 -1.49416006e+00 2.21123004e+00 -1.54702997e+00
      -2.53624010e+00 -1.97428000e+00 -3.93905997e-01 -3.12598991e+00
      7.26440012e-01 -2.24238992e+00 9.21370983e-01 -2.32923007e+00
      1.09283000e-01 -2.32418990e+00 -5.33767998e-01 -6.13743007e-01
      -3.83819997e-01 -1.50188005e+00 -2.66312003e-01 -1.38373995e+00
      -1.42684996e-01 -1.25871003e+00 2.79446006e+00 1.13829005e+00
      1.88257003e+00 1.05895996e+00 -9.24682990e-03 -6.60094991e-02
      -1.99672997e+00 7.87064016e-01 -1.94611001e+00 7.04895020e-01 0.
      0. -1.01655996e+00 8.17988992e-01 -8.72085989e-01 -3.12687010e-01
      -6.67739987e-01 -1.34821999e+00 2.39388004e-01 -1.75888002e-01
      -9.11354005e-01 9.22309995e-01 -2.51953006e-01 -1.74296999e+00
      7.57843018e-01 -8.72340977e-01 8.81408989e-01 -9.69887018e-01 0.
      0. 9.54117000e-01 1.40717000e-01 -1.15638995e+00 -8.26789975e-01
      1.37968998e+01 9.03954983e+00 1.08736000e+01 6.74158001e+00
      4.94202995e+00 5.40080023e+00 2.02451992e+00 5.25040007e+00
      -1.91055000e+00 4.02602005e+00 -6.84646988e+00 5.82010984e+00
      -1.07839003e+01 8.68060017e+00 -6.45081997e+00 -2.09114003e+00
      -1.30446994e+00 -7.83363008e+00 3.71506000e+00 -9.60324001e+00
      6.63796997e+00 -9.43288994e+00 1.23720999e+01 -4.14302015e+00
      1.49496002e+01 5.99717999e+00 5.87279987e+00 1.05481997e+01
      1.92981994e+00 1.03577003e+01 -2.01856995e+00 1.01471996e+01
      -1.17934999e+01 6.68395996e+00 -2.98157007e-01 -1.19582005e+01
      2.68253994e+00 -1.27795000e+01 7.59932995e+00 -1.15502996e+01</_>
    <_>
      -2.16859007e+00 5.67932987e+00 -2.26409006e+00 5.52971983e+00
      -2.33875990e+00 5.38599014e+00 -3.35101008e+00 5.18448019e+00
      -2.42756009e+00 5.93443012e+00 -2.15240002e+00 5.66406012e+00
      -7.35588014e-01 5.28402996e+00 8.15598011e-01 3.85306001e+00
      4.40569019e+00 3.24530005e+00 4.28723001e+00 2.41821003e+00
      6.04659986e+00 4.84160990e-01 6.79819012e+00 -6.85836971e-01
      5.48418999e+00 -2.29415998e-01 3.04766989e+00 2.76488997e-02
      1.45297003e+00 2.03338996e-01 1.73003995e+00 4.26239014e-01
      1.07396996e+00 -3.16222996e-01 -2.32166004e+00 -3.28133988e+00
      -1.88103998e+00 -3.65204000e+00 -1.31379998e+00 -3.67286992e+00
      -7.14637995e-01 -4.45886993e+00 -2.03461006e-01 -3.22726989e+00
      -2.13013005e+00 -2.06396008e+00 -1.55815005e+00 -1.12975001e+00
      -9.69254017e-01 -9.87321973e-01 -4.74456996e-01 -6.69151008e-01
      6.64398015e-01 -1.99093997e+00 1.32277995e-01 -2.66169000e+00
      -8.96651983e-01 -3.20471001e+00 -9.97161984e-01 -3.73744988e+00
      -1.70364007e-01 -3.28407001e+00 2.78696990e+00 -3.21502984e-02
      1.17867005e+00 -8.69461000e-01 -3.88000011e-01 -1.69509995e+00
      -1.96215999e+00 1.81152001e-01 -3.54683995e+00 1.12318003e+00 0.
      0. -5.56640983e-01 -1.10693002e+00 -1.08355999e+00 -1.02724004e+00
      -8.09776008e-01 2.50153005e-01 -1.18710005e+00 2.34337002e-01
      -6.66015983e-01 1.75484002e-01 -1.49689004e-01 6.62154973e-01
      -6.54174984e-01 5.01106024e-01 -2.74567008e-01 1.56111002e+00 0.
      0. 5.91643989e-01 9.81987000e-01 2.01812997e-01 8.50380003e-01
      -8.25882018e-01 7.65686035e-02 -3.16116005e-01 -1.40029997e-01
      1.00616001e-01 -1.15672004e+00 3.64410013e-01 -8.42285007e-02
      1.63875997e+00 -9.98229980e-01 1.98889005e+00 -1.69673002e+00
      3.28322005e+00 -2.20093012e+00 2.82289004e+00 -3.77425998e-01
      1.50358999e+00 4.56634998e-01 1.18534994e+00 3.89999002e-01
      -5.06591983e-02 1.24733996e+00 -4.31320012e-01 1.16322005e+00
      -6.72890007e-01 9.83307004e-01 2.04009991e-02 2.15758998e-02
      2.95852989e-01 1.05239999e+00 2.50777006e+00 1.96152002e-01
      3.11803007e+00 -1.36083996e+00 1.57938004e+00 1.85883000e-01
      1.24506998e+00 1.06848001e+00 9.53536987e-01 9.86908019e-01</_>
    <_>
      2.86954999e+00 -7.19220018e+00 9.56493020e-01 -8.22212029e+00
      2.49504000e-01 -7.96058989e+00 7.30740011e-01 -6.44198990e+00
      -1.29234001e-01 -5.97023010e+00 2.54231000e+00 -5.23722982e+00
      1.43232000e+00 -4.06844997e+00 2.76888990e+00 -3.94897008e+00
      4.25873011e-01 -4.73873997e+00 -1.80884004e+00 -5.23526001e+00
      -2.48964000e+00 -4.35868979e+00 -1.87772000e+00 -5.80637980e+00
      -7.95593023e-01 -4.69512987e+00 -6.58325016e-01 -4.79246998e+00
      -1.51812994e+00 -4.91009998e+00 -2.29126000e+00 -2.61936998e+00
      -3.02996993e+00 -1.55127001e+00 2.40021992e+00 -1.25669003e+00
      3.35628009e+00 -4.73021001e-01 1.46566999e+00 5.69153018e-02
      6.37221992e-01 -8.93284023e-01 -2.26868004e-01 -7.07497001e-01
      -1.41144007e-01 -1.37615001e+00 4.30144995e-01 -8.29634011e-01
      -2.73483008e-01 -3.34113985e-01 -1.06754005e+00 -9.73244011e-02
      -6.27288997e-01 9.79816020e-01 1.07605003e-01 1.45463002e+00
      -1.77689001e-01 -3.00819010e-01 -4.45160002e-01 3.87787014e-01
      -7.30422974e-01 -1.62848994e-01 7.86987007e-01 -1.32880998e+00
      -8.32062006e-01 -1.20150995e+00 -1.21186996e+00 -1.09203994e+00
      -2.79398990e+00 3.95599008e-01 -3.10245991e+00 6.42731011e-01 0.
      0. 8.98819029e-01 -1.98918998e+00 1.65625000e+00 -1.75739002e+00
      2.32453990e+00 3.12160993e+00 1.53143001e+00 4.02580023e+00
      -1.67004001e+00 3.81184006e+00 -1.10063004e+00 4.22836018e+00
      -1.45886004e+00 -1.87031001e-01 5.19973993e-01 -7.48061994e-03 0.
      0. 1.59995997e+00 3.36607003e+00 8.60367000e-01 4.37349987e+00
      -1.16315002e+01 -6.58480978e+00 -8.26955986e+00 -7.26596022e+00
      -3.75751996e+00 -6.93213987e+00 -1.71111000e+00 -6.87490988e+00
      1.62926996e+00 -7.85042000e+00 4.75944996e+00 -6.56932020e+00
      6.56120014e+00 -5.44239998e+00 4.52762985e+00 2.12249994e-01
      2.49533010e+00 1.13426006e+00 -8.27225029e-01 -2.65457004e-01
      -4.09631014e+00 8.47716987e-01 -7.29654980e+00 -4.84389991e-01
      -1.05974998e+01 -5.20417976e+00 -3.90018010e+00 -2.38817000e+00
      -1.83590996e+00 -3.50132990e+00 1.48664999e+00 -3.30646992e+00
      5.59855986e+00 -4.27573013e+00 1.46882999e+00 -2.13604999e+00
      -1.85376000e+00 -2.33095002e+00 -2.71318007e+00 -2.42259002e+00</_>
    <_>
      3.14602995e+00 -4.50061989e+00 3.31009007e+00 -3.75108004e+00
      2.51169991e+00 -3.97432995e+00 1.70817006e+00 -4.19252014e+00
      -8.84208977e-02 -2.51636004e+00 -1.00381005e+00 -2.76572990e+00
      -2.96325994e+00 -1.58417001e-01 -4.02643013e+00 1.51144004e+00
      -4.21881008e+00 2.24892998e+00 -2.54231000e+00 2.07961988e+00
      -1.83889997e+00 1.01894999e+00 -1.14084005e+00 4.10461007e-03
      -4.33043987e-01 -9.19005990e-01 -6.57684028e-01 -2.72312999e+00
      -1.82467997e+00 -3.54425001e+00 -2.01901007e+00 -4.34488010e+00
      -3.13811988e-01 -3.21532011e+00 1.89805996e+00 -1.60432005e+00
      1.70448005e+00 3.09596986e-01 6.05086982e-01 -7.70905018e-01
      -4.53330994e-01 1.28440997e-02 4.33822989e-01 -1.12831998e+00
      1.15832996e+00 -2.32128000e+00 1.91764998e+00 -2.40381002e+00
      7.87627995e-01 -1.56950998e+00 6.56036019e-01 -7.70627975e-01
      -3.05449992e-01 -9.64206994e-01 4.45389003e-01 -4.30534005e-01
      -3.84155005e-01 -5.41908026e-01 -2.61337012e-01 -1.60567999e+00
      -1.38519004e-01 -1.71705997e+00 -8.51669014e-01 -1.69028997e+00
      -9.02145028e-01 -1.77205002e+00 -1.92028999e+00 -9.06615973e-01
      -2.01161003e+00 -9.68216002e-01 -2.10297990e+00 -1.02982998e+00 0.
      0. -1.11771002e-01 -5.15213013e-02 7.59621024e-01 -1.43630996e-01
      1.67191994e+00 -2.66068012e-01 8.15932989e-01 7.53036022e-01
      -4.01381999e-02 -1.12259001e-01 2.78854012e-01 -1.66390002e+00
      1.09897006e+00 -7.42797971e-01 1.00781000e+00 -8.34945977e-01 0.
      0. 1.01608001e-01 5.14678992e-02 1.92794994e-01 1.43638998e-01
      -2.42448997e+00 -2.80899000e+00 -5.44434023e+00 -1.90839005e+00
      -5.55618000e+00 -9.97359991e-01 -6.56409979e+00 -1.31835997e-01
      -7.61292982e+00 -1.14075994e+00 -8.64109993e+00 6.46453977e-01
      -1.06265001e+01 4.83047009e-01 -9.52169991e+00 1.50753999e+00
      -9.41512966e+00 1.58448994e+00 -8.37656021e+00 1.65118003e+00
      -6.39581013e+00 7.75588989e-01 -5.36238003e+00 -1.04724002e+00
      -2.46507001e+00 -1.88736999e+00 -5.49984980e+00 -1.05305004e+00
      -6.52315998e+00 -1.72379002e-01 -8.51918030e+00 -2.44140998e-01
      -1.15483999e+01 5.13778985e-01 -8.52939034e+00 1.66055000e+00
      -7.48061991e+00 7.74901986e-01 -7.41984987e+00 8.46526980e-01</_>
    <_>
      -2.80342007e+00 2.90291011e-01 -1.99845999e-01 1.05191004e+00
      -2.92319991e-02 1.77713001e+00 1.69093996e-01 1.26909006e+00
      2.57167995e-01 7.20963001e-01 -1.00846004e+00 -1.06106997e+00
      -1.22475004e+00 -2.76424003e+00 -2.68402010e-01 -5.63428020e+00
      4.81537014e-01 -7.15053988e+00 1.12065005e+00 -7.32553005e+00
      4.99619007e-01 -6.13948011e+00 -2.48721004e+00 -4.95183992e+00
      -5.41199017e+00 -4.82314014e+00 -5.86136007e+00 -3.27440000e+00
      -6.17934990e+00 -2.78966999e+00 -4.14168978e+00 1.19179003e-01
      -4.45020008e+00 5.87112010e-01 -3.16553998e+00 -5.53866005e+00
      -2.27534008e+00 -7.78176022e+00 -3.73611003e-01 -4.23222017e+00
      -2.04469991e+00 3.11295003e-01 -2.39140010e+00 2.39184999e+00
      4.21037006e+00 2.28454995e+00 1.45474005e+00 -2.54694015e-01
      1.20414996e+00 -5.21462011e+00 2.12197995e+00 -6.63608980e+00
      3.11362004e+00 -4.55708981e+00 1.10968006e+00 1.96408999e+00
      1.31532001e+00 4.54872012e-01 1.54647994e+00 -2.24453998e+00
      1.75211000e+00 -3.75374007e+00 4.49760008e+00 2.23860002e+00
      2.00465012e+00 -3.73733997e-01 -5.58288991e-01 -5.72082996e-01
      -3.20357990e+00 5.20476997e-01 -4.66739988e+00 2.83823991e+00 0.
      0. -1.39831996e+00 -3.60183001e+00 7.47031987e-01 -3.68355989e+00
      4.83642995e-01 8.53271008e-01 7.04819024e-01 2.11634994e+00
      -2.67301989e+00 3.35329008e+00 -5.09140015e-01 3.36937010e-01
      -1.89873004e+00 -4.46457005e+00 1.42808998e+00 -3.32112002e+00 0.
      0. 1.37858999e+00 2.45254993e+00 -1.94824004e+00 1.30905998e+00
      8.76224995e+00 5.50154018e+00 8.37469959e+00 5.48198986e+00
      2.09222007e+00 4.05124998e+00 -5.12955010e-01 5.03365993e+00
      -5.52856016e+00 3.64958000e+00 -1.18379002e+01 5.66248989e+00
      -1.68237000e+01 4.02954006e+00 -1.26767998e+01 -3.03970003e+00
      -6.33385992e+00 -4.00619984e+00 -1.25993001e+00 -4.97629976e+00
      3.73592997e+00 -4.74152994e+00 7.54533005e+00 -3.23703003e+00
      7.51499987e+00 3.01243997e+00 2.15207005e+00 5.09036016e+00
      -4.37088013e-01 4.89932013e+00 -4.30405998e+00 5.90433979e+00
      -1.54905005e+01 2.93118000e+00 -5.17065001e+00 -6.18375015e+00
      -1.22253001e-01 -5.96361017e+00 3.68266010e+00 -6.93724012e+00</_>
    <_>
      -2.49004006e+00 -1.11162996e+00 -1.21833003e+00 5.33600003e-02
      -1.16497004e+00 1.27172995e+00 -1.16496003e+00 1.27170002e+00
      1.06728002e-01 2.43668008e+00 2.54344010e+00 2.32999992e+00
      1.37846005e+00 3.60172009e+00 2.54343009e+00 2.33001995e+00
      1.32507002e+00 2.38333011e+00 1.27172995e+00 1.16500998e+00
      1.27171004e+00 1.16500998e+00 1.21832001e+00 -5.33295013e-02 0.
      3.05176000e-05 -3.05176000e-05 3.05176000e-05 -1.21837997e+00
      5.33600003e-02 -1.27170002e+00 -1.16498995e+00 -1.27175999e+00
      -1.16498995e+00 -1.16498995e+00 1.27172005e+00 -2.38333988e+00
      1.32508004e+00 -1.16498995e+00 1.27171004e+00 -1.16498005e+00
      1.27171004e+00 5.33904992e-02 1.21834004e+00 5.33447005e-02
      1.21835005e+00 5.33447005e-02 1.21835995e+00 -1.16500998e+00
      1.27170002e+00 -1.16504002e+00 1.27171004e+00 -1.16504002e+00
      1.27171004e+00 5.33295013e-02 1.21834004e+00 1.06705002e-01
      2.43668008e+00 5.33751994e-02 1.21834004e+00 3.05176000e-05 0.
      -1.16496003e+00 1.27171004e+00 -1.16498005e+00 1.27170002e+00
      -1.16498995e+00 1.27172995e+00 5.33600003e-02 1.21834004e+00
      5.33600003e-02 1.21835005e+00 0. 0. 0. 7.62938998e-06
      -1.52588000e-05 0. 5.33600003e-02 1.21834004e+00 5.33600003e-02
      1.21835005e+00 0. 0. -1.16498995e+00 1.27171004e+00
      -1.16498005e+00 1.27171004e+00 -1.16500998e+00 1.27171004e+00 0.
      0. -1.52588000e-05 7.62938998e-06 5.33600003e-02 1.21835005e+00
      1.27170002e+00 1.16498005e+00 1.27170002e+00 1.16500998e+00
      1.27168000e+00 1.16498995e+00 1.06705002e-01 2.43671989e+00
      -1.16500998e+00 1.27173996e+00 5.33751994e-02 1.21835005e+00
      -1.11161995e+00 2.49005008e+00 5.33904992e-02 1.21834004e+00
      3.05176000e-05 0. 5.33600003e-02 1.21834004e+00 1.21836996e+00
      -5.33447005e-02 1.27172995e+00 1.16501999e+00 1.27172995e+00
      1.16500998e+00 1.27172995e+00 1.16498005e+00 1.52588000e-05
      1.52588000e-05 -1.16496003e+00 1.27172995e+00 5.33600003e-02
      1.21835005e+00 -1.16498995e+00 1.27170002e+00 -1.21834004e+00
      5.33600003e-02 1.21836996e+00 -5.33142015e-02</_>
    <_>
      -5.10643005e-01 -5.99126005e+00 3.92271012e-01 -5.24877977e+00
      9.78240967e-02 -6.78853989e+00 -2.18895003e-01 -6.00815010e+00
      5.86933017e-01 -6.38010979e+00 -9.79004025e-01 -4.36421013e+00
      -2.98866004e-01 -3.35830998e+00 -8.15124989e-01 -3.33997011e+00
      -2.46763992e+00 -1.97458005e+00 -6.32187009e-01 -2.83227992e+00
      -9.88770008e-01 -3.57083011e+00 -1.24017000e+00 -3.10521007e+00
      -1.32675004e+00 -3.75571990e+00 -2.40868998e+00 -3.26220989e+00
      -2.25583005e+00 -2.77672005e+00 -2.08074999e+00 -2.32138991e+00
      -1.86087000e+00 -1.88874996e+00 6.00887001e-01 -1.95723999e+00
      1.59797001e+00 -1.69432998e+00 1.54816002e-01 -3.60244989e-01
      9.63325977e-01 -3.20621014e-01 6.26555979e-01 -3.18423986e-01
      -8.19092020e-02 6.04019016e-02 -2.97134012e-01 3.38705003e-01
      -1.70998001e+00 5.87431014e-01 -2.02346992e+00 -4.35817987e-01
      -1.20789003e+00 -1.60114002e+00 1.25411999e+00 -1.63221002e+00
      1.10222995e+00 -8.22951972e-01 -2.09594995e-01 -2.29620004e+00
      -3.61449987e-01 -2.63193989e+00 -1.61667004e-01 -1.83249998e+00
      -3.41156006e-01 -1.81636000e+00 6.09435976e-01 -1.79264998e+00
      -6.84296012e-01 -1.64200997e+00 -8.18068981e-01 -1.49892998e+00 0.
      0. 9.88997996e-01 3.60825992e+00 -4.02289987e-01 3.71463990e+00
      4.73228008e-01 -2.02375007e+00 -4.70795006e-01 -1.03717995e+00
      -2.47008994e-01 -1.15090001e+00 -4.96459991e-01 -1.53095996e+00
      5.00365973e-01 4.41972017e+00 -8.75762999e-01 5.70098019e+00 0. 0.
      -9.81658995e-01 -1.95648000e-01 -7.42981017e-01 -3.16947997e-01
      -2.11296007e-01 -3.70314002e+00 7.70599008e-01 -1.18000996e+00
      1.77453995e+00 -2.15949988e+00 -7.32223988e-01 -2.10570002e+00
      -8.65981996e-01 -1.96259999e+00 -1.11275995e+00 -3.07608008e+00
      -2.58673000e+00 -1.87653005e+00 -1.24115002e+00 -2.10981989e+00
      -2.21499991e+00 -2.25313997e+00 2.53845006e-01 -2.38155007e+00
      4.40445006e-01 -2.45760989e+00 6.49536014e-01 -2.52631998e+00
      -1.45318997e+00 -2.49012995e+00 5.53924978e-01 -2.27124000e+00
      3.67325008e-01 -2.19517994e+00 -2.10153008e+00 -2.06680012e+00
      -2.48230004e+00 -1.92960000e+00 -2.10153008e+00 -2.06680012e+00
      -7.92617977e-01 -2.18761992e+00 5.53924978e-01 -2.27124000e+00</_>
    <_>
      3.08528996e+00 -4.00990009e+00 1.77089000e+00 -4.43056011e+00
      4.05086994e-01 -4.82909012e+00 3.47824007e-01 -4.04285002e+00
      2.23049000e-01 -3.21537995e+00 1.19935000e+00 -3.63598990e+00
      9.27390993e-01 -1.41085994e+00 5.23956001e-01 -3.11004996e-01
      -2.45183992e+00 1.02587998e+00 -6.80015993e+00 1.16272001e-02
      -8.49967957e+00 2.80822992e-01 -7.62487984e+00 5.43594003e-01
      -5.25540018e+00 3.34258008e+00 -4.17409992e+00 2.48679996e+00
      -4.36611986e+00 4.43282992e-01 -1.93950999e+00 7.86872983e-01
      -2.02331996e+00 1.27029000e-02 -8.88565004e-01 -2.09066010e+00
      5.27877994e-02 -3.12981009e+00 -1.51679003e+00 -1.75295997e+00
      -1.85683000e+00 -5.34224987e-01 -3.37297010e+00 1.88577998e+00
      4.71274996e+00 2.90710002e-01 1.78836000e+00 -6.85202003e-01
      4.91333008e-03 -4.31550980e+00 -3.72833014e-01 -4.37208986e+00
      -6.40685976e-01 -4.59784985e+00 -5.61523018e-03 1.42547995e-01
      -1.20086996e-02 -1.41021997e-01 -1.69524997e-02 -4.06975001e-01
      -1.27956998e+00 -6.36718988e-01 -9.72625971e-01 -2.24329996e+00
      -1.09955001e+00 -1.02497995e+00 -1.22656000e+00 1.93375006e-01
      -1.48891997e+00 -1.00953996e+00 -1.71603000e+00 -2.21544003e+00 0.
      0. -2.18674004e-01 1.42943993e-01 -4.30779010e-01 1.40404999e+00
      -7.25799978e-01 2.63748001e-02 -4.83489990e-01 -4.75769006e-02
      -2.19078004e-01 -7.01064989e-02 7.24289000e-01 -4.39986996e-02
      4.73372996e-01 1.37199000e-01 1.53595001e-01 -1.11407006e+00 0. 0.
      1.44408000e+00 -1.40883997e-01 1.71001005e+00 -1.45821005e-01
      6.28929019e-01 -3.03687000e+00 4.31259006e-01 -3.56415004e-01
      -1.01032996e+00 1.06280994e+00 -2.37589002e+00 2.33349991e+00
      -1.36442995e+00 1.07524002e+00 -2.89558005e+00 1.02822995e+00
      -2.12877989e+00 -2.89054990e+00 -2.84369993e+00 2.05370998e+00
      -1.27223003e+00 3.19827008e+00 -1.04208004e+00 4.43943977e+00
      3.38057995e-01 3.13203001e+00 5.35552979e-01 1.90767002e+00
      5.59356987e-01 -1.77014005e+00 -9.71542001e-01 2.14273000e+00
      -2.44177008e+00 9.36263978e-01 -2.56418991e+00 2.20748997e+00
      -7.12952018e-01 -1.69719994e+00 -1.20033002e+00 4.66605997e+00
      -1.02408004e+00 4.65102005e+00 3.92318994e-01 4.60126019e+00</_>
    <_>
      3.82866001e+00 -1.11207998e+00 2.79003000e+00 -2.66739988e+00
      1.66252005e+00 -2.15279007e+00 2.59491992e+00 -3.67140007e+00
      2.41616011e+00 -2.06998992e+00 3.18594003e+00 -2.48118997e+00
      1.73841000e+00 -1.80682003e+00 1.24910998e+00 -1.00635004e+00
      -1.42004001e+00 -1.12476003e+00 -2.02608991e+00 -2.13198996e+00
      -2.56840992e+00 -3.00454998e+00 -9.75952029e-01 -3.70357990e+00
      -2.96416998e-01 -4.31110001e+00 1.57528996e+00 -4.82081985e+00
      1.42490005e+00 -5.31841993e+00 1.32480001e+00 -5.83154011e+00
      -8.19518983e-01 -4.26119995e+00 -2.70767999e+00 -2.72422004e+00
      -3.02521992e+00 -1.38685000e+00 -1.37829995e+00 8.14709008e-01
      -8.28109980e-01 4.94235992e+00 -2.30805993e+00 9.97628975e+00
      4.28352022e+00 6.94052982e+00 2.83104992e+00 2.92683005e+00
      2.41968989e+00 -2.23653007e+00 2.00635004e+00 -5.49474001e+00
      6.30096018e-01 -3.74129009e+00 5.52947998e-01 3.22234011e+00
      5.71731985e-01 1.82855999e+00 5.79223990e-01 1.47878003e+00
      -4.29306000e-01 7.41119012e-02 -9.37820017e-01 -1.33652997e+00
      -1.48665994e-01 -2.39164996e+00 -4.08737004e-01 -1.40295005e+00
      -6.75948977e-01 -1.37537003e+00 1.01212002e-01 -1.35312998e+00 0.
      0. 7.28637993e-01 1.24872005e+00 3.78838003e-01 1.24120998e+00
      7.37914965e-02 1.99563003e+00 -6.52648985e-01 1.94114995e+00
      -2.74917990e-01 9.05036986e-01 -9.87854004e-02 2.01413989e+00
      6.23016000e-01 2.28513002e+00 2.84530997e-01 1.23362994e+00 0. 0.
      2.58011013e-01 9.16465998e-01 6.07833982e-01 9.23964977e-01
      5.59943974e-01 -9.87807989e-01 1.24416995e+00 -1.81186998e+00
      9.08173025e-01 -1.68575001e+00 -3.84232014e-01 -1.76902997e+00
      -6.52130008e-01 -1.70810997e+00 1.19628999e-02 -1.85496998e+00
      6.89163029e-01 -3.12909007e+00 1.06492996e+00 -2.26007009e+00
      -1.68329000e+00 -2.31900001e+00 -3.56139988e-01 -2.30165005e+00
      -7.33184963e-02 -2.27894998e+00 2.41340995e-01 -2.18888998e+00
      4.20967013e-01 -2.01835990e+00 9.30939019e-01 -1.96853995e+00
      -3.90121013e-01 -9.74883974e-01 -6.62734985e-01 -1.99161994e+00
      2.91007996e+00 -3.08698010e+00 -6.35132015e-01 -3.01862001e+00
      -3.51639003e-01 -3.02919006e+00 9.58145022e-01 -2.97887993e+00</_>
    <_>
      -6.99178994e-01 -7.72689998e-01 -4.73610014e-01 -1.00037003e+00
      -3.13005000e-01 -1.42959997e-01 -7.89756998e-02 -1.48833001e+00
      6.86606988e-02 -1.75722003e+00 -9.98817027e-01 -1.01719999e+00
      -1.02244997e+00 -1.35479999e+00 -2.25100994e+00 -6.09833002e-01
      -2.44603992e+00 -8.91906977e-01 -5.09582996e-01 -1.00983000e+00
      -1.91331005e+00 -1.12313998e+00 -2.19701004e+00 -2.24363995e+00
      -2.52936006e+00 -1.08693004e+00 -2.76443005e+00 -2.04378009e+00
      -3.05230999e+00 -7.74749994e-01 -1.08626997e+00 -5.32775998e-01
      8.92578006e-01 -2.60803014e-01 9.70572978e-02 -1.86511004e+00
      -1.72675997e-01 -7.77710021e-01 -3.75580013e-01 -9.28719997e-01
      -1.56680000e+00 -2.27168012e+00 -5.38878977e-01 -2.47322011e+00
      2.43405008e+00 -1.59362996e+00 2.23365998e+00 -1.66409004e+00
      9.27811027e-01 -7.26445973e-01 -2.80487001e-01 -9.30324972e-01
      -2.46857002e-01 -1.12563002e+00 5.01372993e-01 -5.61958015e-01
      -4.81445014e-01 3.51195991e-01 -2.97226012e-01 -8.94791007e-01
      -1.41144007e-01 -1.06084001e+00 1.68060005e-01 -9.76547003e-01
      1.16791002e-01 -1.09657001e+00 2.11028997e-02 -1.08383000e-01
      -1.14974999e+00 -1.30395997e+00 -1.22008002e+00 -2.44824004e+00 0.
      0. -1.80739999e-01 -3.27414982e-02 -3.04001004e-01 -1.71669006e-01
      -2.99484015e-01 -3.68743986e-01 -1.94907993e-01 8.14163029e-01
      -3.49655002e-02 -1.48261994e-01 3.55087012e-01 -8.04588020e-01
      -9.43297982e-01 -8.45767975e-01 -1.09636998e+00 1.24362998e-01 0.
      0. 1.22497998e-01 2.92664003e-02 -8.18953991e-01 -9.69878972e-01
      3.79498005e+00 3.38437009e+00 1.56096005e+00 -1.17091000e+00
      3.40485007e-01 -2.39134002e+00 2.95181006e-01 -2.48906994e+00
      1.95861995e-01 -2.53888011e+00 1.01868004e-01 -1.57983005e+00
      -3.45741010e+00 4.76990986e+00 -1.00741994e+00 2.66564989e+00
      -8.35372984e-01 1.62355006e+00 -7.07931995e-01 5.93398988e-01
      -6.33468986e-01 6.92870975e-01 5.31982005e-01 8.79593015e-01
      3.78290009e+00 2.24359012e+00 -7.13562012e-01 -1.38748002e+00
      3.20221007e-01 -1.44246995e+00 -8.94011974e-01 -4.48211998e-01
      -3.37962008e+00 3.71485996e+00 -8.86291981e-01 -4.55031991e-01
      3.35678011e-01 -1.45618999e+00 -6.98104978e-01 -1.40117002e+00</_>
    <_>
      -9.38355982e-01 3.01070988e-01 2.79540986e-01 -7.34802008e-01
      4.74505991e-01 -2.79349995e+00 6.75354004e-01 -3.84117007e+00
      -1.17556000e+00 -4.90653992e+00 -1.02839994e+00 -5.01971006e+00
      -1.93989003e+00 -7.21985006e+00 -8.53088021e-01 -9.44332981e+00
      -8.36624026e-01 -1.06792002e+01 -8.61495972e-01 -1.08978004e+01
      -2.97345996e+00 -1.10924997e+01 -2.06989002e+00 -9.23526001e+00
      -2.22427011e+00 -8.33563042e+00 -2.41375995e+00 -7.37080002e+00
      -4.64294004e+00 -4.33647013e+00 -2.79831004e+00 -3.34208989e+00
      -1.97650003e+00 -2.33581996e+00 -3.15644002e+00 3.20523000e+00
      -2.18429998e-01 8.19612980e+00 -2.60619998e-01 1.31393003e+01
      -2.55652994e-01 1.60305004e+01 1.81876004e+00 1.28198004e+01
      -1.21571004e+00 1.46288996e+01 -2.27493000e+00 1.44813004e+01
      -3.29871011e+00 1.02538996e+01 -1.22426999e+00 4.00403023e+00
      1.93844998e+00 -1.17014003e+00 9.37119007e-01 3.55392003e+00
      1.04946995e+00 3.55328012e+00 1.38962001e-01 2.54161000e+00
      2.57171988e-01 1.51803005e+00 3.46276999e+00 6.65695012e-01
      1.44608998e+00 5.88760018e-01 -5.76461971e-01 -5.11017025e-01
      -1.61164999e+00 -5.93734980e-01 -2.64090991e+00 3.46451014e-01 0.
      0. -5.96008003e-02 9.34539974e-01 -6.61087036e-02 -1.88812003e-01
      1.02118003e+00 7.27226019e-01 -9.88463998e-01 8.33504021e-01
      -9.81926024e-01 9.39880013e-01 -1.00934005e+00 1.31254995e+00
      -5.79833984e-02 1.21243000e+00 -5.86243011e-02 1.10599005e+00 0.
      0. -9.80971992e-01 1.10544002e+00 -9.86252010e-01 1.21190000e+00
      5.80510998e+00 -6.28337002e+00 3.70539999e+00 -3.36216998e+00
      6.06536984e-01 -3.47423005e+00 6.23749018e-01 -3.56891990e+00
      -3.46825004e+00 -3.65157008e+00 -6.48436022e+00 -4.78107977e+00
      -8.45398998e+00 -6.94544983e+00 -7.38898993e+00 -7.83855009e+00
      -3.29685998e+00 -6.71529007e+00 -2.39563003e-01 -6.62664986e+00
      1.79491997e+00 -6.53204012e+00 2.80075002e+00 -5.39673996e+00
      4.78789997e+00 -5.31371021e+00 6.83411002e-01 -4.49161005e+00
      -3.34105998e-01 -4.58620024e+00 -3.39141989e+00 -4.67488003e+00
      -7.43079996e+00 -4.86426020e+00 -2.36858010e+00 -7.73174000e+00
      6.94640994e-01 -6.62613010e+00 1.70624995e+00 -6.53148985e+00</_>
    <_>
      8.76779974e-01 -6.84401989e-01 -6.21454000e-01 -1.34706998e+00
      -9.54369009e-01 -3.27837992e+00 -9.48752984e-02 -5.20743990e+00
      -1.87191999e+00 -7.01730013e+00 -2.54924989e+00 -9.95217991e+00
      -8.01856995e-01 -1.14974003e+01 -3.35541010e-01 -1.28032999e+01
      -1.22872996e+00 -1.38404999e+01 -7.55737007e-01 -1.34509001e+01
      -1.31113994e+00 -1.16648998e+01 -1.69373000e+00 -9.73497009e+00
      -1.76416004e+00 -5.21055984e+00 -4.20837021e+00 -3.13740993e+00
      -4.04207993e+00 -1.17374003e+00 -3.82272005e+00 2.05101991e+00
      -2.27124000e+00 3.97478008e+00 -1.87857997e+00 -3.44020009e+00
      3.71459991e-01 -2.99826002e+00 1.20257998e+00 -2.10107997e-01
      7.31383979e-01 3.71900010e+00 2.62013006e+00 -8.33244026e-02
      -5.93976021e+00 3.67900997e-01 -2.53768992e+00 3.18043995e+00
      -1.83333004e+00 2.11349010e+00 9.13086012e-02 -1.67244995e+00
      2.11307001e+00 -3.20082998e+00 6.99492991e-01 3.31384993e+00
      1.84133995e+00 4.13923979e+00 1.66803002e+00 2.47609997e+00
      1.50311005e+00 3.31209993e+00 6.93283021e-01 1.37989998e+00
      3.32886010e-01 1.73782006e-01 1.24425995e+00 2.21221998e-01
      -3.20908010e-01 4.17571992e-01 -5.88195980e-01 1.85775995e+00 0.
      0. -3.70148003e-01 -4.74737978e+00 1.78016996e+00 -3.37457991e+00
      1.44194996e+00 2.82850003e+00 5.16861022e-01 1.38610995e+00
      -3.88747990e-01 -3.97490989e-03 -1.40867996e+00 2.13389993e+00
      -1.77569997e+00 -2.52528000e+00 -9.06906009e-01 -2.43220997e+00 0.
      0. 2.65060008e-01 -2.47771993e-01 -5.50536990e-01 9.20219004e-01
      -1.78457999e+00 -4.78595018e+00 -8.68362010e-01 -5.60418987e+00
      3.68041992e-02 -3.97563004e+00 -3.07190001e-01 -5.21766996e+00
      -5.38573980e-01 -3.76109004e+00 -1.08823001e+00 -5.07540989e+00
      -3.26691002e-01 -5.27002001e+00 -1.40335000e+00 -9.51552963e+00
      -1.07046998e+00 -1.10993004e+01 -7.83661008e-01 -1.24872999e+01
      8.55057001e-01 -1.00895996e+01 -1.13032997e+00 -8.78330994e+00
      -2.00353003e+00 -4.73403978e+00 -8.46405029e-02 -1.90469003e+00
      -3.82079989e-01 -1.82354999e+00 -6.60018981e-01 -1.69014001e+00
      -1.27196997e-01 -5.37412977e+00 -7.95211971e-01 -8.04436016e+00
      -5.44312000e-01 -9.44863987e+00 -2.19863996e-01 -8.25893974e+00</_>
    <_>
      4.46547002e-01 1.21797001e+00 4.23197001e-01 2.18311000e+00
      3.90597999e-01 6.88889027e-01 3.21536988e-01 4.32815999e-01
      2.43194997e-01 1.85760006e-01 1.00601003e-01 -2.58025993e-02
      -1.15662001e-01 -1.83868006e-01 -1.59875000e+00 -2.87750006e-01
      -6.33102000e-01 -3.00781012e-01 3.40591013e-01 -2.40906000e-01
      1.11175999e-01 -1.25870004e-01 -1.33023000e+00 1.26461995e+00
      -2.22381994e-01 1.49046004e+00 -2.80517995e-01 1.72639000e+00
      -3.29558998e-01 1.96248996e+00 -3.69536996e-01 9.69115973e-01
      -1.62091005e+00 -2.39182003e-02 1.49168003e+00 -2.32789993e+00
      2.56446004e+00 2.74657995e-01 1.13372004e+00 3.26418012e-01
      9.15359020e-01 1.54368997e+00 7.15775013e-01 2.56480992e-01
      -7.59459972e-01 2.34706998e-01 -9.60648000e-01 1.52511001e+00
      -1.15209997e+00 3.01779002e-01 -1.34253001e+00 2.44315997e-01
      -1.45895004e+00 -1.12363005e+00 -6.47536993e-01 1.29289997e+00
      -6.54372990e-01 1.13797998e+00 -6.61194026e-01 9.83047009e-01
      -6.67877018e-01 8.18984985e-01 7.73787975e-01 -5.89721978e-01
      6.83166981e-01 -6.18377984e-01 -6.55395985e-01 5.91445982e-01
      -7.37700999e-01 -6.21140003e-01 -8.29223990e-01 6.43523991e-01 0.
      0. -9.20028985e-02 -2.40591002e+00 2.24860001e+00 -2.38959002e+00
      8.56185973e-01 1.23313999e+00 9.93088007e-01 -2.17819009e-02
      -1.08710997e-01 -3.80478017e-02 -8.74130011e-01 1.21670997e+00
      -9.75432992e-01 -2.40984988e+00 1.26617000e-01 -1.17309999e+00 0.
      0. 1.09802000e-01 -3.48206013e-02 -9.92172003e-01 -4.19845991e-02
      -2.86666989e-01 1.52593994e+00 7.96127021e-01 3.66973996e-01
      6.77062988e-01 4.10735995e-01 5.95444024e-01 -8.47382009e-01
      4.94812012e-01 4.17174995e-01 3.86047006e-01 3.79135013e-01
      2.41226003e-01 1.55193996e+00 -8.50890994e-01 2.60695994e-01
      -7.41271973e-01 -9.94629025e-01 5.88469982e-01 -9.93210018e-01
      6.79534972e-01 -9.91882026e-01 7.97806025e-01 -9.81018007e-01
      -3.41414988e-01 1.53422999e+00 6.87346995e-01 -9.00681019e-01
      5.87203979e-01 3.27454001e-01 4.95894998e-01 3.44345003e-01
      3.04901004e-01 3.23318005e-01 -7.33642995e-01 -8.94317985e-01
      -6.51489019e-01 3.27392995e-01 -5.51422000e-01 -9.00741994e-01</_>
    <_>
      1.45934999e+00 7.13675976e-01 7.65113980e-02 5.74081004e-01
      -1.69575006e-01 4.05777007e-01 -4.30079997e-01 2.38663003e-01
      -7.02624977e-01 1.01562999e-01 -1.04777002e+00 -1.08880997e+00
      -1.36126995e+00 -1.01935005e+00 -1.65439999e+00 -8.79088998e-01
      -1.91156006e+00 -6.54601991e-01 -2.12733006e+00 -3.68286014e-01
      -2.24643993e+00 -5.37414998e-02 -1.16457999e+00 2.19588995e-01
      -1.09631002e+00 5.18676996e-01 -2.08606005e+00 8.32718015e-01
      -7.56133974e-01 1.03472996e+00 -1.69724000e+00 1.32299995e+00
      -3.47443014e-01 1.50159001e+00 -8.02218974e-01 -4.97398004e-02
      -7.46635020e-01 1.32421994e+00 -8.74077022e-01 1.53790998e+00
      -1.10587001e+00 5.77584982e-01 -1.84799001e-01 6.61041021e-01
      6.73888981e-01 -2.73395985e-01 6.06383979e-01 1.10349000e+00
      -6.93283021e-01 1.35608006e+00 2.86559999e-01 2.58829999e+00
      -1.09280002e+00 2.66608000e+00 7.24258006e-01 1.73947001e+00
      -5.37322998e-01 1.66241002e+00 4.71024007e-01 1.48467004e+00
      3.37204009e-01 1.35790002e+00 3.34396005e-01 1.06064999e+00
      2.37075999e-01 1.11221004e+00 1.40975997e-01 1.17821002e+00
      7.72247016e-02 1.28506005e+00 2.01111007e-02 1.38408995e+00 0. 0.
      -1.17228997e+00 2.13043004e-01 9.93041992e-01 2.51628995e-01
      8.51180971e-01 1.43148994e+00 9.33539987e-01 1.28682005e+00
      1.04592001e+00 1.15418994e+00 3.61557007e-01 7.75443971e-01
      -8.59252989e-01 -1.24847002e-01 -2.11496997e+00 4.43192013e-02 0.
      0. -1.09650004e+00 -9.79766995e-02 -9.25369024e-01 9.18151975e-01
      1.29913002e-01 6.05926991e-01 1.02187999e-01 7.96844006e-01
      4.86298017e-02 9.39148009e-01 -4.09087986e-02 9.97344971e-01
      1.03754997e+00 1.05324996e+00 -2.29660004e-01 2.31166005e+00
      -4.85413015e-01 1.23725998e+00 -1.54876995e+00 1.10028005e+00
      -2.57735997e-01 2.06004000e+00 -2.21526995e-01 8.30901980e-01
      -1.32632005e+00 -3.32962006e-01 -7.48137981e-02 -4.65454012e-01
      1.21916997e+00 6.17416024e-01 -3.72009017e-02 8.66424978e-01
      -1.18911996e-01 9.31244016e-01 9.94872987e-01 2.11609006e+00
      -3.80385995e-01 2.33136010e+00 -2.42569000e-01 -1.25121996e-01
      -1.20086998e-01 9.16823983e-01 -1.18052995e+00 9.02939022e-01</_>
    <_>
      -1.04378998e+00 2.86951995e+00 -1.76108003e+00 3.90829992e+00
      -7.05572009e-01 4.06079006e+00 1.23636997e+00 5.08133984e+00
      2.31048012e+00 6.94237995e+00 2.53068995e+00 8.74384975e+00
      2.75584006e+00 1.04764004e+01 2.97673011e+00 1.30264997e+01
      3.17505002e+00 1.37440004e+01 2.46883988e+00 1.26702995e+01
      8.12072992e-01 9.81408978e+00 -9.08936024e-01 6.94849014e+00
      -1.82624996e+00 5.83690023e+00 -1.80969000e-01 5.62502003e+00
      1.43201005e+00 3.68161011e+00 1.28603995e+00 3.49712992e+00
      1.13074005e+00 1.57659996e+00 -2.06833005e-01 -8.74088001e+00
      -2.33425006e-01 -8.92471981e+00 -1.36147007e-01 -9.96214962e+00
      2.05764994e-02 -1.27031002e+01 -6.86233997e-01 -1.10351000e+01
      4.74775982e+00 -1.12040997e+01 3.96333003e+00 -1.13781996e+01
      3.20180011e+00 -9.78392982e+00 3.35848999e+00 -8.12975979e+00
      9.10492003e-01 -5.47884989e+00 3.83742988e-01 -2.24378991e+00
      4.84268010e-01 -2.14222002e+00 -2.92434990e-01 -2.91785002e+00
      6.89835012e-01 -3.68884993e+00 3.23280001e+00 3.59000993e+00
      1.57523000e+00 3.52162004e+00 -9.41192985e-01 1.69895995e+00
      -2.62151003e+00 2.46631002e+00 -3.43387008e+00 4.11999989e+00 0.
      0. 9.05357003e-01 -9.96468008e-01 1.87484002e+00 -2.83304000e+00
      2.88083005e+00 -1.11469996e+00 1.92967999e+00 7.31148005e-01
      9.64766979e-01 1.69514000e+00 -1.12189996e+00 2.51296997e-01
      -2.11852998e-01 -7.58895993e-01 -1.24146000e-01 -8.45710993e-01 0.
      0. -9.32723999e-01 1.83675003e+00 -1.02502000e+00 1.05093002e+00
      7.50869989e-01 4.83080006e+00 1.62447000e+00 6.39687014e+00
      2.54831004e+00 7.13651991e+00 1.78167999e+00 7.07281017e+00
      1.85109997e+00 6.96755981e+00 2.87556005e+00 6.03599977e+00
      3.07299995e+00 2.53285003e+00 2.99889994e+00 1.31781998e+01
      1.16125000e+00 1.67968006e+01 2.00942993e-01 1.68882008e+01
      9.76653993e-01 1.69703007e+01 8.70621026e-01 1.35389996e+01
      1.65591002e+00 6.53023005e+00 2.63053989e+00 8.09679985e+00
      1.84563005e+00 8.01461983e+00 1.92878997e+00 7.92323017e+00
      3.00855994e+00 6.06883001e+00 1.05612004e+00 1.49454002e+01
      9.73007023e-01 1.59139996e+01 1.75334001e+00 1.51142998e+01</_>
    <_>
      -2.79473990e-01 2.15586996e+00 7.98457980e-01 2.29558992e+00
      5.19001007e-01 4.45147991e+00 1.59694004e+00 4.59124994e+00
      2.67488003e+00 4.73095989e+00 3.89256001e+00 3.79278994e+00
      5.24994993e+00 1.77666998e+00 4.59121990e+00 -1.59688997e+00
      2.71480989e+00 -4.03225994e+00 4.19250011e-01 -3.23376012e+00
      -1.07792997e+00 -1.39708996e-01 -1.21765006e+00 9.38262999e-01
      -1.39708996e-01 1.07793999e+00 -1.39679000e-01 1.07793999e+00
      -1.39679000e-01 1.07796001e+00 1.07793999e+00 1.39748007e-01
      3.37353992e+00 -6.58737004e-01 3.79265010e-01 5.52941990e+00
      5.18989980e-01 4.45146990e+00 -4.19196993e-01 3.23379993e+00
      1.73669004e+00 3.51328993e+00 7.98461974e-01 2.29561996e+00 0. 0.
      9.38216984e-01 1.21765995e+00 7.98492014e-01 2.29560995e+00
      1.73669004e+00 3.51327991e+00 1.87643003e+00 2.43533993e+00
      2.79495001e-01 -2.15587997e+00 1.21766996e+00 -9.38210011e-01
      1.39754996e-01 -1.07790995e+00 1.52588000e-05 3.05176000e-05
      3.05176000e-05 1.52588000e-05 1.39754996e-01 -1.07790995e+00
      -9.38187003e-01 -1.21766996e+00 1.52588000e-05 -1.52588000e-05
      3.05176000e-05 0. 0. 0. 7.98461974e-01 2.29559994e+00
      9.38210011e-01 1.21766996e+00 2.79464990e-01 -2.15586996e+00
      1.35740995e+00 -2.01615000e+00 1.21765995e+00 -9.38202024e-01
      2.79464990e-01 -2.15587997e+00 0. 3.81469999e-06 -1.35736001e+00
      2.01613998e+00 0. 0. -9.38156009e-01 -1.21766996e+00
      2.79464990e-01 -2.15586996e+00 5.58945000e-01 -4.31173992e+00
      3.37357998e+00 -6.58752024e-01 1.07796001e+00 1.39786005e-01
      -1.39725000e-01 1.07799006e+00 1.52588000e-05 0. -9.38202024e-01
      -1.21762002e+00 1.77663004e+00 -5.24994993e+00 3.19411993e-01
      -1.09190998e+01 5.98861992e-01 -1.30749998e+01 1.67683005e+00
      -1.29351997e+01 2.75475001e+00 -1.27954998e+01 3.55322003e+00
      -1.04998999e+01 6.98669016e-01 -5.38964987e+00 2.01613998e+00
      1.35741997e+00 9.38216984e-01 1.21766996e+00 -1.39708996e-01
      1.07793999e+00 1.77664006e+00 -5.24993992e+00 1.67683005e+00
      -1.29351997e+01 2.89446998e+00 -1.38733997e+01 3.97242999e+00
      -1.37336998e+01</_>
    <_>
      -1.29840004e+00 3.82225007e-01 -1.03783000e+00 3.82766992e-01
      6.03533030e-01 3.48906994e-01 8.62263024e-01 3.04214001e-01
      -2.50782013e-01 2.36968994e-01 1.36138999e+00 4.56847996e-02
      1.57969999e+00 -1.55945003e-01 1.71689999e+00 -3.99536014e-01
      1.73816001e+00 -7.06328988e-01 1.69165003e+00 -1.01024997e+00
      1.54471004e+00 -1.27611005e+00 1.29780996e+00 -2.86331010e+00
      1.07641995e+00 -1.64191997e+00 -5.46051025e-01 -3.28644007e-01
      -8.07555974e-01 -3.51806998e-01 -1.05734003e+00 -3.64158988e-01
      8.64258036e-02 9.93416011e-01 -1.49717999e+00 1.60266995e+00
      -1.62722003e+00 1.47212005e+00 -1.69219005e+00 -1.00000001e-01
      -1.64407003e+00 1.06496000e+00 -1.59544003e+00 8.70346010e-01
      1.14355004e+00 5.30525029e-01 1.08989000e+00 3.28803986e-01
      1.05885005e+00 1.26166999e-01 1.08440006e+00 -7.88135976e-02
      1.21496999e+00 -2.08831996e-01 -1.62505992e-02 7.03086972e-01
      -1.20471001e+00 7.29568005e-01 -1.01196003e+00 2.10379004e+00
      -2.20041990e+00 2.13022995e+00 7.05658019e-01 2.27067995e+00
      6.90124989e-01 7.98523009e-01 -6.95343018e-01 -6.51000977e-01
      -2.05811000e+00 6.40213013e-01 -2.07410002e+00 5.27588010e-01 0.
      0. -3.90549004e-02 1.24784005e+00 -1.41505003e+00 1.12345004e+00
      -1.31886005e+00 9.83520985e-01 -1.27884996e+00 1.12915003e+00
      9.71451029e-02 1.25352001e+00 1.40980995e+00 3.94890010e-01
      1.33640003e+00 1.63282001e+00 -6.27136007e-02 1.27220005e-01 0. 0.
      7.29980022e-02 1.21596999e-01 4.56084982e-02 -1.08949995e+00
      1.05382001e+00 -2.70141989e-01 -3.90038013e-01 9.79094982e-01
      8.71078014e-01 -5.79819024e-01 9.00313973e-01 -6.94320977e-01
      8.95218015e-01 5.52093983e-01 9.56969976e-01 4.02267009e-01
      1.05362999e+00 2.73651004e-01 -1.86233997e-01 4.26880002e-01
      -1.57120004e-01 -7.86544979e-01 -1.18027002e-01 7.07260013e-01
      1.22261000e+00 -5.71700990e-01 1.17261004e+00 -4.11026001e-01
      1.07314003e+00 1.02059996e+00 1.04070997e+00 7.83996999e-01
      1.05867004e+00 6.69983029e-01 -3.61176014e-01 -7.89429009e-01
      1.05640996e+00 3.41536999e-01 1.03137004e+00 5.57830989e-01
      -3.44727010e-01 -6.65481985e-01 1.00723004e+00 -5.74158013e-01</_>
    <_>
      1.88759005e+00 -4.79220009e+00 6.96106017e-01 -4.13976002e+00
      1.76075006e+00 -2.29752994e+00 1.66823006e+00 -2.76180005e+00
      3.35175008e-01 -8.87955010e-01 8.43200982e-02 -1.14517003e-01
      9.07065988e-01 -1.56582999e+00 -6.60529971e-01 -1.77853000e+00
      1.82799995e-02 -4.14127016e+00 -4.87197995e-01 -2.90854001e+00
      -9.11895990e-01 -1.54242003e+00 -1.14288002e-01 -1.00845002e-01
      -1.49181998e+00 -2.03021002e+00 -2.78741002e+00 -1.61075997e+00
      -1.73583996e+00 -1.15746999e+00 -1.80841005e+00 -3.01020002e+00
      -1.86484003e+00 -2.53158998e+00 3.92437011e-01 3.03249002e-01
      1.31463003e+00 5.56237996e-01 2.11464000e+00 4.13059998e+00
      1.72678006e+00 7.53080988e+00 2.57206988e+00 5.08783007e+00
      -2.65197992e+00 7.36033010e+00 -2.99288988e+00 8.64498043e+00
      -2.18329000e+00 6.38336992e+00 -1.34665000e+00 2.81602001e+00
      -1.56631005e+00 1.42409003e+00 -1.52587995e-03 2.40551996e+00
      -1.37938997e-02 2.10774994e+00 -1.15857005e+00 6.61179006e-01
      -5.24902018e-03 -7.85377979e-01 3.30123991e-01 -1.11120999e+00
      -9.66995001e-01 -2.31201005e+00 -1.15645003e+00 -1.20700002e+00
      -1.81823999e-01 -1.15163004e+00 -1.50498998e+00 -1.11281002e+00 0.
      0. 9.48547006e-01 1.29495001e+00 7.00622976e-01 1.29137003e+00
      -6.85593009e-01 1.11436999e+00 7.12059021e-01 -8.06960985e-02
      -1.80634007e-01 -8.52584988e-02 6.69799984e-01 1.13387001e+00
      4.52560008e-01 1.29610002e+00 -9.52620983e-01 1.28412998e+00 0. 0.
      -9.57611024e-01 -8.81804973e-02 -6.93175972e-01 -8.43734965e-02
      -4.28986013e-01 -2.93249989e+00 -1.85303998e+00 -2.77940011e+00
      -2.10215998e+00 -2.70032001e+00 -1.14260995e+00 -2.74440002e+00
      -1.67952999e-01 -2.68900990e+00 -4.06325996e-01 -3.93242002e+00
      -1.82561004e+00 -4.10991001e+00 -1.55973995e+00 -4.20525980e+00
      -1.31922996e+00 -3.11067009e+00 -2.27782011e+00 -3.13268995e+00
      -2.07966995e+00 -3.11331010e+00 -6.91811025e-01 -3.05202007e+00
      -5.36559999e-01 -1.77674997e+00 -2.09956002e+00 -2.88212991e+00
      -1.13209999e+00 -4.05031013e+00 -1.32255995e+00 -2.87923002e+00
      -1.73505998e+00 -2.93474007e+00 -1.29787004e+00 -4.01961994e+00
      -2.28114009e+00 -2.90125990e+00 -2.08301997e+00 -2.88188004e+00</_>
    <_>
      1.73036003e+01 -7.34118986e+00 1.66643009e+01 -1.37995996e+01
      1.60667992e+01 -2.03024006e+01 1.10861998e+01 -2.22933006e+01
      6.09486008e+00 -2.43528004e+01 5.59559011e+00 -2.76798000e+01
      6.21190977e+00 -3.00335007e+01 3.39702010e+00 -3.24705009e+01
      4.82056999e+00 -3.51851006e+01 6.11108017e+00 -3.46823006e+01
      7.12552977e+00 -3.19655991e+01 8.01235962e+00 -2.58595009e+01
      9.86623001e+00 -1.96798000e+01 7.16835022e+00 -1.66672993e+01
      3.34325004e+00 -1.36113005e+01 1.77347004e+00 -8.38527966e+00
      1.72241002e-01 -4.17482996e+00 1.89506996e+00 1.25187998e+01
      1.80603004e+00 1.43737001e+01 1.92314005e+00 1.39823999e+01
      -6.75200969e-02 1.36822004e+01 2.24350005e-01 1.33716002e+01
      -2.89794993e+00 1.18572998e+01 -2.81534004e+00 1.25783997e+01
      -2.70626998e+00 1.22046003e+01 -2.50095010e+00 1.07681999e+01
      1.11942005e+00 6.10760021e+00 -5.25635004e-01 2.22161007e+00
      -1.76529005e-01 1.25457001e+00 1.32711995e+00 1.40618002e+00
      6.00601017e-01 1.59235001e+00 -5.31265020e-01 -2.41293001e+00
      -3.88702005e-01 -2.53795004e+00 8.63541007e-01 -2.71450996e+00
      2.01096010e+00 -2.93957996e+00 3.13280010e+00 -3.15520000e+00 0.
      0. 1.09411001e+00 8.36215973e-01 1.21657997e-01 5.90637028e-01
      4.02267009e-01 -6.41327024e-01 3.07098001e-01 -2.60251999e+00
      1.31364000e+00 -1.25532997e+00 1.93308997e+00 -1.55881000e+00
      1.86371005e+00 -7.38258004e-01 8.82354975e-01 1.19129002e-01 0. 0.
      1.09205997e+00 -3.12648010e+00 9.70932007e-01 -2.86427999e+00
      -6.80502987e+00 -2.05764999e+01 3.35561991e+00 -5.41912985e+00
      3.45898008e+00 -1.32949993e-01 2.48918009e+00 -2.92434990e-01
      2.49953008e+00 -1.62802005e+00 1.49377000e+00 -7.40318012e+00
      1.04362001e+01 -2.54778996e+01 4.49036002e-01 -4.05975990e+01
      -6.69357002e-01 -4.47238007e+01 1.51633000e+00 -4.45243988e+01
      3.61507010e+00 -4.32369003e+01 3.43097997e+00 -3.63825989e+01
      -4.50092983e+00 -2.07254009e+01 3.57316995e+00 -3.40140009e+00
      2.59445000e+00 -2.45795989e+00 1.49414003e+00 -5.99899006e+00
      9.30280972e+00 -2.42453003e+01 1.36047006e-01 -4.26381989e+01
      1.21073997e+00 -4.24303017e+01 2.20651007e+00 -4.11515999e+01</_>
    <_>
      1.74239993e-01 -4.62798998e-02 1.90750003e-01 -1.28920996e+00
      1.58715993e-01 -1.49103999e+00 1.19719997e-01 -1.69296002e+00
      5.29709011e-02 -1.89524996e+00 -4.19273004e-02 -2.07013011e+00
      -1.20637000e+00 -2.24535990e+00 -3.16002011e-01 -2.35158992e+00
      5.24719000e-01 -1.33340001e+00 3.22784007e-01 -1.29439998e+00
      -8.87192011e-01 -1.17850995e+00 1.35040004e-02 2.79540997e-02
      -9.99298021e-02 2.00073004e-01 -1.20667005e+00 -6.54983997e-01
      -1.95449993e-01 -4.47066993e-01 8.29575002e-01 -1.28073001e+00
      1.88250995e+00 -1.07922006e+00 1.16430998e+00 2.27257991e+00
      2.12820005e+00 2.38261008e+00 9.47124004e-01 4.50594997e+00
      -2.33230993e-01 4.48332024e+00 -3.43658000e-01 2.34281993e+00
      1.41297996e+00 2.37311006e+00 2.32192993e+00 1.39207006e+00
      1.12041998e+00 2.43866992e+00 9.82116997e-01 2.39515996e+00
      9.07119989e-01 1.99577004e-01 5.40809989e-01 1.11143005e+00
      -4.99168009e-01 9.79552984e-01 -4.97420996e-01 8.47617984e-01
      -4.95644003e-01 7.15682983e-01 7.14362979e-01 -4.48852986e-01
      6.31278992e-01 -4.70795006e-01 -5.07346988e-01 5.48843026e-01
      -5.90987980e-01 -4.73159999e-01 -1.72316003e+00 -4.60433990e-01 0.
      0. 9.50583994e-01 1.10994995e+00 1.88805997e+00 1.11546004e+00
      -3.05382013e-01 1.03074002e+00 8.47671986e-01 -3.03955004e-02
      9.65816021e-01 -3.57819013e-02 3.05602998e-01 -2.87628011e-03
      -8.48067999e-01 5.81969991e-02 -9.59151983e-01 5.67093007e-02 0.
      0. 8.38927999e-02 -4.05501984e-02 1.94901004e-01 -3.21197994e-02
      8.50234985e-01 -7.45682001e-01 7.17315972e-01 -6.71065986e-01
      -4.42963004e-01 -6.37862980e-01 -5.12206972e-01 -6.52664006e-01
      -5.95794976e-01 -6.32950008e-01 -7.06299007e-01 -1.72477996e+00
      -8.37418020e-01 -7.40341008e-01 3.30475003e-01 -8.28979015e-01
      -5.99395990e-01 -8.83010983e-01 -5.15983999e-01 -8.88854980e-01
      -4.39621001e-01 -8.87848020e-01 7.12616026e-01 2.03917995e-01
      7.94861019e-01 -7.60330021e-01 -4.41482991e-01 -7.48978019e-01
      -5.10810971e-01 -7.56835997e-01 -5.94223022e-01 -7.50992000e-01
      -7.81692982e-01 -7.53494024e-01 -6.01135015e-01 2.90648997e-01
      5.30914009e-01 -7.56882012e-01 -4.41368014e-01 -7.55919993e-01</_>
    <_>
      3.10924006e+00 -3.22250009e-01 2.81742001e+00 7.44736016e-01
      2.52504992e+00 5.10666013e-01 4.84281015e+00 3.24279994e-01
      4.49013996e+00 1.46225005e-01 4.10369015e+00 9.31091011e-02
      1.07413006e+00 9.78699028e-02 7.58620977e-01 -3.71990991e+00
      -8.60641003e-01 -3.51746011e+00 -1.10494995e+00 -1.89529002e+00
      -1.23450005e+00 1.09050000e+00 -1.27698004e+00 2.76866007e+00
      -2.49312997e+00 1.78195000e+00 -1.02029002e+00 2.12760997e+00
      -8.07648003e-01 2.41701007e+00 -5.74890018e-01 2.68776989e+00
      -3.32091987e-01 2.94915009e+00 3.07642007e+00 -1.27499998e+00
      3.00893998e+00 -1.02505004e+00 2.80768991e+00 4.82232988e-01
      3.89838004e+00 6.58401012e-01 4.94221020e+00 2.10478997e+00
      -4.66839981e+00 3.63396001e+00 -4.72551012e+00 1.23359001e+00
      -3.56871009e+00 1.46073997e+00 -2.41037011e+00 3.28599989e-01
      -2.62511992e+00 3.59512001e-01 -7.13989019e-01 1.98354995e+00
      -8.44588995e-01 5.22284985e-01 3.44574004e-01 -9.19395030e-01
      -1.10501003e+00 -2.41959000e+00 1.61519003e+00 1.22473001e+00
      1.46713004e-01 1.28706002e+00 7.52258021e-03 5.85631989e-02
      -1.42438996e+00 1.50098002e+00 -1.47807002e+00 3.24126989e-01 0.
      0. -6.46132976e-02 1.72389999e-01 1.12391996e+00 -9.87755001e-01
      8.99643004e-01 3.53599995e-01 9.53880012e-01 2.83153009e+00
      -1.86187997e-01 1.36220002e+00 -9.75098014e-01 -4.14635003e-01
      -1.01163006e+00 -2.12086007e-01 -1.14304996e+00 -7.13042989e-02 0.
      0. 2.49939002e-02 1.16606998e+00 -1.17289996e+00 2.31615996e+00
      9.24100018e+00 1.00698004e+01 6.56534004e+00 6.27184010e+00
      2.54171991e+00 3.74454999e+00 -1.54688001e+00 3.76849008e+00
      -4.27837992e+00 3.85222006e+00 -7.13514996e+00 6.54320002e+00
      -8.73995972e+00 1.18824997e+01 -7.30396986e+00 6.38161993e+00
      -3.20193005e+00 2.30930996e+00 -1.73174000e+00 -4.32861000e-01
      2.32797003e+00 8.52921009e-01 6.44571018e+00 3.46131992e+00
      1.04912996e+01 8.81488037e+00 1.13791001e+00 3.63452005e+00
      -3.40743989e-01 5.02669001e+00 -4.37244987e+00 3.77109003e+00
      -8.64988995e+00 9.17687988e+00 -4.34267998e+00 1.12147999e+00
      -2.91473001e-01 1.05729997e+00 3.78783989e+00 1.02328002e+00</_>
    <_>
      -1.27210999e+00 -3.58451992e-01 -1.50795996e+00 -1.54753006e+00
      -5.30281007e-01 -2.72783995e+00 -1.97976995e+00 -3.90827990e+00
      -9.93754983e-01 -3.83130002e+00 -1.18671000e+00 -3.71047997e+00
      -2.54129004e+00 -4.73308992e+00 -5.04857016e+00 -4.52423000e+00
      -3.87187004e+00 -4.25377989e+00 -5.06996012e+00 -2.77822995e+00
      -6.20673990e+00 -1.23627000e-01 -4.86371994e+00 8.69750977e-02
      -3.46790004e+00 1.44161999e+00 -2.04535007e+00 2.72663999e+00
      -3.00598001e+00 2.76334000e+00 -1.54809999e+00 3.81660014e-01
      -9.89684984e-02 1.60575998e+00 -2.20725989e+00 2.18418002e+00
      1.52863002e+00 4.71698999e+00 3.95461011e+00 8.49752998e+00
      5.11453009e+00 1.22863998e+01 7.46185017e+00 1.00508003e+01
      -8.18607998e+00 1.39884996e+01 -5.70785999e+00 1.53773003e+01
      -4.46943998e+00 1.19462996e+01 -2.09597993e+00 8.51480961e+00
      1.99279994e-01 5.03038979e+00 6.56737983e-02 1.78155005e+00
      -1.27879000e+00 5.66971004e-01 -2.13653997e-01 5.65948009e-01
      -3.61999989e-01 -6.48697019e-01 -5.00487983e-01 -8.15581977e-01
      -5.27236998e-01 -7.37227976e-01 -5.45379996e-01 -1.84618998e+00
      -5.28625011e-01 -1.75003004e+00 -5.11916995e-01 -4.48974997e-01 0.
      0. -1.13564003e+00 8.78105015e-02 7.69957975e-02 -9.86023009e-01
      -1.20732999e+00 3.40492010e-01 -3.65143009e-02 2.18009993e-01
      -3.55606005e-02 -1.11781001e+00 2.63977004e-03 -3.66668999e-01
      -1.13326001e+00 9.60898995e-01 -1.13419998e+00 -1.12999000e-01 0.
      0. -1.24774003e+00 -1.05080001e-01 -3.32183987e-02 -2.35970005e-01
      -3.26661992e+00 -3.43741012e+00 -3.15405989e+00 -3.30565000e+00
      -1.88913000e+00 -3.16552997e+00 -1.91605997e+00 -3.06094003e+00
      5.10284007e-01 -2.94734001e+00 1.65294003e+00 -2.79935002e+00
      1.53838003e+00 -2.65175009e+00 2.73467988e-01 -5.21033001e+00
      -9.56511974e-01 -6.56377983e+00 -9.55688000e-01 -6.67724991e+00
      -2.15095997e+00 -6.79069996e+00 -2.11508989e+00 -5.71656990e+00
      -3.25833011e+00 -3.37625003e+00 -2.01133990e+00 -4.37126017e+00
      -8.16039979e-01 -4.25781012e+00 -8.08075011e-01 -4.15299988e+00
      1.53889000e+00 -2.72162008e+00 3.88076991e-01 -4.15305996e+00
      -8.16009998e-01 -5.47141981e+00 -8.06487978e-01 -5.57609987e+00</_>
    <_>
      1.86104000e-01 -4.73573017e+00 -4.39101994e-01 -3.47325993e+00
      -2.26430988e+00 -3.55353999e+00 -1.53406000e+00 -3.42531991e+00
      -2.13667011e+00 -2.01047993e+00 -2.60052991e+00 -1.73003995e+00
      -2.98159003e+00 -1.26785004e+00 -3.16812992e+00 -2.03958011e+00
      -3.29022002e+00 -1.43657994e+00 -3.24447989e+00 -8.11492980e-01
      -1.76664996e+00 -2.00653002e-01 -1.44421005e+00 2.68738002e-01
      -2.28435993e+00 4.88968015e-01 -1.65471995e+00 -6.44851983e-01
      -1.28406000e+00 2.05089998e+00 -7.38463998e-01 2.12275004e+00
      -1.13280997e-01 8.60260010e-01 5.08381009e-01 -3.04961991e+00
      6.94832027e-01 -1.46677005e+00 -4.26239014e-01 -2.43627000e+00
      7.89856017e-01 -1.94521999e+00 6.11481011e-01 -1.56315005e+00
      5.78796029e-01 -9.91080999e-01 6.96945012e-01 -5.91296971e-01
      8.23471010e-01 -1.47117996e+00 -5.84320009e-01 -1.15495002e+00
      -9.69910026e-01 3.95233005e-01 -9.81171012e-01 -2.68011999e+00
      -1.04202002e-01 -1.31587005e+00 -4.42672998e-01 -1.33910000e+00
      -8.76296997e-01 -7.27157965e-02 -1.18875003e+00 -4.55444008e-01
      -2.47105002e+00 -1.65957999e+00 -1.32242000e+00 -8.87909010e-02
      -1.21297002e+00 -1.16304004e+00 -1.15114999e+00 -9.84145999e-01 0.
      0. 1.29271996e+00 1.61113000e+00 -1.18255997e-02 1.79155004e+00
      -1.25475001e+00 -6.02844000e-01 -1.31454002e-02 -7.91541994e-01
      1.29139996e+00 -9.71953988e-01 1.34987998e+00 -6.86752021e-01
      1.27338004e+00 2.16357994e+00 -5.21697998e-02 2.34122992e+00 0. 0.
      -5.35125993e-02 -2.41859004e-01 1.27203000e+00 -4.19487000e-01
      -3.11536002e+00 -2.27811003e+00 -1.62535000e+00 -1.92174995e+00
      -1.53815997e+00 -1.61144996e+00 -1.53359997e+00 -2.69949007e+00
      -1.57246006e+00 -1.18903995e+00 -1.71879995e+00 -8.88091981e-01
      -1.94630003e+00 -6.19216979e-01 -2.12296009e+00 -8.98635983e-01
      -2.18918991e+00 -1.20622003e+00 -2.20355010e+00 -1.42158997e+00
      -3.44177008e+00 -1.74471998e+00 -2.02956009e+00 -1.93233001e+00
      -1.82138002e+00 -2.05432010e+00 -1.79269004e+00 -1.62363005e+00
      -1.91548002e+00 -1.24191001e-01 -1.82701004e+00 -1.20120001e+00
      -1.92974997e+00 -7.45148003e-01 -5.58364987e-01 -1.10886002e+00
      -1.86230004e+00 -1.41934001e+00 -1.81368995e+00 -1.62638998e+00</_>
    <_>
      2.99178988e-01 -2.87624002e+00 1.57621002e+00 -3.14657998e+00
      7.17190027e-01 -2.30904007e+00 8.63463998e-01 -3.66368008e+00
      -1.13620996e-01 -5.02334976e+00 -9.33227986e-02 -6.43724012e+00
      -1.15815997e+00 -5.66248989e+00 -2.25900006e+00 -3.80633998e+00
      -2.80167013e-01 -3.02283001e+00 -5.20569026e-01 -2.12753010e+00
      2.44797006e-01 -2.18534994e+00 -8.84705037e-02 -2.18412995e+00
      6.60309017e-01 -2.13246012e+00 3.77929986e-01 -1.97426999e+00
      1.11359000e-01 -1.78775001e+00 -1.33148000e-01 -1.59507000e+00
      -1.46993995e+00 -2.43779993e+00 7.98835978e-02 -7.64572024e-01
      9.26986992e-01 2.96871006e-01 7.18239009e-01 1.24870002e+00
      5.56510985e-01 1.04617000e+00 4.58175987e-01 8.04450989e-01
      -7.89184988e-01 1.70377004e+00 -1.05341005e+00 5.56882977e-01
      -1.26335001e+00 4.07379001e-01 -3.18176001e-01 1.67177007e-01
      -3.07738990e-01 -7.24219978e-02 4.83231008e-01 -5.08255005e-01
      6.56174004e-01 -6.83052003e-01 -2.27691993e-01 2.42614999e-01
      -2.60162000e-02 1.13883996e+00 -8.97948980e-01 1.65497005e-01
      -9.67926025e-01 -1.01226997e+00 4.73632999e-02 -1.14708996e+00
      1.03635001e+00 -1.50330007e-01 -1.45538002e-01 -1.67052999e-01 0.
      0. 9.39391971e-01 1.02087998e+00 7.88794994e-01 -1.74858004e-01
      -3.26889008e-01 -3.25141996e-01 8.99712026e-01 -2.81531990e-01
      -4.26101983e-02 -1.35665998e-01 -7.59796023e-01 -7.46749997e-01
      1.65114999e-01 2.74811000e-01 -1.06406999e+00 -8.99039984e-01 0.
      0. 1.10321000e-01 -1.04135001e+00 -8.38927984e-01 -8.87916982e-01
      5.56877017e-01 -1.09869003e+00 1.47993004e+00 -1.19289005e+00
      2.67746001e-01 -1.23720002e+00 1.29820001e+00 -1.35825002e+00
      2.29470992e+00 -3.54584008e-01 1.12943995e+00 -4.80773985e-01
      1.01400995e+00 -1.69986999e+00 1.21091998e+00 -1.67294002e+00
      3.01651001e-01 -1.59386003e+00 1.44101000e+00 -2.63300991e+00
      4.60631996e-01 -1.44920003e+00 4.89639014e-01 -2.37076998e+00
      5.18333018e-01 -1.14754999e+00 3.50418001e-01 -1.32806003e+00
      1.36710000e+00 -1.43394005e+00 1.29879999e+00 -4.23523009e-01
      1.06631005e+00 -1.66614997e+00 1.24128997e+00 -2.56562996e+00
      2.88498014e-01 -1.41208005e+00 3.43535990e-01 -1.32047999e+00</_>
    <_>
      -3.08871007e+00 -2.65820003e+00 -2.72710991e+00 9.01108012e-02
      -2.35667992e+00 2.86905003e+00 4.79979992e-01 4.53852987e+00
      9.83482003e-01 6.28394985e+00 -7.38391995e-01 5.71922016e+00
      -2.23652005e+00 5.35529995e+00 -2.29365993e+00 9.78088006e-02
      -4.57853985e+00 -1.49865997e+00 -5.40945005e+00 5.65398991e-01
      -4.86528015e+00 6.24633980e+00 -6.62484980e+00 8.08071995e+00
      -8.28304958e+00 8.42638016e+00 -7.41625977e+00 8.44165039e+00
      -5.33401012e+00 9.56579971e+00 -7.17804015e-01 6.94055986e+00
      -1.09937000e+00 6.65259981e+00 -8.79257023e-01 -8.33734989e+00
      4.48075008e+00 -4.24468994e+00 4.70044994e+00 1.23130000e+00
      3.61809993e+00 4.26344013e+00 1.12186003e+00 7.33860016e+00
      -1.01874006e+00 5.66737986e+00 -6.68945014e-01 3.77530003e+00
      -4.31641012e-01 6.88395977e-01 -3.35662991e-01 -1.16362000e+00
      7.40845025e-01 -3.06630993e+00 -5.35278022e-01 2.97385001e+00
      -9.13344979e-01 6.28349006e-01 -2.57102990e+00 -5.18783987e-01
      -4.25937986e+00 -1.65707004e+00 -1.11861996e-01 4.21168995e+00
      -2.57339001e+00 2.00281000e+00 -3.76645994e+00 1.08651996e+00
      -4.85818005e+00 3.85602999e+00 -5.89642000e+00 5.31649017e+00 0.
      0. -9.08645988e-01 -9.65164006e-01 -7.53189027e-01 -1.80610001e+00
      -9.03320014e-01 1.12301004e+00 -1.12004006e+00 1.98160005e+00
      -1.27550995e+00 2.82249999e+00 -1.63707995e+00 7.42034987e-02
      -1.27611995e+00 -8.59176993e-01 7.77283013e-02 -4.20466989e-01 0.
      0. -2.80258000e-01 3.39784002e+00 -1.59351003e+00 1.72012997e+00
      9.46572971e+00 9.01156998e+00 7.45589018e+00 1.05532999e+01
      3.83468986e-01 9.60820007e+00 -4.49130011e+00 8.69250011e+00
      -9.22294998e+00 8.96280956e+00 -1.66751995e+01 1.18754997e+01
      -1.80195999e+01 9.97459030e+00 -1.82653008e+01 -3.98537993e+00
      -9.84023952e+00 -1.16897001e+01 -3.80718994e+00 -1.31980000e+01
      9.97497976e-01 -1.22952003e+01 8.30552959e+00 -6.50891018e+00
      9.53759956e+00 7.99575996e+00 9.72137004e-02 7.23617983e+00
      -4.75687981e+00 7.54185009e+00 -9.54979038e+00 7.82986021e+00
      -1.93104992e+01 8.48943043e+00 -9.39976978e+00 -1.06226997e+01
      -4.63750982e+00 -1.09019003e+01 2.16628999e-01 -1.12075005e+01</_>
    <_>
      -7.51150012e-01 4.95350981e+00 -1.19275999e+00 3.36923003e+00
      -5.75132012e-01 2.98216009e+00 -1.06663001e+00 1.47166002e+00
      -5.00560999e-01 1.18888998e+00 -2.10398006e+00 -2.37830997e+00
      -4.02350992e-01 -5.68164015e+00 2.44522005e-01 -9.98299980e+00
      2.01057005e+00 -1.17990999e+01 1.60576999e+00 -1.23718004e+01
      9.05456990e-02 -7.29160023e+00 -1.44821003e-01 -2.11879992e+00
      -2.33336997e+00 7.14447021e-01 -2.07421994e+00 1.29451001e+00
      -2.83658004e+00 1.81140006e+00 -1.34469998e+00 3.49098992e+00
      -3.18054008e+00 5.04321003e+00 1.00538003e+00 -1.24427004e+01
      9.80618000e-01 -9.73653030e+00 -4.53307986e-01 -8.26187992e+00
      -3.05802011e+00 -9.16831970e+00 -4.63625002e+00 -1.01030998e+01
      6.04343987e+00 -9.30827999e+00 3.55093002e+00 -7.77649021e+00
      2.06329012e+00 -5.17281008e+00 5.58791995e-01 -6.05767012e+00
      -9.54132020e-01 -8.33500004e+00 2.10022002e-01 -3.30029988e+00
      -2.07519997e-02 -3.55757999e+00 9.02450979e-01 -4.92234993e+00
      6.19597971e-01 -4.08109999e+00 1.63821006e+00 -3.54391003e+00
      1.46631002e+00 -3.47672009e+00 1.31429005e+00 -4.47929001e+00
      6.77032024e-02 -4.34052992e+00 -7.30590969e-02 -3.01738000e+00 0.
      0. 1.21231005e-02 -1.91140997e+00 -2.84453988e-01 -5.35552979e-01
      -6.98723018e-01 -5.12192011e-01 -5.36827028e-01 3.07343006e-01
      -1.40851998e+00 2.28423998e-02 -1.59543002e+00 -7.59796023e-01
      6.12213016e-01 -2.87932992e-01 3.76525998e-01 -1.15737998e+00 0.
      0. 5.43670990e-02 8.28979015e-01 -8.02963018e-01 5.60570002e-01
      2.29805994e+00 -1.19057000e+00 4.49283981e+00 -3.01392007e+00
      2.19303989e+00 -6.15240002e+00 2.02832007e+00 -7.20148993e+00
      -3.57757986e-01 -5.93921995e+00 -1.86268997e+00 -3.58124995e+00
      -4.58976984e+00 -1.25147998e+00 -2.13835001e+00 -3.85628009e+00
      1.48206997e+00 -6.29811001e+00 2.78235006e+00 -7.56585979e+00
      2.91991997e+00 -6.57942009e+00 4.25645018e+00 -4.43405008e+00
      4.44518995e+00 -1.01266003e+00 1.99675000e+00 -5.21468019e+00
      1.88240004e+00 -7.33182001e+00 5.98205984e-01 -6.07848978e+00
      -4.46109009e+00 -1.36684000e+00 1.74651003e+00 -8.34879017e+00
      3.00747991e+00 -8.47144032e+00 3.18270993e+00 -8.59955978e+00</_>
    <_>
      1.03039999e+01 -1.67858005e+00 1.03361998e+01 -4.39535999e+00
      7.87628984e+00 -7.09419012e+00 7.58113003e+00 -7.28115988e+00
      6.88836002e+00 -9.67206001e+00 6.67653990e+00 -1.07618999e+01
      6.08507013e+00 -1.15637999e+01 5.17044020e+00 -1.08673000e+01
      3.82720995e+00 -1.15289001e+01 2.59067011e+00 -1.37299004e+01
      4.35546994e-01 -1.48992996e+01 -2.57361007e+00 -1.45059004e+01
      -4.14828014e+00 -1.59476995e+01 -5.21985006e+00 -1.37135000e+01
      -7.01202011e+00 -1.12707005e+01 -8.81569958e+00 -8.74454021e+00
      -9.35284042e+00 -5.06475019e+00 8.08304012e-01 -5.40877998e-01
      -1.80721998e+00 -6.78544998e+00 -3.60818005e+00 -1.02989998e+01
      -4.27947998e+00 -1.19006996e+01 -2.43990993e+00 -1.26555004e+01
      4.38300991e+00 -1.27333002e+01 3.90416002e+00 -1.22559004e+01
      2.16927004e+00 -1.00039997e+01 4.41605002e-01 -6.80390978e+00
      -3.11059999e+00 -2.11022997e+00 3.08159995e+00 -8.03031996e-02
      3.23106003e+00 -2.79279995e+00 2.15493989e+00 -4.33371019e+00
      3.40392995e+00 -5.91547012e+00 5.35364008e+00 -3.48696995e+00
      3.38170004e+00 -5.07743979e+00 3.71203995e+00 -6.54172993e+00
      5.02288997e-01 -5.24979019e+00 -3.10303003e-01 -3.90372992e+00 0.
      0. 1.20676005e+00 -2.95067000e+00 2.17354989e+00 -3.00760007e+00
      3.40847993e+00 8.46015990e-01 2.20998001e+00 1.73336005e+00
      4.45862003e-02 1.76328003e+00 -2.47586012e+00 2.61833012e-01
      -1.29611003e+00 -1.49026000e+00 -2.34405994e-01 -1.61921000e+00 0.
      0. 9.44167972e-01 1.93875003e+00 -1.32755995e+00 2.12415004e+00
      -1.62457001e+00 -1.08641005e+01 3.91405010e+00 -5.18375015e+00
      3.70438004e+00 -3.80730009e+00 2.84755993e+00 -5.38216019e+00
      6.69479012e-01 -4.08599997e+00 1.87179995e+00 -4.62090015e+00
      8.17564011e+00 -1.36767998e+01 2.22434998e+00 -1.21997995e+01
      2.25150990e+00 -1.24840002e+01 3.27600002e+00 -1.25136995e+01
      4.23918009e+00 -1.10943003e+01 5.43401003e+00 -1.05053997e+01
      9.34448019e-02 -1.08181000e+01 3.79172993e+00 -3.44338989e+00
      2.91202998e+00 -4.85129976e+00 7.72385001e-01 -4.83723021e+00
      5.20909023e+00 -1.23843002e+01 2.15610003e+00 -1.21687002e+01
      3.12421989e+00 -1.34084997e+01 5.19101000e+00 -1.18900995e+01</_>
    <_>
      2.89672995e+00 3.45027995e+00 2.86638999e+00 3.04079008e+00
      3.93561006e+00 3.77635002e+00 3.84460998e+00 3.35170007e+00
      3.72328997e+00 1.76682997e+00 3.51096010e+00 -9.47890997e-01
      3.19247007e+00 -2.42656994e+00 1.63794005e+00 -2.63889003e+00
      -7.56835984e-03 -2.68436003e+00 -5.08041024e-01 -2.63889003e+00
      -2.12325001e+00 -1.29672003e+00 -1.38769996e+00 -1.02373004e+00
      -5.30822992e-01 5.00487983e-01 -1.81235003e+00 9.40276980e-01
      -1.88818002e+00 2.35076994e-01 -7.88635015e-01 1.83510005e+00
      3.56384009e-01 2.27490997e+00 3.33651990e-01 -7.05223024e-01
      9.10034031e-02 -1.69860995e+00 -2.12334007e-01 -2.85880995e+00
      1.80475998e+00 -4.11001015e+00 1.54693997e+00 -4.24650002e+00
      -3.10912997e-01 -3.05595994e+00 5.45958996e-01 -1.77443004e+00
      2.42660999e-01 -2.84365010e+00 1.08438003e+00 -5.53569973e-01
      8.11371028e-01 1.61518002e+00 5.30853011e-02 1.25119996e+00
      6.82526007e-02 9.17549014e-01 8.34044963e-02 -5.61142027e-01
      9.86023024e-02 2.65410990e-01 3.86734009e-01 6.82526007e-02
      2.35091999e-01 -1.15261996e+00 6.82677999e-02 -1.21329999e+00
      -1.13724001e-01 -1.15261996e+00 -1.42560995e+00 5.30700982e-02 0.
      0. -2.12326005e-01 -3.35928011e+00 7.05208004e-01 -3.37443995e+00
      4.92882013e-01 1.08437002e+00 -4.39826995e-01 1.05403996e+00
      -1.97159007e-01 -9.09958035e-02 6.82479978e-01 1.09955001e+00
      -6.90063000e-01 -2.21424007e+00 2.27477998e-01 -3.35928011e+00 0.
      0. 1.97144002e-01 1.06921005e+00 -7.20382988e-01 2.21424007e+00
      -5.30807018e-01 -1.71376002e+00 4.01917011e-01 -4.32235986e-01
      2.19909996e-01 -3.56400013e-01 5.31006008e-02 7.58285999e-01
      -1.44058004e-01 8.03786993e-01 -3.56384009e-01 7.27950990e-01
      5.30822992e-01 -5.38390994e-01 -3.71551991e-01 -6.59729004e-01
      -1.59225002e-01 -1.86543000e+00 3.79180983e-02 -3.04079008e+00
      2.04758003e-01 -1.88059998e+00 3.86734009e-01 -1.83510005e+00
      -6.21788025e-01 -1.71376002e+00 1.36494005e+00 6.52114987e-01
      1.19814003e+00 6.36977971e-01 -1.44058004e-01 6.67297006e-01
      6.21810973e-01 -5.38390994e-01 -1.44058004e-01 -4.92920011e-01
      1.19814003e+00 -1.68342996e+00 1.36494005e+00 -1.65311003e+00</_>
    <_>
      1.41375005e+00 -1.12066996e+00 1.38982999e+00 -2.38968000e-01
      2.44977999e+00 6.57211006e-01 1.29736996e+00 1.51575994e+00
      2.31956005e+00 2.42585993e+00 2.20488000e+00 2.24326992e+00
      -1.31174004e+00 5.35577011e+00 -2.60221004e+00 5.23849010e+00
      -3.93201995e+00 5.19501019e+00 -3.05102992e+00 4.14211988e+00
      -3.27792001e+00 5.33983994e+00 -2.33989000e+00 3.28650999e+00
      -2.43442011e+00 1.25751996e+00 -2.50716996e+00 1.45744002e+00
      -2.53552008e+00 5.74325979e-01 -1.45773005e+00 8.12904000e-01
      -1.43368995e+00 -1.17546999e+00 1.89804003e-01 1.69666007e-01
      -1.01684999e+00 2.71506995e-01 1.04556000e+00 -7.79232025e-01
      -2.16804996e-01 -8.28405023e-01 7.03971982e-01 2.35946998e-01
      -6.93695009e-01 2.12978005e-01 2.46582001e-01 2.83360988e-01
      -1.00260997e+00 -8.04876029e-01 -6.03027008e-02 -8.09213996e-01
      -1.29086006e+00 1.74365997e-01 -5.24520993e-01 -1.06107998e+00
      -5.21317005e-01 -1.18062997e+00 -5.10390997e-01 -1.30745995e+00
      -1.60573995e+00 -1.44932997e+00 -3.90076011e-01 -5.04088998e-01
      -4.49295014e-01 -5.28151989e-01 -5.38650990e-01 5.61172009e-01
      -5.98923028e-01 -5.24689019e-01 -6.66778982e-01 -5.04104972e-01 0.
      0. -1.19797003e+00 5.72356991e-02 -1.32497001e+00 5.38025014e-02
      -3.28171015e-01 -3.13339010e-02 -2.15065002e-01 -6.56433031e-02
      -8.80507976e-02 -6.21947981e-02 -7.76901007e-01 -2.85567995e-02
      -8.84154975e-01 6.57616034e-02 -1.01115000e+00 6.23168983e-02 0.
      0. 8.38318020e-02 -5.75485006e-02 -8.87955010e-01 -6.89544976e-02
      -2.46101007e-01 -8.51607978e-01 -3.67653012e-01 -7.80121028e-01
      -4.51157004e-01 -1.83675003e+00 -5.25375009e-01 -7.54517019e-01
      -5.78185976e-01 -1.84016001e+00 3.94881994e-01 -7.74398983e-01
      2.54851997e-01 2.53722996e-01 -7.07503974e-01 -9.31396008e-01
      -1.70089996e+00 -9.73327994e-01 -5.27176023e-01 -9.63927984e-01
      -4.74976003e-01 1.44164994e-01 -3.63586009e-01 -9.29565012e-01
      -3.05862010e-01 -8.53209972e-01 -4.63577002e-01 -8.27591002e-01
      5.75469971e-01 -8.14391971e-01 4.93149012e-01 2.90084988e-01
      3.22005987e-01 -8.43689024e-01 -6.05239987e-01 2.60268986e-01
      -5.37810981e-01 2.54622996e-01 -4.63164985e-01 -8.42544973e-01</_>
    <_>
      9.53157008e-01 7.17861986e+00 1.53415000e+00 7.51848984e+00
      9.29623008e-01 7.89393997e+00 3.64578009e-01 7.18311977e+00
      9.13489997e-01 5.39779997e+00 1.73454002e-01 3.79046988e+00
      4.51691002e-01 1.34618998e+00 -4.47815001e-01 1.34827003e-01
      -1.41156006e+00 4.13910002e-01 -3.37877989e+00 8.47809017e-01
      -2.84921002e+00 4.81292993e-01 -4.40926981e+00 1.33239996e+00
      -4.57800007e+00 3.42499995e+00 -4.43369007e+00 4.38051987e+00
      -5.40317011e+00 7.51273012e+00 -5.23098993e+00 9.55860043e+00
      -4.89642000e+00 1.04987001e+01 2.09229994e+00 -3.13779998e+00
      1.80943000e+00 -1.39028001e+00 1.25345004e+00 -9.23954010e-01
      4.91905004e-01 4.69651997e-01 -2.54069996e+00 3.83384991e+00
      9.67101991e-01 5.51605988e+00 -6.51672006e-01 3.79403996e+00
      -1.27110004e+00 1.98450994e+00 -1.96914995e+00 -8.68225023e-02
      -3.51256996e-01 -3.53766990e+00 -5.34668006e-02 6.83295012e+00
      -3.13567996e-01 6.22196007e+00 -5.73669016e-01 5.61099005e+00
      2.40646005e-01 5.01173019e+00 1.76476002e+00 5.40938997e+00
      2.97973990e-01 5.40070009e+00 -1.21255004e+00 5.44336987e+00
      -1.53810000e+00 5.68039989e+00 -1.79642999e+00 4.81934023e+00 0.
      0. -1.17499006e+00 -8.52431011e+00 5.25536001e-01 -6.03993988e+00
      7.72423029e-01 5.05108976e+00 -1.00309002e+00 3.56966996e+00
      -2.74312997e+00 2.17155004e+00 2.15301998e-02 4.83604002e+00
      -2.21625996e+00 -5.87658978e+00 6.93054020e-01 -7.78100014e+00 0.
      0. 2.11165994e-01 2.95433998e+00 -4.30725008e-01 2.72568989e+00
      7.96927989e-01 1.67165005e+00 1.47397995e+00 5.52005005e+00
      -1.34429997e-02 5.84815979e+00 -3.54492009e-01 4.79267979e+00
      -2.88029003e+00 4.96254015e+00 -3.50243998e+00 6.06718016e+00
      -7.55173028e-01 2.83429003e+00 -1.53087997e+00 6.77622986e+00
      -2.23586988e+00 7.57825994e+00 3.53165001e-01 7.47992992e+00
      7.26013005e-01 7.35403013e+00 2.31973004e+00 6.17365980e+00
      5.74913025e-01 3.97059989e+00 9.82345998e-01 5.59813023e+00
      5.58197021e-01 6.78249979e+00 -3.10528994e+00 6.86909008e+00
      -5.88379025e-01 4.96773005e+00 -1.97946000e+00 6.92455006e+00
      -5.16234994e-01 6.77078009e+00 9.82345998e-01 5.59813023e+00</_>
    <_>
      -1.23617005e+00 5.55978012e+00 -9.86696005e-01 5.75288010e+00
      3.60145986e-01 6.92804003e+00 -4.04532999e-01 7.12682009e+00
      -1.04822004e+00 1.04191999e+01 -7.13141978e-01 1.04846001e+01
      7.31682003e-01 1.25386000e+01 3.01902008e+00 8.25876045e+00
      4.25612020e+00 5.94397020e+00 4.39691019e+00 4.62563992e+00
      2.31458998e+00 3.30927992e+00 2.27965999e+00 2.98049998e+00
      2.15215993e+00 1.62858999e+00 9.65026975e-01 2.43651009e+00
      7.49114990e-01 2.20534992e+00 5.68481028e-01 3.00089002e+00
      -6.52312994e-01 3.84689999e+00 6.80561006e-01 -9.70619023e-01
      -1.43763006e+00 -2.16962004e+00 -1.36300004e+00 -4.43353987e+00
      -1.23502004e+00 -6.65044022e+00 -9.90127981e-01 -5.72313976e+00
      3.43778992e+00 -5.09989977e+00 3.56084991e+00 -4.28014994e+00
      2.68766999e+00 -3.39825010e+00 8.56171012e-01 -1.38452005e+00
      -9.88143981e-01 -2.69360006e-01 3.64223003e+00 3.70029002e-01
      4.90872002e+00 2.56469989e+00 6.15346003e+00 3.71744990e+00
      7.39142990e+00 4.87777996e+00 3.22695994e+00 7.32484007e+00
      3.33133006e+00 7.26797009e+00 4.41208982e+00 5.09955978e+00
      4.46317005e+00 4.99567986e+00 3.50173998e+00 5.96222019e+00 0. 0.
      -1.08585000e+00 -3.22044992e+00 2.16747999e+00 -2.39445996e+00
      1.46787000e+00 3.80819988e+00 1.39661002e+00 3.93496990e+00
      -1.85672998e+00 3.10897994e+00 -1.89025998e-01 3.42947006e+00
      -3.06167990e-01 -1.90919995e+00 8.07159007e-01 -3.09387994e+00 0.
      0. 2.11836004e+00 3.16324997e+00 9.68918025e-01 3.30688000e+00
      -6.97411001e-01 9.92963028e+00 3.47889996e+00 9.63315964e+00
      4.49031019e+00 6.35384989e+00 3.56034994e+00 6.32550001e+00
      2.54099011e+00 5.20910978e+00 2.70925999e+00 6.17711020e+00
      7.88909972e-01 6.18895006e+00 2.82543993e+00 5.27049017e+00
      3.87513995e+00 7.44989014e+00 4.87259007e+00 8.56052971e+00
      6.88819981e+00 9.61481953e+00 3.66056991e+00 1.08162003e+01
      3.76327991e-01 9.84105968e+00 5.67306995e+00 8.47459030e+00
      3.65741992e+00 7.42030001e+00 3.73044991e+00 7.32221985e+00
      7.70447016e-01 7.27659988e+00 3.73133993e+00 7.33653021e+00
      4.73549986e+00 8.43953037e+00 5.70920992e+00 9.51566029e+00</_>
    <_>
      1.22916996e+00 2.57869005e+00 1.59176004e+00 2.04191995e+00
      1.92411005e+00 1.50896001e+00 1.16434002e+00 1.02079999e+00
      2.53535008e+00 1.48601997e+00 1.47891998e+00 9.58359003e-01
      1.38745999e+00 1.45336998e+00 2.17895007e+00 8.47473025e-01
      1.77956998e+00 1.45798004e+00 1.16393006e+00 -2.31323000e-02
      1.79768002e+00 1.90863001e+00 4.85229008e-02 8.76694024e-01
      -4.97406006e-01 1.05262995e+00 9.40247029e-02 1.30086994e+00
      -3.95172000e-01 1.68463004e+00 -9.59502995e-01 9.80072021e-01
      -1.44491994e+00 1.39407003e+00 1.14529002e+00 6.24031007e-01
      -4.65912014e-01 -4.09832001e-01 2.16071993e-01 -6.64240003e-01
      -1.15820003e+00 1.91294000e-01 -2.40591002e+00 9.54185009e-01
      2.43274999e+00 5.57518005e-02 -1.80450007e-01 3.03096995e-02
      -6.65130973e-01 -2.48819995e+00 -8.69324028e-01 -2.89248991e+00
      -8.61968994e-01 -3.32329988e+00 -2.63000011e-01 -9.34246004e-01
      -2.12402008e-02 -1.21020997e+00 2.33733997e-01 -1.50317001e+00
      4.88692999e-01 -1.79615998e+00 1.10275000e-01 -7.12387025e-01
      -2.01721005e-02 -8.95614982e-01 1.01655996e+00 -3.53545994e-02
      7.54378974e-01 -1.26909006e+00 1.66315997e+00 -1.42911005e+00 0.
      0. -3.40103000e-01 -1.87491998e-02 -5.33439994e-01 8.88267994e-01
      4.79178995e-01 4.54246998e-01 7.56981015e-01 5.88294983e-01
      -7.61642009e-02 8.61648977e-01 -4.60770011e-01 6.71905994e-01
      -8.79745007e-01 -4.65427011e-01 -2.01568995e-02 -7.72804022e-01 0.
      0. 2.43773997e-01 1.07612997e-01 -6.15799010e-01 4.14986014e-01
      -1.05105996e+00 1.16811001e+00 -2.84438998e-01 2.20041990e+00
      5.03418028e-01 2.05558991e+00 3.11127007e-01 7.66997993e-01
      1.23313999e+00 5.89950979e-01 2.20608997e+00 2.06970006e-01
      3.32015991e+00 8.27270985e-01 2.67680001e+00 3.22620010e+00
      2.91114998e+00 3.38105989e+00 1.91788006e+00 2.50002003e+00
      2.06153989e+00 2.66619992e+00 1.13769996e+00 2.95095992e+00
      -7.80258030e-02 1.03072000e+00 6.48833990e-01 1.86842000e+00
      1.53546000e+00 5.52093983e-01 3.52050990e-01 1.58322001e+00
      4.57999992e+00 1.99728000e+00 2.71283007e+00 3.63621998e+00
      1.70257998e+00 2.74193001e+00 1.85944998e+00 2.89113998e+00</_>
    <_>
      -1.91170007e-01 3.92506003e+00 1.19108999e+00 1.78646004e+00
      1.47386003e+00 1.99951005e+00 1.78192997e+00 3.37157011e+00
      3.25613999e+00 3.50652003e+00 2.41682005e+00 3.58026004e+00
      2.74109006e+00 2.34824991e+00 1.92079997e+00 3.40942001e+00
      2.18728995e+00 2.00763011e+00 2.40732002e+00 1.68169999e+00
      1.35523999e+00 1.34223998e+00 2.58679008e+00 9.53383982e-01
      1.35483003e+00 6.29104972e-01 2.36580992e+00 1.48561001e+00
      9.73632991e-01 1.24454999e+00 7.49328971e-01 9.86411989e-01
      5.08513987e-01 7.46070981e-01 -3.83197993e-01 -1.07716000e+00
      -4.01005000e-01 -1.57137007e-01 -1.40496004e+00 8.16217005e-01
      -1.17938006e+00 1.81324005e+00 -9.42902029e-01 1.70147002e+00
      -6.60721004e-01 2.60190010e+00 -1.72609997e+00 1.19746995e+00
      -1.57082999e+00 -1.91565007e-01 -2.52055001e+00 -1.48853004e+00
      -1.11227000e+00 -2.68295002e+00 5.19362986e-01 5.73810995e-01
      -4.96674001e-01 7.48543024e-01 -3.18892986e-01 2.08242989e+00
      -1.49872005e-01 2.23949003e+00 2.16245008e+00 1.32984996e+00
      1.09560001e+00 1.29163003e+00 1.21324003e+00 1.21856999e+00
      1.00631997e-01 1.10472000e+00 1.64885998e-01 9.82039988e-01 0. 0.
      -1.10503995e+00 1.02863002e+00 2.12807000e-01 2.05433011e+00
      1.55946004e+00 8.19221020e-01 3.02475005e-01 9.85588014e-01
      -9.80620980e-01 2.31290007e+00 -3.29391003e-01 3.90152007e-01
      8.82492006e-01 1.65268004e-01 1.00644004e+00 3.18298005e-02 0. 0.
      1.13037002e+00 1.30393997e-01 -1.69815004e-01 2.89763987e-01
      1.16659999e+00 1.82173002e+00 3.49808000e-02 1.65699995e+00
      1.26523995e+00 1.46581995e+00 1.40829003e+00 1.38326001e+00
      1.48845994e+00 1.22567999e+00 2.81540990e+00 -7.74689019e-02
      3.03586006e+00 1.01426995e+00 2.99193001e+00 1.22207999e+00
      2.92132998e+00 1.40512002e+00 1.63830996e+00 1.56384003e+00
      1.52197003e+00 1.67124999e+00 1.33645999e+00 5.95382988e-01
      1.24152005e+00 2.92740011e+00 1.39731002e+00 2.72404003e+00
      1.49660003e+00 1.44871998e+00 2.77953005e+00 2.45852995e+00
      2.97803998e+00 1.07650995e+00 2.77074003e+00 1.28176999e+00
      2.67279005e+00 1.42280996e+00 2.57348990e+00 2.69809008e+00</_>
    <_>
      1.71585000e+00 -7.64464974e-01 1.46662998e+00 -1.88104999e+00
      1.09528995e+00 -2.94077992e+00 7.23957002e-01 -2.99438000e+00
      2.21060991e+00 -3.99099994e+00 2.47174001e+00 -4.74547005e+00
      1.53946996e+00 -4.25792980e+00 5.02609015e-01 -6.46898985e+00
      -1.65108001e+00 -7.38629007e+00 -2.76259995e+00 -8.95053005e+00
      -2.72830009e+00 -7.29054022e+00 -4.47642994e+00 -7.48755980e+00
      -4.91845989e+00 -6.50356007e+00 -5.97646999e+00 -7.40744019e+00
      -4.91985989e+00 -6.28568983e+00 -4.87552023e+00 -4.18996000e+00
      -4.76705980e+00 -1.10052001e+00 -2.94513011e+00 -5.44649982e+00
      -2.42341995e+00 -5.85972977e+00 -1.44072995e-01 -5.55041981e+00
      5.48706017e-02 -5.63583016e-01 2.67257988e-01 3.31473994e+00
      1.04693997e+00 2.64683008e+00 1.36477995e+00 2.79063992e-02
      1.65784001e+00 -3.72543001e+00 2.90117002e+00 -4.74923992e+00
      1.31461000e+00 -2.15120006e+00 1.54585004e+00 1.78491998e+00
      1.42796004e+00 1.69312000e-01 1.34215999e+00 -1.45251000e+00
      2.22417998e+00 -4.10626984e+00 3.85132003e+00 5.32532018e-03
      3.47979999e+00 -2.03482008e+00 2.07013988e+00 -2.05662990e+00
      -3.14590007e-01 -9.11942005e-01 -1.64874005e+00 -1.72150004e+00 0.
      0. -3.80867004e-01 -1.57244003e+00 1.05385005e+00 -1.46077001e+00
      1.46599996e+00 2.33612001e-01 9.80461001e-01 2.01202011e+00
      -4.54268992e-01 1.90033996e+00 -5.16799986e-01 6.50345027e-01
      -9.55627024e-01 -8.77605021e-01 4.85320985e-01 -1.73994005e+00 0.
      0. 3.41583014e-01 2.71925998e+00 -1.09317005e+00 2.60757995e+00
      9.32285023e+00 4.19271994e+00 9.87662983e+00 4.77938986e+00
      5.38865995e+00 2.11700010e+00 9.48333979e-01 3.03716993e+00
      -4.44228983e+00 3.23990989e+00 -1.20094995e+01 3.10840988e+00
      -1.26738005e+01 1.76490998e+00 -1.30951996e+01 -1.25664997e+01
      -5.58378983e+00 -1.87602997e+01 -1.74575999e-01 -1.88668003e+01
      5.27290010e+00 -1.69353008e+01 9.78464985e+00 -1.09596996e+01
      1.00846996e+01 2.29433990e+00 5.31421995e+00 7.25997984e-01
      8.92486989e-01 7.36266971e-01 -4.51671982e+00 8.42788994e-01
      -1.34109001e+01 -1.23885000e+00 -5.49071980e+00 -1.52608004e+01
      -8.77228007e-02 -1.43933001e+01 5.33385992e+00 -1.34295998e+01</_>
    <_>
      -1.85640007e-01 -6.03868008e+00 -1.55389994e-01 -1.13846998e+01
      -5.32356024e-01 -1.32189999e+01 -2.06671000e+00 -1.51837997e+01
      -2.51952004e+00 -1.71165009e+01 -4.62832022e+00 -1.57268000e+01
      -5.76256990e+00 -1.43242998e+01 -7.09882021e+00 -1.29323997e+01
      -4.17778015e+00 -9.88708019e+00 -2.55991006e+00 -8.00924969e+00
      3.18511993e-01 -9.38022995e+00 7.49008000e-01 -1.07897997e+01
      1.22005999e+00 -1.31858997e+01 2.94555992e-01 -1.30455999e+01
      -6.77155018e-01 -1.15544996e+01 -3.60962003e-01 -1.10902004e+01
      -2.69713998e-01 -8.22828960e+00 3.77021998e-01 -4.91025019e+00
      -3.12613994e-01 -3.90385008e+00 -9.40765023e-01 -2.05398989e+00
      -2.50925994e+00 -1.59553003e+00 -1.67252004e+00 1.85050994e-01
      1.58813000e-01 8.69350016e-01 -2.08771005e-01 -8.27326000e-01
      -4.65820014e-01 -2.57214999e+00 -5.57067990e-01 -4.38926983e+00
      -3.79058987e-01 -6.19220018e+00 -1.24163997e+00 -5.61828971e-01
      -1.64895999e+00 -3.31890011e+00 -9.89731014e-01 -4.77244997e+00
      -1.39705002e+00 -7.52947998e+00 -7.38556027e-01 -8.45650959e+00
      -8.82552981e-01 -7.55642986e+00 -9.35684025e-01 -7.82923985e+00
      6.27135998e-03 -7.96659994e+00 -1.21840999e-01 -9.34006977e+00 0.
      0. -9.10827994e-01 6.80245018e+00 -3.52031994e+00 6.24231005e+00
      -1.58008003e+00 -3.56140995e+00 -1.45494998e+00 -8.88809025e-01
      -4.60433997e-02 -4.07478005e-01 -2.80350000e-01 -2.56446004e+00
      -1.64382994e-01 5.52588987e+00 -1.72737002e+00 7.37842989e+00 0.
      0. -2.04755998e+00 5.00031002e-02 -5.75438976e-01 -6.29570007e-01
      4.26434994e+00 -9.40503979e+00 2.74930000e+00 -1.09076996e+01
      -3.39813009e-02 -1.02587996e+01 -1.19330001e+00 -1.18507004e+01
      -2.11669996e-01 -1.19723997e+01 -2.75829005e+00 -1.14595003e+01
      -1.67544997e+00 -1.07222004e+01 -2.45865989e+00 -2.24909992e+01
      1.77425003e+00 -2.54034996e+01 7.77007997e-01 -2.52420998e+01
      2.09453011e+00 -2.48195992e+01 3.97334003e+00 -1.82742004e+01
      5.42824984e+00 -1.06408997e+01 -9.42611992e-01 -1.04976997e+01
      -9.56619024e-01 -1.19867001e+01 -6.58264011e-02 -1.09355001e+01
      -3.87029004e+00 -1.19386997e+01 1.47467005e+00 -2.63404999e+01
      1.76888001e+00 -2.72733002e+01 5.97869992e-01 -2.59027004e+01</_>
    <_>
      -1.81211996e+00 -4.49771023e+00 -2.18852997e+00 -3.46115994e+00
      -8.12102973e-01 -1.60854995e+00 -2.93228000e-01 -6.59927011e-01
      -6.22355998e-01 1.07234001e+00 7.60078013e-01 1.79833996e+00
      1.21120000e+00 3.27978992e+00 7.40294993e-01 3.77338004e+00
      2.73666000e+00 3.26470995e+00 2.85560989e+00 3.56664991e+00
      1.91740000e+00 3.00534010e+00 8.58214974e-01 1.64585996e+00
      1.39365995e+00 -5.11887014e-01 9.59563971e-01 -1.71038997e+00
      1.34106004e+00 -4.56902981e+00 8.64562988e-01 -5.64259005e+00
      3.60260010e-01 -5.84463978e+00 3.41441989e-01 -8.40406036e+00
      8.83904025e-02 -6.15673018e+00 8.60442966e-02 -4.84461021e+00
      -6.25710011e-01 -2.65537000e+00 -2.99745011e+00 4.33788002e-01
      3.18584991e+00 -1.17500000e-01 2.37214994e+00 -1.42466998e+00
      7.51617014e-01 -1.84130001e+00 1.59881994e-01 -3.90766001e+00
      5.73013008e-01 -5.74614000e+00 2.01995999e-01 -1.37129998e+00
      5.02807975e-01 -2.13471007e+00 -6.34154975e-02 -2.89348006e+00
      2.60452002e-01 -4.51451015e+00 -3.82483989e-01 -3.05746007e+00
      5.87707996e-01 -3.27484012e+00 1.56252003e+00 -2.62520003e+00
      2.47249007e+00 -3.72844005e+00 1.66699004e+00 -4.83157015e+00 0.
      0. 1.68924999e+00 3.18958998e+00 3.54995988e-02 2.91650009e+00
      2.44972005e-01 -1.60290003e+00 2.25113004e-01 -4.80994999e-01
      1.01654994e+00 -2.17140004e-01 6.12578988e-01 -1.85132003e+00
      5.63431025e-01 3.03060007e+00 -2.00240999e-01 2.77617002e+00 0. 0.
      -8.63723993e-01 -1.49287999e+00 7.62283027e-01 -1.22923005e+00
      1.12097001e+00 -1.54724002e+00 9.97771978e-01 -2.79509997e+00
      9.71741021e-01 -3.12906003e+00 2.84137011e+00 -2.47468996e+00
      2.87067008e+00 -3.62434006e+00 3.11786008e+00 -3.89657998e+00
      2.59064007e+00 -2.40178990e+00 4.36924982e+00 4.03377008e+00
      3.45885992e+00 7.82615995e+00 2.51624990e+00 8.09930038e+00
      1.54129004e+00 9.21152973e+00 5.10520995e-01 6.87391996e+00
      2.01197004e+00 4.77905013e-02 2.08408999e+00 -4.38643992e-01
      2.18726993e+00 -1.53232002e+00 3.12993002e+00 -1.80548000e+00
      1.65810001e+00 -1.41457999e+00 3.15334010e+00 5.12614012e+00
      2.21532989e+00 6.26633978e+00 1.24047995e+00 6.49760008e+00</_>
    <_>
      8.87734032e+00 1.05797994e+00 6.50078011e+00 3.31169009e-01
      6.44830990e+00 -1.35013998e+00 6.39583015e+00 -3.03146005e+00
      7.35592985e+00 -5.71758986e+00 5.37818003e+00 -6.10001993e+00
      5.24109983e+00 -6.12986994e+00 2.50746012e+00 -8.39873981e+00
      2.84781003e+00 -8.77155018e+00 -2.56774992e-01 -8.84842014e+00
      -2.11382008e+00 -7.06989002e+00 -4.64005995e+00 -6.06664991e+00
      -4.47798014e+00 -4.58100986e+00 -5.04953003e+00 -2.87125993e+00
      -5.43024015e+00 -1.19429004e+00 -5.88074017e+00 5.33996999e-01
      -6.21011019e+00 2.28081012e+00 3.79899001e+00 3.29070997e+00
      2.98848009e+00 3.14893007e+00 2.80521011e+00 3.65208006e+00
      1.41244996e+00 3.43885994e+00 2.09625006e-01 1.81163001e+00
      -6.12960994e-01 6.49856985e-01 -8.69965017e-01 2.21297002e+00
      -2.16016006e+00 2.13941002e+00 -3.44990993e+00 2.64138007e+00
      -4.01901007e+00 1.50071001e+00 2.40997002e-01 2.87882996e+00
      3.38012993e-01 1.84013999e+00 5.49773991e-01 -1.50944996e+00
      7.39104986e-01 -3.72922993e+00 8.91036987e-01 -2.46649003e+00
      1.43384004e+00 -2.65785003e+00 7.86301017e-01 -2.88093996e+00
      -1.02813995e+00 -2.88422990e+00 -5.72661996e-01 -1.52190995e+00 0.
      0. 7.30812013e-01 -4.13774014e+00 3.20362997e+00 -2.76760006e+00
      2.04778004e+00 2.41174006e+00 1.50644004e+00 4.55990982e+00
      1.54128999e-01 3.27276993e+00 -2.56433010e+00 4.43252993e+00
      -1.70561004e+00 -3.08530998e+00 -1.68777004e-01 -4.16036987e+00 0.
      0. 1.47312999e+00 4.54596996e+00 -2.36529994e+00 5.44572020e+00
      2.18477988e+00 -3.86203003e+00 1.36936998e+00 -4.37642002e+00
      1.63782001e+00 -3.99007010e+00 -1.39437997e+00 -3.26787996e+00
      -2.08825994e+00 -3.18815994e+00 -1.75989997e+00 -3.59827995e+00
      -1.32463002e+00 -4.30192995e+00 -5.55510998e-01 -3.48477006e+00
      1.76497996e-01 -2.42540002e+00 -2.68676996e-01 -2.46697998e+00
      1.56926000e+00 -2.21216011e+00 2.42092991e+00 -3.09108996e+00
      1.83466005e+00 -4.98691988e+00 1.57376003e+00 -2.41508007e+00
      -1.30167997e+00 -3.87344003e+00 -8.56536984e-01 -3.83183002e+00
      -1.99881005e+00 -5.44981003e+00 -9.39513981e-01 -2.71131992e+00
      -2.64144987e-01 -2.66990995e+00 1.43020999e+00 -1.30385995e+00</_>
    <_>
      -5.31541014e+00 9.15231991e+00 -2.72655010e+00 7.92165995e+00
      -2.37250996e+00 7.65036011e+00 -9.43522990e-01 8.54790974e+00
      -4.08809990e-01 8.19519043e+00 3.62594992e-01 7.69239998e+00
      -1.02003002e+00 8.01471043e+00 -1.09958994e+00 6.06824017e+00
      -1.16755998e+00 4.89130020e+00 -2.55176997e+00 5.54358006e+00
      -8.10638011e-01 6.14071989e+00 -1.32923996e+00 6.48811007e+00
      -8.44299018e-01 5.68284988e+00 -7.30742991e-01 5.90658998e+00
      1.52100003e+00 5.14934015e+00 3.78848004e+00 3.27329993e+00
      4.66213989e+00 4.66649008e+00 -5.29570007e+00 -1.66366994e+00
      -3.88799000e+00 -2.21273994e+00 -2.13681006e+00 -2.48179007e+00
      8.24005008e-01 -2.46083999e+00 1.47871006e+00 -1.25286996e+00
      -1.88107002e+00 -1.80752003e+00 -9.98856008e-01 -4.35210991e+00
      8.71200979e-01 -4.38130999e+00 1.52904999e+00 -3.14214993e+00
      9.84650016e-01 -2.77549005e+00 -8.14208984e-02 -8.17992985e-01
      -1.04007995e+00 -1.46332002e+00 -8.23531985e-01 -3.12126994e+00
      -6.53931022e-01 -3.65727997e+00 3.86780000e+00 4.05260992e+00
      9.51004028e-01 2.71738005e+00 -7.28164971e-01 3.63128990e-01
      -2.74527001e+00 2.25997996e+00 -4.70906019e+00 3.09722996e+00 0.
      0. -5.38856983e-01 -3.70976996e+00 6.85120001e-03 -4.88246012e+00
      2.55890012e-01 -1.39888000e+00 7.63512015e-01 1.03941000e+00
      -7.13523984e-01 -5.70526011e-02 -1.21843004e+00 -8.67142022e-01
      -6.04140997e-01 -4.53309011e+00 9.85351980e-01 -4.53374004e+00 0.
      0. 6.51260018e-01 1.33800995e+00 -2.03218007e+00 1.25734997e+00
      1.35883999e+01 1.61149998e+01 9.81116009e+00 1.32426004e+01
      1.63962996e+00 1.01728001e+01 -2.35571003e+00 9.87182999e+00
      -7.49199009e+00 9.33685017e+00 -1.38038998e+01 1.33234997e+01
      -1.54306002e+01 1.43783998e+01 -1.47404003e+01 -1.66182995e+00
      -9.21238995e+00 -8.67187977e+00 -1.81325996e+00 -9.13057995e+00
      3.27919006e+00 -8.71712017e+00 1.10656996e+01 -1.54898000e+00
      1.50911999e+01 1.39518003e+01 2.71518993e+00 1.16566000e+01
      -2.29595995e+00 1.01492004e+01 -8.60433960e+00 1.06581001e+01
      -1.54048996e+01 1.11188002e+01 -7.18780994e+00 -7.91089010e+00
      -2.00451994e+00 -8.49787998e+00 3.11909008e+00 -8.08763027e+00</_>
    <_>
      -4.24416006e-01 7.61573970e-01 4.81159002e-01 1.50188005e+00
      -9.95274007e-01 1.03454995e+00 -6.42357022e-02 -6.15112007e-01
      -4.55745995e-01 -1.00896001e+00 -9.47661996e-01 -1.25107002e+00
      -1.46187997e+00 -3.75535989e+00 -8.04992974e-01 -6.18301010e+00
      -1.35555005e+00 -7.19537020e+00 -6.51825011e-01 -6.84210014e+00
      -1.03116000e+00 -5.17267990e+00 -3.73984003e+00 -3.53505993e+00
      -5.08743000e+00 -3.02249002e+00 -5.07242012e+00 -1.27842999e+00
      -6.07523012e+00 -7.53432989e-01 -3.53136992e+00 2.19495010e+00
      -3.33440995e+00 2.71989012e+00 -1.69406998e+00 -4.73903990e+00
      -1.77675998e+00 -6.76174021e+00 -9.58114982e-01 -4.08249998e+00
      -2.61092997e+00 -3.61393005e-01 -3.06100011e+00 8.73969972e-01
      3.53467989e+00 2.51787996e+00 2.07494998e+00 3.85288000e-01
      5.83145022e-01 -3.01728010e+00 2.08098993e-01 -4.10965014e+00
      1.01352000e+00 -2.98455000e+00 4.32891995e-02 1.91771996e+00
      -8.32061991e-02 3.94050986e-01 -1.84203997e-01 -2.31980991e+00
      -3.10698986e-01 -3.84344006e+00 4.63977003e+00 1.78941000e+00
      2.05026007e+00 5.91567993e-01 -5.39276004e-01 -6.06276989e-01
      -5.53927994e+00 6.64107978e-01 -6.94151020e+00 3.17720008e+00 0.
      0. -1.25082004e+00 -5.78474998e+00 8.66385996e-01 -4.41398001e+00
      1.69597006e+00 3.63036990e-01 6.66823983e-01 1.37908006e+00
      -1.49338996e+00 2.40627003e+00 -1.70395994e+00 -3.80591989e-01
      -1.75658000e+00 -6.12228012e+00 3.52600008e-01 -4.76907015e+00 0.
      0. 9.25597996e-02 3.42995000e+00 -1.99916005e+00 8.68979990e-01
      9.48431969e+00 4.60469007e+00 9.24042988e+00 4.90666008e+00
      4.22121000e+00 3.82862997e+00 3.63433987e-01 5.01922989e+00
      -5.81888008e+00 3.88215995e+00 -1.10057001e+01 7.46771002e+00
      -1.49386997e+01 4.98726988e+00 -1.21773996e+01 -2.44000006e+00
      -7.09767008e+00 -4.96767998e+00 -2.04660010e+00 -6.21900988e+00
      4.16768980e+00 -6.21146011e+00 9.26842976e+00 -5.00108004e+00
      8.19678020e+00 3.44495010e+00 4.10619020e+00 6.06862020e+00
      2.81937003e-01 6.08658981e+00 -4.76923990e+00 7.33786011e+00
      -1.36001997e+01 3.76656008e+00 -5.75891018e+00 -7.15508986e+00
      -7.33307004e-01 -7.21618986e+00 4.30672979e+00 -8.39879990e+00</_>
    <_>
      1.49862003e+00 -2.66478986e-01 1.33942997e+00 -1.69949996e+00
      1.26802003e+00 -4.31275988e+00 1.01390004e+00 -4.51647997e+00
      -4.50893015e-01 -4.77064991e+00 -7.47291982e-01 -4.85538006e+00
      2.07892999e-01 -5.97658014e+00 -2.89993007e-02 -7.10381985e+00
      8.56612980e-01 -6.82516003e+00 5.92148006e-01 -6.55487013e+00
      -9.32601988e-01 -3.92284989e+00 -1.08887005e+00 -2.38544989e+00
      -1.12836003e+00 -8.47778022e-01 1.24450997e-01 7.52213001e-01
      -8.90594006e-01 9.63684022e-01 -7.06757009e-01 1.24898005e+00
      -5.13518989e-01 1.52730000e+00 -1.21854997e+00 4.66197014e+00
      -1.13826001e+00 3.70586991e+00 -8.92333984e-02 4.00822020e+00
      8.06786001e-01 5.42294979e+00 5.59036016e-01 5.52050018e+00
      -3.32094002e+00 5.52496004e+00 -9.71161008e-01 4.73957014e+00
      -1.06124997e+00 3.75042009e+00 -2.46277004e-02 2.75783992e+00
      9.24468994e-01 2.82878995e+00 -7.67745972e-01 2.99208999e+00
      -8.05694997e-01 1.64341998e+00 -8.50661993e-01 2.85385013e-01
      -9.85747993e-01 1.23970002e-01 -8.66882026e-01 -1.38549995e+00
      -1.05755997e+00 -1.28402993e-01 -1.16509998e+00 -7.72551969e-02
      -1.15691996e+00 -1.16895998e+00 -1.22953999e+00 -1.07100999e+00 0.
      0. 1.07100999e+00 1.47349000e+00 -1.87500000e-01 3.14853996e-01
      -3.95301998e-01 3.09722990e-01 -2.99263000e-01 1.65138006e-01
      1.04243004e+00 1.17850997e-01 -9.12383974e-01 7.68653989e-01
      -9.43221986e-01 9.81087029e-01 -1.09530997e+00 1.10918999e+00 0.
      0. -1.14256001e+00 -2.32506007e-01 2.06116006e-01 -2.70446986e-01
      1.64152002e+00 -5.33478022e+00 -9.55856025e-01 -2.90009999e+00
      -1.04030001e+00 -2.72046995e+00 -1.16418004e+00 -2.67168999e+00
      -1.22977996e+00 -2.56441998e+00 -2.55352998e+00 -3.79094005e+00
      -2.61612010e+00 -6.17767000e+00 -1.53635001e+00 -3.90198994e+00
      -3.15093994e-01 -2.77377009e+00 -1.50593996e+00 -1.75348997e+00
      -1.38666999e+00 -1.82799995e+00 -1.12821996e+00 -3.09192991e+00
      3.86391014e-01 -5.36667013e+00 -1.06424999e+00 -4.05041981e+00
      -1.25734997e+00 -2.77695990e+00 -1.26313996e+00 -3.88738990e+00
      -2.64081001e+00 -5.02994013e+00 -1.36026001e+00 -2.70012999e+00
      -1.35451996e+00 -1.58971000e+00 -4.79735993e-02 -1.56702006e+00</_>
    <_>
      -2.90878010e+00 -3.03292990e+00 -2.89420009e+00 -1.48020005e+00
      -2.84048009e+00 -9.84054983e-01 -2.76355004e+00 5.83298028e-01
      -2.60205007e+00 1.01577997e+00 -3.41178989e+00 2.47942996e+00
      -3.05022001e+00 2.78479004e+00 -3.67635012e+00 4.05945015e+00
      -4.26555014e+00 4.12228012e+00 -3.76985002e+00 4.03750992e+00
      -3.36139989e+00 2.74271989e+00 -1.93762004e+00 2.40387011e+00
      -6.08062983e-01 4.14728022e+00 -4.82483000e-01 2.62363005e+00
      -4.19402987e-01 1.06977999e+00 7.07153022e-01 5.79940975e-01
      -3.63312006e-01 -9.65354979e-01 -3.60893011e-01 -2.41737008e+00
      -9.98459011e-02 -4.64446992e-01 1.28882003e+00 5.32720983e-01
      5.28603017e-01 5.82479000e-01 -2.53876001e-01 -3.76823008e-01
      2.89276004e-01 -4.00168985e-01 -4.81018007e-01 5.65954030e-01
      -1.71173006e-01 5.14917016e-01 1.17293999e-01 -4.83107001e-01
      3.37570012e-01 -2.84397006e-01 3.00446004e-02 2.08822989e+00
      2.61992998e-02 1.28077996e+00 -1.04905999e+00 4.80971992e-01
      -1.04507005e+00 7.60444999e-01 -1.36615002e+00 1.10669994e+00
      -1.21024001e+00 1.15102005e+00 -2.11804008e+00 2.27446008e+00
      -1.96326995e+00 2.24116993e+00 -1.81654000e+00 1.10540998e+00 0.
      0. -8.87337029e-01 -1.50288001e-01 -1.71010005e+00 -1.30684003e-01
      -1.48982000e+00 6.80236965e-02 -1.71439004e+00 1.18935001e+00
      -8.99284005e-01 9.83505026e-02 -6.43523991e-01 1.14287996e+00
      -4.29076999e-01 9.37907994e-01 -1.88521996e-01 -1.52579993e-01 0.
      0. -1.61575004e-01 1.18254995e+00 -4.09987986e-01 1.18611002e+00
      4.36134011e-01 2.78896999e+00 -2.53235006e+00 2.62204003e+00
      -2.29314995e+00 1.43840003e+00 -2.12169003e+00 1.48253000e+00
      -3.02297997e+00 1.44112003e+00 -2.78851008e+00 1.54646003e+00
      -5.74376011e+00 4.99763012e+00 -3.83990002e+00 6.18151999e+00
      -2.98523998e+00 6.22358990e+00 -2.10776997e+00 5.14719009e+00
      -2.29432988e+00 5.13434982e+00 -1.44860005e+00 4.01185989e+00
      5.44586003e-01 2.77189994e+00 -3.36162996e+00 3.80646992e+00
      -2.10393000e+00 3.79609990e+00 -3.00452995e+00 3.80128002e+00
      -5.86054993e+00 3.89677000e+00 -1.93269002e+00 3.82471991e+00
      -3.19040990e+00 3.83505011e+00 -2.29767990e+00 2.74291992e+00</_>
    <_>
      -3.52827013e-01 -2.26269007e+00 1.28452003e+00 -6.70853019e-01
      -1.13668001e+00 -1.69131005e+00 -8.02196980e-01 -1.34689003e-01
      -1.77041996e+00 5.17425984e-02 1.60217006e-02 2.79286003e+00
      4.76310998e-01 5.47736979e+00 2.24359989e+00 8.02863026e+00
      2.56831002e+00 7.74572992e+00 2.82302999e+00 7.39849997e+00
      1.94656000e-01 4.37851000e+00 1.47722995e+00 1.25074995e+00
      4.06139994e+00 8.05893004e-01 2.53305006e+00 4.77279991e-01
      9.51080024e-01 2.06970006e-01 2.09445000e+00 2.59356999e+00
      3.17092991e+00 2.31292009e+00 2.22298002e+00 -6.65626001e+00
      -4.55597013e-01 -6.85819006e+00 -1.61993003e+00 -7.06745005e+00
      -4.12694979e+00 -9.86814022e+00 -5.20957994e+00 -1.00023003e+01
      3.08586001e+00 -1.04284000e+01 3.25461006e+00 -9.34718990e+00
      2.10087991e+00 -8.23305035e+00 1.01801002e+00 -7.03211021e+00
      -9.19495001e-02 -8.35433006e+00 6.33102000e-01 -6.88445985e-01
      -5.14510989e-01 8.40529978e-01 -3.28002989e-01 2.34729004e+00
      -1.29760996e-01 3.86477995e+00 6.52180004e+00 4.10216999e+00
      3.93958998e+00 2.71826005e+00 2.69145012e+00 1.31206000e+00
      -1.20384002e+00 2.59715009e+00 -3.73105001e+00 5.20485020e+00 0.
      0. -1.86615009e-02 -4.19512987e+00 1.48792005e+00 -3.04659009e+00
      1.77767003e+00 9.24004018e-01 3.94226015e-01 3.78674006e+00
      -1.09010005e+00 3.97234011e+00 -1.67484999e+00 1.79789996e+00
      -1.71780002e+00 -2.44109988e+00 1.11237001e+00 -2.63820004e+00 0.
      0. 1.36355996e+00 4.16125011e+00 -9.85565037e-02 5.68098021e+00
      2.76841998e+00 7.43443012e+00 1.01691999e-01 5.90818977e+00
      1.48163006e-01 3.00049996e+00 -1.05443001e+00 2.94988990e+00
      -2.30553007e+00 2.81156993e+00 -4.70814991e+00 5.44775009e+00
      -5.79699993e+00 6.77231979e+00 -4.37431002e+00 1.23446999e+01
      -1.76496994e+00 1.38396997e+01 -5.48843026e-01 1.39457998e+01
      6.77978992e-01 1.40403004e+01 -9.20898020e-01 1.14932003e+01
      2.86578012e+00 8.68686008e+00 1.70064998e+00 7.12013006e+00
      -8.81591976e-01 5.73620987e+00 -2.09788990e+00 6.96515989e+00
      -8.51813984e+00 8.23262024e+00 -2.05339003e+00 9.63341999e+00
      -8.37127984e-01 8.40447998e+00 4.00299013e-01 9.82231045e+00</_>
    <_>
      1.53351998e+00 2.33550000e+00 1.74828994e+00 3.11725998e+00
      1.90846002e+00 2.84688997e+00 2.04925990e+00 2.58453012e+00
      1.12193000e+00 2.33806992e+00 1.15941000e+00 2.02324009e+00
      1.09652996e+00 6.66199028e-01 9.63286996e-01 -6.52679026e-01
      1.76682997e+00 -9.35393989e-01 4.88083005e-01 -4.78820987e-02
      1.93542004e-01 -8.01543966e-02 -7.00377971e-02 9.81247008e-01
      6.77612007e-01 1.03455997e+00 1.42913997e+00 1.11327998e-01
      1.16296005e+00 -7.39883006e-01 1.95682001e+00 -5.96831977e-01
      6.78223014e-01 -1.39624000e+00 -1.99268997e+00 -1.69195998e+00
      -1.31628001e+00 -4.80158997e+00 -5.43823004e-01 -5.99198008e+00
      3.76845986e-01 -4.15106010e+00 1.34855998e+00 -2.34031010e+00
      1.14853001e+00 -2.53868008e+00 8.22463989e-01 -5.73672009e+00
      1.66604996e+00 -5.92264986e+00 2.57291007e+00 -6.15290022e+00
      1.66912997e+00 -3.25299001e+00 3.70056003e-01 -1.52718997e+00
      4.92828012e-01 -1.66870999e+00 6.48055971e-01 -7.89741993e-01
      1.80978000e+00 -9.84916985e-01 2.22555995e+00 2.16689992e+00
      3.15240002e+00 9.98809993e-01 2.04508996e+00 9.31075990e-01
      9.07104015e-01 8.98773015e-01 8.10836971e-01 8.52463007e-01 0. 0.
      9.05646980e-01 9.71943021e-01 -2.81715006e-01 -1.32797003e-01
      1.77953994e+00 6.51062012e-01 8.77448976e-01 7.61413991e-01
      1.04433000e+00 1.89858997e+00 2.93121010e-01 -7.38036990e-01
      1.45659998e-01 2.75269002e-01 -1.84630998e-03 -8.69919002e-01 0.
      0. 1.22665003e-01 4.44489010e-02 2.37762004e-01 1.69120997e-01
      6.56075001e-01 3.07503009e+00 3.58162999e+00 2.93430996e+00
      2.39077997e+00 2.90573001e+00 2.29000998e+00 1.76389003e+00
      2.16637993e+00 1.70622003e+00 2.09614992e+00 1.55842996e+00
      4.03986979e+00 -7.24411011e-01 2.17072010e+00 -6.71752989e-01
      3.35965991e+00 -6.69586003e-01 3.51144004e+00 4.42061990e-01
      3.59823990e+00 5.42174995e-01 2.66904998e+00 1.77023005e+00
      2.62646008e+00 1.91937006e+00 2.44343996e+00 1.77293003e+00
      2.33034992e+00 6.45232975e-01 2.21901011e+00 5.73471010e-01
      4.12984991e+00 3.58458996e-01 4.28549004e+00 4.93515015e-01
      3.37021995e+00 6.04797006e-01 3.48325992e+00 1.73253000e+00</_>
    <_>
      7.11238003e+00 2.20881009e+00 5.91484022e+00 1.82418001e+00
      4.69731998e+00 3.03314000e-01 4.65182018e+00 -1.12668002e+00
      5.55661011e+00 -2.39425993e+00 5.04759979e+00 -4.81727982e+00
      3.91338992e+00 -4.75300980e+00 2.51388001e+00 -5.59890985e+00
      3.13805008e+00 -5.89026022e+00 3.29986989e-01 -5.96697998e+00
      -1.17069995e+00 -5.45792007e+00 -3.48631001e+00 -4.61633015e+00
      -3.27110004e+00 -2.16779995e+00 -2.58437991e+00 -6.22437000e-01
      -2.90732002e+00 8.04062009e-01 -4.46160984e+00 2.18343997e+00
      -5.91289997e+00 3.57849002e+00 4.71380997e+00 3.24861002e+00
      3.94650006e+00 4.13303995e+00 2.87713003e+00 3.31118011e+00
      1.69240999e+00 3.13053012e+00 6.81487978e-01 1.57968998e+00
      2.52501994e-01 -7.34504998e-01 1.89193994e-01 7.75518000e-01
      -2.26198006e+00 2.96685004e+00 -4.54367018e+00 3.47103000e+00
      -4.93746996e+00 1.32911003e+00 -3.21823001e-01 2.74435997e+00
      -2.39822000e-01 1.86085999e+00 1.13654995e+00 -1.23222005e+00
      1.37360007e-01 -3.37860990e+00 1.64748996e-01 -3.15482998e+00
      7.02880979e-01 -2.13286996e+00 1.52007997e-01 -2.32226992e+00
      -3.86658013e-01 -2.24624991e+00 -9.25261974e-01 -2.17025995e+00 0.
      0. -2.42363006e-01 -5.43931007e+00 3.52292991e+00 -3.97800994e+00
      1.12381005e+00 3.51818991e+00 1.73397005e+00 4.58627987e+00
      -9.10767019e-01 3.20797992e+00 -2.90047002e+00 4.38917017e+00
      -1.82481003e+00 -4.33656979e+00 9.10812020e-01 -4.13032007e+00 0.
      0. 1.37076998e+00 4.54848003e+00 -1.40417004e+00 5.52208996e+00
      1.06974006e+00 -1.83095002e+00 3.88893008e-01 -2.43549991e+00
      2.04770994e+00 -3.17519999e+00 -8.78754020e-01 -2.41793990e+00
      -1.46888995e+00 -2.34976006e+00 -1.02236998e+00 -2.68581009e+00
      -1.65711999e+00 -3.36233997e+00 -1.01552999e+00 -2.50030994e+00
      -4.05333996e-01 -1.43224001e+00 2.20612004e-01 -1.38946998e+00
